-2.855859e-01
-2.171128e-01
-2.736963e-01
1.145168e-01
-3.288737e-01
4.495451e-02
-1.450686e-01
-4.439656e-01
5.448709e-01
-1.445582e-01
4.126292e-01
-1.509799e-01
-1.552616e-01
-4.610790e-01
-2.368501e-01
-3.276565e-01
5.498570e-01
5.267677e-01
2.882104e-01
-1.947576e-01
1.269771e-01
5.186005e-04
-4.203097e-01
8.137251e-01
6.784497e-03
-1.543360e-01
1.711326e-01
4.167572e-01
5.881456e-01
-3.405804e-01
1.002377e-01
-1.090726e-01
-1.464111e-01
-2.130518e-01
5.669443e-01
1.312404e-01
-1.756619e-02
3.709422e-01
-7.019056e-03
-3.954078e-02
-1.299217e-01
3.013470e-01
3.939130e-02
-3.239172e-01
-2.337678e-01
-1.218180e-01
9.466578e-01
-2.570287e-02
7.581316e-01
-2.039543e-01
9.200722e-01
-2.594403e-01
-2.403852e-01
-1.608984e-01
-2.148665e-01
-3.632616e-01
-2.083061e-01
-5.779163e-01
-8.665855e-02
-2.748853e-01
-4.580988e-01
1.636804e-01
-1.522368e-01
-3.801115e-01
-1.933638e-01
4.965672e-01
-1.012192e-01
2.718195e-01
-2.503200e-01
-1.525797e-01
-9.142189e-02
1.269751e+00
-2.206144e-01
2.154120e-01
-1.348585e-01
6.352025e-01
-1.149400e-01
-1.446681e-01
9.564920e-01
8.028303e-01
-2.752446e-01
-2.691496e-01
1.520741e-01
-8.198518e-02
-9.387524e-02
-1.490597e-01
-2.279356e-01
-1.578625e-01
3.394191e-01
-2.173783e-02
3.179461e-01
-1.748822e-01
-4.665982e-02
-8.169158e-02
-1.717342e-01
-1.438771e-01
-6.698057e-02
-1.485051e-01
-1.321918e-01
-7.671293e-02
2.435977e-02
-2.836119e-01
1.929968e-01
-5.807072e-02
-1.759645e-01
-1.206208e-01
-2.964511e-01
-1.100631e-01
-4.553465e-01
-1.545523e-01
9.067105e-01
-1.114589e-01
-2.010628e-01
-1.095496e-01
-2.605283e-01
-1.663106e-01
-8.091115e-02
-8.034361e-02
-2.666787e-01
-1.368297e-01
7.105425e-01
-1.247719e-01
1.819297e-01
-1.456908e-01
-2.971005e-01
-1.934190e-01
-9.975632e-02
-1.662720e-01
-2.125856e-01
-9.769011e-02
6.500394e-01
-2.827310e-01
5.353311e-01
-3.384832e-01
-2.737994e-01
-3.533916e-01
-3.156120e-01
4.793729e-01
-3.154645e-01
3.113708e-01
-3.065067e-02
-2.271491e-01
-2.006370e-01
-2.367623e-01
6.219942e-01
-5.714111e-01
-1.591411e-01
-2.904289e-01
3.519637e-01
-1.297645e-01
5.445219e-01
-2.374113e-01
-1.284390e-01
-6.213577e-02
-3.696461e-01
8.898725e-02
4.265314e-01
4.595664e-01
3.576813e-01
-3.522945e-01
4.369376e-01
3.749780e-02
8.440108e-01
3.000258e-01
-7.729039e-02
-2.302400e-01
-7.409101e-02
-1.853190e-02
-1.253045e-01
-2.584748e-01
-2.657432e-01
9.959331e-01
-1.828429e-01
-4.228819e-01
-3.234909e-01
2.570888e-01
7.081050e-01
3.284716e-03
-2.301865e-01
-3.011230e-02
-1.447103e-01
-2.310220e-01
-9.806892e-02
-5.372768e-01
-1.199399e-01
7.942687e-01
-1.057049e-01
-1.527114e-01
5.831566e-01
2.343057e-01
2.981984e-01
-4.550487e-01
1.899137e-01
-1.958546e-01
-2.709598e-01
-2.851448e-01
4.682074e-02
7.721524e-01
-2.434528e-01
-2.115621e-01
-3.285819e-01
-1.493828e-01
-3.451554e-01
-9.982540e-02
-2.061609e-01
-5.530384e-02
-9.305568e-02
-9.173378e-02
-3.146165e-01
7.327423e-01
6.681161e-02
6.726044e-01
3.701833e-02
-3.993902e-01
-2.282864e-01
9.700551e-02
3.624288e-01
4.066036e-02
2.301194e-01
-1.360289e-01
-1.827195e-01
4.614803e-01
-1.141234e-01
4.912526e-01
-1.950261e-01
3.562253e-01
-1.010076e-02
2.875310e-01
4.340864e-01
-3.010934e-01
6.634270e-02
1.217694e-01
1.761336e-01
-1.490394e-01
-2.206445e-01
-3.584544e-01
3.888461e-01
-2.976128e-02
-1.995760e-01
5.751805e-01
-2.323661e-01
-4.676828e-01
-6.200293e-02
6.718173e-01
6.222989e-02
-2.196029e-01
-3.011567e-01
7.104025e-01
-2.020550e-01
9.679351e-01
2.623318e-01
3.697100e-01
-2.063165e-01
-2.674489e-01
-1.628578e-01
-4.966330e-01
-3.840780e-01
2.770474e-01
-5.462157e-02
-7.106571e-02
4.929456e-01
8.008776e-01
-3.298331e-01
-3.784226e-01
-2.301721e-01
-2.367088e-01
7.754378e-01
-1.394988e-01
-2.104712e-01
-2.364923e-01
-3.087367e-01
-3.656981e-01
-4.160110e-01
-3.482349e-01
-1.107795e-01
-8.135213e-02
-2.279769e-01
-1.767526e-01
5.769290e-01
-1.795083e-01
-1.297414e-01
2.169869e-01
-1.996973e-01
-2.285730e-01
-1.745619e-01
-1.085942e-01
-3.129387e-01
-2.717044e-01
-2.246864e-01
3.157765e-01
-4.205510e-01
-1.589681e-01
-9.397996e-02
-2.304564e-01
-5.056076e-02
-4.382189e-02
-1.368184e-01
3.920511e-01
4.715146e-01
-4.229578e-01
-3.327551e-01
7.102005e-01
-1.432672e-01
-3.216877e-01
7.876626e-01
-3.646694e-01
-1.906382e-01
-2.497924e-01
-3.672697e-02
4.596811e-01
5.321135e-03
2.847157e-01
-2.128010e-01
-6.064595e-02
-1.025803e-01
2.914680e-01
6.623592e-01
-2.887788e-01
3.956856e-01
1.104601e+00
6.434434e-01
-4.909412e-02
-2.234393e-01
-2.410296e-01
-3.510800e-01
-3.739965e-02
1.149418e-02
-3.677433e-01
-2.176977e-01
-1.069322e-01
-3.663055e-01
6.095532e-02
7.502265e-01
1.803787e-01
-1.621236e-01
-3.268564e-01
-2.194739e-01
5.097672e-01
-1.726548e-01
-2.972037e-01
-5.685355e-02
1.080099e+00
4.499687e-01
-3.442831e-01
2.187916e-01
2.299241e-01
3.038314e-01
-1.994269e-01
-2.033518e-01
3.476216e-01
2.970852e-01
5.611842e-01
-1.713227e-01
-3.820579e-02
-1.326841e-01
-1.970505e-01
-1.478222e-01
-3.371630e-01
-1.189937e-01
-4.215835e-02
-9.990821e-02
-1.534448e-01
-1.572140e-01
7.052247e-01
-3.238079e-01
-1.443309e-01
-2.438862e-01
2.667262e-01
-3.863453e-01
4.926980e-01
2.593120e-02
-5.327874e-01
-2.339455e-01
-6.240658e-02
-2.296795e-01
1.252079e+00
-4.762959e-02
-2.094730e-01
-5.934576e-02
-1.185326e-01
-3.199688e-01
-2.071930e-01
-2.359174e-01
5.092461e-01
-2.551476e-01
-1.322190e-01
-2.880245e-01
-1.402080e-01
5.329518e-01
-2.557606e-01
8.979200e-01
4.672427e-02
2.582043e-01
1.921374e-01
-2.834926e-01
-8.622970e-02
-2.003791e-01
-1.796671e-02
-2.141779e-01
-1.428911e-01
-2.008673e-01
-4.619320e-01
-4.466797e-02
6.935042e-01
-1.386750e-01
-1.591235e-01
-4.520038e-01
-2.444447e-01
-1.391277e-01
-7.699967e-02
-2.187414e-01
3.007064e-01
-1.081028e-01
-4.213054e-02
4.569485e-01
5.521309e-01
-1.168274e-01
-1.209174e-01
4.154028e-02
5.976693e-02
4.318901e-02
-2.722095e-01
3.465555e-02
1.826608e-01
1.965860e-01
-2.114961e-01
-2.090720e-01
-2.430624e-01
-2.426652e-01
9.202662e-01
-1.631691e-01
6.044662e-02
-3.767760e-01
1.214697e+00
-1.123534e-01
5.431624e-02
4.004284e-01
-1.042858e-01
-2.216110e-01
-3.841765e-01
-2.394685e-02
-3.607215e-01
2.115201e-01
-6.890521e-02
7.552396e-01
3.540932e-01
-2.199645e-01
-3.841999e-01
8.553599e-01
-1.724032e-01
8.485016e-01
7.732610e-01
-3.001378e-01
-3.352544e-01
3.827168e-01
-2.908602e-01
5.108346e-01
-3.009099e-02
-1.587445e-01
-1.410222e-01
4.396792e-01
-1.800626e-01
-2.716905e-01
-2.966343e-01
-2.485415e-01
3.022125e-01
1.811176e-01
-2.211273e-01
3.213462e-01
-3.608623e-01
2.188869e-01
-2.189338e-01
-1.875205e-01
1.780539e-02
-2.476785e-01
-8.405990e-02
-1.345291e-01
-2.700132e-01
-2.056597e-01
-3.595892e-01
4.485297e-01
6.333295e-02
-1.303062e-01
-1.177883e-01
2.915619e-02
-1.406571e-01
-2.881765e-02
-2.302733e-02
-9.224111e-02
5.297787e-01
6.986697e-02
-6.410513e-02
3.497828e-04
-4.338447e-01
-3.030187e-01
-2.211217e-01
-3.540937e-01
-3.106394e-01
-2.052547e-01
8.052965e-01
4.599835e-01
6.010612e-01
3.929564e-01
-2.266087e-01
5.364221e-01
-1.573539e-01
-1.453286e-01
-1.622678e-01
-3.678747e-01
-1.483634e-01
-1.500837e-01
8.096635e-01
-1.720202e-01
-1.650452e-01
-1.848142e-01
-2.002791e-01
-2.208340e-01
-3.070221e-01
-1.062950e-01
1.059446e+00
-1.757271e-03
-7.894395e-02
6.228824e-01
-1.532671e-01
-1.352848e-01
1.278247e+00
-3.629819e-01
-3.904875e-01
7.503422e-01
-4.159421e-01
-9.414209e-02
-9.932156e-02
-1.841975e-01
-1.438762e-01
-2.478297e-01
6.657941e-01
-1.945457e-01
-1.032396e-01
2.632720e-01
-1.673999e-01
-1.397083e-02
-2.023925e-01
-2.614692e-01
-1.560879e-01
-4.844175e-02
-1.407963e-01
-3.898112e-01
-9.402560e-02
-1.093485e-01
7.872038e-01
-2.086891e-02
-6.596616e-03
9.316412e-02
-1.337290e-01
-1.880195e-01
-1.198201e-01
4.619943e-01
-1.480201e-01
-2.278039e-01
-2.367432e-01
-4.722817e-01
-1.078039e-01
-3.441504e-01
-1.012880e-01
-9.541789e-02
-7.013277e-02
4.486432e-01
-2.744201e-01
-2.260079e-01
-5.009054e-02
-3.999873e-02
-8.100349e-02
-2.056149e-01
-3.745978e-02
4.490321e-01
-2.880167e-01
-1.859411e-01
2.557945e-01
-1.017737e-01
6.085366e-02
-1.568076e-01
-1.914913e-01
-1.022680e-01
-3.299982e-01
5.171206e-04
-1.403131e-01
-2.069383e-01
-2.367104e-01
-1.367620e-01
-1.359092e-01
8.937498e-01
1.375867e+00
-2.474465e-01
-4.828754e-03
-1.068375e-01
-9.993257e-02
-1.357331e-01
4.382012e-01
-2.139493e-01
-1.940904e-01
-1.480569e-01
-8.693001e-02
-2.505518e-01
1.839143e-01
-1.507836e-01
-2.232743e-01
-1.460342e-01
-2.119486e-01
8.422702e-02
-1.113630e-01
-2.368588e-01
-1.340249e-01
-8.478771e-02
6.372732e-01
6.351797e-03
-7.268577e-02
2.942676e-01
-1.963817e-01
7.563560e-01
-5.878737e-02
9.199835e-01
-1.752662e-01
-2.491721e-01
-2.427392e-01
-2.309842e-01
-1.463891e-01
4.590988e-01
-1.917054e-01
-9.055023e-02
-1.320542e-01
4.851288e-01
-3.246284e-01
-2.062879e-01
-2.212438e-01
-1.161705e-01
3.428100e-01
-1.457942e-01
3.905722e-01
-1.221062e-01
-2.532435e-01
