-1.611537e-02
-5.028518e-05
1.773256e-02
-1.996434e-02
-1.121323e-02
3.805681e-03
-8.855904e-04
7.223991e-03
3.262385e-03
3.058742e-03
2.977805e-02
4.404217e-02
-3.553640e-02
-3.302108e-02
1.244974e-02
-2.846854e-02
-6.224788e-02
-4.428584e-02
-3.735666e-02
-4.482778e-02
-1.551752e-02
-4.286994e-02
-4.395079e-02
-5.240451e-03
1.200144e-02
-1.160002e-03
-2.809412e-03
1.325468e-02
6.355555e-03
-1.545502e-02
2.140474e-02
3.046981e-02
7.117454e-03
2.993372e-02
3.316668e-02
-1.148924e-04
5.522013e-02
9.118360e-02
4.593206e-02
1.014292e-01
1.731917e-01
9.605412e-02
5.404307e-02
1.066178e-01
6.145834e-02
9.238330e-03
4.759974e-03
-2.691413e-02
-3.729187e-02
-6.458703e-03
-1.759602e-02
-6.799840e-02
-1.952805e-02
-2.161124e-04
1.562330e-02
2.998360e-02
1.632328e-02
1.753468e-02
1.914528e-02
1.882624e-02
-4.114289e-03
7.735178e-03
2.592681e-02
-6.551929e-02
-3.367107e-02
3.763541e-02
-7.713299e-02
-4.703319e-02
3.281390e-02
-3.436253e-02
-2.285309e-02
2.087845e-02
-6.273952e-02
4.039000e-03
1.544978e-03
-2.423171e-03
5.740245e-02
5.142949e-02
-3.031198e-02
-7.052270e-03
-2.365496e-03
1.335216e-02
1.135103e-02
2.489767e-02
3.536019e-02
3.305183e-02
6.766365e-02
3.150551e-02
2.913091e-02
4.609148e-02
-1.008935e-02
-4.067700e-02
-2.631752e-02
-1.696159e-02
-7.160564e-02
-4.655079e-02
-8.705496e-03
-4.542219e-02
-3.812461e-02
1.980544e-02
3.961253e-02
3.990091e-02
1.304752e-02
6.023370e-02
6.920280e-02
1.106887e-02
3.786374e-02
3.222509e-02
5.607031e-02
4.087851e-02
2.116551e-02
5.335411e-02
7.334849e-03
-2.051498e-02
3.834680e-02
-2.233653e-02
-6.057043e-02
-8.320566e-02
-6.932966e-02
-5.179743e-03
-1.277408e-01
-1.409357e-01
-5.836637e-02
-7.199520e-02
-7.928088e-02
-2.643909e-02
-4.508895e-02
-5.092492e-02
-8.209412e-02
-2.023352e-02
-4.358450e-02
-4.863907e-02
-2.266412e-03
-1.257572e-02
-3.336139e-03
2.787454e-02
7.496893e-02
7.819299e-02
6.212374e-03
2.369611e-02
9.173142e-03
-3.143870e-02
-6.046270e-02
-7.043766e-02
9.830698e-03
8.701499e-03
-6.844142e-03
2.190801e-02
-2.480309e-03
-1.777705e-02
2.689336e-03
-1.766080e-02
-1.365327e-02
-1.118539e-02
-1.642669e-02
4.577192e-03
5.944502e-04
1.042271e-02
1.512560e-02
1.276873e-02
1.107611e-02
-6.664127e-04
2.633586e-02
5.167507e-02
-3.150999e-02
8.986417e-02
3.947959e-02
-4.115952e-02
7.692003e-02
4.378963e-03
-3.128027e-02
8.933871e-03
1.506644e-02
4.811264e-03
1.499893e-02
1.981338e-02
2.675195e-03
-7.545281e-03
5.477553e-03
-2.893888e-03
-5.146019e-03
-1.376522e-02
-7.112708e-03
-1.788025e-02
-1.572081e-02
1.339359e-02
-1.500019e-02
1.549057e-03
1.978785e-02
-7.125827e-03
-1.176148e-02
-1.453177e-02
-1.018839e-02
-6.756770e-03
-3.007839e-02
2.130784e-03
-1.544555e-02
-3.239580e-02
5.060535e-03
1.246964e-02
-5.479213e-05
-3.492012e-02
-2.174390e-03
-3.865252e-03
-2.108860e-02
-1.035450e-02
5.374303e-03
-9.670755e-03
-9.258931e-03
1.284387e-02
-2.543426e-04
7.210787e-03
1.813894e-02
1.176824e-02
1.126205e-02
1.713720e-02
-6.677525e-02
-1.426611e-01
-2.448209e-02
-1.458587e-01
-7.617758e-02
7.947445e-02
-5.129544e-02
8.507649e-02
1.081403e-01
5.370364e-02
1.019125e-01
5.149533e-02
1.095349e-01
4.737626e-02
-4.524122e-02
5.936827e-02
-4.150235e-02
-1.029347e-01
2.400400e-03
1.241274e-04
1.185578e-02
-1.113093e-02
-8.335765e-03
4.361973e-03
-9.253069e-03
4.689981e-03
-6.137482e-03
-1.672042e-02
-5.370322e-02
8.706698e-03
-3.035741e-02
-5.288999e-02
2.264162e-02
-1.570267e-02
-1.998563e-02
3.477131e-02
-1.365609e-02
-4.082783e-02
3.328313e-03
-1.253851e-02
-2.566789e-02
-6.894211e-03
9.110663e-03
-1.665943e-02
-3.899729e-02
2.402863e-02
6.448588e-03
-2.936323e-02
3.308535e-02
1.569895e-02
-1.587443e-02
-1.338513e-02
2.774371e-02
-7.834506e-05
-8.538779e-03
-2.764112e-02
1.513842e-02
-4.934901e-02
-2.779342e-02
1.590652e-02
-3.988513e-02
2.243792e-02
3.562417e-02
-7.762739e-04
-1.415909e-01
-8.047269e-02
-1.018951e-01
-1.166402e-01
3.613257e-02
-9.489112e-02
1.053976e-02
1.163755e-01
-2.779449e-02
1.170440e-02
6.091296e-02
1.130951e-03
5.053345e-02
5.718393e-02
2.702542e-02
3.662780e-02
1.023276e-02
4.159899e-02
2.089617e-02
-3.542622e-02
7.297260e-02
5.694322e-02
-1.568064e-02
1.863465e-02
4.246381e-02
1.088411e-02
-1.287611e-02
4.079977e-03
1.548376e-02
6.502492e-03
2.077595e-02
2.787084e-02
8.033243e-03
8.907634e-03
1.576692e-03
2.262979e-03
3.712218e-02
4.362628e-02
1.138871e-02
4.218078e-02
4.105363e-02
1.753134e-02
3.646877e-02
-1.538981e-03
1.584954e-02
2.253891e-02
2.640694e-03
2.037208e-02
4.212138e-02
2.645231e-02
1.260114e-02
2.889778e-02
1.526851e-02
-1.849004e-02
2.649732e-02
1.035525e-02
7.955435e-03
5.360464e-02
3.209985e-02
3.115232e-02
2.895759e-02
7.187214e-03
1.847052e-02
-3.268904e-02
-4.774526e-02
-8.510000e-03
5.163481e-03
-1.788784e-02
-4.186204e-02
-1.934461e-02
9.902394e-04
-4.246353e-02
-2.880948e-02
-1.643696e-02
-4.484599e-02
-2.527687e-02
-5.706501e-03
7.880691e-03
1.541218e-02
8.620441e-03
-2.451643e-02
1.160461e-02
1.213267e-02
3.785995e-03
-1.542396e-02
-6.325458e-03
-3.447103e-02
-1.491211e-02
2.031826e-02
-2.658982e-02
-3.609085e-02
-2.630323e-02
-3.196811e-02
-5.445123e-02
-1.918130e-02
-3.952438e-02
-6.160896e-02
-2.581643e-02
3.291286e-02
1.677688e-02
1.330896e-02
6.728884e-03
4.760620e-02
4.336125e-02
-3.130457e-03
-5.214452e-03
-1.462726e-03
-4.512295e-02
-4.523157e-02
-4.052016e-02
-3.158807e-02
-6.402896e-02
-3.981687e-02
2.579302e-03
-3.870558e-02
-1.388845e-02
-1.424998e-02
-3.193043e-02
-6.192718e-04
3.923577e-03
3.669012e-03
-3.422213e-03
5.784180e-03
-1.690779e-02
-6.589461e-03
6.334063e-02
7.879395e-02
4.676470e-02
9.837727e-02
1.244847e-01
8.402153e-02
5.799174e-02
8.616261e-02
4.361878e-02
-2.056360e-02
-6.819303e-02
-3.067632e-02
-5.526373e-02
-7.684483e-02
-4.313598e-02
-3.177024e-02
-4.503655e-02
-3.471213e-02
-1.486232e-02
3.624165e-03
-5.893754e-02
-2.462939e-02
1.992653e-03
-6.185922e-02
2.829072e-03
1.728570e-02
-4.552309e-02
2.028674e-02
6.779791e-03
-2.396366e-02
2.037471e-02
2.888191e-02
-2.362543e-02
9.485873e-03
2.175407e-02
-4.284769e-03
-5.205065e-03
-2.399347e-02
-4.083718e-03
-1.750635e-02
-3.015646e-02
-1.796772e-02
-2.060122e-02
-4.209015e-02
-3.071437e-02
5.224616e-02
6.532677e-02
-1.231004e-02
4.817521e-02
8.633180e-02
3.234653e-02
2.666710e-02
5.871436e-02
6.144316e-02
1.177698e-02
1.229596e-02
-3.123451e-02
2.989266e-02
3.558845e-02
7.845963e-03
-3.802972e-03
-6.417197e-03
6.030508e-03
2.308801e-02
3.164913e-02
7.503996e-03
3.758190e-02
4.947488e-02
1.678963e-02
2.356983e-02
1.756795e-02
7.253705e-03
-7.616484e-03
-1.997324e-02
-3.295727e-02
1.510703e-02
6.883097e-03
-4.418829e-02
-1.261933e-02
-1.080986e-02
-3.158221e-02
2.497415e-02
1.439691e-02
2.566560e-02
2.847972e-02
-8.881844e-05
1.028858e-02
1.559283e-02
2.246892e-02
3.768559e-02
-1.935258e-03
-4.059747e-02
-3.237908e-02
4.215969e-04
-4.533838e-02
-5.312266e-02
8.588566e-03
-4.652066e-02
-2.078418e-02
-3.777264e-02
-3.861649e-02
1.443033e-02
7.445486e-03
-9.174276e-03
-4.000887e-04
1.007317e-02
2.067396e-02
2.488256e-02
-2.672173e-02
-4.329508e-02
-6.054683e-02
-1.341800e-02
-4.550965e-02
-5.541303e-02
-1.380494e-02
-3.980052e-02
-6.420167e-02
4.313903e-04
2.346836e-02
3.932061e-03
1.198899e-02
8.184277e-03
-5.091421e-03
5.307343e-03
-1.320769e-02
3.721221e-04
1.417468e-02
1.379513e-03
5.083175e-03
2.874854e-02
4.555880e-02
4.896018e-02
-3.248396e-03
2.541351e-02
5.943222e-02
5.356090e-02
6.218544e-02
-4.322282e-03
6.134973e-02
8.513031e-02
5.653058e-02
3.854913e-02
3.104080e-02
5.731865e-02
-2.368474e-02
4.787556e-03
5.820808e-03
-1.772386e-02
2.667211e-03
5.875254e-03
-1.109838e-02
4.147560e-03
-4.346000e-04
-2.479084e-02
6.826524e-03
8.687158e-04
-1.513247e-02
2.613401e-02
3.174660e-02
-1.170511e-02
5.706240e-03
7.622640e-02
-7.199533e-02
-2.219558e-03
2.085316e-02
-7.077198e-02
-4.691534e-02
-3.407916e-02
-7.134885e-02
-7.973588e-02
-7.437427e-02
2.792169e-02
4.633295e-02
1.104157e-03
6.235645e-02
8.103739e-02
3.394296e-02
2.419853e-02
6.693778e-02
4.713585e-02
-5.236460e-02
-4.085748e-02
-4.524207e-03
-4.035806e-02
-8.615109e-02
-4.014542e-02
-1.074921e-02
-8.448020e-02
-8.443469e-02
-4.389165e-03
-1.608224e-02
-1.930829e-02
-1.253062e-02
-4.932887e-03
-3.382099e-03
-2.747758e-02
-3.865520e-02
-1.313720e-02
-7.073998e-03
-2.106512e-02
9.923436e-04
3.486087e-02
4.808022e-02
4.104999e-02
7.552099e-03
9.095940e-02
4.593119e-02
5.320131e-03
-1.305906e-04
-1.983972e-02
9.414882e-03
3.438450e-03
-1.965907e-02
2.684686e-02
2.240119e-02
1.151853e-04
-2.775569e-03
-1.739071e-02
-1.272871e-02
3.286226e-02
2.279176e-02
4.482924e-03
-2.794538e-02
3.860097e-02
3.007267e-02
-4.113705e-02
7.153499e-03
6.664807e-02
-5.873246e-02
-8.699028e-02
1.571506e-02
-1.949519e-03
-6.592096e-02
-8.683246e-02
6.242056e-02
-5.486663e-02
-1.155464e-01
5.738799e-02
1.594692e-02
-1.203758e-01
3.192288e-02
6.067852e-02
-6.287840e-02
-2.336268e-03
3.075072e-02
8.892116e-03
-4.534671e-02
9.972381e-04
3.318205e-02
-3.963317e-02
-5.588065e-02
-3.401644e-02
1.940657e-02
-9.119021e-04
-1.456065e-02
1.874029e-02
2.520270e-03
-3.482802e-03
2.594166e-02
6.770194e-03
1.357355e-02
-9.861254e-03
-2.122404e-02
-3.324435e-02
-1.719873e-02
-3.779634e-02
-2.302688e-02
-3.277738e-02
-3.264837e-02
2.905762e-03
-5.378130e-02
1.929774e-02
2.988239e-02
-6.242917e-02
3.690312e-02
3.906154e-02
-2.952070e-02
-8.149829e-03
2.591307e-02
6.123258e-03
-2.079291e-02
-4.353554e-02
2.263742e-02
2.349641e-02
-1.068455e-02
1.755489e-02
2.881698e-02
-2.195547e-03
3.137689e-02
8.084822e-03
-2.677399e-02
1.676684e-02
1.203190e-02
-5.005495e-03
-6.804281e-03
-1.736547e-02
-1.869468e-03
-4.767800e-02
2.768910e-02
1.083712e-01
-8.730397e-03
-1.670990e-02
2.709567e-02
7.372735e-03
-4.831901e-02
-4.581026e-02
-9.433385e-03
-5.468880e-02
-5.491769e-02
6.633722e-02
4.457935e-02
-1.200454e-02
-8.631142e-03
5.465203e-02
2.198012e-03
-1.793638e-02
5.881686e-03
-4.526761e-03
-3.510069e-02
-3.491486e-03
1.501343e-02
-2.413307e-02
4.335683e-03
3.321816e-02
2.300103e-02
1.077848e-02
8.595263e-03
7.503580e-03
1.476489e-02
1.648776e-02
4.328732e-03
-6.017697e-03
-1.429221e-02
2.003690e-02
2.135691e-02
8.245556e-03
2.862534e-02
2.999751e-02
7.458496e-03
1.739408e-02
1.287960e-02
1.489477e-02
-2.479226e-02
-3.641776e-03
2.276106e-02
-9.027673e-03
3.451819e-03
2.950179e-02
8.422228e-03
1.714515e-02
2.794621e-02
4.559841e-03
2.682114e-02
2.135409e-02
3.950838e-03
2.592214e-02
3.157217e-02
1.307384e-03
1.225304e-02
1.324485e-02
4.845550e-02
8.577339e-03
3.177693e-02
2.804272e-02
3.653083e-03
8.825541e-03
-2.483084e-04
-4.489956e-02
-2.421036e-02
1.112875e-02
2.548163e-02
-3.079527e-03
9.923973e-03
1.913961e-02
6.779146e-03
1.186834e-02
-4.990669e-04
9.004983e-03
4.554987e-03
3.181644e-02
3.714681e-02
3.831264e-02
2.700512e-02
6.802389e-03
2.488156e-02
2.151783e-02
-3.782462e-02
-5.227520e-03
2.798770e-02
3.519360e-02
5.623720e-02
7.563175e-02
4.749109e-02
3.445949e-02
2.897301e-02
1.817063e-02
6.122828e-03
2.700170e-02
2.157821e-02
-7.997417e-04
2.335376e-02
-9.656671e-03
-1.616049e-05
3.861603e-03
-4.303628e-02
-1.784204e-02
-2.124432e-03
8.598965e-03
-1.144391e-02
7.678004e-04
1.010673e-02
-9.487012e-03
1.103460e-02
1.667166e-02
1.429203e-02
1.318043e-05
-1.213760e-02
-7.715245e-03
-3.017943e-02
-2.487329e-02
-3.903864e-02
-3.050063e-02
-1.967855e-02
5.411770e-03
3.880334e-02
3.077944e-02
1.008876e-02
3.285307e-02
2.450965e-02
-2.119329e-02
1.646522e-04
-2.702479e-03
-7.938948e-03
-2.669727e-03
1.053745e-02
7.731951e-03
1.956929e-02
3.858636e-02
2.116495e-02
4.179061e-02
3.210164e-02
-7.693586e-02
-1.005705e-01
-8.323957e-02
-1.525212e-01
-1.300906e-01
-4.385506e-02
-1.300672e-01
-9.303576e-02
3.960762e-04
-3.692088e-02
-6.932870e-02
-5.296054e-02
-2.380194e-03
-6.763016e-02
-5.473421e-02
-3.306814e-02
-6.894642e-02
-5.611647e-02
-2.539994e-03
-1.058108e-02
-4.001411e-04
2.987133e-02
8.953368e-04
-6.869368e-03
4.024862e-02
2.854738e-02
-1.976831e-03
-1.390060e-02
-2.410463e-02
2.076063e-02
-4.351842e-02
-1.128112e-02
3.631273e-02
-3.777004e-02
5.555654e-03
2.723468e-02
2.499356e-02
-1.131907e-02
-2.338980e-02
4.793555e-02
6.652073e-04
-6.828851e-02
1.229127e-02
3.780815e-02
-2.632114e-02
-8.820340e-04
-2.528662e-02
-1.142427e-02
1.859927e-02
1.191223e-02
1.569726e-03
1.755413e-02
5.405526e-02
4.320034e-02
1.872130e-02
1.450089e-02
3.335216e-03
1.565485e-02
1.731948e-02
5.242685e-03
2.643930e-02
3.236498e-02
5.386823e-03
5.790231e-03
-2.823086e-03
7.603901e-03
3.442975e-02
3.951674e-02
2.848922e-02
4.598733e-02
8.125985e-02
4.642916e-02
-2.945121e-02
6.445069e-03
5.575621e-02
-2.643884e-02
4.663639e-03
9.045285e-03
-9.759117e-03
-5.886350e-03
-1.847309e-02
-2.227886e-02
-1.958143e-02
-6.696679e-03
1.634362e-03
3.102487e-02
5.288052e-02
1.346517e-02
1.118237e-02
4.224266e-02
-1.399107e-03
-4.907057e-02
-4.556781e-02
5.486802e-02
2.849105e-02
2.118432e-02
-1.810116e-03
6.182150e-02
6.044133e-02
9.364836e-03
3.750672e-02
6.864240e-02
2.533158e-02
3.826359e-02
6.333327e-02
2.466271e-03
-6.785045e-03
2.923223e-03
-1.311391e-03
5.343490e-03
1.687458e-02
3.667627e-03
1.953665e-02
6.464581e-03
1.110404e-02
-1.824268e-02
-1.225878e-02
-2.030389e-02
-5.223584e-02
-2.162963e-02
-8.941334e-03
-5.194003e-02
-6.430018e-02
-2.169392e-02
4.482662e-03
-2.123025e-02
7.681139e-02
5.283671e-02
-1.375435e-04
4.004442e-02
5.395520e-02
1.773518e-02
2.121103e-02
4.317841e-02
5.470921e-02
1.303651e-02
5.343392e-02
1.550525e-02
-1.216833e-02
6.117768e-02
2.696007e-02
-1.062614e-02
2.756987e-02
2.430362e-02
-7.027272e-04
6.745514e-02
5.554360e-02
4.496009e-02
1.464690e-01
1.065919e-01
5.909565e-02
1.622777e-01
1.025506e-01
3.632164e-02
5.696053e-02
-3.308174e-03
3.600905e-02
1.104271e-01
6.064789e-02
3.689792e-03
9.356710e-02
6.122881e-02
-2.949811e-02
2.868177e-02
4.589710e-02
-8.912699e-03
6.812187e-02
8.909851e-02
2.892278e-02
6.720046e-02
4.850855e-02
2.111285e-02
3.849974e-02
6.002482e-03
4.676550e-02
6.311344e-02
2.477305e-03
1.278705e-02
4.666062e-02
2.340741e-02
5.094279e-03
2.988545e-02
3.237635e-02
-9.959216e-03
3.190649e-02
5.465724e-02
8.236972e-03
8.926778e-03
4.314055e-02
-2.136053e-02
-1.641945e-03
2.714706e-02
2.123933e-02
5.843091e-02
5.986311e-02
4.980075e-02
7.514438e-02
4.533698e-02
1.057717e-02
-1.468536e-03
-5.797024e-03
3.759098e-02
4.517496e-02
2.292847e-02
4.488902e-02
8.184604e-02
3.966932e-02
-7.064642e-03
-3.289962e-04
1.371951e-02
-1.401994e-02
2.374233e-02
1.917610e-02
-1.575456e-02
-5.498416e-03
-1.602140e-02
3.806758e-02
2.273060e-02
-2.119249e-04
1.698109e-02
4.145525e-02
4.265570e-02
1.434020e-03
1.187559e-02
2.096771e-02
3.119023e-02
5.418956e-02
4.748848e-02
1.923965e-02
7.833885e-02
5.000963e-02
1.064609e-03
4.501792e-02
2.116612e-02
-4.865551e-02
-1.068166e-02
2.037135e-02
-4.107011e-02
-2.471965e-02
1.158175e-02
-1.964195e-02
-2.906827e-02
1.072205e-02
-5.493083e-02
1.324185e-02
-1.713717e-02
1.676310e-03
6.962737e-02
4.825886e-02
5.580158e-03
5.541157e-02
4.627315e-02
2.196375e-02
5.481827e-03
-1.379845e-02
5.161357e-02
7.891385e-02
6.474978e-02
2.805894e-02
6.749960e-02
5.491472e-02
4.970188e-02
7.666037e-02
3.113525e-02
3.792443e-02
4.884608e-02
2.824471e-02
2.302811e-03
1.531836e-03
2.220351e-02
-3.373627e-02
2.197525e-02
3.210009e-02
1.111296e-02
6.113990e-02
5.134306e-02
1.913603e-02
1.912222e-02
3.641337e-02
1.675053e-03
5.557747e-05
5.995430e-03
3.235221e-02
-6.755787e-03
-1.731270e-02
1.134732e-02
-7.740466e-03
-2.081766e-02
-4.851746e-02
-7.704735e-03
-2.493584e-02
1.401695e-02
4.175812e-02
2.371742e-02
-4.069043e-04
3.057147e-02
1.965777e-02
1.379909e-02
-1.833224e-03
-1.496717e-02
2.972310e-02
-2.448375e-02
-3.122813e-02
2.294975e-02
-2.799294e-02
-4.923963e-02
1.687009e-02
3.316118e-03
-6.281954e-03
1.341269e-02
-1.747562e-02
-9.702375e-04
-2.199582e-02
-1.374730e-02
8.892325e-03
2.768635e-02
2.434006e-02
1.513946e-02
2.801535e-02
5.593886e-02
3.854826e-02
2.469290e-02
9.073575e-02
-3.513778e-02
-7.368498e-03
4.751736e-03
-1.883675e-02
-1.415262e-02
-1.843916e-03
-4.748227e-02
4.448169e-02
-1.255392e-02
-4.775241e-02
1.707957e-02
2.899872e-02
1.257497e-02
-1.413468e-03
7.022419e-03
5.778073e-03
-3.357461e-03
2.135004e-02
3.312771e-03
-1.619770e-02
-3.402005e-02
-1.120417e-02
-2.805568e-02
-1.843567e-02
1.098273e-02
-1.402920e-02
1.290695e-02
1.685585e-02
-4.370444e-03
-1.087971e-02
-6.280949e-04
-2.366538e-02
-1.227327e-02
-4.469330e-02
-3.688670e-02
-2.968936e-02
-6.282169e-03
-9.689251e-02
-6.432246e-02
6.026858e-02
-8.036570e-02
5.770561e-02
9.141517e-02
5.173425e-02
3.567027e-02
-4.101132e-02
-7.379747e-02
-7.669267e-02
5.639607e-02
-9.923027e-02
3.820839e-02
7.183580e-02
-1.887670e-02
1.033706e-01
3.613855e-03
-9.386180e-02
-4.831735e-02
2.884528e-02
-2.211696e-02
5.307316e-02
7.490183e-02
8.096446e-02
1.167673e-02
-4.611087e-02
5.977219e-03
6.557473e-03
8.999379e-03
9.457021e-03
-5.173534e-03
6.331240e-04
-6.990419e-03
-2.097552e-02
2.223443e-02
-1.423481e-02
1.888887e-02
5.604044e-03
3.620892e-03
-3.340267e-04
6.362403e-03
7.571679e-03
-1.800022e-02
-3.547997e-02
1.963737e-02
1.239621e-02
-5.490569e-02
5.271270e-02
7.308987e-03
-5.462354e-02
3.682694e-02
-5.487075e-02
-4.973448e-03
-1.108517e-02
-2.673918e-02
1.773899e-02
-1.113869e-03
2.661613e-02
8.575025e-03
-4.722211e-03
-2.883272e-02
-2.926032e-02
-4.852762e-02
-1.544008e-02
-9.843837e-03
-2.320770e-02
-2.516651e-02
-2.858997e-03
-4.315777e-02
1.588666e-02
1.237194e-02
5.980980e-02
2.759058e-02
-1.036399e-02
-1.066179e-02
-5.110646e-02
-4.104477e-03
-1.515110e-02
-2.364303e-04
4.034432e-02
5.190892e-02
3.938204e-02
3.269634e-02
4.951846e-02
-1.170960e-02
-4.890610e-02
-6.557544e-02
-4.349890e-02
-2.614188e-02
3.770965e-02
4.617337e-02
3.740960e-02
4.886349e-02
6.700628e-02
6.841513e-02
2.241101e-02
2.619784e-02
3.435136e-02
7.367506e-03
1.649378e-02
2.036235e-03
-4.868480e-02
-6.664135e-02
-5.147757e-02
-4.856068e-02
-6.120474e-02
-5.952702e-02
8.432305e-03
5.763089e-03
3.095997e-02
1.514656e-02
8.092538e-03
4.336005e-02
2.527260e-02
-7.703309e-03
9.717155e-04
-2.602535e-02
6.348434e-03
3.277369e-02
-8.496220e-02
-8.464012e-02
-3.370995e-02
-9.027869e-02
-1.085827e-01
-5.644711e-02
1.113413e-02
2.838576e-02
2.037619e-02
-2.010988e-02
-2.360842e-02
-1.769214e-02
-3.776905e-02
-4.993352e-02
-2.734782e-02
-8.421914e-03
4.160611e-03
1.781689e-02
3.301519e-05
2.760130e-02
4.751416e-02
3.707042e-03
1.563263e-02
1.788459e-02
-4.823478e-02
-4.152582e-03
2.723750e-02
-5.003539e-02
1.599419e-02
2.923738e-02
-2.566464e-02
1.557967e-02
5.281603e-02
2.762369e-02
8.096131e-03
1.482373e-02
1.540292e-02
7.012854e-04
2.846960e-02
4.948641e-03
-5.577751e-03
2.967288e-02
-3.883567e-02
-4.062599e-02
-5.477724e-02
1.163813e-02
3.588743e-02
-6.427719e-03
1.196780e-02
4.609168e-02
1.078046e-02
3.006035e-02
-2.296776e-02
-1.776091e-02
3.972032e-02
-1.364821e-02
2.546969e-03
9.581869e-03
-1.515422e-02
3.109062e-02
-8.082113e-02
-1.095427e-01
-5.078277e-02
-1.465761e-01
-2.216155e-01
-1.302012e-01
-8.362717e-02
-1.657098e-01
-9.405340e-02
4.439671e-02
3.012009e-02
3.720754e-02
5.677653e-02
3.466827e-02
3.284434e-02
1.494609e-02
1.576702e-02
1.973445e-03
-1.934794e-02
2.773236e-03
8.485001e-03
-1.482505e-02
-2.170347e-03
-1.798898e-02
2.082434e-02
-4.196391e-02
-6.642602e-02
2.229969e-02
1.619590e-02
-1.209558e-02
2.805990e-02
-2.180292e-03
-1.250701e-02
1.136384e-02
-4.506694e-03
-4.330369e-02
2.845106e-02
-2.894252e-02
-3.404605e-02
3.366999e-02
-5.256363e-03
1.215623e-02
4.056019e-02
1.873388e-02
5.287679e-02
5.103400e-03
-3.740945e-02
8.170627e-03
1.812413e-02
1.195198e-03
1.951496e-02
-3.321184e-02
-5.174417e-02
-3.436831e-02
5.341658e-03
-4.580562e-03
-1.001897e-02
5.758318e-02
4.808366e-02
-4.455747e-03
1.757506e-02
3.152129e-02
-5.878335e-03
1.018537e-02
1.843628e-02
1.229674e-02
7.196867e-03
1.576442e-02
1.416111e-02
6.189399e-03
-2.335679e-03
-1.168212e-02
1.731272e-02
3.499168e-03
-1.431292e-02
-6.166796e-03
1.106835e-02
1.960015e-02
-2.100937e-02
2.387950e-02
4.238102e-02
2.243298e-02
-8.209470e-03
-3.398870e-02
-4.830874e-03
1.864497e-02
-2.041882e-02
-3.817148e-02
-4.038631e-03
-1.314359e-03
2.497521e-02
2.040756e-02
1.627906e-02
1.733516e-02
4.085435e-02
3.206586e-02
-8.083441e-03
1.077722e-02
1.330647e-02
-3.070925e-03
3.824855e-03
-4.366878e-02
-1.123415e-02
3.942175e-02
-5.197579e-04
-2.595571e-02
8.777133e-03
-1.155189e-02
-3.151655e-02
-1.806767e-02
-1.633669e-02
-9.030043e-02
-7.422213e-02
-4.286304e-02
-7.504816e-02
-4.547621e-02
-3.406243e-02
3.213499e-02
7.071350e-02
2.485359e-02
4.215573e-02
7.907407e-02
7.020156e-02
6.882820e-03
2.573620e-02
5.879367e-02
-5.733635e-02
-9.160417e-02
-7.605711e-02
1.992326e-02
-2.087106e-02
-4.817621e-02
-8.701909e-03
-2.625234e-04
-1.360204e-02
-1.193106e-02
-1.396961e-03
1.103660e-02
3.098235e-02
-6.407587e-04
-3.799325e-03
3.067811e-03
-7.508229e-03
1.292057e-03
2.904529e-02
7.676084e-03
1.150293e-02
-1.792510e-02
-1.888374e-02
-9.071743e-03
-3.576607e-02
-4.211099e-02
-2.956601e-02
-8.200405e-03
-1.424668e-02
-3.601208e-02
-1.712916e-02
-3.263369e-03
-2.575810e-02
-3.093341e-02
-2.215549e-02
7.906043e-03
9.001431e-02
8.682501e-02
5.117737e-02
5.709477e-02
1.065525e-01
1.009459e-01
1.405672e-02
2.912667e-02
2.625066e-02
7.622032e-03
2.666232e-03
-8.006982e-03
-4.414605e-02
-5.452356e-02
-1.005492e-02
-3.836384e-02
-6.286442e-02
-1.966652e-02
-1.416205e-04
-2.231362e-02
-4.176660e-02
-1.483420e-02
-3.764803e-02
-3.378917e-02
-1.018611e-02
-5.546632e-02
-3.172136e-02
-5.779781e-03
-3.232381e-03
-4.713713e-04
3.206661e-02
3.558474e-02
3.876673e-02
-5.360829e-03
-6.246527e-03
1.804284e-02
7.111926e-03
2.951996e-02
-2.524419e-03
2.575048e-02
3.231708e-02
-1.008281e-02
7.567958e-03
2.762759e-02
1.362707e-02
8.691593e-03
-3.755909e-02
-6.075976e-02
1.622543e-02
-7.452351e-02
-1.011856e-01
4.201161e-02
-2.121177e-02
-6.266113e-02
4.493174e-02
8.171136e-03
-2.727515e-02
6.083180e-03
9.318067e-03
-1.582238e-02
-1.522896e-02
-2.151632e-02
6.365493e-03
-9.681024e-04
2.531725e-02
1.756518e-02
-2.511316e-03
5.933135e-02
5.263001e-02
-8.582226e-03
5.270812e-02
5.379940e-02
2.957426e-03
-1.366394e-05
-2.044880e-02
2.329706e-02
5.545490e-03
-2.807594e-02
3.494364e-02
2.753665e-02
7.215962e-03
2.234315e-02
4.210569e-02
1.237228e-02
5.928205e-02
8.095263e-02
3.867818e-02
1.507636e-02
5.000404e-02
4.609184e-02
1.270677e-02
6.154531e-03
9.718884e-04
4.896791e-02
9.248319e-02
9.306521e-02
3.682989e-02
8.054111e-02
8.443082e-02
-4.690171e-03
4.212527e-03
1.307350e-02
-1.419868e-02
-4.620676e-02
-5.550442e-02
1.697940e-02
-5.204358e-02
-8.174524e-02
-2.849135e-02
-1.419714e-02
-4.249363e-03
2.679517e-02
-8.871976e-03
-1.607212e-02
2.719983e-02
3.682456e-03
-7.213251e-03
-2.724056e-03
1.517765e-02
-4.245562e-02
-3.272589e-02
2.996697e-03
-2.465367e-03
-3.324157e-02
-1.958881e-02
2.632737e-02
-6.377833e-02
-6.523678e-02
-4.403108e-02
-1.389827e-02
-3.842701e-02
-2.406331e-02
3.684579e-04
2.563811e-02
4.070671e-02
2.395490e-02
3.072206e-02
-1.580042e-02
9.453379e-02
4.785223e-02
-1.099184e-02
3.560459e-02
1.463888e-02
-1.415550e-03
-3.162326e-02
2.000091e-02
-2.273651e-02
-1.415430e-02
2.731355e-02
2.927951e-02
1.184007e-02
9.216305e-03
3.627842e-02
2.265454e-02
-4.384872e-02
-4.732024e-02
1.994742e-02
-3.320071e-02
-6.083279e-02
2.771432e-02
-2.076611e-02
-5.261727e-02
6.237232e-02
4.026100e-02
-1.864610e-04
2.871817e-02
3.190276e-02
3.006167e-02
8.079857e-03
-9.327158e-04
8.095033e-04
-1.660183e-02
-4.728468e-02
-6.668629e-02
-5.384747e-03
-2.973388e-02
-2.562327e-02
-5.144433e-03
-5.873874e-03
-2.367666e-02
-4.325462e-03
3.224528e-03
4.607540e-03
1.206098e-03
1.213435e-02
6.911361e-03
9.121588e-03
-1.251810e-03
1.284417e-04
9.435955e-03
1.137808e-02
-1.033411e-02
1.306118e-02
1.304278e-02
-9.941647e-03
9.788455e-03
1.821115e-02
1.012476e-02
2.034736e-02
2.115880e-02
1.138740e-02
5.602415e-02
6.758738e-02
2.429069e-02
4.313462e-02
4.201491e-02
5.778790e-03
-7.321974e-03
-9.970648e-03
2.788444e-03
-1.198667e-02
-2.333557e-02
3.221250e-03
7.380193e-03
-2.953330e-03
-2.230036e-03
6.970629e-03
8.515180e-04
-4.094672e-03
-3.260019e-03
-1.043806e-02
-9.217047e-04
5.931745e-03
1.243634e-03
6.988272e-03
-1.465404e-02
-9.546887e-03
1.760580e-02
-7.088828e-03
-4.757976e-03
-9.772053e-03
8.831592e-03
9.902761e-03
-1.971463e-02
2.952844e-02
-8.479552e-03
-2.140264e-02
1.845378e-02
6.804537e-03
-1.236352e-02
-9.064392e-04
-2.207557e-04
1.340724e-02
2.856881e-02
2.523049e-02
1.609924e-02
9.266810e-03
3.037276e-02
1.639315e-02
1.632189e-02
2.320237e-02
1.170400e-02
2.911215e-02
7.599341e-02
4.996714e-02
7.639665e-02
2.173619e-01
1.738650e-01
2.479330e-02
1.418380e-01
1.172625e-01
-2.002219e-02
-5.092851e-03
-6.653726e-03
-1.728532e-02
-2.470093e-02
-1.225775e-02
-2.975620e-03
-1.429639e-02
-4.273960e-03
-9.008080e-03
-2.195972e-02
9.484857e-04
-3.749039e-03
-2.328661e-03
-4.994762e-03
-1.581010e-04
-2.616752e-03
4.508552e-03
4.026922e-02
3.678392e-02
2.136417e-02
5.202442e-02
4.225200e-02
2.762507e-02
1.951342e-02
4.949718e-03
-3.935499e-04
-3.859535e-02
-2.129647e-02
-8.628863e-03
-2.151233e-03
-9.162705e-03
1.350283e-02
1.425549e-02
-1.591872e-02
-1.574864e-02
2.273519e-03
-2.200885e-03
-4.666562e-04
2.140537e-02
1.741293e-02
-5.092601e-03
3.710686e-02
3.446594e-02
4.282274e-03
7.487953e-03
-4.504902e-04
5.910248e-03
-1.849622e-02
-5.583316e-02
-2.862514e-02
-3.176787e-02
-4.460731e-02
-5.846006e-03
1.321716e-02
3.291294e-02
5.308371e-02
6.574234e-02
1.102767e-01
1.050567e-01
4.438312e-02
9.043303e-02
8.880051e-02
-8.064915e-03
-4.755803e-03
-2.023543e-03
1.759836e-02
5.159575e-03
2.342865e-02
1.567691e-02
-1.507187e-03
-6.287241e-04
-3.244876e-03
5.735456e-02
4.295199e-02
6.455820e-02
1.092834e-01
7.956941e-02
5.637254e-02
6.333791e-02
7.968500e-02
-4.937859e-03
-2.560072e-02
-1.225887e-02
-1.160305e-02
-4.792092e-02
-1.450586e-02
-2.758814e-02
-3.581307e-02
-1.312266e-02
-9.949937e-03
6.474952e-03
3.768008e-03
2.670778e-02
1.391531e-02
-7.355895e-03
-1.747837e-03
-1.106884e-02
-1.512949e-02
8.059730e-03
-3.924438e-03
-6.151841e-03
-1.118655e-02
-1.478355e-02
-3.463395e-02
-7.065642e-03
-3.252390e-02
-3.935565e-02
-2.351620e-05
-1.069576e-02
-1.991497e-02
-1.460445e-02
-5.953275e-03
-1.906359e-02
-9.384378e-03
9.626404e-03
-1.477944e-03
4.411707e-02
-1.928246e-02
-2.335423e-02
-6.676076e-02
-4.954251e-02
4.627368e-02
-2.606582e-02
2.433482e-02
9.241845e-02
5.064527e-02
-5.503330e-02
-2.354855e-02
-1.208566e-02
-8.823037e-02
-3.065596e-02
-2.348697e-03
-6.231121e-02
4.769370e-03
-4.789914e-03
-1.573186e-02
8.715729e-03
-2.346432e-02
-9.774878e-03
1.712247e-02
-5.478351e-03
1.299774e-02
1.602043e-03
3.879366e-02
5.378700e-02
-3.567792e-02
5.629805e-02
3.407748e-03
-6.683086e-02
1.391164e-02
-3.460485e-02
-2.953167e-02
1.482194e-02
-2.693247e-02
-7.476113e-03
-1.935881e-02
-2.224615e-02
-1.193560e-02
-8.027363e-03
-2.142993e-02
6.749383e-03
1.472835e-02
6.861911e-02
6.904067e-04
3.905721e-02
7.283079e-02
-5.014553e-02
3.979901e-02
7.279420e-03
-6.285352e-02
3.543744e-02
3.362696e-02
4.259700e-02
1.194759e-01
1.028313e-01
5.136938e-02
7.847561e-02
3.290751e-02
-3.734651e-02
-6.073636e-03
1.523899e-02
-9.678532e-03
4.755814e-03
4.259562e-03
-8.593552e-03
1.401297e-02
1.274864e-02
5.036670e-03
-7.325360e-03
1.714551e-03
1.525057e-03
2.126005e-04
-3.307797e-02
-3.323372e-02
1.210588e-02
-2.810857e-02
-3.569517e-02
1.108408e-02
4.417956e-02
3.916234e-02
1.886891e-02
3.964911e-02
2.351356e-02
-3.951775e-02
-1.309135e-02
-1.838901e-02
2.197743e-02
1.612356e-02
5.755634e-03
3.473122e-02
2.054965e-02
2.365569e-02
1.104329e-02
3.724210e-02
2.285017e-02
2.960362e-02
3.483830e-02
1.575774e-02
1.261954e-03
-4.960700e-03
-1.650468e-03
1.614859e-02
6.074436e-04
-9.130446e-04
-2.920247e-02
3.664587e-02
3.521495e-02
-7.265495e-02
2.863862e-02
1.163382e-01
-4.771549e-02
-2.227461e-02
2.335955e-02
-1.977537e-02
-3.567719e-02
-2.161011e-02
-1.529488e-02
-1.790345e-02
-2.148126e-02
7.490021e-04
9.691351e-04
-6.987219e-03
-1.369402e-02
-2.935476e-02
1.664744e-03
1.508545e-02
-1.469273e-02
-2.090273e-02
1.250645e-02
-6.700816e-04
-1.138184e-02
-6.094653e-03
-2.799437e-02
-1.923421e-02
5.216287e-02
2.722656e-02
-4.122318e-02
6.732342e-02
7.562656e-02
-1.731651e-02
-1.240374e-02
-2.471174e-03
-6.849588e-03
-1.602469e-02
-1.856584e-02
-1.066112e-02
2.616791e-02
-8.149409e-03
-7.023305e-03
8.983492e-03
-4.889767e-02
-1.997766e-02
3.356605e-02
1.387650e-02
-2.634542e-02
-1.284101e-03
1.162478e-02
3.619117e-03
3.295802e-02
3.492858e-02
1.351352e-02
-2.165581e-02
3.562633e-02
7.371559e-02
-7.518166e-02
-5.177109e-02
1.038947e-02
5.161131e-02
4.135159e-02
-3.879813e-02
5.511208e-02
1.355542e-01
7.395407e-02
-6.253751e-02
5.782176e-02
8.184005e-02
-1.924603e-02
-5.430545e-03
-2.053383e-03
-1.670910e-02
-7.272334e-03
-8.055456e-03
8.047789e-03
5.441088e-03
8.528070e-03
1.140530e-02
1.354770e-03
-2.112908e-02
-3.891813e-02
-3.422001e-02
-1.788516e-02
-2.525396e-02
-1.871179e-02
2.986343e-03
1.184142e-02
8.080032e-02
7.948247e-02
-5.673204e-02
-2.337839e-02
4.939049e-02
-1.535967e-03
-6.938618e-02
-5.523773e-02
-3.573867e-03
1.312156e-02
1.084387e-02
4.208350e-02
4.382171e-02
1.392333e-02
3.796805e-02
4.088920e-02
3.009960e-02
-1.958633e-02
2.423160e-02
7.576373e-02
-4.695637e-02
-6.911895e-02
2.331217e-02
4.627919e-02
-4.930959e-02
-2.061241e-02
-6.402666e-03
-5.268852e-02
-2.517593e-02
5.650156e-02
-4.212781e-03
-3.320769e-02
5.767230e-02
1.813244e-02
-2.136187e-02
-3.634688e-02
-2.923547e-02
-2.028618e-02
1.076700e-02
1.840099e-03
4.644481e-04
4.397165e-02
4.307131e-02
2.582311e-02
-4.719272e-02
-4.006710e-02
2.122994e-03
-2.761891e-02
-3.252672e-03
-1.785968e-02
6.884180e-03
-1.724615e-02
-5.432388e-03
5.736941e-03
2.790271e-02
1.172426e-02
2.316435e-02
5.478232e-02
2.140009e-02
1.483375e-02
2.981867e-02
-2.208352e-03
-1.928683e-02
-3.724258e-02
-7.751577e-03
-2.878502e-02
-4.964839e-02
-1.098401e-02
1.729579e-02
1.402812e-02
-2.514763e-03
-6.919879e-03
1.063311e-02
1.934070e-02
-3.102616e-03
2.331734e-02
4.183264e-02
2.907393e-02
3.795485e-02
2.369347e-02
-1.493827e-02
-1.187123e-03
2.107618e-02
-1.463606e-03
6.299648e-03
3.402613e-03
2.024687e-02
8.707196e-04
2.084322e-02
-1.728632e-02
3.364826e-03
1.449339e-02
3.396959e-02
4.017373e-02
1.439447e-02
4.386831e-02
1.413063e-02
-2.031322e-02
2.976114e-02
3.472131e-02
4.611291e-02
7.526007e-02
1.146849e-01
1.030388e-01
8.178210e-02
9.555043e-02
6.873442e-02
5.497079e-02
2.001024e-02
-3.157922e-02
1.622334e-02
-3.904162e-04
-1.167954e-02
-7.251728e-02
-6.960795e-02
-7.914423e-02
-2.031268e-02
-7.167196e-02
-4.777607e-02
-2.602802e-03
-3.129857e-02
3.829829e-03
-7.824760e-03
1.009361e-02
2.444005e-02
-3.646047e-02
-2.762297e-02
-7.424407e-03
-7.216611e-03
-2.927323e-02
-8.904433e-03
2.593166e-02
3.168869e-02
1.597971e-02
-4.537293e-03
-5.729959e-03
3.189815e-04
-2.632201e-02
-5.125885e-02
-1.859956e-02
-4.561315e-03
-1.866280e-04
2.372058e-03
-1.116261e-02
-4.510215e-02
-2.356018e-02
-2.957187e-02
-3.587017e-02
2.542356e-03
-1.302684e-02
5.405549e-03
4.539748e-02
-1.239241e-02
-1.695492e-02
-1.264707e-02
-3.336561e-02
-4.951950e-02
-4.116818e-02
1.148707e-02
-1.875345e-04
-2.214214e-02
-7.514155e-02
-7.405921e-02
-3.917062e-02
-5.738981e-02
-6.552751e-02
-5.076039e-02
4.582482e-02
3.690879e-02
6.813927e-03
-3.056730e-02
6.141406e-03
6.229661e-02
-7.948523e-03
3.231939e-04
8.103762e-03
-1.625981e-02
-3.091595e-03
3.424902e-03
-2.030822e-02
-3.679350e-02
-1.833125e-02
3.708442e-02
4.893677e-02
3.461122e-02
-1.550378e-03
5.739197e-03
-2.041690e-02
-2.030585e-02
-3.936437e-02
-5.882492e-02
2.538267e-02
6.685581e-02
7.848949e-02
-2.249883e-02
-2.093497e-02
-2.089164e-02
-8.229138e-03
1.987873e-02
1.627237e-02
2.911326e-02
1.963515e-02
9.900352e-03
-1.624123e-02
1.652225e-02
3.225926e-02
6.119985e-04
-9.553093e-03
-3.566974e-02
5.119606e-03
-4.872680e-03
-1.496552e-02
-1.311523e-02
-1.396097e-02
1.357610e-02
-2.379537e-02
-3.000512e-02
-5.792500e-03
-1.999608e-03
-1.017606e-02
-3.428169e-02
-1.817875e-02
6.531024e-03
-8.828642e-03
-3.955817e-02
-3.565451e-03
1.880021e-03
1.792407e-02
3.632530e-02
3.203763e-03
4.128762e-03
-1.057687e-02
-3.713233e-02
4.164787e-03
-7.143882e-02
-1.243257e-01
2.468464e-02
9.932037e-02
9.567759e-02
2.274779e-02
-8.678710e-03
-1.415982e-02
-3.790827e-02
-1.191137e-01
-1.564070e-01
6.171033e-02
1.385781e-01
1.578700e-01
1.674387e-02
3.702682e-04
-2.061139e-03
6.702874e-03
1.716467e-02
1.328575e-02
-1.339835e-02
-2.769631e-02
-4.917559e-02
4.438144e-03
-7.263874e-03
1.391877e-02
2.996424e-02
4.302869e-02
4.841027e-02
-3.041770e-02
-5.160166e-02
-4.694502e-02
-8.638215e-03
3.684933e-04
3.555909e-02
6.222480e-03
8.969264e-03
-1.119680e-04
-1.465619e-02
3.234449e-02
2.271505e-02
9.922788e-03
-1.692604e-02
-1.365970e-02
5.061375e-02
1.296793e-01
1.352400e-01
-3.571773e-02
-1.562736e-01
-9.475093e-02
-1.189122e-02
2.353752e-02
2.279701e-02
-4.175356e-02
-3.864301e-02
-3.126723e-02
3.380048e-02
3.144771e-02
2.888812e-02
-1.059213e-02
6.156281e-03
5.477351e-03
-3.381227e-02
1.696620e-02
1.059692e-02
1.623820e-02
-1.550298e-02
-1.616875e-02
4.610660e-03
1.367704e-03
3.142044e-02
1.379911e-04
9.662415e-04
4.210148e-03
-1.024426e-02
-1.872554e-02
-1.112839e-02
-1.081740e-03
-9.959149e-03
-6.947780e-03
-8.217460e-03
-6.388914e-03
-1.544437e-02
-1.041370e-02
1.133933e-02
5.524373e-02
3.677218e-03
8.506217e-03
-8.272789e-03
3.883159e-03
-3.716504e-03
1.950445e-03
-3.872230e-02
-3.919390e-02
-1.745158e-02
-2.220857e-02
-6.021935e-03
9.288760e-03
-3.049774e-02
1.392174e-02
2.367327e-02
-1.241921e-02
1.042344e-03
-1.670212e-02
1.569044e-02
7.431614e-03
-7.826538e-03
-8.569216e-03
1.754565e-02
4.273636e-02
-1.578651e-02
3.186731e-02
5.814369e-02
2.687607e-03
4.326585e-02
1.554438e-02
-8.265979e-03
1.265724e-03
7.124993e-03
-5.055685e-03
-6.799749e-03
-4.396876e-03
1.794653e-02
7.464678e-03
2.367673e-03
-2.942997e-03
1.111049e-02
1.115700e-02
3.641643e-03
2.251366e-02
2.063931e-02
1.057935e-02
1.177216e-02
1.028535e-02
8.034768e-03
-2.413732e-02
-2.816679e-02
-3.366055e-02
-6.086541e-02
-4.787140e-02
-4.534744e-02
-4.765874e-02
6.334267e-03
-2.942134e-02
-1.046219e-02
-3.465422e-02
-2.356317e-02
-9.929197e-02
-1.160202e-01
7.930374e-03
-5.767753e-02
-7.199493e-02
-6.367473e-03
-5.209525e-02
-5.632785e-02
-3.697249e-02
-8.265843e-02
-8.421402e-02
-2.809819e-02
-5.899705e-02
-5.331821e-02
4.808702e-02
-6.402682e-03
-3.428333e-02
-2.077833e-02
-5.665483e-02
-6.024298e-02
-5.635078e-02
-4.346364e-02
-2.380925e-02
-2.350414e-02
-5.573299e-03
2.148134e-02
3.619150e-03
1.419070e-02
4.586856e-02
2.753179e-03
8.583246e-03
2.355132e-02
-1.060606e-02
-8.840213e-04
7.154182e-03
1.223298e-02
1.288461e-02
6.703220e-03
2.875065e-02
1.807893e-02
-5.475120e-03
3.696023e-02
7.527413e-02
5.060342e-02
3.185387e-02
1.038621e-01
7.007495e-02
3.162166e-02
8.245765e-02
5.890879e-02
-3.976044e-03
1.452598e-02
1.822678e-02
1.975348e-03
4.512235e-04
1.391804e-02
1.388374e-02
3.724188e-02
5.136529e-02
8.563672e-03
1.377406e-02
1.522583e-02
2.178305e-02
2.225891e-02
7.430942e-03
1.144303e-02
-8.163342e-03
-1.783672e-03
2.055853e-02
3.767825e-02
4.144275e-03
-8.709467e-03
1.132399e-03
-6.621928e-02
6.458512e-03
6.185763e-05
-6.312126e-02
4.937025e-04
1.131653e-02
3.265819e-02
4.537840e-02
4.855581e-02
2.900129e-02
2.759810e-02
4.700966e-02
-1.233182e-03
-3.098351e-02
-4.887279e-02
-2.717085e-02
3.382957e-03
-3.210503e-02
-1.698425e-02
4.621282e-02
1.300884e-02
-1.267924e-02
-3.773003e-02
-9.640983e-02
-9.439781e-02
-4.938220e-02
-1.072492e-01
-9.794699e-02
-2.110928e-02
-5.401142e-02
-2.477771e-02
-3.925260e-03
-7.081411e-02
-5.007018e-02
-2.686061e-02
-6.697626e-02
-7.126719e-02
-2.868752e-02
1.042637e-02
1.847885e-02
6.557061e-03
2.912764e-03
8.421027e-03
6.327318e-02
4.768960e-02
4.192134e-03
6.122053e-02
7.454875e-02
1.106972e-02
-4.213305e-02
-8.715006e-02
-6.228709e-02
-8.955065e-02
-1.830688e-01
-1.276736e-01
-4.554727e-02
-1.103063e-01
-6.304024e-02
-4.386827e-02
-2.825399e-02
-2.459337e-02
-1.876698e-02
-1.957677e-02
-3.011933e-02
1.800828e-02
3.552761e-02
-7.125122e-03
1.491350e-02
2.674220e-03
1.405928e-02
-7.305904e-03
2.121191e-02
2.637753e-02
-6.608078e-03
1.110173e-02
3.766037e-02
-2.616649e-02
-5.079970e-02
-4.665251e-02
-4.214191e-02
-4.139343e-02
-2.084756e-02
-3.067894e-02
-1.443176e-02
3.483801e-02
-4.055410e-02
4.090833e-02
3.301026e-02
-5.486697e-02
9.975902e-03
1.312489e-02
-4.925924e-02
-2.580886e-02
-2.499086e-02
-4.954358e-03
-1.989738e-02
-6.001774e-02
3.913626e-02
9.811162e-03
-2.901906e-02
2.907039e-02
3.646588e-02
7.138535e-03
1.270155e-02
-4.319022e-02
-4.098181e-02
-1.091329e-03
-3.953085e-02
-2.902839e-02
1.127568e-02
7.343840e-03
1.456110e-02
-1.540844e-02
-2.166336e-02
6.804361e-03
1.448789e-02
-1.123138e-02
-8.683778e-03
1.110836e-02
1.514931e-02
1.441886e-02
6.185005e-02
1.940416e-02
-1.667618e-02
6.676748e-02
4.078194e-02
-3.167297e-02
3.902064e-02
1.775303e-02
1.616784e-02
-5.623730e-02
-4.416378e-02
-5.418481e-02
-7.689090e-02
-7.018169e-02
-4.694840e-02
-4.792246e-02
-2.464522e-02
6.626669e-03
-4.546067e-02
-5.223462e-04
1.081508e-02
-2.526856e-02
-7.181353e-03
-2.136073e-02
-2.709123e-02
-5.768591e-03
-2.777391e-02
4.045907e-02
5.130931e-02
7.040704e-03
-1.181715e-02
4.598435e-02
1.053085e-02
7.335680e-03
3.795741e-02
-6.296846e-03
-5.173905e-03
-1.337495e-02
-1.161614e-02
-4.045330e-02
-1.482622e-02
-1.243036e-02
-4.458594e-02
-2.554143e-02
-1.333618e-02
-2.554038e-03
-3.679662e-05
9.147119e-04
-2.014152e-02
-1.847731e-02
6.699556e-03
-1.927233e-03
-1.114114e-02
-7.750507e-03
-2.467118e-02
-1.273544e-02
-6.565818e-03
-1.949302e-02
-4.409367e-02
-3.255052e-02
-1.776621e-02
-3.128680e-02
-2.927699e-02
1.682741e-02
3.554660e-02
1.431534e-02
7.602916e-03
4.790388e-02
3.907038e-02
6.289370e-03
3.270202e-02
3.493844e-02
1.580311e-02
1.379839e-02
3.351656e-03
1.388222e-02
1.811911e-02
7.809510e-03
-7.643184e-03
-1.123541e-03
5.325685e-03
8.561478e-03
2.802891e-02
1.474947e-02
-7.941995e-03
3.015199e-02
3.713338e-02
-4.879156e-02
2.335426e-02
6.770227e-02
-4.799309e-02
-5.000758e-02
7.542868e-04
-3.629465e-02
-7.073713e-02
-3.526697e-02
3.679027e-02
-7.373516e-03
-1.948103e-02
9.898369e-03
4.565416e-02
2.861346e-02
2.475229e-03
5.800250e-02
3.532383e-02
-1.005808e-02
4.073895e-02
1.338875e-02
-4.444777e-02
-5.043715e-02
-1.268255e-02
-3.532645e-02
-5.780733e-02
-1.994938e-02
2.082222e-02
-3.737504e-02
-2.555797e-02
4.326613e-03
1.572820e-02
5.457329e-02
-1.738662e-02
-1.645164e-02
2.316255e-02
1.213199e-02
-1.231951e-02
1.120430e-02
9.908148e-03
3.005302e-02
2.045391e-02
1.140575e-02
-3.608830e-03
7.896789e-03
-6.449340e-03
-7.394505e-03
6.942737e-03
1.901083e-02
-1.585979e-02
-4.502995e-02
1.424557e-02
-3.712703e-02
-3.922237e-02
4.525024e-02
-3.631738e-03
-3.288144e-03
-3.771749e-02
-1.871127e-02
-1.605729e-02
-1.261837e-02
-9.059699e-03
-2.104258e-02
2.068673e-02
4.124328e-02
1.600362e-02
6.764934e-03
-1.533496e-02
-1.679194e-02
1.412101e-02
7.381711e-03
-3.705705e-02
-8.664161e-03
8.356471e-04
-2.098482e-02
-3.107095e-02
-7.346430e-02
-1.377660e-01
5.683484e-02
-1.535479e-02
-1.175124e-01
9.892514e-02
6.969036e-02
-5.934933e-02
2.889593e-02
6.004432e-02
1.505505e-03
1.601752e-02
9.279203e-02
4.928512e-02
-5.434802e-02
7.254858e-02
4.594819e-02
1.040397e-03
-6.127852e-03
-5.281457e-03
-1.847389e-02
-1.555858e-02
-9.955437e-03
2.664951e-02
7.734869e-02
2.344442e-02
4.657464e-03
1.302001e-02
5.198288e-03
-3.144340e-02
-4.063722e-02
-2.287362e-02
4.013165e-02
5.351164e-02
1.981526e-02
-1.975538e-02
-3.361999e-03
-2.317804e-02
-9.170134e-03
1.612883e-02
4.976699e-03
4.552867e-02
2.548782e-02
3.582142e-02
-1.343642e-02
-4.791988e-03
-1.055837e-02
1.771606e-02
-3.802138e-03
-2.798405e-02
-1.798722e-02
-3.353448e-02
-1.201252e-02
-1.335256e-02
-9.507655e-03
8.750152e-04
-2.768229e-02
-2.032803e-02
-2.598748e-02
-1.250747e-03
-2.122186e-02
-1.299844e-02
1.424266e-02
1.752086e-02
5.164389e-03
-2.368243e-02
-1.222186e-02
-1.663835e-02
1.944471e-02
3.522903e-03
-2.021800e-02
8.491076e-03
2.010897e-02
-5.995275e-03
-5.097418e-02
-1.041439e-01
-8.795507e-02
1.033987e-01
1.132226e-01
5.205286e-02
4.312441e-03
4.724995e-02
-2.812060e-02
-1.064478e-01
-1.420428e-01
-4.590572e-02
1.253464e-01
1.363139e-01
5.698388e-02
-1.091190e-02
-1.482605e-02
1.091495e-02
4.413967e-02
2.868276e-02
9.289812e-03
-3.607071e-02
-3.553564e-02
-3.460605e-02
2.294924e-02
-5.907197e-04
3.776959e-02
1.839498e-02
3.872899e-03
1.572596e-02
-3.482103e-02
-2.121425e-02
-6.599373e-03
3.141925e-03
-7.614373e-04
6.039517e-03
-6.796863e-03
1.031560e-02
-2.180649e-03
1.374263e-02
2.191839e-02
6.714389e-03
-2.527234e-02
-3.343865e-02
3.155420e-02
1.452408e-01
1.353181e-01
4.760078e-02
-1.383259e-01
-1.423985e-01
2.504604e-03
-1.378488e-02
1.744343e-02
1.017562e-02
-3.091032e-02
-4.246341e-02
-2.474401e-03
1.041250e-02
2.106991e-02
1.484018e-02
-6.598805e-03
4.928679e-03
5.405974e-04
5.084681e-04
3.026576e-02
6.520714e-03
-2.344289e-02
-3.676068e-02
2.290565e-02
2.969895e-02
2.065917e-02
3.020388e-02
-4.698063e-03
-1.810557e-02
-3.417684e-02
-2.086868e-02
-2.000920e-02
-8.014836e-03
5.424105e-03
3.160470e-02
8.075094e-03
-4.984543e-02
-4.018716e-02
-2.669641e-02
1.173364e-02
5.073429e-02
4.852415e-02
-2.451232e-02
-1.850880e-02
-1.649731e-02
-6.070015e-02
-4.739060e-02
-2.133477e-02
-3.801403e-02
-2.112242e-02
-2.141620e-02
-6.635514e-03
2.111398e-02
7.781751e-04
1.970684e-02
3.134289e-03
-3.702474e-02
1.730960e-02
1.082320e-03
-2.803260e-02
-9.087616e-03
-1.842814e-02
-7.106796e-03
-1.390261e-02
-5.140287e-02
-1.612197e-02
-2.000309e-02
-4.666001e-02
-2.591958e-02
-4.470886e-02
-2.679128e-02
-3.907428e-03
-4.345642e-02
1.026722e-02
1.658942e-02
-8.270839e-03
2.651799e-02
1.982488e-02
-1.183399e-02
1.177798e-02
-2.632361e-03
-8.024592e-03
8.592999e-03
-5.842370e-03
3.539835e-03
8.838575e-03
6.546859e-03
-7.217370e-03
-2.043083e-03
-8.839690e-03
-1.875026e-02
1.377244e-02
-1.977469e-03
1.170728e-02
2.306992e-02
3.040004e-02
5.259338e-02
6.711622e-02
3.173425e-02
1.170418e-01
1.112619e-01
1.162670e-02
6.310344e-02
4.685492e-02
-4.857671e-03
7.816759e-04
9.541623e-03
-1.493056e-02
1.344163e-02
6.980143e-03
4.953264e-03
4.346456e-02
3.727999e-03
1.648796e-02
2.068182e-02
2.928499e-02
1.527557e-02
8.480427e-02
2.879817e-02
2.081353e-02
7.790869e-02
-4.536267e-03
-3.252400e-03
-2.925660e-02
-9.520147e-03
-1.936258e-03
-1.842259e-02
-8.147517e-03
-7.502713e-03
-1.643906e-02
-5.750305e-03
2.770637e-03
1.451572e-02
1.652724e-02
-3.099220e-02
2.537519e-02
-4.408257e-03
-2.507670e-02
5.996188e-03
-1.148057e-02
-3.132364e-02
-3.941918e-02
1.802510e-02
4.045016e-02
-2.640613e-02
-7.522963e-03
4.716212e-02
8.305346e-03
-5.060662e-03
6.265896e-03
-3.143939e-03
2.041169e-02
-9.027991e-04
5.724753e-02
8.551116e-02
1.552296e-02
1.916667e-02
1.106515e-02
-5.047155e-02
7.057990e-03
3.132048e-02
2.018033e-02
-1.965829e-02
3.031692e-02
-4.932168e-03
9.229667e-03
2.695369e-02
-1.532074e-02
-8.376486e-02
-1.714282e-02
3.999842e-02
-5.367720e-02
7.908469e-02
8.800284e-02
-4.884224e-02
9.868918e-02
6.543440e-02
-7.453732e-03
-2.505816e-02
-2.939709e-02
-5.781055e-02
-4.693412e-02
2.067466e-02
-1.009844e-01
-5.335734e-02
2.837817e-02
1.619980e-02
2.136215e-02
2.968847e-02
2.249493e-02
3.311062e-03
2.614016e-02
7.756899e-03
2.575872e-03
1.680331e-02
-3.946299e-02
-3.700059e-02
-4.212727e-03
-2.771246e-02
-2.154450e-02
1.018641e-02
-1.610692e-03
9.403322e-03
7.032027e-03
-6.248185e-02
1.316596e-02
3.395490e-02
-4.372529e-02
2.378598e-02
1.026816e-02
3.779318e-02
3.402295e-02
-1.531076e-03
2.534218e-02
1.375558e-02
2.683607e-03
1.255516e-04
-2.102777e-02
-2.116106e-02
-1.660967e-02
-3.340401e-02
-1.139607e-02
4.697104e-03
-1.836265e-03
2.282824e-03
5.285384e-03
8.434813e-03
-4.864679e-03
8.022767e-04
9.156179e-03
9.106808e-03
1.538915e-04
-2.198672e-02
-2.963289e-02
5.373199e-03
3.868136e-03
2.056051e-02
-1.441626e-03
1.719826e-02
5.042188e-02
-5.596693e-03
2.694913e-02
2.033466e-02
6.263486e-02
8.107926e-02
7.631814e-02
5.759233e-02
5.299543e-02
2.176340e-02
-3.462894e-02
-3.155464e-02
-7.077889e-03
-8.787066e-02
-5.565715e-02
1.452779e-02
-4.796727e-02
-2.529468e-02
2.851588e-02
-1.063519e-01
-1.106344e-01
-4.617071e-02
-1.577127e-01
-5.090732e-02
5.979372e-02
-4.029790e-02
4.795692e-02
5.263069e-02
-6.541280e-02
-5.643462e-02
9.276310e-03
-6.742925e-02
7.276641e-03
6.225363e-02
-3.033693e-02
3.229271e-02
3.478245e-02
-8.699648e-03
5.326955e-03
4.049974e-04
5.923767e-03
2.517097e-02
1.000621e-02
1.393815e-02
1.673551e-02
7.476646e-03
-2.998559e-02
-2.593265e-02
7.242643e-03
-2.529976e-02
-4.619308e-03
1.340195e-02
-6.216062e-03
-1.418024e-02
1.318891e-02
5.439404e-03
-8.162388e-03
8.997999e-03
-4.827966e-02
-2.935498e-02
-1.238543e-02
-4.656385e-02
-2.355767e-03
8.592323e-03
-1.170796e-02
8.764487e-03
6.444758e-03
-1.710505e-02
5.397147e-03
-2.398060e-02
-3.580056e-04
4.689617e-03
-2.726724e-02
4.452514e-02
4.118394e-02
-1.773403e-02
3.201064e-02
-3.127229e-02
-9.319024e-02
-1.938767e-03
-6.471800e-02
-6.449893e-02
1.745182e-02
5.127700e-02
8.763786e-02
7.968903e-02
7.276123e-02
5.120680e-02
8.832608e-02
2.170470e-02
-3.398132e-02
-1.405246e-02
-7.187612e-02
-5.811345e-02
-2.494476e-02
-7.923751e-02
-6.087536e-02
-3.198497e-02
-6.076252e-02
-3.221761e-02
-4.664008e-02
-2.587217e-02
1.647349e-02
-3.728488e-02
-3.937329e-03
3.679468e-02
-1.368439e-03
1.265498e-02
3.160265e-02
-1.977067e-02
-6.732356e-02
-3.975616e-02
-1.962197e-02
-7.688437e-02
-4.924536e-02
-1.339481e-02
-5.566601e-02
-3.788561e-02
1.736997e-02
3.127290e-03
-1.742762e-02
3.127269e-02
5.942252e-02
3.657719e-02
7.453548e-03
3.021212e-02
3.454693e-02
-2.686113e-02
-1.243240e-02
1.694672e-02
-2.090696e-03
1.211008e-02
1.480375e-02
4.456603e-03
-2.758580e-04
-3.835936e-03
7.974086e-03
-5.227794e-02
-2.688966e-02
-3.383521e-02
-7.233490e-02
-2.847528e-03
-2.758554e-02
-5.080449e-02
6.588593e-04
2.724164e-02
3.489959e-04
-4.357343e-02
6.424741e-02
1.448756e-02
-4.999356e-02
6.118656e-02
3.791339e-02
-3.969014e-02
-4.485431e-02
-5.578034e-02
-5.926063e-02
1.493065e-02
-5.309433e-02
-7.733157e-02
2.187266e-02
-3.083122e-02
-5.081552e-02
1.257670e-02
8.622766e-03
-1.904049e-02
7.202649e-03
2.015482e-02
-1.947901e-02
-4.166874e-02
-3.753895e-02
-4.832112e-02
-3.699853e-02
-9.718937e-03
2.642860e-02
6.213555e-03
1.453469e-02
1.577816e-02
2.298364e-02
-6.062503e-03
-1.642903e-03
4.230595e-02
1.269004e-01
7.567431e-02
7.918222e-02
1.893058e-01
1.229774e-01
6.218985e-02
1.206655e-01
7.104232e-02
-3.794441e-02
-4.795250e-02
8.717962e-03
-4.460168e-02
-5.526845e-02
-5.678538e-03
-2.091138e-02
-2.943521e-02
-1.261233e-02
-1.628053e-02
3.179372e-02
6.209078e-02
-4.533350e-03
7.839730e-02
8.427848e-02
-2.161553e-02
7.392785e-02
1.003434e-01
-1.383859e-02
-1.158104e-02
-2.599848e-03
-2.198161e-02
-3.573609e-02
-2.659672e-02
-2.553111e-02
-4.206388e-02
-3.737178e-02
-6.718281e-03
-7.969444e-03
3.243919e-02
-2.580710e-02
-3.771062e-02
2.231470e-02
-1.916346e-02
-1.626017e-02
1.151622e-02
-3.993867e-02
3.172405e-02
1.359769e-04
5.661483e-03
6.723622e-02
3.774049e-02
-1.665238e-02
3.888165e-02
-1.168249e-02
-2.291342e-02
-6.719895e-02
-4.307476e-02
-4.928881e-02
-1.042627e-01
-7.062766e-02
-2.937284e-02
-4.887852e-02
-3.297088e-02
4.366887e-02
7.582080e-02
1.817063e-02
9.480032e-02
1.152406e-01
2.915253e-02
5.916007e-02
7.145044e-02
2.961474e-02
7.049737e-03
2.600572e-02
3.043201e-02
2.442325e-03
7.291343e-03
-1.123737e-02
4.567955e-03
-3.406508e-02
-1.865773e-02
-3.171368e-02
-8.899412e-02
-5.640317e-02
-5.985422e-02
-1.006296e-01
-8.771209e-02
-4.216504e-02
-4.796654e-02
-3.475703e-02
4.898077e-02
8.998992e-02
4.581751e-02
1.241239e-01
1.481442e-01
5.870695e-02
8.378789e-02
9.261329e-02
2.992682e-02
-1.357363e-02
-4.670228e-02
-4.718696e-02
-4.610203e-02
-6.502875e-02
-5.511356e-02
-6.502091e-02
-5.567551e-02
-2.227317e-02
2.408636e-03
3.102694e-02
1.934688e-02
3.754818e-02
5.151270e-02
2.086211e-02
2.198752e-02
5.262871e-03
2.791537e-02
-1.830833e-03
-1.451089e-02
7.620390e-03
-1.422576e-02
-5.039511e-02
1.569353e-02
-2.826073e-02
-4.858653e-02
-9.879138e-04
-1.670328e-02
-2.118093e-02
-4.026575e-02
-5.108293e-02
-2.538143e-02
6.699777e-03
-2.288309e-02
6.165511e-03
2.856246e-02
-1.605065e-02
-5.198980e-02
-1.776387e-02
-5.302995e-02
-2.089693e-02
1.599959e-02
-3.199780e-02
-1.238409e-02
-6.555538e-03
-2.433213e-02
-1.291902e-02
-1.318207e-02
-2.527922e-03
-1.557074e-02
-2.238306e-02
5.701041e-03
-1.874529e-02
-1.402135e-02
1.392505e-02
-4.871263e-02
-4.557325e-02
-3.531658e-03
-5.770101e-02
-4.357792e-02
-1.586776e-02
-1.982606e-02
-8.648998e-03
-3.737501e-02
-2.782379e-02
-9.960700e-03
-4.026389e-02
-3.334243e-02
-1.665556e-02
9.852401e-03
1.617398e-03
-2.540880e-03
5.714819e-03
2.625681e-02
8.326384e-03
3.923332e-02
5.847061e-02
5.875416e-03
4.159127e-02
3.280520e-02
-1.720555e-02
-3.260515e-03
2.859477e-02
-4.894964e-03
3.229207e-02
5.948783e-02
1.386520e-02
9.428075e-03
3.431746e-02
1.734174e-02
-3.354263e-02
3.790216e-04
-3.353443e-02
2.531857e-02
3.988828e-02
-1.407336e-02
2.026793e-02
-2.130545e-03
-3.365323e-02
-7.994755e-02
-9.048188e-02
-5.602512e-02
-1.454741e-01
-1.919308e-01
-1.285952e-01
-1.153224e-01
-1.557601e-01
-9.133042e-02
4.317572e-02
1.941906e-02
-1.728470e-03
3.083681e-02
4.076745e-02
3.543671e-02
7.693581e-03
3.669984e-02
4.713206e-02
1.247060e-02
-3.190484e-02
-3.045577e-02
-4.631455e-04
-2.493462e-02
-3.197697e-02
2.556847e-03
-1.663009e-02
-2.343267e-02
-3.783162e-02
-5.456342e-02
-5.356954e-02
-8.450378e-02
-1.173968e-01
-7.179992e-02
-5.974733e-02
-1.063247e-01
-4.955593e-02
-4.678921e-03
-4.588917e-02
-4.519489e-02
-4.930232e-02
-9.854523e-02
-5.555188e-02
-5.475473e-02
-7.382775e-02
-2.285399e-02
-3.337007e-03
-2.576973e-02
-7.966395e-03
-2.585299e-02
-3.953864e-02
-3.302857e-02
-1.755606e-02
-4.732471e-02
-4.395946e-02
2.533427e-02
1.541950e-02
1.644260e-02
2.360299e-02
2.183732e-02
9.103164e-03
-2.194014e-02
1.747815e-02
8.324363e-04
6.182007e-02
-3.315334e-03
-5.225036e-02
3.137574e-02
1.799532e-02
1.052625e-02
3.519327e-02
4.753909e-02
3.895881e-02
-4.676623e-02
-1.087493e-02
-1.492638e-04
2.588569e-02
2.392713e-02
-1.608676e-02
1.434879e-02
-1.399041e-02
-3.845546e-02
-1.172187e-02
1.147076e-02
4.394143e-02
-9.968139e-03
1.065530e-02
5.593141e-02
2.443250e-02
1.913258e-02
3.258507e-02
1.146237e-02
1.993179e-02
8.198366e-03
-1.108736e-02
-7.551210e-03
-3.349292e-03
-1.391107e-02
1.099465e-03
3.809729e-03
-1.210099e-02
4.627678e-03
2.051423e-02
-4.132948e-02
-3.184697e-02
3.612383e-02
2.891396e-03
-4.638331e-03
-2.767803e-03
4.630515e-04
5.466232e-03
-2.420407e-02
1.909365e-02
3.030914e-02
3.548480e-02
-3.757265e-02
2.474171e-02
8.824857e-02
4.797199e-02
3.804382e-02
2.651273e-03
3.049846e-02
4.183931e-02
1.932799e-02
1.631856e-02
1.424700e-02
4.153879e-03
-2.842507e-02
-2.752234e-02
-1.259874e-02
-3.248139e-02
-3.158003e-02
-5.443519e-02
6.042120e-03
4.502033e-02
8.424794e-03
-2.679072e-03
2.052616e-02
2.137399e-02
1.370216e-02
7.090823e-02
4.769510e-02
-3.069897e-02
2.267605e-02
-3.694658e-03
-2.661083e-02
3.264511e-03
8.278916e-03
-2.664282e-02
6.665407e-03
1.359567e-02
-1.219086e-02
-1.282828e-02
7.667753e-03
2.748250e-03
2.114983e-02
2.130439e-02
-1.753547e-02
-3.442688e-03
1.685906e-02
-3.029368e-02
-1.244268e-03
1.565150e-02
-3.737453e-02
-1.319185e-02
2.051849e-02
-9.601333e-03
1.879667e-02
5.129449e-02
4.341355e-03
7.268007e-03
2.069540e-02
-1.113814e-02
3.443049e-03
-1.032374e-03
-3.433694e-02
-4.700163e-02
-1.442523e-02
-1.806196e-02
-6.232560e-02
-3.596109e-02
9.213142e-03
6.950344e-03
-6.125065e-03
-9.256977e-03
-2.395368e-02
-1.642585e-02
-2.991548e-02
-4.161351e-02
-1.784210e-02
3.775270e-02
5.862259e-02
4.455331e-02
3.079356e-02
2.639914e-02
-7.761001e-03
4.143396e-02
5.029663e-02
1.925842e-02
2.286373e-02
2.001656e-02
6.679483e-03
1.598865e-02
-3.937834e-03
4.783111e-03
-4.078581e-02
-1.065041e-02
-1.413009e-02
-7.312266e-02
-9.668500e-02
-8.032427e-02
-7.671002e-02
-9.359301e-02
-7.568569e-02
-1.771663e-02
-2.585078e-02
1.587391e-02
2.432020e-02
2.658175e-02
8.999771e-03
4.621458e-02
2.639013e-02
1.099283e-02
3.024219e-02
-2.500856e-02
-5.083594e-02
2.760582e-02
2.880282e-02
4.720496e-02
2.026199e-02
8.195469e-03
4.920423e-02
-2.948893e-02
-5.718611e-02
-3.312127e-02
4.936948e-03
3.447906e-02
1.970089e-02
2.829660e-03
-1.091235e-02
-3.741972e-03
-1.024383e-02
-2.260762e-02
-1.132205e-02
2.022798e-03
2.940231e-02
4.561305e-02
-1.449850e-02
-3.547814e-03
3.552706e-02
-1.304376e-02
-2.460828e-02
6.049000e-03
-6.153707e-03
-1.491697e-03
-6.180584e-03
4.979479e-03
-2.603099e-02
-2.256916e-02
-2.670972e-02
-2.082269e-02
-2.861010e-02
-3.091906e-02
-3.167746e-02
-1.838274e-02
-4.087024e-02
-6.367838e-02
-4.659482e-02
-2.166591e-02
-5.204218e-02
-3.826940e-02
1.543758e-02
5.595256e-02
8.600990e-02
-6.870255e-02
-4.661320e-02
-2.831324e-02
-6.570885e-02
-5.085186e-02
-6.007989e-02
-6.254837e-02
-3.924486e-02
-2.309543e-02
-3.939516e-02
-2.902682e-02
-2.765230e-02
-4.945103e-02
-2.350574e-02
-2.063524e-03
5.349660e-02
2.980883e-02
-3.635927e-02
6.113629e-02
-1.014801e-02
-6.275673e-02
-2.171200e-03
-4.171128e-02
-2.785278e-02
1.462561e-02
3.588752e-02
2.051079e-02
2.661641e-02
4.164445e-02
7.437163e-03
-7.780180e-03
2.062107e-02
-8.625228e-03
-1.822648e-02
1.245541e-02
7.185339e-03
4.576565e-02
3.890619e-02
9.790823e-03
-4.203953e-03
-9.368506e-04
-4.245874e-03
7.126661e-02
7.552439e-02
1.719768e-02
2.960794e-02
3.070422e-02
-2.437561e-02
-3.561792e-02
-5.507572e-02
-4.255245e-02
-7.834823e-03
-6.478771e-03
-4.341932e-03
-8.264199e-03
-1.186536e-02
-2.601611e-02
-1.251785e-02
-3.161716e-02
-3.624026e-02
4.141382e-02
5.312669e-02
-1.734344e-02
9.018961e-03
-2.695806e-02
-4.707871e-02
-5.082243e-02
-9.983706e-02
-4.158365e-02
3.522572e-02
7.087105e-02
5.271743e-02
4.963724e-02
5.609964e-02
-1.913680e-02
-2.287209e-03
-5.365930e-02
-6.076033e-02
9.003207e-02
8.082353e-02
2.093037e-02
8.698568e-02
7.421456e-02
1.517164e-02
4.781419e-03
-1.133769e-03
-1.924576e-02
-7.253120e-02
-4.414613e-02
-8.001689e-04
2.093799e-03
2.899645e-02
5.509367e-02
-1.098690e-02
1.130138e-02
2.539963e-02
-1.278830e-02
1.182538e-02
7.416406e-03
5.134030e-04
3.701454e-02
5.328833e-02
-3.052627e-02
-2.457916e-02
-1.410915e-02
2.869046e-02
5.708418e-02
4.128736e-02
6.569461e-03
-6.189987e-03
-2.570525e-02
-2.730063e-02
-3.499681e-02
-2.826459e-02
4.605537e-04
-4.167787e-02
-5.415324e-03
-1.197418e-02
-8.694916e-03
4.639666e-02
-2.910704e-02
1.250982e-02
5.349336e-03
6.837115e-02
6.608887e-02
1.570381e-02
-1.379260e-03
-5.338750e-02
-5.487201e-02
-2.443442e-02
-5.146575e-02
-6.405097e-03
4.963862e-03
6.063769e-03
-1.571606e-02
-3.799969e-02
-7.733043e-02
-4.103202e-02
-3.546555e-02
-4.443261e-02
-4.640459e-02
-2.762063e-02
-7.944296e-03
8.526762e-03
1.269683e-03
2.548905e-02
2.015684e-02
3.165779e-02
3.585384e-02
3.505670e-03
-3.760121e-02
-1.391351e-02
-5.091626e-02
-1.743164e-04
5.073138e-02
1.988793e-02
-1.945596e-02
3.098674e-02
8.022455e-03
-7.920024e-03
-8.370514e-03
-1.254669e-02
2.861258e-03
1.849498e-02
4.203578e-03
3.151913e-03
1.408504e-03
1.875240e-02
-5.109156e-03
2.128202e-02
3.534148e-03
4.515738e-04
2.451360e-02
-3.113423e-03
-2.662018e-03
5.853875e-03
-4.741098e-03
7.976767e-03
-1.404873e-02
-9.369969e-03
8.485648e-04
-1.941535e-02
-3.301437e-04
3.394982e-03
-2.986068e-02
-1.150590e-02
-3.252307e-03
-2.708211e-02
-8.707866e-03
1.592017e-02
-4.461304e-02
2.435005e-02
-3.030064e-03
-6.667458e-02
6.420560e-03
-1.174159e-02
-2.025783e-02
-6.541810e-03
-8.271770e-03
-2.873026e-02
-1.113105e-02
-2.280248e-02
-3.193839e-02
-1.504666e-02
-1.858194e-02
-5.950995e-03
7.969440e-03
-3.047470e-02
1.743741e-03
2.239610e-02
-1.703449e-02
2.257917e-02
7.842956e-03
-1.069944e-01
3.072183e-02
6.596961e-02
-1.375415e-01
7.328760e-02
1.129102e-01
-8.801511e-02
3.696341e-02
8.822352e-02
4.713622e-02
1.782739e-02
6.114803e-03
2.562349e-02
-2.506866e-02
-2.782251e-02
6.515622e-03
-2.769078e-02
-3.058212e-02
-4.968232e-02
3.172292e-03
2.623176e-03
-4.465939e-02
3.472514e-02
2.331289e-02
-5.371632e-02
2.028683e-02
4.214087e-03
8.638985e-04
-3.003899e-02
2.606512e-02
2.221906e-02
-1.330321e-02
1.327796e-02
1.628635e-02
-3.090320e-02
1.761235e-02
1.464647e-02
-4.325899e-03
3.560803e-02
2.243888e-02
3.651864e-02
3.477465e-02
7.660392e-03
2.809516e-02
1.314868e-02
2.021702e-03
-1.782834e-02
1.995159e-02
9.014530e-03
-1.337900e-02
1.827994e-02
3.296539e-02
1.780529e-02
-8.248427e-03
3.939203e-03
-2.532762e-02
-3.218245e-02
2.629907e-02
1.605470e-02
-2.201716e-02
7.252782e-03
2.594936e-02
-1.675846e-02
2.105611e-02
1.965660e-02
5.790978e-04
1.876016e-02
-6.166322e-03
1.496202e-02
2.994650e-03
-1.174731e-02
3.313670e-02
-1.930477e-02
-4.954701e-02
3.982294e-02
-3.126083e-02
-5.705428e-02
1.014183e-01
-4.726810e-02
-8.716734e-02
8.066103e-02
3.807903e-02
-3.190992e-03
-1.835562e-02
7.883867e-02
-1.476353e-02
-2.506609e-02
6.134988e-02
-1.233105e-02
-2.297482e-02
-1.013679e-02
-2.931525e-02
-1.433889e-02
-2.192870e-02
-5.622055e-02
-1.938878e-02
-4.352735e-03
2.731399e-02
2.437468e-02
-4.305594e-02
-3.273213e-02
1.004944e-02
-1.352976e-02
2.013045e-02
3.358001e-02
4.525975e-02
8.366760e-02
4.264695e-02
-1.115604e-02
1.036672e-02
-3.654789e-03
-2.011530e-02
3.794784e-03
1.032016e-02
-2.767349e-02
-3.043950e-02
-1.587307e-02
1.037377e-02
-2.393780e-02
-3.019376e-02
2.906406e-03
-1.851390e-02
-1.962158e-02
-5.982977e-03
1.400519e-02
2.336318e-02
-1.239314e-02
-2.417728e-02
-1.642811e-02
7.727235e-04
-1.499116e-03
1.181248e-02
9.147291e-03
2.736415e-02
2.549635e-02
5.436725e-04
-1.126500e-02
2.254554e-02
1.208593e-02
3.047301e-02
4.814518e-02
2.625057e-02
8.513412e-02
6.368406e-02
-2.067304e-02
-1.679050e-02
-2.860190e-02
9.761794e-03
-3.319670e-02
-6.068515e-02
4.626521e-03
-2.638378e-02
-1.622918e-02
-1.238822e-02
3.038213e-04
2.553841e-02
1.454760e-02
2.002568e-02
5.182148e-02
3.434228e-03
-2.051728e-03
9.565901e-03
-3.275418e-02
4.654461e-02
2.234954e-02
-2.579646e-03
1.841240e-02
-3.641972e-02
-9.871679e-03
-1.284590e-02
-8.679934e-02
2.169089e-02
2.186302e-02
5.272361e-04
4.558240e-02
4.906754e-02
1.013084e-02
9.527634e-03
-1.701798e-02
-5.709667e-02
1.337296e-02
-1.005339e-03
-1.596740e-02
2.302252e-02
1.367944e-02
-3.667590e-03
-8.543908e-04
2.632011e-02
2.451358e-02
1.127926e-02
2.010981e-02
4.735269e-02
2.783949e-02
7.902127e-02
7.918774e-02
8.124709e-02
1.124780e-01
1.098756e-01
-3.451875e-02
-9.994412e-02
-7.378586e-02
-3.783271e-02
-6.603131e-02
-8.799018e-03
2.186845e-02
6.815802e-02
8.140339e-02
1.238568e-03
-9.082261e-03
4.087372e-03
-4.567575e-03
1.881853e-02
1.954226e-02
5.975978e-04
-2.881181e-06
-1.595434e-02
-4.486862e-03
-3.606422e-02
-7.958768e-03
-6.426746e-03
2.348400e-02
4.701199e-02
3.774975e-03
4.095200e-02
3.841862e-02
-2.984811e-02
3.323711e-03
-2.242106e-02
-1.369975e-03
-7.390788e-03
-4.490355e-02
-2.865851e-02
-4.731991e-02
-5.014120e-02
1.676758e-02
2.876811e-02
5.602764e-03
3.427624e-02
4.912040e-02
2.819892e-02
1.936527e-02
1.475819e-02
7.320744e-03
-4.912773e-04
1.329892e-02
1.216837e-02
-4.044730e-02
4.303397e-03
4.050010e-02
-2.289982e-02
-8.163656e-03
1.830182e-02
8.623179e-03
-2.867149e-02
-1.224994e-02
-2.714775e-02
-7.470243e-02
-4.496789e-02
-3.895169e-02
-4.213445e-02
-4.743218e-02
2.535528e-02
1.854983e-02
-1.108234e-02
8.469190e-03
2.816770e-02
2.219076e-02
-2.448480e-03
2.981842e-02
3.940713e-02
2.581325e-02
1.152444e-02
6.209540e-04
4.601302e-02
5.949758e-02
2.516440e-02
2.996572e-02
4.853895e-02
1.843493e-02
4.312920e-03
3.050027e-02
1.110410e-02
-1.837770e-02
6.597756e-02
8.142190e-02
-7.146253e-02
-2.264256e-02
5.874890e-02
1.327405e-02
1.843954e-02
-1.107313e-02
1.409351e-02
3.153246e-02
3.419963e-02
-8.513632e-03
3.030953e-02
3.885245e-02
-2.753773e-02
-1.142804e-02
3.368227e-02
-1.515693e-02
-1.978713e-02
3.441060e-02
-1.580137e-02
-3.036607e-02
1.384925e-03
1.015654e-02
1.102261e-02
-2.254563e-02
2.318640e-02
5.544734e-02
3.673054e-02
-6.084011e-02
-1.109686e-02
2.829162e-03
-7.066310e-02
-4.991802e-02
-1.940528e-02
-1.401342e-01
-1.796167e-01
-1.209148e-01
-1.020817e-01
-1.684019e-01
-1.234635e-01
3.801976e-03
2.928763e-03
-3.102153e-03
-8.200276e-03
-8.462020e-03
-5.005789e-03
-1.383970e-02
-9.229805e-03
-1.212258e-02
4.008832e-02
3.159190e-02
5.111827e-03
3.118985e-02
4.731517e-02
2.977276e-02
3.918427e-03
1.569826e-02
3.086402e-02
8.071400e-03
7.061224e-03
4.555665e-03
2.931203e-02
2.766791e-02
1.073989e-02
2.003998e-02
3.643435e-02
7.810285e-03
-2.155428e-02
-1.129119e-02
2.969980e-03
-3.191775e-02
1.341863e-02
2.039954e-02
-2.417413e-02
-3.778578e-03
2.140322e-03
-2.146059e-02
-3.761378e-02
-4.093725e-02
-7.200594e-03
-1.093758e-02
-2.652082e-02
1.139475e-02
1.495882e-02
-7.922544e-05
5.319865e-02
2.121689e-02
6.244354e-03
7.289431e-02
6.784442e-02
8.148391e-02
1.005641e-02
8.399593e-03
1.448272e-02
-1.957171e-02
-1.152349e-02
-1.872876e-02
-9.559873e-03
1.740731e-02
-9.379741e-03
-2.389430e-02
-1.701749e-02
-3.555516e-02
-1.221155e-02
-1.974061e-02
-1.358895e-02
-3.321779e-02
-4.157688e-02
-3.442020e-02
-1.712369e-02
-2.711266e-02
-3.192903e-02
6.280165e-03
-1.322645e-02
-2.377298e-02
-1.008399e-02
-2.230957e-02
-2.329315e-02
2.726961e-02
5.679745e-03
1.237126e-02
-1.818772e-03
3.547026e-04
-2.897854e-03
1.349500e-02
-4.979336e-03
-4.424692e-03
6.704317e-03
-1.476961e-02
-2.591898e-02
-8.625718e-03
-6.423065e-03
-9.389223e-03
2.521552e-03
1.359638e-02
9.017429e-03
2.499947e-02
2.263080e-02
5.488640e-03
-1.666998e-03
-2.648355e-02
-2.168217e-02
2.612847e-03
-1.466452e-02
-1.089092e-02
1.636760e-02
-1.110283e-03
2.940843e-03
-1.322783e-02
-2.709697e-02
-7.649248e-02
-2.520747e-02
-3.015405e-02
-7.041499e-02
-4.160561e-02
-4.273961e-02
-7.252425e-02
-2.357180e-02
-6.411631e-03
4.659406e-02
-1.055581e-02
-1.217404e-02
4.349190e-02
4.195632e-02
3.198265e-02
6.500833e-02
1.076949e-02
1.294905e-02
1.188928e-02
-7.203396e-03
8.918804e-03
6.888154e-03
1.456929e-02
2.496357e-02
4.436756e-02
-3.017784e-02
-3.586676e-02
1.570053e-02
-4.139953e-02
-5.377939e-02
1.329954e-02
1.483221e-02
-1.586097e-02
5.959054e-02
-2.743246e-02
4.681147e-03
2.958692e-02
3.882699e-05
2.662050e-02
2.295698e-02
-1.893452e-03
2.624068e-02
3.315974e-02
1.012952e-02
7.420090e-03
2.044900e-03
2.833817e-02
8.030551e-03
1.245388e-02
-2.350855e-03
-9.571366e-03
4.285325e-03
-2.393568e-02
-2.680143e-02
-2.536084e-03
1.904143e-02
-8.792590e-03
2.797377e-02
-4.186466e-02
-6.780375e-02
-2.265567e-02
4.060165e-02
4.458448e-02
6.605625e-03
2.408991e-02
8.559283e-03
-2.094779e-02
2.087818e-02
1.679743e-02
-1.355082e-02
-1.985919e-02
1.113658e-02
5.313645e-03
-6.032525e-02
-2.794311e-02
-2.488318e-02
1.116478e-02
6.925175e-02
9.272107e-02
-2.227617e-02
-3.267570e-02
-3.078043e-02
-2.255782e-02
-4.355349e-02
-3.054013e-02
-2.095532e-02
-6.350901e-02
-5.768071e-02
