-9.607902e-04
2.283473e-02
1.064884e-02
1.677985e-02
1.891363e-02
8.590972e-03
9.520537e-03
8.947491e-03
4.684217e-03
2.050218e-02
-2.306122e-02
-3.335059e-02
1.122497e-02
-6.838879e-02
-6.317914e-02
7.528269e-03
-3.136653e-02
-3.766777e-02
-2.921663e-03
1.948581e-02
1.778828e-02
1.355378e-02
3.645880e-02
2.377898e-02
-4.313494e-03
1.803976e-02
5.622444e-03
6.678528e-03
1.401037e-03
-8.191259e-03
3.073503e-03
3.405932e-03
-1.589631e-02
5.612865e-03
-4.722782e-03
6.961429e-03
3.299912e-02
-3.083428e-03
2.460805e-02
1.862775e-02
-2.028233e-02
7.124108e-03
2.307153e-02
-6.608746e-03
1.067080e-02
-1.947552e-03
5.112597e-03
-7.273996e-04
-3.661207e-04
-1.071615e-03
1.103703e-02
-3.046447e-03
-4.590581e-03
6.192504e-03
1.902681e-02
1.708447e-02
2.447955e-02
1.925415e-02
1.767873e-03
1.287215e-02
9.238864e-03
-1.521236e-03
4.578183e-03
1.143322e-02
-2.563962e-03
2.035115e-03
-1.222402e-02
-9.717226e-03
-9.614798e-03
-1.262020e-02
-1.394827e-02
-9.409792e-03
1.680831e-02
2.336846e-03
-1.060368e-02
-5.439643e-03
-1.498023e-02
-6.748149e-03
-1.310649e-02
-2.462755e-02
-2.174019e-02
-4.696041e-03
5.119263e-03
-3.025493e-04
-8.577184e-04
1.333989e-02
1.353151e-02
1.113487e-02
8.917640e-03
2.094715e-02
1.466213e-02
3.380900e-02
4.310456e-02
5.356792e-02
6.164933e-02
5.106304e-02
5.618053e-02
6.039279e-02
3.933183e-02
1.064119e-02
-4.001414e-03
-7.213708e-03
9.596656e-03
9.440557e-03
2.415973e-04
1.663089e-03
8.697617e-03
3.952224e-03
1.698614e-02
2.101125e-02
1.872844e-02
-1.673358e-02
-2.462889e-02
-5.513333e-03
1.060961e-02
5.713120e-03
-8.358339e-05
2.521849e-03
1.691338e-02
1.172974e-02
2.398474e-02
3.295937e-02
2.501470e-02
2.210336e-02
1.058261e-02
1.083139e-02
2.697164e-02
5.558190e-02
3.111786e-02
5.658675e-02
1.025387e-01
6.307013e-02
4.483490e-02
8.383714e-02
4.252055e-02
-1.846176e-03
-1.007221e-03
-1.529134e-03
-1.399317e-03
-5.866523e-04
-1.018162e-03
-2.000914e-03
-9.727101e-04
-1.718807e-03
-2.087040e-02
1.078011e-02
2.386404e-02
4.834536e-02
8.217546e-02
4.771656e-02
6.733077e-02
8.197810e-02
2.938929e-03
6.502870e-03
1.031615e-03
8.503537e-04
-5.299826e-03
8.699209e-04
-3.868508e-03
-8.563783e-03
-3.392047e-03
4.443239e-04
4.128939e-03
-7.382972e-03
-4.233745e-03
-3.050605e-02
-5.391539e-02
-2.568132e-02
-3.231286e-02
-5.261050e-02
-2.697272e-02
-1.523566e-02
-3.994945e-02
-4.584740e-02
-6.515487e-02
-8.469215e-02
-6.605484e-02
-6.390827e-02
-8.016377e-02
-3.444280e-02
8.039300e-03
-2.876046e-03
-2.668197e-02
7.655029e-03
-8.846815e-03
-2.784929e-02
1.923885e-02
1.980243e-02
2.113049e-02
2.046927e-02
1.156166e-02
1.307690e-02
2.584333e-02
1.683382e-02
8.809494e-03
1.186903e-02
2.640452e-03
6.720487e-03
5.355105e-04
-9.851065e-03
-1.390204e-02
1.385883e-02
1.037400e-02
1.293828e-02
1.388953e-02
2.022031e-02
1.522200e-02
1.887323e-02
2.698475e-02
1.622515e-02
2.604719e-03
-3.653484e-02
-1.476999e-02
-9.574689e-03
-3.856643e-02
-3.198691e-02
-1.309552e-02
6.150377e-03
2.946798e-02
-1.136040e-02
3.815480e-03
1.395618e-02
3.461022e-04
6.298290e-03
1.635174e-03
3.327265e-02
2.399044e-02
4.864907e-03
2.901872e-02
1.367146e-02
-1.291863e-02
-1.479641e-02
-8.448787e-03
7.529648e-03
-9.919080e-03
-2.647535e-03
-1.343677e-03
-8.071030e-03
-3.809648e-03
4.612151e-03
-7.551298e-03
-1.756985e-02
-9.945922e-03
8.295114e-03
6.648427e-03
-1.246662e-02
9.019156e-03
1.572493e-02
-6.876316e-03
4.524479e-03
1.682646e-02
1.005146e-02
1.113252e-02
1.289383e-02
1.461170e-02
3.393920e-02
1.271140e-02
-5.527678e-03
9.087316e-03
-1.650508e-02
-5.573135e-02
-1.721312e-02
-3.699239e-02
-2.836750e-02
-7.225258e-02
-1.067889e-01
-9.420279e-02
-7.504601e-02
-8.386861e-02
-6.991515e-02
3.801397e-03
1.077762e-02
1.437654e-02
-1.882669e-02
-1.907876e-02
-6.269267e-03
-5.635005e-03
-2.171858e-02
-2.688840e-02
-5.669588e-03
-4.307843e-03
-4.730351e-03
-3.095058e-03
-6.544066e-04
-8.984691e-04
-1.908951e-03
-9.108140e-04
-1.330873e-03
6.246868e-02
5.389260e-02
1.845840e-02
9.049378e-02
1.097386e-01
6.505381e-02
7.307612e-02
7.451323e-02
3.621254e-02
-3.911411e-02
-2.542315e-02
-2.570668e-02
-2.852076e-02
-2.555227e-02
-2.838119e-02
-2.464629e-02
-2.412321e-02
-2.528161e-02
1.965705e-02
2.216755e-02
7.972797e-03
2.426507e-03
2.368934e-02
2.998931e-02
1.846757e-02
2.341905e-02
2.226774e-02
-3.476547e-02
-3.127546e-02
-1.253568e-03
-7.303929e-02
-4.192423e-02
-2.921727e-02
-7.245734e-02
-6.302615e-02
-2.888666e-02
-1.475707e-02
-1.656542e-02
-6.354463e-03
-1.772206e-02
-3.801547e-02
-4.108182e-02
-2.428936e-02
-3.701056e-02
-4.987021e-02
-8.773040e-03
-8.138608e-05
9.435731e-03
-3.665159e-02
-3.467300e-02
-2.164076e-02
-3.483292e-02
-3.415164e-02
-4.007268e-03
1.023094e-02
2.561620e-03
-6.174562e-03
1.200239e-02
3.518741e-03
-2.631947e-03
1.418230e-03
-2.792948e-03
-8.609366e-03
-1.613918e-03
-1.936906e-02
1.499223e-02
-2.513274e-02
-3.211491e-02
1.162925e-03
-3.257773e-02
-2.076781e-02
-1.017305e-02
9.669185e-03
-7.657595e-03
-9.617567e-03
6.334356e-03
-8.827404e-03
-1.468561e-02
1.266270e-02
-6.737288e-03
-1.338576e-02
-2.725671e-03
-5.558766e-03
1.027239e-02
-3.566077e-02
-4.413964e-02
-3.123079e-02
-1.461463e-02
-2.433141e-02
1.058018e-03
-6.222410e-03
-9.038625e-03
1.040973e-02
-1.438241e-02
2.481290e-03
1.807786e-02
-1.959602e-02
-7.323619e-03
1.442363e-02
-4.611165e-03
-4.302611e-04
1.253263e-02
-1.217126e-02
-1.168482e-02
-3.912096e-04
-2.614032e-02
-2.353948e-02
-2.161730e-02
-7.237223e-03
-1.403040e-02
-1.153052e-02
-5.031077e-03
-1.538769e-02
-1.033289e-02
4.707583e-03
4.766874e-03
4.260630e-03
1.730285e-02
2.783571e-02
2.364064e-02
-8.488200e-03
-1.290717e-02
-1.456598e-02
-9.282136e-03
-1.311089e-02
-1.999053e-02
-1.854354e-02
-3.700748e-03
-4.628729e-03
-4.489934e-02
-3.198090e-02
4.543801e-04
-4.348329e-02
-3.828363e-02
2.025665e-02
-1.687058e-03
-1.554430e-03
-1.793958e-03
1.940868e-03
3.689683e-03
2.855253e-03
1.861732e-04
6.242128e-04
5.877870e-04
2.008927e-02
2.058653e-02
-5.833568e-03
2.489598e-02
2.675604e-02
5.974370e-03
1.849764e-02
2.575855e-03
1.343629e-02
3.114771e-02
6.111584e-02
5.042535e-02
4.592575e-02
7.233050e-02
4.401948e-02
1.510831e-02
4.009773e-02
3.046318e-02
2.780294e-02
5.812985e-02
2.862825e-02
4.629363e-02
9.436294e-02
3.446328e-02
1.726976e-02
3.341669e-02
5.434433e-03
-3.420260e-02
-3.892085e-02
-2.039042e-02
-2.428307e-02
-3.291976e-02
-1.298848e-02
-2.920838e-03
-1.577645e-02
-1.184588e-02
2.315692e-02
-2.242973e-02
-1.456854e-02
-4.854955e-03
-4.814157e-03
6.486296e-03
-9.560954e-03
1.214386e-02
2.361121e-02
-2.707270e-02
3.830690e-02
4.025779e-02
2.410932e-02
1.199368e-01
8.502281e-02
2.134491e-02
9.309067e-02
6.001676e-02
-1.000449e-03
4.893628e-04
9.328342e-03
-2.158429e-04
-1.849880e-03
1.357517e-02
-5.235009e-03
-5.788543e-03
-7.699457e-03
2.246017e-03
-2.246363e-02
-1.343654e-02
-3.205371e-02
-4.013364e-02
-2.036484e-02
-3.070398e-02
-2.663224e-02
-4.706541e-03
1.580759e-02
-1.067643e-02
2.194828e-03
8.056508e-03
-2.299965e-02
-1.777349e-02
-1.515257e-03
-9.667561e-03
3.267349e-03
-2.040756e-02
9.111846e-03
2.311480e-02
-2.392675e-02
-2.264002e-03
2.950044e-02
-7.827619e-03
5.204469e-03
1.800476e-02
1.620672e-02
2.760327e-03
-1.792518e-03
3.168875e-03
-8.241321e-03
-8.604588e-03
-2.003383e-02
-2.287215e-02
-1.328056e-02
-1.568801e-03
7.040897e-03
3.162514e-02
-7.659021e-03
-2.092819e-02
3.444766e-02
2.788841e-03
-4.076974e-04
1.569040e-02
1.312930e-02
1.085106e-02
-3.115698e-02
8.153300e-03
-6.121583e-03
-3.990532e-02
-2.269482e-02
-2.987428e-02
-4.883809e-02
2.477552e-02
-4.398470e-02
-7.499260e-02
-5.154160e-03
-1.015360e-01
-1.050585e-01
-3.430157e-04
-6.240927e-02
-5.849712e-02
9.305675e-03
-1.033984e-02
-1.786945e-02
2.673505e-02
3.327771e-03
-2.356180e-02
1.402411e-02
6.182456e-04
-1.888584e-02
-6.477770e-03
-4.660314e-03
-5.410948e-03
-2.713590e-03
-1.004510e-04
-1.349256e-03
-3.986131e-03
-3.423002e-03
-2.878644e-03
5.046486e-02
8.249935e-02
4.632241e-02
1.718009e-02
5.651920e-02
4.192410e-02
-3.909282e-02
-2.848711e-02
-2.589421e-02
-1.873440e-02
-1.585132e-02
3.003399e-02
-3.417195e-02
-3.535251e-02
9.692204e-03
1.417285e-02
1.325575e-02
6.298024e-02
-1.203719e-02
-2.896119e-02
-1.530843e-02
1.773763e-02
-1.734386e-02
-1.556109e-02
2.243921e-02
4.216654e-03
1.376763e-02
-4.738987e-02
-2.400213e-02
-2.881345e-02
-1.915858e-02
-7.074206e-03
-1.997328e-02
1.552248e-02
1.044434e-02
1.161214e-04
-1.793137e-02
-1.666352e-02
-2.658447e-02
-1.322306e-02
-3.158599e-02
-3.380654e-02
-5.122152e-03
-3.247339e-02
-4.800541e-02
1.221151e-02
-4.547473e-02
-2.136562e-02
4.532236e-02
-3.383854e-02
-2.858539e-02
6.587366e-02
2.771635e-02
-1.033365e-02
8.788159e-03
1.322028e-02
-2.107051e-03
2.437061e-02
2.623666e-02
1.268856e-02
2.671729e-02
3.859060e-02
3.066101e-02
-1.993202e-02
-3.889979e-02
-2.784778e-02
-7.521908e-03
-3.076553e-02
-2.559746e-02
2.955512e-02
8.026943e-03
3.532073e-02
1.305637e-03
-2.276415e-03
2.209663e-03
-2.018093e-02
-5.209591e-03
1.754328e-02
-3.371371e-02
-1.461595e-02
1.767241e-02
1.286340e-02
6.956954e-03
6.073280e-03
1.443002e-02
1.888081e-02
2.085072e-02
2.273610e-02
2.673577e-02
-1.059877e-02
-9.640346e-03
6.449459e-05
-4.086084e-03
-6.667222e-03
-9.260814e-03
-7.657206e-03
-3.296734e-03
-8.332099e-03
-6.550479e-03
1.359314e-02
2.309077e-02
8.427735e-03
3.768742e-02
3.407031e-02
3.547955e-02
2.721295e-02
6.943733e-02
4.044032e-02
2.376320e-02
3.295518e-02
3.221103e-02
-3.846292e-04
1.313435e-02
4.780822e-02
-4.839590e-02
-2.568491e-02
1.161402e-02
-4.559701e-02
-3.068301e-02
-1.797498e-02
-1.815102e-02
2.663852e-02
3.537604e-02
9.054295e-03
5.148025e-02
4.013956e-02
5.243206e-03
-2.472203e-03
3.819452e-04
7.369568e-03
5.038248e-04
1.482780e-02
8.423474e-03
1.149323e-02
1.037358e-02
-1.370185e-03
-1.003250e-03
-7.617254e-04
-2.799584e-03
-1.910734e-03
-2.126943e-03
-8.090725e-04
-1.139842e-03
-2.596507e-04
-2.572575e-03
-6.045730e-03
-3.434798e-02
2.872430e-02
-1.029040e-02
-6.115573e-02
2.977517e-02
-1.540027e-02
-4.891482e-02
-1.939528e-02
-2.696372e-02
2.508174e-02
-5.859368e-02
-4.397928e-02
2.429618e-02
-2.611687e-02
-1.060546e-02
3.761508e-02
-1.579601e-02
4.023184e-03
2.437380e-02
-2.537964e-02
-4.088536e-03
2.441904e-02
-1.890430e-02
-7.293470e-03
1.508710e-02
-4.173493e-02
-2.328867e-02
2.864238e-02
-5.533216e-02
-4.895754e-03
6.094408e-02
-3.574656e-02
1.935713e-02
6.341575e-02
2.978042e-03
3.833035e-05
1.341267e-02
-1.263864e-02
-2.563160e-02
1.736653e-02
-8.517071e-03
-1.153771e-02
1.702165e-02
-5.200965e-02
1.223718e-02
4.064344e-02
-1.281334e-02
2.773836e-02
3.312187e-02
1.196973e-02
9.506378e-03
2.047350e-02
-4.120830e-03
1.239163e-02
3.911789e-03
1.184286e-02
2.336853e-02
1.082782e-02
2.050047e-02
2.784357e-02
1.330740e-02
-2.890833e-03
-1.159285e-02
-2.361580e-03
-1.358679e-02
2.841325e-04
2.387435e-02
-2.374601e-02
-1.851259e-02
1.423210e-02
2.282066e-02
3.486999e-02
3.436425e-02
3.289280e-02
2.787290e-02
3.348986e-02
7.826348e-03
1.520356e-03
3.373811e-03
-1.688331e-02
1.749141e-03
1.165571e-02
1.826761e-03
2.154585e-02
2.852137e-02
-5.014800e-03
3.558163e-02
3.510679e-02
-1.415239e-02
3.568721e-03
-2.071353e-02
-7.485199e-03
8.186956e-03
-4.850839e-03
-2.404438e-04
-3.418491e-03
-2.245711e-02
2.474266e-02
2.006665e-02
-5.232236e-03
3.524727e-02
5.987038e-02
5.308223e-03
4.317544e-02
5.481410e-02
1.252713e-02
2.174813e-02
1.614771e-02
-2.793903e-02
-1.755929e-02
-2.659754e-02
-6.431048e-02
-3.630812e-02
-4.365583e-02
-7.541881e-02
-7.675795e-03
1.410302e-02
2.860740e-02
-3.053063e-02
1.703013e-03
1.765375e-02
-3.990773e-02
7.211253e-03
2.593635e-02
7.461221e-03
2.061348e-02
-2.081073e-02
9.304728e-03
3.175709e-02
1.917331e-03
9.771393e-03
1.485224e-02
8.137189e-03
6.818670e-04
5.122341e-04
5.435121e-04
5.356526e-04
1.965749e-05
-3.839763e-05
1.068028e-03
4.927390e-04
6.818626e-04
-1.586903e-02
-2.314058e-02
-1.565062e-03
-3.643511e-02
-4.551674e-02
-1.967554e-02
-7.342423e-03
-4.153907e-02
-3.781410e-02
2.963126e-03
-2.054872e-02
-3.502027e-02
4.038748e-02
2.379898e-03
-3.549710e-02
1.384104e-02
-5.037103e-03
-3.151346e-02
-1.249635e-02
-2.948405e-03
1.991147e-02
-8.219159e-03
-9.385657e-03
8.554918e-03
2.185581e-02
-1.227671e-03
-1.016991e-02
1.874886e-02
2.175441e-02
2.804493e-02
-1.181779e-03
-1.831621e-02
1.082332e-02
4.001136e-03
-3.551713e-02
-1.646244e-02
5.164266e-03
7.492865e-03
-3.294763e-03
2.217006e-02
1.795629e-02
1.012873e-02
3.148676e-02
4.141454e-02
4.441321e-02
2.373228e-02
1.837066e-02
1.182878e-02
1.007616e-02
5.596340e-03
1.455367e-02
-1.593409e-02
1.402854e-02
3.737033e-02
1.570234e-02
2.040961e-02
9.429312e-03
-9.623393e-04
1.090210e-02
2.097034e-02
-5.019749e-03
1.763752e-02
2.973042e-02
-1.657786e-02
-2.305429e-02
-1.313654e-02
-9.713802e-03
-2.713968e-02
-2.036921e-02
9.832907e-03
5.505956e-03
8.971691e-03
-4.784179e-02
-4.110686e-03
3.828097e-02
-5.799237e-02
-4.286353e-02
8.433864e-03
-3.653586e-02
-4.599568e-02
-2.178527e-02
-1.196994e-02
-2.334283e-02
-1.578852e-03
5.339405e-03
-1.633239e-02
-2.244675e-02
3.670501e-02
1.839638e-03
-1.719972e-02
-9.587678e-03
1.128780e-02
1.202012e-02
-8.252204e-03
4.927396e-04
8.945781e-03
-1.056285e-02
-1.221598e-02
-2.487615e-02
-7.194104e-03
-2.696435e-03
5.069439e-03
-2.285720e-03
-1.738067e-02
2.135739e-02
1.052640e-02
2.774653e-02
4.630826e-02
-7.591066e-02
-6.371032e-02
4.434275e-03
-1.370291e-02
-7.329398e-02
-5.910643e-02
3.849225e-02
-6.345227e-02
-1.033272e-01
3.362785e-02
2.828590e-02
-7.920411e-03
5.600453e-02
6.521288e-02
2.674791e-02
1.817387e-02
4.136343e-02
2.600818e-02
-1.192379e-02
-3.496975e-02
1.712533e-02
-1.407340e-02
-5.652747e-02
-6.054977e-02
2.047760e-02
-2.475660e-02
-6.600827e-02
-3.573703e-03
-3.068597e-03
-2.595427e-03
-4.248674e-03
-4.485427e-03
-3.326775e-03
-1.916851e-03
-8.855584e-04
-8.839094e-05
2.279079e-02
4.836767e-03
-1.423451e-02
2.106905e-03
-2.929183e-02
-1.600099e-02
-8.801516e-03
-1.397415e-02
6.267841e-03
-4.488328e-02
-3.851711e-02
8.360009e-03
-4.281621e-02
-3.396055e-02
2.877461e-02
-6.404397e-03
-1.553504e-02
1.960761e-02
1.436057e-02
4.332668e-03
-2.096387e-02
3.553910e-02
1.315334e-02
-3.099460e-02
3.008403e-02
2.082162e-02
-4.914929e-03
8.862033e-03
-1.324657e-02
-2.570480e-02
2.292233e-02
-1.616446e-02
1.551812e-02
2.153086e-02
-4.493255e-03
1.248531e-02
-1.956028e-02
-2.898478e-02
-1.395844e-02
-2.801725e-02
-3.625560e-02
-1.198312e-02
-1.363180e-02
-1.238205e-02
4.554756e-03
1.735091e-03
-3.727636e-02
-4.330907e-02
1.614698e-02
2.642955e-03
-3.770844e-02
4.987868e-03
3.905029e-02
-1.106991e-02
9.066473e-04
-1.008118e-03
-2.649385e-03
-9.408263e-04
3.895074e-03
2.478449e-03
-4.969581e-03
-6.879980e-03
5.365146e-04
-1.419081e-03
-7.375284e-03
-2.111162e-02
2.009044e-02
3.086199e-02
4.169117e-04
1.555268e-02
4.373241e-02
1.698430e-02
1.151017e-02
-1.722644e-02
-8.911978e-03
-4.367882e-03
-3.208668e-02
-3.306909e-02
-7.249502e-03
-3.073158e-02
-3.737381e-02
8.193801e-02
7.347398e-02
-8.140122e-03
9.769534e-02
1.066434e-01
-1.302992e-02
6.209160e-02
9.059724e-02
3.624307e-03
4.598482e-03
-6.171632e-03
-1.843247e-03
1.109427e-03
3.025307e-03
-8.519613e-04
4.875468e-03
1.254840e-02
-5.435910e-03
-2.425692e-02
-1.667652e-02
-3.429936e-02
-3.563725e-02
-2.452302e-02
-4.401746e-02
-4.318406e-02
-5.395973e-02
-5.016942e-02
1.582916e-02
5.263297e-03
-2.875417e-02
5.673835e-03
8.321919e-03
-4.620152e-02
-1.984113e-04
-1.814784e-03
-4.497833e-02
-1.681285e-02
2.241624e-02
7.705057e-03
1.331141e-02
2.262075e-02
-1.320810e-02
1.211611e-02
7.661057e-03
-3.625985e-02
-1.803165e-02
-6.997166e-04
1.618348e-02
-3.274254e-02
1.052111e-02
1.535800e-02
-3.621809e-03
8.428079e-04
-1.475929e-02
-3.591779e-03
-4.214353e-03
-4.025374e-03
-2.427497e-03
-3.960726e-03
-3.666473e-03
-3.472705e-03
-3.639642e-03
-3.960173e-03
1.015697e-02
8.730079e-03
1.031765e-02
-1.417107e-03
-4.980670e-03
-9.545356e-03
4.447896e-03
-1.028239e-02
-1.695368e-02
-1.700511e-02
1.912007e-02
1.846929e-02
2.178234e-02
4.986571e-02
2.918341e-02
2.723047e-02
3.436871e-02
5.246109e-03
-1.264602e-02
-1.019531e-02
-3.843677e-03
-1.711210e-02
-7.848267e-03
1.047104e-02
-1.814815e-03
6.656220e-03
2.217532e-02
8.106132e-03
8.578869e-03
-1.800042e-03
1.650011e-02
-9.561820e-03
-1.590507e-03
3.572740e-03
-7.172035e-03
-1.128611e-02
1.717997e-02
4.708029e-03
1.151216e-03
2.257542e-02
9.329511e-03
1.135756e-02
3.257536e-02
2.885698e-02
5.329003e-02
1.457478e-02
2.646061e-02
9.820991e-03
-1.355700e-02
-1.182212e-02
1.094792e-03
-1.425636e-02
-8.125061e-04
-2.662747e-03
2.375658e-02
1.706994e-02
1.400591e-02
1.099440e-02
9.796622e-03
1.637070e-02
5.713820e-03
5.919036e-03
9.558704e-04
-1.087326e-02
1.202489e-03
-3.182390e-03
-1.563540e-02
-1.832610e-02
-9.557759e-03
-7.178324e-03
1.707476e-03
2.816452e-03
-5.352471e-03
-1.012202e-02
-3.489271e-03
-8.231442e-03
-1.595361e-02
-1.712603e-02
-2.642963e-03
-3.494556e-03
-3.064191e-03
-6.019464e-03
-1.032963e-02
6.044278e-03
6.596794e-03
8.022833e-04
4.632106e-03
-1.059770e-02
-1.567679e-02
4.325515e-04
-8.765689e-03
4.162434e-04
2.449751e-03
-7.591540e-04
4.095189e-03
-3.319443e-03
6.535006e-03
-4.379817e-03
-1.783983e-02
5.066718e-03
4.610232e-03
-1.258748e-02
4.948301e-03
7.392952e-03
-6.000582e-03
-2.655363e-02
-2.098903e-02
-2.204914e-02
-1.492567e-02
-6.321265e-03
-6.584503e-03
-2.316470e-03
-4.094767e-05
-9.589672e-03
1.129769e-02
1.838695e-03
-1.751421e-02
-5.933207e-02
-1.034875e-01
-1.131569e-01
-8.460307e-02
-1.068774e-01
-9.420013e-02
-8.390640e-02
-6.963203e-02
-3.952671e-02
-2.555386e-02
-1.948733e-02
-2.705817e-04
-2.733463e-02
-7.472200e-03
-7.595376e-03
-3.224754e-04
1.869665e-02
2.728332e-03
-2.279511e-03
-8.301736e-04
-7.032086e-04
5.013327e-04
1.994565e-03
1.303714e-03
3.138301e-04
1.172795e-03
6.975881e-04
9.279487e-03
1.973926e-02
1.571975e-02
3.386866e-03
4.263533e-03
8.093392e-03
6.226964e-03
7.829092e-03
3.945859e-03
-1.047716e-02
-3.149525e-03
-1.916180e-04
1.344650e-02
9.920930e-05
8.398728e-03
2.062321e-02
1.872684e-02
1.604113e-02
-1.910185e-02
-1.452754e-02
-1.788395e-02
-1.368890e-02
-1.995417e-02
-9.292295e-03
-1.505662e-02
-2.557833e-02
1.557463e-03
-4.581143e-02
-2.675605e-02
-3.837472e-02
-4.392738e-02
-3.403025e-03
-4.249167e-02
-3.722422e-02
-2.598394e-02
-3.787958e-02
-1.418924e-02
-3.345162e-02
-2.850881e-03
-1.995091e-02
-4.028365e-02
-1.901796e-02
-1.358441e-02
-1.493039e-02
-9.531109e-03
2.171418e-02
1.420120e-02
1.390408e-02
1.804425e-02
3.397013e-02
1.987133e-02
-8.324398e-03
1.630830e-02
1.637154e-02
1.334531e-02
1.356697e-02
1.430992e-02
1.078111e-02
2.297894e-03
7.828712e-03
4.543824e-03
4.588925e-03
6.360659e-03
1.034314e-02
2.794105e-02
2.410930e-02
5.261738e-02
7.653840e-02
5.497875e-02
1.763654e-02
3.312907e-02
2.488329e-02
5.761500e-03
2.273200e-02
3.748183e-02
8.400048e-04
1.756768e-02
3.987639e-02
-1.610741e-02
2.690828e-03
1.529169e-02
2.607839e-03
4.979955e-03
9.134307e-04
2.542876e-02
1.562712e-02
1.577959e-02
1.809352e-02
7.140682e-03
-3.839891e-03
2.516188e-02
3.431203e-02
4.887291e-02
3.258875e-02
2.970803e-02
3.757681e-02
8.611739e-03
2.474943e-02
3.776675e-02
-1.329830e-02
-2.764692e-03
-7.348246e-03
1.294714e-02
2.561651e-02
1.104702e-02
2.907580e-03
6.455627e-03
-2.484534e-03
-3.524726e-02
-1.864341e-02
-9.867257e-03
-6.773606e-02
-4.388226e-02
-3.225006e-02
-6.042016e-02
-5.998747e-02
-4.258292e-02
1.298435e-02
2.689619e-02
1.234533e-02
2.377557e-02
5.556479e-02
2.788241e-02
4.078069e-03
-3.922200e-04
-1.631897e-02
2.416003e-03
3.112655e-03
2.439073e-03
-2.531286e-03
7.038277e-03
4.662284e-03
4.024212e-03
7.388102e-03
6.118896e-04
1.811515e-04
-2.478989e-04
-3.388727e-04
3.604518e-05
-1.059197e-03
-5.002345e-04
-6.819813e-04
-1.432389e-03
-1.180293e-03
-1.647642e-02
-4.204735e-02
-1.904294e-02
4.966862e-03
4.396782e-02
3.986273e-02
5.376730e-02
1.112818e-01
7.418115e-02
-4.855847e-03
-2.140231e-02
-4.271650e-03
-3.904662e-02
-7.616510e-02
-3.650285e-02
-5.234248e-03
-2.293326e-02
-9.427425e-03
2.440121e-02
1.709116e-02
5.446997e-03
-1.962707e-02
-2.124805e-02
-3.636480e-03
-3.390406e-02
-5.903664e-02
-3.529777e-02
3.680807e-02
3.376094e-02
3.388936e-02
-3.530731e-03
-3.039631e-04
-4.544516e-03
-5.802698e-02
-7.354999e-02
-6.472131e-02
2.649146e-02
4.189259e-02
3.979301e-02
1.337540e-03
-5.373312e-03
-2.510360e-03
-3.040969e-02
-3.746064e-02
-3.767237e-02
1.803908e-02
4.170348e-02
4.035252e-02
1.171893e-02
5.149144e-02
4.933312e-02
-8.056988e-03
-7.590112e-03
-1.879794e-02
-3.438971e-03
1.731558e-03
-1.989526e-03
6.704773e-04
2.646432e-03
5.130510e-04
1.149920e-02
1.327611e-02
1.025787e-02
1.897060e-02
2.114334e-02
1.855391e-02
-2.179751e-02
-2.431211e-02
-2.357003e-02
-4.237190e-02
-3.573301e-02
-3.824624e-02
1.943453e-03
1.065707e-02
5.680463e-03
9.033424e-04
-8.933987e-03
6.055005e-04
2.263748e-02
-2.338866e-03
-1.395321e-02
1.395519e-02
2.527168e-02
1.623887e-02
1.619617e-02
3.605747e-02
6.671813e-03
5.217518e-04
-1.147719e-03
-1.497328e-02
5.878950e-03
-4.243882e-03
-9.906640e-03
1.280133e-02
-7.396592e-04
-7.357269e-03
4.589287e-03
-5.260598e-03
1.413108e-04
-3.821434e-04
-6.420230e-03
-7.578577e-03
-4.365191e-02
-4.964515e-02
-3.900662e-02
-3.192332e-02
-3.664589e-02
-2.389793e-02
-1.191121e-02
-2.208586e-02
-2.902816e-02
2.078656e-02
9.573107e-03
1.261388e-02
2.366264e-02
2.155185e-02
7.852430e-03
4.573678e-02
4.090029e-02
1.391419e-02
6.744631e-02
4.598507e-02
1.677709e-02
-7.558257e-03
-3.581401e-02
-3.239841e-02
1.533170e-02
1.075865e-02
6.301554e-03
1.092164e-02
2.205578e-02
1.615653e-02
-1.840274e-03
-1.106963e-02
-8.009695e-04
-3.054651e-03
-2.715389e-03
-3.588351e-03
-2.808030e-03
-2.386647e-03
-2.051913e-03
-1.987149e-03
-2.797607e-03
-2.210658e-03
-3.380309e-03
-5.785125e-03
4.665522e-03
-2.758939e-02
-3.933019e-02
-1.678177e-02
-2.380031e-02
-3.554365e-02
7.163891e-03
4.402898e-02
-1.238497e-02
-7.019120e-02
5.301706e-02
2.896012e-03
-3.447118e-02
2.713396e-02
3.351634e-02
-2.946755e-03
-7.190344e-04
3.392832e-03
-1.383296e-02
-4.579055e-04
1.083721e-02
-1.732069e-02
1.645121e-03
-9.643950e-03
-1.792890e-02
-1.768047e-02
-2.438981e-03
5.068399e-04
5.880261e-05
9.104707e-03
1.190547e-02
1.019699e-02
5.894287e-03
6.254470e-05
1.628669e-02
-1.294651e-02
-2.235031e-02
1.287299e-02
-2.481688e-03
-1.789411e-02
1.216975e-03
1.529451e-03
-1.573216e-02
4.797596e-02
5.984122e-02
-7.242141e-03
6.054710e-02
8.129806e-02
-3.648497e-03
2.576982e-02
4.121176e-02
-3.125260e-02
2.267763e-03
1.915816e-02
2.947025e-02
4.863439e-03
1.044505e-02
2.974639e-02
3.607299e-03
6.265577e-03
8.889513e-03
-2.686513e-02
-3.505523e-02
-2.829873e-02
1.466828e-04
3.661332e-02
3.333517e-02
2.799714e-02
6.267974e-02
5.374353e-02
-1.804834e-02
-3.606995e-02
-2.129029e-03
-2.183741e-02
-3.109979e-02
-4.818475e-03
-9.702740e-03
-6.486784e-03
-7.954092e-03
-7.877756e-03
3.613061e-02
2.416565e-02
-2.042029e-02
4.481239e-02
4.467503e-02
-6.542656e-03
2.828420e-02
2.242731e-02
7.220957e-03
-2.424163e-04
-6.316317e-03
-2.563283e-03
-7.621784e-04
-4.298316e-03
-1.517711e-02
-2.806666e-03
-1.026058e-02
-5.967721e-03
3.144382e-02
4.810436e-02
2.686856e-03
3.308771e-02
5.869837e-02
1.144131e-02
2.589281e-02
2.576968e-02
-3.016835e-02
-1.877085e-02
3.712687e-03
-2.483672e-02
1.293031e-02
3.644540e-02
-2.072998e-02
2.375305e-02
3.545409e-02
-1.981970e-03
-9.724810e-03
4.719881e-02
-1.026937e-02
-1.251057e-02
5.550531e-02
5.164111e-03
-1.300390e-02
2.644527e-02
-1.573411e-02
-1.624333e-02
8.866817e-03
-1.293733e-02
1.709098e-03
3.632869e-02
-6.392087e-03
5.932582e-03
1.820950e-02
-6.220232e-03
-5.547465e-03
-4.979503e-03
-5.224299e-03
-4.640718e-03
-3.982950e-03
-5.114166e-03
-5.362574e-03
-4.943814e-03
2.020507e-02
-1.456918e-02
-1.686053e-02
8.360231e-03
-3.699275e-02
-9.360841e-03
1.806362e-02
-1.091580e-02
-7.448833e-03
1.305711e-02
4.630795e-02
1.913532e-02
2.524369e-02
5.854802e-02
2.853367e-02
-8.831520e-03
8.285005e-03
-1.322504e-02
4.092366e-03
1.479969e-02
2.457191e-02
-7.408754e-03
3.568564e-02
4.381867e-02
-2.209130e-03
1.761777e-02
2.439851e-02
6.134737e-03
2.197525e-02
1.795845e-02
5.548760e-03
2.131233e-02
3.018059e-02
-2.300189e-03
1.536640e-02
1.959172e-02
1.402626e-02
2.897092e-02
2.054588e-02
4.300567e-02
4.429303e-02
2.760146e-02
3.403657e-02
3.790595e-02
2.284609e-02
7.425621e-05
2.580211e-02
3.506647e-02
1.574248e-02
6.860050e-02
6.291436e-02
8.390511e-03
2.812691e-02
3.261940e-02
-2.365280e-03
-8.759410e-04
-1.641776e-02
1.078954e-02
-7.979983e-03
-8.602802e-03
1.036260e-02
1.425550e-03
-3.524566e-03
1.305791e-02
4.001851e-02
3.139332e-02
2.135438e-02
5.238298e-02
3.483011e-02
-2.013974e-03
1.085717e-02
3.316358e-03
6.522380e-03
3.857788e-03
1.814723e-02
8.770080e-03
1.074555e-02
2.186299e-02
-2.199513e-02
9.126831e-03
9.009316e-03
2.013683e-02
4.070158e-02
2.828526e-02
2.291558e-02
5.865301e-02
4.471247e-02
9.407578e-03
2.546779e-02
3.149070e-02
2.755240e-02
3.735369e-02
4.285476e-02
4.965232e-02
4.622233e-02
4.058105e-02
4.607808e-02
5.178072e-02
5.161232e-02
-5.409121e-04
-6.004005e-04
9.304244e-03
-1.771367e-03
4.108629e-03
9.470304e-03
5.372045e-03
1.327678e-02
1.081018e-02
-1.530164e-02
-2.462349e-03
2.484182e-03
-3.388255e-02
-8.655274e-03
-8.657089e-03
-4.872089e-02
-3.701673e-02
-2.168640e-02
-5.482547e-03
1.508781e-02
-3.473526e-03
1.169099e-02
5.478368e-02
2.166195e-02
1.646888e-02
5.402222e-02
2.769798e-02
6.900356e-03
1.522357e-03
1.873945e-02
1.519033e-04
-4.567294e-03
1.102580e-02
1.636841e-03
9.879339e-04
6.589430e-03
-8.509341e-04
-1.309491e-03
-9.836179e-04
3.982268e-04
9.945422e-05
-8.178066e-05
-7.427740e-04
-2.276828e-03
-1.661042e-03
-2.302374e-02
-2.626557e-02
-5.193403e-03
-5.174044e-03
-4.974940e-03
-3.687824e-03
-4.060660e-03
1.540447e-02
1.510181e-02
3.353668e-02
4.343550e-02
5.022238e-02
-2.886278e-03
-1.923834e-02
-7.346759e-04
-2.888253e-02
-5.201197e-02
-4.850196e-02
1.018546e-02
4.295205e-03
-6.085234e-03
1.249667e-02
-4.633466e-03
-1.348291e-02
-5.273566e-03
-7.642215e-03
-1.552414e-02
4.921658e-02
3.180150e-02
2.463763e-02
3.339144e-02
1.459023e-02
7.670019e-03
-1.734383e-02
-6.210572e-03
-1.818844e-02
-4.649469e-03
3.247663e-03
1.169767e-02
1.808588e-02
1.016285e-02
2.019698e-02
1.474634e-02
9.407898e-03
9.451294e-03
5.523055e-03
2.940980e-03
-1.531674e-02
-1.685868e-03
-6.756627e-04
9.708399e-03
-1.909869e-03
6.734984e-03
1.953499e-02
-2.262943e-02
-1.081061e-02
-1.324700e-02
-1.451523e-02
1.395854e-03
-1.328637e-03
-3.319639e-03
2.053795e-02
2.319863e-02
-1.235492e-02
-3.081469e-03
-4.559712e-03
-1.670731e-02
-2.947612e-02
-1.614219e-02
-2.256534e-02
-4.228663e-02
-2.207554e-02
-1.298598e-02
2.393983e-02
1.673181e-02
2.218098e-02
5.951613e-02
5.245974e-02
2.856977e-02
5.687737e-02
5.975530e-02
3.590252e-02
5.375529e-02
2.650812e-02
7.108521e-02
8.400454e-02
4.869169e-02
4.148634e-02
3.712156e-02
3.157147e-02
-8.919508e-03
1.164321e-03
-5.713011e-03
-8.652226e-03
2.632792e-03
-1.006600e-02
-4.988347e-03
2.414452e-03
-2.157344e-03
2.905406e-02
4.181461e-02
4.699264e-02
2.168896e-02
4.313713e-03
2.865812e-02
1.874458e-02
2.689668e-02
1.901476e-02
9.843965e-03
1.821852e-02
-2.992053e-03
5.282509e-02
6.284428e-02
4.605713e-02
2.957778e-02
5.508838e-02
4.966873e-02
9.484382e-04
5.733524e-03
6.600743e-03
2.509595e-02
1.637253e-02
-1.640883e-02
1.321757e-02
-1.023859e-02
-2.267717e-02
-6.225202e-03
-2.862737e-02
-4.593329e-02
-1.418417e-02
-6.491558e-02
-2.482659e-02
-5.504997e-02
-5.744846e-02
-4.831634e-02
-2.084058e-03
-9.300451e-04
-1.467144e-03
-1.742171e-03
-1.704553e-03
-8.173928e-04
-1.825318e-03
-1.198333e-03
-9.942926e-04
5.087690e-02
9.928098e-02
6.512179e-02
9.256749e-02
1.489790e-01
1.017902e-01
5.841110e-02
1.125841e-01
6.812924e-02
3.386634e-03
5.595265e-03
1.151958e-02
1.727277e-02
-2.077924e-03
-6.618317e-04
-1.182312e-02
-2.557211e-02
-2.308936e-02
-1.198371e-03
9.491272e-04
-5.660423e-03
5.436073e-03
8.727505e-03
-5.652488e-03
2.430113e-02
2.047845e-02
-8.705047e-04
3.718324e-02
4.086151e-02
2.803645e-02
5.392115e-02
5.864229e-02
4.540920e-02
4.514648e-02
5.727480e-02
4.035356e-02
9.927132e-03
1.628433e-02
5.453529e-03
2.535458e-02
4.641794e-02
1.462740e-02
2.130051e-02
4.505328e-02
1.179595e-02
6.692474e-04
2.273535e-02
1.204748e-02
8.907824e-03
4.525097e-02
1.909221e-02
5.561383e-03
2.850650e-02
1.636140e-02
7.203560e-03
-5.622112e-04
-4.256931e-03
4.806471e-03
-1.076647e-03
-1.229591e-03
-1.404736e-02
-1.839493e-02
-1.472937e-02
-6.119092e-02
-9.448480e-02
-5.572189e-02
-8.928561e-02
-9.799205e-02
-8.760620e-02
-7.161633e-02
-7.675488e-02
-6.844902e-02
-5.058573e-03
-2.023545e-02
-6.850384e-03
-9.688488e-03
-4.240884e-02
-2.541590e-02
1.522272e-02
-1.620357e-02
-6.662768e-03
-2.794155e-03
-6.138652e-03
-9.629038e-04
-2.482050e-02
-2.149650e-02
-1.421167e-02
-7.041321e-03
-1.682102e-02
-1.050811e-02
-2.911273e-03
-1.616693e-02
5.522548e-03
-3.048099e-03
-9.017014e-03
1.853429e-02
1.435335e-03
-5.256842e-03
2.791429e-02
-7.884729e-03
3.003116e-03
1.630243e-02
-3.472503e-02
-4.348775e-02
-8.619787e-03
-3.866988e-02
-3.374377e-02
-1.516238e-02
-8.855721e-03
7.840039e-04
3.034727e-03
-6.957423e-05
1.678545e-04
2.339266e-02
-4.080134e-03
2.404042e-03
8.026499e-03
1.144734e-02
2.946572e-02
1.838351e-02
-3.476667e-03
2.248716e-02
1.906618e-02
2.472049e-03
1.862990e-02
1.636578e-02
-7.155170e-03
-8.446978e-03
-1.683644e-02
-2.580387e-02
-3.728379e-02
-2.148792e-02
-1.129032e-02
-2.181282e-02
-1.597323e-02
-8.029944e-04
-2.266252e-03
-3.334942e-03
7.450880e-04
-8.495605e-04
-1.137258e-03
2.018381e-03
-2.045418e-04
-5.450440e-04
-1.466467e-02
-3.501652e-02
-1.514001e-02
-3.950332e-02
-7.977377e-02
-4.233603e-02
-8.509935e-03
-5.537203e-02
-2.232493e-02
-3.443313e-02
9.254194e-03
-6.644530e-03
-1.751986e-02
2.406240e-02
1.076081e-02
-6.279419e-03
1.608504e-02
1.197643e-02
-3.640308e-02
-4.661255e-02
-1.870478e-02
-5.507803e-02
-6.394386e-02
-2.670647e-02
-3.073523e-02
-2.593037e-02
3.258291e-03
8.725130e-03
1.935727e-02
-9.317129e-03
2.888849e-02
3.331290e-02
2.844178e-03
9.843377e-03
-1.092452e-03
-2.597239e-02
1.193486e-03
1.526164e-02
2.277825e-02
3.161252e-03
1.835423e-02
1.897576e-02
-5.608110e-03
1.053399e-02
1.297204e-02
-3.432891e-03
-4.197377e-02
-3.242397e-02
-3.755889e-02
-9.425081e-02
-6.452294e-02
-2.869201e-02
-6.335551e-02
-4.883564e-02
1.911020e-02
1.640565e-02
6.871163e-03
3.348944e-03
4.067301e-03
-5.546085e-03
7.922600e-03
8.414022e-03
-2.556207e-03
2.753066e-02
5.650980e-02
3.772777e-02
5.239451e-02
8.203353e-02
4.544855e-02
2.336778e-02
4.985932e-02
2.254768e-02
-3.263701e-03
-2.431141e-03
-9.490876e-06
9.812873e-03
5.305317e-03
-1.584469e-03
1.791503e-02
6.345101e-03
2.075100e-03
4.498587e-03
7.968781e-03
1.447903e-02
-5.939528e-03
-1.339655e-02
-1.850302e-03
-2.823960e-02
-4.122343e-02
-1.545117e-02
-1.183871e-02
-1.417317e-02
-1.136751e-02
3.757614e-04
5.138895e-03
-2.678612e-03
-1.690115e-04
6.035759e-03
-7.739780e-03
-7.054784e-03
3.974622e-03
-1.809403e-02
4.941016e-03
3.617541e-02
-8.912572e-03
-8.683610e-03
-1.447305e-02
-2.182423e-02
1.685533e-03
2.678414e-02
3.311866e-02
-2.393626e-03
3.125812e-03
1.821628e-02
3.189521e-03
-1.488859e-03
5.466297e-03
-6.930492e-03
-3.405003e-02
-1.567793e-02
-3.924277e-02
-9.213263e-02
-4.855137e-02
-3.885904e-02
-6.647767e-02
-4.118077e-02
-3.044726e-03
2.034380e-02
1.758404e-02
2.830361e-02
3.463998e-02
3.633506e-02
1.432006e-02
2.713979e-02
1.492279e-02
-2.015518e-03
-2.512020e-03
-2.199725e-03
-4.167632e-03
-3.653755e-03
-2.977090e-03
-2.307155e-03
-2.134614e-03
-2.257686e-03
7.694046e-03
1.911421e-02
-1.363273e-03
1.436075e-02
1.887270e-02
7.822748e-04
6.559914e-03
-8.363275e-03
8.997849e-04
-2.975518e-03
8.352088e-04
1.114260e-02
7.299330e-03
-1.314314e-02
1.747148e-03
-1.823088e-02
-1.532133e-02
-1.043532e-02
2.558448e-02
1.381483e-02
-8.221390e-04
1.730475e-02
2.549620e-02
-3.453826e-03
-6.203476e-03
2.085625e-02
1.705199e-02
2.419784e-03
-7.236882e-03
8.781707e-03
-1.972859e-02
-2.025811e-02
2.499111e-03
-1.891115e-02
-2.824283e-02
1.713932e-02
-3.726820e-02
-2.872411e-02
-1.046241e-02
-3.001776e-02
-4.930708e-02
-5.124934e-02
-2.185911e-02
-4.508578e-02
-6.187484e-02
2.218769e-02
1.743459e-02
9.654940e-03
2.130225e-02
1.669070e-03
-5.966948e-03
1.502342e-02
8.164724e-03
-1.260776e-02
-7.683315e-03
-1.251010e-02
-3.288609e-03
-2.102725e-02
-2.038869e-02
-9.310814e-03
-5.105971e-03
-4.870449e-03
-2.945589e-03
7.581571e-03
-2.480826e-03
-2.029332e-02
1.886087e-02
1.799451e-02
4.081013e-03
-1.129740e-04
2.098349e-02
1.061982e-02
2.076863e-02
3.762169e-02
2.917375e-02
2.857784e-02
5.072237e-02
5.466481e-02
1.615106e-02
2.730670e-02
2.792777e-02
-7.805920e-02
-7.125309e-02
-7.677759e-03
-7.546478e-02
-7.940995e-02
-4.761319e-02
-1.078197e-02
-2.860219e-02
-1.455911e-02
1.004097e-02
-2.120889e-02
-1.666527e-02
1.627725e-02
4.343881e-03
4.568405e-03
-1.241775e-03
2.908144e-03
5.674788e-03
-5.287494e-02
-4.956109e-02
-3.947032e-02
-4.634900e-02
-4.688837e-02
-4.525618e-02
-2.241242e-02
-3.807843e-02
-3.570203e-02
-7.326056e-03
2.847906e-02
4.333071e-02
-1.451310e-02
3.162471e-03
4.794418e-02
-1.676598e-02
-1.768048e-02
1.731412e-02
7.334899e-03
2.607971e-02
2.942159e-02
1.541105e-03
-1.275914e-02
6.422034e-03
2.176662e-02
1.318032e-02
1.340889e-02
1.588753e-02
7.376974e-03
5.468701e-03
-2.525017e-03
-2.654204e-03
1.063219e-02
-4.120919e-03
3.370650e-03
1.115570e-02
-2.406337e-03
-1.935120e-03
-2.814561e-03
-1.439627e-03
-1.281283e-03
-1.958595e-03
-2.421971e-03
-1.722681e-03
-2.937420e-03
3.321862e-03
-5.786972e-03
-5.489721e-03
-1.891962e-02
-5.038122e-02
-1.888815e-02
-7.555313e-03
-1.880607e-02
-9.305219e-03
-9.128529e-03
-7.815797e-03
-5.518348e-03
-7.260606e-03
1.225117e-02
-8.344243e-03
-4.032288e-03
5.421882e-03
-9.957982e-04
2.127396e-02
1.746576e-02
1.823232e-02
2.038016e-02
1.839731e-02
2.120714e-02
4.327860e-03
4.799433e-03
1.013397e-02
1.776312e-02
2.400153e-02
1.723550e-02
1.419149e-02
-1.620473e-02
1.498226e-02
1.909747e-02
4.953832e-03
1.582158e-02
-2.727422e-02
-2.558769e-02
4.522030e-03
-3.018248e-02
-3.122188e-02
-1.464541e-02
-4.529180e-02
-4.817453e-02
-2.674005e-02
7.984208e-03
2.036051e-03
-8.471551e-03
6.755003e-03
-1.046607e-03
-1.070734e-02
-6.019100e-04
-1.844910e-02
-2.193311e-02
1.225934e-02
7.026373e-03
1.096682e-02
1.096287e-02
6.480664e-03
3.520882e-03
1.703878e-02
1.339704e-02
9.116030e-03
-1.840661e-03
9.218617e-03
-4.687478e-03
-6.013552e-03
-1.439141e-02
-4.229238e-03
-1.036287e-02
-1.736841e-02
-2.430746e-02
-3.493691e-02
-3.356775e-02
-2.063044e-02
-4.059922e-02
-5.307437e-02
-3.447994e-02
-4.047772e-02
-6.549581e-02
-5.306216e-02
-1.486971e-02
-3.637676e-02
1.515159e-03
-1.802275e-02
-5.168457e-02
-3.729286e-02
1.743274e-02
-4.299394e-02
-2.599602e-02
-1.694769e-03
-1.529202e-03
1.545594e-03
-3.053097e-03
-6.071066e-03
-1.352018e-03
-1.111518e-03
8.241768e-03
1.123284e-02
-5.211261e-02
-6.852571e-02
-6.937712e-02
-6.431854e-02
-7.913712e-02
-8.159461e-02
-4.588154e-02
-6.076807e-02
-6.839710e-02
-3.358965e-02
-5.823684e-02
-5.224445e-02
-3.148660e-02
-5.273335e-02
-6.509691e-02
-2.449409e-02
-6.757023e-02
-6.618483e-02
-2.088343e-02
4.991814e-03
2.825384e-02
-6.192419e-03
5.812545e-03
3.282945e-02
6.870774e-03
6.949614e-03
1.637361e-02
8.399341e-03
1.721252e-02
-6.708720e-03
-4.279939e-04
-1.696117e-02
-8.854731e-03
7.163862e-03
-7.722579e-03
-2.439702e-03
-6.722679e-04
-6.061670e-04
-4.839535e-04
4.655122e-04
5.210495e-04
1.351731e-03
-6.297174e-04
-1.949210e-04
-2.507691e-04
3.277649e-02
3.534784e-02
-8.028149e-03
8.097721e-02
9.877177e-02
4.644547e-02
3.378555e-02
3.808640e-02
2.033667e-02
5.258442e-03
2.213119e-03
7.648726e-03
3.628369e-02
2.636919e-02
1.852255e-02
-9.006059e-03
-1.030883e-02
-2.302939e-02
-2.383900e-02
-2.638053e-02
1.658472e-02
-2.246000e-02
-4.615604e-02
-3.852502e-03
2.012359e-03
-1.089580e-02
9.758234e-03
-3.946023e-02
-2.438829e-02
1.772938e-02
-4.378732e-02
-2.642423e-02
-7.889559e-03
-1.730542e-02
-2.302742e-02
-3.338846e-03
4.800073e-03
-1.571840e-02
2.182730e-03
-1.362121e-02
-4.496359e-02
-4.265220e-02
-7.366214e-03
-3.206230e-02
-5.226738e-02
8.563451e-03
-1.226103e-02
9.123841e-03
-1.955532e-02
-5.978180e-02
-4.014017e-02
-2.061347e-02
-2.416646e-02
-1.678776e-02
-1.598111e-02
-1.464205e-02
-2.022538e-02
-2.573268e-03
-5.881699e-03
-1.337215e-02
8.140672e-03
6.532554e-03
-2.383273e-03
-1.800676e-02
-1.188278e-02
1.107345e-03
-3.508159e-02
-4.772580e-02
-1.807739e-02
-2.684522e-02
-2.350358e-02
-5.819530e-03
-1.510096e-02
-2.474832e-02
-1.965445e-02
5.130517e-03
-1.914782e-02
-1.759573e-02
1.870266e-02
8.640664e-03
9.621231e-03
-4.567269e-03
-2.024324e-02
9.102304e-03
3.563762e-02
2.487768e-02
9.901308e-03
5.327059e-02
4.396518e-02
4.151834e-02
5.028882e-03
5.672340e-04
-6.941655e-04
-9.238624e-03
8.373095e-03
1.146840e-02
-1.761282e-02
-5.552940e-03
-9.846342e-03
-2.495117e-02
-3.149906e-02
-2.436024e-02
-2.935351e-03
-2.149759e-02
-3.113917e-02
2.069025e-02
1.988268e-02
-4.845734e-04
-3.308520e-03
-1.784107e-02
-1.765795e-02
3.732368e-02
2.272919e-02
3.393542e-02
4.091803e-02
3.683849e-02
5.826283e-02
1.690231e-02
2.587307e-02
4.357353e-02
-3.090190e-02
-3.985821e-02
-1.569986e-02
-1.123734e-02
-2.727911e-02
-2.831315e-02
-5.925126e-03
3.005373e-03
6.228961e-03
1.211250e-02
2.719406e-02
2.220821e-02
1.424259e-04
6.337049e-03
1.332949e-02
-6.830815e-04
-1.141476e-03
-1.403813e-03
-1.470496e-03
-1.264428e-03
-8.306354e-04
-1.433040e-03
-8.145688e-04
-1.155684e-03
1.049535e-02
7.583171e-02
6.957540e-02
2.843465e-02
9.957716e-02
9.693987e-02
-1.134037e-02
4.354249e-02
4.999214e-02
2.734569e-02
1.420334e-02
1.006036e-02
6.851501e-03
-3.664220e-03
-3.777505e-03
1.348052e-02
1.401393e-03
-1.660250e-02
-3.580731e-02
-5.725014e-02
-4.691849e-02
-6.295982e-02
-1.069698e-01
-9.668554e-02
-2.424767e-02
-7.069431e-02
-7.061948e-02
-1.393802e-03
-2.480055e-02
-1.094342e-03
-7.432807e-03
-3.891182e-02
-3.247742e-02
2.313299e-02
-1.638886e-02
-2.746287e-02
2.776205e-02
1.566825e-02
-1.543469e-02
2.636551e-02
6.900419e-03
-2.851215e-02
9.340959e-03
5.819082e-03
-8.310837e-03
4.384281e-02
2.626992e-02
2.973201e-03
1.156892e-02
-5.834993e-03
-2.138074e-02
-1.415194e-02
-2.648604e-02
-2.846062e-02
1.144489e-02
7.240817e-03
-4.712604e-04
2.442537e-02
2.591965e-02
3.887584e-02
9.957745e-03
1.813866e-02
2.612718e-02
1.350589e-02
8.594736e-03
-2.118223e-02
2.750431e-03
-3.184306e-02
-3.644169e-02
1.255131e-02
1.530045e-02
-7.339015e-03
2.216899e-02
5.861736e-03
-3.225331e-03
2.013801e-02
-1.158703e-02
-2.688670e-02
1.845984e-02
-1.800224e-02
-2.507091e-02
3.708179e-02
2.794571e-02
2.885296e-02
-1.929295e-03
-4.819920e-04
1.527021e-02
1.210603e-04
-2.031356e-02
-1.033231e-02
3.189739e-03
-1.673187e-02
-2.555189e-02
4.074247e-03
-1.175422e-02
-6.241414e-03
-3.384024e-03
-6.798382e-03
1.131672e-02
-7.281852e-04
3.172061e-03
-8.754370e-03
-1.303716e-02
4.749043e-03
-1.066515e-04
-1.569586e-02
-1.094242e-02
-1.748873e-02
2.537501e-04
8.259467e-03
-1.025484e-02
-9.166514e-03
-3.265569e-03
-1.920230e-02
-3.853775e-02
-1.998900e-02
-3.680766e-02
1.276880e-02
-4.556737e-03
-4.857105e-02
1.931173e-02
-7.290812e-03
-4.387591e-02
3.097181e-02
2.199428e-02
-1.441692e-02
-9.781662e-03
-2.521651e-02
-1.290356e-02
8.164799e-03
-1.766325e-02
-1.744698e-02
4.091927e-02
2.770382e-02
2.050076e-02
-4.724389e-04
3.337330e-04
-9.580151e-05
-2.296661e-03
-2.023338e-04
7.450032e-05
2.363110e-04
2.835174e-03
1.905230e-03
-1.621659e-03
4.071314e-03
5.485179e-03
1.496455e-03
2.380915e-02
2.794543e-02
-5.266615e-03
5.412807e-04
9.849078e-03
-7.663567e-03
-1.497417e-03
8.546412e-03
8.956958e-03
2.217440e-02
1.952953e-02
-5.807914e-03
8.746979e-03
8.843108e-03
4.893619e-03
1.419671e-02
-3.599070e-03
2.967401e-02
2.422051e-02
9.829827e-03
7.205592e-03
1.121926e-02
1.604688e-02
-2.866050e-03
2.167855e-02
1.303027e-02
-1.761717e-02
3.046234e-02
7.261906e-04
-2.885242e-02
8.104510e-03
-1.162518e-02
1.000319e-02
3.966937e-03
2.099306e-03
1.587810e-02
1.016275e-02
-3.407612e-03
2.551504e-02
8.796657e-03
9.554234e-03
1.687818e-02
-6.429100e-03
-2.145706e-03
1.084458e-02
6.305501e-03
-8.006911e-03
-4.325696e-03
1.349660e-02
1.471485e-03
-9.315128e-03
1.774855e-03
-3.748662e-03
-2.815309e-03
-6.353028e-03
-7.880016e-04
1.233140e-02
9.758909e-03
1.314332e-02
5.515896e-03
2.110899e-02
1.080943e-02
1.831262e-02
1.936883e-02
1.648703e-02
1.904521e-02
3.224811e-02
1.341113e-02
1.194156e-02
1.298234e-02
9.167757e-03
2.735987e-02
3.346012e-02
2.000874e-02
1.794396e-02
3.443674e-02
2.204706e-02
3.967127e-04
-2.778180e-02
-2.023030e-02
-3.356461e-02
-6.741802e-02
-4.960287e-02
-3.117679e-02
-4.700425e-02
-1.716565e-02
4.281358e-02
5.268327e-02
3.441728e-02
3.580865e-02
4.138296e-02
4.042513e-02
3.463275e-02
4.888478e-02
4.411978e-02
-1.937549e-03
-2.651066e-03
5.007730e-03
8.494001e-04
-1.807549e-03
4.515488e-03
9.162015e-03
-1.849748e-03
9.953538e-03
-2.203688e-02
-8.687103e-03
-1.623514e-02
-1.263263e-03
2.734136e-02
8.032383e-03
-1.574568e-02
-1.260894e-03
2.798108e-04
-2.762540e-03
2.176102e-03
1.519919e-02
-1.830275e-03
-5.580415e-03
1.456512e-02
8.557821e-03
7.817044e-03
1.489928e-02
-4.812720e-02
-9.416185e-02
-6.127600e-02
-9.104500e-02
-1.323243e-01
-8.613436e-02
-5.941813e-02
-9.734251e-02
-5.253999e-02
1.427914e-03
6.610385e-04
5.148060e-04
2.287822e-04
-2.959718e-04
-8.851275e-04
3.760175e-04
-9.030420e-04
-7.419515e-04
5.905249e-03
9.276978e-03
1.057021e-02
2.717517e-03
-3.100321e-03
-1.141479e-03
-5.849780e-03
-8.486821e-03
6.840595e-04
-2.055358e-02
-3.416751e-02
-3.593583e-02
3.423767e-03
-1.623240e-02
-2.839846e-03
2.289840e-02
2.191280e-02
2.237310e-02
2.190480e-02
1.738102e-02
1.542014e-02
9.842188e-03
7.520863e-03
2.952073e-03
3.939156e-03
1.082691e-02
-1.007925e-03
-1.091829e-02
9.297023e-03
-3.548590e-03
-1.923645e-02
1.445842e-02
-1.452455e-02
-2.572817e-02
-1.885029e-03
-9.560442e-03
2.281074e-02
3.305300e-02
1.241364e-02
3.943008e-02
4.238821e-02
2.888356e-02
2.928940e-02
4.232840e-02
3.009475e-02
1.069959e-02
6.721627e-03
1.050436e-02
-1.838562e-02
-2.760016e-02
-5.267703e-03
-1.845185e-02
-2.352871e-02
-5.594143e-03
5.970872e-03
1.059017e-02
-3.261868e-03
8.061034e-03
4.907561e-03
1.764814e-03
-5.625368e-04
2.724686e-03
2.958846e-04
7.088414e-03
1.977805e-02
6.119627e-03
2.075498e-02
3.523181e-02
2.054753e-02
1.767984e-02
1.603467e-02
7.003404e-03
9.238453e-03
2.780682e-03
-2.909821e-03
1.338139e-02
2.654396e-02
2.501514e-02
2.833455e-03
2.425505e-02
2.027518e-02
2.479879e-02
3.218382e-02
6.487256e-03
3.588732e-02
5.841373e-02
3.575515e-02
2.021868e-02
2.465081e-02
1.747166e-02
4.219430e-02
5.512317e-02
5.142093e-02
5.714408e-02
5.532603e-02
3.874719e-02
4.935169e-02
4.920686e-02
3.494091e-02
5.734537e-03
1.277078e-02
8.346737e-03
1.253970e-02
2.576168e-02
2.956102e-02
4.587126e-03
2.779426e-02
1.920753e-02
6.064098e-02
7.409916e-02
4.488935e-02
7.262126e-02
7.740857e-02
5.410992e-02
8.660015e-02
9.400477e-02
4.582978e-02
-2.359381e-02
-1.917485e-02
-1.133914e-02
-1.934309e-02
-2.469174e-02
-1.661153e-02
1.216964e-02
-3.840559e-03
3.644713e-03
8.244646e-03
1.574679e-02
1.074436e-03
1.661081e-02
1.013753e-02
-8.209693e-03
2.802073e-02
1.106477e-02
-3.371902e-03
8.197614e-04
-6.034306e-04
-1.174624e-03
-1.192257e-03
-1.014203e-03
-1.259079e-03
-1.676607e-04
-1.599405e-03
-2.009282e-03
-1.672160e-02
-3.130586e-02
-2.068025e-02
-2.385849e-02
-3.642138e-02
-8.224774e-03
-2.759929e-02
-2.793355e-02
-3.072977e-02
7.064372e-02
1.382588e-01
7.457208e-02
8.997829e-02
1.772900e-01
1.081299e-01
7.955489e-02
1.241795e-01
8.050781e-02
1.903862e-02
1.403664e-02
1.717590e-02
1.030286e-02
1.019480e-02
2.431182e-02
3.560654e-03
2.274098e-02
1.657287e-02
-2.442926e-03
-2.369678e-02
-4.398407e-02
3.088009e-03
-3.715170e-02
-1.451853e-02
1.425225e-02
-1.263971e-02
-3.336777e-03
-1.715063e-02
-1.552574e-02
-1.381271e-02
-5.414259e-03
-7.222080e-03
-3.189041e-03
-1.408779e-02
-2.345049e-02
-3.062587e-03
-2.317962e-03
-1.193810e-02
2.567698e-03
1.597819e-02
-2.189454e-03
-5.165535e-04
3.250091e-02
8.068394e-03
-1.411408e-02
-2.731896e-02
-2.244284e-02
-3.026423e-02
-1.454790e-02
-1.638996e-03
-1.168852e-02
-5.404194e-03
-1.970208e-03
-1.029937e-02
1.350226e-02
-2.217861e-02
-1.992802e-02
-8.606409e-03
-2.175642e-02
-1.306468e-02
-1.382118e-02
4.360900e-03
5.654325e-04
1.142104e-02
1.195490e-02
-6.458029e-04
-1.134304e-02
-2.625339e-02
-2.731306e-02
-1.032874e-02
-2.064665e-02
-2.006833e-02
1.742863e-03
1.715095e-02
1.880251e-02
-5.789876e-03
-1.666528e-02
6.637443e-04
6.376563e-04
-2.368797e-02
9.057417e-03
1.236267e-02
-3.231455e-03
-9.732609e-03
1.426885e-02
8.425992e-03
-1.038552e-02
3.202440e-03
-2.085340e-03
-1.643605e-02
-3.021265e-02
-5.317986e-03
5.354634e-03
-3.236412e-02
-1.116122e-02
-5.024326e-03
-2.172514e-02
-1.442598e-02
-4.162173e-03
1.488223e-02
4.576249e-02
4.118093e-02
-1.863928e-03
3.549640e-02
2.789959e-02
-6.189068e-03
1.645493e-02
9.232970e-03
-2.278060e-02
-2.669349e-02
6.479297e-04
1.753098e-02
-2.011716e-02
2.322858e-03
1.854065e-02
1.227083e-02
3.587727e-02
6.626695e-03
-1.823336e-03
2.242017e-04
-9.553522e-04
-1.219177e-02
-3.521053e-03
-2.143737e-02
-8.553127e-03
-8.651794e-04
2.469203e-03
4.268554e-03
4.268264e-03
1.741040e-03
2.071536e-03
3.084713e-03
1.072561e-03
1.856534e-03
2.109477e-03
-1.609416e-02
8.142213e-03
1.156645e-02
-1.972086e-02
-2.112299e-02
-2.113755e-03
4.120670e-03
1.033820e-02
-5.567979e-03
-6.289225e-03
-3.111259e-02
-3.771874e-02
9.929828e-03
-4.126870e-02
-5.202167e-02
2.918044e-02
-9.416086e-03
-2.841097e-02
-2.842820e-03
2.133417e-02
-1.089572e-02
-3.532739e-03
3.704881e-02
1.751771e-02
-2.140598e-02
9.568945e-03
3.329486e-03
1.460723e-02
3.058248e-02
6.784960e-03
2.379504e-02
2.018187e-02
2.243208e-02
2.387453e-02
1.314062e-02
-8.316874e-04
-1.960878e-02
-3.091572e-02
-6.003913e-03
-1.197580e-02
-2.897579e-02
-1.014095e-02
7.858153e-03
-5.151929e-03
4.802929e-03
2.436689e-02
-1.412057e-03
-3.387006e-02
-7.965031e-03
1.848096e-02
-1.676912e-03
-3.801228e-02
-5.071343e-03
1.875222e-02
-2.591632e-03
-2.514008e-04
-1.776672e-03
-5.076204e-03
-5.519794e-03
-6.501565e-03
-1.432821e-02
-1.474166e-02
-1.351054e-02
-6.306969e-03
1.325582e-03
7.232189e-03
7.081176e-03
-1.457496e-05
-1.020822e-02
1.600969e-02
-9.659941e-03
-5.702246e-03
3.284508e-03
-4.750933e-03
6.386263e-03
-7.356485e-03
-1.570009e-02
-1.064224e-02
1.155931e-03
-1.446361e-03
1.670784e-03
3.029728e-02
7.061104e-02
5.315275e-02
3.865162e-03
1.091028e-01
1.070847e-01
-9.154859e-03
6.240840e-02
8.787693e-02
1.596205e-02
1.327660e-02
-3.947238e-03
-1.597857e-03
-5.003520e-03
-1.085770e-02
-5.004878e-03
1.568400e-02
9.777272e-03
-2.403257e-02
-2.736798e-02
-2.548430e-02
-3.372178e-02
-5.368888e-02
-4.734142e-02
-1.693588e-02
-3.534987e-02
-5.233471e-02
-4.320374e-02
-3.280291e-02
-4.621491e-02
-4.231076e-02
-1.814102e-02
-3.204111e-02
-9.557318e-03
4.958419e-03
-1.188570e-03
-2.019487e-02
-4.615468e-02
-6.129990e-05
-2.721225e-02
7.521262e-03
2.437545e-02
2.405842e-02
3.865038e-02
1.707423e-02
1.736269e-03
-1.596800e-02
-1.746194e-02
-1.303231e-02
-4.386456e-02
-3.974999e-02
-1.239859e-02
-1.255352e-02
-7.522120e-03
-4.474088e-03
-1.866208e-03
-1.212476e-03
-1.682965e-03
-1.688029e-03
-7.607103e-04
-2.867284e-03
-5.994295e-04
-4.286812e-04
-2.642872e-02
-1.241050e-02
-4.969583e-03
-4.571543e-03
2.035814e-02
1.188799e-02
1.462151e-02
1.727404e-02
1.795350e-02
-1.100654e-02
-2.581173e-02
-1.820101e-02
-7.591694e-03
-2.472032e-02
-2.411798e-02
1.326641e-02
-7.855472e-03
-1.070897e-02
-3.026196e-02
-6.621064e-02
-5.206276e-02
-6.467588e-02
-1.542437e-01
-1.132797e-01
-3.269908e-02
-1.004640e-01
-6.384938e-02
3.546742e-02
4.104083e-02
3.244128e-02
2.433716e-02
1.082371e-02
2.509191e-02
3.438487e-02
2.162205e-02
2.411214e-02
-6.691114e-03
1.345703e-02
1.160854e-02
2.655362e-02
1.546711e-02
1.331659e-02
1.336297e-02
2.186983e-02
1.994647e-02
-1.191967e-03
-1.953623e-02
-1.888415e-02
7.558312e-03
-5.078520e-03
-1.778047e-02
-5.613114e-03
1.384442e-02
3.529761e-03
7.011421e-03
9.118537e-03
1.061603e-03
1.849677e-02
2.133129e-03
9.895517e-03
9.271091e-03
1.083255e-02
7.788612e-03
-2.090724e-02
-3.631240e-02
-1.168360e-02
-1.856969e-02
-5.866496e-02
-2.116947e-02
-1.965748e-03
-3.767262e-02
-2.911063e-02
-2.809097e-02
-1.909495e-02
-2.275785e-02
-2.775173e-02
-7.711483e-03
-1.250401e-02
-2.374875e-02
-8.310076e-03
-5.344150e-03
-3.004305e-03
-9.148269e-03
-2.788029e-02
3.608769e-03
-1.976446e-02
-1.983961e-02
-1.133319e-03
8.169595e-03
7.590844e-03
4.483348e-02
6.977192e-02
6.940481e-02
4.498900e-02
6.961802e-02
7.697809e-02
6.504158e-02
7.405075e-02
6.954147e-02
1.738072e-02
7.866135e-03
-2.939138e-03
1.877869e-02
4.751068e-02
6.613430e-03
2.277344e-02
1.377681e-02
7.520327e-03
-2.255549e-02
-1.134231e-02
-4.782389e-03
-4.001172e-02
-2.591897e-02
-1.324353e-02
-2.064064e-02
-1.464106e-02
-1.645263e-03
-1.275620e-02
-9.216157e-03
-5.987210e-03
-4.187699e-02
-5.725274e-02
-2.657138e-02
-3.829767e-02
-4.197371e-02
-2.153378e-02
-8.563507e-03
6.601738e-03
9.115243e-03
-4.067659e-03
8.298364e-03
2.919697e-02
8.982128e-03
9.757524e-03
2.514432e-02
4.840317e-03
2.828462e-03
3.352220e-03
-2.867854e-03
-3.677010e-03
-3.507457e-03
2.707337e-03
1.292984e-03
8.743596e-04
1.281429e-02
5.753732e-02
2.122686e-02
3.089506e-02
5.954407e-02
1.541704e-02
1.449249e-02
6.225132e-03
-7.879755e-03
1.709013e-02
5.816333e-02
4.922336e-02
3.064932e-02
4.638055e-02
3.073403e-02
1.294520e-02
4.001323e-03
5.543876e-03
-1.649323e-02
9.290649e-03
1.100558e-02
4.912009e-03
5.452586e-02
3.393101e-02
1.317346e-03
2.785711e-02
2.680870e-02
1.648673e-02
5.237851e-03
6.260218e-03
2.417842e-02
-8.032579e-03
6.124911e-03
2.091870e-02
1.559036e-03
1.260621e-02
1.270326e-03
-6.896844e-03
2.081443e-02
-2.031605e-02
-2.131345e-02
9.417579e-03
-4.134928e-02
-3.651835e-02
6.573136e-03
-1.318216e-03
-2.247297e-02
1.887873e-02
-2.378552e-02
5.448465e-03
6.645706e-02
-3.342798e-02
8.470034e-03
6.789423e-02
-8.118255e-03
-1.095502e-02
-9.755514e-03
-3.866694e-04
-8.805186e-03
1.046661e-03
6.618978e-03
6.108711e-04
8.684545e-03
1.892051e-03
-9.180560e-03
-4.898375e-03
9.887557e-03
1.290809e-04
-3.208620e-03
2.639036e-02
1.733167e-02
1.322594e-02
7.166654e-03
6.204323e-03
-6.611527e-03
2.562166e-02
1.130065e-02
-1.105352e-02
1.898010e-02
1.169370e-02
-8.382292e-03
-7.049956e-03
-2.520620e-02
-5.260492e-03
-1.358507e-03
-4.270675e-02
-2.853649e-02
-2.842641e-02
-3.669317e-02
-8.894342e-03
-9.249828e-03
-1.046861e-03
1.551792e-02
-8.181372e-03
8.306189e-03
1.287672e-02
-1.247914e-03
8.509144e-03
1.301506e-02
-5.685848e-03
-3.251954e-02
-3.505126e-02
-2.316665e-02
-4.322155e-02
-6.297181e-02
-2.723118e-02
-5.016373e-02
-5.726843e-02
2.703474e-02
1.582339e-02
-1.183881e-02
4.343576e-02
2.142305e-02
2.154551e-03
3.519104e-02
1.557607e-02
-9.251361e-03
3.099235e-02
2.417457e-02
-1.095205e-02
6.562191e-02
6.877577e-02
-1.697677e-02
3.683908e-02
3.537063e-02
-3.022767e-02
8.634183e-03
2.224968e-02
2.826079e-04
5.951215e-03
8.052683e-03
-1.632950e-03
-1.810404e-03
1.384229e-02
3.453217e-04
-1.088508e-03
1.532281e-04
2.897848e-05
-1.175534e-03
-2.207588e-05
-2.538413e-04
-1.827038e-03
-9.176044e-04
-8.854065e-04
6.701807e-03
1.280432e-02
1.752696e-02
-3.583152e-03
1.481339e-02
6.039862e-03
-1.105726e-02
-1.320019e-03
1.990175e-02
3.000856e-02
5.649208e-02
8.476435e-03
4.821616e-02
1.056841e-01
3.704335e-02
-3.519153e-03
7.153915e-02
5.398922e-02
-1.191881e-03
-1.346743e-02
-2.314397e-02
-9.337023e-03
-1.687653e-02
-1.871998e-02
-1.500933e-02
-5.338804e-03
5.021139e-03
-5.783245e-03
-1.407896e-02
-5.017949e-02
1.959513e-02
2.452227e-02
-6.902783e-03
1.668628e-02
1.412079e-02
2.518511e-03
1.453159e-02
-7.758336e-03
3.465306e-03
-1.671452e-02
-5.358597e-02
-2.799727e-02
-6.199785e-03
-6.456724e-02
-3.891467e-02
-6.137815e-02
-7.577458e-02
-2.354977e-02
-8.328621e-02
-1.559965e-01
-9.243740e-02
-3.194676e-02
-1.100805e-01
-1.152412e-01
-6.045065e-03
-1.960211e-02
-7.447339e-03
4.792454e-03
-1.171354e-02
-3.589230e-03
-1.598491e-03
-2.032795e-02
-1.661400e-02
-2.052093e-02
-2.279017e-02
-1.746601e-02
-3.373447e-02
-2.553094e-02
-2.487549e-02
-1.203821e-02
-1.296601e-02
7.095475e-04
8.811910e-03
2.288228e-02
2.496700e-02
1.112176e-02
2.196453e-02
2.715290e-02
-1.438623e-02
1.058052e-02
2.520808e-02
2.174119e-02
2.654810e-02
-9.163879e-03
1.467386e-02
7.575337e-03
-1.880589e-02
-9.121560e-03
4.734466e-03
6.362840e-04
-8.794487e-03
-4.771185e-03
1.159505e-02
-1.273905e-02
-1.816662e-03
1.229821e-02
-7.696568e-03
-4.980945e-03
-2.081325e-03
4.067958e-02
4.810865e-02
1.553931e-02
5.786670e-02
5.124201e-02
2.407266e-02
3.437733e-02
4.301344e-02
3.708678e-03
1.213821e-02
1.077530e-03
-4.935440e-02
4.876344e-03
3.794068e-04
-2.843023e-02
-2.050771e-02
1.810017e-02
-2.626423e-03
2.551203e-02
7.769323e-02
5.356846e-02
3.064687e-02
1.250151e-01
1.065838e-01
-2.789206e-03
6.777452e-02
7.128105e-02
2.732321e-02
9.752167e-03
1.093575e-02
1.329505e-03
3.308870e-02
4.148304e-02
-6.289812e-03
2.751727e-02
2.892158e-02
-6.882883e-03
-3.544790e-03
-4.263667e-03
-3.188273e-03
-1.871619e-03
-6.509789e-04
-4.764445e-03
-1.079389e-03
-1.948318e-03
9.091253e-03
-1.318982e-02
-1.393102e-02
1.781957e-04
-2.546963e-02
-2.520809e-02
1.527994e-02
3.550934e-03
-1.585666e-02
-1.602473e-02
6.949087e-02
1.193283e-01
-5.412714e-02
5.813111e-02
1.139903e-01
-8.732661e-02
-2.468864e-02
8.075896e-03
-2.287514e-02
-6.304619e-02
-4.812782e-02
-3.478036e-03
-6.931566e-02
-5.434745e-02
1.441217e-02
-1.841112e-02
-2.573860e-02
1.693365e-02
4.193499e-02
5.960236e-02
3.330773e-02
4.545396e-02
5.855921e-02
-6.523763e-03
3.539871e-03
-1.476848e-02
3.001153e-02
3.068436e-02
1.390873e-02
1.675956e-02
2.472077e-02
2.463937e-02
-1.705527e-02
-3.025086e-02
-7.644860e-03
-9.728650e-03
-2.855333e-02
-3.519510e-02
2.655802e-02
-8.523211e-03
-3.069593e-02
2.183019e-02
1.657257e-02
-1.430142e-03
1.652195e-02
1.405924e-02
8.932678e-03
1.383499e-02
1.259370e-02
1.005083e-02
2.400876e-02
2.383662e-02
2.059717e-02
6.457661e-03
-7.337259e-03
3.948951e-03
8.267726e-03
2.553838e-02
1.917478e-02
-2.581876e-03
1.880582e-02
1.824538e-02
1.636338e-02
-7.228069e-03
-2.334114e-02
3.276166e-02
1.062009e-02
-1.416827e-02
1.898892e-02
2.227746e-02
1.384372e-02
-5.212456e-03
-1.124343e-02
-2.396131e-02
-1.098859e-02
-3.784200e-02
-3.054130e-02
4.829763e-02
1.134629e-02
-3.036282e-02
2.231600e-03
-4.951611e-03
-3.375453e-03
6.053973e-03
1.005304e-02
1.922055e-03
-1.036564e-02
-1.421972e-03
-2.159960e-02
-4.412686e-03
6.283375e-03
-4.339573e-03
-4.096893e-03
-1.438210e-03
-1.985584e-02
5.957679e-03
-8.697219e-03
-2.118904e-02
8.319436e-03
2.285826e-02
-1.221071e-02
4.074492e-02
4.939620e-02
9.193068e-03
-1.178071e-02
6.181910e-03
-1.945647e-02
1.589738e-02
-4.311376e-03
-4.265110e-02
3.229684e-02
9.830949e-03
-3.177142e-02
1.631288e-02
1.878260e-02
6.380843e-03
-9.283617e-03
-3.256910e-02
-3.150516e-02
2.503925e-02
-8.017173e-04
-2.133477e-02
1.032362e-02
4.372972e-03
-1.496672e-02
-2.331754e-03
-2.210357e-03
-1.755229e-03
-3.860248e-03
-4.543583e-03
-3.677787e-03
-3.870138e-03
-4.417582e-03
-4.233170e-03
-2.546798e-02
2.154479e-02
3.459886e-02
-1.635265e-02
3.084393e-02
2.917014e-02
-4.051756e-02
-2.414919e-02
2.411474e-03
2.805088e-02
1.905922e-02
8.717442e-03
-1.890779e-02
-4.504061e-02
-3.335233e-02
-3.425837e-02
-4.899447e-02
-3.207222e-02
-2.644856e-03
8.658145e-03
4.041736e-03
2.181868e-02
4.395474e-02
2.965958e-02
2.756353e-02
4.505480e-02
3.591965e-02
-3.414530e-02
-4.604340e-02
-6.060790e-02
-5.402867e-02
-4.412583e-02
-7.582870e-02
-4.878876e-02
-4.586484e-02
-4.626406e-02
8.484302e-03
-8.252246e-03
-3.452390e-02
-1.286011e-02
-2.087494e-02
-4.411180e-02
7.060457e-03
2.191391e-04
-1.723038e-02
1.680225e-03
-1.965211e-03
-4.905724e-03
-1.063494e-02
-1.380371e-02
-1.440225e-02
-1.284650e-03
-3.030092e-03
-1.263433e-02
3.039377e-03
-9.182619e-04
-7.295907e-03
4.201807e-03
-1.207477e-03
-5.819473e-03
-2.678210e-04
7.975842e-04
-7.391683e-03
1.065288e-02
-6.108751e-03
-2.088971e-02
-3.963667e-03
-3.068445e-02
-2.881484e-02
1.314757e-02
-4.206355e-03
-1.825144e-02
-5.916779e-03
-1.313752e-02
-6.798928e-03
-2.346025e-02
-1.402311e-02
-1.225281e-02
-1.563649e-02
-1.104835e-02
-5.274669e-03
-2.789248e-03
-1.516180e-02
-1.699566e-02
-2.076987e-02
-2.679593e-02
-1.469584e-02
2.539905e-02
1.062340e-02
9.178368e-03
-6.057978e-03
-6.127641e-03
9.306195e-03
7.709841e-05
-4.372949e-03
1.908942e-03
-3.068096e-03
1.546212e-03
5.296769e-03
-3.554954e-04
-1.300349e-02
-1.692378e-02
-9.326561e-03
-1.387167e-02
-6.793417e-03
3.372111e-03
7.331537e-03
5.317639e-03
-9.107956e-03
-5.221691e-03
-2.503237e-02
-4.590057e-03
6.543327e-04
-1.256770e-02
4.225822e-03
-1.794394e-03
-1.509720e-02
-2.088215e-02
-2.893116e-02
-4.389465e-02
-3.892938e-02
-5.006864e-02
-3.334577e-02
-1.718318e-03
4.902563e-03
1.724812e-02
-2.452295e-02
-3.137161e-02
-3.199700e-02
-1.768118e-02
-2.470567e-02
-2.346611e-02
7.123682e-03
8.761941e-03
8.747933e-03
-3.370255e-03
-3.305206e-03
-3.305545e-03
-1.162155e-03
-9.144450e-05
-1.008322e-03
-1.519401e-03
-1.265902e-03
-1.604340e-03
3.547888e-02
1.449868e-02
-3.488564e-02
4.317983e-02
6.604316e-02
1.230301e-02
2.389439e-02
5.039282e-02
4.739640e-02
-1.715332e-03
-4.363189e-03
2.453859e-02
-1.554094e-02
-3.310065e-02
-9.450546e-03
-1.050606e-02
-2.676308e-02
-1.216924e-02
-9.462060e-03
-3.932799e-02
-1.976682e-02
-6.658618e-02
-7.725802e-02
-5.346456e-02
-5.002584e-02
-5.907538e-02
-4.700900e-02
-2.736641e-02
-2.008718e-02
2.361024e-02
-3.324842e-02
-1.344142e-02
1.900094e-03
-2.163575e-02
-2.037061e-02
-1.521242e-02
-6.765322e-04
1.074968e-02
2.448739e-02
-6.647584e-04
-6.487068e-03
-1.779170e-06
-3.966677e-03
-2.215530e-02
-5.963323e-03
-9.281916e-02
-7.914915e-02
-4.586500e-02
-8.282290e-02
-1.067827e-01
-9.650141e-02
-3.607248e-02
-6.705296e-02
-7.925685e-02
-4.570091e-03
-1.446817e-03
-7.689047e-03
4.949481e-03
5.752431e-03
5.701966e-03
-4.590234e-04
1.853814e-03
1.107060e-03
1.767158e-02
2.201682e-03
1.281006e-02
-1.724106e-02
-1.473139e-02
3.434954e-03
-5.126871e-03
-5.458726e-03
-2.673196e-03
2.853802e-02
1.397414e-03
2.775709e-03
2.097060e-02
-9.773733e-03
1.862800e-03
1.223003e-02
-9.203702e-03
-4.928235e-04
-1.856507e-02
1.979833e-02
1.286922e-02
-9.797967e-03
1.941088e-02
1.625250e-02
-3.277479e-02
-1.190149e-02
-6.366806e-03
1.238277e-02
-1.112597e-03
-6.022531e-03
5.839614e-03
1.489799e-03
-1.156881e-02
7.412593e-03
1.520600e-02
1.168807e-03
1.676478e-02
1.463201e-02
9.635925e-03
3.084997e-02
2.209828e-02
1.058445e-02
2.807434e-02
7.848619e-03
-1.475534e-02
-6.249339e-03
-4.512184e-03
-2.284622e-02
-3.036784e-02
-1.251927e-02
-1.326642e-02
-3.306483e-02
8.804874e-05
-1.121751e-03
-1.032900e-03
-2.356079e-02
-2.673291e-02
1.981437e-02
-8.716474e-03
-2.557393e-02
1.947221e-02
-1.930563e-03
-2.007787e-02
-3.205032e-02
-1.320855e-02
3.641597e-03
-6.157577e-02
-3.556421e-02
-1.533697e-02
-2.630370e-02
-3.975120e-02
-4.316072e-02
8.925123e-04
1.410372e-03
1.818373e-03
-1.278085e-03
8.033080e-04
3.300966e-04
8.142926e-04
3.436378e-03
2.989567e-03
8.459003e-03
1.057253e-02
1.931346e-02
-8.361863e-03
1.625423e-02
1.776544e-02
-1.103785e-02
-1.506754e-02
-1.190380e-02
-3.098326e-02
-2.050277e-03
1.721123e-02
-2.594446e-02
2.954874e-02
5.592705e-02
-6.504860e-03
4.096197e-02
5.601771e-02
2.340863e-02
3.098713e-02
-5.198458e-03
5.061938e-02
2.717390e-02
-5.365449e-03
2.533049e-02
8.134142e-03
-1.223831e-02
9.168548e-03
2.289171e-02
-1.241231e-02
3.090593e-02
-4.190986e-03
-1.789743e-02
3.261782e-02
-7.667723e-04
-5.819705e-03
-1.443258e-02
-1.510117e-02
-1.702663e-02
-2.112414e-02
-2.192308e-02
-3.167629e-02
-1.674771e-02
-1.755901e-02
-2.905799e-02
1.819785e-02
4.201049e-02
1.281236e-02
3.860947e-02
5.405013e-02
-1.654201e-02
2.514774e-02
1.654428e-02
-3.464179e-02
6.250270e-03
-1.205712e-02
-2.057867e-02
-2.551499e-03
-1.534410e-02
-2.301712e-02
-1.732739e-02
-2.400632e-02
-3.161705e-02
8.006307e-03
-7.133537e-03
-1.041144e-02
-3.386468e-03
-2.698330e-02
-2.823074e-02
2.457425e-03
1.272241e-03
-2.336978e-02
3.086645e-02
-2.407213e-03
-2.495614e-02
1.057794e-03
-3.243094e-02
-3.704592e-02
-2.574955e-02
-3.078069e-02
-2.428203e-02
-9.717660e-03
-6.226380e-03
-8.710963e-07
2.511652e-03
-1.813175e-02
-2.520054e-02
7.995774e-03
-6.710642e-03
-2.834173e-02
-5.122694e-03
-6.711120e-03
7.396531e-04
-2.818135e-03
-5.449238e-03
2.028350e-02
-1.023369e-02
-9.613981e-03
2.357324e-02
-9.715665e-03
-4.004870e-02
-4.254978e-02
-1.998905e-02
-4.222860e-02
-4.798087e-02
-1.704676e-02
-4.152558e-02
-3.959413e-02
9.033515e-03
2.513220e-02
3.433745e-02
1.694060e-02
1.611040e-02
3.430821e-02
1.773027e-02
1.836922e-02
5.537044e-03
-7.151874e-03
-1.704999e-02
4.736142e-03
-4.996815e-03
-3.817533e-02
-4.070831e-02
-6.283868e-03
-3.669215e-02
-2.113798e-02
1.954466e-02
5.163383e-02
4.042211e-02
5.818373e-02
7.932274e-02
5.971121e-02
3.356919e-02
5.441045e-02
3.072417e-02
-2.485621e-03
-8.822613e-04
-1.646102e-03
-1.522660e-03
-7.217464e-04
-3.611601e-04
-2.123252e-03
-6.865264e-04
-1.797267e-03
1.001013e-02
2.280466e-02
2.543373e-02
-1.844059e-02
-4.066717e-02
-1.309396e-02
-6.056659e-03
-1.531979e-02
-1.092039e-02
2.076851e-02
2.716753e-02
-1.801888e-02
8.176021e-02
1.098064e-01
6.373183e-02
3.295631e-02
7.281200e-02
4.673722e-02
-4.250535e-02
-6.311257e-02
-2.632718e-02
-7.844656e-02
-1.019521e-01
-5.231314e-02
-5.458960e-02
-8.106539e-02
-5.372923e-02
-6.173370e-03
1.360572e-02
4.204002e-03
8.287705e-03
2.389098e-02
2.055197e-02
1.490539e-02
1.440117e-02
1.212445e-02
-2.483744e-03
-1.019412e-02
-1.924777e-02
3.406122e-03
2.253685e-03
-7.977230e-03
1.571456e-02
3.369934e-02
2.376847e-02
7.252397e-03
2.472467e-03
-5.979405e-03
-6.643600e-03
-2.285864e-02
-1.534230e-02
-2.047009e-02
-2.917535e-02
9.231794e-03
2.426004e-02
2.431990e-02
7.329351e-03
2.696599e-02
2.827761e-02
1.351784e-02
2.395925e-02
2.748019e-02
1.810448e-02
-2.377926e-02
-3.806731e-02
-1.082550e-02
-2.028587e-02
-1.545152e-02
-2.462864e-02
-2.213946e-02
-1.555651e-02
-1.980284e-02
-1.041735e-02
-7.010296e-03
-6.690783e-03
-1.007487e-02
-2.050527e-02
-2.271503e-02
-2.219186e-02
-3.883416e-02
-3.335241e-02
4.206817e-02
2.031865e-02
1.016156e-02
2.598237e-02
4.517775e-02
3.434832e-02
-2.823835e-03
1.303022e-02
1.513911e-02
-1.017927e-02
-9.317290e-03
9.903241e-03
-9.689920e-03
-1.832371e-02
1.387824e-03
1.131158e-03
-9.083968e-05
9.220592e-04
1.680212e-02
2.446938e-02
1.003832e-02
2.352405e-03
5.216252e-03
-1.966956e-03
-4.096125e-03
1.699101e-02
1.281790e-02
2.428151e-02
2.269554e-03
-6.466761e-03
9.956229e-03
-8.306619e-03
-2.411055e-02
-1.075175e-02
-2.599421e-02
-3.764845e-02
1.640760e-02
2.015114e-02
1.018835e-02
-2.624454e-03
-2.954712e-02
-3.931693e-02
4.736384e-06
-3.197843e-02
-2.411010e-02
-4.771918e-02
-3.987913e-02
-3.732393e-02
-7.284030e-03
-1.900052e-02
-5.328697e-03
2.578525e-02
2.371915e-02
-5.117096e-03
-2.632447e-03
-2.032233e-03
-1.865917e-03
-2.545493e-03
-3.646295e-03
-2.450106e-03
-1.604959e-03
-9.046093e-04
-1.100504e-03
