-7.059329e-03
1.783529e-02
-3.645826e-02
-1.138760e-03
9.536477e-03
-5.389865e-02
8.441662e-03
3.520453e-02
-6.721239e-02
1.285347e-02
1.837228e-02
1.680068e-02
-7.346037e-03
1.299389e-02
-7.516485e-03
-1.828530e-02
3.045425e-04
-1.430482e-02
2.706795e-03
-9.401894e-03
1.073394e-02
2.975423e-02
2.960785e-03
-4.478902e-02
-1.491411e-02
-3.598059e-02
-1.243037e-02
3.148002e-02
-4.020264e-02
-5.074747e-02
2.477507e-02
-2.758822e-02
-5.987029e-03
-2.236105e-02
1.129445e-02
-5.786957e-03
1.781487e-02
-1.399233e-03
-1.434205e-02
1.251407e-02
4.124396e-04
-9.277845e-03
1.127099e-02
1.553743e-04
-8.169298e-03
3.333775e-02
7.352089e-04
8.273230e-04
2.183952e-04
-1.515925e-02
-1.195235e-02
-9.392927e-03
-7.706478e-03
3.056405e-04
-4.135598e-02
2.472014e-03
3.830531e-02
-3.397423e-02
1.937653e-02
2.261248e-02
5.251525e-03
2.754274e-03
-9.385736e-02
-4.748644e-02
-8.713095e-03
3.508648e-02
-5.241116e-02
1.337082e-02
3.317437e-02
-1.378840e-02
1.635414e-02
3.526881e-02
8.611080e-03
1.641602e-02
-2.963814e-02
7.791166e-02
3.315545e-02
4.349337e-02
-1.190936e-02
1.171748e-02
-1.841513e-02
-1.075337e-02
-2.908755e-03
-3.292682e-02
-1.115308e-02
6.980975e-03
-2.812255e-02
4.572776e-02
5.181539e-02
1.770663e-02
-2.966262e-02
-7.456489e-03
1.860348e-02
-4.181022e-02
-1.917730e-02
5.591670e-02
-2.154918e-02
6.323682e-03
1.458252e-02
6.942530e-03
5.181587e-03
-3.589174e-02
-8.811889e-03
3.296330e-03
6.599269e-03
-2.027467e-02
1.570086e-02
2.942606e-02
2.839067e-02
1.809262e-02
-7.175228e-03
1.125213e-01
8.098261e-02
8.764230e-02
5.873153e-03
-2.207182e-02
-1.933181e-02
-5.209076e-03
-6.665716e-03
-1.679860e-02
5.387218e-03
1.030391e-02
5.252078e-03
-7.036356e-03
2.262638e-03
2.230632e-03
-1.634401e-03
8.987260e-03
-4.270284e-02
2.086590e-02
2.808443e-02
-2.461487e-03
-3.125025e-02
8.074496e-03
-4.066822e-02
2.919688e-02
-7.887714e-03
-3.055787e-02
7.408182e-03
1.835446e-02
-3.811852e-02
-2.884180e-02
-5.687369e-02
8.728086e-03
-2.125062e-03
-2.253783e-02
4.010206e-03
-8.239366e-03
9.425083e-03
-4.063881e-02
-2.588150e-03
5.154983e-02
-2.359792e-02
7.973540e-03
5.266048e-03
-2.061216e-02
-2.094821e-02
-2.698238e-03
-1.765032e-03
-2.093826e-02
-3.776317e-03
3.852694e-03
4.570415e-02
-4.192964e-02
2.344434e-02
3.046764e-02
2.062804e-02
2.474511e-02
-6.859142e-02
3.401031e-02
8.578559e-03
-3.164443e-02
8.063364e-02
-3.651006e-02
-2.120742e-02
-4.890987e-03
2.729605e-03
4.427060e-02
-4.849160e-02
5.357343e-02
2.091206e-03
-5.985001e-03
-8.605649e-03
-7.748402e-03
-2.248691e-02
-3.716201e-03
-3.347406e-02
-2.477980e-02
2.739844e-03
-1.032399e-02
-2.111719e-02
-1.236409e-02
1.999432e-03
-1.973602e-02
1.003295e-02
9.790105e-03
-4.416712e-03
1.712298e-02
-3.875264e-02
-5.508105e-02
2.828143e-02
-4.525238e-04
-6.321704e-02
2.269140e-02
1.006412e-02
-9.723518e-02
-2.032824e-02
8.104825e-03
2.475267e-02
3.423446e-03
-6.116715e-03
-3.786805e-03
8.279084e-06
-3.348755e-02
-1.606042e-02
-1.912027e-02
-1.130772e-01
-1.291519e-01
-9.010138e-02
-1.542284e-01
-1.641926e-01
-7.352055e-02
-9.425596e-02
-1.008575e-01
-2.498529e-02
1.675145e-02
1.074679e-02
-3.441874e-03
1.638879e-02
1.104773e-02
-1.716094e-02
7.250484e-03
-3.772352e-03
-1.441750e-02
-4.738011e-02
6.272867e-02
-2.303145e-02
-1.283400e-02
2.143859e-02
7.800165e-04
5.518899e-02
9.153511e-04
3.616172e-02
1.873011e-02
-1.153994e-02
4.744409e-05
-1.613414e-02
-2.040360e-02
6.731777e-03
-8.048308e-03
-1.973883e-03
2.027654e-02
-4.757604e-02
-6.105618e-02
-4.136125e-02
-1.705213e-02
-3.016512e-02
-2.339269e-02
-1.056731e-02
-1.093246e-03
-2.541775e-02
-3.718901e-03
-1.766110e-03
-2.778651e-02
-2.809239e-02
-5.092587e-03
-3.383582e-02
-1.497823e-02
2.508475e-02
-1.213214e-02
-1.505073e-02
-1.161202e-02
-6.180125e-03
-7.825292e-02
2.532425e-02
-1.629534e-02
-6.804738e-02
-1.606118e-02
2.211991e-02
-6.299622e-02
-8.532857e-02
1.342813e-02
-3.270531e-02
-3.510543e-02
3.840575e-03
-9.669915e-03
-4.413461e-02
5.716429e-02
-3.596187e-02
-8.952534e-03
2.616413e-02
-8.244019e-03
4.714780e-03
5.868180e-02
-1.080382e-02
-5.840970e-03
6.559017e-03
-2.737269e-02
-3.851045e-03
-1.769182e-02
4.089296e-03
1.286898e-02
-5.156083e-03
2.660242e-02
2.380645e-02
1.350066e-02
-3.537252e-02
-7.848920e-02
-1.284303e-02
1.190307e-02
-7.764997e-02
-3.362295e-03
3.669035e-02
5.006949e-02
-4.277757e-03
-9.579935e-03
4.527997e-03
-3.977342e-02
1.059757e-02
3.811704e-02
-3.149870e-02
1.700018e-02
-7.015748e-03
5.536956e-02
-1.074104e-02
-1.174842e-02
-7.808249e-03
2.031800e-04
-1.705157e-02
1.901392e-03
2.707984e-02
2.867154e-02
3.425077e-02
-1.475160e-02
-2.340116e-02
-2.003112e-02
1.384599e-02
1.352157e-03
-1.352210e-02
2.402881e-02
8.825474e-03
-1.872944e-02
-1.203541e-03
-6.076542e-02
-6.273597e-02
3.973375e-02
-1.719110e-02
-3.053987e-02
1.172318e-02
-2.550867e-02
-6.240802e-02
1.846046e-02
2.825907e-02
-2.626708e-02
2.920420e-02
4.420109e-02
-5.335627e-03
-8.763161e-03
1.206544e-02
-4.208594e-02
-1.735453e-02
-1.737556e-02
-3.949212e-02
-4.064820e-03
-3.572792e-02
-5.007555e-02
-4.630833e-03
-1.452724e-02
-3.586314e-02
2.330283e-02
3.715418e-02
3.903003e-02
4.406692e-03
1.492214e-02
3.633296e-02
-3.431200e-02
-1.865371e-02
5.458682e-03
-1.294553e-02
-3.317185e-03
-2.169696e-02
3.182642e-02
2.615072e-02
-2.151468e-02
7.490125e-02
-7.169620e-02
6.955912e-03
-8.927845e-03
5.052728e-03
-8.422758e-03
4.194192e-03
-1.556314e-02
-2.025982e-02
-1.091624e-03
5.232785e-03
-1.959507e-03
-9.932414e-04
2.562383e-03
4.065569e-03
1.205528e-02
1.177352e-02
2.691172e-02
2.189047e-02
4.118950e-02
1.171693e-02
5.872779e-03
5.751454e-04
1.670016e-03
-1.257037e-02
-1.080699e-02
1.107056e-02
-4.806313e-02
-1.980638e-02
1.955167e-02
-8.377071e-03
-3.205564e-02
-6.886590e-03
3.831485e-02
1.250755e-03
-7.314885e-02
7.003165e-02
-4.092406e-03
-5.701590e-02
-2.419363e-02
-6.068395e-02
-1.036129e-03
-1.410122e-02
-1.463214e-02
-1.024113e-02
-3.121014e-02
-1.668543e-02
9.475828e-03
-1.756061e-03
3.400253e-03
-8.719735e-04
1.038727e-02
1.760477e-02
1.610897e-03
-2.608300e-02
-6.486600e-03
-1.722618e-02
-2.330443e-02
-4.042289e-02
-1.430591e-02
-2.609168e-03
8.406542e-04
3.069687e-02
-2.866581e-02
-2.464747e-02
-1.589861e-03
-6.381525e-02
1.523651e-03
2.941954e-03
-1.288346e-01
-9.253061e-02
7.493443e-03
-7.425034e-02
-1.293129e-02
-3.473831e-02
-3.340868e-02
-4.941334e-02
-4.065305e-02
1.316616e-02
-2.080504e-02
-1.104805e-01
-1.399165e-03
-4.512489e-02
-5.426056e-02
-6.982356e-03
4.976301e-03
1.959390e-02
-1.983898e-03
-6.728626e-03
2.806097e-02
-3.477646e-02
-3.234626e-02
-4.012715e-03
-7.770596e-03
-9.617413e-03
-1.154178e-02
-1.177572e-02
-1.836961e-02
1.580510e-02
-3.255168e-02
-8.184115e-03
9.427233e-03
1.754779e-02
-5.622180e-02
1.192359e-02
-3.484445e-03
-4.347518e-02
6.021442e-03
3.231111e-02
-2.195137e-02
-3.244194e-02
2.127132e-03
2.209320e-02
-2.030236e-02
-4.991858e-03
-6.215836e-03
1.142795e-02
-1.790650e-02
-1.230248e-02
6.724987e-04
-5.607025e-02
4.021519e-03
2.488718e-02
-8.114606e-03
-9.548103e-03
2.110484e-02
-1.153116e-02
8.901814e-04
1.236979e-02
1.365003e-02
-1.840779e-02
-4.206113e-02
5.138631e-02
3.803945e-03
-1.791286e-02
4.169032e-02
-8.240615e-03
-1.174619e-02
-4.195817e-02
-4.601453e-02
-9.314854e-03
3.273691e-02
6.321578e-02
-4.562292e-02
1.523516e-02
-1.024522e-01
-7.991116e-02
-1.454554e-02
-2.874539e-03
-4.871058e-02
2.528779e-02
1.630873e-02
-3.028700e-02
-1.178799e-02
-3.627024e-02
-2.161624e-02
1.227989e-02
-4.907176e-02
-2.769627e-02
-7.382589e-03
-4.664374e-02
1.698971e-02
1.653211e-02
-3.590159e-03
2.984150e-02
3.902517e-02
1.326304e-02
-7.332911e-02
6.072493e-02
3.514004e-02
-4.240159e-02
1.015127e-02
-1.208956e-02
-7.704268e-02
-1.140855e-02
-1.154005e-04
5.172432e-02
-3.564728e-03
-1.830930e-02
-1.982748e-02
4.691765e-02
-1.303604e-02
2.732859e-02
-7.144943e-03
-2.621936e-02
2.312290e-03
-3.503039e-02
-2.867941e-02
-5.571027e-02
-1.441927e-02
-5.735821e-02
-8.190318e-02
-2.144428e-02
-8.789236e-03
-2.275835e-02
-1.817328e-02
2.480029e-02
-5.800262e-03
-1.490588e-02
2.951491e-02
2.047360e-02
2.726957e-02
1.858188e-02
-1.917392e-03
2.134369e-02
2.929573e-02
1.820417e-02
2.279807e-02
4.367327e-02
2.345129e-02
5.314755e-02
-4.098125e-02
-5.263329e-02
-1.043093e-02
3.759793e-02
-4.314680e-02
-3.788751e-02
1.390077e-02
-1.240279e-02
-1.186778e-02
3.128024e-02
9.544045e-02
-1.721826e-02
-4.777940e-02
1.087739e-01
3.212981e-03
-1.481541e-02
3.311697e-02
-7.580671e-02
-4.691161e-02
-2.854518e-02
-3.712066e-02
-4.066406e-02
-2.197793e-02
-9.079202e-03
-2.267587e-02
2.682565e-03
-2.779320e-02
-4.120002e-02
2.019978e-02
1.218981e-02
-2.890554e-02
9.431050e-03
4.763601e-02
5.714844e-03
2.150193e-02
-9.656161e-03
5.146376e-02
4.306364e-02
1.193956e-01
-5.509866e-02
2.491039e-02
-6.863850e-03
4.406512e-02
1.266451e-02
3.408933e-04
-5.629884e-03
2.384428e-02
-3.415642e-03
-1.395619e-02
1.037084e-02
-5.686733e-03
-4.008248e-02
-1.891125e-02
-1.106427e-02
-4.822875e-02
4.170277e-02
-2.652150e-03
-1.598287e-02
1.617008e-04
3.987208e-02
-1.721627e-02
-2.712545e-02
4.835391e-02
4.467236e-02
6.106761e-03
1.369502e-02
3.428443e-02
1.491424e-02
8.022599e-04
3.454032e-02
3.992033e-02
-2.552249e-02
-5.529072e-03
-2.980432e-02
4.934992e-02
-2.136150e-02
2.186889e-03
3.621151e-02
1.468362e-02
-5.440924e-03
7.057732e-03
1.859933e-02
2.675610e-02
-2.008238e-02
-2.542860e-03
-1.072243e-02
-1.313316e-02
-1.182156e-02
-2.768840e-02
1.037198e-02
2.616266e-02
-1.126818e-02
7.103676e-03
9.528315e-03
-2.814922e-03
1.683359e-02
4.780245e-03
-1.234923e-02
6.879654e-03
2.345607e-02
-6.227821e-03
-1.791030e-03
9.616301e-03
-1.268377e-02
3.491416e-03
-5.724634e-03
4.345032e-03
-2.545539e-02
2.534143e-02
1.224609e-02
-1.850306e-02
-2.616644e-02
5.846872e-03
-1.003063e-03
1.882500e-02
3.731150e-03
-4.943328e-02
-3.835005e-02
2.970809e-02
1.480418e-03
-4.577978e-02
-9.966228e-03
3.405985e-03
-5.997123e-02
8.856186e-03
-5.794736e-03
4.499422e-02
-4.760286e-03
-1.004997e-02
3.702618e-02
-2.707233e-03
-6.384152e-02
-2.802712e-02
1.073151e-02
-3.989929e-02
2.575122e-03
9.731196e-03
-1.518941e-03
-1.276672e-02
2.647209e-02
1.510361e-02
-3.230523e-02
-3.687567e-02
-2.424822e-02
1.565148e-02
-2.389710e-02
8.760418e-03
1.264991e-02
2.937926e-02
5.455818e-04
-2.483024e-02
-2.997345e-03
2.364208e-03
-4.454741e-02
1.836958e-02
-4.991094e-03
-8.007087e-03
7.469952e-03
-1.346581e-02
7.016040e-02
1.432714e-02
-3.372762e-02
-4.621025e-02
-5.029071e-02
-1.506961e-02
-1.638756e-02
-7.771976e-03
-2.013998e-02
-2.143464e-02
-4.182332e-02
2.284628e-02
1.601543e-02
1.999559e-02
-9.980747e-03
-8.832130e-03
7.980747e-03
-2.673141e-02
-1.441647e-02
9.955923e-04
-2.532621e-02
-4.250896e-02
1.884599e-02
-2.366826e-02
-2.690829e-04
-3.432463e-02
-2.961075e-02
-3.216449e-02
-1.458589e-02
3.442281e-02
3.098040e-02
3.071220e-02
-9.568688e-03
2.473300e-03
-8.216464e-03
-1.748455e-02
1.952764e-02
-4.604183e-02
-5.418015e-02
-7.657894e-02
1.218205e-02
-2.177179e-02
-4.272687e-02
2.718159e-02
-4.516499e-02
-5.253768e-02
-2.358900e-02
2.615528e-02
5.576971e-02
9.514147e-03
3.658938e-03
1.675578e-02
-4.025031e-03
3.377161e-03
2.542418e-02
3.523518e-02
1.217837e-02
-1.843484e-02
-5.440604e-02
-1.597702e-02
3.656677e-02
-3.005310e-02
-5.845123e-02
3.777162e-02
-1.954288e-02
-2.675030e-02
-2.221144e-03
-2.877457e-02
-4.217752e-03
2.279863e-02
-7.195639e-03
3.696814e-04
-1.439082e-02
-5.048210e-03
-5.801838e-04
4.282291e-02
8.686169e-03
-4.057643e-02
-4.215667e-02
-3.966840e-02
4.210684e-02
-1.842718e-04
3.542770e-02
-4.976189e-02
-4.704267e-02
-5.554500e-02
-1.159562e-02
9.395097e-03
-5.336414e-02
5.035627e-02
9.804584e-02
1.409673e-02
-4.401490e-02
-1.556634e-01
-9.036554e-02
-3.863746e-02
-1.107336e-01
-7.208105e-02
-3.641940e-02
-1.417322e-02
-3.385009e-04
-9.148217e-03
1.507210e-02
-3.348903e-03
-7.002566e-04
-4.172388e-02
-6.318706e-03
-6.062809e-03
-5.130723e-03
-2.634155e-02
2.643109e-02
-3.355167e-02
-5.014554e-02
3.076776e-02
-1.051772e-02
-1.066258e-02
1.830258e-02
-1.275827e-02
-2.112483e-03
2.157956e-02
3.935231e-02
-1.183898e-02
-2.028613e-02
8.014350e-03
1.694242e-02
-6.470514e-02
-2.938701e-02
-4.485359e-03
1.787046e-02
-2.455881e-03
5.120128e-03
-1.908243e-02
-1.754306e-01
4.827598e-02
1.866073e-02
4.482489e-02
-2.315933e-02
-1.865411e-02
-4.287003e-02
-3.344426e-03
-9.391388e-03
6.728790e-03
-1.531268e-01
-3.140366e-02
-4.974421e-02
-3.740979e-02
-1.836236e-02
-2.048997e-02
-4.684580e-03
4.262099e-04
-1.802292e-02
-1.270145e-02
-4.784211e-04
-1.936826e-02
1.718628e-02
-4.853510e-03
2.809203e-03
-8.920557e-03
-1.376239e-02
-1.937260e-02
-3.179944e-02
-3.193112e-02
-2.912257e-02
-1.817344e-02
-6.486294e-02
-2.892679e-02
-7.783427e-02
-2.895960e-02
-7.553238e-03
-6.596494e-02
-1.152933e-01
-4.471191e-02
-9.533441e-02
-1.496500e-02
-1.170399e-02
-3.278422e-02
-2.249986e-02
9.476890e-03
1.887999e-02
1.813058e-02
2.042915e-02
-6.349949e-03
1.219164e-02
2.400323e-03
-5.771553e-03
-3.152769e-03
2.149245e-02
3.095903e-02
-3.558320e-02
1.992618e-02
5.797642e-02
-2.526072e-03
-1.087539e-02
1.754222e-02
2.328025e-02
1.210402e-02
2.626061e-02
4.793513e-03
6.641873e-03
1.599163e-03
1.494990e-02
-3.137148e-02
-6.065332e-03
-6.750114e-02
1.167059e-01
2.739983e-02
-8.661176e-03
-9.466411e-02
1.719602e-02
2.431334e-02
2.389706e-02
-5.888485e-02
1.707103e-02
6.461455e-03
1.387715e-02
-3.145017e-02
-4.457063e-02
2.115170e-02
-3.851133e-02
-1.868475e-02
-3.731434e-02
-9.191988e-02
-9.240522e-02
-4.127668e-02
-1.877315e-02
-6.601789e-02
2.291738e-02
-1.747330e-02
-2.458886e-02
-1.587943e-02
4.486319e-02
1.825774e-02
1.978234e-03
-2.629524e-03
-1.444768e-02
1.445191e-02
-3.009187e-02
-3.664400e-02
-4.046819e-02
3.750911e-02
2.722574e-02
-3.489457e-02
-2.487282e-02
3.019479e-02
-1.477448e-02
-2.753074e-02
-2.024532e-02
-1.707070e-02
-1.880464e-02
-1.161498e-02
-2.885549e-02
-2.763170e-02
1.492356e-02
1.388514e-02
-3.802682e-02
-4.003572e-02
8.816766e-03
-5.766437e-03
-3.223937e-02
3.510483e-02
1.600782e-02
-1.377955e-02
-4.259340e-02
-2.916691e-02
-2.928185e-02
-3.020001e-02
2.911082e-02
1.633044e-04
-1.061878e-02
2.172668e-02
4.736715e-03
-1.930897e-02
-1.721373e-02
1.880051e-02
3.618624e-02
8.507336e-02
-6.132584e-02
-2.921812e-02
-2.889650e-02
4.283816e-02
2.953789e-02
1.980909e-02
4.819754e-03
6.315959e-03
-5.325110e-02
2.381225e-02
-3.358041e-02
1.078310e-02
-7.863845e-02
-6.183113e-02
-2.236820e-02
-3.472933e-02
-2.634284e-02
9.236222e-03
-1.566075e-02
-8.246552e-03
8.956987e-03
-1.209704e-02
-9.300712e-03
2.223051e-02
3.309640e-02
-1.817868e-02
-9.130075e-03
3.722564e-03
9.173087e-03
-1.402074e-02
-1.667192e-03
2.927883e-02
6.128039e-02
2.325640e-02
-6.608651e-03
-1.648018e-02
4.665916e-02
-1.548571e-02
4.370930e-02
-1.001427e-02
2.517285e-02
-1.999843e-02
-8.182831e-05
-3.199075e-02
-1.050016e-02
5.540033e-03
-6.588983e-04
-2.799489e-02
-1.816751e-02
-3.276590e-02
1.809079e-02
-5.966418e-03
3.709681e-02
1.845324e-04
3.052356e-02
-2.627995e-03
2.074051e-02
-2.074072e-02
-2.542409e-02
1.880394e-02
-2.281433e-03
-2.523033e-02
-1.299153e-02
-9.347111e-03
-1.476901e-02
-2.098669e-03
1.692409e-02
-1.468809e-02
-3.974778e-02
2.691116e-03
-1.156133e-02
-1.012519e-01
3.456096e-02
-4.226826e-03
4.812009e-02
-1.360650e-02
1.239056e-02
-2.143181e-02
-3.675893e-02
-6.246713e-02
-2.402907e-02
-2.552661e-02
-1.065955e-02
1.742317e-02
-2.310805e-02
-1.409724e-02
-1.654092e-02
-1.791730e-02
-2.037129e-02
-2.967678e-03
-5.909723e-02
-3.153828e-02
3.759979e-02
-1.022819e-02
1.016565e-02
2.123420e-03
1.819923e-02
3.585124e-02
-3.804620e-03
-2.135964e-03
2.319644e-02
6.982686e-03
-6.103770e-03
4.610658e-03
-7.524910e-03
-2.860223e-02
2.595579e-02
-1.912975e-03
4.451564e-02
7.450433e-03
-1.824800e-02
1.403464e-02
-3.520310e-02
-8.044014e-02
-5.726302e-02
-4.948604e-02
-8.508144e-02
-5.258978e-02
-7.907236e-02
-8.050849e-02
-8.312678e-02
-9.959695e-02
-1.239825e-02
-4.687759e-02
-3.723953e-02
1.800422e-02
3.011735e-03
-1.525417e-02
-3.013840e-02
-3.055140e-02
-2.422356e-03
3.528640e-03
-7.734604e-03
-1.268761e-03
4.246787e-02
-2.865069e-02
8.419894e-03
-9.467483e-03
-4.823173e-02
-4.542028e-02
-3.204021e-02
-1.401896e-02
-5.728774e-02
8.756208e-02
-6.328430e-03
-8.201778e-02
-3.325389e-02
-1.825627e-02
-1.116886e-01
-3.552653e-02
-2.612336e-03
3.252901e-02
-1.545288e-01
2.201756e-02
-1.703425e-03
-4.120023e-02
-2.243106e-02
2.996340e-03
1.124070e-02
4.720438e-03
-2.080434e-02
2.273571e-03
-1.408094e-02
3.642276e-03
-3.963732e-02
-2.057059e-02
-3.832360e-03
-8.043677e-03
-3.386730e-04
2.276427e-02
-1.529311e-02
-1.929309e-02
3.082137e-03
-1.048788e-02
-7.626663e-03
-2.700244e-02
3.167975e-02
2.219277e-02
-1.044592e-02
-5.855902e-02
-3.375219e-02
-2.850291e-02
-2.848198e-02
-4.128290e-02
-1.665275e-02
-1.713431e-02
1.612692e-02
2.981159e-02
-1.536878e-02
-1.826017e-02
1.626537e-02
-1.293175e-02
-1.002321e-02
-1.939785e-02
-7.134195e-03
-1.509986e-02
1.051188e-02
8.825378e-03
-3.783967e-02
2.380610e-02
4.198668e-02
-2.140709e-02
1.557451e-03
3.234259e-02
7.224641e-03
-1.072593e-02
6.087038e-02
3.033699e-02
3.374134e-02
1.832270e-02
-7.466966e-03
6.065961e-03
-7.432353e-02
-5.502146e-02
-4.803967e-02
-1.657708e-01
-1.437086e-01
-6.110385e-02
-4.875860e-02
-3.367449e-02
-3.291278e-02
-2.388027e-02
-4.196516e-03
-1.186009e-02
-2.782195e-02
9.637389e-04
-6.109146e-02
-2.543973e-02
-3.691899e-02
-3.683058e-02
-3.857342e-02
-3.246723e-02
1.356094e-02
1.125580e-02
-6.854522e-02
-1.865432e-02
2.870183e-02
-5.394519e-02
2.826612e-02
-7.619128e-02
-2.631602e-02
9.769668e-03
-4.981875e-02
2.339017e-02
7.178991e-02
-4.959562e-02
-1.774063e-02
5.341276e-03
5.246658e-02
-4.729152e-02
-2.888255e-02
-1.624297e-02
-4.128933e-02
-4.251062e-02
5.056678e-02
-1.664388e-02
2.715649e-02
-6.831799e-02
-4.464888e-03
2.749999e-02
-5.373877e-02
-6.025178e-02
-1.421667e-02
-2.417551e-02
-3.022699e-02
7.906651e-03
9.726128e-03
2.147614e-02
2.035874e-02
-3.705436e-02
-9.921107e-03
4.023154e-02
-1.849121e-02
-1.060571e-03
3.027781e-03
1.101122e-02
1.849305e-02
1.454045e-02
-4.597515e-03
-4.199010e-03
-5.225602e-03
-7.054328e-03
4.287310e-03
-5.750343e-03
-3.229775e-02
6.563022e-03
4.374074e-03
-1.292365e-02
-1.494209e-03
-9.877969e-03
-1.837840e-02
-1.656977e-02
-3.621623e-02
-1.713129e-02
-1.132902e-02
-1.037694e-02
3.498746e-02
5.156184e-03
-1.126697e-02
5.557701e-02
4.320660e-02
-3.983570e-03
-1.083915e-02
-5.864371e-03
3.470043e-03
-1.988903e-03
-5.835691e-03
-1.094801e-02
2.063937e-06
-9.499558e-03
-2.041687e-02
2.014406e-03
-7.612867e-03
-1.890547e-03
7.359734e-03
-2.151557e-03
2.168620e-03
2.986888e-03
1.184448e-02
9.364686e-03
4.084485e-02
1.253719e-02
7.798108e-02
7.581194e-02
8.384005e-02
8.184962e-02
8.745434e-02
4.545807e-02
8.653148e-02
1.467266e-02
-1.098841e-02
-2.462118e-02
-6.576020e-03
-3.099571e-03
-1.368068e-02
-4.595774e-02
6.647946e-03
3.954920e-02
-4.766699e-02
4.678017e-03
4.512214e-02
-3.137514e-02
-2.414373e-02
2.800773e-02
9.116048e-03
2.716490e-02
-1.059618e-02
8.577805e-03
1.319182e-03
-2.133470e-02
6.972202e-03
4.645543e-03
-2.292651e-02
1.032300e-02
1.132634e-02
-3.017867e-02
-4.484825e-03
5.853423e-02
-3.065295e-02
-2.089290e-02
5.886503e-02
-2.831174e-03
-2.815095e-02
-4.295705e-02
2.407262e-03
9.716521e-03
-1.273933e-02
5.494956e-03
4.956048e-03
-3.810074e-03
-9.508058e-03
1.553040e-02
8.781021e-03
4.807088e-03
-1.570105e-02
-2.271047e-02
2.367627e-02
-2.635797e-02
-3.387460e-02
2.113543e-02
-9.149714e-03
-2.299385e-02
1.727312e-02
1.543869e-02
8.444815e-03
-4.974552e-03
-1.983557e-02
-1.673202e-02
-2.810704e-02
-1.534429e-02
-5.864790e-03
-8.485036e-03
-2.823472e-02
1.365962e-02
-5.582087e-04
-4.361353e-04
-1.823256e-02
-2.567789e-02
1.195307e-02
1.760518e-02
-3.849547e-02
-3.057434e-02
-3.957382e-02
-4.278404e-02
-1.947605e-02
1.343289e-02
-2.758747e-02
-1.573391e-02
-2.966616e-02
-4.985198e-02
2.871151e-02
-4.684589e-03
-6.996961e-03
7.574801e-03
5.922228e-03
1.675369e-02
8.549535e-03
-2.207766e-03
7.470455e-03
2.087582e-02
2.413709e-03
2.691661e-02
2.729324e-02
9.928298e-03
9.918756e-05
1.190023e-02
1.273740e-02
-2.594455e-02
-8.797042e-03
6.250921e-02
-1.660679e-04
1.967273e-02
1.958170e-02
6.109671e-03
-3.679723e-02
1.507971e-02
-1.074504e-02
2.196054e-02
-4.531518e-03
5.652312e-02
1.589725e-02
2.867831e-02
4.599302e-02
1.297876e-02
2.314720e-02
4.934411e-02
-1.139211e-02
-1.761428e-03
-8.756784e-03
-1.022742e-02
-5.941584e-04
-1.931409e-02
-1.302369e-02
-9.769793e-03
-2.691153e-02
8.881014e-03
5.019737e-03
-2.133163e-02
1.803381e-02
1.437364e-02
-1.237699e-02
-1.296497e-02
-3.544683e-03
-2.851113e-02
-6.731768e-02
-5.161651e-03
-8.442435e-02
-3.557171e-03
4.808601e-03
-5.267749e-02
-1.728430e-02
-3.171565e-02
4.209822e-04
-1.609132e-02
-3.523788e-02
2.258463e-04
-1.155681e-02
-1.393115e-02
1.302499e-03
-1.725554e-02
-6.415315e-03
2.323526e-04
1.240531e-02
-4.733699e-04
-2.872256e-02
-4.676199e-03
1.237526e-02
1.332107e-02
-2.891537e-02
9.416775e-04
-5.130157e-02
-1.766652e-03
-3.476766e-02
-1.104996e-02
-6.109734e-03
-3.575438e-02
-8.264757e-03
-1.402595e-03
-3.434651e-02
-1.424358e-02
4.209767e-02
-8.390185e-04
-2.261075e-02
2.453621e-02
4.494130e-02
3.078973e-02
3.376436e-02
1.195108e-02
5.428254e-03
9.103668e-03
-8.305999e-03
1.950505e-02
1.121401e-04
1.002405e-02
3.885894e-02
-4.912553e-03
1.340990e-02
4.753514e-02
3.148264e-02
1.119045e-01
1.846154e-02
2.355090e-02
1.051121e-01
7.351177e-03
2.506053e-02
1.176939e-01
4.818647e-03
1.608365e-02
1.437435e-02
-1.722729e-03
-4.751666e-03
-2.277184e-03
-1.551993e-02
-1.497535e-02
-2.451124e-03
-1.146008e-02
-1.036614e-02
-7.092436e-02
-3.464696e-02
-1.613943e-02
-1.248352e-02
-1.800652e-02
-1.836634e-02
1.799420e-02
1.257237e-03
-5.676454e-02
-2.200894e-02
-3.097842e-02
-2.055210e-02
2.217399e-02
-2.171555e-02
-2.595290e-02
-1.148434e-02
-2.677165e-02
-8.855107e-02
-3.024917e-02
5.809444e-02
-1.525217e-01
-1.015617e-01
3.886506e-02
-9.036485e-02
-9.089933e-02
-1.608076e-02
2.506518e-02
1.846135e-02
4.328626e-02
1.957379e-02
-1.299889e-02
1.937372e-02
-2.385608e-03
-3.143125e-02
-3.474062e-02
1.607844e-02
8.147537e-03
-2.640708e-02
2.210928e-02
-2.805618e-02
-7.931019e-03
6.951484e-03
1.079322e-03
1.106322e-02
-1.662129e-02
2.000567e-03
2.529371e-02
-7.797547e-03
-1.340543e-02
1.909572e-02
2.040899e-02
-3.320180e-03
1.570600e-02
-3.157231e-02
-2.375931e-02
-1.133549e-02
1.585077e-03
1.574524e-02
-9.584250e-03
2.923053e-02
3.698158e-02
-8.552549e-03
1.662152e-02
-2.048539e-02
-3.354410e-02
2.177674e-02
-2.011775e-02
-4.262358e-02
5.784550e-02
2.071831e-02
-1.361273e-02
2.237604e-02
9.959137e-03
5.858925e-02
-2.059033e-02
2.867454e-02
1.681701e-02
2.247681e-02
-3.337011e-02
-2.552446e-03
3.615665e-02
-6.569830e-03
-7.666425e-02
4.606852e-02
1.711637e-02
-6.774842e-02
2.940023e-02
4.244708e-02
-2.646728e-02
2.751559e-02
-1.287533e-02
5.224619e-03
1.844273e-02
-1.591824e-02
2.104098e-03
3.251568e-03
-2.019853e-02
3.420151e-02
-4.764520e-02
3.313963e-03
9.469341e-02
-2.937755e-02
-2.124216e-03
9.023488e-02
1.564739e-02
2.621968e-02
9.241234e-02
-1.809957e-02
-2.919257e-02
-5.284441e-03
-1.019611e-02
-4.375354e-02
1.609120e-03
-3.421251e-03
-7.040098e-03
-3.053479e-04
-5.265762e-03
-2.093145e-02
2.393704e-02
-2.249364e-02
5.834350e-03
6.101718e-02
-4.509518e-02
1.419847e-02
5.897804e-02
-1.575895e-02
-6.761314e-03
1.731513e-02
-3.367972e-02
-2.210352e-02
-2.380084e-02
-4.808310e-03
2.627861e-03
-1.292606e-02
-2.433853e-02
-2.180901e-02
-1.754885e-02
-1.268995e-02
-7.792793e-03
-2.010807e-02
-8.365805e-04
2.328851e-03
-1.307870e-02
3.420936e-03
3.802874e-03
1.992223e-02
-2.756882e-02
-2.916153e-02
-1.031396e-02
6.113155e-03
-1.664079e-02
-6.833279e-03
1.867804e-02
1.654208e-02
-1.256722e-02
3.457169e-02
-4.969153e-03
7.384852e-03
8.753248e-03
1.247478e-02
1.828765e-02
-3.303289e-02
3.463915e-02
5.614439e-02
-9.589391e-03
-3.014782e-02
1.992301e-02
-3.972881e-02
3.897025e-02
2.009223e-02
-2.655312e-02
2.153369e-02
5.762961e-03
4.185237e-04
3.635289e-02
1.214971e-02
1.397830e-02
3.491856e-03
1.618591e-03
2.383985e-02
-1.722875e-02
-1.654902e-02
-5.017622e-02
5.315488e-02
-5.143726e-03
4.480165e-02
-2.246107e-02
1.604643e-02
1.959165e-02
8.129362e-03
-1.358986e-02
2.424070e-02
1.577669e-03
-2.495469e-02
-1.421004e-02
5.410674e-02
6.315460e-04
-4.671528e-03
2.583235e-02
1.308152e-02
6.672377e-03
1.026642e-02
2.482935e-02
-2.025201e-02
5.857809e-04
7.043606e-03
-2.088458e-03
-1.957856e-02
2.651374e-03
-1.521149e-02
-1.093246e-02
1.967050e-02
-6.172741e-03
1.140422e-02
2.366793e-02
-1.485839e-02
2.691467e-02
-3.004293e-02
1.008291e-02
-7.941162e-02
2.582583e-02
-4.139867e-02
-3.120164e-02
-1.359545e-02
1.369523e-02
2.165626e-03
8.381063e-03
1.768339e-03
3.544444e-02
-1.643850e-03
3.476603e-02
-2.860737e-03
8.754349e-03
-2.406040e-02
-3.758701e-02
7.341762e-03
2.033492e-02
2.129607e-01
-8.081966e-03
-1.576215e-02
-5.572188e-02
-3.810253e-03
2.419767e-02
4.007256e-02
2.380593e-02
7.686770e-04
5.324364e-03
-2.124827e-02
4.954964e-03
1.679429e-02
1.034442e-03
1.301888e-02
-9.993804e-03
2.161923e-02
7.480069e-02
-6.966063e-02
-4.977406e-03
3.543123e-03
1.234539e-02
1.108599e-02
1.227918e-02
1.448145e-02
-1.365745e-03
1.270898e-02
-1.335150e-02
-1.184336e-02
-3.439711e-02
-8.040628e-03
-5.174774e-03
2.113407e-03
5.679012e-03
-1.313426e-02
1.359025e-02
1.136022e-02
-1.761184e-02
2.971561e-02
3.750505e-03
3.384751e-02
-1.363579e-02
-1.705289e-02
1.671113e-02
-6.092162e-03
-1.735841e-02
1.930859e-02
1.405785e-02
3.877007e-02
1.510476e-02
-3.457158e-02
-8.653528e-06
-2.246252e-02
-7.267908e-03
-4.136143e-02
-1.580582e-02
-1.303672e-02
1.688556e-02
-1.053821e-02
-2.109040e-03
5.223903e-02
-4.123296e-02
3.108281e-02
-6.062682e-02
1.664947e-02
-2.391870e-02
-2.221081e-02
-1.339757e-02
1.225857e-02
1.592382e-02
-2.451605e-03
-1.006163e-01
-2.272552e-02
3.669453e-02
5.871981e-02
3.655697e-02
-1.072737e-02
6.722865e-02
5.889110e-02
-2.284959e-02
3.079490e-02
2.824981e-02
-6.017575e-02
-4.293609e-02
9.755182e-03
-4.134470e-03
-9.035562e-02
-6.670994e-02
-1.604083e-02
3.498339e-02
1.624022e-02
-3.664271e-02
1.950207e-02
3.874239e-02
-3.040915e-02
3.617880e-05
2.092030e-02
5.101656e-02
1.701467e-02
5.523488e-02
2.321091e-02
-7.171566e-03
-1.638332e-02
-3.558530e-02
-3.055188e-02
-3.841281e-02
-2.540543e-02
1.148807e-02
-1.768409e-02
-2.741557e-02
6.803922e-02
1.953542e-02
-1.046413e-02
1.333692e-02
-1.240453e-02
-1.797434e-02
9.264528e-03
-4.763317e-03
1.052568e-02
1.234998e-02
9.000823e-04
5.305247e-03
-3.498560e-02
6.872204e-02
2.073952e-02
6.902812e-02
-1.905820e-02
-4.510810e-02
2.061299e-02
3.444144e-03
-4.989935e-02
3.593248e-02
1.756606e-02
2.666096e-03
1.827529e-02
-2.172945e-02
-1.288036e-03
-8.690836e-02
-4.339674e-02
4.078267e-02
-4.568619e-03
2.824953e-02
-6.340997e-02
9.292122e-02
4.126750e-02
-7.529800e-02
-1.995380e-02
-7.955743e-03
-1.686948e-02
-7.488188e-02
-1.096163e-02
3.449123e-02
-5.236780e-02
1.171118e-02
3.353065e-02
4.003616e-02
3.942579e-02
-2.062769e-02
-5.157894e-03
-1.271069e-02
-2.095838e-02
3.420564e-02
-1.017344e-02
2.922202e-02
-4.903350e-02
-3.079941e-03
6.778758e-03
-3.415307e-02
-2.973251e-02
-2.818690e-02
-2.321874e-03
2.414470e-02
2.147571e-02
8.002882e-03
2.607127e-02
-8.494445e-03
-2.898308e-02
-2.034021e-02
-2.564761e-02
-4.625792e-02
-3.596548e-02
-8.137956e-03
-1.010008e-02
-8.275622e-03
4.552921e-02
-2.865373e-02
-4.112452e-02
2.468606e-02
-4.797785e-02
-8.554173e-03
5.583726e-02
4.472062e-03
2.854207e-02
1.444206e-02
3.484036e-02
7.920029e-02
-2.206615e-02
-4.416636e-02
-2.959292e-02
-4.277263e-02
-2.875881e-02
-3.549749e-02
5.957897e-04
-1.230117e-02
-6.399408e-04
-6.885670e-02
2.054322e-02
6.573507e-02
-1.170597e-02
-2.173812e-02
4.599014e-03
3.109134e-03
-3.680723e-02
-1.236729e-02
-1.186669e-02
7.426637e-02
8.671564e-02
3.053943e-02
-8.439965e-04
-2.201257e-02
-1.679224e-02
3.040503e-02
4.896186e-02
1.752776e-02
6.393696e-02
1.284259e-01
7.462143e-02
4.350708e-02
8.518495e-02
2.576228e-02
9.008293e-03
1.659462e-02
-3.634922e-02
2.159115e-02
2.591997e-02
-3.871433e-02
3.678330e-02
2.332535e-02
-2.050804e-02
-1.029645e-02
1.707066e-02
6.287687e-02
-2.532202e-02
-3.881338e-02
-3.469521e-03
-2.347235e-02
1.364196e-02
-3.129310e-02
4.759783e-02
6.028336e-03
-4.633171e-02
9.856076e-03
-1.617572e-03
-2.555093e-02
-1.418120e-02
1.688482e-02
2.335279e-02
2.864544e-02
9.538470e-04
-2.655521e-03
2.895882e-04
-3.585558e-02
-2.652296e-02
1.160808e-02
-1.018332e-02
-6.523699e-03
1.412808e-02
1.526036e-02
-5.671034e-02
-3.182562e-03
1.735830e-02
-1.459969e-02
-5.799757e-02
-1.051174e-02
-6.840847e-03
2.569003e-02
2.853562e-02
2.730828e-02
-2.549210e-02
1.151317e-03
-8.293374e-03
-3.639002e-02
-1.966598e-02
-4.593364e-02
-3.874330e-02
-2.678171e-02
1.017142e-02
4.951388e-03
1.741601e-02
-1.008131e-02
-2.443738e-03
2.997148e-02
1.169421e-02
-3.429478e-02
5.646792e-04
-1.061957e-02
-3.610807e-02
-2.400914e-02
-5.162361e-02
-5.576571e-02
-6.422850e-02
-6.679522e-02
1.186356e-02
2.224828e-02
2.369824e-02
3.132470e-02
3.696116e-02
-7.576752e-03
5.621744e-03
2.029668e-02
-3.408490e-02
-4.050875e-02
4.930682e-03
2.660714e-02
5.076125e-03
9.887202e-03
9.235949e-03
1.140759e-02
-8.279341e-03
-1.652233e-02
4.793685e-02
3.405165e-02
1.676971e-02
4.363667e-02
4.354979e-02
2.062439e-02
3.632428e-02
3.504753e-02
2.705116e-02
7.365352e-03
6.501293e-03
-1.289632e-02
-1.307042e-02
-6.989994e-04
-8.137791e-03
-2.814089e-02
1.431657e-02
1.333396e-02
6.828833e-03
2.576229e-02
5.394320e-03
-1.366146e-02
1.129693e-02
1.187778e-02
1.601152e-02
-2.013012e-02
-3.181697e-02
-7.408659e-02
-3.357522e-02
2.688318e-02
1.308198e-02
6.211122e-03
1.954437e-03
2.896503e-03
1.426010e-02
-3.245658e-02
-1.702190e-02
-6.161458e-03
-1.155597e-02
-6.985735e-03
3.163902e-04
8.972924e-03
3.258855e-02
7.434046e-03
-3.522881e-02
-2.999669e-02
-2.611395e-02
-1.905084e-02
-1.197552e-02
-2.928552e-02
-3.504762e-02
3.887777e-02
2.166057e-02
-1.188229e-02
-3.420580e-03
1.267012e-01
5.619317e-02
-2.747483e-02
-9.109690e-02
-6.210745e-02
-2.641810e-02
4.494432e-02
3.437450e-03
2.515593e-04
-7.204795e-03
7.922300e-04
2.152081e-02
1.194750e-01
3.197393e-02
-3.316513e-02
-8.168618e-02
-4.452521e-02
-1.742744e-02
-2.884719e-02
-3.326479e-02
3.720850e-02
4.342265e-02
5.227267e-02
1.626947e-02
8.734589e-03
-3.578195e-03
2.645467e-02
1.185529e-02
8.060662e-03
1.619050e-02
-3.675157e-04
-2.552639e-02
-4.157720e-02
-2.410607e-02
-3.080546e-02
1.197297e-02
4.462900e-02
1.413844e-02
-8.391406e-03
6.370924e-03
2.038441e-02
2.814395e-02
3.082866e-04
-1.637119e-02
-1.843897e-02
1.024781e-02
-1.432898e-02
-1.478352e-02
-3.499365e-03
4.360813e-03
3.270308e-03
1.417864e-02
-1.665046e-02
1.029958e-02
3.160936e-02
-4.581789e-03
-3.945672e-02
1.878770e-02
-8.843441e-03
5.478436e-03
2.882628e-02
2.291036e-02
7.384069e-03
7.211399e-03
1.880403e-02
-6.387968e-03
-1.416477e-02
1.952700e-03
1.534982e-02
-1.182213e-02
-3.504161e-02
1.143370e-01
5.434681e-02
-1.171270e-02
-1.101932e-01
7.478218e-03
-1.443946e-02
4.446726e-02
-5.435254e-02
1.535290e-02
1.992765e-02
3.413638e-04
9.137039e-03
-1.335021e-02
-1.030316e-02
-4.740421e-03
3.190319e-03
-2.318351e-02
-1.889872e-02
1.349574e-03
-3.215450e-03
-1.738947e-02
2.394347e-02
3.361904e-02
3.110411e-02
-4.383589e-02
-5.333487e-02
-7.687397e-02
1.965661e-02
3.319275e-02
-8.839670e-03
-1.031741e-02
3.781533e-02
6.818835e-03
-5.491222e-02
-3.411436e-02
-3.695934e-02
-9.485190e-02
-7.170545e-02
-3.622918e-02
2.196653e-02
2.528103e-02
4.157659e-02
4.783846e-02
3.478888e-02
3.752092e-02
-1.236272e-02
1.269111e-02
-4.315254e-03
3.408350e-02
4.429219e-02
3.591917e-02
-2.444994e-02
-6.389035e-03
-2.166517e-03
