4.238053e-02
1.109293e-01
1.015053e-01
2.635338e-02
5.824164e-02
5.887576e-02
-8.569043e-02
-1.459284e-01
-9.043457e-02
4.288788e-02
1.197070e-01
8.684320e-02
2.766234e-02
4.301816e-02
3.729544e-02
-7.970291e-02
-1.633244e-01
-9.851131e-02
6.605957e-02
1.278328e-01
7.492497e-02
3.188309e-02
4.152608e-02
1.523021e-02
-8.544490e-02
-1.301039e-01
-9.759481e-02
1.811423e-02
-3.037456e-02
1.930918e-02
-1.408318e-02
-8.413579e-02
9.158997e-03
3.197392e-02
-1.173180e-02
2.591975e-02
2.304559e-02
-2.355828e-02
2.671297e-02
-1.174468e-02
-7.811633e-02
9.263123e-03
2.888017e-02
-7.449046e-04
1.685116e-02
-3.163787e-02
-4.219573e-02
-3.649136e-03
-6.879461e-02
-9.594315e-02
-1.626753e-02
-4.184312e-02
-2.915240e-02
-3.171721e-03
4.897238e-03
-5.486450e-02
-1.889821e-04
-7.347010e-02
-1.887286e-01
-1.016836e-01
-3.307853e-02
-1.638250e-01
-5.445554e-02
5.013623e-02
5.019088e-02
1.558574e-02
4.898906e-02
1.524539e-01
5.968311e-02
4.294933e-02
9.653702e-02
5.114307e-02
-1.364969e-02
-1.549159e-02
-1.650410e-02
-1.355371e-02
1.159477e-01
5.347929e-02
5.975095e-03
7.526323e-02
2.902818e-02
3.285427e-02
5.688875e-02
-1.136121e-02
4.733229e-02
2.127056e-01
8.438120e-02
-1.074527e-02
1.673575e-01
5.689601e-02
7.134029e-03
-9.688395e-03
1.037137e-02
1.780872e-03
-5.542030e-02
-3.592309e-02
7.801606e-03
-2.319624e-02
-1.205195e-02
-2.457560e-02
-3.242666e-02
2.441780e-03
-1.278589e-02
-1.288106e-01
-8.116797e-02
-1.032871e-02
-8.440477e-02
-3.942538e-02
2.057375e-02
1.359842e-03
-4.030407e-02
8.522765e-02
2.676938e-02
-9.312239e-02
5.524254e-02
3.611308e-02
-3.099089e-02
3.749524e-02
-6.716020e-03
-6.628243e-02
1.264980e-01
1.416740e-02
-1.505853e-01
7.793555e-02
2.294782e-02
-5.313919e-02
5.461317e-02
1.676631e-02
-6.575329e-02
1.129771e-01
1.521671e-02
-1.200586e-01
6.718220e-02
1.239531e-02
-6.427515e-02
4.220296e-02
3.061293e-02
5.679677e-03
4.199320e-02
1.115580e-02
1.789973e-02
2.615403e-02
2.753090e-02
3.767593e-02
-2.600049e-02
-4.000752e-02
-2.645881e-02
-8.337894e-02
-1.733889e-01
-1.281023e-01
-6.850249e-02
-1.501120e-01
-1.225146e-01
2.062213e-02
6.709448e-02
1.829448e-02
5.292993e-02
1.607772e-01
1.177858e-01
2.985067e-02
1.399454e-01
9.571108e-02
4.398210e-02
3.398678e-02
2.108551e-02
7.065243e-02
-1.512888e-01
2.383042e-03
3.751378e-02
-1.029088e-02
5.884540e-03
2.188170e-02
-3.122185e-02
-1.959545e-02
7.228553e-02
-1.800497e-01
1.472807e-02
4.791209e-02
-1.007691e-02
2.040130e-02
4.322858e-03
2.611706e-02
9.195632e-04
2.831710e-02
-3.741168e-02
3.798194e-02
-1.399062e-02
-2.616710e-02
-4.374455e-03
1.568440e-02
4.526139e-03
1.378026e-02
1.544311e-02
3.786574e-02
2.092989e-02
4.721412e-02
8.013828e-02
5.868683e-02
-1.358095e-02
-2.102653e-02
2.207068e-03
-2.106597e-03
1.364491e-02
1.012968e-02
1.153362e-02
4.438739e-02
2.069549e-02
-3.093902e-03
-5.132598e-03
-2.689307e-03
-6.981752e-03
-6.191296e-03
-1.182737e-02
3.061112e-03
3.704001e-04
-4.153361e-03
-2.991355e-11
-1.505171e-10
-1.007910e-10
-1.631572e-10
-2.291244e-10
-1.758476e-10
-6.998581e-13
-6.735209e-11
5.197257e-11
-1.301372e-10
-2.544420e-10
-7.301108e-11
-1.655625e-10
-3.090011e-10
-1.429491e-10
-1.460252e-10
-1.573374e-10
-1.786647e-12
-6.616824e-11
-1.873427e-10
-1.216614e-10
-1.972052e-10
-2.070693e-10
-2.117061e-11
1.762768e-12
6.254164e-11
1.941448e-10
1.882798e-02
1.140136e-02
2.596791e-02
-3.184955e-02
-7.522289e-02
2.509947e-02
2.066178e-02
9.123593e-03
1.127233e-02
-3.047823e-02
-4.178794e-02
-3.432370e-02
-6.441027e-02
-9.176314e-02
-4.375113e-02
9.631768e-04
-1.269277e-02
-3.877119e-02
3.489299e-02
3.403573e-02
2.974731e-02
-1.604341e-03
-3.158507e-02
3.133762e-02
2.866714e-02
3.110992e-02
1.479189e-02
-7.080644e-02
-1.214958e-01
-1.336474e-01
-4.233157e-02
2.220416e-01
4.485538e-02
-6.133435e-02
2.483261e-01
2.527613e-02
3.874699e-02
2.764388e-02
3.697636e-02
-1.716038e-02
-5.676123e-02
-3.509707e-02
3.194364e-02
-6.426396e-02
-9.936634e-03
5.676910e-02
1.026343e-01
9.766599e-02
1.208124e-02
-1.089789e-01
-2.990511e-03
1.539487e-02
-1.782206e-01
-1.281297e-02
-1.839589e-02
-2.996208e-02
-3.606444e-02
-6.344131e-03
1.062062e-01
9.076463e-02
-1.294074e-02
1.065116e-01
9.029239e-02
-4.996644e-02
-4.484957e-02
-2.491127e-02
-4.423169e-02
6.593011e-02
4.903556e-02
-3.242184e-02
5.560144e-02
2.677332e-02
-3.558763e-02
-3.221732e-02
-2.672615e-02
5.881598e-03
6.728010e-02
5.856797e-02
-1.517655e-02
5.254699e-02
3.432679e-02
2.099899e-02
-2.941462e-02
2.241494e-03
-1.242570e-02
-9.629092e-02
-6.909453e-02
-1.208848e-02
-7.510696e-02
-5.984896e-02
-1.883163e-02
2.462797e-02
3.848211e-03
7.651063e-02
2.485264e-01
1.587079e-01
4.893437e-02
2.272624e-01
1.363601e-01
1.457481e-02
1.338318e-02
2.114324e-02
-2.293080e-02
-1.121637e-01
-7.148830e-02
-3.037266e-02
-1.437486e-01
-1.175818e-01
1.396055e-02
2.846883e-02
2.654479e-02
1.698316e-02
3.380019e-03
2.287772e-02
1.891669e-02
1.291589e-02
1.400706e-02
5.320810e-03
-6.901490e-03
1.956050e-02
-9.390724e-03
-8.244531e-02
-4.946345e-03
1.433972e-02
-1.766169e-02
1.916249e-02
1.114836e-02
-2.146560e-02
-1.301797e-02
-2.856449e-02
-1.297150e-01
-6.910231e-02
-2.977114e-02
-9.276275e-02
-5.075551e-02
2.887183e-02
-5.928607e-02
-2.897130e-03
-2.754553e-02
1.842159e-01
-4.386494e-02
1.779387e-02
-7.468338e-02
-1.061129e-03
-2.055853e-02
-4.711282e-02
-4.331937e-02
-6.070295e-02
3.063388e-01
-6.645042e-02
-1.682285e-02
-8.003503e-02
-3.032870e-02
6.857835e-03
-4.257261e-02
1.631207e-02
-4.936272e-02
9.752905e-02
-8.043054e-03
-5.322187e-03
-8.835948e-03
1.102452e-02
-1.122610e-02
-9.339652e-03
-9.526332e-03
-5.708782e-02
-1.226822e-01
-4.533575e-02
-2.409139e-02
-2.032834e-02
-1.389029e-02
3.347083e-02
1.047208e-02
3.515152e-02
-1.134269e-02
-1.154419e-01
1.461577e-02
2.588186e-02
7.657995e-03
5.267188e-02
3.547952e-02
1.510150e-02
1.704457e-02
2.600607e-03
-1.191413e-01
-1.284009e-02
2.911253e-02
-2.256979e-03
2.894422e-02
