-5.951150e-04
-2.675639e-02
-3.480676e-02
3.247580e-02
-1.711291e-02
-3.265356e-02
5.528545e-03
1.992280e-02
3.623325e-02
-1.935716e-02
3.430510e-02
-4.893190e-03
-9.459846e-03
-9.402608e-03
-4.061364e-02
1.902704e-02
-1.190503e-02
4.336193e-04
-2.108318e-03
2.658267e-03
-7.914538e-03
4.271052e-02
2.221679e-03
-1.881094e-02
-2.310107e-02
2.295086e-02
2.211048e-02
-2.225725e-02
4.849654e-02
3.290594e-02
-7.778597e-03
2.840910e-03
5.531858e-03
3.887779e-03
2.868403e-02
3.115232e-03
-3.953322e-03
4.410973e-02
-2.936780e-03
-9.380487e-03
1.904699e-02
-1.335843e-02
2.260781e-02
1.080559e-02
-2.739199e-02
-4.270486e-02
-3.401899e-02
-2.020028e-03
-1.707515e-03
2.347422e-02
-7.527718e-03
-1.398039e-02
1.185562e-02
-2.282811e-02
1.494986e-02
-2.713639e-02
-3.617096e-02
-2.173624e-04
-9.976666e-03
-6.649286e-03
-4.236206e-02
-3.789071e-02
3.719582e-03
-4.316715e-02
3.065707e-02
2.087535e-03
-1.023882e-03
6.556187e-03
-4.771230e-02
5.089645e-02
-7.571381e-03
-3.880576e-04
6.690547e-03
2.154632e-03
-1.996399e-02
4.578764e-02
7.530287e-03
-3.306104e-02
1.359152e-02
-2.066584e-02
1.576909e-02
2.901386e-02
-1.472388e-03
-2.266009e-02
-7.376475e-04
-2.873457e-02
-3.421525e-02
-3.162579e-02
-1.683552e-02
-5.466337e-04
8.512751e-03
-1.601212e-02
1.381120e-02
-5.787982e-02
-1.661705e-02
-3.034907e-02
1.542290e-02
-2.593328e-03
9.234333e-03
1.855837e-02
2.302729e-02
-2.191797e-03
6.244834e-03
2.136724e-02
-7.474317e-03
1.031350e-02
6.560161e-02
-6.124626e-03
-1.714151e-02
6.032114e-02
-3.589395e-02
-2.278098e-02
-1.752014e-04
-1.237826e-02
1.279950e-04
1.826802e-02
-2.808088e-02
-1.684423e-02
8.010704e-03
-2.977717e-02
-5.021713e-02
2.732032e-03
1.907805e-02
-1.186954e-02
6.343403e-03
-1.137769e-02
1.770019e-02
-1.298917e-02
1.667014e-02
-1.865832e-02
1.322192e-02
1.440120e-02
-6.579244e-03
2.448561e-02
-1.616103e-02
2.086629e-02
-5.706817e-03
1.650865e-02
-1.462920e-02
-2.054386e-03
-8.847105e-03
3.082408e-02
-1.204277e-02
-2.593236e-03
-2.982664e-02
-6.154302e-03
2.940379e-02
-1.040232e-02
-3.025146e-02
1.958533e-02
2.938052e-02
1.694779e-03
2.690365e-02
3.273743e-02
3.818688e-02
1.774007e-02
-9.672027e-03
-1.772548e-02
-2.679317e-02
-3.427483e-02
1.642840e-02
1.509067e-02
2.262985e-02
1.208338e-02
-3.024962e-02
-4.341346e-02
-2.894884e-02
9.007093e-03
1.898668e-02
-1.813694e-03
-1.773172e-02
-1.383639e-02
-2.864370e-02
3.843839e-02
7.332974e-04
-3.577121e-03
1.937570e-02
6.400280e-04
7.071809e-03
-1.177076e-02
3.778642e-02
1.539163e-02
3.054797e-02
1.450615e-02
1.735028e-02
-7.736974e-03
-1.239520e-02
5.932901e-03
5.304752e-03
-3.198334e-03
2.787162e-03
-2.028685e-02
-6.247779e-03
1.037753e-02
-5.284668e-03
7.271999e-03
-2.167362e-02
2.638827e-02
3.085127e-02
4.188984e-02
-2.261959e-02
-2.772531e-03
5.913982e-03
2.195554e-02
2.521526e-02
3.297409e-02
-9.073733e-03
1.821212e-02
4.028672e-02
5.166105e-03
-3.331725e-02
1.496142e-02
-1.566010e-02
-3.964727e-02
1.023883e-02
2.327177e-02
2.859258e-03
1.054024e-02
2.160844e-02
1.297036e-02
4.576706e-03
-1.316866e-03
3.960347e-02
-9.024705e-03
1.537494e-02
-2.436870e-03
-1.199809e-02
1.207224e-02
-2.573583e-02
1.135686e-02
-4.613577e-04
1.564103e-02
-5.725359e-02
3.449099e-03
-1.404117e-01
1.169631e-04
3.187387e-02
2.495804e-02
8.389010e-02
-1.847300e-02
7.006005e-03
1.346925e-02
-8.455077e-03
9.351863e-03
2.504217e-03
7.751734e-03
-1.215381e-02
-5.368199e-03
1.141864e-02
-1.154984e-02
-2.267528e-03
-5.176508e-03
-3.644243e-02
1.178142e-02
-2.973111e-02
2.738300e-02
-1.141023e-02
-6.425639e-03
1.035324e-02
2.057998e-02
-1.307263e-02
-1.310643e-03
-5.711370e-02
-9.748271e-03
-1.414462e-02
-8.768349e-02
-3.314270e-02
6.694014e-03
-1.213726e-02
-4.038156e-02
-7.241768e-03
-1.260287e-02
-3.265536e-03
1.160917e-02
-5.336757e-03
-2.040154e-02
-1.202498e-02
-1.959580e-02
7.078212e-02
-1.892918e-03
-6.649427e-03
-1.945008e-03
4.792583e-03
8.231539e-04
-2.533555e-03
6.071484e-02
2.493816e-02
-1.076445e-02
1.067093e-02
9.986398e-03
3.411280e-02
3.568361e-02
1.091469e-02
1.984429e-02
1.715141e-02
-5.544160e-03
-1.233676e-04
-3.114085e-02
-1.994086e-02
3.669137e-02
-4.332209e-02
2.412354e-03
-2.915072e-02
3.255849e-02
2.234597e-02
-2.046313e-03
-3.281747e-03
-1.457769e-02
1.780485e-02
-2.562652e-02
6.811977e-03
-1.652811e-02
5.863804e-03
9.112308e-03
-2.152656e-02
7.850671e-03
-7.407368e-03
-2.154388e-02
-1.413772e-02
-2.604772e-02
-2.394517e-02
5.012201e-03
-2.895793e-02
1.005849e-03
2.555404e-02
-2.619462e-03
-1.104587e-02
-1.193053e-02
-1.190200e-02
-1.106728e-02
-4.207708e-02
2.126896e-02
1.222015e-02
2.589619e-02
-2.405949e-02
-7.277384e-03
1.072004e-02
6.028106e-03
-1.112152e-02
5.492254e-03
2.182948e-02
1.191933e-02
2.863741e-02
4.720756e-03
-2.364850e-03
1.756319e-02
-1.645202e-02
-3.496707e-02
3.119105e-03
1.958883e-02
-5.224535e-02
-6.168117e-04
1.990082e-02
-1.679750e-02
1.580928e-02
4.089906e-03
1.087971e-02
3.320562e-02
2.293592e-03
-6.331648e-03
5.360810e-03
-3.045065e-02
2.283174e-02
4.393130e-02
2.789207e-02
-2.919088e-02
1.663532e-02
-2.643950e-03
-1.904254e-02
-1.491978e-02
4.956569e-02
8.692154e-03
2.201011e-02
1.415848e-02
-5.944476e-02
-2.746648e-02
-1.496003e-02
-1.436552e-03
1.472157e-02
-3.164288e-03
-4.891653e-02
2.488183e-02
-4.184227e-02
-8.393668e-02
-1.067513e-03
-3.790744e-02
3.886197e-03
-1.578814e-03
-8.874618e-03
1.434185e-02
-6.274752e-03
-5.043033e-03
2.956683e-02
8.713493e-03
2.257917e-02
9.654387e-03
3.631220e-02
-4.111799e-03
-4.070050e-02
-1.757258e-02
2.202445e-02
2.754765e-03
2.780698e-02
-8.992635e-03
6.533361e-02
-1.969966e-03
2.261377e-02
1.882713e-02
3.988637e-02
7.745328e-04
-6.771507e-03
8.777629e-03
-1.035139e-02
-6.874960e-03
4.275182e-02
-2.919514e-02
-1.116264e-02
-1.038153e-02
5.253976e-03
8.665411e-03
1.080482e-02
-1.995458e-02
-1.106729e-02
1.031649e-02
7.766101e-03
-5.128605e-02
-2.243021e-02
-9.279460e-04
-1.445297e-02
1.459604e-02
2.284731e-03
-8.821858e-03
3.703464e-02
6.687681e-03
-5.377621e-02
-3.063205e-02
2.181755e-02
-6.145127e-02
4.952521e-02
6.003233e-03
-2.543043e-02
-6.873927e-03
1.707825e-02
-1.133037e-02
4.961799e-04
6.391933e-03
4.456554e-02
-1.060347e-02
4.347944e-02
-1.530251e-02
3.861708e-02
3.765294e-02
2.353772e-02
-3.864504e-02
1.179415e-02
5.697999e-03
-1.783785e-02
3.244016e-02
1.743693e-02
4.433212e-02
-1.506885e-02
-1.128206e-02
3.174483e-02
-2.920399e-02
-1.065077e-02
-2.254901e-02
-6.674486e-03
3.790848e-04
-2.989224e-02
2.334194e-03
-3.099958e-02
1.133552e-02
-1.153636e-04
-1.294000e-02
-3.046740e-02
2.770132e-02
3.789096e-03
-2.896418e-02
1.575474e-02
-3.600549e-02
-7.235354e-03
-1.821633e-02
2.108273e-02
8.136468e-03
2.358436e-02
2.618481e-02
1.806113e-03
-5.235021e-03
2.042152e-02
9.427379e-03
9.899008e-03
-1.563406e-02
2.004766e-02
8.049561e-03
6.244502e-03
1.108937e-02
2.090485e-02
1.147518e-02
-1.698131e-02
1.446815e-02
1.773944e-02
1.671208e-02
2.350990e-02
-5.402578e-02
-1.803837e-02
-9.731354e-03
-2.181866e-03
-1.386784e-02
1.432478e-02
-4.337319e-02
1.013608e-02
1.238983e-03
8.155564e-03
-1.386493e-02
-1.484219e-03
2.167622e-02
1.726746e-04
3.892919e-02
-3.877336e-02
3.114342e-02
-3.834774e-02
-1.487756e-02
1.182748e-02
-3.403137e-02
-5.729619e-02
7.163756e-02
-3.625130e-03
1.211984e-02
-2.509412e-02
-2.450877e-02
2.974945e-02
-4.445354e-02
1.653209e-02
-1.994873e-02
-9.185961e-03
7.266055e-03
2.046282e-02
-4.154492e-03
-5.044357e-02
-1.871808e-02
-1.389230e-02
5.213108e-02
4.250800e-03
-3.388111e-02
-1.449289e-02
-2.089446e-03
-8.200794e-05
1.784209e-03
1.594723e-02
1.915351e-04
5.131847e-03
1.206053e-02
3.209757e-02
1.281136e-02
4.701833e-02
-8.181496e-02
-3.850247e-02
-6.429907e-03
-6.614713e-02
-2.185672e-02
6.830851e-03
-5.906361e-03
2.112539e-02
8.054754e-03
4.599917e-03
1.626495e-03
1.288995e-02
-1.627663e-02
-1.944990e-02
1.861188e-02
1.635590e-02
6.849300e-02
-4.069887e-02
3.531350e-02
2.007599e-02
1.927569e-04
9.572080e-03
-1.421501e-02
7.292255e-03
5.653732e-02
-3.234511e-02
-6.363638e-03
2.801262e-02
4.882913e-02
-1.438244e-02
1.521058e-02
1.260832e-02
-4.180263e-03
1.487676e-02
-3.467823e-02
6.858808e-03
5.636818e-03
1.587508e-02
-1.714164e-04
-4.819668e-02
-1.608523e-02
2.328116e-02
7.850522e-03
8.994889e-03
2.534661e-02
-1.431417e-02
9.194691e-03
-3.671704e-02
3.160326e-03
-3.993056e-03
6.075317e-03
1.505961e-02
-1.161231e-02
-1.695848e-03
2.731498e-03
2.549870e-02
-8.926747e-03
1.064605e-02
-6.619194e-04
9.425136e-03
-5.181182e-03
-2.725654e-02
9.248274e-03
-2.728908e-03
-8.889300e-03
2.538371e-03
1.363898e-02
-2.135598e-03
-3.202398e-02
4.032021e-02
2.541695e-02
-1.980977e-02
-1.750479e-02
-3.318865e-02
3.506620e-03
-2.032497e-02
-4.970935e-02
-2.594528e-02
-1.121530e-02
2.233393e-02
-1.007293e-02
1.729919e-02
3.136229e-04
5.824731e-03
2.101117e-02
5.442055e-03
4.788996e-03
-4.749437e-03
-1.375008e-02
1.377549e-02
-5.593223e-03
-2.965726e-02
1.559778e-02
1.853245e-02
1.035203e-02
-1.487209e-02
2.483859e-02
3.873651e-03
7.384039e-03
-1.560791e-02
9.154928e-03
7.407587e-03
2.196456e-04
-2.005787e-02
5.390681e-02
-1.038439e-02
5.018124e-03
-1.528030e-03
-1.251031e-01
3.736123e-02
5.613489e-02
8.901387e-03
1.087955e-02
-1.080163e-02
-2.215564e-02
2.918621e-03
7.415706e-03
-1.584809e-02
-6.096018e-02
2.030506e-02
-2.635438e-02
3.728022e-02
-3.193032e-02
-1.137073e-02
-1.709573e-02
5.260754e-04
7.038918e-03
-5.083602e-02
1.238121e-02
1.254886e-02
-1.232308e-02
2.849532e-02
3.353633e-03
-1.254199e-02
-2.116078e-02
2.859642e-02
-7.108575e-03
-2.905258e-02
3.019121e-03
-1.927823e-02
-9.194642e-03
2.061506e-02
-2.344714e-02
-1.665298e-02
-2.502782e-04
5.278992e-04
5.700456e-02
2.736017e-03
2.913903e-02
1.550142e-02
-6.116029e-03
-4.392463e-02
2.044511e-02
-4.753455e-03
2.663003e-02
-3.359120e-03
1.849514e-02
4.051476e-02
-1.069077e-02
-1.185571e-02
6.015439e-02
1.327354e-02
-1.870412e-02
2.047161e-03
6.307160e-02
2.368589e-02
-5.894060e-03
-7.329550e-03
-1.463234e-02
-2.734661e-02
-1.805290e-02
1.914728e-02
-1.083027e-02
-1.698107e-02
9.787449e-03
4.926478e-02
1.854998e-02
-1.518875e-02
-4.831427e-02
-3.157174e-03
3.765915e-02
4.714858e-02
1.686211e-02
7.492476e-03
-6.433208e-03
-1.131594e-02
-1.957057e-04
-6.204002e-03
-1.337247e-02
2.134806e-03
1.288137e-02
-5.070305e-03
3.938898e-03
7.965224e-03
2.171278e-03
-7.146791e-03
-3.318209e-03
4.295312e-03
5.134876e-03
-2.138893e-02
-1.628193e-03
2.041521e-02
-2.150907e-02
4.327441e-03
-7.978116e-03
-2.356218e-02
2.778761e-02
2.669757e-02
2.921832e-02
2.244418e-02
-2.604862e-02
2.150602e-02
-7.609886e-03
-4.491299e-02
-9.554350e-03
-1.411227e-02
-5.185378e-02
2.357223e-03
-2.083387e-02
1.017787e-02
-1.423116e-02
-2.614214e-02
2.842810e-02
6.775612e-02
-1.868316e-02
3.890524e-02
-1.384799e-02
2.085252e-02
-2.057923e-02
3.447392e-02
1.671056e-02
-1.144568e-02
8.724396e-03
5.772386e-02
-8.027707e-03
-7.115703e-03
-4.448734e-02
-3.277349e-02
1.120274e-02
1.047820e-02
-1.453331e-03
3.972219e-02
-8.439948e-02
1.893520e-02
-8.918451e-02
9.506366e-03
-4.855646e-02
-5.655430e-03
-8.260283e-03
4.041573e-02
-1.293282e-02
-6.622985e-03
-1.518456e-03
-4.552082e-02
-1.567700e-02
-3.218563e-02
2.051343e-02
2.726511e-02
-5.039986e-03
-1.525358e-02
2.236933e-02
1.941758e-02
1.786328e-02
-3.454065e-02
-1.768940e-03
-2.293256e-02
6.614000e-03
-1.608059e-02
1.365569e-02
-3.068756e-03
2.512555e-02
5.930208e-03
-1.005407e-02
-2.679647e-02
5.397193e-03
-5.895184e-02
-1.235819e-02
-1.046255e-02
3.820078e-03
4.498035e-02
-3.158310e-02
-1.611836e-02
-1.065822e-02
-2.099352e-02
-1.927676e-02
3.347189e-03
-3.703470e-02
-6.648997e-03
3.188430e-02
-2.850517e-03
2.710168e-03
-4.641853e-03
-1.420636e-02
2.230038e-02
-6.650678e-03
3.285170e-02
-1.653977e-02
-1.730225e-02
-2.366190e-02
1.922023e-02
1.762023e-02
3.416072e-03
2.578099e-02
4.616775e-02
2.419057e-02
5.826870e-04
-4.028117e-02
-3.492181e-02
-1.176842e-02
-3.297450e-03
1.191883e-02
1.563548e-02
9.931834e-03
-3.470830e-02
3.617448e-03
-1.598973e-02
2.239031e-02
-6.094493e-03
1.836118e-02
-8.819513e-03
-2.493795e-02
7.264725e-03
4.346631e-02
3.659078e-02
1.064102e-02
-7.766200e-03
3.864644e-03
7.406370e-04
-1.497614e-02
-1.965698e-02
-8.722230e-03
-4.098706e-02
1.542696e-02
2.415017e-02
4.383005e-03
-2.953583e-03
2.548982e-02
4.315864e-03
1.462196e-03
3.204475e-03
-4.172714e-02
-7.531294e-04
-2.500962e-02
-9.009162e-03
3.645745e-03
7.138071e-02
-4.754193e-03
1.478748e-02
1.274944e-02
-1.826102e-02
9.699863e-03
2.118385e-02
-8.343144e-03
2.233578e-03
1.798171e-03
2.649424e-04
-9.160941e-03
8.425968e-03
-2.660532e-03
-6.070345e-02
1.752847e-02
1.763319e-02
-1.541882e-02
8.980714e-03
-3.500839e-02
-3.157251e-02
-1.333388e-02
-8.180282e-03
-8.394301e-03
-2.740212e-02
5.380539e-02
6.010205e-03
2.149394e-02
1.029081e-02
9.134948e-02
-9.173661e-03
-2.494947e-02
-2.549480e-02
2.242212e-02
-4.808757e-03
9.796502e-03
-3.517087e-02
-7.402862e-03
-1.312123e-02
2.004361e-02
3.493004e-02
2.722645e-02
-2.451191e-02
-2.733164e-02
1.846322e-02
-8.174771e-03
-1.257413e-02
-6.055332e-03
5.765422e-03
-4.947248e-02
6.317403e-03
3.793928e-03
5.361123e-03
-5.607099e-04
7.023187e-03
-3.268306e-02
-3.367107e-02
-7.053418e-02
1.256098e-03
-3.377058e-02
1.471158e-02
2.504564e-03
-9.418334e-03
1.884263e-02
1.387525e-03
1.237688e-02
-2.323217e-02
2.532531e-02
9.232352e-03
3.527617e-02
1.486800e-02
1.297041e-02
-2.973096e-02
-3.662400e-02
-9.455230e-03
2.093483e-02
3.675518e-02
2.534857e-03
-8.171801e-03
-2.091964e-02
2.668494e-02
-2.127219e-02
-2.113291e-02
-4.171258e-02
-3.274969e-02
1.436600e-02
-1.098869e-02
6.715702e-03
-3.123566e-02
-2.657918e-02
-3.951141e-03
-1.963715e-02
4.334158e-03
5.055534e-02
2.674336e-02
-5.799178e-03
1.840387e-02
1.418639e-02
-2.043657e-02
6.038085e-03
5.416629e-02
-3.916930e-03
-7.564838e-03
2.066267e-02
5.515665e-02
2.175117e-02
-4.719616e-02
-2.673481e-02
4.008566e-03
-3.684464e-03
6.274514e-03
-2.329737e-02
-3.197368e-02
-2.868929e-02
5.952495e-03
-3.594726e-02
-3.138432e-02
1.038345e-02
-1.992280e-03
-6.386363e-03
-2.555727e-02
-3.290735e-02
-5.698078e-03
-1.230573e-02
3.245818e-02
-3.738891e-03
-2.338914e-03
-2.644425e-03
-1.413877e-02
1.581987e-02
2.167684e-02
7.751124e-03
-6.740130e-03
3.995138e-02
-1.096732e-02
-1.415191e-02
-2.012082e-02
-1.923221e-02
4.910910e-03
-1.491947e-02
-1.054142e-02
-1.597148e-02
1.408803e-02
1.532993e-02
8.915060e-03
1.456225e-02
-4.475386e-02
-6.313690e-04
1.779333e-02
-1.476758e-02
1.879490e-02
-5.258508e-02
-4.491515e-02
-6.661805e-03
-1.395356e-02
-5.764770e-02
-1.569634e-03
1.480726e-03
-2.443354e-02
-2.466955e-02
-1.858493e-02
-9.591415e-04
-2.363335e-02
-5.439771e-03
5.537471e-03
-7.382353e-02
-9.050548e-04
-1.613968e-02
-1.846937e-02
1.934893e-02
-9.535709e-03
-3.136230e-03
-2.352071e-03
-8.170524e-03
1.262257e-02
-1.442307e-02
-4.558793e-02
2.225769e-02
7.395343e-02
3.919599e-02
4.478513e-03
2.229627e-02
-8.417706e-04
-4.281243e-03
2.221851e-05
-9.301743e-03
-5.032874e-02
-9.683538e-03
2.377428e-02
-2.775216e-02
-5.410177e-03
9.370747e-03
-2.767518e-02
1.994046e-02
-3.160370e-03
2.018588e-02
1.208028e-02
-3.807154e-02
-2.076637e-02
3.529163e-02
2.833136e-02
3.786617e-02
-5.178002e-02
-5.601246e-03
1.694921e-03
2.499670e-02
-1.855103e-02
-1.099648e-02
-8.557597e-03
-1.283679e-02
-5.638964e-03
-3.768301e-02
-3.779517e-02
9.587092e-03
-2.277402e-03
-4.523681e-03
3.452488e-02
-6.823944e-02
-2.092379e-02
9.488314e-03
7.225692e-03
-7.253186e-02
2.774390e-02
-1.829112e-02
-2.662071e-02
-1.482074e-02
2.087905e-02
1.634532e-02
-1.287504e-02
-1.496439e-02
6.213085e-02
4.225659e-03
1.485857e-02
3.054858e-02
-2.003445e-02
4.233424e-02
-4.275837e-03
-1.316588e-02
-2.032740e-03
6.300749e-03
1.246926e-02
3.371308e-02
-2.231484e-02
6.810179e-03
-1.196793e-02
-1.561980e-02
-2.798479e-02
3.342072e-02
2.717148e-02
-2.513351e-02
-4.267255e-03
-6.626574e-02
-1.829023e-02
-4.140208e-02
2.596845e-02
-7.968941e-03
-3.573513e-02
-5.709631e-02
3.048963e-02
-1.187976e-02
-2.979722e-02
4.452102e-02
8.053688e-03
-2.341862e-02
-5.378775e-02
2.118962e-02
8.121710e-03
1.896722e-04
-3.043770e-03
-7.994737e-03
1.163888e-03
4.624113e-02
4.991767e-02
2.243925e-02
1.995681e-02
-2.638814e-02
-9.745136e-03
-3.311894e-02
-1.227441e-02
-1.401129e-02
-1.016467e-02
7.934066e-02
4.584889e-02
1.165603e-02
1.102136e-02
-2.227608e-02
8.568205e-03
-1.212829e-02
9.978819e-04
-1.522670e-02
2.374811e-02
-3.921178e-03
-4.107111e-02
3.621692e-02
2.230631e-02
5.535395e-04
-3.613402e-03
1.959005e-02
-1.350422e-02
5.663700e-02
6.077311e-03
1.400408e-02
8.540176e-03
-7.701785e-03
-1.348153e-03
-4.210206e-02
2.465881e-02
-4.346811e-02
-2.331576e-02
-8.760770e-03
-6.448285e-02
1.092254e-02
-3.380618e-02
-1.946195e-02
2.474870e-02
-3.627347e-02
-1.121342e-02
1.159367e-02
-1.336456e-02
-1.874404e-04
-1.297719e-02
1.287524e-02
2.745010e-03
1.725967e-02
4.546662e-02
7.568386e-04
-4.995741e-02
-3.069174e-02
3.965768e-02
1.566256e-02
1.192007e-03
1.763720e-02
4.228198e-03
1.489567e-02
-8.190075e-03
-5.294292e-03
1.157872e-02
-1.761763e-02
1.711037e-03
4.442533e-02
2.180555e-02
1.985987e-02
1.697887e-02
-5.620758e-03
3.724734e-02
-1.005082e-01
2.082705e-02
3.002138e-02
1.283351e-02
1.396373e-03
-1.698454e-02
2.150709e-02
-5.264836e-03
1.144477e-02
1.088716e-02
-4.222446e-02
-2.172167e-02
6.653683e-03
-2.229116e-02
-1.893666e-02
9.222776e-03
5.230809e-04
-2.384299e-02
-7.975494e-03
1.397175e-02
-9.229660e-04
-1.659007e-02
-5.695488e-03
1.323566e-02
-9.051955e-04
3.146775e-03
-2.800383e-02
2.729832e-02
1.124415e-02
1.913701e-03
1.957231e-02
1.665176e-02
-2.833692e-02
6.057016e-03
2.958690e-02
2.156476e-02
1.469009e-02
1.947827e-02
-1.925585e-02
-2.052327e-02
3.934731e-02
9.595445e-03
2.757615e-03
-1.952166e-02
3.960790e-03
-5.620715e-03
-1.833516e-02
-2.680022e-02
1.462927e-02
-1.683752e-02
1.433802e-02
-8.787374e-04
2.889679e-02
1.653714e-03
7.164325e-03
-2.215102e-02
7.229037e-03
-1.364485e-02
-4.151857e-02
-1.426447e-02
-1.838305e-03
2.628057e-02
-5.262195e-02
6.154486e-02
8.365691e-05
2.769873e-02
-5.689868e-03
-5.042377e-04
-2.052484e-02
-3.538737e-02
2.356796e-02
-2.282881e-02
-4.154773e-03
1.031242e-02
-3.138359e-02
-2.172480e-03
2.115961e-02
-1.747571e-02
-3.594061e-02
-1.811002e-02
2.352453e-03
2.212220e-02
1.472253e-02
-1.656094e-02
2.906892e-02
-8.280952e-03
2.927457e-02
-1.191464e-02
4.303724e-02
1.283638e-02
-7.920787e-03
-3.066896e-02
1.270651e-02
-7.625888e-03
-2.190160e-02
-1.068340e-02
1.329579e-04
-5.511610e-02
-3.177284e-02
-1.546393e-02
6.464173e-02
-1.749584e-02
6.678290e-03
-2.703946e-02
-1.966153e-02
-1.193059e-02
-9.669323e-03
2.633765e-03
1.405878e-02
2.415793e-02
6.966087e-03
-3.289213e-02
-5.195368e-02
3.007654e-03
7.829049e-03
2.732362e-02
-2.337406e-02
5.394805e-03
-9.135770e-03
-2.279886e-02
3.262593e-02
-1.034232e-02
3.272698e-02
1.870313e-02
-2.257392e-03
-9.875622e-03
1.463068e-02
2.171057e-02
-4.116718e-04
-2.653000e-02
-1.646891e-02
-9.543024e-03
3.165998e-02
1.108439e-02
-9.564994e-03
1.218334e-03
-9.206405e-04
1.669265e-02
1.896104e-02
-3.978845e-02
4.863701e-03
6.504413e-03
-3.023556e-02
8.827704e-03
1.642989e-02
2.783375e-02
3.327943e-02
8.785079e-03
6.798480e-03
-2.982155e-02
1.347654e-02
-2.918212e-02
-1.104235e-02
-3.287374e-03
-6.262303e-02
-6.071611e-02
-1.222631e-03
1.006392e-02
8.134000e-03
-2.291696e-02
4.822844e-02
3.770657e-02
-1.071586e-02
2.255857e-03
5.913198e-03
1.276905e-03
-7.373364e-03
9.010998e-03
6.207383e-03
-5.096035e-03
1.618125e-03
1.090152e-02
1.929255e-02
4.788060e-03
-8.970839e-03
-2.668663e-02
-1.789721e-02
2.032586e-02
1.461810e-02
3.415534e-03
-1.543111e-02
-1.687596e-02
-2.710139e-03
-6.293146e-03
5.619147e-03
4.139041e-04
-4.043206e-02
-3.830351e-02
8.843143e-03
-1.194053e-02
9.112488e-03
1.781514e-02
-2.669763e-02
-1.110884e-01
4.028407e-02
3.858186e-02
-6.903481e-02
-5.768425e-03
1.575502e-02
-7.996561e-02
-3.710775e-02
8.462432e-03
8.799726e-03
-6.235673e-03
7.188187e-03
-4.893574e-02
3.623147e-02
-3.121244e-02
4.102449e-02
-2.204686e-02
-1.786552e-02
-3.118398e-02
-2.413738e-02
-1.468207e-03
-1.827435e-03
4.603058e-02
1.278557e-02
9.541437e-04
-1.148857e-02
4.017786e-03
-2.370870e-02
-1.556644e-02
-1.302807e-02
2.704465e-02
-9.534285e-03
1.008212e-02
-1.807419e-02
-2.441382e-03
-8.676438e-03
3.305623e-02
2.450751e-02
-1.112857e-02
-5.672099e-03
2.634991e-02
7.304103e-03
1.685142e-03
6.325873e-05
1.675197e-02
2.166115e-02
4.570778e-02
2.835293e-02
3.534827e-03
3.120290e-03
2.159190e-02
1.892383e-03
-5.973435e-03
-5.376146e-03
1.002939e-02
-2.458489e-02
-5.831635e-03
3.513293e-03
-1.356460e-02
2.766223e-02
1.979368e-02
1.021023e-02
-8.093238e-03
1.300750e-02
3.445278e-02
-6.200693e-03
-7.100083e-05
8.708530e-03
7.250250e-03
1.973806e-03
-1.088627e-02
-1.435281e-02
1.558149e-02
-1.876054e-02
1.569601e-02
2.335687e-02
-7.671700e-03
3.939506e-03
-1.132734e-02
1.902609e-02
2.794970e-02
-8.347352e-03
-8.050459e-03
-1.049305e-02
1.511746e-02
1.806784e-02
3.714673e-03
9.111617e-03
-4.114246e-03
4.462662e-03
-8.771569e-03
4.068052e-02
5.779157e-03
6.966766e-03
-3.437311e-02
-5.586620e-03
-3.277906e-02
-2.231335e-02
-3.042517e-04
1.541327e-02
4.586474e-02
2.359482e-02
4.759576e-02
-5.864383e-03
-1.763483e-02
1.244690e-02
-6.972356e-03
1.475070e-02
-1.064570e-02
2.077560e-02
9.338148e-03
3.555338e-03
-4.958766e-02
4.377820e-03
1.110491e-02
1.392116e-02
1.083991e-02
-3.485815e-02
8.773746e-03
-1.593914e-02
-1.267917e-02
-7.145023e-02
-5.339671e-02
4.609342e-03
3.805868e-02
3.550321e-02
1.916937e-02
-3.537126e-02
-1.279765e-02
5.524357e-02
2.164844e-03
-8.486302e-03
-5.918338e-03
-2.313003e-02
-1.405278e-02
2.108912e-02
6.993324e-04
-4.087613e-02
-1.651278e-02
1.917406e-03
-1.991381e-02
-1.436204e-02
-5.806750e-02
1.134547e-02
2.214825e-02
-3.859155e-03
-3.049486e-02
-9.242442e-03
4.938021e-02
1.486657e-02
6.625622e-03
1.025144e-02
-1.052616e-02
3.488357e-02
5.981611e-02
-1.817055e-02
-2.608460e-02
-4.545684e-03
-4.505959e-03
3.300334e-03
-5.805096e-02
-5.318630e-02
3.197232e-03
-1.938898e-02
-7.574313e-03
-2.155844e-02
-7.477926e-03
2.428448e-03
-5.533034e-03
-1.337333e-02
-1.401147e-02
3.146618e-02
-5.949811e-03
5.001143e-02
1.748140e-02
3.041255e-02
-2.243727e-02
-2.156253e-02
1.028830e-02
1.889069e-03
-6.220740e-03
-5.941456e-03
1.265239e-02
-3.117170e-02
1.213299e-03
3.400175e-02
4.696419e-02
2.883989e-02
-2.828104e-03
-2.652812e-02
2.989699e-02
-9.085929e-02
-3.448394e-02
-1.157746e-02
-1.605759e-02
-1.595657e-02
1.590980e-02
-2.147588e-03
1.444749e-02
2.049228e-02
3.905660e-04
6.776751e-03
-6.027277e-03
-5.696764e-03
5.525924e-03
-1.337507e-02
4.602179e-03
-1.734527e-02
1.866804e-02
-1.979026e-03
2.120118e-02
-1.583687e-03
2.031853e-03
4.409282e-03
-9.161434e-04
-1.422042e-02
-1.695104e-02
-3.590456e-02
-3.670555e-02
-6.818260e-03
2.424396e-02
1.682552e-02
1.123016e-02
1.955253e-02
1.204460e-02
-1.707178e-02
1.317141e-02
-7.988224e-03
-2.806131e-02
1.292725e-02
-2.451850e-02
1.785769e-02
-3.024090e-02
1.762149e-02
-3.049297e-02
-8.921934e-03
1.760495e-02
-1.222692e-02
1.682925e-02
-1.786264e-02
3.706089e-02
2.590717e-03
1.520123e-03
-5.991097e-03
1.038958e-02
-3.561851e-02
6.540108e-02
-4.705394e-02
-1.125393e-02
5.080290e-02
4.984215e-02
-1.746290e-02
-1.543429e-02
2.737794e-02
2.567883e-02
-2.234027e-02
4.344905e-02
-2.874202e-02
-5.896967e-04
-3.999444e-02
1.630758e-03
-2.180144e-02
-1.269468e-02
2.287330e-02
2.558414e-02
1.537047e-02
-7.394067e-03
3.895096e-02
2.379658e-02
2.401294e-02
8.656176e-03
-2.569942e-03
2.243081e-02
-1.546317e-02
-8.347675e-03
-6.171456e-03
-2.204365e-02
1.178333e-02
4.138544e-03
3.122977e-02
5.526424e-02
-5.369388e-02
-3.517691e-02
-3.027418e-02
3.306174e-02
1.243377e-02
-3.157815e-02
8.598331e-03
-2.491110e-02
1.985897e-02
1.152686e-02
-1.619915e-02
1.736079e-02
-1.911579e-02
-8.877718e-04
3.227560e-02
5.918688e-02
1.542469e-02
2.470307e-02
1.653690e-02
4.159946e-02
-2.044069e-02
-1.068680e-02
3.459660e-02
-3.822728e-03
-3.102159e-03
3.148481e-03
1.744988e-02
-2.251811e-02
2.407991e-02
-3.358876e-04
2.946397e-02
-2.969287e-02
-2.450465e-02
-5.153375e-02
1.315867e-02
-1.479606e-02
-2.615970e-02
-2.919809e-02
-2.610526e-03
-5.086249e-02
4.042113e-02
-2.204048e-02
1.037826e-03
1.881074e-02
-6.467210e-03
9.418151e-03
2.109974e-02
2.034533e-02
-1.281645e-02
4.699769e-04
-3.255533e-02
-2.490846e-02
4.913691e-03
3.848119e-02
-8.760640e-03
4.179176e-02
4.592866e-03
6.098079e-03
2.077102e-02
-9.562738e-03
1.682684e-02
-2.312980e-02
4.120954e-02
4.270026e-02
8.090776e-03
-1.023394e-03
3.055482e-02
-3.675627e-04
4.372320e-02
-1.208712e-02
2.916976e-02
1.126990e-02
3.743212e-02
3.674546e-03
-1.432013e-03
-1.772837e-03
-4.092437e-03
-4.188624e-02
3.749900e-02
4.337762e-03
2.055907e-02
6.970659e-03
-1.693091e-02
-7.862558e-04
-6.714653e-03
1.643897e-02
1.472535e-02
-1.058388e-02
-1.587208e-02
-1.420479e-02
-4.149636e-03
2.645585e-03
-5.705120e-04
1.538625e-02
-2.785277e-02
-3.193607e-02
2.036256e-02
3.448351e-02
1.904003e-03
1.279254e-02
9.262797e-03
-2.099859e-02
-3.207291e-02
3.192548e-04
-1.405720e-03
-1.579825e-03
5.732884e-03
2.388851e-02
-6.173190e-03
-3.024273e-02
1.128650e-02
-4.343688e-03
-4.298184e-03
-2.280026e-02
1.525340e-02
1.806434e-02
-3.226731e-03
-1.461072e-02
-1.826871e-02
1.329678e-02
5.383756e-03
1.251063e-02
-1.059759e-02
1.190094e-02
-7.975245e-04
7.033565e-03
-2.766082e-03
6.011021e-03
2.559535e-03
2.455723e-02
-3.553308e-02
-3.555438e-02
1.225180e-03
3.464875e-04
3.324986e-04
-1.868022e-02
-3.835296e-02
3.333395e-02
3.183042e-03
9.713484e-04
1.876955e-02
-1.380234e-02
-1.882635e-02
-2.276820e-02
2.873498e-03
5.746553e-02
4.784686e-03
4.629289e-02
-1.976899e-03
-9.286388e-03
-3.230586e-02
-7.438229e-03
-2.240445e-02
-1.534374e-02
-7.888779e-04
3.708720e-02
-1.583216e-02
1.274814e-02
-2.308506e-02
-4.087032e-02
-1.713989e-02
8.465751e-03
5.005709e-03
2.964204e-02
-2.715778e-02
4.398444e-02
-1.975748e-02
5.199831e-03
-5.521559e-02
1.518082e-02
-2.447867e-03
2.111013e-03
-2.110819e-02
-4.016139e-03
-5.078563e-03
9.902124e-05
-2.628559e-02
-3.411046e-02
-2.238506e-02
-1.043000e-02
7.429922e-03
-4.673846e-02
4.128391e-04
1.623852e-02
1.486011e-03
-4.432892e-02
1.889409e-02
2.034882e-02
1.495613e-02
-1.103630e-02
-2.252916e-03
-8.124339e-03
-6.748690e-03
1.026491e-02
-1.563177e-02
-2.295283e-03
8.719771e-03
1.519590e-03
1.306785e-02
-1.662602e-02
-5.698215e-03
-6.792792e-03
-6.589773e-03
-5.192022e-02
2.545170e-03
2.450292e-02
1.228194e-02
2.298633e-03
3.484796e-02
-3.547608e-02
-2.129547e-02
-1.148036e-02
2.532505e-02
7.504244e-02
-1.626534e-02
1.217492e-03
1.334558e-02
-1.814509e-02
9.879311e-03
2.588580e-02
-1.299602e-02
4.834296e-02
5.720683e-02
-5.511183e-03
-1.958255e-02
-3.553796e-02
-1.563761e-02
2.735788e-03
1.986221e-02
-2.230913e-02
-7.474416e-02
-1.778687e-02
2.380360e-02
-5.170509e-03
6.950512e-03
-3.470559e-03
-3.747548e-02
2.321604e-03
-1.615843e-02
-1.139626e-02
1.197938e-03
7.052511e-03
-6.983827e-03
2.083378e-02
2.556315e-02
4.538280e-03
-2.947542e-02
-4.539157e-03
-2.669349e-03
-5.661602e-03
5.058604e-03
-2.586138e-02
-1.616080e-02
1.570764e-02
-2.697297e-02
1.555993e-02
-3.775125e-02
-6.891165e-03
5.227868e-03
-2.345795e-02
-3.463686e-02
-3.124636e-03
-3.560922e-02
-1.951186e-02
4.320999e-03
2.553673e-02
-2.941732e-02
8.460699e-04
1.882372e-02
3.465449e-02
2.952115e-02
1.281278e-02
2.177781e-02
-1.006451e-02
-8.338961e-03
-4.860901e-03
-3.177618e-02
-1.709472e-02
7.681469e-03
1.280420e-02
3.491506e-03
4.437022e-02
-2.887986e-02
3.774736e-02
2.582876e-02
-2.047018e-02
-6.333485e-02
1.451547e-02
-4.916805e-02
-3.802988e-02
-3.108804e-02
-2.180487e-02
-1.372683e-02
-6.119084e-03
-2.386327e-02
4.640369e-02
-1.325492e-02
-9.940000e-03
1.998096e-02
-2.005874e-02
-1.777589e-03
-1.760087e-02
-4.820472e-03
-2.700187e-02
-9.404530e-03
2.791484e-03
-2.328067e-02
-3.451705e-02
1.762310e-02
5.626239e-03
-3.022466e-03
-3.862347e-03
-1.194780e-02
-3.382812e-02
-3.636817e-03
2.391474e-02
-2.300810e-02
-1.074780e-02
4.822243e-02
-2.088827e-02
2.413923e-02
1.216085e-02
1.607225e-02
-2.235336e-02
2.270205e-02
1.927469e-02
8.553211e-03
-7.962300e-02
-4.560591e-02
