1.402597e-02
-1.253590e-02
-1.599998e-02
1.474107e-02
-4.992598e-03
1.124985e-02
6.182583e-03
1.199093e-03
4.659813e-02
3.995053e-02
-2.670645e-02
-5.147630e-02
4.449304e-02
5.544956e-03
-9.567393e-03
3.876129e-03
-8.429294e-03
-2.267390e-02
3.477499e-02
3.565375e-02
1.340645e-03
4.158560e-02
3.419235e-02
-2.093294e-02
-2.219942e-02
-1.121434e-02
-3.717964e-02
-3.351588e-02
-3.057495e-02
4.389938e-02
-2.002450e-02
-2.953736e-02
6.488320e-03
1.969708e-02
-1.632908e-02
5.213644e-03
4.485066e-04
1.320716e-02
5.654195e-02
-1.107154e-02
2.155064e-02
4.507588e-02
-2.827816e-02
6.968028e-03
2.118190e-02
6.166945e-03
2.810708e-02
3.719549e-02
-2.033472e-02
-1.884143e-02
-1.178562e-02
4.757119e-02
-6.339513e-03
-1.655471e-02
-2.759836e-02
-2.885296e-02
-6.076794e-02
-2.873209e-02
-3.541595e-02
-4.313142e-02
-3.061879e-02
-3.399772e-02
-1.448269e-02
1.735963e-02
1.037380e-02
-3.656556e-02
4.324898e-02
2.214797e-02
-2.826516e-02
2.196660e-02
-1.868056e-02
-4.155625e-02
6.411090e-02
3.644704e-02
8.443600e-03
5.619349e-02
1.644283e-02
-1.959332e-02
6.122522e-03
-1.018749e-02
-2.214771e-02
-6.201500e-02
-1.428344e-02
9.716530e-03
-5.249705e-02
-4.693148e-02
-3.723241e-02
-4.042082e-02
-5.248000e-02
-5.562270e-02
-4.694948e-03
-2.192571e-02
6.354880e-02
-8.564714e-03
2.686527e-02
4.129613e-02
-1.666330e-02
9.859831e-03
-6.022572e-03
1.298762e-03
-3.041737e-03
-4.368340e-02
-7.963169e-02
-6.960287e-02
-7.081164e-02
-1.060889e-01
-3.751009e-02
-1.213235e-02
-8.606408e-02
-5.306796e-02
-3.164429e-02
-8.648700e-02
-1.497731e-02
4.342546e-02
-8.508037e-02
-1.428586e-03
5.417821e-02
-2.282746e-02
1.256730e-02
7.533830e-02
6.203599e-02
3.674691e-02
9.067938e-03
1.321679e-02
-4.843090e-02
-7.456729e-02
-3.327731e-02
5.023457e-03
8.508305e-02
-2.503942e-02
7.828532e-02
1.248463e-01
-6.728414e-02
6.094328e-03
6.170602e-02
1.829442e-02
-1.229960e-02
-4.606478e-05
4.041500e-02
-3.281433e-02
-4.616092e-02
-3.004701e-02
-7.088836e-02
-6.746244e-02
-2.374638e-02
-3.098494e-02
-3.541668e-03
6.290326e-03
-2.216472e-02
-2.307392e-02
-9.875873e-03
-1.529899e-02
-1.786925e-03
-1.118249e-03
-1.198725e-02
7.789911e-03
6.821915e-02
-3.433209e-02
-7.060985e-03
3.958314e-02
-5.514427e-02
-2.305632e-02
3.167396e-02
7.821031e-03
-3.167508e-02
9.488383e-03
2.453851e-02
-1.357212e-02
4.881271e-02
4.392600e-02
-3.539830e-02
-8.632877e-03
1.786157e-02
8.683960e-03
-2.073042e-02
7.165146e-03
4.833604e-03
-5.429482e-02
-7.184521e-03
6.410623e-03
-3.019236e-02
-3.121337e-02
2.514992e-02
2.671812e-02
-1.441918e-02
-1.147630e-02
-4.282648e-03
-4.472560e-02
-3.076271e-02
4.587959e-02
-5.376696e-02
1.914140e-02
1.280489e-02
-5.125127e-02
2.802666e-02
2.230830e-02
-2.095263e-02
4.814963e-02
1.851489e-03
2.114746e-02
1.632724e-02
-3.020154e-02
-1.344809e-02
5.718807e-02
-5.195384e-02
-1.071303e-02
4.828024e-02
2.584696e-03
-4.461062e-03
3.069988e-04
-3.261450e-02
-2.503643e-02
3.774146e-02
-3.999909e-02
-7.377529e-04
9.753191e-03
1.326512e-02
-6.311735e-03
-6.138164e-02
1.207015e-02
1.360921e-02
-5.412701e-04
8.458499e-03
7.285659e-03
4.634013e-04
-4.878141e-02
-6.663147e-03
4.795489e-02
-3.246820e-02
1.199490e-02
4.226178e-02
-8.122250e-03
1.667597e-02
5.554207e-02
-6.923488e-03
5.483412e-02
-5.213749e-03
2.411537e-02
2.561371e-02
-5.944895e-02
3.557444e-02
-4.211123e-02
-2.878886e-02
-1.018773e-01
6.979825e-02
1.223255e-01
-1.298951e-01
1.131853e-02
1.337109e-01
-7.771571e-02
-5.490969e-02
1.063199e-01
1.449095e-02
2.671340e-03
-2.498231e-02
2.059480e-02
2.397481e-03
-2.208933e-03
3.082259e-02
-1.856555e-02
1.226628e-02
-5.589443e-02
3.116248e-02
-1.625805e-02
-4.801334e-02
3.410188e-02
4.218290e-02
1.721577e-02
4.321912e-03
3.925763e-02
4.119663e-02
5.189863e-03
-1.078110e-01
7.273819e-02
2.041690e-02
-1.454970e-01
3.380885e-02
9.453732e-03
-9.794365e-02
1.831765e-02
-4.091176e-02
-7.841451e-03
6.591369e-02
-4.147751e-02
-5.105810e-02
4.603660e-02
-5.827992e-02
-1.010794e-01
-2.758064e-02
2.474357e-02
9.219910e-02
1.002535e-03
6.006987e-02
6.843751e-02
1.145671e-02
8.124278e-02
4.449427e-03
-4.411635e-02
-6.542282e-02
1.823203e-02
-1.075069e-01
9.928805e-02
4.433649e-02
5.980343e-02
6.711657e-02
-7.389107e-02
3.528465e-02
-9.201827e-03
-1.172129e-01
-2.915261e-02
-4.760472e-02
5.032551e-03
-6.022928e-02
-2.569791e-02
1.732463e-02
6.592938e-02
8.277223e-02
-4.490719e-02
6.343478e-02
-8.897155e-02
-8.314412e-02
-2.730109e-02
-2.626181e-02
4.412718e-02
-7.585471e-03
-4.371008e-02
6.561750e-02
-2.634630e-02
-1.978088e-02
8.231894e-02
5.488589e-02
7.412953e-02
-5.175469e-03
-1.168437e-02
7.099694e-03
-2.905723e-03
7.267092e-03
-3.217869e-02
1.927782e-02
-2.625054e-02
-4.321110e-02
-8.810285e-03
-4.966734e-03
2.918733e-02
2.454549e-02
-1.362011e-02
4.887703e-03
-5.640239e-02
6.328211e-02
5.830825e-03
-4.100334e-02
4.859598e-02
3.386766e-02
-4.718915e-02
1.028608e-02
-2.934691e-03
-3.568688e-02
3.163682e-02
-4.535130e-02
-1.824607e-02
1.696353e-02
1.860687e-02
-2.445701e-02
-1.840112e-02
2.792389e-02
-3.712432e-02
-4.584896e-02
6.043563e-02
-1.946355e-02
-3.976391e-03
-2.630748e-02
-3.481706e-02
-8.946283e-03
-2.212628e-03
1.444817e-02
-5.685462e-02
-2.848820e-02
1.966312e-02
7.487026e-02
-5.718978e-02
-8.150743e-02
-6.008893e-03
-6.869727e-02
1.177404e-01
-5.511760e-02
7.628501e-02
5.702329e-02
5.876134e-02
8.913400e-02
-2.173029e-02
9.582312e-02
-4.043872e-02
-8.711390e-02
-1.073560e-02
-7.286014e-02
3.613996e-02
-2.461635e-02
-2.490783e-03
1.502679e-02
-9.131909e-03
-6.165743e-02
-1.005507e-02
2.476905e-02
5.409445e-04
7.263482e-02
-3.626255e-02
1.735222e-02
-1.050126e-02
-4.654078e-02
-1.054339e-02
4.964231e-02
-4.146230e-02
2.737037e-02
2.744014e-02
1.662810e-02
-1.788366e-02
-3.690499e-02
-4.914769e-02
-7.124633e-02
3.678309e-02
1.928830e-03
6.082451e-02
4.617184e-02
-4.070915e-02
-7.767929e-02
1.540346e-02
-6.221672e-03
-5.789143e-03
3.908842e-02
-8.359984e-03
7.746349e-03
1.254436e-02
-4.542540e-02
-3.930087e-02
-9.518511e-03
-9.470616e-03
3.124415e-02
8.149800e-02
2.702929e-02
3.867614e-02
7.708216e-02
4.237602e-04
3.868926e-03
-4.444950e-02
4.076878e-02
4.809267e-02
-2.921420e-02
-1.771393e-02
1.103038e-02
-5.623729e-02
-1.405801e-02
2.102476e-02
5.327400e-02
-1.170427e-02
-2.507918e-03
1.063802e-02
-1.433891e-04
-8.027962e-03
3.349475e-03
2.230088e-02
8.143982e-02
1.243592e-02
-2.178816e-02
4.888707e-02
-2.829787e-03
-4.704226e-02
-2.516268e-02
-4.520221e-02
-8.874681e-02
-2.565494e-02
3.973905e-02
-7.012064e-02
-5.591846e-03
4.301915e-02
-4.655853e-02
6.637320e-03
2.422176e-02
-1.844418e-02
6.951137e-03
6.936494e-02
-4.838903e-02
-2.309063e-02
1.276112e-02
-5.936001e-02
-1.743824e-03
7.618102e-02
-9.145413e-02
-6.101176e-02
3.463201e-03
-8.484935e-02
-8.490290e-02
-3.113070e-02
-7.416980e-03
-2.955720e-02
-1.171567e-02
-4.428114e-02
2.008509e-04
2.155679e-02
-4.609688e-02
-1.769023e-02
-1.571171e-03
-4.901743e-02
-2.163063e-02
-2.402082e-02
2.275362e-02
1.842983e-02
5.953068e-02
-3.718089e-02
-5.157254e-02
-1.432827e-02
5.435884e-03
-3.729420e-02
-4.663217e-02
1.846548e-03
5.018993e-03
-2.772404e-02
3.274166e-02
4.195376e-02
1.797185e-02
-4.743927e-02
-2.125479e-02
-2.231876e-02
2.009672e-02
-1.098176e-02
-7.194568e-03
1.116517e-02
-1.384357e-02
-3.675933e-02
1.990558e-03
-3.174607e-02
-6.139721e-02
7.957014e-03
2.447323e-02
2.708291e-02
5.195493e-03
2.166892e-02
3.357749e-02
-7.152575e-02
-6.693038e-02
-8.474785e-02
-3.028514e-02
-5.425821e-02
-2.381770e-02
-6.129269e-02
-6.686990e-02
-2.427305e-02
4.705157e-03
-3.446796e-03
1.438724e-02
1.684632e-02
1.995116e-02
-4.063459e-02
-1.586301e-02
9.792631e-03
-2.745121e-03
-8.854264e-02
-5.526547e-02
-9.168037e-02
-1.766179e-02
-1.592456e-02
-8.188704e-02
-2.148232e-02
-1.356764e-02
-4.630395e-02
-2.631261e-02
-4.891606e-02
-1.067693e-01
5.295846e-03
-1.302677e-02
-2.900564e-02
1.765148e-02
2.086563e-02
-7.061938e-03
-5.853774e-02
-4.359268e-02
-7.467246e-02
3.142177e-02
6.188724e-02
1.059594e-02
-6.056896e-02
1.304210e-02
6.789125e-02
-7.453137e-02
-1.747704e-02
5.317726e-02
-2.891289e-02
2.255957e-02
4.872790e-02
-3.815360e-02
-4.300784e-02
6.571178e-02
-2.050354e-02
-4.067925e-02
-4.322098e-02
-6.071264e-03
-1.164549e-02
3.565006e-02
-2.299166e-02
-2.124797e-02
6.984638e-03
-3.000185e-02
-1.946862e-02
1.152383e-02
3.433452e-02
-8.255769e-02
-3.279409e-02
4.504543e-03
2.561871e-02
-9.576207e-03
-2.930908e-02
-2.321588e-02
5.384050e-02
-1.398525e-02
-7.067222e-02
-3.558933e-02
5.815620e-02
-1.679597e-02
-2.710971e-02
3.149217e-02
1.819710e-02
-6.709499e-02
1.386219e-02
-5.413858e-02
-4.131630e-02
7.371001e-02
3.365766e-02
-4.198055e-02
-1.550446e-02
5.199020e-02
2.157832e-02
-9.093294e-02
-2.159437e-02
5.962865e-02
-5.495551e-04
-3.156936e-02
-2.485743e-03
1.344868e-02
-1.192652e-02
-9.896933e-02
-1.635324e-02
6.749787e-02
1.287778e-01
-6.238058e-02
-3.093372e-02
5.586147e-02
-4.679113e-02
-6.562757e-02
-4.376416e-02
3.028854e-03
1.872531e-02
1.284685e-02
-4.064838e-02
7.374383e-03
3.536611e-02
-6.517255e-02
-1.973130e-02
3.726299e-02
4.316779e-02
3.136652e-03
-5.341410e-02
5.120230e-02
6.700844e-02
1.432827e-02
-3.479056e-03
4.497860e-02
6.424570e-02
2.420977e-02
-5.748541e-02
-7.501126e-02
-1.611451e-02
1.670771e-02
-9.556273e-02
5.628444e-02
2.992365e-02
2.748348e-02
8.881941e-02
-1.968306e-02
-2.748506e-02
2.517536e-03
6.046082e-02
5.035199e-02
-4.859705e-02
1.829497e-03
1.097630e-02
1.323904e-02
3.363726e-02
-4.378455e-02
6.364564e-02
3.172366e-02
-2.987432e-02
4.061633e-02
1.102502e-02
-1.949699e-02
1.744518e-02
8.575481e-02
-4.336686e-02
-2.621046e-02
2.393761e-02
5.366037e-02
-6.788624e-02
1.215041e-02
8.960671e-02
-6.539015e-02
4.252577e-02
5.190419e-02
-4.613642e-02
-6.045065e-02
2.155733e-02
1.017653e-02
-5.009259e-02
-4.080712e-02
5.261505e-02
1.089387e-02
-9.008974e-03
-2.414780e-02
2.597313e-02
2.129301e-02
-2.933352e-02
2.401955e-02
4.451444e-02
2.571129e-02
-4.497050e-03
1.055511e-04
3.048365e-02
-2.738421e-02
-3.840567e-03
3.253409e-02
-5.021655e-02
-2.501346e-02
3.663967e-02
-2.593015e-02
2.481859e-02
-5.368328e-02
-6.772968e-03
-7.627322e-03
-7.718585e-02
4.285959e-02
-4.055318e-02
5.056162e-02
-9.770333e-03
-5.798453e-02
7.974529e-02
4.523518e-02
-4.867133e-02
3.736648e-02
3.118981e-02
-5.642895e-02
-5.609106e-02
6.943851e-03
-2.504123e-02
1.722624e-02
2.092007e-02
3.186295e-02
2.309231e-02
-4.816447e-02
5.066518e-02
-3.716950e-02
-2.286195e-02
-3.086765e-02
-4.799671e-02
-6.967416e-03
4.683590e-02
-5.620947e-02
-2.806290e-02
4.260291e-02
5.829344e-03
2.863762e-02
2.436536e-02
-2.394697e-02
-2.366843e-02
4.181297e-02
-2.615630e-02
-3.626049e-02
1.548029e-02
-3.405730e-02
1.704876e-03
1.490241e-02
-3.693080e-02
4.640173e-02
-4.737048e-03
-7.262439e-02
5.032446e-02
1.308961e-02
2.019868e-03
4.552419e-02
2.231692e-02
-2.641576e-02
3.733993e-02
-4.002556e-02
-4.022416e-02
6.451683e-02
-7.981969e-03
3.054353e-02
1.647630e-02
-2.818769e-02
2.344712e-02
2.925451e-02
-4.339328e-02
-2.088358e-02
4.284929e-03
-5.487530e-03
-6.832086e-02
-3.310810e-02
-2.670694e-02
2.143892e-02
-2.252113e-02
2.549911e-02
3.196795e-02
2.141273e-03
1.832287e-02
4.803128e-02
-4.739625e-02
2.168558e-02
-3.688216e-03
-1.072028e-01
1.752630e-01
8.488272e-03
-1.676043e-01
5.911991e-02
4.354188e-02
-6.543797e-02
5.339770e-02
1.478394e-01
-6.413175e-02
1.702525e-02
5.546651e-02
-7.313916e-02
3.556841e-02
1.814478e-02
-2.826383e-02
-5.821593e-02
6.349622e-02
-5.442348e-02
-2.647737e-02
7.849485e-02
-4.310157e-02
-2.129317e-02
2.969543e-03
6.407564e-02
2.274124e-02
2.100918e-02
-3.393542e-03
2.888539e-04
-8.245610e-03
4.818611e-03
-5.231997e-03
2.548287e-02
3.123068e-02
-2.668483e-02
-3.854111e-02
2.037895e-02
2.537382e-02
-4.971968e-02
6.052939e-02
3.784950e-02
1.626934e-02
1.707379e-02
-3.648758e-02
-4.029336e-03
5.005608e-02
-6.199930e-02
3.514198e-02
3.404080e-02
-4.801037e-02
5.651347e-02
6.323866e-02
4.884424e-02
2.473381e-02
8.942046e-03
-2.480253e-02
1.470998e-02
-7.553533e-03
-2.692891e-02
-4.081894e-02
-9.736642e-03
2.762460e-02
-2.082306e-02
-2.120883e-02
8.454491e-03
2.847323e-02
-1.537857e-02
-3.778203e-03
6.507230e-02
-2.318960e-02
-2.137984e-02
3.310841e-02
-1.908415e-02
9.168512e-03
-1.076970e-02
-4.589823e-02
-1.466520e-02
1.469694e-02
-2.834723e-02
-4.194554e-02
5.826012e-03
-9.864718e-03
-3.052005e-02
-4.446183e-04
5.768258e-02
4.352272e-02
1.634148e-02
1.122820e-02
-5.088977e-03
4.680347e-02
-5.460125e-03
-5.249857e-02
1.962843e-02
-2.866113e-02
-5.440558e-02
1.380423e-02
-5.018617e-02
-9.783342e-02
3.190365e-02
1.834959e-03
-2.967773e-02
3.623934e-02
5.027356e-02
1.193078e-02
1.556767e-02
3.185900e-02
-1.576292e-03
-3.292078e-02
-4.628678e-02
-6.145735e-02
-7.063548e-02
-8.545503e-02
-8.395836e-02
-3.900104e-02
-8.169110e-02
-9.490144e-02
-8.054546e-02
-1.248218e-01
-1.109526e-01
-4.587724e-02
-6.334012e-02
-7.190844e-02
1.861511e-02
7.154777e-02
6.904100e-02
6.205766e-02
1.326864e-01
1.224694e-01
1.906453e-02
7.521369e-02
6.199299e-02
-1.621191e-02
-1.551915e-02
-1.621817e-02
1.412964e-02
-1.698083e-03
-6.592588e-03
5.904095e-02
9.720446e-03
-7.093927e-03
1.895731e-03
-1.026362e-03
2.811209e-02
-1.380945e-02
-5.422761e-03
-1.451746e-02
-2.929823e-02
-3.985844e-02
-3.339845e-02
-6.365698e-02
-1.871148e-02
2.528323e-02
-7.261989e-03
1.470533e-02
2.404126e-02
4.219666e-02
2.987458e-02
-4.240642e-03
1.673912e-02
-1.550400e-02
-2.342793e-02
-8.628767e-03
-1.743052e-02
-2.826063e-02
2.878263e-03
6.381034e-03
1.150711e-02
1.571039e-02
4.475695e-02
2.153504e-02
-3.254648e-03
3.007000e-02
4.183518e-02
5.025332e-04
-4.889134e-03
-5.616806e-03
1.083133e-03
-1.493841e-02
-6.002663e-02
1.297254e-03
2.962930e-03
-5.428835e-02
-2.341778e-02
1.972864e-02
2.238425e-02
-2.186660e-02
-5.456217e-02
1.220014e-02
-3.139827e-02
-6.989773e-02
-1.643642e-02
2.797741e-03
-1.835889e-02
1.428994e-02
-1.158993e-02
1.468496e-02
-2.237440e-02
4.021573e-05
1.679371e-02
-1.869088e-02
-4.693231e-02
-3.145420e-02
-4.634679e-02
-6.142037e-04
-2.538530e-02
-2.595511e-02
1.339282e-02
3.098445e-04
-1.432701e-03
3.940227e-02
1.220510e-02
1.747048e-02
2.654349e-02
-2.545688e-02
-3.166969e-02
1.724281e-02
-4.715596e-03
3.423376e-03
4.026491e-02
3.181033e-02
2.603453e-02
1.224800e-02
-4.752524e-02
-5.275504e-02
7.066943e-02
2.351194e-02
-1.817296e-02
1.477470e-02
2.596535e-02
-1.435580e-02
3.868870e-03
-1.648500e-02
-1.941593e-02
2.209857e-02
-1.333322e-02
-1.992266e-02
3.675316e-02
-1.222210e-02
-2.861017e-02
-4.909011e-02
-5.046852e-02
-3.500491e-02
-4.841176e-03
-1.114081e-02
-2.876411e-02
6.287716e-02
8.216338e-02
6.157344e-02
-8.726445e-03
1.128846e-03
1.214857e-02
-1.922731e-02
-2.062544e-02
-1.689228e-02
1.606833e-02
1.983454e-03
-2.478659e-02
-7.638064e-02
-7.019228e-02
-5.110322e-02
-7.483117e-02
-6.980801e-02
-5.887707e-02
4.995489e-02
4.274333e-02
2.807414e-02
-1.898368e-02
1.511633e-02
-1.783277e-02
-3.666193e-02
-6.643177e-03
-4.393797e-02
1.748066e-02
4.112318e-02
-4.030315e-03
-4.506741e-02
-4.419952e-02
-2.719928e-02
-4.143555e-02
-5.690259e-02
-4.654565e-02
-4.834370e-02
-6.443312e-02
-6.848434e-02
-3.401272e-02
6.069073e-03
4.805529e-02
6.663062e-03
-1.463818e-02
-4.011083e-03
1.635959e-02
-1.723268e-02
-1.591623e-03
6.224024e-03
1.072544e-02
3.015903e-03
5.929759e-03
-1.825227e-02
-1.130980e-02
5.364889e-02
4.462665e-02
3.667822e-02
-9.627578e-03
2.978692e-02
1.805710e-02
-1.694728e-02
7.211699e-03
-1.690404e-02
-3.383657e-02
-4.087524e-02
-6.052713e-02
-7.862969e-02
-7.039377e-02
-7.143306e-02
-6.114058e-02
-4.424350e-02
-6.959311e-02
-5.260242e-02
-4.690511e-02
-7.050283e-02
5.051171e-02
1.956602e-02
1.354730e-02
-1.631980e-02
1.068790e-02
4.379146e-02
-1.399262e-02
-2.917937e-02
-1.463840e-02
-3.236364e-02
-6.162282e-02
-3.671454e-02
5.347479e-02
2.982978e-02
3.087123e-02
2.527903e-02
6.079286e-03
1.267172e-02
-1.061448e-02
-5.761676e-02
-1.215911e-02
4.436992e-02
3.306872e-02
1.591425e-02
1.147854e-01
1.149484e-01
7.177299e-02
-7.014588e-02
3.152512e-02
-7.946476e-03
-3.279096e-02
-1.265669e-01
-9.374407e-02
4.489116e-02
1.458158e-01
5.589861e-02
-1.823170e-02
5.032789e-03
4.847245e-02
1.539303e-02
1.536081e-02
-6.286996e-02
-7.470430e-02
-5.441179e-02
-2.141033e-02
5.414276e-03
-1.061475e-01
-1.401659e-02
4.731787e-02
1.536899e-01
6.413449e-02
-6.403826e-02
-1.362298e-01
-9.051926e-02
1.728299e-02
2.816807e-02
-5.456435e-02
2.514936e-02
4.880480e-03
-1.805277e-03
-2.464489e-02
-4.072694e-02
-3.154198e-02
-1.020112e-02
1.547736e-02
-1.891468e-02
-3.709845e-02
1.804002e-02
6.598328e-02
-4.427764e-02
-3.048698e-02
-3.475014e-02
-2.170826e-03
1.223449e-02
4.210812e-03
1.552078e-02
1.035815e-02
-2.453783e-02
-2.035656e-02
-7.045181e-03
-4.958557e-02
2.855517e-02
1.566620e-02
8.090942e-02
3.648914e-02
3.616623e-03
1.771756e-02
-7.493046e-02
-3.323315e-02
-2.913076e-02
-6.845683e-03
1.978983e-03
1.818651e-03
-3.588373e-03
7.871942e-03
-4.512502e-03
-4.223955e-03
-2.561881e-02
-3.166589e-03
1.333708e-02
3.523044e-02
1.391418e-02
-2.357962e-02
-5.563039e-03
-1.147470e-02
-9.392034e-04
-3.539096e-02
-2.105917e-02
3.219916e-02
3.014315e-03
3.103896e-02
-2.182755e-02
9.172759e-03
-1.079635e-02
-2.345655e-02
-6.141131e-02
3.065728e-02
1.438330e-02
-1.574314e-02
-1.289036e-02
1.676859e-02
3.444136e-02
1.794131e-02
2.731313e-02
-6.703266e-03
2.095116e-02
-2.103787e-02
2.155692e-02
1.658656e-02
8.784462e-03
1.302636e-02
1.518856e-02
-1.239102e-02
-1.073006e-02
1.271342e-02
-6.518146e-04
2.689959e-02
-2.740891e-02
-5.752819e-02
-5.693752e-02
-3.697816e-02
1.897335e-02
2.668774e-02
-1.446338e-02
-2.068278e-03
1.341945e-02
3.524044e-02
4.396794e-02
2.299322e-02
1.185410e-02
-2.325593e-02
-2.670341e-02
-9.765906e-03
-7.050796e-03
3.058521e-03
-2.780668e-02
-3.731650e-02
-1.838529e-02
-2.024182e-02
-4.252195e-03
1.640050e-02
2.662656e-02
-1.732041e-02
-3.624851e-03
-1.050322e-02
-2.900729e-02
-2.056064e-02
-3.491988e-02
2.091992e-02
-2.054651e-03
-4.889542e-03
1.073889e-03
5.283806e-03
-2.263517e-02
-4.079143e-02
-6.419068e-04
-4.683917e-03
-7.229231e-02
-2.091337e-02
-3.628934e-02
1.650189e-02
9.178564e-03
-1.197989e-02
-2.420475e-02
-2.347453e-02
-3.292577e-02
-3.949980e-02
-1.310734e-02
-1.657192e-02
-8.933676e-04
4.379443e-02
-1.618406e-02
1.236607e-02
3.183804e-02
-3.679739e-02
5.044804e-03
4.728642e-02
2.183021e-03
-5.307137e-02
-9.326103e-03
-5.824161e-02
1.953067e-02
5.107351e-02
-1.133156e-02
-2.630941e-02
2.795908e-02
-5.699129e-02
1.862069e-02
-2.883668e-02
1.245467e-02
-2.518390e-02
-4.464959e-02
-1.076356e-02
1.170796e-02
7.592946e-03
3.364348e-02
6.387257e-02
2.349303e-02
1.662609e-02
7.884492e-02
1.914953e-02
-3.228689e-03
3.721563e-02
-2.996389e-02
-4.988216e-02
-3.501987e-03
1.503960e-02
1.445523e-02
2.321583e-02
2.556170e-02
2.835274e-02
4.251053e-02
3.903324e-02
3.729387e-02
6.313432e-02
5.892221e-02
8.072311e-02
3.561304e-02
1.484753e-02
1.925561e-02
6.287036e-02
3.613108e-02
3.257265e-02
-4.809338e-02
-2.218004e-02
-5.480051e-02
-4.128608e-02
-1.362999e-02
-4.600959e-02
-3.628619e-02
8.860512e-03
-3.180758e-02
-3.569635e-02
-1.675872e-02
-1.152547e-02
1.674129e-02
4.202924e-02
3.988379e-02
-3.408086e-02
4.294502e-06
-4.234824e-02
-4.760739e-02
-2.591449e-02
-3.913281e-02
4.152755e-02
4.231243e-02
8.628527e-03
-2.151697e-02
-1.109711e-02
-4.824162e-02
1.448962e-01
8.664646e-02
9.498212e-02
5.842632e-02
-1.242775e-02
-8.950566e-04
5.567858e-02
-2.071705e-02
-6.448025e-03
-5.137506e-03
-1.945205e-02
-8.834110e-02
6.340408e-02
6.230282e-02
2.221581e-02
2.780386e-02
4.036795e-02
-2.029347e-03
-7.578544e-02
-8.172891e-03
-6.527071e-02
-1.130528e-02
2.244619e-02
-7.186181e-03
-2.054744e-02
1.446136e-02
-4.032612e-02
-2.278195e-02
7.612716e-03
4.800062e-03
2.250172e-02
7.226773e-02
7.381018e-02
-3.597147e-02
1.590303e-02
2.399292e-02
6.476286e-03
-2.228816e-02
-1.809951e-02
-1.461699e-02
-4.970437e-04
-9.211690e-03
-2.147272e-02
4.555215e-02
6.862208e-03
-1.827346e-03
-5.960442e-02
1.297057e-02
-2.081749e-02
8.317825e-02
-3.657177e-02
-1.713466e-02
-6.014657e-02
4.298449e-02
2.195229e-02
4.264517e-02
-5.472273e-02
2.002209e-02
1.957298e-02
-2.398959e-02
1.614056e-02
-4.591042e-02
1.415257e-02
2.761984e-02
2.337629e-02
-2.549444e-02
5.822209e-02
-1.570351e-01
8.875249e-02
-3.403556e-02
1.904488e-02
-7.913327e-04
-2.544967e-07
2.421397e-02
-1.098918e-02
-2.722244e-02
-3.273438e-02
2.840310e-02
-1.878395e-02
2.280123e-02
1.156077e-02
1.561789e-02
3.066152e-02
3.536030e-03
-1.193694e-02
-1.439878e-02
1.308876e-02
1.240112e-02
4.412335e-03
-8.909645e-03
1.682034e-02
-3.077348e-02
4.025166e-04
3.101022e-03
-2.695937e-04
1.148523e-02
3.888291e-02
-9.146381e-03
2.937026e-02
-6.946373e-03
9.170249e-03
-4.805672e-03
-1.559780e-02
4.856013e-03
-2.633372e-02
1.991813e-02
-2.351963e-02
-1.995911e-02
4.608085e-02
5.381563e-02
2.681221e-02
-1.747638e-03
7.693157e-03
-1.571844e-02
-5.370482e-02
-2.033196e-02
-4.331253e-02
3.316047e-02
-1.837564e-02
-2.107817e-02
6.507767e-03
4.120858e-03
-2.325944e-02
-3.637934e-02
5.303148e-02
-5.031503e-04
-3.411321e-03
1.378249e-03
4.144063e-02
2.318695e-02
-6.635973e-02
5.532813e-02
1.204764e-03
9.256254e-02
-1.221627e-01
1.075419e-01
-4.281772e-02
-1.467829e-02
2.483661e-02
-3.805743e-02
5.316666e-02
-1.262142e-01
7.257755e-02
-6.210135e-03
3.222355e-02
-1.794214e-02
2.029623e-02
-8.473866e-03
-1.802584e-02
3.757701e-02
-2.583396e-02
1.074066e-02
2.190354e-03
-2.351638e-03
4.250732e-02
2.140981e-02
2.192619e-02
2.140461e-02
-2.269701e-02
2.354685e-02
2.677863e-02
-3.592042e-02
-8.502885e-03
1.915662e-02
1.922901e-02
-3.997994e-02
-3.081410e-02
3.535661e-02
6.569421e-02
-2.575893e-02
-5.609774e-02
3.662269e-03
3.784601e-02
-3.400410e-02
2.227833e-02
8.366809e-03
-1.466570e-02
2.382422e-02
-5.070644e-02
2.567555e-02
9.982562e-03
8.862251e-03
1.731348e-02
2.843293e-03
3.200163e-02
1.869868e-02
-2.044710e-02
-4.621622e-02
-2.209617e-02
7.687452e-03
-2.034054e-02
-5.366297e-02
8.445149e-02
3.443159e-02
-1.318125e-01
-3.824691e-02
6.122267e-02
9.263317e-02
1.089078e-02
4.178201e-02
-1.162406e-02
8.445225e-04
1.832090e-02
3.107041e-02
1.562959e-02
-4.993394e-02
-4.959065e-02
-1.434455e-02
1.003233e-01
-5.911266e-02
-8.119493e-02
1.109526e-02
8.503857e-02
4.000457e-03
-7.561736e-02
4.746381e-02
-2.028242e-02
-1.679579e-02
-3.963805e-02
5.438664e-02
3.030868e-02
-5.795791e-02
2.384764e-02
2.893780e-02
7.022084e-02
2.493192e-02
-1.851206e-02
1.497038e-02
5.261263e-02
1.495883e-03
-4.265820e-02
9.053392e-03
7.494204e-02
3.225227e-02
7.116827e-03
-2.060000e-02
-4.241019e-02
-2.199043e-02
1.409177e-02
-6.799326e-02
-2.971072e-02
-1.361587e-03
2.000607e-03
-1.567223e-02
-4.162794e-03
2.154035e-02
3.678758e-02
2.445694e-02
-4.502881e-02
1.534981e-02
2.115018e-02
-5.750903e-02
-4.041511e-02
-2.270074e-02
-6.670631e-03
-6.202718e-04
1.590279e-02
4.859992e-03
2.346200e-02
1.684823e-03
5.370970e-04
-4.452461e-02
-3.893738e-02
1.285578e-03
6.374428e-03
-6.701756e-02
-3.769827e-02
1.039183e-01
6.984521e-02
-3.722459e-02
-1.548322e-02
3.953031e-02
-1.579504e-02
-1.966343e-02
-2.607776e-02
1.283284e-01
5.986439e-02
-1.014328e-01
-4.075838e-02
-7.657053e-02
-3.561242e-02
1.093055e-01
3.837745e-02
-8.718868e-02
-2.586962e-02
8.951230e-02
4.911104e-02
-4.827186e-02
3.736945e-02
4.732803e-03
7.739385e-02
-3.180551e-02
-2.830191e-02
4.739505e-02
-4.641011e-02
-1.553985e-02
-4.297874e-02
6.220746e-04
-7.303098e-02
1.674709e-02
4.374150e-02
-3.526428e-02
-7.445399e-02
3.212550e-02
3.039910e-02
-8.652614e-02
-7.417950e-03
6.477275e-02
1.058723e-01
-1.196783e-02
2.131136e-02
2.930259e-02
-5.365632e-02
-6.505860e-02
1.713769e-02
1.059265e-02
2.011425e-02
-3.837775e-02
3.383998e-02
4.898171e-02
3.435005e-02
5.362132e-03
-7.357018e-03
6.091613e-02
-5.046487e-02
-7.654736e-03
1.849354e-02
-2.520465e-02
3.831364e-02
3.288215e-02
1.319705e-02
-1.691821e-03
-2.772963e-02
-2.250079e-02
-1.661375e-02
2.869996e-02
-1.221793e-02
-2.039311e-02
1.263698e-02
-4.155881e-02
-4.129769e-02
3.732184e-02
-9.217497e-02
-5.230338e-02
-1.104481e-02
-9.029391e-02
9.407389e-03
7.782092e-02
-3.101201e-02
8.011208e-02
9.143283e-02
1.033034e-02
-2.276336e-02
3.197229e-02
-2.641118e-02
-1.819087e-03
1.843747e-02
-2.298451e-02
7.631475e-03
-2.117208e-02
-1.578077e-05
-4.641596e-03
-1.490733e-03
1.565017e-02
-5.509132e-03
-3.232147e-02
4.629473e-02
-8.341578e-03
-2.369380e-02
4.479266e-02
-1.042414e-02
-2.980786e-02
-4.662695e-02
-2.554394e-02
4.328155e-03
-5.543360e-02
3.780039e-02
3.982203e-02
-3.447936e-04
-3.136479e-02
-2.993571e-02
8.389526e-03
-3.837797e-03
1.431430e-03
-4.698172e-02
3.361751e-03
2.364811e-02
1.809468e-02
-1.611359e-02
-5.128503e-02
-2.675450e-02
-9.190354e-03
3.898590e-02
-8.727871e-02
1.854102e-02
7.818335e-02
-1.314155e-02
-8.394510e-03
1.551687e-02
-5.943098e-03
-1.110349e-02
4.529041e-02
-1.939702e-02
7.480011e-03
6.265626e-02
-1.279672e-02
-5.040834e-03
1.894576e-02
5.038543e-02
1.590450e-02
-5.049805e-03
9.878379e-03
-1.815899e-02
-2.840582e-02
2.357567e-02
2.159306e-02
-4.187800e-02
-2.025332e-02
-3.586429e-02
-9.070581e-02
7.740170e-03
-3.739265e-02
2.401310e-02
-5.010953e-02
4.063857e-02
8.700503e-02
4.779829e-02
1.003476e-01
7.358216e-02
5.799816e-02
2.284127e-02
-8.262526e-02
1.062527e-01
1.075864e-02
-2.889476e-02
2.927336e-02
-1.380420e-04
-3.412863e-02
-3.001948e-02
-2.818870e-02
-4.946698e-02
5.800142e-02
-5.139673e-02
-8.289043e-02
-3.150930e-02
-8.067140e-02
-3.402681e-02
-1.155389e-01
-7.350621e-02
5.643027e-02
3.149491e-02
-1.564003e-02
-1.077238e-02
-1.863200e-02
-7.944173e-02
-5.621688e-02
-2.744271e-02
-3.886264e-02
6.325239e-02
-3.707651e-02
-4.885697e-02
-9.865152e-03
-7.478164e-02
-4.846079e-02
4.244463e-02
-8.592169e-03
1.583278e-02
8.636129e-02
-4.125248e-02
-7.824900e-02
-9.445136e-02
1.948887e-02
1.444854e-03
-1.711486e-02
5.346956e-02
7.065797e-02
4.788210e-02
-2.812382e-02
-2.244011e-02
1.128344e-02
-1.873611e-02
-3.882842e-02
-3.522998e-03
-2.756985e-03
-1.797528e-02
1.088125e-02
5.611622e-02
5.047944e-02
4.674841e-03
4.778074e-02
-1.156440e-02
-6.704416e-02
3.515410e-02
-1.202389e-02
-4.605856e-02
-4.701374e-03
-1.407180e-02
-2.241424e-02
2.654376e-02
-3.817883e-03
-1.476345e-02
5.771247e-02
1.470092e-02
-1.992232e-02
-3.864991e-03
1.808786e-02
8.311710e-03
-2.303063e-02
8.732704e-03
1.346964e-02
-6.490164e-02
-2.298269e-02
-6.109917e-03
-1.003298e-02
9.004453e-03
5.379179e-03
-1.035116e-02
2.267002e-02
2.980890e-02
-3.455927e-02
-1.289799e-02
-3.704411e-03
-4.648133e-02
-5.468561e-02
-3.884499e-02
-1.479648e-02
-1.079357e-02
8.064823e-03
2.216693e-02
3.034490e-02
6.030743e-02
-2.297614e-02
2.084823e-03
2.009747e-02
4.664134e-03
2.262921e-02
3.925490e-02
2.995335e-02
3.963518e-02
5.503827e-02
-3.075054e-02
-4.071750e-02
5.866455e-03
-1.731542e-02
-2.119378e-02
2.130976e-02
1.469484e-02
1.709501e-03
2.640815e-02
6.072193e-02
9.431200e-02
6.036506e-02
2.120042e-02
6.848187e-02
5.710697e-02
-1.982584e-02
-1.132918e-05
4.787370e-03
6.335651e-03
-2.189585e-03
9.715678e-03
-4.806160e-03
-1.931123e-02
-5.219258e-03
-2.695747e-02
-1.513445e-02
-2.686392e-02
3.246207e-04
2.452543e-02
4.530957e-02
-3.063099e-02
-1.002486e-02
3.317514e-02
-7.395237e-04
-2.822632e-02
7.514338e-03
2.070227e-02
5.460705e-03
-1.073235e-02
2.798975e-02
3.738726e-02
1.982519e-02
-2.970173e-02
1.165531e-02
3.935744e-02
7.165527e-02
3.335629e-02
2.237475e-02
-9.471931e-03
-3.839009e-02
-9.522462e-03
-7.029282e-02
-9.239801e-02
-3.525411e-02
5.352568e-02
2.667705e-03
-3.350450e-02
6.961247e-02
3.637454e-02
-1.469046e-02
9.921095e-03
4.444184e-02
4.134672e-02
-5.730933e-02
-7.495580e-02
-3.604118e-02
-7.774063e-02
-1.224957e-01
-8.662139e-02
-5.850002e-02
-9.743865e-02
-9.139948e-02
1.731570e-02
6.883880e-02
9.770464e-03
1.208145e-02
2.505864e-02
-1.248858e-02
9.225086e-03
-6.874514e-03
-8.328198e-03
4.852903e-02
-3.007125e-03
-2.346329e-02
5.665778e-02
3.258410e-02
1.629897e-02
4.960733e-03
1.925686e-03
-1.642858e-02
-7.064527e-02
-5.758242e-02
3.165752e-02
-2.841879e-02
3.759555e-02
9.472932e-02
3.064789e-02
6.289586e-02
3.618412e-02
-3.303095e-02
-6.971671e-03
2.008453e-02
5.807885e-03
1.411357e-02
1.524783e-02
9.925028e-03
-9.226210e-03
7.433102e-03
-6.783082e-02
-1.388909e-02
-1.391741e-02
1.641884e-02
2.948274e-02
-2.732904e-02
2.189675e-02
4.513093e-02
-2.549397e-03
3.070722e-02
-3.806202e-03
1.428104e-02
3.469791e-02
2.759876e-02
8.596785e-03
-3.389153e-02
-8.531930e-03
-5.473306e-02
-3.042473e-02
-4.541030e-03
-5.131158e-02
-2.830617e-02
-1.210318e-02
-4.192083e-02
-1.049820e-02
1.802634e-02
-1.263736e-02
-1.498574e-02
-5.098402e-02
-2.839067e-02
-7.112845e-02
-9.605533e-02
-4.617151e-02
-5.189284e-02
-6.366531e-02
-5.367699e-02
-7.926078e-02
-1.045800e-01
-5.549726e-02
-8.804241e-02
-1.168121e-01
-6.180456e-02
-6.111236e-02
-4.804637e-02
1.914839e-02
-1.455807e-02
-6.503565e-03
3.228018e-02
1.003621e-03
-1.419343e-02
-4.134994e-03
3.442420e-02
5.421999e-03
-7.114097e-03
5.648938e-02
-5.329968e-04
-3.394270e-02
4.690244e-02
-5.208119e-03
-3.872058e-02
-1.482811e-02
1.242435e-02
4.630145e-03
-5.218726e-02
4.049852e-02
4.084375e-02
-4.996380e-02
-2.300566e-02
-2.715428e-02
-1.143002e-02
-1.864026e-02
-1.853331e-03
-4.998816e-02
4.158966e-02
3.095774e-02
-4.078998e-02
4.548297e-02
4.885349e-02
-2.240958e-02
2.181057e-02
1.469050e-02
2.273717e-02
2.543701e-02
8.625536e-02
-1.742586e-02
-2.561156e-02
3.788873e-02
-1.716135e-02
-2.492380e-02
3.059469e-02
-2.251959e-02
1.158991e-02
8.215052e-02
-5.097914e-02
-1.831842e-02
8.083051e-02
-6.351085e-02
-5.520932e-02
1.188600e-02
3.025039e-02
1.537300e-02
2.040844e-02
3.605149e-02
7.679008e-02
5.914804e-02
4.028554e-02
9.987091e-02
9.892900e-02
9.167975e-03
1.763253e-02
4.740131e-02
1.907018e-03
4.161487e-02
1.205839e-02
2.851473e-02
1.877218e-02
1.309998e-02
3.933250e-02
7.693461e-02
1.549943e-02
5.643483e-02
7.892526e-02
1.182703e-02
-3.617022e-02
-7.556982e-02
-2.900433e-02
4.397632e-02
4.223500e-03
-2.011510e-02
6.586998e-03
-2.249706e-02
-1.262448e-02
-4.857627e-02
-4.498160e-02
-1.920459e-02
-7.134458e-03
-6.603760e-02
-7.302722e-02
-1.586375e-02
-2.581636e-02
2.878850e-02
5.749716e-03
8.716246e-02
-2.193814e-02
3.150927e-03
-3.186500e-02
8.506966e-03
-3.146955e-02
-4.869254e-03
1.080067e-02
9.941577e-03
1.439334e-02
-4.010157e-02
2.358550e-02
3.048206e-02
2.625577e-02
7.740871e-03
-4.937703e-03
1.719609e-02
-1.765499e-02
-3.598750e-02
-3.933359e-03
-3.354871e-02
-2.020703e-02
-4.083617e-02
-1.064533e-02
6.337061e-05
3.817240e-03
-2.494457e-02
-1.473178e-02
-4.673395e-02
3.868333e-02
5.440647e-02
2.190082e-02
4.316340e-02
2.829868e-02
4.190764e-02
-5.026010e-02
-7.273749e-02
-4.448131e-02
2.637687e-02
5.922903e-02
3.910866e-02
-2.808386e-02
-5.716810e-03
-1.746377e-02
-3.688953e-02
-9.925907e-03
-5.037209e-02
-3.939695e-02
-4.680150e-02
2.336577e-02
3.137943e-02
3.774703e-02
5.572138e-02
8.273246e-02
4.849420e-02
7.759131e-02
2.285857e-02
-3.133635e-02
6.708750e-02
-7.167552e-03
-9.626357e-03
2.571961e-02
1.262402e-02
-3.047842e-02
2.068896e-02
6.328111e-03
-3.464662e-02
-2.720323e-02
-3.391158e-02
-2.590786e-02
2.830888e-02
6.014297e-05
-2.779238e-02
-2.829053e-03
-3.874217e-02
-5.912223e-02
-3.790378e-02
-1.522571e-03
2.584786e-02
1.143760e-02
8.707457e-02
1.239414e-01
5.066757e-02
6.892462e-02
4.613926e-02
4.058056e-02
1.037335e-01
8.845793e-02
6.147210e-02
2.366444e-02
-5.644886e-03
-2.716238e-03
-3.872037e-02
-8.426262e-02
-1.151816e-01
-1.010886e-02
4.384010e-02
4.726418e-02
2.949934e-02
7.826613e-02
2.319401e-02
5.377999e-02
1.271275e-02
1.023537e-02
2.346606e-02
-7.247560e-03
-2.653210e-02
-2.278550e-02
1.792372e-03
-1.178267e-02
