-9.302077e-02
4.042913e-02
-1.346109e-02
2.642277e-02
5.722876e-01
2.380528e-01
-1.193572e-01
1.552683e-01
3.578907e-02
1.242173e-02
-1.241024e-01
-7.185036e-03
-9.842587e-02
-9.252746e-02
-1.329307e-01
1.151910e-03
-1.072845e-01
-1.515689e-02
9.642079e-02
2.378611e-02
7.343903e-02
3.900444e-02
-1.324839e-01
-1.722627e-01
8.551048e-02
-9.879699e-02
-4.297865e-02
2.441200e-02
9.202261e-02
5.790566e-02
6.813376e-02
1.628615e-02
2.415058e-02
8.904544e-02
-3.870431e-02
-1.548732e-02
-5.721467e-02
-7.826576e-02
-3.960171e-02
-9.276371e-02
-2.562966e-01
-1.362204e-01
-3.659416e-02
-2.396079e-01
-9.714386e-02
8.814376e-02
9.764300e-02
5.564806e-02
7.326560e-02
9.192149e-03
5.779527e-02
7.809649e-02
-4.846784e-02
4.188496e-02
-5.572333e-11
-9.658232e-11
-1.524809e-10
-1.706933e-10
-1.605644e-10
-2.892570e-10
-2.571870e-10
-3.843809e-10
-2.517180e-10
2.299737e-11
-9.274532e-11
-2.162851e-11
-2.667986e-11
-1.113547e-10
-3.297226e-10
-1.753143e-10
-2.111486e-10
-1.839470e-10
2.767578e-10
1.519985e-10
9.797040e-11
2.021403e-10
5.545439e-11
-9.513808e-11
3.684204e-11
3.127976e-11
-7.455061e-11
7.130451e-02
-1.112038e-01
2.938816e-02
-7.706262e-02
1.819666e-01
-1.018995e-01
-5.911850e-03
-1.252441e-01
-1.874116e-02
5.563389e-02
3.575343e-02
4.470312e-02
-6.208747e-02
4.882998e-01
8.454081e-03
-5.746862e-02
-9.998152e-02
-8.230326e-02
-2.075627e-02
-1.446569e-01
5.289240e-03
-1.103729e-01
2.001276e-01
-4.510760e-03
-2.806669e-02
-2.868091e-02
1.969991e-02
1.158619e-10
-9.924860e-11
6.003094e-11
1.139743e-10
4.675674e-11
-1.475655e-11
1.811712e-10
2.638854e-11
1.891884e-10
1.632943e-10
4.233388e-11
9.057649e-11
1.156388e-10
1.233197e-11
4.576160e-11
1.520941e-10
1.056261e-10
2.109948e-10
2.043860e-10
1.328430e-10
2.562799e-10
7.887307e-11
6.850099e-12
1.378548e-10
1.176051e-10
7.058721e-11
1.660164e-10
-5.314885e-02
-9.597886e-02
-5.784332e-02
-1.514621e-01
-9.223899e-02
-1.021004e-02
-8.215857e-02
-4.726516e-02
-1.504026e-02
6.248749e-02
1.323586e-01
3.362352e-02
1.759907e-01
3.726608e-01
2.115082e-01
1.387136e-01
2.665650e-01
9.894634e-02
3.237179e-02
-2.036507e-02
3.986925e-03
-7.031852e-02
-2.246020e-01
-1.717437e-01
-2.429064e-02
-2.035047e-01
-1.576098e-01
1.286369e-10
2.824480e-11
6.392759e-11
5.274521e-11
1.565739e-10
9.652629e-11
-4.564451e-11
7.643789e-11
3.752390e-11
1.721199e-10
1.985378e-10
2.540871e-10
2.108198e-10
2.806169e-10
1.913070e-10
7.206245e-11
1.508324e-10
1.725608e-10
2.136822e-10
2.860349e-10
9.711532e-11
1.855664e-10
2.753731e-10
2.553159e-10
1.443368e-10
2.653247e-10
2.274904e-10
-2.743823e-02
-1.081188e-01
-4.634429e-02
-7.928870e-02
-3.321580e-01
-1.674388e-01
-2.870970e-02
-1.552131e-01
-9.268012e-02
1.077504e-02
4.074325e-02
5.591114e-03
3.962395e-02
-2.261825e-02
3.114777e-02
-1.081545e-02
2.326459e-03
-5.457376e-03
6.800481e-03
1.441981e-01
5.208435e-02
1.162766e-01
2.242961e-01
1.729584e-01
3.552773e-02
1.547100e-01
5.815526e-02
1.730105e-11
3.574623e-11
-4.729296e-11
-5.905013e-11
5.049040e-11
-7.681011e-11
-9.610426e-11
-3.265405e-11
3.366836e-11
2.567460e-11
-7.841667e-11
3.943102e-11
-2.626206e-11
4.587039e-11
-1.098636e-10
-1.749734e-11
1.392499e-11
2.979884e-11
4.718384e-11
2.699513e-11
-8.324301e-11
-1.382682e-10
-7.391502e-11
-6.763063e-11
6.885371e-11
-1.020891e-10
3.736535e-12
-1.146474e-10
-1.997489e-10
-2.652972e-10
-1.653075e-10
-2.194827e-10
-2.574850e-10
-3.358141e-11
-1.207653e-10
-1.675549e-10
-3.201455e-13
2.904915e-11
-1.886014e-10
-9.030278e-11
4.754540e-11
-1.814069e-10
5.357687e-11
1.305209e-11
-7.885391e-11
9.146211e-11
1.374902e-10
8.068172e-11
2.497090e-11
-7.109535e-13
3.526103e-11
1.697340e-10
1.265243e-10
6.862911e-11
-1.030278e-02
6.448250e-02
-2.540438e-02
1.065421e-01
1.431785e-01
-2.324211e-01
-8.363280e-03
6.076808e-02
-1.058880e-01
2.404257e-02
7.439577e-02
-7.189263e-02
1.633400e-01
1.953140e-01
-3.048136e-01
3.263782e-02
1.012171e-01
-1.320443e-01
1.025096e-02
5.539253e-02
-1.185443e-01
1.486732e-01
1.690203e-01
-3.170911e-01
5.948871e-02
1.136311e-01
-1.482465e-01
1.832309e-08
-6.256647e-08
-2.774460e-08
-2.286473e-08
-8.606578e-08
-7.395865e-09
-9.885073e-08
-1.047567e-07
-2.156274e-08
6.920052e-08
-3.511452e-08
-9.800606e-09
6.800288e-10
-1.025930e-07
-1.230318e-08
-5.755748e-08
-8.517644e-08
3.868636e-08
9.118582e-08
-4.009941e-08
-7.300702e-08
1.853670e-08
-1.535884e-07
-1.251487e-07
-3.341498e-08
-1.212310e-07
-3.123271e-08
3.262220e-02
-2.463677e-03
4.974348e-02
1.169036e-02
-1.377084e-01
2.629995e-02
8.007208e-03
1.779125e-02
2.982442e-02
4.528929e-02
-1.789420e-02
5.027913e-02
-3.357361e-03
-1.944395e-01
-1.626771e-02
-6.431191e-05
-2.487366e-02
-1.195954e-02
-2.368895e-02
-9.853386e-02
-2.293705e-03
-7.318081e-02
-2.299756e-01
-6.823036e-02
3.623552e-02
-1.911016e-02
1.155222e-02
4.259603e-03
-2.269612e-02
-4.768210e-02
5.616505e-02
1.651604e-01
5.942767e-03
5.688013e-02
8.405990e-02
-4.122902e-03
-4.330907e-02
-5.247392e-02
-6.528147e-02
-6.516891e-02
1.186002e-01
1.892442e-02
-5.858108e-02
-1.847408e-04
-4.668042e-02
-3.576125e-02
3.911834e-02
-1.552011e-02
-1.448481e-02
2.369461e-01
1.372115e-01
-5.648690e-02
8.710428e-02
2.378567e-02
4.105633e-10
3.601545e-10
5.156653e-10
4.534170e-10
4.331691e-10
4.589366e-10
1.173750e-10
1.184544e-10
1.900890e-10
3.544049e-10
4.012656e-10
4.403537e-10
5.018145e-10
5.518740e-10
5.526041e-10
2.099752e-10
1.104077e-10
3.051419e-10
3.660802e-10
3.534968e-10
5.300484e-10
5.686885e-10
6.297956e-10
6.457863e-10
2.089494e-10
1.733232e-10
2.608433e-10
1.627254e-10
3.104386e-10
3.013332e-10
4.111343e-10
5.858982e-10
3.781817e-10
5.627802e-10
7.288480e-10
4.716625e-10
1.688859e-10
9.331262e-11
7.791191e-11
2.447889e-10
4.128175e-10
3.273613e-10
3.952985e-10
4.508055e-10
3.151776e-10
1.047001e-10
2.303009e-10
1.617453e-10
1.563930e-10
2.336996e-10
1.909765e-10
4.074003e-10
4.254479e-10
3.351435e-10
