-1.888465e-01
-1.606638e-01
-1.843416e-01
8.903895e-02
-2.101635e-01
5.729163e-02
-1.186560e-01
-2.442490e-01
4.596072e-01
-1.529630e-01
3.170515e-01
-1.112582e-01
-1.050391e-01
-2.532696e-01
-1.487129e-01
-1.874679e-01
3.801780e-01
4.374871e-01
3.190576e-01
-1.196497e-01
1.302468e-01
2.702926e-02
-2.431296e-01
6.131222e-01
-9.687841e-03
-1.204948e-01
1.348075e-01
3.503721e-01
4.845910e-01
-2.133580e-01
4.884621e-02
-9.084939e-02
-1.376434e-01
-1.465609e-01
4.599724e-01
1.592897e-01
-5.005969e-03
2.692115e-01
-1.988555e-02
-5.239913e-02
-1.387698e-01
2.978560e-01
1.032589e-02
-2.063449e-01
-2.151171e-01
-5.287029e-02
6.791600e-01
-2.830617e-02
5.560349e-01
-1.312515e-01
6.821184e-01
-1.859060e-01
-1.685268e-01
-1.243761e-01
-1.936256e-01
-2.317050e-01
-1.242831e-01
-3.121458e-01
-9.357258e-02
-1.884689e-01
-2.485314e-01
1.218849e-01
-1.451435e-01
-2.216141e-01
-1.648860e-01
3.672636e-01
-1.106906e-01
2.430722e-01
-1.716042e-01
-9.366471e-02
-1.158283e-01
7.741588e-01
-2.135985e-01
2.010787e-01
-1.514007e-01
4.878461e-01
-1.122140e-01
-1.803932e-01
6.241794e-01
5.388579e-01
-2.480403e-01
-2.370268e-01
1.387989e-01
-7.021335e-02
-9.809124e-02
-1.723085e-01
-1.502666e-01
-1.731866e-01
2.852089e-01
-3.004972e-02
2.107353e-01
-1.723874e-01
-7.813008e-02
-8.155450e-02
-1.547488e-01
-1.351453e-01
-9.173088e-02
-1.034943e-01
-1.391733e-01
-8.535635e-02
5.301471e-02
-2.260341e-01
2.422861e-01
-6.481738e-02
-1.691837e-01
-1.199882e-01
-2.366772e-01
-1.136658e-01
-3.042251e-01
-1.142750e-01
5.905344e-01
-1.100814e-01
-1.754212e-01
-1.283328e-01
-2.316178e-01
-1.529081e-01
-1.084888e-01
-8.196410e-02
-2.191417e-01
-1.341426e-01
5.113236e-01
-8.564326e-02
2.050200e-01
-1.500635e-01
-1.724852e-01
-2.102656e-01
-1.363955e-01
-1.466764e-01
-1.836926e-01
-8.370738e-02
5.043834e-01
-1.676706e-01
4.158543e-01
-2.337048e-01
-1.933574e-01
-2.121538e-01
-2.358681e-01
4.106317e-01
-2.190822e-01
3.027136e-01
-6.383635e-02
-1.509000e-01
-1.361499e-01
-1.501256e-01
4.605459e-01
-3.609849e-01
-1.276550e-01
-2.103640e-01
3.167110e-01
-1.105668e-01
3.968071e-01
-2.039193e-01
-1.100652e-01
-9.790605e-02
-2.752261e-01
5.682758e-02
3.469712e-01
3.834450e-01
3.046010e-01
-2.721044e-01
3.711281e-01
-6.761500e-03
5.620525e-01
2.875553e-01
-8.456580e-02
-1.743961e-01
-7.033937e-02
-4.922149e-02
-1.442790e-01
-1.744834e-01
-1.691803e-01
6.257426e-01
-1.587980e-01
-2.895178e-01
-1.855125e-01
2.707157e-01
4.748309e-01
-4.713829e-02
-1.645635e-01
-5.400856e-02
-1.491495e-01
-1.626052e-01
-1.058864e-01
-3.212774e-01
-8.412712e-02
5.868996e-01
-1.220550e-01
-1.510781e-01
4.048737e-01
2.508949e-01
2.909245e-01
-2.758062e-01
2.308091e-01
-1.556364e-01
-1.088119e-01
-1.764085e-01
2.004066e-02
6.091077e-01
-1.365644e-01
-1.370951e-01
-1.807310e-01
-1.223034e-01
-1.949241e-01
-5.905077e-02
-1.327811e-01
2.225706e-02
-8.507597e-02
-8.456296e-02
-1.886619e-01
4.906521e-01
8.717225e-02
5.198757e-01
7.104203e-02
-2.164038e-01
-1.530422e-01
1.311315e-01
3.074232e-01
3.100641e-02
2.041152e-01
-8.041348e-02
-9.353501e-02
3.599041e-01
-9.941314e-02
3.700154e-01
-1.026748e-01
3.323022e-01
5.038978e-02
2.950478e-01
3.856573e-01
-1.737045e-01
8.997586e-02
1.632189e-01
2.068115e-01
-1.082010e-01
-1.401349e-01
-1.811917e-01
3.760001e-01
-4.958350e-02
-1.034239e-01
4.277648e-01
-1.003101e-01
-2.193650e-01
-5.304668e-02
5.616612e-01
7.928523e-02
-1.373147e-01
-1.984753e-01
5.380949e-01
-1.203697e-01
6.763681e-01
2.796835e-01
3.694628e-01
-1.654305e-01
-1.577463e-01
-1.157640e-01
-2.617506e-01
-2.543755e-01
2.890883e-01
-7.351746e-02
-9.571165e-02
3.741972e-01
5.829570e-01
-2.031333e-01
-2.162835e-01
-1.745628e-01
-2.089885e-01
5.400600e-01
-1.366919e-01
-1.651391e-01
-1.785588e-01
-1.989071e-01
-2.158657e-01
-2.777251e-01
-2.479263e-01
-1.109534e-01
-1.042936e-01
-1.868978e-01
-1.239871e-01
3.833935e-01
-1.503639e-01
-1.103181e-01
2.521868e-01
-1.508301e-01
-1.699098e-01
-1.219231e-01
-1.473036e-01
-2.308706e-01
-1.847488e-01
-1.789223e-01
3.200409e-01
-2.407441e-01
-1.483919e-01
-9.644216e-02
-1.654529e-01
-5.087326e-02
-5.992740e-02
-1.277916e-01
3.327557e-01
3.780834e-01
-2.560756e-01
-2.083597e-01
5.475835e-01
-1.347092e-01
-2.416641e-01
5.460959e-01
-2.072467e-01
-1.492711e-01
-1.851326e-01
-6.586015e-02
4.261695e-01
-1.359296e-02
2.485200e-01
-1.639630e-01
-8.872601e-02
-1.079814e-01
2.702419e-01
4.660384e-01
-2.338308e-01
3.231391e-01
6.638826e-01
4.860011e-01
-7.435121e-02
-1.737784e-01
-1.599947e-01
-2.861347e-01
-9.343763e-02
-1.737286e-02
-2.157333e-01
-1.337114e-01
-1.320357e-01
-2.266732e-01
5.223187e-02
5.572618e-01
1.660272e-01
-1.281911e-01
-1.922557e-01
-1.545613e-01
3.428777e-01
-1.470710e-01
-2.082320e-01
-1.018998e-01
6.887485e-01
3.483160e-01
-2.206977e-01
1.972996e-01
2.829176e-01
2.417305e-01
-1.605581e-01
-1.286255e-01
2.966647e-01
2.532216e-01
4.216408e-01
-1.456165e-01
-8.044694e-02
-1.349009e-01
-1.927792e-01
-1.422418e-01
-1.958750e-01
-1.078925e-01
-7.385277e-02
-1.102385e-01
-1.382281e-01
-1.397318e-01
5.284302e-01
-2.400715e-01
-1.251065e-01
-1.391983e-01
2.496429e-01
-2.575952e-01
4.551235e-01
2.682334e-02
-3.151935e-01
-1.897518e-01
-1.110492e-01
-1.739348e-01
7.883106e-01
-5.030464e-02
-1.992668e-01
-9.243671e-02
-1.394417e-01
-2.482886e-01
-1.759968e-01
-1.977409e-01
3.598252e-01
-2.282464e-01
-1.035391e-01
-2.072992e-01
-1.378426e-01
4.076875e-01
-2.063442e-01
6.217728e-01
-4.780971e-02
2.038585e-01
2.385298e-01
-1.885442e-01
-9.386206e-02
-1.647868e-01
-2.134910e-02
-1.441450e-01
-1.044301e-01
-1.463913e-01
-3.019306e-01
-6.740461e-02
5.113173e-01
-1.466043e-01
-1.473586e-01
-3.108469e-01
-1.516324e-01
-1.306831e-01
-9.424575e-02
-1.689589e-01
2.574314e-01
-1.146250e-01
-1.161754e-01
3.533821e-01
4.147494e-01
-1.125082e-01
-1.396606e-01
-1.593406e-02
3.927844e-02
3.061361e-02
-1.994126e-01
3.483183e-02
2.356591e-01
2.085550e-01
-1.623806e-01
-1.426705e-01
-1.973661e-01
-1.679799e-01
6.141454e-01
-1.365384e-01
-1.567896e-02
-2.871445e-01
7.189614e-01
-1.179705e-01
-4.770267e-02
3.702633e-01
-9.979518e-02
-1.873719e-01
-2.739955e-01
-6.786227e-02
-2.758046e-01
2.419741e-01
-8.568110e-02
5.036944e-01
2.922951e-01
-1.826086e-01
-2.517924e-01
5.655917e-01
-1.740891e-01
5.681120e-01
5.386234e-01
-2.229676e-01
-2.510555e-01
3.476852e-01
-1.910029e-01
3.612578e-01
-5.083801e-02
-1.447537e-01
-1.272036e-01
3.727399e-01
-1.145216e-01
-1.690787e-01
-1.750438e-01
-1.628786e-01
1.806272e-01
1.750558e-01
-1.912706e-01
2.969650e-01
-2.153415e-01
6.203360e-02
-1.518017e-01
-1.646823e-01
-5.304956e-02
-2.116954e-01
-1.025724e-01
-1.030670e-01
-2.097774e-01
-1.737213e-01
-2.558953e-01
3.566544e-01
3.768693e-02
-1.183839e-01
-1.145506e-01
2.973721e-02
-1.356523e-01
-4.534527e-02
-4.549904e-02
-9.722117e-02
3.774132e-01
5.010085e-02
-9.369475e-02
-1.708950e-02
-2.630320e-01
-1.935687e-01
-2.032098e-01
-2.504435e-01
-1.961604e-01
-1.729081e-01
5.831159e-01
4.028886e-01
4.642238e-01
3.287940e-01
-2.379545e-01
3.998177e-01
-1.456199e-01
-1.469204e-01
-1.489955e-01
-2.366942e-01
-1.509266e-01
-1.197539e-01
5.122266e-01
-1.270216e-01
-1.393647e-01
-1.342437e-01
-1.662087e-01
-1.806103e-01
-2.258850e-01
-5.814400e-02
7.243559e-01
2.041906e-02
-5.253322e-02
4.908640e-01
-1.303118e-01
-8.167427e-02
8.617660e-01
-2.129697e-01
-2.325656e-01
5.897877e-01
-2.903403e-01
-1.218488e-01
-6.639543e-02
-1.582666e-01
-1.245641e-01
-1.699786e-01
5.103533e-01
-1.489578e-01
-8.792748e-02
2.365798e-01
-1.819548e-01
-5.852761e-02
-1.326873e-01
-1.713247e-01
-9.803446e-02
-7.259879e-02
-1.227822e-01
-2.554447e-01
-1.178140e-01
-1.127369e-01
5.563984e-01
-4.480387e-02
3.368346e-02
6.486727e-02
-1.228261e-01
-1.766540e-01
-7.533870e-02
3.590820e-01
-1.143085e-01
-1.773716e-01
-1.741139e-01
-3.107379e-01
-7.431340e-02
-2.594720e-01
-8.464814e-02
-6.619589e-02
-5.330046e-02
3.841926e-01
-1.755204e-01
-1.352391e-01
-5.061653e-02
-3.896246e-02
-1.231745e-01
-1.559511e-01
-1.316787e-01
4.308100e-01
-1.782991e-01
-1.353297e-01
2.349990e-01
-7.981184e-02
3.310268e-02
-1.463014e-01
-1.452659e-01
-1.264021e-01
-2.341931e-01
-1.066709e-01
-1.305770e-01
-2.225948e-01
-1.844123e-01
-1.045342e-01
-1.510538e-01
5.990571e-01
8.034571e-01
-2.522552e-01
-1.344191e-02
-1.451520e-01
-6.077699e-02
-1.232084e-01
3.947469e-01
-1.632880e-01
-2.030052e-01
-1.155350e-01
-8.243915e-02
-2.212574e-01
2.031640e-01
-1.331285e-01
-1.391587e-01
-1.299720e-01
-1.696272e-01
1.139121e-01
-9.032377e-02
-1.678354e-01
-1.222814e-01
-5.802933e-02
4.449210e-01
-2.795455e-02
-8.684661e-02
3.072479e-01
-1.819196e-01
5.665350e-01
-3.049520e-02
5.765598e-01
-1.530396e-01
-1.993751e-01
-1.750701e-01
-1.953096e-01
-1.702758e-01
4.399088e-01
-1.192823e-01
-1.044649e-01
-1.199909e-01
3.790424e-01
-2.003296e-01
-1.649886e-01
-1.054460e-01
-1.247486e-01
3.471957e-01
-1.472266e-01
3.953650e-01
-1.474673e-01
-2.000024e-01
