-2.223333e-01
-2.402191e-01
-1.691042e-01
-1.514397e-01
-1.373615e-01
-5.869940e-02
-8.208507e-02
-9.151592e-02
-5.640163e-02
-1.588194e-03
1.876923e-02
4.622146e-02
2.047406e-02
5.744923e-02
6.562074e-02
1.428558e-02
4.936488e-02
6.900640e-02
-4.993378e-02
-7.605907e-02
-9.436167e-02
-1.931777e-01
-6.614886e-02
-1.318209e-01
-3.635743e-02
-1.012906e-01
-1.262082e-01
-2.658929e-02
-1.252582e-01
-7.391490e-02
-3.320416e-01
9.948672e-02
-6.217673e-02
1.741416e-02
-1.586812e-01
8.776437e-02
6.933692e-02
-5.190460e-02
1.266539e-01
-5.915793e-02
-5.251025e-02
1.912547e-01
-1.052103e-01
5.470250e-02
-7.074869e-02
-4.337754e-02
1.371508e-01
-9.776898e-02
-6.382751e-02
-5.001889e-01
-2.165331e-02
-6.143129e-02
5.541196e-02
-5.033970e-02
-5.749772e-02
1.505579e-02
-1.501352e-02
3.946529e-02
1.170797e-01
6.748071e-02
4.153530e-02
1.165206e-01
1.100270e-01
-1.908017e-01
-4.710191e-02
5.322538e-02
-4.171329e-01
-4.748270e-02
-9.117819e-02
-3.895862e-01
-3.143019e-01
-2.097180e-01
-1.869016e-01
-2.290448e-01
-1.187812e-01
5.620016e-02
-7.770506e-02
-2.329986e-02
-1.043438e-01
2.140224e-01
1.009824e-01
-3.367794e-02
7.132162e-02
1.245613e-01
2.166304e-01
5.325090e-01
-2.354092e-02
9.695400e-02
-5.765134e-02
2.693763e-02
-2.018021e-01
2.553742e-02
-1.516782e-02
-7.403893e-02
-3.253714e-01
-9.191614e-02
-1.302229e-01
-2.484927e-01
3.804488e-02
-2.047423e-01
1.212005e-01
1.955466e-02
-8.487160e-02
-5.190250e-01
7.311522e-02
8.517963e-02
3.678347e-01
-9.949075e-03
-7.082734e-02
6.879038e-02
1.543324e-02
4.185456e-02
2.121223e-01
-2.422090e-01
-1.575660e-01
8.076361e-02
1.920625e-01
3.979407e-02
3.029367e-02
5.777011e-02
-3.440681e-02
9.013857e-02
6.970310e-02
-1.154979e-01
-1.699528e-01
-1.237434e-01
-2.953856e-02
-5.825929e-02
-4.823336e-02
-2.743001e-02
-4.772067e-02
-3.687882e-02
-9.648066e-03
-2.363170e-02
-1.309697e-02
-6.124937e-02
-1.834984e-01
-1.612914e-01
1.152318e-01
-1.094441e-01
1.947632e-02
8.678450e-02
2.129005e-01
1.759020e-01
1.630015e-01
1.238474e-01
-4.868914e-02
1.102349e-01
1.728496e-02
-1.881686e-01
4.936436e-02
-2.569959e-02
-2.299814e-01
8.110689e-02
-5.377032e-04
-1.392040e-02
4.210960e-02
-3.519629e-02
5.647875e-04
6.272945e-02
-2.074620e-03
4.153188e-02
-2.916497e-01
-3.188594e-02
1.318331e-02
-2.125596e-01
-3.794006e-02
7.500879e-02
-8.059246e-02
-1.967400e-02
-4.461065e-02
-1.897304e-01
-3.191859e-02
-1.508590e-01
-1.559857e-01
-2.632024e-01
-1.104162e-01
-1.024982e-01
-2.085157e-01
-1.543068e-01
-2.244568e-02
-2.589055e-01
-1.434117e-01
-1.590662e-01
-2.680952e-01
-2.670584e-01
-1.744371e-01
-4.512631e-02
1.654230e-02
-1.405887e-01
-3.290723e-01
-8.104744e-02
1.396745e-01
-4.518520e-02
-2.777655e-01
-5.943656e-03
-2.007756e-01
-3.212295e-01
1.373805e-01
1.775034e-02
-1.218686e-01
6.722073e-02
-9.347390e-02
-1.689642e-01
5.534873e-02
-8.387860e-02
-1.040768e-01
-2.765383e-01
-1.719919e-01
-1.130050e-01
-2.890309e-01
-1.805638e-01
-5.072984e-02
-1.010231e-01
3.025742e-02
2.276966e-02
-6.955262e-02
-4.678164e-03
-2.649096e-02
9.627700e-03
8.353911e-02
-9.464695e-02
-1.442681e-01
-4.025588e-01
-2.393678e-01
5.393028e-02
1.332576e-01
-2.041017e-02
2.958162e-02
-5.775034e-02
2.452384e-01
2.261707e-01
2.069875e-01
2.669068e-01
-1.674605e-01
-2.572472e-01
6.121267e-02
-2.029979e-01
-2.342293e-01
6.464499e-02
-9.611618e-02
-1.144436e-01
1.640908e-01
-1.189819e-01
-3.208893e-01
-1.195446e-01
3.393530e-02
5.999337e-02
-4.391268e-02
-9.176089e-02
-1.197194e-02
-1.288464e-01
-2.087709e-01
-6.582134e-02
-2.570964e-01
-2.203410e-01
-7.371739e-02
-7.969012e-02
-3.996273e-02
-2.453181e-01
-8.933420e-02
-1.111320e-01
-6.182042e-03
1.185669e-01
-1.690909e-01
-8.603878e-02
1.249961e-01
-1.231425e-01
-4.585436e-02
9.867640e-02
-2.509787e-03
-2.081915e-02
-4.891609e-02
-2.213927e-02
-4.756606e-02
-8.205145e-02
-2.610284e-02
-5.078191e-02
-7.978217e-02
9.519535e-02
-1.117955e-01
4.113034e-02
1.134654e-01
3.288411e-02
-1.383513e-02
3.826240e-02
3.772838e-02
-4.666210e-02
-4.963615e-02
-8.246517e-02
-7.808619e-03
-4.817574e-02
-7.848165e-02
6.720154e-02
-1.299478e-01
-1.628826e-01
2.487425e-02
9.417054e-03
5.483887e-02
8.334956e-02
-2.985365e-02
2.494867e-02
6.329533e-02
-3.130136e-02
3.240232e-02
7.238891e-02
-4.580431e-02
-2.238867e-01
-2.079605e-01
1.848795e-01
3.372934e-02
-2.218702e-01
1.923861e-01
7.996274e-03
-1.577733e-01
-2.441975e-01
-2.253247e-01
-3.034301e-01
-4.868729e-02
2.835447e-01
-1.015199e-01
-9.482187e-02
-1.628719e-02
-1.319998e-02
-8.816957e-02
-1.819107e-01
-1.111589e-02
-1.533585e-01
-2.789818e-01
5.613031e-02
-1.185091e-01
-1.644379e-01
-8.970691e-02
1.902329e-01
1.124603e-01
-1.881907e-01
-1.968146e-01
-4.759339e-01
-1.133107e-01
1.248249e-01
-1.595816e-01
1.341161e-01
-7.505375e-04
9.374683e-02
8.808499e-02
9.804061e-03
1.530383e-01
1.333474e-01
-2.039663e-02
1.108756e-01
1.485312e-01
-9.690318e-02
-1.586587e-01
-7.060290e-02
-9.624530e-02
4.414488e-02
-2.263706e-01
-4.394997e-02
-4.844952e-02
-2.199838e-01
-2.195736e-01
-3.156772e-01
-1.707364e-01
-1.890069e-01
-7.711611e-01
-2.082362e-01
-2.309882e-01
-4.674956e-01
-1.593541e-01
3.389293e-02
-1.255750e-01
1.048242e-01
2.322874e-01
2.417830e-01
-9.255916e-02
1.094875e-01
4.700658e-02
1.966459e-01
-4.961493e-02
3.358877e-02
-1.779033e-01
-3.764018e-02
-1.527107e-01
-5.116083e-02
-2.873602e-02
-2.658323e-01
-9.917674e-02
-1.210341e-01
-1.491060e-02
-6.869682e-02
-1.712530e-01
-1.877715e-01
1.913393e-01
6.053716e-02
2.292185e-04
2.749769e-02
-1.514429e-01
-8.155500e-02
1.275126e-02
-1.483766e-01
-3.067692e-02
-2.242993e-01
-7.349148e-02
2.115101e-02
-9.444062e-02
5.545376e-02
5.305458e-02
-5.272221e-03
-5.461710e-07
6.075816e-02
-9.268069e-02
-2.802145e-02
1.428586e-02
-4.258879e-02
-2.149328e-02
-2.599256e-02
-3.684267e-03
-3.433290e-02
-4.237161e-02
-7.261131e-03
-4.285425e-02
-5.726118e-02
-1.821952e-02
-1.029908e-01
-2.977894e-02
-4.442860e-02
-2.307435e-01
-1.175926e-01
9.502591e-02
-2.788687e-01
-1.649433e-01
-2.058353e-02
-4.673124e-02
-9.575948e-02
-9.094636e-02
-2.685950e-02
-4.130088e-02
2.193644e-02
-7.356472e-02
-8.767811e-02
2.401540e-02
7.993490e-03
-1.865609e-02
-5.131190e-03
1.131757e-03
-2.897334e-02
-1.068233e-02
-1.205389e-02
-2.830378e-02
-1.206771e-02
-5.776383e-02
-1.180464e-01
1.338985e-01
-2.033404e-01
6.807522e-02
8.500580e-02
-2.141709e-01
1.168877e-02
8.796252e-02
8.418071e-03
-1.799313e-01
-1.335596e-01
-1.369087e-01
8.087226e-02
-1.098508e-01
-1.420115e-01
-1.778074e-02
-4.245493e-02
1.376671e-01
4.119476e-02
-1.900801e-01
1.858558e-01
-1.265467e-01
-2.042983e-02
1.908143e-01
1.242533e-01
-6.148435e-02
3.302740e-02
1.148154e-02
-1.773424e-01
-2.286757e-01
-2.797164e-01
1.033882e-01
-2.300658e-01
-2.310127e-01
1.345862e-02
2.544900e-02
-9.727467e-02
-1.266048e-01
7.006514e-02
-4.877732e-02
-1.429332e-01
-2.675185e-02
-9.454819e-02
-1.423915e-01
-5.539709e-02
-7.581714e-02
-1.713064e-01
-4.608608e-02
1.830886e-01
-5.953082e-02
-8.210117e-02
1.711066e-01
2.049223e-02
-2.355272e-01
9.195445e-02
-6.642385e-03
1.445985e-01
-3.196108e-01
-9.850959e-02
6.131791e-02
7.479908e-02
-3.043656e-01
-2.515718e-02
-1.417192e-01
1.879929e-01
3.541386e-02
1.547389e-01
-1.894184e-01
1.604505e-02
-9.797841e-02
-8.864702e-02
-1.854446e-01
3.598288e-02
-2.626391e-02
-2.908290e-02
-1.622034e-02
-1.190106e-01
-2.144980e-02
-1.327595e-01
-3.786356e-02
2.388726e-01
2.702276e-01
-1.194416e-01
5.834601e-02
-2.462894e-01
-2.611093e-02
1.609705e-01
-4.196723e-02
-1.798297e-02
-1.079153e-01
1.339727e-02
1.415534e-01
-1.900338e-02
2.151858e-02
-2.634449e-01
-9.299454e-03
1.370908e-01
-2.171424e-01
-1.497111e-01
-1.495737e-01
-7.735983e-04
-1.721369e-02
4.130771e-02
1.967160e-02
-2.957429e-02
-2.780392e-02
-1.807411e-02
1.885196e-02
-4.177923e-03
-1.177144e-02
8.156183e-03
-1.211686e-02
-7.629174e-03
9.115219e-03
-1.152179e-02
-6.046157e-04
-4.481295e-02
-5.002305e-02
-9.598814e-02
-1.153751e-02
-4.773548e-02
7.016449e-02
-7.015187e-02
-1.370718e-01
4.151054e-02
-1.425447e-01
-1.099298e-01
-6.246328e-02
-1.122373e-01
-1.065924e-01
-8.206723e-02
-6.363766e-02
-6.544400e-02
-5.710509e-02
1.460733e-01
1.539193e-01
9.486674e-02
1.056796e-01
1.145753e-01
9.409631e-02
3.708596e-02
7.391836e-02
8.081141e-02
-2.228120e-01
-1.914474e-02
-2.560082e-02
1.531089e-02
2.321117e-01
3.656276e-02
1.028837e-02
1.244771e-01
-7.043798e-02
-2.947420e-02
8.420043e-02
-1.091301e-02
5.293291e-02
2.841389e-01
-6.046328e-03
6.853606e-02
1.557611e-01
2.701334e-02
9.318475e-02
-1.062433e-01
5.812306e-02
-9.717749e-02
-5.441123e-01
-2.977227e-01
1.925727e-02
-3.322254e-01
-2.418213e-01
-1.468087e-01
1.217716e-01
6.264611e-02
9.549707e-02
1.461361e-01
7.524068e-02
8.628562e-02
6.956244e-02
-1.872695e-01
9.252238e-02
4.128997e-02
-8.271690e-02
9.537207e-02
2.502958e-02
-7.789522e-02
-3.396120e-02
-1.225402e-01
-2.315922e-01
-5.803335e-02
-1.400240e-01
6.985083e-02
-1.010194e-01
-6.660491e-03
-1.154640e-02
1.431500e-01
1.772956e-01
6.481322e-02
-3.894899e-02
-6.906931e-05
4.350204e-03
2.249359e-01
1.357299e-01
7.679425e-02
-8.053891e-02
-1.613154e-01
-1.470331e-01
2.210029e-02
4.141939e-02
-2.268691e-02
1.163239e-01
1.079087e-01
2.984155e-02
-2.029395e-02
-1.725798e-01
4.096876e-02
-9.433614e-02
2.103593e-01
-3.992117e-02
-1.761220e-01
1.059272e-01
3.314023e-02
-2.965459e-01
-9.893553e-02
2.932584e-02
1.196121e-01
1.098179e-02
-1.096721e-01
1.025781e-01
-7.862344e-02
-8.510975e-03
2.191654e-01
2.110222e-01
4.991978e-02
-1.237884e-01
2.910345e-02
-3.781484e-02
-4.117087e-02
3.766133e-02
-1.941122e-01
-1.710472e-01
-1.194093e-01
-2.136215e-01
-5.221156e-02
9.255043e-02
4.475657e-02
-3.695725e-02
1.530587e-01
1.190069e-01
-1.100031e-01
-9.527359e-03
3.098493e-02
-6.898326e-02
-5.997099e-02
-3.396624e-02
-8.764374e-02
-7.330265e-02
-4.542297e-02
-6.991008e-02
-5.348793e-02
-2.976594e-02
7.357161e-02
4.872506e-02
1.577573e-01
1.498989e-01
1.104403e-01
2.825416e-01
1.149524e-01
1.817645e-01
2.765456e-01
-1.362723e-01
-1.245928e-01
-8.654962e-02
-1.148528e-01
-9.287331e-02
-5.343910e-02
-1.677143e-01
-1.332426e-01
-9.238710e-02
5.874166e-01
5.772743e-01
5.442163e-01
6.241667e-01
6.571150e-01
6.437514e-01
5.193038e-01
6.000470e-01
5.960572e-01
-4.114136e-02
8.248239e-03
4.330634e-02
-4.608243e-02
-7.549769e-02
4.880072e-02
-3.503780e-02
-2.122686e-02
4.414067e-02
-3.160002e-02
-1.700526e-01
-1.939467e-01
-7.626724e-02
-3.387708e-01
-2.481871e-01
-1.560247e-01
-1.851179e-01
-2.518134e-01
-5.932847e-02
1.075128e-01
-3.617946e-02
3.527439e-02
1.798163e-01
7.449404e-03
-4.196509e-02
7.537383e-02
4.682032e-02
-2.071493e-02
1.092983e-01
-1.785809e-01
1.432219e-01
5.023080e-01
8.509967e-02
-1.110765e-01
1.065556e-01
-4.148997e-02
4.915551e-02
1.111408e-01
-1.262212e-01
2.728176e-01
3.832060e-01
1.291604e-01
6.161771e-02
1.540125e-01
-4.863262e-02
-4.084432e-02
-3.259847e-02
1.448402e-02
8.091812e-02
-1.181676e-01
-9.184435e-02
-6.986511e-02
-6.630401e-02
-1.158252e-01
-1.340223e-01
1.150811e-02
-1.332938e-04
-2.134362e-01
9.783666e-02
1.174708e-01
-5.979032e-02
-1.556801e-01
1.451062e-02
-5.561845e-02
-3.246843e-02
9.492346e-02
-2.018238e-01
-3.894202e-01
-6.981879e-02
6.094519e-02
1.381479e-01
4.173147e-02
-5.900546e-03
-2.654963e-01
-3.946590e-02
-7.061579e-02
4.900073e-03
1.126884e-01
1.216824e-01
1.312425e-01
8.790641e-02
-3.428305e-02
6.135462e-02
-1.331037e-01
9.373355e-02
5.268894e-01
-6.938474e-02
8.730313e-03
1.293807e-01
-3.394257e-02
-3.120245e-02
-7.108856e-02
-5.625660e-02
-1.146282e-01
-1.375408e-01
1.583883e-01
2.697138e-02
-5.910153e-02
-4.648577e-02
1.815564e-01
1.587395e-01
1.675176e-01
5.472968e-02
-4.813905e-03
3.923731e-02
6.637810e-02
5.429087e-02
6.929550e-02
3.336108e-02
1.923479e-02
2.218309e-02
-9.056232e-03
-1.782473e-02
-1.166596e-02
-3.454300e-02
-4.163188e-02
-3.363473e-02
-1.597573e-01
2.014528e-01
-2.344252e-01
1.626748e-01
7.153736e-01
2.131024e-01
6.693330e-02
5.084415e-01
1.498411e-01
-2.084149e-02
1.619682e-02
9.387925e-02
-3.602014e-02
2.615176e-02
7.593969e-02
-2.229804e-02
6.452496e-02
4.651206e-02
3.622959e-02
1.094927e-01
5.318708e-02
-2.862712e-02
3.194667e-02
4.053878e-02
-4.373487e-02
-4.036646e-03
9.752406e-03
-9.752728e-02
-3.068589e-01
-7.301016e-02
5.895131e-02
-2.473081e-01
-8.887190e-02
1.603962e-01
-2.110533e-01
-2.735783e-01
-1.685924e-01
-4.210940e-01
-9.747843e-02
-2.738534e-02
-4.214315e-01
-1.521724e-02
1.340399e-01
6.273220e-02
-1.875149e-01
-3.004761e-01
2.200398e-01
2.123944e-01
-5.267200e-01
-4.715701e-02
1.732404e-01
-4.917494e-01
-2.931041e-01
-6.958073e-02
9.210155e-02
-7.221369e-02
-2.695903e-01
1.726541e-03
-2.147295e-01
-4.033689e-02
-2.090301e-01
1.198028e-01
1.210728e-01
-4.918401e-02
8.571293e-02
1.494640e-02
-1.086245e-01
6.559178e-02
4.603278e-02
-1.834697e-01
-1.770702e-02
2.022301e-02
-2.597773e-01
-1.020084e-01
-6.115766e-02
-1.349492e-01
-4.797206e-01
-2.927497e-01
-1.053125e-01
-2.802290e-01
-1.644583e-01
-7.939595e-02
-7.924585e-02
-3.015215e-01
-6.247454e-02
3.778520e-01
6.946792e-02
-2.964781e-02
-1.515351e-02
-7.758885e-02
1.300697e-01
1.805612e-01
1.637349e-01
1.331578e-01
3.860977e-02
1.623238e-02
-3.818498e-03
5.939867e-02
-2.287156e-01
5.998876e-02
-1.160197e-01
-3.286201e-03
4.008157e-02
3.119981e-01
1.079928e-01
-2.037927e-01
1.061383e-01
9.868576e-02
-8.878946e-02
1.238000e-01
2.337239e-03
-1.380817e-01
2.793573e-01
-3.163623e-01
-1.485179e-01
-7.155592e-04
1.808611e-02
1.783305e-02
-1.292620e-01
5.521768e-03
1.042578e-01
-2.838025e-01
2.990997e-01
-4.516134e-02
-2.390128e-01
1.218427e-01
1.841733e-02
2.558070e-03
-1.755221e-01
8.971233e-02
3.714186e-02
-9.514328e-03
6.504807e-02
4.378506e-02
-4.090055e-03
3.770453e-02
3.445690e-02
2.657632e-02
3.542767e-02
3.637467e-02
3.391229e-02
1.233683e-02
3.139025e-02
2.656561e-02
-2.132244e-01
5.820775e-02
-1.391233e-01
-1.383295e-01
1.667371e-01
-1.815434e-01
-1.389245e-01
1.294161e-01
-1.162404e-02
1.686956e-01
4.119521e-02
1.272636e-02
7.298801e-02
-3.881896e-03
-5.675128e-02
-5.225949e-02
-1.144226e-01
-1.630642e-01
7.565023e-02
6.720155e-02
-1.128220e-02
5.539903e-02
7.449786e-02
-6.166856e-03
3.939931e-02
8.122695e-02
9.693459e-03
3.147324e-02
9.034958e-02
6.654409e-02
-1.031741e-01
-1.817251e-01
1.231458e-01
-1.130267e-01
-1.583409e-01
3.883886e-02
9.628858e-02
2.586502e-01
-2.329752e-01
1.424661e-01
-1.382472e-01
2.483711e-02
-2.964760e-02
1.043630e-01
-2.809725e-01
-1.542327e-01
-1.306472e-01
-1.596358e-01
-1.103929e-01
7.748553e-03
-8.308607e-02
1.041476e-01
5.404903e-02
2.106055e-01
1.736578e-01
1.350515e-01
1.490972e-01
-2.597643e-01
1.468053e-02
-5.926540e-01
-3.675697e-01
-1.204333e-01
-2.273335e-01
7.513288e-02
-1.200473e-01
-2.366432e-01
1.856645e-01
7.856388e-02
-1.333983e-01
2.176622e-01
1.508693e-01
-3.113205e-02
-1.213287e-01
-4.790767e-02
-1.613359e-01
-1.476327e-02
-2.516937e-01
2.849579e-02
-9.401953e-02
-9.270650e-02
5.005913e-03
-1.430572e-01
1.601785e-01
-1.874034e-01
-2.542018e-01
1.202780e-01
-1.748603e-01
-1.067451e-01
1.105656e-03
-9.155459e-02
9.088650e-02
-2.555562e-02
1.556121e-01
1.046336e-01
-3.241538e-01
2.982991e-01
-3.616548e-02
-1.373854e-01
-1.138099e-01
1.397106e-01
-1.323665e-01
3.933545e-01
-1.991775e-01
-1.700562e-01
-1.482595e-02
-1.068774e-01
8.033246e-02
1.691741e-01
-2.136676e-01
2.125780e-02
4.010876e-02
-2.779554e-01
3.423068e-01
-4.568127e-01
3.427527e-02
4.577378e-01
2.080654e-01
-1.263837e-01
-7.020343e-02
-2.272301e-01
1.100955e-01
-3.022883e-01
5.636783e-02
-1.003437e-01
-1.248710e-01
-7.131317e-02
-6.198956e-02
-6.823047e-03
-6.606056e-02
-3.914972e-03
4.199536e-03
1.466141e-01
4.572194e-02
-2.848674e-04
6.640826e-03
5.838282e-02
3.508483e-02
1.446064e-02
2.566520e-02
-1.319781e-04
-2.665435e-02
-5.386845e-03
-3.022043e-02
-6.450015e-02
2.922529e-02
1.033172e-01
-1.146376e-01
-1.947193e-02
2.062870e-01
-2.319686e-01
1.309535e-02
1.919837e-01
-4.054267e-02
5.328902e-03
-6.760804e-02
-7.987551e-02
-3.966174e-02
-4.980018e-02
2.585761e-02
-9.569347e-02
-7.965042e-02
2.748027e-02
1.950520e-02
2.232896e-02
5.920008e-02
2.071829e-03
2.147012e-03
1.627132e-02
4.743742e-02
-2.246609e-02
3.270209e-02
-1.691739e-01
-6.859028e-02
1.007444e-02
-1.336869e-01
2.680892e-01
1.199927e-01
-5.890415e-02
1.124133e-01
-9.098609e-03
2.148559e-01
-8.380851e-02
-2.384216e-01
-1.136175e-01
5.225880e-01
1.584192e-01
2.190528e-01
4.227731e-02
-1.189578e-01
2.890260e-01
7.972550e-02
1.222258e-01
4.688189e-02
-2.488930e-01
-6.034669e-02
-2.168146e-01
-4.783753e-02
-3.487482e-01
3.768999e-02
8.822021e-02
-1.084414e-01
-5.693048e-02
-2.859096e-01
-2.830080e-02
-2.164755e-01
1.845277e-01
-3.888192e-02
9.851671e-02
9.550155e-02
1.641721e-02
2.202809e-02
5.032922e-02
-1.123907e-01
3.562394e-02
6.410644e-02
-7.490698e-02
6.826364e-03
-1.342510e-01
-1.858383e-01
-2.585113e-01
1.042685e-01
-9.828602e-02
-1.127477e-01
-7.987326e-02
-2.047069e-01
7.011130e-02
-1.351363e-01
-6.779059e-02
1.139100e-01
-1.872153e-01
-4.892502e-02
-1.927426e-01
2.252666e-02
-7.000022e-02
-4.270466e-02
4.093968e-02
-3.092876e-02
6.766313e-02
3.039632e-01
-1.585907e-01
2.373552e-01
-2.104891e-01
-4.311208e-02
-4.275141e-02
1.588558e-01
-2.323717e-02
1.087996e-01
6.591910e-02
-3.198600e-02
-1.811007e-01
-7.116446e-01
-3.236473e-01
2.285805e-02
7.228053e-02
5.106241e-02
3.504435e-02
-4.207608e-01
6.970926e-02
-1.072667e-01
1.303686e-01
1.678399e-01
-3.083478e-02
-5.526558e-03
-1.489184e-01
1.827178e-01
2.452961e-01
-4.437801e-01
-1.440290e-03
5.714927e-02
-2.855761e-01
3.023289e-03
5.780055e-02
9.108839e-02
6.491886e-02
2.848154e-01
2.271657e-01
2.219251e-02
5.470178e-02
3.358336e-02
-1.452738e-03
-3.242065e-02
-3.166404e-02
-4.699104e-02
-5.671883e-02
-3.177657e-02
-6.827977e-02
-6.619910e-02
-2.643996e-02
-4.433648e-02
-1.033742e-01
1.196575e-02
-7.322768e-04
-2.517714e-01
3.471896e-02
-1.192062e-01
-8.840593e-02
2.521249e-02
-7.362857e-04
-5.087013e-02
-2.874849e-02
-1.160079e-01
-1.027956e-01
8.751827e-03
-1.528266e-01
-7.205254e-02
4.522796e-02
3.818992e-02
6.726464e-02
5.752072e-02
5.371601e-02
3.719902e-02
-1.895981e-03
1.610137e-02
-3.187056e-04
-4.560504e-02
-1.421867e-01
-2.909101e-01
-4.266740e-02
-3.084630e-01
-1.506624e-01
8.339743e-02
-1.386649e-01
-7.628815e-02
6.738277e-02
8.673915e-03
-4.366060e-01
1.050249e-02
-2.935254e-01
-2.022148e-01
2.853805e-02
-5.431825e-02
-1.810468e-01
6.408812e-02
1.287578e-01
2.788565e-01
-1.937073e-01
1.079072e-01
1.495024e-01
9.852532e-02
-3.391624e-01
-2.554990e-01
-3.046565e-01
6.070587e-02
-2.622705e-02
1.915165e-03
-2.868510e-03
-4.123037e-01
1.348023e-01
-1.811708e-01
-3.235304e-02
2.443770e-01
3.913707e-01
3.020455e-01
1.560915e-01
3.377105e-01
1.992553e-01
-1.264093e-02
-2.340876e-02
-1.651081e-01
-3.273419e-01
1.231672e-01
-9.686640e-03
3.497833e-02
-1.611647e-01
-1.051752e-01
-1.322567e-01
-2.105358e-01
-1.921057e-01
-1.661917e-01
-1.314176e-01
-2.424867e-01
1.189953e-02
7.213310e-02
-1.040644e-01
8.393593e-02
-8.594250e-02
-3.527023e-02
-1.147326e-02
1.384991e-02
5.705770e-02
4.504565e-02
4.093939e-02
5.272434e-01
-1.026101e-01
2.423858e-01
3.055514e-01
-3.097651e-02
1.049551e-03
-9.264263e-02
-1.680638e-01
1.226049e-01
5.138377e-02
-2.217096e-01
5.237800e-02
1.315539e-01
-1.961677e-01
-1.788414e-02
1.003636e-01
1.586249e-02
9.374010e-02
-1.546728e-01
2.465462e-03
-1.433388e-01
-2.967767e-02
9.977309e-02
-3.637810e-02
-1.133929e-01
-6.660617e-02
-9.396454e-02
2.187345e-01
-1.084040e-01
1.628722e-02
1.376268e-01
-8.974522e-02
-3.004388e-02
-2.090969e-01
-1.668864e-01
8.708469e-03
-3.274700e-02
-8.291949e-02
3.683018e-02
8.909720e-03
-6.052752e-02
2.457335e-02
-2.884463e-02
-3.848582e-02
-2.363708e-03
-5.014837e-02
-4.257314e-02
-2.429692e-02
-5.129348e-02
-3.088484e-02
5.883069e-02
1.823221e-02
-3.457265e-02
1.220151e-01
-3.763746e-02
-1.255050e-01
9.314965e-02
-1.158277e-01
-1.219938e-01
2.108952e-02
5.927012e-02
1.059151e-01
-5.574384e-02
3.638595e-03
7.869843e-02
-1.382195e-01
-9.835991e-02
4.977277e-03
-8.857766e-02
-4.033761e-02
-3.886408e-02
-8.849161e-02
-2.357620e-02
-1.564218e-02
-9.100105e-02
-3.883571e-02
-2.519859e-02
-2.906892e-02
-1.002670e-01
-1.616994e-02
3.220474e-02
-1.091466e-01
-1.381941e-02
-5.172134e-03
-6.769549e-03
4.247437e-02
-5.295452e-02
-4.305876e-02
-1.442430e-01
-7.557614e-02
-5.827531e-02
-1.773521e-01
-2.771102e-01
-1.560680e-01
7.813653e-02
1.677548e-02
9.919071e-02
-2.013959e-02
-5.486656e-02
1.525390e-01
-6.566056e-02
-9.073577e-02
-2.281247e-02
-8.151559e-02
5.214863e-02
-2.205183e-02
-1.257143e-01
-2.001397e-01
2.664076e-01
1.640616e-01
-1.843119e-01
-4.362990e-02
2.218042e-01
1.725294e-01
2.029897e-01
1.052973e-01
4.359665e-02
5.722363e-02
-3.543827e-02
-1.044721e-01
-8.796754e-02
-1.720128e-01
-1.268239e-01
-2.261432e-02
-1.067148e-01
-3.100327e-03
7.367331e-02
-5.759758e-02
-2.635628e-01
-1.385308e-01
-7.705645e-02
-2.152402e-01
-2.494941e-01
-3.226452e-02
-4.173420e-01
-5.883290e-01
-9.981044e-02
6.505124e-02
-3.295762e-01
-2.727050e-01
-2.241674e-02
-1.714303e-01
-9.422398e-02
1.678039e-01
-1.658227e-01
-1.719536e-01
9.662632e-02
2.142435e-01
3.677744e-02
-9.906983e-04
-1.181653e-01
-8.620603e-02
-8.723649e-02
-3.810369e-02
1.240780e-01
6.560802e-03
-2.456902e-02
-1.284280e-03
1.972711e-01
9.038957e-02
-1.994266e-02
1.116541e-01
3.745385e-01
1.239556e-01
9.547448e-02
-4.007519e-02
-9.569574e-02
-1.054165e-01
-1.212040e-01
-1.821659e-01
-7.340170e-02
-6.958537e-02
-1.564739e-01
-2.605172e-03
1.207608e-02
-1.285703e-01
1.152408e-04
-5.783817e-02
-4.815787e-02
5.949607e-03
-1.072746e-01
-1.784720e-01
1.407057e-01
8.663023e-02
2.455606e-02
1.191687e-02
2.253373e-02
4.376559e-02
-2.053414e-02
-9.923965e-03
1.959847e-02
-3.328838e-02
-3.469161e-02
-4.721092e-03
-2.225878e-02
9.889740e-02
6.054314e-02
-6.113973e-02
2.522411e-01
2.055354e-01
-8.539804e-02
6.900235e-02
-5.846892e-03
1.347478e-01
4.611580e-02
-2.059954e-02
8.374616e-02
-6.406899e-03
-8.389506e-02
6.032992e-02
2.919062e-02
-2.734686e-02
-5.163394e-02
-9.611278e-04
2.277148e-03
6.068134e-03
5.951714e-02
6.704237e-02
-1.314088e-02
1.135194e-02
2.633208e-02
5.585173e-03
1.434222e-01
8.807399e-02
1.103519e-01
-2.018879e-02
-4.485768e-02
3.364773e-02
-2.804641e-03
1.162448e-02
-1.090805e-01
-1.265102e-02
-1.155366e-01
3.005567e-02
-3.945801e-01
-2.039757e-01
-5.297378e-02
-2.296569e-02
-5.730956e-03
5.863139e-02
-4.688344e-02
6.040097e-02
2.855023e-02
-4.788148e-02
-1.454286e-01
1.141763e-01
-1.835632e-01
-1.589189e-01
-9.141761e-02
-1.601204e-01
-1.441009e-03
-1.008267e-01
4.607488e-01
1.804100e-01
-9.167699e-02
-9.783900e-03
-5.212588e-02
1.761588e-02
3.548331e-02
-2.704150e-02
8.889830e-02
-2.765222e-02
6.234098e-03
1.092276e-01
1.349135e-02
1.135997e-02
-1.459822e-01
1.232131e-01
-5.404624e-02
2.918504e-01
-1.068308e-01
-8.113321e-02
8.909672e-02
-6.062546e-02
-7.190692e-02
-1.949490e-02
-2.335311e-01
-5.277127e-02
-3.063068e-01
-3.755339e-02
8.725765e-02
-3.129296e-02
-1.013051e-01
-2.088493e-02
-2.321233e-01
4.860427e-01
8.011081e-02
1.198557e-01
-4.141655e-02
2.092184e-01
-7.483222e-03
3.666340e-01
2.329290e-01
-1.752183e-01
-3.365522e-01
-2.480698e-01
-2.227746e-01
-5.221536e-02
-1.012736e-01
-5.541706e-02
1.955414e-01
-6.931601e-02
-6.748432e-02
-4.539351e-01
-1.843879e-01
-4.011407e-01
1.185876e-01
-1.561766e-01
-4.611133e-02
-2.660210e-01
-5.946423e-02
-3.091480e-02
1.269120e-01
-9.763232e-02
-2.435926e-02
-1.689924e-01
2.039168e-01
1.050275e-02
-7.500853e-02
4.560405e-02
-9.969132e-02
-4.298535e-02
-2.774588e-02
-7.348827e-02
-1.454518e-01
-8.509401e-02
-5.723938e-02
-6.982557e-02
-6.069629e-02
-1.857556e-02
-1.804671e-02
-3.860079e-02
-9.038364e-03
-6.244546e-03
-2.849187e-02
-1.049073e-02
-5.597813e-03
-2.128282e-02
2.005219e-02
-9.766056e-02
-1.217671e-01
4.837950e-02
5.939286e-02
-3.360938e-03
6.021558e-02
-3.820810e-02
-6.116622e-02
-1.440142e-02
-1.717689e-02
-1.594921e-02
-1.300821e-02
-1.224248e-02
-1.010496e-02
-8.255698e-03
-8.934301e-03
-8.149698e-03
1.495553e-01
1.549871e-01
1.466300e-01
1.623620e-01
1.708251e-01
1.612057e-01
1.521278e-01
1.631603e-01
1.562522e-01
-1.028429e-02
-5.517061e-03
-9.769954e-03
1.406117e-04
3.503922e-03
7.062213e-04
1.994245e-03
4.672247e-03
2.739278e-03
-5.957804e-02
-4.152009e-02
-4.286408e-02
-6.546748e-02
-3.800625e-02
-4.555479e-02
-5.946572e-02
-4.495696e-02
-5.165668e-02
2.350666e-02
1.944168e-02
2.403630e-02
2.651351e-02
2.560991e-02
2.999155e-02
2.250431e-02
1.988511e-02
2.193206e-02
6.051797e-03
1.538448e-02
2.734043e-02
2.730851e-02
3.783447e-02
5.176081e-02
1.989606e-02
2.686185e-02
3.183188e-02
-1.624213e-03
-2.697886e-04
4.813979e-03
2.538569e-02
3.244537e-02
3.308327e-02
1.759210e-02
2.515751e-02
2.417580e-02
2.665564e-03
1.109707e-02
3.776533e-03
4.908725e-03
2.373782e-02
1.604738e-02
2.582787e-03
1.695840e-02
1.692447e-02
-4.074168e-04
5.441744e-03
6.147046e-03
2.819896e-02
3.452085e-02
3.475923e-02
2.713439e-02
3.495769e-02
3.009982e-02
4.589803e-02
4.776151e-02
4.323976e-02
2.382921e-02
1.807979e-02
5.410541e-03
2.378666e-02
1.965741e-02
2.026062e-02
3.217936e-02
3.635675e-02
2.991859e-02
4.172299e-02
3.630511e-02
3.489443e-02
2.018126e-02
1.649679e-02
1.894856e-02
1.613476e-02
1.526858e-02
2.481162e-02
1.268011e-02
1.779891e-02
3.526835e-02
-2.124381e-03
1.359290e-03
1.200666e-02
-4.737703e-03
4.413300e-03
-7.860596e-03
1.722954e-02
1.883243e-02
6.353882e-03
1.683049e-02
1.608324e-02
2.454287e-03
1.133587e-02
1.220074e-02
1.316844e-02
1.339457e-02
1.591716e-02
1.552342e-02
1.120351e-02
1.198563e-02
1.155508e-02
9.041571e-04
-4.513275e-04
-7.998538e-04
1.256116e-03
-2.824865e-04
-6.346690e-04
9.572975e-04
-9.852166e-05
-4.851039e-04
-1.349462e-02
-1.424361e-02
-8.551296e-03
-1.648812e-02
-2.297118e-02
-1.091816e-02
-1.970840e-02
-2.295208e-02
-1.224768e-02
-1.542784e-01
-1.992875e-01
-1.247299e-01
-1.285338e-01
-1.520399e-01
-2.001640e-03
-1.361312e-01
-1.432763e-01
1.136573e-02
-7.389606e-03
-5.302170e-02
-1.143386e-02
-6.204068e-02
-6.408188e-02
-3.916852e-02
-9.469137e-03
-5.024799e-02
-6.602586e-03
-7.328407e-02
-3.735422e-02
7.190018e-02
1.212670e-02
1.957853e-01
1.218240e-01
-8.100715e-03
-4.564764e-02
2.559102e-02
1.278218e-01
-9.290210e-02
-1.351475e-01
-2.826149e-02
1.778654e-01
4.748045e-02
1.144740e-01
-1.883756e-01
-9.300198e-03
1.246066e-01
-1.890109e-01
1.303003e-01
5.026791e-04
-6.277677e-02
3.242619e-01
-1.322250e-01
1.447000e-01
9.519094e-02
3.720722e-03
-1.422334e-01
-5.696756e-02
-2.929191e-01
-6.007267e-01
9.675806e-02
-9.852502e-02
2.934133e-02
1.843796e-01
1.062868e-01
4.870771e-02
3.073152e-02
9.257846e-02
1.200929e-01
1.317815e-02
1.100205e-01
9.679209e-02
9.009764e-02
-7.169855e-02
1.431338e-01
1.070931e-01
-2.178838e-01
3.136169e-01
1.056730e-01
-2.026127e-01
-1.276750e-01
-1.135431e-01
7.803779e-02
-2.309143e-01
-2.554077e-01
-1.481956e-02
-4.422659e-01
-2.263804e-01
1.088592e-01
2.538370e-01
-5.216747e-02
-1.791781e-01
1.677649e-01
6.266521e-02
1.417333e-01
4.748226e-01
-1.317084e-01
5.031274e-02
-2.641426e-03
4.798080e-02
4.948574e-02
2.055649e-01
4.041906e-02
1.330303e-01
1.887101e-04
-8.142437e-02
7.632989e-02
-6.651939e-02
1.002279e-02
3.240586e-02
1.748736e-02
8.466972e-02
-1.023299e-01
-5.890471e-01
3.833225e-02
5.947573e-02
1.930598e-01
9.088024e-04
-1.961717e-02
-6.654585e-02
-9.859327e-02
-4.118917e-02
1.312417e-01
-3.400834e-01
-7.250296e-02
9.474588e-02
6.070093e-03
6.201034e-02
2.969484e-02
6.919889e-03
8.986535e-02
1.833964e-01
2.362955e-02
7.949714e-03
-3.826491e-03
-6.372213e-02
-5.260196e-03
-3.681725e-02
-2.221711e-02
5.763459e-04
-2.399697e-02
6.491327e-03
-1.468261e-02
-3.231101e-02
7.791457e-03
-3.217033e-02
-1.208115e-01
-1.331340e-01
5.494046e-02
-1.581384e-01
-4.303860e-02
-2.257098e-02
-2.347687e-02
-7.818785e-02
-1.850731e-01
-7.554365e-02
7.001168e-02
-1.207162e-01
4.165034e-03
1.169605e-01
-5.648230e-02
1.267225e-02
5.614119e-02
-2.938832e-02
-5.831070e-02
-9.539643e-02
5.496309e-02
-6.981849e-03
-5.190881e-02
6.102503e-02
4.650712e-02
3.780072e-02
-1.403683e-01
-1.557401e-01
-1.351294e-01
-1.195701e-01
-8.854250e-02
-2.242628e-02
-3.136894e-02
-1.490230e-02
6.150654e-02
-1.687822e-01
-3.563922e-02
-9.731158e-02
-7.886335e-02
-1.491604e-01
-3.181638e-03
-1.736469e-01
-1.955179e-01
-6.498017e-02
-4.257249e-02
1.128745e-01
-1.993513e-02
7.586022e-02
1.399509e-01
-2.422913e-01
4.637061e-02
-1.598984e-02
-1.770641e-01
-1.793544e-01
-2.999236e-01
-1.491565e-01
-2.384902e-01
-5.534704e-02
-3.945282e-02
1.056392e-01
1.712402e-01
7.256187e-02
8.700667e-02
2.640059e-02
-7.713243e-02
1.742444e-01
1.029232e-01
-5.227755e-02
1.647310e-01
8.236577e-02
-1.321309e-01
-8.010494e-02
1.039919e-01
7.661790e-02
-1.316344e-01
-2.044514e-01
-4.475434e-02
-7.414063e-03
-3.857931e-02
-4.792275e-02
-1.483728e-01
-2.390842e-01
1.295532e-01
-1.653044e-01
-6.982796e-02
5.581282e-02
-1.137282e-01
-1.189662e-01
-1.727838e-01
1.736241e-01
1.966755e-02
-1.313865e-01
2.929783e-01
-1.685559e-01
-5.735134e-02
4.090814e-02
-3.543185e-03
2.228381e-02
-1.976891e-01
-3.437987e-01
-1.471696e-01
-4.468555e-01
-5.652056e-01
-4.304136e-01
-1.088601e-01
-9.658900e-02
-2.182820e-01
-9.016704e-02
-1.571579e-01
-7.983206e-02
-3.093692e-02
-9.934534e-03
-2.184279e-01
1.863056e-01
-7.087845e-02
-1.064973e-01
5.858417e-03
-2.427836e-01
-2.306933e-01
3.117128e-02
-2.275433e-01
-1.196034e-01
-9.504549e-02
-1.224337e-01
-1.932189e-01
1.817793e-02
1.060576e-02
3.464442e-02
-4.954878e-02
-1.364845e-01
-6.634472e-02
-6.778958e-02
-1.684960e-01
-1.312470e-01
-2.860898e-02
-2.987794e-02
1.342411e-02
-2.215109e-02
-1.572908e-02
1.969094e-02
1.104245e-02
1.612514e-02
2.911997e-02
-3.227376e-01
-3.173162e-01
-1.774735e-01
-1.084586e-01
1.315231e-02
5.086181e-02
8.164207e-02
1.991281e-01
1.758553e-01
2.753300e-02
6.311736e-02
7.690799e-02
-1.590808e-02
-1.040917e-02
-1.052859e-02
8.047096e-03
1.640409e-02
1.970727e-02
-4.520761e-02
-4.751247e-02
-1.692951e-02
-7.929852e-02
-5.687180e-02
-2.683487e-02
-7.502831e-02
-6.328747e-02
-5.058942e-02
-8.858497e-02
-2.104773e-01
-3.293305e-02
-1.830833e-01
-3.551092e-01
-8.059297e-02
-8.216587e-02
-6.707592e-02
1.113754e-01
-1.882776e-02
-3.373166e-02
-8.555052e-02
2.754693e-02
-1.148181e-02
-1.198647e-01
3.266768e-02
1.713140e-01
2.611229e-02
-1.139958e-01
6.259280e-02
8.640052e-02
-9.224748e-03
1.324816e-01
1.002780e-01
-4.536239e-02
-1.707729e-01
-6.583036e-03
2.366194e-01
-5.715414e-02
-8.698868e-02
1.494845e-02
-3.482302e-01
-2.085073e-01
-1.274062e-01
-6.434478e-01
-2.385293e-01
4.486354e-02
5.338867e-02
-6.365271e-04
1.166529e-01
1.234851e-01
1.988608e-02
3.187441e-03
-6.247627e-02
-1.237089e-01
3.205852e-02
3.331920e-02
3.602800e-02
5.296442e-03
-1.235555e-03
-1.481802e-02
-1.035216e-01
7.873320e-04
1.475949e-02
-1.062060e-02
1.599895e-01
-1.258381e-02
-6.160247e-02
1.960248e-01
7.050062e-02
1.124405e-01
4.345448e-02
-2.433415e-01
1.602077e-01
-5.428473e-02
-4.980098e-02
-8.272143e-02
-2.492425e-01
-2.069474e-01
-9.765176e-02
1.225688e-01
-2.823276e-02
1.900169e-01
5.832689e-02
-2.900014e-02
-2.617091e-02
-3.211738e-02
-1.917022e-01
-2.650983e-02
-7.377117e-03
-1.170582e-01
-1.457538e-02
-2.094198e-02
-2.172997e-01
2.106192e-01
2.186308e-01
4.130138e-02
1.952857e-01
-2.740522e-02
4.239692e-02
1.618406e-01
3.351519e-02
-7.407375e-02
1.010508e-02
-1.494257e-01
-3.849755e-02
-3.039079e-02
3.177575e-02
-2.031632e-01
-7.829160e-02
-3.216231e-02
3.203917e-02
-7.648761e-02
-6.275821e-02
-3.609585e-02
-8.649869e-02
1.314686e-02
5.342088e-02
3.606065e-02
3.895001e-02
4.315799e-02
6.478650e-03
2.834424e-03
9.585367e-04
1.233410e-02
5.179168e-03
-1.486675e-03
-4.766404e-02
1.380293e-02
8.934493e-03
-4.409444e-02
5.432246e-02
7.235488e-02
8.259066e-03
2.623663e-02
7.084364e-02
