-1.801631e-05
-1.150820e-04
-1.652249e-04
4.586663e-05
-9.841627e-05
-1.860930e-04
2.068535e-04
4.560270e-05
-4.748355e-05
2.201480e-06
-1.244991e-04
-1.773795e-04
5.911116e-05
-1.161675e-04
-2.128609e-04
2.178081e-04
2.468244e-05
-7.483437e-05
9.664492e-06
1.351375e-04
1.993749e-04
-5.910063e-05
1.139221e-04
2.242696e-04
-2.217916e-04
-2.517645e-05
9.237134e-05
7.149777e-06
-1.299310e-04
-1.999906e-04
7.104473e-05
-1.159514e-04
-2.339245e-04
2.311445e-04
2.394429e-05
-9.642758e-05
-2.839657e-03
-1.008753e-04
5.016081e-03
-4.440140e-03
-2.184810e-03
3.688585e-03
-4.740142e-03
-2.001902e-03
3.970472e-03
-6.628220e-08
-2.883380e-08
-1.240421e-07
-2.828356e-07
-3.178210e-07
-4.134273e-07
1.449672e-08
-2.293587e-08
-1.624450e-07
1.436355e-05
2.587124e-05
5.155768e-05
-6.451478e-06
1.380048e-05
4.618612e-05
-3.922833e-05
-1.476562e-05
2.016961e-05
-1.713700e-05
-1.001247e-04
-1.137493e-04
2.584821e-05
-9.500933e-05
-1.368934e-04
1.693238e-04
3.945860e-05
-8.164277e-06
6.302993e-06
8.369154e-06
2.215483e-05
-2.391458e-06
2.909188e-06
1.943231e-05
-1.414167e-05
-8.000105e-06
9.383777e-06
8.901175e-06
9.779037e-06
2.362362e-05
3.226753e-07
4.718670e-06
2.155042e-05
-1.086412e-05
-5.256137e-06
1.279362e-05
-8.144945e-09
-1.039452e-08
-5.643109e-08
-4.265882e-08
-4.893239e-08
-9.666164e-08
1.941628e-08
4.051288e-08
4.895291e-09
-2.262750e-05
-9.895878e-05
-1.421938e-04
3.275360e-05
-7.881394e-05
-1.534367e-04
1.585611e-04
3.055677e-05
-5.145915e-05
1.732217e-05
3.692942e-05
6.406700e-05
-5.869666e-06
2.286075e-05
5.812500e-05
-4.382790e-05
-1.124598e-05
2.700440e-05
1.356429e-09
5.049116e-09
1.223595e-08
8.040629e-09
2.431176e-09
3.506197e-09
-5.487855e-09
-5.328237e-09
-8.415434e-09
6.608984e-06
1.520194e-05
4.275972e-05
-1.361379e-05
1.325750e-06
3.469405e-05
-3.815669e-05
-2.140395e-05
1.326149e-05
-3.012565e-06
-2.332184e-06
-8.018922e-06
-8.255157e-07
-1.938553e-06
-8.786965e-06
4.318195e-06
2.468092e-06
-4.968502e-06
-2.624991e-05
6.795228e-05
-4.519727e-07
-4.119296e-05
1.127637e-04
7.761351e-05
-2.298410e-04
-6.252051e-05
-8.868948e-05
1.860923e-05
1.062056e-04
1.659527e-04
-4.707096e-05
7.968223e-05
1.767563e-04
-1.816386e-04
-3.377059e-05
7.157333e-05
-3.582719e-05
-1.867945e-04
-5.002690e-05
-2.576069e-05
-2.193628e-04
-1.271453e-04
2.071639e-04
-1.988573e-06
6.694967e-05
2.244218e-04
9.199144e-03
-2.635411e-03
8.168569e-03
1.857187e-02
8.434453e-03
4.368618e-03
1.592054e-02
3.985844e-03
-1.379496e-05
-1.112613e-04
-1.395152e-04
3.743835e-05
-1.039562e-04
-1.661138e-04
1.946094e-04
3.791506e-05
-3.014806e-05
-9.981133e-06
-1.049564e-04
-1.294205e-04
3.894057e-05
-9.941720e-05
-1.561700e-04
1.939225e-04
4.421928e-05
-1.782600e-05
-2.160465e-05
-5.228640e-05
-9.114596e-05
4.160688e-06
-4.071776e-05
-9.234908e-05
4.848237e-05
-2.853949e-06
-5.809511e-05
-1.742211e-09
2.337815e-10
1.231551e-09
-2.576794e-09
-1.855817e-09
-3.390847e-09
-9.799650e-10
3.558508e-09
2.229797e-09
8.927637e-06
-1.403950e-04
-1.736634e-04
5.899920e-05
-1.404906e-04
-2.217582e-04
2.347386e-04
1.752953e-05
-6.810518e-05
-1.165222e-05
-1.119461e-04
-1.668271e-04
4.641188e-05
-9.697599e-05
-1.888362e-04
1.884780e-04
2.915484e-05
-6.604412e-05
3.850243e-05
2.328273e-04
1.434192e-04
1.826399e-05
2.436979e-04
2.001234e-04
-2.114960e-04
3.220853e-05
3.854330e-06
5.748317e-06
5.598167e-06
1.628975e-05
-7.191977e-08
2.545553e-06
1.529313e-05
-8.105430e-06
-4.519090e-06
8.809507e-06
-1.106102e-05
-7.386842e-05
-1.252841e-04
4.390207e-05
-4.465278e-05
-1.222177e-04
1.426858e-04
4.084991e-05
-4.395796e-05
9.559080e-07
-1.240061e-04
-1.717621e-04
5.559031e-05
-1.153114e-04
-2.051492e-04
2.130546e-04
2.440806e-05
-7.006231e-05
-1.760377e-05
-1.162232e-04
-2.050133e-04
7.392038e-05
-7.877122e-05
-2.158972e-04
2.389075e-04
6.232049e-05
-8.059781e-05
3.120627e-05
9.472336e-05
1.137000e-04
-3.021252e-05
7.685825e-05
1.263807e-04
-1.902507e-04
-6.871197e-05
-1.278921e-05
3.111753e-05
-1.683832e-05
-3.438220e-05
-9.856636e-06
-8.355862e-05
-9.441305e-05
1.373095e-04
6.036405e-05
4.130522e-05
4.628561e-05
-1.642136e-05
-4.145757e-05
-4.852656e-06
-9.450722e-05
-1.169066e-04
1.366237e-04
4.501675e-05
2.444681e-05
-3.704644e-05
2.668097e-05
5.527190e-05
8.876592e-06
1.003425e-04
1.266942e-04
-1.332433e-04
-3.807626e-05
-1.183158e-05
4.802149e-05
-2.082365e-05
-5.188755e-05
-2.207976e-06
-9.926668e-05
-1.285220e-04
1.417240e-04
4.188498e-05
1.491271e-05
-9.046964e-04
5.090673e-04
2.587687e-03
-1.603407e-03
-6.995702e-04
1.662340e-03
-1.466461e-03
-4.818572e-04
1.676744e-03
1.015076e-07
9.425393e-08
1.518814e-07
-2.214655e-07
-2.952748e-07
-2.228475e-07
2.041881e-07
1.437857e-07
1.557371e-07
-6.443608e-06
2.469532e-06
1.140179e-05
1.048045e-06
1.709126e-05
2.685105e-05
-3.210935e-05
-1.628598e-05
-2.456387e-06
3.146308e-05
-7.642654e-06
-1.431072e-05
-1.075162e-05
-7.020809e-05
-6.879299e-05
1.171112e-04
5.889307e-05
5.361968e-05
-3.710561e-06
-2.566789e-07
4.290853e-06
-9.427685e-07
5.089066e-06
1.063232e-05
-1.399108e-05
-8.808588e-06
-1.436524e-06
-1.536094e-06
1.123667e-06
5.590867e-06
1.231844e-06
6.575379e-06
1.214458e-05
-1.167514e-05
-6.893838e-06
8.387968e-07
1.881641e-08
1.661459e-08
5.762636e-09
-3.895542e-08
-5.172429e-08
-6.442755e-08
5.297583e-08
6.995953e-08
5.802591e-08
1.998537e-05
-1.955230e-05
-3.573479e-05
-1.253982e-05
-7.326835e-05
-8.707098e-05
1.000440e-04
3.691214e-05
1.795382e-05
-6.383711e-06
6.785730e-06
1.704212e-05
1.831818e-06
2.261613e-05
3.381895e-05
-3.527887e-05
-1.552143e-05
-7.776349e-07
3.547527e-09
1.586981e-09
-4.311484e-09
4.740973e-09
1.849673e-09
9.281963e-09
-7.773500e-09
-3.236361e-09
-1.281747e-08
-9.317819e-06
-8.640216e-07
8.537389e-06
-6.193133e-06
7.382795e-06
1.829306e-05
-3.113882e-05
-1.877844e-05
-4.826201e-06
1.608842e-06
7.156526e-07
-8.847251e-07
-7.807325e-07
-2.906633e-06
-5.018935e-06
5.471874e-06
3.542187e-06
4.611391e-07
-7.686226e-05
-3.545376e-05
-6.666239e-05
-1.353084e-05
5.224039e-05
1.688608e-05
-1.824477e-04
-1.126709e-04
-1.329665e-04
-2.439961e-05
2.224321e-05
4.450714e-05
9.099029e-06
7.936986e-05
9.983542e-05
-1.112778e-04
-3.690626e-05
-1.118889e-05
6.521240e-05
-7.053069e-07
2.809582e-05
-2.767503e-05
-1.172406e-04
-8.664140e-05
1.398818e-04
5.616960e-05
1.012308e-04
-1.566109e-03
1.758829e-03
-3.681992e-03
2.162442e-03
6.575547e-03
2.112040e-03
-1.044435e-04
4.055562e-03
-1.301624e-03
3.547956e-05
-1.211894e-05
-2.492325e-05
-1.101311e-05
-8.259496e-05
-8.866777e-05
1.274945e-04
5.476311e-05
4.495520e-05
3.747829e-05
-7.993681e-06
-1.942262e-05
-7.344300e-06
-7.580895e-05
-7.951442e-05
1.306239e-04
6.256135e-05
5.290232e-05
4.970307e-06
-1.444058e-05
-2.979908e-05
-6.985348e-06
-3.693668e-05
-5.460659e-05
3.764286e-05
8.337657e-06
-1.345383e-05
-8.237730e-11
1.780520e-09
1.210432e-09
-2.355208e-09
-1.895158e-09
-1.356746e-09
1.136434e-09
2.032442e-09
-6.605770e-10
5.867193e-05
-1.349977e-05
-3.694500e-05
-4.295250e-06
-1.037341e-04
-1.261182e-04
1.451485e-04
4.527565e-05
3.046901e-05
3.104658e-05
-1.996554e-05
-4.159495e-05
-9.106713e-06
-8.439639e-05
-1.021967e-04
1.208289e-04
4.361608e-05
2.271103e-05
-6.440818e-05
2.882203e-05
2.297720e-05
2.779147e-05
1.447555e-04
1.299756e-04
-1.373241e-04
-3.353288e-05
-6.922018e-05
-2.079660e-06
-3.947457e-07
3.181319e-06
5.675539e-07
4.335264e-06
8.698472e-06
-8.941093e-06
-5.560615e-06
8.021863e-08
2.412604e-05
-1.213371e-05
-2.973953e-05
3.711904e-06
-5.058746e-05
-6.844138e-05
9.292428e-05
3.780675e-05
1.383067e-05
4.469468e-05
-1.744160e-05
-4.113037e-05
-5.090995e-06
-9.310695e-05
-1.136484e-04
1.325639e-04
4.307526e-05
2.425428e-05
2.906062e-05
-2.116887e-05
-4.810236e-05
-4.750293e-06
-8.711778e-05
-1.089429e-04
1.523822e-04
6.275980e-05
2.869597e-05
-2.357932e-05
5.276718e-06
7.040760e-06
1.562287e-05
6.857287e-05
6.167575e-05
-1.308943e-04
-7.442856e-05
-6.967652e-05
-1.038702e-05
-6.261352e-05
-9.270288e-05
3.624658e-05
-3.348787e-05
-8.694103e-05
1.207815e-04
4.427695e-05
-1.105667e-05
1.699160e-06
-6.871270e-05
-1.025865e-04
4.463117e-05
-4.113480e-05
-1.019624e-04
1.276808e-04
3.490805e-05
-2.459559e-05
4.309850e-06
7.337632e-05
1.136627e-04
-4.434457e-05
3.872930e-05
1.068683e-04
-1.285438e-04
-3.516213e-05
3.374106e-05
4.271709e-06
-7.152150e-05
-1.148659e-04
5.076229e-05
-4.001880e-05
-1.124953e-04
1.338493e-04
3.505815e-05
-3.569886e-05
-1.755012e-03
-1.088159e-04
2.583245e-03
-2.387771e-03
-1.222654e-03
1.882994e-03
-2.486386e-03
-1.077171e-03
2.154529e-03
-1.291014e-08
-2.440913e-09
-4.815299e-08
-1.478756e-07
-1.651536e-07
-2.209935e-07
2.545720e-08
3.742196e-09
-8.252243e-08
7.173238e-06
1.323795e-05
2.760150e-05
-6.295481e-06
2.543776e-06
2.124528e-05
-2.340568e-05
-1.265972e-05
7.329927e-06
-8.600340e-06
-5.400329e-05
-6.456510e-05
2.630490e-05
-3.345123e-05
-6.231914e-05
1.017783e-04
3.926779e-05
8.521198e-06
3.019841e-06
4.130202e-06
1.165425e-05
-2.401090e-06
-2.251917e-07
9.121113e-06
-8.597133e-06
-6.191562e-06
3.682929e-06
4.344186e-06
4.734291e-06
1.231410e-05
-8.984423e-07
7.886316e-07
1.025818e-05
-6.706785e-06
-4.619759e-06
5.572279e-06
-5.798793e-09
-1.229194e-08
-4.459457e-08
-3.222759e-08
-2.514979e-08
-6.646300e-08
2.358773e-08
5.032419e-08
2.412628e-08
-1.164320e-05
-5.312482e-05
-8.002258e-05
2.775231e-05
-2.529178e-05
-7.165869e-05
9.256167e-05
3.264674e-05
-1.629327e-05
8.643984e-06
1.916777e-05
3.458128e-05
-6.882812e-06
6.089849e-06
2.679663e-05
-2.643818e-05
-1.183226e-05
1.021281e-05
3.458206e-09
3.484226e-09
8.220688e-09
4.469668e-09
7.990523e-09
7.044619e-09
-2.301026e-09
-2.481579e-09
-5.478370e-09
3.429867e-06
7.599526e-06
2.271943e-05
-8.683140e-06
-2.650280e-06
1.606952e-05
-2.143961e-05
-1.485990e-05
4.641813e-06
-1.265734e-06
-9.824794e-07
-4.113423e-06
6.455319e-08
-4.341865e-07
-4.289178e-06
2.960667e-06
2.190355e-06
-2.074760e-06
-1.206962e-05
4.256345e-05
9.545691e-06
-3.550156e-05
4.689000e-05
3.641429e-05
-1.386882e-04
-5.424441e-05
-6.273438e-05
9.547520e-06
5.674293e-05
9.296262e-05
-3.552601e-05
2.409097e-05
8.275815e-05
-1.044489e-04
-3.574535e-05
2.574532e-05
-1.734027e-05
-1.064019e-04
-4.429977e-05
7.402290e-06
-9.100177e-05
-6.015279e-05
1.309083e-04
2.623245e-05
5.747220e-05
2.258716e-04
5.465641e-03
-9.021982e-04
3.604650e-03
9.116862e-03
4.038659e-03
2.056555e-03
7.986017e-03
1.630190e-03
-7.247063e-06
-6.095713e-05
-8.029278e-05
3.228090e-05
-3.673485e-05
-7.779049e-05
1.156137e-04
3.998260e-05
-2.005127e-06
-5.109664e-06
-5.719289e-05
-7.392512e-05
3.361241e-05
-3.481560e-05
-7.220531e-05
1.153078e-04
4.300502e-05
4.182193e-06
-1.033180e-05
-2.694903e-05
-4.902283e-05
7.146739e-06
-1.352366e-05
-4.341455e-05
2.976500e-05
6.142103e-06
-2.523449e-05
-1.362134e-09
-2.284742e-09
-1.967602e-10
-2.508350e-09
-3.261703e-09
-2.746758e-09
-1.082846e-09
-1.641091e-09
-4.809652e-10
6.697579e-06
-7.772061e-05
-1.030999e-04
4.729521e-05
-5.178505e-05
-1.068745e-04
1.390537e-04
3.314668e-05
-1.919342e-05
-6.400846e-06
-6.114067e-05
-9.451613e-05
3.597248e-05
-3.316108e-05
-8.942078e-05
1.101441e-04
3.464049e-05
-2.181403e-05
2.098142e-05
1.310841e-04
9.490881e-05
-9.579448e-06
1.000410e-04
9.667143e-05
-1.294294e-04
-1.034227e-05
-2.030048e-05
2.665589e-06
2.602779e-06
8.462408e-06
-7.817723e-07
1.924424e-07
7.294218e-06
-5.132076e-06
-3.808833e-06
3.694312e-06
-5.643155e-06
-3.884723e-05
-6.937493e-05
3.054807e-05
-9.945780e-06
-5.657701e-05
8.055640e-05
3.452738e-05
-1.493782e-05
1.384568e-06
-6.806429e-05
-9.921139e-05
4.286975e-05
-4.059457e-05
-9.782807e-05
1.250540e-04
3.440370e-05
-2.215546e-05
-1.151522e-05
-6.344292e-05
-1.144204e-04
4.951831e-05
-2.250677e-05
-1.024283e-04
1.340413e-04
5.320674e-05
-2.964567e-05
1.866131e-05
5.191291e-05
6.476192e-05
-2.706233e-05
2.446834e-05
5.731092e-05
-1.111620e-04
-5.426920e-05
-1.874074e-05
-3.674868e-06
2.085094e-05
-8.617743e-07
3.290150e-05
3.621901e-05
-5.057422e-06
-2.458334e-05
-5.612917e-05
-9.795187e-05
2.409870e-06
2.770267e-05
3.306671e-06
3.750106e-05
3.723341e-05
-1.259860e-05
-3.698601e-05
-7.533989e-05
-1.238287e-04
1.270524e-06
-2.582524e-05
-4.096813e-06
-3.385778e-05
-3.593418e-05
1.344963e-05
4.409964e-05
7.842655e-05
1.321081e-04
-6.166572e-07
2.724443e-05
1.726068e-06
3.637560e-05
3.913765e-05
-1.460047e-05
-4.203957e-05
-7.845421e-05
-1.319078e-04
-1.467243e-04
-8.080429e-04
9.011362e-04
1.205452e-04
-1.085744e-03
9.393889e-04
1.272447e-04
-8.258545e-04
9.994794e-04
4.317017e-08
3.189697e-08
5.673282e-09
-2.880503e-08
-6.865253e-08
-1.008811e-07
3.127818e-08
-1.350790e-08
-3.468181e-08
-3.432019e-07
-5.921689e-06
-1.571428e-06
-6.243255e-06
-5.854224e-06
3.862342e-07
9.910282e-06
1.755936e-05
2.373352e-05
5.049527e-06
2.518051e-05
4.166722e-06
3.397521e-05
3.232659e-05
-2.517412e-06
-1.601305e-05
-4.820763e-05
-8.022631e-05
-7.765162e-07
-2.617711e-06
-3.274057e-07
-2.227024e-06
-2.019883e-06
5.970346e-07
1.639179e-06
3.829311e-06
6.148972e-06
2.892346e-07
-1.810945e-06
3.542197e-07
-1.169320e-06
-1.300117e-06
1.303768e-06
2.631563e-06
4.629083e-06
7.186619e-06
3.078225e-08
2.585426e-08
-3.784926e-10
9.028661e-09
7.365208e-10
-2.005437e-08
2.867387e-08
3.875018e-08
2.841859e-08
-4.808024e-06
1.794762e-05
2.620940e-06
2.115545e-05
2.517847e-05
-5.374490e-06
-3.333011e-05
-5.854768e-05
-9.059552e-05
-2.477398e-06
-9.153533e-06
-3.416906e-06
-8.255673e-06
-7.472278e-06
8.588661e-07
1.358117e-05
2.269963e-05
3.096148e-05
-3.796527e-09
7.087068e-09
-3.856502e-09
1.338074e-09
8.881935e-09
2.403826e-09
-3.441146e-09
1.363839e-08
-2.517711e-09
-3.788896e-07
-3.708918e-06
4.390162e-07
-5.114857e-06
-5.186113e-06
1.261559e-07
3.476115e-06
7.394296e-06
1.207965e-05
-7.942651e-08
7.787119e-07
-1.251142e-07
4.934423e-08
3.581361e-08
-9.660873e-07
-5.153275e-07
-1.341268e-06
-2.299834e-06
-3.229006e-05
-4.410847e-05
-2.242758e-05
-7.036886e-05
-4.946849e-05
-1.973345e-05
-1.631948e-05
4.170048e-05
7.494530e-05
7.423463e-06
-1.805465e-05
-1.426611e-06
-2.202346e-05
-2.799062e-05
7.285797e-06
3.907415e-05
6.390890e-05
1.033743e-04
4.563634e-05
5.411010e-05
4.157795e-05
7.655188e-05
2.559680e-05
-1.799365e-05
-3.089642e-05
-1.170908e-04
-1.647228e-04
-2.226748e-03
-7.465235e-04
-6.109119e-04
-2.971589e-03
1.341372e-03
2.397038e-03
-1.890722e-03
3.450515e-03
5.202231e-03
4.847806e-06
2.691595e-05
7.068817e-06
3.704795e-05
3.439689e-05
-4.575438e-06
-2.501025e-05
-6.089662e-05
-9.980010e-05
5.621238e-06
2.718893e-05
4.464941e-06
3.758504e-05
3.588768e-05
-3.649515e-06
-1.783089e-05
-5.233844e-05
-9.001129e-05
2.533958e-06
1.174549e-05
3.100145e-06
9.360617e-06
9.118733e-06
-5.414601e-06
-2.489324e-05
-3.666015e-05
-5.150239e-05
2.188032e-09
-4.806178e-09
-2.762351e-09
1.360703e-09
6.716952e-10
-3.770050e-09
-1.438403e-09
-3.605478e-11
-3.969468e-09
1.175202e-05
3.565779e-05
9.334934e-06
4.679484e-05
3.949616e-05
-1.747418e-05
-3.939357e-05
-8.697252e-05
-1.420283e-04
-2.873551e-06
2.230662e-05
8.325243e-07
2.880354e-05
3.308670e-05
-7.696793e-06
-3.384315e-05
-6.355082e-05
-1.033743e-04
-3.375036e-05
-4.610692e-05
-3.686863e-05
-6.846227e-05
-2.029971e-05
3.599500e-05
5.156208e-05
1.351360e-04
1.931841e-04
-2.722321e-08
-1.547434e-06
1.582348e-07
-9.441903e-07
-8.578500e-07
1.092110e-06
1.435774e-06
2.912612e-06
4.818082e-06
-5.067583e-06
1.269233e-05
6.132614e-07
1.659146e-05
2.012874e-05
-3.432175e-06
-2.714800e-05
-4.507139e-05
-6.985056e-05
5.175645e-06
2.911544e-05
6.909138e-06
3.811553e-05
3.642033e-05
-1.118065e-05
-3.559601e-05
-7.328929e-05
-1.215565e-04
-2.356234e-05
9.373774e-06
-1.356571e-05
2.283949e-05
3.676369e-05
-6.694813e-06
-3.394465e-05
-5.917212e-05
-1.046680e-04
7.786151e-06
-1.366923e-05
3.029454e-06
-3.029392e-05
-3.031889e-05
-8.213410e-07
1.377742e-05
4.662413e-05
7.554339e-05
-4.335007e-08
-1.079529e-07
-2.466802e-07
-1.187446e-07
-1.363776e-07
-2.017961e-08
-1.844920e-07
-2.441980e-07
-1.191706e-07
-1.122246e-07
-5.306219e-08
1.876689e-08
-1.273367e-07
-1.503442e-07
-4.037778e-08
-1.206275e-07
-1.752436e-07
-4.803324e-09
-1.854754e-08
1.898233e-07
2.492482e-07
-6.323423e-08
-1.201347e-07
5.189774e-08
-2.821169e-08
-1.729230e-07
-9.276604e-08
4.636886e-09
-8.964626e-08
-1.204219e-07
-7.763965e-08
-1.770399e-07
-1.577451e-07
-3.638608e-08
-1.919545e-07
-6.640057e-08
-9.911238e-08
-2.386853e-06
1.716505e-07
-5.640055e-07
-3.963965e-07
9.876679e-07
-6.474306e-07
-9.844921e-07
-1.261403e-07
-7.675188e-09
-4.333143e-08
-4.775308e-08
1.849572e-08
2.119436e-08
-2.878671e-08
-2.437327e-08
-3.131388e-08
-2.283032e-08
-3.277511e-10
-3.239301e-08
-3.729695e-08
-3.961928e-08
-5.871891e-08
-5.626574e-08
-3.836229e-08
-1.091201e-07
-2.972683e-08
3.021765e-08
-2.235341e-07
-3.306826e-07
-8.106058e-08
-1.704204e-07
-1.591296e-07
-1.222000e-07
-3.888834e-07
-1.895530e-07
4.990657e-09
1.563146e-08
1.661181e-08
1.308101e-07
1.137567e-07
3.665162e-08
-9.270503e-08
1.532920e-07
-4.202448e-09
9.289893e-09
1.111783e-08
-5.948101e-09
8.980662e-09
3.236005e-08
2.912698e-08
-2.792318e-09
3.810301e-09
1.739889e-08
-2.083862e-08
1.468310e-08
-3.352358e-08
6.953570e-08
6.645094e-09
-3.507963e-08
8.380351e-08
-1.570826e-09
-1.181601e-08
-3.137459e-08
4.209826e-08
1.078352e-07
-1.328740e-07
-1.099310e-07
-1.036836e-08
-6.143279e-08
-1.764295e-07
-6.554381e-08
3.178253e-08
2.449328e-08
8.526177e-08
5.831267e-08
1.473120e-07
1.133071e-07
9.680974e-08
1.331601e-07
7.385811e-08
-1.933535e-09
-4.370746e-09
-4.073044e-09
-2.033560e-08
1.193105e-08
6.151743e-09
1.095746e-09
1.428828e-08
1.142740e-08
1.819648e-07
5.575655e-08
-3.544828e-07
-2.474079e-07
2.249669e-07
-2.358944e-07
2.694626e-07
1.073592e-07
8.492394e-09
-1.631616e-08
7.219602e-09
-1.445092e-08
-8.816549e-09
-2.594540e-08
2.672404e-09
-8.135146e-09
-3.640171e-08
3.411977e-09
1.981440e-07
-1.343211e-07
-1.021143e-07
-4.617243e-08
3.077486e-08
2.133036e-07
1.127555e-07
1.996114e-07
3.701660e-07
9.163617e-08
1.221582e-07
1.277617e-07
9.509449e-08
8.444737e-08
2.098804e-07
5.629795e-08
1.529792e-08
-4.877437e-09
-6.984290e-08
-2.209510e-07
-4.533269e-07
-1.820875e-07
-3.491744e-07
-3.116490e-07
-4.102591e-08
-3.315546e-07
-1.284435e-07
-2.913452e-06
1.753378e-06
-1.895408e-07
-2.169829e-06
-2.107273e-06
-9.919637e-07
-6.388406e-07
-2.131853e-06
-1.357639e-06
-7.591948e-08
-4.245188e-08
-8.628315e-08
-9.901584e-09
5.652258e-08
-3.961214e-08
-5.009705e-07
-7.308253e-07
-4.400674e-07
-7.199612e-09
-1.585464e-07
-2.322540e-07
-8.682883e-08
-1.177957e-07
-6.675000e-08
-1.343712e-07
-2.479237e-07
-1.152192e-07
-1.248147e-08
-2.750058e-09
-1.093882e-09
-2.797506e-08
-3.605833e-08
-2.193060e-08
-2.813330e-08
-2.665195e-08
2.795665e-11
-3.608368e-10
4.454451e-09
-2.071638e-09
8.457197e-09
-3.201750e-10
6.297941e-10
-1.012473e-08
-8.297498e-09
1.229695e-08
-1.221230e-07
-1.729861e-07
-1.467253e-07
-1.706932e-07
-3.112423e-07
-1.330825e-07
-1.132996e-07
-1.964458e-07
-8.138755e-09
-4.623349e-08
7.926428e-09
1.305377e-08
-9.494139e-08
-4.419236e-08
4.340321e-08
-1.054791e-07
-1.009589e-07
4.252087e-08
2.334088e-07
3.052491e-07
3.195768e-07
1.418315e-07
3.172894e-07
2.259159e-07
9.109825e-08
3.927317e-08
1.093051e-08
2.491061e-08
-1.125926e-08
-3.736437e-08
3.604029e-08
2.135034e-08
-1.382633e-08
2.380089e-08
1.854764e-08
1.739728e-08
-4.621246e-08
-2.038991e-08
-1.697473e-09
-3.558937e-08
-3.226894e-08
-1.686479e-08
-8.221133e-09
-1.529268e-08
-1.688568e-09
-6.349095e-08
-2.721229e-07
-3.085109e-07
-1.423371e-07
-3.093224e-07
-1.742851e-07
-7.641597e-08
-2.168842e-07
-4.051138e-08
-4.076711e-09
-1.103577e-08
-2.305172e-07
-8.943547e-08
-8.132771e-08
-5.060134e-08
-1.305541e-07
-1.497298e-07
-1.309321e-07
8.159255e-08
1.122749e-07
5.088125e-08
1.575191e-08
-1.123032e-08
2.732953e-08
6.198228e-08
-1.011821e-07
4.855258e-08
-6.069608e-06
8.020977e-06
3.466888e-05
-6.054836e-06
-1.542122e-05
1.112179e-05
1.341480e-05
-1.077075e-05
5.590362e-06
-3.467400e-06
1.031001e-05
3.116547e-05
-6.832054e-06
-1.705594e-05
4.901097e-06
6.755372e-06
-2.251853e-05
-4.906805e-06
7.004399e-06
-4.958943e-06
-2.636465e-05
6.593838e-06
1.711162e-05
-1.593461e-07
-6.612109e-06
2.260568e-05
9.397336e-06
-4.286324e-06
8.412856e-06
2.968245e-05
-5.631749e-06
-1.807766e-05
1.940409e-06
6.831649e-06
-2.443156e-05
-8.245298e-06
-5.200417e-04
3.110632e-04
5.654922e-04
-7.286960e-04
3.213316e-04
4.719218e-04
-2.124727e-04
4.086301e-04
5.803003e-04
-4.112653e-08
3.193182e-08
6.983872e-08
-8.786711e-08
-5.520468e-08
-3.870034e-08
3.745611e-08
7.215517e-08
6.222221e-08
1.553053e-06
-1.594311e-06
-5.746093e-06
6.806061e-07
1.105767e-06
-6.234042e-07
-3.733166e-06
-1.602461e-06
-8.374940e-07
-9.342277e-07
1.160482e-05
3.662877e-05
-6.894600e-06
-1.340443e-05
1.686828e-05
1.070290e-05
-7.948811e-06
1.270857e-05
2.226042e-07
-1.602141e-06
-3.460825e-06
-7.577299e-07
-1.352765e-06
-1.620581e-06
-2.782597e-06
-3.017231e-06
-1.955797e-06
5.284534e-07
-1.249987e-06
-2.633099e-06
-3.117410e-07
-9.523888e-07
-1.029168e-06
-2.256666e-06
-2.594003e-06
-1.325097e-06
-2.845310e-09
1.412773e-08
1.476242e-08
-1.904129e-08
8.940992e-09
2.959119e-09
2.007565e-08
5.333225e-08
6.021806e-08
-7.741662e-06
4.501306e-06
2.299526e-05
-6.357839e-06
-1.127717e-05
3.643796e-06
6.360337e-06
-1.123006e-05
-2.290722e-06
2.206838e-06
-1.339661e-06
-6.714117e-06
1.260639e-06
1.704392e-06
-9.367304e-07
-3.276964e-06
-6.792533e-07
-6.046961e-07
-1.789013e-09
7.313004e-10
3.798108e-09
3.640312e-09
3.886635e-09
4.992057e-09
5.757381e-10
-3.415917e-09
-5.983744e-09
-5.983087e-08
-1.168920e-06
-4.808490e-06
-1.695134e-06
-5.493336e-07
-1.233992e-06
-4.714135e-06
-3.438389e-06
-1.871758e-06
-1.771199e-07
1.018916e-06
1.721700e-06
2.115751e-07
7.941796e-07
8.452350e-07
1.540702e-06
1.930076e-06
1.206662e-06
1.986082e-06
-3.371814e-05
-5.673867e-05
1.936934e-05
1.788319e-05
-3.851179e-05
-1.932607e-05
-8.711600e-07
-2.999666e-05
8.331271e-06
-2.885895e-06
-2.216843e-05
5.214294e-06
1.301185e-05
-5.453209e-07
-6.935139e-06
1.388842e-05
6.264769e-06
1.741418e-06
2.701687e-05
4.448941e-05
-2.750014e-05
-1.789074e-05
1.791962e-05
-6.820513e-06
-3.442085e-05
5.620794e-06
1.553306e-03
-6.412366e-04
-1.452670e-03
3.690053e-03
2.615521e-03
-3.061054e-04
3.318465e-03
3.604419e-03
5.879032e-04
-4.967485e-06
1.058959e-05
3.338383e-05
-8.177192e-06
-1.364082e-05
1.109882e-05
9.315299e-06
-1.383346e-05
3.595748e-06
-9.987073e-07
1.256873e-05
3.659336e-05
-6.257332e-06
-1.397579e-05
1.481530e-05
1.170199e-05
-1.055223e-05
9.399937e-06
-2.426035e-06
7.238064e-07
6.405398e-06
-1.830541e-06
-4.054248e-06
-2.099545e-06
1.663518e-06
-2.846523e-06
-3.450859e-06
-1.470338e-09
-2.029511e-09
-3.924774e-10
3.820874e-10
-2.393945e-09
-1.921044e-09
1.707696e-09
2.377207e-10
-1.631264e-09
9.449955e-07
1.395913e-05
3.188361e-05
-8.777904e-06
-1.965577e-05
3.569605e-06
3.305335e-06
-2.982946e-05
-7.165696e-06
-7.133535e-06
6.454973e-06
2.921710e-05
-5.981739e-06
-1.411796e-05
6.628703e-06
8.267541e-06
-1.502651e-05
-9.866283e-07
5.921936e-06
-1.352921e-05
-3.965898e-05
2.489924e-05
1.938114e-05
-4.710502e-06
7.996970e-06
3.834299e-05
6.986168e-06
1.914080e-07
-1.387952e-06
-2.516390e-06
-4.297733e-07
-1.138037e-06
-1.239523e-06
-2.053644e-06
-2.416697e-06
-1.460452e-06
-5.091676e-06
1.439579e-07
1.411868e-05
-1.941647e-06
-9.271287e-06
-1.672862e-06
7.043519e-06
-6.264702e-06
-3.182470e-06
-2.778422e-06
9.933850e-06
3.078727e-05
-6.389492e-06
-1.597408e-05
5.213233e-06
6.666059e-06
-2.173472e-05
-4.509929e-06
-1.230533e-05
5.170547e-06
3.019375e-05
-4.286467e-06
-1.695896e-05
5.094270e-06
1.557465e-05
-1.199886e-05
-2.054095e-06
9.424732e-06
-1.101201e-05
-3.487981e-05
9.529246e-06
1.205220e-05
-1.608854e-05
-1.331372e-05
4.590103e-06
-1.169782e-05
9.556904e-06
1.061017e-05
5.815230e-06
4.012549e-06
1.225906e-06
-4.268717e-06
-2.134681e-06
-4.489377e-06
-9.198149e-06
9.372398e-06
1.082576e-05
5.518228e-06
4.640790e-06
1.476932e-06
-4.518809e-06
-2.794898e-06
-5.724291e-06
-8.576332e-06
-8.558309e-06
-1.008218e-05
-5.127001e-06
-4.761552e-06
-1.907453e-06
4.400534e-06
1.686579e-06
4.951045e-06
8.036693e-06
9.412371e-06
1.129582e-05
5.807552e-06
5.055410e-06
2.200877e-06
-4.328177e-06
-2.441659e-06
-5.212216e-06
-8.245462e-06
-4.798713e-05
-3.616660e-05
2.355194e-05
-4.363464e-05
-7.297382e-05
2.618614e-05
-3.140046e-05
-6.069751e-05
1.868911e-05
-1.870165e-08
-8.089879e-08
-6.655041e-08
-9.771562e-10
-8.224961e-08
-8.100373e-08
1.786015e-08
-7.713675e-08
-7.300225e-08
-1.674063e-06
-1.778631e-06
-9.799975e-07
-1.129561e-06
-2.139740e-07
1.037799e-06
-2.859582e-07
1.035480e-06
1.922396e-06
8.334824e-06
7.884998e-06
4.394427e-06
2.254660e-06
-1.289162e-06
-4.762976e-06
-2.675172e-06
-5.423207e-06
-8.894324e-06
-4.427358e-07
-5.262339e-07
-1.561081e-07
-5.387255e-07
3.219035e-09
6.618673e-07
-4.183624e-07
3.597030e-07
9.476752e-07
-4.789332e-07
-5.355179e-07
-1.524606e-07
-4.074342e-07
-1.889018e-08
5.120182e-07
-2.669484e-07
2.625971e-07
7.679162e-07
1.004881e-08
-2.471552e-08
-3.009802e-08
1.791669e-08
-3.438670e-09
-2.793623e-08
4.400964e-08
1.906212e-08
-5.630082e-09
6.579881e-06
7.293692e-06
4.269640e-06
3.362686e-06
1.318017e-06
-2.623787e-06
-5.004047e-07
-3.300965e-06
-5.936147e-06
-1.921037e-06
-2.017297e-06
-9.805608e-07
-1.373346e-06
-8.606011e-08
1.570534e-06
-3.716215e-07
1.414336e-06
2.486825e-06
5.318973e-09
-4.838463e-09
-2.979873e-09
2.791144e-10
-5.737600e-09
2.605490e-09
-2.241259e-09
2.809348e-10
-6.820793e-09
-1.226577e-06
-1.180672e-06
-3.722906e-07
-1.208255e-06
-4.835175e-07
7.910541e-07
-8.533045e-07
1.933077e-07
1.280601e-06
4.614908e-08
-1.946646e-08
-9.852026e-08
1.200618e-07
-1.288732e-07
-2.887835e-07
1.967336e-07
-1.960780e-07
-4.005418e-07
-1.205267e-05
-1.371361e-05
-1.140907e-05
1.523451e-06
2.487875e-06
6.988321e-07
1.010597e-05
9.526838e-06
9.930104e-06
-6.974888e-06
-7.980540e-06
-4.531303e-06
-4.212538e-06
-1.999779e-06
2.674184e-06
-2.229033e-08
3.010807e-06
6.074014e-06
1.031844e-05
1.043713e-05
3.387485e-06
1.016036e-06
-3.164888e-06
-8.289989e-06
-9.369718e-06
-1.330157e-05
-1.274401e-05
-1.016182e-04
-6.159177e-05
-7.327036e-05
-1.107276e-04
9.523136e-05
1.279543e-04
7.603924e-05
2.774265e-04
1.712164e-04
9.183361e-06
9.645523e-06
5.572624e-06
3.359663e-06
1.747283e-07
-4.076128e-06
-3.178880e-06
-5.871214e-06
-8.548693e-06
9.291893e-06
9.441700e-06
5.273189e-06
2.925882e-06
-3.761646e-07
-4.626939e-06
-2.942892e-06
-5.524186e-06
-9.135160e-06
2.458051e-06
2.978770e-06
1.467996e-06
1.566987e-06
7.266457e-07
-1.778553e-06
5.151680e-08
-1.269520e-06
-2.750972e-06
-6.131399e-10
-3.666064e-09
1.023216e-09
-7.163024e-10
-1.391204e-09
7.880069e-10
1.442007e-09
-1.097078e-09
-5.588271e-11
9.681971e-06
1.112750e-05
5.179123e-06
4.276598e-06
6.910336e-07
-5.522987e-06
-3.838872e-06
-7.218032e-06
-9.216236e-06
8.154589e-06
9.371142e-06
5.053025e-06
3.938183e-06
1.489259e-06
-3.699218e-06
-1.891867e-06
-4.288790e-06
-7.607490e-06
-1.092484e-05
-1.036952e-05
-2.736008e-06
-2.680656e-06
2.136587e-06
9.957449e-06
8.101457e-06
1.092158e-05
1.277879e-05
-1.884820e-07
-2.189054e-07
-2.182751e-08
-3.244415e-07
-4.909026e-09
4.351656e-07
-2.569791e-07
2.848858e-07
6.804985e-07
5.198470e-06
5.166399e-06
2.927189e-06
3.336179e-06
1.101820e-06
-2.159881e-06
9.866271e-07
-1.908240e-06
-4.148465e-06
8.881646e-06
1.002096e-05
5.117950e-06
4.345734e-06
1.114924e-06
-4.717107e-06
-2.463899e-06
-5.786378e-06
-8.666640e-06
1.042975e-05
1.251027e-05
7.264073e-06
6.432087e-06
4.503148e-06
-2.010683e-06
3.623466e-07
-2.012221e-06
-7.956539e-06
-9.619405e-06
-9.595717e-06
-6.206201e-06
-3.460278e-06
-1.129922e-06
2.451818e-06
2.371912e-06
4.012698e-06
7.317047e-06
-3.396490e-07
-3.640999e-06
-2.942778e-06
6.376107e-07
-1.226187e-06
-6.710588e-07
2.309916e-06
2.004503e-06
2.255469e-06
-8.913850e-07
-4.100058e-06
-2.782444e-06
3.539331e-07
-1.866389e-06
-6.703761e-07
1.830899e-06
1.925498e-06
1.898554e-06
8.592008e-07
3.303400e-06
2.304211e-06
-4.051086e-07
1.339085e-06
5.901371e-07
-1.483473e-06
-1.525621e-06
-1.350129e-06
-8.440524e-07
-3.835339e-06
-2.550332e-06
2.698253e-07
-1.636974e-06
-5.720860e-07
1.571945e-06
1.703441e-06
1.598026e-06
1.125042e-05
6.913397e-06
1.871223e-05
7.543927e-06
2.071453e-05
4.373434e-05
2.540607e-05
1.810933e-05
3.999531e-06
-2.035224e-08
-7.243037e-08
-5.479424e-08
7.384723e-09
-3.045997e-08
-3.827017e-08
4.742386e-08
1.138463e-08
4.654187e-09
3.747881e-08
6.002879e-07
4.300059e-07
8.366396e-09
3.866490e-07
3.235158e-07
-3.376607e-07
-6.304081e-08
-8.255128e-08
-1.916736e-07
-4.368125e-06
-3.472549e-06
7.502251e-07
-1.735030e-06
-8.946378e-07
3.160780e-06
2.606072e-06
2.392572e-06
7.087690e-08
3.987706e-07
2.469352e-07
-8.155823e-09
8.952374e-08
1.543190e-07
-2.372476e-07
-1.632158e-07
-4.109255e-08
-1.990220e-08
3.135347e-07
2.780671e-07
-5.839594e-10
1.882773e-07
1.745264e-07
-2.574867e-07
-1.156403e-07
-1.479072e-07
-2.117314e-08
-2.204271e-08
-2.960493e-08
-1.162372e-08
-1.255531e-08
-8.728524e-09
-5.115606e-09
4.827086e-09
7.029673e-09
-4.442578e-07
-2.004644e-06
-1.358074e-06
5.481711e-08
-7.590567e-07
-4.411895e-07
8.829147e-07
7.301289e-07
4.572945e-07
3.731062e-07
8.464512e-07
6.591696e-07
1.595452e-07
3.668983e-07
2.803922e-07
-2.527466e-07
-1.688236e-07
5.135684e-08
-1.512090e-08
-1.068142e-08
1.440489e-08
8.753524e-10
9.545125e-09
-9.041768e-11
-7.392372e-09
2.744350e-09
1.857024e-10
-8.101195e-08
3.993604e-07
5.233500e-07
-6.421245e-08
1.749594e-07
2.405386e-07
-2.835184e-07
-1.921521e-07
-2.273963e-07
6.613934e-08
-2.574377e-07
-2.281459e-07
4.680467e-08
-1.612440e-07
-1.448585e-07
2.404765e-07
1.573177e-07
1.758296e-07
-5.075641e-08
3.850354e-06
1.923971e-06
-1.779119e-06
5.524601e-07
7.453119e-07
-4.890367e-06
-4.224340e-06
-5.337750e-06
5.166659e-07
2.070991e-06
1.411371e-06
-4.595298e-08
7.412517e-07
5.743019e-07
-6.550206e-07
-5.877317e-07
-3.075757e-07
-2.462100e-06
-6.331082e-06
-4.130077e-06
8.078402e-07
-2.079990e-06
4.350108e-07
4.644243e-06
5.579823e-06
5.582471e-06
1.090238e-04
1.528885e-04
7.747143e-06
6.395899e-05
9.340702e-05
1.633125e-05
4.754689e-05
4.391400e-05
-3.376295e-05
-8.218954e-07
-4.010004e-06
-3.422405e-06
3.074298e-07
-1.643575e-06
-7.401885e-07
2.215381e-06
1.807002e-06
2.003162e-06
-3.041285e-07
-4.499445e-06
-3.462491e-06
7.097630e-07
-1.839934e-06
-8.730105e-07
3.059615e-06
2.615476e-06
2.565296e-06
-1.468565e-07
-7.825459e-07
-4.206869e-07
-9.165581e-08
-5.401718e-07
-2.338713e-07
3.447148e-07
1.618125e-07
1.354711e-07
-9.194630e-11
1.393538e-08
1.725655e-09
5.797937e-09
4.543200e-09
1.116833e-09
8.001824e-09
4.977652e-10
-5.568044e-09
-9.610019e-07
-4.865462e-06
-3.518172e-06
3.931421e-07
-2.545127e-06
-9.324641e-07
2.312202e-06
2.515181e-06
2.597603e-06
-6.780894e-07
-3.088642e-06
-2.109683e-06
2.595955e-07
-1.073740e-06
-3.723746e-07
1.407149e-06
1.427297e-06
1.203238e-06
2.174280e-06
5.299671e-06
4.466326e-06
-1.481797e-07
3.641782e-06
4.800721e-07
-3.152642e-06
-3.591506e-06
-3.231908e-06
1.042253e-08
2.877297e-07
2.640031e-07
5.283864e-08
2.500899e-07
1.670577e-07
-2.591586e-07
-1.414681e-07
-1.689089e-07
-1.393745e-07
-1.169302e-06
-8.908443e-07
1.804921e-08
-5.661204e-07
-3.415657e-07
5.948658e-07
3.834749e-07
2.800199e-07
-8.042661e-07
-4.180104e-06
-3.084341e-06
3.107712e-07
-1.942911e-06
-8.649851e-07
1.787509e-06
1.849388e-06
1.750586e-06
3.444891e-08
-2.106753e-06
-2.029038e-06
3.578612e-08
-9.638262e-07
-8.444747e-07
9.227390e-07
5.082641e-07
9.614482e-07
1.494131e-07
2.453832e-06
1.554227e-06
-6.399035e-07
8.163205e-07
5.721161e-07
-2.294022e-06
-1.337222e-06
-1.184943e-06
-1.261147e-05
-1.079616e-05
-5.296110e-06
-1.723536e-05
-1.351044e-05
-2.295579e-06
-1.042814e-05
-6.532065e-06
3.098528e-06
-9.102442e-06
-7.223975e-06
-5.974845e-06
-1.413767e-05
-1.277282e-05
-5.143602e-06
-1.114110e-05
-7.894092e-06
5.126645e-07
8.417256e-06
6.485667e-06
7.038473e-06
1.288282e-05
1.221360e-05
6.808792e-06
1.066025e-05
7.692992e-06
2.239558e-06
-8.731178e-06
-6.767010e-06
-6.950670e-06
-1.303533e-05
-1.249320e-05
-6.345907e-06
-1.062193e-05
-7.793920e-06
-8.237923e-07
-2.254652e-04
-8.505688e-05
-9.562541e-06
-3.130684e-04
-3.943694e-05
7.862964e-05
-7.954144e-05
1.585562e-04
1.688652e-04
-1.256199e-07
5.624908e-09
4.629911e-08
-2.703833e-07
-1.625748e-07
-5.170157e-08
-3.371442e-07
-2.529617e-07
-1.201326e-07
3.710868e-06
1.432405e-06
2.040367e-06
5.383503e-06
2.669168e-06
2.073826e-06
5.574010e-06
2.800579e-06
1.883547e-06
-1.412317e-05
-1.124762e-05
-3.180867e-06
-2.017281e-05
-1.442723e-05
-1.666321e-07
-1.229018e-05
-6.376825e-06
6.149446e-06
2.107839e-06
6.896822e-07
7.551583e-07
3.380866e-06
2.171508e-06
1.512395e-06
3.506104e-06
2.168135e-06
1.379188e-06
1.804455e-06
4.329125e-07
9.239214e-07
2.611877e-06
1.388800e-06
1.390746e-06
2.884475e-06
1.832744e-06
1.654124e-06
-2.056719e-08
-1.354359e-08
-7.398573e-09
-3.255379e-08
-9.076451e-08
-6.238331e-08
-5.331019e-08
-1.020163e-07
-7.846998e-08
-9.399273e-06
-6.211988e-06
-5.380457e-06
-1.332367e-05
-9.583670e-06
-4.758680e-06
-1.058249e-05
-5.681798e-06
-1.729626e-06
4.104537e-06
1.355568e-06
2.001985e-06
6.282493e-06
3.826616e-06
2.863268e-06
6.094588e-06
3.408950e-06
2.505634e-06
-2.560244e-09
-2.989493e-09
6.612473e-09
-2.802685e-09
-3.494543e-09
6.155100e-09
-4.741834e-09
-8.839642e-10
1.220947e-09
2.448130e-06
1.133794e-06
1.649845e-06
3.694712e-06
3.024698e-06
2.467442e-06
4.173009e-06
3.506699e-06
2.422724e-06
-1.092826e-06
-1.452565e-07
-3.655341e-07
-1.618727e-06
-7.921907e-07
-6.888403e-07
-1.929578e-06
-1.291533e-06
-9.331713e-07
1.458207e-05
1.351473e-05
-1.861729e-06
2.451224e-05
1.913904e-05
-2.242316e-06
1.760334e-05
1.346923e-05
-3.344979e-06
9.458867e-06
6.242596e-06
6.831638e-06
1.300795e-05
1.011106e-05
6.309770e-06
1.065613e-05
6.385324e-06
3.240895e-06
-1.383528e-05
-7.326723e-06
1.486103e-06
-2.723240e-05
-2.063833e-05
5.355652e-08
-1.742655e-05
-9.629410e-06
1.037443e-05
-4.582957e-04
-2.203874e-04
-1.549807e-04
-9.117462e-04
-3.423706e-04
-1.089913e-04
-7.736983e-04
-3.081829e-04
-3.888209e-05
-1.155964e-05
-9.308686e-06
-4.964469e-06
-1.725455e-05
-1.356436e-05
-2.838913e-06
-1.246256e-05
-6.960044e-06
3.016209e-06
-1.291588e-05
-1.067560e-05
-3.451593e-06
-1.916388e-05
-1.427348e-05
-7.568958e-07
-1.188695e-05
-6.610851e-06
5.303913e-06
-3.615918e-06
-1.166169e-06
-3.129885e-06
-4.973323e-06
-3.141144e-06
-3.989242e-06
-5.776621e-06
-3.303549e-06
-3.500244e-06
-3.433779e-11
-6.096789e-10
-2.810843e-10
-1.702963e-09
-5.965666e-09
-1.783005e-09
-8.822716e-10
-2.784434e-09
-2.036876e-09
-8.199462e-06
-6.297992e-06
-4.711966e-06
-1.563829e-05
-1.460066e-05
-4.947967e-06
-1.246691e-05
-8.931426e-06
1.320120e-06
-1.061532e-05
-8.293847e-06
-6.239937e-06
-1.465513e-05
-1.198996e-05
-4.684983e-06
-1.048029e-05
-6.320536e-06
6.221945e-07
1.170987e-05
9.148436e-06
4.607299e-06
2.376221e-05
2.381844e-05
4.002005e-06
1.854492e-05
1.237619e-05
-1.283981e-05
1.547444e-06
4.568269e-07
8.520267e-07
2.072048e-06
1.231169e-06
1.257093e-06
2.647158e-06
1.884583e-06
1.510741e-06
-6.794246e-06
-3.604726e-06
-4.589001e-06
-1.005237e-05
-7.362440e-06
-5.182140e-06
-9.236761e-06
-5.638730e-06
-3.828578e-06
-9.267350e-06
-7.140833e-06
-5.385033e-06
-1.419406e-05
-1.307973e-05
-4.843059e-06
-1.098618e-05
-7.673427e-06
6.935851e-07
-1.266736e-05
-1.030899e-05
-8.967684e-06
-1.560000e-05
-1.085565e-05
-5.605653e-06
-1.013602e-05
-6.752974e-06
-1.823989e-06
1.383079e-05
1.096401e-05
3.717050e-06
1.895337e-05
1.072612e-05
-8.964619e-07
1.264616e-05
4.038168e-06
-5.486881e-06
-5.481355e-05
6.131845e-07
3.731106e-05
-3.761953e-05
1.741112e-05
5.868765e-05
-1.132047e-05
2.774849e-05
6.219818e-05
-4.835733e-05
1.856281e-06
4.820657e-05
-3.993934e-05
1.611437e-05
5.188952e-05
-1.413782e-05
2.072812e-05
4.865139e-05
4.357682e-05
5.405313e-06
-4.254769e-05
3.380601e-05
-9.796456e-06
-4.475274e-05
9.445457e-06
-1.852542e-05
-4.212706e-05
-4.849974e-05
-4.864496e-06
4.650830e-05
-4.008143e-05
1.109603e-05
4.892143e-05
-1.238100e-05
2.031451e-05
4.706534e-05
5.880940e-04
-4.887415e-05
5.299653e-04
1.298594e-03
1.557934e-03
1.670975e-05
4.214617e-05
1.277148e-03
-6.149536e-04
-1.499026e-07
6.059178e-08
2.547628e-07
-1.645630e-08
2.552983e-07
5.267408e-07
9.723898e-08
5.314047e-07
7.611673e-07
9.650252e-06
5.093626e-06
-9.312193e-06
1.289223e-05
6.017364e-06
-9.798356e-06
2.225534e-06
-3.417703e-06
-1.314545e-05
-4.420076e-05
1.505279e-05
3.455233e-05
-3.284756e-05
2.594333e-05
5.238664e-05
-1.147608e-05
2.725063e-05
5.730196e-05
5.353525e-06
3.603641e-06
-5.256090e-06
5.595221e-06
2.720748e-06
-5.822908e-06
8.206052e-08
-2.621792e-06
-7.790290e-06
5.683659e-06
4.584173e-06
-4.145508e-06
6.185208e-06
3.992692e-06
-4.415568e-06
-1.541074e-08
-2.172415e-06
-7.131678e-06
-2.488485e-07
-2.485731e-07
2.893089e-09
-5.604383e-09
3.304705e-08
2.058315e-07
3.474493e-08
1.313156e-07
2.705511e-07
-3.391456e-05
-8.046292e-06
2.337699e-05
-3.102629e-05
-1.703205e-06
2.594431e-05
-1.212218e-05
5.771560e-06
2.398529e-05
1.018439e-05
5.512223e-06
-1.061177e-05
1.139931e-05
4.655794e-06
-1.063524e-05
1.432571e-06
-3.056373e-06
-1.260644e-05
1.535344e-08
-7.512885e-08
-1.534275e-08
-7.039035e-08
-3.182667e-08
-1.429160e-08
-6.919314e-09
-7.818854e-08
-2.986335e-08
7.536330e-06
8.655726e-06
-4.856284e-06
9.131359e-06
7.601123e-06
-6.298705e-06
-3.626462e-07
-2.498854e-06
-9.604782e-06
-3.292797e-06
-1.916625e-06
3.783415e-06
-3.989772e-06
-1.971089e-06
3.623468e-06
-2.196567e-07
1.712014e-06
5.194619e-06
9.048735e-05
-4.337682e-05
-1.016392e-04
7.534883e-05
-2.598659e-05
-9.648527e-05
2.903042e-05
-4.013833e-05
-1.005257e-04
3.540572e-05
1.501248e-05
-2.215722e-05
3.159507e-05
6.580524e-06
-2.389418e-05
1.031430e-05
-6.583693e-06
-2.331086e-05
-4.278164e-05
5.661689e-05
7.505593e-05
-2.512715e-05
7.159149e-05
6.268849e-05
-7.764581e-06
3.512506e-05
5.714723e-05
-8.786058e-04
2.620127e-03
1.442262e-03
-1.192598e-03
5.425330e-04
3.330239e-04
-4.304407e-05
1.238636e-03
1.706878e-03
-4.855908e-05
8.061930e-06
4.554406e-05
-3.650351e-05
2.183021e-05
5.579811e-05
-1.062469e-05
2.407323e-05
5.231373e-05
-4.954504e-05
1.303475e-05
4.177830e-05
-3.560353e-05
2.564322e-05
5.794451e-05
-1.286284e-05
2.651139e-05
5.824968e-05
-1.224654e-05
-1.028594e-05
8.750555e-06
-1.450726e-05
-7.882705e-06
1.155300e-05
-1.667557e-06
3.447871e-06
1.487322e-05
1.548766e-08
2.812102e-08
-1.214006e-10
1.320723e-08
2.049182e-08
-1.535630e-08
-2.063807e-09
7.333846e-09
5.012627e-09
-4.497710e-05
1.383050e-05
6.087531e-05
-3.665847e-05
2.579172e-05
5.351505e-05
-1.270474e-05
2.412491e-05
4.861974e-05
-4.564294e-05
-4.303952e-06
3.529747e-05
-3.763585e-05
8.923237e-06
4.471532e-05
-1.425904e-05
1.595244e-05
4.290614e-05
4.430404e-05
-4.111820e-05
-6.958009e-05
2.997311e-05
-6.330161e-05
-5.596261e-05
-1.000428e-05
-3.888141e-05
-5.956551e-05
4.150380e-06
2.963862e-06
-3.870899e-06
5.100834e-06
2.400952e-06
-4.798967e-06
-9.217118e-08
-2.434688e-06
-7.118637e-06
-2.344230e-05
-1.757518e-05
1.401857e-05
-2.490323e-05
-1.645434e-05
1.007249e-05
-5.457332e-06
3.619672e-06
1.653523e-05
-4.430921e-05
4.695521e-06
4.796259e-05
-3.645611e-05
1.779225e-05
5.097728e-05
-1.256485e-05
2.032711e-05
4.666055e-05
-5.220712e-05
-1.782920e-05
2.295175e-05
-4.092978e-05
-2.492361e-06
4.331849e-05
-1.045959e-05
2.041157e-05
4.814534e-05
4.969650e-05
-8.759638e-06
-3.738806e-05
3.963063e-05
-1.773257e-05
-5.380961e-05
1.142810e-05
-2.657803e-05
-5.454279e-05
-2.894418e-04
-6.257493e-04
2.468160e-04
-3.110420e-04
-1.961136e-04
6.950635e-04
-2.734273e-04
-1.852930e-04
6.403601e-04
-3.362110e-04
-6.490491e-04
2.082439e-04
-3.399907e-04
-2.051319e-04
8.367404e-04
-3.574279e-04
-2.603531e-04
6.675539e-04
2.843784e-04
6.505425e-04
-2.450579e-04
3.495854e-04
3.351367e-04
-7.764248e-04
3.159496e-04
3.208441e-04
-6.424305e-04
-3.218903e-04
-6.889299e-04
2.339936e-04
-3.664692e-04
-2.791308e-04
8.578187e-04
-3.542242e-04
-2.914804e-04
7.186461e-04
-2.541319e-03
8.066826e-03
-6.147660e-03
3.849435e-03
1.359011e-04
-4.243318e-03
7.878918e-03
2.049947e-03
-1.546794e-03
-4.570265e-07
1.130790e-08
-4.089993e-07
-2.830421e-07
3.531184e-07
-8.537316e-08
-7.500142e-07
-1.480832e-07
-7.011406e-07
3.846808e-05
9.434953e-05
-9.588543e-05
9.115221e-05
1.110831e-04
-9.561471e-05
1.176076e-05
7.430778e-05
-9.793673e-05
-2.921006e-04
-4.999937e-04
1.712785e-04
-2.674305e-04
-4.623095e-05
6.566523e-04
-3.125498e-04
-1.298727e-04
5.152922e-04
9.271391e-06
2.288602e-05
-4.409800e-05
3.932423e-05
4.206298e-05
-3.107444e-05
7.254970e-06
2.486665e-05
-3.320810e-05
9.220239e-06
2.328302e-05
-4.132961e-05
3.393426e-05
3.836140e-05
-2.839156e-05
5.151090e-06
2.449469e-05
-2.951266e-05
-6.239807e-08
1.727953e-07
4.373153e-08
6.108813e-09
2.473269e-07
6.726913e-08
-1.510815e-07
6.315967e-08
-1.233307e-08
-2.159625e-04
-4.897537e-04
1.967561e-04
-2.702693e-04
-2.335751e-04
5.471881e-04
-2.148940e-04
-2.259520e-04
4.753730e-04
3.956282e-05
1.067390e-04
-1.101091e-04
1.070049e-04
1.235750e-04
-1.227056e-04
4.328145e-05
1.031317e-04
-1.076463e-04
-4.093618e-09
1.170528e-09
-1.601988e-08
-1.333551e-08
-2.044447e-08
-1.895432e-08
-5.353578e-09
-1.125831e-08
-8.459343e-09
8.700568e-06
7.169651e-05
-8.675372e-05
7.599490e-05
1.159066e-04
-5.913826e-05
-4.066743e-06
6.119603e-05
-8.525582e-05
-7.003433e-06
-5.331850e-06
1.051384e-05
-1.298449e-05
-8.315609e-06
9.043281e-06
-5.689533e-06
-6.328309e-06
6.304984e-06
3.689908e-04
4.508571e-04
-9.494447e-05
6.316965e-05
-2.916639e-04
-6.092671e-04
3.894884e-04
1.494052e-04
-2.794076e-04
2.003699e-04
5.437573e-04
-2.292049e-04
2.934741e-04
3.361554e-04
-5.670175e-04
1.949200e-04
2.687172e-04
-5.349377e-04
-4.858243e-04
-4.208932e-04
-1.417625e-05
-2.062670e-04
1.645722e-04
1.182420e-03
-6.270538e-04
-3.820089e-04
3.028713e-04
1.780802e-03
8.391271e-03
1.085066e-02
-1.264430e-02
-2.158113e-02
2.713200e-03
1.140544e-02
-1.518813e-02
2.239770e-05
-2.997979e-04
-5.667666e-04
2.030119e-04
-2.997977e-04
-1.525383e-04
7.146485e-04
-3.148697e-04
-2.001635e-04
5.693118e-04
-3.082439e-04
-5.546088e-04
1.930914e-04
-2.931233e-04
-8.192028e-05
7.104395e-04
-3.307817e-04
-1.510156e-04
5.748516e-04
-5.791219e-05
-1.619082e-04
1.116738e-04
-1.205964e-04
-1.595863e-04
1.497692e-04
-6.319520e-05
-1.353131e-04
1.438982e-04
-6.598777e-10
3.721515e-10
-2.573890e-09
4.996911e-09
4.212021e-09
7.491302e-10
-6.017968e-10
1.119264e-09
1.880142e-09
-3.888302e-04
-6.508782e-04
1.834631e-04
-3.626345e-04
-1.646189e-04
9.692318e-04
-4.430072e-04
-2.903137e-04
6.588130e-04
-2.750930e-04
-5.938125e-04
2.124508e-04
-3.167326e-04
-2.210861e-04
6.945977e-04
-2.899160e-04
-2.273714e-04
6.124357e-04
4.058225e-04
5.642090e-04
2.474630e-05
3.131571e-04
1.942223e-04
-1.202615e-03
5.457112e-04
4.316852e-04
-4.438881e-04
8.227187e-06
1.433462e-05
-2.637772e-05
2.523204e-05
2.667874e-05
-1.748419e-05
4.679071e-06
1.609676e-05
-1.892279e-05
-9.425926e-05
-3.644096e-04
2.015478e-04
-2.165494e-04
-3.020542e-04
3.531994e-04
-9.067681e-05
-2.142937e-04
3.712785e-04
-3.208592e-04
-6.244227e-04
2.087848e-04
-3.411075e-04
-2.234435e-04
8.148133e-04
-3.558814e-04
-2.701191e-04
6.287962e-04
-2.578292e-04
-7.427817e-04
3.010782e-04
-3.393529e-04
-3.121236e-04
7.286034e-04
-2.039565e-04
-2.419218e-04
7.884089e-04
2.819381e-04
5.644749e-04
-2.264060e-04
2.565944e-04
9.844010e-05
-6.224443e-04
1.785685e-04
1.023963e-04
-5.763510e-04
-1.467307e-06
-1.606428e-06
-1.043771e-06
-1.573814e-06
-1.732702e-06
-3.092445e-06
2.682073e-06
-1.596764e-07
-3.718631e-06
-9.573411e-07
-2.456450e-06
-1.357364e-06
-1.774354e-06
-3.332880e-06
-3.005904e-06
2.502636e-06
-2.640905e-06
-5.156282e-06
9.397716e-07
2.410846e-06
1.308911e-06
2.017675e-06
4.299868e-06
3.960789e-06
-2.347558e-06
3.209679e-06
5.298321e-06
-1.037698e-06
-2.587759e-06
-1.795513e-06
-2.000932e-06
-3.901564e-06
-3.223823e-06
2.874894e-06
-2.511872e-06
-5.041556e-06
5.055180e-05
-2.290944e-05
-3.105389e-05
-2.060669e-05
9.646723e-05
6.515018e-05
-1.646185e-04
1.831717e-04
1.019649e-04
-3.260084e-07
-2.838680e-07
-1.011838e-07
-1.598721e-07
-5.230213e-08
4.289281e-08
-8.077491e-08
4.188223e-08
7.759823e-08
-4.107549e-07
8.287072e-07
1.020649e-06
1.220104e-07
1.329305e-06
1.641465e-06
-8.655698e-07
2.623602e-07
6.918017e-07
-2.004829e-06
-2.869785e-06
-1.802596e-06
-7.207728e-07
-2.190144e-07
-1.146108e-06
3.605439e-06
-6.104190e-07
-4.506334e-06
7.423401e-07
1.153315e-06
4.932510e-07
8.505996e-07
1.152923e-06
3.745443e-07
-1.735336e-08
6.473541e-07
2.438983e-07
4.983045e-07
1.186339e-06
7.837352e-07
7.126716e-07
1.299511e-06
7.778596e-07
-1.777838e-08
6.771245e-07
3.156052e-07
-2.691286e-07
-2.909366e-07
-2.083825e-07
-1.525400e-07
-8.600183e-08
2.782905e-08
-1.111647e-07
-4.818681e-08
1.485403e-08
-6.577231e-07
-2.468002e-06
-1.632446e-06
-1.572145e-06
-3.159672e-06
-3.122261e-06
9.982391e-07
-3.008513e-06
-4.408735e-06
6.639689e-07
1.615263e-06
5.008898e-07
8.909473e-07
1.985736e-06
9.953097e-07
3.707324e-09
1.794150e-06
1.567702e-06
2.744027e-09
1.207769e-08
2.156835e-09
2.885603e-09
7.687418e-09
-2.194572e-09
2.335318e-09
4.988332e-09
-1.054533e-09
8.092094e-07
1.893858e-06
1.349790e-06
6.966958e-07
1.817991e-06
1.187711e-06
-6.395767e-07
5.482768e-07
3.567405e-07
-4.103505e-07
-8.332277e-07
-5.326954e-07
-5.715189e-07
-9.173711e-07
-5.001351e-07
-4.526714e-08
-3.716375e-07
5.324223e-09
2.708235e-06
5.756297e-06
7.863726e-06
4.712346e-06
2.449805e-06
7.821773e-06
9.593372e-07
3.837948e-06
4.659598e-06
8.600492e-07
2.626058e-06
2.229094e-06
1.802184e-06
3.574831e-06
3.501803e-06
-1.736117e-06
2.508471e-06
4.209723e-06
3.803222e-07
-2.704561e-06
-1.979847e-06
-4.553185e-06
-1.266108e-05
-1.255557e-05
-4.947230e-06
-2.020958e-05
-1.624628e-05
1.891196e-05
-3.209154e-04
-3.631218e-04
-2.582711e-06
-3.559351e-04
-3.863361e-04
9.730946e-05
-1.676357e-04
-1.878863e-04
-4.645458e-07
-7.254863e-07
2.128003e-08
-8.527257e-07
-1.756982e-06
-2.243089e-06
3.240179e-06
-2.507504e-07
-3.702369e-06
-2.025644e-06
-2.940007e-06
-1.616240e-06
-1.687142e-06
-2.047566e-06
-2.546625e-06
2.982452e-06
-1.592748e-06
-5.369532e-06
-3.126443e-07
-1.696752e-06
-9.082183e-07
-5.480268e-07
-2.102004e-06
-1.502430e-06
1.397019e-06
-7.040840e-07
-1.403173e-06
7.866601e-10
-2.148865e-09
2.447111e-10
-1.411634e-09
-1.602190e-09
-7.707884e-10
2.230030e-11
-9.427926e-10
2.165159e-09
-1.446907e-06
-3.657582e-06
-1.998776e-06
-2.212670e-06
-5.048650e-06
-4.172572e-06
1.673380e-06
-6.508869e-06
-8.480017e-06
-7.422763e-07
-2.086354e-06
-1.454808e-06
-1.692331e-06
-2.770118e-06
-3.104700e-06
2.414875e-06
-1.376063e-06
-4.050319e-06
-1.474341e-06
1.265963e-06
-6.368609e-07
4.166829e-07
4.381411e-06
3.200174e-06
-2.063388e-06
5.838288e-06
7.553665e-06
5.047560e-07
1.150178e-06
7.645806e-07
6.604437e-07
1.202406e-06
6.410774e-07
4.627130e-08
4.648930e-07
8.829939e-08
-7.476021e-07
-2.275481e-06
-1.406191e-06
-1.202026e-06
-2.487524e-06
-1.981394e-06
1.893332e-06
-1.182316e-06
-2.209797e-06
-6.705991e-07
-2.377460e-06
-1.688208e-06
-1.818143e-06
-2.987510e-06
-2.522494e-06
1.993234e-06
-3.094214e-06
-5.278791e-06
-1.751164e-06
-2.760674e-06
-1.646606e-06
-2.265708e-06
-2.759147e-06
-4.080157e-06
8.578344e-07
-1.182039e-06
-2.641018e-06
1.094346e-06
3.092085e-06
1.618881e-06
5.254275e-07
1.238530e-06
3.439180e-06
-2.822244e-06
-5.137104e-07
3.584125e-06
6.149086e-05
6.419213e-05
2.341494e-05
3.012071e-05
1.126674e-05
-7.992470e-06
-9.685114e-06
-6.690122e-05
-6.720528e-05
5.380621e-05
6.237247e-05
1.078190e-05
3.842154e-05
2.906604e-05
-3.726367e-07
-7.166389e-06
-5.537670e-05
-6.207460e-05
-4.061334e-05
-6.207085e-05
-1.560185e-05
-3.079483e-05
-2.830981e-05
3.065248e-06
1.122311e-05
4.887432e-05
6.237328e-05
4.767858e-05
6.522362e-05
1.415601e-05
3.846347e-05
3.341393e-05
9.532332e-07
-6.949326e-06
-5.189667e-05
-6.393707e-05
9.166375e-04
-6.736542e-04
-9.789231e-04
2.335515e-04
-2.251095e-04
-4.342588e-04
-2.756667e-04
-2.253927e-04
4.027273e-04
1.352560e-07
2.365108e-07
4.947699e-07
-1.783222e-07
-7.766720e-08
2.172139e-07
-1.864895e-08
2.849668e-08
2.875350e-07
-4.622980e-06
-1.097107e-05
-8.520585e-06
-5.912266e-06
-6.270148e-06
-4.622402e-06
6.945445e-06
1.323079e-05
1.054074e-05
7.152729e-05
5.439777e-05
1.202543e-05
3.630736e-05
3.675402e-06
-1.087737e-05
-5.157163e-06
-7.120754e-05
-5.794809e-05
7.628975e-07
-2.440168e-06
-4.721965e-06
-2.617244e-07
-6.961371e-07
-2.953765e-06
4.225185e-06
5.937691e-06
2.173496e-06
1.238243e-06
-1.525605e-06
-4.300659e-06
-1.650468e-07
-6.542961e-07
-3.384241e-06
3.689774e-06
5.197427e-06
1.449365e-06
1.503776e-08
7.537383e-08
1.504051e-07
-5.983879e-08
-4.646048e-08
1.805617e-08
-1.459059e-08
-2.263354e-08
3.285876e-08
3.637373e-05
4.836227e-05
1.418360e-05
2.555678e-05
1.815364e-05
-3.438678e-06
-1.241629e-05
-4.717470e-05
-5.028992e-05
-7.112621e-06
-1.420033e-05
-8.739874e-06
-8.062122e-06
-6.666829e-06
-1.833938e-06
6.538321e-06
1.532648e-05
1.354879e-05
1.742998e-09
-1.651460e-09
-1.289633e-08
-1.032310e-09
-2.902049e-09
-4.508182e-09
-1.676782e-08
-1.184831e-08
-1.250897e-08
1.680541e-06
-5.315945e-06
-8.182525e-06
-2.222861e-06
-2.944723e-06
-5.081446e-06
6.070307e-06
9.538705e-06
5.548774e-06
-1.069001e-06
2.214735e-07
2.455452e-06
-6.283880e-07
-3.617300e-07
2.136733e-06
-2.330979e-06
-3.137001e-06
-7.614011e-08
-1.179208e-04
-8.072556e-05
-8.387851e-06
-5.381127e-05
-1.756835e-05
8.891758e-06
1.419770e-05
8.915880e-05
9.235340e-05
-3.018185e-05
-5.218492e-05
-1.836704e-05
-2.447711e-05
-2.094510e-05
3.291700e-06
1.286288e-05
4.556980e-05
5.544766e-05
1.214062e-04
7.637711e-05
-2.866438e-05
6.920531e-05
3.016375e-05
-1.522009e-05
-7.628122e-06
-8.263303e-05
-8.218029e-05
1.909915e-03
2.425468e-03
4.656401e-03
2.901730e-04
2.910011e-03
5.777554e-03
-1.244484e-04
4.057077e-03
6.553238e-03
6.123579e-05
5.740065e-05
1.174783e-05
3.328503e-05
1.457644e-05
-6.028194e-06
-1.064232e-05
-6.145964e-05
-6.191523e-05
6.760765e-05
5.799819e-05
1.341746e-05
3.471158e-05
7.217389e-06
-1.000529e-05
-6.407341e-06
-6.985933e-05
-6.245655e-05
6.804525e-06
1.801561e-05
1.054060e-05
1.156873e-05
1.269314e-05
4.304043e-06
-3.954779e-06
-1.248897e-05
-1.604258e-05
-1.827180e-10
-2.207871e-09
8.509055e-10
-3.701597e-09
-7.362221e-11
4.403291e-09
1.202496e-08
-2.961857e-09
-4.978620e-10
5.735247e-05
6.445342e-05
1.306413e-06
4.085432e-05
3.151029e-05
-2.891189e-06
-9.004227e-06
-6.223386e-05
-6.933954e-05
5.099427e-05
5.862852e-05
1.617898e-05
3.294237e-05
2.076124e-05
-2.941493e-06
-8.446861e-06
-5.374665e-05
-5.740299e-05
-1.082975e-04
-7.558181e-05
2.704238e-05
-7.510524e-05
-4.134992e-05
2.109065e-05
1.020137e-05
7.998484e-05
9.191530e-05
1.298512e-06
-9.193594e-07
-3.692843e-06
3.790301e-07
-2.606581e-07
-3.028028e-06
3.514702e-06
4.249391e-06
7.868578e-07
1.421467e-05
3.663386e-05
1.921122e-05
1.874697e-05
1.689304e-05
-4.757035e-07
-1.018253e-05
-3.440486e-05
-4.101310e-05
5.154001e-05
6.077151e-05
1.018672e-05
3.743523e-05
2.779280e-05
-8.140954e-07
-6.226465e-06
-5.338330e-05
-6.170315e-05
4.453710e-05
6.740056e-05
2.964696e-05
2.617668e-05
2.132612e-05
-5.217397e-06
-1.538722e-05
-6.711774e-05
-7.803179e-05
-6.298984e-05
-5.366918e-05
-1.417597e-05
-2.528065e-05
-1.200303e-06
1.353561e-05
2.227916e-05
8.294075e-05
7.499719e-05
3.325998e-05
1.331908e-04
1.167217e-04
2.563117e-05
1.096054e-04
1.021876e-04
7.347301e-07
2.527062e-05
3.886806e-05
2.638884e-05
1.388936e-04
1.276061e-04
2.673664e-05
1.111184e-04
9.899284e-05
-3.480776e-07
2.214761e-05
3.055360e-05
-7.214665e-06
-1.263839e-04
-1.249796e-04
-9.300804e-06
-9.631070e-05
-9.422831e-05
7.845910e-06
-1.113161e-05
-2.454323e-05
1.510460e-05
1.359076e-04
1.315248e-04
1.828396e-05
1.063837e-04
9.926110e-05
-3.760641e-06
1.573763e-05
2.557203e-05
4.000856e-04
4.485457e-04
-2.338227e-04
5.678495e-04
5.704070e-04
-3.184469e-04
3.115418e-04
3.758790e-04
-3.198747e-04
5.119129e-08
8.409049e-09
8.538311e-08
-3.211293e-08
-1.046472e-07
-1.506278e-08
6.365860e-08
-2.236427e-08
6.476352e-08
4.832955e-07
-1.722605e-05
-1.951067e-05
-1.289279e-06
-1.308448e-05
-1.574491e-05
-7.515329e-07
-1.311610e-06
-5.232459e-06
4.528737e-05
1.304271e-04
1.075279e-04
3.736341e-05
1.113290e-04
9.636679e-05
1.062320e-05
3.982408e-05
4.634516e-05
1.754252e-06
-4.821650e-06
-7.207645e-06
1.379099e-06
-1.911025e-06
-4.253337e-06
-5.649020e-07
2.325883e-09
-1.605124e-06
2.227022e-06
-4.133523e-06
-6.579805e-06
1.317928e-06
-1.944538e-06
-4.182701e-06
-8.094286e-07
-2.247116e-07
-1.496257e-06
2.207780e-08
-1.947218e-09
1.539088e-08
5.434011e-09
-2.601937e-08
-1.759567e-08
4.059689e-08
1.026140e-08
1.984106e-08
4.405892e-06
8.495832e-05
7.955398e-05
8.538439e-06
7.038332e-05
6.744652e-05
-2.328874e-06
1.277789e-05
2.175728e-05
2.694107e-07
-2.269432e-05
-2.553830e-05
-5.935742e-07
-1.557040e-05
-1.908005e-05
-5.002389e-08
-1.711308e-06
-6.713783e-06
-3.141306e-09
1.619429e-10
-1.620232e-09
-1.052286e-09
-2.389188e-09
3.720471e-09
-1.484652e-08
-1.093947e-09
-7.040580e-09
3.979675e-06
-8.283512e-06
-1.307327e-05
1.949803e-06
-4.373419e-06
-8.584349e-06
-9.443406e-07
1.028153e-06
-1.235928e-06
-1.007334e-06
1.276276e-06
2.611604e-06
-8.522657e-07
1.311324e-07
1.287862e-06
5.806494e-07
1.240787e-07
9.035061e-07
-5.895404e-05
-9.671170e-05
-8.205714e-05
-5.077497e-05
-9.027173e-05
-7.060971e-05
-2.455053e-05
-5.977381e-05
-9.052664e-05
4.694294e-06
-8.495368e-05
-8.630043e-05
-1.191459e-06
-6.717524e-05
-6.947919e-05
6.519030e-06
-5.163778e-06
-1.704976e-05
1.071466e-04
2.141539e-04
1.716886e-04
9.307642e-05
1.799223e-04
1.253594e-04
2.727459e-05
7.980946e-05
7.922878e-05
-6.864657e-03
-6.621195e-03
-5.361207e-03
-1.978568e-03
-4.071061e-03
-4.410377e-03
5.300737e-03
1.209060e-03
-2.997651e-03
3.955138e-05
1.366277e-04
1.167095e-04
3.120153e-05
1.113606e-04
9.777289e-05
2.758696e-06
2.957298e-05
4.021380e-05
4.488851e-05
1.389798e-04
1.166094e-04
3.483950e-05
1.148285e-04
1.009954e-04
7.025461e-06
3.593533e-05
4.499358e-05
-2.194138e-06
2.726445e-05
3.238612e-05
2.356305e-06
2.024617e-05
2.323252e-05
1.149145e-06
1.629150e-06
6.530278e-06
-3.479809e-10
-2.563934e-09
-2.263897e-09
1.018436e-09
-1.439296e-09
-4.395780e-09
-7.416883e-10
-1.704652e-09
-2.207846e-09
3.919579e-05
1.617895e-04
1.482252e-04
3.615595e-05
1.254123e-04
1.075039e-04
6.561672e-07
2.747085e-05
3.538173e-05
1.490040e-05
1.153134e-04
1.062864e-04
1.747278e-05
9.525589e-05
8.865985e-05
-4.770346e-07
2.003416e-05
2.899359e-05
-8.986301e-05
-2.207573e-04
-2.030713e-04
-9.245002e-05
-1.825946e-04
-1.326859e-04
-2.375097e-05
-6.168438e-05
-5.730700e-05
1.881088e-06
-2.693722e-06
-4.742255e-06
1.110392e-06
-1.177490e-06
-2.834922e-06
-6.232750e-07
-1.992613e-07
-1.279814e-06
-3.102297e-06
5.193294e-05
5.707338e-05
-5.294446e-07
3.644324e-05
4.298942e-05
-3.952013e-06
-2.133602e-06
8.361842e-06
2.358654e-05
1.367791e-04
1.280693e-04
2.375303e-05
1.089646e-04
9.849665e-05
-3.498774e-07
2.309055e-05
3.255058e-05
9.427185e-06
1.202292e-04
1.101338e-04
9.263339e-06
9.792638e-05
9.744234e-05
-7.336443e-06
7.591705e-06
2.192117e-05
-5.048263e-05
-1.238379e-04
-9.575341e-05
-3.840724e-05
-1.074314e-04
-9.297813e-05
-5.926960e-06
-2.970931e-05
-4.158107e-05
-1.179743e-05
-2.031312e-05
-2.616906e-05
-3.494754e-05
-4.692470e-05
-3.533308e-05
-3.653692e-05
-4.571485e-05
-2.368726e-05
-1.084733e-05
-1.998194e-05
-2.734102e-05
-4.036846e-05
-5.579615e-05
-4.493814e-05
-4.298186e-05
-5.375202e-05
-2.894956e-05
8.935836e-06
1.874224e-05
2.681681e-05
3.718034e-05
5.525847e-05
4.767910e-05
4.092938e-05
5.502055e-05
3.226615e-05
-9.019941e-06
-1.951719e-05
-2.854503e-05
-3.899394e-05
-5.764512e-05
-4.838526e-05
-4.297307e-05
-5.714434e-05
-3.213994e-05
-2.029305e-04
8.854813e-06
2.122423e-04
-8.871105e-04
9.469486e-05
2.493254e-04
-5.704379e-04
5.153596e-04
1.366216e-04
-1.283836e-07
2.497179e-08
-6.492736e-08
5.430414e-08
2.012595e-07
1.009065e-07
-7.514656e-09
1.425268e-07
3.739946e-08
-7.691584e-07
1.317851e-06
3.080120e-06
2.650702e-06
5.825785e-06
6.065146e-06
4.139471e-06
6.662126e-06
5.156084e-06
-1.727020e-05
-2.241944e-05
-2.449023e-05
-3.750117e-05
-4.155264e-05
-2.844599e-05
-3.567570e-05
-3.506074e-05
-1.664241e-05
-7.488587e-07
7.263635e-08
1.043118e-06
-1.006457e-06
1.104566e-07
9.737909e-07
-2.505392e-07
4.753126e-07
7.274780e-07
-1.122397e-06
-2.371564e-07
9.963027e-07
-1.367683e-06
-2.209334e-07
7.670911e-07
-4.817892e-07
3.324732e-07
7.387289e-07
-3.521242e-08
-1.510224e-09
-3.190602e-08
3.646550e-08
7.408796e-08
3.245467e-08
2.255499e-09
4.933368e-08
1.410865e-08
-5.194568e-06
-1.228143e-05
-1.646298e-05
-2.579089e-05
-3.763441e-05
-3.106854e-05
-2.842820e-05
-3.784353e-05
-2.210387e-05
7.662489e-07
3.535650e-06
4.734517e-06
4.843290e-06
8.690089e-06
8.355760e-06
5.843103e-06
8.485396e-06
6.382276e-06
1.547027e-09
4.910419e-09
7.097723e-09
7.017058e-10
5.865969e-09
3.642372e-09
-5.085377e-10
-1.925730e-09
-2.604528e-09
-1.591415e-06
2.981610e-07
2.085778e-06
-4.478218e-07
2.438592e-06
3.580197e-06
1.175041e-06
3.401517e-06
3.348539e-06
3.717256e-07
1.927737e-07
-4.109628e-07
9.666909e-07
8.081568e-07
3.571561e-07
5.679493e-07
5.349895e-07
1.865981e-07
2.846918e-05
3.533964e-05
3.982385e-05
6.015453e-05
6.167757e-05
3.860932e-05
4.976546e-05
4.533797e-05
1.801575e-05
3.609572e-06
1.242133e-05
1.852585e-05
2.628601e-05
4.167040e-05
3.642921e-05
3.057861e-05
4.359568e-05
2.695682e-05
-3.884201e-05
-4.200446e-05
-4.006975e-05
-8.636054e-05
-8.821447e-05
-6.516198e-05
-7.472133e-05
-6.310848e-05
-3.205292e-05
2.418498e-03
1.999526e-03
4.678695e-04
4.478168e-03
4.251167e-03
1.066708e-03
2.939906e-03
2.505706e-03
-3.513157e-04
-1.389337e-05
-2.140106e-05
-2.630479e-05
-3.907500e-05
-4.869654e-05
-3.744661e-05
-3.932436e-05
-4.463194e-05
-2.375385e-05
-1.693952e-05
-2.342757e-05
-2.677352e-05
-3.927750e-05
-4.596851e-05
-3.306011e-05
-3.826293e-05
-4.038436e-05
-2.006641e-05
-3.205583e-07
-4.937903e-06
-7.778751e-06
-6.037606e-06
-1.205960e-05
-1.256165e-05
-8.363166e-06
-1.244014e-05
-9.124682e-06
-1.429463e-09
-1.117209e-09
-3.749051e-11
-8.964394e-10
2.411236e-10
-5.888283e-10
-8.217928e-10
-2.404645e-09
-1.308440e-09
-1.717140e-05
-2.515826e-05
-3.217459e-05
-5.108956e-05
-6.552733e-05
-5.241741e-05
-5.156922e-05
-5.929930e-05
-3.164469e-05
-7.323078e-06
-1.616574e-05
-2.231713e-05
-3.125915e-05
-4.493868e-05
-3.629818e-05
-3.406400e-05
-4.461892e-05
-2.419981e-05
3.687420e-05
4.826215e-05
4.601198e-05
8.995236e-05
9.541997e-05
7.369059e-05
8.192057e-05
6.535678e-05
3.006798e-05
-4.311555e-07
-3.562152e-08
9.641936e-07
-1.006230e-06
-4.357246e-07
3.596099e-07
-4.386059e-07
-3.504521e-08
4.983407e-07
-1.952217e-06
-8.585801e-06
-1.247388e-05
-1.743488e-05
-2.881035e-05
-2.556970e-05
-2.100799e-05
-2.982581e-05
-1.950778e-05
-1.209375e-05
-2.104108e-05
-2.777887e-05
-4.000535e-05
-5.459468e-05
-4.454764e-05
-4.174670e-05
-5.165350e-05
-2.836174e-05
-5.516204e-07
-1.187746e-05
-2.339959e-05
-2.849309e-05
-4.897144e-05
-4.078035e-05
-3.516838e-05
-5.477943e-05
-3.309159e-05
1.037730e-05
1.605759e-05
2.052645e-05
3.512789e-05
4.326714e-05
2.987678e-05
3.678229e-05
4.238057e-05
2.189593e-05
-3.606098e-05
-2.915665e-05
-2.319063e-05
-8.350061e-05
-7.739035e-05
-5.199042e-05
-7.835843e-05
-6.662640e-05
-3.979631e-05
-2.864514e-05
-1.691332e-05
-1.474352e-05
-9.373979e-05
-8.061448e-05
-4.953162e-05
-9.630324e-05
-6.913861e-05
-3.908675e-05
2.814171e-05
1.529671e-05
1.388855e-05
8.931862e-05
8.072736e-05
4.944664e-05
9.604840e-05
6.865041e-05
4.164176e-05
-2.884571e-05
-1.734348e-05
-1.488128e-05
-9.710967e-05
-8.516061e-05
-5.193366e-05
-1.029636e-04
-7.321108e-05
-4.249762e-05
4.300561e-04
2.875927e-05
-3.156337e-04
3.306079e-04
9.100658e-05
-3.016614e-04
4.852105e-04
4.042368e-04
-1.849472e-04
2.022968e-08
-2.187146e-07
-1.755486e-07
1.278594e-07
-7.475679e-08
-3.409262e-08
3.531790e-07
2.258824e-07
2.105679e-07
9.641646e-06
4.837824e-06
8.535229e-06
2.498264e-05
2.222963e-05
1.588455e-05
2.712323e-05
2.217618e-05
1.692457e-05
-3.258026e-05
-2.416865e-05
-2.061867e-05
-7.410130e-05
-6.406108e-05
-4.216933e-05
-6.262858e-05
-5.237689e-05
-3.000653e-05
4.831450e-06
3.974093e-06
5.435949e-06
1.021164e-05
9.929973e-06
7.157982e-06
1.030699e-05
8.922555e-06
6.709876e-06
4.608718e-06
3.364047e-06
4.820613e-06
9.387099e-06
9.016093e-06
6.771645e-06
1.045632e-05
9.382838e-06
7.323154e-06
6.593124e-08
-4.115932e-08
-7.221487e-08
7.992166e-08
-2.168671e-08
-4.404365e-08
1.150970e-07
7.760883e-08
5.466446e-08
-2.401869e-05
-1.428728e-05
-1.753637e-05
-6.887159e-05
-6.038080e-05
-4.030053e-05
-7.262932e-05
-5.538244e-05
-3.761346e-05
1.143640e-05
5.873823e-06
9.736866e-06
2.805955e-05
2.488240e-05
1.639956e-05
2.830041e-05
2.098807e-05
1.577573e-05
-4.479887e-09
-1.044874e-09
3.878822e-10
-1.286892e-09
-2.278566e-09
2.295640e-11
-1.404791e-09
-2.363870e-09
-1.253289e-09
7.376150e-06
4.666050e-06
8.898372e-06
1.988400e-05
1.910137e-05
1.507487e-05
2.218221e-05
1.856581e-05
1.470484e-05
-1.662160e-06
-1.721868e-06
-2.327988e-06
-3.104451e-06
-3.498077e-06
-2.572111e-06
-3.484998e-06
-3.672927e-06
-2.537047e-06
4.508129e-05
3.345138e-05
-2.648253e-06
7.164014e-05
4.999722e-05
1.081881e-05
4.019138e-05
2.019737e-05
-2.067087e-05
2.404044e-05
1.406445e-05
1.755857e-05
7.331157e-05
6.650016e-05
4.383715e-05
8.041118e-05
6.108291e-05
4.234711e-05
1.381577e-07
2.501433e-05
1.431485e-05
-8.418276e-05
-5.028291e-05
-1.831086e-05
-5.883377e-05
-1.283471e-05
1.657942e-05
1.992588e-03
-8.229899e-05
-1.532313e-03
4.467906e-03
1.826569e-03
-1.563466e-03
1.632419e-03
2.197205e-03
-9.515701e-04
-3.080204e-05
-2.074560e-05
-1.783941e-05
-8.169767e-05
-7.221514e-05
-4.608743e-05
-7.689565e-05
-5.926904e-05
-3.274568e-05
-3.469738e-05
-2.573874e-05
-2.091160e-05
-8.056752e-05
-7.015013e-05
-4.610176e-05
-7.068460e-05
-5.736915e-05
-3.230615e-05
-1.301087e-05
-5.410791e-06
-8.968327e-06
-3.476656e-05
-2.990488e-05
-1.876191e-05
-3.840081e-05
-2.678965e-05
-1.910334e-05
-3.632769e-12
7.842635e-11
1.069177e-09
8.142126e-10
-3.690415e-10
4.084693e-10
1.936000e-09
1.358814e-09
1.106593e-09
-2.776364e-05
-1.180075e-05
-8.521540e-06
-9.989425e-05
-8.114350e-05
-4.542961e-05
-9.900394e-05
-6.387188e-05
-3.211532e-05
-2.921219e-05
-2.133135e-05
-2.034907e-05
-8.189104e-05
-7.329542e-05
-4.837096e-05
-8.368667e-05
-6.448835e-05
-4.016058e-05
8.792946e-07
-2.183739e-05
-1.380968e-05
1.036097e-04
6.908598e-05
2.273251e-05
8.029851e-05
2.749730e-05
-4.251985e-06
3.037654e-06
2.408707e-06
3.641594e-06
6.441504e-06
6.670823e-06
4.827928e-06
7.504945e-06
6.854941e-06
5.015980e-06
-1.848054e-05
-7.980525e-06
-1.412285e-05
-5.704080e-05
-5.023153e-05
-3.425336e-05
-6.142507e-05
-4.587648e-05
-3.479311e-05
-2.871544e-05
-1.616151e-05
-1.379802e-05
-8.997256e-05
-7.781570e-05
-4.705674e-05
-9.072315e-05
-6.484718e-05
-3.682139e-05
-3.548965e-05
-3.048240e-05
-3.209736e-05
-9.229182e-05
-8.777311e-05
-6.576382e-05
-1.011152e-04
-8.787063e-05
-6.119881e-05
3.255223e-05
2.623604e-05
2.501504e-05
8.166159e-05
7.292735e-05
5.232444e-05
7.520641e-05
6.972444e-05
4.323246e-05
2.422125e-05
-1.491880e-05
-1.641944e-05
2.712934e-05
-3.607045e-05
-3.975559e-05
2.497702e-05
-4.075363e-05
-5.249840e-05
2.510665e-05
-1.678390e-05
-2.222507e-05
2.989467e-05
-3.599804e-05
-3.944279e-05
2.213527e-05
-4.472393e-05
-5.344572e-05
-2.172588e-05
1.595411e-05
2.125513e-05
-3.090877e-05
3.467830e-05
3.968180e-05
-2.235564e-05
4.608248e-05
5.698286e-05
2.584829e-05
-1.687353e-05
-2.376935e-05
3.350382e-05
-3.526035e-05
-4.113295e-05
2.358372e-05
-4.680952e-05
-5.730920e-05
-3.753644e-04
8.799304e-05
1.030803e-05
-9.708407e-04
-3.137211e-04
-2.268910e-05
-7.844323e-04
-1.188095e-04
2.016161e-04
3.791021e-09
-1.059776e-07
-2.165393e-08
-1.108907e-07
-2.843235e-07
-1.796530e-07
-3.533799e-08
-2.396797e-07
-1.447858e-07
-5.331573e-06
4.600906e-06
4.621921e-06
-7.153873e-06
8.907416e-06
1.113272e-05
-7.300612e-06
1.011940e-05
1.564527e-05
2.135440e-05
-1.774098e-05
-1.758069e-05
2.185069e-05
-3.318626e-05
-3.210230e-05
2.156476e-05
-3.110243e-05
-3.630123e-05
-2.530303e-06
2.303079e-06
2.198975e-06
-3.635234e-06
4.280700e-06
5.783287e-06
-4.456279e-06
3.843695e-06
6.981430e-06
-2.585718e-06
2.009427e-06
1.919017e-06
-3.375971e-06
3.959935e-06
5.587521e-06
-4.210283e-06
3.591963e-06
6.818847e-06
5.512123e-09
-3.426869e-08
1.918345e-08
-3.660038e-08
-1.191631e-07
-3.417881e-08
-2.134198e-08
-8.807110e-08
-5.170421e-09
1.651740e-05
-1.297878e-05
-1.339993e-05
2.056126e-05
-2.811887e-05
-2.971041e-05
1.598117e-05
-3.541258e-05
-4.364768e-05
-4.834286e-06
6.836955e-06
6.975822e-06
-7.469875e-06
1.167413e-05
1.417112e-05
-7.651486e-06
1.281073e-05
1.877225e-05
-7.618357e-10
-5.126656e-09
-1.519863e-08
3.134107e-09
-1.562735e-08
-4.002733e-09
-3.542373e-09
-5.129317e-09
-2.430591e-08
-4.184350e-06
3.429596e-06
3.871178e-06
-6.946064e-06
5.725377e-06
9.243500e-06
-7.134236e-06
6.418070e-06
1.261349e-05
1.557633e-06
-1.046559e-06
-8.119545e-07
1.538428e-06
-2.183676e-06
-2.888997e-06
2.450753e-06
-1.593060e-06
-3.011940e-06
-3.575870e-05
2.888895e-05
1.349519e-05
-1.367109e-05
6.308935e-05
4.975871e-05
-3.224705e-05
4.334236e-05
4.638468e-05
-1.686505e-05
1.316918e-05
1.500091e-05
-2.329562e-05
2.848970e-05
3.228646e-05
-1.632525e-05
3.940134e-05
4.958247e-05
1.797318e-05
-1.827657e-05
-2.377045e-05
6.929828e-06
-6.153998e-05
-4.082718e-05
-1.238147e-07
-6.098557e-05
-4.447969e-05
2.286330e-03
1.936690e-03
8.240605e-04
3.304142e-03
2.695341e-03
1.535458e-03
2.553373e-03
2.302392e-03
1.501948e-03
2.260593e-05
-1.461924e-05
-1.550777e-05
2.428064e-05
-3.619192e-05
-3.580052e-05
2.213056e-05
-4.026304e-05
-4.682194e-05
2.297494e-05
-1.728639e-05
-1.812496e-05
2.418164e-05
-3.573747e-05
-3.572149e-05
2.257718e-05
-3.618540e-05
-4.326699e-05
6.019049e-06
-8.356892e-06
-9.911114e-06
9.805664e-06
-1.392842e-05
-1.889118e-05
7.895928e-06
-1.668790e-05
-2.524262e-05
9.566765e-10
3.646340e-09
6.994111e-09
-6.387928e-09
-3.350836e-09
1.773841e-09
-7.297244e-09
-2.498610e-09
-6.545245e-10
2.630892e-05
-1.842665e-05
-2.627882e-05
3.001981e-05
-4.128699e-05
-4.162367e-05
1.874261e-05
-4.959123e-05
-5.383366e-05
2.217355e-05
-1.456841e-05
-1.710020e-05
2.693619e-05
-3.195305e-05
-3.544936e-05
2.147137e-05
-3.913421e-05
-4.888685e-05
-2.483604e-05
1.688941e-05
3.086940e-05
-2.334130e-05
5.158160e-05
4.346342e-05
-1.932289e-06
6.830750e-05
5.429180e-05
-2.049647e-06
1.624995e-06
1.608478e-06
-2.760160e-06
3.002116e-06
4.209385e-06
-3.830288e-06
2.504158e-06
4.981331e-06
1.128160e-05
-1.139544e-05
-1.292920e-05
1.701451e-05
-2.152939e-05
-2.596755e-05
1.120739e-05
-2.917048e-05
-3.959007e-05
2.379215e-05
-1.655608e-05
-2.166485e-05
2.948342e-05
-3.567153e-05
-3.831623e-05
2.212846e-05
-4.379569e-05
-5.138369e-05
2.679830e-05
-1.245255e-05
-1.583433e-05
3.259997e-05
-3.415636e-05
-4.157405e-05
2.742368e-05
-4.391710e-05
-6.276202e-05
-2.608677e-05
1.338727e-05
1.072965e-05
-2.243297e-05
3.371573e-05
3.241309e-05
-2.263066e-05
3.652071e-05
4.515479e-05
-1.571324e-04
4.207310e-04
2.331100e-04
-4.365141e-04
1.572437e-04
1.443002e-04
2.460987e-04
4.145300e-04
4.976514e-04
-9.846976e-06
2.675406e-04
1.112039e-04
-7.062539e-04
1.116715e-04
-2.755375e-05
-1.208417e-04
5.402906e-04
6.690518e-04
-1.659395e-04
-2.779529e-04
-1.728385e-05
7.040302e-04
-9.171640e-05
7.117759e-05
2.239199e-04
-5.625276e-04
-7.956460e-04
5.933242e-05
2.712172e-04
9.654422e-05
-7.399939e-04
9.754621e-05
-2.844753e-05
-1.505058e-04
5.949984e-04
7.549784e-04
3.224023e-03
1.616882e-04
-8.573763e-04
1.079853e-02
-3.082101e-03
-9.247032e-03
5.150308e-03
-1.264516e-03
-7.689671e-04
-1.145995e-06
1.095182e-06
-2.972804e-09
1.805092e-06
4.069488e-06
2.224750e-06
-3.459311e-08
1.830507e-06
-1.864045e-07
-7.746958e-05
-1.769925e-04
-1.025709e-04
-6.116784e-05
-1.652573e-04
-1.000369e-04
-1.151840e-04
-2.333622e-04
-1.713057e-04
-2.889859e-04
3.099632e-04
2.215623e-04
-4.176197e-04
1.714821e-04
8.870305e-05
1.858672e-04
3.439693e-04
3.170380e-04
-3.870449e-05
-1.015189e-04
-5.702972e-05
-7.531778e-05
-1.339719e-04
-7.945509e-05
-6.838125e-05
-1.376501e-04
-6.914753e-05
-2.638487e-05
-9.460834e-05
-5.311325e-05
-6.748709e-05
-1.183820e-04
-7.136436e-05
-7.028683e-05
-1.248683e-04
-5.980447e-05
-1.138716e-07
3.500950e-07
-2.910599e-08
4.049589e-07
1.171827e-06
7.169245e-07
-3.423909e-07
7.002417e-07
4.099118e-08
-8.425522e-06
2.857366e-04
1.483225e-04
-3.857687e-04
1.122472e-04
3.377584e-05
6.876417e-05
4.404808e-04
4.865880e-04
-8.574917e-05
-1.612109e-04
-7.569808e-05
-3.334460e-06
-1.475953e-04
-6.450005e-05
-4.965650e-05
-2.391892e-04
-1.942625e-04
-3.058031e-09
-2.344987e-09
2.391210e-08
-2.780659e-09
-9.102088e-09
-3.009387e-08
2.851319e-08
-2.284209e-08
-2.097037e-08
-9.545977e-05
-1.822721e-04
-1.228516e-04
-1.236839e-04
-1.901261e-04
-1.350349e-04
-1.514090e-04
-2.374281e-04
-1.471150e-04
5.508335e-06
4.558578e-05
2.026669e-05
3.987091e-05
7.199397e-05
4.135771e-05
3.128064e-05
6.217340e-05
2.330514e-05
5.582554e-04
-3.672645e-04
-2.768365e-04
3.328429e-04
-1.962009e-04
-4.110839e-05
-3.707230e-04
-4.140294e-05
-4.049020e-05
-1.079937e-04
-3.070891e-04
-1.180973e-04
4.240861e-04
-9.686489e-05
-2.525873e-05
-3.108974e-05
-4.989526e-04
-6.221912e-04
3.245768e-04
-1.126997e-04
-3.852513e-04
-1.195580e-03
3.064267e-04
-8.262168e-04
-1.290902e-03
7.013298e-04
7.548068e-04
-2.915019e-03
-5.158060e-04
2.065627e-02
-1.489948e-02
-2.465247e-02
3.323761e-03
5.036614e-03
-1.135894e-02
-4.087653e-03
-9.563305e-05
3.189009e-04
1.363017e-04
-5.344256e-04
1.413438e-04
2.620219e-05
2.942147e-05
4.247755e-04
5.152310e-04
-2.447680e-04
3.437909e-04
2.142851e-04
-4.831346e-04
1.661223e-04
9.908409e-05
1.599878e-04
3.757576e-04
4.050972e-04
1.077309e-04
1.321242e-04
1.338202e-05
-1.000042e-04
9.346924e-05
3.426897e-05
-3.274078e-05
2.480205e-04
2.636175e-04
-7.658558e-09
-1.325370e-09
1.039656e-09
2.763778e-10
-1.790058e-08
9.260601e-10
2.779526e-09
4.085361e-09
1.332302e-09
7.271730e-05
1.806855e-04
4.477698e-06
-9.250236e-04
1.273987e-04
-1.746256e-04
-4.107536e-04
6.100182e-04
7.772653e-04
-7.495949e-05
3.105760e-04
1.803237e-04
-5.008341e-04
1.236852e-04
5.746179e-05
8.206857e-05
4.748791e-04
5.321152e-04
-8.201904e-04
3.011662e-04
5.339574e-04
1.415315e-03
-3.056369e-04
8.953291e-04
1.631629e-03
-1.083198e-03
-1.228264e-03
-2.724512e-05
-7.625303e-05
-3.365882e-05
-6.095297e-05
-1.052123e-04
-5.950292e-05
-4.641354e-05
-1.017062e-04
-5.259129e-05
1.353068e-04
2.705938e-04
1.666996e-04
-1.874096e-04
1.239695e-04
8.578088e-05
1.312566e-04
4.597044e-04
4.745694e-04
3.310304e-05
2.384441e-04
5.944498e-05
-7.059295e-04
1.143445e-04
-5.600207e-05
-1.941803e-04
5.296596e-04
6.819525e-04
-1.617477e-04
5.510643e-04
3.819169e-04
-3.140335e-04
1.338042e-04
1.736551e-04
5.154469e-04
5.360683e-04
5.470829e-04
2.861408e-04
-4.870468e-04
-3.729268e-04
2.482925e-04
-1.989431e-04
-1.662788e-04
-5.189226e-04
-3.918814e-04
-3.309387e-04
1.138183e-04
1.939661e-04
3.587432e-04
5.797679e-06
-1.350922e-04
-1.046693e-04
3.023816e-04
1.823842e-04
-2.943539e-04
1.877180e-04
2.791253e-04
3.942136e-04
-7.375507e-06
-9.605962e-05
-1.023128e-04
2.399516e-04
1.104656e-04
-3.755822e-04
-2.088296e-04
-2.576984e-04
-3.889886e-04
-4.381406e-05
3.303287e-05
1.085960e-04
-2.366289e-04
-1.342209e-04
3.835531e-04
2.092540e-04
2.877496e-04
4.010481e-04
9.019799e-06
-4.447790e-05
-1.121722e-04
2.401320e-04
1.554233e-04
-3.854145e-04
-4.499695e-04
3.215269e-03
7.458191e-03
-7.818051e-03
-1.570271e-02
9.322644e-03
-2.580908e-03
-2.084022e-02
6.304547e-03
5.515814e-08
1.098712e-07
1.002328e-06
8.795538e-08
-8.506728e-07
2.170443e-07
1.285570e-06
3.679485e-07
1.188422e-06
-7.080541e-05
-4.445313e-05
-6.739139e-05
-2.293124e-05
6.560655e-06
2.032687e-05
-8.029932e-05
-3.601065e-05
3.862385e-05
1.116505e-04
1.828513e-04
2.865891e-04
-2.610013e-05
-2.040467e-04
-1.233626e-04
2.501999e-04
9.648431e-05
-2.391118e-04
-3.722651e-05
-1.703441e-05
-2.639555e-05
-2.058417e-05
-1.078462e-05
-1.009788e-05
-4.548979e-05
-3.686697e-05
-1.963396e-05
-3.569106e-05
-1.785045e-05
-2.526362e-05
-2.105707e-05
-1.278672e-05
-1.234174e-05
-4.462772e-05
-3.645737e-05
-1.985251e-05
1.197311e-07
-1.068073e-07
3.456194e-07
3.846606e-08
-3.990062e-07
-2.080688e-07
7.046400e-08
1.968753e-07
3.961118e-07
1.575328e-04
2.007181e-04
3.056570e-04
2.362576e-05
-4.854906e-05
-7.221937e-05
2.067772e-04
1.247139e-04
-2.344220e-04
-8.203222e-05
-4.224244e-05
-6.222764e-05
-2.763423e-05
1.435223e-05
5.233553e-05
-8.872060e-05
-3.886776e-05
6.469128e-05
3.340456e-08
2.233485e-09
-3.594542e-08
1.817442e-08
2.773365e-08
3.133776e-08
-3.597308e-08
2.090621e-09
-1.977520e-08
-6.091124e-05
-2.672785e-05
-4.049405e-05
-3.098850e-05
-1.697493e-05
7.380577e-07
-6.588513e-05
-5.644580e-05
-1.260593e-05
1.818895e-05
1.061552e-05
1.428166e-05
1.131922e-05
7.083989e-06
1.261430e-05
2.545607e-05
2.095631e-05
1.874756e-05
-1.521817e-05
-3.380029e-06
-2.391035e-04
6.980304e-05
6.192828e-04
3.326108e-04
-4.201355e-04
3.076624e-05
4.873055e-04
-1.840785e-04
-2.129526e-04
-3.249567e-04
-5.100984e-05
3.521428e-06
9.236801e-05
-2.118308e-04
-1.573491e-04
2.746693e-04
2.394984e-04
2.431808e-04
4.288472e-04
-2.579182e-05
-4.981916e-04
-7.422996e-05
1.201645e-04
-6.322752e-04
-6.202181e-04
-3.457272e-03
1.022040e-02
-1.504261e-03
2.259425e-03
5.289860e-02
3.531944e-02
-3.468984e-02
2.223075e-02
4.027078e-02
1.344938e-04
2.069372e-04
3.431592e-04
-6.563654e-06
-1.633853e-04
-9.506553e-05
2.524516e-04
7.518957e-05
-2.996810e-04
1.170821e-04
1.913270e-04
3.202239e-04
-1.767706e-05
-1.976822e-04
-1.203130e-04
2.684203e-04
1.159153e-04
-2.725603e-04
1.138901e-04
5.786127e-05
6.268785e-05
2.813614e-05
-2.217961e-05
-1.012283e-04
1.000563e-04
3.541127e-05
-1.276112e-04
1.759039e-09
-1.495269e-09
-1.661329e-09
1.205812e-09
1.294848e-08
2.974081e-09
-4.596292e-09
8.793415e-09
4.781487e-09
2.156686e-04
3.047218e-04
4.258111e-04
-6.777425e-06
-1.381321e-04
-1.135927e-04
2.175271e-04
1.550750e-05
-4.668881e-04
1.580081e-04
2.334400e-04
3.445943e-04
1.861330e-06
-7.729833e-05
-8.194438e-05
2.359559e-04
1.497703e-04
-2.749773e-04
-3.312465e-04
-3.474371e-04
-3.130056e-04
5.896219e-06
2.421745e-04
1.506375e-04
-4.014551e-05
6.585701e-04
6.370690e-04
-2.964580e-05
-1.659124e-05
-2.135145e-05
-1.828775e-05
-1.173448e-05
-1.444357e-05
-3.543343e-05
-2.674716e-05
-1.900126e-05
1.559602e-04
1.371109e-04
1.906491e-04
5.587301e-05
9.651656e-06
-1.158343e-04
1.628151e-04
1.266843e-04
-1.870462e-04
1.841636e-04
2.582229e-04
3.807844e-04
3.743878e-06
-9.276792e-05
-1.120188e-04
2.325982e-04
9.903081e-05
-3.635251e-04
1.540233e-04
2.314313e-04
4.383728e-04
4.258356e-05
-2.879687e-05
-4.610889e-05
3.150662e-04
3.339398e-04
-2.465050e-04
-9.311648e-05
-1.803779e-04
-3.660187e-04
-3.705190e-07
1.922445e-04
2.829622e-05
-2.872747e-04
-1.078575e-04
2.368021e-04
9.263068e-08
-7.458610e-09
6.204174e-08
-1.145199e-07
-8.974452e-08
-3.240905e-08
-1.852458e-07
-7.085148e-08
7.086875e-08
-2.492141e-08
-9.598619e-08
-2.313348e-08
-9.251956e-08
-1.482016e-07
-1.061802e-07
-1.109289e-07
-6.161061e-08
-6.279757e-08
2.034641e-07
2.652777e-07
2.214955e-07
1.370881e-07
1.109369e-07
1.418764e-07
1.067339e-07
4.643935e-08
-1.823027e-08
-5.764673e-08
-7.985538e-08
-6.939763e-08
-8.345323e-08
-1.393735e-07
-1.630395e-07
-7.964069e-08
-6.378671e-08
-9.834616e-08
-4.351094e-06
-1.649916e-06
2.122703e-07
-4.675185e-06
-1.593392e-06
-8.660344e-07
-1.337205e-06
-3.023869e-06
-5.243614e-07
1.135159e-08
4.238355e-09
-5.066827e-09
-1.143955e-08
-4.792408e-09
-5.510238e-09
-1.379665e-08
-2.659033e-09
1.545011e-08
4.675450e-08
7.298725e-08
7.927195e-08
-3.286338e-08
1.654293e-08
3.155712e-08
-8.331421e-08
-3.556082e-08
-1.128257e-08
-1.394116e-07
-2.114193e-07
-1.300875e-07
-2.077128e-07
-3.272784e-07
-2.981641e-07
-2.549203e-07
-2.653537e-07
-2.215732e-07
4.434462e-08
2.463617e-08
3.398167e-08
4.882439e-08
6.196348e-09
4.626418e-08
3.621271e-08
-2.451162e-08
1.044603e-08
-1.001171e-09
-6.061178e-09
-4.610663e-09
1.023358e-08
6.899972e-09
8.392234e-09
1.148165e-09
-4.240488e-09
-3.222415e-09
-2.891965e-09
-7.464870e-10
1.221848e-09
-2.902934e-08
-1.532063e-08
-9.716866e-09
-2.055575e-08
-1.316813e-08
1.120779e-09
1.770097e-08
-1.703622e-08
2.141678e-09
-3.202820e-08
-6.269557e-08
-1.024120e-07
-2.509445e-08
-2.291555e-08
-2.668228e-08
-2.822370e-08
-3.610175e-09
-4.706846e-08
5.179106e-08
4.487292e-08
5.468777e-08
5.013311e-08
2.052382e-08
1.905917e-08
-4.933336e-09
-6.607859e-09
-4.089134e-09
-3.547311e-09
-3.297828e-09
7.096505e-10
-6.445170e-09
-5.808632e-10
2.845308e-09
4.150972e-09
1.177012e-07
1.675714e-07
-2.420431e-08
1.143442e-07
1.907863e-07
-3.161309e-08
-6.745446e-08
1.072286e-07
1.383646e-08
6.422147e-08
5.451451e-08
-3.257408e-08
2.765496e-08
3.830010e-08
-4.290821e-09
4.603959e-08
3.301335e-08
-6.097333e-08
-8.917875e-08
2.055639e-08
-3.399484e-07
-2.046986e-07
-5.568065e-08
-1.292875e-07
-3.802263e-08
7.701416e-09
7.428702e-08
1.265656e-08
-4.420889e-08
5.300567e-08
-1.445100e-08
-7.097439e-08
3.718361e-08
4.352875e-09
-4.068778e-08
-1.837972e-07
-2.244174e-07
-3.113295e-07
-3.216638e-07
-4.905645e-07
-4.286275e-07
-3.548388e-07
-2.926024e-07
-2.970127e-07
6.687101e-08
8.896470e-07
3.301762e-06
-4.168146e-07
6.636367e-06
1.716182e-05
-8.251086e-06
4.753346e-06
1.123949e-05
-1.138275e-07
-1.051095e-07
-1.252663e-07
-1.113471e-07
-1.379627e-07
-9.331767e-08
1.310102e-08
3.106470e-08
-8.627363e-08
-4.277745e-08
-1.220291e-07
-2.058681e-08
-1.321867e-07
-2.420555e-07
-1.809612e-07
-2.257126e-07
-1.322082e-07
-8.644872e-08
9.729405e-09
1.303143e-08
1.035459e-09
-2.148824e-08
-3.884673e-09
-2.353600e-08
5.453114e-09
2.622809e-08
1.797831e-08
1.254931e-09
-5.919536e-10
-7.739866e-10
1.128218e-09
4.796810e-10
-1.260820e-10
-5.418385e-10
2.454803e-09
7.064351e-11
-5.124228e-08
-1.405611e-07
-2.226026e-08
-1.493313e-07
-2.137448e-07
-8.872398e-08
-2.180539e-07
-1.548954e-07
-4.305256e-08
1.110153e-08
-6.791488e-08
-4.834287e-09
-2.751048e-08
-9.010803e-08
-7.011236e-08
-6.152830e-08
2.416408e-09
-1.160787e-08
1.156875e-07
1.980853e-07
2.195816e-07
2.640988e-07
3.074024e-07
3.086649e-07
2.920888e-07
1.498402e-07
7.956842e-08
-1.519723e-08
-4.062591e-08
-3.464746e-08
1.808995e-08
-2.714241e-08
-3.280887e-08
5.568306e-09
-6.497658e-09
-2.693842e-08
3.457488e-08
7.137611e-09
-1.644478e-08
1.651367e-08
1.787530e-08
-3.147402e-08
1.606550e-08
2.984384e-08
4.244186e-09
-1.163998e-07
-1.915439e-07
-1.791180e-07
-1.397242e-07
-2.255491e-07
-2.537357e-07
-1.373803e-07
-1.485824e-07
-1.251368e-07
3.532476e-08
6.223877e-08
9.782237e-08
-1.568308e-07
-8.360224e-09
3.188623e-08
-1.142263e-07
-6.557531e-08
1.003131e-07
3.230410e-08
-1.610420e-08
1.699757e-08
-9.368005e-08
-1.111767e-07
1.075949e-07
-7.917188e-08
-1.773273e-07
-3.482808e-08
4.420732e-04
6.797023e-04
5.034661e-04
6.579197e-04
1.311676e-03
6.879433e-04
-1.943551e-04
4.761786e-04
-1.930232e-04
4.928077e-04
7.711723e-04
5.271012e-04
6.191346e-04
1.404149e-03
8.755156e-04
-2.304515e-04
6.019301e-04
-1.037446e-04
-4.540964e-04
-7.752317e-04
-5.415745e-04
-5.709969e-04
-1.399261e-03
-8.874441e-04
3.044507e-04
-5.830317e-04
7.662202e-05
4.555181e-04
7.930368e-04
5.475077e-04
5.853489e-04
1.449876e-03
9.195584e-04
-3.140648e-04
6.185418e-04
-1.106873e-04
8.362336e-03
9.516356e-05
-2.828777e-03
8.946138e-03
8.005786e-04
7.024911e-03
4.514125e-03
-1.975221e-02
7.181095e-03
1.091038e-06
2.390585e-06
2.051118e-06
1.898209e-06
2.406073e-06
1.492086e-06
5.074817e-07
6.331952e-07
-3.624119e-07
-1.375864e-04
-2.275484e-04
-1.613321e-04
-1.915798e-04
-3.408383e-04
-2.218995e-04
-1.045694e-06
-1.375254e-04
-2.478371e-05
5.211267e-04
6.576700e-04
4.628505e-04
6.663375e-04
1.158954e-03
6.152042e-04
2.229536e-05
4.626152e-04
-1.266027e-04
-5.575981e-05
-9.943897e-05
-7.777995e-05
-7.220589e-05
-1.242674e-04
-8.208918e-05
-3.765522e-06
-4.789964e-05
-1.119648e-05
-4.892686e-05
-8.863144e-05
-7.133813e-05
-6.971294e-05
-1.177873e-04
-7.832977e-05
-5.280510e-06
-4.620772e-05
-1.064417e-05
3.679352e-08
3.747193e-07
4.955467e-07
5.412435e-08
6.836634e-07
5.525795e-07
1.667001e-07
1.468452e-07
-5.735848e-08
4.039213e-04
6.129115e-04
4.220922e-04
5.219471e-04
1.095927e-03
6.668190e-04
-1.322136e-04
4.281651e-04
-6.216256e-05
-1.889441e-04
-2.883918e-04
-2.068442e-04
-2.367704e-04
-4.169015e-04
-2.766700e-04
-1.814561e-05
-1.878935e-04
-5.175526e-05
-4.584378e-08
1.359743e-08
2.441470e-08
3.005002e-08
-2.710597e-08
-2.436185e-08
3.630370e-08
-2.310820e-08
1.955303e-08
-6.183148e-05
-1.528662e-04
-1.184255e-04
-1.067766e-04
-2.290525e-04
-1.436472e-04
4.217402e-05
-7.559831e-05
2.045762e-06
2.523310e-05
4.094950e-05
3.573426e-05
3.253209e-05
4.873209e-05
3.703145e-05
8.020386e-06
1.734334e-05
3.611511e-06
-6.399968e-04
-6.026879e-04
-4.751354e-04
-1.098354e-03
-1.357394e-03
-4.935070e-04
-2.919538e-04
-6.545293e-04
2.321193e-04
-3.746134e-04
-6.609718e-04
-4.558752e-04
-5.032811e-04
-1.192156e-03
-7.325433e-04
2.426457e-04
-4.489933e-04
7.703242e-05
1.033400e-03
1.135000e-03
5.831402e-04
9.625591e-04
1.536719e-03
1.138580e-03
4.234953e-04
9.415425e-04
1.206520e-04
-2.209156e-02
-3.066696e-02
-3.110627e-02
-4.821329e-02
-3.483244e-02
-2.394985e-02
-3.962060e-02
5.108963e-03
3.799831e-02
5.136511e-04
6.994476e-04
4.921550e-04
6.594469e-04
1.282492e-03
7.263451e-04
-1.095123e-04
5.119239e-04
-1.313176e-04
5.236312e-04
6.922339e-04
5.010466e-04
6.828996e-04
1.245832e-03
6.657068e-04
-4.735389e-05
4.963403e-04
-1.433289e-04
2.154690e-04
3.522532e-04
2.629765e-04
3.054001e-04
5.467591e-04
3.817710e-04
9.415898e-06
2.533890e-04
8.749008e-05
-5.665186e-10
8.483091e-09
-1.156099e-08
1.102780e-08
-1.520812e-08
9.566387e-09
-5.568941e-10
-5.979153e-09
3.041305e-09
5.921202e-04
8.938357e-04
5.758468e-04
6.559485e-04
1.492679e-03
9.978005e-04
-1.903655e-04
7.102145e-04
-5.430974e-05
4.355886e-04
6.745357e-04
4.720914e-04
5.848988e-04
1.256680e-03
7.410474e-04
-1.898657e-04
4.937706e-04
-1.142627e-04
-8.683177e-04
-1.240370e-03
-6.286291e-04
-8.452761e-04
-1.705034e-03
-1.309239e-03
-1.593672e-04
-9.564486e-04
-1.575414e-05
-3.896019e-05
-6.664160e-05
-5.546255e-05
-5.087872e-05
-8.539270e-05
-6.041340e-05
-4.954860e-06
-3.186502e-05
-9.259406e-06
2.618214e-04
5.448089e-04
3.738475e-04
3.719144e-04
9.273454e-04
5.748610e-04
-1.864879e-04
3.346336e-04
-3.975396e-05
4.986153e-04
7.725679e-04
5.337644e-04
6.109212e-04
1.352737e-03
8.687588e-04
-1.919359e-04
5.947226e-04
-9.133991e-05
3.380389e-04
6.460473e-04
4.679018e-04
5.616585e-04
1.402733e-03
7.291790e-04
-4.342378e-04
4.440425e-04
-2.429122e-04
-4.461796e-04
-6.005805e-04
-3.845649e-04
-6.710960e-04
-1.256031e-03
-5.538888e-04
1.343481e-04
-3.784632e-04
2.474168e-04
-7.024215e-07
-9.067649e-07
-8.162321e-07
-5.736723e-07
-8.676089e-07
-7.204434e-07
-2.457041e-07
-4.944125e-07
-3.085313e-07
-6.849085e-07
-6.533193e-07
-5.388211e-07
-6.065065e-07
-6.397603e-07
-4.724270e-07
-6.202292e-08
-4.821617e-07
-2.244271e-07
7.455588e-07
6.675578e-07
5.485650e-07
6.940164e-07
6.507092e-07
5.095067e-07
1.445352e-07
3.902104e-07
1.942032e-07
-6.383490e-07
-6.222858e-07
-4.549645e-07
-5.364518e-07
-6.068336e-07
-3.363448e-07
-1.246069e-07
-4.245234e-07
-1.184542e-07
-8.180426e-07
1.183040e-06
2.611968e-06
-2.676019e-06
-3.534046e-08
3.204359e-06
1.108267e-06
-9.705884e-07
3.656833e-06
3.376194e-08
1.279931e-08
-7.996665e-09
3.144618e-08
1.749768e-08
-7.537172e-10
3.007122e-08
1.428409e-08
-1.572826e-09
-1.682238e-07
-2.172949e-07
-1.886319e-07
-2.058148e-07
-2.865528e-07
-1.852151e-07
-8.248043e-08
-1.523270e-07
-1.047915e-07
-6.203493e-07
-6.757708e-07
-6.682084e-07
-5.600671e-07
-6.898036e-07
-3.609717e-07
-1.817650e-07
-4.506825e-07
-8.552851e-08
2.383814e-07
2.279435e-07
3.058643e-07
2.291002e-07
1.309271e-07
1.778692e-07
1.158895e-07
1.279774e-07
1.066707e-07
5.348567e-08
6.164916e-08
6.261447e-08
4.088129e-08
-4.134933e-09
1.374684e-09
4.954658e-08
2.136641e-08
7.548589e-09
-1.131877e-08
-6.884656e-08
-1.137545e-07
-3.234403e-10
-6.202024e-08
-9.436135e-08
8.546419e-09
-3.575921e-08
-4.761202e-08
-4.449873e-07
-4.400755e-07
-3.578140e-07
-3.632632e-07
-3.395741e-07
-2.325990e-07
-1.408464e-07
-1.814680e-07
-1.217830e-07
4.772607e-07
4.281501e-07
2.529596e-07
3.900579e-07
2.734328e-07
1.322348e-07
1.550697e-07
2.176320e-07
3.537708e-08
-3.651541e-09
-4.229347e-09
-2.449907e-08
4.229874e-09
2.568920e-08
3.316235e-09
6.691870e-09
1.208324e-09
1.405929e-10
5.065908e-08
1.218255e-07
2.453342e-07
3.880304e-08
1.403975e-07
1.763121e-07
1.361715e-07
1.129463e-07
1.345626e-07
-5.896845e-08
-7.418925e-08
-5.325055e-08
-5.945616e-08
-4.386912e-09
7.501250e-09
-3.157432e-08
-4.848016e-09
3.062609e-08
3.976042e-07
7.473751e-07
8.661593e-07
3.851294e-07
6.667390e-07
8.599770e-07
4.156555e-07
6.577860e-07
7.876570e-07
5.123223e-07
4.044547e-07
4.081256e-07
2.154433e-07
2.664562e-07
2.587219e-07
2.604303e-07
1.101151e-07
1.088762e-07
-6.407752e-07
-5.997463e-07
-6.344693e-08
-8.681453e-07
-9.504869e-07
-9.241538e-08
2.456142e-07
-7.530175e-07
6.041387e-07
3.104433e-05
2.043264e-05
2.850459e-06
1.994813e-05
3.421677e-05
1.215563e-05
-3.269609e-05
-1.437656e-06
8.159897e-06
-8.770285e-07
-6.631503e-07
-9.868679e-07
-7.623846e-07
-5.368994e-07
-3.974686e-07
-8.045132e-08
-5.215379e-07
-2.040315e-07
-6.373890e-07
-6.885557e-07
-6.257258e-07
-4.822468e-07
-6.567698e-07
-3.825729e-07
8.293289e-09
-3.872956e-07
2.167931e-08
-1.847653e-07
-1.414082e-07
-6.893619e-08
-1.246602e-07
-3.150366e-08
3.926995e-08
-9.338122e-08
-1.768877e-08
-9.701784e-09
8.128129e-10
2.116270e-10
1.291085e-09
2.649295e-09
1.057199e-09
2.752870e-09
2.136743e-09
2.778862e-09
2.925274e-09
-6.059200e-07
-5.789249e-07
-4.016233e-07
-6.320782e-07
-6.815052e-07
-3.884784e-07
1.277947e-07
-5.389057e-07
-5.436330e-08
-5.734992e-07
-5.681168e-07
-4.618642e-07
-4.539764e-07
-5.521039e-07
-4.521689e-07
-1.068131e-07
-3.522408e-07
-2.148177e-07
1.126900e-06
7.504838e-07
8.298624e-08
1.076362e-06
9.080624e-07
1.526497e-07
2.441029e-07
6.565856e-07
-1.224464e-07
1.328875e-07
1.505333e-07
1.398263e-07
9.203752e-08
8.642073e-08
8.840576e-08
7.945212e-08
5.431491e-08
5.864856e-08
-2.496194e-07
-2.615540e-07
-1.648704e-07
-2.232631e-07
-1.052540e-07
-5.847621e-09
-1.281568e-07
-6.622162e-08
1.870349e-08
-7.688688e-07
-7.774034e-07
-6.809572e-07
-7.260434e-07
-8.360001e-07
-5.100708e-07
-2.361730e-07
-5.460936e-07
-2.326201e-07
-2.757306e-07
-4.918746e-07
-4.867607e-07
-2.152726e-07
-3.869457e-07
-3.699224e-07
-2.355301e-07
-1.784728e-07
-1.381076e-07
3.924960e-07
3.965413e-07
3.183460e-07
7.745875e-08
1.443961e-07
3.480536e-08
-7.005775e-08
5.069398e-08
-8.921153e-08
3.030875e-04
6.007816e-04
-6.332372e-04
5.013084e-04
6.240692e-04
-1.893423e-04
-2.812425e-04
-1.413638e-04
-1.628494e-06
9.498299e-05
6.085664e-04
-5.343293e-04
5.154224e-04
6.785473e-04
-2.812004e-04
-3.689424e-05
-1.737497e-04
-2.699697e-04
-4.031121e-05
-5.815352e-04
4.777395e-04
-4.947344e-04
-6.905880e-04
2.855632e-04
-6.276205e-05
1.510418e-04
3.540098e-04
7.905749e-05
6.115070e-04
-5.351912e-04
5.166715e-04
7.117718e-04
-2.720342e-04
-1.812928e-05
-1.768171e-04
-2.784020e-04
-2.713467e-04
-7.350528e-04
-4.494017e-03
3.396088e-03
-2.964629e-03
-6.580961e-03
1.269988e-03
-6.267641e-04
-6.571619e-03
-5.953102e-07
2.005557e-06
-9.104249e-07
1.821835e-06
3.766891e-06
1.783657e-06
4.176103e-08
1.437616e-06
2.698119e-07
-1.110245e-04
-1.714276e-04
3.772456e-05
-1.004151e-04
-1.615905e-04
-5.340241e-05
-9.965412e-06
-5.820653e-05
-9.822141e-05
3.079422e-04
5.629906e-04
-5.139171e-04
4.962349e-04
5.211723e-04
-2.464901e-04
-2.352385e-04
-1.473769e-04
-8.683131e-05
-4.126909e-05
-8.694777e-05
-4.067213e-06
-3.669404e-05
-7.862700e-05
-5.071501e-05
-1.284130e-05
-4.725698e-05
-6.535349e-05
-4.871979e-05
-8.045632e-05
6.488196e-06
-3.520265e-05
-7.437344e-05
-4.774066e-05
-4.316927e-06
-4.965614e-05
-7.457051e-05
-6.417498e-07
2.780467e-07
3.870030e-07
4.116743e-07
8.734036e-07
6.700496e-07
4.284249e-07
3.105881e-07
-3.973991e-07
2.266628e-04
4.994867e-04
-4.023205e-04
4.129850e-04
5.125953e-04
-1.786202e-04
-7.163771e-05
-1.268158e-04
-8.310602e-05
-1.010263e-04
-1.897838e-04
3.252039e-05
-1.225231e-04
-1.831863e-04
-2.843956e-05
-3.917779e-05
-4.874981e-05
-4.343054e-05
3.100357e-08
2.259569e-09
-3.207366e-08
-4.317372e-08
-7.908767e-08
2.630682e-08
-8.927085e-09
2.199056e-08
4.516284e-09
-8.804090e-05
-1.459459e-04
9.703569e-06
-6.990221e-05
-1.351291e-04
-7.545555e-05
-3.377310e-06
-5.276082e-05
-1.062569e-04
1.552967e-05
3.863928e-05
-3.470409e-06
1.679932e-05
4.213590e-05
2.755869e-05
4.744460e-06
3.279756e-05
3.864449e-05
-3.038809e-04
-5.770528e-04
1.125732e-03
-4.846697e-04
-7.979779e-04
3.032985e-04
5.480807e-04
9.283744e-05
-1.406977e-04
-1.932944e-04
-5.143497e-04
4.222300e-04
-4.226099e-04
-5.782296e-04
1.885164e-04
3.449773e-05
1.298068e-04
1.214734e-04
-5.200934e-04
7.103860e-04
-2.740584e-04
6.038304e-04
8.286805e-04
-7.651340e-04
6.477697e-04
-2.927849e-04
-1.576971e-03
1.667904e-03
-1.575448e-03
6.185286e-03
-1.120254e-02
-1.258045e-02
4.260724e-03
-6.949441e-04
-1.097391e-02
1.722199e-02
1.848569e-04
5.823830e-04
-5.361411e-04
5.021224e-04
6.104671e-04
-2.722033e-04
-1.216750e-04
-1.570461e-04
-1.810371e-04
2.758850e-04
5.907269e-04
-5.640796e-04
5.117691e-04
5.773282e-04
-2.562409e-04
-2.290702e-04
-1.607536e-04
-1.017393e-04
1.056973e-04
2.043700e-04
-8.136537e-05
1.488959e-04
2.238706e-04
-2.798626e-06
5.744914e-05
5.742493e-05
2.686599e-05
-6.398364e-09
1.580657e-09
6.467544e-09
-1.492690e-09
1.205548e-08
-5.104332e-09
1.115169e-08
-8.970446e-09
-3.584979e-09
-6.145199e-05
6.420586e-04
-4.898270e-04
5.366339e-04
7.331949e-04
-3.896645e-04
1.255832e-04
-2.045676e-04
-5.508800e-04
2.253102e-04
5.661813e-04
-5.237008e-04
4.819311e-04
5.976126e-04
-2.176188e-04
-1.429218e-04
-1.515964e-04
-8.987159e-05
7.868755e-04
-6.994870e-04
-7.731274e-05
-7.497667e-04
-8.890529e-04
7.168834e-04
-9.481004e-04
2.595547e-04
1.925306e-03
-2.422426e-05
-6.087241e-05
-5.241245e-06
-2.426805e-05
-6.073220e-05
-4.309857e-05
-1.566430e-05
-4.633074e-05
-5.081875e-05
2.043555e-04
4.131974e-04
-2.448129e-04
3.233263e-04
4.349137e-04
-6.313341e-05
-2.469629e-05
-6.587844e-05
-1.257523e-05
7.134748e-05
5.810387e-04
-4.719616e-04
5.087309e-04
6.516685e-04
-3.005093e-04
2.011054e-05
-1.726641e-04
-3.375145e-04
4.373112e-04
6.796450e-04
-8.096276e-04
4.887751e-04
7.030767e-04
-9.362111e-05
-4.375461e-04
-1.727750e-04
2.285230e-04
-4.006076e-04
-6.593206e-04
6.883870e-04
-4.823235e-04
-6.110852e-04
1.373537e-04
4.212358e-04
1.480608e-04
-1.390547e-04
4.541008e-04
3.141582e-04
2.010059e-04
3.518243e-04
3.710010e-04
2.816402e-04
1.107952e-04
2.223398e-04
2.481926e-04
4.703848e-04
2.860083e-04
2.236397e-04
4.311401e-04
4.429134e-04
3.218140e-04
1.422254e-04
3.417353e-04
3.597584e-04
-4.501284e-04
-2.732205e-04
-2.082587e-04
-3.965888e-04
-4.408591e-04
-3.379304e-04
-1.298035e-04
-3.389470e-04
-3.756105e-04
4.612977e-04
2.848582e-04
2.382047e-04
4.259684e-04
4.598324e-04
3.548710e-04
1.495979e-04
3.692794e-04
3.977520e-04
8.897068e-04
-2.287837e-03
-1.794297e-03
-2.102223e-03
-6.387750e-03
-4.650927e-03
5.830239e-04
-3.332003e-03
-5.943991e-03
2.868662e-07
1.149305e-06
1.197726e-06
-1.423508e-07
3.232964e-07
3.523230e-07
-7.430112e-07
-7.284722e-07
-6.691281e-07
-9.583659e-05
-5.815882e-05
-3.799285e-05
-1.003849e-04
-1.003924e-04
-7.702994e-05
-2.817346e-05
-5.324727e-05
-5.212265e-05
4.333570e-04
2.733813e-04
1.607386e-04
3.682510e-04
3.131423e-04
1.970079e-04
1.079212e-04
1.797344e-04
1.807434e-04
-3.404835e-05
-2.245627e-05
-1.824970e-05
-2.985477e-05
-2.913585e-05
-2.455259e-05
-1.605148e-06
-8.932171e-06
-1.233885e-05
-3.278824e-05
-2.012803e-05
-1.661819e-05
-3.015456e-05
-2.596318e-05
-2.273116e-05
-3.019856e-06
-4.219458e-06
-7.435914e-06
-5.239670e-08
2.233328e-08
1.717424e-07
-7.583331e-09
-2.342077e-08
-1.383804e-08
-1.432665e-07
-1.099180e-07
-3.628827e-08
3.364616e-04
2.016359e-04
1.481318e-04
3.190119e-04
3.170877e-04
2.379408e-04
1.210298e-04
2.238148e-04
2.247500e-04
-1.191710e-04
-7.475979e-05
-4.777964e-05
-1.250615e-04
-1.247382e-04
-8.956741e-05
-3.511941e-05
-7.135730e-05
-6.884718e-05
-2.809031e-08
-5.911637e-09
3.325857e-09
-9.260695e-09
1.154118e-08
2.047233e-08
9.070156e-09
1.277026e-08
1.837228e-08
-5.449113e-05
-3.125302e-05
-2.278145e-05
-5.159000e-05
-5.803330e-05
-5.393013e-05
-1.174564e-05
-3.576795e-05
-4.063780e-05
1.514966e-05
8.329964e-06
9.402942e-06
1.034635e-05
6.591049e-06
8.027149e-06
-2.374813e-06
-2.835373e-06
9.867814e-07
-6.922194e-04
-5.509524e-04
-2.963816e-04
-4.775523e-04
-5.250396e-04
-2.665810e-04
-7.206285e-05
-2.069899e-04
-1.491018e-04
-3.452997e-04
-2.098739e-04
-1.618648e-04
-3.185846e-04
-3.466031e-04
-2.828700e-04
-1.281086e-04
-2.613583e-04
-2.773026e-04
7.471051e-04
3.392903e-04
2.207135e-04
7.989607e-04
6.823931e-04
3.192139e-04
1.566988e-04
5.433715e-04
5.122615e-04
-2.872902e-02
-5.461961e-03
8.914822e-03
-2.372298e-02
-1.157746e-04
1.899313e-02
-1.359943e-02
-1.375762e-02
5.419455e-03
4.612664e-04
2.920083e-04
1.869970e-04
3.817258e-04
3.789481e-04
2.630055e-04
1.102525e-04
2.466328e-04
2.586472e-04
4.562832e-04
2.996341e-04
1.878702e-04
3.726895e-04
3.507224e-04
2.373260e-04
1.081424e-04
2.138263e-04
2.278128e-04
1.488509e-04
8.890084e-05
6.302387e-05
1.724387e-04
1.738972e-04
1.262005e-04
6.332636e-05
1.081945e-04
9.713458e-05
4.347207e-09
1.341083e-09
-2.441311e-09
-5.339243e-10
1.994461e-10
-1.335536e-09
1.652507e-09
-2.691991e-09
-3.174308e-10
5.323617e-04
3.016252e-04
2.456821e-04
5.101491e-04
5.023744e-04
3.409297e-04
1.502976e-04
4.080879e-04
4.317805e-04
4.036890e-04
2.598589e-04
1.946125e-04
3.587330e-04
3.712099e-04
2.822752e-04
1.241426e-04
2.632936e-04
2.740337e-04
-7.337170e-04
-1.822028e-04
-1.432156e-04
-8.632388e-04
-6.890703e-04
-3.770491e-04
-2.511341e-04
-6.562810e-04
-6.622919e-04
-2.492597e-05
-1.488263e-05
-1.208745e-05
-1.954704e-05
-1.751764e-05
-1.623230e-05
2.000362e-06
-7.793103e-07
-6.706243e-06
2.391965e-04
1.363303e-04
1.121909e-04
2.408251e-04
2.495868e-04
2.158918e-04
1.143190e-04
2.024538e-04
2.062513e-04
4.594615e-04
2.768770e-04
2.119633e-04
4.173312e-04
4.287916e-04
3.105025e-04
1.270426e-04
3.255071e-04
3.541925e-04
4.142364e-04
3.045166e-04
2.251713e-04
3.206612e-04
3.794389e-04
3.436571e-04
1.458108e-04
2.676438e-04
2.921743e-04
-4.687731e-04
-2.959250e-04
-1.684134e-04
-3.847070e-04
-3.353630e-04
-2.338429e-04
-1.447916e-04
-1.819124e-04
-1.724982e-04
2.220072e-07
1.943941e-06
1.404556e-06
1.747807e-06
4.582032e-06
4.340834e-06
-6.823102e-07
2.692823e-06
2.921613e-06
2.614659e-07
2.149514e-06
1.444224e-06
1.804220e-06
4.691594e-06
4.378611e-06
-3.103245e-07
2.689879e-06
2.826153e-06
-9.067505e-08
-2.076865e-06
-1.803641e-06
-1.685681e-06
-4.418982e-06
-4.288311e-06
3.895065e-07
-2.127998e-06
-2.413211e-06
-9.863082e-08
2.067440e-06
1.529485e-06
1.550061e-06
4.465089e-06
4.314589e-06
-5.373629e-07
2.389416e-06
2.599696e-06
1.353089e-05
1.794428e-05
-5.392569e-06
7.090211e-06
3.240507e-05
1.848947e-05
-1.107362e-05
3.252141e-05
2.087470e-05
-4.311284e-08
3.717388e-08
7.710665e-09
-7.836439e-09
7.396945e-08
5.391731e-08
-6.271835e-08
2.441167e-08
1.658226e-08
-3.819023e-07
-1.173265e-06
-9.849042e-07
-5.886393e-07
-1.499786e-06
-1.328781e-06
-7.752379e-08
-7.169343e-07
-6.531313e-07
3.029485e-07
2.028508e-06
1.213633e-06
1.439637e-06
4.432689e-06
3.999891e-06
-7.422713e-07
3.121770e-06
3.045166e-06
-3.333046e-07
-8.420837e-07
-7.923410e-07
-4.288562e-07
-1.059726e-06
-8.898729e-07
4.660424e-08
-4.608459e-07
-3.865011e-07
-1.548346e-07
-6.595132e-07
-6.243351e-07
-2.499567e-07
-8.607936e-07
-7.859869e-07
6.995008e-08
-4.071137e-07
-3.843859e-07
-5.164536e-08
2.189702e-08
2.269356e-08
-3.424406e-08
4.760919e-08
4.771179e-08
-6.781058e-08
3.179431e-08
3.547836e-08
3.259236e-07
1.875311e-06
1.469676e-06
1.306346e-06
3.277056e-06
3.040424e-06
1.912917e-08
1.810700e-06
1.754753e-06
-5.851104e-07
-1.578861e-06
-1.163931e-06
-8.484736e-07
-2.011834e-06
-1.575345e-06
-1.957508e-07
-1.132188e-06
-8.830784e-07
1.212406e-09
6.114475e-11
-2.527519e-09
-1.223710e-09
-4.397298e-09
-8.249840e-09
2.205041e-09
7.506011e-10
-2.344086e-09
-1.716179e-07
-7.929640e-07
-8.085712e-07
-2.499946e-07
-1.101896e-06
-9.338418e-07
1.657791e-07
-3.295604e-07
-2.445049e-07
1.120011e-07
4.560525e-07
4.053563e-07
1.728925e-07
6.287003e-07
5.024388e-07
-9.222057e-08
2.651503e-07
2.123333e-07
1.581046e-06
-2.558918e-06
-1.789224e-06
-2.263660e-06
-8.011870e-06
-6.757788e-06
9.406369e-08
-6.361885e-06
-4.986874e-06
-2.046206e-07
-1.895609e-06
-1.680305e-06
-1.238543e-06
-3.417062e-06
-3.365997e-06
2.150413e-07
-1.711712e-06
-1.789619e-06
4.899064e-06
7.657850e-06
2.044538e-06
5.087233e-06
1.081517e-05
6.114108e-06
8.173382e-09
5.811603e-06
3.448096e-06
1.257379e-04
1.732311e-04
9.536936e-05
2.286574e-04
3.292550e-04
1.983014e-04
9.972521e-05
2.574849e-04
1.653189e-04
5.390319e-07
2.159564e-06
1.312340e-06
2.160740e-06
4.577885e-06
4.112681e-06
1.579344e-08
2.822606e-06
2.867126e-06
3.431665e-07
2.185764e-06
1.374076e-06
1.546057e-06
4.663300e-06
4.295060e-06
-7.739454e-07
3.117044e-06
3.116659e-06
3.378372e-07
1.480477e-06
1.352087e-06
8.097263e-07
2.202931e-06
1.937256e-06
3.785030e-07
1.420808e-06
1.309886e-06
2.240672e-09
-8.601238e-10
-1.604968e-09
2.935137e-09
4.135604e-10
-1.354256e-09
4.881003e-10
1.156273e-09
-3.070473e-09
7.183335e-07
3.002003e-06
1.566113e-06
1.977832e-06
5.710525e-06
4.840345e-06
-5.819467e-07
2.975064e-06
2.841173e-06
3.622012e-07
1.950573e-06
1.489862e-06
1.696850e-06
4.064793e-06
3.891000e-06
-1.670139e-08
2.402106e-06
2.561943e-06
-3.014825e-06
-5.523408e-06
-2.008829e-06
-5.489930e-06
-9.120881e-06
-5.608698e-06
-7.779748e-07
-5.446128e-06
-4.940890e-06
-1.444001e-07
-5.761595e-07
-5.462265e-07
-2.490615e-07
-7.683881e-07
-6.742972e-07
1.479355e-07
-2.973080e-07
-3.003846e-07
1.507781e-07
1.702226e-06
1.507556e-06
7.656193e-07
2.449919e-06
2.316645e-06
-3.799239e-08
1.070778e-06
1.027950e-06
2.058086e-07
2.296714e-06
1.661048e-06
1.685673e-06
4.600930e-06
4.411102e-06
-6.297335e-07
2.467737e-06
2.783251e-06
-3.791744e-07
1.549673e-06
1.704952e-06
8.485796e-07
3.676373e-06
3.916876e-06
-9.576758e-07
1.839948e-06
2.134730e-06
-3.390695e-07
-1.890658e-06
-1.005032e-06
-2.080580e-06
-4.403692e-06
-3.654416e-06
-1.545283e-07
-2.918992e-06
-2.519711e-06
6.632627e-06
-5.831849e-05
-2.493390e-05
2.774943e-05
-7.956735e-05
-5.335708e-05
1.692736e-04
4.510025e-05
5.605141e-05
3.386178e-05
-5.435311e-05
-2.757748e-05
4.535739e-05
-8.166757e-05
-6.360120e-05
1.732100e-04
2.893571e-05
3.467433e-05
-2.803066e-05
5.861364e-05
5.268666e-05
-4.538808e-05
7.809409e-05
8.185265e-05
-1.743160e-04
-3.133810e-05
-1.454753e-05
4.064650e-05
-5.453887e-05
-4.422259e-05
5.615985e-05
-7.865335e-05
-7.951661e-05
1.842912e-04
3.062136e-05
1.791482e-05
-2.568559e-03
-3.214044e-04
3.124505e-03
-3.262042e-03
-1.512174e-03
2.323079e-03
-3.154203e-03
-1.095329e-03
2.826435e-03
-1.019298e-07
-1.460415e-07
-2.713608e-07
-4.134216e-07
-5.996474e-07
-7.471102e-07
1.555236e-08
-1.840304e-07
-4.047741e-07
-1.509897e-06
3.567956e-06
1.384833e-05
-8.261105e-06
6.543769e-06
1.803785e-05
-3.603448e-05
-1.647123e-05
-7.882481e-07
3.168506e-06
-5.778757e-05
2.174890e-06
1.225314e-05
-8.037379e-05
-2.439662e-05
1.372361e-04
3.610699e-05
7.791608e-05
-2.557372e-06
-1.718313e-06
5.663232e-06
-5.185780e-06
1.870679e-08
8.191152e-06
-1.610876e-05
-9.776761e-06
5.326820e-07
1.070150e-06
3.871446e-07
8.229267e-06
-2.214347e-06
1.822233e-06
1.085537e-05
-1.302223e-05
-7.373193e-06
4.015640e-06
-2.998378e-08
-2.521463e-08
-1.429157e-07
-7.346289e-08
-9.063373e-08
-2.224602e-07
5.316405e-09
3.063142e-08
-8.101750e-08
7.625271e-06
-4.328192e-05
-3.331086e-05
2.452172e-05
-5.569935e-05
-5.317314e-05
1.270067e-04
3.216652e-05
2.296960e-05
-1.112548e-06
1.038673e-05
2.044346e-05
-7.973375e-06
1.262789e-05
2.440120e-05
-3.840878e-05
-1.391341e-05
2.278732e-06
-9.322425e-10
1.733245e-08
1.662956e-08
1.383659e-08
1.886220e-08
1.515179e-08
-9.659880e-09
-9.078136e-09
-1.086025e-08
-8.971507e-06
-3.683179e-06
1.473260e-05
-1.681389e-05
-3.470916e-06
1.680326e-05
-3.755627e-05
-2.179582e-05
1.534152e-06
5.034552e-07
1.382795e-06
-1.508017e-06
7.686184e-07
-1.096655e-06
-4.365026e-06
6.846523e-06
3.950744e-06
-7.450657e-07
-2.012354e-05
1.657439e-05
-1.818746e-04
-1.884723e-05
8.291643e-05
-1.185333e-04
-2.000322e-04
-7.024134e-05
-2.395917e-04
-1.601392e-05
4.288671e-05
4.957264e-05
-3.677417e-05
5.477238e-05
7.111198e-05
-1.449454e-04
-3.563708e-05
-7.701614e-06
2.396373e-05
-8.796034e-05
1.038956e-04
-3.800889e-05
-1.645599e-04
3.404579e-05
1.151593e-04
-1.991388e-05
1.582824e-04
-4.513985e-04
4.392260e-03
-2.929326e-03
4.643999e-03
1.039294e-02
3.699544e-03
2.521354e-03
9.826197e-03
1.491280e-03
1.594885e-05
-5.232345e-05
-4.519290e-06
2.390233e-05
-8.013810e-05
-3.489599e-05
1.543587e-04
3.678762e-05
6.794585e-05
1.299472e-05
-5.505959e-05
6.015866e-07
2.402720e-05
