2.354442e-03
-1.780729e-01
3.325568e-02
-3.458351e-01
-4.903710e-01
-2.493662e-01
-6.871482e-02
-2.447424e-01
1.528647e-02
-4.766253e-03
2.093360e-01
2.842729e-02
2.608979e-01
6.416597e-01
9.148744e-02
2.859057e-01
4.353737e-01
6.676632e-03
8.450329e-02
1.188216e-01
-3.637687e-02
-1.699183e-01
1.248749e-01
-6.412634e-02
-2.202523e-01
1.930270e-02
-3.146223e-02
2.118601e-01
-4.948595e-02
1.705469e-01
-1.847161e-01
-3.192823e-01
-1.359385e-01
1.986214e-01
-4.171393e-02
1.869849e-01
1.276915e-01
-6.115758e-02
8.456135e-02
-2.007456e-01
-2.867270e-01
-1.935339e-01
1.225402e-01
-9.010419e-02
6.867472e-02
1.356395e-01
-8.583349e-02
7.273819e-02
-1.355531e-01
-2.544073e-01
-1.506673e-01
1.975634e-01
-5.514175e-02
9.552157e-02
-9.175522e-02
4.438899e-01
1.740736e-02
-1.204248e-02
1.182723e+00
3.860131e-01
-2.470493e-01
3.122976e-01
-1.089992e-01
8.501404e-02
-2.920373e-01
-9.758621e-02
-3.793536e-01
-5.264433e-01
-2.727533e-01
-4.155751e-02
-1.714764e-01
1.802767e-01
4.378479e-02
-1.622101e-01
7.614564e-02
5.128658e-02
-3.309087e-01
-2.132727e-01
3.334180e-01
6.790268e-03
6.356279e-03
1.713601e-01
2.481114e-01
5.200098e-02
3.650722e-01
2.218388e-01
-7.668225e-02
-5.063164e-02
-1.763204e-01
-7.453093e-03
-1.494232e-01
-3.497754e-01
-1.402164e-01
-3.441509e-01
-5.972530e-01
-3.366791e-01
-1.164124e-01
-3.199303e-01
-1.866512e-02
-2.811162e-02
2.499640e-01
-7.423874e-03
8.747523e-02
5.123568e-01
2.538701e-01
8.111531e-02
3.114775e-01
1.542311e-01
6.984343e-02
4.362480e-01
2.893786e-01
-6.708942e-02
-1.475115e-01
6.466597e-02
-2.901688e-01
-6.212493e-01
-1.934216e-01
-4.258245e-02
1.829496e-01
-2.115969e-01
3.788267e-01
4.170295e-01
-8.027122e-02
1.149654e-01
1.208251e-01
-1.239628e-01
-2.726532e-01
-7.051489e-01
-8.693674e-02
-1.845292e-01
-2.712408e-01
9.706422e-02
9.612024e-02
5.126100e-01
4.561287e-01
-8.030217e-02
-2.550517e-02
5.527125e-02
-3.146546e-01
-6.605302e-02
3.939702e-01
-3.753243e-02
-8.860146e-02
1.371961e-01
-1.235347e-01
-1.381626e-01
1.676551e-01
-2.957169e-01
-1.556250e-01
4.906681e-01
6.841103e-02
-1.887236e-01
1.587557e-01
4.517029e-02
1.096213e-02
7.893127e-02
-9.566211e-02
-4.696339e-02
2.769782e-01
7.402081e-02
-2.378148e-01
-1.920319e-02
-7.792845e-02
-1.290459e-01
1.718798e-02
-7.864882e-02
-5.107688e-01
-1.288707e-01
-6.479315e-02
-1.221090e-01
-2.667599e-02
1.062336e-01
-5.051351e-02
8.083637e-02
-5.650770e-03
-4.919809e-01
-8.507993e-02
4.918728e-02
1.663591e-02
2.454822e-02
1.641087e-01
-9.808452e-03
1.500559e-01
9.024040e-02
-3.727842e-01
7.677008e-02
1.278473e-01
1.283726e-01
1.791634e-01
-1.434121e-01
-1.904633e-01
-1.330062e-01
1.819983e-01
3.922877e-01
3.187411e-01
-8.420652e-02
5.565864e-02
-6.797799e-02
-1.798367e-01
-2.879731e-01
-1.715718e-01
1.135397e-01
2.206691e-01
1.790753e-01
-5.561902e-02
-3.238942e-02
-1.006310e-01
-2.751115e-02
3.179994e-02
-7.971171e-02
2.058120e-01
4.214220e-01
1.506051e-01
5.754126e-02
2.412553e-01
2.023116e-02
9.115069e-02
-8.448485e-02
-2.437090e-01
-3.377402e-01
6.286076e-01
-1.952525e-01
2.913300e-01
-1.138077e-01
-4.457193e-02
9.671700e-02
-4.904157e-02
2.026366e-02
-5.922894e-01
7.317843e-01
-2.766731e-02
4.977869e-02
-2.175187e-01
-5.614687e-02
6.733280e-02
-5.751316e-03
7.595521e-02
-2.605101e-01
1.431198e-01
-1.528472e-01
1.661376e-01
7.715501e-03
-2.611026e-02
1.936006e-01
6.744664e-02
1.108655e-01
6.845785e-02
-3.004145e-01
-1.124122e-02
1.330288e-01
-1.827585e-02
9.358565e-02
6.401398e-02
-4.834721e-02
2.645686e-02
3.990791e-02
-4.292904e-01
-1.028278e-01
1.189269e-01
-1.051306e-01
4.805274e-02
-8.400509e-03
-7.595592e-02
-3.535830e-02
-9.520444e-02
-4.752077e-01
-1.672012e-01
-1.299999e-01
-2.212518e-01
-9.310775e-02
1.200298e-01
3.335204e-01
1.659845e-02
1.181079e-01
-1.858274e-01
-2.691893e-01
7.314410e-02
-1.070997e-01
1.989305e-02
2.752031e-02
1.351508e-01
4.597022e-02
-2.607284e-01
-3.915296e-01
-6.981818e-02
1.197297e-01
9.043950e-02
3.843380e-01
-3.590889e-02
2.296603e-01
7.887214e-02
-2.079438e-01
-8.817078e-02
-9.040714e-03
7.627569e-02
-4.852099e-02
-6.284112e-02
5.948427e-02
1.130351e-01
1.029792e-01
1.023395e-01
2.026340e-01
7.755714e-02
1.729179e-02
1.279494e-01
4.717648e-02
-4.650578e-02
-2.888106e-02
-6.690823e-02
5.621801e-02
2.828540e-01
4.040313e-03
-1.561977e-01
1.240932e-01
-1.020841e-01
-5.548332e-02
-5.268947e-02
-5.946973e-02
5.455481e-02
2.166317e-01
5.554444e-02
-1.702267e-01
7.943761e-02
-7.769211e-02
2.870716e-02
2.084650e-01
3.609784e-03
5.875345e-02
4.052436e-01
1.557517e-01
-6.589234e-02
1.200865e-01
-5.528653e-02
2.487990e-02
9.981866e-02
-4.429840e-02
3.600054e-01
4.781742e-01
2.737956e-01
-8.457487e-03
1.077820e-01
4.690665e-02
-5.697834e-02
-3.355807e-01
6.067597e-02
-1.446241e-01
-7.086495e-01
-2.685750e-01
-3.780967e-02
-3.553202e-01
-8.122122e-02
-1.337934e-01
-3.251990e-01
1.626882e-01
-3.858809e-01
1.597607e-01
2.568852e-04
-1.720820e-01
1.643685e-01
4.308442e-01
-4.005643e-02
-5.495794e-03
-5.172162e-02
3.052683e-01
6.059784e-01
-5.705358e-01
-1.928378e-02
5.416292e-02
-7.331450e-02
1.296585e-01
1.067898e-01
9.711661e-02
1.676194e-01
1.129417e-01
-3.842784e-01
-5.298121e-02
-2.344060e-01
-6.888109e-02
1.094541e-01
3.298236e-01
2.106198e-01
1.074656e-01
1.144998e-01
3.058345e-02
-2.059783e-01
-4.085062e-01
-3.175738e-01
1.061802e-01
3.897911e-01
2.093636e-01
1.671225e-01
1.728563e-01
2.299650e-02
-1.321700e-01
-3.746961e-01
-3.040775e-01
1.059794e-01
2.936505e-01
9.237932e-02
1.847044e-01
1.443302e-01
-3.851192e-02
-3.977685e-02
-2.599628e-01
-2.850291e-01
1.579000e-01
-8.801395e-02
-3.712567e-02
3.426759e-01
-9.268519e-02
-1.939255e-01
6.569932e-02
-9.291407e-02
-3.881027e-02
1.867754e-01
-1.868004e-01
-1.165119e-01
4.831646e-01
-1.770046e-01
-2.581034e-01
2.318933e-01
-4.637045e-02
2.256846e-02
8.920749e-02
-2.309181e-01
-1.857064e-01
4.231150e-01
-1.522951e-01
-2.768552e-01
2.905991e-01
-4.255453e-02
-4.438366e-02
