-1.070086e-01
-2.099057e-01
1.683733e-01
2.320766e-01
-1.549255e-01
-3.955674e-01
1.830741e-02
3.135946e-01
6.355707e-02
5.185755e-02
-6.334651e-02
-8.507176e-03
1.402783e-01
2.082441e-01
-1.084443e-01
-1.815581e-01
-1.993920e-01
4.700510e-02
-2.128885e-02
1.117984e-01
-7.752138e-02
-2.435274e-01
2.154379e-02
1.704818e-01
5.990068e-02
-2.249121e-01
4.221085e-02
8.314698e-03
-7.212661e-02
1.750969e-02
5.679396e-02
2.699153e-02
-6.553246e-03
5.196264e-02
2.530641e-02
-8.446886e-02
2.277957e-02
1.825534e-02
-1.697536e-02
-6.329761e-02
3.611317e-02
3.038770e-03
-3.636144e-02
-5.156019e-02
-3.975025e-02
-6.329049e-02
-2.451160e-01
6.570200e-02
2.290922e-01
-7.695579e-02
-2.394815e-01
-1.343771e-03
2.352756e-01
9.678485e-02
-5.202556e-02
-9.950441e-02
6.703747e-02
-4.159500e-02
-6.418500e-02
-1.416471e-02
4.295732e-02
1.045219e-01
-4.315370e-02
-9.752649e-02
-1.311886e-01
-6.158892e-02
8.159965e-02
-2.957082e-02
-3.033691e-02
2.333358e-02
-4.228240e-02
-2.219784e-02
-2.858243e-02
4.282637e-02
3.556071e-02
-1.433057e-01
7.577667e-02
5.358566e-02
-2.928101e-02
-2.873074e-01
7.232446e-03
1.837955e-01
6.230110e-02
-3.659170e-01
-3.046612e-02
2.436037e-01
2.272760e-01
-1.531522e-01
-2.449843e-01
-8.108807e-02
-9.267706e-02
2.256324e-01
1.925182e-01
-2.847460e-01
1.037133e-01
3.251221e-01
2.219491e-02
-1.423865e-01
-2.767313e-01
-1.646517e-01
-5.456869e-02
-4.036216e-02
7.770484e-02
2.130281e-02
-3.498474e-02
1.485219e-01
7.048067e-02
-8.127078e-02
4.309978e-02
-2.111386e-02
-5.268812e-02
-6.477726e-02
-5.957628e-02
2.619389e-02
-2.173587e-02
5.636819e-03
6.191956e-02
6.219985e-02
3.895241e-02
3.218995e-02
2.731204e-02
5.717435e-02
7.852866e-02
2.336159e-02
-9.315141e-02
1.583292e-02
8.519120e-02
-9.102083e-02
7.910068e-02
-3.381598e-02
-3.464946e-03
1.334050e-02
-6.948621e-02
7.310239e-03
-1.518808e-02
3.876528e-02
-4.644828e-02
-5.501512e-02
3.035524e-02
2.810622e-02
5.191919e-03
-2.791231e-02
3.356731e-02
1.467413e-01
1.425314e-01
3.799953e-02
-1.601697e-01
2.898632e-02
-3.859915e-01
1.262818e-01
-1.517501e-01
1.554250e-01
1.800061e-01
-1.454927e-01
-7.397041e-02
4.788102e-02
4.727212e-02
1.742812e-01
3.068099e-02
1.175840e-01
-1.113108e-01
-1.510095e-01
5.339534e-03
-2.925602e-01
-4.275409e-03
-1.620616e-01
5.439656e-02
3.358941e-01
6.031133e-03
1.820428e-01
-1.078739e-01
1.289625e-02
-7.051935e-02
-8.624886e-02
-1.264937e-02
-8.592830e-02
-1.890076e-02
-6.756504e-03
-3.287798e-02
1.058591e-01
1.264445e-02
-5.209642e-02
-6.968228e-04
-1.264920e-02
-5.305276e-02
-5.327644e-02
-2.389995e-02
-3.936417e-02
2.114201e-02
9.077176e-02
1.121681e-01
1.777773e-01
1.470669e-01
9.908319e-02
-2.402462e-01
-4.460129e-03
-2.195476e-01
-1.024960e-03
7.217217e-02
6.068964e-03
-1.993037e-02
5.157129e-02
5.098846e-02
6.708293e-02
-1.960339e-01
-4.252818e-02
8.900415e-02
-5.920279e-02
-1.619853e-01
-1.650449e-01
1.087734e-02
-6.522444e-02
-2.765237e-02
-8.882196e-03
-1.747352e-03
2.723012e-02
-1.414382e-02
3.880734e-01
2.520739e-02
9.569988e-02
2.528272e-01
-1.667929e-01
-4.391693e-02
-1.888426e-01
-1.698669e-01
-1.440033e-01
-1.382258e-01
2.155773e-01
-1.962715e-01
2.136445e-01
9.625771e-02
-2.188136e-02
-6.254800e-02
-9.343762e-02
-9.473699e-02
2.169979e-02
-1.402794e-02
-3.184886e-02
-1.221207e-02
2.878719e-02
3.534076e-02
8.171327e-02
1.330896e-01
5.038743e-02
1.207384e-01
-9.444426e-02
4.273859e-02
-9.131897e-02
-9.822078e-02
1.402323e-02
-4.868982e-02
4.600232e-02
-1.755869e-01
2.248844e-02
1.912531e-01
-5.138076e-02
1.361085e-01
5.116664e-02
1.656094e-01
1.196442e-01
-2.134644e-02
-5.689275e-02
6.037143e-03
-5.061213e-02
1.663007e-02
1.108741e-03
3.206906e-02
-7.014833e-02
-3.800153e-02
6.467180e-02
3.683902e-02
-1.277830e-01
-1.665829e-02
1.846470e-02
-4.927815e-02
3.578220e-02
7.095999e-03
-4.487791e-03
1.633889e-01
-2.705987e-02
4.749891e-02
7.337879e-02
1.329651e-01
1.159791e-01
-4.780834e-02
1.133352e-02
-8.024956e-02
-1.421865e-01
-5.440005e-02
2.285425e-02
-1.476478e-01
-5.328876e-02
6.347968e-02
1.073548e-02
6.460495e-02
2.796799e-02
4.063066e-02
1.182786e-01
8.050622e-02
-3.563804e-02
-1.122888e-01
-6.025653e-02
1.375343e-02
-1.019814e-02
2.888042e-02
1.381264e-01
4.503360e-02
1.060388e-01
2.305552e-02
-2.080980e-02
-4.678869e-02
2.334754e-02
2.537064e-02
3.332942e-02
-2.975259e-02
2.734861e-02
-4.734986e-02
-5.834530e-02
1.659439e-02
8.335190e-02
-8.134261e-02
-1.397927e-01
1.368449e-01
-9.878145e-03
-1.736967e-02
-2.554266e-02
-5.780973e-02
6.594709e-02
1.294302e-01
1.085038e-01
-2.183296e-02
-9.172198e-02
-7.964005e-02
7.165926e-02
4.051920e-02
6.676815e-02
-6.419597e-02
-6.419808e-02
3.877446e-02
2.582942e-02
-3.108434e-02
4.644514e-02
7.187743e-02
1.826102e-01
7.950605e-02
4.253633e-02
2.556126e-02
5.647212e-03
-9.236227e-02
-1.353283e-01
3.260764e-02
4.789042e-02
-1.568930e-02
2.939269e-03
-4.588996e-02
-9.733988e-02
-7.825813e-02
3.146035e-02
-6.237756e-02
-4.384465e-02
-1.379817e-02
-4.850612e-02
-8.029435e-02
-1.174755e-01
-1.070951e-01
-1.478100e-01
7.290595e-02
2.666333e-01
5.680393e-02
-5.879188e-02
-8.569831e-02
-1.308936e-01
-3.479671e-03
5.267515e-02
1.979288e-03
2.433152e-02
1.368016e-01
1.242821e-01
-2.035249e-02
7.793935e-02
4.090001e-02
-5.619423e-02
-2.840062e-02
-1.113039e-01
-3.859356e-02
7.550654e-02
-5.414201e-03
-1.952627e-01
-2.579360e-01
-1.449473e-01
1.787206e-02
4.181623e-02
-5.574465e-02
2.263698e-01
3.137094e-01
1.476943e-01
-7.532787e-02
8.235876e-03
-4.653847e-02
-2.095482e-01
-2.259593e-01
-1.921563e-01
-5.135445e-02
-2.091428e-02
-1.696733e-01
-2.208077e-02
-3.904290e-02
-6.925934e-02
-1.127483e-02
-8.874577e-03
2.139369e-03
7.069733e-02
3.695939e-02
-3.958855e-02
-2.409440e-01
-3.112575e-01
-2.228966e-01
-2.556123e-02
-4.820992e-03
-1.131192e-01
2.324395e-01
3.655737e-01
1.662637e-01
-6.832352e-02
-4.077436e-02
1.351074e-01
5.822872e-03
-4.095039e-02
4.868602e-02
2.769543e-02
-4.641431e-02
-5.281235e-02
1.395457e-02
2.057539e-01
-1.715393e-01
-1.800257e-01
2.961262e-01
1.587000e-02
-5.622444e-02
-9.053772e-02
7.466337e-02
-1.424732e-02
1.432095e-02
-3.731529e-02
-5.885066e-02
6.002905e-02
-1.516582e-02
1.565680e-02
1.693839e-02
1.365010e-02
-6.741002e-02
-2.525858e-01
2.691595e-01
2.666458e-01
-3.802293e-01
5.672489e-02
1.204012e-01
1.044692e-01
-1.745556e-01
-1.539690e-02
2.805563e-02
7.973611e-02
1.052125e-02
4.782538e-02
-2.178289e-02
4.583215e-02
2.453965e-02
-9.681883e-02
5.101663e-03
9.470130e-02
-1.993445e-02
-4.393221e-02
6.686706e-02
-2.402287e-02
-3.083863e-02
-5.032784e-03
9.198599e-02
-1.398087e-01
1.586376e-01
3.019052e-02
-3.055005e-01
1.159669e-01
1.119208e-01
-3.524435e-02
-1.214118e-01
8.716109e-02
-1.594629e-03
-1.752308e-02
-9.382745e-02
-6.528647e-02
-6.880216e-02
-3.660476e-02
-4.550401e-02
-1.164388e-01
-1.087618e-01
-3.022442e-02
1.450187e-01
-3.815772e-02
-5.875570e-02
1.133567e-01
-1.013946e-01
-3.492986e-02
1.412982e-01
-6.029840e-02
5.582334e-02
-1.580039e-01
2.159953e-02
1.877695e-01
-1.522600e-01
-1.384696e-01
8.672583e-02
-9.810218e-03
-1.683292e-01
-1.498134e-01
-5.341769e-02
1.784679e-01
8.120893e-02
-3.224462e-01
1.926080e-01
1.474160e-01
-1.952730e-01
5.352780e-02
2.329075e-01
-1.331324e-01
-4.233331e-02
1.899055e-01
1.790186e-01
-2.381691e-01
-1.713093e-02
1.153670e-01
-1.736456e-02
8.562379e-02
-8.911937e-02
-9.573761e-02
3.700018e-02
-5.413552e-02
-1.282688e-01
2.261735e-02
3.648506e-02
3.253867e-02
-5.068056e-02
3.788456e-02
6.484091e-02
5.468633e-03
-6.062191e-03
4.554151e-03
8.587759e-02
-1.063043e-01
-2.030011e-03
-8.184432e-02
-1.119337e-02
3.982278e-02
-3.372599e-02
-7.080526e-02
8.110031e-02
-5.359671e-02
-5.718483e-02
9.908857e-02
-3.693071e-02
3.849022e-02
5.902366e-02
-5.028864e-02
-3.580104e-02
2.951175e-02
3.363500e-02
6.668653e-02
8.982555e-03
-4.238833e-02
1.730615e-02
-3.736319e-02
-6.934111e-02
2.962146e-02
3.954046e-02
-3.844556e-02
4.935224e-02
6.646354e-02
-3.590518e-02
-1.571313e-01
3.035037e-01
1.038592e-01
3.626922e-01
-4.946364e-01
3.554465e-03
-1.325886e-01
-2.911317e-02
6.490641e-03
-9.561649e-02
7.540604e-02
-1.772616e-01
3.897454e-02
1.052721e-01
1.387239e-02
6.815447e-03
-1.310563e-03
-1.106954e-01
4.025460e-01
-4.179978e-01
1.701279e-01
-5.065381e-01
3.293168e-01
1.573890e-02
4.227151e-02
2.589420e-02
6.716095e-02
-2.887429e-02
-6.105791e-02
2.139177e-02
1.485247e-02
-5.261610e-02
3.142825e-03
2.488830e-02
1.304551e-04
-8.562611e-02
4.516342e-02
1.299160e-02
-5.078615e-02
9.631163e-03
-3.601199e-02
4.037367e-02
7.801966e-03
2.880576e-02
5.835801e-02
-3.884198e-01
-9.232227e-02
-2.363028e-01
2.362106e-01
1.143673e-01
6.670699e-02
1.141091e-01
1.685518e-02
-4.347432e-02
8.366651e-02
-2.182778e-03
-5.958661e-02
5.111070e-02
6.100073e-02
-9.121804e-02
-8.855423e-02
-5.172740e-02
-4.353245e-03
-1.649787e-02
4.656197e-03
-1.713167e-02
-4.460423e-02
2.349793e-02
5.702808e-02
-2.289697e-02
6.006927e-02
-1.934641e-01
2.186790e-02
1.168921e-01
-2.002065e-02
-7.338418e-02
1.059049e-01
-1.243726e-02
-8.730355e-02
-6.405190e-02
-2.115796e-02
2.692566e-01
-3.510840e-01
-6.056394e-03
-1.396152e-01
3.021001e-01
5.812852e-02
-4.674263e-03
-7.407488e-02
2.983079e-02
1.135068e-01
2.178974e-02
-3.910898e-02
-3.039664e-01
3.078812e-02
1.910472e-02
1.961603e-02
-3.847279e-02
-2.248975e-02
-4.344199e-02
2.089865e-01
4.306750e-02
8.709835e-02
1.587631e-02
-1.165153e-02
-1.690978e-02
-1.002403e-01
-8.105583e-02
-6.793854e-03
1.171011e-01
4.231780e-02
-4.442365e-03
-3.743912e-02
1.877648e-01
-8.132578e-02
-1.193123e-01
1.232009e-01
9.773751e-02
-4.176256e-02
-6.970897e-04
-7.753129e-02
-1.021639e-01
-6.508859e-02
-7.700384e-02
2.252569e-02
5.687485e-02
9.579327e-02
-2.053508e-01
1.563036e-02
-2.860140e-02
-6.185304e-02
-2.716202e-02
4.952954e-03
1.444772e-01
-2.060976e-02
5.824112e-02
-5.731871e-02
9.186255e-02
9.192344e-02
-6.405624e-02
1.873034e-02
-6.112286e-02
9.601591e-02
1.901571e-02
-5.607568e-03
-2.582634e-03
-3.994174e-03
-7.609835e-02
1.275159e-01
-3.585057e-02
-7.695844e-02
-3.806788e-03
-6.723973e-02
-7.093769e-02
-9.776519e-02
1.218691e-03
1.044064e-01
-5.312167e-02
3.663732e-02
1.499451e-02
1.165812e-02
-1.000722e-02
5.362475e-02
-6.151756e-02
3.678828e-02
1.616827e-02
-5.259473e-02
-3.661430e-02
1.088177e-01
4.303033e-02
-3.922902e-02
-8.657306e-02
5.628752e-02
-4.058414e-03
-8.594614e-02
-5.019041e-02
1.835667e-01
6.662697e-02
-6.282943e-02
1.494322e-01
1.467332e-01
-1.500976e-01
7.066752e-02
2.133845e-01
2.923651e-02
-1.617339e-01
3.910608e-02
1.859721e-01
8.147454e-02
6.136069e-02
9.771565e-04
-1.669119e-01
5.501899e-02
-3.380563e-02
-6.643320e-02
-3.231036e-03
4.403205e-02
7.493527e-02
-1.096106e-01
-1.927784e-01
1.022208e-01
-3.029281e-02
-1.180598e-03
-6.297057e-03
1.771351e-01
3.396177e-02
-6.689568e-02
-2.705868e-02
-8.978647e-02
-2.517445e-02
3.096261e-02
-1.784129e-02
1.362623e-02
4.195357e-02
-2.769467e-02
-2.042457e-02
1.020649e-01
8.108087e-02
-1.504066e-02
6.471730e-02
-1.147015e-02
-2.758836e-02
6.020133e-03
-4.657868e-02
6.909616e-03
-1.983048e-02
-7.432485e-02
-3.458640e-02
5.264078e-02
-1.271883e-03
-8.205696e-03
3.324179e-02
6.964994e-02
-3.880916e-02
4.459877e-02
-1.127827e-01
-5.177958e-02
2.304782e-01
2.286638e-01
-1.620931e-01
6.425097e-02
1.445199e-01
-6.347787e-02
1.107210e-01
2.268901e-01
-1.595268e-01
-3.353337e-02
1.988588e-01
-8.245297e-02
-1.690148e-01
8.158093e-02
1.470186e-01
8.579461e-02
-1.160388e-01
5.213326e-02
2.474637e-01
1.687928e-01
-1.472320e-01
1.450992e-01
2.207869e-01
-2.951266e-02
4.218640e-02
-3.080574e-02
-3.005340e-02
3.470288e-02
4.837605e-02
2.612254e-02
-2.418093e-02
-9.035222e-02
2.539121e-02
6.740258e-03
3.954689e-02
-6.502392e-02
-1.368545e-01
-3.816441e-02
1.562809e-01
4.911386e-02
4.765355e-03
4.739396e-02
-6.371354e-02
-1.644405e-01
6.681117e-03
1.861575e-02
-7.534420e-02
-1.610265e-02
1.332436e-01
1.571688e-01
-3.205634e-02
-2.365471e-02
9.441876e-02
-2.465859e-01
6.263395e-02
1.673419e-01
8.729130e-02
1.811926e-01
7.523926e-02
-3.765807e-02
-6.684064e-02
-6.406989e-02
5.102483e-02
7.585683e-02
-7.586999e-02
-1.315087e-01
-1.056453e-01
-6.781737e-03
8.300419e-03
2.018853e-02
8.257354e-04
1.835040e-01
1.396694e-01
-6.095694e-02
3.277971e-02
-1.123969e-01
-7.278252e-02
7.472621e-03
-5.597733e-02
-5.524411e-02
-3.595180e-02
-7.319399e-02
3.322931e-02
2.977363e-04
-1.150339e-01
2.686526e-02
-7.587846e-03
3.694675e-02
-3.479683e-02
6.239140e-02
6.143121e-02
5.634279e-02
3.124791e-02
-8.839970e-02
-4.886763e-02
-7.042254e-02
1.232263e-01
-1.871623e-02
-1.426364e-01
-2.654808e-01
-2.546544e-01
-2.236792e-01
-2.180167e-01
-1.905335e-01
-7.264701e-02
-5.632723e-02
-1.035286e-01
6.015720e-02
7.922073e-02
-5.192893e-02
1.363559e-02
-1.149795e-02
-2.178975e-02
-2.581837e-01
-3.306130e-01
-1.168012e-01
-2.135915e-01
-2.367849e-01
3.405846e-02
-8.357805e-02
-1.038352e-01
1.582787e-01
-7.779263e-05
4.039680e-02
-1.190886e-01
9.578986e-02
-4.199299e-02
-1.096238e-01
2.394284e-02
1.604854e-03
5.286276e-02
-8.154538e-02
2.224231e-01
-5.188132e-02
7.561252e-02
6.581498e-02
-1.471743e-01
-4.281121e-02
-2.852201e-01
-2.123049e-01
1.801967e-01
1.069886e-01
-1.861482e-02
2.523095e-01
7.501540e-02
3.167819e-02
2.244479e-01
-4.902168e-02
-9.706485e-02
-1.242280e-01
-9.728787e-02
-1.728463e-02
-4.544391e-02
1.816247e-02
1.427469e-01
7.567478e-02
1.194673e-01
1.921228e-01
-1.541394e-01
8.956444e-03
6.163291e-02
-8.691092e-02
-2.961376e-02
2.554061e-02
-4.315055e-02
2.924090e-02
-4.239155e-03
1.529981e-02
1.045685e-01
-1.899027e-02
9.793367e-02
9.199522e-02
-7.515088e-02
1.213279e-01
-3.043865e-03
-2.257317e-01
1.137414e-01
-5.864643e-03
-2.145837e-02
5.971616e-02
5.065826e-02
-1.538079e-02
1.022726e-01
9.911436e-02
1.365462e-02
-2.402437e-03
2.565929e-02
2.920889e-02
1.091599e-01
-1.614664e-02
-6.160776e-03
1.155626e-01
1.371954e-02
5.450936e-02
-4.603828e-02
-1.054116e-01
-5.848464e-02
-4.848089e-02
8.764344e-02
-2.737178e-02
6.494475e-02
2.190136e-01
1.343219e-02
-1.242715e-01
-1.597061e-01
-3.643852e-03
2.054424e-01
2.576502e-01
5.961907e-02
-2.080472e-01
-1.320152e-01
-2.223568e-01
-1.487141e-02
4.384194e-02
5.196272e-02
-9.035069e-02
1.032323e-01
-9.479552e-02
-7.909314e-02
-5.810201e-02
1.568077e-02
4.226247e-02
1.915878e-02
-6.509896e-02
-6.062845e-02
2.076589e-03
1.764775e-02
-5.943442e-02
-8.040863e-02
-9.657164e-02
-4.686092e-02
2.801299e-02
-6.252727e-02
-1.064890e-01
-3.335538e-02
-1.338420e-01
1.604162e-02
3.846953e-02
3.695908e-02
3.719629e-02
3.198813e-02
-1.192680e-01
5.396924e-02
1.716027e-02
-3.659062e-02
-2.074779e-01
-7.841298e-02
5.830781e-02
1.245765e-01
8.442209e-02
3.797576e-02
2.026302e-02
7.251399e-02
-3.436676e-02
-5.467745e-02
-1.221253e-01
-1.488310e-01
1.509008e-03
-7.819667e-02
-3.895967e-02
-1.950322e-02
-8.656229e-02
-6.573961e-02
3.926061e-02
-1.580727e-04
1.154266e-02
1.779581e-02
-8.634572e-04
9.874713e-02
-2.179576e-01
-2.696023e-01
-1.656761e-01
-2.003768e-03
-1.455186e-01
-4.666759e-02
1.800104e-02
1.020905e-01
6.020994e-02
1.698110e-01
1.418435e-01
-4.594405e-02
-1.265017e-01
-2.870195e-01
-9.697629e-02
9.336043e-02
7.064360e-02
-4.149071e-02
-2.122315e-01
-1.402909e-01
-7.172935e-02
-1.713079e-01
-2.524083e-01
-2.590510e-01
-1.482614e-01
-1.024368e-01
-1.587373e-01
5.368101e-02
6.490277e-02
-8.580251e-03
1.449104e-01
1.321923e-01
1.080196e-02
-2.390337e-02
9.082114e-02
-1.263304e-02
-3.822929e-02
7.806550e-02
4.775745e-02
6.316053e-02
1.573267e-01
1.478738e-01
1.087391e-01
1.858396e-01
7.416786e-02
1.556996e-01
2.479493e-01
1.435441e-01
-1.353089e-01
-1.857458e-01
-2.327819e-01
1.902697e-01
2.660131e-01
1.480268e-01
7.351963e-04
1.612749e-01
8.307859e-02
-1.442896e-01
-4.799158e-02
-1.251140e-01
7.480685e-02
4.257487e-02
7.564625e-03
3.360043e-02
6.799012e-03
6.334005e-02
-8.003525e-02
-9.747148e-02
-1.669104e-02
-2.737794e-02
-5.230683e-02
5.751025e-02
6.400211e-02
3.287599e-02
1.090858e-01
6.466552e-02
-7.322678e-03
5.910126e-02
-8.223373e-02
-1.352666e-01
7.163750e-02
-2.849340e-01
9.185448e-03
3.581518e-01
-1.148439e-01
1.566410e-01
1.358246e-01
-1.226257e-04
-2.231405e-02
4.476790e-02
5.322959e-02
3.704490e-02
6.336205e-02
-2.435936e-02
-4.007222e-02
2.607582e-02
-1.886353e-02
-3.916550e-02
-1.169078e-01
2.851602e-02
-7.907694e-02
-8.456315e-02
2.009295e-02
-6.023590e-02
-8.140939e-02
-1.932665e-01
-2.934149e-01
-1.781939e-01
4.450201e-02
-4.858609e-02
-1.197765e-01
2.695309e-01
2.059892e-01
-3.942746e-02
1.248822e-02
4.190719e-02
1.038467e-01
-3.083705e-02
-4.407208e-02
-1.574227e-01
-3.377799e-02
-1.327175e-01
-1.409233e-01
6.662493e-03
-7.804859e-02
-1.233191e-01
-5.652547e-02
-9.828835e-02
-4.007012e-02
-8.976131e-02
-2.203701e-02
1.421919e-02
9.601416e-02
1.270015e-01
9.624436e-02
3.736609e-02
7.163612e-02
3.535829e-02
3.389465e-02
5.221042e-02
-3.210579e-03
-5.580489e-02
6.141601e-03
-3.640513e-02
8.168439e-02
8.763307e-02
-1.256789e-02
2.198439e-01
1.445406e-01
5.178916e-02
7.117350e-02
8.403460e-02
4.160421e-03
-3.150632e-03
-6.041834e-02
-6.441578e-02
-2.990694e-03
-6.777170e-02
-8.395932e-02
1.192213e-01
7.025322e-02
-2.373120e-02
7.130637e-02
-5.250028e-02
-9.354430e-02
-6.153413e-02
2.581342e-02
4.233884e-03
1.317671e-01
1.141552e-01
3.302036e-02
1.105660e-01
-2.271381e-02
-1.650278e-01
7.607065e-02
-9.676841e-02
-1.484877e-01
-2.210060e-01
-3.377989e-02
1.753896e-01
-1.463822e-01
7.868215e-03
9.497490e-02
1.716263e-01
1.897878e-01
3.150725e-02
-6.676662e-02
-6.889822e-02
-1.271266e-01
3.018559e-01
3.237503e-01
7.131051e-02
3.287412e-01
3.125590e-01
4.993755e-02
-9.320702e-02
-1.095688e-01
-4.153418e-02
-9.688630e-02
-2.190061e-01
-1.176836e-01
-1.422515e-01
-2.175710e-01
-9.413129e-02
-3.929552e-02
-8.896111e-02
2.570356e-02
-5.910273e-02
-5.578865e-03
1.804741e-01
-5.518267e-02
-1.421982e-02
2.196144e-01
-2.586560e-03
8.532751e-02
1.241933e-02
1.365491e-01
1.825273e-01
1.417750e-02
-9.941105e-02
-1.752625e-02
2.196546e-02
8.576711e-02
1.423679e-01
1.285519e-02
2.186108e-02
-8.737406e-04
-3.165259e-02
6.824423e-02
-2.842990e-02
-8.483630e-02
-6.326147e-02
4.932757e-02
7.425841e-02
-1.835197e-02
-4.541305e-02
5.997364e-02
-2.128800e-02
-5.039771e-02
-3.071494e-02
-6.315272e-02
-3.100703e-03
9.303148e-02
-8.928441e-02
5.201526e-02
1.358766e-01
1.659920e-02
1.086219e-01
9.531157e-02
2.039373e-02
4.992423e-03
-1.534155e-01
1.544115e-01
3.083271e-02
-1.527331e-01
8.413178e-02
2.722699e-02
-3.758565e-02
-9.821564e-03
-1.166721e-02
2.338001e-02
6.390383e-02
1.378510e-01
7.834267e-02
3.519851e-02
8.671687e-02
-5.025539e-03
-8.122037e-03
-1.199537e-01
-1.639468e-01
-5.813750e-02
-1.803832e-01
-1.404515e-01
-3.026445e-02
-1.704937e-01
-1.412205e-01
2.178291e-03
4.761590e-02
-2.898350e-02
6.459021e-03
6.417006e-02
-1.537165e-02
-5.942893e-02
4.416598e-03
-7.587583e-02
-1.733568e-02
-5.978503e-02
-7.680641e-02
-7.622206e-02
3.780864e-02
3.794093e-02
7.670284e-02
2.050949e-01
1.310290e-01
3.373441e-02
-3.671367e-02
-9.486486e-03
-1.044911e-01
-1.509228e-01
7.073921e-02
-1.312996e-02
-1.672521e-02
1.229724e-01
-1.039364e-03
-1.437116e-01
-1.110851e-01
6.922317e-02
-2.644218e-02
-7.478683e-02
3.971346e-02
7.468568e-02
1.363026e-02
2.066634e-01
2.432966e-01
9.561967e-02
1.961150e-01
3.028206e-01
1.047485e-01
1.515644e-01
2.102669e-01
8.482384e-02
-8.259623e-02
-1.524407e-01
-3.609220e-02
1.742242e-02
-1.036020e-02
4.925680e-03
1.145612e-01
2.883915e-01
2.823123e-01
-2.722573e-02
-4.383587e-02
1.468525e-02
-3.374459e-02
-8.912309e-02
-8.212382e-03
-1.785649e-01
-1.589949e-01
-6.140456e-03
-8.614295e-03
9.211727e-02
3.134106e-02
9.778236e-03
2.132660e-01
1.091591e-01
-9.562124e-02
-1.269558e-02
-1.561176e-01
1.618771e-02
-4.868895e-02
-1.074647e-01
8.732373e-02
-1.514119e-02
-7.306249e-02
6.963588e-02
-2.643931e-02
-5.476258e-02
8.670631e-02
-1.017412e-01
-1.190531e-02
1.578633e-01
-4.587550e-01
2.788717e-01
2.790480e-02
-2.126279e-01
1.340658e-01
-2.280707e-02
7.121067e-02
-1.090573e-01
-7.204529e-03
1.284156e-02
-4.428016e-02
-1.136705e-01
-7.719792e-02
1.949386e-01
-6.194668e-04
-4.825914e-02
7.197696e-02
-3.891515e-01
5.006104e-01
-1.697211e-01
-1.550295e-01
4.182268e-01
-3.768895e-01
6.988968e-04
-1.033347e-01
-4.625206e-02
1.909501e-03
-5.209103e-02
2.716678e-02
1.857701e-03
-3.738241e-02
1.522173e-02
-1.576102e-01
5.491494e-02
4.417674e-02
-9.454288e-02
1.027958e-01
1.966058e-02
-3.336536e-02
1.496562e-03
3.065507e-02
1.916648e-01
4.920312e-02
-1.577424e-01
2.619787e-01
-2.005371e-01
1.381204e-02
2.551115e-01
-2.533582e-01
5.482982e-02
1.697505e-03
1.066997e-01
-8.278526e-02
7.507483e-02
2.019611e-01
-6.661855e-02
2.529359e-02
1.177172e-01
-4.075507e-02
1.096818e-01
-6.557930e-02
-9.916924e-02
1.200570e-01
-4.886778e-02
-2.267068e-02
9.656357e-02
-8.721364e-02
-8.357027e-02
-6.913741e-02
-3.061625e-03
6.868860e-02
-9.140289e-03
1.180657e-02
-9.098267e-02
1.165309e-01
4.185826e-02
-6.405215e-02
-2.067009e-02
1.185525e-01
-1.871724e-01
-1.227484e-01
3.191335e-01
-2.723009e-01
7.977524e-03
1.031141e-01
-2.081726e-01
-1.157600e-01
1.788095e-01
-1.395264e-02
-7.716124e-02
7.197394e-02
-7.973867e-03
-9.513762e-03
-2.700384e-02
-3.634274e-02
-8.025971e-02
7.278605e-02
1.810109e-01
-2.829984e-02
-1.495763e-02
1.526936e-01
-2.139481e-02
-6.018366e-02
1.022166e-01
6.981007e-03
-5.873878e-02
-3.066478e-02
3.752153e-02
3.412254e-02
-2.253875e-02
3.608915e-02
5.821512e-02
-1.106949e-01
-4.074843e-02
9.193628e-02
-5.471150e-02
-6.717725e-03
4.836919e-02
-6.781437e-02
-1.809271e-02
6.324899e-03
-5.125697e-02
8.749821e-02
4.114483e-02
1.276282e-02
-1.066710e-02
3.625537e-02
-7.820134e-02
5.804344e-02
1.011257e-01
-5.450929e-02
-5.754335e-02
4.994894e-02
5.984027e-02
6.940145e-02
7.731140e-02
4.533366e-02
4.448565e-02
3.295528e-02
3.204879e-03
-1.848200e-02
-2.943486e-02
-5.943597e-02
-7.630246e-02
2.724748e-01
4.894538e-03
-9.173820e-02
-2.107393e-01
-2.984252e-02
1.332364e-03
1.454548e-01
-6.410597e-02
-1.547011e-01
-2.147176e-01
-5.075528e-02
6.234250e-02
2.145270e-01
1.121834e-02
1.338392e-02
-6.053562e-03
5.761952e-02
3.017797e-02
-5.857887e-02
-9.566294e-02
-5.197428e-03
1.739457e-01
7.828184e-02
-9.900868e-02
-9.947491e-02
-1.965411e-01
-8.524185e-02
-4.330117e-02
-1.255081e-01
-1.321297e-01
-1.003948e-01
-4.246103e-02
-4.697672e-02
2.611515e-02
7.779540e-02
-6.313491e-02
-2.445638e-02
-5.412576e-02
1.325623e-01
8.781679e-02
7.369660e-03
-3.670684e-02
1.943753e-02
-1.312273e-02
-1.267657e-02
3.819021e-02
1.263727e-01
9.605590e-02
7.540239e-02
-9.879091e-02
-2.301001e-02
-2.160858e-02
-4.917517e-02
-5.157312e-02
-1.450358e-01
-1.331774e-01
-2.590542e-02
-2.419595e-02
-1.933333e-02
4.014520e-02
-9.001886e-02
6.547201e-02
-2.235478e-01
-3.293940e-01
-1.608622e-01
6.522541e-02
-5.528026e-02
8.258490e-02
4.841221e-02
6.190546e-02
-1.467433e-01
7.773515e-02
2.257453e-01
9.726552e-02
7.281816e-02
2.484260e-01
2.116420e-01
-1.341311e-01
2.315513e-02
-3.706463e-02
-9.239057e-02
-1.951111e-01
-2.375514e-01
4.090878e-02
1.120145e-01
9.151149e-02
-1.148254e-01
1.628301e-02
-6.933928e-02
-6.323382e-02
8.177646e-03
1.940931e-02
-9.881087e-02
1.314575e-01
1.110382e-01
9.267507e-02
1.061272e-01
-2.481801e-02
-2.441656e-02
6.359319e-02
-4.903667e-02
-1.315898e-01
-7.247766e-02
-1.268094e-01
-3.592404e-02
1.129103e-02
3.211105e-02
1.332075e-01
1.940650e-01
1.617238e-01
-1.799565e-01
-1.299623e-01
-1.299585e-01
-1.863818e-01
-1.437857e-01
-1.362363e-01
-1.120264e-01
-5.852156e-02
-1.424362e-01
1.121394e-02
1.604256e-01
6.463618e-02
8.660178e-02
-6.093423e-02
-9.356168e-02
2.649095e-02
-2.714768e-02
-7.459546e-02
-1.019352e-01
3.023976e-02
7.114527e-02
1.489938e-01
9.285362e-03
4.976707e-02
9.477168e-02
2.939626e-03
3.243125e-03
-9.717768e-03
-7.998545e-03
4.193390e-02
-7.220380e-03
1.240445e-02
2.607659e-02
2.607565e-02
-5.794090e-02
-2.507696e-01
-4.176421e-02
6.155191e-02
6.568630e-03
-5.854517e-02
7.169674e-02
5.516103e-02
-1.606371e-02
-1.756145e-02
2.679065e-03
-7.192464e-03
-7.547525e-02
-3.270687e-02
-2.583214e-02
-9.545510e-02
5.309209e-02
-7.436565e-02
-4.387069e-02
6.502213e-02
-3.951127e-02
-1.616324e-02
1.282416e-01
-2.770130e-02
-9.065232e-02
-2.286260e-02
-4.941890e-03
-3.652753e-02
-6.936317e-02
-7.180530e-02
7.066425e-04
-1.099605e-01
-6.705419e-02
-1.798394e-01
-4.500500e-03
-5.718277e-02
-2.260167e-01
-1.425209e-02
1.164262e-02
-2.396752e-01
-4.718210e-02
6.491507e-02
-3.347413e-02
3.789797e-02
1.068074e-01
2.605956e-02
3.093932e-02
7.957125e-02
-7.967558e-02
-2.156817e-02
-8.176599e-02
-6.146477e-02
9.436134e-03
-2.010714e-01
2.295516e-04
1.120975e-01
-2.001623e-01
-9.001965e-02
1.006772e-02
-1.532126e-01
-1.930207e-01
-3.318186e-01
1.296979e-01
5.465106e-02
-8.703593e-02
1.713374e-01
2.087115e-02
-1.485307e-01
7.919997e-04
6.535050e-02
9.309510e-02
-6.748882e-03
7.903060e-02
1.933188e-02
4.282057e-02
8.804116e-02
6.833979e-02
5.574728e-03
4.930757e-02
-6.450531e-03
-8.622827e-02
5.964518e-02
1.256157e-01
-2.023793e-01
1.173298e-01
1.452601e-01
-8.210227e-02
-2.061776e-01
4.741051e-02
-1.815250e-01
-2.373344e-01
-4.703377e-02
-1.464873e-01
-1.897161e-01
1.246025e-02
5.055502e-02
-8.589438e-02
-2.779980e-01
1.989243e-01
-7.950146e-02
-3.431909e-01
2.095865e-01
-7.059594e-02
-2.985373e-01
-1.507488e-01
8.453595e-03
1.322292e-01
-1.948683e-01
-1.612634e-01
-3.124407e-02
9.607215e-03
-1.018479e-01
-8.389976e-02
-6.014254e-02
-4.030347e-02
-1.057399e-02
-3.988538e-03
-1.400976e-02
-1.713216e-02
1.003809e-01
-2.960347e-02
-8.046829e-03
5.971521e-02
-8.523618e-02
-6.917553e-02
6.043667e-02
-5.244344e-02
-4.424029e-03
-2.094907e-02
-3.146069e-02
8.586914e-03
9.680291e-02
3.624183e-02
-3.645665e-02
-1.257353e-02
1.129147e-02
-3.086269e-02
1.058007e-01
9.504405e-02
4.884022e-02
-1.444845e-01
1.215727e-01
4.613073e-02
7.890715e-02
6.003546e-02
1.190239e-01
-1.353690e-01
9.386769e-04
-1.288845e-01
5.284121e-02
1.321154e-01
9.336214e-03
7.409508e-03
-1.681978e-01
-1.301973e-01
-5.320451e-02
1.642504e-02
-5.851158e-03
8.154957e-03
-1.231023e-01
-7.496348e-02
8.139048e-02
9.770610e-02
1.045789e-01
-1.301109e-01
-1.419185e-01
1.139230e-01
1.171234e-01
2.886207e-03
4.571819e-02
6.144969e-02
-9.311588e-02
2.699634e-02
6.905441e-02
-8.942790e-02
7.730693e-02
-8.517382e-02
-1.782858e-01
4.441014e-02
-1.542169e-01
-1.512346e-01
1.041578e-01
4.299238e-02
1.562217e-01
1.113764e-01
-1.559304e-01
-2.436267e-01
-7.226370e-02
-6.844070e-02
2.139951e-01
3.006013e-01
-3.255377e-02
1.425844e-01
2.182794e-01
1.801764e-02
1.855967e-01
-9.767554e-02
7.543074e-02
2.325532e-01
4.611290e-02
-7.370149e-02
7.812495e-02
3.145827e-03
2.497771e-02
1.054224e-01
1.901883e-02
-9.943952e-02
-5.055673e-02
-1.247149e-01
3.645840e-02
3.862942e-02
-9.700038e-03
1.830073e-01
-6.616851e-03
1.495499e-01
1.313146e-01
-9.363656e-02
-1.385678e-01
-7.537407e-02
-6.812187e-02
8.844750e-03
-5.068042e-02
3.078566e-02
-7.707931e-02
-1.659243e-01
7.258096e-03
8.092652e-02
1.584104e-01
2.368037e-01
-8.994205e-02
-7.876643e-02
-9.797848e-02
-1.311034e-02
-1.796034e-02
1.499382e-01
2.781760e-02
3.221214e-02
3.489316e-02
1.918355e-02
8.727898e-02
-4.557762e-02
-7.408127e-02
-6.177947e-02
-6.774165e-02
3.434478e-02
-1.475870e-01
-2.185815e-02
1.676725e-01
-9.900311e-02
1.327343e-01
1.481420e-01
1.655052e-01
8.901691e-02
4.458439e-02
-2.232801e-02
-1.841362e-01
-1.868324e-01
3.833042e-02
3.795404e-02
6.541979e-02
-2.212384e-02
-7.667392e-02
-3.579740e-02
-5.277700e-02
2.011074e-02
1.276019e-01
6.833145e-02
7.698063e-02
1.217283e-01
-1.066287e-01
-2.241992e-01
-9.395740e-02
1.968666e-02
2.959257e-02
1.727238e-01
1.076650e-01
3.278892e-02
-6.181494e-02
4.305658e-02
6.568458e-02
5.778575e-02
-1.112373e-02
2.833678e-02
4.137785e-02
3.786694e-02
1.334582e-01
2.224001e-02
3.576444e-02
1.786646e-01
9.734361e-03
3.327423e-02
2.954871e-03
-5.045456e-02
-2.087822e-02
2.698009e-02
-8.424737e-02
5.812327e-02
1.466431e-02
4.059806e-02
-3.902332e-02
5.653929e-02
9.415503e-02
-4.198906e-03
5.250902e-02
2.773695e-02
-9.703327e-02
1.184934e-01
3.405970e-02
-1.519600e-01
2.371362e-02
1.872826e-02
1.608204e-01
2.578659e-02
-3.446458e-02
2.470530e-01
1.338083e-01
5.440859e-03
9.300193e-02
1.190194e-01
8.201228e-02
-9.251516e-02
-3.800322e-02
1.720960e-01
-1.668989e-01
-1.712088e-01
1.604959e-01
-1.091266e-01
-1.704639e-01
-5.552010e-03
-2.369455e-01
-1.253416e-02
2.190413e-01
-2.934358e-01
-3.695201e-02
1.671059e-01
-1.188054e-01
-1.085100e-01
-6.955735e-02
4.887753e-02
1.450094e-01
1.112835e-01
8.140125e-02
9.808911e-02
6.639228e-02
1.833787e-02
3.518624e-02
-3.589639e-03
3.058639e-02
2.120050e-01
1.671660e-01
-1.077410e-01
9.261582e-02
5.270182e-02
-1.821783e-01
-1.573336e-02
-5.835034e-02
9.647512e-02
4.358109e-02
-8.561213e-02
1.330668e-01
4.971142e-02
-6.298290e-02
5.581129e-03
-4.568036e-02
-5.109879e-02
3.481190e-02
-5.292883e-02
-2.854394e-02
-5.537817e-02
-9.366167e-02
-1.942308e-02
-2.189370e-02
4.733358e-02
6.175925e-02
-6.095328e-02
-5.949802e-02
-1.215686e-01
1.141232e-01
1.044779e-02
3.234748e-02
1.581340e-01
6.786375e-02
2.318765e-02
4.772567e-02
-2.909097e-02
-2.682057e-02
7.579426e-02
7.856675e-03
-6.223328e-03
-1.007092e-02
9.281497e-02
1.289520e-02
5.735382e-02
1.766059e-01
2.191743e-01
-2.718960e-02
-1.295528e-01
-3.357922e-02
2.865162e-02
-2.289075e-01
-2.084885e-01
-1.346402e-01
-3.216080e-01
-2.764257e-01
-1.510813e-02
-2.736717e-01
-2.316834e-01
-4.678857e-02
-1.434354e-01
-1.777112e-01
-5.039916e-02
-1.498603e-01
-1.276947e-01
3.867496e-02
-1.187476e-01
-7.889622e-02
-1.216710e-01
-1.319106e-01
-8.139693e-02
1.707562e-01
9.880602e-02
2.196885e-03
8.827517e-02
8.325373e-03
-1.357112e-01
-1.488573e-02
-1.224893e-01
-2.371278e-01
1.727610e-02
-4.140888e-02
-1.356240e-01
5.426488e-02
3.860293e-02
1.683999e-03
1.186527e-01
1.249009e-01
1.273817e-01
-1.284006e-01
-7.389000e-02
-4.642797e-03
-1.144436e-01
4.089098e-02
1.296636e-01
-1.316337e-01
1.556008e-02
1.616810e-01
2.346394e-02
-6.010599e-03
2.179254e-02
-1.701137e-01
-7.134952e-02
4.911488e-02
-1.046971e-01
-5.061894e-02
1.486499e-02
5.038498e-02
4.916389e-02
-3.713407e-02
-4.064942e-02
-4.202957e-02
-7.485224e-02
-1.091398e-01
-7.449096e-02
-6.151122e-02
-1.426442e-01
-1.519931e-01
-1.652842e-02
-3.986954e-02
1.469382e-01
2.212676e-01
1.563181e-01
3.133277e-01
2.468723e-01
-1.417171e-02
-1.318371e-02
6.847107e-03
-1.308352e-02
7.391661e-02
1.423731e-01
3.219844e-02
1.460922e-01
2.659413e-01
-3.961549e-02
8.360829e-03
2.333782e-02
5.640652e-02
8.465201e-02
-2.240788e-02
1.074611e-01
2.900879e-02
-8.356977e-02
-1.897042e-01
-3.093446e-01
-1.911308e-01
-1.865271e-02
-1.403797e-01
-2.097179e-02
-2.138584e-02
-1.378896e-01
-1.209422e-02
-2.886443e-02
-6.693773e-02
-1.015737e-01
-6.459229e-02
-1.770460e-01
-1.033709e-01
-9.372400e-02
-9.466524e-02
9.516266e-03
6.958430e-03
1.619712e-02
2.238563e-02
3.504579e-02
2.176002e-02
-6.087076e-03
1.121754e-02
1.315506e-02
2.378565e-02
7.073682e-02
5.760962e-02
-3.658368e-02
-6.909310e-02
-2.795342e-02
-6.725194e-02
-5.759043e-02
-7.570156e-02
-2.417258e-02
-1.065859e-01
-2.948420e-02
4.427391e-02
-1.210575e-01
-1.237300e-02
1.428205e-01
2.004961e-02
9.989563e-02
1.517228e-01
2.485904e-02
1.068903e-01
-3.559790e-02
-2.450639e-02
5.203919e-02
8.607583e-02
-1.450268e-01
-2.438555e-02
1.881734e-01
-1.783132e-01
-1.248137e-01
-7.773146e-03
-1.183875e-01
3.684304e-02
1.120380e-01
1.583495e-02
1.141943e-01
1.073328e-01
4.962742e-02
-5.257847e-02
2.310368e-03
-1.965915e-01
-2.913208e-01
-6.074832e-02
-1.952136e-01
-1.890017e-01
2.742739e-02
1.739339e-01
1.380381e-01
1.025400e-01
4.841917e-02
1.487856e-01
1.363964e-01
7.566984e-02
1.326375e-01
9.577980e-02
