-2.523489e-02
-4.533330e-03
-6.874975e-02
-4.226202e-03
1.862147e-02
-1.446520e-02
5.001184e-03
2.083621e-02
2.582771e-03
-2.747980e-02
-3.052056e-02
-3.567136e-02
1.697773e-02
4.113666e-02
-1.046921e-02
3.441967e-02
8.498034e-02
5.134156e-02
-3.287595e-04
-5.971532e-03
-3.820586e-02
2.916412e-02
8.438122e-02
-6.536531e-04
2.061768e-02
7.179177e-02
2.030165e-02
-1.664413e-02
3.139953e-02
3.141342e-02
-9.892399e-04
2.734880e-02
2.268381e-02
-4.303790e-02
-4.383812e-02
-7.172480e-02
-5.769492e-02
1.193699e-02
3.651675e-02
-5.563581e-02
4.396032e-02
7.640290e-02
7.881170e-03
4.525671e-02
3.225449e-02
-1.382910e-03
1.238806e-02
6.685012e-03
3.422919e-02
5.315819e-02
4.012922e-02
1.221469e-02
3.069567e-02
-8.487838e-04
1.308573e-02
1.013070e-02
1.402805e-02
1.587499e-02
-2.462205e-02
-2.233304e-02
-1.947702e-02
-8.746935e-02
-8.598147e-02
-1.805240e-02
5.157388e-02
5.515819e-02
-5.162390e-03
6.610285e-02
9.287997e-02
1.232593e-02
5.802272e-02
3.880133e-02
-2.087219e-02
5.798434e-03
1.743085e-02
-3.326000e-02
9.687396e-03
3.249482e-02
-6.655454e-03
1.802793e-02
3.120581e-03
-6.752701e-03
4.049182e-02
5.613774e-02
-1.700501e-02
3.172909e-02
4.700474e-02
-3.092858e-02
4.301407e-03
2.449498e-02
-6.079215e-03
-1.743999e-02
-1.516515e-02
-4.088077e-03
-1.858138e-02
-1.969168e-02
-7.689000e-03
-2.257137e-02
-2.387480e-02
-5.782388e-02
-2.236879e-02
4.950900e-02
-1.054112e-02
4.392808e-02
7.660273e-02
1.592768e-02
6.784061e-02
6.515920e-02
-5.109103e-02
1.921507e-02
-1.502315e-02
5.449024e-02
9.852052e-02
4.095318e-02
2.456732e-03
8.653555e-02
6.178281e-02
-4.800168e-02
-1.467046e-02
1.457132e-02
9.798071e-03
2.945663e-02
2.133404e-02
1.324662e-02
-1.415551e-02
-2.676437e-02
-4.454384e-02
3.917670e-02
2.271082e-02
-2.547071e-02
2.710381e-02
2.604441e-02
-3.370788e-02
-2.179126e-02
-1.774308e-02
-2.369146e-02
-9.721761e-03
-2.027371e-02
-2.464903e-02
1.024821e-02
-1.433694e-02
-3.785463e-02
2.321417e-02
3.421123e-02
8.651462e-03
-1.017214e-02
-3.062993e-02
-1.444368e-02
3.507893e-03
-1.804919e-02
-7.771533e-03
1.878911e-02
1.253949e-02
5.010772e-02
4.061637e-02
1.774160e-02
1.183801e-02
5.124636e-03
-4.481164e-03
7.290328e-03
1.723224e-02
6.568364e-03
-6.770998e-02
-8.679225e-02
-8.084588e-02
-9.950170e-02
-9.953943e-02
-9.088481e-02
-8.408980e-02
-1.056332e-01
-8.539133e-02
-4.301436e-02
-2.377247e-02
-1.962746e-02
-4.782407e-03
1.167272e-02
4.250374e-02
-5.843184e-03
1.014877e-02
2.717579e-02
-5.531567e-02
-4.659880e-02
-3.467815e-02
-5.798243e-02
-6.298200e-02
-4.379647e-02
-2.721731e-02
-2.569162e-02
-2.936795e-02
2.898061e-02
4.959782e-02
3.680842e-02
6.038385e-02
5.396907e-02
3.635575e-02
3.495157e-02
4.420644e-02
2.617933e-02
2.002543e-03
-2.689818e-02
-4.106355e-02
2.247376e-03
-4.141993e-02
-2.918393e-02
-1.310722e-02
-4.312683e-02
-7.539123e-04
-9.872484e-03
-3.315750e-03
1.944484e-03
-2.255403e-02
-2.109278e-02
-3.685926e-02
-4.989699e-03
-1.894548e-02
-2.698935e-03
2.146708e-02
2.516233e-02
3.103045e-03
6.120606e-02
7.279975e-02
4.676846e-02
5.441687e-02
3.739310e-02
3.887830e-02
-3.338292e-03
-3.890971e-02
-2.710488e-02
4.497764e-02
7.379693e-03
2.070319e-02
6.367681e-02
3.858142e-02
7.151318e-02
-1.686517e-02
-3.302674e-02
-4.165908e-02
-3.538544e-02
-6.831414e-02
-6.062253e-02
-1.957777e-02
-5.123905e-02
-4.680603e-02
-5.105262e-02
-6.542765e-02
-5.032096e-02
-4.439580e-02
-5.610435e-02
-5.263637e-02
-4.518135e-02
-5.363676e-02
-4.394604e-02
2.729693e-02
6.577470e-03
-2.477632e-02
1.568644e-02
-1.532920e-02
-6.320679e-02
-4.181666e-04
-3.417979e-02
-5.691999e-03
-2.172751e-02
-3.078176e-02
-1.791222e-02
3.928365e-03
-5.399182e-03
9.548522e-03
7.145267e-03
2.053058e-03
2.024302e-02
-5.018965e-04
3.084327e-03
1.139634e-02
-1.698695e-02
5.269658e-04
3.119615e-02
-4.103609e-02
-1.960529e-02
1.251954e-02
-1.285917e-02
-1.427978e-02
1.257171e-03
1.870761e-02
2.485167e-02
3.381786e-02
3.302195e-02
3.710121e-02
6.983591e-02
-5.231401e-02
-6.836665e-02
-5.742292e-03
-8.214717e-02
-6.588179e-02
-1.184495e-02
-3.515964e-02
-9.093614e-03
-2.545149e-02
-2.885062e-03
-3.049690e-02
1.563932e-02
-2.057144e-02
-4.729555e-02
-4.476161e-02
2.641373e-02
-1.901604e-03
-4.098037e-02
-9.719491e-02
-9.552450e-02
-1.074631e-02
-1.620052e-01
-2.116430e-01
-1.098647e-01
-7.018980e-02
-1.487576e-01
-1.170714e-01
-1.204701e-02
4.568150e-02
4.952335e-02
8.216185e-03
3.303685e-02
5.502728e-02
1.322934e-02
1.895209e-02
5.395969e-02
1.515860e-02
2.824524e-02
3.886960e-03
6.576885e-02
9.949596e-02
3.467208e-02
6.778968e-02
9.981369e-02
4.164145e-02
-4.389653e-02
-7.296972e-02
-2.969324e-02
-1.812783e-02
-5.322872e-02
-4.229986e-02
1.118965e-02
-1.556062e-02
-3.960406e-02
2.040395e-02
7.296977e-03
-3.993567e-02
2.441652e-02
2.385415e-03
1.916196e-02
-1.451218e-02
1.512813e-02
7.474782e-02
1.379064e-02
3.685763e-02
3.113022e-02
-1.713678e-02
1.845275e-02
2.579920e-02
2.498003e-03
3.139592e-03
2.425737e-02
1.004951e-02
-1.451551e-02
-1.337340e-02
1.918184e-03
-8.983230e-04
4.273925e-03
-7.656822e-03
-1.540180e-02
2.769701e-02
5.386921e-03
-2.021625e-02
-3.416238e-02
-1.324172e-03
-3.332344e-02
-4.215519e-02
-9.497172e-04
-1.744328e-02
-7.411096e-03
1.731987e-02
2.729043e-02
3.924215e-03
4.891352e-02
6.683917e-02
2.816582e-02
4.072705e-02
3.237854e-02
1.832974e-02
4.008498e-03
-1.849517e-02
-3.122690e-02
2.984145e-02
7.485045e-02
2.895989e-02
2.460589e-02
5.852246e-02
3.470687e-02
-8.038705e-02
-7.363725e-02
-1.499581e-02
-1.178507e-01
-1.604869e-01
-1.322240e-01
-6.136660e-02
-1.360055e-01
-1.063201e-01
4.918179e-03
-7.768270e-03
-5.904476e-02
3.678138e-02
3.254315e-02
-6.932788e-03
1.267273e-02
1.993661e-02
1.396754e-02
-3.193983e-02
2.496749e-02
4.216859e-02
-6.788807e-02
-1.378341e-02
2.339299e-02
-9.833479e-03
-2.201873e-02
-3.881753e-02
-2.522547e-02
-5.861574e-02
-7.754418e-04
-2.911380e-02
-9.061833e-02
-3.518083e-02
-1.722113e-02
-5.065371e-02
-5.277193e-03
-7.287377e-04
-5.319232e-04
-2.887824e-03
1.739416e-02
1.137180e-02
8.821734e-03
1.175283e-03
9.725575e-03
2.418568e-02
4.718141e-02
4.965640e-02
1.688405e-02
4.090465e-02
2.282662e-02
4.331016e-03
3.581623e-02
1.070685e-02
-1.304065e-02
3.744459e-02
-1.294487e-02
-5.606987e-02
1.521118e-02
-6.441847e-02
-1.165576e-01
6.671514e-03
-4.000905e-02
-6.238551e-02
-3.387841e-02
1.996576e-02
1.461332e-02
-4.060593e-03
8.293000e-02
8.046883e-02
-2.079468e-02
6.497137e-02
6.735582e-02
-4.473948e-02
-4.774504e-02
-2.430191e-02
-1.018125e-01
-1.135951e-01
-4.840015e-02
-2.764682e-02
-6.269816e-02
-5.327027e-02
4.778726e-02
7.241727e-02
2.957338e-02
3.787993e-02
3.630941e-02
1.889094e-02
1.026807e-02
-2.901468e-04
-2.989625e-02
1.963594e-03
5.124371e-02
4.852709e-03
7.498905e-03
5.320195e-02
2.740142e-02
-1.456956e-02
2.758043e-02
3.475663e-02
2.906858e-02
5.845070e-02
4.873409e-02
3.287815e-02
4.750675e-02
4.438769e-02
3.290324e-02
2.533489e-02
3.305615e-02
-2.237380e-02
-4.071549e-02
-1.375185e-02
-4.523164e-02
-7.625081e-02
-4.262500e-02
-3.150970e-02
-4.038519e-02
-2.422964e-02
-1.087155e-01
-8.607800e-02
-4.905872e-02
-7.190979e-02
-3.431328e-02
-7.201524e-03
-7.189020e-02
-1.818037e-02
6.732479e-03
-1.029767e-02
-7.755908e-02
-6.194979e-02
-7.498109e-02
-1.911100e-01
-1.316525e-01
-4.746975e-02
-1.150208e-01
-6.742269e-02
-1.920269e-02
-4.631211e-02
3.655305e-03
-3.998977e-02
-9.307291e-02
-2.644825e-02
8.549349e-04
-9.929088e-03
-1.436815e-04
7.956924e-02
3.905685e-02
-3.153542e-02
1.369852e-02
-1.893979e-02
-5.141362e-02
-1.893556e-02
-3.587632e-02
-1.475463e-02
1.655207e-02
4.916381e-04
2.716494e-03
-6.747019e-03
-4.899636e-02
-5.120500e-02
-1.255422e-02
-7.232004e-02
-6.766861e-02
-1.056115e-03
-1.938217e-02
-2.443964e-02
-2.124655e-02
-2.461459e-02
-2.012632e-02
-3.602070e-02
-2.539487e-02
5.022064e-03
6.642127e-02
2.839762e-02
-9.370027e-03
2.768421e-02
1.260210e-02
-1.374129e-02
-1.850961e-02
-1.829458e-02
-2.931838e-02
-5.472655e-02
2.070531e-02
9.274723e-02
-7.475681e-02
2.142349e-02
7.630663e-02
-4.587366e-02
1.010887e-02
5.675152e-02
1.569346e-02
3.597756e-02
1.461701e-02
-4.631295e-03
6.721611e-02
4.585428e-02
-2.082787e-02
5.157607e-02
4.927011e-02
-1.947292e-02
-6.346438e-02
-3.879749e-02
-2.093507e-02
-6.716982e-02
-4.091018e-02
-3.120829e-03
-1.466252e-02
-1.750768e-03
3.742788e-02
2.039074e-02
-6.651715e-03
-3.995069e-02
-3.277700e-02
-6.106538e-02
-8.900260e-03
8.076689e-03
-3.024741e-02
-1.184685e-02
-6.508859e-02
-4.324374e-02
1.180903e-02
-6.143912e-02
-6.628097e-02
5.777147e-02
5.300293e-03
-2.198781e-02
-2.903300e-02
5.114257e-03
3.419527e-02
-1.967436e-02
3.318654e-02
5.208569e-02
-1.828324e-02
1.229814e-02
1.966405e-02
4.523424e-02
9.277625e-03
1.194363e-02
-8.410409e-04
-3.487143e-02
-1.116778e-02
-2.180712e-02
-6.464337e-02
-2.229011e-02
1.458992e-02
-6.736706e-02
-8.588753e-02
1.330376e-02
-7.458414e-02
-9.844271e-02
1.382377e-02
-3.304933e-02
-4.129027e-02
1.625887e-03
-4.849843e-02
-3.986340e-03
6.551878e-02
-1.279148e-02
-2.313481e-02
3.845925e-02
3.093871e-02
-1.001231e-03
-1.099425e-02
-8.094646e-03
-3.182643e-02
-3.473463e-02
-3.407129e-02
-6.481893e-02
-1.097143e-02
-9.674727e-03
-3.199346e-02
-4.657891e-02
-9.617338e-02
-4.773924e-02
-5.807224e-02
-1.132900e-01
-6.132428e-02
-1.416366e-02
-1.825471e-02
-1.589013e-02
-2.872439e-03
-3.554114e-02
-4.313937e-02
2.506922e-03
-9.197753e-03
1.911507e-03
5.479276e-03
2.568728e-02
3.735394e-02
6.901617e-03
-5.739269e-03
-2.641641e-02
-2.080507e-02
-7.141672e-03
-1.744004e-02
-7.567188e-03
2.734667e-02
1.424909e-02
3.088303e-02
1.543622e-02
-3.878117e-02
3.999916e-02
2.634469e-02
-6.202437e-03
4.614558e-02
4.068282e-02
1.028387e-02
2.542173e-02
3.945389e-02
9.873504e-03
-6.247966e-03
3.483157e-02
3.245360e-02
2.011871e-03
5.507023e-02
5.477436e-02
-1.042159e-02
-1.067402e-01
-1.172812e-02
-2.768735e-02
-1.442993e-01
-1.038461e-01
2.813452e-02
-5.807957e-02
-6.850793e-02
6.834398e-03
3.161952e-02
1.472297e-02
-8.843070e-03
1.400226e-02
2.091724e-02
-2.852496e-03
-1.939262e-03
2.313108e-02
3.386598e-02
5.584280e-02
2.823297e-02
5.658615e-02
8.213299e-02
2.614219e-02
2.964625e-02
5.302078e-02
3.374661e-02
3.375266e-03
2.052366e-02
1.457056e-02
2.308806e-02
4.086399e-02
2.656474e-02
5.138322e-03
-1.533285e-03
1.820235e-02
4.841641e-02
5.780273e-02
2.893494e-02
5.271359e-02
6.161294e-02
2.108076e-02
5.485443e-02
5.672893e-02
1.894615e-02
5.237802e-02
2.015327e-02
7.409951e-03
4.593543e-02
3.209163e-02
2.201504e-03
2.685556e-02
1.233946e-02
-1.209344e-02
1.906053e-02
4.302952e-02
1.471180e-02
5.516901e-02
9.176981e-02
5.692706e-02
4.059612e-02
6.249285e-02
4.702909e-02
3.932402e-02
9.122217e-03
9.667053e-03
5.424794e-02
2.507263e-02
3.326352e-02
5.860320e-02
2.963991e-02
3.226946e-02
2.689843e-02
5.765842e-02
3.573968e-02
1.944640e-02
4.995445e-02
4.474610e-02
2.265556e-02
3.052393e-03
9.337290e-03
2.548364e-02
4.614434e-02
2.699124e-02
4.445316e-02
6.838074e-02
3.072237e-02
1.924499e-02
2.060221e-02
2.676826e-02
-2.188541e-02
-9.498635e-03
-2.124085e-02
1.128374e-02
2.408194e-02
2.993024e-03
-1.033032e-02
6.165664e-03
-1.371060e-02
3.811649e-02
4.180747e-02
2.222694e-02
5.343160e-02
4.903189e-02
3.959945e-02
1.053882e-02
2.131057e-02
1.220745e-02
4.767206e-02
8.493049e-02
4.721200e-02
4.105043e-02
5.578590e-02
2.297069e-02
2.311656e-02
1.397822e-02
1.269960e-04
9.505766e-04
1.027812e-02
1.971613e-02
3.089710e-02
2.388733e-02
2.338372e-02
4.352555e-03
5.525257e-03
2.378701e-02
2.123828e-03
-2.105048e-03
-3.804890e-02
-3.564324e-02
-4.180942e-02
-5.334120e-02
-5.512033e-02
-4.246745e-02
-1.280817e-02
-3.338308e-02
-3.107108e-03
5.110745e-02
2.889502e-02
5.411353e-02
9.733431e-02
6.953211e-02
1.000971e-01
1.269277e-01
3.313341e-02
1.623546e-02
-1.406540e-03
2.974022e-02
7.146082e-02
9.874757e-02
2.351119e-03
2.923691e-02
6.252517e-02
3.221000e-02
4.977894e-02
2.281616e-03
-5.855651e-02
-1.609123e-02
-2.369113e-02
-6.289514e-02
-4.186580e-02
-4.501062e-02
3.536252e-03
-9.785394e-03
2.732435e-03
-5.952075e-02
-7.877969e-02
-4.238508e-02
-9.917051e-02
-1.061013e-01
-7.437434e-02
3.327755e-02
8.767227e-02
4.591931e-02
1.949322e-02
5.671119e-02
2.737506e-02
-9.268145e-03
-2.479649e-02
-1.895177e-02
-4.826201e-02
-3.469571e-02
9.445095e-03
1.714811e-02
1.831463e-02
5.370022e-02
6.946074e-02
6.208441e-02
8.879130e-02
2.579767e-02
3.535850e-02
1.453602e-02
1.694877e-02
2.828469e-02
3.341604e-02
6.900794e-03
2.326663e-03
1.459538e-02
2.101898e-02
2.495787e-02
1.247516e-02
-5.693038e-02
-7.743996e-02
-5.422152e-02
-7.233039e-02
-1.082997e-01
-7.292267e-02
-5.574877e-02
-5.337859e-02
1.564550e-02
-5.445141e-03
1.061026e-03
5.787750e-02
4.380173e-02
3.036982e-02
5.581906e-02
-2.615261e-02
-6.826128e-03
4.461682e-03
-1.369864e-02
1.144134e-02
1.824387e-02
1.265329e-02
-6.636956e-03
1.429426e-03
2.338905e-02
2.228072e-02
-9.158167e-03
3.448839e-02
8.414899e-03
-1.579978e-02
1.202626e-02
-5.986742e-03
-8.580149e-03
-6.446063e-03
-3.955971e-02
-5.818212e-02
5.439313e-02
8.580830e-03
-1.492309e-02
3.172604e-02
-1.761876e-02
-2.591603e-02
6.464379e-03
1.077007e-02
-1.479046e-02
-1.366139e-02
-3.991450e-02
-2.554240e-02
-2.015731e-02
-4.749427e-02
-2.891809e-02
3.031236e-02
3.308348e-02
1.603770e-02
-2.192604e-02
-3.622630e-03
-3.767516e-03
-4.612038e-02
-6.066283e-02
-4.130245e-02
4.380216e-03
4.400316e-03
-4.435241e-03
-7.259453e-02
-4.535633e-02
-3.134854e-02
-7.856737e-02
-5.547305e-02
-2.536571e-02
-1.107422e-02
-4.395084e-03
-1.202968e-02
-3.884194e-02
-1.875182e-02
-7.870459e-03
9.535169e-03
3.601046e-02
7.605595e-02
1.769681e-03
8.783508e-04
5.032839e-03
-2.051638e-02
-4.070680e-02
-4.626624e-02
2.133219e-02
1.488185e-02
-4.357351e-03
2.409918e-02
2.244921e-02
-2.131357e-04
2.003979e-02
5.676803e-04
1.508050e-02
2.077613e-02
6.756890e-03
4.539309e-03
-7.658710e-03
-3.358195e-02
-2.313437e-02
-2.611800e-02
-6.489713e-02
-3.073660e-02
-1.567597e-02
-7.138006e-02
-2.037258e-02
-6.546027e-04
4.153253e-02
4.897629e-02
-5.955442e-02
-2.076346e-02
3.425588e-02
-4.051477e-02
-5.239220e-02
-1.261403e-02
-2.982310e-02
-2.573349e-02
-2.318658e-02
-3.720244e-02
-7.017004e-02
-3.017849e-02
6.545756e-03
-1.894695e-02
6.717527e-03
1.145613e-01
6.315865e-02
-5.921967e-02
1.476165e-01
8.732583e-02
-3.951126e-02
1.003206e-01
5.609723e-02
-3.906779e-02
-1.187605e-02
-4.668009e-03
4.032690e-03
-2.389682e-02
3.040774e-03
2.307164e-02
-3.294986e-02
1.348566e-02
3.928434e-02
9.843470e-04
3.343667e-02
3.749755e-02
-3.814134e-02
-2.287656e-02
1.444340e-02
-2.136249e-02
-1.902856e-02
1.475138e-02
2.998482e-02
-1.195694e-02
-4.953980e-02
2.003497e-02
1.104888e-02
-3.305995e-03
-3.734782e-03
1.989400e-02
2.226630e-03
3.502084e-02
3.677093e-02
-1.571603e-02
6.644547e-02
9.236540e-02
2.864113e-02
2.706356e-02
7.630391e-02
4.753036e-02
1.983634e-02
5.353183e-02
1.581704e-02
4.147180e-02
1.047243e-01
5.635354e-02
1.510066e-02
5.964693e-02
3.734394e-02
-5.820247e-02
-2.949494e-02
-2.142681e-02
-2.869679e-02
9.169707e-04
2.019875e-02
-4.359029e-02
-8.020240e-03
5.434559e-03
1.704746e-02
5.159967e-02
6.101327e-02
1.787954e-02
6.673232e-02
8.518390e-02
8.080271e-03
5.061905e-02
5.794923e-02
-7.818766e-03
1.924041e-02
2.110867e-02
-2.346808e-02
-1.197421e-02
1.139672e-02
4.117918e-03
4.501441e-03
1.728518e-03
-6.975975e-02
-3.079659e-02
-8.195165e-03
-7.544696e-02
-7.129706e-02
-2.138124e-02
3.181327e-03
-4.378481e-02
-7.734496e-03
1.095355e-02
9.296234e-03
-3.565709e-02
2.057379e-02
1.685902e-02
-2.051118e-02
1.618101e-02
-2.678125e-03
-5.566600e-02
-3.895001e-02
-4.255662e-02
-1.296036e-02
-6.639472e-02
-7.260028e-02
-2.136368e-02
-6.341722e-02
-5.610954e-02
7.023780e-03
7.777820e-03
2.357400e-03
-3.957916e-02
5.082894e-02
6.523672e-02
1.772363e-02
4.008026e-02
6.667783e-02
5.510632e-02
-4.988237e-02
-2.805367e-03
-2.436652e-04
-1.228213e-02
2.941050e-04
-1.398630e-02
1.827363e-02
-4.194289e-03
-1.885806e-02
2.223068e-02
6.135339e-03
-1.190511e-02
1.756790e-02
1.307262e-02
-1.883576e-03
1.030955e-02
3.149935e-02
1.366703e-02
6.338978e-03
-1.445564e-02
-1.489944e-02
9.277070e-03
-6.078600e-03
-7.353819e-03
1.060424e-03
-3.246177e-03
-3.747286e-03
8.854803e-03
4.270682e-03
2.242808e-02
6.980631e-03
3.977064e-02
4.373296e-02
1.546705e-02
4.519639e-02
2.469976e-02
2.783958e-02
-1.516698e-02
-3.755104e-02
2.808513e-02
-3.303810e-02
-4.729043e-02
4.058380e-03
-1.960397e-02
-4.467636e-02
2.350723e-02
3.310193e-02
1.464550e-02
3.634314e-02
8.553107e-02
3.755649e-02
4.017807e-02
8.365088e-02
5.498058e-02
-2.177842e-02
-2.005225e-04
2.104107e-02
2.580436e-04
4.575697e-02
5.869278e-02
1.462079e-02
3.504855e-02
5.194558e-02
-2.381220e-02
-9.711225e-02
-1.002030e-01
-3.248231e-02
-9.684676e-02
-9.932526e-02
-5.443443e-02
-6.490270e-02
-3.183363e-02
-9.427973e-03
-3.177395e-02
-5.721809e-03
-7.799105e-03
-5.655737e-02
-3.815233e-02
1.371439e-02
4.190188e-03
-3.589241e-02
2.688643e-02
8.292645e-03
3.887415e-02
-2.338581e-02
-5.046490e-02
-3.265156e-02
-5.521664e-02
-6.889566e-02
-5.350301e-02
3.069085e-02
2.072568e-02
-3.148464e-03
4.912059e-02
6.578421e-02
3.206231e-02
3.116979e-02
6.273092e-02
1.192754e-02
1.307192e-02
3.888125e-03
-6.364829e-03
5.636483e-02
5.836447e-02
6.582524e-03
4.524784e-02
4.897685e-02
9.317388e-03
-2.498836e-02
-4.212841e-02
-3.747799e-02
-3.259293e-02
-7.437969e-02
-5.202876e-02
-3.234661e-02
-3.999934e-02
-5.326393e-02
-2.639804e-02
-1.607620e-02
-2.144401e-02
2.359213e-03
9.387402e-03
1.188521e-02
-2.616066e-03
7.750230e-03
3.763379e-03
2.242734e-02
-5.348010e-02
-5.641261e-02
-4.252017e-03
-5.251177e-02
-6.172213e-02
-1.514713e-02
-3.821553e-02
-4.820331e-02
-3.315721e-02
-6.105358e-02
-3.619768e-02
-4.752262e-02
-1.257739e-01
-1.186682e-01
-3.566737e-02
-9.400847e-02
-1.088086e-01
-1.242244e-02
2.848559e-02
9.966563e-03
1.622107e-02
6.455288e-02
3.075612e-02
2.220470e-02
5.085437e-02
3.144846e-02
2.334107e-02
1.346019e-02
-2.825754e-03
1.791598e-02
2.132477e-02
1.150833e-02
1.555869e-02
2.822861e-02
2.426013e-02
1.382130e-02
1.252379e-02
-1.979143e-03
4.270504e-02
2.085680e-02
-8.001400e-03
1.952052e-02
1.399698e-03
-2.464871e-02
-7.775475e-02
-4.356495e-02
-3.151435e-02
-2.951154e-02
6.581173e-03
1.240568e-02
2.650731e-02
5.880763e-02
4.544610e-02
-3.066662e-04
-2.812935e-03
1.909282e-02
-2.645699e-03
6.088585e-05
4.237694e-02
-4.577569e-03
9.955607e-04
1.120783e-02
7.802443e-03
1.402234e-02
9.869293e-03
-1.149359e-02
1.094052e-03
5.535309e-03
1.999285e-02
1.226372e-04
-3.478147e-03
-2.826974e-03
-2.238044e-02
-1.608374e-02
-8.016302e-02
-6.378742e-02
-1.539979e-02
-1.484542e-01
-1.092185e-01
-3.999217e-02
-4.077405e-04
-1.310355e-02
-2.066443e-02
4.360759e-03
8.092951e-03
9.841369e-03
9.683597e-04
-3.282564e-03
-9.835596e-03
-4.962872e-03
2.949724e-02
4.224729e-02
-2.052018e-02
2.125768e-02
1.114101e-02
-1.575642e-02
-9.132172e-03
2.746752e-03
-1.489530e-02
-2.472198e-04
-1.762934e-03
-2.057304e-02
-3.787460e-03
-4.113838e-03
-4.090372e-02
-1.436584e-02
-4.427427e-03
7.204767e-03
-5.159791e-03
-1.154990e-02
1.217230e-02
1.532246e-03
-6.028037e-03
1.051712e-02
-5.595817e-04
-4.475832e-04
2.503778e-03
-2.467721e-02
-1.080880e-02
-1.753139e-03
-2.053271e-02
-9.162569e-03
-3.427059e-03
-1.318696e-02
1.003070e-02
1.420403e-02
1.107666e-02
-1.168826e-02
6.297095e-02
6.522221e-02
1.355405e-02
3.540180e-02
1.753522e-02
-3.869999e-03
-5.206744e-02
2.654094e-02
3.849402e-02
2.438693e-02
8.522832e-02
9.868288e-02
7.496355e-02
8.638004e-02
1.027943e-01
-4.254090e-02
-7.494289e-02
-1.097491e-01
-6.836098e-02
-9.333425e-02
-1.147190e-01
-5.020406e-02
-3.207629e-02
-3.847158e-02
-1.889064e-02
-1.698308e-04
5.813030e-03
1.075842e-02
2.185521e-02
1.954468e-02
4.184621e-03
-3.121456e-03
-3.016483e-02
6.095532e-02
2.274051e-02
-8.257502e-03
2.403027e-02
-2.146411e-02
-6.164749e-02
-1.788514e-02
-7.584719e-03
-3.115571e-02
-1.009662e-03
-3.741565e-03
-8.685558e-03
-1.422440e-02
-1.975579e-02
-2.642049e-02
-1.143302e-02
-2.251161e-04
-1.014267e-02
3.083721e-02
3.832716e-02
5.223216e-02
2.596090e-02
2.484535e-02
5.143164e-02
-1.245816e-02
-7.726084e-03
2.862054e-02
-9.210872e-03
-3.827308e-03
-2.175698e-02
1.227730e-02
4.448666e-03
-4.415996e-02
3.289682e-02
2.630416e-02
-1.592471e-02
-1.285346e-02
8.927038e-03
7.219604e-02
-7.330497e-02
-2.860574e-02
8.685751e-02
-7.011209e-02
-2.847003e-02
6.103697e-02
2.504900e-02
4.463248e-02
1.327652e-02
3.148025e-02
6.483771e-02
1.927245e-02
4.441640e-02
5.729510e-02
2.405144e-02
-2.742285e-02
-4.114498e-02
-3.494724e-02
1.380634e-02
-1.596980e-02
-5.525262e-02
1.022398e-02
-1.757180e-03
-2.881425e-02
-9.805152e-02
-3.940989e-02
4.868222e-02
-1.104368e-01
-7.137810e-02
2.965190e-02
-5.378700e-02
-5.471541e-02
1.432811e-02
-8.622997e-02
-5.663770e-02
2.929553e-02
-1.363238e-01
-1.188146e-01
1.052662e-02
-6.801555e-02
-5.483308e-02
-1.257049e-02
-1.215219e-01
-5.554783e-02
-5.750047e-02
-7.766039e-02
-1.864110e-02
-2.339241e-02
-7.303613e-02
-2.214351e-02
-3.031677e-02
2.000166e-03
2.404516e-02
4.550411e-02
-9.636660e-03
2.199534e-02
6.943237e-02
-9.801336e-03
3.351689e-02
5.591675e-02
-3.590098e-02
-2.929372e-02
5.164286e-03
-3.598649e-02
-8.435140e-03
3.046216e-02
-1.800073e-02
1.903900e-02
4.739700e-02
-4.280325e-02
9.678703e-03
4.885316e-02
-2.956435e-02
-9.002262e-03
1.233504e-02
-1.398042e-02
-1.076523e-02
-1.971958e-02
-9.535369e-03
-2.816392e-02
-4.508198e-02
-7.500200e-03
-7.071938e-03
-2.366396e-02
-6.113202e-04
-8.918844e-03
-1.826100e-02
-6.330200e-03
1.637591e-02
1.358109e-02
1.232611e-02
1.855330e-02
-2.257929e-02
3.954584e-02
4.482164e-02
-1.580858e-02
-5.539361e-02
-2.172997e-02
4.306157e-03
-1.267411e-01
-9.311710e-02
1.304709e-02
-9.081405e-02
-6.300500e-02
1.394149e-02
3.636890e-02
-7.632948e-03
-2.255296e-02
3.204300e-02
-2.758575e-02
-4.536413e-02
4.674424e-02
-4.476874e-02
-7.591280e-02
2.722496e-02
8.435164e-03
-4.378367e-04
1.779380e-02
-7.051689e-03
9.554327e-03
-1.711965e-02
-3.463187e-03
-8.137583e-03
3.303409e-02
4.488412e-02
2.231266e-02
2.847373e-02
3.524108e-02
3.886999e-02
9.375450e-03
2.546808e-02
2.390853e-02
-3.921480e-02
-6.648335e-02
-2.076762e-02
-9.535416e-02
-1.025423e-01
-5.302176e-02
-4.177785e-02
-3.984111e-02
-2.019173e-02
1.681977e-02
2.122989e-02
8.946431e-03
3.736035e-02
2.330965e-02
-1.494252e-02
4.839667e-02
3.474782e-02
-2.054241e-03
3.034533e-02
1.292578e-02
-6.399260e-03
2.540758e-02
2.227025e-02
5.125066e-04
-3.709127e-03
-6.750134e-03
-9.609018e-03
1.082704e-01
5.365500e-02
-5.014731e-02
1.150949e-01
9.371875e-02
-1.408970e-02
8.900852e-02
9.404711e-02
2.135438e-02
1.970182e-02
2.366967e-02
-2.262406e-02
-1.276960e-02
-6.289165e-03
-1.104666e-02
-8.238832e-03
3.759301e-02
4.545999e-02
-6.354109e-03
1.548302e-02
-9.428974e-03
-1.952761e-02
3.480997e-02
1.430711e-02
-3.881527e-03
5.835255e-03
1.789086e-02
-3.138889e-02
-3.605403e-02
-7.491324e-02
-4.392663e-03
-2.119191e-02
-6.077068e-02
-1.054070e-02
-3.280966e-02
-6.779197e-02
1.481424e-02
-1.576245e-02
-1.582205e-02
4.547831e-03
-3.085123e-02
-3.129749e-02
-2.961217e-03
-2.653947e-02
-2.038307e-02
5.788335e-04
1.446309e-02
3.462243e-02
3.529116e-02
2.838321e-02
8.176471e-04
3.902959e-02
2.508192e-02
5.287009e-03
4.230136e-02
1.317193e-02
-7.355276e-03
8.578025e-03
-4.891676e-04
-2.363860e-02
-3.978181e-02
-1.611134e-02
3.790254e-02
-3.227272e-02
3.150015e-02
3.038162e-02
-5.199704e-02
3.241795e-02
3.753344e-02
-8.607981e-03
2.660268e-02
1.432380e-02
-2.934195e-04
-8.948011e-02
-6.440328e-02
-3.647828e-02
-1.400711e-01
-9.824376e-02
-3.374577e-02
-9.250768e-02
-6.092016e-02
2.148326e-02
2.577844e-02
6.177124e-04
-2.307044e-02
-3.238700e-03
2.934399e-03
-1.323515e-02
7.164521e-03
-3.632515e-03
1.457003e-02
1.826009e-02
2.678782e-02
8.108987e-03
2.438072e-02
4.126549e-02
-1.336199e-02
-6.355457e-03
1.521821e-02
4.318212e-02
5.293500e-02
1.177494e-02
4.029494e-02
6.391436e-02
4.997051e-02
3.329455e-02
6.310721e-02
2.737975e-02
1.004069e-02
-3.509926e-02
-3.548579e-02
-8.776468e-03
-2.494719e-02
-4.986821e-02
-6.975913e-03
-1.508958e-02
-2.041459e-02
-4.267183e-02
-7.740541e-02
-3.185374e-02
-9.597386e-02
-1.121557e-01
-2.428010e-02
-3.153181e-02
-4.209860e-02
4.596802e-02
2.298759e-02
4.516609e-02
1.134034e-02
2.535107e-02
3.674989e-02
-1.227350e-03
1.430388e-02
-9.586698e-03
-1.873546e-02
1.806592e-03
3.019332e-02
2.852828e-02
3.391839e-02
6.904902e-02
5.007083e-02
8.319859e-03
1.815655e-02
-1.196235e-02
-1.509531e-01
-5.681699e-02
-4.357021e-03
-1.373140e-01
-4.388993e-02
2.658891e-02
-5.146844e-02
2.587586e-02
8.298071e-02
5.028798e-02
2.129066e-02
1.861286e-03
-5.839432e-03
-1.280503e-02
-1.549396e-02
-4.280191e-02
-1.812657e-02
2.960294e-03
1.608900e-02
1.583607e-03
-2.187735e-04
6.869914e-02
3.355902e-02
-2.503846e-02
4.166943e-02
1.814135e-02
-2.361354e-02
-1.575946e-02
2.136862e-02
1.434073e-02
-2.846824e-02
4.624450e-03
-1.453417e-02
-4.903882e-02
-1.921395e-02
-3.530985e-02
3.475002e-03
1.992924e-02
-6.383177e-03
1.839839e-02
5.067452e-02
8.172807e-03
1.963982e-02
3.732847e-02
2.271687e-02
4.731254e-02
3.840064e-02
-5.243868e-04
4.578698e-02
6.382052e-03
-3.012455e-02
3.437140e-03
-3.601999e-03
-1.034393e-02
4.293621e-02
6.074397e-04
-1.517751e-02
3.948179e-02
2.155524e-05
-3.868335e-02
1.560803e-02
2.780137e-02
-3.647222e-02
4.867781e-02
6.332677e-04
-5.961148e-02
8.006285e-02
2.721154e-03
-1.000616e-01
6.676436e-02
1.770450e-02
-6.300956e-02
-2.082612e-02
2.351665e-02
2.541086e-02
-7.849439e-02
-1.595076e-02
3.201891e-02
-1.817819e-02
1.410202e-03
3.994923e-02
8.347255e-03
-2.905769e-02
2.652669e-03
6.910720e-02
2.635946e-02
1.161964e-02
6.751022e-02
5.012425e-02
2.144380e-02
6.693104e-03
2.339619e-02
1.267790e-02
-9.920314e-03
9.965255e-03
2.541851e-02
-6.601334e-02
-6.315388e-02
1.901317e-02
1.944727e-02
1.261849e-02
9.865494e-04
-1.701546e-02
-2.236193e-02
-8.255116e-03
-7.643661e-02
-7.886402e-02
-2.899876e-02
1.284243e-02
1.902197e-02
2.589869e-02
-3.934995e-02
-2.422812e-02
1.133268e-02
-7.711485e-02
-8.301833e-02
-3.572189e-02
-5.704388e-02
-9.926784e-02
-5.756601e-02
7.313005e-03
-4.576503e-02
-3.921461e-02
9.984392e-02
6.552769e-02
4.756052e-02
-2.213210e-02
1.198326e-02
1.132585e-02
-1.475316e-02
5.693717e-02
4.404356e-02
-2.988076e-02
-1.087731e-02
-1.262918e-04
3.171571e-02
7.061330e-02
1.535106e-02
6.027221e-03
-2.849225e-02
-4.792538e-03
-5.633172e-02
-7.969844e-02
-3.659451e-02
-1.824310e-02
-7.018164e-02
-1.000831e-01
1.616229e-02
-5.157086e-02
-9.035857e-02
8.676078e-02
3.316519e-02
-1.969574e-02
1.680612e-03
-1.631804e-02
-7.954309e-03
7.528287e-03
2.665707e-02
4.229850e-02
2.102764e-03
1.593132e-02
1.542977e-02
2.289570e-02
3.614023e-02
2.777233e-02
-2.694469e-03
4.001157e-02
5.211470e-02
-8.344465e-03
1.024744e-03
1.079856e-02
-4.326586e-02
-1.057812e-02
-2.428328e-02
-4.962509e-02
-1.118701e-02
-3.059779e-02
-1.169882e-01
-7.539438e-02
-9.099415e-02
1.748297e-02
1.096879e-02
5.321991e-03
-2.722278e-02
-5.142488e-02
-2.441505e-02
-4.262831e-02
-6.782950e-02
-4.578615e-02
1.915521e-02
3.328009e-02
1.719126e-02
-1.277800e-02
2.552839e-03
-1.375283e-02
-2.297556e-02
-4.852385e-02
-3.652922e-02
2.955856e-02
4.308490e-02
2.542563e-02
-1.518277e-02
-5.682771e-03
3.307121e-03
-7.739633e-02
-7.485973e-02
-7.522855e-03
2.152433e-02
3.158371e-02
1.340868e-02
2.362476e-02
3.263686e-02
1.552229e-02
-2.120437e-02
-2.974958e-02
-2.690182e-02
6.245741e-02
6.546220e-02
7.355909e-02
2.319486e-02
-1.193010e-02
-1.807367e-02
-7.375833e-02
-1.178813e-01
-1.050919e-01
-1.235759e-02
4.485713e-03
-1.635006e-02
-4.561660e-02
4.891087e-03
2.636284e-02
-4.791136e-02
6.244190e-03
2.957426e-02
6.349126e-02
5.294253e-02
2.960020e-02
9.271088e-02
1.354914e-01
1.515192e-01
8.367135e-02
1.287361e-01
1.478425e-01
-5.390787e-03
2.414894e-02
1.041322e-02
-2.611857e-02
4.135045e-03
2.921949e-02
-6.092268e-02
-1.286980e-02
-9.170058e-03
-1.060618e-02
-6.330665e-04
3.377017e-03
-2.141971e-02
-2.061529e-02
6.737309e-03
-2.094656e-02
-2.435777e-02
6.165807e-04
-2.794133e-03
-5.681069e-02
-2.073848e-02
-8.304165e-03
-8.226268e-02
-4.992343e-02
1.473869e-02
-4.902992e-02
-4.308142e-02
1.416097e-02
1.550427e-02
-1.402500e-02
1.335266e-02
4.750614e-02
2.799618e-03
-1.748981e-02
1.580377e-02
1.384427e-03
-4.174449e-05
-1.251788e-02
1.136078e-02
-1.278962e-02
-1.727183e-02
-1.386405e-02
8.344059e-04
-5.064957e-03
-1.839998e-02
-6.806546e-03
-6.748030e-03
-9.801291e-03
2.342084e-03
-3.852971e-02
-2.808977e-02
-2.984433e-03
-4.142385e-02
-1.447623e-02
-1.035213e-02
1.493659e-02
9.581976e-03
1.504942e-02
5.219408e-02
4.674935e-02
-2.164816e-02
3.416878e-02
4.708775e-02
7.223008e-03
1.618790e-02
1.187977e-02
1.925632e-02
3.099589e-02
2.992743e-02
1.563858e-02
3.154364e-02
2.285455e-02
-1.863937e-02
3.250083e-02
4.661580e-02
-5.086130e-02
-2.041396e-03
1.128276e-02
-4.524166e-02
-6.458497e-04
1.630214e-02
2.691113e-02
3.349722e-02
9.885461e-03
2.587899e-02
3.550376e-02
2.398748e-02
1.363018e-03
1.816736e-02
8.716586e-03
-1.879064e-02
-7.818890e-03
-3.446327e-03
1.663452e-02
4.170007e-02
5.558831e-02
2.203808e-02
3.179657e-02
3.135508e-02
-3.048868e-02
-1.043673e-02
-3.177898e-03
-5.781527e-02
-5.382457e-02
-3.688785e-02
-4.700269e-02
-3.281995e-02
-1.247646e-02
1.359622e-02
2.967991e-03
-3.505799e-02
-2.794972e-02
-1.258608e-03
3.446663e-03
-3.411764e-02
6.020815e-04
1.800740e-02
-2.312591e-02
-8.325272e-03
2.784585e-02
2.319249e-02
1.071197e-02
6.094121e-03
8.789023e-04
-1.665372e-02
-2.336729e-02
-9.408879e-04
-4.949231e-03
-2.953526e-02
6.558978e-03
-2.379950e-02
-4.226216e-02
-1.713271e-02
3.423020e-03
-7.448036e-03
-2.423994e-03
-7.831210e-03
2.611527e-02
4.926660e-03
8.779669e-03
3.217988e-02
4.914919e-03
3.765395e-02
4.738348e-02
-2.153832e-02
-1.940210e-02
-2.923481e-03
-4.089927e-02
-5.728849e-02
-6.439094e-03
2.312501e-02
3.513107e-03
2.988736e-02
2.612650e-02
1.336064e-02
1.379788e-02
3.443895e-02
-4.350440e-03
3.825152e-03
3.959609e-02
3.860093e-02
1.007718e-02
5.645300e-02
2.096225e-02
3.493084e-02
8.167388e-02
3.196767e-02
6.602073e-02
2.731173e-02
6.451500e-03
3.802201e-02
1.550795e-03
3.091802e-02
1.436864e-02
1.950052e-02
4.969163e-02
5.817710e-02
3.634046e-02
5.784662e-02
6.416140e-02
-1.038459e-01
-1.703515e-01
-8.219597e-02
-1.331655e-01
-1.752806e-01
-1.240565e-01
-6.024660e-02
-1.343464e-01
-8.781584e-02
-1.257060e-04
-5.900738e-03
-7.143018e-03
2.188041e-02
3.957779e-03
1.191855e-02
2.057533e-02
-8.823281e-03
-2.220452e-03
3.334876e-02
2.134225e-02
5.866371e-03
1.297913e-04
2.317855e-02
1.657073e-02
8.542713e-03
1.389263e-02
2.126377e-02
2.751175e-02
2.498839e-02
1.363433e-03
3.711992e-02
5.561113e-02
3.861539e-02
6.122977e-03
1.872125e-02
3.103138e-02
2.073185e-02
2.881309e-02
-2.630927e-02
1.244071e-02
2.327649e-02
-4.192984e-02
7.652572e-03
1.862259e-02
-4.557810e-02
-6.837067e-02
-9.182624e-02
-6.690814e-02
-8.836629e-02
-1.287682e-01
-8.159371e-02
-3.871913e-02
-6.879443e-02
-3.797995e-02
1.587393e-02
3.887103e-02
3.227513e-02
-1.300574e-02
1.451199e-02
2.709184e-02
-1.509460e-02
1.488640e-02
4.465561e-02
-6.518623e-03
3.997547e-03
1.801665e-02
2.116418e-02
2.721201e-03
-2.759244e-02
8.317203e-02
3.071657e-02
-2.171487e-02
1.319656e-02
1.266833e-02
3.675498e-02
-1.313032e-02
-5.432692e-03
1.554044e-02
-2.159195e-02
-9.099382e-03
1.882544e-02
-4.322936e-02
-3.630458e-02
-2.573917e-02
-2.870025e-02
-2.705682e-02
-2.082903e-02
9.969554e-03
2.335211e-02
-5.758762e-03
2.459210e-02
5.720538e-03
-6.693638e-03
3.853269e-02
4.104125e-02
2.324672e-02
5.660167e-02
4.646150e-02
1.864445e-02
5.922718e-03
5.483903e-03
-2.682479e-02
3.296585e-02
3.806640e-02
1.367878e-02
3.028746e-02
4.537753e-02
2.715199e-02
4.970979e-03
-5.352122e-02
-5.375325e-02
-3.834235e-02
-1.079896e-01
-4.264369e-02
-5.191911e-02
-8.043811e-02
-1.147670e-02
3.443943e-02
4.596661e-02
4.709243e-02
3.603505e-02
5.124352e-02
5.256508e-02
2.804404e-02
2.367867e-02
2.867079e-02
-4.512015e-02
1.342321e-02
2.006181e-02
8.204132e-03
8.203644e-02
9.274317e-02
1.401513e-02
8.562361e-02
1.068454e-01
-4.952881e-02
-5.628318e-02
-8.772737e-02
-1.131950e-01
-1.360178e-01
-1.533034e-01
-1.001206e-01
-1.258332e-01
-7.870481e-02
4.737404e-03
-4.685862e-02
-6.442464e-02
-4.501886e-02
-7.058787e-02
-4.263099e-02
-6.031929e-02
-5.963749e-02
2.501242e-02
-4.139310e-02
2.110061e-02
5.846218e-03
1.843405e-02
4.059157e-02
3.339771e-02
1.393247e-02
1.069078e-03
4.886725e-03
4.604033e-03
-5.572445e-03
-4.823979e-03
3.414495e-04
2.131770e-02
3.191194e-03
-2.358894e-02
-1.016057e-02
-4.292976e-03
1.789581e-02
-4.615415e-04
-8.968282e-03
1.981819e-02
-3.534375e-03
-2.703940e-02
2.275931e-02
5.384072e-03
-1.466281e-02
3.832305e-03
1.972820e-02
8.468132e-03
-5.444348e-03
1.787787e-02
1.843556e-03
-2.757013e-02
2.839859e-03
-3.827064e-03
1.846448e-02
4.705976e-02
3.375041e-02
1.012324e-02
5.131880e-02
5.930516e-02
2.537749e-03
2.625921e-02
2.821712e-02
-1.239867e-02
-6.014233e-02
-6.933640e-02
-8.165831e-02
-1.429972e-01
-1.217530e-01
-7.618996e-02
-9.394980e-02
-4.794995e-02
1.372018e-02
3.059556e-02
3.772022e-02
4.891724e-02
4.229614e-02
7.263684e-02
2.047057e-02
2.860359e-02
1.780510e-02
-7.381589e-02
-3.919970e-02
8.873524e-03
2.984445e-03
-7.021634e-04
3.942547e-02
5.775737e-02
3.634535e-02
5.311598e-02
1.624469e-02
4.257758e-02
6.134438e-03
-3.156209e-02
1.051417e-02
-2.620392e-02
-5.646995e-02
-1.458284e-02
-2.865401e-02
1.320522e-02
-9.904907e-04
3.141965e-03
4.664564e-02
1.037313e-02
-2.583353e-02
4.192896e-02
-4.246351e-03
-3.268589e-02
6.004967e-03
-1.272429e-02
-3.142815e-02
8.288782e-03
9.237968e-03
1.521293e-02
4.865427e-04
2.281560e-02
3.277765e-02
-7.803392e-03
-3.548487e-03
1.140620e-02
9.005349e-03
1.746578e-03
3.396487e-02
2.003150e-02
4.663705e-02
4.581580e-02
-4.649653e-02
-1.109420e-01
-7.642583e-02
-5.408847e-02
-1.236874e-01
-9.056208e-02
-4.250953e-02
-6.629255e-02
-3.921425e-02
3.416352e-02
-1.274305e-02
-5.697800e-02
6.593415e-02
3.761328e-02
-2.825214e-03
3.068533e-02
-4.736619e-04
-2.457041e-02
-1.175833e-02
8.033586e-02
8.529156e-02
-4.658005e-02
3.443286e-02
6.573770e-02
-3.731472e-02
-6.088737e-02
-1.346998e-02
2.599121e-02
1.612408e-02
-5.790593e-03
-1.488274e-02
-1.930702e-02
1.163031e-02
-2.875591e-02
-3.920673e-02
-2.656407e-02
4.632011e-02
-1.293292e-02
-4.176497e-02
4.607128e-02
-9.422242e-03
-4.085520e-02
2.783156e-02
-3.649752e-03
-3.601061e-02
-1.279770e-03
1.790105e-02
-2.034893e-02
3.461499e-02
1.806451e-02
9.760967e-03
1.050092e-02
-4.114550e-02
-3.746350e-02
-1.015755e-01
-1.206944e-01
-4.009000e-02
-1.645807e-01
-2.002777e-01
-1.117579e-01
-7.589979e-02
-1.114117e-01
-7.423814e-02
-1.916482e-03
8.587291e-03
2.949816e-02
-6.268058e-03
8.467015e-03
2.080858e-02
-4.442596e-02
-1.493645e-02
3.644957e-03
-8.416701e-03
3.878462e-03
3.450361e-02
-3.434046e-02
-1.989668e-02
2.389083e-02
-2.424697e-02
-3.316589e-02
-1.860013e-03
8.264509e-03
7.385810e-02
8.889918e-02
-7.830351e-06
5.947762e-02
9.765497e-02
2.759507e-02
4.447055e-02
4.858835e-02
2.922912e-02
1.077333e-02
6.478013e-04
2.172033e-02
-7.393813e-03
2.248172e-02
-2.744844e-03
-1.493545e-02
1.100779e-02
2.247437e-02
3.622045e-02
-7.014989e-03
1.217365e-02
3.091005e-02
-7.517892e-03
-1.407433e-02
1.531149e-02
1.651186e-02
-2.471701e-02
-5.979125e-03
1.063653e-02
-9.879746e-03
3.075088e-03
4.100773e-03
2.760332e-02
5.735092e-02
3.294186e-02
1.592087e-02
1.940159e-02
-3.189834e-03
-3.874837e-02
-4.641228e-02
1.037653e-02
-6.080608e-02
-7.137867e-02
-2.496643e-02
2.425421e-03
1.370258e-02
2.925077e-02
-1.361792e-02
-2.801562e-02
-1.366328e-02
-8.570335e-03
-1.538370e-02
-9.375868e-04
8.534633e-03
2.475758e-02
1.743558e-02
3.242635e-02
2.706434e-03
-1.121411e-02
-2.211204e-03
-2.994530e-02
-1.657598e-02
3.605941e-02
2.642289e-02
-8.111532e-04
6.255371e-03
4.559985e-03
9.398300e-04
-2.008593e-03
-3.043926e-03
-7.086310e-03
-5.378725e-02
-5.119005e-02
-5.652120e-02
-4.483714e-02
-3.547307e-02
-3.219494e-02
-5.736182e-03
5.468701e-03
1.610186e-02
5.790070e-03
3.622889e-03
-1.176077e-02
2.543685e-02
1.343216e-02
-1.098339e-02
4.770304e-02
3.167209e-02
-4.852625e-03
1.162745e-04
2.093641e-04
4.287356e-03
1.829897e-02
-9.214987e-03
-2.715106e-02
3.856003e-03
-1.781920e-02
-1.578764e-03
-3.160717e-02
-4.192210e-03
2.577507e-03
9.726125e-03
5.087448e-02
5.288851e-02
-4.139646e-03
2.545027e-02
3.370493e-02
2.430023e-03
1.413251e-02
-4.446050e-04
3.542545e-02
5.435193e-02
1.838752e-02
2.979187e-02
5.616838e-02
3.094033e-02
1.997519e-02
4.410298e-02
-1.046267e-02
8.978565e-03
4.151210e-02
-3.832720e-03
-2.446686e-02
-8.351523e-04
1.609799e-02
-1.871556e-02
1.196251e-02
-6.732706e-03
-1.362887e-03
3.521131e-02
7.272973e-03
-1.066842e-02
3.006064e-02
-2.356020e-03
1.836378e-02
1.431679e-02
1.987388e-02
1.549811e-02
1.864830e-02
3.037352e-02
-1.195791e-02
-1.403043e-02
1.287796e-02
1.758989e-02
2.033744e-02
2.371843e-02
2.220649e-02
3.631353e-02
2.390665e-02
1.659804e-02
2.112132e-02
7.481815e-03
4.169261e-02
2.116119e-02
-7.595203e-03
3.244559e-02
1.416538e-02
-6.300454e-03
-7.866802e-03
-9.061698e-03
6.068986e-03
2.302766e-02
5.722835e-02
6.955635e-02
1.004200e-01
1.438608e-01
1.388407e-01
1.228150e-01
1.381169e-01
1.137969e-01
2.539073e-02
5.133421e-02
1.506446e-02
6.025400e-02
5.917747e-02
4.577581e-02
4.855967e-02
4.821996e-02
3.809017e-02
1.955935e-02
2.243487e-02
-1.304485e-02
2.853503e-02
4.828728e-02
-2.963534e-02
3.672403e-03
-1.696841e-03
-4.660621e-02
8.970694e-03
6.723336e-02
4.646892e-02
1.019295e-02
3.057494e-02
-1.780330e-02
8.682895e-03
1.279899e-03
-3.533077e-02
2.168839e-02
4.876667e-02
7.319400e-04
3.180964e-02
-8.777362e-03
-6.588022e-03
2.405827e-02
-3.239816e-02
-3.541797e-02
-5.530683e-02
-6.103674e-02
-1.281495e-02
-6.507874e-03
-7.189549e-03
1.457612e-02
6.309152e-03
1.953208e-02
2.815593e-02
-2.171516e-03
-3.475202e-02
1.255867e-02
-2.411112e-02
-4.544038e-02
2.494173e-02
-3.612856e-02
-3.710952e-02
2.230202e-02
-6.584000e-02
-7.743995e-02
-2.787591e-02
-5.945316e-02
-4.537656e-02
5.935606e-03
-1.001893e-02
1.886404e-02
3.081531e-02
3.001823e-02
4.514923e-02
2.683676e-03
3.357046e-02
2.361320e-02
-3.350165e-02
9.549100e-03
-9.634724e-03
-3.624106e-02
-7.806967e-03
3.103596e-02
2.622480e-02
-5.301761e-03
2.749898e-02
3.611484e-02
-3.516026e-02
-7.313676e-04
1.491316e-02
-8.725860e-02
-1.124200e-01
-2.975772e-02
-9.664663e-02
-6.836215e-02
4.690874e-02
2.576398e-03
1.415474e-02
6.610487e-02
-4.343021e-02
2.674246e-02
6.666436e-02
-1.799402e-02
9.600664e-02
1.264399e-01
-8.192122e-03
4.767435e-02
6.870130e-02
-5.026957e-02
-4.613436e-02
-2.070817e-02
-1.597369e-02
-1.343242e-02
4.985691e-03
-1.822537e-02
5.295026e-03
2.419360e-02
-2.237934e-02
-2.068503e-02
-1.694544e-02
-2.094533e-02
-2.637613e-02
-3.557158e-03
1.879163e-02
6.479846e-03
-3.405164e-03
-5.115404e-02
-8.366729e-02
-4.799178e-02
-2.320479e-02
-3.222922e-02
-2.681467e-02
1.493821e-02
-3.139219e-02
-4.789529e-02
1.770218e-02
-1.002328e-02
-4.321385e-02
2.048915e-02
1.072089e-02
-2.093246e-03
4.938362e-02
3.153149e-02
1.377291e-02
-3.573325e-02
-3.019387e-02
2.084068e-02
-2.892406e-02
-5.524610e-03
1.702021e-02
6.082778e-03
2.986272e-02
3.792921e-02
2.562726e-02
2.246868e-02
8.637736e-04
2.463544e-02
8.331941e-03
-5.903640e-03
2.072308e-02
8.318493e-03
-1.484036e-02
-1.283664e-01
-8.563229e-02
7.839769e-03
-1.189527e-01
-4.025638e-02
7.411187e-02
-1.891733e-02
3.113645e-02
9.920348e-02
2.291370e-02
2.610470e-02
4.880781e-02
-2.405123e-03
-7.731541e-03
2.108873e-02
-1.734251e-02
-4.183269e-02
-7.566590e-03
-6.952791e-03
5.386131e-03
1.403829e-02
3.204636e-02
4.960376e-02
2.434527e-02
3.797076e-02
3.547394e-02
9.753845e-03
2.528897e-02
4.074296e-02
2.018430e-02
3.802833e-02
4.481349e-02
2.269113e-03
3.305214e-02
2.155406e-02
-2.623983e-02
-1.784237e-02
-2.175934e-02
1.344363e-02
-3.362682e-02
-2.657136e-02
2.700661e-02
-6.876731e-02
-4.840094e-02
7.328806e-03
-9.309679e-04
-6.563322e-02
-7.129893e-02
-4.764907e-02
-1.273496e-01
-1.132459e-01
-5.053571e-02
-8.590859e-02
-6.339075e-02
-1.450154e-03
1.907421e-02
2.697886e-02
1.690519e-02
3.965221e-02
1.217314e-02
2.180825e-02
2.052114e-02
1.472538e-02
1.136157e-02
-8.401387e-03
2.605727e-02
1.614740e-02
7.264226e-03
3.396636e-02
1.136993e-03
-1.345119e-02
2.918031e-02
-8.192869e-03
-5.382787e-02
-3.282231e-02
1.076091e-02
-1.059760e-02
-3.691931e-03
-4.226823e-02
-5.161054e-02
-1.086089e-02
-3.364617e-02
-8.511748e-02
-7.089420e-02
-1.041911e-01
-1.706794e-01
-1.277734e-01
-4.139032e-02
-9.436443e-02
-7.341177e-02
-3.240492e-03
4.245731e-03
3.120798e-02
-3.093056e-02
-2.301841e-02
-1.510799e-03
-5.719374e-02
-4.312282e-02
-2.311341e-03
3.759664e-02
1.676033e-02
-9.300358e-03
8.161037e-02
4.341033e-02
-1.629058e-02
4.018854e-02
1.773687e-02
-1.179068e-02
-2.643201e-02
-1.194981e-01
-1.271429e-01
2.225890e-04
-1.275681e-01
-9.345184e-02
1.928128e-02
-6.200562e-02
-5.884578e-02
-9.811012e-03
2.738728e-02
-3.307807e-03
4.608329e-02
5.861308e-02
-1.767281e-03
4.350912e-02
2.062372e-02
6.568700e-04
1.861353e-02
1.524446e-02
3.516594e-02
-1.111074e-02
-3.588443e-03
2.779463e-02
-2.476216e-02
7.139914e-03
6.354581e-02
1.159514e-02
-1.112934e-03
2.967763e-02
1.300843e-02
-3.215505e-03
1.207028e-02
2.064394e-02
2.621062e-03
1.218398e-02
4.221154e-02
1.357220e-02
-5.962840e-02
-1.146334e-02
-6.845558e-02
-1.112628e-01
-4.091172e-02
-8.860428e-02
-1.065627e-01
-2.687714e-02
-5.030625e-02
-2.706669e-02
-1.805336e-03
-3.628139e-03
3.337407e-03
2.480583e-02
2.103264e-02
3.517504e-02
9.387083e-03
8.098905e-03
-2.474390e-02
3.093589e-02
3.213243e-02
-9.080334e-03
4.873245e-03
2.847447e-02
2.484422e-02
4.082509e-02
-1.936919e-02
-2.524127e-02
5.611140e-02
-2.187601e-02
-6.546459e-02
5.613976e-02
1.494922e-02
-4.368827e-02
3.452997e-02
7.693911e-02
5.771995e-02
-2.693724e-02
1.770200e-02
1.786377e-02
-7.341441e-02
-5.161044e-02
-2.589997e-02
-3.579617e-02
1.139673e-02
4.553402e-03
-6.840631e-02
2.837785e-03
-1.630227e-02
-8.248789e-02
-3.955507e-02
-2.085296e-02
-8.493952e-03
-1.539282e-02
-8.559236e-03
-1.661133e-02
-3.050301e-02
-1.690812e-02
2.185587e-03
-1.059112e-02
2.455375e-03
-1.448729e-02
-2.054239e-02
1.041854e-02
-2.745586e-02
-5.030501e-02
-5.303219e-02
-8.375742e-03
-5.646471e-02
-8.743099e-02
3.710499e-02
6.324931e-02
5.428659e-04
9.537300e-02
8.174702e-02
-1.408757e-02
8.294045e-02
6.537468e-02
2.764471e-02
-1.214564e-02
-3.884199e-02
-5.161157e-02
-8.035738e-03
-6.142897e-02
-8.975299e-02
4.236634e-02
-3.102215e-02
-6.305984e-02
9.925912e-03
-4.190587e-02
-7.942883e-02
3.900987e-02
-1.172457e-02
-5.433939e-02
7.336225e-02
1.524439e-02
-2.794876e-02
4.478853e-02
7.555944e-02
4.686280e-02
4.516127e-02
7.911254e-02
4.153718e-02
5.214436e-03
3.648130e-02
3.159383e-02
-8.614158e-03
5.929345e-02
5.946125e-02
-2.701012e-02
6.265350e-02
6.709589e-02
-1.015063e-02
4.122254e-02
3.402291e-02
-3.251541e-03
-4.793165e-02
-7.077573e-02
3.420494e-02
-5.672640e-02
-8.467887e-02
2.977853e-02
-3.892116e-03
-3.497332e-02
4.980885e-02
3.456250e-02
-3.481171e-02
7.748961e-03
2.614472e-02
-8.925092e-03
-4.822887e-02
1.529601e-02
2.602625e-02
7.786474e-03
6.148092e-03
3.879786e-02
1.908297e-02
-3.263753e-02
-1.164938e-02
3.081603e-02
-3.241700e-02
-4.607551e-02
1.711771e-02
-2.102202e-02
-6.813761e-02
2.637526e-02
-1.516466e-03
-7.397027e-02
9.956089e-03
-4.142180e-03
-5.079888e-02
-1.626031e-02
2.667169e-02
5.149582e-02
-1.990366e-02
2.828587e-02
4.407252e-02
-2.111126e-02
-2.563900e-02
-3.414008e-02
-6.121940e-02
-5.414581e-02
1.020239e-02
-7.493646e-02
-2.717832e-02
2.248309e-02
-4.617968e-04
4.672376e-02
3.762876e-02
-5.548877e-03
-1.644092e-02
-3.651243e-03
3.797811e-02
7.223321e-02
9.090741e-02
4.770912e-02
9.351065e-02
8.465979e-02
7.301380e-02
-1.071097e-02
-6.606141e-02
7.851075e-02
-1.595687e-02
-6.937106e-02
5.273836e-02
-3.997818e-02
-9.032812e-02
3.520951e-02
2.716425e-02
1.548907e-02
2.774881e-03
-5.141937e-02
-3.971383e-02
-2.009487e-02
-5.374170e-02
-3.745570e-02
-4.654220e-02
-6.511643e-02
-1.746235e-02
-7.619337e-02
-7.304469e-02
-2.943516e-02
-1.922077e-02
7.505661e-03
1.978683e-02
-1.888940e-02
3.075106e-02
1.271439e-02
-3.254694e-03
6.075227e-02
3.152519e-02
-9.982601e-03
3.432972e-02
1.724055e-02
-2.784721e-02
-2.571899e-02
1.756070e-03
-1.002574e-01
-5.498843e-02
-5.313655e-03
-4.869214e-02
7.717394e-03
2.949186e-02
-2.009889e-02
-1.940536e-02
2.268457e-02
-4.641518e-03
-2.747705e-03
6.522197e-03
1.334409e-02
1.554686e-06
8.861099e-04
-6.346180e-02
-3.238662e-02
-6.481051e-02
-2.909645e-02
2.401732e-02
1.705462e-03
-1.146706e-02
4.508859e-02
3.460277e-02
-4.539691e-02
-2.028150e-02
1.126171e-02
-1.898818e-02
2.348223e-02
4.871199e-02
2.304089e-02
5.324342e-02
4.766582e-02
1.191024e-02
1.765872e-02
-7.400539e-03
-3.504552e-02
-7.022710e-02
-5.524981e-02
-5.760098e-02
-5.333630e-02
-4.561046e-03
-8.717635e-02
-5.533608e-02
2.643216e-02
-7.330070e-02
3.743967e-02
8.862944e-02
9.667333e-04
4.866845e-02
7.525689e-02
4.754370e-03
1.474180e-02
1.845025e-02
2.175465e-02
4.034181e-02
2.881338e-02
3.893216e-03
2.253009e-03
-1.269107e-02
-7.802468e-02
-8.006925e-02
4.707341e-03
-4.472747e-02
-6.831739e-03
7.363799e-02
2.645142e-03
4.013808e-02
8.285143e-02
-1.445809e-02
7.958230e-03
1.838879e-02
-3.968548e-03
1.760940e-02
3.389780e-02
3.302010e-02
7.417757e-03
-1.560163e-02
-1.066288e-02
-4.447306e-02
-7.022698e-02
-2.201415e-02
-4.675369e-02
-5.716035e-02
3.602258e-02
-1.233347e-02
-1.712868e-02
-4.533085e-02
-7.842448e-02
-4.085561e-02
-1.815754e-02
-4.809928e-02
-4.067223e-02
4.020546e-02
8.324745e-02
2.746520e-02
6.581819e-03
-3.510579e-02
-3.904281e-02
3.637005e-02
-1.655309e-02
-4.435443e-02
4.580785e-02
2.312472e-02
-1.527532e-02
3.361527e-02
8.966406e-02
1.222520e-01
-1.882152e-02
2.897029e-02
4.797392e-02
-1.079018e-01
-8.972229e-02
-8.357035e-02
-4.880650e-02
-6.649457e-02
-5.044875e-02
-4.771656e-02
-3.671733e-02
-1.646572e-02
-2.981812e-02
-1.030755e-02
-1.217913e-03
-4.608718e-02
-8.179572e-02
-5.823702e-02
4.300565e-03
-7.015990e-03
-1.727780e-02
7.849205e-02
1.437601e-01
8.292449e-02
3.248754e-02
1.265992e-02
1.732882e-02
-1.404844e-02
-5.851684e-03
3.489835e-03
-3.706926e-02
-3.759475e-02
-4.974014e-02
2.676970e-02
3.233242e-02
-5.260589e-03
1.902394e-02
2.991912e-02
-8.807489e-03
3.054522e-02
2.060644e-02
-3.900955e-02
4.124081e-02
4.875332e-02
2.282599e-02
1.294725e-02
3.868188e-02
4.062578e-02
6.640072e-03
2.659043e-02
-2.149647e-02
2.062116e-03
-5.079898e-04
1.180933e-02
-1.244109e-02
-1.503823e-02
-4.393026e-03
-4.450944e-02
-4.503439e-02
-4.289661e-02
-2.036509e-03
-4.607681e-02
-2.803216e-02
6.732039e-03
-2.878152e-02
-8.817383e-03
3.671461e-02
8.756597e-02
5.071161e-02
-2.108065e-02
-5.466658e-02
-2.198064e-02
-4.581585e-03
-3.903086e-02
2.945841e-02
2.341501e-02
4.976777e-02
5.805686e-02
-3.661542e-02
-3.992329e-02
-2.341245e-02
-1.806120e-02
-2.348403e-02
-2.059089e-02
2.143907e-02
7.490916e-03
-4.707556e-02
1.323759e-02
3.886781e-02
3.799461e-02
-3.453341e-02
-4.391471e-03
2.343679e-02
-1.936379e-02
-2.249996e-03
-5.651823e-04
3.339264e-02
-1.937276e-02
-1.959446e-02
1.620884e-02
-5.978297e-02
-7.929131e-02
1.449808e-02
-2.371514e-03
-2.647491e-02
8.404076e-03
5.212328e-02
4.123629e-02
7.013198e-02
1.101419e-01
7.284301e-02
2.922996e-02
3.129461e-02
-1.501738e-02
2.733997e-02
5.751372e-03
-3.077072e-02
2.412027e-02
5.146539e-04
8.876980e-03
1.175462e-02
-1.584639e-02
1.170557e-02
1.496314e-02
-8.434392e-03
3.936866e-03
5.230432e-02
2.907176e-02
2.064614e-03
1.602403e-02
-2.197129e-03
-1.229522e-03
1.495281e-03
3.247208e-02
7.367983e-03
2.361692e-02
9.846538e-02
6.566391e-02
5.180894e-03
4.203483e-02
4.248231e-02
-4.823226e-02
-2.117747e-02
6.136099e-04
-1.818977e-03
-2.204110e-02
-3.599853e-02
8.942915e-02
5.433765e-02
3.043976e-02
-1.533918e-02
-1.488142e-02
-7.236222e-03
1.240762e-02
1.252537e-02
-2.837397e-02
2.903783e-02
3.650465e-02
-2.587396e-02
3.369618e-02
1.829007e-02
-1.159838e-03
2.939992e-02
3.122479e-02
1.199333e-02
-6.801418e-03
2.927404e-03
4.406708e-03
-4.672433e-02
-7.679030e-02
-3.327423e-02
-6.658955e-02
-1.383747e-01
-1.059706e-01
-6.390316e-02
-1.176018e-01
-8.800992e-02
1.661230e-02
7.467729e-03
1.297479e-02
-3.100354e-02
-1.162265e-02
5.851466e-03
-4.754807e-02
-6.511357e-02
-4.261157e-02
1.704931e-02
-1.417768e-03
5.367636e-03
1.725649e-02
7.227428e-02
3.328133e-02
8.969060e-04
5.974991e-02
2.933720e-02
-6.793212e-02
-1.194320e-02
-1.175534e-02
-3.008111e-02
2.499883e-02
2.165759e-02
-4.133006e-03
3.748741e-02
3.292617e-02
2.981084e-03
-3.565055e-03
3.121590e-03
1.592949e-02
2.013702e-02
1.666164e-02
1.767200e-02
1.737491e-03
1.177649e-03
7.334751e-03
1.552338e-02
-1.561656e-02
4.451939e-02
5.650199e-02
5.435835e-03
2.439199e-02
1.060871e-02
6.803690e-03
1.177121e-02
6.654664e-03
1.804010e-02
9.713697e-03
1.689054e-02
5.108057e-02
-7.284634e-03
9.096102e-03
1.062872e-02
-5.353788e-02
-5.433546e-02
-4.244891e-03
-8.662997e-02
-1.316414e-01
-8.807544e-02
-4.155206e-02
-1.010728e-01
-6.178368e-02
-8.053841e-02
-5.223483e-02
1.128659e-04
-5.376028e-02
-9.468500e-02
-7.735062e-02
-1.239670e-02
-5.851826e-02
-1.100190e-01
-1.401546e-03
1.794273e-02
-4.222715e-03
-2.329492e-02
2.581225e-02
1.439847e-03
-1.367553e-02
1.855649e-02
3.746183e-02
-4.127069e-02
-7.851060e-02
-8.663362e-02
-1.044949e-01
-1.078050e-01
-1.095204e-01
-1.027519e-01
-9.805234e-02
-6.238288e-02
1.793918e-02
5.380250e-02
6.352867e-02
1.471913e-02
8.020842e-02
9.042250e-02
-1.102353e-02
4.435746e-02
5.549824e-02
-1.673027e-02
-1.909733e-02
-2.506541e-02
-2.879549e-02
-9.339153e-03
5.034944e-03
-1.130951e-02
4.452707e-03
1.365686e-02
-3.934595e-02
-8.471437e-03
3.707073e-02
9.014620e-03
9.877501e-03
6.352399e-02
7.354819e-02
6.334680e-02
8.580229e-02
2.400060e-02
1.963279e-02
2.078755e-02
3.806303e-02
5.372563e-02
3.559913e-02
2.194776e-02
2.838783e-02
1.717601e-02
-8.917848e-03
3.665834e-03
-1.344393e-02
-3.329071e-02
-2.834531e-02
1.396678e-02
2.214393e-03
-1.380946e-02
6.737613e-03
-9.071320e-03
-4.437198e-02
-3.439340e-02
-1.559348e-02
-4.728183e-02
-2.994516e-02
6.764951e-03
-2.085253e-02
-3.852177e-02
-2.490049e-02
-3.763076e-02
-6.424373e-02
-7.258513e-03
-2.333943e-02
-8.945411e-02
-2.308884e-02
-1.209040e-02
-5.032298e-03
4.379430e-02
2.203520e-02
-5.931121e-03
3.127028e-02
4.165677e-02
2.375545e-02
-9.025319e-03
2.798699e-02
3.903857e-02
-1.973501e-03
-8.972571e-03
-2.555556e-02
3.219502e-02
1.245384e-02
-4.790122e-04
4.185256e-02
2.647540e-02
7.170433e-03
1.734983e-02
3.523575e-02
1.672858e-02
1.543447e-02
2.589137e-02
1.725847e-02
5.545733e-03
7.157245e-03
-2.246152e-04
2.820797e-02
2.336345e-02
-1.041569e-02
-1.485582e-02
-8.467422e-03
-3.263066e-03
-7.253640e-02
-6.099065e-02
-2.483683e-02
1.677005e-02
2.091327e-02
1.574141e-02
4.718782e-02
7.247798e-02
2.700796e-02
3.866575e-02
4.885449e-02
1.319312e-02
-4.952617e-02
-3.233697e-02
-1.860035e-02
5.743353e-03
9.624885e-03
-7.189109e-03
4.063884e-02
2.956818e-02
-9.009280e-03
5.629439e-02
2.841370e-03
-8.205444e-02
1.461341e-02
6.953956e-03
-3.546391e-02
-1.726707e-02
3.155968e-03
-2.005628e-02
3.055913e-02
-1.938994e-02
-4.317245e-02
3.333151e-02
2.146015e-03
-2.129006e-02
8.933912e-03
-7.029148e-03
-4.990699e-03
-1.217738e-02
1.313042e-03
-2.768392e-02
1.058306e-02
3.701111e-02
3.568899e-02
5.643193e-02
6.747244e-02
7.616531e-02
2.236937e-02
1.269749e-02
8.423397e-03
1.398553e-02
3.320774e-02
2.956963e-02
1.401394e-02
3.659885e-02
1.635824e-02
-1.691793e-02
-7.614221e-03
-4.908773e-03
-3.825381e-02
-4.321397e-02
2.205932e-03
-3.219804e-02
-2.147774e-02
2.237089e-02
-2.230804e-02
-4.130895e-02
-5.238367e-02
-1.611609e-02
-2.390783e-02
-5.081538e-02
6.453034e-03
4.811343e-03
-1.901882e-02
4.910639e-03
-3.979763e-03
2.276598e-02
2.194769e-02
-5.825683e-03
-1.271369e-03
1.026646e-02
-6.443242e-04
-2.297173e-03
-2.838908e-02
-3.459320e-02
-1.091709e-02
4.043744e-02
4.206300e-02
2.316746e-02
4.270751e-02
6.634261e-02
2.739931e-02
-1.602769e-02
4.199675e-02
3.223777e-02
3.360641e-02
6.839667e-02
2.372731e-02
1.270190e-02
3.785497e-03
-2.412749e-02
-3.718246e-02
-2.770246e-02
-7.006976e-03
-6.317008e-02
-5.076809e-02
-2.367264e-02
-5.340778e-02
-5.363299e-02
-1.524791e-02
-9.950540e-04
-7.013291e-03
-1.178342e-02
-5.858965e-03
-5.092146e-03
-7.493165e-03
6.059098e-03
1.606247e-02
-1.185154e-02
1.777104e-02
-3.155335e-02
-5.579021e-02
3.776905e-02
-4.956271e-03
-3.382128e-02
-5.852955e-03
-6.230545e-02
-8.616570e-02
-8.130074e-03
-2.294159e-02
-3.278439e-03
1.266997e-02
9.831566e-05
9.758724e-03
1.002646e-02
2.118167e-02
-2.569182e-03
-4.211949e-02
-4.640923e-02
-3.741817e-03
-1.687031e-02
-1.476500e-02
1.085977e-02
1.843748e-02
2.740625e-02
1.791489e-02
-2.532263e-02
-3.344020e-02
-9.958562e-03
-2.770319e-02
-3.488043e-02
9.617660e-03
-2.223334e-02
-2.065554e-02
1.564717e-02
-1.854790e-02
-6.472657e-02
-8.805198e-02
-9.559662e-02
-1.205197e-01
-8.721314e-02
-8.311377e-02
-7.016591e-02
-5.428416e-02
-2.306001e-02
-4.738212e-02
-5.825744e-02
-3.006175e-02
-3.672626e-02
-3.698203e-02
-4.096510e-03
-1.157389e-02
-1.796139e-02
4.686179e-02
5.408482e-02
2.580369e-02
1.415008e-02
5.642910e-02
3.270859e-02
-3.660254e-03
2.969824e-02
4.625706e-02
-1.679285e-02
-3.703677e-02
-9.608851e-03
-5.904988e-03
5.762131e-03
-1.481811e-02
2.434156e-02
8.785507e-02
3.062035e-02
4.552400e-02
-1.132039e-02
-4.336663e-02
2.709149e-02
1.677331e-02
2.572848e-02
8.337509e-03
3.213416e-02
2.331021e-02
-3.031288e-02
-3.162974e-02
8.800888e-03
-2.231331e-02
-5.753149e-02
-2.788722e-02
4.101313e-03
-3.604041e-02
-3.558339e-02
6.981574e-03
-6.386825e-02
-1.045093e-01
4.788971e-02
9.607255e-03
-4.728970e-02
3.037404e-02
2.457642e-02
-8.575249e-03
-1.179843e-03
-1.829043e-03
-4.382122e-02
5.223915e-02
6.578011e-02
7.538640e-03
4.522492e-02
7.516762e-02
3.999779e-02
4.462198e-03
1.578265e-02
-1.550825e-02
1.122298e-02
1.722691e-02
-2.345075e-03
1.218848e-02
2.137980e-02
2.297836e-02
4.548872e-02
2.607466e-02
-2.059428e-02
-2.827989e-02
2.119491e-02
3.040575e-02
-8.766476e-02
-2.487958e-02
5.471995e-02
3.258071e-02
4.209294e-03
-3.427031e-02
2.943725e-02
5.784586e-02
5.525135e-02
-1.465058e-02
1.338287e-02
1.272120e-02
-1.749213e-03
6.094290e-03
-1.750818e-03
3.402024e-03
3.939446e-03
6.402857e-03
-6.486097e-03
-1.644407e-02
1.548490e-03
-5.794061e-02
-1.690884e-02
6.056651e-03
-2.659556e-02
-1.274493e-02
9.844888e-03
1.404417e-02
1.600021e-02
5.687768e-02
1.280693e-02
-1.829050e-02
-3.359748e-02
1.144524e-02
1.297664e-02
-1.994353e-03
-3.800543e-03
6.020728e-03
5.561782e-03
-4.915735e-03
-2.741079e-02
-3.706503e-02
8.617682e-03
2.151381e-02
3.242112e-02
-2.111672e-02
-3.076587e-03
1.028830e-02
-4.032935e-02
-4.345241e-02
-1.545914e-02
-1.218010e-02
-6.845894e-02
-2.080178e-02
3.505821e-02
-2.716404e-02
-5.021778e-02
-8.320187e-02
2.300864e-02
9.941088e-02
-8.552092e-02
-2.886759e-02
7.886288e-02
-6.508050e-02
-5.812873e-02
3.703437e-02
3.563682e-02
-2.836212e-02
-1.342255e-01
8.702354e-02
5.965553e-02
-3.999967e-02
7.299994e-02
9.919911e-02
1.817442e-02
-4.124824e-02
-2.296336e-02
2.151317e-02
-3.372562e-02
-3.351831e-02
2.156332e-02
-1.830606e-02
-1.579879e-02
1.271142e-02
5.255164e-02
1.763592e-02
-1.706024e-02
6.386416e-02
-1.818665e-02
-5.754570e-02
1.978766e-02
-1.088188e-02
-2.330303e-02
4.447665e-03
-3.077743e-02
-3.188181e-02
1.346595e-02
-4.495407e-02
-5.697339e-02
-1.662644e-02
-5.338498e-02
-4.688898e-02
6.434175e-02
8.577941e-02
2.982298e-02
5.899869e-02
8.572930e-02
2.357676e-02
-9.305806e-03
3.060059e-04
-1.230522e-02
-4.438214e-02
2.818600e-02
9.556173e-02
-6.326228e-02
1.613256e-02
8.139543e-02
-2.451521e-02
3.991714e-02
1.014009e-01
-1.871593e-02
7.260451e-04
3.111142e-04
-1.371634e-02
1.342706e-02
3.552137e-02
-4.285157e-03
7.314201e-03
2.365548e-02
5.696549e-04
-1.334912e-02
-4.287245e-02
2.309169e-02
-3.576584e-03
-3.525629e-02
3.188420e-02
1.228072e-02
-2.737751e-02
-2.577008e-02
-2.443146e-02
1.135333e-02
-3.352022e-03
2.328155e-02
3.651382e-02
4.047656e-02
6.359715e-02
4.327202e-02
-4.471456e-02
7.069346e-03
5.064968e-02
-3.023192e-02
-6.093545e-03
3.489312e-02
-4.460393e-02
-2.040755e-02
1.142262e-02
7.623975e-02
9.221665e-02
3.354879e-02
7.306896e-02
9.411586e-02
3.426168e-02
3.021028e-02
4.837431e-02
1.332392e-02
-2.843695e-02
-1.763147e-02
-1.692846e-02
-2.313309e-02
-1.268671e-02
5.409626e-03
4.143656e-03
2.236955e-02
4.775819e-02
6.500149e-02
7.110941e-02
1.938036e-02
9.426769e-02
1.132636e-01
3.942136e-02
3.694600e-02
3.354814e-02
6.513071e-03
-3.417593e-02
-5.931720e-02
-6.560684e-03
-2.198372e-02
-8.400558e-02
-4.597367e-02
-2.454854e-02
-5.713297e-02
-3.888359e-02
1.615045e-02
1.234444e-03
-3.197361e-02
2.112654e-02
-2.388102e-02
-4.357956e-02
-1.985733e-02
-5.600888e-02
-9.676319e-02
-3.364937e-02
-1.583570e-02
1.132747e-02
-2.092168e-02
-1.631494e-02
1.216828e-02
-6.626386e-02
-6.338637e-02
-2.732529e-02
-5.105449e-02
-2.458054e-02
1.821498e-02
2.168302e-02
2.185875e-02
2.061233e-02
2.931215e-02
-6.851745e-03
-2.968968e-02
-1.973254e-03
6.082810e-03
2.580977e-03
-3.109729e-02
-2.225090e-02
-1.697363e-02
-6.870343e-02
-5.966580e-02
-4.010389e-02
-1.880650e-02
-5.813506e-02
-5.017922e-02
-2.461122e-02
-5.359418e-02
-5.284100e-02
2.991161e-02
-1.927534e-03
-2.691455e-02
-5.321651e-02
-9.040891e-02
-4.094762e-02
-9.717558e-02
-1.363385e-01
-8.285628e-02
-2.822955e-02
-7.112027e-02
-6.795096e-02
-3.485762e-02
-3.002157e-02
-3.128237e-02
-4.949882e-02
-4.648997e-02
-3.377219e-02
-2.245892e-02
-1.827270e-02
6.529821e-03
5.919092e-03
-1.804005e-03
-7.043486e-03
4.107515e-03
-2.992801e-03
2.032230e-02
-2.659859e-02
-1.596850e-02
4.309220e-03
-3.294518e-02
-3.500522e-02
-4.153283e-02
5.851195e-03
-2.826764e-02
-3.241477e-02
1.505031e-02
1.439304e-02
-2.545205e-03
-7.369851e-03
-3.271759e-02
-4.034959e-03
-5.528902e-02
-8.032677e-02
-6.219234e-02
-2.292402e-02
-2.492272e-02
-2.583725e-02
8.021862e-03
-1.033838e-02
-2.114301e-02
8.938708e-03
-1.691173e-02
1.492147e-02
-5.926936e-02
-6.702507e-02
-1.327297e-02
1.819094e-02
1.216349e-02
4.908520e-03
2.999935e-02
1.570464e-02
9.722291e-03
4.290999e-02
3.538152e-02
3.673733e-02
2.945356e-02
3.224346e-02
3.842416e-02
4.503158e-02
7.196198e-02
6.825583e-02
1.165215e-02
3.883478e-02
2.119271e-02
2.940639e-02
6.316161e-02
6.807885e-02
-2.703094e-02
-1.367388e-03
-1.024906e-02
-6.253173e-02
-2.951514e-02
-3.214077e-02
-4.865442e-02
-7.877459e-02
-5.729727e-02
-7.336196e-02
-1.226164e-01
-9.105653e-02
-3.083220e-02
-5.359449e-02
-3.728393e-02
-4.109035e-02
-4.755663e-02
-4.487887e-02
-2.566950e-02
-4.971805e-02
-5.283851e-02
2.261286e-02
-3.220131e-03
-1.797161e-02
-3.402986e-02
-5.495709e-02
-2.792113e-02
-4.404485e-02
-3.207760e-02
2.096638e-02
-2.169270e-02
4.095874e-03
6.330187e-02
-3.301098e-03
6.772670e-03
7.610955e-03
-1.356193e-02
2.411543e-02
2.761572e-02
-5.741287e-02
-1.551655e-02
5.840267e-03
1.381266e-02
5.532276e-02
2.697537e-02
3.047318e-02
7.056928e-02
4.704231e-02
4.240709e-02
6.010908e-02
3.223756e-02
-1.596650e-02
-1.977638e-02
-2.017380e-02
1.197684e-02
2.254370e-02
4.265796e-02
5.879694e-03
4.213386e-02
4.779800e-02
-7.381862e-02
-5.135017e-02
-2.682304e-02
-4.206333e-02
3.888120e-02
7.325013e-02
2.933282e-02
9.284309e-02
1.050670e-01
-1.833313e-02
-1.270651e-02
-8.855399e-03
-2.726764e-02
3.090689e-04
2.351390e-02
-2.232275e-02
5.578757e-02
5.047190e-02
5.014051e-03
5.915296e-02
3.600620e-02
4.808009e-02
1.112546e-01
6.031565e-02
3.829925e-02
8.595212e-02
4.431475e-02
5.208826e-02
8.790097e-03
-1.532035e-02
5.201539e-02
-2.349069e-02
-5.103286e-02
6.358266e-03
-4.750334e-02
-3.676081e-02
1.144566e-02
-4.853099e-02
6.431880e-03
-8.680638e-03
-7.670574e-02
3.304762e-03
-4.627576e-02
-4.632387e-02
1.322183e-02
-4.069486e-02
-2.305170e-02
2.027626e-03
-1.525334e-02
2.614128e-03
1.838659e-02
2.103820e-02
1.495553e-02
-1.901746e-02
6.564308e-02
3.399132e-02
-4.772668e-03
2.281851e-02
6.782514e-03
-3.320744e-03
-2.876841e-02
-1.137258e-02
1.855690e-02
-3.901492e-03
-1.350617e-02
-1.946453e-03
3.608306e-02
1.839986e-02
6.010007e-03
8.348119e-02
4.207738e-02
-2.033100e-02
-9.538147e-03
-1.435548e-02
4.988465e-03
7.210387e-03
-4.159892e-02
-2.416900e-02
1.862686e-03
-7.859738e-03
-7.516393e-03
-5.445945e-02
-1.637371e-02
-3.840303e-02
-3.030152e-02
6.130745e-03
-1.952321e-02
-3.808346e-03
2.433241e-02
-9.815999e-03
-7.958571e-03
-4.324807e-04
2.552310e-03
8.834331e-03
9.655889e-03
-6.881171e-03
-9.500387e-04
-2.783097e-03
-6.560412e-03
9.971764e-03
-6.528043e-02
-4.932110e-02
-5.737706e-02
-1.121643e-01
-2.027193e-02
-4.816256e-02
-4.319562e-02
2.493865e-02
-1.679291e-03
6.041505e-02
-4.747295e-03
-1.783053e-02
8.993064e-02
-1.623257e-02
1.784017e-02
2.800654e-02
-6.328402e-02
6.347323e-02
-2.515282e-02
-6.256465e-02
-2.634317e-02
-1.020989e-01
-4.127131e-02
-6.013221e-02
-5.631987e-02
-1.177492e-02
9.819004e-03
-4.954356e-03
-3.389636e-02
4.186780e-02
1.545957e-03
-4.549854e-02
-1.446282e-02
-3.913094e-02
-3.808216e-02
-4.745104e-02
1.611601e-02
5.872327e-02
-1.362648e-02
1.163976e-02
-2.837050e-03
-4.813010e-03
-2.028565e-02
-1.379400e-02
-3.255724e-02
-1.141261e-02
5.704643e-02
-8.668003e-02
-7.317822e-02
-8.818470e-03
-7.757203e-02
-1.087858e-01
-7.684694e-02
-4.380549e-02
-4.549821e-02
-6.183058e-03
3.900498e-02
2.374904e-03
-1.339009e-02
4.559590e-02
6.774775e-02
1.126419e-02
-3.987613e-03
-5.058354e-02
-3.803483e-02
2.054126e-02
-5.085898e-02
-6.258243e-02
4.347651e-02
3.028260e-02
-1.483363e-02
-4.990419e-03
-4.682494e-02
-7.307041e-02
1.915125e-02
2.474288e-02
5.701502e-03
-1.583847e-02
1.485034e-03
3.408248e-02
-3.375613e-04
3.190586e-02
1.864382e-02
-3.891816e-02
2.821366e-02
1.174828e-02
-3.116355e-02
5.950446e-03
-1.779950e-03
-1.591028e-02
-3.840478e-02
-1.416946e-02
-2.379008e-03
-9.996361e-03
-1.998234e-02
1.333349e-02
-2.498705e-03
-7.394034e-03
5.538949e-02
8.505457e-02
2.866793e-02
-6.047031e-03
4.434552e-02
3.067748e-02
-3.212769e-02
-1.298351e-02
9.986422e-03
-4.304295e-02
-8.470041e-03
8.448219e-03
-6.442700e-02
-4.956778e-02
-1.555608e-02
-2.605017e-02
-6.323440e-02
-4.779579e-02
-9.786887e-04
-2.657692e-02
-1.882480e-02
-1.445779e-02
-3.320013e-02
-1.688944e-02
5.404816e-03
9.460586e-03
-1.794922e-02
-2.506501e-02
-1.855393e-02
-3.913759e-02
-1.359095e-03
-8.376662e-04
-2.526984e-02
6.596879e-05
-1.194687e-02
-2.837278e-02
3.237380e-03
8.004899e-03
1.376312e-02
1.364037e-02
1.183668e-02
2.235766e-02
4.664308e-03
7.884873e-03
9.038540e-03
1.516304e-02
4.684594e-02
3.585081e-02
-4.130777e-03
6.163743e-02
7.170273e-02
-2.643930e-02
-2.315658e-03
1.854937e-02
6.676530e-03
-1.577036e-02
-2.244239e-03
4.198015e-02
-4.538287e-03
-2.600749e-02
3.854053e-02
1.829848e-02
-2.410646e-02
-1.127833e-01
-6.530568e-02
4.013755e-03
-2.981835e-02
-1.032509e-01
-1.053038e-01
1.002212e-01
-1.578348e-02
-1.123601e-01
1.120808e-02
1.972569e-02
5.565790e-03
-1.000978e-02
3.476194e-02
6.613427e-02
-5.760118e-02
-1.592210e-02
3.809239e-02
6.961494e-03
-1.690310e-02
2.761104e-03
6.241988e-03
4.132538e-03
4.321514e-03
3.242093e-02
3.640402e-02
3.628578e-02
