1.527245e-04
-5.944335e-03
8.570245e-03
2.608518e-02
-1.717974e-02
3.496883e-03
-6.965244e-03
1.508203e-02
-6.611545e-03
1.414563e-02
-1.314957e-02
-3.350398e-03
-8.670401e-03
3.635712e-03
-4.398142e-03
-8.034900e-03
-1.503782e-03
-4.019601e-03
5.013652e-03
9.498595e-03
-1.816964e-03
6.870528e-04
6.385132e-03
-3.099401e-03
-5.114749e-03
-1.564121e-03
-2.553168e-03
4.565873e-02
-4.398545e-02
2.276291e-02
2.778642e-02
-7.492173e-03
-9.834224e-03
-3.862594e-02
4.869687e-02
-4.067761e-02
-7.433804e-03
-2.055877e-03
7.099149e-03
-1.317902e-02
3.270959e-03
8.169576e-03
-3.519661e-03
3.820546e-03
5.335232e-03
4.655759e-02
-7.205895e-02
3.905603e-02
3.543288e-02
8.959021e-03
-4.192375e-02
-4.999536e-02
7.434427e-02
-5.193415e-02
-1.113523e-02
6.956986e-04
3.238017e-03
3.915023e-03
7.944813e-03
-6.578342e-03
-1.116397e-02
2.167776e-03
3.533100e-03
-6.056196e-03
-4.128908e-03
9.410844e-03
7.906593e-03
2.659817e-03
5.504078e-04
8.487846e-03
6.378250e-03
-9.295715e-03
-2.277108e-02
2.202612e-02
-1.017239e-02
-1.170292e-02
7.518824e-03
1.262915e-02
1.299082e-02
-2.403341e-02
1.689227e-02
-3.165456e-04
4.287180e-03
-2.393529e-03
-7.907944e-04
5.178316e-03
-2.437796e-03
-6.183585e-03
-5.323304e-04
-3.480979e-03
1.129169e-02
-1.304201e-02
8.970923e-03
1.563701e-02
-1.563563e-02
6.749928e-03
2.320128e-03
-1.052067e-02
7.549146e-05
-1.748088e-03
9.148003e-03
-1.433825e-02
-1.340277e-02
8.830213e-03
9.670195e-04
7.775207e-03
-5.775033e-03
2.750612e-03
-4.563893e-02
4.296764e-02
-3.300091e-02
-4.738539e-03
-3.979514e-03
2.570101e-02
3.451357e-02
-5.631349e-02
1.864235e-02
1.996930e-02
-1.745167e-02
2.559384e-04
4.042437e-03
3.118903e-02
-2.329612e-02
-3.566867e-02
4.686639e-02
-1.157312e-02
-3.797890e-02
5.205787e-02
-2.763077e-02
-9.241533e-03
3.995371e-03
1.031750e-02
4.031628e-02
-5.485778e-02
3.096379e-02
1.182728e-03
-1.504896e-03
8.262699e-03
6.449722e-03
-8.984515e-03
9.875652e-03
1.271568e-02
-1.167784e-02
-3.169392e-03
9.694381e-03
1.392823e-02
1.498180e-02
1.145859e-02
-1.461270e-03
8.099448e-03
-2.601609e-03
-2.043284e-02
1.180540e-03
6.731173e-03
7.438351e-03
2.630907e-04
-3.846008e-03
3.455327e-03
5.795133e-03
8.189004e-04
-8.514094e-04
-1.020618e-02
-5.129518e-03
-1.279184e-02
-3.936800e-03
-6.470440e-03
-1.702053e-02
-1.110975e-02
1.229458e-02
2.936669e-03
1.043490e-02
1.112706e-03
-6.734739e-03
-3.104161e-03
-4.109513e-03
-5.833544e-03
1.212430e-02
-5.424023e-03
1.942338e-03
1.124668e-02
1.777117e-02
1.267692e-02
-2.430524e-02
4.740590e-02
2.984043e-02
-3.327883e-03
4.929076e-02
4.579540e-02
2.668787e-02
-1.444887e-02
-2.066959e-02
-2.235831e-03
-1.973240e-02
-1.185776e-02
-3.803498e-03
-1.883838e-02
-2.018018e-02
-4.725110e-03
1.041654e-02
7.599555e-03
1.088708e-02
6.693420e-03
5.773359e-03
2.730709e-04
-9.552136e-03
-1.023299e-02
-5.820734e-03
-4.739697e-03
1.120388e-03
2.407935e-03
6.926986e-03
1.711856e-02
1.042499e-02
4.428163e-03
1.002463e-02
-4.259735e-04
9.479214e-03
1.450705e-02
1.923024e-02
2.963994e-02
1.840337e-02
3.386637e-02
3.375011e-02
4.541772e-02
5.281458e-02
1.814092e-03
-1.066216e-03
-1.214731e-03
4.184826e-03
-1.585717e-03
-8.182122e-04
8.763080e-03
3.295736e-03
3.070274e-03
-1.259609e-02
-1.546442e-03
9.252627e-03
-8.067624e-03
-6.604337e-03
1.027371e-02
-1.266942e-02
-1.437331e-02
-3.393113e-03
-2.036761e-02
-6.129077e-02
-1.784549e-02
-4.548614e-02
-9.387671e-02
-5.304443e-02
-1.908090e-02
-6.574367e-02
-6.395716e-02
-9.173210e-03
-9.447251e-03
3.101796e-04
-9.047030e-03
1.495917e-03
1.614122e-02
-2.461970e-02
-1.161763e-02
1.190407e-02
-9.513536e-03
-1.446474e-02
-9.311346e-03
-2.498202e-03
-5.139100e-03
-1.060650e-02
1.727741e-02
1.082929e-02
-1.254784e-04
1.047478e-02
4.729042e-03
-2.597590e-03
1.527032e-02
1.289159e-02
2.762005e-03
9.106614e-03
8.422037e-03
1.254256e-02
6.717340e-04
-1.522251e-03
-8.704576e-03
-2.032524e-03
-2.105234e-03
-1.347011e-02
1.176182e-03
3.933196e-03
-3.095745e-03
1.310642e-02
5.131450e-03
-4.870415e-03
7.116932e-03
3.947552e-03
-1.068706e-02
1.046184e-02
8.712940e-03
2.679688e-03
-9.924251e-03
-1.193137e-02
-6.335048e-03
-5.449015e-03
-1.045197e-05
2.415812e-03
-1.156567e-02
-4.767376e-03
-1.183563e-02
-1.713297e-02
-1.814532e-02
-9.832129e-03
-8.609450e-03
-5.214522e-03
-2.339258e-03
-7.565519e-03
-2.539210e-03
2.379040e-03
6.441424e-03
3.731635e-03
1.534591e-03
1.297414e-02
2.503966e-02
-1.675611e-03
7.366576e-03
2.972475e-02
9.173433e-03
-2.311190e-02
-2.596322e-02
-1.740979e-02
-1.373215e-02
-1.507978e-02
-1.643109e-02
-1.175405e-02
-1.956479e-02
-2.015415e-02
-1.077684e-02
-2.323993e-02
-2.220684e-02
-3.450404e-02
-8.395587e-03
-3.029660e-02
-1.013006e-02
-1.305571e-02
-1.759177e-02
-2.801837e-03
3.928767e-03
8.554372e-03
1.220985e-02
1.224609e-02
7.497947e-03
1.004517e-02
9.948735e-03
7.983414e-03
-8.032854e-03
1.848586e-03
1.733451e-02
-3.194826e-03
7.005126e-03
5.794129e-03
1.583364e-02
1.051640e-02
9.351193e-03
2.664732e-02
3.962611e-02
4.130897e-02
1.781062e-02
2.916983e-03
4.304214e-02
2.741542e-03
2.531850e-03
2.996939e-02
2.605071e-03
2.964265e-03
7.361584e-03
8.716005e-03
9.115200e-03
1.316493e-02
4.711525e-03
7.701966e-03
1.020392e-02
5.053666e-03
1.744125e-03
1.782753e-02
-1.474568e-03
-5.702948e-03
9.119710e-03
5.092970e-03
-2.915570e-04
1.048637e-02
-1.594083e-02
-2.358715e-02
-3.551557e-02
1.170601e-02
1.973731e-04
-6.511882e-03
-3.430664e-03
3.948649e-03
-2.525260e-03
-1.342628e-02
5.487412e-04
3.576440e-02
-1.585742e-02
-2.053580e-02
8.520271e-03
9.351242e-04
-2.171906e-02
-2.033689e-02
-5.882685e-04
-1.896662e-02
-3.663153e-02
-9.598853e-03
5.739709e-03
-1.145350e-02
6.383168e-03
3.650233e-02
3.064490e-02
6.036924e-03
3.038523e-02
2.382872e-02
-8.870585e-03
-8.683633e-03
3.936937e-02
2.654974e-03
-2.541918e-03
1.242738e-02
2.065606e-03
5.322689e-03
2.408978e-02
1.529013e-02
9.393145e-03
2.720725e-02
1.485928e-02
3.609472e-03
1.309894e-02
-6.550381e-03
2.900472e-02
3.644473e-02
2.241914e-02
-1.335073e-02
-3.633851e-02
-2.937586e-02
-1.809859e-03
9.188766e-03
4.606329e-02
1.155914e-01
9.309202e-02
3.341585e-02
-6.994130e-02
-1.067575e-01
-6.273500e-02
-2.106188e-02
1.382625e-02
2.003405e-02
1.883660e-02
1.015421e-02
-2.188233e-02
-1.907037e-02
-2.265812e-02
-1.512848e-02
-8.161457e-04
-5.923647e-03
6.306264e-03
1.174854e-02
-2.149411e-03
2.532942e-03
-9.470378e-03
-5.002887e-03
-1.186136e-03
-6.877583e-03
7.256094e-03
7.591364e-03
1.370397e-03
1.087725e-02
-7.724468e-03
-8.630177e-03
-1.445023e-02
3.890464e-03
2.200901e-03
5.294923e-03
5.361532e-03
3.514393e-02
3.262612e-02
-7.006674e-04
-2.510939e-02
-1.969582e-02
-1.761118e-02
-1.663364e-02
3.136857e-04
-3.451261e-02
-7.874511e-02
-7.672725e-02
2.469169e-03
4.559015e-02
5.508141e-02
4.121362e-02
5.642259e-03
-2.336970e-02
-7.622550e-03
-4.892705e-03
-7.301052e-03
-4.182341e-04
-5.665696e-03
-5.906602e-03
9.531911e-03
-4.867073e-03
-4.207268e-03
-2.524597e-02
-6.438105e-02
-2.389959e-02
2.770223e-03
2.018494e-02
3.500712e-02
2.051813e-02
2.313256e-02
8.807841e-03
3.076575e-03
8.177007e-03
7.261072e-03
-1.022690e-03
-7.209621e-04
-2.683455e-03
-1.416001e-02
1.171536e-04
1.945860e-03
-9.067021e-03
3.290346e-02
3.182009e-02
1.687512e-02
9.587455e-03
-5.964593e-03
-2.944882e-02
-7.615696e-03
-1.028346e-02
5.513885e-03
-9.725443e-03
9.114590e-03
6.866556e-03
1.713227e-02
-1.702570e-03
-1.226772e-04
-1.493418e-03
-1.125931e-02
1.072946e-02
2.863080e-02
2.564504e-03
-2.644916e-02
-2.362633e-02
-4.905225e-03
9.786310e-03
3.824930e-03
8.991081e-03
3.308758e-02
2.290972e-02
-1.478093e-02
-5.231011e-02
-4.828907e-02
-3.528712e-02
1.423013e-02
2.350747e-02
9.403053e-03
-4.637113e-03
-1.892510e-02
-1.566722e-02
-2.284102e-02
1.068726e-02
-1.002760e-03
1.661963e-02
4.393548e-03
1.760280e-02
-6.869721e-03
-1.946354e-02
-4.634385e-03
1.048493e-02
1.841815e-02
6.744210e-03
4.242647e-03
2.286074e-03
-3.851997e-03
-3.576479e-03
7.530605e-03
-1.903544e-02
-1.851784e-03
9.589576e-03
-4.983425e-03
5.672484e-03
1.565681e-03
5.865605e-04
-3.530771e-04
-1.151507e-02
6.228901e-03
-8.591696e-03
-5.503879e-03
-9.602834e-03
-1.317883e-02
-1.300792e-02
-7.867688e-03
-9.614590e-03
-2.733448e-03
-5.811896e-03
-1.247866e-02
1.096253e-03
-1.782954e-02
-1.078071e-02
-1.368551e-03
-1.623361e-02
-8.344514e-03
4.000208e-02
-3.174448e-03
-6.688617e-03
5.466957e-02
-1.765592e-02
-8.660101e-03
1.886567e-02
4.216847e-04
1.444776e-02
-2.223970e-02
4.734823e-03
1.307074e-02
-3.209075e-02
8.351261e-03
2.179333e-03
-2.316082e-02
2.483367e-03
-4.703688e-02
9.032251e-02
-6.783338e-02
-4.995092e-02
1.209430e-01
-7.845515e-02
-2.048819e-02
3.921792e-02
-1.777666e-02
-6.952765e-03
8.070482e-03
-7.483521e-03
1.949560e-03
-2.349061e-03
-7.791266e-03
3.742527e-03
-2.909317e-03
2.768820e-04
9.942416e-03
-6.428211e-03
3.184479e-02
-2.374428e-03
-1.448288e-02
1.624267e-02
-3.326660e-03
-1.200375e-02
1.830309e-03
-2.735240e-02
-2.674175e-02
3.808818e-02
-1.057349e-02
-3.412480e-02
4.245697e-02
4.247040e-03
-1.691642e-02
8.078260e-03
-5.353565e-03
-2.536072e-03
6.682336e-03
-2.079319e-03
1.039110e-03
7.284441e-03
2.053971e-03
5.468400e-03
7.989855e-03
1.960710e-03
-5.382833e-03
-3.135822e-03
6.206978e-03
4.772098e-04
3.229599e-03
4.122180e-03
-1.641685e-02
6.477194e-03
1.532070e-03
1.198990e-02
-4.372665e-03
-6.805172e-03
-1.431261e-02
2.660427e-03
-3.797815e-04
1.182393e-02
-1.714082e-02
4.666976e-02
-7.996524e-02
4.618455e-02
6.036085e-02
-9.702035e-02
4.227534e-02
1.434048e-02
-2.917748e-02
2.145985e-02
-7.080241e-03
3.880622e-02
-3.570925e-02
-5.458074e-03
4.368433e-02
-5.181502e-02
2.153298e-03
2.277615e-02
-8.062468e-03
-7.470936e-03
-1.357908e-02
1.883317e-03
1.554739e-02
-2.073999e-02
2.644909e-02
1.239340e-02
-1.627174e-02
8.971720e-04
-9.376043e-03
-1.584016e-02
1.435516e-02
-1.370828e-02
-1.531097e-02
1.222286e-02
-5.370426e-03
7.127987e-03
1.426871e-02
1.345349e-02
-2.109259e-02
-3.264133e-04
2.067923e-02
-1.963739e-02
1.444287e-02
8.645663e-03
-1.311176e-02
6.422353e-03
-6.500375e-03
-8.060249e-03
1.251125e-03
-1.518764e-02
-4.248727e-03
-2.460624e-03
-8.288572e-03
-3.481813e-03
-7.813800e-03
-6.930008e-03
-1.542277e-03
-6.121065e-03
-8.867116e-03
-3.610197e-03
-4.211845e-03
-9.871799e-03
-1.007257e-02
-4.708312e-03
2.636173e-02
6.113258e-03
1.042678e-03
3.779108e-02
-9.874552e-03
6.995421e-03
3.871583e-03
-5.362662e-03
1.402911e-02
6.829203e-03
-1.394769e-02
-1.170123e-03
-8.226873e-03
-1.038938e-02
3.871542e-05
-9.965381e-03
-1.109516e-02
7.985346e-03
5.577166e-02
-5.098827e-02
-1.093103e-02
1.173614e-01
-1.180616e-01
3.696221e-02
5.667434e-02
-9.168139e-02
3.966481e-02
1.013064e-02
-8.268827e-03
1.706758e-04
6.735576e-03
-1.433548e-02
4.542106e-03
-3.165044e-03
-8.326975e-03
-5.310891e-03
1.352750e-02
-5.211398e-03
1.021797e-02
7.440093e-03
8.297985e-03
1.182687e-02
8.543355e-03
5.508011e-03
-1.147192e-03
-4.462154e-02
1.325311e-02
1.815268e-02
-3.960354e-02
3.175761e-02
4.472211e-03
-1.208697e-02
3.738511e-03
1.428069e-02
-1.514477e-02
-4.581253e-03
-2.913756e-04
-7.733123e-03
1.281276e-03
2.537444e-04
-6.687940e-03
-2.184677e-03
-1.099843e-02
-8.491076e-03
9.315708e-05
-7.624276e-03
2.032918e-04
7.825338e-03
-2.067081e-03
8.608080e-03
5.830149e-03
1.660768e-03
-8.411254e-03
1.216497e-02
-6.402057e-03
-2.703845e-02
3.983821e-02
-2.228241e-02
-5.301000e-03
2.072760e-02
-1.986497e-02
-2.347512e-02
-2.116392e-03
1.823687e-02
-5.504441e-02
3.818242e-02
1.149499e-02
-3.139033e-02
4.885752e-02
-2.430896e-02
4.466311e-02
-1.498194e-02
-1.524490e-02
5.410539e-02
-4.246597e-02
-1.012198e-02
2.154082e-02
-2.800511e-02
3.375919e-03
-1.695593e-02
-1.168205e-03
6.514885e-04
-1.498153e-02
4.225355e-02
-8.647548e-03
3.039439e-04
-1.209716e-02
-4.155273e-03
-3.090005e-02
1.227143e-02
-6.425594e-03
-2.100118e-02
2.923713e-02
2.255200e-03
-1.258421e-02
2.014881e-02
-1.450407e-03
2.494757e-04
-2.087547e-02
5.956809e-07
1.240688e-02
-2.630119e-02
1.489963e-02
3.520248e-03
-1.289877e-02
1.263477e-02
7.165547e-03
4.886739e-03
-4.930191e-03
-5.273581e-03
-1.177859e-02
-2.006072e-02
2.974267e-04
-1.943793e-02
-1.692503e-02
1.699380e-03
5.201621e-04
-1.704632e-03
-6.398397e-03
-1.433837e-02
-3.961322e-03
-1.061385e-02
-1.296736e-02
1.538302e-03
-9.929497e-03
7.932675e-03
-1.797504e-02
-1.762087e-02
1.676512e-02
1.735389e-02
4.211945e-03
1.616471e-02
2.791042e-02
-2.031042e-02
-4.507838e-03
7.067952e-03
-1.407550e-02
9.826954e-03
3.125961e-03
-1.847255e-02
3.567412e-03
-2.609167e-03
-1.438187e-02
-8.358428e-03
1.637019e-02
-1.862777e-02
-6.332711e-02
5.344956e-02
-2.179586e-02
-3.601263e-02
5.568512e-02
9.691548e-03
-9.373774e-03
-4.686122e-03
4.129546e-03
-1.175687e-03
6.983037e-03
-1.099909e-02
-2.792200e-03
1.919632e-02
5.229739e-03
1.958530e-02
-3.901221e-02
1.286817e-02
3.686526e-02
-5.817389e-02
-7.297783e-04
2.717473e-02
-4.919259e-02
2.774764e-02
-8.051352e-03
-2.565785e-02
3.193161e-02
-1.775722e-02
-4.675358e-02
4.486018e-02
2.646023e-03
-3.815135e-02
6.452451e-04
4.957563e-05
-1.792630e-04
4.870223e-04
-2.639552e-04
5.749337e-03
-3.209036e-03
-3.352496e-03
5.912479e-03
7.166305e-03
1.949208e-02
1.416687e-02
-5.252103e-03
7.316145e-03
6.366821e-03
-3.419694e-03
2.561643e-03
-1.035927e-03
6.798751e-03
2.198996e-02
-4.445897e-03
-3.141283e-04
1.493676e-02
-3.441884e-02
5.270722e-03
1.142852e-02
-3.576262e-02
4.225014e-03
2.674737e-03
2.925769e-03
1.098591e-02
4.703722e-02
-6.461725e-02
-1.183991e-02
6.624054e-02
-6.426844e-02
-2.347066e-02
-4.142027e-03
1.569103e-02
-4.460936e-02
-2.795753e-02
6.620173e-02
-3.335509e-02
-1.570183e-02
7.100369e-02
6.307654e-03
1.315985e-03
-1.419851e-03
1.734533e-02
-7.846531e-03
-1.559908e-02
2.271519e-02
7.286674e-03
-8.766148e-03
-9.297928e-03
-2.048420e-03
-6.159645e-04
1.844167e-03
1.180697e-03
6.608350e-03
-3.972876e-03
-9.383691e-03
1.604642e-02
-6.154979e-03
-2.383134e-04
-5.261167e-03
1.694254e-02
1.273851e-02
1.343384e-02
1.729088e-03
1.552575e-02
8.980307e-03
-4.115608e-03
6.572821e-03
1.140332e-02
-4.478404e-03
3.616962e-03
5.165125e-03
-9.611697e-03
1.338152e-02
1.053630e-02
1.719263e-02
7.338702e-03
1.582439e-03
-4.100337e-04
-1.291951e-02
-1.380727e-02
-1.624342e-02
-2.231088e-02
-1.934789e-02
-4.748720e-03
-9.597780e-03
4.043600e-03
1.113300e-03
-9.274912e-03
9.213519e-03
6.212093e-03
1.844511e-03
1.939877e-02
-8.549792e-03
-2.292937e-03
1.048708e-02
-3.135118e-02
-3.105753e-02
-1.511406e-02
-2.675300e-02
-3.877287e-02
-1.915997e-02
-7.238596e-04
-1.274977e-02
-9.585954e-03
2.522812e-04
-2.658891e-03
-2.594194e-02
-3.267233e-03
-1.342637e-02
-2.216808e-02
4.661837e-03
7.190431e-03
1.257781e-02
-1.770882e-02
-5.002472e-03
-2.028863e-03
-8.603131e-03
-1.719338e-02
-1.163922e-02
-3.251137e-03
3.019875e-03
2.951391e-03
7.313162e-03
2.423009e-03
-8.229831e-03
1.335838e-02
3.924523e-03
-1.355301e-02
-3.151118e-02
-3.490672e-02
-3.952292e-02
-5.072407e-02
-6.043527e-02
-7.272480e-02
-5.432867e-02
-8.279733e-02
-8.415391e-02
-2.365082e-03
-4.679952e-03
-3.183711e-03
-6.106033e-03
-4.294936e-03
-1.291667e-03
-3.977472e-03
-6.084018e-03
3.117023e-03
7.970214e-03
-1.125811e-02
5.003502e-03
6.199417e-03
-1.773377e-02
7.775890e-03
-1.257178e-03
-1.567484e-02
4.436456e-03
-5.520669e-05
1.057655e-02
3.544066e-03
2.111653e-03
1.219373e-02
1.493725e-02
1.732697e-02
4.317502e-02
4.965580e-02
-1.179841e-03
-1.211764e-02
8.984027e-03
5.622331e-03
-2.093689e-02
-2.592172e-03
2.729227e-02
2.520742e-02
-1.732812e-03
1.028612e-02
2.445167e-02
3.741278e-02
3.845973e-03
7.677796e-03
3.407530e-02
1.387906e-02
2.009209e-02
2.682459e-02
-6.862150e-03
-2.300489e-03
-1.396871e-03
3.954933e-03
1.242893e-02
3.856071e-02
5.315019e-03
3.081929e-02
1.928829e-02
2.942903e-02
6.052592e-03
-6.277981e-04
1.503429e-02
-1.671318e-02
-2.512286e-02
3.408083e-03
-2.464597e-02
-3.161325e-02
1.974044e-02
-2.711445e-03
-1.967041e-02
2.349532e-02
8.148017e-03
-7.405836e-03
2.137280e-02
1.391171e-02
1.352992e-02
-3.145239e-02
-8.462452e-03
6.878095e-03
-1.484325e-02
-6.385052e-03
7.189539e-03
-1.559387e-02
1.316394e-03
1.031795e-02
1.654047e-03
-6.004538e-03
1.311588e-03
-7.701439e-03
-2.481655e-02
-1.281944e-02
-8.954961e-03
-2.071771e-02
-1.947920e-02
1.075726e-02
6.512337e-03
4.444947e-04
1.133618e-02
1.616118e-02
1.331925e-02
6.747080e-03
1.166494e-02
1.183574e-02
3.333365e-02
6.646923e-03
-7.227981e-03
3.100831e-02
2.068323e-03
-2.876816e-03
2.518636e-02
1.528072e-02
1.738370e-02
-1.830141e-02
-1.364831e-02
-1.870296e-02
-1.201108e-02
-6.627725e-03
5.536451e-03
-5.061850e-04
-7.368923e-04
-1.570304e-02
-2.234520e-03
-2.110965e-03
-9.958975e-03
-1.754649e-02
-1.154493e-02
-4.063196e-03
-1.031305e-02
-5.737677e-03
-1.034711e-02
-3.681854e-03
-9.991538e-05
6.155432e-03
6.994080e-04
-3.043771e-03
-7.453632e-03
6.113312e-03
-5.213169e-03
-1.429070e-02
-1.294106e-02
-3.088590e-02
-2.510512e-02
-1.519601e-02
-3.749100e-02
-5.094917e-02
-1.712208e-02
-5.091633e-02
-5.148266e-02
-1.188420e-03
-9.998933e-03
-1.478497e-02
-1.014163e-03
-7.945489e-03
-1.345349e-02
-5.196083e-03
-1.325354e-02
-1.570508e-02
1.219726e-02
-1.854843e-03
5.267780e-03
1.779871e-02
1.049130e-02
1.341863e-02
9.014206e-03
1.810464e-02
1.837569e-02
-2.094899e-02
-4.422266e-02
-9.600229e-03
-4.053184e-02
-7.265750e-02
-7.479483e-02
-1.381600e-02
-5.864668e-02
-6.418758e-02
-2.161128e-02
-1.284254e-02
-8.372971e-03
7.998533e-03
-1.755841e-02
-9.030529e-03
2.630140e-02
2.424581e-02
1.220650e-02
3.843820e-03
1.709526e-02
3.292951e-02
-1.918544e-02
-2.164077e-02
1.497785e-02
-2.439662e-02
-2.729129e-02
-1.068350e-02
-2.935909e-02
7.674814e-03
2.609610e-02
-2.127873e-02
-6.511998e-03
2.380953e-02
-9.285477e-03
2.645616e-03
8.953150e-03
-9.478435e-03
-1.315198e-02
-2.384904e-02
5.804972e-03
3.014242e-03
2.937970e-03
1.394180e-02
1.741779e-02
2.450696e-02
1.561154e-02
-9.451859e-03
-5.130427e-03
9.718510e-03
-7.246989e-05
-1.056963e-02
1.024043e-02
-1.318924e-02
-8.651283e-03
-3.856656e-02
-4.619352e-02
-2.052824e-02
-5.952482e-02
-5.675249e-02
-5.932886e-02
-2.934763e-02
-4.979169e-02
-3.825865e-02
4.781329e-03
1.275990e-02
-1.011727e-03
1.426900e-02
2.151764e-02
5.952579e-03
1.114327e-02
1.729550e-02
8.733252e-03
2.885761e-03
1.636561e-02
1.851702e-02
9.790176e-03
1.149636e-02
1.319019e-02
8.494590e-03
1.479268e-02
1.207361e-02
4.058817e-03
7.477414e-03
1.166707e-03
2.248845e-03
9.934618e-03
7.655557e-03
-3.069400e-03
8.005318e-03
8.652150e-03
-9.677611e-03
5.717085e-04
3.123071e-03
-1.974467e-03
1.934947e-02
5.183854e-03
1.471893e-02
1.022785e-02
1.345097e-04
-7.528397e-03
-1.415369e-02
-1.918626e-02
-3.090436e-02
-4.207262e-02
-3.072885e-02
-1.486211e-02
-2.008018e-02
-1.805957e-02
-1.034338e-02
4.589848e-03
3.927354e-03
-8.466490e-03
6.600219e-03
6.643831e-03
-6.514667e-03
7.403104e-04
2.514192e-03
-1.131718e-02
-7.873616e-03
-8.225149e-03
-1.812361e-02
-5.198052e-03
-5.204694e-03
-6.469086e-03
1.396279e-02
1.210246e-02
1.629290e-03
1.073562e-04
-4.998600e-03
-2.556480e-03
-5.179635e-03
-8.241730e-03
7.263573e-04
1.118755e-03
-3.072754e-03
-2.166570e-05
2.494643e-03
-3.780770e-03
1.018630e-03
3.769675e-04
-6.395898e-03
-6.980791e-03
-1.004582e-02
-1.666958e-02
-1.392166e-02
-2.562880e-03
1.716859e-02
-6.281743e-03
-5.195804e-03
1.184206e-02
7.120619e-03
9.343744e-03
5.098924e-03
1.682148e-02
8.276480e-03
1.211920e-02
1.324089e-02
4.324999e-03
4.965249e-03
-4.073267e-04
1.276939e-02
2.153731e-02
1.030378e-02
9.401071e-03
-4.472919e-03
2.496825e-02
1.024070e-02
-7.794365e-03
2.996336e-02
3.569450e-03
-1.377502e-02
-9.353409e-03
-4.972291e-03
2.832402e-03
-7.905967e-04
-1.313782e-02
5.682528e-04
-1.431129e-03
-1.068240e-03
4.585506e-03
-2.732530e-03
1.326558e-02
7.413008e-03
-7.716651e-03
1.075999e-02
1.016902e-02
-1.440707e-02
4.017172e-03
3.849765e-03
1.258258e-02
-3.905635e-03
6.303767e-03
-8.592174e-04
3.640334e-03
-9.843871e-03
-2.205195e-03
-1.669095e-02
-2.822481e-02
-7.495286e-03
-1.555023e-03
-1.115403e-02
2.606202e-03
8.541229e-03
3.889353e-03
1.695518e-02
1.495069e-02
1.598828e-02
2.416027e-03
-9.473265e-03
-1.394601e-02
9.346591e-03
6.335519e-03
-6.500136e-03
8.286827e-03
-1.475680e-04
-7.166239e-03
8.697681e-04
-6.707942e-03
-3.065311e-02
4.353282e-03
1.232328e-03
-1.335365e-02
1.020841e-02
2.810203e-03
6.020329e-04
-2.566740e-02
1.040652e-02
3.110504e-02
-3.979418e-02
-2.835896e-02
3.258724e-03
2.316561e-03
-2.644082e-02
-1.927231e-02
4.830477e-04
-7.075353e-03
2.000138e-04
-1.055739e-02
-6.350690e-03
-5.292640e-04
1.994824e-02
-8.935813e-03
-6.504597e-03
2.310552e-03
5.706550e-03
1.095153e-02
-1.900077e-02
-1.116671e-02
-7.325366e-05
-4.762587e-03
-5.371314e-03
-4.661794e-03
-6.878708e-03
-1.063987e-02
-8.342847e-03
2.492226e-03
-1.048988e-02
-2.466195e-02
1.047893e-02
2.115387e-03
-1.009144e-02
1.333968e-02
2.833514e-02
5.533434e-02
-8.707029e-03
-1.855495e-02
2.559483e-02
-8.404271e-03
-2.751840e-02
-4.423283e-03
-7.164033e-03
-9.415686e-03
-1.461174e-02
4.263101e-03
3.868362e-03
-6.833295e-03
1.642330e-02
2.472980e-02
2.020663e-02
1.369140e-03
-2.111541e-02
-7.090811e-03
7.319681e-03
-8.402497e-03
-2.127577e-02
1.692627e-02
9.639742e-03
-2.884041e-03
2.849395e-02
2.953365e-03
-4.735323e-02
4.287459e-02
6.167233e-02
1.649974e-02
-5.200075e-02
1.954721e-02
2.089125e-02
-9.213352e-03
-1.535710e-02
1.725436e-02
-1.092967e-02
-2.825262e-02
-1.777088e-02
1.764869e-02
6.121416e-06
-6.295943e-03
1.141559e-02
1.301441e-02
-3.635392e-02
1.641330e-02
3.717012e-02
1.956054e-02
4.973802e-03
2.995220e-02
2.484524e-02
-2.989994e-03
7.282085e-03
3.369739e-02
9.362365e-04
-2.129361e-02
-6.684227e-03
-1.453826e-02
-1.814087e-02
-3.508075e-02
3.187906e-03
-1.242181e-02
-1.984015e-02
2.015653e-02
1.637197e-02
5.213055e-03
-5.111566e-03
9.910844e-04
2.295943e-03
8.175477e-03
1.478595e-02
-6.395957e-03
-3.759667e-02
-7.939599e-03
1.901075e-02
2.173743e-02
6.917795e-03
-1.235390e-02
6.728349e-02
7.139236e-02
3.250350e-02
-1.135884e-01
-1.272501e-01
-5.623638e-02
8.985640e-02
8.071129e-02
1.255167e-02
6.549106e-03
6.655148e-03
1.663074e-02
-2.426969e-02
-3.258663e-02
-1.821072e-02
1.578565e-02
1.564387e-02
1.905783e-03
2.913017e-02
1.929709e-02
4.598198e-03
2.957888e-03
-1.410966e-03
2.392189e-03
-8.728480e-03
7.387909e-03
7.519534e-03
-9.587975e-03
-1.303668e-02
7.996688e-03
2.951716e-03
6.000662e-03
-1.366249e-02
-5.298814e-03
7.310056e-03
1.450332e-02
2.493023e-02
4.496781e-02
2.179774e-02
-4.719726e-02
-7.460339e-02
-2.339698e-02
3.741630e-02
3.682674e-02
-4.773671e-03
-2.905594e-02
-4.587331e-02
-3.371331e-02
6.416456e-02
6.296322e-02
2.522541e-02
-5.932065e-02
-2.394260e-02
3.617750e-03
2.171933e-02
1.049019e-02
-2.016454e-03
1.155380e-02
-2.445354e-03
-1.388253e-02
-1.963495e-02
1.016645e-02
1.372294e-02
-1.233898e-02
-5.190813e-03
-3.501616e-03
3.094192e-02
3.968254e-02
1.146969e-02
-2.415008e-02
-3.546616e-02
-1.262036e-02
9.973021e-03
1.267883e-02
1.220334e-02
-6.857116e-03
-7.459951e-03
-4.587719e-03
4.383105e-03
-6.057905e-04
5.094519e-05
-1.177887e-02
7.268293e-03
-2.818164e-03
2.441327e-03
-4.584493e-03
-1.107950e-02
9.991601e-03
2.371166e-02
7.557255e-03
1.527478e-02
1.339385e-02
1.396778e-02
-1.942236e-02
-1.898587e-02
-1.853598e-02
-3.829273e-03
-1.115430e-03
1.304615e-02
7.685504e-04
-1.041739e-02
-1.030260e-02
6.552268e-03
2.850298e-02
2.183178e-02
-2.517987e-02
-3.126001e-02
-1.973551e-02
-3.547734e-02
-2.894315e-02
-1.892738e-02
2.180206e-02
4.092524e-03
-1.035582e-04
4.859810e-03
3.544615e-03
2.623837e-02
-2.696772e-02
-3.305060e-02
-1.266630e-02
5.078036e-02
5.522037e-02
2.577716e-02
-1.948287e-02
-5.727237e-02
-6.346759e-03
-1.703407e-03
1.587055e-03
6.952902e-03
5.520976e-03
-3.346204e-03
-3.079111e-03
4.524122e-03
-6.716709e-03
-2.597666e-03
-7.656845e-03
8.248223e-04
-6.941539e-03
7.605453e-03
-4.327176e-03
6.957418e-04
-1.522216e-02
-3.658368e-03
-4.127391e-04
-5.081990e-03
-8.334060e-03
-1.167622e-02
-6.224752e-03
-1.577717e-02
-2.442142e-02
1.792856e-03
-1.380775e-02
-1.440099e-02
3.754953e-03
-9.891371e-03
-1.740138e-03
4.603768e-03
-4.587451e-03
-4.850857e-03
8.477980e-03
-1.296996e-03
-4.873106e-03
-2.548142e-03
-1.346928e-02
-4.789500e-03
-5.780297e-03
-2.085133e-02
7.631603e-04
-5.330660e-03
-1.658219e-02
1.694696e-03
1.826669e-02
-4.219241e-03
-9.477992e-02
1.045198e-02
-1.299794e-02
-7.908207e-02
-1.398489e-02
-3.916855e-02
-4.425250e-02
1.350784e-02
8.121445e-03
3.452622e-03
-2.956214e-03
7.001683e-03
-1.146043e-02
1.749936e-03
6.445713e-04
-8.379153e-03
4.087820e-03
1.050332e-02
-1.522970e-03
3.878966e-03
1.299348e-03
-1.700526e-02
3.499894e-03
-1.500376e-04
-1.086639e-02
-1.861146e-02
-1.125749e-02
1.376821e-02
2.841739e-03
1.862274e-02
2.514580e-02
1.974459e-02
1.463915e-02
-5.808591e-04
9.301237e-04
1.199258e-02
-5.228150e-03
1.189780e-02
-9.567344e-03
-4.046244e-02
7.798914e-04
-7.799348e-03
-4.501214e-02
-8.436978e-04
-7.355267e-03
-2.343572e-03
-6.659927e-03
-8.747259e-03
5.602586e-04
-1.694506e-03
-2.506457e-03
7.534468e-03
2.503642e-03
-4.613128e-03
-1.445653e-02
2.914106e-03
-7.702199e-03
-1.177592e-02
1.446942e-02
2.236561e-03
-1.531101e-02
-5.324929e-02
-6.641106e-02
4.771017e-02
-9.206251e-02
-3.197115e-02
7.924049e-02
-5.038350e-02
4.518804e-02
6.026574e-02
-4.977272e-04
-1.020114e-02
-1.630040e-02
6.445059e-03
-2.939740e-03
-5.486626e-03
7.031313e-03
-6.993196e-03
-7.497209e-03
-6.549776e-04
-9.740982e-03
2.881829e-02
-2.193169e-02
-2.282162e-02
1.167408e-02
-1.431789e-02
-7.374207e-03
1.171972e-02
-3.276057e-03
1.132021e-03
5.627021e-03
-4.645132e-03
2.593631e-02
1.598994e-02
-1.016716e-02
1.296389e-02
1.440346e-02
1.654204e-02
-1.188853e-02
-8.559793e-03
2.403221e-02
-1.668446e-02
-1.480450e-02
1.477038e-02
-1.937363e-02
-1.503985e-02
-4.054050e-03
3.318634e-02
4.196370e-02
-1.269418e-02
1.424175e-02
4.986870e-02
-4.018620e-02
8.272490e-04
4.651306e-02
-3.407809e-02
-1.065475e-02
-1.588642e-02
9.568591e-03
6.944811e-03
1.025819e-02
-2.072275e-03
5.764349e-04
2.026247e-03
-1.007139e-02
-8.497563e-03
-6.976996e-03
-1.093876e-02
-1.410287e-03
-4.118235e-03
2.560599e-03
2.493404e-03
-1.580284e-03
7.934054e-03
1.958689e-02
1.015578e-02
1.287968e-02
-3.568061e-03
-2.247479e-03
1.406122e-02
-3.731223e-03
-5.712685e-03
-9.376929e-03
-1.763250e-02
-2.348563e-02
-1.939726e-02
-1.952724e-02
-1.580337e-02
6.023292e-03
1.357926e-02
1.970786e-02
-1.905221e-02
-2.622862e-02
-1.083305e-02
-5.203019e-03
-9.959984e-03
-1.286915e-02
-6.050616e-03
-2.033656e-02
-1.524743e-02
7.095891e-03
9.042156e-03
6.101559e-03
-5.731166e-03
1.893742e-03
3.522155e-03
-1.093308e-02
-5.510009e-03
-2.189250e-03
-1.089789e-02
-4.964149e-03
4.392923e-03
-1.060738e-02
6.434239e-03
1.380934e-03
-6.204338e-03
-3.983828e-03
-1.319434e-02
-6.733192e-03
-7.758530e-03
4.335105e-03
-7.092220e-03
-1.466432e-02
8.686663e-03
4.073381e-03
1.189431e-02
1.152769e-02
2.045597e-03
-7.839384e-03
-9.460333e-03
-7.181971e-03
-1.215987e-02
-1.728750e-02
-1.068316e-02
-1.973565e-02
-2.139816e-02
3.978458e-03
-1.649867e-02
-1.173911e-02
-2.575131e-03
-1.666770e-02
-1.824062e-02
-2.990153e-03
-3.097195e-02
-1.893678e-02
-3.146322e-02
-3.894698e-02
-2.419619e-02
6.605320e-03
6.822564e-03
1.267961e-02
2.859692e-02
1.370994e-02
7.993596e-03
-1.351229e-02
-9.439791e-03
-1.802854e-02
-1.800701e-02
-1.824194e-02
-1.304440e-02
-1.227223e-02
-1.096727e-02
-2.267224e-03
-1.197850e-02
5.066173e-04
3.879616e-03
-8.535100e-03
-2.291651e-02
-8.138934e-03
-1.650449e-02
-1.649684e-02
-1.383051e-02
4.058538e-02
4.221181e-02
3.416470e-02
5.225570e-02
6.664327e-02
8.728097e-03
3.051168e-02
1.183686e-02
-8.424312e-03
7.677751e-03
-4.171877e-03
-8.410208e-03
-1.903091e-02
-3.233515e-02
-3.029210e-02
-3.428734e-02
-5.220925e-02
-4.344690e-02
2.094773e-03
6.703570e-03
5.533428e-03
-5.308123e-03
5.080203e-04
-1.554849e-02
-7.178942e-03
-2.279648e-02
1.898491e-02
5.045534e-02
2.026427e-02
-1.708495e-02
-4.607385e-02
3.472533e-02
4.883270e-02
5.179193e-04
-7.224505e-02
-2.551468e-02
-6.689919e-03
5.278528e-03
1.299444e-02
-8.328410e-03
-9.679846e-03
-5.742239e-03
-1.874772e-02
-9.125010e-04
-5.264379e-03
2.276236e-02
1.118117e-02
-3.748961e-03
-1.854293e-02
-5.766657e-03
3.308235e-02
3.082390e-04
-3.639874e-02
-2.910213e-02
-3.936755e-03
5.170731e-03
7.101166e-03
-1.209172e-02
-4.175005e-03
4.289373e-03
-1.675847e-03
1.989746e-02
1.062218e-04
3.369574e-02
1.702857e-02
-2.733245e-02
-3.263930e-02
1.032175e-02
5.292298e-02
-1.105546e-02
-4.628781e-02
-2.456449e-02
-8.957252e-03
-6.286627e-03
-5.994307e-03
1.545964e-02
-2.038642e-02
-8.829275e-03
7.474088e-03
3.874023e-02
3.497457e-03
1.123038e-02
-5.545232e-03
-1.524024e-02
1.504520e-02
2.537918e-02
3.529800e-02
-1.494455e-02
-2.837233e-02
-1.298107e-02
-2.044643e-02
-2.421525e-02
6.346402e-03
3.023647e-02
-1.174441e-02
-2.415976e-02
-4.243688e-03
3.725679e-02
3.536178e-02
-7.637032e-03
-4.361291e-03
-4.124984e-03
-3.837677e-03
4.910024e-04
5.461793e-03
-4.173937e-03
-1.710370e-03
-3.822537e-03
1.905335e-03
4.202648e-03
-1.211341e-02
-6.674299e-03
1.891007e-02
2.291550e-02
-2.505647e-03
-2.080186e-02
-3.224702e-03
5.322404e-03
-1.886820e-04
1.367006e-02
-4.258766e-03
-1.782251e-03
-2.161874e-03
-1.453885e-03
-4.560497e-03
3.589104e-03
-1.759847e-02
-1.825295e-02
-2.330759e-02
4.754529e-02
5.665433e-02
1.822700e-02
-4.634478e-02
-3.306098e-02
1.736091e-02
8.771145e-04
2.198712e-02
9.357141e-03
-2.837552e-02
-2.856095e-02
-7.703966e-03
3.773855e-02
3.908931e-02
-2.186547e-02
-5.159650e-02
-1.825560e-02
4.553836e-02
7.621364e-02
-2.894875e-02
-8.478653e-02
-4.471787e-02
7.555104e-02
5.155892e-02
8.834588e-03
3.189663e-03
-6.649592e-03
-1.045198e-02
4.987977e-03
3.400697e-03
-7.864493e-03
4.832426e-03
4.399689e-03
-6.258780e-03
4.340190e-02
-5.773470e-02
5.476873e-02
-1.273580e-01
1.035839e-01
-6.077109e-02
9.510432e-02
-3.788934e-02
3.861406e-03
-2.924273e-03
2.921566e-03
-7.510342e-03
-2.809252e-02
-7.157682e-03
-1.405637e-02
2.479326e-02
-5.226500e-03
8.176521e-03
5.986848e-03
1.910904e-03
8.021339e-03
6.702103e-03
-2.595591e-03
-7.834653e-03
1.070356e-03
-2.125380e-03
4.647280e-03
-6.831242e-03
-9.065448e-03
-2.626705e-03
-2.684800e-02
1.051885e-02
-8.990358e-03
-1.299042e-02
-2.111986e-03
7.971208e-03
1.824228e-04
-6.415926e-03
-2.069677e-03
-2.634390e-03
4.947737e-03
-3.167733e-03
-5.217898e-03
1.122440e-02
-1.145603e-02
4.416300e-02
-7.032898e-02
7.284666e-02
-8.998816e-02
6.024695e-02
-7.356600e-02
3.312439e-02
7.658984e-03
-2.623618e-02
2.011256e-02
9.106940e-03
1.946467e-02
2.930429e-02
-4.400948e-02
2.879813e-03
-5.995159e-02
2.934701e-02
-2.271051e-02
6.405877e-03
-1.000880e-02
1.449509e-02
8.065913e-03
3.156578e-03
1.098863e-02
-7.142749e-03
-1.811741e-03
2.148744e-04
5.702923e-03
-1.122996e-02
5.259486e-04
-3.427429e-03
-2.310464e-03
8.508195e-03
-5.463697e-03
1.374232e-02
-1.476844e-03
-1.236316e-03
-2.260356e-03
9.539829e-04
-3.622385e-03
-3.819041e-03
-4.828753e-03
-9.126037e-03
-1.335781e-02
1.110963e-03
2.482974e-03
-1.308763e-02
6.356701e-03
-1.341736e-02
5.906972e-03
-3.025983e-03
-1.061735e-03
5.714707e-03
-2.809066e-02
7.355235e-03
5.027174e-03
-1.769095e-03
1.933456e-02
-2.621376e-03
1.858247e-02
-1.948084e-02
-5.153434e-03
1.052572e-02
-3.536203e-02
3.576877e-02
-2.492826e-02
5.099218e-02
-3.721478e-02
1.184247e-02
-1.582100e-02
-1.250301e-04
1.325415e-02
-1.113939e-02
1.832319e-02
-1.674384e-03
1.169299e-02
5.736717e-03
-9.610594e-03
1.677831e-02
-2.073930e-02
-1.107135e-02
3.911977e-03
5.635419e-03
-4.721599e-03
2.312166e-02
-6.070508e-03
6.768978e-03
6.423165e-03
-6.965607e-03
3.673549e-03
1.485389e-02
-1.145117e-02
3.018987e-03
1.290095e-03
-1.007209e-02
3.215262e-03
-4.679726e-03
-1.414132e-03
-3.619127e-03
-6.848441e-03
-1.023401e-02
4.750013e-03
1.800616e-03
-9.467559e-03
-4.846608e-03
5.225064e-03
8.053492e-03
-3.220599e-03
1.068470e-02
4.935176e-03
-9.509535e-03
-9.797876e-03
-6.832527e-03
1.956707e-03
4.152813e-03
-1.064561e-02
-6.954875e-05
2.462216e-03
3.927945e-03
-1.370377e-03
-1.381550e-03
3.853034e-03
1.164369e-03
-4.438472e-03
1.285098e-03
-1.581180e-02
-1.586569e-02
-1.732486e-02
1.745432e-03
-1.791785e-02
-1.131270e-02
1.390473e-02
-2.124658e-03
-9.744733e-03
1.214536e-03
4.766631e-03
2.192321e-02
6.510267e-03
-1.091898e-02
3.692658e-03
1.335907e-02
1.329124e-03
2.459422e-03
-2.088206e-02
-1.786635e-02
-4.551819e-03
-1.146160e-02
-8.836743e-03
-3.970500e-03
-6.856486e-03
-1.825678e-02
-9.783977e-03
2.060517e-02
1.149541e-02
1.023645e-02
-9.658483e-03
-1.332745e-02
-1.132040e-02
-6.974800e-03
-3.285408e-03
-1.050925e-02
1.638466e-03
2.466814e-03
-1.273463e-03
-1.582585e-03
-6.582078e-03
-9.089934e-03
-2.842594e-03
-1.137141e-02
-1.930894e-02
-2.513282e-02
-2.960932e-02
-2.235944e-02
-2.979356e-02
-2.887806e-02
-2.736511e-02
-5.049211e-02
-5.618295e-02
-3.638167e-02
-8.260223e-03
-1.023717e-02
-6.588265e-03
-9.174529e-03
-1.219785e-02
-9.282994e-03
-6.468745e-03
-1.167899e-02
-9.233109e-03
1.561665e-02
3.491340e-03
1.572960e-02
1.274717e-02
4.220234e-04
1.574415e-02
1.753886e-02
5.500680e-03
1.570788e-02
-8.274975e-03
-2.707747e-02
-4.248337e-02
-3.152415e-02
-3.340229e-02
-4.489962e-02
-3.012255e-02
-2.681634e-02
-2.347157e-02
-2.519626e-03
6.534347e-04
-6.803557e-03
2.751704e-03
-1.591608e-02
-1.650681e-02
6.545225e-03
2.325506e-03
-2.682685e-02
1.931529e-02
1.808350e-02
2.569595e-02
1.415696e-02
-1.396670e-02
6.050131e-03
6.010865e-03
6.251983e-03
1.429372e-02
-9.783861e-04
1.289427e-02
5.580382e-03
1.305982e-03
2.271589e-02
1.078440e-02
-4.999205e-03
1.055891e-02
-1.944492e-03
-2.051516e-02
-3.064394e-02
-1.593158e-02
-5.033974e-02
-6.278861e-02
-3.769903e-02
-5.769452e-02
-6.805050e-02
-3.650957e-02
-2.008965e-03
-4.912901e-03
1.300445e-03
1.857577e-03
-1.110241e-02
8.068267e-04
5.011167e-04
8.807271e-04
8.169197e-03
-2.564119e-02
-2.439845e-02
-2.787554e-02
-1.625092e-02
-1.989537e-02
-1.770882e-02
-6.741524e-03
-2.130187e-02
-3.134697e-02
1.396714e-02
4.033882e-03
1.302331e-02
5.911916e-03
-5.496066e-03
3.023009e-03
1.321751e-02
5.089593e-04
3.308542e-03
-1.737501e-02
-2.271597e-02
-1.344156e-02
-8.945810e-03
-2.715950e-02
-5.618989e-03
6.889174e-03
-5.145974e-03
3.894506e-03
1.073841e-02
-2.105615e-03
-1.497071e-04
6.711744e-03
-3.153739e-03
-1.164461e-02
-4.341109e-03
-6.343636e-03
-1.773418e-02
-5.067031e-03
-5.837051e-03
-1.432091e-03
-1.142302e-02
-1.174484e-02
-3.593537e-03
-1.752395e-03
-8.359573e-04
1.196615e-03
-1.139416e-02
-1.900761e-02
-1.626306e-02
-7.830070e-04
-5.257658e-03
-9.836427e-03
-5.576423e-03
-6.706420e-03
-1.582911e-03
1.137577e-03
1.467897e-02
2.578233e-02
-1.295165e-03
9.287421e-03
2.073253e-02
-4.480271e-03
8.615192e-03
2.296577e-02
-1.967341e-02
-2.004129e-02
-9.190906e-03
-6.503565e-03
-1.607895e-02
3.391746e-03
1.189349e-02
1.241420e-02
2.464714e-02
1.412869e-02
1.283357e-02
1.868452e-02
5.800186e-04
1.509415e-03
6.922852e-03
4.915216e-03
8.340491e-03
1.088862e-02
-8.543150e-03
-2.832235e-03
9.367449e-03
-8.241731e-03
-1.037231e-02
6.425777e-03
-2.268242e-03
-8.001814e-03
2.427963e-03
1.184604e-02
-3.365055e-03
3.416412e-03
1.368610e-02
-1.372476e-03
1.278931e-02
2.557599e-02
9.109757e-03
1.618502e-02
-1.533839e-02
-8.674986e-03
-1.485301e-03
-1.166221e-02
1.355692e-04
6.425457e-04
-6.678037e-04
-4.901953e-03
-3.726812e-04
3.056327e-03
8.734625e-04
3.130011e-04
4.591912e-03
5.215565e-03
-7.053647e-03
-1.134753e-02
-5.211585e-03
-6.779589e-03
-7.228334e-03
-6.970465e-03
4.466014e-03
1.179366e-02
1.062061e-02
5.241529e-03
1.330512e-02
1.173303e-03
1.083161e-02
-9.653560e-03
-4.796472e-02
-5.561009e-03
-8.268340e-02
-1.263009e-01
-8.353703e-02
-3.946533e-02
-7.805198e-02
-4.506003e-02
4.087408e-03
1.130437e-02
3.056728e-02
1.088186e-02
-1.261098e-02
4.530973e-02
2.301894e-02
3.684906e-02
1.279488e-02
-6.350067e-03
-1.834279e-02
-6.405575e-03
-2.482929e-02
-2.774333e-02
-2.941581e-02
-8.369784e-03
-2.718838e-02
-2.528293e-02
1.938249e-02
1.286207e-02
-8.638841e-03
3.187936e-02
1.795985e-02
2.364888e-03
2.393356e-02
1.618943e-02
6.222879e-03
-2.408647e-02
-2.904095e-02
-1.759798e-02
-3.475957e-02
-3.955750e-02
-2.730474e-02
-4.255259e-02
-3.066647e-02
-1.999203e-02
-6.591679e-03
1.033616e-02
6.392343e-03
1.445788e-03
3.357834e-03
-2.278197e-03
1.848833e-03
4.156968e-04
-1.567295e-02
-1.879513e-02
-2.386261e-03
2.046516e-03
-4.386279e-03
-1.971687e-03
1.369718e-02
-4.768692e-03
8.072568e-03
2.229249e-03
-1.287923e-03
6.355643e-04
-7.098209e-03
2.986701e-03
-4.209713e-03
-7.863372e-03
-1.017930e-02
-8.508847e-03
6.680980e-04
1.401305e-02
1.091239e-02
-1.177387e-02
2.112265e-02
1.371896e-02
6.010476e-03
1.159741e-02
8.211594e-03
5.450579e-04
1.034731e-02
4.019306e-03
-1.420918e-02
-7.431649e-03
-4.135189e-03
7.352873e-03
-2.284985e-02
-2.696824e-03
9.852595e-03
-4.809247e-03
-8.483002e-04
-1.360523e-03
-5.090052e-03
-3.679499e-03
-5.204615e-03
1.401319e-03
4.873284e-03
8.689662e-04
-9.549784e-03
-2.242749e-03
-7.129303e-03
-8.622942e-03
-8.307048e-03
-5.264943e-03
-9.779517e-03
-1.344965e-03
-8.309702e-03
2.105609e-03
-1.424227e-02
-2.456145e-02
-1.242246e-03
-6.002766e-03
-2.883965e-03
-7.185568e-03
4.398850e-03
1.441275e-02
-3.725433e-03
3.925203e-03
1.811362e-02
-1.080684e-02
4.448790e-03
-8.441014e-03
-7.131374e-03
-2.220440e-02
-7.255759e-03
-1.915905e-02
-1.390451e-02
-1.230465e-02
-2.779317e-03
1.524012e-03
-7.101798e-03
2.335459e-03
5.019805e-03
4.264717e-03
-3.130119e-02
-5.762171e-02
-4.837828e-02
-6.174558e-02
-5.449933e-02
-6.906731e-02
-5.020121e-02
-7.476765e-02
-4.126311e-02
3.357797e-04
2.038947e-02
2.469930e-02
-6.958942e-03
7.383440e-03
-2.373795e-03
-1.524879e-02
-5.598166e-03
-1.676855e-02
-1.231718e-02
-5.138533e-03
-9.753579e-03
-1.074630e-02
1.485662e-03
-6.156872e-03
-2.544266e-03
-1.426092e-02
-1.370594e-03
-2.073911e-03
-6.869664e-03
2.592686e-02
-8.586509e-03
-2.238082e-02
-3.382726e-02
-2.549356e-04
-7.357692e-03
-2.342836e-02
-3.789721e-03
-2.714448e-04
-5.132205e-03
-1.033732e-02
3.438904e-03
-1.198788e-04
-5.836346e-03
-3.590928e-03
4.093080e-04
-6.761865e-03
-4.462268e-02
1.248193e-02
1.930141e-03
-1.598421e-02
-4.387929e-02
1.347642e-02
1.611734e-02
-1.373950e-02
1.508613e-02
6.641852e-03
3.183059e-03
-1.054806e-03
-6.104152e-04
3.919305e-03
-9.197148e-03
-1.152383e-02
-2.429154e-03
1.473180e-02
-1.642164e-02
-1.350675e-02
-9.830244e-03
1.595510e-02
-2.767165e-02
5.845544e-03
-5.560892e-03
1.366722e-02
-1.520410e-02
-6.131452e-03
-2.401199e-02
-5.055275e-03
1.054599e-02
7.393424e-03
4.561504e-03
1.157141e-02
1.066978e-02
7.176598e-03
1.294447e-02
2.461911e-02
-1.988615e-02
-6.890664e-03
6.834810e-03
-1.412097e-02
-1.778810e-02
-2.018193e-02
2.005774e-02
7.554368e-05
-4.650607e-02
1.190609e-02
1.459094e-02
2.384700e-02
-3.699853e-04
-4.834024e-03
3.556168e-02
-5.615964e-03
5.417722e-04
-4.010443e-03
6.930719e-04
7.579829e-03
2.328047e-03
-1.539533e-02
-7.811477e-03
-7.354589e-03
-1.744624e-02
1.498953e-02
3.306718e-02
-9.597222e-03
-1.890754e-03
1.995745e-02
-9.843450e-03
-1.786071e-03
-1.352402e-03
7.052091e-03
-9.216406e-03
-2.194080e-03
1.850452e-02
-1.967883e-02
-2.419415e-02
1.290873e-02
9.714559e-03
-8.431804e-04
1.292713e-02
6.641730e-02
4.771603e-02
-3.597898e-02
-2.676376e-02
3.427907e-02
-1.644392e-02
-3.053471e-02
-1.718639e-02
2.612757e-03
-5.787048e-02
-4.660238e-02
3.432361e-02
2.044195e-02
-5.202202e-02
2.623343e-02
6.032512e-02
1.070728e-02
-6.881976e-03
4.907427e-02
-4.241624e-02
-1.064788e-02
-2.204570e-02
7.121070e-02
-1.123405e-02
-1.887868e-02
1.181329e-02
-2.121719e-02
-5.097950e-03
2.005550e-02
-1.390894e-02
-1.033682e-02
7.701627e-03
7.920649e-03
6.608730e-04
-6.817137e-03
-9.106330e-03
-9.724887e-03
-1.720247e-02
1.481595e-02
2.434871e-02
-2.402234e-02
2.760609e-02
1.796503e-02
-1.612441e-03
2.812366e-03
-9.032250e-03
-2.299416e-02
-5.922001e-03
-3.330525e-02
-4.723000e-02
5.766463e-02
2.110766e-02
-1.420013e-02
-1.790487e-02
-1.769832e-02
-2.095205e-02
-1.811027e-02
-1.545199e-02
-8.489662e-03
-5.832744e-03
-2.943928e-03
1.882620e-03
2.301962e-03
7.115993e-03
3.679201e-03
2.093014e-02
-7.799166e-03
-1.252965e-02
3.254656e-02
-4.520175e-03
-2.163280e-02
-3.427969e-02
-2.281485e-02
-3.554612e-03
-1.683257e-02
-1.091561e-02
-6.851579e-03
-1.573443e-02
-7.044147e-03
-6.041005e-03
-7.083406e-03
9.851801e-03
2.861357e-03
-2.370832e-02
-2.199850e-02
3.472329e-03
1.534501e-02
1.532432e-02
-3.215045e-03
2.376738e-03
-9.688932e-03
-1.172614e-02
9.303218e-03
-8.280323e-03
-2.606781e-02
-6.189196e-03
-2.028477e-02
-4.484706e-02
2.924880e-03
7.043688e-03
-1.265676e-03
-6.712093e-03
8.376477e-03
4.862328e-03
-1.218176e-02
3.331734e-04
-1.128356e-02
1.503574e-02
2.554929e-03
-1.263163e-02
-4.495268e-03
-6.452054e-03
-2.505913e-02
-2.755514e-02
-3.410273e-02
-2.858407e-02
-1.823722e-02
-8.773411e-03
5.111720e-03
-2.653362e-02
-7.124965e-03
8.538280e-03
-2.669257e-02
-1.057410e-02
9.126296e-03
-3.521001e-03
-7.062961e-03
-5.040458e-04
-8.072900e-03
-8.897772e-03
-7.810598e-03
1.253913e-02
1.813033e-03
-9.584242e-04
-3.505167e-02
-2.369147e-02
-8.576017e-03
-3.785682e-02
-1.260427e-03
2.777830e-02
-4.116223e-02
-1.030194e-02
3.220080e-02
-2.113358e-03
2.450087e-03
-4.214810e-03
-1.666535e-02
-1.683590e-02
-7.915900e-03
-2.648097e-03
-2.868674e-02
-2.175589e-02
-2.356189e-02
-1.289495e-02
-1.566888e-03
-6.655494e-03
-2.617823e-02
-1.441399e-03
-1.447871e-03
1.525582e-02
4.066034e-03
2.449899e-02
3.387399e-03
-1.052413e-02
4.434832e-02
2.294098e-02
-2.586085e-02
2.091585e-02
1.743422e-03
-1.529164e-02
-2.868631e-02
1.640321e-02
4.119981e-02
-5.181602e-02
-1.334380e-03
4.407715e-02
-5.976360e-02
-3.044410e-02
1.355290e-02
-2.225240e-02
4.062459e-02
-3.214375e-02
5.912291e-02
-3.035336e-02
-4.056444e-02
2.070392e-02
-9.055905e-02
7.443681e-02
-4.914212e-03
-1.786929e-02
3.642691e-03
-1.891639e-02
-3.812033e-03
5.978239e-04
-5.534188e-03
-8.209080e-03
8.733298e-03
-1.394411e-04
2.449370e-03
-3.203021e-03
1.413870e-03
2.870854e-03
-6.842719e-03
2.553102e-04
3.082188e-03
-6.355261e-04
3.048851e-03
1.174445e-02
-4.720333e-03
1.746795e-02
-6.008291e-03
-2.128894e-02
1.514555e-03
-3.510467e-03
-2.921682e-03
6.268212e-03
9.989026e-03
3.138715e-03
6.593433e-03
-8.221759e-03
-4.924101e-03
-4.891880e-03
-4.715146e-03
1.380831e-02
-2.491207e-02
3.150186e-02
-3.121021e-02
2.837907e-02
1.167395e-02
-3.864520e-02
1.951146e-02
-5.312669e-02
3.777032e-02
-1.132661e-02
6.312080e-03
2.253770e-02
-4.880110e-03
5.038129e-02
2.437832e-02
2.325373e-03
1.516493e-02
-2.793702e-02
-1.349846e-02
-2.059948e-02
6.441266e-03
-1.845676e-02
1.043093e-02
2.632252e-02
1.228805e-02
1.386318e-02
-1.301006e-02
-1.049259e-02
4.142090e-03
1.102405e-02
1.361026e-04
2.258448e-02
-1.991067e-02
1.456071e-02
3.708480e-03
-1.288402e-02
1.362516e-03
-2.856344e-03
-8.842648e-03
5.275522e-03
-2.452269e-03
-2.788682e-03
-1.919686e-03
-3.313854e-03
-5.701601e-03
-6.184734e-03
1.365966e-02
-1.913032e-02
1.534323e-02
-7.823557e-03
-2.375860e-03
2.731539e-03
-1.566755e-02
8.181194e-03
-4.214491e-03
-1.852622e-02
1.353336e-03
-2.581778e-02
1.256202e-02
1.441961e-02
-2.553500e-04
2.642076e-02
-2.248145e-02
1.708172e-02
-4.393093e-02
1.561715e-02
-3.712239e-02
-1.609278e-02
6.228671e-02
-2.609031e-02
4.202010e-02
-2.319235e-02
1.989507e-02
-1.631555e-02
1.345674e-02
2.321658e-03
-3.736496e-02
3.755389e-02
-4.715648e-02
2.216372e-02
3.764137e-02
-1.427037e-02
1.712326e-03
-1.723469e-02
-1.716642e-02
1.293406e-02
5.160982e-03
2.030283e-02
-1.478322e-03
7.974285e-03
6.539544e-03
1.151410e-02
-1.245101e-02
6.575172e-03
8.734315e-03
-4.025833e-03
4.225751e-03
-1.346386e-02
3.369040e-03
4.572158e-03
2.558885e-02
-3.000574e-03
4.548610e-03
-2.932768e-02
-1.650467e-02
-2.108341e-02
4.194100e-03
2.342709e-02
1.722192e-02
2.726511e-02
-1.019986e-02
9.682093e-03
-2.088159e-02
-1.656411e-03
2.412166e-03
3.796795e-02
4.306255e-02
-1.100102e-02
-1.769196e-02
-4.749653e-03
-4.921187e-03
-1.516675e-02
5.392606e-03
5.513232e-03
6.781913e-03
1.589864e-02
7.246364e-03
-6.295604e-03
-1.497161e-02
-1.885864e-02
-3.046015e-02
-1.268757e-02
-1.401772e-02
-1.988747e-02
-1.486450e-02
8.999285e-03
2.915398e-02
1.051686e-02
8.074368e-03
1.656721e-02
9.233677e-03
-4.231961e-02
-3.747671e-02
-2.392053e-02
-1.946313e-02
-1.045541e-02
1.673937e-02
7.322462e-03
-8.486432e-03
-1.190118e-02
-4.319457e-05
1.413755e-03
4.952107e-03
5.725431e-03
1.320161e-02
3.136468e-02
2.928890e-03
1.845766e-02
1.042315e-02
-8.868787e-03
-2.153586e-02
-3.224130e-02
-1.923013e-02
-1.207849e-02
-2.411622e-03
1.693758e-02
1.781241e-02
8.372201e-03
1.875585e-02
8.168141e-03
6.303819e-03
7.722137e-03
3.167064e-02
2.885322e-02
2.467859e-02
1.120052e-02
3.828963e-03
-1.596961e-02
-4.714331e-02
-4.331241e-02
-7.620351e-03
-1.424013e-02
-1.397677e-02
-1.342876e-02
-1.762651e-02
-9.393767e-03
-2.563807e-03
-2.717445e-03
6.653977e-03
1.132886e-02
4.476917e-03
-2.016565e-03
-1.027438e-03
-8.542015e-03
-1.346844e-02
-6.657082e-03
-6.021820e-04
2.996537e-03
-6.145862e-02
-7.463392e-02
-4.600901e-02
-3.789398e-02
-4.420924e-03
1.905264e-02
3.975397e-02
6.444910e-02
6.697977e-02
1.129575e-02
4.698392e-03
-1.728952e-02
-1.761023e-02
-8.325342e-03
-1.366861e-02
-1.130065e-02
-1.282479e-02
-6.970408e-03
-1.503506e-02
-3.499610e-02
-4.343174e-02
-3.661798e-02
-3.053383e-03
1.214789e-02
2.859600e-02
5.221468e-02
2.844645e-02
8.219411e-04
6.512871e-03
1.596326e-02
6.277871e-03
-4.878591e-03
-1.351589e-02
-1.369530e-03
1.747667e-03
9.749860e-03
-2.758780e-03
-5.378095e-03
-5.215676e-03
-4.439487e-03
-3.529902e-03
1.498560e-03
1.544883e-03
5.342618e-03
1.197156e-02
2.139992e-02
-3.386671e-03
-9.341451e-03
-7.112688e-03
-2.300852e-03
-1.114447e-02
-2.063766e-02
-1.897239e-02
-1.316808e-02
3.117503e-02
2.943718e-02
2.044429e-02
1.953548e-02
1.082711e-02
1.399148e-02
2.316237e-02
1.497390e-02
-3.774493e-03
7.741133e-03
5.739100e-03
6.725755e-04
8.719125e-03
9.514119e-03
7.593241e-03
1.667507e-02
1.912076e-02
1.442940e-02
-3.539911e-03
-8.931008e-03
-6.425218e-04
-9.832939e-03
-1.621649e-02
-7.236428e-04
-1.041091e-04
-8.904704e-03
-1.119425e-03
-9.875621e-03
-7.571001e-03
-5.977817e-03
-1.946652e-02
-1.948498e-02
-1.322823e-02
-1.013980e-02
-1.113831e-02
-6.872742e-03
-1.819276e-02
-1.501506e-02
1.672723e-03
-1.368146e-02
-1.525143e-02
-8.467725e-04
1.761846e-02
-4.823186e-03
7.348304e-03
9.798148e-03
1.527443e-02
5.357909e-03
-5.968886e-03
-5.738229e-03
-1.919242e-02
-1.304053e-02
-8.524608e-03
-1.020697e-02
-1.513276e-02
3.711055e-04
2.304864e-02
-5.279746e-03
-3.664324e-03
1.097571e-02
1.093577e-03
-7.457579e-03
4.479785e-03
-9.987853e-03
1.522756e-02
6.122341e-03
-1.033925e-02
5.760444e-03
-1.581369e-03
-2.729941e-02
-1.133033e-02
-5.023562e-03
-7.424635e-03
-3.850272e-03
-7.839989e-04
-9.611649e-03
-4.917691e-03
-1.299453e-03
-8.704062e-03
-1.386856e-03
-6.884520e-04
2.357539e-03
1.969157e-03
2.630523e-03
-2.422160e-03
-7.099844e-03
-9.279703e-04
2.705088e-03
5.260924e-03
-3.323399e-03
1.888227e-03
-1.391153e-02
-1.134291e-02
1.177663e-02
3.916278e-03
1.415101e-02
-2.860039e-03
1.080056e-02
2.088256e-02
-1.825205e-02
-8.358807e-03
7.708020e-03
-2.033982e-02
6.654425e-03
1.311626e-02
-8.277908e-03
-4.570758e-03
-3.898053e-04
8.094534e-03
1.845425e-03
4.771227e-03
4.313931e-03
4.903777e-03
1.151369e-02
-1.352777e-03
-1.583697e-03
2.565737e-03
-9.830740e-03
-4.936479e-02
-4.211474e-02
-4.216869e-02
-2.883311e-02
-6.241934e-02
-4.237728e-02
-6.208434e-02
-5.141079e-02
-8.581815e-03
7.715588e-03
2.239653e-02
1.353089e-03
8.098995e-03
8.591157e-03
-6.406422e-03
-5.693686e-03
-1.438869e-02
-4.657066e-03
2.866730e-02
1.002012e-02
2.261826e-02
1.697963e-02
-2.305399e-03
2.130390e-02
9.723497e-03
-4.902174e-02
1.516557e-02
-8.311088e-03
-2.447111e-02
-4.919756e-03
-1.423359e-02
-3.513313e-02
-1.330289e-02
-6.611034e-03
-6.829983e-03
1.465541e-03
-1.468892e-03
-1.141419e-02
2.651864e-05
1.965748e-03
-1.417524e-02
7.444666e-03
3.161575e-03
-5.004631e-03
-1.649848e-02
-3.407753e-03
1.095155e-02
2.301753e-03
1.352277e-02
1.618850e-02
6.544597e-03
1.260004e-02
2.478398e-02
9.799425e-03
-8.062128e-03
-3.039498e-02
2.155931e-02
3.614238e-04
-2.034386e-02
2.552966e-02
1.927514e-03
-1.318781e-02
1.811096e-03
2.460123e-03
-9.395664e-03
1.599055e-02
9.446332e-03
-2.333832e-02
2.755101e-02
-8.183817e-04
8.537682e-03
-1.274064e-02
-6.222891e-03
2.866432e-02
-1.174655e-02
-1.024810e-02
5.043426e-03
-2.834921e-03
-2.886015e-04
2.733053e-03
-9.304630e-03
-1.096178e-02
1.045970e-02
-4.470614e-02
-5.190357e-02
1.081209e-03
-4.729755e-02
-4.312327e-02
2.369170e-02
-2.615309e-02
-1.959303e-02
1.696843e-02
-4.882646e-02
-1.542301e-02
5.104878e-02
-3.441799e-02
1.348465e-03
3.548390e-02
-2.220731e-03
7.642464e-03
-5.345520e-03
1.285367e-03
8.067957e-03
-8.472262e-03
4.800252e-03
6.796746e-03
-4.323978e-03
1.427038e-02
1.101895e-02
-8.374446e-03
1.939312e-02
4.520624e-03
-2.382202e-02
2.392464e-02
-1.227946e-03
-2.143909e-02
5.955327e-03
-1.566123e-03
-6.633251e-04
1.115671e-02
-8.187734e-03
7.756976e-03
7.628222e-03
-8.203478e-03
-3.547226e-03
1.873357e-02
-1.823523e-02
-1.769279e-02
7.162361e-03
-5.374813e-02
-4.457856e-02
-2.353604e-02
-4.857007e-02
-1.332886e-02
2.610659e-02
2.043021e-02
-2.445561e-02
4.293725e-02
-7.060685e-03
-5.214599e-02
3.940491e-02
-1.895196e-02
-3.609335e-02
-2.544019e-02
-5.637375e-03
1.484389e-02
-2.423800e-02
1.476729e-02
9.132006e-03
6.496785e-04
2.118292e-02
-5.070012e-03
-1.215028e-03
-7.161371e-03
-9.500748e-03
-7.136635e-03
-5.080505e-03
-5.601058e-03
2.604540e-04
6.569639e-03
-1.825492e-03
1.400941e-02
-1.063839e-02
-2.803869e-02
-1.351953e-03
-1.856253e-02
4.422226e-04
1.149741e-02
3.333694e-02
5.264403e-03
-9.487044e-03
5.584154e-03
-8.636223e-03
5.484901e-03
1.753663e-03
3.805568e-02
9.706306e-03
6.082847e-02
4.623613e-02
-9.715667e-03
-1.354511e-03
-2.211523e-03
-8.799969e-03
-5.434854e-03
5.795714e-04
-1.695346e-03
-8.775695e-05
-2.311868e-03
-1.465781e-02
-2.788906e-02
-1.678263e-02
-1.519839e-02
-3.130303e-02
-1.752669e-02
-8.488047e-03
-2.218865e-02
-1.023364e-02
-3.439668e-02
-3.106848e-02
-2.564514e-02
-1.219793e-02
-2.915208e-03
1.115552e-02
-3.485303e-04
2.488588e-02
3.703366e-02
-3.386753e-03
-1.210926e-02
-4.134116e-03
6.159390e-03
-3.415914e-02
-2.034952e-02
-7.173346e-03
-9.387964e-03
-1.251687e-02
-1.646619e-02
-1.782771e-02
-3.516698e-04
-1.154600e-02
-6.964926e-03
-1.286493e-02
-7.811496e-03
-9.882381e-03
-4.344875e-03
2.482126e-02
2.201618e-02
4.857461e-04
9.202139e-03
2.387657e-03
-1.163210e-02
-1.429371e-02
-1.547335e-02
-1.972944e-02
2.456446e-03
7.233874e-03
1.505109e-02
-2.385891e-03
-3.923136e-03
-1.833190e-04
-2.795639e-03
-2.659024e-02
-9.292957e-03
-4.838376e-03
-6.095413e-03
-3.410622e-03
-4.481243e-03
-4.249315e-03
-5.710655e-03
3.520128e-03
-4.822589e-03
-7.635528e-03
-1.592671e-02
-2.564964e-02
-1.840343e-02
-6.982994e-03
-9.503870e-03
-4.754230e-03
1.100959e-02
7.727860e-03
1.624854e-02
2.799381e-02
5.410808e-02
4.998561e-02
2.527088e-02
1.699833e-02
-6.262222e-03
-4.412206e-02
-8.203153e-02
-8.861755e-02
-8.314714e-03
-1.591173e-02
-1.437729e-02
-3.524817e-02
-1.273195e-02
-1.568680e-02
6.192780e-03
2.033887e-02
-1.632652e-02
6.836807e-03
-2.448983e-03
6.144064e-03
4.477860e-04
-5.740849e-03
1.453148e-02
4.394133e-03
-7.049834e-04
8.501280e-03
8.187132e-03
-1.155118e-02
-8.348617e-03
1.232827e-03
7.174732e-03
1.956038e-02
-1.006436e-02
-3.366868e-03
6.096356e-03
1.934554e-02
9.778607e-03
-3.424816e-04
7.796536e-03
-2.929692e-03
-4.805031e-03
-1.532119e-02
-1.920563e-02
-1.064948e-02
1.652712e-02
2.308318e-02
9.674886e-03
8.786491e-03
2.354421e-02
1.037600e-02
-3.526502e-03
-7.254165e-03
1.411273e-02
-1.000960e-02
1.022332e-03
-7.912364e-05
1.311549e-02
2.698672e-04
-7.003896e-03
3.959729e-03
-6.873267e-03
-1.795725e-02
2.441231e-03
4.287559e-04
9.565639e-03
-4.506947e-03
-4.568972e-03
5.798054e-03
-5.211840e-03
-3.284065e-03
2.628943e-04
-7.571934e-03
2.777398e-03
2.485040e-03
-5.434369e-03
6.651464e-03
3.021595e-03
4.959317e-03
7.752994e-03
3.264808e-03
9.441870e-03
-5.653933e-03
-5.168165e-03
-7.385665e-03
-1.327818e-02
-9.228862e-03
-6.867960e-03
-1.418295e-02
-1.611253e-04
-2.030322e-02
-1.406629e-02
2.446502e-03
-2.140751e-02
-1.767013e-02
3.214301e-03
-1.675215e-02
-2.277329e-02
-1.925590e-02
-1.134346e-03
-4.357412e-03
-9.605206e-03
1.197933e-03
-4.034835e-05
-1.942890e-03
-1.998526e-02
-1.968802e-02
-1.539964e-02
-3.387993e-03
4.294067e-03
1.723799e-02
-1.646100e-04
8.314460e-03
1.500191e-02
2.040677e-02
1.277748e-02
9.186930e-03
-1.711238e-02
-2.600561e-02
-3.093656e-02
-3.805171e-02
-3.046037e-02
-3.516124e-02
-3.734887e-02
-3.488870e-02
-2.315100e-02
5.792072e-03
8.991401e-03
1.200888e-02
1.665784e-02
2.098650e-02
2.228590e-02
2.844361e-02
3.378054e-02
3.681121e-02
1.500460e-02
1.206623e-03
1.280392e-02
2.178956e-02
6.892091e-03
8.288880e-03
1.610687e-02
-6.521146e-03
-6.333396e-03
-5.841887e-03
-6.884374e-03
6.800522e-03
-1.395146e-02
-8.502692e-03
-2.227858e-03
2.869683e-03
7.130741e-03
1.122006e-02
-7.611142e-03
2.858732e-03
-3.541396e-03
-1.464337e-02
-1.210544e-02
-1.170896e-03
-1.443055e-02
-1.000902e-02
-4.123542e-03
4.840895e-03
1.363594e-02
1.091516e-02
3.607943e-02
3.987502e-02
3.254996e-02
5.248745e-03
2.052818e-02
8.492013e-03
1.002046e-02
-1.456558e-03
9.949895e-03
7.605046e-03
2.049025e-02
7.468125e-03
1.210987e-02
1.587812e-02
1.940400e-02
6.185794e-03
-3.483869e-03
1.459321e-02
2.601480e-02
2.296725e-02
4.333976e-02
5.246881e-02
6.079888e-02
6.654602e-02
6.729567e-03
-1.536023e-02
5.093012e-03
3.179380e-03
1.569179e-02
3.031559e-03
-1.207742e-02
8.493710e-03
-9.343044e-03
1.868824e-02
-2.888915e-02
-7.904300e-03
3.169277e-03
2.981424e-02
-1.743869e-02
-3.083173e-02
8.855123e-03
3.133466e-02
-6.072124e-03
3.902729e-03
6.204797e-03
-5.700637e-05
-4.647995e-05
4.142476e-03
-1.269084e-04
8.869513e-03
-5.457991e-03
2.438373e-02
-1.590261e-02
-3.136095e-02
-2.312872e-02
5.885822e-02
-2.578324e-02
-3.930755e-02
-8.447423e-03
3.417016e-02
-9.561753e-03
3.200526e-03
-1.387985e-04
5.372892e-03
1.000912e-02
-7.175387e-03
1.726172e-02
-1.367772e-02
-2.274971e-03
4.719589e-02
-3.134894e-02
-2.083848e-02
-3.428990e-02
7.846474e-02
-3.932853e-02
-1.829650e-02
-3.627861e-02
5.290631e-02
-4.211598e-03
1.539996e-03
-7.917585e-04
1.356250e-02
-5.690322e-03
1.792236e-02
1.066002e-02
-1.052682e-02
-6.972642e-03
-4.297894e-03
-1.019658e-02
-5.593703e-03
2.327691e-02
3.542271e-03
-2.235240e-02
-8.479371e-03
1.407752e-02
1.102665e-02
-9.016133e-03
2.278367e-02
5.565512e-04
-2.696800e-03
-2.371816e-02
1.721768e-02
7.483431e-03
1.438590e-03
-1.938171e-02
-8.249086e-03
-7.822686e-03
-4.887478e-03
-8.234476e-04
5.741289e-05
7.360808e-03
-1.343199e-03
-1.055092e-02
-4.975961e-03
9.961695e-03
-1.731824e-02
1.320141e-02
1.239224e-03
9.825552e-03
-8.139084e-03
-1.314859e-02
1.788369e-03
7.072226e-03
-3.416927e-03
4.256567e-03
8.455028e-03
4.462257e-04
-1.214222e-02
1.450395e-02
3.717588e-03
1.385973e-02
-9.789842e-03
-3.291550e-02
8.124291e-04
3.844347e-03
5.743773e-02
-3.793889e-02
-1.066684e-02
-1.305873e-02
5.280780e-02
-1.697073e-02
1.726287e-02
1.887019e-02
-1.365215e-02
-3.267428e-02
2.713971e-02
-2.440368e-03
2.078116e-02
-6.194027e-02
2.132401e-02
-5.502848e-02
6.931198e-02
-1.122112e-02
6.027259e-02
-1.518039e-01
9.002846e-02
3.022219e-02
4.607298e-02
-6.274363e-02
-7.005318e-04
-5.421121e-03
6.939801e-04
6.843813e-03
-8.537455e-03
-8.647780e-05
-4.509914e-03
1.121442e-02
-3.541507e-03
-6.113721e-02
-6.831698e-02
-3.899961e-02
-1.039055e-01
-7.543967e-02
-1.064533e-01
-9.077325e-02
-1.298608e-01
-9.282420e-02
3.432725e-03
-4.204920e-03
9.294193e-03
3.256326e-03
5.623841e-03
1.373712e-03
1.283370e-02
-1.356434e-02
-1.563655e-02
4.850490e-03
1.841543e-02
1.279197e-02
7.394345e-03
2.447519e-02
1.366600e-02
1.742294e-02
2.350902e-02
1.445105e-02
4.373145e-04
3.035384e-03
1.483827e-02
1.177213e-03
-4.330271e-03
-4.448741e-04
-9.186487e-04
-6.272192e-03
-4.696280e-03
8.169416e-03
-4.822010e-04
-1.587253e-02
1.404389e-02
7.286269e-03
-1.235295e-02
1.409757e-02
1.498968e-02
8.464514e-03
2.154156e-03
3.758697e-04
-1.101655e-02
8.167902e-03
1.384926e-02
-1.345073e-02
1.425709e-02
6.165280e-04
7.386494e-03
-7.778815e-03
-1.514905e-02
2.558683e-03
-3.074875e-02
-3.982961e-02
-2.297914e-02
-1.130357e-02
-1.670380e-02
-1.723980e-02
-5.367408e-03
-1.019986e-03
-6.748413e-03
-4.720697e-03
2.517278e-03
-1.235371e-02
-8.236157e-03
9.301620e-04
-2.955600e-03
-7.276156e-03
-3.901794e-03
4.256280e-03
3.120743e-03
-5.062513e-04
-5.621351e-04
-5.676772e-03
-2.558519e-02
-2.035891e-02
7.946637e-03
7.791496e-03
8.767699e-03
7.973754e-03
9.914979e-03
8.288434e-03
4.230136e-03
6.385041e-03
8.902843e-03
5.632737e-03
-6.057892e-03
2.619269e-02
7.499309e-03
-2.295936e-03
2.989598e-02
9.578278e-04
-1.058217e-02
1.506954e-02
-4.512004e-04
-2.021353e-02
-1.022486e-02
-2.700129e-03
-6.378970e-03
-1.024915e-03
9.620115e-03
1.251595e-02
6.080905e-03
-9.762662e-03
-1.828935e-03
4.502560e-03
-1.255640e-02
-1.113592e-02
-7.092670e-03
-1.992433e-02
-1.342554e-02
-1.958124e-02
-1.211829e-02
-1.080651e-02
-3.472581e-03
-8.969757e-03
2.878999e-03
-2.666355e-03
-1.067921e-02
-1.134291e-02
-1.582581e-02
6.233507e-03
9.672520e-03
-7.138135e-03
2.595268e-02
-3.389427e-02
9.368140e-03
9.294496e-03
1.479857e-02
-3.232096e-03
-7.888605e-04
7.062773e-03
-6.456531e-03
-8.893693e-03
1.076914e-02
2.871060e-03
-1.619660e-02
5.140926e-03
9.959563e-03
-5.406927e-03
2.254766e-02
1.179691e-02
-1.091722e-02
8.214198e-03
5.347453e-03
-8.391124e-03
-1.051049e-02
-7.119502e-03
-1.185795e-02
-8.397045e-03
2.058323e-04
-2.264901e-02
-1.711835e-02
-2.577448e-04
-1.260840e-02
-1.530226e-02
-9.986330e-03
1.496783e-02
-3.783352e-03
-1.795732e-02
6.277807e-03
-4.023770e-03
-2.144376e-02
-5.416157e-04
-4.034986e-03
-1.132063e-02
-7.590142e-03
2.223269e-03
-2.826829e-03
1.535825e-02
1.055103e-02
4.513082e-03
2.963349e-02
1.897944e-02
-2.690633e-03
-2.173554e-02
1.957087e-02
1.529627e-03
-2.944176e-02
2.741594e-02
4.139411e-02
-5.504779e-02
-2.553218e-03
5.095868e-02
-1.212577e-02
-1.159726e-02
-1.629098e-02
-2.041592e-02
-2.015128e-02
-1.745590e-02
-1.627927e-02
-8.358698e-03
-8.149511e-03
-4.364198e-03
7.364541e-03
1.951968e-02
-7.998410e-03
-1.481103e-03
7.403308e-03
-5.892483e-03
-8.524293e-03
2.052201e-03
4.353579e-03
-1.209918e-02
5.460599e-03
1.088597e-03
-6.284762e-03
-6.375940e-03
1.475654e-02
-5.544006e-03
-1.195602e-02
4.152485e-04
1.045405e-02
1.091558e-02
-1.415137e-02
-4.191238e-03
1.081542e-02
-1.604781e-02
-1.964071e-02
4.766971e-03
1.373925e-02
1.135883e-02
-3.373331e-03
1.142282e-02
9.221328e-03
-6.137638e-03
8.692171e-03
6.696856e-03
7.735143e-05
-5.637362e-03
-2.856221e-03
-3.813633e-03
6.539494e-03
-2.626206e-03
9.305520e-04
-3.310584e-03
-3.007750e-03
-2.047811e-03
5.332765e-02
-4.213422e-02
-6.057388e-02
6.664679e-02
-1.118128e-02
-7.753985e-02
7.716110e-02
3.581464e-02
-4.852520e-02
1.091160e-03
1.108212e-02
-2.115568e-03
-6.537023e-03
1.091340e-02
1.266100e-02
-5.955078e-03
1.097633e-02
-5.366426e-03
5.731010e-04
-2.070206e-02
-8.194213e-03
9.693773e-03
-1.733643e-02
-1.968088e-02
5.394072e-03
1.052018e-02
-2.127420e-02
-1.146476e-02
-1.041608e-02
1.028952e-02
-5.124482e-03
-1.705837e-02
1.832864e-02
-3.308794e-03
5.604004e-03
2.591282e-02
2.356201e-02
2.031208e-03
-3.145431e-02
2.312673e-02
9.063720e-03
-1.735250e-02
1.472088e-02
1.236222e-03
-2.058556e-02
5.644239e-03
-8.261531e-03
-1.236989e-02
9.004424e-03
-6.871201e-03
-5.337847e-03
2.646894e-02
3.922265e-03
-3.046786e-02
6.527996e-03
4.577930e-04
-1.923541e-03
-7.730971e-03
-4.891168e-03
-5.905166e-03
-1.156938e-02
-2.539530e-03
1.342729e-04
-5.929434e-03
-1.264114e-02
-1.227624e-02
1.041193e-02
9.763370e-04
-6.039787e-03
1.333878e-02
-1.400722e-03
-1.113591e-02
-2.955534e-02
1.251488e-02
3.828869e-03
-1.301179e-02
-6.349798e-03
1.237904e-02
5.537350e-03
-3.091164e-02
1.527571e-02
-3.065598e-03
-8.670768e-03
2.035441e-02
-4.431483e-03
-1.586417e-02
9.091095e-03
-5.068935e-03
-2.095580e-02
9.413754e-03
8.896511e-03
-5.239415e-03
-1.916905e-02
1.488870e-02
-2.732452e-02
-4.184218e-02
3.047383e-02
-6.241350e-03
-2.567385e-02
3.373921e-03
4.882916e-03
-1.272891e-02
6.941976e-03
2.319016e-02
8.526091e-03
-5.109315e-03
-1.211411e-02
8.233956e-03
-1.657043e-02
3.140403e-02
1.441352e-02
-6.136299e-02
2.502839e-02
3.096333e-02
-8.250301e-02
1.993181e-02
4.346758e-02
1.309752e-02
1.437623e-02
-9.383030e-03
-3.229657e-03
4.006988e-02
-3.253864e-02
-2.062632e-02
4.494686e-02
-4.201060e-02
8.250741e-04
5.212903e-03
-1.003399e-04
7.614600e-03
6.881868e-03
1.037522e-03
7.520766e-03
1.996486e-03
-6.457466e-03
-2.249534e-02
1.326748e-02
-1.388613e-03
-1.645684e-02
1.833631e-02
4.685402e-03
-8.266122e-03
1.515100e-02
1.380960e-02
-1.116556e-02
-1.024795e-02
5.895516e-03
-1.035703e-02
7.428537e-03
5.352311e-03
-3.082271e-03
1.281150e-02
-6.486319e-03
-2.592499e-02
3.283083e-02
-7.808010e-03
-6.070655e-02
4.238949e-02
1.775192e-02
-9.153731e-02
4.773877e-02
3.972135e-02
1.984378e-02
-1.231676e-02
1.998943e-02
4.309287e-02
-6.746781e-02
1.968518e-02
5.921045e-02
-9.502964e-02
8.716222e-03
2.598051e-03
2.434797e-03
1.277062e-03
-8.085665e-04
2.952069e-03
-1.647051e-02
2.129174e-03
2.262997e-02
-1.788070e-02
1.489068e-03
-8.631548e-03
5.899381e-03
-9.255533e-03
-1.032893e-02
3.965376e-03
9.572277e-03
-1.326864e-02
3.862571e-03
4.082645e-03
-1.197039e-02
-6.282318e-03
5.167482e-03
4.428501e-02
2.739026e-02
8.718023e-03
-1.074178e-02
-3.196672e-02
1.591663e-04
2.036333e-02
1.273194e-02
3.708124e-02
4.297380e-02
2.284371e-02
2.066747e-02
-2.891067e-02
-6.386247e-02
3.715434e-03
-1.928783e-03
-2.760268e-03
8.977438e-04
-5.233876e-04
1.005922e-03
-6.900500e-03
-3.989747e-03
-7.560320e-03
-9.853424e-03
1.287119e-02
9.243899e-03
6.455761e-03
1.376228e-02
6.094579e-03
-1.224247e-02
-2.512751e-02
-2.784835e-02
1.887513e-02
3.001809e-02
7.234737e-03
2.005837e-02
1.487785e-03
-6.281518e-03
-2.712185e-02
-1.957218e-02
-8.054366e-03
-1.363070e-02
-1.075219e-02
-1.365087e-02
1.332768e-03
1.014224e-02
6.024464e-03
2.330072e-02
8.605433e-03
4.759929e-03
1.096837e-02
1.145651e-02
-1.288054e-02
-3.827256e-02
-4.847305e-02
-3.310934e-02
-1.498127e-03
3.927271e-02
3.723795e-02
-1.181054e-02
1.663503e-03
1.045553e-02
-3.508885e-02
-2.756781e-02
-1.079636e-02
-7.805750e-04
1.605710e-02
5.959162e-03
1.884874e-03
-3.221025e-02
-1.018049e-02
-2.868917e-02
-3.552060e-02
-2.049790e-03
1.319423e-02
1.939309e-02
2.342161e-02
-2.043311e-02
-1.577550e-02
-5.453393e-03
-4.234650e-03
-1.842834e-03
-3.305654e-04
-1.291444e-03
1.450307e-04
-5.533903e-03
-2.085645e-02
1.643998e-03
-6.564511e-04
1.110013e-02
4.171161e-02
1.966055e-02
1.756596e-02
1.167064e-02
-1.691541e-02
-1.636207e-02
-4.605120e-02
-2.534458e-02
-2.676816e-02
4.472555e-03
3.137929e-02
4.228516e-02
5.112965e-02
2.407943e-02
-6.256386e-05
3.035153e-02
3.260148e-02
2.047167e-02
4.577786e-03
-2.175389e-02
-3.370795e-02
-3.998972e-02
-1.827426e-02
4.002917e-02
5.920489e-02
4.296662e-02
5.189320e-03
-1.984243e-02
-3.593937e-02
-7.256543e-02
-5.543442e-02
-2.721699e-02
1.266803e-02
2.403610e-02
7.519519e-03
1.308693e-02
2.350470e-02
-1.835004e-02
-3.922009e-03
-2.594712e-02
-2.172653e-02
-2.222749e-03
-1.485081e-02
-2.993226e-05
-1.059103e-02
-8.104992e-03
1.693027e-03
9.231107e-03
8.361951e-03
-1.646568e-04
