2.792229e-11
-4.092350e-11
1.148406e-10
3.762030e-11
-9.558545e-11
-3.294713e-11
-1.368018e-10
1.986066e-12
1.942484e-12
-7.197608e-11
-1.238573e-10
-1.585475e-10
4.119089e-11
1.045863e-10
3.978221e-11
-3.365458e-11
-2.495958e-11
-6.245514e-12
-3.586813e-12
5.239747e-11
5.446746e-11
5.381438e-11
8.094261e-11
-5.025035e-12
-8.319410e-11
1.976312e-11
5.029890e-11
2.259329e-11
-2.142120e-11
-5.804101e-11
-3.358292e-11
8.780882e-11
3.027806e-11
-5.361387e-11
5.262861e-11
-6.677497e-11
-1.057241e-11
1.719176e-11
1.846681e-10
7.037832e-12
9.913986e-11
3.232227e-11
-7.956184e-11
-2.325716e-11
3.940688e-11
-6.873169e-11
-4.607660e-11
2.483111e-11
-8.959996e-11
-6.366415e-11
1.478701e-10
9.049594e-11
-1.581459e-11
2.884538e-11
8.262057e-11
7.769833e-12
-6.751125e-12
2.605663e-11
8.982833e-11
1.115576e-10
-2.030744e-11
7.526568e-11
1.125686e-11
1.628693e-10
1.471007e-10
3.227156e-11
1.143657e-10
5.291041e-11
1.311832e-10
2.830834e-11
1.441078e-10
-1.616011e-11
-2.688618e-11
-7.136221e-11
-6.899865e-11
1.931700e-11
-1.283206e-10
-9.086467e-11
-2.647529e-11
-1.152137e-11
-4.309164e-11
9.479720e-11
1.458508e-10
7.028434e-11
1.654278e-10
1.984692e-10
1.458521e-10
1.378151e-10
1.144088e-10
1.914821e-10
-7.787591e-11
-3.692588e-11
5.493996e-11
-2.522243e-11
-6.864644e-11
-5.689231e-11
-4.892755e-11
-1.365623e-11
3.827356e-11
-5.284646e-11
-6.350458e-11
-4.040523e-11
-3.250189e-11
-1.934114e-11
9.854857e-12
-7.434905e-11
8.208684e-11
1.055700e-10
1.553772e-11
-4.378109e-11
8.587556e-12
5.950862e-11
4.718793e-12
6.141979e-11
-1.240719e-11
-8.927394e-12
-2.790598e-11
1.294397e-10
1.776926e-10
1.249116e-10
2.307759e-10
2.316926e-10
1.874081e-10
1.415579e-10
2.037847e-10
1.324807e-10
1.473536e-10
1.039763e-10
1.229455e-11
5.450336e-11
8.854201e-11
-4.262274e-15
2.555276e-11
-7.255936e-12
7.007271e-11
7.202509e-11
1.343085e-10
1.682248e-10
1.137780e-10
2.150440e-10
1.241917e-10
1.019472e-10
8.725781e-11
1.089501e-10
4.175656e-03
-3.010758e-03
-1.133088e-03
5.069487e-03
6.623794e-05
8.900060e-04
4.451112e-03
7.954541e-04
-1.659476e-03
-1.618506e-02
-8.233628e-03
-1.061676e-02
-1.750157e-02
5.043014e-03
9.339076e-03
1.142633e-02
3.676653e-02
3.174361e-02
1.644539e-02
3.017379e-02
3.966456e-03
4.780374e-02
6.887630e-02
3.789505e-02
2.231177e-02
4.458643e-02
3.522837e-02
6.476551e-03
-2.331058e-02
-4.921290e-03
1.971739e-03
-2.033100e-02
-1.474381e-02
-7.753956e-03
-1.308879e-02
-2.232678e-02
3.732827e-02
4.480704e-02
2.750068e-02
4.556291e-02
5.754022e-02
4.008392e-02
1.205707e-02
3.100249e-02
3.211309e-02
7.803645e-03
2.608108e-03
5.775311e-03
1.199253e-02
6.849990e-03
5.371334e-03
4.507283e-03
1.289782e-03
-9.009473e-04
-2.986043e-02
-4.133103e-02
-3.861199e-02
-2.466379e-02
-3.993459e-02
-3.159649e-02
-1.601382e-03
-1.764847e-02
-2.405048e-02
5.964318e-03
3.469307e-03
3.185451e-03
1.916495e-02
1.516374e-02
1.171075e-02
2.476725e-02
2.240796e-02
1.657990e-02
-8.538263e-02
-2.575073e-03
-1.950591e-02
-1.250975e-02
2.494215e-02
4.375397e-02
-2.570244e-02
6.186835e-03
2.689695e-02
7.909339e-04
3.757405e-03
-3.890612e-03
9.115007e-04
4.664465e-03
-5.256132e-03
-6.370776e-03
-5.126552e-03
-1.719422e-02
1.052023e-03
-8.662555e-03
1.190478e-03
-2.212652e-02
-2.795790e-02
-1.551029e-02
-2.445215e-02
-2.464066e-02
-1.638634e-02
5.189743e-02
6.462105e-02
-6.363302e-02
6.574462e-02
1.668168e-02
-4.606352e-02
-4.402237e-02
-6.987140e-02
-6.675411e-02
-3.863963e-02
2.350139e-02
-2.857985e-02
1.938590e-02
3.187320e-02
4.386925e-02
1.833720e-02
-7.780121e-03
7.226805e-03
2.660884e-02
1.327481e-02
-2.579333e-04
1.633192e-02
2.131342e-02
-3.141680e-03
9.103005e-03
1.832736e-02
-2.876672e-03
3.446979e-03
8.442336e-03
5.798790e-03
8.906377e-03
7.097966e-03
4.281835e-03
3.975314e-03
9.382060e-03
9.316796e-03
-1.810979e-02
-7.555348e-03
-4.138109e-03
6.347368e-03
-4.675911e-03
5.808559e-03
-5.673253e-03
-4.848310e-03
8.509888e-03
4.389356e-04
2.253897e-03
2.576156e-03
1.714237e-03
3.187834e-03
3.227587e-03
1.042911e-03
2.282167e-03
3.757056e-03
-1.445120e-03
3.694125e-03
4.102730e-03
1.700654e-03
4.031641e-03
5.750738e-03
-4.916405e-03
-7.510589e-03
-9.105920e-03
-1.210441e-02
-1.161851e-02
-3.677021e-03
-1.407642e-02
-1.213759e-02
-8.336092e-03
-1.189348e-02
-7.767967e-03
-8.532591e-03
-1.096080e-03
1.866894e-03
7.453341e-03
1.847242e-03
4.066983e-03
1.297123e-02
-8.229027e-05
1.775027e-03
8.846441e-03
-5.753167e-03
-3.253327e-03
2.035186e-03
-7.565270e-03
-3.711878e-03
5.860078e-05
-1.078100e-02
-6.223139e-03
-3.650401e-03
1.102567e-03
-1.324443e-03
3.572856e-03
-1.010270e-04
-3.818147e-03
-4.040052e-04
3.355409e-03
-7.024821e-04
1.496559e-03
6.033106e-03
5.882327e-03
3.690855e-03
9.656754e-03
1.049563e-02
9.017590e-03
9.130301e-03
1.076168e-02
1.014580e-02
6.582012e-03
3.653558e-03
-1.321712e-03
5.709103e-03
3.355961e-03
-5.409993e-03
1.033260e-03
2.060232e-03
-2.687976e-03
1.109396e-02
3.257756e-03
9.417777e-03
-1.031348e-05
-1.215454e-02
-6.824543e-03
1.492496e-02
1.144773e-04
-8.933590e-03
-7.311407e-03
-4.945120e-03
-5.480656e-03
-2.512294e-03
1.362006e-03
2.853056e-03
-2.316723e-03
2.532881e-03
3.795147e-03
5.466562e-03
1.273358e-02
4.676483e-03
1.037394e-02
2.185164e-02
1.569077e-02
6.227184e-03
1.926536e-02
1.656831e-02
5.933823e-03
8.234095e-03
5.836183e-03
-5.630018e-03
-3.159361e-03
5.549153e-04
-1.331961e-02
-7.405478e-03
-3.303909e-03
6.316914e-03
1.538552e-03
-2.785760e-02
1.007019e-02
7.199751e-03
-2.207229e-02
8.017022e-03
2.254952e-02
-9.474703e-03
-7.472839e-03
4.460497e-03
8.577874e-03
6.218426e-04
1.235983e-02
2.113823e-02
-7.067929e-03
4.102415e-04
1.098109e-02
8.136508e-03
5.386221e-03
1.053644e-03
5.499272e-03
2.177787e-03
-7.559453e-04
4.359327e-03
2.982532e-03
1.885834e-03
9.008370e-03
1.307090e-02
1.113156e-02
5.384680e-04
5.384675e-03
3.387958e-03
-8.155403e-03
-2.417135e-03
-6.730335e-04
-5.272584e-10
-5.850089e-10
-4.152834e-10
-5.660497e-10
-6.575593e-10
-5.908392e-10
-8.811153e-10
-8.268808e-10
-9.517237e-10
-4.359236e-10
-9.004759e-10
-1.252031e-09
-6.427566e-10
-1.068455e-09
-1.101345e-09
-2.765103e-10
-8.668363e-10
-7.439700e-10
2.784417e-09
1.718648e-09
1.582402e-09
4.015396e-09
2.717170e-09
2.431948e-09
3.503380e-09
2.363518e-09
2.257976e-09
1.134599e-08
-5.302460e-09
2.379481e-08
1.801131e-08
-2.448315e-09
2.568132e-08
1.730903e-08
-9.453507e-09
2.021763e-08
5.511435e-08
4.447713e-08
2.503677e-08
6.355886e-08
5.667634e-08
4.552803e-08
5.355836e-08
4.994738e-08
4.513783e-08
1.948305e-08
2.497807e-08
2.680723e-08
2.016921e-08
2.661552e-08
2.744535e-08
1.004537e-08
1.951821e-08
2.164491e-08
2.294594e-08
2.661737e-08
2.748807e-08
2.208459e-08
2.665799e-08
2.496901e-08
3.019770e-08
3.325314e-08
2.948934e-08
1.704040e-10
2.198048e-10
1.512309e-11
3.773382e-10
3.366502e-10
1.155950e-10
5.559694e-10
4.490425e-10
1.653274e-10
-5.247828e-08
-1.266726e-07
-2.202035e-07
-1.069728e-07
-1.896041e-07
-2.743451e-07
-1.500530e-07
-2.213445e-07
-3.344189e-07
-3.883255e-10
-6.629366e-10
-4.135538e-10
-4.141029e-10
-4.520866e-10
-4.647717e-10
-4.148523e-10
-5.372293e-10
-4.096915e-10
3.527720e-08
2.806686e-08
4.318207e-08
5.604576e-08
6.197107e-08
7.199171e-08
5.742184e-08
5.696121e-08
6.554968e-08
2.262572e-08
-3.011424e-08
-1.196892e-07
6.283947e-08
3.110637e-08
-7.018049e-08
4.155918e-08
2.966465e-08
-1.033236e-07
9.742851e-08
1.123218e-07
4.706211e-08
1.457488e-07
1.489128e-07
8.415219e-08
5.118877e-08
1.213999e-07
6.992943e-08
3.440566e-08
5.319433e-08
5.449393e-08
5.011909e-08
7.109045e-08
6.927429e-08
7.596427e-08
8.090824e-08
8.287061e-08
1.484524e-09
2.233960e-09
4.833294e-09
2.174858e-09
2.839383e-09
5.316259e-09
1.749050e-09
2.387701e-09
4.544091e-09
8.429088e-08
1.886116e-09
-3.475995e-09
8.022248e-08
1.895634e-08
-2.072680e-08
1.112765e-07
8.172179e-08
9.604889e-09
4.580671e-11
3.163140e-11
-5.658425e-11
1.108941e-10
1.161319e-10
8.217154e-11
1.469591e-10
5.663938e-11
2.153800e-10
-1.299267e-10
-1.104975e-10
-1.805364e-10
-1.734260e-10
-2.048564e-10
-1.605183e-10
-1.055939e-10
-4.444534e-11
2.517223e-11
-1.158727e-10
-9.829017e-11
-9.412908e-11
-4.397007e-13
-1.213925e-10
-1.093270e-11
3.584810e-11
-3.556776e-11
2.497660e-12
2.681972e-10
1.713465e-10
1.495905e-10
2.516133e-10
2.415657e-10
2.227940e-10
2.501802e-10
2.306401e-10
8.890385e-11
-1.376199e-10
-1.267939e-10
-1.162976e-10
-2.896950e-11
1.589110e-11
-3.933305e-11
3.397179e-11
-1.565665e-12
5.956167e-11
-1.659495e-10
-1.948739e-10
-1.065677e-10
-2.043538e-10
-2.208095e-10
-2.439245e-10
-7.824504e-11
-7.702904e-11
-1.644291e-10
1.668563e-10
1.362945e-10
1.396325e-11
7.449499e-11
5.215325e-11
-2.632369e-11
7.317465e-11
-1.643029e-12
6.864255e-12
7.095122e-11
8.947415e-11
-2.580569e-13
1.379310e-10
1.743124e-10
-3.074343e-11
1.958584e-11
1.563047e-10
1.399533e-10
5.623874e-10
4.887917e-10
2.481493e-10
6.625219e-10
5.756588e-10
3.744081e-10
5.922686e-10
6.395223e-10
4.697664e-10
4.083456e-11
4.819001e-11
8.185769e-11
6.357064e-11
4.069596e-11
1.305682e-10
2.419036e-10
2.135856e-10
1.419725e-10
-2.411090e-11
9.115552e-11
3.407304e-11
-3.010948e-11
8.965073e-11
7.924618e-12
-9.710262e-11
3.476259e-11
-9.862203e-11
-1.327507e-10
-6.847683e-11
-1.183629e-10
-9.361643e-11
-1.971006e-10
-1.549992e-10
-8.137819e-12
-7.556512e-11
-1.972301e-11
-1.236882e-10
-7.713569e-11
-1.574734e-10
-3.112434e-11
-8.285225e-11
-1.524221e-10
2.210714e-11
-6.162820e-11
-7.495986e-11
-5.279640e-10
-5.152934e-10
-4.928468e-10
-5.583313e-10
-5.776067e-10
-5.231534e-10
-6.916335e-10
-6.774744e-10
-6.996500e-10
1.161687e-10
1.363064e-11
-4.950913e-11
1.067612e-10
3.997342e-12
-8.013220e-11
1.103462e-12
-9.354589e-11
-1.004362e-10
8.974511e-11
8.067749e-11
8.571153e-11
1.190807e-10
2.094287e-10
1.714562e-10
2.687426e-10
2.100205e-10
1.913381e-10
4.296505e-03
1.093111e-02
-6.120166e-03
1.969453e-02
1.747180e-02
-2.706105e-03
1.220511e-02
5.140212e-03
-1.199826e-02
1.540893e-02
1.415998e-02
2.457013e-02
-1.439612e-02
-9.986956e-03
-4.432586e-03
1.330481e-02
1.293633e-02
2.068671e-02
9.692599e-03
1.064925e-02
1.023553e-02
1.221551e-02
7.214734e-03
1.986666e-02
2.085648e-02
1.032340e-02
2.247679e-02
9.863391e-03
3.585077e-02
-6.662683e-03
9.511132e-03
3.083609e-02
6.625865e-03
-1.234259e-02
-2.156127e-03
-2.876875e-03
-1.167144e-02
-1.367824e-02
-1.279480e-02
1.673666e-03
-8.864947e-03
-1.963590e-04
2.059089e-03
-2.503393e-03
6.738327e-03
-1.174704e-02
1.418784e-03
-1.296306e-02
-1.027487e-02
-4.452298e-03
-7.117747e-03
5.467540e-03
2.616224e-03
4.252715e-03
9.046311e-03
1.230739e-02
5.390943e-03
1.415657e-02
2.092122e-02
1.076245e-02
1.824176e-02
1.932064e-02
7.178779e-03
-1.088853e-02
-1.546075e-02
1.245328e-02
-1.701840e-02
-1.439083e-02
1.601810e-02
-4.577389e-03
7.996366e-03
2.990825e-02
8.761082e-03
-1.503243e-02
8.730390e-03
-3.707646e-03
-2.511544e-02
-1.601898e-02
-1.089057e-02
3.291231e-03
-4.056653e-02
1.613007e-02
2.393615e-02
8.863180e-03
2.692095e-02
3.162717e-02
2.003523e-02
1.099856e-02
1.123964e-02
6.712838e-03
3.373779e-02
4.851631e-02
4.107506e-04
4.024358e-02
5.990325e-02
1.966592e-02
-6.617133e-03
-5.976536e-04
-1.261561e-03
-2.067838e-02
-2.374922e-02
-3.034028e-03
-1.486130e-02
-1.903073e-02
-4.359917e-03
-7.563919e-03
1.901973e-03
-2.205934e-02
2.142599e-02
-4.182839e-02
1.316324e-02
1.613976e-02
-3.044683e-02
3.771188e-02
-3.346686e-02
-9.366470e-03
7.947328e-03
1.234577e-02
4.266595e-02
2.662152e-04
2.516563e-02
3.971723e-02
1.977518e-02
1.404029e-02
1.182144e-02
1.726269e-02
-1.594860e-02
-4.234309e-03
3.298696e-03
-7.342134e-03
-1.377161e-03
5.188746e-03
-5.097076e-03
2.598243e-03
2.634346e-03
-2.371490e-03
6.414746e-03
-6.755450e-03
-6.848557e-04
2.054795e-02
-9.753079e-04
-1.533532e-02
-1.815652e-03
-2.104029e-02
-7.563358e-04
4.139167e-03
5.099215e-03
2.268543e-03
5.442112e-03
4.589796e-03
4.819130e-03
7.202697e-03
7.047432e-03
6.073163e-04
2.290421e-03
2.656363e-03
1.452621e-02
1.209484e-02
1.015358e-02
1.560051e-02
1.245763e-02
5.982535e-03
-2.638247e-02
-2.232178e-02
-8.979091e-03
-2.398078e-02
-1.898122e-02
-1.334791e-02
-2.304103e-02
-1.763826e-02
-2.064154e-02
-5.804515e-03
-8.035823e-04
3.838747e-03
-8.344519e-05
7.046718e-04
7.404162e-03
3.052436e-03
3.312628e-03
6.025391e-03
-6.563110e-03
-5.034916e-03
2.687256e-03
-8.909504e-03
-5.977585e-03
-8.138758e-04
-7.121979e-03
-4.240779e-03
-2.211828e-03
1.102362e-03
-1.175445e-03
3.703173e-03
7.289635e-04
-2.887540e-03
2.032826e-04
-9.809657e-04
-4.854791e-03
-2.112644e-03
6.713083e-03
8.668831e-03
6.572416e-03
1.225266e-02
1.412545e-02
1.322563e-02
1.107595e-02
1.563098e-02
1.558542e-02
7.834092e-03
3.468024e-03
2.058719e-03
5.359752e-03
3.004868e-03
-1.651393e-03
3.289013e-04
-1.042870e-03
-2.817642e-03
1.161518e-02
5.561890e-03
7.503435e-03
-8.446180e-03
-1.105234e-02
-1.326820e-02
5.944145e-03
4.700961e-03
-4.068920e-03
-1.204218e-02
-7.268439e-03
-4.924983e-03
-6.951581e-03
-1.972017e-03
1.036934e-03
-2.096832e-03
3.393545e-03
4.294406e-03
-2.676063e-03
9.928317e-03
7.131314e-03
9.876475e-03
1.814552e-02
1.592382e-02
1.097938e-02
1.944544e-02
1.503256e-02
-6.533244e-03
2.160588e-03
1.548889e-02
-1.784037e-02
-9.328814e-03
8.877488e-03
-5.473993e-03
2.854158e-03
1.611620e-02
1.585640e-02
1.997937e-02
-9.151256e-03
3.928135e-03
1.874101e-02
4.031671e-04
-1.694851e-03
2.055832e-02
2.971730e-03
-1.299565e-02
-2.609304e-03
4.146449e-03
5.599121e-03
1.104836e-02
2.044205e-02
3.245884e-03
7.119779e-03
1.413918e-02
2.219879e-02
1.733663e-02
7.250992e-03
1.519830e-02
1.019593e-02
3.190325e-03
1.252294e-02
1.042244e-02
9.193078e-03
5.905832e-03
1.452848e-02
1.306072e-02
1.653163e-03
9.563211e-03
8.511013e-03
-6.294331e-04
2.908604e-03
3.854470e-03
4.057462e-03
-4.862472e-03
-1.094400e-02
8.668036e-04
-1.160986e-03
-3.808324e-03
5.524549e-03
4.248451e-03
8.015762e-04
-9.818062e-03
-5.659190e-03
7.615799e-04
1.589176e-02
5.942342e-03
-2.987126e-03
2.016053e-02
2.107678e-03
-5.010361e-03
6.394822e-03
9.222464e-03
-2.026369e-03
2.336211e-02
3.092026e-02
2.491033e-03
1.429098e-02
1.908394e-02
2.081493e-03
-1.332203e-03
1.050511e-02
2.294517e-03
-2.038911e-03
-3.465997e-03
-4.103943e-03
-2.719812e-03
-1.629857e-02
-7.053901e-03
1.334901e-02
1.323775e-02
8.374073e-03
2.609522e-02
2.782658e-02
1.559780e-02
1.829145e-02
1.458238e-02
1.178911e-02
-1.790104e-03
4.679747e-04
-1.314572e-02
1.572796e-03
6.712578e-03
-2.619103e-03
-1.253876e-04
5.203826e-03
1.153221e-04
-6.852287e-03
-5.464719e-03
-4.026864e-03
-2.748260e-02
-2.099868e-02
-6.014669e-03
-2.034272e-02
-6.780569e-03
4.074309e-03
7.908250e-04
1.775458e-03
3.708363e-03
1.020871e-02
5.305417e-03
6.389969e-03
-6.081535e-03
-2.536749e-03
9.108835e-03
1.114996e-02
-2.366695e-02
-1.358034e-02
7.914072e-02
9.106494e-03
-2.965877e-02
-1.596292e-02
1.795048e-02
-3.410641e-03
-3.491937e-03
6.154103e-03
1.263598e-02
-9.734748e-03
9.252965e-04
9.628721e-03
-1.338765e-02
-1.191412e-02
-1.149908e-02
-7.820077e-03
-1.878206e-02
-6.807077e-03
-1.010357e-02
-2.252917e-02
-2.640332e-02
4.000057e-02
7.077547e-03
-1.934241e-02
-9.537277e-02
4.851982e-02
1.646864e-01
-1.371560e-01
-3.295005e-03
1.500476e-01
-9.636116e-02
-6.854069e-02
-2.793085e-02
-2.274995e-04
-2.155233e-02
-1.347052e-02
3.581089e-03
-1.039542e-02
-6.901723e-03
-6.792584e-03
-2.321410e-02
-4.602492e-03
-1.995752e-02
1.323086e-02
3.118921e-02
-4.503155e-02
-4.454038e-03
2.891326e-02
-2.019066e-02
-2.083509e-02
3.588127e-03
4.592919e-03
-6.557353e-03
3.821442e-03
1.636163e-03
-1.270445e-02
-6.319422e-03
6.702619e-03
-7.009724e-03
-4.310627e-03
-2.329539e-02
-1.476194e-02
5.454232e-03
-1.763898e-02
-2.802151e-03
2.122216e-02
1.850428e-02
2.231587e-02
2.004062e-02
8.886971e-03
9.392792e-03
-4.337073e-03
1.737731e-02
2.391405e-02
1.052809e-02
-2.965671e-03
4.298302e-05
-1.206005e-02
5.591892e-03
1.114878e-02
2.266932e-02
-2.435143e-02
-2.162527e-02
-1.714630e-02
-9.257382e-03
-1.110544e-02
-5.057001e-03
4.430928e-03
-4.178488e-03
-1.679960e-02
2.989299e-02
1.141684e-02
-8.148789e-04
3.517972e-02
1.804094e-02
1.960763e-02
-7.220061e-03
2.409576e-02
5.196975e-03
-9.309363e-03
1.652129e-02
6.885444e-03
-3.113490e-02
-2.026374e-02
-1.314195e-02
-1.034519e-03
-6.218138e-03
-1.552797e-02
2.145533e-02
2.425014e-03
-8.552521e-03
1.907178e-02
1.689328e-03
-2.808020e-03
-8.664280e-03
8.706819e-05
-1.398570e-03
-3.619273e-03
1.834510e-03
-2.378053e-04
1.378111e-02
1.666074e-02
1.406732e-02
-1.102556e-03
4.748283e-03
1.253714e-03
1.316949e-03
1.682416e-02
1.962426e-02
-3.542274e-03
6.491256e-03
5.390498e-03
7.760024e-03
-7.690336e-03
2.051857e-03
2.073911e-04
-1.585302e-02
-5.619296e-03
1.712262e-02
7.295735e-03
1.979449e-02
1.817913e-02
-2.020247e-02
-2.555673e-02
-6.089449e-03
-5.705170e-02
-5.838776e-02
2.478955e-02
1.918240e-02
-1.561551e-02
-2.110342e-03
1.363968e-02
5.574669e-03
3.632025e-03
1.996315e-02
1.665040e-02
-1.449206e-02
-6.041727e-03
-8.368474e-03
4.178211e-03
2.963251e-02
-4.057562e-03
3.423890e-02
6.482828e-02
3.867726e-02
-4.545968e-02
-2.412618e-02
-2.897341e-02
5.834060e-04
-1.151455e-02
-9.723420e-03
1.069099e-02
-3.559691e-03
-7.204731e-03
-1.722794e-03
1.685067e-02
-1.778726e-03
1.652111e-02
-3.317451e-02
-2.038912e-02
3.259666e-02
-2.190617e-02
2.934451e-02
-2.270606e-02
-4.201044e-02
-2.331745e-02
-4.690322e-03
3.086300e-02
8.698051e-03
2.115103e-02
4.617874e-02
2.461702e-02
-1.536468e-02
-1.047225e-02
-1.565402e-02
-2.014373e-02
-1.760233e-02
-9.789401e-05
-2.300859e-02
-2.108134e-02
-1.118634e-02
-5.346361e-03
-6.262883e-03
-1.049852e-02
1.693707e-02
1.293418e-02
1.223787e-03
8.241129e-03
1.125122e-02
-4.993342e-03
-2.395479e-02
-1.377642e-02
-3.030668e-02
-1.901777e-04
-4.484773e-04
1.269515e-02
-5.004174e-04
1.212661e-02
9.871135e-03
3.794588e-03
8.280691e-03
-1.774268e-03
1.703021e-02
2.933375e-02
1.824001e-02
7.674829e-03
1.842840e-02
1.568178e-02
-1.075027e-02
-1.022804e-02
-7.993249e-04
7.875492e-03
1.028840e-02
-5.419786e-03
3.589749e-02
2.993157e-02
1.135992e-02
1.297408e-02
-3.730038e-04
-1.102666e-02
1.668955e-02
3.466183e-03
-8.442804e-03
1.685736e-02
2.091538e-02
-9.085780e-04
1.155453e-02
4.847421e-03
3.348340e-03
1.767204e-02
2.354494e-02
1.064919e-02
1.905907e-02
1.970405e-02
8.831483e-03
1.108228e-02
4.772406e-03
9.826368e-03
1.209985e-03
-3.595167e-03
-2.664721e-03
1.085127e-03
7.385526e-08
-1.877222e-03
1.279069e-03
-6.281704e-04
-1.627894e-03
-1.470342e-02
-1.923128e-02
-1.755692e-02
-8.582682e-03
2.067404e-03
8.484696e-03
2.750128e-03
1.125947e-02
7.227438e-03
6.315991e-03
1.529368e-03
-1.733624e-02
3.272874e-03
-9.310799e-03
-2.081022e-02
7.524359e-05
-7.513611e-03
-1.331052e-02
-1.150435e-02
2.353807e-03
6.947129e-03
-2.917160e-02
-7.866517e-02
-1.396922e-02
-1.522795e-02
-4.305859e-02
-1.053908e-03
3.863063e-03
1.221277e-02
1.150978e-02
1.443981e-02
2.642943e-02
2.007679e-02
1.472293e-02
1.572855e-02
8.791484e-03
-1.415312e-02
-7.751538e-03
4.989200e-03
1.890515e-02
4.894485e-02
7.482879e-03
1.254183e-02
2.385937e-02
-8.020886e-03
2.859502e-02
3.245954e-02
2.962986e-02
2.992521e-02
-1.143332e-03
3.348464e-02
-6.473800e-03
-1.617864e-02
1.025464e-02
-8.413746e-04
1.525181e-02
-1.384206e-02
6.481479e-02
-3.061074e-03
-3.155957e-02
3.479290e-02
-5.306476e-03
2.454492e-03
-2.456486e-03
2.346089e-02
8.587906e-03
2.336239e-02
7.171994e-02
3.407180e-02
1.574164e-02
2.123788e-02
9.276172e-03
-9.276061e-03
-8.802171e-03
3.439105e-03
-9.404504e-03
-1.633771e-02
-7.357053e-03
1.288082e-02
6.031897e-03
-1.926837e-03
9.338492e-03
-6.904546e-03
4.601345e-03
-2.528806e-03
-1.475149e-02
2.016528e-03
-8.158143e-03
8.552764e-03
1.797035e-03
1.368835e-02
4.777190e-03
8.089694e-03
9.668890e-03
3.110971e-03
9.326740e-03
1.240966e-02
5.972949e-03
6.959407e-03
-2.094924e-02
-1.948694e-02
-1.051784e-02
-1.991313e-04
-1.817100e-03
-9.086303e-05
2.188487e-02
2.187126e-02
1.781147e-02
1.199569e-02
1.622484e-02
9.452336e-03
1.870010e-02
1.703704e-02
1.074312e-02
1.043513e-02
5.540115e-03
5.172350e-06
-1.694845e-02
-2.032049e-02
-7.488156e-03
-1.506710e-02
-2.815013e-02
-1.007375e-02
-5.388984e-03
-2.072172e-02
-1.101696e-03
1.107967e-02
1.404914e-02
1.288161e-02
7.692632e-03
1.855354e-03
1.840581e-03
7.817445e-03
-2.257399e-03
-1.062321e-03
6.745403e-03
3.657890e-03
1.062313e-03
3.977605e-03
-1.000546e-03
1.304528e-03
-2.991843e-03
-8.769618e-03
9.059302e-04
-3.851445e-03
-3.175214e-03
-4.454178e-03
-2.554553e-03
3.263776e-04
3.861586e-03
2.191778e-03
4.982435e-03
6.605158e-03
-6.885772e-03
-4.671517e-03
1.657117e-03
-2.901164e-03
4.577618e-03
7.454131e-03
-1.713595e-03
6.696663e-03
9.696013e-03
-4.046216e-02
-4.851368e-03
-1.763678e-02
-7.245061e-03
1.266465e-02
-2.959272e-02
-2.644553e-02
8.772535e-03
-1.577805e-02
-1.073769e-02
-9.524642e-03
-8.208321e-03
-1.077214e-02
-7.184084e-03
-7.114190e-03
-1.280588e-02
-7.602995e-03
-6.833736e-03
6.721092e-03
1.052923e-02
1.035678e-02
-2.468457e-02
-2.793483e-02
-5.701648e-03
-1.811919e-02
-3.118230e-02
-9.503657e-03
-2.627566e-02
-1.798221e-02
-9.826628e-03
3.225353e-02
8.432189e-02
5.213634e-02
4.356033e-03
8.792445e-02
6.572925e-02
-1.200615e-02
1.220933e-02
1.577098e-02
-4.687324e-02
2.775567e-02
1.437025e-02
-3.645023e-02
1.082068e-02
2.910603e-02
-2.462579e-02
-4.328680e-02
-2.592373e-02
-1.579866e-02
-3.654103e-02
-1.412059e-02
1.267027e-02
2.693539e-03
1.397721e-02
-2.027259e-02
-1.441066e-02
-8.587680e-04
-1.448229e-02
-6.569156e-03
-1.034069e-03
-9.729828e-03
-3.357164e-03
-6.703214e-03
1.058637e-02
2.397410e-02
5.103925e-04
1.643302e-02
4.673940e-02
2.036751e-02
-1.034157e-02
1.924245e-02
-3.373355e-03
5.254822e-04
4.605839e-03
2.185957e-03
3.939045e-03
7.731237e-03
7.000146e-03
4.678512e-03
9.856609e-03
8.435220e-03
1.851336e-02
2.144457e-02
2.239616e-02
1.618085e-02
1.759246e-02
1.487541e-02
8.037636e-03
9.308942e-03
6.474596e-03
-1.131800e-02
-1.877061e-03
4.446723e-03
-1.456429e-02
-5.499110e-03
-7.119861e-03
-8.163428e-03
-2.696228e-03
-6.913316e-03
7.235875e-04
9.088136e-03
8.747203e-04
7.549142e-03
1.034375e-02
6.816827e-03
8.777824e-03
1.053124e-02
5.956044e-03
-1.132736e-02
-6.461539e-03
-2.500551e-03
-1.569024e-02
-9.295107e-03
-7.866265e-03
-9.535653e-03
-4.177496e-03
-3.223618e-03
3.893950e-04
3.822197e-03
3.312862e-03
-1.367138e-03
-2.669705e-04
-1.171986e-05
-2.897848e-07
1.798145e-03
1.700121e-03
1.430168e-02
1.160283e-02
9.996545e-03
2.167409e-02
1.864094e-02
1.752007e-02
1.274602e-02
1.398062e-02
1.152344e-02
3.946353e-03
-2.660021e-03
2.912917e-03
4.170996e-04
-7.059692e-03
-6.566702e-03
1.344789e-03
-6.629379e-03
-6.706652e-03
1.321366e-02
1.582800e-02
1.773663e-02
-1.479120e-02
-1.775486e-02
-1.338818e-02
8.697228e-03
-1.396301e-04
1.871147e-03
-5.848028e-03
-2.784636e-03
-5.274863e-03
-1.349562e-03
2.162939e-03
9.108926e-05
2.452744e-03
6.340839e-03
3.069696e-03
-4.535368e-03
6.128347e-03
-1.171880e-02
1.886455e-02
2.331225e-02
8.247766e-03
1.591662e-02
2.159601e-02
5.292187e-03
7.443128e-03
7.340039e-03
2.424411e-02
1.409225e-03
-3.637649e-03
1.759804e-02
1.459473e-02
6.841093e-03
2.115783e-02
9.463279e-03
-1.029516e-02
-1.586815e-03
1.201753e-02
-1.204528e-02
-3.739097e-03
1.813679e-02
-7.022377e-03
-9.496290e-03
-2.493922e-03
7.014047e-03
-2.372689e-04
9.960992e-03
2.033973e-02
1.301377e-02
-1.281880e-03
9.936380e-03
2.942189e-03
4.157307e-03
-2.980747e-03
-5.724480e-03
-2.627699e-03
-8.859295e-03
-9.133548e-03
-6.361783e-03
-8.798777e-03
-5.438511e-03
-1.248152e-02
-8.134120e-03
-1.280319e-02
-1.026240e-02
-8.555061e-03
-1.068521e-02
-1.093424e-02
-1.022444e-02
-1.070284e-02
1.728967e-02
4.667026e-03
1.006354e-03
1.412382e-02
4.064928e-03
5.521741e-03
9.660473e-03
1.954899e-04
-2.521439e-04
2.415962e-02
1.501346e-02
-3.405789e-03
7.926021e-03
8.840312e-03
-2.096395e-03
-6.628853e-03
3.579495e-03
-1.779593e-03
1.842077e-02
2.854252e-02
-8.844291e-03
5.163245e-02
4.726823e-02
3.423295e-03
4.284997e-02
3.444561e-02
1.730068e-03
-5.340937e-03
-1.277140e-02
-2.635757e-03
2.193457e-05
-9.425148e-03
3.962664e-04
-9.518922e-03
-4.864506e-03
4.093407e-04
2.444011e-02
1.826436e-02
-7.348600e-03
4.641642e-02
2.780737e-02
-3.757527e-03
3.361627e-02
1.343763e-02
-7.220713e-03
-6.284395e-04
-2.173121e-03
-5.822053e-03
3.390136e-03
-1.068107e-03
-6.316703e-04
1.245351e-03
-4.866777e-03
-3.124178e-03
-2.223531e-02
-2.208661e-02
-1.046115e-02
-2.132547e-02
-1.313648e-02
3.341105e-03
-1.420919e-02
-8.398578e-04
8.801530e-03
-9.084113e-03
-1.165870e-02
-5.445327e-04
-1.277230e-02
-1.302482e-02
4.342542e-03
-1.751166e-03
-3.290423e-03
7.822181e-03
-3.555012e-02
2.453564e-02
-1.282109e-03
-1.140112e-02
7.269618e-02
1.621567e-02
-2.584521e-02
1.453747e-02
-5.977423e-04
-6.832260e-04
5.378874e-03
-3.327365e-03
1.011881e-02
1.624381e-02
1.325083e-03
1.094276e-02
1.336010e-02
-2.923896e-03
1.336012e-02
1.314263e-02
-1.315210e-03
1.616043e-02
-8.625667e-03
-1.426424e-02
-9.149848e-03
-2.626809e-02
-4.018096e-02
-6.114257e-02
-3.289680e-02
-3.014619e-02
-1.838817e-02
1.846274e-02
5.543448e-03
2.188968e-02
2.740678e-02
1.892911e-02
-4.704038e-02
-1.569533e-02
-2.180132e-02
-5.154644e-02
1.459954e-02
1.959227e-03
-8.211303e-03
-1.855477e-02
-1.435545e-02
2.092704e-02
-2.612329e-03
-2.095066e-02
3.200547e-02
2.446503e-03
-1.935281e-02
1.628197e-02
1.180304e-02
-1.410844e-02
-1.202078e-02
-1.336775e-02
2.133380e-04
-1.526113e-02
-9.961187e-03
1.794059e-03
-6.849275e-03
-1.381948e-03
2.850181e-03
-2.145314e-04
5.588556e-03
-4.684372e-04
-3.919009e-03
2.418834e-05
3.288796e-03
-6.443249e-03
-6.381346e-03
-1.266240e-03
1.689773e-11
8.222088e-11
1.977204e-10
-4.684575e-11
-3.482762e-11
4.147769e-11
-1.613953e-11
7.568159e-11
3.857148e-11
2.984955e-11
9.243743e-11
-2.585959e-11
-6.765120e-11
1.960731e-11
-2.358471e-11
1.919490e-11
-8.426930e-13
3.146752e-11
3.647768e-10
1.673943e-10
5.511257e-10
-2.736131e-10
-5.981335e-10
-4.970604e-10
-2.341818e-10
-5.091211e-10
-1.600648e-10
-1.999103e-09
-4.620271e-09
-5.886199e-11
-3.559720e-09
-5.928158e-09
-2.360242e-09
-3.967720e-09
-6.881939e-09
-8.615809e-10
-8.759296e-09
-4.681020e-09
-5.328915e-09
-9.493389e-09
-6.756117e-09
-9.429643e-09
-1.193079e-08
-8.792249e-09
-1.612535e-08
-2.371608e-09
1.147209e-09
-4.292205e-10
-1.656348e-09
2.728449e-09
-1.948080e-11
-2.446896e-09
6.772111e-10
-2.715483e-09
-7.914647e-09
-1.960827e-09
-2.315440e-09
-1.485002e-08
-8.584810e-09
-8.458668e-09
-9.788941e-09
-3.973751e-09
-3.908457e-09
-1.575554e-10
-2.430833e-10
-5.709316e-11
-1.264621e-10
-2.121026e-10
-4.099970e-11
-2.669495e-11
-1.580486e-10
-6.468372e-13
3.195689e-08
1.516281e-08
8.729660e-09
2.239421e-08
8.670590e-10
1.169300e-08
7.114686e-09
-5.402277e-09
-1.211262e-09
-1.708735e-10
-1.053880e-10
-7.763162e-11
-1.099210e-10
-2.961839e-11
-1.885524e-10
-1.234992e-10
-9.570256e-11
5.971479e-12
-2.425661e-08
-1.022373e-08
-7.074240e-09
-5.189458e-09
1.230947e-08
-4.001751e-09
6.286237e-09
1.590192e-08
1.971209e-09
4.616650e-09
-8.807739e-09
-2.225142e-09
-7.096046e-09
-2.049865e-08
1.164445e-08
-1.892859e-08
-2.123916e-08
-1.318192e-09
1.123005e-08
1.136625e-08
1.102566e-08
3.218025e-08
-9.815533e-10
-6.121635e-09
2.381642e-08
3.183253e-09
9.318224e-09
-2.036368e-08
-1.179316e-08
-9.075753e-09
-1.483296e-09
4.521626e-09
-5.567736e-09
-5.643960e-09
-7.104751e-09
-4.513050e-09
-4.249923e-10
-2.855081e-09
-2.993607e-10
-5.362447e-10
-2.678729e-09
-4.321234e-10
3.388065e-10
-2.138289e-09
3.162929e-10
8.241647e-09
-2.952262e-08
-3.287306e-09
-1.785124e-08
-3.312821e-08
-2.448104e-08
-2.903511e-08
-3.748003e-08
-2.198588e-08
-5.671235e-03
2.699145e-04
-1.549652e-06
-2.338710e-03
1.708263e-03
-3.042447e-05
-1.092929e-04
1.736607e-03
-1.457295e-03
-1.969605e-04
3.142810e-04
1.220004e-03
2.935115e-03
2.496351e-03
4.958507e-03
-9.252783e-04
-2.625567e-03
-2.830551e-03
-4.427567e-03
-7.852470e-03
-1.730689e-03
-5.858888e-03
-1.044632e-02
-8.873145e-03
-1.209878e-02
-1.468970e-02
-1.913788e-02
-2.174243e-04
3.334023e-03
1.224488e-03
2.418078e-03
1.551190e-03
1.343214e-03
5.437032e-03
-8.192158e-04
-1.988119e-03
-1.436943e-02
-1.580003e-02
-9.861623e-03
-1.537980e-02
-1.755875e-02
-1.324778e-02
-1.422049e-02
-1.548776e-02
-1.478576e-02
3.620556e-03
4.144139e-03
2.599261e-03
4.579835e-03
2.759272e-03
1.165900e-03
2.502642e-03
3.468008e-04
-1.066850e-03
5.641954e-03
9.953122e-03
7.985306e-03
6.797870e-03
1.105054e-02
1.010314e-02
6.958701e-03
8.362549e-03
7.680430e-03
-4.197830e-03
-1.054196e-02
-2.681132e-03
-7.548029e-03
-1.092634e-02
-2.499544e-03
-8.085855e-03
-9.360517e-03
-2.652542e-03
-1.632927e-02
-1.875226e-02
-1.365611e-02
-3.002099e-02
-2.546429e-02
-2.947046e-02
-1.817605e-02
-8.515396e-03
-2.407310e-02
-9.714877e-03
-4.399384e-03
-2.332364e-03
-6.475065e-03
-3.003543e-03
-8.520638e-04
-4.389500e-03
-2.836746e-03
-1.303184e-03
6.059872e-03
1.121386e-02
1.001907e-04
1.389994e-02
1.259455e-02
3.665083e-03
9.745318e-03
5.155845e-03
3.529745e-03
-5.636761e-03
3.273191e-03
3.594853e-02
4.576085e-03
1.263744e-02
4.104306e-02
3.302671e-02
4.125157e-02
5.472624e-02
1.660643e-02
-5.669008e-03
-7.217230e-04
3.886067e-03
-1.328210e-03
4.590291e-03
-9.717027e-03
7.520096e-03
2.194730e-02
-4.688082e-03
-3.208358e-03
-4.832953e-03
2.238089e-03
-2.654275e-03
-2.042918e-04
-8.847588e-04
-7.136042e-03
-3.461708e-03
-3.314407e-03
-9.418039e-04
1.225226e-04
-4.229576e-03
-1.187280e-03
7.649378e-05
-3.762803e-03
2.145742e-03
4.771885e-03
-2.150488e-02
-5.892096e-03
-8.637139e-03
-2.589194e-02
-8.171385e-03
-8.797552e-03
-2.480444e-02
-1.198278e-02
-1.206222e-02
-1.521742e-02
-7.823840e-03
-2.785380e-03
-7.716458e-03
-7.382731e-04
-2.226117e-03
-1.003055e-02
-3.852349e-04
-1.202863e-02
-3.374594e-04
1.912506e-02
2.098069e-02
1.424651e-02
2.940700e-02
1.300282e-02
-4.183271e-03
-2.969177e-03
-1.006546e-02
2.169552e-02
2.910723e-02
-1.339799e-02
5.409338e-02
7.227106e-02
2.431510e-02
2.001857e-02
2.348923e-02
9.435266e-04
-9.101134e-03
-1.578857e-02
-1.326088e-02
-1.943727e-03
-1.399295e-02
-1.029821e-02
3.035018e-03
-9.105854e-03
-1.221923e-03
2.132458e-03
2.669221e-02
1.945045e-02
2.148479e-02
4.842948e-02
3.619922e-02
8.420122e-03
2.950708e-02
2.613688e-02
8.632036e-03
1.028580e-02
-3.828844e-03
1.043150e-02
6.824217e-03
-1.585902e-04
5.620929e-03
3.786529e-03
3.227475e-03
-3.872408e-02
-5.165749e-02
-3.920849e-02
-2.644840e-02
-2.411703e-02
-3.133108e-02
-2.082362e-02
-2.314414e-02
-2.400292e-02
2.424084e-02
4.368334e-03
1.019962e-02
1.911628e-02
9.127831e-03
1.116726e-02
4.456610e-03
-1.877364e-02
-2.490817e-03
5.753876e-02
9.486320e-02
-5.958387e-02
4.486873e-02
-2.713293e-02
-2.912665e-02
1.966457e-02
1.604380e-02
-7.323226e-02
-1.590715e-02
-1.077652e-02
-1.167982e-02
-7.018340e-03
-2.344906e-03
-9.475567e-03
4.883896e-03
6.901325e-03
5.299857e-03
-6.555140e-03
8.907263e-03
3.773602e-02
2.948667e-02
5.193107e-02
4.619316e-02
-1.016009e-02
-7.467190e-04
2.797595e-02
-6.953790e-02
-2.578761e-02
-5.129026e-02
-1.212539e-02
1.938415e-03
6.912396e-02
2.561791e-02
7.637145e-02
1.342205e-02
-3.821171e-02
4.951664e-02
-2.886348e-02
5.071290e-02
-2.505680e-02
-3.153490e-02
-4.163001e-02
1.441808e-02
-1.425713e-02
-4.819026e-02
-3.941109e-02
-7.952147e-03
-2.069143e-02
1.789455e-02
1.604377e-02
-4.415337e-03
3.161141e-03
1.377705e-02
-1.839158e-02
-1.038180e-02
7.012578e-03
-1.860633e-02
-1.664005e-02
-5.955260e-03
-1.004005e-03
2.049941e-03
-1.357928e-02
2.173435e-02
1.186657e-02
-1.005562e-02
9.788704e-03
1.325709e-02
1.661468e-02
5.356662e-04
1.219234e-03
-1.880265e-02
