-2.070462e-02
8.664083e-04
2.631325e-02
-4.406327e-02
-8.490821e-04
1.273896e-02
-6.882869e-02
-3.953855e-02
-1.063473e-02
-2.805955e-03
2.079019e-02
3.534912e-02
1.461355e-02
1.704342e-02
1.509981e-02
3.916403e-02
9.913584e-03
4.431886e-03
-1.002027e-02
-2.807043e-02
-6.809317e-03
-1.356564e-02
-3.729749e-03
1.375281e-03
-4.784952e-02
-2.332173e-02
-3.734147e-04
-3.948052e-02
-4.902408e-02
-4.216353e-02
-2.427747e-02
-2.082138e-02
-1.656856e-02
-1.639564e-02
9.551392e-03
5.183723e-02
-1.241604e-02
-3.231329e-02
-2.101226e-02
-8.408302e-03
-3.965995e-02
-3.183983e-02
-1.779109e-02
-3.025944e-02
-3.660987e-02
1.064853e-02
2.201107e-02
4.312130e-02
-1.233534e-02
-1.728022e-02
-3.369973e-03
1.771837e-02
1.624031e-02
8.014097e-03
4.015083e-02
2.686971e-02
2.199287e-02
3.558264e-02
3.456992e-02
4.141001e-02
7.023401e-03
2.679909e-02
6.622062e-02
-2.676777e-02
-4.358904e-02
-6.503309e-02
-8.131089e-03
-4.029624e-02
-5.158963e-02
4.366158e-02
2.589357e-02
-1.323536e-02
2.974131e-02
5.518419e-02
3.973132e-02
-1.786424e-02
-7.952135e-03
-1.384231e-03
-1.767896e-02
-4.242915e-02
-3.614652e-02
-1.196881e-03
2.888164e-02
2.526405e-02
-4.786801e-04
-8.595031e-04
2.608363e-02
-3.251097e-02
-3.758258e-02
5.448432e-03
-2.376874e-02
-3.400419e-02
-4.607400e-02
-7.510650e-03
-1.534875e-02
-4.807518e-02
-1.009689e-02
-2.913416e-02
-6.559207e-04
-1.882662e-02
-1.933979e-02
-5.187600e-03
-6.309325e-02
-5.330208e-02
1.781245e-03
-4.053502e-02
-2.544524e-02
1.424755e-02
-4.198486e-02
7.642916e-03
2.956751e-02
-3.333419e-02
-2.407333e-02
-1.022507e-02
-1.682718e-02
-2.517516e-02
5.587342e-03
-1.182075e-02
-1.022458e-02
-2.810441e-02
-1.133385e-02
3.421705e-03
-2.707741e-02
-2.550063e-02
-1.444521e-02
-2.785677e-02
-5.956207e-03
-1.247191e-02
-1.147173e-02
9.107159e-03
7.548616e-04
-1.929400e-02
-1.695281e-02
-3.701996e-02
-2.139367e-02
-2.392972e-02
-1.717195e-02
-7.296523e-04
-4.857408e-02
-3.729288e-02
4.118449e-03
-1.913286e-02
-1.512816e-02
7.993170e-03
2.294875e-02
2.498936e-02
4.188069e-02
-1.422593e-02
-7.396034e-03
4.461288e-02
-2.091671e-02
-3.289702e-02
-2.927961e-02
8.071445e-03
-2.955855e-03
-1.027521e-02
-1.745528e-02
-5.686916e-02
-6.369043e-02
1.608426e-02
-2.746447e-02
-2.260087e-02
-5.014584e-02
-6.816087e-02
-2.554393e-02
-2.237020e-02
-3.070709e-02
-2.147248e-03
-1.183105e-02
1.730499e-02
3.855534e-02
1.238457e-02
7.674878e-03
2.754218e-02
-3.975343e-03
-2.047322e-02
-1.483157e-02
1.092270e-02
-1.495139e-02
-2.367855e-02
3.147990e-03
-5.436626e-02
-4.051949e-02
1.341502e-02
-1.728294e-02
3.001771e-02
-1.463008e-02
-1.252874e-02
1.275667e-02
4.823614e-02
5.372795e-02
1.580941e-02
3.892404e-02
2.840664e-02
2.271586e-03
6.048548e-02
5.587037e-02
3.488880e-02
-2.307302e-02
-3.521619e-02
4.770364e-03
2.425077e-02
1.031423e-02
2.488452e-02
3.557170e-03
-2.620581e-02
-1.224136e-03
3.021035e-02
3.324989e-02
3.237435e-02
4.835571e-02
4.064368e-02
3.029938e-02
1.789459e-02
1.672891e-02
2.076682e-03
-2.865938e-02
-6.904315e-02
-3.217795e-02
2.777651e-02
-1.929138e-02
-3.320319e-02
5.914096e-02
5.261414e-02
-9.757139e-03
-3.109781e-02
-3.011288e-02
-4.426299e-02
-8.390230e-03
-1.940679e-02
-2.475528e-02
2.692651e-02
-3.012276e-03
1.234994e-02
2.091671e-02
3.990448e-02
4.566281e-02
-1.580322e-02
-2.863146e-03
1.063511e-02
-4.229091e-02
-3.291266e-02
-2.351351e-02
5.888632e-02
3.131256e-02
-2.553076e-02
3.327132e-02
1.089617e-02
-6.197074e-03
1.275497e-02
-8.173360e-03
-3.970328e-02
2.083427e-02
1.360308e-02
2.218142e-02
4.900232e-02
2.819583e-02
2.727016e-02
1.986007e-02
-2.033298e-02
-5.006158e-03
-3.549805e-02
-1.531585e-02
-9.993114e-03
-3.399048e-02
-8.218399e-03
-8.372842e-03
-3.033677e-04
4.516548e-02
3.450279e-02
3.963493e-02
2.509935e-02
-4.777789e-03
2.371181e-02
-8.865532e-03
-1.857864e-02
-9.195641e-03
-2.365599e-02
-3.030062e-02
-2.371478e-02
-3.450647e-02
-5.275310e-03
-2.652981e-02
-4.983466e-02
-2.237468e-02
-1.599392e-02
2.041886e-02
3.582466e-02
-2.388033e-02
-2.604951e-02
-3.273638e-02
1.249993e-02
8.313442e-03
-2.391872e-03
8.284604e-02
5.211628e-02
7.765914e-02
-2.942174e-03
7.417723e-03
1.067453e-02
1.685793e-02
9.629080e-04
4.085170e-03
-7.256039e-03
-1.502557e-02
-3.449185e-02
-9.223226e-03
-3.245057e-03
6.793681e-03
5.134752e-02
4.200043e-02
4.849605e-02
4.333469e-02
4.035750e-02
3.383302e-02
-3.513696e-02
-3.101462e-02
-1.997961e-02
-3.316410e-03
6.510357e-03
-3.321867e-03
4.834933e-02
3.001758e-02
-2.295822e-02
-8.383738e-03
-3.433651e-03
1.166688e-02
6.396298e-03
2.448133e-03
5.119974e-02
3.730530e-03
5.789957e-02
9.673233e-02
-4.351028e-02
-4.492412e-02
-8.037708e-03
-8.729277e-03
-1.178711e-02
4.694147e-03
-2.988090e-03
1.676783e-03
2.503610e-03
-2.299661e-02
-1.871649e-02
-1.707376e-02
-1.595957e-02
5.422229e-03
-2.238283e-02
-2.318643e-02
-3.087873e-02
3.101218e-03
-2.466810e-02
-4.048394e-02
-1.656293e-02
1.509612e-02
-2.342814e-02
-4.341110e-03
6.366644e-02
7.727806e-02
6.522563e-02
-2.005819e-03
-1.263828e-02
-4.795846e-02
5.024533e-02
2.683782e-02
1.597923e-02
1.870356e-02
8.499497e-03
-3.154596e-04
-2.715761e-02
-2.131764e-02
-2.605562e-02
-1.347383e-02
-2.177637e-02
-1.428245e-02
9.611180e-03
-1.128564e-02
-6.818615e-03
5.657132e-03
-4.163563e-02
-6.239937e-02
-2.048108e-02
-5.606788e-02
-6.363823e-02
-3.802239e-02
-3.050551e-02
-1.980258e-02
-1.775406e-02
1.763564e-03
3.845349e-02
-2.083233e-02
-3.529052e-03
6.872144e-02
-3.261876e-03
1.497939e-02
8.069491e-02
-3.816960e-02
-3.198788e-02
-2.656496e-02
-1.662275e-02
-2.276400e-02
1.766587e-02
1.025559e-02
8.057522e-03
5.157790e-02
1.854270e-02
3.246455e-02
1.162659e-02
7.457148e-04
1.053425e-02
-8.081785e-03
1.001788e-02
4.313993e-02
1.466684e-02
-9.839939e-03
-2.203073e-02
-6.690392e-03
-2.755383e-02
-2.234845e-02
-3.895318e-02
1.066348e-02
-9.357433e-03
5.052136e-03
-1.519037e-02
-2.951168e-02
-3.524278e-02
1.226886e-02
-2.437061e-02
-3.231441e-02
4.058966e-02
4.028121e-02
6.977281e-03
-3.131187e-02
-3.604833e-03
-2.611920e-02
-1.897103e-02
-1.788601e-02
-4.192321e-03
-1.945549e-02
-8.013924e-02
-3.069156e-02
-8.164448e-03
3.902078e-03
1.463768e-03
1.139108e-02
3.255108e-02
3.385053e-02
-1.394043e-02
3.006036e-02
3.992438e-02
6.247614e-03
2.397252e-02
3.625146e-03
-2.236555e-03
3.341735e-02
8.876018e-03
-4.773807e-02
-9.557470e-04
-8.947627e-03
8.676881e-03
3.054642e-02
1.507784e-02
8.364980e-03
-8.810113e-03
-1.666039e-02
-3.563902e-03
-7.347795e-03
-6.070032e-03
1.880660e-02
3.976206e-02
2.245797e-02
-1.577088e-03
-1.460246e-02
-8.594443e-03
-5.772808e-04
-4.889587e-03
-2.002142e-02
-1.061870e-02
-1.480110e-02
2.042984e-02
-1.632906e-02
-3.733864e-03
3.959756e-02
-4.055669e-02
-1.612756e-02
3.396399e-02
-1.492525e-02
-1.924316e-02
-2.505217e-02
-2.135195e-02
-3.353128e-02
-2.298541e-02
-1.713155e-02
-3.801071e-02
-3.538205e-02
1.410113e-02
5.061217e-02
7.991628e-02
-6.439444e-03
-8.247601e-03
3.841720e-02
-2.409090e-02
-2.620544e-02
-1.033465e-02
7.795330e-03
7.742995e-03
-8.410611e-03
-1.506792e-02
-2.970086e-02
-6.175155e-02
-1.289923e-02
-3.770972e-02
-9.806521e-03
-1.336654e-03
2.092894e-03
-6.443446e-04
4.617022e-03
-2.186803e-02
-3.289080e-03
2.104210e-02
8.757394e-03
1.867013e-02
-1.546921e-03
3.043752e-02
4.591029e-02
-2.088435e-02
-3.814063e-02
-3.178913e-02
1.271590e-02
4.849427e-03
-1.887669e-02
1.036980e-03
5.055645e-02
3.022411e-03
3.097769e-02
5.154832e-02
3.519618e-02
3.401347e-02
3.446588e-02
1.435534e-02
6.403024e-03
1.315587e-02
1.089062e-02
-2.769120e-02
-3.732220e-02
-4.062453e-02
1.247904e-02
-2.992529e-03
-2.087113e-02
5.509607e-02
2.292564e-02
-3.725555e-04
2.195491e-02
3.960007e-02
2.806048e-02
-4.454901e-02
-1.158799e-02
-3.804777e-03
-3.230518e-02
-2.784430e-03
9.402325e-03
-3.910637e-02
-1.531865e-02
-9.519186e-03
3.940574e-03
1.374546e-02
2.215313e-02
3.644837e-02
9.402503e-04
-1.381675e-02
1.182124e-02
1.249292e-02
-3.599448e-02
1.483542e-02
2.521191e-02
7.711397e-03
9.872225e-04
-7.232268e-03
-1.246914e-02
-5.544244e-03
-1.307787e-02
-1.945860e-02
-4.431606e-02
-4.623623e-02
-3.764616e-02
-2.278735e-02
-3.117257e-02
4.401375e-05
-1.208754e-02
-9.626840e-03
1.377518e-02
-2.405303e-02
-1.736466e-02
-6.031116e-03
8.708602e-03
-2.056532e-02
-2.919845e-02
2.025675e-02
-6.422705e-03
-1.786242e-02
1.591516e-02
9.289360e-03
-8.260916e-03
-2.124722e-02
-1.950150e-02
-1.686353e-02
-3.439955e-02
-2.845582e-02
-3.202487e-02
-6.035351e-03
-1.650959e-02
9.398516e-03
3.891211e-03
-9.749398e-03
1.318519e-02
-5.713002e-03
-6.487084e-03
1.757036e-02
-5.257196e-02
-2.686792e-02
5.406328e-03
-1.426043e-02
2.977004e-03
1.346536e-02
-9.008311e-03
-3.983792e-02
-1.590513e-02
3.791023e-04
-3.079890e-02
-3.632778e-02
5.644599e-04
6.164090e-03
-2.710113e-03
1.222235e-02
1.868364e-02
1.209517e-02
-2.914337e-02
-1.509171e-02
-1.353689e-02
1.468939e-02
8.328336e-03
3.474139e-02
-5.154305e-02
-2.483546e-02
7.965435e-03
-2.799239e-02
-9.067332e-03
-1.342374e-03
-1.484604e-02
-2.336101e-02
-1.370938e-02
-3.830698e-04
-1.055213e-02
8.043893e-03
-1.467672e-02
-2.004942e-02
-2.891365e-03
2.995888e-03
-1.010279e-03
1.113293e-02
-4.027537e-03
-1.035487e-02
1.323603e-02
-1.909605e-02
-4.838587e-03
1.694165e-02
-1.268568e-02
2.367482e-04
-6.030526e-03
-1.859659e-02
-7.069611e-03
-8.781157e-03
-4.052538e-02
-6.936950e-03
2.266487e-03
-2.044901e-02
-3.613848e-02
-3.528440e-02
-1.810808e-02
-9.455028e-03
3.501619e-03
-4.064294e-03
1.564457e-02
1.867639e-02
-6.794369e-03
-2.027659e-02
-5.855463e-03
-4.910160e-03
-2.216256e-02
9.216162e-03
-3.561413e-03
-1.168690e-03
1.865661e-02
2.008289e-02
-5.331463e-03
1.873899e-02
-5.547328e-02
-7.717293e-02
-3.739370e-02
-1.712256e-02
-4.483651e-02
4.216550e-03
-2.321178e-02
-2.249369e-02
3.017610e-03
-9.774764e-03
-1.677346e-02
-1.339810e-02
2.415172e-02
1.942223e-02
1.645380e-02
1.107676e-02
1.632160e-02
3.596896e-02
-2.968163e-02
-4.369512e-02
-1.813547e-02
-4.615716e-03
-3.122266e-02
-2.006081e-02
-1.381268e-02
9.254294e-03
1.354063e-02
-3.644165e-02
-2.238462e-02
-7.206633e-03
-4.750239e-02
-4.917809e-02
-1.260134e-02
-4.556251e-02
-4.205975e-02
-2.851056e-02
-1.869754e-02
-8.652626e-03
-1.614380e-02
-1.272740e-02
-1.128095e-02
-2.481212e-02
-1.202537e-02
-1.894486e-02
3.588829e-03
-1.460569e-02
-1.727507e-02
-6.840711e-03
-1.957554e-02
-2.900216e-02
-1.286165e-02
-5.299391e-03
3.200355e-03
1.081895e-02
-8.568901e-03
2.865512e-03
2.149584e-03
-4.027099e-02
-2.767423e-02
-2.601566e-02
-1.442292e-03
-3.946652e-03
1.081201e-02
2.615851e-02
9.615627e-03
-1.110983e-02
1.053879e-03
1.212879e-03
-2.684103e-02
1.704091e-02
-2.279529e-02
-1.742725e-02
1.160672e-02
-1.766423e-02
1.068823e-02
2.117839e-02
9.642881e-03
3.319908e-02
-2.651144e-02
-2.721689e-02
-2.446827e-03
-1.374496e-02
-2.220609e-02
-7.965473e-03
1.611084e-03
-2.503090e-02
-2.057315e-02
-3.402958e-02
-1.473358e-02
-1.196081e-02
-2.520897e-02
-6.972311e-03
-3.410548e-03
-5.250947e-04
-5.574021e-03
-4.961581e-03
3.999038e-02
1.839735e-02
-7.278545e-03
-1.317854e-02
-3.232967e-02
-4.441297e-02
-8.891912e-03
-3.373804e-03
-2.829046e-02
-1.181899e-02
5.354425e-04
1.077844e-02
-3.195907e-02
-5.346144e-04
-2.049435e-03
-2.131320e-02
-6.138055e-03
4.998344e-04
-1.863693e-02
-2.425130e-02
-3.014446e-02
-6.504985e-03
-6.690417e-03
-2.715743e-02
-2.442720e-02
-1.745361e-02
-3.563812e-02
-8.382193e-03
-6.722463e-03
2.204347e-02
-2.148787e-02
-2.010184e-02
1.160950e-02
-3.503501e-02
-2.040642e-02
6.860276e-03
-4.477731e-03
9.797974e-03
1.806814e-02
1.380773e-03
-1.822856e-02
-2.497910e-02
2.634802e-04
-1.060780e-02
-1.680598e-03
-1.718138e-02
-2.328605e-02
-1.699017e-03
-2.059788e-03
-3.487935e-02
-2.786370e-02
1.046185e-02
1.065783e-02
-1.021254e-02
1.509350e-02
5.640188e-03
2.376739e-02
-3.252562e-03
-1.895777e-02
-2.997028e-03
-8.030456e-03
-3.723606e-02
-5.308798e-02
-1.282257e-02
-1.678350e-02
-1.169782e-03
-3.494161e-02
-3.532502e-02
-2.597592e-02
-1.269514e-02
-1.438646e-02
-1.120012e-02
-1.803374e-02
-3.226664e-02
-2.705641e-02
1.385991e-02
1.910616e-02
7.685198e-03
2.312203e-03
-4.941444e-03
-1.425450e-02
-8.146769e-03
1.279147e-02
6.664846e-03
-3.269143e-02
-1.811477e-02
-9.549339e-03
-9.031584e-03
-9.392284e-03
-8.607721e-03
-3.135139e-02
-3.244669e-02
-2.799665e-02
-2.210145e-03
-2.282122e-02
-3.373365e-04
-6.921157e-03
-2.124844e-02
-2.188623e-03
-2.739749e-02
-3.056253e-03
-5.341443e-03
-1.792302e-02
-2.007488e-02
-1.972629e-02
1.534678e-02
4.263443e-03
-1.198033e-02
-1.879824e-02
-1.043696e-02
-1.625031e-02
-2.061597e-02
-2.021524e-02
-1.616431e-02
-3.895833e-03
3.441959e-03
1.671933e-02
-6.285023e-02
-6.958266e-02
-2.506277e-02
-6.061281e-02
-3.942348e-02
-2.616461e-02
-3.842247e-02
-1.512692e-02
-9.119905e-03
3.888261e-02
1.997703e-02
-2.020126e-03
1.795506e-02
3.478938e-03
8.605794e-03
2.136428e-02
1.031449e-02
2.667876e-02
-9.558857e-03
-1.304283e-02
-5.745010e-03
-3.983227e-03
4.275617e-03
5.792690e-03
-4.980812e-03
1.349921e-02
3.621027e-04
-1.792639e-02
-7.901586e-03
-3.268912e-02
-2.657876e-03
1.572946e-02
-1.313851e-02
-1.498836e-02
-1.507241e-02
-2.003825e-02
-2.792614e-02
-2.539283e-02
-3.592937e-02
-5.451271e-02
-4.615344e-02
-4.521817e-02
4.021742e-03
-3.507407e-03
-2.974065e-03
-8.677461e-03
-1.468424e-02
-1.018176e-02
-1.180885e-02
-2.593397e-02
-3.135348e-02
-1.783725e-02
-3.204340e-02
-2.226769e-02
-1.926320e-02
-1.662035e-02
-2.456465e-02
-1.661628e-02
-1.594621e-02
-2.705259e-02
-8.861974e-03
-1.824628e-02
-2.399254e-02
-8.917123e-03
-1.614162e-02
-1.200211e-03
-1.983929e-02
-8.625819e-03
8.662155e-03
8.441187e-03
2.666394e-02
2.367754e-02
8.239605e-03
6.579282e-03
-7.261760e-03
-1.286317e-02
-8.021898e-03
-1.451117e-02
-3.600394e-02
-3.133846e-02
-9.057069e-03
-6.558289e-03
-1.374772e-02
-7.144331e-03
-2.504791e-02
-2.649559e-02
-1.834295e-02
-2.186483e-02
-7.577897e-03
-3.030427e-02
2.517077e-03
2.142457e-02
1.449256e-02
-3.069103e-03
-2.180785e-03
2.314839e-03
-9.906797e-03
-1.138048e-02
5.294097e-03
1.244149e-02
8.244787e-03
1.355689e-02
-1.009909e-02
-4.805472e-03
4.876849e-04
-3.422745e-02
-6.346238e-02
-5.148061e-02
2.129632e-02
-3.332985e-02
-4.880317e-02
2.333700e-02
-2.226640e-02
-8.616270e-03
2.731175e-03
-7.436513e-03
1.372781e-02
-6.699212e-03
1.606794e-03
3.804209e-03
-1.265723e-02
-8.616819e-03
1.210835e-02
-2.710797e-02
-2.592861e-02
4.206758e-03
-1.651521e-02
-7.698892e-03
-1.150862e-02
1.669464e-03
-3.370050e-04
-3.991899e-03
3.280602e-02
4.753247e-03
-3.435646e-03
-1.093784e-02
-8.062503e-03
5.403851e-03
3.689338e-03
-1.971027e-02
3.557517e-03
1.044371e-02
-1.580541e-03
1.502679e-02
6.515516e-03
-1.379159e-03
6.563147e-03
7.959074e-03
-1.747658e-02
-2.428075e-02
-1.187136e-02
-2.310960e-02
-2.283863e-02
-4.315104e-03
-8.159351e-03
1.504500e-02
-2.960412e-02
-4.956798e-02
-2.747328e-02
-1.120970e-02
-3.839212e-02
-2.921105e-02
-3.737409e-02
-7.031670e-03
-2.834091e-03
-1.784331e-02
-4.345707e-03
7.382482e-04
-1.377764e-02
8.444468e-03
9.795991e-04
6.564132e-03
6.214029e-03
1.738200e-02
6.621641e-03
-6.510667e-03
-7.175428e-03
-6.199820e-04
-2.511868e-02
-3.311672e-02
-3.538285e-03
8.814071e-04
-2.264677e-03
-2.026348e-02
-9.265793e-03
4.235549e-04
-2.648270e-02
-1.795757e-02
2.459260e-03
1.659000e-02
-1.349803e-02
3.797878e-02
1.809209e-02
5.492714e-04
3.329521e-02
1.396530e-02
-9.639162e-03
1.687277e-02
-3.022830e-02
2.856711e-03
1.263448e-02
-1.325905e-02
-6.094091e-03
4.210537e-03
2.475979e-02
4.988579e-03
-6.355277e-03
-5.466971e-03
3.847392e-03
3.733198e-03
-2.473809e-02
-1.778862e-02
-2.144413e-03
-4.158131e-02
-3.720840e-02
-1.900682e-02
-4.370494e-02
-2.978313e-02
-6.706743e-03
-2.521136e-02
-1.569580e-02
-3.749839e-03
3.664197e-03
-1.573291e-02
-2.208167e-02
-1.839114e-03
-3.758850e-02
-2.931223e-03
-3.869567e-02
-7.636590e-02
-5.183032e-02
1.097031e-03
-4.392663e-02
-2.379631e-02
-4.904269e-03
9.950091e-03
-6.628166e-03
-2.048916e-02
5.022993e-03
-1.099793e-02
7.192534e-03
1.135118e-02
-1.298579e-02
-1.361499e-02
-1.099255e-02
1.139237e-02
-7.279267e-03
-8.535878e-03
1.210971e-04
1.004523e-02
1.163665e-02
6.652891e-04
-3.249498e-02
-3.494217e-02
3.539986e-03
-2.489839e-02
-3.132962e-02
-2.390958e-02
1.490882e-02
1.311592e-02
2.055337e-02
2.407608e-03
3.068076e-02
2.248364e-02
2.165278e-02
2.991856e-02
1.417950e-02
-8.810060e-03
-1.088347e-02
2.047111e-02
2.838916e-02
3.028949e-03
-2.808589e-03
2.505589e-02
9.501651e-03
-1.531380e-02
1.937659e-02
4.023712e-02
1.611963e-02
-1.782812e-02
-7.087378e-03
1.530558e-02
5.720945e-03
1.784164e-02
3.063427e-02
8.081365e-03
2.294901e-02
1.457363e-02
4.931000e-02
7.032020e-02
3.778208e-02
2.954662e-03
8.780825e-03
-7.795485e-03
-1.298624e-02
-2.427937e-02
-1.233348e-02
-9.423916e-03
-1.566517e-02
-2.262428e-03
-1.197901e-02
-1.150871e-02
-5.960815e-03
1.350894e-02
-1.844843e-02
1.029399e-02
-1.148184e-02
-1.623397e-02
-8.437836e-03
3.790520e-04
-5.116598e-03
7.616772e-03
5.425404e-03
-1.428399e-02
-1.295053e-02
1.533624e-02
8.966937e-03
-1.032164e-02
-6.953778e-03
-2.138262e-02
-2.193163e-02
-1.483988e-02
-3.380816e-02
-1.893796e-02
3.412232e-02
5.168646e-03
-6.277842e-03
-1.731288e-02
-3.038178e-02
-2.771610e-02
-4.141908e-02
-2.081035e-02
-3.036811e-02
3.190551e-02
1.667983e-03
-2.326817e-02
2.517668e-02
2.835492e-02
3.272608e-02
-1.497114e-02
-8.675224e-05
1.832987e-02
-3.438960e-02
-3.653098e-02
-2.227351e-02
-2.231386e-02
-2.807694e-02
-4.215732e-02
-6.591876e-03
-1.933001e-03
-2.212309e-02
-2.278161e-04
-1.290610e-02
-5.111377e-03
-2.713772e-02
-1.986605e-02
-1.303785e-02
-1.634108e-02
-1.717014e-02
-1.087662e-02
-1.106375e-02
-2.231055e-02
-1.161854e-02
-2.205070e-02
-1.349057e-02
-2.807658e-02
-1.941934e-02
-1.704203e-03
-6.360816e-03
-2.447421e-02
-1.732755e-02
-2.188030e-02
4.792402e-03
-1.298554e-02
-6.404857e-03
-6.428698e-03
-2.229993e-02
-1.378905e-02
-4.325193e-02
-2.828492e-02
-3.661022e-02
-2.510935e-02
-1.673985e-04
-2.535733e-02
1.406444e-02
2.032231e-02
8.810110e-04
1.541342e-02
1.113181e-02
-1.949110e-02
6.766808e-04
1.330022e-02
5.888783e-05
-1.237846e-02
8.874573e-04
2.455024e-02
1.862561e-02
3.191723e-02
3.417313e-02
-4.821387e-03
1.435918e-02
1.706559e-02
-5.984615e-04
-1.506654e-02
-1.313085e-02
2.438825e-02
-3.856850e-03
-4.235303e-03
-8.685010e-03
-1.185318e-02
-8.663805e-03
2.921975e-03
6.916468e-03
-3.727659e-03
-1.494761e-02
-2.982037e-02
-1.254583e-02
-3.088894e-02
-3.689252e-02
-2.864432e-02
-1.745477e-02
-1.067412e-02
1.173430e-03
1.721867e-02
6.018193e-03
-4.142639e-03
2.396451e-03
8.942941e-03
-2.821137e-02
-1.181542e-02
-1.603451e-02
-2.247028e-02
-4.845929e-04
4.724662e-03
6.207087e-03
-3.230514e-02
-1.854529e-02
-6.410798e-03
-3.139231e-02
-2.354733e-02
-1.106662e-02
1.008747e-02
3.001837e-02
4.830860e-02
-9.576738e-03
4.457481e-03
-7.691325e-03
-2.070172e-02
-1.106429e-02
-2.614980e-02
2.749499e-02
-1.290187e-02
9.545092e-03
3.042540e-03
-1.345390e-02
8.814861e-03
-8.893279e-03
-1.723919e-02
-9.724976e-03
9.474306e-03
1.458224e-02
1.650144e-03
1.867478e-02
1.097436e-02
7.461583e-03
-1.325929e-02
-3.561182e-02
-1.583046e-02
7.980147e-03
-1.515369e-02
-2.641532e-02
-8.205551e-03
-1.250495e-02
-5.517139e-03
4.130132e-03
2.589388e-02
1.492739e-02
2.020268e-02
9.616797e-03
-1.256326e-02
1.804773e-02
2.041469e-02
2.394974e-03
4.163431e-03
2.300208e-02
1.367370e-02
2.681017e-02
1.903688e-03
-1.787973e-03
3.954110e-02
2.139925e-02
-2.273915e-02
4.629220e-02
1.501601e-02
-4.469476e-02
1.062574e-02
2.554611e-02
3.984798e-02
3.853848e-03
-1.637290e-02
-1.734282e-02
3.763415e-02
4.788003e-03
1.332465e-03
6.106856e-02
3.330532e-02
3.281849e-02
5.734298e-03
-8.995024e-03
-1.301973e-02
-2.597203e-02
-3.919761e-02
-3.531508e-02
1.764588e-02
-1.450915e-02
6.061789e-03
1.811375e-02
-1.034075e-02
-2.268356e-03
1.479307e-02
4.304149e-03
5.989585e-03
-3.353696e-03
1.293837e-02
2.141711e-02
-2.027991e-03
-1.132724e-02
3.203394e-03
-1.897297e-02
-2.783070e-02
-2.759562e-02
1.609736e-02
-6.372793e-04
1.820455e-02
1.128353e-02
4.872124e-03
6.843142e-03
1.245955e-02
1.485201e-02
-1.946894e-02
1.893563e-03
1.771108e-02
1.060039e-02
9.350450e-03
1.188283e-02
1.303305e-02
-5.438856e-03
-9.805189e-03
-3.511603e-03
1.137349e-02
-2.131588e-02
-3.317593e-02
9.901980e-03
-1.503686e-02
-2.375621e-02
-4.955950e-03
-1.647081e-02
-2.158474e-02
-2.768889e-02
-3.481104e-02
-5.544557e-03
-8.126050e-03
-1.064329e-02
1.279356e-02
-1.043626e-02
-8.711008e-03
-1.194731e-03
1.650373e-02
-6.873266e-03
-2.506904e-02
2.689016e-02
7.543040e-03
-1.554950e-02
3.090312e-02
1.858301e-02
-1.610636e-02
-4.721053e-02
-3.539267e-02
-7.789038e-02
-2.996955e-02
-3.049264e-02
-4.279283e-02
-1.621152e-02
-1.805063e-02
-7.675220e-03
-6.653987e-02
-3.895359e-02
-7.932765e-03
1.293712e-03
-2.356251e-02
-9.664245e-03
-1.402106e-02
-1.096925e-02
-1.893963e-03
1.511853e-02
1.084259e-02
1.058958e-02
2.292151e-02
3.565215e-02
2.343680e-02
1.688983e-03
1.080575e-02
-3.797679e-02
5.619069e-03
1.610637e-02
1.335686e-02
-8.344079e-04
2.960163e-03
1.922882e-02
-9.094444e-03
-1.734465e-02
-3.272748e-03
-1.811846e-02
-3.263538e-03
-1.215231e-02
6.278657e-03
3.085285e-03
-2.879741e-03
-7.230329e-03
-4.376495e-03
4.864966e-03
2.817139e-02
1.544275e-02
-3.144940e-03
4.373052e-03
-2.245373e-03
-8.562852e-03
-1.716381e-03
-1.457284e-04
8.052884e-03
-2.978329e-03
1.135090e-02
7.510533e-03
2.183282e-03
4.604215e-03
-6.153535e-03
2.993866e-05
6.263827e-03
-1.092000e-02
1.096816e-02
-7.584027e-03
-1.443631e-02
6.499352e-03
-2.214072e-02
-3.418932e-02
-1.443760e-02
-3.547771e-02
-3.559038e-02
5.197209e-02
6.051153e-02
7.767946e-02
5.518484e-02
2.603239e-02
4.293079e-02
-8.701343e-05
-7.653839e-03
9.040508e-03
-8.781511e-03
-3.476570e-03
1.284163e-02
2.690933e-02
1.504756e-02
-1.063854e-02
2.097795e-02
1.041391e-02
-5.213621e-03
1.709185e-02
6.923972e-03
-8.458908e-03
-9.139136e-03
-2.766232e-03
2.556983e-03
-1.599639e-02
-1.388071e-02
-1.660665e-02
-6.417748e-03
-2.254854e-02
-2.609208e-02
1.572622e-02
1.118304e-02
-4.737816e-03
1.400569e-03
-2.802524e-03
-1.856584e-03
2.033666e-03
1.566879e-03
1.898474e-02
-8.117344e-03
-2.108103e-02
-2.991517e-03
-3.878711e-03
-9.233410e-03
4.696539e-04
1.610815e-02
4.897895e-03
1.272834e-02
-2.927582e-02
-2.314905e-02
-8.365430e-03
-3.236834e-02
-2.033100e-03
8.532104e-03
1.005401e-02
9.317718e-03
1.424758e-02
1.894389e-02
3.251866e-02
8.080255e-03
-5.538765e-03
-1.123659e-02
-1.086896e-02
-4.179467e-02
-9.605877e-03
1.804235e-03
-9.526137e-03
1.318464e-03
4.176499e-02
-7.113175e-03
-1.711178e-04
-8.480627e-03
2.406020e-02
5.902743e-02
4.948128e-02
3.391999e-02
8.847500e-02
8.087949e-02
-1.729281e-02
-1.416752e-02
-1.644778e-02
2.157701e-02
2.876619e-02
2.822605e-02
3.517862e-02
3.270782e-02
3.217611e-02
-3.093442e-03
3.822477e-03
-9.120259e-03
2.563014e-02
-1.989111e-02
-1.967163e-02
3.479245e-02
-2.424539e-02
-2.886942e-02
2.497942e-02
-9.049995e-03
-1.889016e-02
2.182916e-02
1.048361e-02
5.238072e-03
1.178269e-02
2.989892e-02
1.650030e-02
5.492641e-03
2.328343e-03
8.653251e-03
-5.332363e-03
-3.179333e-03
-1.845711e-02
1.834642e-02
2.030823e-03
4.698656e-03
-5.625191e-03
-1.901354e-02
-2.715249e-02
2.735218e-02
1.652251e-02
4.064073e-02
1.652444e-02
1.906641e-02
2.116945e-02
1.427439e-03
1.091063e-02
7.066840e-03
8.810863e-03
-5.966196e-04
-1.379345e-02
-1.620397e-02
6.401095e-03
-2.299704e-03
2.793493e-02
1.997575e-02
6.098457e-03
-1.983370e-02
-2.935688e-02
-1.557865e-02
-5.111725e-02
-4.504834e-02
-3.198627e-02
-1.859329e-02
-2.951871e-02
-2.069901e-02
1.983447e-02
1.570233e-02
-4.435403e-04
2.089059e-03
-4.256076e-04
-2.116981e-02
-2.874937e-02
-1.575294e-02
-1.873435e-02
-2.875598e-02
-1.047863e-02
-9.673258e-03
-2.459519e-02
-2.135017e-04
-1.202124e-02
-3.131041e-02
-1.277509e-02
-1.214420e-02
-2.948626e-02
-2.586660e-02
-4.363344e-03
-2.665149e-02
-1.819246e-02
3.400975e-03
-4.555210e-02
-4.872111e-02
-1.863433e-02
-3.840578e-03
-7.066347e-03
-7.926214e-03
-5.179927e-03
-6.966174e-03
1.847168e-04
-2.110846e-02
-7.340287e-03
3.880441e-03
-6.476210e-03
-1.218389e-02
3.149664e-03
-1.913456e-02
-2.486227e-03
6.741233e-03
-2.782908e-02
-1.022172e-02
-2.090527e-03
1.164257e-02
2.320576e-03
-8.733173e-03
4.472404e-03
-4.492722e-03
-1.828812e-02
-2.189075e-02
1.537232e-03
-8.706733e-03
-1.281237e-02
-2.402377e-03
-2.489728e-02
8.896342e-03
6.647273e-03
-5.549996e-03
1.295607e-02
-2.128114e-03
-1.557315e-02
1.615589e-04
3.785744e-03
-9.797877e-03
1.989622e-02
1.232943e-02
5.161399e-03
3.961547e-02
9.551917e-03
4.244666e-03
3.547396e-02
4.079306e-02
1.744451e-02
-1.659290e-02
-1.229558e-02
-2.112324e-03
-7.360908e-03
9.432617e-04
-1.323475e-02
1.659354e-03
1.352139e-02
3.600193e-03
1.173835e-02
3.525386e-02
1.303497e-02
-8.161400e-03
-3.273255e-02
-2.900198e-02
1.054119e-02
2.719073e-02
1.599958e-02
4.030772e-03
-1.068512e-02
-1.132470e-02
1.843637e-03
-8.534333e-03
1.283724e-02
-1.195756e-02
-3.694573e-03
1.123798e-02
6.626927e-03
9.306987e-03
5.037646e-03
-7.598401e-03
8.279908e-03
-9.169486e-03
1.937472e-02
6.962219e-03
-2.088736e-02
-8.362007e-03
-1.160770e-02
-1.349767e-02
-5.646199e-03
-1.341548e-02
-6.043350e-03
-3.476718e-03
-3.700382e-03
-7.245829e-03
6.939421e-03
-2.737986e-02
3.469055e-04
4.404565e-03
2.016637e-02
2.092855e-02
-1.576379e-02
-1.773743e-02
-2.033347e-02
-1.496630e-02
-2.874787e-02
-3.421789e-02
3.813412e-03
3.300276e-03
-1.074661e-02
5.093101e-03
-4.326157e-03
6.936080e-03
-1.900688e-02
-6.941039e-03
1.191106e-02
-2.204913e-02
1.288538e-03
8.504892e-03
6.031048e-03
1.318031e-02
2.697644e-02
-8.126084e-03
-4.159382e-03
2.603493e-02
-3.312765e-02
-2.217428e-02
1.521009e-02
-2.284350e-02
-2.870756e-04
1.324393e-02
-1.526892e-02
2.555747e-03
-1.363593e-02
1.105297e-02
7.108854e-03
-8.687142e-03
1.860677e-02
1.144931e-03
-1.357210e-02
2.486484e-03
-5.780750e-03
-1.744618e-02
-8.392235e-03
-1.621584e-02
3.146206e-03
-1.919748e-03
2.791446e-02
1.958332e-03
-1.241210e-02
1.406747e-02
-1.308210e-02
4.468727e-03
1.659992e-02
-8.993605e-04
-2.142306e-02
-3.609089e-02
-2.570087e-02
-3.892801e-03
-6.438922e-03
-1.334098e-03
8.368652e-03
3.410511e-04
1.768759e-02
-3.376637e-03
-9.048422e-03
-1.187092e-03
2.875441e-03
1.085815e-02
5.607692e-03
-2.297672e-02
-1.143572e-02
-3.975077e-03
-6.028895e-03
-1.283411e-02
-2.446846e-02
2.244505e-03
-2.256252e-02
-2.273846e-02
-1.445508e-02
-2.409761e-02
-1.083349e-02
5.934164e-02
1.204922e-02
2.443258e-02
5.857002e-02
3.178705e-02
1.706839e-02
2.465214e-02
1.332481e-02
1.345433e-02
-1.707121e-02
-1.174951e-02
-2.295647e-03
-4.578070e-04
-2.804977e-03
4.953037e-03
1.652076e-03
2.025724e-03
9.303779e-03
-1.023313e-02
-2.983665e-03
-2.840760e-02
7.942189e-03
2.131470e-02
-8.832167e-03
2.862971e-03
8.891334e-03
-1.057809e-02
-1.734396e-02
-1.247678e-02
8.393331e-04
1.870277e-03
6.541950e-03
7.253683e-03
-3.458025e-03
8.799178e-04
-1.220929e-02
5.319197e-03
2.480354e-03
-7.374313e-03
3.129447e-03
9.013574e-03
-6.035312e-03
1.275461e-02
1.444727e-02
-4.673949e-03
1.072138e-02
-6.021584e-03
-8.821241e-03
-2.433553e-03
-9.183019e-03
-1.752346e-02
8.338608e-03
2.588534e-02
2.656855e-02
-8.425763e-03
-8.473287e-03
-1.406017e-02
-1.602661e-02
-1.522900e-02
4.952291e-03
-7.281057e-03
-3.863385e-03
-8.037294e-04
3.269131e-02
-1.863587e-02
-1.801442e-02
2.632068e-02
3.127974e-03
-2.714258e-02
-2.413366e-02
-1.496479e-02
-2.025820e-02
-3.969194e-02
-4.340147e-02
-2.409817e-02
5.146117e-03
-5.829696e-03
-1.236280e-02
1.078655e-02
1.293699e-02
3.546159e-03
-3.852705e-03
-9.979796e-03
-2.099719e-02
4.125098e-02
2.113068e-02
3.867403e-03
1.288855e-02
-1.548159e-03
-1.354408e-02
-3.289113e-02
-1.082739e-02
2.065984e-02
-5.575101e-03
-2.487810e-02
9.077193e-03
-5.163216e-03
-1.469160e-02
-9.945047e-03
-2.869079e-03
-2.086250e-02
-1.382170e-02
-1.013332e-02
-1.637266e-03
-1.253339e-02
-1.780626e-02
1.675614e-02
-2.337379e-02
-2.152013e-02
-3.843552e-02
-1.564912e-02
-1.300898e-02
-4.631621e-02
-2.733371e-02
-1.285009e-02
-1.551881e-02
-2.446168e-03
6.372173e-03
5.724991e-03
-2.850721e-03
-2.095440e-02
-1.855982e-02
-1.658776e-03
1.746359e-02
-5.726858e-03
-1.341162e-02
-3.638390e-03
-2.115800e-02
-2.444919e-04
7.451286e-04
-6.489567e-04
4.810931e-03
2.710807e-03
6.128971e-03
2.523159e-03
-2.205010e-02
-1.743908e-02
1.319236e-02
-5.551224e-04
-1.081955e-03
4.660365e-03
2.470759e-02
1.481777e-02
-1.513147e-02
-2.273257e-02
-2.375145e-03
-2.089284e-02
-1.576958e-02
6.285083e-03
-1.768283e-02
8.668977e-03
3.792025e-04
-1.649989e-02
1.352533e-02
1.427131e-02
2.270482e-02
-8.766388e-03
-1.141757e-02
2.392019e-02
-1.237284e-02
-2.463071e-02
-2.819187e-02
-1.920223e-02
-1.260947e-02
1.157538e-02
1.024246e-02
2.507117e-02
2.904593e-02
-2.052462e-02
-4.019648e-02
1.252316e-03
-1.321534e-02
-1.399068e-02
-3.865774e-03
-6.831992e-03
6.052151e-03
1.588115e-02
3.008934e-02
1.792599e-02
-4.706609e-04
1.434066e-02
-1.326809e-02
-1.149040e-02
4.483288e-02
2.329969e-02
4.633085e-03
-1.039830e-02
-1.653218e-02
-1.831789e-02
1.103527e-02
-8.673314e-03
-8.739779e-03
1.554327e-03
-4.794425e-03
8.412761e-03
-1.023574e-02
-9.199168e-03
-1.100516e-02
1.355954e-02
7.652639e-04
4.475745e-03
1.587835e-02
2.864549e-02
2.322271e-02
-3.988840e-02
1.881963e-03
2.854702e-02
-1.371755e-02
-1.351681e-02
5.424471e-04
4.295614e-04
-7.560391e-03
5.326717e-03
1.734947e-03
-1.791401e-02
-1.120432e-02
9.389576e-03
-5.192282e-03
-8.162464e-03
2.852635e-02
-8.939230e-03
-2.683615e-03
-3.901950e-03
-1.340669e-02
-5.228898e-03
-5.826438e-03
-1.594151e-04
-3.080023e-03
-1.604412e-02
-1.169577e-02
-9.656754e-03
3.297746e-02
2.165402e-02
1.857994e-02
-1.093518e-02
-2.370730e-02
-7.773701e-03
5.639643e-03
2.144750e-02
-8.456369e-03
7.443789e-03
2.412798e-02
2.760125e-03
-2.874816e-02
1.663173e-02
4.211246e-02
-3.472355e-02
-2.398431e-02
-3.619188e-03
-9.576608e-03
-2.246032e-02
-2.498410e-02
3.371933e-02
3.759424e-02
4.126254e-02
2.027324e-03
-2.882294e-03
4.364360e-02
-1.828677e-03
-1.650992e-03
2.299433e-02
-7.258503e-03
1.240702e-03
7.194667e-03
-1.143339e-02
7.901271e-03
-5.631947e-03
2.368378e-03
9.880147e-03
-7.038048e-03
-6.225667e-03
4.142559e-03
2.624651e-03
2.408863e-03
1.343039e-02
3.457543e-03
-2.580642e-03
8.299848e-04
1.963731e-02
1.298239e-02
9.846891e-03
-1.459415e-02
5.294515e-03
-1.769086e-02
2.717515e-05
2.464906e-02
2.218428e-03
-7.923863e-03
-2.372581e-02
1.529100e-02
1.055497e-03
-3.270945e-02
-2.799409e-03
1.636649e-03
-5.345240e-03
-2.759419e-03
-7.436493e-03
-1.125276e-02
5.212970e-03
2.658139e-02
6.969026e-04
-5.473718e-03
-1.593029e-02
8.490475e-03
-1.251723e-02
-3.329355e-02
-2.445730e-02
-2.278761e-02
9.315867e-03
-4.039253e-03
-1.097030e-02
2.051095e-02
1.488528e-02
1.051075e-02
1.994625e-02
4.647187e-03
-3.501256e-03
-7.407693e-03
-2.178940e-02
-9.060905e-03
2.324443e-03
-3.129610e-02
-7.195754e-03
1.295788e-02
5.450133e-03
5.618850e-04
-2.386871e-02
-1.615904e-02
1.018075e-02
-1.695716e-02
2.308164e-02
3.095000e-02
-1.819693e-02
-2.468544e-02
-3.029621e-02
-1.844354e-02
-1.324030e-02
-2.914558e-02
-1.391999e-02
-1.629853e-03
-9.432186e-03
-4.009402e-03
2.071873e-02
-1.095516e-02
3.274235e-03
3.315478e-02
2.205694e-02
8.901350e-03
2.634951e-02
5.864705e-03
-1.057078e-02
-1.593843e-02
1.224841e-02
2.557717e-02
1.797397e-02
1.256962e-02
-6.834724e-04
2.550859e-02
2.032817e-02
-5.307068e-03
1.191019e-02
9.352333e-03
6.859167e-03
-1.949849e-02
-8.250304e-03
-1.382620e-02
-3.809358e-03
1.449146e-02
-1.789379e-03
-1.818904e-02
-1.592326e-02
-9.921538e-03
1.037687e-02
-5.573068e-03
-8.494405e-03
-1.979783e-03
3.566189e-03
-6.807898e-03
-2.544134e-02
-1.683696e-02
-9.241434e-03
-1.838823e-02
-2.761801e-02
-7.330697e-03
-8.709137e-03
-2.703210e-02
-1.045476e-03
-1.395093e-02
-5.289386e-03
3.030236e-03
-1.586251e-03
1.129139e-02
-1.700934e-03
1.354011e-03
-7.141741e-03
-1.432146e-02
-3.977178e-02
-2.499167e-02
-1.851011e-02
-1.035436e-03
3.090633e-02
6.660085e-03
-3.699818e-02
3.635599e-03
-1.644161e-04
3.021902e-02
8.966451e-03
2.342575e-02
1.891408e-02
1.962618e-02
1.855837e-02
2.786518e-02
-3.430059e-03
-1.015568e-02
-3.089605e-02
-2.166059e-02
-3.306271e-02
-6.071252e-03
7.407474e-03
6.957385e-03
-1.524511e-02
2.482370e-02
9.067092e-05
-7.308557e-04
1.154649e-02
4.267000e-03
-3.291776e-02
1.454445e-02
-1.586224e-02
-3.511056e-02
-5.371058e-04
-1.432599e-03
-1.199888e-02
-1.619984e-02
-2.183252e-04
-4.399992e-03
-1.362327e-02
9.267481e-03
3.447535e-02
2.608961e-02
2.386023e-02
3.157498e-02
1.105334e-02
-9.241379e-03
-4.958550e-03
-1.176881e-02
-2.077058e-02
-3.062308e-03
-3.978395e-03
-2.115947e-02
2.815448e-02
1.758087e-02
-1.933851e-02
2.021105e-02
6.937301e-03
-2.059982e-02
-3.367534e-02
-8.492207e-03
-2.540859e-03
1.386058e-02
1.572141e-02
2.386941e-02
-1.891352e-02
-4.343755e-03
1.776812e-02
1.837771e-03
9.825465e-03
-3.521831e-03
5.450679e-03
1.912455e-02
1.740795e-02
2.798788e-02
1.028404e-02
6.433641e-03
2.496581e-02
8.873857e-03
1.905197e-03
-2.156325e-02
-1.193716e-02
1.523045e-03
-8.731733e-03
-2.135946e-02
5.024699e-03
-1.232146e-02
2.618153e-03
-2.053622e-03
4.972997e-04
2.482767e-02
2.123052e-02
1.594522e-02
2.164171e-02
2.404171e-02
-1.464867e-02
-1.459158e-02
2.192691e-02
1.202166e-02
4.128835e-02
3.153827e-02
4.460345e-03
1.439836e-02
1.176975e-03
-9.269536e-03
4.800300e-03
8.296310e-03
-2.745689e-02
-2.523815e-02
2.567981e-02
4.090490e-03
2.791184e-02
5.095153e-02
2.735424e-02
2.609464e-02
-6.784213e-04
-1.998834e-02
-1.383644e-02
-1.052290e-02
-1.419941e-02
3.127908e-03
1.449621e-02
-2.733292e-02
-1.541560e-02
1.545019e-02
9.567995e-03
9.236549e-04
5.464093e-04
1.253093e-02
7.598479e-03
-7.243748e-03
-1.203531e-02
-1.918319e-02
-9.543998e-03
2.009306e-02
2.388935e-03
-2.275866e-02
-1.840100e-03
-2.598330e-02
-1.206415e-02
3.376452e-02
1.772895e-02
-6.861851e-04
-2.336154e-02
-1.793013e-03
-8.660320e-03
-1.482368e-02
-2.273018e-02
-1.545414e-02
-1.027691e-02
-2.146383e-02
1.015813e-03
1.919668e-02
8.884149e-03
1.564733e-02
-4.080843e-03
-1.424381e-02
3.712846e-02
-3.336031e-02
-3.843820e-02
8.682972e-03
9.800769e-03
1.970887e-02
-1.557825e-03
-1.563894e-02
3.646250e-03
9.384613e-03
-6.831954e-03
2.071491e-02
2.408587e-02
-1.109391e-02
6.844424e-04
1.282734e-02
2.476701e-03
-6.924557e-03
3.241612e-03
2.986881e-03
2.841533e-03
1.890625e-02
6.519702e-03
1.680718e-02
2.717530e-02
6.652976e-04
1.550387e-02
1.242860e-02
-1.630280e-02
-1.066600e-02
-4.458109e-03
-2.630997e-02
-2.077662e-02
-3.137625e-02
1.600894e-02
2.271950e-02
-1.196167e-03
2.835270e-02
1.753124e-02
6.318341e-03
5.586420e-02
5.309140e-02
-2.672787e-03
-2.157734e-02
-6.640524e-03
1.443908e-03
-2.633148e-02
-1.100097e-03
1.383607e-02
-3.056893e-02
-4.576934e-02
-1.422310e-02
-6.461627e-03
-1.998112e-02
-1.196096e-03
4.900227e-02
5.071902e-02
2.305738e-02
1.372082e-03
3.475083e-03
9.648919e-03
-3.178603e-03
-2.000810e-02
3.224469e-03
-7.768696e-03
-1.587538e-02
1.363496e-02
6.888269e-03
-1.541955e-02
-3.432632e-02
-8.727208e-05
-2.377234e-02
-1.073960e-02
2.056103e-02
3.247283e-02
2.544106e-02
-2.650839e-02
-1.401119e-02
-5.241998e-03
-2.899074e-02
-2.543743e-02
-1.350283e-02
-1.264908e-02
-5.452142e-03
-1.053974e-02
2.546110e-02
7.878236e-03
1.159534e-02
-2.190261e-02
-1.062135e-02
1.083401e-04
-2.382156e-02
-3.728477e-02
-6.778073e-02
1.885687e-03
5.969090e-03
1.027866e-02
-3.952021e-03
5.110977e-04
2.934171e-02
-1.302495e-02
-4.906605e-03
2.822908e-02
3.286076e-03
-8.892960e-03
-2.647834e-02
2.474574e-02
1.948047e-02
3.212684e-03
-3.394767e-03
-1.873832e-02
9.254511e-03
2.503352e-03
-5.679890e-03
-1.288781e-02
-3.348565e-02
-1.541335e-02
-3.089504e-02
9.910624e-03
-5.263886e-03
6.789988e-03
1.151016e-03
2.326688e-02
2.049390e-02
-2.803974e-02
-1.173349e-02
-2.256286e-02
-2.866292e-02
-3.022296e-02
-2.946587e-02
8.837665e-03
-2.368542e-03
-1.412848e-02
7.032349e-02
3.664841e-02
1.627599e-03
1.488820e-02
4.710001e-03
2.238056e-02
-1.544110e-02
-3.867471e-03
-2.134329e-02
-7.132763e-03
-4.370672e-03
-1.865445e-02
-3.171480e-03
-4.628153e-03
-2.650471e-02
8.324529e-03
-1.214591e-02
3.755408e-03
-2.756794e-03
-1.859260e-02
2.487698e-03
1.475126e-02
7.224849e-03
-4.947122e-03
-2.819153e-02
-2.688924e-02
-5.941499e-03
-2.221092e-03
2.210555e-03
7.470902e-03
2.743377e-02
-2.284035e-03
1.055209e-02
-1.836808e-03
-3.504072e-03
4.949764e-03
1.411760e-02
1.929157e-02
1.508007e-02
1.295742e-02
2.119559e-02
2.846178e-03
-1.849082e-02
-5.071606e-03
-4.345469e-02
1.090700e-02
2.323268e-02
-6.584224e-04
7.998254e-03
1.922831e-02
2.698888e-02
-2.732181e-02
1.845060e-03
7.046577e-03
-6.411564e-03
1.802796e-03
-3.552061e-03
-2.667054e-02
-7.033618e-03
-5.904905e-03
-1.458345e-02
1.956669e-02
2.112858e-02
-1.338664e-02
1.528615e-02
1.763392e-02
-2.514760e-02
-2.330316e-02
-1.665922e-02
3.953049e-02
1.378504e-02
-2.209306e-02
6.273211e-03
-8.677324e-03
-1.521788e-02
-4.788483e-03
-6.862276e-03
-1.902194e-02
-2.294924e-02
1.184164e-02
1.781328e-02
-2.980342e-03
2.409627e-02
3.175475e-02
-1.860980e-02
-5.399012e-03
5.959345e-03
-4.521905e-03
-2.303154e-02
-1.223346e-02
3.644018e-03
-1.036958e-02
-5.882601e-03
1.315849e-02
2.534793e-02
2.526779e-02
2.327171e-04
2.132271e-02
2.944130e-02
-7.550905e-03
1.017251e-02
3.260202e-02
-3.022476e-03
-2.693908e-03
1.390078e-02
3.063399e-03
-6.845687e-03
-4.768181e-03
-1.271761e-02
-1.472652e-04
6.770112e-03
-1.633035e-02
8.299283e-03
-1.255895e-02
1.245679e-02
7.146740e-03
2.919408e-03
6.818931e-03
5.552876e-03
1.532299e-02
6.565608e-03
-3.727232e-03
-4.413924e-03
2.203172e-02
-4.673039e-03
3.679113e-03
7.134920e-03
-1.396916e-02
-2.778918e-03
1.366219e-02
1.408100e-02
1.454839e-02
-1.986553e-02
1.695177e-03
-2.180015e-02
-3.977747e-02
-1.200740e-02
-1.418437e-02
-2.587437e-02
-3.919683e-04
1.269038e-04
1.534810e-02
8.471812e-03
1.209263e-02
-5.891836e-03
5.801962e-03
-2.116310e-03
-4.943260e-02
-8.016374e-03
-4.937227e-03
-3.677421e-03
8.382238e-03
2.450084e-02
1.374005e-02
3.531690e-02
1.763319e-02
9.326502e-04
2.259465e-02
1.264263e-02
1.567360e-04
9.328737e-03
-3.096803e-03
-2.405432e-02
-2.878338e-03
-4.997312e-03
-5.441649e-04
-1.313002e-02
1.366198e-02
3.448921e-02
-8.214896e-03
-1.197044e-02
7.731299e-03
-2.624205e-03
-1.299171e-02
-5.649023e-03
8.117168e-03
-1.430751e-02
5.028605e-03
8.864308e-04
-7.601289e-03
-1.795564e-02
-1.910440e-03
1.301640e-02
1.904482e-02
-5.544015e-03
-1.472166e-02
3.452433e-02
4.073330e-02
3.092938e-02
1.819501e-02
2.118041e-02
1.926846e-02
2.131753e-02
1.897542e-02
1.324303e-02
-7.455856e-03
6.908047e-03
-3.253182e-03
1.264682e-02
3.100452e-02
1.967335e-02
6.935220e-03
4.427514e-03
1.085490e-02
1.817714e-02
3.223766e-02
3.163593e-02
-4.479184e-04
-2.433284e-03
-9.844959e-03
-1.731827e-02
-1.606293e-02
9.544207e-04
-3.792550e-03
-1.638070e-02
-2.708599e-02
1.419507e-02
1.505628e-02
2.350185e-03
2.972203e-02
3.542605e-02
6.560088e-03
4.259244e-03
1.255376e-02
-4.627004e-03
-6.674869e-03
-2.083006e-02
-4.524608e-04
-9.695115e-03
6.772116e-03
2.896953e-02
4.186692e-02
3.370745e-02
1.636800e-02
2.610335e-02
2.339052e-02
-9.980566e-03
-1.818407e-03
-1.953417e-03
-1.591328e-02
1.728228e-02
1.341730e-02
3.374881e-03
1.786379e-03
-7.083351e-03
-1.472443e-02
-8.162219e-03
-6.898880e-03
-4.938662e-02
-3.582583e-02
-2.338984e-02
7.711604e-03
3.455798e-04
1.608405e-02
5.238580e-03
2.888418e-02
4.165041e-02
-1.247225e-02
-4.266882e-03
1.640812e-02
-9.267194e-03
-1.548406e-02
7.240266e-03
3.771644e-02
-2.016863e-02
-1.805629e-02
-2.981781e-03
-5.240220e-03
2.053899e-02
3.607203e-02
1.414142e-02
2.040746e-02
3.352699e-02
1.312695e-02
4.948195e-03
-3.565335e-04
-1.919061e-02
3.213307e-03
-1.905041e-04
3.625922e-02
3.210217e-02
1.273973e-02
5.809962e-02
3.880431e-02
1.286725e-02
-7.481900e-03
-1.552185e-02
-5.238224e-02
-4.939729e-03
1.593136e-02
-8.768870e-03
5.038367e-03
7.566777e-03
9.011753e-03
-3.195279e-02
-2.479154e-02
-3.992333e-02
-2.449731e-02
-4.736569e-02
-4.010790e-02
1.152155e-02
4.767693e-03
-3.283210e-03
-1.047973e-02
1.169065e-02
-1.253081e-02
6.690717e-04
5.833912e-03
-1.895616e-02
2.538574e-02
4.155067e-03
1.736009e-02
3.251809e-02
5.382311e-02
4.567603e-02
2.273280e-02
4.688100e-02
1.604519e-03
-2.964575e-03
2.309882e-02
2.112161e-03
1.038969e-02
2.670434e-02
2.760264e-02
-2.321223e-02
1.461546e-02
3.415607e-02
-2.681384e-02
-4.715926e-03
9.381277e-03
3.240757e-02
3.408078e-02
2.845681e-02
-1.985402e-02
-2.625377e-02
-1.950448e-03
-2.225457e-02
-3.097053e-02
-2.394283e-02
2.839203e-02
2.487250e-02
1.611671e-02
3.733690e-02
3.126226e-02
4.652569e-02
3.231749e-02
2.988221e-02
2.597364e-02
2.574995e-02
2.764630e-03
2.168641e-02
2.256895e-02
1.772561e-02
6.179858e-03
-2.267966e-03
6.496558e-03
-1.212949e-02
5.423975e-03
-1.719780e-03
-9.009694e-04
1.881771e-02
3.038508e-02
2.209205e-02
6.798800e-04
-9.398059e-03
-1.596799e-02
3.304545e-03
-1.120162e-02
-5.242615e-03
3.629295e-03
-2.702336e-02
-2.793026e-02
2.350060e-04
-1.571470e-02
-2.624781e-02
2.264163e-02
1.149425e-02
-3.401809e-03
1.390244e-03
-1.041014e-02
-3.652497e-02
-1.786953e-02
-3.582816e-03
-2.761805e-02
-6.313979e-03
-1.488410e-02
2.408460e-02
1.643546e-02
3.867552e-02
4.953609e-02
2.590590e-02
5.864679e-02
3.315506e-02
-1.661927e-02
-3.030568e-02
-1.088846e-02
1.809432e-02
-2.526243e-02
5.364315e-03
1.824328e-02
-1.860584e-02
1.283546e-02
-2.154381e-02
-2.149707e-02
-3.012517e-02
-1.688028e-02
-1.656587e-02
-1.159368e-02
2.871078e-02
8.416791e-03
3.140304e-02
-4.024765e-02
-2.333419e-02
-2.724534e-02
-5.262346e-02
-5.550926e-02
-1.791768e-02
-2.524014e-02
-2.554064e-02
3.651173e-03
1.027448e-02
-1.863252e-02
-4.178396e-02
9.513984e-03
-3.732368e-03
-2.864040e-02
-9.273301e-03
-1.253263e-02
-3.512623e-03
-4.278080e-02
-4.933906e-02
-2.384902e-02
-3.619043e-02
-5.446542e-02
-4.312243e-02
-2.152737e-02
-2.275503e-02
-6.241587e-03
4.109117e-02
3.772493e-02
2.463077e-02
4.053221e-03
3.108251e-03
8.155021e-03
2.151475e-02
1.428209e-02
-1.877091e-03
3.672733e-03
1.532309e-03
1.603283e-03
5.698363e-03
8.418867e-03
-3.367888e-03
-1.332908e-02
3.887921e-03
-6.292852e-03
-1.400569e-02
-2.645622e-02
-5.219123e-02
-3.976631e-02
-3.881802e-02
-4.454767e-02
-2.764099e-02
-9.427958e-03
-1.028003e-02
-2.134475e-02
-3.044508e-02
-2.898232e-02
2.259964e-02
1.483946e-02
2.117107e-02
-1.048627e-02
-2.149265e-02
-1.172541e-02
-1.456812e-02
-5.144979e-03
-5.246790e-03
-2.548807e-02
-2.880622e-02
-2.528258e-02
-9.149316e-03
-2.043768e-02
-7.527061e-03
-3.707490e-03
-5.428581e-03
-1.645285e-02
-1.121652e-02
-2.433224e-02
-3.101763e-02
-2.674277e-03
-8.604833e-03
-4.267639e-03
-1.723485e-02
-1.321444e-02
-1.419296e-02
1.383634e-03
-2.062953e-03
-2.614536e-02
1.227233e-02
2.460887e-03
-8.503104e-03
-1.002524e-02
-2.308622e-02
-1.383795e-02
4.388293e-02
-1.271257e-02
-2.647682e-02
2.715735e-02
-7.739879e-03
-3.127676e-03
-2.148744e-03
3.166679e-03
2.020029e-02
-1.498304e-02
-1.502240e-02
-2.149175e-02
-7.644387e-03
-2.234363e-03
-2.800607e-02
-2.246016e-02
-9.858797e-03
-1.867943e-03
-1.546046e-02
-1.353791e-02
-2.028839e-02
-1.639176e-02
-8.725695e-03
-1.024333e-02
1.861827e-02
-9.070935e-05
-2.728631e-02
5.281557e-02
-7.349213e-03
-2.323453e-03
-2.048827e-02
1.216421e-02
6.334051e-04
-2.280431e-02
-3.039598e-02
-3.756061e-02
-2.207786e-02
-3.062073e-02
-7.218997e-04
6.338747e-04
-4.891064e-03
2.022812e-03
6.510212e-03
2.274729e-02
2.346795e-02
-6.672902e-03
8.769488e-03
7.396666e-03
4.643763e-03
6.967450e-03
1.449118e-02
-3.380518e-02
-1.560351e-02
-1.194359e-02
-1.965089e-02
7.810023e-03
-1.054007e-02
-1.498490e-02
1.507142e-02
-9.105973e-03
-9.046915e-03
-2.788727e-03
2.951310e-02
9.244046e-03
-2.214669e-03
7.813663e-03
1.000152e-02
2.204225e-03
2.248111e-03
1.789080e-03
7.875780e-03
5.436693e-03
-3.238380e-02
-2.686701e-02
-2.148279e-02
-3.433184e-02
-2.282814e-02
-2.816670e-02
-1.824275e-02
-1.930085e-03
1.917660e-03
1.226634e-02
6.430375e-03
3.141523e-03
3.571585e-03
1.804998e-02
2.673174e-02
-1.216912e-02
-9.075863e-04
9.768819e-03
-4.001570e-03
-2.480995e-02
1.091650e-02
-1.223224e-02
-1.788774e-02
-3.495752e-02
-2.585883e-02
4.165521e-04
-1.337282e-02
3.100153e-02
2.367785e-02
-2.117252e-02
5.037310e-02
1.046079e-02
-1.829287e-02
-1.393711e-03
-1.126769e-02
-3.136659e-02
1.540430e-02
3.906634e-02
3.075595e-02
7.760176e-03
5.521303e-02
5.653973e-02
-2.071315e-02
-2.135186e-02
1.066820e-02
-1.830980e-02
-8.425692e-03
-2.071376e-02
4.058441e-03
2.501697e-03
-1.029836e-02
1.706721e-02
-4.999789e-03
-2.807785e-02
1.951736e-02
3.776272e-02
4.487872e-03
2.835370e-02
4.959862e-02
1.024122e-02
-1.259627e-02
-1.106113e-02
1.706036e-02
-1.098498e-02
-2.428831e-02
-1.488252e-02
9.678063e-03
7.979301e-03
-1.064057e-02
-2.594499e-02
-1.801038e-02
-8.835212e-03
-1.323122e-02
-6.679742e-03
-2.960562e-03
1.533244e-02
2.627449e-02
8.243404e-03
-5.342243e-03
1.498817e-02
6.360278e-03
6.269731e-03
6.260131e-03
4.363424e-03
-6.183017e-03
1.122880e-02
1.104591e-02
8.787714e-03
1.467792e-03
4.610799e-03
1.906291e-02
1.482156e-02
1.472226e-02
-7.857265e-03
-6.211978e-03
1.048185e-03
5.271253e-03
-3.786635e-03
2.597851e-03
8.219426e-03
8.994255e-03
3.577824e-03
4.433189e-02
2.988990e-02
2.941180e-02
2.788339e-02
-1.572323e-02
-4.681768e-02
2.724879e-02
-8.590003e-03
-1.463794e-02
-5.288839e-02
-4.299340e-02
-8.771749e-03
2.183232e-03
3.583153e-03
7.848746e-03
2.658972e-02
2.775831e-02
1.549830e-02
1.444584e-03
1.511474e-03
3.365369e-03
2.371006e-02
-3.061432e-03
1.150488e-02
2.235410e-02
2.455764e-02
1.464189e-03
2.779748e-02
1.359291e-02
-2.153624e-03
-2.062143e-02
9.235826e-03
3.846924e-03
-1.886598e-02
-8.317851e-03
9.146982e-03
-3.010627e-03
-2.593499e-03
1.976798e-02
1.583442e-02
2.973153e-04
-1.885096e-02
-7.421364e-03
6.917866e-04
-1.549952e-02
5.109094e-05
-4.925456e-03
-1.601386e-02
-4.443014e-03
1.438940e-03
-4.527701e-03
-1.207143e-02
1.793743e-02
3.472123e-02
-1.319074e-02
-6.020392e-04
1.769924e-02
9.224902e-03
2.095327e-02
2.653352e-03
4.529126e-02
2.715570e-02
-6.920823e-03
1.860888e-03
-1.070868e-03
-1.351842e-02
1.689973e-02
-1.024419e-02
-2.335226e-02
2.413731e-02
-1.459529e-02
-3.398176e-02
-4.449186e-03
-2.271030e-02
-3.078042e-02
-3.034459e-02
-5.150356e-03
2.970623e-02
-2.583486e-02
-3.717090e-03
9.156368e-03
-1.460667e-02
-1.364178e-02
-1.436199e-02
-2.480262e-02
6.905098e-04
-6.145625e-03
3.946440e-03
1.463154e-02
-9.929371e-03
4.935888e-03
2.962352e-02
9.701204e-03
-1.230308e-02
5.962481e-03
-5.114275e-03
-2.017877e-02
-1.199359e-02
-3.437523e-02
2.268390e-02
1.259760e-02
-8.269851e-04
1.874361e-02
-2.056424e-02
-1.366465e-02
2.609305e-02
1.506026e-02
-1.075225e-02
4.046036e-02
4.258548e-02
1.744374e-02
2.815233e-03
1.986942e-03
-2.131816e-02
3.470115e-03
1.530067e-02
1.871282e-02
-1.773143e-02
4.751260e-03
4.939424e-02
1.873796e-02
2.356609e-02
-7.248453e-03
1.253413e-02
-2.071611e-02
-2.536813e-02
1.566998e-02
1.890042e-02
1.720568e-02
-1.417119e-02
-1.767352e-02
-1.404847e-02
-1.408019e-02
-4.244403e-02
-1.012320e-02
-8.491777e-03
-1.296520e-02
5.393547e-03
4.415237e-02
1.688876e-02
-6.682059e-03
3.152812e-02
1.175612e-02
-7.412736e-03
-2.278349e-02
8.378481e-03
1.387809e-02
9.202841e-03
1.372975e-02
-7.692494e-03
3.281631e-02
3.080730e-03
-1.484723e-03
-1.090152e-02
-3.315536e-02
-1.999452e-02
4.567424e-02
6.678587e-03
-2.132492e-02
-9.209801e-03
-2.808144e-02
-5.841133e-02
-3.649603e-03
-1.728215e-03
-3.875843e-03
1.169237e-02
-2.058779e-02
2.277407e-02
-2.862372e-03
-2.079855e-02
-1.303106e-02
-2.750621e-02
-4.431625e-02
-1.656898e-03
-5.247661e-03
5.329970e-04
-2.140442e-03
1.515571e-02
-3.926742e-03
1.260283e-02
1.478842e-02
-2.673948e-02
-1.366258e-02
2.655108e-02
2.922517e-02
4.029173e-02
-6.818976e-03
1.567742e-02
2.972368e-02
-7.602853e-03
2.841377e-02
1.312339e-02
-1.486786e-02
-1.351867e-02
2.049636e-02
-1.912107e-02
1.413186e-02
2.292320e-02
8.055846e-04
3.346573e-02
3.822502e-02
1.042969e-03
1.798707e-02
2.738017e-02
-1.545192e-02
-2.001593e-02
1.182543e-03
-9.083842e-03
-1.984529e-02
-1.211632e-02
-2.346438e-02
-2.527112e-02
-2.875154e-02
-9.161114e-03
-2.462250e-02
-1.918067e-02
-9.891644e-03
-2.928513e-02
-3.429216e-02
-4.846070e-03
8.651142e-03
2.802993e-02
-8.143527e-03
1.890973e-02
1.309812e-02
-4.211168e-03
8.576848e-03
1.740970e-02
5.050670e-03
-7.782888e-03
-1.495635e-02
-1.746138e-02
-2.172646e-02
-8.661865e-03
7.731473e-03
-1.864151e-02
-1.264010e-02
-1.841606e-02
-4.926422e-04
2.895964e-02
2.141071e-02
3.228828e-02
1.943721e-02
5.269755e-02
4.062118e-02
-1.722220e-04
-6.498791e-03
1.266898e-02
1.738523e-02
-7.774082e-04
8.869118e-03
1.281852e-02
-9.150928e-03
8.321354e-03
-1.363334e-02
7.766027e-03
4.742208e-03
4.355599e-04
2.423829e-03
-5.553917e-03
5.804572e-03
3.053913e-02
-2.229873e-02
-5.011962e-03
2.087074e-03
3.586650e-03
1.609533e-02
5.611766e-03
-1.641706e-02
-4.835938e-04
-1.686324e-03
-3.581094e-04
1.619239e-02
-1.420722e-02
8.951517e-03
-7.999539e-03
-1.530893e-02
-6.013056e-03
1.602210e-02
-1.685528e-02
2.844520e-02
1.234907e-02
-7.210304e-03
4.639234e-03
2.831813e-02
1.342963e-02
4.544254e-03
8.053587e-03
2.494326e-03
-7.562688e-03
-1.161725e-02
-1.326156e-02
-4.300856e-03
2.063951e-02
5.202151e-03
2.283374e-02
3.834622e-02
-1.560823e-02
-2.164554e-02
1.289714e-02
-5.196128e-03
-9.530511e-03
-1.874435e-03
1.995667e-02
1.282667e-03
-8.471760e-03
-9.606839e-03
-5.390605e-03
9.267757e-03
1.105053e-02
2.343445e-02
1.009775e-02
-7.542922e-03
-2.400643e-02
1.122152e-02
-8.539564e-03
-1.511823e-02
5.369844e-04
5.379234e-02
2.577892e-02
-3.199048e-02
3.822063e-02
1.961112e-02
3.338505e-03
1.722438e-02
2.839768e-03
1.338263e-04
-1.237173e-02
1.588581e-03
2.298791e-02
-5.548525e-02
-2.917606e-02
3.000819e-02
-4.805819e-02
5.232428e-02
6.791869e-02
2.898352e-02
-8.255603e-03
2.023638e-02
2.034210e-02
-1.167334e-05
2.647589e-02
-1.941386e-02
-2.411705e-02
-1.607530e-02
1.881002e-03
1.534108e-02
-4.194039e-02
2.579298e-02
2.776516e-02
4.427262e-03
9.243163e-04
-4.135957e-03
-1.007750e-02
3.715250e-02
4.133179e-02
4.102929e-02
2.373743e-02
1.355748e-02
2.324290e-02
5.044401e-03
-2.355887e-02
-1.835047e-02
1.121016e-02
-5.164946e-03
-5.087823e-02
-6.997695e-03
6.093563e-03
-2.780722e-02
-1.855097e-02
-5.311058e-03
-2.221676e-02
-2.266650e-02
-1.693342e-02
-8.066654e-03
-2.332188e-02
-3.648880e-02
-2.554841e-02
-1.963251e-02
-2.493660e-02
-2.257690e-02
3.627894e-02
5.454740e-02
1.798706e-02
2.943179e-02
1.850698e-02
6.662805e-03
-2.815180e-03
-1.690098e-02
-1.190963e-03
-2.575515e-02
-1.079296e-03
3.753171e-02
-2.140543e-02
-8.909243e-03
2.056432e-02
-1.153939e-02
-1.208299e-02
6.124706e-04
2.291564e-02
1.579334e-02
5.772782e-03
-3.551386e-03
4.566079e-03
-1.010698e-03
-4.464138e-02
-2.810395e-02
1.265843e-02
1.534651e-02
2.675144e-02
-1.505484e-02
1.109256e-02
-7.299107e-03
-2.424178e-03
2.838116e-03
-6.903674e-03
9.079413e-03
1.852860e-02
-2.137807e-03
-1.914528e-02
-7.197223e-03
-1.392821e-02
-6.835032e-02
9.917263e-03
6.778334e-03
-1.453266e-02
-1.345678e-02
4.527599e-04
-1.412299e-02
-2.192642e-02
-2.004460e-03
-1.003668e-02
1.511385e-02
-2.157313e-02
-3.462277e-02
-2.528581e-02
3.385320e-03
1.221925e-02
-4.459389e-02
-1.080024e-02
5.413228e-03
-4.028833e-02
-1.284735e-02
1.938508e-02
1.618768e-03
-2.142967e-02
-1.987058e-02
1.946897e-02
4.620617e-03
1.180726e-02
4.234793e-02
3.915214e-02
6.860526e-03
2.435896e-02
-1.118932e-02
1.274467e-02
3.886561e-03
-4.109628e-03
-7.512333e-03
-9.549964e-03
-6.202632e-03
-4.724485e-03
3.693718e-02
7.066637e-02
2.911187e-02
2.252402e-02
6.439145e-02
-3.149442e-03
4.176669e-03
3.111714e-02
1.498525e-02
-1.088136e-02
-2.737555e-02
-4.643560e-03
7.145699e-03
6.475718e-03
1.605189e-03
-1.584546e-02
-5.963424e-04
-3.628667e-02
8.110025e-03
7.710762e-03
5.173517e-04
-9.687183e-03
3.387313e-03
-8.871787e-03
-8.561256e-03
-2.687471e-02
-3.802805e-02
-3.543277e-02
-2.128605e-02
-2.623279e-02
-2.943421e-02
-1.633645e-02
-1.994157e-02
-3.820056e-02
-1.599585e-02
-5.978009e-03
4.509209e-02
4.782178e-02
5.040705e-03
2.491276e-03
2.870215e-02
2.162332e-02
-1.205585e-03
-5.349461e-03
4.110712e-03
1.711008e-02
1.830292e-02
3.615396e-02
2.435317e-02
3.427197e-02
6.321314e-03
-3.150858e-02
2.038225e-03
-3.801409e-02
-3.610098e-02
-3.542817e-02
-7.429875e-02
-9.971062e-03
-1.837625e-02
-4.529361e-02
-1.250936e-02
-2.976712e-03
-1.055200e-02
-1.785109e-02
1.938064e-02
2.621207e-02
4.089827e-02
2.644468e-02
2.167538e-02
1.296173e-02
-1.982781e-02
3.415582e-03
1.593130e-02
3.402174e-02
-9.230064e-03
-1.887592e-02
6.335234e-03
-1.563966e-02
-9.831265e-03
9.369274e-03
1.085318e-02
1.215345e-02
-1.441870e-03
-2.789325e-02
-1.058651e-02
-1.163330e-02
-7.271797e-03
-1.272358e-02
2.023226e-03
7.787317e-03
-2.394993e-02
1.099921e-02
3.358233e-02
1.401934e-02
2.753331e-02
4.080790e-02
3.511106e-03
1.297818e-02
1.648892e-02
3.127132e-03
-1.134403e-02
1.180104e-03
3.285588e-03
-3.638495e-02
-1.207520e-03
1.325603e-02
-2.137500e-02
-4.167342e-03
-3.685725e-03
5.148907e-03
2.935335e-03
-2.489090e-03
2.300174e-03
3.829081e-03
-1.174872e-02
5.145394e-03
2.428071e-02
1.202597e-02
-3.954653e-03
-1.850548e-02
2.062456e-02
4.891376e-03
-1.420810e-02
1.542128e-02
1.876846e-02
1.588434e-02
-2.439036e-03
1.685446e-03
-4.679472e-04
-1.220987e-03
-8.439046e-03
8.235802e-03
-1.112232e-02
1.205687e-02
2.565850e-02
-2.120847e-02
1.431415e-02
7.994374e-03
-3.030000e-02
-1.178885e-02
1.889818e-02
-1.810645e-02
-6.000714e-03
-1.113887e-02
-6.139884e-03
2.270969e-03
1.162719e-02
-5.380677e-03
1.070120e-02
2.044298e-02
-3.275792e-02
-2.410277e-02
-2.507428e-02
1.278694e-02
-1.645639e-03
-7.474295e-03
2.278589e-03
2.200234e-02
-2.767808e-03
-3.178562e-02
-7.768758e-03
-1.131584e-02
-8.464114e-03
-3.030411e-02
4.385679e-03
1.013731e-02
5.763157e-02
4.923146e-02
3.740504e-02
6.457903e-02
5.249839e-02
3.078417e-02
2.622130e-02
1.229192e-03
3.597025e-03
1.347065e-02
-6.024209e-03
-3.247555e-02
-1.761952e-02
-7.475232e-03
8.367652e-02
4.331519e-02
-5.201637e-03
7.340576e-02
6.554797e-02
1.856155e-02
5.451937e-02
3.694484e-02
2.579713e-02
-9.765941e-03
-4.098691e-03
3.247480e-02
-3.427176e-02
6.670373e-04
2.024753e-02
-1.076260e-02
7.339963e-03
9.562865e-03
6.056040e-03
6.960467e-03
1.194297e-02
4.593556e-03
3.029280e-02
-6.830136e-03
-5.142117e-03
2.527377e-02
1.593753e-02
-4.203336e-02
-3.171850e-02
3.154843e-03
-9.395240e-03
-7.075347e-03
-2.655748e-02
-5.133204e-04
1.226368e-02
-1.437768e-02
-3.585371e-02
-2.894094e-02
-3.561843e-02
-7.229722e-04
-7.177631e-03
-2.678409e-02
4.679168e-02
3.169525e-02
6.954931e-03
4.786180e-02
4.327149e-02
3.332067e-02
6.552394e-03
2.942893e-02
2.491328e-02
-1.337291e-02
2.577356e-02
-1.216916e-02
-1.781901e-02
-2.443896e-02
-2.016785e-02
-1.299731e-03
9.443148e-03
-8.710956e-03
1.647121e-02
-2.031866e-04
1.006673e-02
-1.351318e-02
1.329449e-02
-1.480518e-03
-3.610977e-03
4.318847e-03
-2.873603e-03
3.506977e-02
1.713064e-02
-5.728846e-03
2.511168e-02
-1.772885e-02
-3.759869e-02
1.951633e-02
-2.730175e-02
-3.903724e-02
4.099205e-02
1.046489e-02
-1.174057e-02
1.487549e-02
-7.742176e-03
-2.298508e-02
2.273848e-03
-7.941506e-03
-1.635608e-02
-9.337898e-03
-1.356839e-02
-1.904006e-04
2.160158e-03
1.400655e-02
1.764185e-02
-8.317064e-03
1.554849e-03
2.086019e-02
1.454860e-02
3.040571e-02
4.654150e-02
-6.195435e-03
-9.777896e-03
5.031850e-04
-2.182671e-04
7.383092e-03
1.567475e-02
7.121182e-03
4.949422e-03
-1.956207e-03
-3.622141e-04
-3.531566e-03
-2.651552e-02
-1.798241e-02
-1.612172e-02
-7.774314e-03
-6.132867e-03
2.573818e-02
7.316249e-03
-2.353056e-02
-1.464228e-02
-2.970473e-03
-9.786176e-03
-1.369687e-02
-9.432537e-03
-2.205444e-03
-1.207243e-02
-2.596986e-02
-1.120006e-02
-1.845816e-02
-1.967067e-02
1.031156e-02
-4.896893e-03
-2.178218e-02
-2.236352e-02
-1.781110e-02
-1.542509e-02
1.428701e-02
2.103532e-02
1.178598e-02
2.073227e-02
2.183026e-02
1.170276e-02
4.960466e-03
-1.380921e-02
-1.466532e-02
1.493243e-02
1.596455e-02
1.762969e-02
1.692296e-02
2.222087e-02
2.120013e-02
9.426549e-03
6.080054e-03
8.808730e-03
3.775671e-03
1.596645e-03
-1.579094e-02
3.131251e-02
1.591749e-02
5.811680e-03
2.625902e-02
1.869185e-02
2.084301e-02
3.404914e-02
3.535118e-02
3.437604e-02
-1.536221e-03
-9.977780e-04
5.402768e-03
2.725056e-02
-3.529947e-04
6.077545e-03
3.889952e-02
4.535447e-02
2.171019e-02
4.846537e-02
3.545512e-02
8.176508e-03
2.000068e-02
1.731272e-02
1.571567e-03
-3.538631e-03
8.938761e-03
9.057081e-03
1.060215e-02
8.883310e-03
3.347638e-02
-7.506316e-03
-5.189948e-03
1.722455e-03
-2.998783e-03
-1.061724e-02
-4.263228e-03
3.333669e-04
9.521830e-03
-4.931910e-03
1.585989e-02
1.653536e-02
1.527823e-02
1.882637e-02
1.020038e-02
1.472167e-02
1.862516e-02
9.345018e-03
5.527838e-03
-2.382830e-02
-1.951974e-02
-1.067168e-02
5.530707e-03
6.839601e-03
1.182752e-02
1.223386e-02
3.991561e-02
3.002013e-02
6.417416e-03
2.504092e-02
2.333666e-02
-9.080393e-03
-2.623334e-02
-1.916679e-02
-2.001880e-03
-3.062958e-02
-1.403176e-03
2.289103e-02
-9.792481e-03
1.708663e-02
-1.098461e-03
-3.788692e-03
2.001587e-02
1.237304e-02
-1.716998e-02
1.066926e-02
2.598032e-02
2.879346e-02
1.546132e-02
-5.382753e-02
-3.542664e-02
-2.527068e-02
-8.818718e-03
7.900976e-04
6.047133e-03
4.410202e-02
3.479325e-02
4.532960e-02
-1.534402e-02
-3.421847e-02
-4.434599e-02
7.938672e-03
-1.179286e-03
-3.947544e-05
1.024578e-02
2.015247e-03
1.917839e-03
1.201277e-02
8.106002e-03
1.951391e-03
3.497992e-02
1.625941e-02
-3.572374e-04
1.474133e-02
2.465884e-02
7.862869e-03
1.678120e-02
1.033884e-02
1.651992e-03
4.890858e-04
-1.053219e-03
9.667704e-03
-1.445725e-02
2.790900e-03
2.466106e-02
2.592640e-02
2.800556e-02
1.775502e-02
8.379745e-03
9.909860e-03
-5.716211e-03
-3.035693e-03
3.651452e-04
-1.008613e-02
1.143867e-02
-2.120933e-02
-4.555441e-03
4.752983e-03
-1.701856e-02
-1.639440e-02
1.792696e-02
1.554082e-02
-5.276371e-03
-2.532123e-03
-1.006226e-02
-2.511002e-04
-1.317864e-03
-1.470505e-02
-2.691093e-04
2.029754e-02
2.561858e-02
3.338364e-02
-1.454883e-02
-5.724772e-04
-3.405636e-02
-8.653920e-03
-4.885041e-03
-1.537997e-02
1.170052e-02
1.059949e-02
7.289534e-03
-3.799059e-03
-1.419705e-02
-2.067512e-02
2.905589e-03
-8.734414e-03
-6.237446e-03
4.427562e-03
-2.841554e-03
-3.873138e-03
1.778742e-02
1.046560e-02
2.293651e-02
-2.497359e-02
-5.902455e-03
-9.889436e-03
-2.140321e-02
-3.222106e-03
-2.382031e-02
1.273527e-02
-1.357160e-02
5.295498e-03
9.681845e-03
-2.323416e-02
-8.015288e-03
1.680827e-02
1.766670e-02
1.110191e-02
2.369447e-03
6.447159e-04
-2.255331e-02
-3.523092e-03
6.674177e-03
2.035187e-03
-2.023791e-02
1.085994e-02
2.491558e-02
1.646866e-02
5.124915e-02
4.571190e-02
5.266958e-04
1.075297e-02
2.104793e-02
-5.836893e-03
-5.746607e-03
9.520767e-03
-7.283987e-03
-3.705680e-03
-1.086180e-02
1.725817e-02
5.489781e-03
5.043671e-03
7.416282e-03
2.020543e-02
2.567158e-02
-1.149958e-02
-4.363059e-05
8.041774e-03
-1.380210e-02
4.101985e-03
3.744388e-02
-5.161179e-02
-1.474692e-02
7.915182e-03
-9.992018e-03
1.460281e-03
-1.052785e-02
-6.792979e-02
-7.051358e-02
-8.298469e-02
-4.813226e-02
-5.872178e-02
-8.134027e-02
-5.118633e-03
3.338404e-03
1.999621e-02
-7.224133e-02
-2.792470e-02
-1.717023e-02
-3.937066e-02
-2.112326e-02
-4.335772e-02
3.323542e-02
3.793288e-02
4.009934e-02
-2.757514e-02
-1.525407e-02
-3.885669e-03
-2.187525e-02
-1.203065e-02
-1.147847e-02
2.706797e-03
2.551952e-02
4.708517e-02
4.152905e-03
1.523922e-02
2.395794e-02
-4.286492e-03
5.025273e-03
6.651714e-03
2.920746e-03
6.716138e-03
-3.320729e-04
8.847012e-03
1.060205e-02
1.880506e-02
1.541583e-03
1.108010e-02
6.874244e-03
-8.649286e-03
-6.564851e-03
1.096564e-02
1.714955e-03
-1.087905e-02
1.283135e-03
2.046522e-03
-2.295185e-02
-3.852009e-02
1.205970e-02
3.003624e-02
2.612702e-02
1.190760e-02
2.167858e-02
2.440212e-02
2.142542e-02
1.873902e-02
9.422713e-03
-1.453897e-02
-1.412236e-02
-4.019573e-02
-1.488033e-02
-1.050842e-03
-2.192843e-02
1.669012e-02
3.108113e-02
1.054387e-02
1.014061e-02
3.908457e-02
3.492292e-02
-1.367732e-02
1.056502e-02
1.558247e-03
-1.172293e-02
1.678007e-02
9.282838e-03
3.122997e-02
3.058947e-02
5.695292e-02
2.597070e-02
5.692104e-03
3.563953e-02
1.176048e-02
6.818580e-04
5.723367e-03
-8.682219e-03
-1.921765e-02
-8.824010e-03
2.890647e-03
1.170164e-03
-1.367518e-02
1.306288e-02
1.160184e-02
1.270811e-02
4.297134e-02
6.948017e-02
2.147472e-02
8.273295e-03
2.177800e-02
1.114751e-02
-2.043181e-02
-3.672844e-02
-1.563502e-02
8.150021e-03
8.951682e-03
7.377574e-03
-2.066331e-02
-1.595026e-02
8.183043e-03
-4.532343e-03
1.287786e-02
2.181665e-02
-3.270755e-02
-2.936047e-02
-1.473166e-02
-5.414917e-03
-2.393929e-02
-3.312548e-02
1.270447e-02
7.153126e-03
4.007682e-03
1.991303e-02
1.994940e-02
-4.932010e-03
1.206512e-02
2.465545e-03
-9.662809e-03
1.114391e-02
6.933012e-03
9.186742e-04
1.759980e-02
9.398415e-03
1.692567e-03
3.055728e-03
-9.780124e-03
-3.743924e-03
6.270074e-04
-9.751384e-03
-2.581648e-03
4.685783e-02
2.698055e-02
6.597606e-03
2.105671e-02
1.162717e-02
-1.413453e-02
-1.339378e-02
-1.062299e-02
-1.124652e-02
2.327020e-02
2.832107e-02
1.983143e-02
-5.771914e-03
2.048724e-03
1.453759e-02
-1.159023e-02
1.218617e-02
-3.440479e-03
1.640607e-02
1.438807e-02
2.324627e-03
7.543088e-03
1.365042e-02
1.090710e-02
1.110412e-02
1.884588e-02
2.691497e-02
1.693007e-03
-1.612631e-02
-3.051334e-02
1.379351e-02
-7.775870e-04
-1.526677e-02
3.017429e-02
1.781263e-02
1.843536e-02
2.958753e-02
1.719439e-02
4.019992e-03
1.122506e-03
-9.043806e-03
-2.179427e-02
1.286655e-02
9.607202e-03
1.739407e-03
-9.458476e-03
2.383830e-02
1.516056e-02
-3.577146e-02
-2.148459e-02
-1.482071e-02
-3.143897e-02
-1.583646e-02
-1.268216e-02
3.371303e-02
1.776717e-02
1.328333e-02
5.059934e-03
-1.616953e-02
-4.198662e-03
-1.113191e-03
2.819048e-03
1.519857e-03
-2.145576e-02
-2.984090e-02
-4.697167e-02
-2.022193e-02
-1.995161e-02
-6.275879e-02
-3.487734e-02
-2.932490e-02
-5.103405e-02
1.326696e-02
1.499351e-02
1.146705e-02
-5.185363e-04
3.318556e-03
-5.884802e-03
-1.298338e-02
-1.880340e-02
-4.009493e-02
2.456825e-02
3.941089e-02
2.314383e-02
-1.253785e-02
1.528774e-02
1.362329e-02
-8.698136e-02
-6.831118e-02
-6.629044e-02
-5.029984e-02
-2.993511e-02
-8.595903e-03
-1.426058e-02
-7.606338e-04
5.490969e-03
2.724008e-03
-2.102441e-03
-1.679375e-03
1.020598e-02
1.005582e-02
1.336880e-02
1.103344e-02
5.079843e-03
4.056924e-03
2.742603e-02
2.072959e-02
3.263984e-02
-1.313454e-02
-9.015173e-03
2.481210e-03
-1.248097e-02
-1.013984e-02
1.916088e-02
-1.024335e-02
-1.147177e-02
-6.981864e-03
-2.836441e-02
-2.673038e-02
-4.499014e-03
-1.361312e-02
-1.059681e-02
-9.757508e-03
-1.176497e-02
-1.286280e-02
-1.654015e-02
-9.406356e-03
-4.388580e-02
-3.169727e-02
-9.424749e-03
-1.848698e-02
-1.774426e-02
2.037942e-02
3.678670e-02
1.641942e-02
3.858017e-02
1.925946e-02
-2.704405e-03
7.314040e-03
1.825591e-02
4.401294e-03
-2.007018e-03
-8.137521e-03
1.318565e-02
2.925893e-03
-1.236723e-02
-5.434409e-03
4.253387e-03
-1.132848e-02
7.175232e-03
2.654292e-03
-1.385596e-02
-4.310894e-03
1.985150e-02
8.643491e-03
-1.073285e-03
6.520798e-03
5.159808e-03
-3.779999e-03
2.672324e-02
2.631520e-02
2.509002e-02
4.367629e-03
4.597065e-03
2.250597e-02
1.850171e-02
1.312928e-02
1.266806e-02
3.782980e-02
9.762341e-03
9.041863e-03
1.573446e-02
-1.247693e-02
-1.573848e-02
4.213044e-02
2.526563e-02
1.617891e-02
3.457030e-02
1.896212e-02
1.652076e-02
-3.277324e-02
-3.707507e-02
-2.121173e-02
-2.378986e-02
-2.264256e-02
-9.359539e-03
-1.933327e-02
-7.590554e-03
3.058080e-03
3.155661e-02
2.112568e-02
4.413777e-03
1.069138e-02
5.243469e-03
9.415889e-03
1.772570e-02
8.527949e-03
-5.462119e-03
1.639411e-02
2.206420e-03
-6.373976e-03
6.230561e-03
-6.022542e-03
-6.811967e-03
-1.504513e-02
-9.174045e-03
1.477617e-02
-4.343567e-02
-5.523030e-03
-6.817112e-03
-1.214851e-02
-1.589395e-02
-1.127887e-02
5.978778e-03
1.369954e-02
6.305458e-03
1.106215e-03
3.078084e-03
3.880708e-03
-7.691935e-03
6.373420e-03
1.702761e-02
-1.214595e-02
-1.614652e-03
5.919208e-03
-5.891221e-03
-2.651471e-02
-1.921795e-02
-1.229251e-02
-2.224560e-02
-1.772508e-02
-7.647287e-03
5.105699e-03
9.987339e-03
9.824125e-04
-1.101162e-02
-1.868420e-02
6.711305e-03
-1.717509e-02
-5.724251e-03
-2.945158e-03
1.836022e-02
8.041620e-03
1.038664e-02
7.127244e-03
1.189599e-02
-2.256482e-02
-1.631069e-02
-8.901910e-03
-4.562521e-02
-4.221606e-02
-4.776461e-02
-1.728214e-02
-1.979741e-02
-1.535735e-02
-1.320861e-02
-1.394198e-02
-2.774894e-02
-1.489763e-03
-8.805962e-03
-1.796434e-02
3.641941e-03
-2.174810e-02
-1.988175e-03
3.430221e-04
6.040689e-03
1.847015e-02
8.290946e-03
1.395994e-02
2.356314e-02
-3.069988e-02
-2.420751e-02
-1.101803e-02
-2.600698e-02
-1.907583e-02
-1.916953e-02
2.723362e-03
2.474122e-02
4.562587e-02
-6.311866e-03
-2.884856e-02
-1.259205e-02
8.898883e-03
8.881711e-04
-9.481994e-05
2.451954e-03
3.590304e-03
-5.921101e-03
2.325229e-02
3.977563e-02
6.940563e-02
-4.272682e-03
-1.986295e-03
2.618494e-02
-5.533219e-03
-9.607336e-03
2.334472e-02
2.314062e-03
-1.577395e-03
-1.939372e-02
-5.172178e-03
-1.576148e-02
-2.402582e-02
-2.662130e-03
-8.793431e-03
-4.601725e-03
-1.716416e-02
-8.480986e-04
-8.339880e-03
-1.948663e-02
-2.297264e-02
-2.988818e-02
-8.598000e-03
-5.780744e-03
-1.916396e-03
-1.268572e-02
-6.278471e-02
-3.136167e-02
-1.748168e-02
-4.559304e-02
-1.668988e-02
-3.198113e-02
-4.736946e-02
-9.224280e-03
2.217905e-02
8.571421e-03
-3.670224e-02
6.428471e-03
-3.082070e-03
-3.199746e-02
-9.215537e-03
1.633587e-02
7.164747e-03
-1.725130e-02
-4.237679e-03
5.909949e-03
-4.810515e-03
2.154656e-03
2.674893e-02
-2.583252e-02
-1.918670e-02
-1.448884e-02
-8.198739e-04
-7.326901e-03
-3.377706e-02
2.469474e-02
4.873637e-03
2.857268e-03
1.457396e-02
9.436090e-03
6.898004e-03
1.256841e-02
4.751693e-03
2.348028e-02
-2.043326e-02
-1.964350e-02
-2.241941e-02
-2.731756e-03
-3.605436e-02
-3.600472e-02
-2.528981e-02
-1.383601e-04
5.363860e-02
-1.543689e-02
6.622981e-05
7.983094e-03
-9.403151e-03
-1.313289e-02
-1.683371e-02
5.463610e-03
1.644838e-02
2.121281e-02
8.045735e-03
8.698464e-04
8.460696e-03
4.319669e-02
1.237725e-02
3.770421e-03
-1.401963e-03
-1.572964e-02
-1.933463e-02
1.266586e-02
-1.948130e-02
-4.303870e-03
4.499047e-02
4.968156e-03
-4.468914e-03
3.125263e-02
3.416260e-02
4.434903e-02
4.598243e-02
3.910842e-02
3.918259e-02
-2.423603e-02
-4.042476e-02
9.122169e-03
-7.781860e-03
-2.911734e-03
-7.918244e-03
-5.720914e-03
-4.799219e-03
-2.124942e-03
6.061785e-03
1.540711e-02
-1.991214e-02
-5.598758e-03
8.328084e-03
4.902636e-02
1.027713e-02
4.520822e-02
4.617139e-02
1.553916e-02
-8.126610e-03
-2.414364e-03
-8.125583e-03
1.757267e-03
-2.514139e-02
-6.804757e-03
2.071278e-02
1.019448e-02
-2.392752e-02
-2.175880e-02
-1.987996e-02
2.406310e-03
-7.566134e-03
2.262550e-02
2.806208e-02
2.169923e-04
9.274550e-03
-2.187376e-02
8.405285e-03
2.622006e-02
1.971607e-02
9.380273e-03
1.647820e-02
4.071990e-04
-2.341191e-02
-1.576311e-02
3.265118e-02
3.669252e-02
3.288608e-02
-1.448752e-02
-4.386445e-03
-3.941808e-03
-1.331385e-02
2.643557e-03
-1.971713e-02
-1.935480e-02
-1.104221e-02
-3.341869e-03
-2.927760e-02
-3.673741e-02
-2.781147e-02
-3.705909e-03
8.366087e-03
-1.077470e-02
6.854752e-03
1.660899e-02
-1.597352e-03
-1.471000e-02
4.521616e-03
1.341139e-02
-1.181066e-02
-2.615520e-02
-3.213617e-02
4.725782e-03
-6.250200e-03
-1.238688e-02
-1.853980e-02
1.606090e-03
1.470995e-02
-3.111250e-03
-1.685057e-02
-2.799326e-03
-2.879796e-02
-2.981329e-02
-2.985218e-02
-2.225393e-02
-2.035345e-03
-3.257785e-03
-1.802361e-02
-2.734273e-03
1.316516e-02
-9.120730e-03
-1.164731e-02
-2.080778e-03
-6.583378e-03
-2.587722e-03
-4.635095e-03
2.702119e-02
2.707555e-02
2.399136e-02
2.767384e-02
2.807507e-02
1.765110e-02
7.475728e-03
-1.365530e-03
-7.061515e-03
1.414538e-02
2.596004e-02
1.647474e-03
1.620331e-02
8.723585e-03
-4.006067e-03
4.142314e-03
2.673111e-02
2.126684e-02
1.401869e-02
6.699352e-03
1.217032e-02
3.788021e-03
8.978557e-04
-2.744256e-02
1.926685e-02
-2.007263e-03
1.868204e-02
-3.333536e-03
-2.600520e-04
-2.270367e-02
-2.143303e-02
4.467218e-04
-1.858268e-02
-1.067730e-02
8.848735e-03
-1.164201e-03
-8.285183e-03
-1.770286e-02
6.741677e-03
3.495520e-03
1.054115e-02
-5.086157e-03
-1.292736e-02
-2.695922e-02
-2.009749e-02
4.077916e-03
-1.407746e-02
-2.419964e-02
2.155027e-02
2.786431e-02
5.255526e-03
-1.136987e-02
-3.127419e-03
-3.944861e-03
7.682247e-03
-4.705141e-03
1.523677e-02
1.784838e-02
3.247220e-02
3.398830e-03
-2.561930e-03
2.032881e-03
7.617861e-04
5.808409e-04
-2.128185e-03
-3.727156e-03
-2.892728e-04
-7.857163e-03
-2.363926e-03
2.389243e-02
2.331980e-02
1.917921e-02
1.261740e-02
-7.632130e-03
1.284982e-02
3.632204e-03
-3.896297e-03
1.371359e-02
-8.682908e-03
-5.315987e-03
1.085150e-02
-2.405634e-02
-1.816686e-02
-1.151740e-02
-2.076866e-02
-4.185646e-05
-2.552650e-05
4.689081e-03
-9.550882e-04
-2.481412e-02
-5.966201e-03
5.153839e-03
1.078049e-02
-2.291735e-02
-4.427370e-03
7.514648e-03
1.855400e-02
-5.673268e-03
-2.640108e-02
3.408995e-03
-9.866597e-03
-1.354826e-03
-5.596904e-03
-3.896671e-03
-1.051340e-02
5.162395e-03
1.402962e-02
4.154793e-03
-1.502917e-03
1.401177e-02
1.058725e-02
1.968795e-02
1.881523e-02
2.468564e-02
-5.925192e-03
-5.863402e-03
1.535932e-02
-1.262070e-02
-5.476083e-03
5.082046e-03
1.608421e-02
7.759656e-03
-1.599921e-02
-8.635020e-03
-6.195539e-03
-5.903448e-03
-9.950423e-04
-6.332546e-03
-1.157079e-02
-1.245478e-02
-1.125113e-02
-1.063300e-02
8.199070e-03
1.569228e-02
-6.580397e-03
-1.776264e-02
-4.033095e-03
-1.762448e-02
-2.337937e-02
-2.464519e-02
-3.318594e-02
3.578974e-02
3.716885e-02
1.738977e-02
2.288610e-02
2.903846e-02
1.904431e-02
4.322460e-02
2.809069e-02
2.224378e-02
-2.887405e-02
-1.601021e-02
-3.003828e-02
-3.226336e-02
-2.468815e-02
-2.589418e-02
-1.198665e-02
-1.571005e-02
-1.470040e-02
-3.537370e-02
-1.522413e-02
6.550691e-03
-2.985757e-02
9.822837e-03
3.612649e-02
-1.528344e-02
2.140995e-02
3.466963e-02
4.898252e-03
1.650063e-02
2.171228e-02
-7.005007e-03
8.815548e-03
-5.984871e-03
-3.167835e-02
-2.102117e-03
-3.377650e-03
-2.979413e-02
-1.376293e-02
-5.088598e-03
-9.227978e-03
-6.985484e-03
-2.827012e-03
1.444098e-02
3.854093e-03
9.447815e-03
-7.994640e-03
1.829663e-02
3.255919e-02
-1.543334e-02
1.105131e-02
3.241301e-02
-1.138360e-02
1.550826e-02
2.176076e-02
1.189771e-02
-3.390908e-03
-9.771718e-03
1.202690e-02
-1.142971e-02
-1.465664e-02
1.923642e-02
-1.907721e-03
-4.221746e-03
-7.442143e-04
3.029717e-03
-8.941179e-03
-4.300898e-03
-7.354892e-03
-7.457608e-03
-1.037396e-02
-1.872144e-02
-7.361451e-03
4.291959e-02
3.849237e-02
4.678708e-02
1.997050e-02
5.983313e-03
1.072992e-02
1.375259e-02
-9.259004e-03
-1.639588e-02
-1.874424e-02
-3.390756e-02
-1.597586e-02
5.543465e-04
-2.127385e-02
-1.046990e-02
8.244742e-03
-3.750691e-03
-2.300609e-02
-2.246059e-02
-3.315984e-02
-4.327973e-02
-2.071475e-02
-3.276719e-02
-3.682207e-02
-8.948247e-03
-5.490518e-03
-1.518931e-02
-2.019889e-02
-2.437647e-02
-2.437082e-02
1.277952e-02
-3.210049e-03
-1.599325e-03
2.359931e-02
8.883098e-03
1.770307e-02
3.472926e-02
1.022530e-02
1.964393e-02
-1.200046e-02
-1.779735e-02
5.578505e-03
-1.601943e-02
-8.489957e-03
-2.932852e-03
3.567862e-02
3.828536e-02
9.828800e-03
2.356574e-02
2.649681e-02
-2.846221e-03
2.666405e-02
8.850816e-03
6.993083e-03
6.799395e-03
4.014324e-02
2.642437e-02
-3.043817e-02
-3.149480e-03
1.516836e-02
9.826889e-04
-6.674490e-03
-7.288845e-03
8.021212e-03
3.081340e-04
3.593532e-03
-7.282227e-03
-7.098503e-04
1.929816e-02
-3.704856e-02
-1.224220e-02
-6.011295e-03
-2.002127e-02
-3.553563e-04
1.100375e-02
-2.122503e-02
-3.214369e-04
3.271580e-02
2.843655e-02
4.628833e-02
-2.056357e-03
-7.855465e-03
-4.162349e-03
-1.000138e-02
-2.743115e-02
-1.764154e-02
-4.618127e-03
2.682970e-02
3.158960e-02
1.144166e-02
2.745401e-03
2.011621e-03
1.253434e-03
4.604227e-02
2.609610e-03
-2.484970e-02
5.060728e-02
-8.070530e-03
-3.769486e-02
-6.676193e-04
1.360651e-02
1.008820e-02
1.222429e-02
2.059354e-02
-1.604546e-02
4.909205e-04
-1.813548e-02
-1.044863e-02
1.688302e-02
8.267409e-03
2.644834e-02
1.228124e-02
1.025404e-02
1.381186e-02
-1.021373e-02
-2.359987e-02
-2.991774e-02
-1.416354e-02
-3.769166e-02
-1.771020e-02
-1.856340e-02
-1.612012e-03
-1.372943e-02
-1.852143e-02
7.203366e-03
2.887221e-03
-1.440107e-02
-1.043657e-02
4.257168e-04
1.192746e-02
1.579281e-02
3.211456e-02
3.324313e-02
1.759557e-02
1.399307e-02
-1.840105e-03
1.549664e-03
1.155649e-02
-4.567390e-02
-2.050493e-04
2.404695e-02
-2.947771e-02
-4.079278e-03
2.075693e-02
-1.226818e-02
-5.938315e-04
1.165251e-02
7.646511e-03
-1.435015e-02
-1.488431e-02
3.952419e-03
1.614569e-02
1.231640e-02
1.933113e-02
-7.153255e-03
-9.890905e-03
5.129726e-03
-1.320064e-02
-1.945234e-02
2.032697e-02
-9.786745e-03
-7.476674e-03
-1.690170e-02
-1.229501e-03
-2.469242e-03
-6.552751e-03
-1.440178e-02
-1.454758e-02
-4.204799e-03
-1.419764e-02
-1.242410e-02
3.244370e-02
3.190412e-02
4.137927e-03
1.417075e-02
-8.139474e-03
-8.427621e-03
-2.475490e-02
-4.206121e-02
-3.179756e-02
2.319549e-02
1.400143e-03
2.956071e-03
1.222303e-02
1.429621e-02
6.327614e-03
-1.498978e-02
-6.125733e-03
3.027741e-03
-2.860434e-03
-2.802074e-02
-7.177835e-03
8.876000e-02
6.684619e-02
3.760910e-02
2.149681e-02
3.646039e-02
3.944553e-03
-4.267327e-03
1.555605e-02
1.370493e-03
-5.485660e-03
-2.403558e-02
-3.460737e-02
1.198059e-02
-2.936465e-03
-1.928046e-02
4.918154e-02
2.730709e-02
3.245148e-02
-1.936901e-02
-2.101647e-02
-6.077225e-03
-1.902738e-02
-1.526447e-02
-2.067085e-02
-2.912230e-02
-3.980557e-02
3.818250e-03
-4.186928e-02
-5.993661e-03
8.739046e-03
1.954343e-02
7.481087e-03
-2.497715e-02
-5.582371e-03
9.373131e-05
-1.327504e-02
7.966570e-03
1.927826e-03
-6.378258e-03
6.200859e-03
-4.235741e-04
5.432186e-03
-5.607668e-03
5.533392e-03
8.486589e-03
-1.742163e-03
1.700503e-02
3.690038e-02
-2.430249e-02
6.593053e-03
5.654201e-02
2.786421e-03
2.028238e-02
-4.257991e-03
1.691288e-03
7.697057e-03
4.190098e-03
-6.786158e-03
1.412341e-02
1.710710e-02
-2.027521e-02
-1.361961e-02
-1.621987e-02
5.931881e-04
-1.031028e-02
1.056008e-02
-1.971706e-03
1.045575e-02
1.911385e-02
-1.176304e-02
-2.702880e-02
-2.118643e-02
3.140665e-04
-1.663570e-02
-1.240888e-02
-1.302365e-02
-9.507202e-03
5.074466e-03
6.432012e-03
1.311786e-03
1.759437e-02
-4.177965e-03
-1.479730e-02
-1.176143e-02
-2.498541e-02
-2.546192e-02
-1.712568e-02
-1.601692e-02
-2.780920e-02
-2.592159e-02
-4.462181e-03
2.434690e-03
-5.860888e-03
-1.610983e-02
4.778093e-02
4.013622e-02
-2.127495e-02
-3.814780e-02
-1.408484e-02
5.137326e-03
-5.630011e-03
-7.661761e-03
4.852847e-02
7.975473e-02
6.275222e-02
-2.632105e-02
-2.379635e-02
1.875362e-02
1.443196e-02
1.503498e-02
4.668801e-03
1.930602e-02
1.597592e-02
-1.107201e-02
1.175924e-02
8.395040e-03
2.880070e-03
-8.426185e-03
-4.384332e-03
3.206794e-02
1.191138e-02
-4.937326e-03
-1.397615e-03
9.162484e-04
8.093699e-03
-1.271001e-03
-2.348152e-03
-6.258305e-03
-5.244811e-03
-1.108820e-04
-2.087774e-02
-6.010989e-03
-2.087816e-03
-4.556606e-03
-3.787273e-02
-9.709695e-03
-8.308149e-04
-5.842994e-02
-9.226860e-04
-3.451693e-02
-2.839451e-02
2.661712e-03
1.361545e-02
-3.973757e-03
-1.596774e-02
-2.981769e-02
-3.665546e-02
-1.875763e-03
1.053969e-02
-1.060529e-02
1.408695e-02
-1.872675e-03
-2.477297e-02
-4.907813e-03
8.023251e-03
-3.461668e-02
-8.203116e-03
-4.571849e-03
-2.054210e-02
-1.321321e-02
-3.574353e-02
-1.490689e-02
3.913685e-03
-5.251621e-03
-2.084791e-02
1.182808e-02
-2.176943e-03
-5.977320e-03
5.375197e-03
-2.579463e-02
-1.881018e-02
-4.565236e-02
-2.764616e-03
-2.507008e-03
-2.593796e-02
2.175487e-02
1.088679e-02
6.622917e-03
2.099779e-02
4.159763e-03
-2.597859e-02
-1.104625e-02
-1.912595e-02
-1.942072e-03
-2.440733e-02
-3.920378e-04
1.792328e-02
-2.001129e-03
1.261188e-02
-3.698833e-02
5.427393e-04
-9.058744e-03
-4.019300e-02
-1.881931e-02
-3.182073e-02
-1.046557e-02
2.708315e-02
2.541612e-02
-1.824180e-02
-3.936358e-03
-6.037142e-03
-1.010059e-02
-1.676161e-02
-1.196226e-02
1.646604e-02
1.339467e-02
-9.471923e-03
-2.496181e-02
-9.668895e-03
-3.363862e-04
-1.902811e-02
-3.738012e-02
-1.054172e-02
1.894228e-03
7.349044e-04
-9.369748e-03
-3.412440e-02
-1.097029e-02
-3.892389e-02
-3.008118e-02
-4.787942e-02
-7.874060e-02
-1.929341e-03
6.405433e-03
-1.124250e-03
-2.984478e-02
-2.816355e-02
-3.377730e-02
-1.473476e-02
-1.804214e-02
2.542999e-02
-2.572338e-02
-4.162143e-03
4.682797e-03
2.442969e-02
9.598477e-05
1.265022e-02
1.611485e-02
7.940626e-03
7.730984e-03
-1.025622e-04
3.956824e-03
3.295139e-02
-1.426727e-02
-1.073575e-02
8.680394e-03
8.480760e-03
-8.377289e-05
-7.954531e-03
6.873786e-03
-2.206207e-02
-1.062638e-02
-1.946837e-02
-8.976643e-03
-1.892481e-03
-1.938426e-02
1.331223e-02
7.982781e-03
-1.261339e-02
-1.335042e-02
-1.145681e-02
-6.711072e-03
5.657353e-03
4.082894e-04
1.310160e-02
1.317823e-02
5.294132e-03
5.562521e-03
-7.135859e-03
-2.218285e-02
2.737454e-02
2.428293e-02
6.317793e-03
5.472536e-03
1.297566e-02
1.071978e-02
1.854033e-03
-9.033668e-03
-1.293335e-02
-1.343862e-02
-2.655360e-02
2.918874e-03
1.428466e-02
7.334502e-03
1.642407e-02
-1.440887e-02
-2.483690e-02
7.466713e-03
-7.223977e-03
3.574267e-03
1.747365e-02
-1.057005e-04
-9.384992e-03
-6.146983e-02
1.942740e-02
3.986212e-03
1.834398e-04
1.964242e-02
5.503206e-03
5.126297e-04
1.775857e-02
2.429801e-02
2.967886e-02
-3.331163e-03
-5.527657e-03
-3.869985e-02
-2.547529e-02
-1.137792e-02
-2.827837e-02
2.055403e-03
-2.541724e-02
-1.347618e-02
9.077590e-03
1.572867e-02
4.675236e-04
-2.425471e-02
-9.666678e-03
5.515779e-03
-3.662365e-02
-2.084657e-02
-2.856428e-02
-2.062055e-02
1.548648e-03
3.201232e-02
-1.293945e-02
1.699360e-02
2.390675e-02
-2.614848e-02
-1.504197e-02
-1.929706e-02
-1.355721e-03
-5.808293e-03
-5.092456e-03
6.530044e-03
-8.830549e-05
-2.319267e-02
-8.443824e-03
-5.582110e-03
-3.604274e-02
8.549769e-04
-7.600388e-03
-2.407653e-02
-1.184469e-02
3.159749e-03
-6.659182e-03
8.488256e-03
2.290860e-02
1.261051e-02
-1.811166e-02
-3.133338e-02
4.085564e-03
-3.635578e-02
-3.006650e-02
-1.439350e-02
-4.179335e-02
-1.121345e-02
-3.092858e-02
-2.453412e-02
-1.626621e-02
-6.015269e-03
-1.066794e-02
-1.962168e-02
-5.101257e-03
-1.027103e-02
-2.660649e-02
-9.594194e-03
-1.608879e-02
-1.286039e-02
-9.482634e-03
5.614756e-03
1.047754e-02
6.387233e-05
7.382932e-03
2.719329e-04
4.932637e-03
9.391064e-03
1.413001e-02
3.603336e-02
-3.055341e-03
1.235726e-02
3.523644e-02
-1.176714e-02
3.047686e-02
6.376629e-03
1.034070e-02
2.492059e-02
1.234204e-02
-2.772904e-02
1.108538e-02
4.171406e-03
2.107564e-02
2.487416e-02
5.839222e-03
-2.393929e-02
-2.829750e-02
-8.890588e-03
5.517109e-02
3.665254e-02
4.542340e-03
4.784746e-02
2.454108e-02
-2.594823e-03
1.135270e-03
-1.773423e-02
-1.712578e-02
3.245334e-03
-4.866310e-03
-1.466182e-02
1.040168e-02
1.174615e-02
1.174096e-02
1.373137e-02
1.351371e-03
1.238994e-02
-4.347983e-03
-3.404948e-02
-2.630649e-03
2.604865e-03
1.039501e-02
6.874659e-03
4.786522e-03
-1.685356e-03
1.984623e-02
-1.952426e-02
-3.303744e-02
1.796606e-02
-1.936837e-02
-2.168189e-02
6.524758e-03
2.442754e-02
2.074789e-02
8.269118e-03
-6.785864e-03
-5.224168e-03
4.627045e-03
-4.903374e-03
1.072537e-02
9.607858e-03
8.296977e-04
1.449707e-03
6.549275e-03
-3.686444e-02
-4.747085e-02
-4.093769e-02
-9.302272e-03
-1.162943e-02
3.989298e-03
-1.281691e-03
-4.170686e-03
-2.480893e-02
-8.049281e-03
-4.677389e-03
-1.680247e-02
-1.907190e-02
-3.152793e-02
-2.032493e-02
-2.519421e-02
-3.455533e-02
-7.224317e-03
8.045336e-04
-3.556054e-02
-1.680956e-02
7.429317e-03
1.434005e-02
2.967134e-02
-2.936842e-03
-2.763999e-02
-4.016394e-02
-2.978890e-03
-2.959394e-03
-5.013416e-02
6.665169e-03
1.849197e-02
-2.019551e-02
3.918173e-03
4.186676e-03
-1.013821e-02
-8.910281e-03
-6.014253e-03
-1.700269e-02
-1.752112e-02
-7.473628e-03
2.801334e-03
-8.523107e-03
-1.770618e-02
-4.537730e-03
6.351644e-03
8.623891e-03
6.474924e-04
-2.032355e-02
-1.553022e-02
-2.939499e-02
8.508844e-03
-3.224730e-04
-1.297612e-02
2.048798e-03
-2.129906e-02
-2.903803e-02
-5.242218e-03
-8.536235e-03
-1.077005e-02
-2.526850e-02
9.415528e-04
3.394547e-03
2.638730e-02
3.095429e-02
2.283901e-02
2.075055e-02
1.607361e-02
9.453588e-03
-8.686024e-03
3.135397e-03
-4.498681e-03
-8.818373e-03
-2.292983e-03
6.667236e-04
-1.262960e-02
-2.376870e-02
-1.138801e-02
1.326606e-02
4.663044e-02
2.333622e-02
2.016156e-02
3.010479e-02
-8.843580e-03
-1.805170e-02
-2.430314e-02
-3.876987e-02
-1.787977e-04
-1.759654e-02
-3.490057e-02
-3.345363e-03
-2.371250e-02
-4.326260e-02
-1.382231e-02
9.818548e-03
-1.371350e-02
-1.173497e-02
-2.088489e-02
-2.367715e-02
-1.819605e-03
-9.483787e-03
-5.324934e-03
2.469449e-02
1.613246e-02
-3.666810e-03
1.448207e-02
5.447120e-03
-8.949812e-03
2.875788e-03
-1.249350e-02
1.603165e-03
-8.444710e-03
6.604664e-03
1.395632e-02
9.207069e-03
-1.104338e-02
-4.167556e-03
-2.436392e-03
-1.148943e-02
8.611643e-03
-6.816985e-04
1.816370e-02
2.505423e-02
4.483312e-02
4.445883e-02
5.147403e-02
-2.689306e-02
-1.635295e-02
1.651745e-02
-2.141812e-02
6.970767e-03
2.014760e-03
3.654549e-03
-9.600833e-03
-1.235519e-02
1.690642e-02
-1.201030e-02
-2.859502e-03
-7.228434e-03
-1.479003e-02
-4.685019e-03
-1.387920e-02
-2.396872e-02
-2.389078e-02
-2.015920e-02
-1.259011e-03
2.925370e-03
-1.694191e-02
1.839120e-02
-1.318690e-02
-1.909981e-03
-6.381578e-03
1.036797e-02
-2.395758e-02
-2.118297e-02
-4.438723e-03
-3.147610e-02
-3.351087e-02
-5.235400e-02
-9.257239e-03
-9.238020e-03
4.355547e-04
-3.089382e-02
-4.469131e-02
-2.121867e-02
-3.054962e-02
-3.507563e-02
1.016242e-03
-5.228161e-03
-1.488143e-02
-8.129252e-03
-3.381945e-03
-1.550663e-02
2.438914e-03
-7.007119e-03
-2.290584e-02
2.551215e-03
-3.771064e-03
1.488486e-02
-1.819505e-02
4.351758e-03
1.335885e-02
5.694890e-02
-1.099991e-02
3.386426e-02
6.282636e-02
2.669500e-02
1.110549e-02
2.086418e-02
4.310324e-02
2.409985e-02
2.416592e-02
3.200992e-02
1.260528e-02
2.981934e-02
-6.138430e-03
-1.586181e-02
-3.320700e-02
-1.740528e-02
-2.660669e-02
-4.857176e-02
9.444336e-03
-9.171433e-03
-5.088301e-02
-1.025138e-02
-1.325180e-02
-1.645129e-02
-5.742308e-03
2.115369e-02
3.818442e-02
-6.630485e-03
1.345783e-02
1.881693e-02
-3.999673e-03
-1.626986e-02
-9.161281e-03
2.013030e-02
3.686459e-03
1.891523e-02
3.824320e-02
4.174083e-02
3.679146e-02
2.491956e-03
-9.528597e-03
-6.032931e-02
-2.421613e-02
-1.130601e-02
-2.882778e-02
-3.665056e-02
-1.633617e-02
-4.970688e-03
-1.741701e-02
-1.664260e-02
-2.426992e-02
-5.678822e-03
-1.398440e-04
1.892626e-03
6.284735e-03
9.309500e-03
2.154559e-02
-5.180784e-02
-2.640967e-02
2.014578e-02
-3.237611e-02
-2.853119e-02
1.545933e-02
1.009597e-02
7.033596e-03
2.537623e-02
-1.946825e-02
-1.793256e-02
-1.115553e-02
8.179272e-03
3.871430e-03
-5.917429e-03
-1.286724e-02
-2.002877e-02
-2.163115e-02
1.624848e-02
3.080072e-02
1.780383e-02
2.292093e-02
3.275035e-02
1.827574e-02
-1.393003e-02
3.674664e-06
-1.851280e-02
7.301684e-03
-4.921551e-03
-4.632186e-03
3.989608e-04
2.357991e-02
4.251101e-02
-5.826080e-03
1.684659e-02
3.728935e-03
-7.963331e-03
-1.925678e-02
-2.421479e-02
-1.946083e-02
-2.053719e-02
-1.556221e-02
-3.395559e-02
-1.855593e-02
-7.644076e-03
-2.055748e-02
-2.114180e-02
-1.191926e-02
-1.416325e-02
-4.785941e-03
1.106292e-02
1.851472e-02
2.171850e-02
4.737282e-03
3.256086e-02
2.131666e-02
2.166011e-02
1.998994e-02
1.064992e-02
1.067910e-02
-1.296397e-02
-1.041584e-02
-1.596314e-02
-1.940971e-03
3.251451e-02
5.451462e-02
1.287770e-02
3.883933e-02
4.835634e-02
6.685652e-03
1.212986e-02
2.678224e-02
-8.699801e-03
-3.524773e-03
2.820368e-02
-8.262262e-04
1.126989e-02
5.440210e-02
-2.480170e-02
-5.029202e-03
3.986826e-02
-7.619787e-03
-6.711154e-03
-2.144365e-02
6.505344e-03
-1.418028e-02
-8.544669e-03
1.624999e-02
-6.212895e-04
-9.090338e-03
7.991112e-03
1.562124e-02
3.556090e-02
4.793523e-03
1.591470e-03
-4.502287e-03
3.381750e-02
1.512626e-02
3.903803e-03
-3.217500e-03
3.553385e-03
2.017566e-04
1.221685e-02
1.910216e-02
1.768017e-02
2.966467e-02
5.510347e-02
2.433002e-02
1.304418e-02
5.647028e-03
5.595080e-03
9.752978e-03
5.470671e-03
1.136431e-02
7.718623e-03
5.759860e-03
-4.501173e-03
-1.130579e-02
-1.399309e-02
7.178963e-03
-1.577893e-03
-5.713812e-03
1.151262e-02
-2.778738e-02
-1.333117e-02
-1.781707e-02
7.971597e-02
3.510489e-02
2.591778e-02
7.280828e-02
5.989744e-02
7.001230e-02
-1.572718e-02
-2.181080e-02
-1.563551e-02
-1.777142e-02
-9.748129e-03
-1.348954e-02
6.399006e-04
-3.674793e-03
-1.092083e-02
-1.094650e-02
-3.266552e-02
-3.423140e-02
-2.511980e-02
-1.875927e-02
3.051789e-03
-1.396693e-02
1.431598e-03
4.250779e-03
-1.977214e-02
-1.375443e-02
-2.789858e-02
-3.189677e-02
-3.020000e-02
8.186258e-03
-1.212380e-02
-1.110874e-02
1.249975e-03
-2.232521e-03
-3.857651e-02
-1.032753e-03
1.144102e-02
1.475107e-02
1.568069e-02
-1.630759e-02
-5.368758e-03
-5.432317e-03
-5.954641e-02
-4.594053e-02
-3.759301e-02
-3.285450e-02
-4.540177e-02
-2.594704e-02
-2.945771e-03
-5.069010e-03
7.195923e-03
8.239546e-03
3.252477e-02
1.999367e-02
-3.747053e-02
-2.288979e-02
-7.822281e-03
-2.684041e-02
-2.957241e-02
-1.524328e-02
-2.750162e-02
-2.770420e-02
-2.856146e-02
5.548313e-04
9.347918e-03
4.738888e-03
-2.412046e-02
1.261470e-02
5.572131e-03
-2.532601e-02
-1.209306e-02
-9.680827e-03
-2.680725e-02
-2.531102e-02
-2.179768e-02
4.246116e-03
-2.014604e-02
-1.780833e-02
3.019958e-02
9.325748e-03
-6.851616e-05
5.148108e-03
-1.150112e-02
-6.255417e-03
-7.705656e-03
-4.122376e-02
-1.996271e-02
-5.836207e-03
-2.963985e-02
-1.550820e-03
1.769998e-02
1.604335e-02
2.896970e-02
-1.531407e-02
-1.450588e-02
-8.836623e-03
-2.740302e-02
-3.645567e-02
-3.255662e-02
2.499443e-02
6.271931e-03
1.651913e-02
4.066237e-03
1.889402e-02
2.136560e-02
-2.416139e-03
2.655737e-03
-1.563372e-02
-2.392362e-02
-8.292978e-03
-5.925979e-03
-1.140446e-02
5.086779e-03
1.162909e-02
-9.303347e-03
8.016041e-03
2.629788e-02
2.494602e-02
3.188503e-02
4.253440e-02
3.397376e-04
-5.340676e-03
1.769426e-02
-2.411550e-02
-1.798690e-02
-6.277448e-03
-9.320754e-03
4.628377e-03
-2.927897e-03
-3.886601e-02
-3.176545e-02
-2.778726e-02
-3.403924e-02
-1.814913e-02
-1.445106e-02
5.598861e-03
2.191283e-03
1.617530e-02
-1.651835e-02
-7.156201e-03
2.370157e-03
-7.549705e-03
-1.815842e-02
-9.287152e-03
-7.364020e-03
-4.473984e-03
-2.910568e-03
-1.533899e-02
-1.165114e-02
-3.290983e-03
3.661693e-03
2.146147e-02
7.632796e-03
4.386467e-02
3.335232e-02
1.947697e-02
4.146074e-02
-4.582339e-04
5.924928e-03
-4.515953e-03
-1.369552e-02
-2.317986e-02
-3.127639e-02
-3.641525e-02
-4.601903e-02
-1.912153e-02
-2.212720e-02
-1.864266e-02
7.316157e-03
5.224136e-03
-1.033476e-02
1.080776e-02
9.640371e-04
-1.624606e-02
-1.192783e-02
-2.201398e-02
-4.069814e-03
1.237279e-02
1.045274e-03
1.810687e-02
7.344843e-02
6.748442e-02
8.232066e-02
-1.765708e-02
-4.373278e-03
1.832243e-02
-3.659910e-02
-4.416586e-02
-4.320844e-02
-5.970357e-05
6.029406e-03
3.105499e-02
-8.105836e-03
-8.145752e-04
-3.548603e-03
5.792114e-03
-1.200620e-02
-9.191255e-03
1.840301e-03
3.448878e-03
1.491313e-02
-7.525332e-03
-3.685615e-03
-3.379086e-03
5.777200e-03
5.920780e-03
1.857247e-03
-2.115650e-02
-7.734065e-03
-1.918866e-02
-4.069662e-03
3.692735e-03
-1.953114e-02
-2.814028e-02
-4.598222e-03
-6.693454e-04
-3.518822e-02
-2.813973e-02
-2.941595e-02
-3.936733e-02
-5.339902e-02
-3.548621e-02
1.210986e-02
-4.203251e-03
-5.850328e-03
5.645582e-02
1.325459e-02
5.277250e-04
8.116966e-02
8.042809e-02
1.910004e-02
2.312997e-02
7.290332e-03
-5.431791e-02
3.682853e-03
-1.323016e-02
-2.698798e-02
-1.246230e-02
-3.312010e-03
-2.179412e-02
1.870260e-02
1.655786e-02
2.136715e-03
-1.760207e-02
-2.767086e-02
-3.307782e-02
-3.131715e-02
-5.801052e-03
2.276784e-02
-3.181393e-03
1.130820e-02
2.705566e-02
2.582614e-02
-6.131316e-03
7.292205e-03
-2.337682e-02
-7.312603e-02
-4.338907e-02
-2.274778e-02
-3.074784e-02
-3.630713e-02
1.896025e-03
2.920231e-02
3.050044e-02
-3.737391e-02
-9.101008e-03
-2.862490e-02
-7.596354e-03
-3.882133e-03
9.384206e-03
-1.864304e-02
-2.422638e-03
1.314945e-02
-4.732291e-02
-2.490299e-02
-7.563225e-03
-6.916953e-02
-3.728979e-02
-1.778058e-02
1.437643e-02
3.638004e-02
-1.929076e-03
6.033158e-03
1.672660e-02
-1.802921e-02
-5.202631e-03
-1.038494e-02
-2.803726e-02
-1.700214e-02
-2.793055e-02
-3.532514e-03
-6.910154e-02
-5.047107e-02
-3.728707e-03
1.273711e-03
4.223689e-03
4.483659e-02
8.898017e-03
-2.349699e-02
-1.673829e-02
-3.503110e-02
6.250064e-03
9.331965e-02
-5.023706e-02
4.626627e-02
1.364223e-01
-1.407530e-02
-5.152295e-03
1.056589e-02
-3.368585e-02
2.220086e-03
1.739614e-02
-5.348750e-02
-7.090875e-03
1.227745e-02
5.240954e-03
-2.599660e-02
-7.006375e-03
2.212952e-02
3.203061e-03
-1.033802e-03
1.103531e-02
1.315248e-02
2.200521e-02
-4.194144e-02
-4.435338e-02
-4.309430e-02
-2.255039e-02
-8.600531e-03
-1.368071e-02
-1.500535e-03
2.580318e-03
-1.951864e-02
5.974237e-03
-9.848652e-03
1.232916e-02
5.043778e-02
3.631207e-02
1.928769e-02
2.288914e-02
9.082443e-03
-1.483624e-03
3.647450e-02
2.362266e-02
5.316808e-02
1.070725e-02
2.761243e-02
1.759043e-02
-3.117135e-02
-1.445283e-02
-1.835375e-02
1.539367e-02
-1.268465e-02
-4.597512e-02
-1.103107e-03
-3.724967e-02
-5.513090e-02
5.639145e-03
-1.941983e-02
-2.409127e-02
-1.872524e-02
6.095492e-04
-1.606538e-02
-1.974743e-02
5.595102e-04
-5.516983e-03
-2.702921e-02
4.014530e-02
1.736329e-02
3.561967e-02
3.757593e-03
1.944003e-02
1.088331e-02
2.223274e-02
3.697543e-02
1.813204e-03
7.340320e-03
2.874741e-03
-1.989341e-02
-5.054235e-03
3.659079e-04
-2.442839e-02
-8.763299e-03
-1.889211e-02
-6.530288e-03
1.458185e-02
9.261263e-04
5.622733e-02
8.914389e-03
1.821826e-02
1.740495e-02
1.041636e-03
6.238788e-03
2.960248e-02
6.571427e-03
-1.754214e-02
-2.790617e-02
-2.171304e-02
-1.439059e-02
-8.114038e-03
1.972466e-02
1.707419e-02
-1.709174e-02
4.082621e-03
1.173085e-02
-3.914858e-03
-2.066436e-02
-3.969542e-02
-2.265932e-02
-3.484127e-02
-3.716119e-02
-1.174598e-05
-3.121573e-02
-5.568793e-02
-1.577861e-02
-2.324982e-02
-7.737729e-03
-4.532470e-03
-9.409361e-04
-2.513161e-04
9.694641e-03
4.131571e-04
6.074434e-03
1.661782e-02
5.659814e-03
2.145139e-03
7.044109e-03
1.365981e-03
-5.697038e-04
-1.533142e-02
-2.452816e-02
-2.168350e-02
-1.726605e-02
2.597366e-02
2.690992e-02
-2.620014e-03
1.538781e-02
2.631724e-02
1.499861e-02
1.295578e-02
2.198043e-02
-1.277863e-02
-2.907415e-02
-3.254407e-02
-2.934061e-02
-3.105149e-03
-1.198328e-02
-1.534562e-02
1.787677e-03
2.050927e-02
-9.021367e-03
-4.357990e-02
-1.271496e-02
-1.764023e-02
-1.607301e-02
3.412858e-03
-4.592627e-02
-2.633385e-02
1.658459e-02
-3.454293e-03
-3.491655e-02
-3.115808e-02
3.901714e-02
6.637131e-02
5.255560e-02
-4.360078e-03
-6.484319e-03
4.510418e-03
2.151614e-02
3.531912e-02
3.644854e-02
9.031958e-03
1.179084e-02
-1.074914e-02
-1.530030e-02
-1.360051e-02
-6.135109e-03
-2.708991e-02
-9.333426e-03
-6.176008e-03
2.393647e-03
-1.149121e-03
-2.609386e-02
-2.077226e-02
-1.989471e-02
3.013480e-03
6.102161e-03
-1.133430e-04
-2.075557e-03
-4.384870e-02
-7.332208e-03
2.719490e-02
1.289711e-02
1.158903e-02
7.103657e-04
-4.132766e-02
-7.474924e-03
-1.793097e-03
-1.534828e-02
2.810196e-02
4.414345e-02
3.415436e-03
4.649400e-02
4.518437e-02
-1.254047e-02
-3.023471e-03
-1.791008e-05
2.408011e-02
1.404801e-02
-7.830154e-03
5.230891e-02
5.872016e-02
3.024542e-02
1.233959e-02
1.727562e-02
-7.170284e-03
-2.238478e-02
-1.171805e-02
-4.190659e-04
-1.318473e-02
-1.443571e-02
7.670754e-03
-1.244604e-03
-1.376525e-02
1.093906e-02
-2.412712e-03
-4.683705e-03
-1.611604e-03
6.118465e-02
4.307059e-02
1.456989e-02
-2.227476e-02
4.302165e-03
9.371166e-03
-4.736300e-02
-1.671992e-02
-1.148975e-02
1.005495e-02
-1.019071e-02
-3.381509e-02
-1.820920e-02
4.899389e-03
3.107636e-02
-2.161584e-02
6.742324e-03
1.603852e-03
-2.338106e-03
2.143056e-02
-1.991971e-02
-5.676573e-02
-5.339983e-02
-1.761201e-02
6.289472e-02
3.625229e-02
3.697173e-02
-6.005800e-03
-2.817115e-05
-7.063085e-03
6.316579e-03
1.143110e-02
4.536984e-02
-6.566405e-03
-3.640392e-02
1.769377e-03
-2.514761e-02
-4.637889e-02
-2.595537e-02
-2.697837e-02
-2.636581e-02
-3.150142e-02
1.324787e-04
-7.199398e-03
-2.203909e-02
-3.853851e-03
-3.546340e-02
-2.876754e-02
-4.478735e-02
-2.358781e-02
-1.743627e-02
-5.873438e-03
1.512521e-03
-4.838224e-03
3.048452e-03
-6.885910e-03
-2.861465e-02
-2.714586e-02
-1.232118e-02
-1.222574e-02
-7.906505e-03
9.785913e-03
-1.261361e-02
2.331583e-02
1.008623e-02
-1.187199e-02
8.436128e-03
-2.081791e-03
-5.644893e-03
-3.212028e-02
-1.438750e-03
1.438078e-02
-3.304394e-02
-1.856885e-02
-4.695533e-03
5.352338e-03
-2.167768e-03
-1.725114e-02
-3.074929e-02
-1.202025e-02
1.918848e-02
-3.320007e-02
1.026134e-02
1.442505e-02
-1.788059e-02
-3.364993e-02
-4.044337e-02
-2.429438e-02
-1.753572e-02
-3.395157e-02
-3.438054e-02
-4.263879e-02
-5.017090e-02
-1.339800e-02
-1.134507e-02
-2.126926e-03
-1.561537e-02
-1.737634e-03
1.989763e-02
-1.942722e-02
-8.421798e-03
-2.977860e-02
-1.483696e-02
-2.946311e-03
-2.888649e-02
-1.367138e-02
4.999122e-03
-2.914346e-02
1.129175e-02
1.869847e-02
1.814733e-02
3.308724e-03
-8.530124e-03
-4.232650e-03
1.388138e-02
1.334036e-02
2.849422e-02
8.803696e-03
1.546770e-02
2.097222e-02
-3.126532e-03
-2.815525e-02
-2.158186e-02
-2.908707e-03
-3.969485e-02
-2.036448e-02
-2.814608e-03
-3.616540e-03
-2.417776e-04
-2.068174e-02
-1.246026e-02
-1.387790e-02
-3.686489e-02
-2.745898e-02
-2.525686e-02
-4.512218e-02
-5.129158e-02
1.951147e-02
-1.831097e-02
-2.527549e-02
-4.305384e-02
-2.495844e-02
-3.747648e-02
-4.180216e-02
1.061587e-02
-1.445176e-02
-1.931745e-02
-2.211449e-02
-1.981326e-02
-1.117315e-02
-9.069948e-03
-4.868710e-02
-9.097289e-02
4.051987e-02
-6.139290e-03
-5.412657e-02
-1.665971e-02
-1.623172e-02
-2.369848e-02
-4.187509e-02
-2.055516e-02
-3.183053e-02
-2.811879e-02
1.312568e-02
2.069211e-02
-2.427739e-02
-4.744082e-02
-4.212062e-02
-2.101150e-02
-3.069669e-03
-7.822772e-03
-2.463232e-02
8.081164e-03
-8.201168e-04
-1.193637e-02
3.937999e-03
3.129448e-02
-6.135435e-03
-1.557329e-02
-2.371307e-03
-1.235345e-02
-5.703942e-02
-8.203040e-02
2.211152e-02
1.595617e-02
-2.043486e-02
1.305602e-04
-9.795824e-03
-3.470353e-02
2.869996e-02
2.712066e-02
-1.449680e-02
1.327078e-02
3.847596e-02
4.425641e-02
5.030168e-03
1.580699e-02
1.335724e-02
1.507291e-02
-8.502149e-03
-2.089199e-03
-2.573137e-02
-3.784472e-02
-4.570494e-02
-6.900929e-03
-7.867606e-03
-3.249077e-02
2.875586e-02
1.065883e-02
-6.497828e-03
-1.548389e-02
-2.741581e-02
-2.750766e-02
8.953917e-03
-4.085360e-02
-3.335490e-02
1.595360e-02
7.352822e-03
-6.189738e-03
6.000767e-03
6.931985e-03
1.190524e-03
-2.560405e-04
-1.877004e-03
-5.360870e-03
2.506533e-02
2.206894e-02
3.679914e-03
-2.073338e-02
-2.361561e-02
-3.222594e-02
1.530458e-02
-2.085426e-02
-3.400418e-03
1.747738e-02
1.382199e-02
2.088775e-02
-1.238038e-03
2.354187e-02
4.125221e-03
-1.262693e-02
-1.078779e-03
5.590263e-03
1.866288e-02
1.774938e-02
8.858872e-03
-4.194770e-03
1.894069e-05
2.350997e-02
-3.560571e-02
-5.091173e-03
4.409269e-04
1.968862e-02
2.292006e-02
2.644525e-02
-6.186518e-03
-3.425441e-02
-3.647532e-02
-5.895220e-03
7.757717e-03
1.312124e-02
3.428880e-03
9.311764e-03
-3.345319e-03
-5.571689e-03
-1.892637e-02
7.955304e-03
-1.842372e-02
-3.003184e-02
1.119078e-02
-1.969873e-02
-1.019156e-02
-1.345172e-02
9.622863e-03
-9.105175e-03
6.297998e-03
1.893566e-02
2.776009e-02
2.452767e-02
1.699847e-03
4.150655e-04
-9.678260e-03
4.666199e-02
-2.359544e-02
-9.808719e-03
4.203530e-02
9.089395e-03
3.009842e-02
2.519288e-02
4.582192e-02
2.030299e-02
5.080376e-03
1.125734e-02
-4.586515e-03
2.893611e-02
4.059613e-02
2.728938e-04
3.836583e-02
5.275007e-03
-2.978165e-02
-1.071339e-02
3.210418e-03
-2.275934e-03
-1.475915e-02
-3.218260e-02
-2.899028e-02
3.240638e-02
2.984254e-02
2.673949e-02
-1.918099e-02
-1.158071e-02
-2.044483e-02
-5.188245e-02
-3.515147e-02
1.242345e-02
-3.641026e-02
-1.975485e-02
-3.942325e-02
-1.207498e-03
7.752753e-03
2.876171e-03
-1.882284e-02
-2.034080e-02
-1.411444e-03
8.912469e-03
2.370645e-03
2.133546e-02
-6.946430e-03
6.551382e-04
-1.253338e-02
-1.584458e-02
-1.172686e-02
-1.049967e-02
-3.916821e-02
-3.361194e-02
-3.935415e-02
-4.570644e-02
-3.164919e-02
-6.856284e-03
-2.550469e-02
-2.415823e-02
-5.299815e-03
-2.153288e-02
-1.357124e-02
-8.560610e-03
-3.235350e-02
-3.241268e-02
1.573075e-02
-2.452046e-03
-3.207376e-02
3.423362e-02
-1.969409e-02
-9.547547e-03
1.433305e-02
-2.168211e-03
3.905028e-03
1.695323e-03
-1.530209e-02
-3.341145e-03
-2.388959e-02
-1.779541e-02
-1.205580e-02
-2.878978e-02
1.301189e-02
-2.830730e-03
1.336282e-03
-1.666280e-02
9.020805e-03
5.209521e-03
1.221572e-02
2.950840e-02
-5.529318e-03
2.006844e-02
1.137939e-02
2.954258e-02
1.834687e-02
-2.348727e-03
3.894427e-03
1.792256e-03
-5.408362e-03
-1.763233e-02
1.403229e-02
-4.886518e-03
-1.347139e-02
9.805324e-03
-7.075157e-03
-2.021419e-02
-2.147410e-02
-2.631838e-02
-2.869287e-02
1.481511e-02
-1.249802e-03
-1.918009e-02
1.311641e-02
1.718858e-02
-2.087948e-02
1.326483e-02
1.426708e-02
-2.064762e-03
-1.781221e-03
-1.773201e-02
5.256424e-03
2.232893e-02
-1.125300e-02
-1.355231e-02
3.752615e-02
4.625878e-03
-1.162528e-02
1.792684e-02
1.460261e-02
3.120724e-02
-1.695300e-02
-1.618727e-02
1.473028e-02
-1.478504e-02
-4.157325e-03
-1.086946e-02
2.143260e-02
1.068363e-02
3.319548e-02
1.225847e-02
6.631077e-03
8.813067e-03
-9.986633e-03
6.544536e-04
1.449665e-03
1.392277e-02
2.525407e-02
2.460169e-02
-1.415963e-02
-5.314194e-03
-1.761373e-03
-3.239113e-02
-2.974258e-02
-2.495105e-02
7.827613e-02
5.915166e-02
4.507739e-03
2.225195e-02
4.057105e-03
2.237654e-02
-8.757941e-03
-6.843840e-03
9.983171e-03
3.157199e-02
1.851860e-02
1.607786e-02
1.209785e-02
-2.480088e-03
-1.194994e-02
-2.022924e-02
-1.624735e-02
-1.636128e-02
-1.269817e-02
-2.419124e-03
1.815773e-03
-1.684228e-02
1.548468e-03
1.189952e-02
-1.618944e-02
2.629884e-02
1.085077e-02
2.377725e-02
-1.169178e-02
-1.687358e-02
-7.019690e-03
-1.588357e-02
-2.320076e-03
1.368234e-03
-1.263869e-02
-1.911217e-03
5.478291e-03
2.693308e-02
6.953939e-03
1.435820e-02
7.020088e-03
-8.237157e-03
2.066852e-02
-5.966309e-04
-1.368688e-02
5.384606e-02
-1.937258e-03
-3.592097e-02
4.974430e-02
4.247569e-03
-1.971708e-02
1.379284e-02
2.119199e-02
9.963810e-03
3.476414e-02
1.547491e-02
5.883950e-03
1.850766e-02
-3.135661e-03
-1.122407e-02
6.640410e-03
-5.371469e-03
-4.621570e-03
2.507444e-02
-7.143348e-03
-2.025708e-02
5.433099e-02
2.039017e-02
-2.147709e-02
4.655768e-03
6.083813e-04
8.530729e-03
-1.380059e-02
-1.295683e-02
2.169088e-02
-1.187085e-02
-3.217727e-03
1.172338e-02
-9.218255e-03
-6.988118e-03
-4.541697e-03
1.711137e-02
1.234941e-02
-2.462526e-02
1.293512e-02
-6.532169e-03
-2.179960e-02
5.188389e-03
3.351123e-03
-9.452806e-03
-2.340863e-02
-2.723241e-03
-3.727387e-03
-3.064557e-02
-4.545061e-02
-3.752764e-02
-1.272155e-02
-1.367280e-02
-1.072312e-02
-4.592166e-03
-2.577290e-02
-1.527539e-02
-1.425919e-03
-4.778522e-03
-5.891119e-03
2.308069e-02
2.866839e-02
3.744750e-02
2.986476e-03
-9.318832e-03
-3.696045e-02
-3.082767e-02
-4.433336e-02
-4.231405e-02
-3.721441e-02
-3.075771e-02
-5.421582e-02
1.173488e-02
2.548056e-02
-4.683485e-03
2.268324e-02
2.313177e-02
-2.424389e-02
1.449503e-02
4.818074e-03
-1.018642e-02
-1.247663e-03
1.186457e-02
-8.331406e-03
2.787121e-03
1.458521e-02
-4.252185e-03
-8.539946e-04
-1.201732e-03
-7.345550e-03
-1.168273e-02
-3.179987e-02
-3.929972e-02
5.742662e-03
-2.375367e-02
-2.488028e-02
2.991291e-03
7.557849e-03
6.184949e-04
7.726790e-03
3.048470e-02
-4.749226e-03
-1.924070e-02
1.998805e-02
-1.518698e-02
-1.688986e-02
-1.603170e-03
-1.351953e-02
-6.323144e-03
-1.384453e-02
1.631208e-03
9.355656e-03
3.320342e-03
2.105030e-02
2.816395e-02
2.009226e-02
2.040655e-02
-3.522557e-02
-1.772787e-02
1.661298e-02
-2.762491e-03
-3.097195e-02
-7.659798e-03
6.276893e-03
-2.536462e-02
-3.721471e-02
1.631305e-03
6.388909e-04
-6.392722e-03
-5.976487e-03
-1.514176e-02
-1.610238e-02
-3.050631e-02
-2.972299e-02
1.433388e-02
3.139826e-04
-1.943738e-03
-2.921746e-02
7.690992e-04
-2.087905e-02
-3.136250e-02
-3.700928e-02
-3.448022e-02
-2.410409e-02
-3.714131e-02
-3.537374e-02
-1.765074e-02
-1.050669e-02
-2.922521e-03
-1.360316e-02
6.778260e-03
1.871628e-02
1.050014e-02
2.398007e-03
-4.304853e-03
-1.406792e-02
1.756086e-02
-2.610797e-03
-1.507130e-02
6.066062e-03
-1.852295e-02
-2.995241e-02
-4.820435e-03
-1.380952e-02
-8.766446e-03
-2.193717e-02
-2.118842e-02
-2.550043e-02
-2.655504e-02
-7.866293e-03
-1.176326e-02
-1.738164e-02
-8.840450e-03
1.049464e-02
-4.027228e-02
-1.927309e-02
1.707486e-02
-2.570224e-03
1.998769e-02
1.205600e-02
-3.910777e-03
2.653065e-03
-5.797119e-03
-3.713191e-03
-2.526551e-03
1.670085e-02
-2.871570e-02
-3.233931e-02
-2.850947e-03
1.035057e-02
-1.859508e-02
-1.544211e-02
3.007912e-02
1.616890e-02
5.794621e-03
-1.960639e-02
1.078267e-02
1.478423e-02
1.645372e-02
4.489996e-03
2.082176e-02
-2.166611e-03
-7.137665e-03
1.655599e-02
1.338826e-03
1.877421e-02
3.257667e-02
2.492641e-02
9.849091e-03
-7.939420e-03
2.452118e-02
1.256038e-02
4.254333e-03
1.275120e-02
2.077909e-02
-9.655668e-03
-2.267961e-02
2.172938e-02
-9.052419e-04
-1.623070e-02
3.194765e-02
1.861109e-02
-3.816304e-02
1.834900e-03
1.054559e-02
-1.089469e-02
1.141670e-02
-1.032299e-02
-2.924814e-02
-2.156007e-02
-3.221809e-02
-2.457686e-02
-2.685159e-02
-3.169080e-02
-1.175854e-02
1.461692e-02
9.208769e-03
-1.246248e-03
-1.163339e-03
1.562864e-02
7.613483e-03
