-2.200706e-09
-1.194511e-09
-6.744903e-10
-1.935197e-09
-1.795229e-09
-1.777480e-09
-9.491345e-10
-1.535237e-09
-1.090662e-09
8.224434e-09
6.767625e-09
5.664543e-09
7.102707e-09
8.029956e-09
7.124224e-09
6.170718e-09
7.943019e-09
6.822182e-09
1.797065e-09
-1.174148e-09
-2.004366e-09
3.142276e-09
9.635353e-10
-1.262781e-09
2.742190e-09
-8.489725e-10
-1.899428e-09
1.074494e-09
-5.429910e-10
3.087648e-10
5.045021e-10
-3.756389e-10
-6.313453e-10
9.979881e-10
-1.224738e-10
-3.397351e-10
-8.034327e-10
-4.138349e-10
-1.355034e-09
-4.875657e-10
-4.955106e-10
-6.211725e-10
-1.005743e-10
-1.018002e-09
-5.300697e-10
9.460462e-10
1.356439e-09
-8.962099e-10
9.962025e-10
1.983170e-09
7.641567e-11
1.851415e-09
4.362216e-09
1.983921e-09
8.074741e-10
1.622351e-09
1.239716e-09
6.972289e-10
1.648989e-09
1.552197e-09
1.442429e-09
2.410467e-09
2.841694e-09
-8.503158e-09
-4.736998e-09
-9.423107e-09
-1.095467e-08
-6.281886e-09
-5.230080e-09
-1.205266e-08
-1.008770e-08
-1.046320e-08
1.168178e-09
2.074674e-09
-3.576140e-09
-2.182080e-09
2.005561e-10
-2.875194e-09
5.166810e-11
3.960006e-09
5.408727e-11
4.248732e-09
6.327503e-09
4.297406e-09
-1.541560e-10
4.710114e-09
2.584441e-09
-2.648152e-09
2.980430e-09
1.794700e-09
4.697521e-09
5.390470e-09
5.362076e-09
1.585589e-09
-2.244548e-10
-1.666103e-09
1.159961e-08
7.549001e-09
7.703236e-09
4.804033e-10
6.970581e-10
5.926102e-11
9.202646e-10
5.139252e-10
7.114102e-10
4.967644e-10
1.383117e-09
1.569528e-10
-2.492494e-09
-3.464327e-09
-3.785729e-09
-3.570523e-09
-4.363931e-09
-3.871345e-09
-5.927471e-09
-5.836153e-09
-6.034055e-09
1.937941e-09
1.433036e-09
1.593691e-09
1.711744e-09
1.210597e-09
1.671042e-09
2.408848e-09
1.995695e-09
1.973027e-09
9.071830e-09
7.276234e-09
6.296451e-09
6.005929e-09
3.572533e-09
2.041596e-09
6.188741e-09
1.564353e-09
1.399632e-09
1.153070e-09
3.203077e-09
1.103738e-09
2.535194e-09
2.564899e-09
6.016949e-10
2.854670e-09
1.997411e-09
1.943247e-09
-1.117309e-09
-1.680904e-09
-1.167148e-09
-1.274370e-09
-1.007879e-09
-1.712930e-09
-1.288887e-09
-1.981631e-10
-7.245793e-10
-2.785256e-10
2.057048e-10
1.324272e-10
-3.171386e-10
4.379339e-10
-1.059275e-09
-2.054659e-10
-3.132714e-10
3.384961e-10
-3.217880e-10
-8.573424e-10
2.433138e-10
-7.075656e-11
-2.164701e-10
-9.318671e-10
6.678924e-11
-2.502972e-10
-3.521009e-10
7.253165e-11
7.640545e-11
-2.461011e-10
-6.154090e-10
-2.376631e-10
-7.581757e-10
-5.707792e-10
-3.490247e-10
-5.550271e-10
3.067289e-10
6.806881e-10
-3.711168e-10
8.855913e-10
1.014299e-09
5.079934e-10
5.069411e-10
3.967704e-10
2.807753e-10
-1.637154e-10
-1.084971e-09
-5.819213e-10
-5.495186e-10
-7.062210e-10
2.515527e-11
-1.961146e-10
-4.941014e-10
-3.717153e-10
2.654954e-10
-2.610034e-11
-1.018877e-10
-8.385439e-11
8.428599e-11
-1.216592e-10
6.562298e-10
1.010133e-10
-4.069670e-10
1.094549e-10
5.208833e-11
-3.559440e-10
3.646619e-10
-4.926609e-10
-3.530750e-10
1.223749e-09
2.042514e-10
1.979092e-10
-8.801005e-10
-4.639815e-10
-9.937703e-10
-1.276504e-09
-1.913544e-10
-1.330580e-09
-1.071097e-09
-1.056811e-09
-8.092013e-10
-7.375863e-10
1.483924e-10
-1.868360e-10
-6.322564e-10
-1.076255e-10
-1.023002e-09
2.795865e-10
2.376977e-10
-1.370474e-09
-5.851950e-11
3.810132e-10
2.939056e-10
3.402139e-10
1.139667e-10
2.972441e-10
9.614876e-10
5.006049e-10
5.307035e-10
-5.395314e-11
1.221242e-10
-5.356973e-10
-4.178157e-10
-6.456671e-10
-4.522938e-10
-2.395957e-10
-5.024511e-10
-5.089705e-10
-7.735863e-10
-6.369988e-10
-1.354779e-09
-1.548544e-10
-1.081880e-09
-1.836210e-09
-4.704812e-10
-1.661651e-09
-1.577201e-09
1.013034e-09
7.721045e-10
-5.081331e-10
1.982179e-10
7.525333e-10
2.103743e-11
1.538051e-10
1.551725e-10
1.208238e-11
-7.242065e-10
-5.147396e-10
-9.840762e-10
2.228777e-10
-8.802027e-10
-1.016727e-09
-9.722377e-10
-7.275518e-10
-5.653593e-10
1.189272e-09
6.987160e-10
1.515802e-10
7.747449e-10
1.197240e-09
7.853256e-10
7.685828e-10
5.944770e-10
8.697664e-11
-6.009265e-10
-7.083150e-11
1.875882e-10
-2.906993e-10
-5.925731e-11
-5.999524e-10
-3.492325e-10
3.196841e-10
-2.912029e-10
2.011311e-04
1.929400e-04
1.353175e-04
2.021131e-04
1.960728e-04
1.400734e-04
1.724604e-04
1.848100e-04
1.367373e-04
4.295571e-05
3.251545e-05
5.501254e-06
2.335770e-05
2.479444e-05
-8.557637e-06
1.697987e-05
1.212013e-05
-1.451031e-05
-1.312526e-08
-7.927651e-09
-3.106313e-09
-2.630897e-08
-2.232786e-08
-1.660636e-08
-2.022018e-08
-1.733036e-08
-1.281525e-08
6.693100e-11
4.711924e-10
2.891262e-11
5.430391e-10
2.907850e-10
1.267542e-10
-1.140953e-10
6.172256e-10
2.818765e-10
6.288757e-05
3.861960e-05
2.738147e-05
7.137770e-05
3.404438e-05
1.805285e-05
4.715111e-05
1.073516e-05
9.194699e-06
-1.788180e-05
-1.565197e-05
-1.055084e-05
1.188145e-06
3.979994e-07
-3.788823e-06
-2.931173e-05
-2.593880e-05
-2.061224e-05
-4.154050e-05
-6.981672e-06
1.460396e-05
-7.755132e-05
1.306817e-05
2.269332e-05
-1.833775e-04
-6.618159e-05
-3.829519e-05
1.502812e-04
1.150192e-04
7.409467e-05
1.554902e-04
8.264287e-05
3.739339e-05
9.526311e-05
4.468886e-05
2.285936e-05
1.122509e-04
1.146958e-04
1.192491e-04
1.217089e-04
1.384124e-04
1.383294e-04
9.821910e-05
1.178006e-04
1.184558e-04
-1.359060e-04
-1.344737e-04
-1.984237e-04
-1.198029e-04
-1.420032e-04
-1.801728e-04
-1.730694e-04
-2.361941e-04
-2.399698e-04
5.565383e-05
5.124491e-05
2.594590e-05
5.772057e-05
4.087522e-05
1.112751e-05
3.480095e-05
2.775183e-05
7.969330e-06
1.960678e-05
4.607710e-05
5.137754e-05
6.255813e-05
7.443943e-05
7.949601e-05
1.348218e-04
1.499109e-04
1.450842e-04
2.021401e-09
1.751010e-09
-3.435671e-10
3.478054e-09
3.498400e-09
5.355727e-10
3.176533e-09
3.966866e-09
2.821742e-10
3.461321e-05
4.243651e-05
3.674608e-05
4.328914e-05
5.024036e-05
3.368612e-05
5.986762e-05
6.152253e-05
2.725561e-05
-1.477862e-04
-2.235786e-04
-1.368108e-04
-3.578757e-04
-3.357423e-04
-2.675899e-04
-3.196001e-04
-3.204343e-04
-1.902286e-04
1.076363e-10
-9.796595e-12
-4.030483e-10
-1.064345e-09
-1.287739e-09
-1.283265e-09
-1.130913e-09
-9.316375e-10
-1.538480e-09
-6.717958e-03
-7.388357e-03
-1.440041e-02
-3.062232e-03
-4.284712e-03
-1.481159e-02
1.422752e-03
2.354671e-03
-7.239123e-03
-3.011003e-03
-2.506523e-04
1.607223e-03
-4.493922e-03
-2.352247e-03
-1.084683e-04
-7.661000e-03
-4.236104e-03
-9.835609e-04
4.186735e-08
1.080465e-08
-1.904958e-08
4.744756e-08
1.352055e-08
-2.238139e-08
4.353044e-08
3.622410e-08
-1.275657e-09
-1.965482e-10
-6.337059e-10
1.430956e-10
-1.076834e-09
-1.180158e-09
-9.091868e-10
-7.937722e-10
-3.848714e-10
-2.208392e-10
1.822951e-03
-4.491883e-03
-9.068133e-03
-1.807345e-03
-6.783802e-03
-1.211822e-02
1.254413e-03
-4.395517e-03
-9.687872e-03
-3.826725e-03
1.190061e-03
2.001397e-03
-5.053654e-03
4.602598e-04
3.300072e-04
-5.832379e-03
-3.632097e-04
-1.290115e-03
-2.170487e-02
-2.584910e-02
-7.861845e-03
-1.724103e-02
-1.875682e-02
-7.680722e-03
-2.326005e-03
4.642751e-03
-2.320483e-03
1.375176e-03
-4.322093e-03
-1.139799e-02
-2.403047e-03
-8.662081e-03
-1.629789e-02
2.035722e-03
-5.168536e-03
-1.391115e-02
4.901015e-03
-9.147692e-03
5.494377e-03
6.114542e-03
-4.807285e-03
8.032288e-03
8.081520e-03
-9.518713e-04
9.966739e-03
-5.965409e-04
-1.185214e-03
-1.306101e-02
-1.361297e-03
-1.942048e-04
-5.818540e-03
3.184476e-04
2.841076e-03
4.387029e-03
3.716486e-04
-2.102361e-03
-5.125985e-03
-6.084338e-04
-3.467589e-03
-6.641467e-03
2.495761e-04
-2.160856e-03
-5.931428e-03
1.963030e-03
3.092701e-03
-1.243784e-02
9.705526e-04
1.461347e-03
-1.168233e-02
2.011884e-03
3.461311e-03
-1.173361e-02
-4.355055e-09
-1.870810e-08
1.676385e-08
4.834187e-09
2.789126e-09
9.732243e-09
6.778637e-09
6.590137e-09
1.642005e-08
-1.728096e-04
1.043402e-03
8.932987e-04
9.759104e-04
2.312796e-03
5.594984e-03
3.294166e-04
2.584378e-03
8.089134e-03
-1.092477e-02
1.208786e-02
2.011098e-02
-7.037108e-03
8.836040e-03
1.449473e-02
-7.291820e-03
7.919231e-03
1.208680e-02
-8.312754e-10
-5.023549e-10
-5.267408e-10
-4.398638e-10
-5.929731e-10
3.567740e-10
3.369202e-10
1.791247e-10
4.194488e-10
2.296131e-02
8.139820e-02
8.540585e-02
4.059196e-02
1.660830e-02
-6.428657e-03
-1.150109e-02
-7.995167e-02
-6.666107e-02
-1.030926e-02
-1.728709e-02
-9.418841e-03
-1.461166e-02
-2.235188e-02
-1.130342e-02
1.292862e-02
9.421498e-03
1.024802e-02
-4.606605e-07
-6.329589e-07
-4.904718e-07
-2.143592e-07
-2.347673e-07
-1.613581e-08
2.559356e-07
3.651823e-07
6.165885e-07
6.296384e-10
3.447564e-10
2.651369e-10
5.658040e-10
8.880535e-10
-2.225425e-11
1.747929e-10
7.377227e-10
5.581287e-10
1.138285e-02
-8.557830e-03
-1.713427e-02
-6.691135e-03
-2.102540e-02
-3.798716e-02
2.122552e-02
-4.880205e-03
-1.596292e-02
-3.107391e-03
-7.751064e-04
6.570662e-03
-1.121740e-02
-6.585771e-03
1.234498e-04
-1.033154e-02
-1.484246e-03
1.607612e-03
-2.028543e-02
1.658151e-03
4.965333e-02
-1.552729e-01
-1.234047e-01
1.027202e-01
-8.394668e-02
-1.574835e-01
2.013097e-02
2.010839e-02
-6.783229e-03
-1.020424e-02
-1.648801e-02
-4.028855e-02
-4.912945e-02
7.162930e-03
-2.941066e-02
-3.504369e-02
-1.133886e-02
-9.559751e-02
-7.597854e-02
-4.146336e-02
-1.369518e-01
-1.213890e-01
1.570693e-02
-6.228055e-02
-5.779186e-02
2.790154e-02
-1.143373e-01
-8.721806e-02
3.303459e-02
-1.301252e-01
-1.284415e-01
1.203849e-01
1.992756e-02
-5.389095e-03
1.011969e-02
9.861693e-04
-2.233764e-03
-9.114075e-03
-1.335061e-02
-1.689062e-02
-3.447523e-04
-1.130654e-02
-9.449104e-03
-9.841415e-02
4.059970e-02
4.811673e-02
-3.525039e-02
1.399701e-01
1.310454e-01
-4.723772e-02
5.479565e-02
3.570755e-02
3.478948e-08
1.549528e-07
1.298569e-07
-1.051456e-08
1.211129e-07
6.651003e-08
-1.342446e-08
1.277052e-07
2.617329e-08
2.207257e-02
6.571444e-06
-7.767447e-03
2.492005e-02
-2.565194e-03
-4.768441e-05
4.305615e-02
3.442133e-02
3.598002e-02
-7.987105e-02
-9.404839e-02
-9.069882e-03
-1.517556e-01
-7.034013e-02
3.589040e-02
5.580509e-02
6.281918e-02
7.068585e-02
3.917705e-10
9.632732e-11
3.535329e-10
-1.046404e-09
-1.031976e-09
-2.186831e-10
-8.261816e-10
-1.249484e-09
-1.230114e-09
6.263270e-03
1.630803e-02
7.980780e-03
-1.732442e-02
-1.005262e-02
-1.386919e-02
-1.609964e-02
-1.244000e-02
-1.219011e-02
2.360411e-03
2.082894e-03
-6.687368e-05
-7.398585e-04
-1.566520e-04
-2.867611e-03
1.068508e-03
-4.455236e-04
-2.816079e-03
9.426486e-08
9.865203e-08
1.068813e-07
1.295429e-07
1.402010e-07
1.118417e-07
1.329137e-07
1.200271e-07
1.186118e-07
-6.065506e-10
1.016068e-10
2.016393e-10
2.863962e-10
6.726522e-10
6.121205e-10
3.148280e-10
-4.177745e-10
2.242389e-10
5.253401e-04
6.925417e-03
3.664420e-03
1.044173e-03
5.455718e-03
2.805754e-03
7.177530e-05
4.327812e-03
-1.283693e-03
3.850422e-03
1.639424e-03
1.086434e-03
3.663101e-03
2.637758e-03
9.336552e-04
3.313939e-03
-1.285538e-04
-1.712311e-03
1.526273e-02
1.812733e-02
9.927061e-03
-5.837979e-03
3.760374e-03
-1.303673e-02
-4.494973e-03
8.328822e-03
-5.074393e-03
2.122312e-03
9.310938e-03
4.612242e-03
3.562862e-03
6.813456e-03
4.328593e-03
4.400976e-03
5.348510e-03
-2.668364e-03
8.581503e-03
1.319615e-02
7.052710e-03
6.780529e-03
8.238636e-03
5.297727e-03
1.531589e-02
1.802955e-02
1.071563e-02
3.568769e-03
-1.291164e-03
-6.666204e-03
9.614632e-03
8.805409e-03
9.523725e-03
9.347877e-03
1.753623e-02
9.449900e-03
7.994747e-04
4.342509e-03
1.353320e-03
1.637489e-03
3.940727e-03
1.252036e-03
2.489260e-03
3.624381e-03
-9.775902e-04
-5.158837e-03
9.484871e-03
2.337870e-03
-4.221252e-03
5.649104e-04
-1.222392e-03
-1.058354e-02
-6.001598e-03
-7.074716e-03
-2.991790e-08
-3.112284e-08
-1.844337e-08
-1.637830e-08
-3.644890e-08
-1.013210e-08
-1.311392e-08
-1.056594e-08
3.688388e-09
5.513608e-03
5.752909e-03
5.830680e-03
5.820626e-03
7.324118e-03
9.251217e-03
9.350615e-03
1.170814e-02
1.283538e-02
-5.706766e-03
-9.333439e-03
-1.786013e-02
8.018032e-03
1.389016e-02
6.511363e-03
2.262283e-02
3.088952e-02
1.417303e-02
-8.960725e-10
-4.632397e-10
-1.450161e-10
-2.402829e-11
-8.835112e-10
-4.682891e-10
3.627641e-10
-3.823027e-10
-4.356928e-10
7.624083e-03
-2.811451e-03
3.584508e-02
-4.774653e-03
-1.550182e-02
1.651644e-02
4.212046e-03
-5.822855e-03
3.048650e-02
-1.689620e-03
-3.515089e-03
-2.272315e-02
2.006211e-02
1.989067e-02
3.314171e-03
3.223640e-02
3.538283e-02
1.143061e-02
1.012066e-07
7.894933e-08
1.633780e-07
2.997216e-07
2.909299e-07
3.880170e-07
6.224943e-07
6.191940e-07
7.250043e-07
-3.089484e-10
-2.142986e-11
-5.647467e-10
3.913161e-10
2.207246e-10
2.012197e-10
-6.179944e-10
-1.279016e-10
-2.159218e-10
3.670083e-02
2.940759e-02
1.047609e-02
3.945438e-02
2.912028e-02
2.159157e-02
7.499630e-02
6.017136e-02
5.549825e-02
-7.347575e-03
-1.311333e-02
-2.764320e-03
1.539762e-02
8.302678e-03
1.939769e-02
1.849152e-02
1.472540e-02
3.021447e-02
-1.774703e-02
-3.280174e-02
-3.869330e-02
1.578260e-02
-1.792412e-02
-4.036956e-02
3.570219e-02
1.171301e-02
-2.947531e-02
4.597894e-02
1.250173e-02
-1.029795e-02
6.775630e-02
3.078596e-02
2.955462e-02
1.107661e-01
7.109630e-02
7.693604e-02
-8.040395e-03
2.108486e-03
-7.871828e-03
-3.323031e-02
-2.485467e-02
-3.207762e-02
1.773983e-03
3.106852e-03
-1.094803e-02
6.352149e-04
1.016822e-02
1.524525e-02
-1.675590e-02
-6.494362e-04
4.895479e-03
-2.837733e-02
-9.447600e-03
-2.542139e-03
1.158375e-02
-3.865320e-03
-2.479401e-03
2.019191e-02
4.391062e-03
1.352615e-02
3.876599e-02
2.367610e-02
3.638376e-02
-2.930792e-02
-3.969394e-02
1.310797e-02
-1.537932e-02
-2.575038e-02
2.333728e-02
2.439173e-02
1.226683e-02
5.545491e-02
-1.184928e-08
2.451405e-09
3.257239e-08
4.927292e-08
7.623009e-08
1.239102e-07
-1.971216e-08
2.907348e-08
9.129383e-08
-3.252677e-03
-4.809851e-03
5.008163e-03
-9.533062e-03
-1.041385e-02
-3.954705e-03
-8.783163e-03
-6.932463e-03
-2.719603e-03
-6.404517e-03
-3.705295e-03
-4.666971e-02
6.327010e-03
2.361640e-02
-7.852149e-03
-4.985405e-03
2.215317e-02
-1.161882e-02
6.638348e-10
6.068483e-10
1.537922e-09
5.800656e-10
3.544975e-10
1.073876e-09
4.404457e-11
9.682467e-10
8.590984e-10
4.825922e-10
-8.957948e-10
-2.057425e-09
2.830742e-10
-1.263511e-09
-1.721946e-09
-2.538502e-10
-1.188894e-09
-1.789498e-09
6.819405e-10
-1.795981e-09
-1.913517e-09
-2.557574e-09
-3.297973e-09
-3.013473e-09
2.630226e-11
-1.892475e-09
-2.449823e-09
2.816510e-10
1.044571e-09
1.182745e-10
5.379752e-10
1.072052e-09
1.555342e-09
6.202636e-10
1.362343e-09
1.042106e-09
6.479672e-10
1.676701e-10
3.048182e-10
-4.111547e-10
-1.437802e-10
1.008639e-09
3.906183e-10
-9.742304e-12
4.318277e-10
-3.565145e-10
1.108873e-10
-1.264143e-09
-7.537158e-10
-8.130522e-10
-3.085471e-09
-3.919856e-10
-6.569134e-10
-1.708621e-09
6.393852e-12
5.228533e-10
-3.965342e-10
-1.039836e-09
-5.426107e-11
-6.299017e-10
-1.017871e-09
-2.245611e-10
-7.618357e-10
6.631063e-10
2.162120e-09
2.012817e-09
1.481426e-10
1.478325e-09
2.178035e-09
-1.281285e-09
1.703182e-10
2.002671e-10
-1.391404e-09
-3.102275e-09
-3.671175e-09
-1.421135e-10
-1.525429e-09
-3.120079e-09
-2.193058e-09
-2.987933e-09
-4.070369e-09
-1.960334e-09
-1.386841e-09
-4.124183e-09
-1.419798e-09
-1.440121e-09
-3.255948e-09
-1.157797e-09
-1.794354e-09
-3.175499e-09
-1.153945e-10
9.582829e-10
-2.138221e-10
2.970314e-10
-8.398982e-11
-3.259157e-10
3.075004e-10
5.506525e-10
-1.066447e-10
-4.323375e-10
-1.139366e-10
-1.868792e-09
-1.046643e-09
-1.772913e-09
-1.969225e-09
-1.118268e-09
-1.295961e-09
-2.296507e-09
-2.706303e-10
-3.889815e-10
2.825286e-10
-4.165267e-10
-3.605551e-10
5.291989e-11
-1.612839e-09
-1.128962e-09
-9.525793e-10
7.029209e-10
-3.393543e-10
1.718354e-10
1.079043e-09
-1.493762e-11
-1.579431e-10
8.092282e-10
5.447293e-11
-1.816278e-10
3.942211e-10
4.332293e-10
-9.396124e-10
-8.669556e-10
-9.144217e-10
-1.867545e-09
-5.325663e-10
-8.711851e-10
-9.401764e-10
1.432849e-09
2.156288e-09
7.980493e-10
1.655046e-09
1.241601e-09
6.625105e-10
2.055752e-09
1.804746e-09
1.342873e-09
1.478231e-10
-2.295448e-10
-7.120571e-11
-5.207133e-10
1.399942e-10
-8.136388e-10
-1.386606e-11
-1.064102e-09
-1.083209e-10
1.296532e-02
2.699425e-02
-1.166304e-02
3.036057e-02
-1.194617e-02
4.544112e-02
-1.626253e-02
-2.272569e-02
-5.633798e-02
-1.464421e-02
-1.753323e-02
-1.320272e-02
-4.857777e-02
-4.539861e-02
-4.658975e-02
-4.349947e-03
-1.196765e-02
-4.890802e-03
2.526119e-07
-1.822615e-07
-9.227903e-08
9.487907e-07
3.604108e-07
6.939084e-08
1.231306e-06
7.375531e-07
1.754942e-07
-1.524464e-10
3.933739e-10
4.146039e-10
-4.681633e-10
-2.259459e-10
1.941743e-10
-9.586878e-10
-7.881917e-11
-2.716984e-10
-7.067748e-03
-9.457012e-03
-2.160601e-02
-4.021343e-02
-7.945050e-02
-6.233195e-02
-1.686942e-02
-5.035229e-02
-5.487261e-02
-2.663050e-02
-3.504825e-02
-3.050129e-02
-3.904562e-02
-3.898880e-02
-3.093069e-02
-2.919664e-02
-2.933563e-02
-2.154765e-02
4.340284e-02
3.076524e-02
-3.172104e-02
-7.321449e-02
2.091037e-03
5.567436e-02
3.994924e-02
-4.567071e-02
-9.603911e-03
-3.866313e-02
-5.191288e-02
-6.216928e-02
-8.379108e-02
-1.265964e-01
-9.468944e-02
-4.931859e-02
-7.880935e-02
-9.042525e-02
5.295718e-02
2.773541e-02
3.026743e-02
-1.010606e-02
-4.999356e-02
1.300568e-02
6.031711e-03
-5.791129e-03
2.277417e-02
5.823176e-02
8.883034e-02
1.587000e-02
-1.577198e-02
-8.253140e-03
3.959906e-02
-2.359289e-02
-9.270519e-03
-3.774768e-02
-2.294697e-02
-2.912491e-02
-3.490472e-02
-3.467410e-02
-4.893754e-02
-4.477360e-02
-3.028318e-02
-3.521208e-02
-4.201817e-02
-2.010014e-02
2.077949e-02
-2.638380e-02
1.308421e-02
9.879749e-02
1.414859e-02
-1.644654e-02
1.297115e-02
-6.070253e-02
-2.324205e-08
1.271459e-08
-4.004281e-08
3.992286e-08
-8.533429e-09
-3.548095e-09
2.154497e-08
-3.967209e-09
-3.313862e-09
6.367075e-02
5.555416e-02
5.333471e-02
5.031496e-02
4.175888e-02
2.881323e-02
6.073358e-02
7.795743e-02
5.535549e-02
-1.016966e-01
1.103040e-02
-7.562770e-03
-1.006205e-02
-5.212669e-02
8.163181e-02
-4.581129e-02
2.664510e-02
7.621668e-02
-3.502239e-10
-9.609729e-10
-3.970138e-10
-2.980657e-10
2.213036e-10
-5.112422e-10
-1.394582e-10
6.208759e-10
-2.918216e-10
2.570202e-10
9.620129e-10
8.564541e-10
1.295166e-09
4.884244e-10
5.436495e-10
6.569946e-10
6.887152e-10
4.576251e-10
-8.742041e-10
-7.366046e-10
-1.236054e-09
-3.893613e-10
-6.967021e-11
-8.623139e-10
-7.830382e-10
-1.070828e-09
-7.223459e-10
1.160974e-09
1.705967e-09
1.711453e-09
1.338538e-09
9.683643e-10
1.799505e-09
1.405519e-09
8.500008e-10
1.427623e-09
9.035825e-11
-1.240803e-10
4.544289e-10
-8.398462e-11
3.700521e-10
-9.630756e-10
2.052045e-10
-2.111288e-10
-4.901006e-10
-3.862961e-11
7.790377e-10
6.653861e-10
6.755216e-10
2.121972e-10
2.202205e-12
-3.811878e-11
1.766745e-10
4.936711e-10
5.703172e-10
8.732111e-10
1.470953e-09
6.237418e-10
6.320739e-11
2.248218e-10
9.740995e-10
5.316115e-10
3.250218e-10
1.187015e-09
1.725559e-09
6.460137e-10
8.460749e-10
1.383853e-09
7.489955e-10
1.415806e-09
7.470075e-10
1.666454e-09
-1.696896e-10
-1.154301e-09
-9.156488e-10
-5.883971e-10
-1.289108e-09
-1.680047e-09
-9.069850e-10
-9.180500e-10
-4.990052e-10
6.179042e-10
1.358343e-10
-3.790894e-10
4.372988e-10
7.992035e-10
6.868520e-11
6.713250e-10
4.795361e-10
-4.342103e-10
2.071525e-09
9.490722e-10
1.153470e-09
9.528186e-10
1.359965e-09
1.361021e-09
1.305231e-09
1.220076e-09
1.561161e-09
-2.074733e-10
-1.910473e-12
-5.601156e-10
-4.198769e-10
-5.737242e-10
-1.222430e-10
-1.768506e-11
-3.600321e-10
-6.195964e-10
-1.192006e-09
-1.502395e-09
-1.697151e-09
-1.616615e-09
-1.165341e-09
-1.434668e-09
-1.250819e-09
-1.627004e-09
-1.766278e-09
1.296395e-09
8.458145e-10
2.013732e-10
5.044806e-10
7.288307e-10
4.592578e-10
9.514931e-10
5.145666e-10
1.657997e-10
3.159940e-10
-3.601800e-10
-1.259312e-10
-1.701166e-10
3.336889e-10
4.898988e-10
-2.374240e-10
8.916609e-10
3.708605e-10
2.608616e-10
4.272575e-10
4.196793e-10
-3.336099e-10
-1.731092e-10
5.190796e-10
-2.309684e-10
5.119938e-11
-4.817428e-10
5.908563e-10
1.260318e-10
-7.268519e-10
2.689488e-10
7.110931e-10
-1.152130e-10
2.052433e-10
2.168009e-10
-3.822229e-10
8.291726e-03
2.596778e-02
4.098954e-02
2.288739e-02
2.696508e-02
1.789315e-02
2.153455e-02
-2.461481e-03
2.815249e-02
3.177722e-03
8.167193e-03
3.774014e-03
-4.986410e-03
1.962005e-03
3.812486e-03
-1.352303e-02
-7.930971e-04
3.941368e-03
-1.903622e-07
-9.285736e-08
-3.652958e-08
1.026995e-07
1.707576e-07
2.451871e-07
4.766710e-08
1.844153e-07
2.462048e-07
-1.194965e-09
-1.035117e-09
-4.797638e-10
-1.313573e-09
-6.211683e-10
1.605580e-10
-1.251429e-09
-1.177533e-09
-4.553815e-11
-3.310174e-03
7.656578e-03
1.921822e-02
-1.017880e-02
1.897147e-02
2.652444e-02
-1.258667e-02
-5.560524e-04
2.831035e-02
-2.901431e-03
3.167941e-03
1.895723e-03
-9.060531e-03
-6.072800e-03
-9.949952e-03
-1.000029e-02
-2.135250e-03
-6.342519e-03
-5.766336e-04
4.173855e-03
1.418814e-02
-1.162036e-02
9.448016e-03
1.981482e-02
-6.492432e-03
2.570575e-02
-3.848261e-03
-1.273511e-03
1.405632e-02
2.905576e-02
-2.497594e-02
4.138823e-03
1.182428e-02
-2.427121e-02
-1.570017e-02
2.354599e-02
-2.549055e-02
3.365417e-02
2.789386e-02
-9.750057e-03
4.217912e-02
3.818433e-02
-3.294313e-02
-1.264944e-02
1.288277e-02
-1.505639e-02
-3.161390e-02
-1.871128e-02
8.800333e-03
-1.258782e-02
-2.948707e-03
-6.975345e-03
-1.792668e-02
-1.148595e-03
1.990612e-03
1.677724e-03
1.138754e-02
-1.006995e-02
-6.665765e-03
1.080913e-03
-7.835877e-03
-1.055875e-02
5.501841e-03
-1.360589e-02
-2.991019e-02
1.424467e-02
-1.329030e-03
-2.054011e-02
3.767275e-02
2.731980e-02
1.219713e-02
6.032880e-02
-4.282818e-08
7.717964e-08
-1.559116e-08
-2.713435e-08
5.854635e-08
-6.387831e-08
-6.537000e-08
-5.052311e-08
-1.271692e-07
-4.154726e-03
-5.200797e-03
-3.821168e-03
-1.315415e-02
-1.241095e-02
-6.567163e-04
3.909326e-04
2.929131e-04
9.549621e-03
7.328985e-03
-2.267444e-02
-4.128773e-02
2.669086e-02
1.837148e-02
-6.764911e-02
4.478959e-02
3.297289e-02
-4.168501e-02
-1.086285e-09
-4.075737e-10
-3.094158e-10
-3.424919e-10
-5.224806e-10
3.101347e-10
-7.030161e-10
4.707520e-11
-6.058319e-10
1.092697e-02
6.010898e-03
7.062764e-02
-2.900578e-02
-2.436267e-02
-1.178030e-01
5.975534e-03
-1.263099e-01
-3.034609e-03
8.484820e-03
7.560832e-03
-6.042389e-03
1.258909e-02
1.051954e-02
7.281791e-03
-4.689631e-03
1.265365e-02
-8.190466e-03
-3.691947e-07
-3.177022e-07
-1.227353e-06
-5.967214e-07
-5.925555e-07
-1.082933e-06
-5.031823e-07
-5.365105e-07
-8.532185e-07
-2.735433e-10
1.869415e-10
6.466233e-10
-5.116345e-10
-5.551929e-10
-3.789781e-10
9.649711e-11
-5.922262e-10
6.373042e-10
1.236699e-03
5.703419e-03
1.907842e-02
-1.759961e-02
3.460339e-02
7.877916e-03
-1.241848e-02
3.173996e-02
3.460332e-02
1.864518e-02
2.044673e-02
1.866766e-02
3.315825e-03
-5.986375e-03
-1.014624e-02
2.443301e-03
6.984446e-04
-5.924772e-03
6.398460e-02
6.412591e-02
1.457730e-01
-1.085981e-01
-4.231503e-02
1.406308e-01
-1.148475e-01
-1.287190e-02
1.663124e-01
2.334359e-02
2.915112e-02
3.915349e-02
-2.401758e-02
3.138398e-02
-1.260252e-02
-2.633211e-02
1.564148e-02
3.437158e-02
4.935259e-02
2.438705e-02
6.631933e-02
-2.437109e-02
-5.105726e-02
-3.724318e-02
2.790203e-02
-4.456518e-02
2.285097e-02
-2.175761e-02
-7.305606e-02
8.731171e-02
6.127387e-03
5.004500e-02
9.794458e-03
1.396604e-01
1.389268e-01
1.575484e-01
1.563512e-02
1.622585e-02
1.557875e-02
-1.492807e-02
3.339634e-03
-7.186999e-03
-9.217477e-03
2.426056e-03
1.224686e-02
-8.457272e-02
-1.231855e-01
-1.074923e-01
-8.359073e-02
-1.019988e-01
-4.767698e-02
-5.781138e-02
-8.515610e-02
-1.765521e-02
-7.007473e-08
7.769471e-08
1.462770e-07
-1.545748e-07
2.326181e-07
1.341398e-07
-2.266485e-07
-2.211796e-08
-2.341805e-07
3.835576e-02
7.930947e-02
3.787333e-02
4.311679e-03
3.068768e-02
2.186041e-02
3.339074e-02
5.396877e-02
2.119119e-02
8.876628e-02
-8.802378e-02
8.219659e-02
-1.999007e-01
6.971942e-02
1.221742e-01
4.736779e-02
3.535447e-02
1.072011e-01
-3.504282e-10
1.823576e-10
5.177770e-10
4.432528e-11
-9.228410e-11
3.065425e-11
2.800135e-10
4.483193e-10
6.126588e-10
4.319740e-03
-1.254322e-02
2.600186e-03
2.356590e-02
-7.593093e-03
7.443076e-03
1.249547e-02
-4.152250e-03
-1.136654e-03
-1.793347e-02
-9.292901e-03
-6.944348e-03
-1.407820e-02
-8.242657e-03
-4.924432e-03
-6.388315e-03
-1.235908e-03
2.106098e-03
-3.211813e-07
-3.696331e-07
-1.663242e-07
-2.546359e-07
-5.175258e-07
-4.019149e-07
-2.428269e-07
-3.060844e-07
-3.483998e-07
5.205856e-10
1.048656e-09
7.120417e-10
2.203460e-10
6.237855e-10
6.830597e-10
6.913121e-10
8.528610e-10
-3.993509e-10
-1.863626e-02
-2.103528e-02
-3.899449e-03
-2.419861e-02
-2.426008e-02
-7.525029e-03
-1.518842e-02
-1.342719e-02
1.822751e-04
-1.318424e-02
-9.397372e-03
-8.417155e-03
-1.407661e-02
-1.153431e-02
-1.257226e-02
-7.246686e-03
-5.723518e-03
-7.898420e-03
-1.276954e-02
-9.204825e-03
-6.819452e-03
-1.530628e-03
-4.230207e-04
1.577689e-03
-1.431792e-02
2.536989e-03
-7.484070e-03
-3.487008e-02
-3.651232e-02
-1.263825e-02
-4.322158e-02
-4.503878e-02
-2.154258e-02
-2.611293e-02
-2.779033e-02
-7.802365e-03
-9.028493e-03
-6.148519e-03
8.568884e-03
-1.542415e-02
-7.327698e-03
5.976589e-03
-1.303456e-02
-4.621356e-03
1.139974e-02
-1.096482e-02
-4.287921e-03
3.881413e-03
1.682603e-04
-2.402459e-03
7.689668e-03
2.223642e-03
7.393868e-03
-2.041734e-03
-1.581847e-02
-1.611618e-02
-5.552012e-03
-1.941668e-02
-2.055801e-02
-1.077217e-02
-1.266675e-02
-1.260187e-02
-5.164922e-03
1.396099e-02
-3.493870e-03
4.476111e-03
8.712995e-03
-6.705193e-03
9.102481e-03
-2.751932e-03
-1.420494e-02
9.173898e-03
-1.490399e-08
1.070857e-08
1.056351e-07
3.358337e-08
1.477838e-08
1.501108e-07
2.899343e-08
-1.101163e-08
3.437686e-08
-1.055911e-02
2.935420e-03
3.142615e-03
-1.503887e-02
1.147497e-03
3.354047e-03
-1.277424e-02
2.365176e-03
5.217974e-03
-1.889052e-02
-7.332087e-03
-1.563997e-02
-4.626022e-04
2.702517e-03
1.679361e-03
5.755450e-03
3.678652e-03
6.727816e-03
-1.990591e-11
2.330928e-10
2.540869e-10
2.110016e-10
6.208035e-10
2.728340e-10
3.474289e-10
4.791871e-10
-1.849817e-10
2.671925e-03
-3.998517e-03
-5.315551e-03
4.609441e-04
-1.260318e-02
3.316815e-04
-1.440135e-03
-9.528564e-03
-5.090706e-04
1.194447e-02
1.035987e-02
9.698265e-03
6.306418e-03
6.068736e-03
6.664365e-03
4.417381e-03
2.978911e-03
3.859120e-03
1.623234e-07
3.835560e-08
-5.084988e-09
1.577384e-07
1.382286e-08
-4.938040e-08
9.643999e-08
4.733735e-08
-2.263055e-08
4.811865e-10
6.620743e-10
-1.504287e-11
2.399088e-10
1.096610e-10
6.115086e-10
6.576292e-10
1.227604e-10
8.852362e-10
2.161656e-02
2.557155e-02
1.876326e-02
1.440871e-02
1.170771e-02
1.156637e-02
7.929406e-03
1.547757e-03
2.180103e-05
1.336456e-02
1.119248e-02
1.096296e-02
1.192830e-02
1.123280e-02
1.140554e-02
5.855510e-03
5.814843e-03
8.412604e-03
1.103959e-02
-2.811232e-03
1.152116e-02
6.675822e-03
-5.394581e-03
1.318515e-03
1.988468e-02
-1.039954e-02
-2.451023e-04
3.761720e-02
3.896592e-02
3.071877e-02
2.972584e-02
2.567774e-02
2.833132e-02
1.810196e-02
1.529608e-02
1.207359e-02
1.026419e-02
1.187120e-02
1.496588e-02
-7.871326e-03
-1.136815e-02
-4.413863e-03
-2.999468e-03
-3.860298e-03
4.693465e-04
2.116412e-03
3.276314e-03
-1.528380e-02
5.887236e-03
1.442125e-02
2.395258e-03
-2.061926e-03
1.523426e-02
-4.320627e-05
1.488591e-02
1.578820e-02
1.271025e-02
1.411435e-02
1.251682e-02
1.293268e-02
7.381045e-03
6.586492e-03
5.376560e-03
-1.807689e-02
-1.841225e-02
-2.451920e-02
4.859783e-03
1.068802e-02
-7.364354e-03
9.639927e-03
1.405103e-02
-1.516747e-03
-6.130482e-08
-4.881013e-08
-4.537720e-08
-5.417193e-08
-1.627965e-08
-4.146463e-08
-2.907732e-08
-1.111509e-08
1.121132e-09
5.459497e-03
1.927362e-03
1.174385e-03
4.572520e-03
1.460534e-03
-3.972543e-03
2.798990e-03
3.085037e-03
-6.244037e-03
-3.042819e-03
-1.394275e-04
1.483892e-03
-4.943950e-03
-9.954386e-03
5.271011e-03
2.313772e-03
-6.226324e-03
6.772754e-03
8.378751e-11
7.052903e-10
-2.110241e-10
4.031779e-10
6.166738e-10
4.861412e-10
1.500195e-09
5.023461e-10
8.765970e-10
8.156537e-08
1.191883e-07
2.946912e-08
5.652277e-08
7.712342e-08
-3.823120e-08
1.299054e-07
1.453414e-07
5.982950e-09
1.205348e-07
6.562265e-08
-6.488203e-08
1.131680e-07
3.032173e-08
-1.099869e-07
1.475387e-07
3.792082e-08
-9.970310e-08
-7.749098e-09
-8.767699e-09
-1.048983e-08
-5.511864e-09
-8.060228e-09
-1.085295e-08
-1.706847e-09
-5.044535e-09
-1.012973e-08
-1.621974e-11
-5.332178e-10
-8.567193e-10
-5.502011e-11
-6.862921e-10
-5.436667e-10
-3.073976e-10
-4.968209e-10
-7.908214e-10
8.945066e-08
1.823231e-07
6.185704e-09
4.046579e-08
1.133161e-07
-7.176922e-08
6.648866e-08
1.468047e-07
-6.183729e-08
3.741826e-08
3.140029e-08
2.702037e-08
7.511892e-09
1.149609e-09
-1.139823e-08
4.379158e-08
3.972312e-08
1.260132e-08
1.749897e-07
2.187338e-07
-2.401348e-08
1.530189e-07
1.664299e-07
5.321716e-09
1.470846e-07
8.911609e-08
4.269225e-08
1.440181e-07
3.154912e-07
8.978961e-09
1.872063e-08
1.772087e-07
-1.480904e-07
1.153249e-07
2.797526e-07
-8.016616e-08
2.140220e-07
3.989885e-07
2.245971e-08
1.873381e-07
3.680092e-07
-6.646930e-08
1.450236e-07
3.927545e-07
-6.620688e-08
5.877807e-09
2.651360e-08
1.066573e-07
-2.568147e-09
3.799306e-08
1.137401e-07
-6.405028e-08
-2.863620e-08
3.442284e-08
-1.449480e-08
4.862139e-08
-6.606147e-08
-1.583042e-08
3.705857e-08
-7.921025e-08
5.302462e-08
9.958237e-08
-2.218655e-08
1.123613e-08
-2.334384e-08
-2.295116e-08
-3.728851e-09
-4.033511e-08
-4.097583e-08
-6.848157e-09
-4.418001e-08
-5.039097e-08
-3.400003e-09
-2.300026e-09
-4.752217e-09
-1.931193e-09
1.102510e-09
-2.085617e-09
-5.060104e-09
-6.171489e-10
-3.567863e-09
5.977643e-08
6.718896e-08
2.988903e-08
5.542286e-08
5.534310e-08
1.654990e-08
7.050181e-08
6.536586e-08
1.704305e-08
1.606541e-07
7.342976e-08
-5.195894e-08
1.113035e-07
-1.288126e-08
-8.591223e-08
8.889909e-08
-8.980229e-08
-1.579152e-07
-4.954345e-11
-1.465841e-10
2.370302e-10
-2.687248e-10
-1.917284e-10
-3.648177e-10
1.577321e-10
-1.254156e-10
4.445300e-10
4.137193e-03
-5.074883e-04
1.756242e-03
9.653390e-03
8.963192e-03
7.289182e-03
9.616286e-03
7.983292e-03
1.086859e-02
1.429437e-02
1.483114e-02
1.560342e-02
1.395432e-02
1.470571e-02
1.647397e-02
-2.618769e-03
-2.829907e-03
-1.134345e-03
-1.259581e-06
-8.182773e-07
-7.207107e-07
-8.861528e-07
-7.482541e-07
-7.755136e-07
-9.552896e-07
-9.632655e-07
-1.522123e-06
4.979254e-11
5.685463e-10
-1.066206e-10
7.829165e-10
1.133667e-09
4.051668e-10
8.464340e-10
1.357008e-09
2.860677e-10
4.026092e-03
5.346848e-03
4.432629e-03
2.487493e-02
2.371998e-02
2.404376e-02
2.866601e-03
3.683592e-03
5.186606e-03
1.425211e-02
1.511153e-02
1.516204e-02
2.451998e-02
2.607379e-02
2.715926e-02
6.164147e-03
8.159041e-03
9.198210e-03
-8.666018e-03
-8.854507e-03
4.411784e-03
-3.688364e-03
-6.608100e-03
-9.597797e-03
-5.133883e-03
-3.971292e-03
-1.025151e-02
1.845952e-02
1.749386e-02
1.616453e-02
5.697802e-02
5.315730e-02
5.422017e-02
1.633916e-02
1.605612e-02
1.688113e-02
-2.947678e-03
-2.156396e-03
1.458930e-03
1.720605e-03
-3.764992e-03
4.803852e-03
1.372528e-03
-4.088041e-03
-2.703113e-03
-4.321044e-03
1.587483e-03
4.773712e-03
-4.121723e-03
8.527767e-04
-1.346245e-04
-6.544698e-03
1.503438e-03
1.018572e-03
1.046541e-02
9.915478e-03
9.864003e-03
2.799141e-02
2.704911e-02
2.688360e-02
9.966264e-03
9.685033e-03
9.976747e-03
-1.784766e-02
-1.880238e-02
-2.188727e-02
-8.215080e-03
-1.157971e-02
-1.375044e-02
-1.194460e-02
-1.256801e-02
-1.124077e-02
-3.004056e-08
-2.177109e-08
-6.008461e-08
-4.445165e-08
-1.145632e-07
-8.945066e-08
2.038768e-08
-1.845919e-07
2.797030e-08
6.397917e-03
2.791210e-03
1.800343e-04
4.629982e-03
-5.745866e-04
-2.167936e-03
1.308251e-03
-1.045821e-03
3.228807e-03
2.941677e-03
1.940578e-03
4.563123e-03
1.159665e-03
7.128179e-03
6.793955e-03
7.155322e-03
-7.508488e-03
-1.182541e-02
