-7.790972e-04
3.910772e-02
-1.280061e-02
-6.804357e-03
2.160717e-03
-2.171996e-02
1.065910e-02
-1.911308e-02
5.768446e-02
2.104377e-03
-9.798926e-03
-3.931821e-02
-8.892695e-03
-6.224984e-03
1.813941e-03
-3.179541e-03
8.790408e-05
-6.016284e-04
-1.335851e-03
-1.679054e-03
-8.449677e-04
3.574838e-03
-1.133345e-03
-9.940380e-04
-2.595723e-03
-2.004069e-03
-2.115546e-03
-8.926769e-04
-2.036606e-03
-7.886030e-04
-9.944924e-04
-6.268021e-04
-3.780233e-03
3.529202e-02
-1.936080e-02
-1.057802e-02
2.159638e-03
7.514808e-03
-2.415912e-03
6.105559e-02
-7.885288e-03
3.017174e-02
-1.913221e-02
2.212990e-02
2.278585e-02
1.327196e-02
-2.944139e-02
1.182832e-02
1.505376e-03
-5.534071e-03
5.231294e-03
2.508188e-03
1.188435e-03
1.387284e-02
-6.398384e-03
4.007054e-03
-6.233943e-03
3.942793e-03
5.322958e-03
-1.771274e-03
-1.432667e-02
3.171313e-03
-3.035824e-03
4.424140e-03
-2.085431e-02
1.045095e-02
-3.340344e-03
4.695873e-02
-1.698638e-02
-1.440501e-04
1.386066e-03
-3.546427e-02
-4.319119e-02
-9.874067e-02
1.224370e-01
-5.983758e-02
-1.286893e-02
-1.278865e-02
-1.201089e-02
1.476836e-03
1.241165e-02
4.685455e-03
3.594448e-02
2.036198e-02
-2.354315e-02
1.599612e-01
-6.840509e-02
-1.939360e-01
-3.022516e-02
-1.617061e-02
-5.146322e-03
-1.617569e-02
-5.867825e-02
4.899749e-02
-1.722974e-02
-1.083202e-02
-1.481261e-02
4.845721e-02
-4.314873e-02
3.467118e-02
-1.471516e-02
-1.022723e-02
-1.282094e-02
-5.170307e-02
-7.543197e-02
-5.787581e-02
1.783389e-02
-4.483963e-03
-3.712244e-02
-4.878931e-02
2.370551e-02
-2.989976e-02
8.420519e-04
-6.287890e-02
1.036828e-02
-1.897001e-03
-5.252758e-03
-8.503509e-03
-1.367601e-03
-1.244273e-02
5.738010e-03
-1.028018e-02
2.101202e-02
-1.560792e-02
1.800994e-03
7.846532e-03
2.844923e-03
-1.671742e-02
-1.282199e-04
4.732702e-04
3.079351e-03
6.154798e-03
-8.117246e-03
-1.017018e-03
-1.019262e-03
-1.086382e-02
3.784373e-03
-1.373960e-02
1.169849e-03
2.716391e-03
-1.033480e-02
1.865174e-03
-1.691529e-03
-1.645972e-03
6.006017e-03
-1.899816e-02
-1.981186e-02
2.004180e-02
-1.060979e-02
1.889267e-02
-3.512162e-02
-1.779557e-02
-4.791972e-03
-2.571959e-02
-2.298435e-02
-8.096267e-03
-3.979261e-02
-2.030572e-03
1.740643e-03
-6.203081e-03
-5.018550e-04
-1.640472e-03
2.560626e-03
3.270210e-03
-4.094749e-03
-5.970085e-03
3.790331e-03
-3.197725e-02
8.060080e-03
-2.130676e-02
1.553477e-03
4.445483e-03
-1.769002e-02
6.641805e-03
5.704204e-03
-3.400708e-03
4.260866e-04
1.152239e-02
2.887277e-02
-1.639956e-02
-2.399032e-02
2.681359e-02
-3.816254e-02
5.231224e-02
-3.604326e-03
1.938402e-02
4.922709e-03
-1.747194e-02
3.938789e-02
3.258039e-02
5.766955e-03
1.558730e-03
2.386615e-02
-5.080915e-02
-8.420250e-02
4.447694e-02
-3.959632e-03
-9.131099e-03
-3.613250e-03
-1.022640e-01
1.303267e-02
-9.295023e-03
-2.190642e-01
4.641871e-03
-8.135920e-02
-5.431845e-02
1.352335e-02
-2.557047e-02
1.657844e-02
-2.179777e-02
-3.093571e-02
5.070765e-03
-1.886630e-02
5.501955e-02
9.921704e-02
-7.858283e-02
2.529165e-03
-1.264158e-02
-1.559825e-02
1.275787e-02
-8.375763e-02
5.079124e-02
-6.630016e-03
-6.546989e-03
-2.139017e-02
1.356222e-01
-2.678696e-02
1.188280e-02
-2.363550e-02
7.613798e-03
3.329059e-02
-1.043224e-02
-8.019164e-02
-7.496431e-02
1.654121e-02
1.573487e-02
-7.969280e-02
4.321347e-03
6.439535e-03
-3.647918e-02
-1.055562e-02
-1.586209e-02
-4.198775e-03
1.972067e-02
-1.766778e-02
-4.427282e-02
3.795704e-02
-1.311319e-01
-2.941851e-01
-6.893354e-02
1.811706e-02
2.206442e-03
-7.760097e-02
-8.263172e-02
1.932434e-02
-6.366842e-03
-2.252599e-02
6.062975e-02
-1.554433e-01
3.040908e-02
8.624428e-04
2.910738e-04
1.958936e-02
-8.778591e-02
1.850967e-02
-3.189166e-02
-1.568693e-01
4.791949e-03
-1.013309e-01
1.891085e-02
1.136565e-02
-3.251795e-02
-1.999561e-02
-1.979771e-02
-1.208381e-02
-1.560726e-02
-5.015534e-02
-2.842916e-02
2.741140e-02
-9.680871e-02
1.247358e-02
-6.604727e-02
2.290919e-03
1.826073e-04
-6.655440e-02
1.868377e-02
-2.650819e-01
-1.793441e-03
-6.956391e-05
1.995390e-02
1.320882e-02
-2.161236e-02
5.737284e-02
-4.414307e-02
2.736112e-02
-1.180723e-01
2.415192e-02
-6.140545e-02
-5.959325e-03
9.563674e-03
-4.780352e-02
-1.474398e-02
1.355800e-02
-1.943468e-02
-4.899438e-03
6.178047e-02
-4.893449e-02
1.686345e-02
6.667478e-03
-2.068703e-02
1.643749e-02
-8.134238e-02
2.478308e-02
-1.281067e-01
2.816348e-03
-2.614114e-01
-8.399048e-02
3.893182e-03
1.811862e-02
-6.560785e-03
1.359013e-02
-6.737764e-02
5.752731e-03
-4.648706e-02
-4.122908e-02
-4.361893e-02
-1.832874e-01
-2.502931e-02
-1.880124e-03
4.386424e-03
-6.446310e-03
-2.061387e-02
-2.134844e-03
-1.217311e-01
2.750342e-02
-4.488093e-02
1.877024e-04
3.910668e-03
7.424413e-04
3.551906e-03
-1.053082e-03
-3.778427e-05
-2.023019e-03
2.727792e-02
-2.729333e-03
9.195007e-03
9.206219e-04
-2.179625e-03
2.583789e-02
4.501840e-03
3.618346e-03
6.509981e-03
-1.043911e-02
1.673127e-02
7.969873e-03
1.954093e-02
2.118200e-03
2.614992e-02
1.270635e-02
-2.788220e-02
3.886898e-03
5.988180e-03
1.976571e-02
1.751664e-02
-1.856481e-02
1.424580e-02
2.340103e-02
-1.560211e-02
4.361399e-04
-1.010097e-02
5.292130e-03
-8.004676e-04
-2.707120e-03
5.004228e-03
-2.879648e-03
-2.225905e-02
4.615833e-03
-6.468043e-03
8.115188e-03
1.456356e-03
-1.781100e-02
-5.199242e-03
-3.608655e-03
-7.557001e-03
-7.609372e-03
-8.427870e-02
-6.770065e-03
2.089590e-01
1.106005e-02
-2.698662e-02
1.044505e-02
7.119548e-02
-2.166373e-02
3.977824e-02
1.957811e-02
-3.554144e-02
7.661955e-02
8.017232e-03
-2.494574e-02
3.356411e-02
7.753915e-04
-9.099317e-03
7.350329e-03
-2.081126e-03
-6.945726e-04
4.031388e-03
9.212690e-03
1.119644e-02
3.656934e-04
6.476405e-03
-1.226647e-02
-7.291384e-03
5.023052e-03
-2.174073e-03
-6.834978e-03
6.214965e-03
1.509434e-04
-1.001521e-03
-1.345270e-04
5.409702e-04
-9.908219e-04
-9.165372e-04
2.544309e-03
6.762674e-03
-2.434820e-03
2.272820e-03
-1.906641e-03
-1.959941e-03
8.166607e-03
8.033409e-04
-1.858233e-03
1.032983e-03
4.885770e-03
-5.036015e-02
5.366755e-03
-1.354550e-01
7.285494e-03
1.122929e-02
-1.971769e-02
-7.034596e-02
4.743117e-02
-4.180789e-02
-9.016490e-02
-4.488474e-02
-7.235399e-02
6.972343e-02
-8.173702e-03
-2.578730e-02
-6.291335e-03
4.364732e-03
2.111431e-03
8.417757e-03
9.116166e-03
1.065219e-03
9.679552e-03
1.469331e-02
3.153018e-03
7.611300e-03
3.454409e-03
1.916805e-03
1.308302e-02
5.124403e-03
6.373023e-03
4.761206e-03
-1.946961e-03
3.192336e-02
8.645594e-03
-2.496934e-01
-2.758019e-03
6.484636e-03
1.479158e-02
-7.046214e-02
-3.413197e-02
-1.010056e-01
3.357007e-02
-1.490075e-02
-5.910999e-02
1.661744e-02
1.965302e-03
-1.378069e-02
-4.122089e-03
1.928334e-02
-3.380202e-02
9.064916e-03
3.446906e-03
-7.555746e-03
1.377505e-02
-4.192179e-02
-3.987121e-03
-1.992459e-02
9.369271e-04
1.921329e-02
-3.165282e-02
6.788723e-03
-2.199469e-02
8.345309e-05
1.309787e-02
-1.140781e-02
2.326322e-02
1.054600e-02
-7.717510e-03
1.488100e-02
3.097364e-02
-4.082564e-02
9.020155e-03
-3.604255e-02
-4.508912e-03
2.973901e-03
-4.270385e-02
-4.403203e-03
3.764293e-03
-1.039780e-02
