4.241953e-06
-1.753878e-05
3.106385e-05
-3.301985e-05
-5.623787e-05
1.006255e-05
-4.510655e-05
-7.445490e-05
-1.283032e-06
2.549267e-06
1.323087e-05
2.008828e-05
2.229277e-05
3.119474e-05
3.240695e-05
1.314209e-05
1.646950e-05
1.843537e-05
3.105868e-05
2.142451e-05
8.450883e-06
1.224155e-05
9.764227e-06
5.134564e-06
3.882444e-07
-5.303185e-06
-9.466128e-06
-1.012291e-05
-6.938006e-06
1.281479e-05
-1.291007e-05
9.588493e-06
1.583235e-05
-7.292618e-06
1.336763e-05
1.797283e-05
-1.095386e-06
-2.179724e-05
-2.703849e-05
8.648467e-06
-5.725175e-06
-1.378700e-05
-2.010116e-05
-3.120434e-05
-2.918653e-05
-6.714664e-05
-6.267717e-05
-6.573243e-05
-6.620032e-05
-6.077620e-05
-1.096173e-04
-8.807735e-05
-7.796262e-05
-1.424697e-04
-1.172491e-05
-1.231150e-05
5.573242e-06
-3.507964e-06
-4.319907e-06
6.103500e-06
1.941068e-08
-6.811244e-06
-2.650728e-06
4.558183e-05
6.873593e-05
3.912458e-05
1.267251e-04
1.365753e-04
5.085960e-05
1.019796e-04
1.040964e-04
3.077901e-05
-1.897125e-05
3.130086e-06
-1.587594e-05
-3.134549e-05
-1.596804e-05
-8.978043e-06
-8.962557e-06
-4.647869e-06
-1.806574e-05
6.034319e-05
7.821265e-05
3.362454e-05
6.267781e-05
4.893357e-05
-1.366129e-05
3.070004e-06
3.173723e-06
-2.980174e-05
-9.870243e-06
1.931509e-05
2.233315e-05
-1.807849e-05
1.733649e-05
1.647590e-05
2.010330e-06
2.849487e-05
1.715384e-05
6.844359e-06
9.120139e-06
2.364165e-05
8.224214e-06
3.757451e-06
2.118099e-05
1.810152e-05
1.397777e-05
1.708036e-05
-7.015576e-05
-5.713231e-05
-5.981726e-05
-5.617943e-05
-5.489805e-05
-7.816516e-05
-7.004508e-05
-6.350372e-05
-8.769245e-05
-5.787015e-06
-1.052800e-06
1.457417e-05
8.497365e-06
1.486428e-05
6.804195e-06
3.565996e-06
1.821590e-05
1.839900e-05
-3.549097e-06
-1.203595e-05
-1.468477e-05
1.761053e-06
-1.122861e-06
-2.002758e-05
-2.007207e-05
-1.393224e-05
-3.170653e-05
-1.311147e-04
-1.219244e-04
-1.204431e-04
-1.171743e-04
-8.730792e-05
-1.247633e-04
-1.493869e-04
-1.335269e-04
-1.622410e-04
-4.906511e-05
-2.767083e-05
-4.333050e-05
-2.504338e-05
-2.098738e-05
-4.914118e-05
-2.934750e-05
-2.900584e-05
-4.646393e-05
-9.866958e-05
-5.281571e-05
-6.648302e-05
-1.015674e-04
-8.177438e-05
-1.231321e-04
-1.270424e-04
-1.136347e-04
-1.624165e-04
-1.074184e-04
-1.020543e-04
-8.834220e-05
-6.877627e-05
-6.264632e-05
-8.607702e-05
-7.154098e-05
-7.270702e-05
-8.244002e-05
-6.673134e-05
-5.253181e-05
-6.371189e-05
-4.586548e-05
-4.245519e-05
-8.607564e-05
-5.791470e-05
-5.294514e-05
-9.488245e-05
-2.279175e-05
3.690942e-06
-4.994474e-05
-8.560628e-06
4.063229e-05
-1.793555e-05
-3.551229e-05
-7.375390e-06
-3.139979e-05
-2.151846e-05
3.213162e-06
3.778736e-05
-4.638975e-06
4.325519e-06
2.037200e-05
4.551583e-06
9.675372e-06
2.759376e-05
3.626334e-05
5.143008e-05
3.370156e-05
4.070413e-05
5.616053e-05
2.952061e-05
3.680269e-05
6.620015e-05
4.354855e-05
1.653850e-05
1.766700e-05
4.032419e-05
2.940770e-05
1.768838e-05
3.646217e-05
4.813327e-05
3.936287e-05
4.422147e-05
-2.021991e-05
-2.409513e-05
-4.222027e-06
-2.463157e-05
-4.810614e-05
-7.242106e-07
-1.214225e-05
-3.368313e-05
-1.131642e-05
-1.215930e-05
-1.420925e-05
-1.381036e-05
-1.770719e-05
-1.853683e-05
-6.608139e-06
-1.800803e-05
-2.421527e-05
-7.037095e-06
2.530611e-05
2.208079e-05
2.491109e-06
3.251011e-05
2.160197e-05
-7.836938e-06
2.274737e-05
1.082152e-05
-1.209048e-05
-6.508759e-05
-4.660870e-05
-5.611770e-05
-6.399694e-05
-6.618659e-05
-7.268090e-05
-5.594475e-05
-6.597956e-05
-7.128598e-05
-2.828558e-05
2.456087e-05
6.246356e-05
4.591900e-07
3.789129e-05
4.024436e-05
5.226745e-05
6.870653e-05
2.510403e-05
-7.182447e-05
-5.742486e-05
-6.866331e-05
-6.985671e-05
-7.059721e-05
-8.821339e-05
-7.833644e-05
-7.857205e-05
-9.869210e-05
-7.202001e-06
-5.615266e-06
6.341769e-06
-5.431502e-06
-8.599841e-06
3.554715e-06
2.024094e-06
1.863556e-06
1.262322e-07
-2.496269e-06
6.903206e-06
1.046852e-05
1.007002e-05
1.154765e-05
1.169514e-05
1.731917e-05
1.069557e-05
1.326764e-05
-2.210755e-04
-7.757298e-04
-5.745832e-04
-2.270283e-04
-9.030349e-04
-7.592849e-04
-1.806581e-04
-5.021908e-04
-6.275090e-04
-2.475274e-05
-6.494364e-05
-8.910773e-05
-5.992658e-05
-8.363262e-05
-2.163829e-05
-1.660727e-05
2.175562e-06
6.966715e-05
6.457559e-05
-2.782742e-05
-6.472108e-05
7.288192e-06
-1.272985e-04
-1.212393e-04
-1.208980e-05
-8.733502e-05
-3.255796e-06
-5.325095e-04
-6.356930e-04
-2.927958e-04
-7.093202e-04
-7.173033e-04
-2.280266e-04
-4.350798e-04
-4.323756e-04
-1.869793e-04
5.858303e-05
-2.423345e-04
-3.678317e-05
1.080433e-05
-5.518379e-04
-5.385941e-04
3.605258e-06
-3.742307e-04
-3.889177e-04
3.403930e-04
-2.589768e-04
-5.509328e-04
7.752787e-05
-3.333272e-04
-7.359944e-04
2.874435e-04
6.910246e-05
-3.081843e-04
4.449668e-05
-2.199764e-04
-1.768798e-04
1.414866e-05
-4.020143e-04
-4.056424e-04
-9.654641e-05
-3.253218e-04
-3.633313e-04
1.432350e-03
1.156564e-03
2.659554e-04
2.164260e-03
2.444433e-03
8.061954e-04
1.222402e-03
1.588783e-03
8.388117e-04
1.892380e-04
3.567385e-04
2.826958e-04
-3.437800e-05
2.564070e-04
3.051957e-04
-5.597219e-05
1.925309e-04
3.327351e-04
4.425127e-04
5.510240e-04
3.090655e-04
3.259619e-04
3.822912e-04
2.929846e-04
2.328328e-04
1.863102e-04
2.310936e-04
8.568319e-05
2.919452e-04
2.283524e-04
5.028691e-05
4.413277e-04
3.539949e-04
-6.310450e-06
2.766946e-04
2.755518e-04
-1.405728e-05
-2.150750e-05
8.870216e-05
-4.954027e-05
-1.216261e-04
2.244755e-05
8.851729e-06
-4.928619e-05
5.091938e-05
-1.731265e-04
-2.895940e-04
-4.433358e-04
-3.324447e-04
-4.922199e-04
-5.949669e-04
-3.035369e-04
-4.752063e-04
-5.851885e-04
4.382448e-04
1.240506e-04
2.674943e-04
1.768397e-04
-1.753070e-04
-1.233248e-06
6.208058e-04
4.510838e-04
4.741608e-04
4.400618e-04
-5.255260e-05
-1.917879e-05
4.433208e-04
-2.940854e-04
-4.363347e-04
7.295585e-04
1.388228e-04
-2.831803e-04
2.351036e-04
-1.108728e-04
-1.308441e-04
-1.223342e-04
-5.387136e-04
-6.347946e-04
-3.945536e-04
-6.718523e-04
-7.370667e-04
1.182376e-04
-9.972144e-05
-2.588518e-04
6.791423e-05
-3.068887e-04
-4.680160e-04
3.140607e-04
-2.627831e-05
-3.319821e-04
1.415348e-04
-6.126703e-05
-1.531228e-04
2.021545e-05
-1.656078e-04
-5.684057e-04
-1.039454e-04
-4.473465e-04
-4.179935e-04
1.609422e-04
3.085329e-05
5.237103e-05
-1.397370e-04
-2.972161e-04
-1.378930e-04
-1.457484e-04
-4.816541e-04
-3.183830e-04
-4.177372e-05
-2.481793e-04
-2.294801e-04
-7.281546e-05
-4.282837e-04
-5.007513e-04
1.256298e-04
-2.276782e-04
-4.161968e-04
5.654189e-04
4.392714e-04
6.079337e-04
6.607145e-04
2.638549e-05
-3.130271e-04
1.273781e-03
5.048281e-04
-3.347892e-05
-3.404554e-05
3.836842e-05
1.336438e-04
-4.087818e-05
6.380112e-05
1.326012e-04
-1.382023e-05
1.058133e-04
2.046555e-04
6.297880e-04
8.193239e-04
5.746797e-04
6.193096e-04
1.052384e-03
6.624990e-04
6.122627e-04
9.516951e-04
6.365990e-04
-6.472572e-05
-1.466856e-04
3.010680e-05
-2.273156e-05
-9.970315e-05
1.307862e-04
1.321782e-04
1.458163e-04
3.199423e-04
4.039349e-05
-4.650954e-04
-4.623936e-04
3.593861e-06
-4.455523e-04
-2.628404e-04
1.236898e-04
-5.085899e-04
-4.620752e-04
-1.891783e-04
-2.893566e-04
-2.271795e-04
-2.807603e-04
-5.217815e-04
-3.659169e-04
-1.716433e-04
-3.511309e-04
-2.798172e-04
3.276055e-04
3.267103e-04
8.991729e-05
5.927417e-04
5.165506e-04
8.835234e-05
4.611992e-04
4.176198e-04
7.541815e-05
-5.638478e-05
-4.212480e-04
-5.144692e-04
-1.819328e-04
-4.156854e-04
-4.092622e-04
8.458611e-07
-3.936691e-04
-3.222660e-04
6.736530e-05
4.301631e-04
3.798688e-04
2.136786e-04
7.291976e-04
4.762996e-04
1.761221e-04
4.619363e-04
2.859544e-04
2.759550e-04
-1.889880e-04
-3.450383e-04
1.182117e-04
-2.637785e-04
-4.294665e-04
1.612251e-04
-4.024798e-04
-6.442128e-04
-3.364420e-05
4.609883e-05
9.220287e-05
-1.057055e-04
5.614729e-05
1.471644e-04
-2.056980e-04
-6.627591e-05
-8.000977e-06
1.180503e-04
9.919959e-06
-1.431487e-05
9.584294e-05
3.137494e-05
8.812991e-05
9.834585e-05
8.387569e-05
1.836486e-04
-7.878250e-06
-1.400321e-05
-2.192466e-05
3.410669e-05
-1.928821e-05
-5.689723e-06
3.908182e-05
-3.119614e-05
-4.573784e-05
3.645116e-05
2.906191e-05
2.472126e-05
4.413923e-05
3.522040e-05
3.515121e-05
3.621901e-05
3.057329e-05
2.858829e-05
9.323950e-06
5.839167e-06
2.246879e-06
-1.016428e-05
-9.303800e-06
-4.132337e-06
-1.057863e-05
-8.843929e-06
-3.351520e-06
-1.203255e-05
6.833630e-06
1.846247e-05
-1.024233e-05
7.482389e-06
1.475764e-05
-1.501326e-05
1.491604e-06
5.162774e-06
-1.893346e-05
-5.459614e-06
-9.557567e-06
-1.218776e-05
-1.078776e-05
3.059675e-06
-1.098738e-06
-5.748745e-06
2.629394e-05
2.905542e-06
-1.482480e-05
-3.689152e-05
1.042675e-05
3.514824e-06
-7.037634e-05
7.263813e-06
1.352935e-05
-6.211885e-05
5.711223e-06
5.235885e-06
-4.793394e-06
5.642563e-06
8.049285e-06
3.059567e-06
5.518863e-06
3.623701e-06
-1.318416e-06
1.834611e-05
3.469443e-05
2.157662e-05
3.481393e-05
5.194670e-05
3.020753e-05
2.893416e-05
4.012371e-05
2.345815e-05
1.081994e-05
-1.404828e-06
-8.651348e-06
-3.151127e-06
-6.559877e-07
7.526878e-07
1.228095e-06
-7.625180e-07
6.031477e-06
8.122865e-05
5.783506e-05
3.058590e-05
5.926066e-05
4.416675e-05
2.488326e-05
3.929750e-05
2.231366e-05
-4.575793e-06
1.470738e-05
1.080693e-05
5.240257e-06
2.245248e-05
1.969064e-05
2.025908e-05
3.429535e-05
1.750507e-05
2.328841e-05
-4.231843e-06
3.417850e-06
8.414590e-06
-4.358592e-06
5.302328e-06
8.710667e-06
-7.860305e-06
2.726692e-06
2.877649e-06
-1.618987e-05
-2.534203e-05
-5.336620e-05
-1.187434e-05
-2.665559e-05
-4.158868e-05
4.230704e-06
-1.297125e-05
-4.169826e-05
1.239420e-05
9.649866e-06
2.380459e-05
1.172070e-05
1.277253e-05
2.710660e-05
1.656225e-05
1.550470e-05
6.821119e-06
-2.058822e-06
3.274344e-06
-2.549098e-06
2.444193e-06
-3.463273e-06
1.270966e-05
-1.034235e-05
-2.058922e-05
-9.964424e-06
7.355246e-06
-4.622668e-06
-3.257723e-05
1.398027e-05
-1.523088e-05
-2.865190e-05
2.064044e-05
-9.804216e-06
-3.046212e-05
-2.433251e-06
-4.422400e-06
-2.913208e-05
-9.240539e-06
-2.185094e-05
-1.459797e-05
5.718441e-06
-1.195565e-05
-2.689144e-05
2.771631e-05
6.965279e-06
-5.367760e-05
-2.562426e-06
1.120096e-06
-5.385483e-05
2.266054e-05
2.635033e-06
-4.260676e-05
-6.299709e-06
-2.012103e-05
-2.872685e-05
2.430906e-05
-2.907120e-05
-2.815704e-05
3.213475e-05
3.393525e-06
-4.515392e-05
1.624543e-06
-1.568393e-05
-2.337263e-05
-9.743246e-06
-3.032418e-05
-3.626000e-05
-7.176329e-06
-2.980297e-05
-4.323322e-05
1.359537e-05
-1.167082e-05
-2.225016e-05
-5.447971e-07
-4.231279e-05
-2.959467e-05
3.633309e-06
-5.160542e-05
-4.947517e-05
3.404652e-05
3.536367e-05
2.187064e-05
2.871256e-05
2.948930e-05
2.915637e-05
1.698435e-05
3.297813e-05
3.754219e-05
8.729186e-06
3.155336e-05
4.417094e-05
1.199479e-05
3.364739e-05
4.100534e-05
6.515264e-06
2.045585e-05
1.527342e-05
1.137448e-05
2.195202e-05
2.620992e-05
7.465176e-06
1.697078e-05
2.251445e-05
-2.946935e-06
4.055046e-06
1.236840e-05
-5.170577e-06
-2.924182e-05
-7.812214e-06
9.968092e-06
-3.135705e-06
-1.356637e-05
1.450312e-07
-6.277671e-06
-2.142912e-05
1.159641e-06
-5.340304e-06
2.835997e-06
1.088624e-06
1.917393e-06
4.242522e-07
7.852425e-07
7.541854e-06
5.142590e-06
1.059709e-05
6.353154e-06
3.076933e-06
1.313850e-05
8.430836e-06
-2.602047e-06
9.129109e-07
1.827711e-06
-6.976888e-06
6.056775e-06
-1.974530e-05
-2.661280e-05
1.408387e-05
-4.314460e-06
-2.312124e-05
1.670336e-05
2.030736e-06
-2.342721e-05
1.449303e-05
1.065705e-04
6.821874e-05
4.367449e-05
7.968825e-05
7.112911e-05
5.489274e-05
6.945073e-05
6.541856e-05
1.750061e-05
-1.334845e-05
-9.433312e-06
1.640045e-05
4.107318e-06
-2.102482e-05
1.695165e-05
1.670907e-05
-6.631504e-06
4.803999e-06
8.923063e-06
-1.330035e-05
2.461677e-05
6.757004e-06
-2.368921e-05
-3.316143e-06
2.680786e-06
1.220259e-05
1.694683e-05
2.258553e-05
1.697983e-05
1.157724e-05
1.509728e-05
1.308341e-05
8.392140e-06
1.211274e-05
1.792415e-05
-8.453350e-06
-2.988470e-06
-7.146234e-07
2.440136e-06
1.991028e-06
2.474165e-06
-2.954821e-06
1.209998e-06
1.486670e-06
3.381593e-08
-3.660086e-07
-2.220322e-06
9.549858e-07
-1.711621e-07
-2.372115e-06
2.327575e-06
2.199887e-06
8.206080e-07
3.615310e-06
3.097813e-06
2.767223e-06
6.330847e-06
3.871212e-06
3.368327e-06
1.507796e-06
-7.501010e-07
2.751362e-07
-5.267055e-07
3.818297e-07
-3.503035e-07
-1.640335e-07
5.888693e-07
-9.181400e-07
8.457833e-07
6.791420e-07
-1.831310e-06
1.888889e-05
2.150817e-05
1.639848e-05
6.755133e-06
4.997780e-06
5.971075e-06
1.004079e-05
4.801099e-06
2.988558e-06
-1.367582e-05
-6.251492e-06
-4.340626e-06
-1.657212e-05
-1.229014e-05
-1.190975e-05
-1.940519e-06
1.912381e-06
6.264791e-07
-2.285177e-06
-1.247655e-06
-1.897138e-06
-2.365175e-06
-6.715929e-07
-1.669896e-06
-1.874614e-06
6.957710e-07
6.918997e-07
3.160849e-06
2.363847e-06
4.365638e-08
1.183644e-05
8.086465e-06
-1.162381e-06
9.866217e-06
8.499539e-06
1.515565e-06
-6.251738e-06
-6.368940e-06
-9.873844e-06
-8.673017e-06
-9.348585e-06
-1.262216e-05
-4.923949e-06
-6.811029e-06
-1.077853e-05
8.723877e-07
-9.087360e-06
-1.015647e-05
5.484072e-06
-3.085562e-06
-7.034129e-06
3.288831e-06
-1.524147e-06
-7.507615e-06
1.707205e-06
2.174379e-06
5.364519e-07
9.467158e-07
1.298903e-06
-1.476546e-06
1.812576e-06
2.469115e-06
6.763252e-07
-1.468523e-06
-7.232811e-07
-2.101152e-06
-5.510641e-08
1.695727e-07
-5.861201e-07
-1.017799e-06
-4.021088e-07
-1.692610e-06
-8.491295e-06
-4.714576e-06
-6.223949e-06
-1.454445e-05
-5.781203e-06
-1.001729e-05
-7.866860e-06
5.096825e-07
-2.611374e-06
-1.725241e-06
-2.213608e-06
-2.382869e-06
-3.641861e-06
-2.194338e-06
-2.593693e-06
-8.416950e-07
6.782926e-07
-1.935966e-06
1.978852e-06
4.632259e-06
3.739795e-06
-3.527294e-07
1.544344e-06
-8.653586e-07
5.224756e-06
6.820817e-06
3.694786e-06
-1.486195e-05
-7.009431e-06
-5.937450e-06
-1.835505e-05
-8.051937e-06
-1.205198e-05
-1.021056e-05
-1.570499e-06
-2.253881e-06
-3.217808e-06
-3.418334e-06
-6.023191e-06
-8.749622e-06
-4.027178e-06
-8.390695e-06
-3.169749e-06
1.763795e-06
-1.754766e-06
-5.186039e-06
-5.129510e-06
-7.873621e-06
-1.109460e-05
-7.582754e-06
-1.482983e-05
5.581910e-07
1.313674e-06
3.102798e-06
-8.792589e-06
-4.578632e-06
-4.208309e-06
-2.408924e-06
1.181702e-06
-8.248885e-06
2.276189e-06
2.912032e-07
-5.701725e-06
-4.801784e-06
-2.262427e-06
-3.337962e-06
-1.010964e-05
-5.548021e-06
-7.815753e-06
-9.319145e-08
2.632177e-06
-2.345229e-07
8.621548e-06
2.899062e-06
2.043435e-06
4.859940e-06
1.311799e-06
2.702922e-07
4.363632e-06
3.046707e-06
5.525498e-06
-3.257611e-07
4.961211e-06
2.297663e-06
-9.392112e-08
3.505385e-06
-4.946707e-08
-3.170278e-07
1.268344e-06
-2.237285e-06
3.488874e-06
4.630003e-06
1.144993e-06
2.436291e-06
4.623820e-06
8.529684e-07
3.917507e-06
4.115102e-06
-5.509845e-07
9.352532e-07
2.135046e-06
8.750700e-07
1.877352e-06
1.159913e-06
4.768879e-07
3.329155e-07
-1.285381e-06
-2.389207e-06
-3.370974e-06
-4.445545e-06
-2.637180e-06
-4.890144e-06
-6.710041e-06
2.074168e-06
3.858393e-07
-6.195651e-06
-1.772999e-07
2.735936e-06
2.440031e-06
1.273784e-06
1.745064e-06
1.309682e-06
6.777317e-07
1.375727e-06
2.161496e-06
1.619011e-06
-1.012507e-06
-1.784516e-06
-1.434671e-06
2.459057e-06
1.148407e-06
-3.085163e-07
3.416143e-06
2.303592e-06
7.094765e-07
-1.072506e-05
-9.144364e-06
-9.695955e-06
-1.137292e-05
-6.598486e-06
-7.908724e-06
-2.950033e-06
-3.121728e-06
-5.402990e-06
-5.365649e-06
5.990734e-06
5.131120e-07
8.362627e-06
1.325436e-05
4.895909e-06
8.045754e-06
7.479304e-06
-1.210263e-06
-8.577023e-06
-5.894173e-06
-5.494465e-06
-7.640786e-06
-5.949422e-06
-7.285760e-06
3.649354e-06
-7.658308e-07
-3.171510e-06
1.516715e-06
1.409950e-06
2.103441e-06
-1.785127e-06
-8.835780e-07
2.304743e-06
-4.814327e-06
-5.757892e-06
-1.956905e-06
8.983608e-07
2.489528e-06
1.443339e-06
1.273902e-06
1.824930e-06
1.609082e-07
2.194665e-06
2.580252e-06
1.181406e-07
-3.207750e-06
3.912585e-06
9.576629e-06
-1.502346e-05
-1.017223e-05
6.536052e-06
-1.897689e-05
-2.059088e-05
-2.501220e-06
6.207537e-06
-6.574654e-06
4.718928e-06
7.331437e-06
2.293474e-07
1.825920e-05
1.552805e-05
1.555768e-05
2.440446e-05
9.690945e-06
7.449761e-06
3.020922e-06
7.322652e-06
9.046302e-07
-8.050189e-07
-9.026364e-07
-1.365654e-05
-9.715645e-06
-2.076416e-06
6.434407e-06
6.819584e-06
-3.326225e-06
6.312351e-06
9.209291e-06
1.020053e-06
1.014690e-05
1.669403e-05
-4.758362e-06
-3.870793e-07
8.735038e-06
-1.417626e-05
-6.164722e-06
-2.834754e-06
-6.332096e-06
1.098273e-05
-4.518110e-06
-2.426676e-05
-2.919782e-05
-6.305297e-05
-3.092812e-05
-2.142335e-05
-5.813064e-05
-2.385325e-05
-3.217017e-05
-7.360859e-05
-2.320574e-06
-9.514214e-06
-2.613468e-06
-1.692172e-06
-7.446254e-06
-2.861148e-06
-8.635178e-07
-6.992084e-06
-4.688264e-06
1.357429e-05
4.544614e-06
-7.488465e-06
3.191427e-05
1.903935e-05
3.690602e-07
3.940954e-05
2.450694e-05
6.690052e-06
3.328578e-06
1.067653e-05
1.180707e-05
1.942347e-06
9.927102e-06
1.558079e-06
4.078207e-06
5.861035e-06
4.484923e-06
1.140095e-05
-5.367793e-06
3.437401e-06
3.047003e-05
1.166091e-06
3.502448e-06
3.235346e-05
-2.986510e-06
-1.735356e-05
7.276854e-06
5.746982e-06
5.487004e-06
1.979465e-06
-7.810885e-06
2.899180e-06
5.290977e-06
2.649204e-06
5.857488e-06
6.226309e-06
4.064648e-06
2.038556e-06
9.820173e-06
8.077572e-06
7.034976e-06
1.420126e-05
1.237703e-05
1.007105e-05
-2.193715e-05
-2.235222e-05
-5.038670e-05
-1.487344e-05
-1.699162e-05
-4.832568e-05
-2.075896e-05
-2.747067e-05
-5.450264e-05
3.804129e-07
-7.165730e-06
-2.782024e-05
-6.977361e-07
-1.339929e-06
-1.624726e-05
-2.155070e-05
-1.223075e-05
-1.720158e-05
2.444006e-06
5.984444e-06
7.055601e-06
7.279126e-06
1.971284e-05
1.996783e-05
-1.711046e-06
6.893993e-06
1.021559e-05
-2.511816e-05
-2.051160e-05
-5.894348e-05
-3.917333e-05
-2.908034e-05
-7.547794e-05
-4.843641e-05
-3.704028e-05
-7.947603e-05
-1.027010e-05
-4.257236e-06
-4.342402e-05
3.351521e-06
3.360086e-06
-3.488834e-05
-6.011255e-06
-7.322172e-06
-3.845690e-05
-2.465186e-05
-1.471151e-05
-4.334647e-05
-2.910092e-05
-1.073289e-05
-3.530585e-05
-2.033255e-05
-1.117906e-05
-4.143469e-05
-2.020921e-05
-1.649057e-05
-5.293287e-05
-1.738096e-05
-1.293091e-05
-4.914781e-05
-3.044208e-05
-1.501379e-05
-5.327072e-05
-2.991775e-05
-2.884084e-05
-6.152846e-05
-3.042959e-05
-1.503245e-05
-5.292186e-05
-3.021889e-05
-1.450512e-05
-5.899664e-05
-1.551657e-05
-3.998548e-06
-4.128449e-05
-1.535406e-05
-1.622288e-05
-5.521629e-05
-5.954222e-05
-4.165243e-05
-6.664176e-05
1.229435e-05
7.532906e-06
3.746447e-06
1.924751e-05
1.791858e-05
5.533746e-06
2.734391e-05
2.665856e-05
8.204252e-06
3.898472e-06
1.688371e-05
3.500036e-06
1.743491e-05
2.930486e-05
3.912702e-06
2.000406e-05
2.245221e-05
2.373123e-07
1.400628e-05
1.003308e-05
9.330572e-06
1.572601e-05
1.138735e-05
1.261465e-05
1.917478e-05
1.600216e-05
1.585333e-05
-2.747870e-05
8.905646e-06
1.919743e-05
-4.710875e-05
-2.607133e-05
7.813716e-06
-4.546390e-05
-2.494106e-05
-1.328828e-05
2.938619e-06
-5.576175e-07
1.254212e-06
6.417758e-07
-3.711015e-06
2.736701e-06
-1.231216e-06
-2.506828e-06
3.674700e-06
2.253826e-06
3.465912e-07
-1.394864e-06
8.114647e-06
3.366806e-06
-2.757847e-06
1.163917e-05
5.556691e-06
-1.239955e-06
-1.946654e-05
-1.538532e-05
-4.445230e-05
-1.740094e-05
-1.449626e-05
-4.439587e-05
-1.818024e-05
-1.709497e-05
-4.518287e-05
5.237582e-06
2.364205e-05
-9.714796e-06
3.281968e-05
1.301568e-05
1.755935e-05
7.816108e-05
5.430094e-05
7.223774e-05
-2.319390e-05
-9.795399e-06
-4.479634e-05
-3.095235e-05
-2.002089e-05
-5.915391e-05
-3.381917e-05
-2.969461e-05
-6.453316e-05
-4.039392e-07
2.172430e-06
2.282528e-06
-1.633235e-06
5.342965e-06
2.564297e-06
-2.167352e-06
2.184463e-06
-8.051866e-06
8.857435e-07
-3.528575e-06
-1.546273e-06
5.754045e-06
-1.735316e-06
2.678772e-06
6.032198e-06
4.161129e-07
3.124272e-06
-1.954329e-05
7.177999e-05
4.498996e-05
-5.264450e-05
3.989929e-05
8.159936e-06
-3.591918e-05
3.174780e-05
-1.655248e-05
1.291691e-05
6.488959e-06
9.161308e-06
1.323082e-05
9.157903e-06
8.894534e-06
2.455865e-05
1.214858e-05
2.856314e-06
1.541755e-06
-1.029252e-06
-2.785804e-06
6.579568e-06
4.630919e-06
1.678079e-06
-1.460036e-06
-5.753951e-06
-1.433507e-05
5.825385e-06
-1.866806e-06
3.999934e-06
9.879963e-06
-1.184168e-06
4.999807e-06
5.492071e-07
-1.086776e-05
-9.000270e-06
2.410437e-05
-1.046315e-05
-1.523152e-05
1.139909e-05
-1.648777e-06
-3.699597e-06
7.799729e-06
2.517105e-06
-1.839711e-06
1.477890e-05
-4.469476e-06
9.498492e-06
-1.301755e-06
-4.908388e-05
-3.920543e-05
4.065241e-05
-6.821720e-06
-1.436968e-05
1.069516e-05
1.193186e-05
1.277042e-05
4.161468e-06
-2.873748e-06
-1.543090e-06
7.190847e-06
7.196186e-07
-7.865628e-06
-2.637866e-05
6.961189e-05
6.428674e-05
-6.330083e-05
4.730168e-05
5.676768e-05
-4.880305e-05
3.541314e-05
5.017985e-05
-1.737559e-05
7.926833e-06
-5.425051e-06
-1.631776e-05
2.586737e-05
5.526475e-06
-1.261267e-05
1.694607e-05
-4.365475e-05
4.014392e-05
4.083486e-05
3.477885e-05
4.850242e-05
3.453021e-05
1.469805e-05
4.705197e-05
2.095957e-05
-8.999038e-06
-1.461232e-06
1.805484e-05
2.227646e-05
-3.499390e-06
1.374793e-05
1.787721e-05
-1.130206e-05
1.049984e-05
1.510039e-05
-8.307415e-06
4.106408e-06
3.023655e-07
-6.094015e-06
1.712410e-06
-8.067240e-07
-4.379683e-06
-5.751018e-06
-1.831798e-05
6.937757e-06
9.562480e-06
-1.166068e-05
-2.963733e-05
-3.711276e-05
-5.085554e-05
4.001254e-05
2.719550e-06
-1.269974e-05
-1.721971e-05
5.695337e-06
1.468822e-05
-2.205320e-05
-9.363359e-06
-5.767476e-06
1.066448e-05
1.174113e-06
-6.867172e-06
3.763336e-05
3.969411e-05
1.720561e-05
8.052127e-06
-7.425585e-06
-4.039880e-05
3.715770e-05
2.033302e-05
-1.962933e-05
2.137291e-05
1.271714e-05
8.801755e-06
-3.237322e-05
-5.725197e-05
-6.706340e-05
1.173331e-05
1.256373e-05
-1.904197e-05
1.287649e-05
1.996141e-05
-1.813536e-05
-1.694525e-05
-1.751585e-05
-5.210237e-05
5.744518e-05
2.493955e-05
-9.870826e-06
1.917392e-05
2.858373e-05
1.691867e-06
-1.711333e-05
-3.523639e-05
-7.608896e-05
6.831202e-05
3.998402e-05
-5.225852e-05
8.162447e-06
1.479310e-05
-2.233885e-05
1.571733e-06
-2.509953e-05
-3.471199e-05
4.976743e-05
2.974352e-05
-1.568700e-05
2.389636e-05
3.205813e-06
-4.289785e-05
4.637607e-07
-8.440242e-06
-6.182856e-05
8.187081e-05
3.166681e-05
-1.579058e-06
1.017529e-05
1.029056e-05
-2.132356e-05
-2.209815e-05
-8.366836e-06
-5.467441e-05
3.154438e-05
4.427788e-05
1.105720e-05
-1.518418e-06
-2.454797e-05
6.944765e-07
3.769065e-06
-1.726867e-05
3.612060e-06
2.452926e-05
1.367566e-05
3.290004e-05
6.012545e-07
7.948242e-06
3.071281e-05
1.371295e-05
1.439751e-05
4.005614e-05
1.677871e-05
9.449547e-06
2.853849e-05
-5.469434e-06
6.774815e-06
-1.511171e-06
-1.908419e-06
1.139322e-05
-8.265064e-06
-5.579520e-06
-2.164985e-07
-1.038428e-05
1.526735e-06
1.793027e-05
2.589168e-05
1.970693e-05
1.267012e-05
-4.923595e-06
3.177897e-05
3.015562e-05
-9.377171e-06
-1.668597e-05
-1.900369e-05
-2.104545e-05
-3.802936e-06
-1.382603e-05
-1.166294e-05
-8.564084e-06
-1.398046e-05
-8.303432e-06
5.999372e-06
1.734494e-05
1.250178e-05
5.127078e-06
1.868071e-05
8.028916e-06
1.258330e-06
1.145792e-05
-1.965088e-06
-1.637057e-05
-1.146162e-05
6.070207e-06
-8.932795e-06
-1.250234e-05
-1.225531e-05
2.700889e-05
2.664656e-06
-2.140732e-05
-1.170493e-06
2.018151e-05
6.203015e-05
-6.090625e-06
1.997794e-05
7.158459e-05
1.594526e-05
4.976609e-05
6.830999e-05
1.356230e-05
1.191271e-05
1.393006e-05
1.439247e-05
-4.554116e-06
-2.726205e-05
5.261757e-05
3.024248e-05
-1.516830e-05
-1.706800e-05
-4.596608e-05
-2.315289e-05
-1.446569e-05
-1.484163e-05
-1.096580e-06
-2.402841e-05
-3.703306e-05
1.929717e-05
6.878069e-06
4.637338e-06
7.499531e-06
6.175290e-06
6.536847e-06
1.479286e-05
3.532061e-06
1.361505e-05
2.369422e-05
2.321531e-05
-4.456324e-05
3.032568e-04
-3.873074e-05
-1.706545e-04
1.174709e-04
-5.988811e-05
-1.047819e-04
7.438914e-05
3.388733e-05
-2.266297e-05
-3.958767e-05
4.628114e-05
-9.985502e-06
1.443324e-06
5.266524e-05
-5.878104e-06
-1.481006e-05
-1.673431e-05
-9.431208e-05
-1.055485e-04
1.051149e-04
9.691154e-06
-3.758549e-05
4.663290e-05
-6.933811e-05
-6.503434e-05
-1.735590e-04
-6.183783e-05
1.128992e-04
-3.313359e-04
-8.424426e-05
7.879195e-05
-2.481495e-04
-3.892277e-05
7.752998e-05
-1.852943e-05
-1.614071e-04
-1.741452e-04
-1.129945e-04
-1.069353e-04
-1.996218e-04
-2.878270e-04
-1.586792e-04
-7.841894e-05
1.794874e-05
-2.426068e-04
-5.682977e-04
-1.393484e-04
-2.891264e-04
-7.132617e-04
-2.695317e-04
-3.944476e-04
-7.975182e-04
5.566809e-05
-5.472654e-05
4.428257e-05
5.974778e-05
-4.839872e-05
3.057591e-05
2.217398e-05
-8.049001e-05
1.236512e-05
1.577595e-04
2.993575e-04
4.378258e-05
2.328070e-04
4.361250e-04
4.682433e-05
1.029742e-04
2.449316e-04
3.736687e-05
-1.215200e-04
1.502848e-05
-4.334568e-05
-1.788092e-04
6.289433e-05
1.380765e-05
-1.303758e-04
-1.693516e-05
-2.441324e-05
3.328929e-04
3.814447e-04
6.826258e-05
2.813725e-04
2.520443e-04
5.169192e-05
2.160293e-05
-7.607215e-06
-2.436003e-05
-1.519124e-04
-3.087050e-05
-8.001373e-05
-1.357388e-04
1.693159e-04
5.739151e-05
-1.084827e-04
2.447520e-04
1.759088e-04
5.806745e-05
7.247756e-05
9.497596e-05
4.421237e-05
1.334166e-05
2.329247e-05
-3.429567e-06
-3.712974e-05
-5.915870e-05
-3.014792e-05
-2.004885e-04
-4.096117e-04
-7.829027e-06
-3.447894e-04
-5.785468e-04
-1.148506e-04
-4.129431e-04
-7.416198e-04
-1.587443e-06
-9.007685e-05
-7.646027e-05
4.092113e-05
-6.968898e-05
-1.381461e-04
-2.605995e-04
-3.338371e-04
-3.778460e-04
6.487660e-05
-1.433341e-04
-4.610298e-04
2.141722e-04
-2.846322e-05
-3.733298e-04
-1.652540e-04
-2.425833e-04
-4.891182e-04
-3.123316e-05
-2.678891e-04
-6.967592e-04
-5.947492e-05
-2.749297e-04
-7.873304e-04
-2.636481e-04
-4.060043e-04
-8.268347e-04
2.528116e-05
-7.064461e-05
-3.358930e-04
1.418097e-04
-1.912213e-04
-4.195871e-04
-4.751195e-05
-3.383243e-04
-6.323959e-04
-2.182135e-04
-2.238349e-04
-5.545298e-04
-1.204780e-04
-2.732288e-04
-6.880948e-04
-3.811441e-04
-5.666693e-04
-8.157498e-04
-4.976516e-05
-2.331195e-04
-4.838900e-04
-1.185647e-04
-2.794644e-04
-5.241230e-04
-5.656192e-05
-2.740060e-04
-6.833993e-04
-8.475410e-05
-2.221689e-04
-5.669072e-04
1.268042e-05
-2.246010e-04
-6.329260e-04
-1.592135e-04
-2.959174e-04
-6.356790e-04
-1.368686e-04
-2.310453e-04
-9.099210e-04
1.743166e-04
2.609146e-04
-4.455968e-04
-3.468712e-04
-3.232069e-04
-8.576737e-04
-2.846836e-05
6.095871e-05
2.785575e-04
-3.577164e-05
9.742223e-05
2.619915e-04
4.570344e-05
1.537772e-04
3.664021e-04
-8.908027e-06
1.991009e-04
8.058565e-05
-6.140037e-05
2.962616e-04
8.169169e-05
-1.319248e-04
1.557206e-04
-2.515802e-05
7.344582e-05
9.953805e-05
2.755295e-04
2.142143e-05
4.630632e-05
2.302711e-04
4.710105e-05
9.994341e-05
2.648558e-04
5.897789e-06
-2.360571e-04
-1.695990e-04
9.530524e-05
-3.684749e-04
-2.094536e-04
9.318635e-06
-2.640640e-04
-2.996427e-04
4.975151e-06
-1.274440e-04
-8.552829e-05
2.127631e-05
-1.975240e-04
-9.197089e-05
4.893517e-05
-1.311179e-04
-4.287814e-05
1.231095e-04
1.273628e-04
-2.787296e-05
2.331830e-04
1.492723e-04
-5.320151e-05
1.793759e-04
6.136134e-05
-1.038406e-04
-1.048838e-04
-1.509258e-04
-2.894543e-04
-7.396186e-05
-3.389269e-04
-4.636935e-04
-1.394908e-04
-3.768715e-04
-5.232723e-04
-1.766056e-04
1.758005e-04
2.325123e-04
-1.380911e-04
3.172029e-04
1.003780e-04
8.484955e-05
4.496555e-04
1.193787e-04
-9.947023e-05
-2.351382e-04
-4.774167e-04
-6.440003e-05
-3.165802e-04
-5.489872e-04
-2.703565e-04
-3.642976e-04
-6.273335e-04
-1.067749e-04
-6.112239e-05
-1.550063e-05
-2.195928e-04
-6.534401e-05
-2.476095e-05
-1.024843e-04
2.343558e-05
5.419129e-05
5.586076e-05
1.212968e-06
3.147759e-05
1.482734e-04
1.061529e-04
2.019650e-04
2.084669e-04
1.990118e-04
3.176677e-04
-1.674946e-04
-1.219650e-03
7.814999e-04
-7.205111e-04
-1.817002e-03
1.727175e-04
2.699216e-04
-9.090468e-04
-4.447484e-04
-7.411065e-05
8.713497e-06
3.538148e-05
-1.064859e-04
5.841601e-05
2.030197e-04
-6.496883e-05
1.252490e-04
2.961552e-04
-3.428305e-06
-9.133677e-05
6.985584e-06
-8.442257e-05
-1.710855e-04
-3.589422e-05
-3.930224e-05
-5.502027e-05
5.040141e-05
-1.391281e-03
1.847812e-04
-1.767521e-04
-1.961231e-03
7.553133e-05
-3.218533e-04
-1.328118e-03
1.594112e-04
-3.209009e-04
-9.132529e-04
-2.834514e-04
4.459365e-04
-4.917654e-04
-6.746431e-04
-3.615867e-04
-7.651406e-04
-8.902632e-04
-5.493743e-04
-5.534509e-05
-8.343652e-05
5.155575e-04
-1.398895e-03
-8.098495e-04
-4.254227e-04
-8.341298e-04
-9.469368e-04
-9.984424e-04
-2.860304e-04
-3.192445e-04
4.161303e-04
-4.843577e-04
-6.536569e-04
2.130375e-05
-4.379201e-04
-7.825640e-04
-5.040691e-04
2.727754e-03
-1.922201e-03
-2.536576e-03
5.883183e-03
7.427034e-04
-2.850607e-03
5.345141e-03
2.809974e-03
-7.919231e-04
2.437765e-04
6.524230e-04
-1.416948e-04
2.599960e-04
7.789340e-04
-2.911548e-04
1.314631e-05
5.427671e-04
-1.119023e-04
1.751015e-04
2.939455e-04
-2.506229e-05
5.173217e-04
5.676979e-04
4.890331e-04
2.288769e-04
1.321044e-04
8.702799e-04
2.169461e-04
5.435646e-04
-3.774510e-04
4.892560e-04
1.116083e-03
-2.017209e-04
3.409596e-04
1.047928e-03
7.380903e-05
-1.648408e-04
-3.706605e-05
2.731952e-05
-1.533383e-04
-1.286855e-04
1.071819e-04
4.044821e-05
-3.494374e-06
1.435210e-04
-4.098387e-04
-1.110118e-04
2.828576e-04
-1.722635e-03
-9.573436e-04
-1.862417e-04
-1.571196e-03
-1.002654e-03
-5.731377e-04
-1.454233e-04
6.156766e-05
2.109161e-04
-1.711289e-04
-1.510972e-04
1.816570e-04
3.986867e-04
7.556237e-05
6.691901e-05
-3.668129e-04
-5.526907e-05
1.231433e-03
-1.684475e-04
-5.831917e-04
7.826657e-04
-8.760890e-05
-1.059826e-03
-6.542797e-04
-4.145634e-04
-2.852681e-04
7.618598e-04
-1.144607e-03
-1.055311e-03
-5.314830e-04
-1.344402e-03
-1.299573e-03
-1.050601e-03
-6.592892e-04
2.709409e-04
3.817954e-04
-1.167399e-03
-6.356589e-04
6.631755e-05
-8.417821e-04
-6.294280e-04
-3.515358e-04
-9.329108e-04
3.361714e-04
-5.018951e-04
-1.167171e-03
-1.476316e-04
-6.937454e-04
-1.499762e-03
-8.085922e-04
-2.868035e-04
-7.343463e-04
1.280880e-06
8.739665e-05
-1.461851e-03
-5.915831e-04
-8.026626e-05
-1.684496e-03
-1.042883e-03
2.790522e-04
-1.310320e-03
-3.345682e-04
5.467295e-04
-1.484890e-03
-6.789613e-04
-1.068921e-04
-1.568707e-03
-6.885513e-04
2.425135e-05
-1.868266e-03
1.368374e-03
3.602646e-04
-9.236446e-04
9.044095e-04
1.573935e-04
-3.240428e-04
-4.595970e-04
-8.277264e-04
-6.967861e-05
2.178037e-04
7.468086e-05
-9.165706e-05
1.674465e-04
1.485668e-04
-4.846431e-05
1.910773e-04
3.295920e-04
8.071731e-04
1.040929e-03
1.412624e-04
1.076176e-03
1.606523e-03
-6.573088e-05
1.017794e-03
1.388557e-03
-1.529876e-04
-1.852263e-04
-1.474849e-05
1.416094e-04
-2.231447e-04
-3.854583e-06
2.480920e-04
5.509713e-05
3.348078e-04
4.656140e-04
-1.099170e-03
-7.396875e-04
6.077576e-04
-1.424066e-03
-1.439997e-03
9.733373e-04
-1.788522e-03
-1.652048e-03
9.477523e-04
-1.722838e-04
-2.921161e-04
1.347485e-04
-5.541156e-04
-9.251886e-04
-3.917258e-05
-3.508650e-04
-9.116089e-04
-1.676060e-04
7.865704e-04
-2.447799e-04
-1.929864e-04
1.373325e-03
-1.484373e-04
-3.054569e-04
1.403183e-03
4.675889e-05
-2.403433e-04
-1.014367e-03
-7.920360e-04
-4.156638e-04
-1.556491e-03
-1.308564e-03
-5.337333e-04
-1.500918e-03
-7.546374e-04
4.450674e-04
1.516687e-04
5.981845e-04
-4.547893e-04
5.829487e-04
1.427677e-03
-2.585022e-04
4.616247e-04
1.290176e-03
-1.193603e-04
-9.929748e-04
-2.632478e-04
1.721651e-04
-1.172873e-03
-7.487084e-04
-1.560148e-04
-1.590958e-03
-8.228580e-04
-1.467210e-04
9.695955e-05
-7.168474e-06
3.486449e-05
2.116648e-05
9.279109e-05
-5.787763e-05
-5.970618e-05
-5.480318e-05
3.798372e-05
1.898879e-04
-3.308123e-04
4.515640e-05
1.070146e-04
-2.845576e-04
1.916209e-04
1.475186e-04
2.580951e-05
4.555585e-04
-2.505700e-06
4.157392e-06
5.437154e-06
-1.192608e-05
-3.505563e-06
6.503871e-07
-1.277928e-05
1.367013e-06
-7.378409e-07
4.926055e-06
9.382381e-07
-1.091649e-06
1.670248e-06
1.987426e-06
1.988785e-06
-1.033525e-07
1.135643e-06
2.748479e-06
1.579589e-06
4.669000e-07
6.404351e-07
-1.692338e-06
-3.195262e-06
-1.855287e-06
-2.484021e-06
-4.282982e-06
-2.931597e-06
-7.395396e-07
1.725681e-07
-5.761288e-08
-1.320890e-06
-6.463658e-07
-1.144273e-06
-4.877839e-07
3.273867e-07
-1.854649e-06
-5.734495e-07
-3.188466e-07
-2.563728e-06
-1.097151e-06
2.206371e-06
-2.195452e-06
1.838277e-05
1.122099e-05
-4.058039e-06
-5.400203e-06
-1.653329e-05
-1.700253e-05
-1.007293e-05
-1.577383e-05
-1.627681e-05
1.285518e-06
1.431959e-06
-1.148345e-06
-1.626590e-09
-1.356501e-06
-3.013804e-06
-2.089318e-06
-7.158692e-07
-1.106507e-06
-1.281295e-07
3.939591e-07
6.691509e-07
2.504096e-05
1.586992e-05
-1.744883e-06
2.949611e-05
2.755432e-05
4.777366e-06
1.237078e-05
1.926741e-05
7.827683e-06
-2.094571e-05
-1.209134e-05
-7.799847e-06
-7.738858e-06
-1.023453e-05
-1.141321e-05
8.223969e-07
-5.796303e-06
-1.216299e-05
1.878127e-05
1.172379e-06
-9.051168e-06
8.380506e-06
-2.819918e-07
-9.046600e-06
-2.395131e-06
-2.278434e-06
-1.556675e-06
4.272028e-06
2.585861e-06
-8.741812e-07
5.318667e-06
5.438852e-06
2.300832e-06
3.472132e-06
4.682540e-06
2.654484e-06
-1.061829e-06
-3.484742e-07
-2.745524e-07
-6.701312e-07
8.827543e-08
3.015705e-07
-1.927891e-06
-1.792373e-06
-1.167155e-06
-1.383896e-05
-1.416132e-05
-1.078360e-05
-1.333036e-05
-1.353365e-05
-1.310519e-05
-5.957001e-06
-5.336125e-06
-5.295545e-06
-7.919787e-06
-5.023262e-06
-2.367201e-07
-7.749941e-06
-7.381309e-06
-5.810464e-06
-2.692957e-06
-3.423472e-06
-1.593264e-06
4.187486e-06
4.889144e-06
4.304478e-06
2.487249e-06
3.756903e-06
-1.538900e-07
1.183975e-05
8.751704e-06
4.113513e-06
-1.125991e-05
-1.357795e-05
-1.078503e-05
-1.797323e-05
-1.034904e-05
-1.244804e-05
-3.034319e-06
1.019235e-06
-1.237719e-06
-1.327259e-05
-7.226493e-06
-6.056953e-06
-1.130552e-05
-9.165376e-06
-1.042600e-05
-2.219576e-06
-2.963134e-06
-5.502409e-06
-8.277962e-06
-5.753176e-06
-1.105238e-05
-1.460780e-05
-6.338005e-06
-1.056994e-05
-2.587929e-07
-3.319044e-06
4.667295e-07
-5.510976e-06
-3.162742e-06
-2.780206e-06
-9.436984e-06
-7.664735e-06
-9.019027e-06
1.453968e-06
2.949562e-07
3.214045e-07
-6.201531e-06
-1.054125e-05
-1.796844e-05
-7.428235e-06
-6.505961e-06
-1.000744e-05
2.859006e-06
3.256535e-06
-5.494015e-07
-2.974956e-06
4.854106e-06
1.097292e-05
-2.855201e-06
3.946924e-06
6.961515e-06
-1.528031e-07
6.893530e-08
2.321504e-06
7.675612e-06
5.004171e-06
5.544486e-06
5.241959e-06
1.039298e-06
3.018951e-06
1.858429e-06
1.149815e-06
3.185677e-06
1.251436e-05
9.657134e-06
5.295298e-06
6.993046e-06
6.459148e-06
4.689108e-06
5.380721e-06
5.662891e-06
4.435310e-06
2.719256e-06
1.792063e-06
9.074883e-08
9.218004e-07
-1.410332e-07
2.213763e-06
1.957416e-06
1.744669e-06
3.242147e-06
-3.280119e-06
-2.316451e-06
-2.687367e-06
5.749802e-09
-3.279970e-06
-2.797619e-06
-7.999217e-07
-6.760766e-06
-3.597384e-06
-1.444182e-06
5.629672e-07
1.097783e-06
-4.787074e-06
-2.673177e-06
-5.365291e-07
-2.871552e-06
-3.166859e-06
-1.263797e-06
2.705395e-06
-1.143915e-07
-2.253488e-06
4.342171e-06
1.946796e-06
-2.214364e-06
1.850354e-06
1.360287e-06
-7.476539e-07
-1.517772e-05
-1.239810e-05
-1.288759e-05
-1.098412e-05
-1.049920e-05
-9.927595e-06
-5.466284e-06
-9.260524e-06
-7.419256e-06
1.197392e-05
1.397799e-05
1.203898e-05
1.193360e-05
1.881037e-05
1.603684e-05
8.601560e-07
9.703214e-06
6.802716e-06
-1.227981e-05
-6.830128e-06
-1.068678e-05
-1.077526e-05
-8.560051e-06
-1.167793e-05
-2.663113e-06
-6.588327e-06
-7.268531e-06
2.202059e-06
-4.165307e-06
1.823953e-06
4.540512e-06
-4.771978e-06
-1.910364e-06
-2.443795e-06
-6.868047e-06
-6.319807e-06
4.792592e-06
4.029862e-06
1.406963e-06
2.709766e-06
1.515768e-06
1.370168e-06
1.422605e-06
2.328246e-07
6.118767e-07
5.444788e-06
-1.991854e-05
-1.202236e-07
-2.706586e-06
-5.423824e-06
3.347090e-05
1.237776e-06
-2.715374e-05
5.770278e-06
2.109887e-05
2.986657e-05
2.600497e-05
2.729631e-05
4.258632e-05
3.304398e-05
2.082577e-05
3.537410e-05
2.969655e-05
1.257061e-05
1.360892e-05
1.049944e-05
1.407019e-05
8.897549e-06
-3.014476e-06
-1.028424e-05
-1.816157e-05
-2.633833e-05
2.342099e-06
1.077572e-06
3.534484e-06
-3.433826e-07
2.563627e-06
6.346131e-06
-2.971406e-06
-4.131402e-06
-3.780900e-07
-1.294175e-05
-2.700234e-05
-2.861887e-05
-1.676586e-05
-2.650341e-05
-9.645200e-06
4.224610e-06
1.258399e-05
1.503705e-05
-4.031308e-06
-2.296454e-06
-4.455966e-06
-7.291028e-07
1.259333e-05
5.601308e-07
-1.793204e-06
1.494239e-05
1.428217e-06
-2.135334e-06
5.368432e-06
7.894518e-06
6.676168e-07
1.165016e-05
9.732003e-06
-1.020510e-06
9.998008e-06
9.858328e-06
8.548974e-06
3.560193e-05
3.889469e-05
5.800299e-06
4.159538e-05
4.719190e-05
-8.482440e-07
2.987242e-05
4.098257e-05
-1.221854e-05
-1.766029e-05
2.822976e-06
-4.284230e-06
2.178278e-06
4.718212e-06
-5.302310e-06
6.093603e-06
-4.250837e-06
1.061661e-04
1.020844e-04
5.555865e-05
9.860258e-05
8.920101e-05
4.592748e-05
4.504766e-05
5.233072e-05
2.377780e-05
2.362807e-06
4.133805e-06
1.174113e-05
9.659561e-06
3.666072e-06
5.254101e-06
2.707474e-05
1.525024e-05
1.037550e-05
4.679791e-06
-1.353560e-06
-3.807274e-07
5.881887e-06
5.568712e-06
1.189646e-05
-5.787972e-07
1.521537e-06
7.415041e-06
-7.657907e-06
7.762221e-07
8.666243e-06
-9.510814e-06
6.093692e-06
-1.634384e-06
-1.800505e-05
-3.370306e-06
3.241561e-06
-1.822184e-05
-2.337482e-06
2.570598e-06
-3.287633e-07
2.086078e-05
2.136309e-05
7.148285e-06
2.474275e-05
2.197412e-05
-4.600629e-06
-4.034554e-06
2.805161e-06
-5.983262e-06
3.896833e-06
2.184641e-05
-1.039758e-05
-8.934700e-06
9.678472e-06
-1.476489e-05
-3.511876e-06
7.945856e-06
-2.188579e-05
1.611145e-05
2.276686e-05
-2.562135e-05
-5.607416e-06
1.978995e-05
-6.257262e-06
8.429885e-07
4.944793e-06
-6.247622e-06
1.171463e-05
9.070933e-06
-1.055561e-05
7.069215e-06
1.703043e-05
-2.224022e-05
1.126491e-05
1.050707e-05
-2.238095e-05
1.242315e-05
7.944636e-06
-8.135602e-06
2.189911e-05
9.894821e-06
-2.206376e-06
2.516727e-05
3.731509e-05
-2.216345e-05
2.892799e-05
2.268396e-05
-4.352860e-06
1.252952e-05
2.393755e-05
9.198643e-06
1.550900e-05
6.616083e-07
1.557838e-05
2.566488e-05
9.105514e-06
7.294281e-06
2.008354e-05
6.026086e-06
-2.798778e-07
1.855490e-06
1.585802e-07
-9.186103e-07
-6.122338e-06
-6.114525e-06
9.495042e-06
-1.377782e-06
-4.721983e-07
3.178799e-06
1.172001e-05
1.586336e-05
7.246383e-06
4.992907e-06
1.641843e-05
7.608002e-06
4.329481e-06
1.856617e-05
6.341411e-06
1.084188e-05
1.100106e-05
1.147956e-05
1.349633e-05
1.504295e-05
3.411903e-06
6.820513e-06
1.094720e-05
1.256110e-05
1.107328e-05
2.733920e-06
1.310370e-05
1.685935e-05
9.204039e-06
3.890064e-06
5.371809e-06
3.438092e-06
-2.459168e-05
6.038585e-08
3.595877e-06
-1.166334e-05
5.383197e-06
1.837805e-05
1.714818e-05
5.372547e-06
1.259334e-06
-1.015415e-05
-7.661237e-06
-1.935151e-06
-3.283918e-06
-4.869152e-06
-5.333368e-07
-4.955197e-06
-4.488822e-06
-1.725693e-06
3.373870e-06
1.216339e-05
3.781284e-06
1.044581e-05
1.770394e-05
7.587379e-06
2.345996e-06
9.542341e-06
4.255639e-06
-2.680454e-05
2.187305e-06
-2.081596e-06
-9.630030e-06
1.078493e-05
5.915410e-06
8.608331e-06
1.758376e-05
7.629247e-06
-1.060550e-05
2.119520e-05
6.410987e-05
1.666175e-05
4.658293e-05
7.174540e-05
6.193549e-05
6.789716e-05
7.474771e-05
-2.027217e-05
2.443254e-06
7.911839e-07
-1.285174e-05
1.002132e-05
2.624696e-05
5.008017e-06
1.026209e-05
3.035785e-06
-1.827465e-05
-2.257099e-05
-9.273643e-06
-8.894989e-06
-2.909766e-05
-2.036947e-05
9.516794e-06
-4.460306e-06
-9.481284e-06
7.446984e-06
1.171238e-05
1.555470e-05
1.240525e-05
1.065480e-05
8.684508e-06
1.387616e-05
1.021115e-05
-3.992422e-07
-2.285822e-06
-5.840465e-06
8.964182e-06
-6.249170e-06
-1.240729e-05
4.440196e-06
-2.109767e-05
-1.858297e-05
-2.129558e-06
9.402733e-08
9.961541e-08
3.070904e-06
1.938457e-07
1.291444e-06
6.235538e-06
-1.971933e-06
1.157081e-06
7.193145e-06
4.209040e-06
-1.623814e-06
1.193028e-06
-1.388916e-06
-6.838861e-06
-4.291911e-06
2.274960e-07
-2.874737e-06
-5.334647e-06
-1.741500e-06
3.188460e-06
5.790668e-06
-3.084433e-06
3.835792e-06
6.078239e-06
-3.958202e-06
2.989277e-06
5.402887e-06
-1.769325e-06
-9.041036e-06
-4.180738e-06
9.240589e-06
2.163582e-06
-8.421869e-06
-3.748492e-06
-6.658397e-06
-1.021514e-06
-1.001745e-05
-1.104408e-05
-2.549789e-05
-1.792253e-05
-1.473782e-05
-3.826170e-05
-2.778236e-05
-1.743201e-05
-3.552643e-05
-6.962459e-06
-5.057963e-06
-6.402768e-06
-4.064460e-06
-5.183416e-06
-5.412267e-06
-4.622708e-06
-5.530181e-06
-4.657793e-06
8.026974e-06
2.681871e-05
5.263505e-06
2.392919e-05
4.035102e-05
1.120854e-05
2.593479e-05
3.676612e-05
1.734488e-05
1.768909e-05
1.505966e-05
-1.126775e-05
1.828337e-06
1.214243e-06
-2.435771e-05
-1.609039e-06
-2.334524e-06
-2.093692e-05
1.992873e-05
2.059615e-05
-1.130152e-05
1.877335e-05
2.712008e-05
-3.210293e-06
4.156180e-07
1.075058e-05
-1.834853e-06
-6.283505e-06
1.782797e-06
1.023674e-05
-9.125640e-06
3.118296e-07
7.357000e-06
-4.043832e-06
2.562235e-06
4.153382e-06
7.130210e-06
8.366309e-06
5.637254e-06
7.305211e-06
7.147024e-06
6.532334e-06
1.132367e-06
2.459512e-06
5.236605e-06
-1.448448e-05
-6.759089e-06
-2.048296e-05
-2.564720e-05
-1.704110e-05
-3.463044e-05
-1.881178e-05
-9.598541e-06
-2.450013e-05
6.488620e-06
1.761718e-06
-3.048985e-06
2.791727e-07
-2.641450e-06
-4.587180e-06
1.598692e-06
-1.552702e-07
7.833164e-07
5.474049e-06
5.636148e-06
-2.349111e-06
1.297028e-06
4.836430e-07
-6.031097e-06
-4.749380e-06
-4.537338e-06
-4.467070e-06
-2.715158e-05
-1.909935e-05
-3.398382e-05
-3.555945e-05
-2.593674e-05
-4.891978e-05
-3.618471e-05
-2.408476e-05
-3.644453e-05
-5.066299e-06
4.407168e-06
-1.484545e-05
-1.320789e-05
-4.145407e-06
-2.446996e-05
-3.024793e-06
1.708637e-06
-1.158292e-05
-1.042364e-05
7.116872e-06
-1.387720e-05
-2.147226e-05
-1.135182e-05
-3.899911e-05
-1.768909e-05
-2.075678e-05
-1.824450e-05
1.362316e-06
1.210690e-05
-1.213440e-05
-1.820394e-05
-4.127247e-06
-3.416850e-05
-4.993844e-06
-1.280745e-06
-2.357768e-05
-1.053154e-05
-2.231564e-06
-2.246092e-05
-2.595444e-05
-1.290004e-05
-3.707652e-05
-1.955175e-05
-6.892683e-06
-2.233836e-05
3.940671e-06
8.832948e-06
-2.571175e-06
-2.352869e-06
1.029440e-06
-1.186111e-05
9.338146e-06
6.324475e-06
-1.409638e-06
-5.569675e-06
-4.865111e-06
1.328981e-05
-4.819361e-06
-8.428316e-06
1.275780e-05
-8.833245e-06
-7.979048e-06
7.733729e-07
2.669809e-06
5.304646e-06
8.260935e-06
3.119440e-06
8.475690e-06
5.183635e-06
4.218032e-06
8.814704e-06
2.962142e-06
4.847955e-06
3.366313e-06
9.544278e-06
7.559033e-06
5.219561e-06
1.192669e-05
3.333605e-06
3.650642e-06
1.023626e-05
-4.692547e-06
-2.438268e-06
-1.165927e-06
-9.988670e-06
-1.094461e-05
-2.681991e-06
-4.028063e-06
-6.996308e-06
-4.983084e-06
1.702509e-06
-3.303250e-06
1.540751e-06
-1.670207e-06
-7.224788e-06
-4.060725e-07
-8.862705e-07
-4.462371e-06
2.857121e-08
6.451677e-06
4.814072e-06
-1.460532e-06
9.589683e-06
7.212214e-06
1.302312e-07
7.770133e-06
6.516320e-06
-2.177501e-07
-1.017513e-05
-2.209255e-06
-1.248326e-05
-2.506108e-05
-1.885726e-05
-2.729023e-05
-2.235370e-05
-2.167841e-05
-2.810245e-05
-6.402326e-06
1.863252e-05
2.300140e-05
9.167777e-06
2.372289e-05
2.456251e-05
3.453517e-09
1.845335e-05
1.200973e-05
-3.744581e-07
8.025762e-06
-1.221289e-05
-1.699089e-05
-9.683308e-06
-2.589341e-05
-2.424369e-05
-1.978932e-05
-2.573170e-05
6.705255e-06
-6.739746e-06
3.609622e-06
-5.991670e-06
-1.972307e-05
4.659412e-07
-1.735761e-05
-2.270999e-05
-1.953872e-05
-5.941117e-06
-4.033838e-06
-7.082314e-07
-5.109482e-06
-6.960429e-06
-2.812945e-06
-7.886582e-06
-7.954714e-06
-2.083489e-06
2.111792e-04
-9.950488e-04
4.228153e-05
-2.180150e-04
-1.272966e-03
-3.413591e-04
3.731290e-05
-6.565428e-04
-3.027542e-04
2.077504e-05
-4.593866e-05
7.483044e-05
1.219326e-05
-3.583420e-05
1.480002e-04
2.975641e-05
-1.342462e-05
1.336076e-04
7.973745e-05
-5.761826e-05
-8.128380e-06
1.851509e-05
-1.293995e-04
-3.985964e-05
3.250605e-05
-4.574602e-05
5.258119e-05
-8.811291e-04
-3.913619e-04
-1.374710e-04
-1.291229e-03
-3.541376e-04
-2.228946e-04
-8.989957e-04
-8.203536e-05
-8.792910e-05
-2.278321e-04
-3.024474e-04
1.045769e-04
-2.616592e-04
-4.740873e-04
-4.680867e-04
-5.836909e-04
-6.947607e-04
-2.346058e-04
1.902284e-04
-2.906648e-04
-3.927384e-04
-6.212720e-04
-5.789839e-04
-8.488852e-04
-5.676228e-04
-4.881553e-04
-8.452963e-04
-4.550933e-05
-3.259674e-04
-1.492378e-05
-1.496749e-04
-5.443189e-04
-2.493208e-04
-2.013437e-04
-6.371039e-04
-4.111995e-04
2.052130e-03
9.615166e-04
-5.453281e-04
3.272539e-03
2.416142e-03
-3.802128e-04
2.204098e-03
2.124894e-03
2.804996e-04
-2.249657e-05
6.493447e-04
1.179447e-04
-3.351390e-05
7.517986e-04
1.780500e-04
-1.163877e-04
4.782747e-04
1.722509e-04
3.041539e-04
2.761511e-04
2.554042e-04
4.232349e-04
3.544977e-04
4.612481e-04
2.848185e-04
1.118217e-04
4.431702e-04
-5.982398e-06
5.022733e-04
7.168751e-05
5.962734e-05
8.080977e-04
2.189902e-04
-1.159762e-05
5.968819e-04
2.024484e-04
-3.432301e-05
-5.913195e-06
1.097856e-04
-9.371606e-06
-8.753406e-05
9.020022e-05
7.770605e-05
-7.637617e-05
4.691285e-05
-1.423868e-04
-1.397334e-04
-2.703675e-04
-8.091760e-04
-7.534251e-04
-5.339236e-04
-7.515376e-04
-7.681930e-04
-8.492396e-04
2.902234e-04
4.671715e-05
3.582724e-04
2.180922e-04
-1.021507e-04
2.145730e-04
4.911785e-04
1.294720e-04
1.575408e-04
-6.961108e-05
-2.022969e-04
1.819239e-04
2.116196e-04
-3.559054e-04
-1.251808e-04
2.249231e-04
-5.731892e-04
-7.247726e-04
-1.125746e-04
-2.944085e-04
-6.937057e-05
-7.561070e-04
-7.230137e-04
-8.624790e-04
-1.090804e-03
-1.054462e-03
-1.143594e-03
-2.388275e-04
7.212301e-05
-2.510402e-04
-3.355739e-04
-4.331747e-04
-3.797429e-04
-9.538665e-05
-3.755966e-04
-6.797704e-04
-4.057332e-04
2.482746e-04
-2.286925e-04
-5.666828e-04
-8.577322e-05
-6.414096e-04
-7.668667e-04
-9.444322e-04
-4.935818e-04
-2.193973e-04
5.342887e-05
-7.522407e-05
-7.344831e-04
-4.100408e-04
-3.180129e-04
-8.737236e-04
-7.232890e-04
-4.378611e-04
-4.063924e-04
-2.856423e-04
-1.760960e-04
-5.954056e-04
-4.444670e-04
-4.983537e-04
-7.160542e-04
-3.708408e-04
-3.646190e-04
-5.224145e-04
6.852991e-04
1.374819e-04
2.016985e-04
6.000310e-04
-1.617312e-04
7.216773e-04
6.461421e-05
-9.468736e-04
-9.903053e-05
7.932974e-05
1.758247e-04
-1.307416e-04
8.137342e-05
1.595678e-04
-8.839661e-05
2.703694e-05
2.835053e-04
5.788780e-04
9.234485e-04
4.108329e-04
6.004615e-04
1.310052e-03
4.162120e-04
5.376820e-04
1.170551e-03
2.850400e-04
-2.189261e-05
-7.040170e-05
2.622216e-04
-2.062611e-05
-4.193698e-05
3.507557e-04
1.404443e-04
2.076671e-04
5.441824e-04
-6.157588e-04
-8.045036e-04
-1.308772e-04
-5.247624e-04
-1.032644e-03
1.200321e-04
-7.443386e-04
-1.025424e-03
-1.016192e-04
-1.029603e-04
-2.789658e-04
-9.507831e-05
-2.547766e-04
-6.658085e-04
-2.973340e-04
-1.159543e-04
-5.405548e-04
-2.521354e-04
5.201566e-04
2.176380e-04
-7.228229e-05
9.089071e-04
3.608142e-04
-1.048798e-04
8.588589e-04
3.259019e-04
-7.679161e-05
-3.687014e-04
-5.798456e-04
-5.563453e-04
-6.602350e-04
-8.191034e-04
-5.660874e-04
-6.355139e-04
-5.878335e-04
-2.382642e-04
-6.453215e-05
6.026268e-04
1.045266e-04
5.688616e-05
1.051266e-03
2.803768e-04
-2.916378e-05
7.691438e-04
1.756577e-04
-3.862139e-04
-2.734298e-04
-2.570463e-04
-4.445710e-04
-4.164083e-04
-4.302619e-04
-7.641765e-04
-5.730246e-04
-5.199703e-04
1.084871e-05
-1.192061e-05
7.061650e-05
-1.164088e-04
3.345429e-05
6.489194e-05
-1.617417e-04
3.625260e-05
6.410154e-05
1.198647e-04
-1.644558e-04
-4.382158e-05
1.047351e-04
-1.557596e-04
9.132129e-05
1.533949e-04
1.307790e-05
2.948238e-04
1.047570e-05
3.380296e-05
-1.767340e-05
4.974708e-05
5.997466e-05
-1.244473e-05
-2.242825e-07
3.524663e-05
-2.098854e-05
1.840765e-05
3.571930e-05
2.767476e-05
3.648923e-05
5.751916e-05
4.374501e-05
2.598217e-05
4.989110e-05
4.607338e-05
-1.237421e-06
8.518765e-06
2.441478e-05
1.939800e-05
2.172885e-05
1.291602e-07
-9.902364e-06
-5.008304e-05
-6.771692e-05
1.658367e-05
1.402852e-07
-7.014968e-06
9.800310e-06
9.791041e-06
4.128117e-06
2.127385e-05
1.689697e-05
1.318527e-05
-3.504929e-06
-4.126284e-06
-4.099153e-05
-3.320799e-06
8.499587e-06
9.121386e-06
-5.146133e-05
-1.978747e-05
1.737467e-06
-1.664480e-05
-6.258328e-06
-3.553544e-05
-4.306169e-05
-3.770899e-05
-4.407475e-05
-8.993096e-06
-8.966522e-06
4.606006e-06
-3.351103e-06
4.935944e-06
4.178164e-06
1.748177e-05
7.952529e-06
1.074278e-05
9.519419e-06
9.706976e-06
1.395176e-05
1.270553e-05
2.449222e-05
1.545595e-05
3.110948e-05
3.674122e-05
3.552923e-05
3.643160e-05
5.698165e-05
4.803307e-05
3.290681e-05
2.344611e-05
2.053302e-05
4.830003e-05
1.599459e-05
2.125309e-05
4.542128e-05
1.729048e-05
-5.980080e-06
1.957133e-04
2.241197e-04
1.045661e-04
2.079767e-04
1.914167e-04
7.204456e-05
5.874674e-05
5.540979e-05
3.943071e-05
9.774501e-06
-1.031419e-08
-5.151567e-06
2.346180e-05
3.565499e-05
1.375057e-05
5.008814e-05
8.759136e-05
7.309995e-05
3.735450e-05
1.942214e-05
-5.151133e-06
5.293620e-05
2.667149e-05
7.009415e-06
6.371362e-05
3.918973e-05
1.192009e-05
-3.396929e-05
-4.284704e-06
8.735675e-06
1.645986e-06
1.159874e-05
-1.022888e-05
2.876429e-06
9.552125e-06
-4.507896e-06
3.046227e-05
-1.801187e-05
-2.645046e-05
3.285739e-05
-4.630099e-06
-2.296109e-05
2.795282e-05
1.844255e-05
-2.640887e-07
5.353329e-05
1.232286e-05
-3.985359e-06
5.243915e-05
-9.877942e-06
3.078307e-06
5.679413e-06
5.772953e-06
-7.854551e-06
-5.612368e-05
-2.378275e-06
-3.714689e-05
-9.401170e-06
-1.172276e-05
-1.256817e-05
-4.566377e-05
1.523373e-05
-6.656749e-06
-1.463802e-05
1.463832e-05
1.677365e-05
2.813157e-05
1.230019e-05
-1.822349e-05
-1.518048e-05
-3.540662e-06
-2.335982e-05
-5.346584e-05
1.106475e-06
1.589508e-05
2.633741e-05
8.187401e-07
-2.179396e-05
-4.754772e-05
-1.509596e-06
1.387279e-06
3.362571e-05
4.193842e-05
-3.677596e-05
-2.212243e-05
-1.552217e-05
2.086249e-05
-1.116586e-05
3.314940e-05
1.912316e-05
-1.816891e-05
-4.010346e-06
-1.732404e-05
-1.919866e-05
2.431264e-05
5.138460e-06
-1.191221e-05
5.625741e-06
3.432504e-06
2.942491e-05
-1.092643e-05
-1.609637e-05
1.477425e-05
4.580777e-06
1.435101e-05
-1.217873e-05
1.617707e-05
1.389109e-05
2.835224e-05
7.761658e-05
7.007095e-05
-1.679444e-05
5.196160e-05
7.357011e-05
-1.719903e-05
2.792366e-05
9.469118e-05
1.717991e-05
2.769483e-05
1.702093e-05
7.213051e-07
1.251308e-05
2.515732e-05
1.171858e-05
1.861485e-05
1.792820e-05
1.511712e-05
9.140452e-06
4.646698e-06
2.320173e-05
-4.083807e-07
1.358490e-05
2.453512e-05
1.942308e-05
2.680500e-05
4.178659e-05
9.840318e-06
-3.124148e-05
9.265276e-06
-1.896022e-06
-8.772740e-06
1.809830e-05
3.126985e-05
8.060184e-06
3.106928e-06
3.367541e-07
4.228196e-06
-1.703186e-05
-1.329852e-05
5.908330e-06
-1.969100e-05
-1.515312e-05
8.213085e-06
9.104360e-06
2.414691e-05
1.835538e-05
4.263756e-05
4.546403e-05
2.019184e-05
2.175633e-05
9.429750e-06
3.755387e-07
-1.316407e-05
-1.372327e-05
-1.425202e-05
-1.052715e-06
-1.901531e-06
-1.132332e-05
-2.411556e-07
6.708860e-06
1.012227e-05
1.086316e-05
1.463082e-05
6.270034e-05
6.989067e-05
7.777777e-05
6.327657e-05
2.489485e-04
2.283019e-04
1.069023e-04
4.213330e-05
1.734816e-05
-1.989786e-05
7.512762e-06
-4.025048e-06
3.448715e-06
-1.094281e-05
1.520096e-05
4.996852e-06
8.070277e-05
3.045480e-05
-6.970151e-05
3.837851e-06
3.083606e-05
-3.241708e-05
8.606141e-05
2.915178e-05
6.357463e-06
-1.598005e-06
1.266026e-05
2.248851e-05
-2.325663e-05
1.200120e-07
2.914763e-05
-1.250439e-05
3.903843e-06
2.109810e-05
8.555841e-06
-1.521280e-05
1.675912e-05
-2.381720e-05
-3.494212e-05
2.177648e-05
-1.647359e-05
-4.539454e-05
1.881337e-06
7.643293e-06
2.379163e-06
7.325729e-06
-4.911918e-07
-4.557762e-06
1.051104e-05
-8.026035e-06
-9.922730e-06
7.923413e-06
3.260784e-06
7.286271e-06
1.146687e-05
6.335251e-06
6.621850e-06
1.118301e-05
1.001468e-05
2.194503e-06
6.768408e-07
-1.038152e-05
-8.504829e-06
6.091532e-06
-1.742672e-05
-1.103548e-05
4.751168e-06
-1.209037e-05
-5.958842e-06
7.956475e-06
-8.132837e-06
-1.256068e-05
-1.486841e-05
7.133642e-07
-5.606606e-06
-1.324815e-05
2.035642e-05
4.079959e-06
1.163305e-05
1.011823e-05
-1.772496e-05
-7.354765e-05
-2.725368e-05
-2.500666e-05
-9.682913e-05
-1.362043e-05
-1.359157e-05
-6.142038e-05
-8.139245e-06
-7.206052e-06
-2.849374e-06
-9.062685e-06
-1.036090e-05
-3.839096e-06
-1.224152e-05
-1.034646e-05
1.585360e-07
-1.448203e-05
6.543924e-05
3.297276e-05
-1.109168e-05
9.586213e-05
6.496288e-05
-1.122006e-05
7.351679e-05
6.313073e-05
-2.156581e-05
1.541538e-05
-1.163360e-05
-2.278446e-05
4.498956e-06
-4.601815e-05
-1.533797e-05
1.510695e-05
-3.977701e-05
1.140434e-05
1.788669e-05
1.252312e-05
1.350391e-05
1.798885e-05
1.065952e-05
-1.748864e-05
-1.726999e-05
-3.257009e-06
-5.620194e-06
4.095901e-06
2.032507e-05
-2.438160e-06
-3.289257e-06
1.419218e-05
3.961029e-06
5.646525e-07
1.141200e-05
-1.136304e-05
3.159820e-07
3.472920e-06
-8.866491e-06
3.795024e-06
3.138276e-06
-1.119793e-05
1.090331e-06
4.295141e-06
-6.226169e-06
-2.251198e-05
-4.566172e-05
-2.952991e-05
-4.697563e-05
-6.862301e-05
-7.622827e-06
-2.909339e-05
-5.225548e-05
8.995024e-06
2.557864e-06
4.771663e-06
-2.602869e-06
-3.266527e-06
-3.372849e-06
8.130297e-06
9.752766e-06
1.249521e-05
1.464874e-05
8.626977e-06
4.204880e-06
1.102527e-05
2.029852e-06
-3.702133e-06
2.221198e-05
9.900833e-06
1.112400e-05
-1.696864e-06
-3.997695e-05
-6.642789e-05
-2.901810e-05
-6.467828e-05
-9.891390e-05
1.818109e-06
-3.650042e-05
-5.943565e-05
5.333044e-06
-5.633718e-06
-3.210677e-05
-9.304196e-06
-3.085479e-05
-5.237215e-05
1.913140e-05
-5.035251e-06
-2.855691e-05
4.255772e-06
-2.497251e-05
-7.468471e-05
-1.104135e-05
-3.568704e-05
-1.110578e-04
1.468066e-05
-2.822698e-05
-7.158642e-05
-8.951521e-06
-2.671876e-05
-4.142864e-05
-2.122473e-05
-5.342930e-05
-7.920757e-05
2.436997e-05
-2.054865e-05
-6.072152e-05
2.063641e-07
-3.075947e-05
-6.715608e-05
-3.613315e-05
-4.568202e-05
-8.105104e-05
3.415330e-06
-1.502768e-05
-3.685885e-05
7.217508e-05
3.338265e-05
-1.870322e-06
5.638715e-05
3.196453e-05
-5.318650e-06
7.396768e-05
5.286812e-05
2.219666e-05
-2.210869e-06
-1.616696e-05
6.044517e-06
-6.474710e-06
-1.599093e-05
9.566611e-06
-6.806792e-06
-1.968601e-05
3.068088e-06
-1.761144e-06
2.190710e-05
2.610867e-05
-3.036403e-06
2.453088e-05
2.645214e-05
6.339850e-07
2.397783e-05
1.985407e-05
-7.487557e-06
4.866079e-06
1.645297e-05
-6.422181e-07
9.981749e-06
2.094745e-05
-5.653495e-06
3.710192e-06
1.459864e-05
-1.788238e-05
-1.486027e-05
-3.006492e-05
-1.001023e-05
-1.951511e-05
-4.707166e-05
7.263107e-07
-9.265540e-06
-3.613992e-05
3.058446e-07
1.620820e-06
-2.942605e-06
9.831443e-07
-2.273928e-06
-8.760517e-06
2.888238e-06
-2.580768e-06
-1.071762e-05
2.095679e-06
1.165524e-05
1.579808e-06
6.125678e-06
2.303233e-05
6.068350e-06
5.536259e-06
2.023789e-05
5.663838e-06
-1.124529e-05
-2.143407e-05
-4.995977e-05
-2.135761e-05
-3.616368e-05
-7.237306e-05
-1.209895e-06
-2.501691e-05
-6.208975e-05
-1.485497e-05
-4.565060e-06
4.229106e-06
-2.662252e-05
-4.691685e-06
2.104206e-05
-2.021798e-05
1.074742e-05
3.263406e-05
-2.865006e-06
-1.644072e-05
-6.096135e-05
-8.578382e-06
-2.585445e-05
-9.040824e-05
1.148329e-05
-1.608199e-05
-6.341856e-05
6.893163e-07
-2.389695e-05
-3.212460e-05
-1.394242e-05
-1.808095e-05
-1.686440e-05
-1.440294e-05
-1.846017e-05
-8.681634e-06
4.627938e-06
7.955084e-06
5.793647e-06
5.785208e-06
3.877098e-06
2.239593e-06
-4.449445e-06
-3.507377e-06
6.502884e-07
2.100896e-05
4.785875e-06
1.455253e-05
-3.732555e-06
-4.574549e-06
-2.837136e-06
1.572908e-05
2.161220e-05
1.830175e-05
5.956524e-06
5.132988e-06
7.090046e-07
1.127955e-05
7.160699e-06
5.373944e-06
8.602545e-06
8.557176e-06
1.371555e-05
-2.674726e-07
-1.513878e-06
-3.355235e-07
9.094437e-06
5.622590e-06
7.331659e-06
-8.413209e-06
-1.077935e-05
-2.416029e-06
2.367881e-06
1.615520e-06
4.593767e-07
8.769862e-07
4.650549e-06
2.694481e-06
-1.003805e-07
1.447643e-06
1.572294e-06
1.519773e-05
-4.296518e-06
3.256285e-06
-8.252242e-06
-9.266253e-06
-4.550385e-06
3.363262e-06
1.918493e-05
2.562361e-05
-1.582747e-06
-4.226016e-06
-3.747809e-05
-3.283364e-05
-1.243034e-05
-4.814801e-05
-1.168372e-05
-1.800561e-06
-2.013878e-05
-8.993889e-07
8.951131e-07
-4.151025e-07
-4.825694e-07
-2.889442e-06
-5.562356e-06
5.053171e-06
3.498093e-06
2.877866e-06
2.735467e-05
2.003953e-05
3.744666e-06
2.645551e-05
2.263757e-05
-4.478005e-07
4.385717e-05
3.816124e-05
1.468040e-05
-2.075958e-05
9.870047e-06
5.688821e-06
-1.583968e-06
1.190374e-06
-2.146466e-05
1.931112e-05
5.683291e-06
-1.814432e-05
6.415963e-05
-7.029503e-07
-3.078245e-05
5.193774e-05
-2.740416e-06
-2.409192e-05
1.273303e-05
-4.491475e-06
3.146015e-06
1.473884e-06
4.334449e-06
3.909276e-06
3.366577e-06
1.094884e-05
1.638038e-05
-1.994925e-06
4.216314e-06
7.780067e-06
4.352883e-07
-4.164070e-06
-2.074734e-06
7.721785e-06
-1.724744e-07
3.713363e-07
5.900366e-06
-7.111344e-07
3.789171e-07
-1.869248e-05
5.402147e-06
-1.640493e-05
-4.821960e-05
-2.855111e-05
-4.882090e-05
-8.832486e-06
-1.122146e-05
-3.858391e-05
-7.610749e-06
5.459985e-06
-8.367289e-06
-1.063311e-05
1.825933e-06
4.032225e-07
3.214249e-06
4.759938e-06
8.068655e-06
1.182944e-05
1.548161e-05
3.134999e-06
-1.314777e-05
6.551337e-06
-3.075442e-06
2.126333e-06
2.595256e-05
3.883798e-05
-6.079211e-06
7.972220e-06
-1.775121e-05
-4.758355e-05
-2.810283e-05
-6.797363e-05
3.284448e-06
2.892152e-05
6.674333e-06
-1.640132e-05
2.246201e-05
-8.128702e-06
-4.382903e-05
-8.356341e-06
-3.396624e-05
6.816846e-07
6.681084e-06
-1.603184e-05
-2.147276e-05
-8.475036e-06
-5.500103e-05
-6.739017e-05
-3.318723e-05
-4.104822e-05
-1.278870e-05
-5.458847e-06
-3.594633e-05
-2.487142e-05
6.304674e-06
-1.703323e-05
-3.405973e-05
-1.227796e-05
-4.275807e-05
1.937891e-05
1.376285e-05
-1.810399e-05
-1.651637e-05
-8.052093e-06
-3.863938e-05
-3.854510e-05
-2.146593e-05
-5.526147e-05
7.452529e-07
2.457770e-05
2.334225e-06
-7.576516e-06
2.022351e-05
-3.417478e-06
-2.549944e-05
1.546451e-05
-8.940789e-06
1.729440e-06
2.196965e-05
3.363226e-05
5.168908e-06
6.489687e-06
1.862267e-05
1.904009e-05
1.399482e-05
1.759338e-05
5.559864e-06
1.212040e-05
2.306797e-05
4.798757e-06
5.839075e-06
-2.546432e-06
5.608143e-06
7.232675e-06
6.797140e-06
9.198456e-06
6.352351e-06
8.337746e-06
1.291015e-05
1.073611e-05
1.888687e-05
9.308610e-06
4.635056e-06
1.784783e-05
-2.748479e-06
-1.333656e-06
5.996063e-06
9.344625e-07
-1.159113e-05
-7.363852e-06
-1.062192e-05
-6.259575e-06
1.692689e-05
-1.281257e-05
3.632538e-06
7.216785e-06
-9.028830e-06
-3.679867e-06
-2.090391e-06
-5.640554e-06
2.870420e-06
9.681645e-06
-1.318356e-05
-1.971317e-07
9.022916e-06
6.193719e-06
1.357627e-06
-4.928136e-06
1.212467e-05
3.959119e-06
-4.874936e-06
9.100401e-06
1.677912e-06
-8.494165e-07
-3.843215e-05
-2.552459e-05
-3.897083e-05
-4.260269e-05
-3.015727e-05
-3.119354e-05
-1.291291e-05
-9.507215e-06
-3.348095e-05
3.029984e-06
1.354374e-05
-5.252311e-06
4.139297e-05
4.138294e-05
8.930101e-06
6.361527e-05
3.412108e-05
9.991961e-06
-1.980362e-05
-1.790491e-05
-3.797721e-05
-3.379914e-05
-1.575463e-05
-3.140728e-05
-1.595516e-05
1.875990e-05
-9.458861e-06
-6.687293e-06
-1.678481e-05
1.700557e-06
3.131858e-05
-2.151982e-06
-1.478496e-05
1.193608e-05
1.289540e-05
1.263208e-05
1.923148e-06
4.585497e-06
-2.027348e-06
9.875119e-06
1.198596e-05
6.930573e-06
6.858113e-06
6.060469e-06
9.328327e-06
6.659800e-06
2.035999e-05
1.766034e-05
1.901294e-05
3.409632e-05
1.855401e-06
2.970453e-05
1.434000e-05
-3.131448e-06
1.146381e-05
1.264103e-05
1.905475e-05
1.134796e-05
8.485066e-06
1.013526e-05
1.162967e-05
1.476704e-05
1.662724e-05
2.105158e-05
1.343565e-05
5.742569e-06
8.680750e-06
-7.000751e-07
-3.909513e-06
2.736987e-06
1.869408e-06
2.851565e-06
-7.645725e-06
2.625632e-06
6.083368e-06
-1.375507e-05
8.651948e-06
6.895296e-06
-7.697259e-06
1.183877e-05
5.931293e-06
4.191082e-06
2.698962e-05
1.207862e-05
-1.632054e-05
-1.558533e-05
-1.108374e-05
3.544534e-07
-5.391017e-06
-4.682430e-06
-9.386682e-05
-8.429826e-05
-1.035261e-04
-1.015599e-04
-6.469460e-05
-9.998048e-05
-8.872528e-05
-6.651160e-05
-9.619741e-05
-7.027489e-06
-3.620914e-06
6.923785e-06
7.535244e-06
-4.464795e-07
8.437397e-06
8.710494e-06
-1.631123e-06
7.720044e-06
3.103783e-05
3.547681e-06
-2.578513e-05
6.514277e-05
1.887898e-05
-3.885336e-05
6.684716e-05
4.379680e-05
-1.067346e-05
1.604784e-05
2.251027e-05
1.970814e-05
-2.181320e-06
-2.151615e-05
-1.257492e-06
-1.294694e-05
-3.045576e-05
-1.627018e-05
2.451408e-05
-5.330744e-06
-2.251663e-06
4.448795e-05
1.496782e-05
-9.448118e-06
4.379751e-05
3.214482e-05
-5.452188e-06
1.049166e-05
2.116847e-05
4.271491e-06
1.104534e-05
3.702716e-05
1.095217e-05
-9.868692e-07
2.281311e-05
7.847641e-06
2.516444e-06
2.822040e-06
3.723851e-06
7.169317e-06
4.982179e-06
7.740829e-06
4.433245e-06
2.076252e-06
5.620485e-06
-7.431610e-05
-6.261680e-05
-5.862020e-05
-6.583003e-05
-4.431826e-05
-5.372641e-05
-7.640742e-05
-6.462089e-05
-7.552854e-05
-3.370485e-05
-2.740469e-05
-2.293523e-05
-1.583265e-05
-2.964710e-06
-7.794555e-06
-2.748777e-05
-1.633816e-05
-2.035468e-05
-4.547453e-05
-2.595777e-05
-6.455278e-06
-1.564542e-05
-1.238002e-05
-4.192826e-06
-4.217211e-06
-1.286087e-05
-1.460526e-05
-1.281469e-04
-8.506677e-05
-8.962458e-05
-9.577673e-05
-5.953081e-05
-9.864145e-05
-9.162356e-05
-6.835543e-05
-1.013974e-04
-7.192006e-05
-5.197111e-05
-4.213119e-05
-4.475668e-05
-3.118234e-05
-2.958769e-05
-5.076419e-05
-4.982603e-05
-5.183493e-05
-1.143077e-04
-8.191849e-05
-1.133324e-04
-8.610626e-05
-6.964696e-05
-9.947990e-05
-8.847044e-05
-8.955840e-05
-1.134821e-04
-8.742748e-05
-8.317909e-05
-8.096237e-05
-6.516850e-05
-1.653940e-05
-5.118623e-05
-6.479015e-05
-4.420046e-05
-6.438465e-05
-9.113159e-05
-6.758883e-05
-9.050500e-05
-6.662340e-05
-4.892571e-05
-7.078391e-05
-6.752686e-05
-4.600999e-05
-6.141759e-05
-7.114717e-05
-3.252452e-05
-5.074173e-05
-4.402149e-05
-1.272181e-05
-3.979801e-05
-5.562008e-05
-4.293116e-05
-4.468110e-05
7.634396e-06
1.706138e-05
3.330870e-05
9.597711e-06
2.698807e-05
3.255587e-05
4.632393e-06
1.441563e-05
2.159124e-05
9.867460e-06
1.010720e-05
-1.356873e-07
1.640446e-05
2.822180e-05
1.362613e-05
7.293082e-06
1.355590e-05
1.558569e-07
1.529295e-05
1.885221e-05
3.104138e-05
1.883036e-05
1.183213e-05
2.717583e-05
1.506249e-05
1.452507e-05
1.511611e-05
-3.410584e-05
-4.115838e-05
-3.195224e-05
-3.491450e-05
-4.110731e-05
-1.716028e-05
-1.972813e-05
-2.653257e-05
-2.138382e-05
7.147294e-06
3.210890e-07
1.065125e-07
-8.273906e-06
-3.004138e-06
6.977729e-07
-9.552585e-06
3.690974e-06
1.108052e-05
1.004272e-05
-7.339530e-06
-1.217034e-05
1.528272e-05
-9.359620e-06
-1.700525e-05
1.696933e-05
-1.483226e-06
-9.199495e-06
-6.112119e-05
-6.353499e-05
-7.501082e-05
-5.629541e-05
-4.407934e-05
-4.822551e-05
-6.937301e-05
-5.376221e-05
-6.382317e-05
8.144540e-06
3.033392e-05
1.857356e-05
4.253144e-05
4.342738e-05
8.058120e-06
2.854134e-05
1.530663e-05
6.842965e-06
-8.112356e-05
-5.838985e-05
-6.745227e-05
-7.047190e-05
-4.989482e-05
-5.169591e-05
-7.086946e-05
-5.162532e-05
-6.109205e-05
1.977318e-06
-8.536311e-06
-3.792671e-05
-2.362051e-05
3.449916e-05
-3.353435e-06
-3.695514e-05
8.488845e-06
-1.611042e-05
3.827120e-06
8.643537e-06
1.586013e-05
8.616916e-06
5.825617e-06
1.284936e-05
1.105547e-05
6.947147e-06
1.271759e-05
-1.742855e-06
3.443154e-06
5.087765e-06
-1.509392e-06
-3.233617e-07
-2.970156e-06
-4.149398e-06
-6.053086e-06
-5.243079e-06
8.579855e-07
-3.282334e-07
-4.020310e-07
8.267670e-07
-7.117372e-07
2.996584e-07
5.805018e-07
-4.383702e-08
1.370149e-06
2.068470e-07
7.245621e-08
6.394613e-07
3.535041e-06
2.325006e-06
1.695187e-06
1.436650e-06
-7.070596e-08
-2.315668e-06
1.088413e-07
1.602226e-06
-1.488128e-07
1.126295e-06
2.509783e-06
4.930815e-07
1.002784e-06
1.785452e-06
-1.675419e-07
-1.162676e-06
4.552857e-06
3.344046e-06
6.892065e-06
7.262177e-06
3.555553e-06
9.618239e-06
4.311584e-06
-7.986947e-07
8.312712e-07
-3.087801e-06
-2.229233e-06
-6.595042e-06
-9.366736e-06
-7.937176e-06
1.127398e-06
3.874864e-06
3.902725e-07
-2.991678e-06
-2.248224e-06
-2.097318e-06
-3.514996e-06
-1.879503e-06
-2.599380e-06
-6.674600e-07
1.120590e-06
2.731003e-08
1.430384e-06
6.213421e-06
2.235199e-06
8.475853e-07
6.310293e-06
1.737830e-06
-8.195135e-07
2.696869e-06
9.507737e-07
-6.552509e-06
-7.268396e-06
-8.525290e-06
-6.146899e-06
-6.946111e-06
-9.666616e-06
-2.553789e-06
-1.406100e-06
-5.776294e-06
2.006871e-06
-1.359578e-08
9.646059e-08
4.365501e-06
4.662604e-06
5.313559e-06
3.973242e-06
6.730033e-06
6.067668e-06
-1.378983e-06
2.514504e-06
2.722862e-06
-1.398772e-06
2.779925e-06
3.087253e-06
-1.479237e-06
7.167841e-07
2.873848e-06
3.403118e-08
2.029171e-07
-5.952023e-07
9.926708e-07
8.047690e-07
-2.042206e-07
-4.247918e-07
4.666259e-07
-7.201430e-07
-7.682361e-06
-5.508601e-06
-5.023057e-06
-1.390474e-05
-8.179607e-06
-1.012765e-05
-6.665960e-06
2.481676e-07
-9.622232e-07
-2.594894e-06
-1.772338e-06
-3.768318e-06
-6.617661e-06
-4.089672e-06
-5.897291e-06
-2.374472e-06
5.059114e-07
-1.640215e-06
5.725986e-06
7.043275e-06
5.877969e-06
5.142223e-06
5.750738e-06
2.835542e-06
1.170604e-05
1.056019e-05
7.337483e-06
-9.727552e-06
-7.528211e-06
-7.924518e-06
-1.338201e-05
-8.402398e-06
-1.302600e-05
-2.949829e-06
1.091859e-06
-1.459924e-06
-5.908159e-06
-2.430507e-06
-2.837314e-06
-1.319049e-05
-6.332409e-06
-9.266871e-06
-3.892021e-06
3.594929e-06
1.311946e-06
-3.940127e-06
-2.209055e-06
-3.173383e-06
-1.631212e-05
-1.042376e-05
-9.969207e-06
8.153398e-07
5.399501e-06
8.506480e-06
-6.526660e-06
-6.739431e-06
-4.016565e-06
-6.820263e-06
-3.094187e-06
-9.372583e-06
3.175707e-06
8.158210e-06
3.238903e-06
-5.972930e-06
-4.880435e-06
-9.614983e-06
-8.359414e-06
-4.009557e-06
-9.721743e-06
2.362224e-06
3.520845e-06
-4.751713e-07
3.030491e-06
4.870961e-06
2.701315e-06
-3.701197e-06
2.451278e-06
1.161172e-06
-2.183529e-06
2.406038e-07
4.698032e-06
-4.966001e-07
5.156489e-07
1.676134e-06
2.398825e-06
2.303149e-06
1.211866e-06
-9.891550e-07
2.435137e-06
1.307688e-06
2.426907e-06
1.875720e-06
5.862789e-07
1.820519e-06
2.603600e-06
1.304474e-06
1.889059e-06
2.067773e-06
9.284887e-07
4.575145e-07
7.039939e-07
7.599338e-07
8.283553e-07
1.082726e-06
1.133473e-06
1.050833e-07
-2.854745e-08
-5.842999e-07
-9.995400e-07
-3.537906e-06
1.495055e-06
-2.968993e-06
-7.598812e-06
-1.654152e-06
-1.350405e-06
-3.588357e-06
5.598022e-07
1.045425e-06
-6.095702e-07
1.411464e-07
3.415607e-07
-2.586667e-06
-3.571743e-07
-1.632957e-07
-1.116469e-06
-2.098656e-07
8.135028e-07
1.331988e-07
-7.513830e-07
2.315563e-06
1.500673e-06
9.460394e-07
1.485256e-06
1.714905e-06
1.323403e-06
-7.550329e-06
-7.860741e-06
-6.838273e-06
-1.215273e-05
-1.073336e-05
-1.019620e-05
-3.928842e-06
-1.046802e-06
-2.825247e-06
-3.506572e-06
6.113639e-06
3.778251e-06
-3.767020e-06
6.336573e-06
5.909527e-06
-2.788304e-07
6.683912e-06
8.086320e-06
-2.835097e-06
-2.051876e-06
-3.082718e-06
-5.903498e-06
-6.576752e-06
-8.140093e-06
4.894438e-06
1.291855e-06
1.562629e-07
-7.998685e-07
-4.636155e-06
-3.907271e-06
2.231917e-06
-1.820005e-06
2.085413e-07
-6.133213e-06
-3.499426e-06
-2.170327e-06
6.929127e-07
1.375013e-06
1.709921e-06
2.777771e-07
4.804344e-07
1.722153e-06
2.083475e-07
7.133444e-07
1.509444e-06
-2.457618e-05
1.077000e-05
1.741313e-06
-6.580770e-05
-2.583520e-05
-5.078134e-06
-1.122196e-05
-3.809883e-05
-8.670739e-07
1.715595e-06
8.031990e-06
1.169213e-05
3.788453e-06
1.517380e-05
1.673775e-05
2.319603e-06
1.438517e-05
1.198479e-05
1.077613e-05
6.587563e-06
3.529024e-06
6.537894e-06
-3.316648e-06
-4.565638e-06
2.619907e-06
-5.524229e-06
-2.302112e-06
-1.309761e-06
7.115076e-06
1.021771e-05
-3.959448e-06
6.192030e-06
7.993530e-06
-3.992650e-06
6.811392e-06
5.901994e-06
1.506150e-05
-6.222429e-06
-2.325452e-05
1.254499e-05
-2.164510e-06
2.410306e-06
4.216200e-05
1.759352e-06
7.136816e-06
-3.737608e-05
-2.976235e-05
-8.220213e-05
-7.652387e-05
-4.784674e-05
-1.340150e-04
-4.676315e-05
-2.362714e-05
-1.137297e-04
-1.663230e-06
6.779746e-06
5.225954e-06
-5.749677e-06
-2.135972e-07
3.862013e-06
-2.189648e-06
-7.626721e-06
-8.101640e-06
1.199620e-07
3.177331e-05
2.630557e-05
1.495914e-05
4.315828e-05
2.159271e-05
2.810033e-05
4.372641e-05
2.291938e-05
9.649119e-06
1.800973e-05
-9.308669e-06
-1.360204e-05
-2.166963e-05
-3.684975e-05
-1.397660e-05
-1.294447e-05
-2.945158e-05
1.580547e-05
2.619284e-05
-9.381764e-06
3.230090e-05
3.588598e-05
-2.041786e-05
1.267409e-05
-1.981223e-06
-5.360396e-05
-4.545838e-06
6.151697e-06
1.124303e-05
-1.421169e-05
8.130629e-06
1.395445e-05
-7.145798e-06
1.279216e-05
1.303134e-05
2.012360e-06
1.185130e-05
1.627606e-05
5.743029e-06
1.223762e-05
1.176905e-05
3.646972e-06
1.251108e-05
4.325763e-06
-3.711597e-05
-2.646258e-05
-5.452730e-05
-5.461597e-05
-3.999522e-05
-7.772842e-05
-3.376657e-05
-2.510459e-05
-5.422657e-05
2.559723e-06
1.704153e-05
1.684025e-05
-1.143370e-05
7.543499e-06
-1.627779e-06
-1.972190e-05
8.259497e-06
-2.836123e-06
9.752041e-06
2.780484e-05
1.694282e-05
-1.252375e-05
7.679845e-06
-1.185673e-08
7.512714e-06
6.458235e-06
-6.883768e-06
-7.075629e-05
-4.579327e-05
-9.527247e-05
-1.038154e-04
-6.394382e-05
-1.148180e-04
-4.660042e-05
-5.182499e-05
-9.785437e-05
-2.295311e-05
-3.875246e-06
-2.823349e-05
-4.135843e-05
-2.063307e-05
-5.171658e-05
-2.793094e-05
-1.233783e-05
-3.392337e-05
-6.454304e-05
-1.862308e-05
-6.662950e-05
-8.464226e-05
-5.090884e-05
-1.207459e-04
-5.575869e-05
-4.346578e-05
-8.920325e-05
-3.137732e-05
-1.561467e-05
-5.976923e-05
-7.058527e-05
-4.788598e-05
-9.716450e-05
-5.172179e-05
-3.585312e-05
-7.714941e-05
-3.585830e-05
-1.801101e-05
-5.983432e-05
-5.641272e-05
-3.386898e-05
-8.710151e-05
-2.453205e-05
-1.345641e-05
-6.718242e-05
2.003055e-05
2.664364e-05
-8.230228e-06
5.826631e-06
2.067851e-05
-1.076833e-05
7.038328e-06
1.225251e-05
-8.186179e-07
3.231857e-06
-3.559405e-06
2.644077e-05
-3.780000e-06
-2.034526e-06
2.098201e-05
-1.788020e-05
-3.110210e-06
1.325459e-05
2.702603e-05
2.842588e-05
2.206544e-05
1.575519e-05
2.553773e-05
1.542765e-05
3.231465e-06
1.639689e-05
3.906697e-06
-3.084201e-06
8.904547e-06
2.870092e-05
1.241163e-06
9.742340e-06
2.871162e-05
3.508647e-07
8.562841e-06
1.458543e-05
-2.211292e-05
-1.031213e-05
-1.414477e-05
-3.199730e-05
-2.589966e-05
-4.049920e-05
-2.105463e-05
8.173335e-07
-2.419310e-05
-4.055070e-06
-1.093301e-05
-1.423988e-06
-7.347811e-06
-1.266854e-05
-8.951844e-07
-7.633193e-06
-1.098111e-06
1.050043e-05
8.593805e-06
7.366196e-06
4.037338e-06
1.237694e-05
7.501975e-06
-4.313213e-06
9.727817e-06
5.655208e-06
-5.393633e-06
-3.230269e-05
-1.887479e-05
-4.737293e-05
-4.850490e-05
-3.906884e-05
-8.415638e-05
-4.345022e-05
-2.297451e-05
-6.213497e-05
7.566857e-06
3.739347e-05
2.491001e-05
1.656366e-05
5.979106e-05
3.286566e-05
1.396013e-05
5.373005e-05
2.110203e-05
-2.900906e-05
-1.170081e-05
-5.139706e-05
-6.091009e-05
-4.323720e-05
-9.375795e-05
-3.767896e-05
-2.282081e-05
-7.229353e-05
3.540544e-07
-1.149049e-05
7.572301e-06
3.841833e-06
-1.182261e-06
6.339435e-06
-9.380892e-06
2.248410e-06
-5.006701e-06
7.013670e-06
1.216037e-05
1.357037e-05
6.772944e-06
1.177559e-05
1.816032e-05
2.971007e-06
6.147779e-06
1.007045e-05
3.392505e-06
-3.929716e-05
-2.216092e-05
7.415115e-05
2.044897e-05
2.022829e-05
5.324267e-05
-1.800631e-05
-1.240771e-05
1.444000e-05
7.352152e-06
2.601748e-06
2.217724e-05
2.480245e-05
2.495443e-05
1.013217e-05
2.032519e-05
2.798425e-05
1.623486e-05
5.209914e-06
7.447923e-06
1.402681e-05
8.014119e-06
8.818606e-06
3.157972e-06
-6.051609e-06
-8.273796e-06
1.432992e-05
2.028557e-05
2.841673e-05
6.380119e-06
1.433444e-05
2.197437e-05
8.247472e-06
1.151549e-05
1.104967e-05
1.022349e-05
9.221172e-06
4.393128e-05
1.576467e-05
2.878349e-05
2.762943e-05
3.378151e-05
2.016560e-05
-1.775674e-07
-1.177769e-04
-1.222804e-05
-1.744688e-05
-1.982547e-04
-8.144589e-05
-9.298648e-05
-1.089685e-04
-2.073792e-06
-4.947797e-05
7.041795e-06
1.318353e-05
7.341854e-06
1.008015e-05
1.109021e-05
1.034763e-05
1.241721e-05
1.179839e-05
1.473395e-05
3.118725e-05
1.551808e-05
6.841370e-06
5.315522e-05
4.941980e-05
1.607838e-05
2.753432e-05
4.536699e-05
3.818043e-05
3.903609e-07
-4.203326e-05
-1.216986e-05
7.818458e-06
-5.950414e-05
-3.093582e-05
4.784002e-05
-3.421978e-05
-3.167773e-05
4.923160e-05
3.059350e-05
1.520850e-05
4.307647e-05
4.317836e-05
5.413985e-06
-1.473607e-07
5.416115e-05
3.237581e-05
1.549747e-06
-9.119155e-07
-6.007629e-06
9.284522e-06
2.537134e-05
1.140610e-05
3.136622e-06
3.816693e-05
3.762673e-05
1.350371e-05
5.542585e-06
8.360415e-06
2.633788e-05
1.253642e-05
1.574388e-05
2.123409e-05
1.058037e-05
1.232301e-05
-6.798931e-05
-2.558520e-06
-2.852349e-05
-1.313427e-04
-5.138309e-05
-7.927429e-05
-9.207911e-05
-9.688730e-06
-3.174075e-05
1.425032e-05
4.378783e-05
6.482810e-06
-3.515506e-05
2.547142e-06
-2.474586e-05
-5.060955e-06
4.480376e-05
5.447720e-06
-1.273050e-05
3.864816e-05
3.120787e-05
-3.173185e-05
1.149389e-05
-1.743974e-06
2.179687e-05
4.325811e-05
2.428714e-05
-1.238896e-04
5.730452e-07
-4.035684e-05
-1.861476e-04
-6.476863e-05
-1.273851e-04
-1.199934e-04
-3.298724e-05
-7.421320e-05
-4.505780e-05
1.674560e-05
-6.790009e-06
-9.917290e-05
-2.277974e-05
-4.562446e-05
-5.911839e-05
2.542798e-05
1.597843e-05
-1.017394e-04
-2.865676e-05
-5.695898e-05
-1.540045e-04
-8.215439e-05
-9.522044e-05
-9.475895e-05
-3.751480e-05
-3.319305e-05
-6.483950e-05
1.503822e-05
-4.047468e-06
-1.094016e-04
-2.007025e-05
-9.056259e-05
-5.947958e-05
2.747658e-05
-1.064778e-05
-5.022234e-05
3.465452e-05
-1.363602e-05
-1.390021e-04
-1.338323e-05
-6.050947e-05
-4.059294e-05
5.587925e-05
1.279275e-05
-1.966442e-05
4.741872e-05
-2.449363e-05
-6.668812e-05
2.181468e-05
-5.520270e-05
-1.499771e-05
5.676754e-05
5.656606e-06
-2.428189e-06
8.543924e-06
1.161205e-05
4.404226e-07
8.324015e-06
1.712954e-05
2.694300e-06
3.916036e-06
1.245888e-05
1.744384e-05
1.710959e-05
1.823890e-05
2.222340e-05
2.995159e-05
2.769860e-05
2.411264e-05
1.585055e-05
1.489169e-05
7.753729e-06
2.028580e-05
2.988486e-05
1.986835e-05
1.032544e-05
3.388569e-05
2.072213e-05
1.583669e-05
1.668025e-05
-6.082615e-05
-4.913602e-05
-2.272900e-05
-7.503913e-05
-6.501698e-05
-3.261783e-05
-3.942531e-05
-1.921411e-05
6.613620e-06
6.481233e-06
1.532131e-05
4.019994e-06
-3.253990e-06
1.250965e-05
7.983581e-06
-2.093463e-05
-1.532206e-05
-8.627357e-06
8.281122e-06
1.274123e-06
7.093206e-06
1.274182e-05
7.869548e-06
5.638079e-06
3.721867e-06
3.486622e-06
4.425291e-06
-5.453470e-05
-2.382343e-05
-2.865293e-05
-1.004646e-04
-5.046365e-05
-5.400107e-05
-7.342767e-05
-1.687441e-05
-2.128939e-05
9.099886e-06
-2.936442e-06
-9.367769e-06
6.490504e-05
7.314421e-05
5.157403e-05
6.327302e-05
7.789805e-05
4.740447e-05
-8.874271e-05
-3.057799e-05
-9.284369e-06
-1.363729e-04
-6.934856e-05
-4.885051e-05
-8.482130e-05
-2.650384e-05
-1.629259e-05
1.646315e-05
2.596824e-05
3.139014e-05
2.702542e-05
3.500249e-05
5.325198e-06
-1.306132e-05
2.144309e-05
-2.294004e-05
-2.534686e-06
2.883625e-06
1.072911e-06
2.196701e-06
5.571533e-06
6.368038e-06
2.284697e-06
9.629611e-06
1.892710e-05
4.390101e-05
-2.473605e-05
-1.139882e-04
9.278450e-05
5.475621e-05
1.270073e-04
1.027623e-04
2.334464e-07
2.647056e-05
-1.418300e-05
2.280011e-05
-1.832127e-05
-4.136984e-05
-3.758267e-05
-9.828972e-05
-4.287226e-05
-4.642029e-05
-1.083514e-04
6.712283e-05
1.274847e-04
9.177678e-05
-2.004945e-05
-3.771935e-05
-9.690729e-05
-1.004500e-04
-1.626038e-04
-2.391942e-04
3.576628e-05
7.179090e-05
8.372869e-05
6.087674e-05
9.192296e-05
1.051017e-04
7.542516e-05
8.254814e-05
9.147966e-05
2.938197e-05
4.466218e-05
2.436096e-05
-3.570508e-05
3.100805e-05
5.083688e-05
-1.494398e-05
1.720822e-05
2.056274e-05
-2.590069e-05
-3.815887e-05
-1.129396e-04
5.339810e-05
4.753131e-05
-3.046332e-05
5.197765e-05
-1.115366e-05
-1.030130e-04
1.620102e-05
3.110418e-05
5.114107e-06
3.172658e-05
6.203636e-05
6.633312e-05
3.764681e-05
4.270480e-05
1.417359e-05
4.949615e-05
3.750141e-05
2.078464e-05
8.414555e-05
1.319867e-04
1.343512e-04
1.129509e-04
1.784948e-04
1.963851e-04
1.001187e-04
9.227368e-05
6.753449e-05
7.017388e-05
8.071724e-05
7.408000e-05
1.613322e-05
3.152942e-05
3.073135e-05
1.039362e-04
1.025073e-04
1.385292e-05
1.280315e-04
1.062260e-04
2.263002e-05
9.632541e-05
3.914300e-05
-4.535933e-05
1.216328e-04
1.270329e-04
-3.594210e-06
2.324598e-05
-3.878337e-07
-1.033397e-04
3.018177e-06
-5.332865e-05
-1.492013e-04
5.699792e-05
6.549372e-05
9.531470e-05
1.152435e-04
1.538854e-04
1.760158e-04
1.273105e-04
1.442606e-04
1.410279e-04
-8.208332e-06
-1.931614e-05
-1.553815e-06
9.356625e-05
9.471294e-05
1.006434e-04
8.519340e-05
5.895164e-05
1.481554e-05
-3.014789e-05
-4.168613e-05
-1.212089e-05
9.085550e-05
1.068016e-04
1.167407e-04
7.942459e-05
7.719364e-05
7.911354e-05
5.319474e-05
5.745329e-05
1.618934e-05
3.661406e-05
7.085452e-05
8.461015e-05
3.621974e-05
3.564909e-05
-2.913591e-05
2.204942e-05
2.640653e-05
-3.673314e-05
7.420843e-05
1.412762e-04
1.678881e-04
1.410264e-04
1.302478e-04
3.746505e-05
-3.171917e-05
-5.038562e-06
2.291222e-05
5.825257e-05
8.552813e-05
7.361784e-05
5.361071e-05
8.606414e-05
2.772063e-05
1.448456e-05
-6.177231e-05
-5.310345e-05
3.175354e-05
3.587312e-05
2.737725e-05
5.492934e-05
3.714303e-05
-8.748796e-05
-1.224025e-07
1.527310e-05
3.634514e-05
4.730764e-05
2.996939e-05
7.686741e-05
8.034937e-05
1.051621e-05
2.802752e-05
8.098683e-07
2.363559e-05
-1.733156e-05
3.891790e-05
9.906090e-05
3.936981e-05
1.794553e-05
1.740663e-05
-4.061320e-05
-3.972023e-05
-8.462039e-05
-8.958487e-05
-7.581344e-05
-7.467625e-05
-7.272522e-05
-9.048462e-05
-1.178291e-04
-1.357537e-04
1.597882e-05
3.570450e-05
-4.663171e-05
-6.803430e-05
-5.960789e-05
-1.021012e-04
-7.642027e-05
-1.155234e-04
-1.174275e-04
5.238334e-05
7.607260e-05
9.961110e-05
3.407225e-05
3.024264e-05
7.271975e-05
3.600132e-05
6.363074e-05
1.576987e-04
4.949691e-05
5.616534e-05
6.918395e-05
6.595534e-05
8.074981e-05
1.088335e-04
6.805115e-05
8.258125e-05
1.044669e-04
7.602034e-06
-3.585633e-07
-2.098641e-05
6.110636e-05
1.117898e-05
-2.673436e-05
8.984811e-05
5.452210e-05
3.975994e-05
-9.283362e-06
2.167377e-05
-9.907836e-07
-6.896661e-05
-6.831464e-05
-7.661469e-05
-8.816632e-05
-1.029128e-04
-1.130349e-04
9.099078e-06
1.795891e-05
7.584443e-05
7.275040e-05
8.048249e-05
1.063354e-04
7.221602e-05
7.798225e-05
9.265783e-05
-9.181348e-06
-4.173357e-05
1.880063e-06
1.188757e-04
8.342132e-05
5.265708e-05
1.217616e-04
8.507562e-05
5.496363e-05
8.989182e-05
1.028578e-04
1.068890e-04
2.571940e-04
3.100733e-04
3.132703e-04
3.445398e-04
3.742822e-04
3.290317e-04
3.139022e-05
-1.331930e-05
-3.971593e-06
7.722668e-05
6.312985e-05
4.803205e-05
3.493237e-05
3.803234e-05
1.270305e-05
4.839414e-05
1.497156e-04
9.247139e-05
6.269758e-05
1.498656e-04
7.130625e-05
1.054925e-04
8.543800e-05
1.929727e-05
-1.084070e-05
-6.270935e-05
-2.309498e-04
-8.171728e-05
-1.542758e-04
-2.776843e-04
-1.000142e-04
-1.456980e-04
-2.056235e-04
-3.529326e-05
-1.697388e-04
5.937040e-05
-9.517490e-05
-1.749923e-04
2.502867e-06
1.821946e-05
-4.241701e-05
5.949642e-05
9.882635e-06
1.938439e-06
3.447750e-05
1.042072e-05
1.070022e-05
5.615709e-05
2.103464e-05
2.272949e-05
6.115369e-05
2.051497e-05
6.197316e-07
8.764480e-06
8.345380e-06
-1.670437e-05
-5.118232e-06
1.289210e-05
-5.709274e-06
1.409798e-06
-1.610595e-04
1.232653e-06
5.152831e-05
-2.196412e-04
2.685207e-05
2.079029e-05
-1.375272e-04
7.510454e-05
3.978329e-05
-1.361583e-05
-4.935436e-05
-2.514816e-05
-3.965573e-05
-4.494861e-05
-7.412786e-05
-1.200110e-04
-1.050479e-04
-7.144140e-05
-1.283268e-04
-1.477093e-04
-1.178541e-04
-2.213343e-04
-1.299618e-04
-1.958818e-04
-2.516195e-04
-1.681719e-04
-2.496089e-04
-3.191037e-06
-6.900753e-05
2.010092e-06
-9.163143e-06
-6.349626e-05
2.514093e-06
-2.385016e-05
-7.009743e-05
-8.325384e-06
3.824636e-04
2.110903e-04
-1.572933e-04
5.616111e-04
3.651726e-04
-1.674432e-04
4.284020e-04
3.202040e-04
-8.617076e-05
-1.904369e-06
9.823047e-05
8.058457e-06
-4.149423e-05
6.354514e-05
-3.580300e-05
-3.494048e-05
3.053706e-05
-4.579887e-05
5.069921e-05
4.179113e-05
-4.073226e-05
7.117195e-05
9.430587e-05
6.802946e-05
7.075611e-06
6.501642e-05
7.957246e-05
-2.303806e-05
8.435575e-05
4.689353e-06
-2.703176e-05
1.209628e-04
1.675973e-05
-3.996273e-05
9.989780e-05
2.486873e-05
2.004110e-05
6.839507e-06
5.633264e-06
3.797375e-05
1.318792e-05
3.020933e-05
3.051259e-05
-3.563601e-06
1.399237e-05
-1.242678e-04
-9.572168e-05
-1.148800e-04
-1.464005e-04
-1.432057e-04
-1.209369e-04
-2.002839e-04
-1.799923e-04
-2.018872e-04
-3.444162e-05
-5.414511e-05
1.319423e-05
1.249818e-05
-2.876533e-05
3.727918e-05
-1.488695e-05
-7.703651e-05
-1.240985e-05
-9.675600e-05
-9.903178e-05
-4.677577e-05
-2.775909e-05
-7.298333e-05
-6.026077e-06
-9.987768e-05
-1.616652e-04
-1.155921e-04
-1.837083e-04
-1.616444e-04
-1.594668e-04
-2.165585e-04
-1.316811e-04
-2.115463e-04
-3.149020e-04
-1.969636e-04
-2.713246e-04
-1.459842e-04
-5.859896e-05
-1.178919e-04
-8.433727e-05
-9.416019e-05
-5.224273e-05
-1.183639e-04
-1.634417e-04
-1.611059e-04
-2.375827e-04
-3.981062e-05
-1.960304e-04
-2.257454e-04
-5.411596e-05
-1.431452e-04
-2.727985e-04
-2.186345e-04
-1.904313e-04
-1.445786e-04
-8.067131e-05
-1.204882e-04
-1.642769e-04
-8.134395e-05
-1.281375e-04
-1.758996e-04
-1.075488e-04
-2.044657e-04
-1.869436e-04
-1.157174e-04
-1.409862e-04
-1.609728e-04
-8.530702e-05
-1.269749e-04
-2.265312e-04
-1.316369e-04
-1.540027e-04
-2.711477e-04
-4.905017e-07
-1.099252e-04
-6.128635e-05
1.624414e-04
5.646851e-05
-1.520781e-04
-1.643547e-04
-2.216124e-04
1.410741e-05
2.170825e-05
7.582492e-05
-8.096127e-06
1.008474e-05
5.569642e-05
8.555464e-06
2.213766e-05
7.661188e-05
7.492130e-05
1.531642e-04
3.584229e-05
6.940869e-05
2.133975e-04
3.872893e-06
5.938964e-05
1.828942e-04
-4.906319e-06
4.699661e-05
1.075390e-05
7.293245e-05
4.516074e-05
9.419831e-06
7.665688e-05
7.483125e-05
5.429342e-05
1.169409e-04
-1.295479e-04
-1.463917e-04
-2.696291e-05
-9.153870e-05
-1.945454e-04
3.210923e-05
-8.701339e-05
-1.366774e-04
-1.949405e-05
-2.890011e-06
-3.221304e-05
1.950502e-05
-4.334975e-05
-1.098105e-04
-1.669462e-05
-2.547984e-05
-9.511118e-05
-8.898868e-06
1.052219e-04
1.289420e-05
-4.850196e-05
1.753025e-04
3.519081e-05
-4.765826e-05
1.643156e-04
2.467791e-05
-3.973506e-05
-1.549144e-04
-8.961219e-05
-1.176463e-04
-1.553561e-04
-1.418538e-04
-9.753803e-05
-1.544430e-04
-1.416129e-04
-1.221850e-04
-4.501082e-05
1.254918e-04
1.641391e-06
1.338550e-05
2.205392e-04
2.396571e-05
3.112692e-05
1.904678e-04
7.673843e-06
-2.002116e-04
-9.732144e-05
-1.262768e-04
-1.705232e-04
-9.139614e-05
-9.328649e-05
-2.257368e-04
-1.188336e-04
-1.480472e-04
-4.237541e-06
-2.351396e-05
5.693627e-05
-1.838302e-05
-5.488351e-06
2.402622e-05
-1.113852e-05
1.915781e-05
1.150517e-05
2.641491e-05
-1.878537e-05
-1.626797e-06
2.790694e-05
-2.080815e-05
1.536420e-05
2.785538e-05
9.400622e-07
4.864734e-05
7.662234e-06
1.169947e-06
1.774137e-05
7.049695e-06
1.106751e-06
1.646566e-05
-6.338814e-06
-6.336310e-06
3.231280e-06
-9.252468e-07
1.761923e-06
-1.145344e-06
6.162930e-07
5.028114e-06
2.368369e-06
-2.579143e-06
4.981801e-06
5.546918e-06
5.985763e-06
5.863603e-06
8.838858e-06
-2.956642e-06
-4.976825e-06
-2.610232e-06
-1.239965e-06
-1.303599e-07
-4.906744e-06
4.700069e-06
4.858040e-06
4.454157e-06
6.975535e-06
6.714709e-06
6.270577e-06
3.972094e-06
3.422571e-06
3.704511e-06
9.907099e-06
2.981011e-06
1.064087e-06
1.936948e-05
2.693028e-06
-4.942126e-06
5.668399e-06
-2.840763e-06
-6.052591e-06
-5.992201e-06
-1.210900e-05
-2.495716e-05
-1.225704e-05
-1.736373e-05
-3.095358e-05
-2.295829e-05
-1.995231e-05
-3.506819e-05
-6.244418e-06
-4.149294e-06
-6.792208e-06
-3.889180e-06
-4.916727e-06
-7.690576e-06
-4.499886e-06
-3.177963e-06
-1.970078e-06
-3.684846e-06
2.842863e-06
3.350736e-06
3.026192e-06
5.442364e-06
3.086588e-06
2.276098e-06
3.785452e-06
3.208872e-06
1.379829e-05
9.547157e-06
-2.972540e-06
1.840529e-06
-3.000008e-06
-5.886482e-06
-2.615142e-06
-4.868657e-06
-4.123507e-06
1.261790e-05
9.509789e-06
-1.082808e-05
1.725664e-05
2.247861e-05
-3.667570e-06
-1.405403e-06
1.465078e-05
7.426996e-07
-5.337329e-06
-2.934727e-06
6.662227e-06
-1.343935e-05
-1.066149e-05
2.796080e-07
-7.995124e-06
-7.051431e-06
-2.408783e-06
5.762934e-06
6.934995e-06
4.386524e-06
7.893505e-06
9.020871e-06
7.995765e-06
5.843841e-07
3.320816e-06
6.976148e-06
-1.006523e-05
-1.275709e-05
-2.353136e-05
-1.893610e-05
-2.071162e-05
-3.591290e-05
-1.568019e-05
-1.682733e-05
-2.526330e-05
6.488377e-06
7.284272e-07
-1.079495e-05
1.015846e-06
-2.038053e-06
-1.078989e-05
-1.683761e-07
-1.184412e-08
-1.443376e-07
1.184306e-05
1.573625e-05
3.655765e-06
5.727119e-06
6.962130e-06
-6.452088e-06
-4.211665e-06
2.146872e-06
-9.997203e-07
-2.537542e-05
-1.557504e-05
-3.850592e-05
-3.018480e-05
-2.716475e-05
-4.996654e-05
-3.370308e-05
-2.466431e-05
-3.824635e-05
-4.290534e-06
-2.063930e-06
-1.712513e-05
-1.251460e-05
-7.293183e-06
-2.673321e-05
-3.718475e-06
-4.328788e-07
-8.902894e-06
-1.674952e-06
3.238180e-06
-1.957936e-05
-1.957738e-05
-1.178357e-05
-4.450779e-05
-1.523451e-05
-1.730492e-05
-1.926785e-05
-2.690153e-06
-1.034525e-06
-1.783196e-05
-1.919395e-05
-9.095908e-06
-3.259390e-05
-1.198006e-05
-6.997456e-06
-2.448894e-05
-8.674281e-06
8.330384e-07
-2.055963e-05
-2.089213e-05
-1.112663e-05
-3.284997e-05
-1.564576e-05
-9.259604e-06
-2.697086e-05
4.454057e-06
1.302815e-05
6.241684e-07
-2.740270e-06
-2.419157e-07
-1.680063e-05
2.518464e-08
8.006656e-07
-5.935940e-06
-5.270542e-07
-4.264469e-06
4.867671e-06
-7.792549e-07
-1.027839e-05
5.859304e-06
-7.925711e-06
-1.033890e-05
-6.695747e-06
4.714978e-06
-4.884287e-06
-3.235226e-06
2.935009e-06
-4.429146e-07
-3.540701e-06
4.746891e-06
1.490649e-06
-3.480151e-06
1.701138e-06
2.875669e-06
3.197049e-06
6.109463e-06
4.366748e-06
7.838117e-06
2.699061e-06
4.381196e-06
8.606054e-06
-8.642634e-06
-8.979116e-06
1.969109e-07
-1.652762e-05
-1.263443e-05
-4.513461e-06
-5.328074e-06
-5.003838e-06
-6.104621e-06
5.320692e-06
1.566355e-06
4.279761e-06
1.044166e-06
1.994811e-07
3.592717e-06
-1.050071e-07
3.109169e-06
4.831949e-06
2.284497e-07
2.618707e-06
2.042798e-07
3.092844e-06
5.027443e-06
1.285438e-06
1.924041e-07
3.985197e-06
1.544218e-06
-6.728620e-06
-6.509687e-06
-1.747192e-05
-2.370100e-05
-1.652802e-05
-2.763508e-05
-2.020129e-05
-2.234127e-05
-2.710218e-05
-7.630078e-06
1.031252e-05
2.121084e-05
1.888263e-05
2.283317e-05
2.021273e-05
6.098244e-06
1.844677e-06
4.696637e-06
2.895173e-06
7.546579e-06
-9.820568e-06
-1.635455e-05
-6.513712e-06
-2.313931e-05
-2.250724e-05
-1.934562e-05
-2.507603e-05
4.292803e-06
-1.269573e-05
4.080262e-06
-4.594787e-06
-2.804442e-05
8.812776e-07
-2.051357e-05
-3.304153e-05
-2.669012e-05
-7.580168e-06
-4.081904e-06
7.925904e-08
-8.930798e-06
-7.605315e-06
-4.813869e-06
-1.102702e-05
-6.345533e-06
-3.150543e-06
-2.319507e-05
1.185049e-05
4.195233e-05
-1.940002e-05
-2.097269e-05
3.243871e-05
-7.831341e-06
-5.690948e-05
-2.222858e-05
1.293838e-05
1.339848e-05
5.630548e-06
5.264405e-06
1.000893e-05
1.373706e-06
-1.629198e-06
-7.134321e-07
-6.853487e-06
-2.389782e-07
-5.472246e-06
-2.747604e-06
3.906000e-06
-9.373695e-07
-2.966057e-06
2.000527e-08
-1.435151e-05
-1.834282e-05
-1.167859e-06
7.458543e-06
1.207026e-05
2.164130e-08
5.404014e-06
9.668369e-06
-1.174381e-06
-1.411956e-07
4.932284e-06
-1.231143e-05
-2.014093e-05
3.211670e-06
3.724175e-05
6.902558e-06
3.505528e-05
4.807923e-05
1.388578e-05
4.381455e-05
-2.262105e-07
2.338421e-05
2.895669e-06
-5.557416e-05
-3.642653e-05
-9.665271e-05
-1.734234e-05
-2.785083e-05
-6.786717e-05
-4.448055e-06
6.338029e-06
5.029357e-06
-1.438471e-05
-4.364261e-06
-6.857655e-07
-4.357438e-06
-2.229711e-06
-2.531873e-06
1.844014e-05
2.970660e-05
3.739037e-05
2.869143e-05
4.035310e-05
4.528664e-05
2.201862e-05
2.284036e-05
2.997754e-05
-2.870459e-05
-3.862144e-05
-5.439555e-05
-3.310710e-05
-2.801712e-05
-5.767605e-05
-2.490442e-05
5.058433e-06
-2.346024e-05
4.084297e-05
5.691217e-05
1.516303e-05
5.929875e-06
1.551735e-05
-3.105776e-05
-2.889690e-05
-3.280162e-05
-5.790137e-05
3.687596e-06
1.448991e-05
1.216554e-05
3.221238e-06
1.246957e-05
2.546545e-05
-6.941627e-06
1.182318e-06
1.631904e-05
-9.375917e-07
4.100510e-06
6.894314e-06
-8.001961e-07
7.601980e-06
6.981104e-06
-6.008701e-06
3.095381e-06
3.314935e-06
1.268582e-07
1.981104e-05
-1.459602e-05
-5.311385e-05
-3.112649e-05
-6.546177e-05
-2.364737e-05
-1.736588e-05
-3.792192e-05
3.977799e-06
3.586320e-05
3.711209e-05
-2.102232e-05
8.670412e-06
1.778721e-06
-1.848831e-05
7.613621e-08
-7.874986e-06
4.192679e-06
2.721801e-05
3.271223e-05
-1.510022e-05
8.879199e-06
1.025133e-05
3.634780e-06
1.539764e-05
1.348188e-05
-5.540077e-06
1.886375e-05
-1.902205e-05
-7.805738e-05
-4.951709e-05
-8.809473e-05
-3.086371e-05
-3.200513e-05
-7.115300e-05
1.206474e-05
4.168258e-05
-7.358564e-07
-4.022909e-05
-1.150819e-05
-4.583438e-05
-1.533906e-05
2.284006e-06
-2.716443e-05
-5.740121e-06
2.546987e-05
-3.197540e-05
-6.892667e-05
-4.276974e-05
-1.143713e-04
-5.003747e-05
-4.594422e-05
-8.712138e-05
8.869149e-06
2.983399e-05
-2.513031e-05
-4.234505e-05
-3.096522e-05
-9.543130e-05
-2.581208e-05
-6.561241e-06
-6.698244e-05
6.968160e-06
1.688295e-05
-1.548623e-05
-2.815792e-05
-1.796986e-05
-5.833910e-05
1.832363e-06
-7.623852e-06
-3.215994e-05
1.326162e-05
2.323987e-05
1.792319e-05
-7.703370e-06
9.377982e-06
1.028565e-05
1.385817e-05
1.497095e-05
-9.537864e-07
-4.596594e-06
-1.932646e-06
1.226149e-05
1.464061e-06
-4.188923e-06
1.474978e-05
-4.521763e-06
-1.871793e-05
-3.128540e-06
-8.132329e-07
2.431860e-05
2.520665e-05
4.134972e-06
2.138935e-05
1.716909e-05
-3.725258e-06
6.072265e-06
1.412312e-06
6.447995e-06
1.949407e-05
2.636029e-05
1.212466e-05
1.674472e-05
2.042414e-05
4.944150e-06
6.025706e-06
8.845281e-06
1.130194e-06
5.334873e-06
6.821360e-07
2.327126e-06
-3.090917e-06
-2.914143e-05
-1.733111e-05
-7.775183e-06
-2.581947e-05
-6.950101e-06
-1.546079e-05
-1.210379e-06
-4.179597e-06
-1.085069e-05
6.175967e-08
-8.576961e-06
-1.251414e-05
1.936550e-06
5.135835e-06
5.562514e-06
7.516874e-06
1.035916e-06
7.798159e-06
2.861728e-06
-4.735043e-06
-1.131804e-06
-8.976662e-07
-9.098109e-06
1.438789e-05
-2.392038e-05
-3.885535e-05
-2.957970e-05
-7.945957e-05
-4.168304e-05
-2.750207e-05
-5.609083e-05
8.683109e-06
2.751936e-05
2.403763e-05
1.265057e-05
5.001884e-05
5.456884e-05
2.624719e-05
5.994279e-05
4.098477e-05
-7.029099e-07
1.073244e-05
-2.529715e-05
-3.479376e-05
-3.725491e-05
-8.568037e-05
-2.475391e-05
-2.586730e-05
-6.500613e-05
-6.955810e-06
-1.304080e-05
-4.725709e-06
-1.142677e-05
-1.595457e-05
1.986897e-06
-2.357032e-05
-1.944849e-05
-4.734689e-06
8.883376e-07
7.901904e-06
-7.544916e-07
2.695073e-06
4.216475e-06
-4.599300e-06
2.155781e-06
-1.990072e-06
-6.713562e-06
-1.217597e-05
-1.428585e-05
6.495793e-06
-3.381393e-05
-3.360302e-05
-3.119135e-06
-1.949762e-05
-1.641804e-05
-3.830129e-06
8.209393e-06
6.917248e-06
1.513823e-05
1.328055e-05
1.345657e-05
2.061913e-05
1.455276e-05
1.244581e-05
1.715928e-05
1.131967e-05
1.233176e-05
3.645913e-06
6.529244e-07
-5.477602e-06
-6.901372e-06
-9.389907e-06
-2.009516e-05
-1.319267e-05
-1.385959e-05
6.444422e-06
1.366490e-05
-1.933875e-05
1.035357e-05
1.248630e-05
-1.301604e-05
1.254956e-05
1.362571e-05
2.011732e-07
1.548644e-06
-1.490666e-06
-2.093347e-05
-8.448113e-06
-1.703044e-05
-3.740231e-05
-3.643254e-05
-2.658999e-05
-2.831069e-05
-2.619423e-05
-3.581783e-05
-4.365701e-05
-1.829092e-05
-4.202154e-05
-7.527650e-05
-6.209056e-05
-9.032409e-05
-5.376927e-06
-1.173570e-05
-3.741710e-06
-5.539875e-07
-3.425778e-06
3.731971e-07
-3.642630e-06
-1.651759e-05
-6.846622e-06
5.191387e-05
2.040928e-05
-1.625050e-05
9.406934e-05
5.650273e-05
-1.252479e-05
8.574525e-05
6.917703e-05
1.754055e-05
-1.078771e-05
5.144570e-06
-2.778918e-06
-3.717001e-06
7.870731e-06
-1.281738e-05
7.709432e-06
6.088025e-06
-1.317053e-05
4.140081e-05
3.072674e-05
-1.490888e-05
5.787040e-05
2.936793e-05
-1.003608e-05
3.325694e-05
-1.344224e-05
-6.762722e-06
-1.571491e-06
8.208376e-06
1.950876e-06
5.278960e-06
1.808171e-05
9.091204e-06
8.010888e-06
2.521444e-05
1.479800e-05
4.394949e-06
4.576435e-06
2.773575e-06
1.387889e-05
1.147252e-05
1.079134e-05
1.300494e-05
5.868818e-06
6.971267e-06
-4.299921e-05
-2.618745e-05
-3.862957e-05
-3.414371e-05
-1.741713e-05
-4.132356e-05
-5.546706e-05
-4.923212e-05
-7.000224e-05
-9.872844e-06
-1.104623e-05
-8.514683e-06
-4.498914e-06
-1.072821e-05
-7.601108e-06
-2.956273e-05
-4.207716e-05
-3.112349e-05
-1.728823e-05
-4.530553e-06
-1.430078e-05
-6.636650e-06
-9.802312e-06
-1.194011e-05
-3.950236e-05
-4.683213e-05
-4.445415e-05
-5.380560e-05
-3.413530e-05
-5.633277e-05
-6.433231e-05
-2.827934e-05
-7.133265e-05
-9.416492e-05
-8.327028e-05
-1.039079e-04
-3.423434e-05
-8.313502e-06
-2.814528e-05
-1.569545e-05
1.758461e-06
-1.682138e-05
-3.843362e-05
-3.506957e-05
-5.672075e-05
-5.733346e-05
-1.765072e-05
-3.069720e-05
-4.777715e-05
-1.348305e-05
-3.605125e-05
-8.835780e-05
-6.525847e-05
-6.678433e-05
-2.469305e-05
-2.461884e-06
-2.295200e-05
-2.909120e-05
-5.245630e-07
-3.298190e-05
-5.605756e-05
-4.204794e-05
-6.942661e-05
-4.155406e-05
-2.958503e-05
-4.742123e-05
-3.690355e-05
-1.362523e-05
-4.253851e-05
-6.632930e-05
-5.057969e-05
-6.764176e-05
-6.334858e-05
-2.460529e-05
-3.478032e-05
-3.150994e-05
2.878011e-06
-2.155747e-05
-6.854576e-05
-6.775511e-05
-8.544783e-05
1.699453e-05
2.428062e-05
2.293851e-05
2.431089e-05
2.681990e-05
2.888015e-05
2.109644e-05
2.270066e-05
2.404350e-05
2.054023e-05
3.368330e-05
1.597618e-05
2.387791e-05
4.328437e-05
1.102678e-05
1.653332e-05
2.866389e-05
-2.338422e-06
1.843948e-05
1.367288e-05
1.993157e-05
2.285565e-05
1.903839e-05
2.500834e-05
2.799372e-05
2.292688e-05
2.425929e-05
-3.570237e-05
-2.375331e-05
-2.463286e-06
-4.005952e-05
-4.137125e-05
-4.407390e-06
-3.460989e-05
-3.682331e-05
-3.697715e-05
2.336918e-06
1.475683e-06
8.765484e-06
-3.524679e-06
-8.352855e-06
5.623737e-06
-4.518423e-06
-9.841569e-06
4.171686e-07
1.250411e-05
1.067567e-06
-7.837711e-06
2.531532e-05
6.937778e-06
-8.813818e-06
2.945590e-05
1.189924e-05
-5.808712e-06
-3.309056e-05
-1.275252e-05
-3.252911e-05
-3.096670e-05
-2.414637e-05
-4.196875e-05
-4.494759e-05
-4.051978e-05
-6.107777e-05
1.298024e-05
3.165411e-05
8.343137e-06
5.020617e-05
5.422327e-05
2.816425e-05
2.365622e-05
3.791234e-05
5.627989e-05
-3.701401e-05
-1.310141e-05
-3.650505e-05
-3.706518e-05
-2.421066e-05
-4.611869e-05
-6.838136e-05
-5.517595e-05
-7.571419e-05
5.052959e-06
3.401782e-06
7.459291e-07
2.953434e-06
4.837763e-06
3.439918e-06
5.364283e-06
1.208016e-05
5.489916e-06
1.056308e-05
7.701907e-06
5.903538e-06
1.684071e-05
9.929312e-06
9.591157e-06
1.296902e-05
6.933105e-06
1.177408e-05
7.659689e-05
3.831930e-05
-1.676134e-06
1.719935e-04
9.966659e-05
1.190897e-04
6.416391e-05
6.974821e-05
1.274268e-04
-4.767953e-05
-7.184824e-06
-1.351176e-05
-5.488856e-05
-4.647158e-05
-9.406420e-05
-5.260433e-05
-4.422288e-05
-8.960755e-05
6.597636e-05
1.243115e-04
1.412490e-04
-3.370218e-06
-1.276510e-05
-7.012311e-05
-9.197674e-05
-1.488819e-04
-2.289801e-04
6.571810e-05
5.571355e-05
6.464871e-05
9.770121e-05
1.007265e-04
1.104001e-04
7.883661e-05
8.305258e-05
9.726268e-05
4.584882e-05
-3.338948e-06
-1.518539e-06
5.598879e-05
2.956224e-05
5.752827e-05
5.200835e-05
3.145627e-05
6.291534e-05
1.201158e-05
-5.419321e-06
-1.047717e-04
5.255856e-05
2.266025e-05
-2.866313e-05
5.688403e-05
-2.911768e-06
-4.705391e-05
8.530847e-06
8.663857e-06
-5.014780e-06
3.905890e-05
4.528129e-05
4.006050e-05
4.417686e-05
4.528979e-05
4.265277e-05
5.034448e-05
5.443574e-05
5.285854e-05
1.380533e-04
1.385632e-04
1.395200e-04
1.559114e-04
1.566510e-04
1.585563e-04
6.431682e-05
7.892462e-05
7.516527e-05
4.324003e-05
4.720533e-05
5.290607e-05
6.523426e-05
4.024810e-05
4.013375e-05
1.055966e-04
1.395065e-04
1.158750e-04
1.247971e-04
1.503499e-04
1.007187e-04
6.536139e-05
4.577544e-05
2.173043e-05
1.040051e-04
1.113081e-04
3.585512e-05
4.553703e-05
-3.623252e-06
-9.539696e-05
8.919353e-06
-3.075531e-05
-9.674499e-05
7.690754e-05
7.904361e-05
8.294190e-05
1.349282e-04
1.545350e-04
1.665191e-04
1.436645e-04
1.507383e-04
1.481434e-04
-1.640384e-05
1.427907e-05
-3.033735e-05
5.518502e-05
7.924333e-05
3.754451e-05
6.541629e-05
6.238857e-05
-2.622764e-07
5.113174e-05
1.378054e-05
1.815930e-05
1.282993e-04
1.066318e-04
1.215525e-04
1.254828e-04
9.072756e-05
9.891864e-05
3.186346e-05
8.695071e-06
-1.140120e-06
7.842810e-05
4.782180e-05
4.068979e-05
4.593384e-05
1.705579e-05
-1.416024e-05
1.998224e-05
1.999013e-05
-6.999006e-05
1.674173e-04
1.926673e-04
1.106137e-04
2.030919e-04
2.207635e-04
1.192893e-04
-6.899453e-05
-1.999172e-05
-3.801786e-05
2.326190e-05
6.649898e-05
2.253871e-05
3.061039e-05
4.886321e-05
-1.009547e-05
-4.016629e-05
-4.174485e-05
-4.953411e-05
5.036829e-05
6.357860e-05
6.170664e-06
-3.929086e-08
7.743570e-06
-5.494365e-05
2.998653e-05
3.679428e-05
2.502747e-05
8.176718e-05
7.052578e-05
6.689203e-05
5.104466e-05
4.189729e-05
1.262681e-05
2.187455e-05
2.862782e-05
-1.724378e-05
4.589394e-05
5.391094e-05
9.738474e-06
4.571986e-05
2.247119e-05
-4.544252e-05
-3.066557e-05
-9.128080e-05
-7.237279e-05
-7.095608e-05
-1.081794e-04
-1.167928e-04
-8.591163e-05
-1.288646e-04
-1.623244e-04
5.900999e-06
2.164800e-05
-1.920934e-05
-5.561969e-05
-7.750004e-05
-1.094577e-04
-7.013764e-05
-1.101762e-04
-1.182465e-04
9.739183e-05
1.170762e-04
1.125471e-04
8.930903e-05
7.210783e-05
8.660010e-05
9.113229e-05
7.449772e-05
6.506864e-05
7.084275e-05
7.986491e-05
6.349132e-05
8.973312e-05
9.339715e-05
8.978151e-05
7.670616e-05
8.929538e-05
8.200884e-05
1.992278e-05
3.884243e-05
-1.037877e-06
9.163003e-05
6.932827e-05
2.951125e-05
4.248625e-05
1.829012e-05
-1.518326e-05
8.722183e-06
2.995177e-05
1.980771e-05
-4.903717e-05
-5.742254e-05
-7.159491e-05
-7.860476e-05
-9.956133e-05
-1.074862e-04
1.285879e-07
1.573912e-05
5.489157e-05
5.276757e-05
8.881581e-05
1.102560e-04
5.972376e-05
7.626822e-05
8.706796e-05
-1.677189e-06
1.507122e-05
-7.195432e-07
9.057790e-05
8.697648e-05
5.746710e-05
8.252367e-05
8.206077e-05
4.626426e-05
7.820110e-05
7.087328e-05
1.298309e-04
2.587402e-04
2.604865e-04
3.080380e-04
3.496032e-04
3.541522e-04
3.475042e-04
2.588687e-05
3.358712e-05
-4.348346e-06
1.039979e-04
9.573777e-05
6.417222e-05
5.314744e-05
6.121853e-05
8.204995e-06
6.847402e-05
9.587433e-05
9.584150e-05
7.924770e-05
8.060156e-05
1.119920e-04
7.616443e-05
2.961817e-05
4.824123e-05
-9.632942e-05
-8.009146e-05
-1.518903e-04
-2.059671e-04
-2.124936e-04
-2.945306e-04
-1.963130e-04
-2.159284e-04
-2.645662e-04
-2.349953e-04
-4.045854e-04
6.739031e-04
3.348916e-04
-5.508883e-04
4.338394e-04
4.526611e-04
3.663124e-04
6.546076e-04
9.282781e-05
-6.545418e-05
-1.792645e-04
1.176007e-04
1.324390e-04
1.228510e-04
4.935079e-05
1.189700e-04
1.455460e-04
-9.612463e-05
-3.010188e-04
-1.719541e-04
4.792375e-05
-7.738140e-05
7.237620e-05
-1.893234e-04
-2.422127e-04
-4.315209e-05
1.889911e-05
1.181061e-04
3.092370e-05
-3.143870e-05
8.393737e-05
1.114440e-04
1.041272e-04
1.269403e-04
1.221599e-04
-7.706176e-05
3.537315e-04
3.062099e-05
-2.105941e-04
1.193037e-04
-5.843334e-05
6.487912e-06
4.688680e-05
5.153593e-05
-6.971463e-04
-4.965112e-04
-6.545660e-04
-1.030712e-03
-6.541507e-04
-1.076599e-03
-3.917083e-05
2.255921e-04
-2.826364e-04
1.992180e-04
2.296164e-04
5.865897e-06
6.103134e-06
6.453209e-05
-5.726538e-06
6.839720e-05
2.856881e-05
-4.436200e-05
9.942558e-05
-1.912196e-04
-3.391639e-04
3.510800e-04
1.992928e-04
-3.567148e-04
1.503899e-04
1.145832e-04
-1.431400e-04
2.183521e-04
3.905896e-04
-4.249571e-05
-9.550504e-05
-1.228886e-04
-3.312778e-04
-3.678062e-05
-9.435177e-05
-1.910332e-04
-1.958605e-04
2.343507e-05
1.105194e-04
1.183613e-04
3.904289e-04
4.726514e-04
1.146277e-04
1.614681e-04
2.476189e-04
-6.537916e-06
-3.768810e-04
2.384237e-04
-5.589988e-05
-1.501751e-04
1.609456e-04
-1.556302e-04
4.025557e-05
1.550049e-04
1.544467e-04
2.905622e-04
1.805589e-04
1.631318e-04
1.713828e-04
1.347451e-04
1.510050e-04
1.174944e-04
4.543123e-05
-3.287726e-04
-1.130282e-04
-5.542269e-04
-7.478912e-04
-5.892342e-04
-8.684100e-04
-1.062029e-04
1.489966e-04
-3.474531e-04
2.998303e-05
8.246017e-05
-1.517116e-04
-1.112320e-04
-1.019606e-04
-3.098138e-04
2.109325e-04
3.632384e-04
5.733286e-05
-4.925803e-05
-1.650735e-05
-1.215401e-04
-3.315056e-04
-1.988764e-04
-3.966737e-04
1.115219e-04
1.753271e-04
-1.856175e-04
-7.455775e-04
1.369247e-05
-8.048770e-04
-1.436199e-03
-5.798083e-04
-1.456633e-03
-5.490053e-04
3.262737e-06
-6.420161e-04
-9.779788e-05
-5.013402e-05
-4.874454e-04
-4.774562e-04
-4.381056e-04
-7.034999e-04
4.525236e-05
2.559533e-04
-1.845407e-04
-5.332864e-04
-1.083284e-04
-6.398156e-04
-1.079943e-03
-2.607580e-04
-8.304847e-04
-2.778513e-04
3.944060e-04
-1.071113e-04
-3.582947e-04
-1.457355e-04
-5.537005e-04
-5.124487e-04
-3.660762e-04
-6.488679e-04
-9.109579e-06
2.370062e-04
-3.066049e-04
-7.853155e-04
-2.426964e-04
-5.802553e-04
-1.131987e-03
-6.309468e-04
-9.338955e-04
-1.465716e-04
1.499199e-04
-1.607372e-04
-2.959324e-04
-4.281228e-04
-3.976273e-04
-2.756128e-04
-3.353704e-04
-7.029370e-04
-3.682039e-05
6.854820e-05
4.701378e-05
-1.448119e-04
-1.123492e-04
2.564717e-04
9.784831e-05
4.124476e-05
2.709716e-04
-5.469569e-05
-5.301211e-05
2.117363e-04
4.376071e-05
2.523526e-04
2.007073e-04
2.049217e-05
-8.332912e-05
1.341983e-04
3.224854e-05
7.261726e-05
