5.462980e-02
2.598774e-02
1.277887e-02
7.601489e-02
2.029158e-02
9.738050e-03
1.582317e-02
3.510267e-02
2.904810e-02
-2.395804e-02
-1.692105e-02
-2.531267e-02
-3.255978e-02
-7.654769e-03
-2.419052e-02
-1.521567e-02
-2.413852e-02
-1.612889e-02
-1.637377e-02
-3.192201e-03
-1.953826e-03
-6.503737e-03
-6.523813e-03
1.999454e-02
-3.668764e-03
2.762464e-03
1.485709e-02
-6.020895e-03
-4.604458e-03
-8.684807e-03
-7.745448e-03
-1.316694e-02
2.436613e-03
-1.111505e-03
7.433647e-04
1.219384e-04
-3.176170e-03
-9.816444e-03
-2.261924e-02
2.594229e-04
-9.812884e-03
-2.075031e-02
-1.014387e-02
-2.363499e-03
2.054461e-03
-2.188924e-02
-8.167770e-03
-9.869798e-03
2.527676e-03
2.943003e-03
-3.993590e-03
2.150096e-02
2.896866e-02
1.935011e-02
3.185904e-02
1.336346e-02
4.275568e-04
2.959557e-02
2.492680e-02
1.984703e-02
8.077175e-04
-9.988924e-03
1.271288e-02
-2.741430e-02
-9.306606e-03
2.116123e-03
-1.390609e-02
-5.091358e-03
8.078584e-03
-1.692402e-02
-8.637732e-03
1.142578e-02
-4.582704e-03
-3.356279e-02
-1.224525e-02
8.646357e-03
-1.282655e-02
-4.251152e-03
-2.472329e-02
2.835115e-03
1.046552e-02
-1.860252e-03
2.607575e-03
7.955911e-03
-6.800853e-03
-2.740294e-03
9.438566e-04
1.592556e-02
-1.483569e-02
-1.298128e-02
-8.914302e-03
-2.585887e-02
-1.948696e-02
-2.160534e-02
-1.027742e-02
5.810334e-03
-1.777017e-02
-6.782664e-03
-1.195329e-03
-5.816966e-03
1.114325e-02
1.631278e-03
4.192624e-03
-7.621265e-03
-1.026556e-02
9.995167e-04
-1.422305e-02
-1.778613e-02
-2.799377e-02
-1.568265e-02
1.193657e-02
-4.198869e-02
-3.523912e-02
-1.957235e-02
-2.125848e-03
-2.411434e-02
1.318670e-02
1.389583e-02
4.173697e-04
9.589964e-03
-5.395280e-02
3.646863e-03
-9.171891e-03
-2.056717e-02
-1.891391e-02
-5.906884e-03
-1.194060e-03
-8.452205e-03
-2.315757e-04
-4.318575e-03
1.904986e-02
2.156218e-02
-6.152309e-03
1.389402e-02
3.506369e-02
-6.519039e-03
1.261596e-03
-6.588947e-03
-2.819662e-02
-1.846363e-02
-3.335667e-02
6.722790e-03
-1.113104e-02
-1.442650e-02
-1.796835e-02
-1.171223e-02
9.796532e-03
-1.739757e-03
8.780198e-03
-5.944679e-03
1.639965e-03
-7.015162e-04
-6.683900e-03
-1.305142e-02
-8.317497e-03
3.861802e-03
-2.136253e-02
-1.860438e-02
-5.776701e-03
-3.217159e-03
-1.796105e-02
-1.474590e-02
-8.211255e-03
-1.151278e-02
-2.440704e-02
-3.221091e-02
-1.612569e-02
-9.818012e-03
6.310173e-03
2.020465e-02
-1.098891e-03
1.224075e-02
1.106783e-03
9.483861e-03
-2.569112e-02
-1.531928e-02
7.098379e-03
-1.169612e-02
6.927056e-03
1.450400e-03
1.268837e-02
1.460069e-02
-1.775741e-03
-7.691904e-03
2.756494e-03
2.015041e-02
1.335038e-04
1.666556e-03
2.853011e-02
-2.013581e-02
-8.767248e-03
-6.270017e-03
1.655580e-02
3.560138e-02
1.137771e-02
-6.265517e-03
4.975868e-03
8.658047e-03
6.961342e-02
4.666830e-02
1.031036e-03
4.489869e-02
8.445987e-02
1.580966e-02
-2.780018e-02
2.598712e-03
2.020625e-02
6.237272e-03
-2.960182e-03
3.556418e-03
9.509129e-03
6.549954e-03
4.046842e-03
1.313586e-02
-3.401451e-03
-5.415780e-03
-1.285462e-03
2.415195e-03
6.252128e-03
-8.264133e-03
-1.626337e-02
1.031693e-02
2.554326e-02
-7.838395e-03
-9.207027e-03
3.774014e-03
-3.046035e-03
2.478814e-02
1.442515e-04
-1.154711e-02
2.555508e-03
9.130409e-03
1.603900e-02
1.020437e-02
-2.499751e-02
-2.724068e-02
-1.785355e-02
-1.051436e-02
4.849424e-03
-1.887915e-03
-4.557844e-02
-2.993279e-02
-5.608430e-03
1.562632e-02
1.928513e-02
-3.241879e-03
1.397148e-02
9.314514e-03
2.514717e-02
2.815406e-02
-1.339141e-02
4.616571e-03
8.182260e-03
1.168832e-02
3.016388e-03
-2.120827e-02
8.996148e-03
1.961148e-02
1.687049e-02
1.983752e-02
-2.553370e-03
-1.693868e-03
-6.749700e-04
1.092104e-02
1.447886e-02
6.678069e-03
-1.242869e-02
-1.054199e-02
-1.862469e-02
-1.302971e-02
-1.604427e-02
9.321201e-03
1.139028e-02
4.269877e-03
1.623917e-02
-1.264601e-02
-5.352202e-03
4.317545e-03
1.141379e-02
1.908972e-02
2.733668e-02
7.502549e-03
3.958030e-03
1.666267e-02
1.302855e-02
-1.863587e-03
3.764559e-03
1.443542e-03
1.156471e-02
2.496884e-02
2.221217e-02
3.896332e-02
2.722391e-02
2.472713e-02
6.437641e-03
5.876709e-03
1.762514e-02
-2.716108e-02
-1.156490e-02
-2.838961e-04
-4.044402e-03
-4.153108e-03
-5.841090e-03
1.545485e-02
4.024506e-03
-1.412803e-02
-2.043442e-02
-9.337024e-03
-1.113949e-02
-1.236422e-02
-9.025407e-03
-1.696768e-02
1.769290e-03
5.402634e-03
-1.293904e-03
8.952075e-03
-6.786256e-03
3.527835e-03
-4.792169e-03
-1.014902e-02
-9.587086e-03
-5.359068e-03
3.673117e-03
-1.029293e-02
-1.442831e-03
-1.259691e-02
-2.569077e-03
-1.101739e-02
-2.918838e-02
-5.695141e-03
3.555543e-03
-8.690642e-03
-7.082677e-03
-1.128990e-02
1.711348e-02
2.283747e-02
6.245952e-03
2.770706e-02
1.875829e-02
-4.594087e-03
-1.505433e-03
5.669023e-03
-8.405421e-03
-3.079013e-03
-1.840221e-03
-3.973066e-03
3.739840e-03
-1.148042e-02
-1.029691e-02
-1.015879e-02
-9.073609e-05
1.691320e-02
2.144498e-02
6.404604e-03
2.175657e-02
1.928625e-02
-1.214424e-02
1.344780e-02
3.109383e-03
4.396573e-03
2.005506e-03
-1.912282e-02
-3.211873e-03
-8.291245e-03
-1.498100e-02
4.587790e-03
-4.873471e-03
-1.807778e-04
2.287489e-03
1.468374e-02
2.034379e-02
-3.963878e-03
-7.835068e-03
1.370493e-02
-1.493654e-03
-3.292612e-03
1.895854e-02
-1.279479e-02
1.794340e-03
-1.107626e-02
-1.448627e-02
3.740950e-03
-1.074568e-02
-1.402852e-03
8.329370e-03
-2.419237e-02
-2.128678e-02
8.711723e-03
1.145897e-02
4.014846e-03
2.762377e-02
2.644652e-02
-2.955813e-02
3.371934e-03
-7.322666e-03
-1.454904e-02
1.867383e-02
-1.408910e-03
-1.001186e-02
-1.736479e-02
-1.139823e-02
-1.701672e-02
-1.362005e-02
-1.888228e-02
-2.196079e-02
1.369412e-03
2.953229e-02
-6.330523e-04
2.705802e-03
3.208601e-02
-5.395198e-03
5.251434e-07
-2.390544e-02
1.592620e-02
1.080462e-02
1.283564e-02
-1.220852e-02
2.473312e-03
-8.614133e-03
-2.151948e-02
6.154959e-03
-2.088535e-02
-1.425090e-02
-5.401492e-03
-2.383843e-02
-1.273970e-03
-3.561895e-03
-1.360439e-02
-1.489669e-02
8.884421e-03
1.889547e-02
1.087748e-02
-1.891389e-03
1.804247e-02
-1.891158e-03
2.926880e-02
3.604482e-02
4.531353e-03
1.913736e-02
2.684136e-02
8.378197e-03
-1.311161e-02
1.066613e-02
2.068644e-02
-1.866348e-02
-3.146086e-02
-9.086507e-03
-1.932839e-02
-1.480816e-02
-1.119149e-02
-1.754287e-02
9.341037e-04
-9.456722e-03
1.601572e-02
7.838405e-03
-5.997778e-03
1.833536e-02
7.247156e-03
7.745949e-03
-2.729612e-02
-3.482830e-02
1.445484e-02
-2.608943e-02
-2.700038e-02
8.630814e-03
-2.184894e-02
-5.502133e-03
7.231876e-03
-2.854208e-02
1.190108e-02
4.381439e-03
-2.033572e-02
1.100908e-03
2.745893e-04
-1.536907e-02
1.020219e-02
-6.845528e-03
-1.582335e-02
-1.010534e-02
-1.832464e-02
-8.162716e-03
3.020775e-02
-1.427461e-03
9.161189e-03
2.273384e-02
1.970866e-02
1.608133e-02
1.946639e-02
-4.720949e-04
2.895648e-03
-1.523328e-03
-2.724939e-03
3.102948e-02
1.402098e-02
1.390240e-02
1.362871e-02
3.447190e-02
2.800637e-02
4.558367e-02
1.313735e-02
5.374368e-03
2.024679e-02
7.307766e-03
-8.267540e-03
1.145545e-02
3.939078e-03
-1.006413e-02
1.757583e-02
8.065195e-04
-5.557114e-04
2.366161e-03
-2.759200e-02
-5.982873e-03
-1.136436e-02
-2.577206e-03
1.962999e-02
-5.444935e-03
-2.613663e-04
1.123072e-02
6.898878e-03
-1.986440e-02
-2.007710e-03
1.212115e-02
5.234647e-02
5.399886e-05
1.632083e-02
3.318992e-02
2.969999e-03
-5.837997e-03
-4.859745e-03
3.921353e-03
-2.076443e-03
-1.189970e-02
1.047537e-03
-3.310869e-02
1.147788e-02
-4.600692e-03
-2.171700e-02
9.425617e-04
-1.075941e-02
1.583728e-02
3.112919e-03
-2.693066e-02
-1.100372e-02
-1.817609e-02
-7.793428e-03
-1.827932e-02
7.588219e-03
9.677764e-03
1.906562e-02
1.325824e-02
1.590699e-02
2.862241e-03
9.334635e-03
1.208798e-02
-2.292353e-02
-1.932974e-02
4.234722e-04
7.242705e-03
-1.724366e-02
2.530773e-03
2.244898e-02
1.061458e-03
8.612208e-03
-8.919436e-03
1.627433e-02
1.041575e-02
-3.748614e-03
-1.093815e-02
1.023077e-02
-2.015590e-02
-1.601737e-02
4.970070e-03
1.256357e-02
-1.546382e-02
1.503581e-03
-2.311397e-02
-1.073654e-02
5.975779e-03
5.023669e-03
-7.312299e-04
1.128341e-02
5.112224e-03
1.343231e-03
9.654796e-03
6.792701e-02
8.054009e-03
-4.544507e-02
8.519470e-02
1.242245e-02
-2.989851e-02
3.502613e-02
4.220512e-03
2.276789e-03
-1.566525e-02
-3.903213e-02
-1.186943e-02
-1.356932e-02
7.647399e-03
7.023713e-03
-4.628314e-04
4.476291e-03
8.314352e-03
3.354080e-02
1.605279e-02
-2.980524e-02
1.337318e-02
-1.434791e-02
-5.252518e-03
-7.535963e-03
-4.678372e-03
-6.967072e-03
-2.178475e-02
-2.994611e-02
-2.229939e-02
-2.251936e-02
-2.085904e-02
-8.383888e-03
-2.076186e-02
-1.949362e-02
-8.072022e-03
2.236144e-02
-1.722375e-02
-3.921829e-02
3.177887e-03
-2.770922e-02
-2.814261e-02
2.392184e-03
-1.733307e-02
-7.195873e-03
-2.893942e-02
-2.068055e-02
6.550983e-03
6.969790e-03
4.336030e-03
-1.410278e-02
-5.335057e-03
-1.561980e-02
-3.224551e-02
7.311005e-03
1.406711e-02
-2.208129e-02
-4.955003e-03
4.742110e-03
-2.175853e-02
-1.591820e-03
2.066908e-02
-6.241618e-03
8.529170e-04
3.445702e-02
-9.613959e-03
2.318768e-02
1.214867e-02
-4.164444e-02
5.356709e-03
6.955456e-03
1.396792e-02
-7.192725e-03
-2.062083e-03
-9.490676e-03
1.339031e-02
9.985392e-03
-6.267550e-03
2.379501e-02
-2.334090e-03
-4.183230e-03
-5.309387e-03
-7.441722e-03
6.427050e-03
1.802409e-02
-1.741802e-02
-3.626639e-05
-1.200699e-02
4.095894e-03
2.630686e-02
-9.635044e-03
2.082502e-03
8.758591e-03
-9.945039e-03
2.154714e-02
-5.485747e-03
-8.891209e-03
-1.147542e-02
-2.526964e-02
1.045929e-02
1.075454e-02
-9.677099e-03
5.892209e-03
-1.382398e-02
1.009024e-03
1.577450e-02
-1.452146e-02
-8.348250e-03
-6.446220e-03
-2.145584e-02
-9.433292e-03
6.577146e-05
2.937619e-03
-2.059947e-02
1.892100e-02
1.838715e-02
1.959319e-02
6.570934e-03
2.294340e-02
3.516987e-02
8.801263e-03
2.087553e-02
4.149730e-02
1.814614e-02
-2.913281e-03
2.531228e-02
-5.319073e-03
-2.940625e-02
-8.340697e-03
-1.018734e-03
1.863659e-02
2.304270e-02
-1.538604e-02
-2.278047e-03
1.076992e-02
1.316125e-02
1.336691e-03
-8.714547e-03
-1.385288e-02
-3.608179e-02
-2.591011e-02
2.146685e-03
1.557628e-02
-5.491792e-03
1.832614e-02
1.198537e-02
-2.276046e-02
-1.195134e-02
-1.492849e-02
-3.169294e-02
-3.613563e-04
3.819580e-02
1.080289e-02
1.139744e-02
-2.815307e-02
-7.304030e-03
6.248864e-03
-1.046276e-02
-1.971654e-02
1.214127e-03
7.330093e-03
1.801343e-03
1.320688e-02
7.236732e-05
1.034789e-02
2.573570e-02
-1.278684e-02
1.978703e-02
-1.397138e-02
-2.614755e-02
-1.577763e-02
-1.458944e-02
5.024753e-03
-2.607856e-02
-1.739072e-02
-4.255272e-03
8.250364e-04
-3.717997e-02
-2.960472e-02
1.941049e-02
-2.976253e-02
-5.082388e-02
1.152124e-02
-3.440514e-02
-1.312380e-02
1.247724e-02
5.451985e-03
2.559715e-02
1.676331e-02
-3.887624e-02
1.617207e-02
2.593046e-02
-3.934987e-02
2.271581e-02
5.929543e-02
-1.926241e-03
-9.710647e-04
3.185407e-02
-1.574019e-04
1.691028e-02
3.573481e-03
6.252530e-03
2.566375e-03
-1.105845e-02
-7.276617e-04
1.761267e-02
5.198058e-03
-3.471172e-02
-2.494782e-02
-3.052159e-02
6.453334e-03
1.677848e-02
2.026308e-02
9.005914e-03
-2.193497e-02
-3.287756e-03
1.233428e-02
1.296111e-02
-1.444397e-02
2.225951e-02
1.485619e-02
-3.988471e-03
-9.849428e-03
3.456611e-03
7.161668e-03
1.212377e-02
-1.230443e-02
6.003182e-03
2.224028e-02
-1.093951e-02
-1.486356e-02
4.732179e-02
-5.507057e-03
1.291802e-02
-2.315632e-02
-7.954872e-03
-5.151035e-03
8.859344e-03
-1.487103e-02
8.355842e-03
-1.718316e-02
-5.803573e-03
-1.343856e-02
1.682185e-02
1.710704e-02
5.831075e-03
1.271568e-02
8.236838e-03
2.845170e-04
1.514109e-02
1.989465e-02
8.958490e-03
-5.362918e-03
-8.019191e-03
-1.215596e-02
5.018761e-03
-1.925296e-02
3.308732e-03
-1.027589e-02
-5.958179e-03
1.693347e-03
-3.100692e-03
7.285723e-03
-1.371139e-02
1.207250e-02
-1.106967e-02
-8.751675e-03
4.257864e-03
1.575655e-02
-4.497685e-03
3.164442e-03
2.870038e-02
-2.609327e-03
-1.611292e-02
-2.358764e-02
-8.344406e-03
-7.711314e-03
3.638926e-04
1.592805e-03
-2.716091e-03
-1.286720e-02
1.013089e-02
2.062913e-02
-1.146824e-02
1.480095e-02
2.065824e-02
1.961279e-03
-8.055180e-04
-1.355440e-03
-1.361574e-02
-2.716891e-02
3.128988e-02
-1.706357e-02
-5.539342e-03
2.240811e-02
5.979184e-03
1.121702e-02
6.202101e-03
-1.046746e-02
-8.862127e-03
-1.073544e-02
-1.291511e-02
-1.025786e-02
5.492783e-04
7.323109e-03
1.481736e-04
4.954699e-02
3.884060e-02
-1.705622e-02
7.075820e-02
4.001901e-02
-9.594761e-03
1.582394e-03
-4.848524e-03
3.246659e-02
-1.584260e-02
1.414894e-03
-1.624279e-02
1.757558e-02
-7.205194e-03
-2.601119e-02
2.023143e-03
1.822506e-03
1.190577e-02
-5.255406e-03
-1.844347e-02
1.695445e-02
-2.379010e-02
-2.663545e-02
9.102719e-03
-9.309317e-03
-3.115287e-02
-6.712783e-03
1.057877e-02
-2.180144e-02
-1.682888e-02
3.521314e-03
-2.239587e-03
-2.090138e-02
3.265024e-03
2.154967e-02
-1.470738e-02
-2.541996e-03
-1.321133e-02
1.416012e-02
-3.889765e-03
8.028733e-03
2.242148e-02
1.596341e-02
-1.117815e-03
7.445253e-03
-6.230179e-03
-1.985971e-02
4.480607e-03
-1.190804e-02
-2.072175e-02
-4.472400e-03
-9.320676e-03
-1.562790e-02
6.736534e-03
-1.649389e-02
-7.859278e-03
-1.565067e-02
-6.100314e-03
-1.023922e-02
1.050092e-02
-2.997290e-03
-8.042922e-04
2.536185e-02
-2.548768e-02
-4.955330e-02
-2.393427e-02
3.594445e-03
-1.730972e-02
3.958742e-03
2.629540e-02
-2.048316e-04
-1.913174e-02
-5.344260e-03
5.402888e-03
5.524127e-03
2.581346e-02
1.301138e-02
1.775505e-02
4.224867e-03
1.214135e-02
6.447764e-03
-5.406110e-04
-2.688982e-03
-1.862115e-02
3.496672e-02
1.880242e-02
-1.240660e-02
3.296156e-02
-9.063045e-03
-5.930431e-03
-2.259021e-02
1.152049e-02
2.931711e-02
1.039179e-02
-1.163165e-02
1.138730e-02
2.208001e-03
5.283124e-04
5.512318e-03
-2.697478e-02
-2.077268e-02
-1.280817e-02
-2.999141e-02
-2.491101e-02
-1.467330e-02
-2.895251e-02
-3.662285e-02
-1.350017e-02
1.783594e-05
7.679676e-03
2.719731e-02
3.646790e-03
1.233008e-02
-2.304290e-03
1.308725e-03
1.229889e-02
-9.523220e-03
-1.240237e-02
1.953277e-02
3.047438e-02
-9.704378e-03
4.250680e-02
5.177825e-02
4.906947e-03
-1.686646e-03
3.104650e-03
-8.136770e-03
-2.502931e-02
-9.919986e-03
-2.441695e-02
-1.071125e-03
-1.310507e-02
-9.545991e-04
1.777524e-02
-6.445677e-03
-1.435356e-02
-2.104147e-03
-1.200571e-02
-1.425909e-02
-4.100136e-03
-2.697665e-02
-9.981428e-03
-3.628420e-02
-4.508632e-02
2.432509e-02
-2.019676e-02
-6.453334e-03
-1.177795e-02
-1.880820e-02
-3.863562e-03
6.535755e-03
3.749864e-03
1.239287e-02
1.707247e-02
2.273443e-02
2.589626e-02
3.443524e-02
4.805686e-02
-6.789766e-03
1.114687e-03
-1.040062e-02
-1.952335e-02
1.909458e-02
7.351553e-03
2.819174e-02
1.611947e-02
-2.103088e-03
6.188722e-03
-8.680087e-03
-2.261687e-03
-1.178646e-02
-2.899834e-02
-9.575365e-04
2.420929e-02
-2.458898e-02
2.590687e-03
4.943262e-02
-2.211048e-02
-1.115442e-02
-5.501893e-03
-2.431414e-03
1.853512e-03
5.999431e-03
-2.343273e-02
-4.090266e-02
-1.312459e-03
-1.510078e-03
6.433575e-03
2.179175e-02
-5.121802e-03
-3.306108e-02
-1.234265e-02
4.521477e-03
-1.158637e-02
1.022511e-03
1.444257e-02
-8.060907e-03
-1.577434e-02
2.184838e-03
-4.493383e-03
-3.157903e-02
1.613350e-02
-1.296658e-02
-1.591922e-02
6.708975e-03
-4.215992e-03
7.680650e-04
-4.923625e-02
9.389192e-04
2.929009e-02
-3.103407e-02
-2.120733e-03
1.879079e-02
2.207322e-02
2.040372e-03
-2.797827e-02
-5.811873e-03
8.107347e-03
2.397503e-02
-1.034832e-02
5.869399e-03
7.411900e-03
4.933144e-04
1.030968e-02
-1.034205e-02
3.505633e-02
4.319029e-02
2.341034e-02
1.998807e-02
2.806751e-02
-1.240075e-02
2.022098e-02
1.337764e-02
-1.544578e-02
-3.821578e-03
-3.141315e-03
1.720403e-02
-1.798140e-02
3.177748e-02
2.251788e-02
9.974753e-03
2.414785e-02
-6.583522e-03
-1.233584e-02
-5.988781e-03
-6.947741e-03
-3.111910e-03
-2.036794e-02
-2.703348e-02
5.021214e-03
2.677748e-03
1.570563e-02
2.211114e-03
1.899675e-02
1.006225e-02
-2.224979e-02
9.012172e-03
-1.243091e-02
-2.249777e-02
3.379276e-03
-1.553418e-02
-9.560915e-03
-8.536624e-03
1.051986e-02
6.046574e-03
2.247378e-02
-9.166196e-04
-1.429093e-02
1.310247e-02
-5.521764e-03
-3.847460e-03
-2.177054e-02
-2.893110e-02
-2.420859e-03
-1.075112e-02
-1.282011e-02
9.316561e-03
1.493720e-02
3.263357e-03
-2.858585e-03
-1.171593e-02
-4.314307e-03
-1.266656e-03
-5.357141e-03
-1.129046e-02
2.613497e-02
-1.332714e-02
-2.947306e-02
-1.511364e-02
-8.083915e-03
2.792985e-02
-1.203131e-02
1.006980e-02
2.013312e-03
2.696968e-03
9.343102e-03
-9.778488e-03
5.496328e-03
2.730185e-02
4.729983e-02
-2.409643e-02
-9.287078e-03
1.915004e-03
-2.919574e-02
-1.500830e-02
5.454097e-03
-1.456422e-02
-2.244241e-02
-3.062192e-02
9.141173e-03
6.287277e-03
-1.849489e-02
-1.137233e-02
3.045980e-03
6.534145e-03
-1.805653e-02
-2.496769e-02
-3.050571e-03
-1.097661e-02
-2.419158e-02
-1.877031e-02
-2.715809e-02
-2.916287e-02
-3.512843e-02
1.709379e-02
2.019702e-02
1.742929e-02
5.857216e-03
2.128322e-02
1.494888e-02
1.208600e-02
1.866118e-02
1.035859e-02
9.632677e-03
1.188668e-02
1.125786e-02
2.459640e-02
3.055842e-02
1.342694e-02
5.133168e-03
-2.997986e-03
5.979169e-04
7.526787e-03
-9.738847e-03
6.059953e-03
-7.139171e-03
-1.363345e-02
5.102754e-04
1.547483e-02
-1.293084e-02
-1.325228e-02
1.308892e-02
4.738066e-03
-1.033342e-03
7.354470e-03
2.630848e-02
2.948282e-02
-2.606525e-03
2.902655e-02
2.939388e-02
-2.107139e-02
-1.163395e-02
-2.080577e-02
-1.959960e-02
-1.972652e-02
-1.970023e-02
9.923646e-04
-4.498011e-03
-1.336832e-02
-1.752823e-02
-5.680853e-03
2.965258e-03
-4.762029e-03
-1.172632e-02
-4.449385e-04
-1.986990e-03
-1.250170e-02
-7.945389e-03
-1.085255e-02
-1.387845e-02
-2.312917e-02
-2.516531e-03
-1.063181e-03
-2.213732e-03
-1.468707e-02
-1.248815e-02
-5.252314e-04
-4.373306e-03
1.075769e-02
-7.720865e-03
1.139577e-02
2.004765e-02
1.135908e-02
-6.072508e-03
-1.435285e-02
-8.472777e-03
3.467134e-03
-3.145834e-03
-2.550039e-02
1.047370e-02
7.092921e-03
-4.312423e-03
-2.011321e-02
-1.570439e-02
-2.620540e-02
-2.601246e-02
-1.785756e-02
-1.011349e-02
-3.311628e-02
-2.060514e-02
-3.180793e-02
-1.951494e-02
1.420929e-02
5.961675e-03
-1.673601e-02
-3.311341e-02
-3.086544e-02
2.908134e-02
2.714458e-03
-1.649490e-02
2.075382e-02
-2.688813e-02
-1.922305e-02
-6.846347e-03
-7.500264e-03
-1.125207e-02
4.834754e-03
9.366124e-03
1.843073e-02
-7.539095e-03
-2.436896e-02
-1.250668e-02
-2.359960e-03
-1.383718e-02
-1.338775e-02
-1.230340e-02
-9.829838e-03
-6.633653e-03
-1.076624e-02
-6.076962e-03
-3.299125e-03
1.722172e-02
-5.173174e-04
1.200649e-02
2.721820e-02
3.106313e-02
1.085541e-02
1.827940e-02
2.090582e-02
-4.038639e-03
-1.239987e-02
4.597047e-04
-2.285710e-02
-2.437560e-02
-1.630782e-02
7.285882e-04
7.386515e-03
-9.577489e-03
-2.198542e-03
-3.823162e-03
-6.443143e-03
7.357705e-03
-3.784009e-03
-8.005470e-03
7.968962e-03
1.678759e-02
8.104701e-03
-3.277461e-03
7.878768e-03
2.836053e-03
9.738840e-03
-4.689635e-03
8.976161e-03
-1.835170e-02
2.550106e-03
1.196145e-02
1.695322e-02
6.349831e-03
1.568093e-03
-5.007070e-03
5.157950e-04
-1.582475e-02
-1.506366e-02
-9.332030e-03
-2.210263e-02
-3.566046e-02
6.902517e-03
6.873915e-03
1.846770e-02
1.908415e-02
1.216167e-02
8.594130e-03
1.149683e-02
9.730813e-03
1.268603e-02
-2.669699e-02
-1.210151e-02
1.121095e-03
-1.435231e-02
-1.787283e-02
-7.989618e-03
1.020286e-02
-1.439704e-02
1.547066e-02
-3.481200e-03
-3.917619e-03
-6.864569e-04
-4.516629e-03
-1.264765e-02
-2.865243e-02
-1.014669e-02
-2.680532e-03
6.662749e-03
1.422900e-02
7.941678e-03
-2.866373e-03
2.529049e-02
3.094170e-02
2.156319e-02
1.563177e-02
2.494085e-02
4.503505e-02
-5.359550e-03
-1.983399e-02
-1.151157e-02
5.671454e-03
-7.509261e-03
7.182007e-03
1.280870e-02
1.304388e-02
5.998690e-03
-1.191701e-02
-7.400590e-03
-7.631295e-03
-4.113859e-03
-1.818606e-02
5.612807e-03
-4.164923e-03
-2.610804e-02
-5.839316e-03
1.522988e-02
-1.005622e-02
1.703972e-02
1.687509e-02
3.097685e-03
4.008608e-02
2.032701e-02
2.954647e-02
1.919269e-02
-3.222623e-03
-9.459895e-03
9.877950e-03
4.389510e-03
8.191344e-03
7.159546e-04
1.862382e-03
7.829863e-03
3.028124e-03
-1.145997e-02
-3.977504e-03
-2.007161e-03
-1.264066e-02
-1.105148e-02
-3.326124e-03
-4.053026e-02
-3.541808e-02
-3.224361e-02
-2.136440e-02
-4.131314e-02
-2.006628e-03
-1.431831e-02
-2.833858e-02
1.095559e-02
8.302240e-03
3.002888e-02
2.920944e-02
-5.220139e-03
-2.710185e-03
-2.651197e-02
1.650062e-02
-7.365349e-03
-1.646844e-02
1.394260e-02
-2.939139e-03
-1.176407e-02
8.061845e-03
-1.837334e-02
-1.726172e-02
1.108759e-02
-1.868769e-02
-1.384814e-02
-5.215886e-03
-2.185892e-02
-2.304596e-02
1.035257e-02
-3.936144e-03
-5.742080e-03
1.012480e-02
8.424781e-03
7.062629e-03
-9.454571e-03
-1.002910e-02
-5.855920e-03
-6.544011e-03
-4.773701e-03
-2.057446e-02
-8.356559e-03
3.445815e-03
-2.725584e-02
1.280366e-02
1.686757e-02
-2.956554e-04
-4.833684e-03
-3.929187e-03
-2.313577e-02
-1.213907e-02
-1.985761e-02
-7.108546e-03
3.580577e-03
1.628429e-02
1.627357e-02
-6.738460e-03
2.699031e-03
1.853918e-03
8.296264e-03
1.459027e-03
1.565614e-02
3.097119e-03
1.494817e-02
-2.695168e-02
-8.690359e-03
-2.525324e-04
-1.427799e-03
-3.282014e-03
2.514495e-04
-2.331478e-03
1.038096e-02
2.032918e-02
6.516133e-03
6.710890e-04
5.346616e-03
-3.836907e-02
8.287188e-04
1.984820e-02
3.059455e-03
-7.520423e-03
2.432299e-02
-1.286169e-02
1.216580e-02
5.902307e-03
-6.040321e-03
-1.127784e-02
-3.862597e-03
-1.615191e-02
-2.852762e-02
-1.568013e-02
1.793796e-03
9.444383e-03
1.212862e-02
1.069807e-02
-8.676132e-03
-1.857731e-02
-3.224802e-03
-1.270620e-03
-1.204252e-02
1.384544e-02
-7.987663e-04
-1.388392e-02
-2.475589e-02
6.632969e-03
-2.894962e-03
1.907323e-04
1.902124e-02
1.578560e-02
5.283871e-03
-3.691822e-03
9.388366e-03
2.736147e-04
-1.712225e-02
8.857157e-03
-1.069654e-03
-1.619926e-02
-6.868634e-03
5.929599e-03
2.251919e-02
3.467107e-02
2.529374e-03
5.436579e-03
2.249708e-02
1.593210e-02
2.406196e-02
3.440697e-03
2.186955e-02
-7.833922e-03
-3.616984e-03
1.387536e-02
-1.282436e-02
-7.587153e-04
1.309182e-02
2.691525e-02
1.230479e-02
1.090241e-02
-3.069860e-02
-1.658526e-02
-3.434831e-02
-1.741373e-02
8.447800e-03
-1.046400e-02
4.070188e-03
2.302187e-03
-9.342601e-03
-3.149887e-03
-4.575505e-03
-6.018800e-03
-9.519306e-05
-7.278612e-03
-1.293038e-02
2.569474e-03
-5.429071e-03
4.228943e-03
5.861669e-03
-5.427055e-03
-1.458218e-02
4.128924e-03
-1.344752e-02
-2.135289e-02
1.388287e-04
-8.819275e-03
-3.622057e-03
-2.033410e-02
1.728690e-03
-1.467471e-02
-2.379771e-03
-2.894711e-03
-1.015715e-02
5.696120e-03
-1.597168e-02
-1.864506e-02
-9.474126e-03
-1.740789e-02
-3.113249e-02
-9.174031e-03
-2.925748e-03
-2.835023e-03
-4.114030e-03
-2.631833e-03
1.391364e-02
-7.437269e-03
-2.774489e-02
-2.117851e-02
4.190671e-03
-2.085295e-03
-2.326351e-02
-8.481604e-03
3.440392e-02
2.489924e-02
5.589194e-04
-4.514432e-05
1.082771e-02
4.836841e-03
-3.339937e-03
9.972857e-03
1.463792e-02
8.016740e-03
-1.496250e-02
-8.610132e-03
-4.828335e-03
4.011060e-03
-2.057334e-02
-2.960842e-03
-3.015668e-04
-5.871647e-03
-1.987432e-02
-1.847213e-02
1.825978e-02
2.532630e-03
-3.212784e-03
5.367627e-03
2.012052e-02
1.256826e-02
2.218416e-02
4.290771e-02
3.218453e-02
-8.727479e-03
-1.011550e-02
3.216194e-03
-2.468779e-02
-4.361004e-03
8.391744e-03
-4.818204e-03
-1.081658e-02
-8.289147e-03
-3.445234e-05
1.724852e-02
1.265319e-02
1.146395e-02
1.609271e-02
8.904471e-03
1.506721e-02
2.130163e-02
-1.593535e-03
1.794579e-02
3.050037e-02
1.977435e-02
-3.550872e-03
1.474621e-04
-7.368805e-03
-2.091631e-02
-2.041986e-02
-2.901766e-02
5.027259e-03
1.172566e-02
-5.166228e-03
2.371231e-02
2.720059e-02
4.109414e-03
8.162426e-03
-1.551138e-02
-1.336524e-02
-1.508257e-02
-1.470168e-02
1.676216e-02
1.860349e-03
4.664487e-03
5.104703e-04
7.699325e-03
1.548542e-02
1.293372e-02
1.844177e-03
1.721124e-02
7.795948e-03
-6.164346e-03
6.649526e-03
7.043228e-03
-8.805551e-03
1.109114e-03
1.384516e-02
-8.459734e-04
-2.065287e-02
1.758873e-02
-8.090849e-03
-2.134144e-03
1.960199e-02
3.516472e-02
6.128269e-03
-2.038009e-02
1.935113e-02
4.177381e-02
5.008084e-02
3.447277e-02
7.301463e-03
6.634341e-03
-6.586919e-04
-1.419703e-02
3.620988e-04
-8.723588e-03
7.339692e-03
-1.865934e-02
4.215010e-02
1.320069e-02
6.244782e-03
3.455278e-02
-2.187280e-02
1.253613e-03
1.605765e-02
8.093546e-03
6.043554e-03
1.446519e-02
1.953363e-02
9.246334e-03
4.002361e-03
1.031053e-03
-1.742397e-02
-2.063253e-02
-5.528214e-03
8.523203e-03
-1.526052e-02
-4.860666e-04
7.521866e-03
-3.771306e-02
-2.408962e-02
-2.348007e-02
8.793880e-03
7.059353e-03
-2.771344e-03
4.707842e-02
3.721944e-02
-4.267926e-03
3.162241e-02
2.884125e-02
-2.165563e-03
-1.474215e-02
-1.083474e-03
-2.009428e-03
-2.479093e-03
1.285526e-02
-3.977122e-03
1.291065e-02
2.819727e-02
-1.201084e-02
3.585913e-03
-2.105171e-02
-1.043009e-02
-6.663164e-03
8.940934e-03
2.062906e-02
-4.121091e-03
-1.454926e-02
2.019303e-02
4.543642e-02
3.788217e-04
-1.931754e-02
-3.743487e-03
-1.131036e-02
-7.956228e-03
-2.953187e-02
7.943384e-03
3.716008e-02
1.828152e-02
1.853663e-02
1.976432e-02
8.001023e-03
-4.774487e-03
7.111917e-03
4.314487e-03
4.915827e-04
-6.669357e-03
1.842959e-02
1.982375e-02
1.670166e-02
5.488897e-02
4.598158e-02
-1.727884e-02
4.049008e-02
1.986164e-02
-4.796822e-03
-1.903917e-02
-2.385551e-02
-8.829424e-03
1.132629e-02
-1.486869e-02
-1.779304e-02
4.931304e-02
2.573249e-02
3.796260e-03
-1.601331e-02
-1.081844e-02
7.872310e-03
-3.331786e-02
8.155602e-03
3.694435e-02
-5.564192e-03
1.368106e-04
1.093959e-02
-9.208793e-03
7.820312e-04
1.253879e-02
-1.982291e-02
3.096099e-03
4.763571e-02
4.202704e-03
-1.806688e-02
1.700306e-02
-2.186347e-02
-3.269158e-02
-9.650599e-03
2.364149e-02
-1.938122e-03
-9.562207e-03
2.152942e-02
1.949776e-02
1.963175e-02
4.705812e-03
-1.058440e-02
-2.955052e-03
-1.992179e-02
-2.219314e-02
7.925376e-03
-1.948765e-02
-1.146953e-02
1.695165e-02
-1.032354e-02
1.897266e-03
-4.908188e-03
-9.282949e-03
2.406871e-03
2.284923e-02
-1.290608e-02
-1.917124e-02
1.238309e-02
2.616106e-02
3.872726e-02
3.057210e-02
1.552405e-02
2.929300e-02
3.298498e-02
-3.184953e-03
7.074742e-05
1.128953e-02
1.749544e-03
-9.597659e-04
-9.348846e-05
2.749817e-02
3.274919e-02
1.931068e-02
-2.960438e-03
-2.780331e-03
6.534104e-03
-1.306444e-02
1.277480e-02
-3.341067e-03
-3.322991e-03
4.771679e-03
1.442517e-02
-7.237972e-03
-1.423913e-02
1.625975e-02
-1.154532e-02
-1.509269e-02
-7.097931e-03
-5.032675e-04
-2.182866e-02
4.570298e-03
-1.767979e-02
-1.637467e-02
2.765109e-02
-2.121569e-02
-4.041586e-02
-1.247579e-02
-1.335092e-02
-2.314751e-02
-1.100232e-02
1.534318e-02
1.910761e-02
-6.913015e-03
-7.475227e-03
9.032080e-04
-7.552013e-03
-2.152205e-02
-1.340819e-02
-6.802497e-03
-2.147287e-02
-1.308551e-02
-1.620509e-02
-1.018549e-02
1.937846e-03
8.401920e-03
1.980466e-03
2.939078e-02
-9.878376e-03
1.456431e-02
1.234779e-03
3.349649e-02
-1.721184e-02
8.561460e-03
3.347844e-02
-4.976561e-03
9.097195e-03
2.738564e-02
-1.214118e-02
-1.426251e-03
1.568286e-02
-3.472993e-04
1.949605e-02
1.948693e-02
2.752733e-03
1.663679e-02
-1.441150e-02
-3.047368e-02
-6.471110e-03
-1.085280e-02
2.681256e-02
5.113850e-03
1.797291e-02
2.618429e-02
2.164645e-02
1.562271e-02
9.455035e-03
4.101409e-03
-8.129228e-03
-3.481416e-03
1.547467e-02
8.497758e-03
-1.582860e-02
3.009468e-02
1.124118e-02
-2.501246e-03
5.744474e-03
1.006622e-02
-1.676321e-03
1.947934e-02
1.780761e-02
1.922907e-03
-1.678536e-02
2.036874e-02
-2.334068e-02
-9.881112e-04
4.050609e-03
-1.710326e-02
-3.831947e-02
-2.486938e-02
6.497544e-03
-6.415939e-03
-5.058072e-03
4.892722e-02
1.809010e-02
-2.274089e-03
-2.669265e-03
-1.883440e-02
-1.938931e-02
-2.244286e-02
-2.867542e-02
-8.627014e-03
-1.292574e-02
-5.854548e-03
1.058511e-02
-7.526711e-03
-1.393780e-02
-2.867837e-03
-5.645255e-03
8.339116e-03
-8.064577e-03
-1.170810e-02
2.164936e-02
3.038790e-02
-9.029200e-03
-1.661049e-02
-4.942115e-03
-1.672011e-03
-6.167292e-03
-1.230926e-02
3.026749e-02
2.904706e-02
8.676950e-03
-1.177977e-02
-3.711467e-02
-1.092341e-02
-1.086392e-02
-3.812636e-02
-1.296888e-02
-1.091896e-02
-3.467045e-02
-2.576266e-02
9.813339e-03
1.495895e-02
1.414800e-02
9.394639e-03
1.789630e-02
-4.090100e-03
2.472677e-03
6.103115e-03
-4.791925e-03
-2.616145e-03
-1.413040e-02
1.529012e-02
2.796153e-02
1.406834e-02
2.156556e-02
1.203041e-02
-1.455275e-02
5.868906e-04
4.062603e-03
4.963358e-03
2.049401e-02
1.042110e-03
1.797180e-02
-8.704489e-04
-2.787505e-02
-2.182257e-02
-1.782660e-02
1.248015e-02
-1.444018e-02
1.598818e-02
1.299676e-02
-5.565520e-03
-2.387769e-03
-2.077694e-03
-8.206319e-03
1.754553e-02
-1.400048e-03
6.355124e-03
1.671462e-02
-3.873301e-02
-1.608328e-02
2.468055e-02
-1.409854e-02
2.206845e-03
1.363715e-02
-9.995569e-03
-1.908560e-02
-3.621753e-02
-1.541511e-02
8.381666e-03
-6.805062e-03
-1.620826e-02
2.050762e-03
1.184957e-02
-7.906297e-03
-3.393788e-03
-4.427831e-03
-1.564818e-02
-2.580592e-02
-2.061993e-02
2.668303e-03
-2.086882e-02
3.599831e-03
-1.982956e-02
-7.949622e-06
1.886186e-03
-1.481382e-02
-1.001291e-02
1.658965e-03
-9.664634e-03
-1.371350e-02
-1.399608e-02
-2.506206e-02
1.273034e-03
1.374097e-02
-3.263837e-02
-3.103429e-03
1.250269e-03
5.656360e-03
-5.290536e-03
8.256188e-03
1.582021e-03
-1.273091e-02
1.635444e-02
-1.436630e-03
-1.806483e-02
5.560901e-03
1.451613e-02
2.333727e-02
9.011162e-03
7.383397e-03
1.573827e-02
1.027332e-02
8.840878e-03
2.011885e-02
-8.964029e-03
1.920975e-02
1.680325e-02
-8.897938e-03
-1.755783e-02
2.379357e-03
-1.974103e-03
6.128964e-03
5.592531e-03
5.388463e-03
-6.458892e-03
2.492124e-02
1.333348e-02
3.504613e-03
1.566898e-02
5.003668e-03
1.637686e-02
3.908255e-03
-1.640416e-02
3.220631e-02
1.465200e-03
1.002356e-03
6.833752e-03
8.094379e-03
1.610969e-02
-1.451479e-02
4.630114e-03
2.359742e-02
1.280791e-02
3.845599e-02
2.028731e-02
1.168031e-02
1.166902e-03
-3.501328e-02
-8.168990e-03
1.137399e-02
6.637805e-03
6.347975e-03
1.131761e-02
-7.513342e-05
-4.328175e-03
6.570336e-03
-1.339220e-02
2.074420e-02
1.316873e-03
1.095182e-02
1.817483e-02
-6.625269e-03
-1.264430e-02
1.954844e-02
-5.139261e-03
-5.508244e-03
5.039227e-03
-5.232127e-03
-5.192343e-03
5.488538e-03
-4.601825e-04
-7.388172e-03
1.917095e-02
2.457848e-02
3.918621e-03
1.374575e-02
1.271036e-02
-1.493212e-02
-5.473095e-03
-1.977141e-02
-3.448575e-02
-2.923752e-02
-2.865689e-02
2.877715e-02
3.389888e-03
-1.194604e-04
1.286324e-02
3.867006e-02
1.427993e-02
1.707555e-02
1.916485e-03
-2.658944e-02
-3.207245e-02
-7.852659e-03
-2.344305e-02
-8.383799e-03
-9.179136e-03
-7.646875e-03
-2.830184e-03
-4.734410e-03
-4.883503e-03
-1.938423e-02
-1.555797e-02
-1.288157e-02
-1.618286e-02
9.301791e-03
7.949594e-04
9.661465e-03
-1.254693e-02
-1.338456e-02
2.311538e-02
-1.181718e-02
-1.758913e-03
1.467470e-02
-5.224309e-03
-9.219076e-04
8.909441e-03
4.262147e-04
2.948225e-02
1.766429e-02
-2.046453e-02
6.871359e-03
8.066768e-03
-8.711774e-03
-3.511551e-03
-2.221373e-02
1.399443e-02
-6.073088e-04
1.526862e-02
-2.816512e-02
-2.264849e-02
1.041489e-03
-1.842405e-02
-1.469432e-02
-1.529483e-02
-1.056265e-02
-2.145289e-02
-9.669386e-03
-1.408189e-02
-2.743525e-02
3.392202e-03
2.178981e-02
2.014171e-02
1.104285e-02
3.461031e-03
-4.860515e-03
-2.275899e-02
2.556029e-02
9.327291e-03
1.330727e-02
1.434809e-02
2.588431e-03
6.309370e-04
1.352443e-02
-1.533743e-02
-1.109557e-02
7.346951e-03
-9.425745e-03
-7.540922e-03
-8.871100e-03
1.126581e-02
1.098477e-02
-1.769000e-02
-2.531590e-02
1.164453e-02
-3.963037e-02
-3.244007e-02
9.557006e-03
-3.675664e-02
-2.471893e-02
-1.862489e-02
-1.628888e-02
-1.412214e-02
7.756734e-03
-1.890139e-02
-1.150189e-02
5.286767e-03
-2.861279e-03
2.197670e-02
-1.911136e-02
-7.565144e-03
-3.629998e-03
-1.031224e-02
1.166604e-02
1.272579e-02
-1.585224e-02
4.606147e-03
-1.247388e-02
-2.103657e-02
-3.244563e-02
1.878241e-03
2.651749e-02
-2.800847e-02
-1.230601e-02
3.272738e-02
-1.693661e-02
-1.095999e-02
9.781634e-03
1.551865e-02
-9.421078e-03
-2.877886e-02
3.213285e-02
-7.693167e-03
-3.881169e-03
4.216576e-02
1.426664e-02
-3.677487e-02
-2.741635e-03
5.270303e-03
1.437616e-02
4.480665e-03
2.111762e-02
2.105752e-02
1.086016e-02
1.867615e-02
2.954660e-02
-2.232861e-03
9.540514e-03
-9.359662e-03
-1.720961e-02
-2.756093e-02
-1.006009e-02
-1.115892e-02
-1.221238e-02
1.284570e-03
-5.080035e-03
-4.433665e-02
-9.980927e-03
-2.395918e-03
-2.668310e-02
-3.949218e-03
1.380273e-02
-6.973095e-03
5.008925e-05
-2.371210e-03
-2.637010e-02
-3.015050e-02
6.366912e-03
1.368552e-02
-2.030998e-03
-1.293189e-02
1.504995e-02
1.220611e-02
-1.195289e-02
1.525904e-02
3.427640e-02
-1.075350e-02
7.297602e-03
7.476109e-03
-2.798421e-02
2.490155e-04
-2.816668e-03
-1.358637e-02
-1.596417e-02
-2.983587e-02
-1.329082e-02
-7.608814e-03
-9.627226e-03
9.234214e-03
1.615691e-02
2.884716e-02
2.221450e-02
1.570434e-02
9.244686e-03
-7.787502e-03
-3.216293e-02
-3.830858e-02
-1.945499e-03
-1.344519e-02
-1.919560e-02
3.077189e-02
-1.417056e-03
-1.491089e-02
1.962163e-02
-8.672369e-03
-1.879297e-02
-6.939915e-03
1.976603e-02
1.202814e-02
1.175311e-02
-2.294632e-03
-3.205398e-02
1.580763e-02
2.222073e-02
-1.394937e-02
3.221687e-05
5.081369e-02
3.408108e-02
-1.215045e-03
-7.254860e-04
3.252497e-02
5.509937e-04
1.589666e-02
1.758213e-02
6.799679e-04
-1.167759e-02
1.713723e-03
1.074678e-02
-1.527734e-03
-1.583800e-02
1.067406e-02
-3.309923e-04
-1.051279e-02
-9.516343e-03
-2.303422e-02
-1.814442e-02
1.414337e-02
8.959405e-03
1.114737e-02
5.059939e-03
-2.531376e-02
-1.234963e-02
-4.397678e-03
-2.273047e-02
-2.349715e-02
-4.321891e-03
2.547652e-02
9.066585e-03
-6.644499e-03
1.978756e-02
1.708540e-02
8.392193e-03
2.100331e-02
5.758180e-03
1.017195e-02
5.069924e-02
2.210399e-03
-2.369224e-03
1.050473e-02
-9.147600e-03
2.092105e-03
2.842286e-03
-1.128825e-02
-7.384595e-03
-2.996370e-03
-2.565018e-02
-5.749078e-03
2.167197e-02
-4.650014e-04
1.212668e-02
8.587636e-03
-7.783288e-03
2.050963e-02
-6.724814e-03
-7.716491e-03
-4.420054e-03
-3.366035e-02
-1.096909e-02
-2.865672e-03
-1.815690e-02
-2.192809e-02
2.899388e-02
1.732577e-02
1.634845e-02
1.903243e-02
9.360821e-03
1.818422e-02
2.758842e-02
3.238133e-02
6.341080e-02
-1.848669e-02
-1.729398e-02
1.058171e-02
-3.419342e-02
-2.291364e-02
7.370693e-05
1.890821e-03
1.574765e-02
1.106762e-02
-1.279110e-03
1.472710e-02
1.454424e-02
-7.760679e-04
1.712330e-02
-9.770185e-03
-2.276501e-02
-6.113701e-03
-2.363905e-02
-1.011894e-02
7.980034e-03
1.337129e-02
1.855573e-02
9.274635e-03
2.301224e-02
1.850171e-02
-9.395432e-04
1.326554e-02
-5.627941e-03
-4.310654e-03
-1.106816e-02
3.107509e-03
1.195776e-02
-7.128234e-03
-3.134855e-02
-1.958492e-02
-1.345306e-02
-1.513280e-02
-1.121341e-02
-2.379802e-02
1.117841e-02
1.251427e-02
1.177249e-02
-6.045019e-03
-7.924238e-03
-1.230711e-02
1.825820e-02
3.359288e-03
1.768219e-03
1.005633e-02
-1.101566e-02
7.096713e-03
-2.832983e-03
2.550766e-02
1.362035e-02
1.583695e-03
1.618427e-02
1.958457e-02
-2.031075e-02
5.178477e-03
-1.070900e-04
-3.093188e-02
-4.823244e-03
-6.821605e-03
1.151355e-02
2.025575e-02
8.999305e-03
-5.526556e-03
3.734210e-02
1.697206e-02
-5.199023e-03
2.774520e-03
-7.862640e-03
1.385637e-03
1.773448e-02
4.252588e-05
-4.513888e-03
-1.849822e-02
-1.985793e-02
-1.446050e-02
-2.186735e-02
-2.526295e-03
-9.704284e-03
-1.791134e-02
-4.847975e-03
-7.303946e-03
-1.883264e-02
-8.721027e-03
-3.655664e-02
-4.219411e-02
-3.509758e-02
5.128100e-03
-1.835979e-03
-1.207220e-02
2.324033e-02
-2.444061e-03
-3.065403e-02
-2.852296e-03
-1.527323e-02
-3.135689e-02
2.241964e-02
5.165380e-03
-1.043201e-02
-9.974135e-03
-1.619296e-02
-1.930058e-02
3.409687e-03
3.972281e-03
-1.940431e-02
2.178046e-03
1.966604e-02
9.649359e-03
-1.060206e-02
-1.005787e-02
-1.243746e-02
-2.683589e-02
-5.621476e-02
-3.675095e-02
-8.939223e-03
-2.177894e-03
-4.307638e-03
-6.110751e-04
2.282782e-03
3.494295e-03
1.476100e-02
9.699010e-03
5.666520e-03
-8.221936e-03
1.913510e-02
1.841423e-02
-5.915587e-03
-9.429900e-03
-6.792425e-03
1.231480e-02
-2.800495e-02
-3.561172e-02
-2.813979e-03
-3.378221e-03
-7.288320e-03
2.395745e-03
1.069101e-02
-3.747332e-03
1.749691e-03
-1.174306e-02
-3.097914e-02
2.745189e-02
4.626686e-03
4.399391e-04
-1.011709e-02
-7.173508e-03
-9.147655e-03
-9.544153e-03
-6.235679e-04
-3.209427e-02
-1.296428e-03
-4.789987e-03
-3.153709e-03
2.437872e-02
1.109684e-03
1.949628e-03
-5.490317e-03
-4.037859e-03
1.819727e-02
8.531748e-03
1.356413e-02
3.637342e-02
-9.688579e-03
-3.925170e-03
-1.188142e-02
-1.193208e-03
6.470582e-03
-1.357946e-02
-7.553920e-03
1.263977e-02
1.786677e-02
-1.115528e-02
1.828528e-02
3.649660e-02
1.038764e-02
-4.165955e-03
-1.509359e-02
3.048308e-02
1.640412e-02
2.640315e-02
1.245161e-02
6.881818e-03
2.906912e-03
1.802790e-02
-7.161845e-03
-1.044063e-02
-5.535527e-03
-8.862383e-03
-1.215987e-02
1.521049e-02
6.463808e-03
-5.309829e-03
5.055542e-03
1.116569e-02
1.129192e-03
2.176719e-03
1.585644e-02
4.032179e-03
9.589441e-03
7.102573e-03
1.543623e-02
1.700832e-02
1.272848e-02
2.299348e-02
-3.256286e-03
2.134290e-02
-4.785127e-04
1.907113e-02
3.305293e-02
1.347242e-02
3.491873e-03
7.600599e-03
5.161731e-03
-1.605671e-02
1.733562e-02
1.320582e-02
1.111514e-02
2.704102e-02
1.316342e-02
1.493550e-02
3.407711e-03
-4.791188e-03
-8.513495e-03
1.315307e-02
2.202755e-03
1.617134e-02
2.125547e-02
1.239631e-02
2.163616e-02
-1.111520e-02
3.333934e-03
-6.622885e-03
-6.120635e-03
-4.451667e-03
8.507770e-03
1.726919e-02
-2.072711e-03
-2.117303e-02
-3.450364e-02
-2.290658e-02
-3.036330e-02
-1.737705e-02
-1.131208e-02
1.283249e-02
1.827620e-02
5.773232e-03
1.450397e-02
2.055137e-02
-6.567998e-03
-1.107424e-02
-5.459379e-03
1.400873e-02
-1.392934e-02
-1.238568e-02
1.676284e-02
6.443185e-03
-2.061451e-02
-1.256708e-02
-1.630525e-02
-1.232290e-02
-5.670480e-03
-4.664746e-03
-1.719333e-02
-2.540883e-02
-2.579524e-02
-2.189040e-02
-2.920392e-04
-5.302283e-03
-2.140051e-02
1.578661e-02
1.663470e-03
-1.089217e-02
8.368604e-03
1.446196e-02
-1.023828e-02
-1.210697e-02
-1.700413e-02
-2.613828e-02
-5.672879e-03
-9.135205e-03
-1.387424e-02
1.097815e-02
4.153168e-03
2.051072e-02
1.257208e-02
1.054953e-02
7.213868e-03
2.139620e-03
5.907182e-04
1.116462e-02
6.457196e-03
-7.585204e-04
9.069448e-03
1.050013e-02
-1.475675e-02
-8.211400e-03
9.620137e-03
-8.830402e-03
-1.861974e-02
-1.278051e-02
-3.224872e-03
9.730911e-03
3.851722e-03
-1.893163e-02
-3.631233e-02
-7.672384e-03
-4.358998e-03
-5.352065e-03
3.024695e-02
2.883727e-02
7.180866e-02
6.316659e-02
-1.163925e-02
1.435953e-03
2.036809e-02
-1.642109e-02
6.494005e-03
1.042034e-02
-1.083662e-02
-2.020088e-02
-4.718849e-03
-2.652674e-02
2.748718e-02
-3.723791e-03
-1.678381e-02
1.317281e-02
2.747882e-02
-6.996456e-03
2.352977e-02
1.758492e-02
5.051538e-03
-1.701131e-02
-7.255039e-03
4.230238e-03
-2.519425e-03
-1.691100e-02
3.364655e-02
1.879665e-02
1.660310e-02
1.613343e-02
1.539728e-02
-1.007241e-03
2.446168e-03
-1.458114e-02
-2.819397e-02
3.266336e-03
1.015039e-02
1.676496e-02
1.304896e-02
-6.566950e-04
2.903274e-03
-3.474220e-03
-9.879849e-04
-4.267596e-03
-3.566273e-02
-1.264568e-02
-1.474327e-02
-2.637529e-02
-2.172131e-02
-2.068409e-02
-6.953443e-04
3.704850e-02
2.709811e-02
6.034217e-03
2.298780e-02
2.943261e-03
3.019818e-02
1.463006e-02
3.190161e-03
1.369858e-02
-9.250423e-03
-6.758965e-04
9.155926e-03
-3.028625e-02
-2.359826e-02
1.833376e-02
1.796171e-02
-4.615263e-03
-2.397011e-02
-3.445807e-02
-2.725134e-02
5.211966e-03
1.237456e-02
2.809561e-03
-1.147439e-02
-7.212283e-03
-9.439724e-03
2.665829e-02
1.087111e-02
-8.352821e-03
1.154224e-02
-4.389123e-03
2.853333e-02
-1.256069e-02
-4.305391e-02
-3.907659e-02
-4.975489e-03
-8.667178e-03
-1.307696e-02
-4.917028e-03
-6.102265e-03
-3.487192e-04
1.739778e-03
-8.905555e-04
5.984184e-03
1.055726e-02
-2.658828e-02
-1.099639e-02
1.237938e-02
-1.490453e-02
-8.147323e-03
1.777798e-02
1.109906e-02
-3.102721e-03
5.018668e-03
2.661940e-02
3.928656e-03
1.909345e-02
2.316214e-02
-1.348357e-02
-1.440946e-02
1.712232e-03
-2.787516e-02
1.174883e-02
1.496260e-02
6.344008e-04
-1.014342e-02
-1.618741e-03
5.030991e-03
1.474094e-02
1.890238e-02
-1.718486e-03
-5.009142e-03
-1.689993e-02
-7.605400e-03
2.126432e-02
-8.953423e-03
1.155574e-02
-2.562392e-02
-1.443382e-02
-2.547737e-02
-6.034262e-03
1.066194e-02
-1.174692e-02
-1.136898e-02
9.442741e-03
-2.013018e-02
1.120986e-02
1.484162e-02
-1.687565e-02
9.495760e-03
1.885754e-02
-2.294263e-02
-3.723939e-02
-2.687514e-02
-2.843009e-02
3.278185e-04
-1.704452e-02
1.193123e-02
-1.277668e-02
-1.412574e-02
1.567079e-02
-2.284778e-02
-2.382561e-02
-8.239679e-03
2.242264e-02
6.639180e-03
-1.176725e-02
1.449932e-02
-2.685815e-02
-2.315625e-02
-9.390896e-03
-8.398009e-03
-9.547069e-03
-5.517451e-03
2.351708e-02
1.146347e-02
-6.606904e-03
-1.010060e-02
-1.151772e-02
-1.872545e-02
-2.782948e-02
-2.341201e-02
-1.696587e-02
-2.530295e-02
6.211211e-03
-5.899752e-03
-8.414037e-06
1.540195e-02
-1.203613e-02
-3.142734e-02
-2.055840e-02
2.533212e-02
2.137908e-02
1.439422e-02
9.562611e-03
1.210950e-02
-8.489673e-03
-4.327187e-02
-8.202047e-03
-2.652716e-02
1.934993e-02
4.336299e-03
6.201545e-03
1.629998e-03
-2.917930e-03
-6.284933e-03
1.983961e-02
1.276872e-02
-3.052482e-03
-8.168721e-03
-2.726106e-02
-1.494202e-02
-8.338856e-04
-2.122758e-02
-8.021539e-03
9.532916e-03
-7.028187e-03
2.561398e-02
1.516906e-02
-2.149367e-02
1.231170e-02
5.023479e-04
-2.982098e-02
-1.629472e-02
2.506816e-02
1.456003e-04
5.914272e-03
8.203058e-03
2.686434e-02
1.509513e-02
-7.129793e-03
-1.246968e-02
-3.189953e-02
-6.401127e-03
-1.678128e-02
-3.596757e-02
8.155119e-03
1.090062e-02
-5.832691e-03
-3.221568e-03
3.259829e-03
2.149435e-04
8.761555e-03
-5.652769e-03
-1.608863e-04
-1.187335e-04
1.381834e-02
1.079910e-02
1.760368e-03
3.558929e-02
3.375515e-02
-6.039207e-03
1.727722e-03
-1.052270e-02
-4.510845e-03
-2.268070e-03
1.554490e-02
1.133867e-02
2.999575e-02
2.379494e-02
-1.229298e-02
-3.407501e-04
6.466815e-03
1.507211e-02
1.977673e-02
2.901770e-02
-1.291558e-02
-8.244965e-03
1.710377e-02
-1.611341e-02
-1.551596e-02
-1.677608e-02
-1.697598e-02
-2.924846e-02
-2.188780e-02
-4.384743e-03
-1.624405e-02
8.174872e-03
-4.481245e-04
2.703898e-02
1.954796e-02
2.778317e-02
2.333306e-03
-7.434760e-03
3.734449e-02
3.223537e-02
2.274746e-03
-1.067792e-02
-1.041367e-02
-4.808065e-03
-3.410049e-03
-3.255506e-02
-1.384077e-02
3.069542e-04
-2.232126e-02
3.151405e-03
1.329677e-02
1.285949e-02
6.911528e-03
-3.361919e-03
6.320242e-03
1.750219e-03
-2.027125e-03
-7.035978e-03
-2.342585e-02
2.835511e-02
5.290638e-03
-5.857080e-03
-1.024801e-02
3.737340e-04
-6.982043e-03
1.259191e-02
2.295658e-02
1.211476e-02
1.678515e-02
3.023244e-02
7.324589e-03
-1.307295e-03
1.369548e-03
4.048614e-03
-1.275020e-02
1.199795e-03
-6.202274e-03
-8.864410e-03
-6.538487e-03
8.132999e-03
3.526681e-02
3.102648e-02
4.931750e-02
5.551159e-03
1.610532e-02
3.749213e-02
-8.116158e-03
-1.547867e-03
-9.850277e-03
-5.865255e-03
3.746995e-03
-4.022982e-03
-2.548675e-02
-1.126964e-03
-3.336619e-02
-6.864977e-03
-4.187463e-05
-1.776767e-02
-8.472456e-03
-2.577696e-02
1.233028e-02
-7.990562e-03
-1.231954e-02
-8.787409e-04
3.363698e-02
1.615326e-02
3.470149e-02
-1.743427e-02
-1.333418e-02
3.580719e-04
1.328646e-02
2.609301e-02
1.680628e-02
2.058739e-02
2.998886e-02
4.707699e-02
1.925512e-02
2.815878e-03
-4.831919e-03
9.867270e-03
-1.807847e-03
-6.818291e-03
-1.092840e-02
-2.122786e-02
-2.607444e-02
-1.791570e-02
1.115845e-02
1.100845e-02
-3.241101e-02
-2.196504e-02
-1.973562e-02
-9.605008e-03
-1.946173e-02
-1.223412e-02
-2.018736e-02
5.988426e-03
-5.000047e-03
5.708643e-03
9.323405e-03
-1.721036e-03
-4.439563e-03
-1.526075e-02
-1.870972e-02
1.763857e-02
-6.140962e-03
2.419914e-02
3.070140e-02
1.518752e-02
3.990607e-02
-1.297455e-02
1.127367e-02
3.741375e-03
-4.487762e-03
1.607011e-02
1.688017e-02
1.970530e-03
-5.546858e-03
-6.510406e-03
-1.673411e-02
-3.264847e-02
-3.260264e-02
5.470506e-03
-2.528394e-02
-4.050153e-02
8.753604e-03
4.111128e-03
-2.349935e-03
6.276964e-03
1.517563e-02
8.899986e-03
2.205637e-02
9.009094e-03
-1.042632e-03
1.116002e-02
1.098020e-02
2.024041e-02
1.571584e-02
3.525610e-02
2.352976e-02
-2.083122e-03
-3.950599e-02
-1.993020e-02
2.592160e-02
6.597134e-03
3.369905e-02
1.857186e-02
3.221168e-02
2.617128e-02
-2.361057e-02
-1.752220e-02
-1.241946e-02
-8.125497e-03
1.470994e-02
8.141416e-03
-8.050727e-03
3.169271e-03
8.966776e-03
-1.989572e-02
-6.527997e-03
1.041028e-02
1.014194e-03
-3.751260e-03
-5.698293e-03
1.235273e-02
-3.771616e-03
-7.349866e-03
9.828017e-03
2.352008e-04
-5.014942e-03
2.067803e-02
2.417749e-03
-1.142158e-02
2.242840e-03
-1.355549e-02
-2.549579e-03
-3.093701e-03
-3.195779e-02
1.061902e-02
3.770082e-03
9.373812e-03
9.959217e-04
1.389010e-02
7.964226e-03
7.138181e-03
-8.672813e-05
-6.844536e-03
-1.801377e-02
9.933663e-03
2.256835e-03
-8.075945e-03
-1.197756e-02
3.212416e-05
-1.307102e-02
3.376186e-03
-3.065015e-03
1.750778e-02
8.281687e-03
-4.082217e-03
1.900782e-03
-9.113638e-04
-7.244616e-03
-2.695217e-02
-8.301069e-03
-1.653703e-02
-3.612125e-02
-9.097931e-03
-3.767933e-03
-2.165531e-02
6.150615e-05
1.447129e-02
3.633161e-03
2.488311e-03
-5.220328e-03
-1.169558e-02
2.941807e-03
-4.470847e-03
2.048492e-03
-2.083392e-03
-9.768762e-03
-7.282688e-03
1.578533e-02
2.993583e-03
-2.272930e-02
8.223833e-03
2.640422e-03
-2.189388e-02
-8.494210e-03
-2.954628e-02
-3.237979e-02
1.024191e-02
-2.343389e-02
-7.047519e-04
2.714846e-02
-1.250997e-03
3.188427e-02
1.952464e-02
3.054029e-02
7.322524e-02
-8.555935e-03
1.208854e-02
2.895580e-03
-1.420632e-02
-1.189554e-02
-4.142266e-03
-2.825841e-02
-3.348087e-02
-2.160472e-02
-5.690904e-03
2.083659e-02
3.336004e-02
-3.082810e-02
1.250027e-02
-1.287194e-03
-2.409374e-02
-2.787861e-02
-2.445091e-02
-2.997370e-02
-3.168288e-02
-3.730176e-02
-1.753392e-02
-3.655732e-02
-3.081093e-02
-1.918792e-02
-3.220503e-02
-3.243669e-02
1.998077e-02
1.632052e-02
2.092724e-02
-3.522092e-03
3.441648e-03
-3.443377e-05
-2.999810e-02
-3.515231e-03
9.206825e-04
1.068556e-02
-1.312880e-02
-1.465323e-03
-8.184743e-03
-1.139908e-02
1.596571e-02
2.497665e-03
-2.897313e-03
-2.020814e-02
9.373960e-03
6.234576e-03
8.317485e-03
5.632014e-03
-4.348964e-03
-8.042565e-03
1.707097e-03
-1.620831e-02
9.153645e-03
-3.576525e-02
1.895988e-03
6.588964e-03
-4.043776e-03
3.810782e-02
3.870854e-02
-4.599881e-03
1.950817e-02
-6.139373e-03
1.301923e-02
-4.532351e-03
1.234775e-02
1.708199e-02
2.932088e-02
7.531946e-03
1.036307e-02
1.486965e-03
-6.553775e-04
3.202824e-02
1.572256e-02
-1.010764e-02
2.819362e-02
1.335479e-02
-9.209551e-03
1.649877e-02
1.901754e-02
8.605589e-04
1.654380e-03
-2.366890e-02
-1.673399e-02
-4.232895e-04
-9.334733e-04
-2.827312e-02
-5.656598e-03
-1.195035e-02
-1.958372e-02
3.005485e-02
2.051110e-02
9.870487e-03
1.420246e-02
-9.952642e-03
-8.906473e-03
1.141462e-02
-1.398573e-02
7.957122e-03
-7.348051e-03
-1.086010e-02
7.269651e-03
-2.653641e-03
-1.336876e-02
-4.608870e-03
1.129987e-02
-1.451480e-02
1.329553e-03
3.538667e-03
2.190268e-02
3.280139e-02
-1.766317e-02
-1.490747e-02
-1.429259e-02
-3.751153e-02
-4.802425e-02
-2.132440e-02
1.503199e-03
-8.900599e-03
-2.332678e-02
2.522570e-02
-1.152848e-03
-5.804534e-03
2.734366e-02
3.079161e-02
4.278421e-02
-1.383034e-02
-1.158343e-02
2.598093e-03
5.360758e-03
-1.670766e-02
-1.156952e-02
-1.197123e-02
-1.190158e-02
-3.417138e-04
-1.057432e-02
-1.008869e-03
-1.264677e-02
-3.353921e-03
-5.600381e-03
-1.169761e-02
-3.223776e-02
-1.565176e-02
-1.921391e-03
6.717706e-03
-9.296420e-03
-2.420313e-02
2.013121e-02
-2.085004e-03
1.280383e-02
1.278731e-02
1.170546e-02
2.728488e-02
1.891006e-03
-3.682020e-05
9.819480e-03
-1.532005e-02
1.424114e-03
1.810943e-02
-2.332754e-02
2.304446e-03
1.971099e-03
1.931291e-02
1.167959e-02
6.454234e-03
-9.858306e-03
-8.195534e-03
2.013476e-02
-1.847074e-02
-1.815776e-02
-1.559781e-02
1.975475e-02
2.691122e-03
2.422781e-03
2.317274e-03
-1.047375e-02
-7.288237e-04
3.312473e-03
1.029532e-02
4.625559e-03
-4.556912e-03
-1.511396e-03
-2.193375e-02
-2.417084e-02
-2.070080e-02
-7.957400e-03
1.080922e-02
3.132211e-03
2.667488e-03
4.514925e-03
-6.442824e-03
-1.160586e-02
-9.819230e-03
-1.044731e-02
-1.308731e-02
4.841677e-05
4.746205e-03
1.589385e-02
-3.699886e-02
-2.423241e-02
-4.428768e-02
-4.082151e-02
-2.065616e-02
-4.365885e-03
-2.422814e-02
-2.899270e-02
-3.249167e-02
4.122809e-03
2.358627e-03
1.412686e-02
7.051629e-03
5.044446e-03
-5.649210e-03
-1.793336e-02
-1.124502e-02
1.090447e-04
5.927172e-03
-7.107837e-03
-1.110092e-02
1.672305e-03
1.762923e-03
5.518115e-04
4.868978e-03
7.898169e-03
1.953867e-02
-2.169329e-02
-1.345036e-02
-2.282028e-03
-1.322855e-03
1.513745e-02
6.810842e-03
6.804922e-03
1.937347e-02
7.693132e-03
-1.465924e-02
-2.648637e-03
-8.631480e-03
-2.583652e-02
4.064007e-03
1.746064e-02
-1.275388e-02
-1.990279e-03
1.559085e-02
1.747821e-02
-8.493395e-03
-1.072299e-03
-3.181224e-02
-1.554047e-02
1.703133e-02
-2.162341e-02
-1.585470e-02
-1.195144e-02
3.533611e-02
5.900790e-02
2.920374e-02
3.320567e-02
3.667549e-02
1.058220e-02
1.615318e-02
2.032185e-02
2.697083e-02
2.730742e-02
2.213076e-02
-2.118365e-03
1.765115e-03
4.935096e-02
-1.256663e-02
-5.956294e-03
1.332901e-02
7.112002e-03
-3.778135e-02
-4.595771e-02
-2.664849e-02
-1.177574e-02
-2.779083e-02
-4.639832e-03
1.734180e-02
-1.382818e-03
1.390610e-02
2.613440e-02
1.083922e-02
3.657812e-03
-9.040747e-04
-4.404720e-03
-1.859353e-02
1.551523e-02
8.573066e-03
8.296339e-03
2.093315e-02
1.856241e-03
6.115671e-03
-1.520065e-02
-2.828439e-04
1.900702e-02
1.565368e-02
4.977867e-03
3.179618e-03
-2.761058e-03
4.017871e-03
5.939947e-03
-1.684163e-02
-2.216965e-02
-1.372958e-02
-2.729452e-03
-9.118900e-03
4.232897e-03
-2.468436e-03
6.038135e-03
-1.028330e-02
-8.624198e-03
1.708342e-03
-2.755050e-03
8.759525e-03
4.642395e-03
3.427602e-02
-3.246788e-03
1.447989e-02
-5.329743e-03
1.196265e-02
1.696815e-03
2.586508e-02
-4.074739e-03
-5.991919e-03
8.185902e-03
1.349152e-02
2.246507e-02
1.433566e-02
-1.410197e-02
-6.712194e-03
-5.767134e-03
-1.914189e-02
1.397197e-02
-1.306594e-03
-2.044346e-03
-1.031729e-02
-1.754994e-02
-3.151670e-03
-7.558397e-03
-2.240728e-03
-2.901230e-03
1.749262e-04
-1.581917e-03
-1.055289e-02
-7.184638e-03
-8.034082e-03
1.515289e-02
-7.843211e-03
-2.608873e-02
2.596916e-02
-2.025235e-02
-1.115728e-02
-3.671112e-02
2.685181e-04
4.837596e-02
-8.843370e-03
-7.658459e-03
1.476739e-02
3.627635e-02
-3.196579e-02
-3.460291e-02
-1.055607e-03
-1.976684e-02
-2.366238e-02
-1.531169e-03
8.505632e-03
-1.699199e-02
1.730714e-02
1.575708e-02
-2.483638e-02
1.619802e-02
1.622633e-03
1.215401e-03
1.411319e-02
2.883145e-02
-1.117631e-02
-7.917436e-03
-5.575627e-03
4.474743e-03
1.090396e-03
-7.641461e-03
-3.934545e-03
7.251629e-03
9.738170e-03
6.861039e-03
-1.812346e-02
3.298092e-03
-7.207033e-03
4.007107e-02
1.250724e-02
2.958206e-03
3.552002e-02
2.234668e-02
6.646460e-03
5.068972e-02
5.243065e-02
4.658015e-02
9.461776e-03
2.604682e-03
-7.966554e-03
2.597512e-02
-1.180764e-02
-3.093424e-04
1.418228e-02
3.362378e-02
1.673964e-02
-7.676877e-04
1.258652e-02
4.825006e-03
-1.842936e-02
-2.677717e-03
7.107187e-03
-4.988569e-03
1.268278e-02
2.313137e-02
1.666655e-02
3.207245e-03
6.331426e-03
6.302589e-03
1.798687e-02
-6.999556e-03
-4.746288e-03
1.176770e-04
-3.296845e-04
-1.726448e-02
3.372688e-03
1.556050e-02
1.129452e-02
4.844988e-02
2.630151e-02
2.687688e-02
3.225984e-02
1.866684e-02
2.672814e-02
8.406681e-03
7.985559e-03
5.526808e-03
4.262956e-03
5.711239e-03
1.243739e-02
-3.783721e-03
5.733167e-03
2.555571e-02
6.122905e-03
3.439485e-02
4.472455e-02
5.467001e-03
7.101033e-03
-3.124409e-03
1.262348e-02
5.156040e-03
3.178563e-02
-2.104653e-03
1.942885e-02
1.517512e-02
-1.011616e-02
-8.724910e-03
-1.848197e-02
-1.890844e-02
-5.411564e-03
6.738798e-03
-1.680504e-02
7.543990e-03
3.509959e-03
-2.338265e-02
3.229056e-03
1.270771e-03
-1.780934e-02
-6.732400e-03
2.523513e-02
1.581960e-02
-4.312217e-03
-2.526838e-02
3.124576e-03
-1.212256e-03
-1.104572e-02
-2.818086e-02
6.250365e-03
3.153819e-02
3.199795e-03
-1.752397e-02
1.321033e-02
-7.157535e-03
-1.143481e-02
1.149529e-02
2.582148e-02
2.352153e-03
1.015392e-02
2.373168e-03
-2.503747e-04
7.678729e-03
-2.265685e-02
2.484904e-02
-8.862966e-03
-5.418176e-03
8.786885e-03
-3.139487e-03
4.176936e-02
-1.696706e-03
-1.797727e-02
1.278894e-02
-3.907286e-03
-1.508444e-02
1.881101e-02
-7.030714e-04
1.269890e-02
-3.027702e-03
1.637356e-02
1.351253e-02
1.461899e-02
-5.341426e-03
3.105772e-02
-4.000834e-03
-2.145870e-03
5.390032e-03
6.130503e-07
-6.072330e-03
-7.559393e-03
-1.472800e-02
-2.536799e-03
8.856340e-04
7.128939e-03
-2.280232e-03
-1.162375e-02
2.972613e-03
5.405749e-05
-1.108811e-03
5.740389e-03
6.212964e-03
-1.683451e-02
-4.076917e-02
7.609142e-04
1.847901e-03
1.504281e-02
2.482218e-02
-4.407398e-03
8.746958e-03
9.549209e-03
-5.434318e-04
2.036594e-03
-1.872436e-02
6.032767e-04
1.676377e-02
-8.481772e-03
5.553489e-03
2.798233e-02
-4.249936e-03
-9.303790e-03
1.289541e-02
1.764546e-03
1.846650e-02
4.312796e-03
1.314173e-02
-5.447545e-03
4.761761e-03
2.237980e-03
-1.198101e-02
3.733326e-03
6.187616e-03
1.376784e-02
9.888715e-03
1.849174e-02
2.043558e-02
2.125218e-02
-1.685633e-02
3.211726e-03
-2.882443e-03
-1.823498e-02
-2.235029e-02
-5.375691e-02
-2.725923e-02
-2.042206e-02
-3.087740e-02
-2.246971e-02
9.989886e-03
3.210365e-02
2.238115e-02
2.484651e-02
1.583657e-02
-1.266727e-02
2.023351e-02
3.681232e-02
8.949728e-03
-6.480715e-03
2.619474e-02
1.031608e-02
-4.361099e-03
2.224960e-03
1.105584e-02
2.865910e-03
-7.310689e-03
3.134614e-02
1.827611e-02
-4.814614e-03
2.007612e-02
-2.460533e-03
-1.913309e-02
-1.879461e-03
-1.266222e-02
-1.375546e-02
-7.672370e-03
6.616834e-03
-2.085411e-03
1.147478e-04
2.934731e-03
1.064548e-02
7.891553e-03
2.451401e-02
5.522852e-02
3.625187e-02
2.413594e-02
2.722891e-02
3.334160e-02
-1.861985e-02
-2.837955e-02
-6.975863e-03
9.891829e-03
4.753985e-03
-1.207985e-02
1.615613e-03
1.379139e-02
-2.002730e-02
3.209896e-03
8.214920e-03
-1.179031e-02
3.519695e-02
3.180149e-02
-9.503996e-04
1.113572e-02
3.780942e-03
2.058254e-02
-1.798477e-02
-1.463855e-02
-2.931005e-03
-2.096638e-02
-2.115165e-02
-1.439796e-02
-1.074950e-02
-1.029858e-02
-1.278956e-02
-1.858983e-02
1.968320e-03
2.549936e-02
2.720407e-02
-1.165743e-02
-1.974039e-02
6.172947e-03
-1.814768e-02
-1.800862e-02
-1.206223e-02
-7.423273e-03
-2.784578e-03
-1.222339e-02
-2.775459e-02
-1.260843e-02
-1.048107e-02
-2.026452e-02
-2.222923e-02
-5.010605e-03
-1.777120e-02
1.733115e-04
-3.817650e-03
-1.485817e-02
-3.360285e-03
-1.878213e-02
-2.331473e-02
-3.359422e-02
2.410475e-02
-1.709996e-02
1.868731e-02
-2.524635e-02
-2.546887e-02
-1.477858e-04
-1.810228e-02
-1.765734e-02
-2.546784e-02
-4.062455e-02
-5.603516e-03
1.304469e-02
5.818726e-03
-8.124603e-03
9.816076e-03
9.511660e-03
-1.027076e-02
-1.337664e-02
-2.945085e-02
1.962460e-02
1.359676e-02
-6.993038e-03
-1.231944e-02
1.023426e-02
-6.177368e-03
-1.706537e-02
1.290904e-02
-1.044305e-04
-1.075177e-02
-9.259116e-04
7.314864e-03
-1.933450e-02
-1.078933e-02
1.110351e-02
1.895573e-02
2.664044e-02
-1.231564e-02
6.024282e-03
9.995799e-03
1.136378e-02
2.158755e-02
2.901413e-02
-2.743181e-03
-4.478694e-03
-1.437814e-03
9.406732e-03
-1.068840e-02
-2.656281e-02
3.340669e-02
-1.363596e-04
-1.642649e-02
-1.143510e-02
-1.807166e-02
2.105715e-02
-1.837122e-02
-1.183871e-02
3.857564e-03
-1.417744e-02
-1.453665e-02
-8.854544e-03
-1.330887e-02
-7.278642e-03
-5.463218e-03
9.760778e-03
8.845885e-03
9.731543e-04
9.420732e-03
1.227282e-02
2.772017e-02
-1.655783e-04
5.041317e-03
1.805864e-02
-5.986367e-05
2.348443e-03
6.258778e-04
1.306878e-03
-2.473530e-02
-1.255732e-03
2.334075e-02
-7.273835e-03
2.624866e-02
1.412001e-02
1.621762e-02
6.954160e-03
3.230902e-03
-3.755296e-03
1.317742e-02
1.318222e-02
1.268202e-03
-2.072137e-02
-1.182777e-02
-2.029596e-02
7.549614e-03
-1.992720e-02
-1.388599e-02
-6.415358e-03
-2.039702e-02
-1.469002e-02
1.171711e-02
-3.070297e-02
4.118900e-02
-2.173582e-02
2.890524e-03
7.485627e-02
1.318682e-02
-2.605622e-02
4.287734e-02
-1.493162e-02
2.889640e-03
6.540956e-03
1.828599e-02
1.515356e-02
-6.298172e-03
5.677177e-05
-2.157314e-02
-5.175826e-02
-4.048285e-02
1.004246e-02
-1.713829e-02
2.397092e-02
-2.841966e-03
-1.347338e-02
8.561742e-03
-6.857756e-03
1.112642e-02
8.179867e-03
2.340345e-02
9.381508e-03
-1.720231e-03
5.601186e-04
1.185487e-02
1.828147e-04
-1.425996e-02
1.283450e-03
-1.946749e-03
-1.004732e-02
2.223984e-02
1.279941e-02
1.046710e-02
4.572089e-03
1.132738e-02
-6.586290e-04
-1.731066e-02
-2.626103e-02
-8.027428e-04
-9.392524e-03
2.832828e-03
2.208658e-02
2.148830e-02
3.705676e-02
1.357031e-02
2.531693e-02
1.564522e-02
-5.758683e-03
2.310969e-03
1.668527e-02
8.940606e-03
1.171875e-02
1.153143e-02
-1.995264e-02
1.840195e-03
-1.036018e-02
-1.452198e-02
-1.167055e-02
-5.158735e-03
-3.867333e-03
-8.168906e-03
1.185171e-03
2.999877e-02
6.926895e-03
1.389416e-02
2.869242e-02
2.178853e-02
8.849239e-03
2.728631e-02
8.576476e-03
-7.818970e-04
1.944309e-04
3.791727e-02
-8.354487e-03
8.362336e-03
3.555454e-02
3.502549e-02
-2.763294e-02
2.595801e-03
-1.255322e-02
-6.390803e-02
-6.344283e-02
-4.820698e-02
1.022743e-02
9.716684e-03
1.014351e-03
4.836792e-03
-9.384424e-03
-2.650566e-03
-3.178756e-04
-1.139565e-02
-4.830995e-03
3.756890e-03
1.870175e-03
-7.637697e-04
8.599415e-03
-1.267919e-02
-9.504839e-03
-1.083626e-03
-1.598090e-02
-1.577733e-02
-3.469479e-03
-5.733775e-03
-1.903629e-02
-6.960363e-03
-1.339596e-02
4.280886e-03
7.313892e-03
-4.058452e-05
2.371425e-02
-1.002183e-02
-2.270872e-02
3.274180e-03
-1.010525e-02
-1.146513e-02
-2.621120e-03
-2.788864e-02
-1.435346e-02
1.893168e-02
-1.892136e-02
2.232320e-02
9.311223e-03
-9.084905e-03
-2.638254e-03
6.198234e-03
-2.935140e-04
-4.422155e-03
-1.219579e-03
2.151314e-02
3.341405e-02
3.802402e-02
1.381300e-02
3.987016e-02
3.092458e-02
-1.334162e-02
-7.798571e-03
-9.724174e-03
2.234474e-02
7.633290e-03
1.466306e-02
9.495270e-03
6.667702e-03
2.423341e-02
-3.449315e-02
-2.821674e-02
-2.931709e-03
-8.193603e-03
-1.101709e-02
1.104570e-02
-3.415610e-02
-9.861052e-03
1.643942e-02
-2.192012e-02
-3.337637e-02
2.965277e-03
1.450717e-02
1.704027e-02
1.249298e-02
-1.992281e-02
4.800374e-03
-5.295199e-03
-6.403664e-03
1.062276e-02
1.763128e-02
-1.648041e-02
-1.192865e-02
1.882121e-02
-2.548065e-03
-2.598387e-02
-5.178910e-03
8.751597e-03
-7.216381e-03
1.022169e-02
-5.271432e-03
-7.639379e-03
1.051125e-02
-4.477137e-03
-1.756390e-02
1.294053e-02
-2.757973e-02
-2.621796e-02
-1.141186e-02
2.564359e-02
6.880434e-03
4.660757e-03
-8.304476e-03
-9.017116e-03
1.202409e-02
-9.785352e-03
-5.485090e-03
-2.225825e-02
8.355048e-03
2.820344e-02
2.958468e-02
2.233316e-02
1.658968e-02
2.881920e-02
2.276167e-02
-9.299938e-03
-3.948112e-03
1.131594e-02
-3.537406e-03
-1.846215e-03
4.655930e-03
3.169811e-03
-2.750855e-02
8.157060e-03
1.246501e-02
-9.425417e-03
3.438606e-03
9.036879e-03
2.023285e-02
-1.499414e-02
-4.006957e-02
-3.838577e-02
-1.100386e-02
-7.869351e-03
9.732957e-03
7.398531e-03
1.192466e-02
8.677119e-03
-2.786794e-03
2.834025e-03
2.965366e-03
7.848484e-03
3.338263e-03
3.003830e-02
-1.705683e-02
-1.933273e-02
-2.105531e-02
2.548845e-03
8.893518e-04
-2.304772e-02
1.009403e-02
3.514275e-02
4.150670e-02
5.236777e-03
-5.664613e-03
-8.193024e-03
1.376339e-02
9.330810e-03
-6.546460e-04
8.164749e-03
2.212917e-02
3.138183e-02
-4.988466e-03
-5.698478e-04
5.618123e-03
2.289997e-03
-1.202734e-03
-8.733626e-03
5.280359e-04
3.804825e-02
3.385307e-03
4.422153e-02
3.936528e-02
2.682188e-02
-4.735646e-03
1.041975e-02
3.662138e-03
-5.320719e-03
-1.668169e-02
3.659434e-03
2.676822e-02
-4.153290e-03
4.412481e-02
1.258386e-02
1.633849e-02
3.434021e-02
2.275679e-02
-1.867475e-02
-8.367782e-03
-3.961231e-03
-9.745914e-03
9.759525e-03
-1.377449e-02
-6.821642e-03
-5.378114e-03
-4.069680e-03
8.801025e-03
2.019039e-05
-1.280838e-02
-2.281440e-02
6.728638e-03
5.773089e-04
-2.454305e-02
8.440303e-03
2.316175e-02
-1.758073e-02
1.868732e-02
3.622945e-02
1.222637e-02
3.959302e-02
-1.893520e-02
-9.458597e-03
-1.302189e-02
-4.051532e-02
-5.534497e-02
-3.772316e-02
1.512577e-02
9.317706e-03
1.148465e-02
-2.511036e-03
-6.998131e-03
-6.575727e-03
-7.331438e-03
-1.861298e-02
-5.735819e-03
1.891487e-03
1.031341e-02
8.639933e-03
-7.573172e-03
-5.030075e-03
1.501693e-02
2.564554e-03
-4.083406e-03
-1.284879e-02
2.177695e-02
1.864283e-02
2.821896e-02
2.518133e-02
1.136778e-02
1.975694e-02
-9.905850e-03
-2.806978e-02
-1.104293e-02
1.660689e-02
3.646342e-04
-1.525773e-03
1.132802e-03
-1.242302e-02
-1.702321e-02
-5.212459e-03
1.398411e-02
2.401365e-03
-1.433061e-02
-1.955348e-02
1.434900e-02
-5.241341e-03
-1.742680e-02
-1.780150e-03
2.959463e-02
4.402520e-03
4.772002e-03
-2.568911e-03
-1.004517e-02
6.900037e-03
3.590187e-03
8.304249e-03
2.578278e-02
1.127987e-02
5.175834e-03
1.984721e-02
-1.032419e-03
-2.504955e-02
8.770670e-03
1.021031e-03
-3.376654e-02
-3.066645e-02
-1.308235e-02
-3.985509e-02
-9.183532e-03
-5.902863e-03
-1.734336e-02
8.671286e-03
2.289391e-02
-1.836025e-02
-1.494180e-02
2.461260e-02
4.865300e-02
2.300628e-02
-7.483273e-03
1.801755e-02
1.392531e-02
8.192930e-03
-6.878609e-03
1.645665e-02
7.482400e-03
-6.983782e-03
2.188665e-02
-1.974616e-02
-2.111866e-02
-1.168213e-02
-1.255046e-02
-1.632724e-02
-2.310475e-02
1.223167e-02
-2.414993e-03
-1.120748e-02
8.321631e-03
-8.986374e-04
-1.007647e-02
3.568055e-04
-1.395831e-02
-1.000292e-02
1.000966e-02
1.762898e-02
1.916567e-05
-1.528698e-02
-2.134804e-02
-1.362729e-02
-1.547123e-02
-6.081899e-03
-1.358601e-02
-5.867403e-04
-3.658890e-03
-8.719203e-03
-2.746817e-02
-2.649747e-02
-2.444560e-02
2.443593e-03
-1.749453e-02
-1.688894e-02
1.131351e-02
1.501851e-02
7.480241e-03
1.257994e-02
1.999841e-02
1.558399e-02
-2.207633e-02
-2.428939e-02
-2.242530e-02
-2.280978e-02
-1.878518e-02
-3.953660e-02
-1.943487e-02
-1.978545e-02
-7.768330e-03
-8.129878e-03
-1.882234e-02
1.368607e-02
-2.606656e-02
-2.222690e-02
1.306554e-02
2.432906e-02
4.505579e-02
2.875303e-02
1.476925e-02
1.204728e-03
1.770304e-03
-2.803404e-02
-5.164737e-02
-3.663064e-02
2.310671e-02
1.784830e-02
-1.323022e-02
1.308198e-03
1.517998e-02
-1.004889e-02
1.034317e-02
8.268058e-04
-4.238721e-03
2.240244e-02
3.311100e-03
-4.421082e-03
1.290925e-03
8.626627e-03
2.204772e-02
-5.017613e-03
-2.141507e-02
5.942089e-03
2.351593e-02
1.224697e-03
-3.859556e-03
6.410915e-03
7.828473e-03
2.631057e-02
1.139045e-02
1.107218e-02
1.894983e-02
8.783837e-04
-3.695346e-03
-1.061487e-02
9.887170e-03
1.599251e-02
1.447432e-02
1.815263e-03
2.541773e-02
3.697102e-02
5.806072e-04
-3.144255e-02
-3.438484e-02
-6.421202e-03
-3.271971e-02
-1.102074e-02
5.713231e-03
-2.920297e-03
-1.318799e-02
-8.775847e-03
-1.593506e-02
-1.171042e-03
5.391472e-03
-2.317901e-02
-2.088379e-02
-2.200482e-03
-8.213287e-03
-2.154363e-02
4.451783e-04
1.929697e-03
7.725136e-03
1.028516e-02
1.197180e-02
3.350558e-03
-2.395174e-02
3.479377e-02
2.836212e-02
-1.124413e-02
-7.937958e-03
-1.925998e-02
1.305339e-04
-8.590502e-03
-8.069042e-03
-9.832258e-04
-4.406902e-03
-1.207126e-02
6.029247e-03
5.155807e-04
1.549701e-02
1.074858e-02
-6.327977e-03
1.367716e-02
1.793234e-02
2.754312e-02
2.058369e-02
1.685913e-02
-3.385809e-03
1.849750e-02
-1.082862e-02
4.514747e-03
1.775900e-02
-7.592879e-03
-5.027598e-03
-6.742982e-03
9.193395e-03
-1.890558e-02
1.153117e-02
1.688993e-02
-9.511807e-03
-1.324421e-02
2.604886e-02
2.802577e-03
-1.113437e-02
-1.135018e-02
1.183803e-02
1.830552e-02
-1.988653e-02
-1.048974e-02
4.670151e-02
7.203988e-03
2.349954e-02
4.907330e-02
3.974617e-03
-3.875311e-03
-4.727799e-03
-8.711166e-03
-2.739507e-02
-3.630442e-03
-3.335626e-03
7.382784e-03
1.501046e-02
-6.769386e-03
7.982624e-03
-3.415917e-02
-1.421109e-02
-1.470231e-02
-1.252824e-02
-3.858352e-03
1.342538e-04
1.929310e-02
-3.144356e-02
-7.180382e-03
-1.441058e-02
-3.438217e-02
-4.938172e-03
-1.555439e-02
-3.932623e-02
-1.535432e-02
-1.878558e-02
-3.049473e-02
3.753196e-03
-1.649007e-02
-1.537253e-04
1.280161e-02
6.319989e-03
5.774519e-03
-1.116950e-03
4.416868e-03
1.696641e-02
1.100779e-02
4.412145e-03
2.159695e-02
2.077192e-02
1.037113e-02
1.139970e-02
3.463127e-02
1.237998e-02
1.127388e-02
1.039519e-02
2.975988e-02
-1.493064e-02
-1.015456e-02
-9.910702e-03
-7.951328e-06
4.692964e-03
3.266987e-03
-1.862063e-03
-3.256635e-03
-7.119611e-03
-4.379060e-03
-7.843951e-03
1.355500e-02
2.346756e-02
2.324581e-02
3.191968e-02
1.901041e-02
-1.708476e-02
-1.636349e-02
-1.609032e-02
-2.749632e-02
-2.592023e-02
-4.079520e-02
-3.451337e-02
-2.822693e-02
4.111401e-02
2.381400e-02
1.304937e-02
5.394894e-03
1.114370e-02
2.046355e-02
-1.627965e-02
-2.420252e-02
-1.257334e-02
1.683112e-03
-1.842264e-02
-2.085922e-02
1.558312e-02
-1.031369e-02
-1.345956e-02
3.199869e-02
3.276163e-02
3.250876e-02
-1.171483e-03
-6.291633e-03
6.852039e-03
8.746936e-03
2.933687e-03
7.017049e-03
-4.639722e-03
-8.469480e-03
6.285155e-03
9.510691e-03
2.582591e-02
3.235490e-02
4.325974e-02
3.110077e-02
2.290679e-02
1.751347e-02
1.178596e-02
6.408959e-03
-1.369973e-02
-2.195723e-02
-2.359677e-02
2.742666e-03
-6.068569e-03
-2.661930e-03
1.829461e-02
1.619442e-02
7.245061e-03
6.219781e-03
-2.366091e-02
-9.327435e-03
-2.722075e-02
-1.535558e-02
4.635557e-02
-2.708180e-03
-5.354226e-03
1.679354e-02
1.483708e-02
1.686124e-02
1.523998e-02
2.763873e-03
7.350178e-03
2.201819e-02
1.718234e-02
2.222496e-02
2.208734e-02
1.157978e-02
2.746994e-02
1.263084e-02
4.266714e-02
8.036345e-03
2.934133e-03
1.606791e-02
-4.869007e-03
-1.703804e-02
-2.497760e-02
-2.731074e-02
-3.865744e-02
-1.124893e-02
-2.169295e-02
-2.118053e-02
-1.040738e-02
-1.946076e-02
-1.185286e-02
-7.949558e-03
-2.011066e-02
-1.243404e-03
7.189143e-03
4.322574e-03
-1.309398e-02
-1.403750e-02
5.996136e-03
-8.213973e-03
9.166477e-03
8.196551e-03
1.132974e-02
-2.234539e-02
-6.794760e-05
1.244450e-03
-3.183214e-02
-1.198725e-02
-8.260449e-03
-4.222047e-03
-4.778940e-03
-3.465436e-02
-1.876038e-03
-1.092257e-03
-9.793889e-05
-7.405021e-04
-1.949017e-02
-3.170657e-02
-5.496655e-03
-7.127962e-03
1.030990e-02
1.690154e-02
2.351042e-02
2.800046e-02
2.505135e-02
2.347820e-02
2.364091e-02
-8.899386e-03
1.542461e-02
2.052775e-02
-1.909793e-02
-2.208958e-03
1.001219e-02
5.692439e-03
3.282315e-02
2.611237e-02
1.340147e-02
1.213497e-02
2.888848e-02
2.950537e-02
6.683459e-03
1.509430e-02
8.023080e-03
1.073993e-02
4.399390e-03
-1.115847e-02
2.404548e-02
2.295562e-03
-2.841758e-02
-4.442642e-04
-1.101914e-03
5.414845e-03
4.030056e-03
-1.290902e-02
3.073238e-02
1.208388e-02
3.149211e-04
1.708871e-02
6.022456e-03
7.429054e-03
1.105939e-02
-1.383503e-02
-1.115318e-02
-9.131126e-03
-2.341004e-02
1.212193e-02
1.113494e-02
-2.651166e-02
-3.154867e-03
2.356104e-02
5.335557e-03
2.870092e-03
-5.452462e-03
-3.764474e-03
-5.728530e-03
1.645209e-02
3.218633e-02
1.863977e-02
1.762824e-02
1.343803e-02
3.102985e-02
2.438934e-03
1.398860e-02
-2.950168e-03
-2.171023e-02
1.511786e-04
-5.163476e-03
-2.073945e-02
-2.077245e-02
-1.753292e-02
-5.065523e-04
-3.824458e-03
-2.610332e-02
1.204173e-02
8.800926e-03
5.903265e-03
2.152719e-02
1.175774e-02
8.370631e-03
8.744470e-03
3.887916e-02
1.699463e-02
4.897380e-03
1.608486e-02
1.847882e-02
-8.595846e-04
-5.902596e-03
8.803362e-03
2.160216e-02
1.236038e-02
3.315087e-02
6.135259e-03
1.827000e-02
2.289543e-02
-3.074658e-02
-8.208991e-03
2.128129e-02
5.024009e-03
2.083854e-02
1.938871e-02
-9.727692e-03
2.401212e-02
1.198179e-02
-2.242521e-02
-1.945930e-02
-1.703899e-02
7.793733e-03
3.246268e-02
3.918580e-02
-1.639564e-02
-1.303549e-02
-9.232092e-03
-2.427235e-02
-5.750059e-02
-2.358272e-02
-1.407248e-02
-7.915620e-03
-3.485760e-03
-1.067664e-02
7.760196e-03
1.619990e-03
-1.175896e-02
2.236053e-03
1.588636e-02
7.646721e-03
-2.070462e-04
-6.273731e-03
3.752676e-03
-1.378707e-02
-1.083893e-02
-2.213255e-02
-1.322283e-02
-3.075033e-02
1.289112e-03
-1.959347e-02
-1.231689e-02
3.536257e-04
-1.665493e-03
-3.268489e-03
-5.226357e-03
-7.829906e-03
2.764955e-03
-3.315082e-03
-2.382931e-02
-2.190027e-03
-9.095691e-03
-8.671051e-03
-1.868787e-02
-2.429031e-02
1.098155e-02
-4.053083e-03
-2.829827e-02
-2.234310e-02
6.236721e-03
-1.296915e-02
-1.415810e-02
-8.441891e-03
-1.056898e-02
-4.504157e-03
-2.582613e-02
1.154483e-02
-4.257030e-03
-1.177490e-02
1.950361e-02
4.658112e-03
-8.406769e-03
-1.072444e-02
-1.828602e-02
-9.290505e-03
-8.806209e-03
-2.096251e-02
-1.294326e-02
1.820950e-03
-1.513547e-02
7.410944e-03
1.924835e-02
5.417959e-03
-5.429040e-03
6.113782e-03
-1.718685e-03
3.688649e-03
7.890522e-03
-2.135300e-02
4.867542e-03
1.166701e-02
1.340168e-03
5.713496e-03
4.549495e-03
2.243690e-02
2.405076e-02
-1.168337e-02
1.172069e-02
1.091278e-02
-4.939314e-03
-6.057461e-03
-1.291173e-02
1.030899e-02
-1.723400e-03
-1.353212e-02
2.764503e-04
-2.320022e-02
-1.941328e-02
-1.415351e-02
-1.230632e-02
-1.044487e-02
-3.862600e-04
-1.850579e-03
2.279803e-02
6.090342e-03
-1.160736e-02
-1.955584e-03
-2.543040e-02
3.574559e-03
1.007712e-02
-1.954195e-03
-9.814608e-04
-1.026702e-03
1.581344e-02
-6.957313e-03
-5.794855e-03
8.377383e-03
-1.346714e-02
-5.753855e-03
-1.953016e-02
-1.717463e-02
-2.369554e-02
-1.072382e-02
-5.222150e-03
-2.325588e-02
8.772141e-03
2.576350e-02
2.488887e-02
9.220848e-03
-1.161312e-02
-7.260283e-03
2.752179e-02
-1.354761e-02
-1.890685e-02
2.908818e-02
2.012012e-02
-1.670512e-02
1.453600e-02
-3.912446e-03
-8.563940e-03
-2.742107e-03
6.605970e-03
-1.510935e-02
-1.164473e-02
-7.912138e-03
-3.315951e-02
4.781653e-03
5.590211e-03
-1.355379e-02
-3.103443e-02
-2.465782e-03
4.054050e-03
-5.268266e-03
1.919897e-02
2.413466e-02
-7.007868e-03
-3.062922e-04
-3.449042e-04
-1.553012e-02
1.210505e-02
-4.559165e-03
-4.471191e-04
-2.007382e-03
2.028272e-02
1.345326e-02
-4.051529e-03
-3.684222e-03
-3.767708e-04
4.444674e-03
-2.074954e-02
-1.678736e-03
3.596441e-03
-7.505219e-03
1.231147e-02
-3.127889e-02
-1.258274e-02
5.834201e-03
-1.066904e-02
1.487802e-03
-3.249589e-02
-1.067501e-02
-1.054981e-02
1.046064e-03
5.834692e-03
3.670665e-02
-6.482695e-03
-1.389612e-02
2.026956e-02
1.370239e-02
-1.011016e-02
-6.656817e-03
8.583080e-03
-1.254222e-02
2.357109e-02
-2.854669e-03
-3.582250e-02
3.954686e-03
5.484533e-03
-1.588308e-02
-2.106483e-02
2.022903e-02
6.347088e-03
1.159489e-02
7.528720e-03
2.518566e-03
8.958096e-03
-1.827540e-02
-1.762430e-02
-1.697385e-02
1.391362e-02
1.673836e-02
1.414214e-02
-2.858612e-02
2.475824e-03
2.139026e-02
-2.203545e-02
-1.749864e-02
1.044376e-02
-5.437479e-04
1.559176e-02
-8.433763e-03
-1.567661e-03
2.020331e-02
-1.863763e-02
1.962144e-03
1.841426e-03
-1.753456e-02
1.545189e-02
-4.852537e-04
1.238193e-03
1.858727e-02
9.369464e-03
1.758493e-02
2.580650e-03
-1.012050e-02
-1.453223e-02
4.698079e-03
1.079250e-02
1.900765e-02
7.696852e-03
1.899718e-02
3.372866e-02
-3.068169e-02
-1.392946e-02
-1.076653e-02
3.332603e-02
-6.130296e-03
1.876570e-02
2.296870e-02
1.828000e-02
1.001390e-02
4.862061e-04
2.190291e-02
1.569352e-02
6.007100e-03
1.068501e-02
-1.822418e-03
2.426197e-02
2.862882e-02
-1.003397e-02
3.150325e-02
1.777287e-02
1.348205e-03
2.463236e-03
1.898023e-02
4.158777e-02
-2.063205e-02
3.133202e-04
5.736674e-03
-4.561035e-03
-1.919452e-02
-1.447187e-02
1.498950e-02
7.884263e-03
1.313988e-02
9.877457e-03
1.162648e-02
3.830738e-02
-3.324204e-02
-8.963732e-03
8.360866e-03
8.108381e-03
2.200297e-02
6.207474e-02
1.717295e-02
-1.460232e-02
-1.767899e-02
4.702709e-03
7.224457e-03
-1.520394e-02
-1.854461e-02
-2.770350e-02
-1.911203e-02
-8.931238e-03
-1.742399e-02
7.274615e-04
1.341056e-02
1.262157e-02
4.160251e-03
1.213389e-02
7.374211e-03
-1.110007e-02
1.804239e-02
-3.445600e-03
-6.383715e-03
-8.253188e-03
7.843045e-03
2.621888e-03
-1.425246e-02
-1.693810e-02
-4.465234e-03
-1.548771e-02
-1.305830e-02
-1.691157e-03
8.533075e-03
-1.519229e-03
4.219507e-03
9.205372e-03
3.896021e-03
1.317027e-02
1.255868e-02
1.359361e-02
1.140204e-02
-9.902989e-03
6.099120e-03
8.224573e-03
2.068321e-02
-6.938858e-04
-6.257385e-03
5.935728e-03
1.342768e-02
1.161601e-02
8.208724e-04
1.931539e-02
1.296744e-02
-7.772890e-03
1.122334e-02
1.412905e-02
-7.335080e-03
-7.064583e-04
1.600315e-02
3.189154e-03
-5.192332e-03
-1.963934e-02
-3.152485e-04
6.354413e-03
-1.290596e-02
9.440199e-03
2.141797e-02
2.197758e-02
1.455642e-02
1.582719e-02
3.170903e-02
1.322794e-02
1.001350e-02
3.369682e-02
-1.277703e-02
-2.967878e-02
-1.016073e-03
-2.886393e-02
-1.763741e-02
-2.177643e-02
1.507294e-02
1.070579e-02
4.522598e-03
-6.556742e-03
1.253452e-02
1.903702e-02
-7.392288e-03
1.350516e-02
7.029401e-03
2.350275e-02
3.401782e-02
6.654846e-03
5.974744e-03
2.552408e-02
-5.510805e-03
-9.623868e-04
2.866174e-02
1.415171e-02
-1.471126e-03
5.289054e-03
-2.165224e-02
8.952731e-03
1.055954e-02
4.166004e-03
2.461856e-02
2.244274e-03
-1.334320e-02
-3.260900e-02
-1.947003e-02
-1.807561e-02
1.914132e-03
-9.436848e-03
-1.783001e-02
-9.128050e-03
-2.015558e-02
-1.040145e-02
2.619779e-03
1.968045e-02
-3.650652e-03
-3.145811e-03
-1.470854e-02
-1.425685e-02
-2.315849e-02
-2.754588e-02
-1.144604e-02
-6.509922e-03
3.813769e-03
2.864982e-02
1.599686e-02
5.395196e-03
1.635225e-02
2.516606e-02
5.580457e-03
4.015212e-03
-3.004218e-02
7.140207e-03
1.050616e-02
7.656496e-03
-2.058558e-02
7.566365e-03
7.685473e-03
-3.625815e-04
-7.118995e-03
2.178018e-03
2.564330e-02
3.195731e-02
-1.021254e-02
1.909606e-02
-1.706841e-02
6.327488e-03
-1.556543e-02
-6.414132e-03
-8.933393e-03
-2.024667e-02
-1.311187e-02
-6.869311e-03
5.542664e-04
-2.537738e-03
8.010836e-03
4.489564e-03
3.084934e-03
1.686361e-02
2.740869e-02
-1.061037e-03
6.883358e-03
2.270299e-02
2.029356e-02
1.164456e-02
7.395809e-03
1.385535e-02
-9.953484e-03
-2.908092e-03
1.371447e-02
-8.008868e-03
-5.341961e-03
1.525429e-03
3.915234e-03
8.978274e-03
-5.337556e-04
-3.123349e-02
-2.207274e-02
-2.809908e-02
1.081597e-02
-1.856772e-04
-5.292980e-03
5.759852e-03
1.281818e-02
1.469416e-02
3.415047e-02
8.757247e-03
-1.735212e-02
-1.582985e-02
-5.491560e-03
1.297866e-02
-1.741581e-02
-2.575508e-02
-8.779540e-03
1.631562e-02
1.060748e-02
3.754332e-03
1.978612e-02
2.630163e-02
2.467098e-02
-1.312274e-03
3.488666e-03
-8.315696e-03
8.221311e-03
-5.572234e-03
-8.294023e-03
-7.508297e-03
-3.489427e-03
-1.312942e-02
1.038509e-02
1.430642e-02
-1.663619e-03
-6.988396e-03
-7.054344e-03
2.923799e-02
4.204400e-03
6.207617e-03
2.732020e-02
-6.824559e-03
-1.581611e-02
2.082445e-03
-8.996546e-04
8.313446e-03
-5.380002e-04
-2.710062e-02
-2.404831e-02
-1.606741e-02
-1.671505e-02
-1.463948e-02
-8.229573e-03
9.712795e-03
1.097967e-02
-5.906014e-03
-7.252862e-05
7.641678e-03
3.604041e-03
-1.284768e-02
-1.307496e-02
-7.739325e-03
2.220027e-03
1.498007e-02
-2.096907e-04
1.165078e-02
-3.564921e-03
-1.356747e-02
1.965430e-02
-2.353394e-02
-8.027545e-03
3.207982e-02
5.948388e-03
-1.478466e-02
3.567737e-02
-8.999406e-03
1.003070e-02
-1.601863e-02
-8.304875e-03
-1.199566e-02
4.265407e-03
1.585773e-02
-1.683047e-02
2.412602e-02
1.041767e-02
2.652035e-03
1.288039e-02
-4.397196e-03
-1.311809e-02
3.960434e-02
4.496489e-02
2.527915e-02
-1.102369e-02
-9.200079e-03
1.075086e-03
-3.185016e-02
-4.117428e-02
-3.275776e-02
4.195201e-02
-3.415163e-02
-2.235408e-02
-2.049377e-02
-1.718789e-02
-2.354397e-02
-1.019974e-02
-2.674507e-02
-2.265244e-02
-9.374818e-04
-9.434505e-03
1.697700e-02
1.061480e-02
7.852027e-03
7.286905e-03
3.628045e-05
-2.369733e-02
-1.090148e-02
2.031353e-03
2.450661e-02
3.463896e-02
-9.235096e-03
4.481770e-03
4.270136e-03
-2.065255e-02
-2.529024e-02
-1.837394e-02
1.030752e-02
-1.151514e-02
-3.188250e-03
2.262823e-02
-1.188788e-03
-1.701028e-03
7.603793e-03
-3.289012e-03
-1.685122e-02
-1.369558e-02
-1.303671e-02
2.861661e-02
-2.494965e-02
-2.045038e-02
2.037622e-02
-4.227173e-02
-1.819137e-02
-9.562848e-04
-1.210919e-02
-9.669830e-03
-1.115213e-02
-1.934109e-02
-3.429251e-02
-1.945350e-02
-6.489011e-03
-1.087941e-02
6.715497e-03
-1.269389e-02
-1.875301e-02
-4.755997e-02
1.594507e-03
-1.972960e-02
-1.224257e-02
-1.203637e-02
-1.003131e-02
-2.918505e-02
-5.375622e-03
-1.458095e-02
7.400715e-03
-7.693576e-03
-2.629046e-02
1.166828e-02
-6.681256e-03
-2.416115e-02
-1.640004e-02
-1.058396e-03
8.527594e-03
1.530364e-02
-1.123461e-03
7.873777e-03
7.491773e-03
1.590871e-02
-2.710113e-03
-8.726501e-03
1.370549e-02
8.080416e-03
5.622961e-02
1.603770e-02
-3.688990e-03
2.483006e-02
2.940990e-02
1.111086e-02
2.183734e-02
-1.610128e-02
-9.657706e-03
2.948417e-02
-1.304227e-02
-1.942181e-02
-1.974131e-02
3.555090e-02
2.892589e-02
1.381207e-02
3.262731e-03
3.160072e-03
-3.626390e-04
-6.780935e-03
-1.602440e-02
-1.242274e-02
1.694681e-02
2.874268e-02
-1.219839e-02
8.205900e-03
-3.750987e-03
7.533733e-03
2.827763e-02
1.947928e-03
3.578193e-03
1.131930e-02
9.057625e-03
1.535910e-02
1.897529e-02
3.855565e-02
3.772847e-02
-9.603183e-03
-1.724885e-04
1.422009e-02
1.007875e-02
-7.530772e-03
1.431312e-02
-3.053748e-02
-1.084947e-02
-1.427560e-02
-1.960860e-03
-1.019316e-02
-2.139785e-02
8.626536e-03
-2.462179e-03
2.111548e-02
4.056603e-03
-9.632144e-03
-1.857918e-02
3.098487e-03
-1.779240e-02
-1.975556e-02
-1.916558e-03
-1.588845e-02
6.889384e-03
-2.419929e-02
-3.443111e-02
-9.433945e-03
-7.118092e-03
1.310949e-02
2.523528e-02
-1.974750e-02
-7.825698e-04
7.347106e-03
-1.523353e-02
-2.169555e-02
-1.081529e-02
2.996489e-03
1.746534e-03
7.506377e-03
-1.350139e-02
-1.102985e-02
-5.887462e-03
-1.170615e-02
-2.983300e-03
-3.408107e-03
-2.962609e-02
-1.159612e-02
-2.839558e-03
3.483261e-03
-8.464781e-03
2.415727e-02
2.070298e-02
1.895855e-02
5.165860e-03
1.348958e-02
2.405952e-02
1.972930e-02
-9.971126e-03
-1.043217e-02
1.456426e-02
-2.719356e-02
-1.805671e-02
1.935229e-04
4.898793e-03
-3.484257e-03
-8.975973e-03
1.026961e-02
-2.031068e-03
-1.890949e-02
2.310250e-02
2.195287e-02
-1.171614e-02
8.673115e-03
2.755568e-02
1.247520e-02
1.384006e-03
1.948746e-02
1.902352e-03
3.109330e-02
9.887690e-04
-1.770947e-02
9.947326e-03
5.381560e-03
-1.025691e-02
4.604448e-03
4.040604e-03
-9.693723e-03
-2.469335e-02
-1.289538e-02
9.511452e-03
2.213355e-02
1.855289e-02
1.453117e-02
1.053254e-02
3.841554e-03
8.478651e-03
-6.501864e-03
-5.480922e-03
-1.374929e-03
2.368022e-03
-1.331013e-02
-7.799540e-03
6.338463e-03
1.241434e-02
1.957371e-03
-9.631576e-03
9.421656e-03
-1.104451e-04
2.010603e-02
-2.505832e-02
-3.769349e-03
1.897000e-02
-6.397797e-03
-1.198802e-02
1.265832e-02
-1.981465e-03
-9.101149e-03
-1.504518e-02
-2.136945e-02
-1.214238e-02
-1.332362e-02
-8.223738e-03
1.281516e-02
-3.827795e-03
2.859614e-02
-4.301237e-02
-1.392857e-02
-1.090872e-02
-3.676610e-02
-1.949804e-02
-2.505912e-02
-1.657452e-02
-5.456489e-03
-7.271313e-03
-1.147273e-02
2.197662e-02
8.487120e-04
3.227322e-04
-1.483191e-02
-3.551807e-02
-3.819178e-02
-7.334721e-03
-3.342862e-03
-1.872093e-03
7.873951e-03
1.094272e-02
-3.007734e-04
2.461583e-02
2.262068e-03
-6.157990e-03
2.704654e-02
7.101488e-03
6.010653e-03
-1.627782e-02
-3.232045e-02
-2.507610e-02
6.270912e-03
1.338218e-02
2.082500e-02
-3.792268e-02
-7.144079e-03
-1.584701e-02
7.245011e-03
4.211081e-02
1.031271e-02
1.138072e-02
-3.767209e-03
-1.791054e-03
1.794926e-02
3.059600e-02
2.795362e-04
3.240265e-02
4.085536e-02
-2.544704e-04
8.720949e-03
1.563895e-02
-1.520898e-02
-1.399692e-02
4.634316e-04
1.034739e-02
2.371403e-03
-9.670432e-03
2.596563e-02
2.443991e-02
4.975570e-02
3.024398e-02
3.738793e-02
-1.063844e-02
2.803102e-03
1.021357e-02
5.760523e-03
9.063966e-03
-3.195926e-03
-2.853871e-03
-2.354163e-02
-2.511656e-03
-1.457563e-02
-1.576523e-02
2.522716e-02
1.746243e-02
8.223094e-03
2.462454e-02
4.818019e-02
2.625910e-02
-1.919509e-02
-2.973221e-02
-3.281593e-02
-2.281078e-02
-2.012268e-02
-2.398916e-02
-1.592390e-02
-1.419520e-02
-1.871258e-02
3.425692e-02
-3.976415e-03
3.207268e-02
-3.686259e-02
4.958017e-03
3.556135e-02
-4.779886e-02
5.007789e-03
4.519810e-02
1.245475e-02
5.907178e-03
9.513440e-03
-2.536399e-02
-3.170056e-02
-8.332917e-03
-7.595541e-03
-3.864452e-02
-2.008151e-02
-1.459398e-02
-2.354195e-02
-2.745369e-02
3.226981e-02
2.237611e-02
-3.492569e-02
4.246981e-03
-5.438216e-03
-1.102734e-02
7.199258e-03
3.273417e-03
-5.128515e-04
-1.682715e-02
-2.973219e-02
-1.740455e-02
1.958140e-02
1.060649e-02
-1.535917e-02
-1.003067e-02
1.676614e-03
2.591166e-03
-1.900009e-02
-1.177053e-02
-1.209585e-02
-9.408313e-03
-2.189737e-02
-5.324716e-03
-1.620140e-02
-3.578269e-02
-5.440487e-02
-3.088247e-02
-2.665455e-02
-8.344037e-03
-4.757420e-02
1.275610e-02
1.965173e-02
-1.905132e-03
7.346565e-03
-7.433385e-03
1.438396e-02
-3.091780e-02
1.651123e-04
3.736272e-02
2.967743e-03
9.725558e-05
1.251865e-02
2.441587e-02
-1.927934e-02
2.757933e-02
9.966178e-03
-3.019792e-02
3.139614e-02
6.037726e-03
-1.213227e-02
6.010390e-03
9.409644e-03
-2.931360e-02
1.317890e-02
-3.220586e-03
-6.701504e-03
-7.199316e-03
-2.672665e-03
-7.414725e-04
2.001083e-03
-2.393766e-03
2.813570e-02
-1.528135e-02
-9.722619e-03
5.325917e-02
3.089351e-03
-1.406387e-02
1.994471e-02
-2.154800e-02
-4.526199e-02
-3.323996e-02
5.487558e-03
-2.329160e-02
-1.663425e-02
4.990916e-02
2.544374e-02
-2.818019e-03
-2.147429e-02
-1.981954e-02
1.901622e-02
1.452783e-02
6.642659e-04
1.483138e-02
1.397608e-02
1.686128e-02
3.391699e-03
-7.696500e-03
-3.463539e-03
-2.663279e-02
-9.612640e-03
-3.738474e-02
-3.232517e-02
-3.392730e-03
7.394270e-03
-2.057841e-02
-2.605432e-03
-5.857158e-03
-1.177987e-03
2.163820e-04
3.088286e-02
-3.101432e-03
8.878961e-03
-4.129101e-03
-1.994574e-02
-1.521167e-03
-2.023465e-03
-2.159152e-02
-1.864341e-02
-9.103431e-03
1.080232e-02
-1.412718e-02
-1.321047e-02
2.850023e-02
-4.197435e-03
-1.859618e-02
-1.704570e-04
1.288169e-02
9.425899e-03
3.597032e-03
1.830332e-02
4.384476e-03
4.127674e-03
2.116866e-02
-2.819667e-03
6.111740e-03
1.091136e-03
-1.564631e-03
4.386040e-02
-1.092494e-02
-2.593654e-02
1.728582e-02
4.569082e-02
2.913554e-02
2.703633e-02
2.681737e-02
-1.645482e-02
-1.693330e-02
-3.420410e-02
-4.668269e-02
-1.879359e-02
1.276065e-02
1.292150e-02
1.048913e-02
9.437595e-03
1.877209e-02
1.101306e-02
-5.675064e-04
-2.042244e-02
6.885474e-03
5.337699e-03
-2.648020e-03
-1.406470e-02
2.311511e-02
-1.438626e-02
-1.105504e-02
3.533017e-03
9.468671e-03
6.904201e-03
7.824198e-03
9.479941e-03
7.082945e-03
1.021159e-02
-4.771872e-03
-2.222398e-02
-2.347635e-02
-3.409060e-02
-2.010700e-02
9.972576e-03
1.740933e-02
1.250023e-02
-8.792900e-03
-3.126564e-03
9.780105e-03
3.014267e-03
-3.896520e-03
1.407794e-02
1.020674e-02
-1.212468e-02
-9.466706e-03
-9.154765e-03
1.062994e-02
-3.303867e-02
2.007063e-02
1.642312e-02
1.832873e-02
-9.158591e-03
-9.187265e-03
9.954019e-03
-1.021583e-02
1.687698e-02
2.412848e-03
-3.809199e-02
-1.657569e-03
-8.728150e-03
2.839831e-02
8.874367e-04
-3.320728e-03
1.544599e-02
1.162943e-02
-1.629613e-02
2.085885e-02
1.046336e-02
1.203141e-03
-9.502088e-03
-2.757742e-02
-4.697056e-03
1.226153e-02
-2.020015e-02
-1.807947e-02
3.355747e-02
-2.543468e-03
-3.697215e-02
9.104584e-03
2.908821e-02
3.982203e-05
2.842871e-03
2.829221e-02
2.422813e-02
-1.607269e-02
2.945681e-02
3.695758e-02
2.340545e-05
-2.194191e-02
1.678284e-03
-1.767996e-02
-5.676497e-03
-1.182388e-03
7.600232e-04
4.024602e-03
-8.288177e-03
-2.068819e-04
9.258337e-03
-2.722753e-02
-1.618878e-02
-2.050996e-02
-2.374779e-03
-1.296180e-02
-2.605793e-02
8.879049e-03
6.338449e-03
-2.210395e-02
-2.825837e-02
2.321547e-02
-2.347549e-02
-2.093933e-02
1.979719e-02
2.567933e-02
4.883432e-03
-2.476807e-03
5.641371e-03
2.914375e-02
-6.028015e-03
3.845070e-03
2.203920e-03
2.091657e-02
2.196334e-03
-6.581903e-03
-1.470505e-02
-4.890689e-03
-1.988738e-03
3.152992e-03
4.608416e-04
9.467295e-05
-1.499681e-02
5.911936e-03
-1.791567e-02
-2.595337e-02
1.232166e-02
6.553809e-02
-8.535105e-03
9.242630e-03
2.432648e-02
1.603296e-02
-1.431638e-02
-1.151779e-02
-7.376454e-03
-7.337013e-03
8.393058e-03
-7.325382e-03
-1.211527e-02
1.363054e-02
-2.974883e-02
-3.704934e-02
-1.740703e-03
-1.638963e-02
-3.726928e-04
-1.964991e-02
-4.305442e-03
3.177665e-03
-1.637521e-03
-1.383938e-02
2.237489e-03
-1.248125e-02
2.101227e-02
-4.739520e-03
-1.205702e-03
-4.112383e-03
3.099621e-02
-1.021081e-03
4.943515e-03
8.066760e-03
4.960787e-03
-1.660499e-02
-1.108591e-02
-4.598347e-03
4.785068e-03
-2.892574e-02
1.757121e-02
2.279505e-02
3.448909e-03
-8.917837e-03
-1.426899e-03
-1.669027e-02
-2.454452e-02
1.640124e-02
2.658267e-02
-6.807560e-03
-2.441785e-03
3.974118e-02
-7.371993e-03
2.766266e-02
1.778797e-03
-1.110125e-02
-2.309646e-02
-2.546009e-02
-2.629170e-02
1.769945e-02
6.341927e-03
-1.662828e-02
-1.514993e-02
3.105700e-02
-1.938533e-02
-1.138238e-02
-1.709900e-03
3.465714e-04
4.158001e-04
-2.056988e-02
-2.687384e-02
-3.172976e-03
5.547409e-03
2.585953e-03
-1.614194e-02
-3.054100e-02
-9.241753e-04
2.926404e-02
1.273109e-02
-3.389550e-02
1.509302e-02
-6.322224e-03
-6.444120e-03
-2.304137e-02
-1.858907e-02
1.077615e-02
-1.746551e-02
-6.359299e-03
-1.126005e-02
6.576074e-03
2.226928e-02
9.753891e-03
3.397778e-02
1.184917e-02
1.598017e-02
1.035529e-02
-2.869933e-02
-8.459327e-03
1.398281e-04
2.181013e-02
3.104671e-02
6.354507e-03
-2.061644e-02
-1.017052e-03
-6.034879e-03
-2.622275e-02
-4.838583e-02
1.731067e-02
-9.283637e-03
-1.933466e-02
2.523674e-02
9.070408e-03
1.457023e-02
2.665643e-02
1.744605e-02
8.655245e-04
7.098156e-04
-2.515770e-02
-7.573132e-03
-1.511227e-02
-1.638255e-02
7.243142e-03
6.337685e-03
2.111274e-02
-3.078822e-03
-9.481555e-03
8.307068e-03
2.117021e-03
-2.115954e-02
1.068758e-02
1.174718e-02
-2.262153e-02
2.700504e-03
-1.165370e-02
-7.131853e-04
6.755359e-03
1.092758e-03
5.854656e-03
-8.754777e-04
-2.485582e-02
1.606934e-02
6.341020e-03
6.997916e-03
-2.392478e-02
7.491544e-03
1.160203e-02
-3.380941e-02
3.586820e-02
4.047719e-02
-4.212620e-02
2.483404e-02
1.063152e-03
1.608565e-02
8.869833e-03
3.425463e-02
5.273997e-04
2.121644e-02
-3.178056e-04
-2.490646e-02
-8.271305e-03
2.306190e-02
-8.167359e-03
1.783149e-02
9.648585e-03
8.763245e-03
5.100502e-02
1.071253e-02
-1.497713e-02
2.064171e-02
1.168417e-02
-1.873902e-02
-1.269437e-02
-4.536654e-04
9.720782e-03
-5.597974e-03
-2.369421e-02
1.757641e-02
1.523037e-02
-2.192844e-02
-2.143563e-02
-2.428730e-02
-1.095027e-02
1.998548e-02
-2.340441e-03
-1.826858e-02
-1.612829e-02
2.856697e-02
5.442007e-02
-1.355365e-02
-2.465667e-02
5.008042e-03
9.813434e-03
-2.873368e-02
-2.859021e-02
7.920090e-03
-1.301261e-02
-1.066304e-02
-3.130008e-03
7.147640e-03
5.169494e-03
6.844986e-03
1.852008e-02
1.870219e-02
-2.017432e-02
-2.694538e-02
-7.367714e-03
7.060365e-03
-2.014303e-03
-9.497171e-03
9.351013e-03
-1.838618e-02
-2.728281e-02
7.582928e-03
9.882880e-03
-5.885133e-03
-1.222583e-02
1.298564e-02
8.882762e-03
1.770683e-02
1.904813e-02
1.243700e-02
7.366722e-03
-2.267452e-02
-1.827223e-02
3.085901e-02
8.123998e-03
2.440499e-02
-4.264219e-03
-1.170553e-02
-5.018435e-03
-4.504379e-02
-2.699322e-02
-1.238952e-02
-1.333132e-03
1.246239e-02
-1.186452e-02
2.003883e-02
-1.569642e-02
-4.499696e-02
1.916130e-02
-1.992509e-02
-3.564220e-02
-1.223906e-02
-9.176584e-03
-1.977608e-02
7.270400e-03
8.968889e-03
-1.193809e-02
-8.316979e-03
3.857729e-03
3.489442e-03
-2.301238e-02
1.249580e-02
2.565304e-02
-6.669076e-03
-4.328414e-03
-1.729028e-02
1.770524e-02
1.960049e-02
-1.664083e-04
3.635200e-02
5.171130e-03
1.955398e-02
9.910682e-03
5.550794e-03
-3.957494e-04
-3.286527e-02
-1.210232e-02
2.318795e-03
1.216225e-02
-7.654111e-04
4.312694e-03
9.181535e-03
2.430340e-04
-3.031444e-02
-1.639420e-02
-2.017519e-02
-1.138108e-03
-1.263402e-02
-3.110442e-03
-1.355558e-02
-1.960926e-02
-1.560428e-02
-1.895188e-02
-2.229059e-02
-2.235747e-02
-2.234822e-02
-1.669959e-02
2.351528e-02
2.918937e-02
-2.292928e-02
-6.456434e-03
2.958550e-02
1.316516e-03
-5.620474e-03
-3.709942e-03
2.357347e-02
2.654653e-03
-2.570584e-02
-1.306799e-02
-1.397478e-02
-2.380349e-02
-1.349181e-02
-7.469085e-03
-7.524344e-03
1.051100e-03
-1.164175e-02
-1.526925e-02
-4.157256e-03
-2.471671e-02
-3.162864e-02
-7.994450e-03
-2.892176e-02
-1.660399e-02
-1.484833e-02
2.778481e-03
-1.097706e-02
6.368531e-03
3.277140e-03
1.277249e-02
4.344009e-03
1.188928e-03
-8.331599e-03
-6.371974e-03
1.312091e-02
-1.570169e-03
-2.336784e-02
-2.742186e-03
-1.705470e-02
-1.153205e-03
5.406462e-03
6.441741e-03
6.544739e-03
1.545915e-02
3.413658e-02
-2.151763e-02
8.382271e-03
4.549574e-02
-8.288747e-03
-2.825893e-02
-2.227386e-02
-1.171326e-02
3.181677e-03
-7.816431e-03
-1.300430e-02
-3.283071e-02
-1.966921e-02
5.257518e-04
-8.218392e-03
-5.391976e-03
-1.035839e-02
-3.126708e-02
-9.190727e-04
-1.876236e-02
1.446460e-02
1.570162e-02
-1.231548e-02
3.313114e-03
-1.030765e-02
-1.412243e-02
2.575353e-03
-2.018521e-02
-7.463493e-03
-7.576901e-03
-2.378355e-02
1.767726e-02
-1.279613e-02
4.629026e-03
-1.652447e-02
1.302743e-04
-1.810675e-02
1.799942e-03
6.538199e-03
3.697778e-02
2.972906e-03
-3.883397e-03
1.792776e-02
-2.785514e-02
-2.213086e-02
-8.718810e-03
-1.904611e-03
-1.533485e-02
-7.156096e-03
4.892113e-03
1.974880e-02
-2.176702e-03
-7.133319e-03
-5.834478e-03
-3.527170e-03
-1.008522e-03
-4.033591e-03
-2.084841e-03
1.031766e-02
6.877933e-03
1.851786e-02
-2.397392e-03
4.089664e-03
2.174300e-03
2.589195e-02
1.201831e-02
-4.073337e-05
-1.024150e-02
4.420989e-04
-7.196652e-03
7.467226e-03
-3.072344e-03
2.430493e-03
-6.899284e-03
-1.573906e-02
-1.259386e-03
-3.332606e-04
1.311743e-02
9.615890e-03
1.803674e-02
1.210310e-02
3.432937e-02
2.367599e-02
3.792066e-04
2.757558e-02
6.567029e-03
-2.743128e-02
-4.204321e-02
-8.029449e-03
-1.065374e-02
-1.088286e-02
4.132359e-03
-5.978872e-03
4.231891e-04
-9.310865e-03
-1.618885e-02
-1.776922e-02
1.086339e-02
1.315657e-02
4.186786e-03
1.706127e-02
-4.026506e-03
4.402784e-03
-5.663966e-03
-2.721597e-02
-1.813243e-02
-1.840776e-02
1.323989e-02
1.361579e-02
-1.051920e-02
-1.425431e-02
-1.038657e-02
2.794754e-02
6.148049e-03
-3.455323e-03
-8.154798e-03
1.792683e-02
-3.583306e-03
6.734858e-03
1.168798e-02
-6.525724e-03
-7.925515e-03
7.628913e-03
8.727066e-03
-1.471605e-02
-2.431595e-03
-1.077753e-02
-2.151786e-03
1.235517e-02
-1.084187e-02
7.484380e-03
2.276562e-02
2.364553e-02
2.273643e-03
-3.364005e-03
-6.663903e-03
1.095802e-02
5.857437e-03
-5.286020e-03
8.452388e-03
-4.185267e-03
2.727099e-03
-7.450078e-03
-1.181446e-02
1.143607e-03
-8.720786e-03
-3.041698e-02
-1.533162e-02
3.558988e-03
-2.154928e-02
-2.275399e-02
-1.085026e-02
-9.607007e-03
-8.210549e-04
-1.403680e-02
-6.351071e-03
2.503061e-03
-3.343577e-03
-6.124227e-05
-7.445000e-03
8.833504e-03
1.043978e-02
1.667933e-02
3.313116e-02
5.560900e-02
6.181112e-02
9.613957e-03
-5.058316e-03
2.989444e-02
1.520556e-03
-3.598629e-03
-3.955902e-03
8.563543e-03
8.145463e-03
1.070173e-02
-1.360933e-03
1.784139e-02
5.720126e-03
9.894755e-04
-2.329359e-02
-8.379802e-03
1.561827e-02
-1.244526e-03
1.877385e-02
4.538566e-02
4.198647e-02
4.245054e-02
1.210942e-02
-1.361955e-02
-2.547155e-03
-8.145798e-03
2.666952e-04
2.784115e-03
-2.862309e-02
-1.887038e-02
-1.974554e-02
-1.071637e-02
1.085014e-03
5.238459e-03
8.028966e-03
3.257711e-02
-1.085549e-02
-3.379047e-02
-1.171571e-02
-9.037904e-03
3.702517e-05
1.166680e-03
-7.461133e-03
-3.179464e-03
1.373121e-02
2.783538e-02
2.172069e-02
2.777394e-03
7.170983e-03
-1.203214e-02
-2.194467e-02
-1.842406e-02
-2.490275e-02
-2.582148e-02
-2.272987e-02
-1.320297e-02
-1.290497e-02
-2.834241e-02
6.130256e-03
-4.636928e-03
-1.856410e-02
-2.513923e-02
-3.107098e-02
-1.770927e-02
-2.009215e-02
-1.023111e-02
-1.376620e-02
-1.187520e-02
6.815462e-03
-6.648581e-04
-1.638201e-02
-3.718277e-03
-4.444570e-03
-3.434851e-02
-2.208670e-02
-3.174498e-02
-3.338567e-02
-4.267067e-02
-4.170037e-02
-9.079212e-03
-2.773324e-02
-2.929106e-02
1.268879e-02
-1.278410e-02
-1.890286e-02
-1.659377e-03
1.308083e-02
1.122408e-02
1.015271e-02
3.558326e-02
4.385409e-02
6.133339e-03
7.057240e-03
1.914047e-02
2.816109e-03
-1.130799e-02
-1.638167e-02
3.141733e-03
9.716215e-03
-2.080832e-02
-1.891677e-02
1.349484e-02
-3.956160e-04
7.786675e-03
7.626255e-03
2.538338e-02
7.903064e-03
5.274486e-03
6.537287e-03
-1.620321e-02
-2.349440e-02
-3.174132e-02
-1.606331e-02
-1.931431e-02
-6.828631e-03
-1.920251e-02
2.465160e-03
-1.402579e-02
3.169558e-03
2.209798e-02
2.839275e-02
-1.632135e-02
1.728020e-03
2.260820e-02
-2.149484e-02
-1.324451e-02
-1.635122e-02
-1.063579e-02
-1.149512e-02
-3.420321e-02
3.621809e-02
3.385172e-02
5.749654e-03
1.746012e-02
3.494137e-03
2.675458e-03
-1.555187e-02
-1.170751e-02
-2.118366e-02
-4.136533e-03
-1.289169e-02
1.106662e-02
-2.138421e-02
-1.099878e-02
2.951017e-02
-1.542591e-02
6.039798e-03
1.222062e-02
2.724305e-04
-1.380473e-02
5.654343e-03
1.526906e-02
6.712864e-04
1.051314e-02
1.453615e-02
7.908179e-03
-1.274588e-02
1.042946e-02
2.298437e-02
3.023480e-02
2.003474e-02
2.734465e-02
3.093088e-02
7.930853e-03
-1.956586e-03
6.837835e-03
1.988942e-02
1.811787e-02
-7.560981e-03
1.933407e-02
1.577388e-02
1.772754e-02
-7.710221e-03
-1.957267e-02
1.332815e-03
-9.198972e-03
8.576510e-03
4.100262e-02
-1.660953e-02
-8.501559e-03
1.232410e-02
-3.600733e-02
-1.076914e-02
-1.297856e-02
-2.702327e-02
-2.638112e-02
-3.606286e-02
-1.548491e-02
-2.682152e-04
-9.074720e-03
-1.844471e-02
-3.112807e-02
-2.459714e-02
6.732343e-03
1.032806e-02
1.771773e-02
-1.855300e-02
-2.516835e-02
3.870576e-03
1.097466e-02
1.811424e-03
-5.356930e-04
-1.346952e-02
1.224422e-02
3.388795e-03
-8.937460e-03
-1.935193e-02
-2.345242e-02
3.574373e-03
-2.441775e-02
-2.745399e-02
5.531042e-02
1.671875e-02
-3.397403e-03
3.907911e-02
2.700072e-03
-7.180911e-03
9.491896e-03
1.157289e-02
2.093343e-03
2.330311e-02
5.339999e-02
1.967861e-02
3.060486e-02
4.508161e-03
4.682680e-03
-1.400471e-02
-3.301769e-02
-1.400953e-02
1.784542e-02
8.207232e-03
-3.381679e-02
-2.242575e-03
1.539628e-02
1.252144e-02
-1.876018e-02
-9.376138e-03
1.101329e-02
-1.939055e-03
-5.455986e-03
-1.059262e-02
6.044406e-03
3.410680e-03
-9.658683e-03
-1.082310e-02
2.463776e-02
6.684963e-03
-2.015735e-02
-1.454053e-03
6.403402e-03
-2.614113e-02
-9.911161e-03
-8.299255e-04
-1.260382e-02
-1.199728e-02
-1.036937e-02
-3.586951e-03
-1.636154e-02
-7.315218e-03
1.080475e-02
3.030751e-02
3.491937e-03
2.402261e-02
1.465965e-02
1.397417e-02
-1.470358e-02
-1.254578e-02
1.457809e-02
2.089937e-02
1.827810e-02
1.367806e-02
3.626292e-03
6.133383e-04
-8.458650e-03
1.489104e-02
1.094947e-02
1.651737e-02
-7.415559e-03
8.689286e-05
1.441882e-02
-5.251978e-04
1.968957e-03
-1.651779e-02
-1.570061e-02
-3.278463e-02
-2.951667e-02
-5.208677e-03
-7.048083e-03
-8.829895e-03
-1.974894e-02
-1.355414e-02
-1.028300e-02
8.406972e-03
2.588046e-02
-1.998186e-02
-2.778809e-02
-1.266871e-02
-3.725382e-03
-1.861742e-02
-2.867627e-02
-1.272549e-02
2.721470e-02
1.356212e-02
7.702179e-03
-5.037792e-03
5.560247e-04
4.138852e-03
-1.956388e-02
-2.539297e-02
-1.658245e-02
4.004980e-04
9.424258e-03
-9.591540e-03
-2.335561e-02
9.252317e-03
-2.870934e-02
-1.300378e-02
-5.714817e-03
-2.722088e-02
-9.949548e-03
-5.111982e-03
-2.030398e-02
-5.305432e-03
-4.690617e-03
5.909730e-03
2.414663e-03
-8.475262e-03
-1.734661e-02
-1.530985e-02
-3.305681e-02
-1.372701e-02
1.878968e-02
-1.029538e-02
1.711124e-02
-9.549948e-03
8.829020e-03
4.261327e-02
1.976486e-03
1.940479e-02
9.928812e-03
-9.638472e-03
1.304084e-02
2.059771e-03
-4.810202e-03
1.857405e-02
1.663503e-04
-3.548654e-03
-1.891003e-02
-3.576136e-03
-4.756528e-03
-1.315449e-03
1.482960e-02
-2.865458e-02
3.801715e-03
1.450827e-02
-2.154003e-03
-1.204613e-02
-1.040911e-02
4.398470e-03
-1.156774e-02
-1.281286e-02
1.171174e-02
-1.090036e-02
-3.019252e-03
-2.791088e-03
-1.715540e-02
-5.663465e-03
-2.451585e-02
3.944394e-03
2.431787e-02
-3.703164e-03
2.914015e-02
1.518214e-02
1.634799e-02
-7.813685e-03
-3.291648e-02
1.391951e-02
2.009621e-02
-2.153707e-02
-1.763884e-02
-6.940426e-03
-2.980861e-02
2.614692e-03
-1.775183e-02
-2.854086e-02
1.272259e-02
2.851589e-03
-3.006144e-03
-2.930016e-03
-1.066336e-02
-1.215023e-02
-7.677742e-04
-4.194130e-03
-1.457906e-02
-8.410058e-03
1.255791e-02
1.228797e-02
-1.332391e-02
3.484983e-02
1.909502e-02
9.072130e-03
-4.376489e-03
-7.631910e-03
1.334381e-02
2.595038e-02
2.563691e-03
9.157382e-03
3.170482e-02
-3.149907e-03
1.855466e-02
2.673350e-03
-1.859976e-02
2.108306e-02
2.715584e-02
1.372527e-03
3.695199e-02
7.206606e-03
2.237267e-02
2.949565e-02
-1.510231e-02
1.289980e-02
9.815193e-03
-1.104858e-02
1.797683e-02
-1.740666e-02
-9.477441e-03
2.751231e-03
-1.070181e-02
2.747539e-03
-1.547396e-03
-1.394811e-02
1.831548e-02
-5.281525e-04
-2.049308e-02
-3.378685e-03
-2.279699e-02
-1.367480e-02
5.661429e-03
-3.952730e-03
-2.380097e-02
2.972218e-02
3.235494e-02
-1.881656e-02
2.763529e-02
3.852451e-02
2.527045e-02
-2.300678e-02
-2.998804e-03
1.020333e-02
-1.777985e-02
-1.086444e-03
1.031463e-02
2.235366e-02
1.948436e-02
-1.554893e-03
-2.505262e-02
-1.736197e-02
8.787340e-03
-2.347118e-02
3.518888e-04
-2.552988e-03
-2.046706e-03
2.288024e-02
-2.190852e-02
-3.336205e-02
-7.514801e-03
-1.021563e-02
-1.984522e-02
1.348903e-02
-1.868252e-02
-1.633143e-02
9.060975e-03
-3.516083e-03
2.844720e-03
3.290223e-03
-2.839052e-02
1.857268e-02
2.254933e-02
-2.007654e-02
2.203215e-02
1.058337e-02
-1.563065e-02
1.933570e-02
8.591305e-03
3.416303e-03
2.286234e-02
-7.264327e-03
1.021730e-02
2.000564e-02
1.291476e-02
6.202729e-03
-1.088924e-02
-1.193219e-02
6.212275e-03
-8.835119e-03
-1.053315e-02
-1.054697e-03
-3.639773e-03
-3.127179e-03
-5.446417e-05
-1.380443e-02
2.162347e-03
-6.337884e-03
-1.231707e-02
-1.088747e-02
-4.276436e-03
-7.609869e-03
6.609171e-03
-4.368738e-02
1.124201e-02
-1.216037e-02
-7.582400e-03
2.890938e-05
3.904477e-03
-9.075833e-03
1.686722e-02
3.467238e-02
1.306572e-04
-1.936917e-02
-6.385001e-03
-1.132823e-02
-3.582082e-02
-2.341614e-02
1.247866e-02
-1.391022e-02
-2.548935e-02
3.821002e-03
2.075014e-02
6.578510e-03
-2.594055e-02
1.996845e-03
-3.300852e-04
-6.217335e-03
-1.401550e-02
-1.138309e-02
-1.143267e-02
-5.776259e-03
-2.184365e-02
6.505135e-04
1.019382e-02
-1.427004e-02
-6.722938e-03
-1.574140e-02
-2.540896e-02
2.022636e-03
2.382352e-02
1.463467e-02
1.767465e-03
-2.482786e-02
-3.330730e-02
-9.701056e-03
-3.380055e-02
-2.221381e-02
2.339016e-02
2.230118e-03
1.387262e-02
-7.189100e-03
-3.956334e-02
-3.554547e-02
-7.545197e-03
-3.458874e-02
-3.713943e-02
1.855670e-02
6.146022e-03
-1.814344e-02
4.332618e-03
4.850653e-03
-3.065953e-04
6.553578e-04
-1.009733e-02
-1.343513e-02
-7.913910e-04
2.684638e-02
7.974878e-03
-2.733980e-02
-1.136675e-02
4.087005e-03
-2.473679e-02
-3.418251e-03
1.550367e-02
-1.084367e-02
7.266361e-03
5.728547e-03
1.785449e-02
9.120001e-03
-3.345326e-03
8.626310e-03
7.654419e-03
-1.363600e-03
-1.086167e-02
1.323625e-03
8.063384e-03
-7.757412e-03
-2.386830e-02
-8.253505e-05
-2.551772e-03
-2.816488e-02
-1.929704e-02
-3.927928e-03
-1.451683e-02
-1.398984e-02
4.887758e-03
-8.101302e-05
-1.815325e-02
-1.213658e-02
-1.447689e-02
-1.980435e-02
-1.744012e-02
-1.343794e-03
1.303066e-02
-2.178877e-03
1.114189e-02
2.112004e-02
2.094206e-02
9.056897e-03
1.697783e-02
-4.132164e-03
-5.351271e-03
-1.208037e-02
-3.204958e-03
-1.524694e-02
-2.836136e-02
9.834899e-04
-3.344634e-02
-1.266974e-02
6.176776e-04
1.578617e-03
2.381022e-05
3.027803e-03
-2.458548e-02
-2.822877e-02
-2.271092e-02
-4.720270e-02
-2.864776e-02
-6.798731e-03
-1.225264e-02
-6.226934e-03
-1.550233e-02
-4.651485e-04
9.994871e-03
-5.990259e-04
1.289085e-02
1.425590e-02
7.805988e-03
2.304201e-02
2.168578e-02
5.208581e-03
2.265730e-02
5.109566e-03
-2.722338e-03
2.570894e-02
6.567553e-03
9.715054e-04
7.534066e-03
1.390751e-02
1.019210e-02
1.263575e-02
4.830575e-03
9.364498e-03
-2.563315e-02
-3.663501e-02
-1.205707e-02
-1.915193e-02
-2.251548e-02
-1.736442e-02
-1.831897e-02
-2.369170e-02
2.665753e-03
2.555264e-03
-2.725114e-03
-4.396742e-03
2.898715e-02
1.497510e-02
3.505082e-03
1.286157e-03
1.447001e-02
1.387685e-02
-8.737737e-03
-1.531929e-02
-1.535125e-02
-4.161656e-03
1.625051e-02
-4.447732e-03
2.261285e-04
2.415117e-03
-1.685722e-03
-7.288083e-03
-9.872925e-03
-6.640106e-03
3.294354e-03
-2.915261e-02
-4.735001e-03
-1.277619e-02
-2.580746e-02
-7.029503e-03
-2.595526e-03
-6.140256e-03
2.161814e-02
6.104244e-03
-4.512007e-03
1.429717e-02
-4.313445e-03
1.131640e-02
-1.204087e-02
1.179753e-02
3.125369e-02
1.478321e-02
-8.766046e-03
-3.049387e-02
1.170558e-02
9.557919e-03
-1.781368e-02
-4.274439e-03
-4.214115e-03
-2.915173e-02
1.508790e-02
-1.132692e-02
8.220454e-03
6.549282e-03
-9.021207e-03
-1.000670e-02
3.566761e-04
-1.332111e-02
-3.048612e-02
1.813842e-02
-4.667307e-03
-2.211598e-02
4.357059e-03
-3.776490e-03
-1.821515e-02
2.709395e-02
1.625325e-02
4.822255e-03
-1.611115e-03
2.012339e-02
2.633891e-02
-2.707907e-02
2.393109e-03
4.039803e-02
-1.579548e-02
1.605219e-02
3.686060e-02
6.672245e-03
1.310843e-02
-3.772405e-04
-1.348606e-02
2.506006e-02
1.997668e-02
-2.418305e-02
4.745429e-02
2.076243e-02
4.408258e-03
-3.284442e-03
-1.389469e-02
1.791677e-02
9.914355e-03
-7.823365e-03
3.100817e-02
-9.413726e-03
-7.318646e-03
-5.620142e-03
-3.058569e-02
-3.977951e-02
-2.118914e-02
-3.914971e-02
-3.296303e-02
-1.033225e-02
-2.987470e-02
-4.133100e-02
1.728603e-02
2.832887e-02
9.697392e-03
-6.222598e-03
1.785661e-02
7.118246e-03
-7.011264e-03
-1.832021e-02
-1.925440e-02
-2.210388e-02
-1.168976e-03
4.901252e-03
-1.495538e-02
-3.822997e-03
-3.425242e-03
5.835421e-03
-8.205738e-03
-1.592699e-02
-7.054614e-03
-4.015909e-03
-2.658744e-03
-2.700624e-02
-6.435085e-03
-5.605491e-03
-3.153481e-02
-1.704375e-02
-9.607089e-03
-1.584418e-02
1.086210e-02
1.522403e-02
1.023535e-02
2.460437e-02
1.868196e-02
1.985457e-02
4.589857e-02
