-2.089698e-02
-1.235372e-02
1.388788e-02
-5.054419e-03
-2.365158e-05
2.129413e-02
8.100495e-03
2.807486e-02
2.404449e-02
6.545919e-03
-2.252872e-02
2.711470e-02
3.727376e-02
6.048393e-02
-4.773522e-02
-1.881660e-02
-5.887009e-02
2.689538e-03
-1.992194e-03
-1.854647e-02
-1.646988e-03
-2.244704e-02
-7.634866e-03
6.885754e-03
-1.791554e-02
1.899850e-03
2.451261e-02
-1.603249e-02
-1.297964e-02
-7.166787e-03
1.068463e-02
7.690652e-03
-5.729815e-03
1.315727e-02
2.135289e-02
7.527809e-03
3.512723e-03
6.267533e-04
9.033073e-03
-1.678222e-02
-1.381263e-02
8.497582e-03
-8.966387e-03
-6.006725e-03
1.028197e-02
5.167851e-03
-1.454263e-02
-1.782036e-03
-2.986106e-02
-7.468152e-02
6.823367e-02
-4.493313e-02
1.207924e-02
2.594202e-02
-2.661697e-02
1.729442e-02
-7.709470e-03
-1.991064e-02
9.956788e-03
8.889630e-03
4.935293e-03
-9.358483e-03
2.989076e-02
6.748644e-03
-2.111242e-02
3.786031e-03
2.847514e-02
2.134726e-02
1.968388e-02
2.330764e-04
2.062646e-03
1.854583e-03
-3.811898e-02
1.324399e-03
2.404122e-02
3.587003e-02
1.959382e-02
8.561712e-03
1.369126e-03
-1.220151e-02
9.427553e-03
5.577647e-04
-4.651047e-03
-1.566979e-04
2.047586e-02
2.642420e-02
2.212319e-02
4.104058e-03
1.803632e-02
1.442335e-02
3.947319e-03
2.535134e-02
8.013658e-03
2.789349e-03
-8.703948e-03
-3.369306e-02
-6.657001e-03
1.153965e-03
2.919137e-02
-1.516261e-02
-6.893722e-03
2.717437e-02
4.277045e-02
4.910931e-02
-5.288978e-02
2.869958e-02
4.368800e-02
-1.246372e-02
-2.492332e-02
1.743065e-03
-2.582033e-03
1.572426e-02
1.791140e-02
-8.253913e-03
-1.390618e-02
-1.074543e-02
5.564982e-03
5.502909e-03
-2.391341e-02
-2.725450e-02
-8.382141e-02
-5.162767e-02
1.443866e-01
-4.278114e-03
2.408452e-02
7.427255e-02
-7.770929e-03
9.292023e-03
9.661510e-03
-3.934312e-03
9.204601e-03
1.304401e-02
1.455013e-02
5.800955e-03
3.160108e-03
2.072401e-04
-2.740598e-02
-1.192560e-02
-4.217638e-03
1.209465e-02
5.871191e-02
-1.330267e-02
1.230755e-02
-6.931616e-03
1.185113e-02
6.726979e-03
6.313840e-03
6.074202e-03
-1.668191e-03
-6.011901e-04
-2.672461e-03
-7.321846e-03
-8.293289e-04
1.812450e-02
2.658630e-02
-4.531748e-03
5.820338e-03
2.341314e-02
-3.133976e-02
-2.173834e-03
-3.795114e-03
-2.931964e-02
8.776023e-03
1.025045e-02
2.067902e-02
-2.571442e-03
-2.676970e-03
1.514338e-02
-1.286003e-02
-1.250700e-02
1.460368e-02
-9.557586e-03
-4.522479e-03
1.471597e-03
-8.311340e-03
1.245433e-03
8.804722e-03
-1.696829e-02
-4.389445e-03
4.141857e-03
2.355004e-04
-1.298162e-02
-8.119131e-03
-1.931434e-03
-1.394133e-02
-1.392955e-02
6.883887e-03
-2.568191e-03
-8.110540e-03
3.670031e-02
-3.116021e-03
6.884539e-03
3.216692e-02
-4.012081e-02
2.202012e-02
1.495099e-02
-1.821110e-02
2.359902e-02
-1.129473e-02
-7.065145e-04
1.800257e-02
-5.443922e-03
-1.230238e-03
1.402215e-02
3.621796e-03
2.507122e-03
1.477338e-02
5.497044e-03
3.590357e-03
1.054042e-03
-5.781562e-03
-9.554463e-03
-1.240254e-02
-1.511651e-02
6.464379e-03
2.323756e-04
-5.823533e-03
6.289887e-03
2.123907e-02
-8.704014e-03
-6.968702e-03
4.237073e-03
-9.712147e-03
-2.537392e-03
9.692053e-03
-1.519509e-02
-1.314067e-02
-6.359437e-03
-2.974322e-02
-2.223804e-02
-1.680197e-02
-2.857429e-02
-2.514000e-02
-1.893077e-02
1.194722e-02
2.185446e-02
-5.385625e-03
-2.262534e-03
8.662822e-03
-1.171310e-02
-2.030893e-03
-1.644871e-03
-8.060607e-03
1.623337e-02
-1.087647e-02
-8.701199e-03
4.092971e-03
1.923651e-02
-7.899714e-03
2.540029e-02
5.962894e-02
4.432471e-03
-2.865876e-02
-1.495860e-02
-3.632910e-04
-1.425848e-02
-3.173252e-03
-1.983240e-03
-3.874071e-03
2.913191e-04
-9.736191e-03
8.914082e-03
3.142096e-03
2.260292e-02
1.114986e-02
-3.151252e-02
2.654567e-02
3.068197e-03
-2.225507e-02
2.764652e-02
-5.911930e-03
-7.302209e-03
3.586863e-03
-6.710897e-03
-1.000652e-02
1.106332e-03
-7.090130e-03
-7.070845e-03
1.131371e-03
-1.163642e-02
2.330132e-02
-7.833885e-03
-2.603149e-02
1.573358e-02
1.362238e-02
-1.500133e-02
2.260172e-02
2.394034e-02
-4.642367e-04
-2.651247e-03
8.969678e-04
-5.637238e-03
-9.320850e-03
-9.438945e-03
-2.206290e-02
-1.106048e-02
-1.170159e-02
-9.119230e-03
-1.092570e-02
-1.772826e-02
-1.217675e-02
7.261076e-03
1.910133e-02
-6.053746e-03
2.044320e-02
3.734348e-02
1.606700e-02
1.745656e-02
1.119015e-02
-1.102726e-02
-1.029684e-02
-9.042826e-03
-2.237028e-02
-2.796837e-02
-2.144759e-02
7.768920e-04
-5.741814e-03
-9.597899e-03
-1.032189e-03
5.858225e-04
-3.521417e-04
-4.830684e-03
7.887941e-04
4.916147e-03
4.553096e-02
3.043740e-02
2.870066e-02
1.423595e-02
-4.058732e-03
-6.814333e-03
1.331100e-02
-5.159425e-03
-1.046781e-02
-9.281723e-04
1.875186e-02
-1.550795e-02
1.567690e-02
1.359867e-03
-2.292207e-02
4.650628e-03
-1.181022e-02
-2.786608e-02
1.869341e-02
2.245149e-02
1.241102e-02
1.241568e-02
6.164546e-03
6.466290e-03
2.317111e-02
4.857386e-03
7.316180e-03
-6.715766e-03
-5.890378e-03
-5.765706e-03
4.406418e-03
1.666751e-02
4.399229e-03
1.517961e-02
2.382824e-02
9.992776e-03
-4.707107e-02
-6.190075e-02
-5.383830e-02
-5.095841e-03
7.611997e-03
-9.222086e-03
9.905053e-03
3.470537e-02
2.539846e-02
-1.201513e-02
-1.698976e-03
8.393897e-03
4.533261e-03
2.766069e-02
2.966137e-02
4.096916e-02
4.354230e-02
3.547666e-02
1.197958e-02
-1.700503e-02
-2.585267e-02
3.307411e-02
-5.299249e-03
-2.206757e-02
4.165499e-02
8.720354e-03
-2.056201e-02
-3.468694e-02
-5.674866e-02
-2.719185e-02
8.535769e-03
2.551859e-02
3.822650e-02
2.294326e-02
6.137682e-02
6.070684e-02
1.295887e-02
-1.028412e-02
-2.662052e-03
6.385223e-03
5.862586e-03
1.465422e-02
-1.358466e-02
1.253102e-02
2.732549e-02
-3.332919e-03
4.785063e-03
-2.448095e-03
-7.106515e-03
-5.231168e-02
-2.795381e-02
-7.061549e-03
-4.523693e-02
-3.083507e-02
7.661704e-03
6.616472e-04
7.304141e-03
1.133087e-02
8.887720e-04
1.421661e-02
6.113670e-03
2.849851e-03
9.915177e-03
-1.571947e-02
-6.497199e-03
-1.807904e-03
-1.547001e-02
-2.764485e-03
2.627867e-02
-1.971574e-02
-7.954692e-03
1.656131e-02
5.703428e-02
6.162001e-02
5.983312e-02
2.775884e-02
1.864420e-02
3.199042e-02
2.788243e-02
2.937366e-02
4.567885e-02
-1.121656e-02
-1.814935e-02
-1.126488e-02
1.990521e-02
-1.887196e-03
-4.878908e-02
4.829697e-02
2.929496e-02
-6.714250e-03
-4.215433e-02
-3.327585e-02
-1.700507e-02
-1.541092e-02
-1.111480e-02
-5.419823e-03
8.800381e-03
1.096272e-02
1.187462e-02
-8.140129e-03
8.302580e-03
2.410456e-02
9.895771e-03
2.280029e-02
2.670319e-02
1.318224e-02
2.797928e-02
2.903705e-02
-2.874343e-02
-1.510365e-02
-3.453393e-02
-2.271806e-03
1.114585e-02
-6.879397e-03
-8.901455e-03
-1.889993e-03
-1.051096e-02
1.528948e-02
2.119560e-04
-1.013469e-03
7.160028e-04
-1.900343e-02
1.628168e-02
-3.091605e-03
1.252162e-02
3.545030e-02
-2.874799e-02
-1.975807e-02
2.617833e-03
-1.255818e-02
-1.871538e-03
1.296771e-02
-5.401769e-03
6.723609e-05
1.473816e-02
5.493679e-02
5.064999e-02
2.129519e-02
1.860091e-02
1.446882e-02
5.932443e-03
-2.270768e-02
-4.300174e-02
-2.973531e-02
-1.462403e-02
2.583550e-02
2.782441e-02
-1.656972e-02
-1.096595e-03
1.539858e-02
-2.822823e-02
-2.437949e-02
-1.161505e-02
3.227066e-02
2.264795e-02
1.486380e-02
6.807007e-03
2.343891e-03
-2.089825e-02
2.314586e-02
2.674898e-02
1.078071e-02
1.947025e-02
5.420988e-02
2.624877e-02
-2.596823e-02
8.002738e-04
-7.104044e-04
-6.594009e-02
-4.053364e-02
-3.710801e-03
-2.402293e-02
-2.026500e-02
3.156308e-03
6.733414e-03
-1.474685e-02
-5.127138e-03
-3.639706e-03
1.457942e-02
1.300367e-04
-6.449389e-02
-1.020105e-01
-5.851802e-02
-4.712900e-02
-3.405251e-02
-2.876702e-02
6.696922e-02
1.387613e-01
7.526086e-02
-1.286022e-02
1.130022e-02
-2.058796e-03
5.416516e-03
9.220336e-03
1.642108e-02
-7.753644e-03
-8.424176e-03
-1.584690e-03
-8.933531e-03
-3.744176e-02
-1.313272e-02
-1.185966e-03
-3.603594e-02
-1.385775e-02
3.463372e-03
-3.623452e-02
-1.576019e-02
4.344976e-02
9.122975e-03
-3.153688e-02
3.556241e-02
7.557272e-03
-3.322072e-02
1.482054e-02
2.782219e-02
2.043363e-02
8.809992e-03
7.925776e-03
1.295688e-02
-1.321890e-02
-1.117104e-02
1.526584e-02
-2.011828e-02
-2.579345e-02
7.799208e-03
-2.483938e-02
1.217609e-03
1.788563e-02
-3.450469e-02
-3.209200e-02
2.370678e-02
-9.665075e-03
-3.025399e-02
-6.824391e-03
-4.211259e-03
1.084504e-02
3.443570e-02
-9.454642e-03
-2.380855e-03
2.245431e-02
-5.957077e-03
-5.792400e-03
2.214208e-02
1.379673e-03
6.487866e-03
-2.972595e-03
-1.216944e-02
3.741703e-03
5.164668e-03
-2.780140e-02
-4.381627e-03
1.415673e-02
-5.247271e-03
-8.177564e-03
-9.596259e-03
2.797654e-03
3.146737e-03
-7.950949e-03
-1.015704e-02
5.162326e-03
4.986309e-03
-2.184079e-02
-1.897062e-02
-5.469168e-03
-6.001737e-03
-7.465052e-03
-5.274473e-03
1.157684e-02
6.298705e-03
5.178570e-03
1.070296e-02
9.626132e-03
6.745695e-03
-3.336304e-04
1.096762e-02
8.145594e-03
-4.319934e-03
1.524898e-02
1.740992e-02
-8.754369e-03
-2.380363e-03
9.289255e-03
1.546425e-02
1.949476e-02
2.411761e-03
-1.504453e-02
1.035109e-02
9.928414e-03
1.583480e-02
7.166971e-03
-5.535494e-03
1.935383e-02
2.580928e-02
-9.244002e-03
-1.893575e-02
2.187040e-02
-2.625877e-03
-1.395209e-02
-8.425210e-03
5.742055e-03
-4.085823e-03
-1.322796e-03
1.536549e-02
1.140061e-02
8.770321e-03
1.043053e-02
9.167225e-03
-3.078741e-02
-1.425422e-02
5.325707e-03
-2.916030e-02
-5.530376e-03
9.238425e-03
-9.030541e-03
-7.447738e-03
1.622803e-02
1.440676e-02
-1.170391e-02
1.593524e-02
2.056724e-02
8.852328e-03
1.730665e-02
1.607517e-02
8.936106e-03
-3.965170e-02
1.686090e-03
5.579195e-02
-5.791399e-02
-4.583176e-02
1.835543e-02
3.124884e-02
-3.796860e-02
-5.287212e-02
-2.183047e-02
-8.793198e-03
-1.005069e-02
-8.631552e-03
7.025417e-03
-1.070474e-02
-9.016712e-04
1.048143e-03
-5.711974e-03
-1.024760e-03
-3.259910e-03
1.889760e-02
5.225654e-03
3.667074e-03
2.415312e-02
6.108889e-03
6.309052e-03
2.367527e-02
-3.464948e-02
-1.559668e-02
3.372217e-02
-2.932483e-02
-4.274604e-02
-9.112902e-04
1.475733e-02
-3.597903e-02
-3.067961e-02
9.432890e-03
6.863043e-03
9.751488e-03
-1.685237e-03
8.626954e-03
1.265658e-02
9.547005e-03
2.451119e-02
2.305961e-02
-9.075285e-03
4.273072e-03
1.478371e-03
-4.768225e-02
2.328275e-02
2.965205e-03
-2.135802e-02
6.538902e-03
1.449578e-02
-4.385800e-03
-6.500277e-03
-1.584756e-02
3.605623e-04
-2.683248e-04
-1.475816e-02
-1.196772e-02
-6.037608e-03
-2.717856e-02
-3.388423e-02
-1.368620e-02
-2.900544e-02
-2.242696e-02
-1.483157e-02
-3.177514e-02
-2.797626e-02
-4.384807e-02
-6.365990e-02
2.859197e-02
3.104910e-02
3.987689e-02
2.736796e-02
2.703992e-02
3.867981e-02
3.696429e-02
2.783810e-02
3.169647e-02
-2.291287e-02
-3.959274e-02
-1.697290e-02
1.517705e-02
-3.146864e-02
1.651365e-03
3.023956e-02
7.529326e-02
4.380389e-02
-1.857730e-02
-1.248450e-02
-7.231634e-03
-3.318110e-02
-1.974418e-02
-2.218398e-02
-4.317710e-02
-2.328179e-02
-2.634388e-02
-8.537383e-02
-9.117545e-02
-1.783547e-02
-5.660106e-02
-1.060598e-02
5.061262e-02
5.820034e-03
6.744775e-02
1.095324e-01
3.113170e-02
1.790409e-02
9.650876e-03
3.529052e-02
3.601519e-02
-1.709293e-02
-3.315468e-03
1.793634e-03
-4.714189e-02
2.108022e-02
2.681682e-02
1.649687e-02
2.364255e-02
2.410704e-02
4.703570e-03
-1.431618e-02
-1.467740e-02
-2.201750e-02
3.380124e-02
-9.263998e-03
-7.672525e-02
7.410455e-02
5.298998e-04
-1.223652e-01
6.582611e-02
1.777143e-02
-5.706783e-02
1.316744e-02
5.626774e-03
1.877382e-03
2.947291e-03
-1.634021e-02
-1.137042e-02
-8.485293e-03
-1.495089e-02
-5.258823e-03
5.532261e-03
1.318526e-02
-1.826757e-02
-2.961279e-03
-1.079365e-03
-1.047537e-02
3.190010e-03
1.227559e-02
3.797138e-02
-4.014958e-03
2.600570e-02
1.551024e-02
1.232465e-02
2.279528e-02
2.342748e-02
-4.979283e-03
-7.139652e-03
-6.630373e-03
-5.841428e-03
2.155586e-03
1.057967e-03
4.936820e-03
1.449833e-02
1.324748e-02
8.873640e-03
6.114441e-03
7.157329e-03
1.286003e-02
-2.564641e-02
-5.571410e-02
3.708215e-02
3.752007e-03
-3.130599e-02
7.890934e-02
8.956476e-02
2.167683e-02
-4.071423e-03
-6.011957e-03
-3.469071e-04
2.813948e-04
-2.833736e-03
1.831599e-03
-1.001262e-02
-1.122516e-02
-4.918429e-03
-1.202651e-02
1.010608e-02
1.949711e-02
-7.782339e-03
1.335736e-02
2.900118e-02
-1.121645e-02
-8.987206e-04
1.705690e-02
1.971819e-03
1.024674e-02
-6.486864e-03
2.962886e-04
8.446547e-03
-1.398422e-02
-7.816470e-04
5.905912e-03
-1.871241e-02
-3.518938e-03
-7.986682e-03
1.619532e-03
-3.475321e-03
-5.549537e-03
6.911919e-03
8.895321e-03
7.780348e-03
2.092586e-02
6.386303e-03
-3.833140e-03
-6.387324e-03
6.744158e-03
-2.933187e-03
-5.970250e-03
9.798923e-03
8.089621e-04
-1.024327e-03
-1.409744e-02
1.713283e-02
9.553939e-03
-1.108744e-02
1.650656e-02
1.479005e-02
-2.543821e-04
6.900544e-03
1.380723e-02
-4.863480e-03
-5.077562e-03
-1.445167e-02
-1.764270e-02
-1.527314e-02
-2.052852e-02
-2.036913e-02
-1.588895e-02
-2.086737e-02
-6.137673e-03
-2.866559e-03
-5.531417e-03
6.755509e-03
2.432847e-04
-1.692531e-03
1.780548e-02
-3.210032e-03
6.051829e-03
-3.060328e-03
2.145933e-03
-1.429880e-02
-3.906207e-03
-1.391910e-02
-2.499517e-02
9.537731e-03
-1.158434e-02
-1.459048e-02
-4.409074e-03
-1.104663e-02
-1.179273e-02
2.925826e-02
2.193272e-02
2.106618e-02
-9.600862e-03
-1.062879e-02
-7.417062e-03
-1.042724e-02
-9.302848e-03
-6.314831e-03
-2.078170e-02
-3.186076e-03
6.478629e-03
5.870094e-03
2.162805e-02
1.380743e-02
1.498687e-02
3.881174e-02
2.020378e-02
6.697156e-02
8.201078e-02
6.560399e-02
3.674644e-02
5.632687e-02
5.252559e-02
4.092203e-03
6.339537e-04
1.582969e-02
1.350972e-02
-6.075928e-03
1.177881e-02
9.230248e-03
-1.809990e-02
-2.844127e-03
-8.646634e-03
-9.289769e-03
-2.260629e-02
1.545370e-02
1.192592e-02
-3.461560e-03
2.783989e-03
-6.421201e-03
-8.918731e-03
3.403519e-03
6.840421e-03
-7.280023e-03
3.409369e-03
7.562643e-03
-5.800039e-03
9.433544e-03
2.259306e-02
7.742990e-03
7.878026e-03
1.845218e-02
-3.171729e-03
4.763826e-03
1.522552e-02
-9.305558e-03
7.664888e-04
2.920387e-03
-1.407487e-02
6.174170e-03
6.548079e-03
-6.469882e-03
1.182647e-02
3.132917e-03
4.484892e-03
6.236716e-03
1.664034e-02
2.089056e-02
5.646123e-02
2.769929e-02
-9.324984e-03
-1.624577e-02
5.704699e-02
-2.128506e-02
1.478035e-02
-7.512501e-03
1.058736e-02
8.372326e-03
-2.064431e-03
-1.316438e-02
-8.982984e-04
-5.909791e-03
-3.885780e-03
8.889030e-03
-1.044029e-02
4.367717e-03
-1.053870e-02
7.559885e-03
-1.178552e-02
-1.417722e-02
1.560719e-02
2.649128e-03
-2.074566e-02
1.161218e-02
1.665959e-02
-6.309947e-03
1.036130e-02
-4.796776e-03
-3.131580e-03
4.826499e-03
-4.407089e-04
3.816616e-03
4.820443e-03
-2.154747e-03
3.251223e-02
-3.568314e-02
3.484485e-02
1.008575e-01
-7.666434e-02
8.393488e-02
1.031116e-03
1.641578e-02
-1.362320e-02
-2.162077e-02
-7.724967e-04
9.098677e-03
-5.440776e-03
-7.807121e-03
-3.577379e-03
1.618419e-02
-1.248075e-02
-2.231396e-03
1.879033e-02
-1.803936e-02
1.326482e-03
-7.140701e-03
6.174550e-03
-2.062778e-02
-1.444914e-02
-9.840277e-03
-1.382998e-02
1.951224e-02
-1.586236e-02
-2.259059e-02
1.012839e-02
-3.041792e-03
-3.115486e-02
-5.808341e-03
-8.891915e-03
1.102763e-02
5.182477e-03
3.531064e-03
7.360383e-03
-8.698140e-07
2.238641e-02
7.875774e-03
-2.146501e-02
-2.418950e-02
-3.388608e-02
2.275143e-02
7.370431e-03
-5.292802e-02
-2.260551e-03
1.773954e-02
-2.108768e-03
-8.174634e-03
-4.174875e-04
1.657536e-02
3.094265e-02
-3.207886e-02
-1.153414e-02
-3.179289e-02
1.479440e-02
-1.607520e-02
-1.217770e-02
2.842596e-02
-3.687225e-03
6.407019e-03
-6.191973e-03
5.302305e-03
1.048779e-02
4.222529e-02
-3.318463e-02
1.298322e-02
-7.283946e-03
-1.319336e-02
-1.349959e-02
2.177432e-02
3.325533e-02
9.610696e-02
-6.830627e-02
4.186013e-02
1.466795e-03
5.712519e-02
3.368355e-02
-1.006134e-02
-1.724075e-02
4.556981e-03
-8.207720e-03
-2.443195e-02
7.327980e-03
4.828627e-03
-1.233539e-02
-1.818531e-03
-7.068285e-03
1.707152e-02
1.347046e-02
-4.155140e-03
-2.484423e-02
3.211656e-02
-2.973451e-02
5.667019e-04
2.623284e-04
1.682074e-02
2.665997e-02
1.053427e-02
2.602871e-02
4.200544e-02
2.377523e-02
1.440483e-02
2.809284e-02
2.545372e-02
-9.776992e-03
-3.259743e-02
-1.899527e-02
-3.511247e-02
-9.320068e-03
1.855031e-02
-2.064894e-02
-2.375546e-02
-6.270283e-03
1.665559e-02
5.354610e-03
-1.828108e-02
2.104979e-02
7.998208e-03
-1.629081e-02
2.425945e-02
1.086196e-02
-1.739748e-02
6.989757e-04
-8.350093e-03
-4.260535e-03
7.707288e-03
7.587384e-03
1.674086e-02
1.312582e-02
1.593096e-02
2.645177e-02
2.233948e-02
1.994205e-02
8.426172e-03
3.245042e-02
2.822747e-02
1.494862e-02
2.849985e-02
2.631679e-02
1.385748e-02
-2.967330e-02
6.107298e-03
-2.135295e-02
2.083526e-02
1.860083e-02
-5.039995e-03
-1.251960e-03
2.146849e-02
-6.657947e-03
1.841245e-02
-3.293198e-03
-2.880222e-02
2.951789e-02
1.119565e-02
-1.888415e-02
2.841666e-02
1.940365e-02
4.463390e-03
2.508384e-03
-1.137354e-02
-1.733077e-02
-2.722657e-03
6.082582e-03
-9.561068e-03
2.179196e-02
3.945020e-03
-1.733815e-02
-3.537497e-02
-2.586374e-02
-1.153755e-02
-2.389475e-02
-2.153653e-02
-2.311130e-02
-1.752563e-02
-3.467294e-04
1.060074e-02
-1.196500e-02
-8.993205e-03
-9.326493e-03
-1.059217e-02
-1.558319e-02
-9.637387e-03
1.668870e-02
-6.114247e-03
-1.928819e-02
-2.059310e-02
-2.610766e-02
-1.959930e-02
2.170295e-02
1.570687e-02
8.702588e-03
1.382908e-03
1.057124e-02
5.128258e-03
2.664247e-02
-5.562620e-03
-2.023231e-02
-3.716496e-02
-4.069124e-02
-1.688584e-02
-2.607126e-02
-4.255954e-02
-1.779597e-02
7.273566e-03
3.195981e-02
3.087779e-02
4.311413e-02
3.717125e-02
2.261261e-03
-7.740979e-03
-1.710334e-02
-2.647865e-02
6.660248e-03
8.239500e-03
4.996100e-03
4.357013e-03
-8.237205e-03
-4.490000e-02
-3.575967e-03
1.523171e-02
-3.498572e-02
1.528616e-02
-6.647671e-03
-5.437960e-03
3.975109e-03
-7.324470e-03
3.849762e-05
-7.550037e-03
-1.404430e-02
-8.594775e-03
-1.303937e-02
1.490981e-02
3.340663e-02
-1.897632e-02
-1.177787e-02
1.097322e-04
-7.475108e-03
-1.168544e-02
-1.038706e-02
-6.638688e-11
-1.076015e-10
2.207053e-11
-1.337415e-10
-1.998409e-11
5.790721e-11
8.580196e-12
-9.447940e-11
-8.542632e-12
2.275616e-11
-8.316858e-11
1.488695e-11
-1.743206e-11
-6.600270e-11
-5.370556e-11
-6.807455e-11
3.109890e-11
9.879779e-12
1.019115e-10
-4.267633e-11
4.442957e-11
1.272064e-10
2.268956e-11
1.121814e-10
6.240981e-11
2.673535e-12
-3.819197e-11
7.888207e-11
1.152822e-10
1.933376e-10
1.062058e-10
2.249178e-10
1.781388e-10
2.343708e-10
2.379057e-10
1.263033e-10
2.274006e-10
1.198214e-10
1.403024e-10
2.716124e-10
1.920312e-10
1.894588e-10
2.588562e-10
2.005134e-10
5.604182e-11
1.196347e-10
1.519310e-10
7.383269e-11
1.246251e-10
2.026123e-11
7.775664e-11
9.724537e-11
4.410645e-11
-7.584841e-12
1.210077e-10
1.656710e-10
2.316681e-10
2.414534e-10
1.909271e-10
2.347648e-10
1.492338e-10
1.353820e-10
1.950601e-11
1.412258e-10
3.426912e-11
-9.355628e-13
-1.523387e-11
2.569521e-11
-7.220974e-11
7.300772e-11
3.599820e-12
-1.156963e-11
1.577538e-11
-3.786171e-12
-1.134628e-10
-1.584090e-10
-5.646422e-13
-2.149152e-11
-5.943516e-11
-5.826532e-11
-2.983414e-11
2.082075e-10
1.083062e-10
1.417497e-10
1.584441e-10
2.419042e-10
1.158282e-10
1.108878e-10
1.251628e-10
1.038655e-10
1.860586e-10
1.317079e-10
1.482038e-10
2.098749e-10
1.684444e-10
9.258574e-11
2.077212e-10
1.591702e-10
1.917948e-10
-6.713061e-11
-6.394749e-11
-7.874389e-11
-2.263269e-11
-1.557309e-10
-1.511616e-10
-6.499787e-11
-1.079706e-10
-2.347748e-11
2.090402e-10
1.664593e-10
1.300930e-10
1.454256e-10
1.214960e-10
3.070827e-12
1.297817e-10
1.234972e-10
1.768026e-11
1.843253e-11
-3.792043e-11
-3.683082e-11
-1.024319e-10
-2.098334e-11
-4.489479e-11
-9.044838e-11
-9.795396e-11
-1.164119e-11
1.576394e-10
1.785419e-10
4.993548e-11
2.663686e-11
1.522659e-10
3.336752e-11
1.317162e-10
1.400157e-10
1.166946e-10
4.436153e-11
1.279514e-11
-2.238633e-11
-3.567545e-11
-9.159287e-11
-7.654211e-11
-8.596505e-12
2.681376e-11
1.567881e-11
7.395083e-05
2.270081e-04
1.549770e-04
3.005267e-04
6.141322e-04
4.366988e-04
4.666183e-04
8.036958e-04
4.319406e-04
-2.656751e-05
-7.235716e-04
6.531836e-04
2.797377e-04
-3.890100e-04
5.711645e-04
-7.803054e-04
-4.205383e-04
-8.575056e-05
-1.134073e-04
-1.925262e-04
-2.211866e-04
-1.092556e-04
-3.166315e-04
-7.328223e-05
-1.956244e-05
-3.726182e-04
-1.339512e-04
-2.442749e-04
-2.348436e-04
-2.224902e-04
-2.353138e-04
-2.419071e-04
-2.321106e-04
-1.839783e-04
-2.111243e-04
-3.047806e-04
1.828251e-04
3.472280e-04
3.183197e-04
4.306996e-04
4.495654e-04
2.848875e-04
2.293201e-04
2.993006e-04
9.253530e-05
3.741769e-04
1.122030e-03
2.079838e-04
6.140509e-06
5.507384e-04
-1.089193e-04
3.399313e-04
3.214362e-04
2.409106e-04
4.772443e-05
-3.478607e-05
1.130394e-05
7.865507e-05
-6.090261e-05
-2.579994e-05
4.264023e-05
9.387486e-05
9.557543e-05
8.238199e-04
-2.834923e-04
-4.783263e-04
2.061986e-04
-5.763383e-04
-5.804703e-04
-3.162378e-04
-5.078513e-04
-2.325765e-04
-7.193622e-04
-8.471236e-04
4.523902e-04
-3.526460e-04
-4.796400e-04
4.377450e-04
-7.425909e-04
-2.980825e-04
5.266307e-05
-4.418621e-05
-1.363012e-04
-3.705518e-04
1.782701e-04
5.397358e-05
-1.648401e-05
-2.559320e-05
-9.945999e-05
-3.652335e-05
-4.958700e-04
2.241173e-04
8.688929e-04
-3.258687e-04
2.831876e-04
5.709427e-04
-6.194134e-04
-1.632064e-04
4.273177e-04
-5.713566e-04
-3.736788e-04
6.402954e-04
-7.844042e-05
-1.811399e-04
4.646152e-04
-2.281810e-04
-3.924924e-04
-2.166578e-04
-3.352578e-04
-3.835029e-04
1.184802e-04
-3.080330e-04
-4.883930e-04
-3.047229e-05
6.447738e-04
2.441908e-04
-1.195644e-04
4.229240e-04
1.800218e-04
-1.477348e-04
1.685226e-04
3.786677e-04
2.533732e-04
5.079077e-04
8.163324e-04
2.266889e-04
-8.029641e-05
-1.017179e-04
-2.556233e-04
-3.530287e-05
-9.910378e-05
-2.652443e-04
9.455024e-06
-1.750679e-04
-4.177763e-04
-2.451039e-04
4.051967e-04
1.594560e-04
-5.235997e-04
2.620444e-04
7.725800e-04
-4.862336e-05
4.797441e-04
1.080108e-03
-5.344945e-02
-1.656397e-02
-1.848957e-02
-4.218318e-03
5.900390e-04
-1.638588e-02
-1.197692e-02
-9.674692e-04
-4.164101e-03
1.203617e-02
-3.179258e-02
2.229421e-02
-1.915890e-02
3.187101e-02
-2.344502e-02
2.947358e-03
2.991445e-02
2.035489e-02
6.202711e-02
4.085830e-02
1.791088e-02
3.693371e-02
3.314553e-02
1.836585e-02
3.172429e-03
-6.945741e-04
1.025765e-02
-2.720056e-04
-6.001046e-03
2.103756e-03
3.379060e-02
2.492572e-02
6.944522e-03
2.267853e-02
3.084483e-02
1.511546e-02
-1.437471e-02
1.236791e-02
1.811158e-02
-1.866376e-02
6.910252e-03
1.887130e-02
-1.731896e-02
4.463827e-03
1.770231e-02
-1.171508e-02
1.989723e-02
-2.163373e-02
1.012957e-02
-6.074925e-02
3.959692e-02
-3.141241e-02
-1.728319e-02
-1.991696e-02
-6.536338e-03
4.493060e-02
4.066733e-02
-2.625152e-02
2.720101e-02
1.898276e-02
-2.471592e-02
-1.925806e-02
1.699293e-03
3.322076e-02
-4.427997e-02
-1.305582e-02
7.025947e-03
-3.712486e-02
-4.096448e-02
-1.718253e-02
-2.545002e-02
-3.134627e-02
-2.419177e-02
-6.151491e-02
-2.479896e-03
1.395233e-02
-5.745050e-03
-1.241319e-02
3.219578e-02
4.400975e-02
2.308383e-02
1.835331e-02
6.566045e-04
4.699540e-03
3.826852e-03
1.098361e-02
2.034384e-02
-1.033849e-02
1.363887e-02
2.058688e-02
-4.876524e-02
-3.477160e-02
1.200989e-02
-2.285852e-02
1.405540e-02
2.406197e-02
-2.766824e-02
1.220657e-02
-2.006310e-02
9.576155e-03
-6.486215e-02
3.305046e-02
9.848900e-03
-6.965306e-03
-3.794931e-02
-2.397193e-02
4.520719e-02
-2.428483e-02
3.023973e-02
1.933942e-02
1.570031e-02
2.160940e-02
-1.778215e-02
-3.829697e-02
-4.236488e-02
-7.906702e-02
-6.001357e-02
1.456017e-02
2.641703e-02
1.219902e-03
6.189830e-03
-2.853982e-02
3.363789e-02
1.312156e-02
-2.138909e-02
1.907953e-03
-1.141460e-02
1.796325e-02
3.739165e-03
-1.425394e-02
9.995824e-03
5.099030e-03
-2.555722e-02
-9.879389e-03
-2.031611e-02
-6.634304e-03
1.285350e-02
5.433895e-02
1.011329e-02
1.011223e-02
6.058002e-02
-1.204492e-02
-6.170424e-03
-2.099368e-03
-1.293422e-02
-1.230956e-02
-2.165125e-02
3.850469e-03
-8.664626e-03
-6.455462e-03
-3.414617e-02
-2.486927e-02
6.341844e-03
8.274298e-03
-6.135572e-02
3.356559e-03
-3.042495e-03
9.918415e-02
5.592335e-02
-1.242758e-02
-2.269865e-02
-5.049118e-02
2.434222e-02
3.707696e-03
3.013393e-03
1.797655e-03
-1.864841e-02
-1.186783e-02
4.463644e-03
-3.299817e-02
-7.927353e-03
-1.219866e-02
-4.151509e-03
-4.721655e-03
-2.111406e-02
-3.738069e-03
2.186182e-03
1.268969e-04
2.310683e-02
2.998042e-02
5.374176e-03
-3.963245e-03
-1.761136e-02
-1.816226e-02
-1.693148e-02
-1.882437e-02
4.468934e-03
7.125068e-03
7.334709e-03
4.170112e-03
3.249761e-02
-3.256651e-02
4.126260e-02
-3.995724e-02
3.302239e-02
-4.232356e-02
4.117567e-03
9.822306e-03
1.640869e-03
1.524999e-02
1.773417e-02
-1.740477e-02
-5.383131e-03
-5.640109e-03
9.744410e-03
1.552934e-02
3.483966e-02
4.002641e-02
3.042698e-02
1.358887e-02
-1.162616e-02
2.386899e-02
1.261720e-02
9.009218e-03
4.741019e-03
1.396689e-03
-4.146875e-02
-4.637922e-02
-1.460547e-04
4.041069e-02
1.030911e-01
5.805218e-02
-1.781023e-02
-1.357559e-02
1.290562e-02
-4.790938e-03
4.337612e-03
8.219675e-03
-6.595636e-02
-4.498243e-02
-4.460181e-02
-8.675966e-03
-8.358288e-04
-3.359443e-03
-1.435299e-02
1.430821e-02
7.067949e-03
-3.480892e-03
1.799400e-02
-3.784209e-03
-2.245915e-02
-1.593620e-02
2.712689e-02
7.595336e-03
-6.201210e-02
5.270626e-03
-8.305537e-03
2.528610e-02
3.262290e-02
-1.112947e-02
4.657475e-02
1.039105e-02
1.569299e-02
8.722001e-03
1.050233e-02
-1.051428e-02
4.624026e-02
3.246833e-03
-2.164658e-03
7.211331e-02
3.568715e-02
-1.117814e-02
6.294889e-02
2.556130e-02
3.500968e-03
-6.756706e-02
-3.924690e-02
3.370023e-03
2.249016e-02
3.936848e-02
3.496873e-03
-2.754866e-03
-7.532157e-03
1.017340e-03
-1.470939e-03
1.410162e-02
9.864282e-04
-9.987867e-03
-1.172040e-02
-3.510771e-03
4.135573e-02
2.405530e-04
2.647309e-02
-4.034565e-02
1.734826e-04
8.767418e-03
2.643866e-02
5.589502e-04
-1.218359e-05
-1.021777e-05
-7.926516e-06
-5.008452e-06
-4.507893e-06
-4.026306e-06
1.230143e-06
1.161514e-06
4.902277e-07
-1.889473e-05
1.086831e-05
1.077914e-05
-2.225476e-06
1.520893e-05
1.268590e-05
-6.949258e-06
1.913981e-06
6.078956e-06
4.183845e-06
4.087001e-06
3.207751e-06
4.837872e-06
6.658545e-06
5.021125e-06
1.917895e-06
4.097074e-06
4.346844e-06
-2.446471e-06
6.883166e-07
6.751447e-07
-2.589096e-06
-1.140487e-06
-1.441088e-06
-3.055311e-06
-2.463745e-06
-2.388908e-06
1.425336e-06
1.760730e-07
4.730435e-07
2.485347e-06
1.368572e-06
2.697419e-06
3.324244e-06
2.801729e-06
4.441390e-06
1.965108e-05
7.512223e-06
7.133402e-07
1.613370e-05
1.392767e-05
3.609742e-06
-2.592606e-06
1.152282e-05
-2.993903e-06
1.321034e-05
1.162902e-05
9.762955e-06
1.067418e-05
9.374053e-06
8.596725e-06
1.063407e-05
5.950048e-06
5.709481e-06
-1.784826e-05
-3.800990e-06
2.838597e-06
-7.096154e-06
5.113588e-06
6.732917e-06
-2.115155e-05
-1.162414e-05
-6.739308e-06
-2.698795e-05
-4.052019e-06
1.022673e-05
-1.738372e-05
1.716218e-06
6.999958e-06
-3.222849e-05
-1.719389e-05
-1.163249e-05
6.448051e-07
-2.279747e-07
-5.685264e-07
2.618461e-07
7.389169e-07
5.032296e-07
-3.323282e-06
-2.432185e-06
-8.946246e-07
-2.536478e-05
-4.608827e-06
-1.382556e-05
-2.020977e-05
-7.469359e-06
-1.004403e-05
-1.593023e-05
-1.222602e-05
-7.764625e-06
-6.039178e-06
1.136988e-05
1.313289e-05
9.550230e-06
2.011927e-05
2.042476e-05
4.473314e-06
8.869111e-06
1.128794e-05
-1.221953e-05
5.552141e-06
-4.774076e-06
-3.559308e-06
7.100476e-06
-2.016791e-06
5.395100e-06
2.346907e-06
4.087852e-07
1.189607e-05
-4.503642e-06
-2.384038e-05
1.206319e-06
-6.472844e-06
-1.474301e-05
-1.079840e-06
4.642881e-06
-1.087527e-05
4.417327e-06
4.438178e-06
2.801127e-06
5.045546e-06
4.674522e-06
3.521148e-06
4.712794e-06
3.661743e-06
3.697822e-06
-7.064374e-06
-6.287107e-06
-1.111885e-05
-1.147696e-05
-6.573045e-06
-4.549879e-06
-1.252949e-05
-7.829345e-06
-6.729148e-06
1.293470e-02
2.077035e-02
4.613297e-03
2.087768e-02
2.824573e-02
1.529383e-02
3.600888e-02
3.371836e-02
1.964882e-02
1.177460e-02
3.184937e-02
-3.661121e-03
-3.175121e-03
-2.253478e-02
-6.718915e-03
3.316055e-03
-5.732019e-03
-3.057097e-03
-1.158002e-03
1.157480e-02
-7.681196e-03
2.450790e-02
3.386386e-02
1.335771e-02
3.340735e-02
4.203643e-02
9.273059e-03
1.298403e-02
1.348201e-02
1.637467e-02
1.879518e-02
1.355755e-02
1.788100e-02
1.907239e-02
1.440176e-02
1.199346e-02
-1.365217e-02
-6.710569e-03
-4.632975e-03
1.252922e-02
2.230000e-02
1.781043e-02
1.516636e-02
2.519137e-02
1.822185e-02
-2.067385e-03
7.860973e-03
2.056105e-02
-2.002511e-02
3.490154e-02
1.880415e-02
-1.251031e-02
1.972823e-02
1.128711e-03
-2.048704e-02
-1.844411e-02
-3.022471e-02
2.628697e-02
3.424335e-02
1.313074e-02
1.011025e-02
2.315478e-02
-2.912872e-03
1.652193e-02
1.524655e-02
4.442726e-03
1.017984e-02
9.551288e-03
2.032511e-02
-2.744362e-02
-2.454603e-02
-1.922493e-02
2.830439e-02
6.108597e-02
4.174194e-02
8.371904e-04
1.836133e-02
1.446905e-02
-3.586217e-02
-3.111445e-02
-5.304542e-02
-2.268628e-02
-1.808425e-02
-1.852799e-02
-9.704563e-05
2.074914e-03
-4.254949e-03
-1.856273e-02
-5.701727e-03
-1.285090e-02
-2.652445e-02
-9.585063e-03
1.161156e-02
-3.804981e-02
-1.271417e-02
3.251266e-02
4.325259e-03
1.274643e-02
3.585437e-02
2.255839e-02
6.190764e-02
4.425581e-02
3.971390e-03
7.107329e-03
4.241445e-02
9.615347e-03
-1.853005e-02
3.220857e-02
-2.647612e-03
1.783651e-02
-2.418102e-03
2.530399e-02
2.041194e-02
-1.111649e-03
2.393902e-02
6.834859e-03
-1.827024e-02
-1.489000e-02
-1.354840e-02
-1.722854e-03
-2.820974e-03
5.309420e-02
2.731982e-02
1.534704e-02
5.479936e-02
2.584499e-02
-1.666565e-02
-9.984968e-03
-1.358684e-02
3.910858e-03
1.636593e-02
8.445975e-03
1.175029e-03
1.462355e-02
1.158577e-02
1.339576e-02
2.910506e-02
4.604303e-02
-1.128258e-02
2.760907e-03
-2.856277e-03
-3.502570e-02
-2.622489e-02
-3.179509e-02
2.090698e-02
-6.232379e-03
2.348352e-04
8.038739e-03
-1.999941e-02
-1.489642e-02
6.988675e-03
-1.677467e-02
-1.106130e-02
-6.745888e-03
-8.172559e-02
-6.103134e-02
1.028111e-02
-3.787098e-02
-2.800464e-02
-1.692843e-02
1.490047e-02
8.446385e-03
-8.653081e-03
-2.739950e-02
6.990689e-03
-3.499165e-03
-1.993581e-02
-7.051009e-03
4.311751e-04
4.392937e-03
-1.969635e-04
-6.301099e-04
-2.282538e-02
-9.707212e-03
6.019869e-03
-1.111068e-02
-1.169103e-02
1.302130e-02
1.817660e-02
1.232287e-02
1.357905e-02
-4.326777e-04
-4.229320e-03
-4.706483e-03
-1.601981e-02
-1.620668e-02
1.782128e-03
-2.367298e-02
-2.972676e-02
-3.385646e-02
5.495437e-03
-9.502629e-03
-3.560925e-02
2.433176e-02
8.049802e-03
1.746416e-04
-9.836864e-03
6.593037e-03
2.422268e-02
3.208889e-02
2.207547e-02
-5.123499e-03
1.458052e-02
-1.740672e-03
-3.171019e-02
-1.362541e-02
-9.745611e-03
-4.137818e-03
-6.641385e-03
9.054715e-03
-1.229511e-02
-2.116570e-02
-1.414974e-02
2.794528e-03
-1.785401e-02
8.927695e-03
-7.430267e-02
-9.846544e-02
-5.876211e-02
-2.812604e-02
-6.591298e-02
-6.709637e-02
-1.420233e-03
-1.715836e-02
-4.887615e-02
1.985209e-02
8.486889e-03
-6.898521e-04
-3.774628e-02
-5.817426e-02
-6.337164e-02
-2.548605e-02
-3.596672e-02
-3.193285e-02
-1.589751e-02
-3.167272e-02
-2.964471e-03
9.938391e-04
4.458327e-03
-1.147801e-02
-1.471975e-02
1.702373e-02
7.785150e-03
-2.026679e-02
-3.926042e-02
3.929591e-03
3.578889e-02
-1.737871e-02
-2.596348e-02
3.236587e-02
5.136641e-02
1.363618e-02
-9.508004e-03
7.053367e-04
-7.227020e-03
-9.380446e-03
-2.206002e-02
-1.365212e-02
-1.544598e-02
-3.840751e-03
-3.255054e-02
-1.781850e-04
3.242901e-02
1.213452e-02
-5.486700e-02
6.105753e-03
8.890240e-03
-3.595148e-02
-5.065904e-02
-4.089469e-02
2.120444e-02
9.111527e-03
1.017693e-03
1.748962e-02
8.624906e-03
5.639013e-03
1.208340e-03
-1.805715e-02
-1.383675e-02
2.088151e-02
1.905828e-03
-4.595012e-02
1.879232e-02
1.682485e-02
1.137012e-02
1.090232e-02
2.669206e-03
-6.696547e-03
