3.248520e-02
-1.932029e-02
2.835530e-03
-5.875811e-02
-2.157951e-01
1.515012e-01
9.103068e-03
3.328887e-02
1.143695e-02
8.754046e-03
-4.193444e-02
1.271148e-02
-4.658969e-02
-2.081459e-01
1.638982e-01
4.015812e-02
4.447114e-02
5.486615e-03
-3.152129e-02
3.566513e-02
-1.904962e-02
-6.605154e-02
-1.278153e-01
1.214217e-01
-5.639659e-03
3.081107e-02
1.339216e-02
1.015779e-02
-1.801619e-02
-2.813631e-03
1.824840e-02
-6.725789e-02
7.245258e-03
3.895964e-03
-3.453960e-02
6.611707e-03
1.621279e-02
-1.707932e-02
-2.675265e-03
3.371072e-02
-5.844826e-02
9.875743e-03
1.798614e-02
-3.263192e-02
7.517699e-03
8.386571e-03
-5.722189e-03
-3.726664e-03
2.766902e-02
-4.148531e-02
7.916512e-03
1.287349e-02
-2.770210e-02
5.758146e-04
3.773301e-02
-5.277677e-03
1.321047e-02
1.393800e-02
-1.120822e-01
-4.132314e-02
3.208118e-02
-1.055901e-02
1.805780e-02
2.105176e-02
-5.062392e-02
-1.395864e-02
-2.604387e-02
-1.800289e-01
-8.825617e-02
3.638455e-02
-4.852719e-02
-5.043498e-03
1.508176e-02
1.016092e-02
9.152231e-03
-2.883983e-02
-1.188321e-01
-8.492487e-02
2.545502e-02
-3.972273e-02
-2.162272e-02
1.419792e-02
-4.626327e-02
5.759030e-03
-7.588153e-02
-1.960327e-01
-1.063251e-01
-4.014500e-02
-2.203349e-01
-7.864022e-02
3.986050e-03
1.008375e-01
1.403550e-02
3.540882e-02
1.375106e-01
5.780735e-02
1.499689e-02
-2.306857e-02
1.044723e-03
-6.081290e-02
2.033037e-02
-4.912940e-02
2.574924e-02
2.318777e-01
1.005613e-01
4.106338e-02
1.252994e-01
6.291893e-02
-1.669497e-02
-6.095765e-03
-3.579471e-03
-1.546520e-02
-7.675222e-03
-1.892473e-03
-2.122670e-02
-1.551240e-02
-9.379949e-03
1.008926e-02
4.693825e-03
-1.951792e-02
3.000975e-02
1.554616e-02
-1.513060e-02
2.581022e-02
1.624457e-02
-7.831629e-03
-5.058423e-03
-3.717808e-03
-2.245421e-02
2.348389e-02
1.215054e-02
-2.398197e-02
3.207393e-02
2.441883e-02
-1.010359e-02
-6.614289e-02
-8.105189e-02
-1.329385e-02
-1.149330e-01
1.937042e-02
-9.032047e-02
-9.207481e-03
-1.125085e-01
-3.915225e-02
7.947533e-02
1.463106e-01
7.633334e-02
1.077961e-01
3.899101e-01
1.583904e-01
6.617414e-02
1.367676e-01
1.225593e-01
-2.564652e-03
-1.681635e-01
-6.694747e-02
-1.133461e-01
-9.612578e-02
-1.553501e-01
-2.444912e-02
-1.000511e-01
-8.778781e-02
-3.331918e-02
-7.343271e-02
-1.552954e-02
-4.342695e-02
-9.339292e-02
-3.088866e-02
2.271085e-03
-5.118018e-02
-8.966633e-03
1.042050e-02
-2.389732e-02
1.112348e-02
-1.746684e-03
-3.950694e-02
2.432503e-03
2.181041e-02
-2.355388e-02
7.326643e-03
2.262257e-02
-1.717542e-03
1.252768e-02
1.593533e-02
-4.987363e-03
9.275937e-03
3.407740e-02
3.179418e-03
1.353939e-02
-7.493799e-03
-2.146714e-02
-7.405593e-03
9.450575e-03
-5.542100e-02
-4.008998e-03
1.122372e-02
3.272598e-02
1.246600e-02
-1.330025e-02
-3.313389e-02
-1.809068e-02
9.459405e-03
-6.413016e-02
-1.507483e-02
5.810431e-03
2.169247e-02
-4.108378e-03
2.437901e-03
-3.804092e-03
-2.843456e-03
2.107836e-02
-3.818133e-02
-2.735933e-03
1.354603e-02
3.011882e-02
4.980776e-03
-1.388754e-02
-1.209635e-02
7.533435e-03
-2.853050e-02
-2.462068e-02
5.965461e-03
-2.581056e-03
-6.091713e-03
9.425249e-03
-6.093196e-03
-7.524310e-03
1.388704e-03
-1.788324e-02
-1.076105e-02
1.577112e-02
4.434508e-03
7.195089e-03
2.300386e-02
-3.817000e-03
-3.281922e-03
2.960291e-03
-2.371785e-02
-1.240610e-02
1.136524e-02
-4.775810e-03
2.954185e-03
1.747874e-02
-3.581639e-03
-4.567580e-03
4.513456e-03
1.059924e-03
-5.271808e-03
4.190083e-03
5.657936e-03
4.343196e-03
1.309166e-02
-5.398764e-03
-1.108570e-02
-2.369785e-03
-9.789225e-03
-2.302616e-02
-1.346906e-02
-1.132916e-02
-1.790701e-02
-1.187032e-02
9.225803e-03
7.721168e-03
1.457848e-02
-1.053345e-04
-1.096318e-02
-2.441332e-03
-1.425062e-02
-2.212234e-02
-1.751720e-02
-5.468960e-03
-6.883958e-03
-1.217539e-03
-7.514847e-03
-6.145501e-03
1.856421e-03
-1.072606e-02
-8.624701e-03
8.813682e-04
-2.844706e-03
-5.853823e-03
-1.880253e-03
-2.864731e-03
-3.034806e-03
3.082631e-03
-3.809095e-03
-3.114440e-03
4.275894e-03
-3.297398e-03
-5.850465e-03
-2.268050e-03
-5.675211e-03
-5.355415e-03
-1.022505e-04
-7.512447e-03
-7.069026e-03
-5.286465e-05
-6.505865e-02
3.414055e-01
6.726433e-02
4.594909e-02
1.731848e-01
1.695019e-01
-1.149175e-01
-8.232562e-02
-1.621476e-01
-6.457652e-02
-5.187394e-02
-8.503189e-02
-5.507851e-03
-1.884456e-01
2.827860e-02
2.510941e-02
2.614524e-02
3.654402e-02
2.265304e-02
-4.890374e-02
-8.285173e-02
4.403839e-02
-2.193890e-01
-6.902289e-02
5.977463e-02
7.132937e-02
6.730334e-02
3.747759e-02
1.639150e-01
-1.014199e-02
4.103271e-02
-1.604457e-01
-9.188093e-02
3.762756e-02
-2.371273e-02
5.980039e-03
-9.610425e-04
1.549007e-01
2.944759e-02
-2.197432e-02
-1.780262e-01
-6.027609e-02
3.210101e-02
-3.390356e-02
3.570201e-02
-4.327707e-02
1.126458e-01
2.967700e-02
-3.149560e-02
-5.173947e-02
1.297025e-02
1.402855e-04
-1.810962e-02
1.652182e-02
-2.073001e-03
-7.180022e-03
1.187663e-02
-4.167832e-03
-1.275735e-02
1.091998e-02
6.147281e-03
-2.946164e-04
1.896803e-02
-1.148368e-03
-9.700562e-03
6.441930e-03
-6.449160e-03
-1.778134e-02
4.309580e-03
4.059447e-03
-4.733439e-03
1.389351e-02
-1.923059e-03
-9.689547e-03
1.871003e-03
-1.049254e-02
-2.022995e-02
-4.969633e-03
-1.144505e-03
-1.001225e-02
3.255345e-03
-7.674307e-03
6.787134e-03
-7.009146e-03
1.737847e-02
1.716485e-01
3.588901e-02
1.085169e-02
1.058067e-01
2.309115e-02
-5.544871e-02
-7.233901e-02
-6.017521e-02
-1.924965e-02
1.084859e-01
-1.989564e-02
-2.912385e-02
4.481912e-02
-2.329997e-02
3.478725e-02
-4.190012e-03
4.164425e-03
2.467429e-02
1.242723e-01
5.460225e-02
-5.413755e-02
2.460413e-02
1.115862e-02
-3.249295e-02
-7.188387e-02
-6.820405e-02
1.380090e-02
-1.424724e-02
-4.040122e-02
6.116898e-02
9.101333e-02
4.053807e-02
-3.654605e-02
-7.705000e-02
-7.004108e-02
2.745191e-02
5.159040e-03
-1.716409e-02
7.411202e-02
1.154514e-01
7.034399e-02
-1.256099e-02
-5.577191e-02
-5.326336e-02
1.224015e-02
-1.154706e-02
-3.509445e-02
3.121183e-02
6.684893e-02
2.841441e-02
