2.129073e-03
2.966141e-03
1.207513e-02
3.032632e-03
-2.357819e-02
6.949128e-03
3.790943e-02
3.076593e-02
-9.519726e-03
4.300620e-04
-2.593173e-02
5.674744e-03
-2.149382e-02
-2.442541e-02
1.872468e-02
-3.206842e-03
-9.088072e-03
8.949032e-03
-1.091710e-02
-2.897419e-02
1.939869e-02
1.544841e-02
6.011270e-03
2.299871e-03
-1.726729e-02
-4.048479e-02
-5.782132e-02
-1.113488e-02
-1.036409e-02
-1.592173e-02
-2.186321e-02
-1.876556e-02
-4.510799e-04
-3.292723e-02
-1.722014e-02
2.767722e-02
2.804223e-04
-8.305656e-03
-1.709358e-02
2.647754e-02
-8.879568e-03
-1.251092e-02
1.285985e-02
9.319918e-03
-5.300173e-03
-9.084023e-03
-2.254377e-02
-1.400884e-02
-1.712610e-02
-1.875930e-02
-2.509703e-02
-2.966885e-02
-1.748836e-02
-2.833551e-02
-8.892025e-03
-7.488934e-04
1.813038e-02
1.276110e-02
1.555894e-02
3.958188e-02
4.870881e-02
5.042624e-02
1.647224e-02
3.573827e-05
-1.572370e-02
3.591516e-02
-1.603245e-02
-2.798215e-02
-7.590009e-03
1.642451e-02
-1.232177e-02
-9.865412e-03
-3.857085e-03
5.488020e-02
-2.166549e-02
9.390064e-03
4.242292e-02
-1.401221e-03
6.012798e-03
7.177749e-03
-1.288226e-03
-2.339093e-03
-6.775516e-03
-2.269685e-03
2.357001e-03
2.443245e-03
-2.988450e-02
-1.114642e-02
-2.090647e-02
-4.136347e-02
5.347161e-02
-1.898447e-02
-5.874879e-03
4.296142e-03
-1.328641e-02
-1.162995e-02
-1.993842e-03
1.361698e-02
3.149884e-03
-9.470221e-03
1.098865e-02
1.131005e-02
-3.032801e-02
-2.771048e-03
-1.420479e-03
-3.155218e-02
-1.757285e-02
-6.665669e-03
2.396831e-02
1.343067e-02
-1.245370e-02
3.734762e-02
2.443153e-02
-1.458386e-02
1.826494e-02
2.988720e-02
1.226145e-02
1.909876e-03
3.533767e-03
-1.511825e-02
5.557455e-02
3.000466e-02
2.305109e-02
2.875434e-02
-6.858538e-03
3.368450e-03
-1.539753e-02
-6.902562e-03
6.988408e-03
2.591653e-02
2.702160e-02
2.056322e-02
-1.769856e-02
-7.921475e-04
-9.203848e-03
4.298532e-02
9.322221e-02
9.171746e-02
6.812595e-02
1.072463e-01
9.521870e-02
4.699316e-02
9.311213e-02
5.643262e-02
4.233867e-02
-7.842118e-03
-5.082054e-02
4.101401e-02
2.240913e-03
-2.651351e-02
3.301113e-02
-3.673638e-03
-1.339309e-02
1.025133e-02
1.609469e-02
4.329338e-03
-1.962153e-02
-9.419321e-03
1.682013e-02
2.603977e-02
2.641194e-02
2.857650e-02
3.959749e-02
2.809948e-02
1.361278e-02
-8.641117e-03
-3.604820e-03
2.996480e-04
4.383330e-03
3.376903e-03
2.150983e-02
-3.705422e-03
1.324785e-02
-2.405586e-03
2.728413e-02
4.838083e-02
-9.502600e-04
9.284339e-03
1.525647e-02
2.135122e-02
1.214925e-02
2.590550e-03
2.040279e-02
-3.731046e-03
5.281330e-03
1.553312e-02
-2.344532e-02
-1.139893e-02
8.658671e-03
-1.786954e-03
-8.268580e-03
-1.219154e-02
8.495736e-03
-1.517304e-02
-5.199315e-02
2.453962e-02
1.487964e-02
-2.495439e-02
-8.041218e-10
-1.292964e-09
-1.341774e-09
-6.842884e-10
-4.223173e-10
-5.589654e-10
-6.531508e-10
-1.031801e-09
-4.088642e-10
1.074076e-02
-3.744881e-03
-9.714972e-03
1.771474e-02
4.241333e-02
2.900606e-02
-8.312183e-03
2.675455e-02
1.575143e-02
2.177159e-02
1.476989e-02
2.765806e-02
1.781506e-02
5.803996e-03
3.409384e-02
-1.842257e-02
-1.377013e-02
1.255202e-02
-1.031211e-02
-2.280086e-03
1.155540e-03
5.037017e-03
9.261410e-03
-2.561498e-03
-3.956533e-03
-1.204577e-02
-3.510853e-02
2.704351e-05
3.783788e-06
-8.644268e-06
3.644414e-05
2.762941e-05
-3.858659e-06
5.197843e-06
1.669135e-05
7.304762e-06
-1.201259e-02
2.483893e-02
1.731823e-02
-1.365818e-02
1.304421e-02
-2.474235e-02
-3.454321e-02
-1.140148e-02
-3.424617e-02
1.311550e-02
1.326248e-02
9.554210e-03
3.870036e-02
4.808561e-02
2.098915e-02
2.846803e-02
3.091398e-02
1.441310e-02
-4.762660e-04
9.517115e-03
-1.429912e-02
2.122259e-02
2.663792e-02
-1.040463e-02
4.723591e-02
5.594493e-02
1.316927e-02
-6.008746e-03
-1.005728e-02
-4.756604e-02
-7.557737e-03
-1.938951e-02
-3.172201e-02
-2.805241e-02
-2.445340e-02
1.378686e-02
6.056570e-03
1.007747e-02
-3.905777e-03
-6.944973e-03
7.904192e-03
-6.813753e-03
9.517869e-03
5.407412e-03
5.299368e-03
-3.734033e-02
-2.933371e-03
1.248023e-03
-6.785901e-03
4.150906e-02
4.144513e-02
2.819614e-02
6.388094e-02
5.325782e-02
-1.002799e-02
2.815363e-02
2.567405e-02
7.459323e-03
3.492688e-02
-1.729995e-03
-7.255126e-03
1.106065e-02
-3.569561e-02
-2.801904e-02
-3.263232e-03
-2.037336e-02
-2.346466e-02
-3.761075e-02
-3.667586e-02
-1.563369e-02
-1.733064e-02
-3.364630e-02
3.625518e-02
4.065673e-02
1.560168e-02
1.576125e-02
7.233604e-02
4.300618e-02
-2.136428e-02
3.270325e-02
2.673446e-02
1.661872e-03
2.994333e-03
3.280177e-02
5.512689e-05
1.605725e-02
3.360398e-03
8.388025e-03
2.878995e-02
-2.070566e-02
-2.379377e-02
-4.486354e-02
1.634738e-02
6.404493e-03
-1.701180e-02
5.351258e-03
3.112069e-03
-1.121834e-02
-2.267667e-02
3.463321e-03
-3.101834e-02
1.191816e-02
-1.845103e-02
-5.385526e-02
-3.785260e-02
-7.172166e-03
-7.675064e-02
-5.823925e-02
-1.276581e-02
1.929807e-02
-2.672671e-02
3.790659e-02
9.144133e-03
-2.490182e-02
-8.783907e-03
-3.262563e-02
-1.460963e-02
-1.807611e-02
-2.701533e-02
-5.139150e-03
-1.991532e-02
-3.010562e-02
-4.178798e-03
-1.315803e-02
-2.799538e-02
5.524382e-03
3.762517e-02
1.590998e-02
2.418544e-02
1.978046e-02
-6.133400e-03
5.021950e-02
1.668738e-02
-1.440068e-02
-2.888387e-03
-9.829215e-03
3.645221e-02
4.883653e-02
-1.644901e-02
-5.722045e-04
-1.647346e-02
-2.277678e-02
2.734337e-02
1.078307e-02
7.876270e-03
-2.580667e-02
-1.137771e-02
-4.156276e-03
-4.886753e-02
-3.015593e-02
1.687438e-02
-6.427531e-03
-7.292713e-03
-3.158469e-02
-1.495458e-02
-4.074515e-03
-2.006863e-02
2.044056e-02
5.691610e-02
-9.000531e-03
1.556797e-02
2.664855e-02
1.462537e-02
3.331821e-02
1.395364e-02
-1.587969e-02
-2.079360e-02
-4.114093e-03
-2.379469e-02
-2.471425e-02
-1.583176e-03
4.775794e-03
-1.939862e-02
-8.619928e-03
-7.132146e-03
-3.906307e-02
-2.528686e-02
2.635567e-02
-2.367284e-03
-3.677168e-03
3.803993e-02
1.195843e-02
1.799542e-02
-1.123711e-02
-5.405598e-02
-4.264786e-02
-1.332130e-02
-5.593608e-02
-3.226401e-02
-1.680049e-02
-2.311360e-02
-3.743229e-02
-1.557944e-02
-2.717544e-02
-2.639455e-02
1.211881e-02
5.406069e-03
-1.759873e-02
-2.986874e-02
-1.078209e-02
-8.069253e-03
1.178499e-02
7.363150e-03
1.965057e-02
5.940356e-02
3.919385e-02
-3.654791e-02
-8.590543e-03
6.611822e-03
-1.782340e-02
7.810264e-03
1.968095e-02
1.584276e-02
4.150050e-03
1.275153e-02
1.141780e-02
1.112267e-02
-4.889697e-04
4.678090e-02
4.848002e-02
2.478363e-02
3.732476e-02
2.744523e-02
7.112633e-03
-3.179539e-03
4.510691e-02
8.861936e-03
-2.389687e-02
3.851515e-02
-1.038458e-02
-5.002037e-02
4.498812e-03
-1.206126e-02
-1.262818e-02
-6.132850e-03
-8.847998e-03
1.807066e-02
-2.923750e-02
-6.247452e-02
-1.220363e-02
-7.460549e-02
-8.202804e-02
-2.750812e-02
-4.885144e-10
9.750016e-10
1.510495e-09
-9.703195e-11
1.048298e-09
7.068265e-10
9.100062e-10
1.351853e-09
-5.241035e-10
-2.200402e-02
-3.271711e-02
-3.382573e-02
-2.009932e-02
-7.229703e-03
-2.031491e-02
-3.030792e-02
-3.097862e-02
-3.225776e-02
9.255572e-03
-1.069546e-02
-1.998857e-03
-4.690610e-03
-3.721488e-02
-4.643356e-02
-7.364583e-03
-1.379680e-02
-5.441469e-02
2.519297e-02
4.926573e-02
2.264705e-02
9.212213e-03
-1.412090e-02
-1.609133e-02
-3.627453e-03
-9.431831e-03
5.698320e-04
-5.728303e-07
-4.772173e-06
7.191238e-06
1.617404e-05
2.790618e-06
-1.273372e-05
3.119648e-05
3.110921e-06
-2.399588e-05
-1.235605e-02
-1.629614e-02
-1.683612e-02
-4.367852e-04
-4.242238e-02
-3.317608e-02
2.698951e-03
-1.732800e-02
-1.695800e-03
2.819086e-02
1.064054e-02
6.522169e-03
-2.161425e-02
-5.673895e-02
-3.080000e-02
2.379258e-02
-1.403028e-02
-1.495201e-03
2.687561e-02
-2.761565e-02
2.272614e-03
1.603616e-02
-6.087823e-03
2.710378e-03
2.370726e-02
2.282504e-02
3.626470e-03
-3.761339e-02
-3.817039e-02
-1.183569e-02
-3.143438e-02
-3.505337e-02
-2.254002e-04
-3.730908e-02
-6.145568e-03
3.038736e-03
6.299307e-03
9.401693e-04
-1.691622e-03
1.173635e-02
1.393722e-02
-2.342216e-02
2.577088e-02
-1.717166e-03
-3.550361e-02
3.034191e-02
1.597697e-02
7.709703e-03
2.144461e-02
3.387468e-02
2.923759e-02
-5.291843e-02
-2.907590e-02
4.286023e-03
6.273782e-02
1.390286e-02
-3.702081e-02
1.813881e-02
7.861357e-03
-2.925154e-02
-3.498915e-02
-3.882603e-02
-1.179168e-02
-7.607542e-04
1.940003e-02
4.596423e-02
-3.366660e-02
-1.200266e-02
1.587552e-02
-5.342276e-03
2.160638e-02
-3.302393e-03
-6.263737e-02
-5.386692e-02
-4.003127e-02
-7.511633e-03
-1.772103e-02
-1.621383e-03
1.470209e-02
-1.144639e-02
-3.736605e-03
2.937605e-02
-2.373482e-02
-8.261288e-03
-3.132087e-03
-1.984658e-02
-1.637072e-02
-7.499198e-02
-3.792166e-02
-4.350295e-02
8.387558e-03
1.270525e-02
1.405511e-02
3.388135e-03
-3.382809e-03
1.124822e-02
-2.532511e-02
-4.005346e-02
-5.838492e-04
1.948416e-02
-5.551872e-03
1.263496e-02
1.997926e-02
8.879809e-03
1.176241e-02
2.257825e-02
4.657982e-02
-1.212969e-02
6.960456e-03
-3.149997e-02
-1.008386e-02
3.709687e-04
-2.614139e-03
-3.912897e-03
-2.214233e-03
4.588814e-03
6.598254e-03
-1.095837e-02
-1.418333e-02
-2.267149e-02
-3.204256e-02
-1.970446e-02
-3.484537e-02
-1.657310e-02
-1.097578e-02
-2.276915e-02
-2.551932e-02
1.635456e-02
2.082978e-02
-4.763477e-02
-2.232094e-03
-2.795604e-03
-7.790138e-03
6.941011e-03
2.256809e-02
-5.401322e-04
-2.569532e-02
-2.983988e-02
5.016879e-03
-1.461507e-02
-1.982150e-02
4.551379e-03
-9.313481e-03
-1.330330e-03
1.352102e-02
2.185217e-02
2.234637e-02
8.485558e-03
4.653617e-03
-3.817219e-02
-4.318978e-02
-3.121144e-02
-1.968984e-02
-2.083448e-02
7.121015e-03
1.364849e-02
-6.549563e-02
-3.306236e-02
-5.822849e-03
-5.965889e-02
-2.151723e-02
2.427838e-02
-7.659595e-05
3.753031e-02
9.400942e-03
-4.240703e-03
-1.188953e-02
-1.220896e-02
-3.652758e-02
-4.280764e-02
-3.541443e-02
-1.563682e-02
-5.671651e-03
-9.275756e-03
8.915699e-03
1.019713e-03
-1.468812e-02
4.293086e-02
3.494569e-02
1.157571e-02
8.549725e-03
-1.145617e-02
-5.870806e-03
9.823719e-04
-3.205618e-03
1.636128e-02
1.139591e-03
1.940853e-03
1.793217e-02
2.841734e-02
4.702505e-02
2.151358e-02
4.166321e-02
5.285295e-02
1.915963e-03
-2.663171e-03
1.218219e-02
-2.129110e-02
-1.279649e-02
-1.629286e-04
-1.362075e-02
-3.209978e-02
-1.632787e-02
-1.916425e-02
-1.885270e-02
2.279394e-03
-1.504175e-02
-2.914192e-02
-4.338197e-02
-1.757543e-02
-2.029431e-03
-8.812077e-03
-1.083513e-03
-9.630358e-03
9.440637e-03
1.601134e-02
6.162282e-03
-1.062623e-02
-2.100159e-02
-6.494655e-02
-3.994942e-02
-2.931424e-02
-4.444208e-02
-3.645477e-02
1.299946e-03
3.268848e-02
5.147665e-02
4.959356e-02
6.043798e-03
1.658546e-02
1.054800e-02
-3.903548e-02
-1.479478e-02
-2.926446e-02
1.641443e-02
-1.840162e-02
-2.748176e-02
5.916932e-03
-2.118998e-02
-3.986707e-02
-5.160793e-03
-4.497570e-02
-7.323760e-02
-1.887261e-09
-5.764986e-10
-7.875224e-11
-2.744168e-09
4.116843e-11
5.027950e-10
-3.972000e-09
-8.974069e-10
-6.520435e-10
-1.188871e-02
-3.082345e-02
-3.038174e-02
1.012906e-02
-3.528826e-02
-3.248708e-02
1.458879e-02
-1.959333e-02
-2.908290e-02
3.385475e-02
6.040997e-03
-1.581169e-02
2.472633e-03
-3.206855e-03
-2.993913e-02
6.825088e-03
3.215488e-02
1.859786e-02
-3.780590e-02
-3.577885e-02
1.606482e-02
-1.594014e-02
-1.817247e-02
6.215764e-04
-1.553786e-03
2.685873e-03
2.117459e-02
1.074593e-05
-1.510862e-05
-2.034803e-05
-1.513719e-05
-1.544319e-05
-1.247404e-05
-2.538816e-05
-2.410005e-05
-4.376874e-06
-2.030094e-02
-2.842858e-02
1.120738e-02
-3.188247e-02
-3.121207e-02
-2.811794e-03
-3.127283e-02
-2.495540e-02
-9.141098e-03
-2.648085e-02
-2.909084e-02
-1.838853e-02
1.778214e-02
1.689719e-02
2.898825e-02
4.134323e-02
3.454307e-02
5.132529e-02
-1.978009e-02
-2.971465e-02
-4.960707e-02
-1.914608e-02
-2.735564e-02
-4.443324e-02
-3.417972e-02
-1.799842e-02
-1.620138e-02
4.976739e-02
1.058438e-02
-8.653370e-03
1.355774e-02
-9.829882e-04
3.181703e-02
-4.101469e-02
-8.583850e-03
5.634420e-02
-4.695918e-02
-3.726356e-02
-5.006975e-02
-3.424900e-02
-2.242760e-03
5.722593e-03
-2.304717e-02
-5.721511e-03
2.239092e-02
2.758599e-02
1.209775e-02
-4.842035e-03
-1.442469e-02
-2.232075e-02
7.258061e-02
-3.634179e-02
1.531285e-02
5.341309e-02
-3.235370e-02
-2.245917e-02
5.233425e-02
-3.994197e-02
-2.866478e-02
3.156960e-02
-2.673580e-02
-3.579378e-02
-1.410301e-02
1.124277e-02
-1.454105e-03
1.164387e-03
-2.095174e-03
-2.085178e-02
8.953692e-03
-8.288943e-03
-9.710534e-03
-1.002100e-02
-1.919165e-02
-5.389768e-03
-2.602337e-03
-1.713458e-02
-3.413210e-02
9.588414e-03
-2.705405e-02
-3.254144e-02
1.177742e-02
1.437055e-03
-2.468372e-02
7.518680e-03
-2.882207e-02
-4.312245e-02
-1.324050e-02
-5.902395e-03
-3.156710e-02
2.746679e-03
8.669514e-03
3.048237e-02
6.577286e-03
-2.573837e-03
1.368494e-02
-8.406232e-03
-1.512947e-02
6.745552e-03
1.830461e-03
-2.811243e-04
4.450745e-02
1.918647e-02
2.382486e-02
3.994165e-02
2.749476e-02
-1.238714e-03
-2.309266e-02
1.586324e-02
-3.322403e-02
1.470401e-02
5.041623e-02
-3.069275e-02
2.789292e-02
3.919330e-02
-9.883800e-03
2.617507e-02
1.924204e-02
1.733226e-02
1.884294e-02
-2.822012e-04
2.926946e-02
3.927262e-02
4.797588e-04
4.922832e-02
5.856419e-02
2.755224e-02
-1.955178e-02
-2.753875e-02
2.312583e-02
-2.189611e-02
-4.509405e-03
1.460647e-02
-2.416242e-02
-6.096254e-03
6.648231e-03
2.917231e-03
-1.873320e-02
2.272235e-03
-5.815225e-03
-2.206182e-02
-4.606771e-03
-9.315128e-03
-3.425639e-02
-8.182262e-03
1.997549e-02
2.702195e-02
1.208625e-02
2.791490e-04
1.833991e-02
-1.675541e-02
-1.083179e-03
-6.554450e-04
-6.893458e-03
4.792939e-03
-3.655288e-02
2.196810e-03
-2.115627e-02
-3.733432e-02
2.399282e-02
-2.401463e-02
-2.340958e-03
2.113823e-02
2.958490e-02
1.877913e-02
-4.060767e-02
-1.497518e-02
-1.878951e-02
-5.196583e-02
4.220597e-03
-1.513660e-02
-1.348375e-02
1.090791e-02
3.704590e-02
2.364300e-02
1.494815e-02
2.076110e-03
-2.260168e-02
-4.636944e-03
-8.826342e-03
-2.425583e-02
2.119323e-02
3.732761e-02
4.497305e-02
2.324540e-02
2.613899e-02
1.273703e-02
5.909677e-03
-9.197572e-03
-1.784053e-02
-1.177932e-02
-8.406514e-03
-2.864469e-02
-1.606721e-02
-5.575835e-03
-1.918623e-02
-1.877335e-02
-2.394127e-02
1.955887e-03
-6.281576e-03
2.392631e-02
3.002986e-02
7.989736e-03
6.872903e-03
7.107946e-04
-1.550935e-02
-1.354957e-03
-7.639283e-03
1.197825e-02
-2.717279e-02
-1.758213e-02
1.680112e-02
-2.028498e-02
-2.756540e-02
8.783582e-03
1.403242e-03
-1.029029e-02
4.961015e-03
-1.011205e-02
-2.998002e-02
-4.980960e-03
-3.178428e-02
-3.335053e-02
1.706359e-02
-1.886711e-02
-4.399670e-03
3.845817e-03
2.183236e-03
4.129157e-02
6.597961e-03
-1.273230e-04
7.550282e-03
-1.258147e-02
-1.261134e-02
-1.287881e-02
4.063236e-02
-1.394108e-02
-3.329116e-02
2.999570e-02
-1.721889e-02
-4.123889e-02
3.603126e-02
-3.495551e-02
-5.781146e-02
1.306935e-09
-4.339655e-10
-1.023448e-09
2.343395e-10
-1.081089e-09
-2.648672e-09
-5.315830e-11
-1.526782e-09
-9.777086e-10
-2.834520e-03
3.791091e-03
2.887903e-02
1.642496e-03
-9.743768e-03
-9.811792e-03
-1.570058e-02
-1.065226e-02
-4.734796e-03
2.697152e-03
-9.795087e-03
-2.277450e-02
2.519369e-02
2.635747e-02
2.587635e-03
4.442937e-02
2.399393e-02
2.854718e-02
-1.658757e-02
-1.667238e-02
-1.957883e-03
-1.074092e-02
-2.889550e-02
-1.695450e-02
-1.824907e-02
-1.213784e-02
-2.237550e-02
-1.393351e-06
1.602437e-05
-2.725516e-07
2.350140e-06
6.908273e-06
-1.637746e-05
-8.609918e-06
-1.062039e-05
-2.162125e-05
1.598945e-02
1.142187e-02
-2.895535e-04
3.836964e-02
2.060903e-02
-2.933991e-03
5.430878e-03
4.644096e-03
-2.270756e-03
3.892273e-02
5.284540e-02
1.702506e-02
-2.365720e-02
-1.213400e-02
-3.090623e-02
-3.826847e-02
-2.365053e-02
-3.801663e-02
2.123413e-02
3.413404e-02
7.721193e-04
2.296731e-02
2.575283e-02
1.291785e-02
1.851890e-02
1.618627e-02
-9.750785e-03
-9.571820e-03
-1.082745e-02
1.189506e-02
-1.475748e-02
-5.963934e-03
1.426929e-02
-2.202323e-02
-9.985366e-03
3.100938e-02
-3.152660e-02
-4.617125e-03
1.832217e-03
-1.322642e-02
3.261618e-03
5.930793e-03
-1.680652e-02
-5.536263e-03
-2.082176e-03
2.982103e-03
-1.820229e-02
-3.598168e-02
-7.920729e-03
-7.407742e-03
-1.345537e-03
-5.433147e-02
-3.409707e-02
1.259101e-02
-8.146605e-03
-1.494082e-02
1.674135e-02
4.880988e-03
3.893686e-03
-3.265945e-02
-1.569691e-02
1.141773e-02
-4.794221e-02
-5.763793e-02
-3.454449e-02
-3.259460e-02
-2.909249e-02
-2.204625e-02
2.340493e-03
4.386675e-03
-1.052305e-02
2.888556e-02
-2.296916e-02
-7.797311e-04
-7.988895e-03
-3.992606e-02
-2.547441e-02
2.433528e-02
-3.917082e-03
-2.846174e-02
1.872823e-02
-2.541799e-02
3.011702e-02
5.617215e-02
-3.568260e-02
-2.634442e-02
2.442892e-02
-1.403972e-02
-2.474947e-02
-1.582014e-02
-1.294947e-02
-3.441727e-02
-1.590396e-02
2.507966e-02
-2.269790e-02
-2.447209e-02
5.451919e-02
7.349380e-02
1.352628e-02
4.459030e-02
-3.244786e-02
-4.503659e-02
2.777638e-02
-1.975729e-02
-2.922527e-02
-1.243128e-02
-1.391550e-02
-3.785395e-02
-3.980387e-03
6.858734e-03
-2.311503e-02
-1.543419e-02
-3.439911e-02
1.878605e-02
-5.274047e-02
-4.280823e-02
4.001174e-02
4.950328e-03
8.926123e-03
-2.131606e-02
1.122894e-03
-4.418864e-03
1.705906e-02
1.461500e-02
1.570031e-02
3.943003e-02
-1.386924e-02
-7.074212e-02
-4.686302e-02
3.297210e-03
-8.259606e-03
-4.195823e-02
8.530346e-03
7.335660e-02
-1.045266e-02
-2.992869e-02
-4.143662e-02
-8.276112e-03
-5.762896e-02
-1.833864e-02
5.798430e-02
1.434851e-02
2.343105e-02
5.066790e-02
-2.065381e-02
-2.367861e-02
-3.157708e-02
2.882440e-02
3.334248e-02
-1.819125e-02
2.557194e-02
3.491512e-02
1.041491e-02
6.646430e-03
6.382331e-03
2.456438e-02
5.307756e-02
2.047958e-02
5.378928e-02
3.117102e-02
-5.847145e-03
-1.058500e-02
8.042770e-03
2.634165e-03
1.190646e-02
4.691020e-02
3.813450e-02
-9.813169e-04
7.140274e-02
6.568779e-02
4.451991e-02
1.327335e-02
2.101054e-02
4.148353e-02
-2.000360e-03
4.360987e-03
1.970165e-02
2.437273e-02
1.384850e-02
1.368681e-02
-2.387208e-02
2.258581e-02
3.173135e-02
1.416534e-02
2.152771e-02
6.369250e-03
-2.167345e-02
-2.432299e-02
-2.818042e-02
-3.165555e-02
-1.900236e-02
-2.744464e-02
9.652377e-03
8.847505e-03
-2.479848e-03
2.211098e-02
2.951129e-02
3.900224e-02
5.387703e-02
3.934057e-02
4.318593e-04
3.616810e-02
1.628548e-02
-2.866821e-02
-2.246638e-03
-1.056963e-02
-2.981205e-02
2.204239e-02
5.767360e-02
4.243486e-02
6.330065e-02
5.834185e-02
1.315325e-01
9.839596e-02
1.242669e-01
1.323155e-01
-7.783884e-03
2.342426e-02
4.627037e-02
3.803147e-02
-9.772037e-03
4.756341e-03
6.018183e-02
-1.249037e-02
-9.578537e-03
-3.932428e-02
-3.855050e-02
-7.141789e-03
-2.528894e-02
-1.872373e-02
-2.649223e-02
2.143920e-02
6.059632e-02
8.083121e-03
2.162393e-02
1.375355e-02
-1.406425e-02
7.042726e-02
1.000690e-02
-3.904770e-02
4.501056e-02
-1.344234e-02
-5.578068e-02
1.361844e-10
-2.455689e-09
-2.737298e-09
2.556351e-09
-3.794254e-10
-5.609626e-10
1.029375e-09
-8.885636e-10
-1.288006e-09
1.482039e-02
-7.272806e-03
-3.018917e-02
1.453226e-03
-1.097235e-02
-2.835240e-02
3.388927e-03
2.434074e-02
-1.312915e-02
-1.995999e-03
-5.055309e-03
1.032188e-02
2.268291e-02
-5.278130e-02
-8.787601e-03
1.448984e-02
-2.922808e-02
5.596076e-03
1.166025e-01
6.755856e-02
-5.338145e-02
1.811421e-01
1.897120e-01
-3.217725e-02
1.043055e-01
1.372547e-01
6.032314e-02
1.215538e-05
-3.040949e-05
-6.458917e-05
-2.593708e-06
-2.903981e-05
-3.443077e-05
3.761009e-05
2.063374e-05
2.256227e-06
-2.761008e-02
-3.220118e-02
-2.148474e-02
-1.267974e-02
-3.080985e-02
-2.288317e-02
3.348571e-02
2.536364e-02
-6.721639e-03
1.673378e-02
1.608104e-02
-4.392424e-02
3.100131e-02
1.782140e-02
-3.166034e-02
-1.241835e-02
-1.091185e-02
-1.922593e-02
-4.815166e-03
2.481673e-02
4.800087e-03
-1.620699e-02
4.310656e-02
4.692728e-02
-3.767912e-02
-4.431387e-03
6.017743e-02
-1.147962e-02
-1.897185e-02
1.487801e-03
1.189607e-02
-8.908186e-03
-2.935444e-02
1.739775e-02
1.771103e-02
1.693139e-02
-7.251860e-03
-1.483587e-04
-7.340551e-03
2.465267e-02
5.102955e-03
9.395582e-04
6.027314e-04
-8.236486e-03
-7.157417e-04
2.442660e-03
-1.255492e-02
9.315873e-04
-6.240254e-05
5.959460e-03
4.156887e-02
-6.010321e-04
3.754435e-02
7.287183e-02
-1.276599e-02
-5.786681e-02
-2.605530e-02
-1.648857e-02
-3.680419e-02
-5.166803e-02
2.249359e-02
4.356117e-02
-3.787174e-03
-9.751853e-03
-6.237675e-03
-3.873048e-02
6.194413e-03
4.024919e-03
-1.270747e-02
7.552339e-04
-7.642153e-03
7.818315e-05
3.571043e-02
4.643780e-02
2.312674e-02
-9.717818e-03
1.516651e-02
3.731462e-02
-2.392542e-02
5.759879e-03
3.833165e-02
-2.051358e-02
-4.100863e-03
-4.789515e-03
-8.262497e-03
-3.106150e-02
2.718905e-02
5.875909e-03
-1.049265e-02
3.238603e-02
1.974733e-02
7.121314e-03
8.115969e-03
1.215274e-02
-7.272224e-03
7.451278e-03
2.366067e-03
-1.716553e-02
-6.239817e-03
8.346327e-03
1.818605e-02
1.365786e-03
1.050838e-02
1.392052e-03
-1.463962e-02
1.931870e-02
2.117959e-02
-7.340303e-03
4.338411e-02
4.297786e-02
4.773730e-02
8.697691e-03
1.120826e-02
1.592616e-02
2.253105e-03
1.535224e-02
-5.146275e-03
-2.005759e-02
2.035748e-03
9.787582e-03
-1.370555e-02
-8.670058e-03
4.419503e-03
2.729761e-04
8.993141e-03
1.576262e-02
-5.041554e-03
-1.348018e-02
3.221913e-04
-4.737940e-02
-2.653320e-02
-2.641496e-02
-2.314512e-02
-2.130277e-02
-1.540859e-02
3.129271e-02
-4.953685e-03
-1.951326e-02
1.328322e-02
5.009483e-02
3.038351e-02
-1.301481e-02
3.461085e-02
4.596788e-02
-2.326683e-02
-3.321723e-02
-3.894436e-02
-1.435243e-02
-2.166168e-02
-3.825450e-02
2.398846e-02
7.109092e-03
-2.746477e-02
-2.819697e-02
-4.062144e-03
-9.232341e-03
-1.735885e-02
3.597530e-03
1.600606e-02
-4.635269e-03
-1.560692e-03
2.069973e-03
3.695736e-02
1.116298e-02
8.076536e-04
3.617438e-02
9.601116e-03
5.734535e-03
9.694473e-03
2.645745e-02
2.346261e-02
7.547084e-04
-1.662220e-02
-3.538782e-02
4.049358e-03
-2.800973e-02
-5.646325e-02
1.895948e-02
-9.787600e-03
-4.173906e-02
1.588522e-02
-2.789907e-02
-1.843323e-02
-3.216505e-03
-2.635966e-02
-2.868103e-02
-1.991515e-02
-1.149615e-02
-2.538889e-02
-2.941088e-03
-7.800992e-03
2.601412e-02
4.382761e-03
3.004245e-04
2.964501e-02
1.713371e-02
2.473913e-02
4.110578e-02
6.160003e-03
-4.125031e-02
-3.795756e-02
2.390165e-02
-6.136118e-03
-2.056995e-02
3.583290e-02
3.349869e-02
2.433242e-02
-1.152208e-02
-1.202108e-02
-1.125052e-02
-3.017323e-02
-1.293516e-02
1.324852e-02
1.392489e-02
3.980074e-03
6.405167e-03
-1.111775e-02
1.372861e-02
8.570183e-03
-2.776777e-02
2.000806e-02
4.421501e-03
-4.460591e-02
-2.975901e-02
-1.083511e-02
-1.600948e-02
-1.719845e-02
3.116273e-03
5.047434e-03
-1.483257e-02
5.080788e-03
4.694940e-02
3.131513e-02
2.806871e-02
-2.406665e-02
-1.036842e-02
-3.565478e-03
4.713262e-03
-8.659697e-03
1.408392e-03
-4.382388e-03
-2.365675e-02
1.287529e-02
-1.312452e-09
-1.928158e-11
-4.700906e-10
1.913317e-10
6.075552e-10
-1.039753e-09
1.713882e-09
1.545559e-09
1.017005e-09
1.322877e-02
1.254303e-03
-2.247637e-02
1.510132e-02
1.832665e-02
-1.101963e-03
-1.166677e-02
3.682104e-03
2.145434e-02
-1.684425e-02
-3.422673e-03
2.181146e-02
-1.233936e-02
-9.269181e-03
2.211710e-03
7.888431e-03
-1.353218e-02
-9.287721e-03
3.127082e-02
1.416917e-02
1.359640e-02
2.319868e-02
-1.269735e-02
1.505466e-02
-1.294256e-02
-2.962805e-02
-2.021896e-02
-9.611636e-06
8.741619e-07
6.448559e-06
1.538597e-05
-4.060055e-08
-9.926916e-06
2.333358e-05
1.048908e-05
-3.691322e-06
-2.893463e-02
-1.828227e-02
1.062260e-02
1.267701e-03
-2.837099e-02
-1.588934e-02
9.375634e-03
-1.858118e-02
-4.540885e-02
-2.462919e-02
-3.255318e-02
-3.805704e-03
4.918376e-03
-3.958524e-02
-5.348139e-02
2.126595e-02
5.828821e-03
-4.147702e-02
-2.078950e-02
7.356225e-03
1.598995e-02
1.430434e-04
4.476757e-02
3.001872e-02
-2.287394e-02
4.179797e-02
3.861484e-02
-3.577474e-02
-1.972074e-02
9.436114e-03
-5.603454e-03
-1.697949e-02
-4.330144e-03
2.236517e-02
-1.684407e-02
-1.067659e-02
-3.060398e-02
4.450051e-03
2.051468e-03
-6.514319e-03
-1.230979e-02
-1.849487e-02
1.168383e-02
5.570327e-03
-1.228875e-02
2.537486e-02
4.932671e-02
4.658034e-02
3.526916e-02
3.918127e-02
-1.259230e-03
2.783735e-02
-3.950287e-03
4.867619e-04
-1.695477e-03
-9.258158e-04
-1.083383e-02
-1.087181e-02
-1.501197e-02
-3.072879e-02
1.442576e-02
1.573827e-02
-1.429391e-02
-1.068977e-02
-2.569332e-02
-1.652915e-02
9.438731e-03
-2.341242e-02
-2.821257e-02
-6.021748e-03
-2.321576e-02
-1.469561e-02
1.795457e-02
1.564495e-02
-5.251041e-04
4.214329e-02
2.354188e-02
-4.676487e-02
5.291807e-02
2.100528e-02
-2.460405e-02
-1.233226e-02
2.022065e-02
1.957717e-02
-1.486864e-02
2.956867e-03
2.865592e-02
-6.457876e-03
4.939582e-02
4.487268e-02
-2.300754e-02
-1.867559e-02
-7.530148e-03
-2.942170e-02
-2.124950e-02
-6.578828e-04
1.069964e-02
5.598713e-03
1.475472e-02
-2.104483e-02
-1.647403e-02
-8.010279e-03
3.395830e-02
1.070341e-03
4.635288e-03
5.064596e-02
7.746744e-03
1.406135e-02
3.964431e-03
-9.943957e-03
-5.158456e-02
-3.849596e-03
-1.335804e-02
-1.685965e-03
1.212456e-02
5.592597e-03
2.455739e-02
3.067845e-02
2.124314e-02
3.725211e-03
-1.244617e-02
-1.603595e-02
7.855166e-03
-6.374515e-03
-1.300377e-02
-4.659705e-03
-4.191301e-02
-2.961265e-02
1.390480e-02
-2.003865e-02
-4.237457e-02
-4.917285e-03
8.219711e-03
-2.058585e-02
-6.749269e-04
-2.569963e-02
8.080507e-03
4.527896e-03
-1.474249e-02
-1.874122e-02
1.240745e-02
-1.102166e-02
-1.404986e-02
2.217111e-02
-1.162598e-02
-1.581426e-03
1.469740e-02
-1.838442e-02
2.260320e-02
3.959554e-02
-3.517201e-02
-2.327994e-03
1.543954e-02
3.879937e-02
2.461446e-03
-4.761174e-02
3.775569e-02
-2.301545e-02
-4.121031e-02
4.681201e-03
-3.534924e-02
-4.774594e-03
1.098344e-02
1.745741e-02
1.807165e-02
-6.875639e-03
1.686506e-02
-2.817455e-02
-2.632296e-02
-1.824601e-02
-3.269778e-02
-9.665663e-03
1.811785e-04
-3.831135e-04
-1.464672e-02
4.104338e-03
1.925004e-02
-1.361198e-02
7.276320e-03
2.187060e-02
1.018002e-02
-9.200384e-03
-2.219220e-03
-3.024850e-02
-3.502403e-02
-3.951252e-02
-2.281191e-02
-3.386873e-02
-3.838623e-02
1.814827e-03
1.338765e-02
-1.566587e-02
2.727750e-03
1.011210e-02
-2.837196e-02
2.824285e-02
1.365339e-02
-1.733176e-02
2.970032e-02
1.340328e-02
-3.386846e-03
3.087342e-02
2.002274e-02
-1.926304e-04
2.379728e-02
1.965068e-03
-8.349800e-03
2.241734e-02
2.804881e-02
1.774850e-02
9.643462e-03
-1.214833e-02
-8.999039e-03
1.385532e-02
-1.355323e-02
-3.657129e-03
-2.818658e-02
6.160337e-03
5.921709e-02
-8.469277e-03
-4.106725e-02
8.400138e-03
1.987600e-02
-2.436839e-02
-9.243405e-03
-1.596254e-02
-5.517847e-02
-7.651305e-02
-1.967477e-02
-4.417917e-02
-6.417630e-02
1.053121e-02
3.786925e-03
-1.388316e-02
-2.397908e-02
2.712216e-02
1.657321e-02
-4.536738e-02
1.033708e-02
4.555394e-02
-1.996676e-02
-2.244452e-02
5.004449e-03
-2.850029e-10
-2.755645e-10
-7.299438e-11
-6.390088e-10
-1.111205e-09
3.603940e-10
-3.072791e-10
3.731191e-10
9.554467e-10
-8.114019e-04
3.009985e-02
2.436794e-02
1.604681e-02
9.720910e-03
1.592878e-02
2.241416e-03
-1.641893e-03
-3.876578e-02
-1.859979e-03
-1.962547e-02
-8.069682e-03
1.656355e-02
3.001022e-03
1.110618e-02
-3.005051e-03
-1.358449e-02
-1.514910e-02
3.103039e-02
-3.067173e-04
-1.135550e-02
6.172783e-03
2.760913e-03
-2.275778e-02
-3.245067e-03
-2.386148e-02
-8.920207e-03
-4.997028e-07
1.206191e-05
2.148536e-05
-1.174553e-05
-2.524508e-06
3.630264e-05
-1.394606e-05
-2.581961e-06
3.124649e-05
-2.599295e-02
-4.056665e-02
-6.588096e-02
3.301994e-03
1.072975e-02
9.351304e-05
1.689109e-02
5.532976e-02
4.015028e-02
-2.393444e-02
-7.338300e-03
-5.715864e-03
-2.694493e-02
1.270983e-02
-8.033855e-03
-2.710413e-02
1.697098e-02
1.541857e-02
-2.306748e-02
-1.142028e-02
7.086284e-03
3.129376e-03
-9.444778e-03
1.146983e-02
2.269595e-02
-2.671587e-03
6.446664e-03
-2.785644e-02
2.623599e-04
1.624943e-02
3.045393e-03
-1.355347e-02
-5.287183e-03
7.055520e-03
-1.734191e-02
-2.471662e-02
-1.239666e-03
-7.447316e-03
-1.844535e-02
4.357667e-03
2.077899e-03
4.300626e-03
-8.769644e-03
1.307591e-02
4.967370e-02
-3.308921e-02
-3.278993e-03
3.798688e-03
-4.219762e-02
1.416144e-02
3.142813e-03
-4.566472e-02
1.875035e-02
-1.480117e-02
-1.042679e-02
2.898967e-03
-8.316894e-02
-1.588951e-02
-4.143137e-02
-3.643899e-02
-2.189765e-02
-3.262620e-02
3.739381e-02
-7.840290e-03
3.891167e-03
-3.476256e-03
-3.696085e-03
-8.329482e-03
-9.100350e-03
-2.276728e-02
-3.721192e-02
-2.176211e-02
2.387167e-02
1.436726e-02
-8.741954e-03
1.257651e-04
-3.981172e-02
-2.773208e-02
-2.132821e-02
-1.904557e-02
1.591251e-02
-2.389598e-02
1.283727e-02
1.597361e-02
-1.414274e-02
-1.616240e-02
-2.784211e-02
-2.219230e-02
-5.366379e-02
-3.326107e-02
-5.647781e-03
5.654471e-03
4.920302e-03
-2.930944e-02
-1.331984e-02
-4.050180e-02
-1.168678e-02
-1.545697e-02
-2.858884e-02
3.664854e-02
5.557705e-02
-4.709930e-02
1.055065e-02
1.322614e-02
-9.644160e-03
-1.393967e-02
-1.655343e-02
-1.111089e-02
-4.350386e-02
-3.995219e-02
1.083527e-01
-6.894020e-02
4.303364e-02
1.482285e-01
-6.195535e-02
-1.568103e-02
1.012878e-02
2.099168e-03
-1.187401e-02
-4.577276e-02
4.568252e-02
3.306415e-02
-2.699883e-02
-6.037385e-03
-1.471543e-02
1.051932e-02
4.309569e-03
9.404462e-02
4.506947e-02
3.202038e-02
7.062253e-02
3.989762e-02
3.864547e-03
-2.979330e-02
-8.893295e-02
4.231656e-02
-1.135684e-02
-4.807130e-02
3.582900e-02
-2.978988e-02
-7.286404e-02
9.012880e-03
-7.785736e-02
-3.928128e-02
-3.877563e-02
-1.951177e-02
-1.246184e-02
-2.410209e-03
2.477520e-03
-6.910291e-03
1.241198e-02
4.016161e-03
-3.187675e-03
-5.682904e-02
-3.454758e-02
1.800761e-02
1.747669e-02
5.887494e-03
3.781917e-02
-3.327068e-02
-3.126792e-02
-6.623007e-03
-2.468152e-02
-3.251468e-02
-4.081731e-02
-3.967976e-02
-5.051559e-02
-5.129040e-02
-1.303897e-02
-4.838815e-02
1.028003e-02
2.525100e-02
8.321603e-03
3.211637e-03
-1.287136e-02
-8.030592e-03
-9.610533e-04
-2.764001e-02
-2.906272e-03
1.222671e-02
1.922361e-02
-1.974330e-02
-1.103568e-02
2.980100e-02
-3.687990e-03
2.007160e-02
5.221104e-02
2.149155e-02
1.987221e-02
-2.435293e-02
-3.597960e-02
-2.692254e-02
-4.631779e-02
-4.295706e-02
-4.912808e-02
-4.724651e-02
-2.826738e-02
5.001271e-03
5.025008e-02
2.698761e-02
9.223547e-03
5.188651e-02
3.391394e-02
-1.066887e-02
8.609202e-03
1.964192e-02
1.816854e-02
-8.009869e-03
2.591436e-02
2.367209e-02
4.387103e-03
-1.195415e-03
4.792057e-03
1.439310e-02
-5.444314e-03
1.058131e-02
4.725385e-03
-9.793815e-03
-4.936650e-02
-2.490797e-02
-7.054327e-02
-2.580199e-02
-2.695300e-02
-6.574701e-02
-2.339028e-02
-3.876917e-02
-3.670551e-02
-6.380281e-02
-3.325441e-02
-3.114438e-02
-1.674183e-02
2.203056e-02
3.926701e-02
7.649402e-02
-9.348491e-03
-2.862447e-03
-2.077504e-02
-4.249605e-02
-4.310906e-02
-2.058237e-02
-1.362962e-02
-4.187323e-03
-2.077268e-03
-2.221074e-10
1.346377e-09
1.737768e-09
6.573549e-10
5.117750e-10
3.019470e-10
-5.994144e-10
-1.805218e-09
-2.716828e-09
-9.808147e-04
2.087807e-02
5.129668e-02
-1.011831e-03
1.821265e-02
9.016839e-02
-2.398968e-02
4.677053e-02
4.376315e-02
-2.528875e-02
-3.051590e-02
-1.019272e-02
-5.752673e-02
-2.404802e-02
-6.193192e-03
-4.054333e-02
-3.087813e-02
-1.584514e-03
5.213720e-02
3.282984e-02
2.259477e-02
1.771590e-02
4.755854e-02
-4.881228e-03
1.897228e-02
1.969582e-02
-1.941631e-03
1.296381e-05
3.009070e-05
2.026012e-05
-2.110858e-05
-9.207405e-06
7.332378e-06
-2.098791e-05
-2.078349e-05
-1.157813e-05
6.355296e-02
-1.726183e-02
-3.312521e-02
3.792055e-02
-2.727048e-02
-2.867334e-02
-5.097872e-02
-4.684395e-02
1.084442e-03
6.231210e-02
5.381957e-03
-4.115539e-03
5.683089e-02
1.744300e-02
9.073303e-03
-1.694175e-02
-2.265469e-02
1.396870e-02
-2.983654e-02
2.835357e-02
2.068881e-03
1.786389e-04
2.028666e-02
1.931881e-02
3.286683e-02
1.225349e-02
3.535536e-02
7.739213e-03
-2.365516e-02
6.499068e-02
4.576284e-02
4.763276e-02
4.033565e-02
3.762046e-02
2.110633e-02
2.763653e-02
4.499288e-02
4.715883e-02
3.571813e-02
6.924754e-03
2.298441e-02
1.259713e-02
-1.334972e-02
-2.120107e-02
2.654859e-03
-9.963105e-03
6.937227e-02
-2.813291e-02
4.759878e-02
7.477114e-02
3.414566e-02
6.960567e-03
-5.020644e-02
-3.957540e-02
1.706063e-02
7.358595e-02
-2.867371e-02
3.907150e-02
2.188731e-02
-4.145829e-02
-1.060898e-02
-1.008213e-02
7.807273e-03
1.427364e-02
7.395362e-03
-1.330663e-02
-1.544977e-02
1.432867e-02
3.411040e-02
1.582125e-02
2.326618e-02
-4.054429e-02
9.432263e-03
-1.747476e-02
1.823048e-03
2.516820e-02
4.715342e-03
-1.104404e-02
4.387837e-02
9.129317e-03
2.636542e-02
-7.346380e-03
3.602872e-02
4.974062e-02
4.539313e-02
4.379318e-02
1.195438e-02
-1.536192e-02
-1.565584e-02
1.657867e-02
2.453665e-02
-9.241894e-03
-1.644239e-02
-6.683519e-03
-3.547631e-02
-1.369010e-02
3.967718e-02
3.063998e-02
2.500156e-02
-4.758599e-04
1.500827e-02
1.451431e-02
-2.523964e-03
6.176590e-03
1.065616e-02
1.464564e-03
6.068880e-02
2.549233e-02
2.720106e-02
6.746858e-02
2.413641e-02
2.103572e-02
6.502160e-02
3.856709e-02
-3.743814e-02
2.027540e-02
1.091771e-02
-4.419408e-02
-2.131267e-02
-3.783522e-03
-6.210461e-02
-2.552856e-03
-2.458037e-02
2.524379e-03
1.988181e-02
-4.948971e-03
-2.247026e-03
-6.600718e-03
-2.250456e-02
-2.035666e-02
-3.468559e-02
-1.106266e-02
1.519392e-02
-2.579335e-02
-1.335259e-03
-1.858743e-03
6.543825e-03
-5.802174e-03
-2.236333e-02
-2.089778e-02
-2.695010e-02
-3.944800e-02
2.074372e-02
-2.677483e-02
-3.903832e-02
-1.377283e-02
4.992048e-02
-4.430305e-02
-3.590253e-02
2.095473e-02
-3.994497e-02
-1.005807e-03
7.357983e-02
-3.106889e-02
1.124668e-01
3.182390e-02
6.269984e-02
1.009236e-01
8.637045e-02
2.174889e-02
-5.603637e-02
-9.936962e-02
-4.582901e-02
-2.895881e-02
1.424589e-02
5.094905e-02
1.333756e-02
6.573566e-02
3.975359e-02
1.275163e-02
1.427044e-02
2.988483e-02
-1.605620e-03
-6.532639e-03
-9.397196e-03
-2.322880e-02
1.317453e-03
-9.690935e-03
-2.160880e-02
7.613530e-03
-1.090008e-03
-1.682304e-02
-4.952686e-03
-2.420972e-02
-5.306956e-02
-5.204508e-03
-2.506297e-02
-2.884771e-02
-2.447353e-03
-5.716742e-02
-4.538867e-02
3.935221e-03
-4.582882e-02
2.008656e-02
3.264466e-02
-3.320114e-02
2.142514e-02
1.906060e-02
-4.102872e-02
-3.594059e-02
-6.034238e-02
2.498963e-02
5.352046e-02
-5.324462e-02
3.883821e-02
-3.439928e-02
-5.302287e-02
-1.207657e-02
-1.174639e-03
1.144306e-02
7.670755e-03
5.718804e-02
-4.232335e-02
-2.164745e-02
1.017423e-02
-2.375681e-02
7.177326e-03
-3.484724e-02
-1.198164e-02
-1.520155e-02
-3.291187e-02
-2.548483e-02
1.304567e-02
1.181521e-03
-1.918551e-02
3.683797e-02
8.034053e-04
-5.447775e-02
-1.873888e-02
-5.481655e-02
-4.325847e-02
-1.279896e-02
-1.417971e-02
2.825883e-02
2.804580e-02
-1.590499e-02
-1.353926e-02
-1.870877e-02
-5.232077e-02
-1.082024e-02
-2.455352e-02
-5.648267e-02
-1.986142e-02
-4.064065e-09
-2.512118e-09
-4.005284e-09
-1.802196e-09
-1.770224e-09
-2.995411e-09
-2.884479e-09
-1.238975e-09
-1.559944e-09
6.215411e-03
-3.522434e-03
-1.072176e-02
-6.652920e-03
5.645297e-02
6.757259e-02
-3.780690e-02
7.433218e-02
-5.170916e-02
6.547131e-02
-6.879905e-03
-5.798218e-03
-1.966334e-02
-6.306497e-02
-3.988372e-02
-5.890557e-02
-2.829671e-02
5.970625e-03
3.081731e-02
5.282738e-03
5.946819e-02
2.579441e-02
3.539152e-02
6.804539e-02
-3.104009e-03
-6.839506e-04
-4.346341e-03
9.572814e-07
-2.076734e-06
-5.047301e-05
3.238159e-05
1.257936e-05
-3.270949e-05
-4.180078e-05
-5.232514e-05
-4.868636e-05
8.467439e-03
-1.442110e-02
6.511236e-03
2.767080e-03
-7.697615e-03
1.446023e-02
-5.916795e-03
1.967873e-02
4.707622e-02
3.322391e-03
-2.887361e-02
-1.805805e-02
-9.285690e-03
-4.995080e-02
3.770603e-03
1.654476e-02
-1.005920e-04
3.146415e-02
-2.350849e-02
3.718439e-03
3.219809e-03
1.049044e-02
1.723307e-02
4.289905e-03
-3.937527e-03
-1.920926e-02
-2.090176e-02
-2.926418e-02
2.609309e-02
6.033385e-02
-1.922930e-02
3.320961e-02
3.346554e-03
5.788520e-03
-2.154883e-02
-5.002910e-02
7.294875e-02
-1.193512e-02
-8.914445e-02
-1.909553e-03
-4.329904e-03
-5.540368e-02
-1.497635e-02
-6.501104e-02
-6.098584e-02
1.566380e-03
-2.011550e-02
-4.031599e-02
3.201970e-02
-1.228409e-02
-1.248694e-03
1.642608e-02
1.273389e-02
3.583808e-02
-6.511247e-02
6.198438e-02
7.897897e-04
-6.619436e-03
6.232867e-02
-1.405627e-02
2.773139e-02
6.338703e-02
-4.011338e-02
2.189467e-02
3.055324e-02
8.435730e-02
-4.319767e-02
-3.966034e-02
-8.482073e-03
-1.565424e-02
1.628352e-02
-5.595078e-03
-4.758555e-02
5.241723e-02
-1.322731e-03
-4.946925e-02
1.143896e-01
9.109063e-02
-1.852524e-02
6.943042e-02
2.780574e-02
3.309936e-02
4.645935e-02
-5.036558e-02
9.109618e-02
8.484381e-02
-9.210309e-03
9.803859e-02
8.511377e-02
2.956517e-02
-4.601760e-02
-8.736752e-02
-7.024234e-02
2.268001e-02
1.352662e-02
-1.195182e-02
9.174852e-03
3.595920e-02
3.838081e-02
-2.433566e-02
3.160121e-02
2.418104e-03
-3.019191e-02
2.585600e-02
5.500090e-02
-1.684485e-02
1.886429e-02
6.341307e-02
9.116783e-03
1.859542e-02
3.402872e-02
-2.432748e-02
1.244260e-02
-1.013121e-03
-1.294945e-02
2.911967e-02
7.032626e-03
-2.754630e-02
-1.008350e-02
-2.376869e-02
-2.063367e-02
-4.898832e-02
-3.142979e-02
-9.020797e-03
-2.511624e-02
-8.450390e-03
5.019944e-02
-3.913298e-02
-5.036946e-02
2.792601e-02
-4.560443e-02
-2.078797e-02
4.347993e-02
-1.119111e-02
3.545000e-02
2.043202e-02
-2.861464e-03
-1.833249e-02
2.473745e-02
-2.124316e-02
2.078133e-02
-1.246668e-02
-5.068646e-02
-2.594633e-02
-6.989455e-02
-3.950443e-02
-1.829336e-02
-5.785254e-02
-4.351481e-02
-2.203415e-02
-1.270956e-02
-2.726119e-02
2.824964e-02
-6.921661e-03
-1.985215e-02
-8.553755e-02
6.813658e-03
2.485477e-02
-2.991509e-02
1.506685e-03
2.104788e-02
1.852811e-02
-1.166457e-02
-2.178407e-02
2.061465e-02
-2.458411e-04
-5.749042e-03
6.674608e-02
1.572951e-03
-2.463223e-03
1.991415e-02
-1.592552e-02
-2.562025e-02
8.665880e-03
-1.482291e-02
-2.489761e-02
-3.653879e-04
-1.304134e-03
-8.942892e-04
4.652027e-03
2.642118e-02
2.457392e-02
1.588109e-02
1.637996e-02
-6.365480e-03
-9.163739e-03
1.976639e-02
-3.266779e-03
-1.315692e-02
-2.384348e-02
-2.232508e-02
2.673120e-02
-1.749387e-02
-2.390761e-03
3.061121e-02
-7.223040e-03
-1.252112e-02
2.897273e-02
3.625822e-03
2.553564e-02
2.743270e-02
-1.493534e-02
-8.242053e-03
4.046175e-03
-9.159697e-03
1.867819e-02
-8.778022e-03
-1.194751e-02
1.455523e-02
4.346652e-04
-4.079502e-02
1.321168e-02
-4.045834e-02
-2.689599e-02
-1.307304e-02
-1.245522e-02
-3.804724e-02
-5.669225e-02
-1.826356e-02
2.939012e-02
3.283253e-02
1.015940e-02
3.070160e-02
7.043559e-02
2.223111e-02
5.600029e-03
2.162379e-02
-9.764552e-03
2.256553e-02
1.481628e-03
-1.369727e-02
-2.217993e-02
-2.233373e-02
-2.857656e-02
5.014764e-03
-5.722021e-02
-2.679636e-02
8.434031e-02
5.422449e-02
-2.804770e-02
2.494501e-02
5.366832e-02
-4.351072e-02
-2.242538e-09
-1.899482e-09
-3.212429e-10
-8.118051e-10
-2.121856e-09
6.142760e-10
-9.099625e-10
-1.048969e-09
1.459466e-09
2.337510e-02
-7.313363e-03
-9.249559e-03
-1.106679e-02
3.217943e-03
1.823479e-02
-1.022887e-02
-7.646961e-03
-2.323421e-02
7.422059e-03
2.753381e-02
-3.530712e-03
-2.632951e-02
-6.602802e-03
-4.045721e-02
-4.554586e-02
-1.334502e-02
-3.830511e-02
4.858261e-03
3.492615e-02
2.581389e-02
1.703384e-02
2.163918e-02
5.779258e-02
2.825159e-02
2.375247e-02
1.470802e-02
-1.744409e-07
-9.726635e-06
1.012157e-05
1.880345e-05
-1.962186e-05
-1.482065e-05
2.514450e-05
-3.294804e-05
-4.412614e-05
-6.274418e-03
2.285078e-02
2.917341e-02
-4.741530e-02
-2.310770e-02
2.510910e-02
-5.065740e-02
-3.158896e-02
2.666404e-02
1.050650e-03
4.146624e-03
1.206332e-02
-2.302785e-02
-2.815961e-02
8.316609e-03
-2.110193e-02
-3.392319e-02
-1.611679e-02
-2.773504e-03
-4.755553e-02
-5.316634e-02
5.570338e-02
7.422208e-04
-8.796163e-03
4.823295e-02
1.016901e-02
1.609626e-02
-6.661623e-03
-3.759527e-03
9.538176e-03
-1.499002e-02
9.294974e-03
1.931998e-02
-2.489075e-02
-3.409387e-02
5.191024e-03
6.801850e-03
-2.522547e-03
1.258046e-02
2.883803e-02
1.591109e-02
7.314922e-03
6.212880e-02
2.046201e-02
-1.231171e-02
-2.379694e-03
-2.659303e-02
-2.378527e-03
-1.595725e-04
1.252756e-02
1.427705e-02
-2.243832e-02
8.811125e-03
-2.347675e-02
1.416401e-02
2.731997e-03
4.989767e-05
1.842421e-02
1.814262e-02
-1.569900e-02
3.110351e-03
-1.197922e-02
-4.167548e-02
-5.827602e-03
-3.292118e-02
-8.395640e-03
3.455293e-03
-5.619649e-02
1.441550e-03
6.729117e-03
-8.969860e-03
1.043797e-03
6.318081e-04
4.608601e-03
2.929119e-02
2.274378e-02
2.638430e-02
2.153653e-02
1.952779e-02
-4.927474e-03
-2.023197e-03
1.709598e-03
5.185609e-03
3.080599e-02
-2.696070e-02
-9.787374e-03
1.391117e-02
-2.550021e-02
-1.444859e-02
-1.888589e-02
-5.126116e-02
-2.508706e-02
-2.898135e-02
-2.468217e-02
-6.250827e-03
2.640991e-04
-2.298137e-03
2.303656e-03
-7.014273e-03
2.726562e-02
2.631158e-02
3.475038e-02
2.892645e-02
1.434928e-02
1.960598e-02
4.027337e-03
-1.334461e-02
-1.442348e-03
-6.697263e-03
-2.405337e-03
-1.055518e-02
3.286398e-02
9.073035e-03
2.256214e-02
-5.246100e-03
-2.389772e-02
3.096621e-03
-1.934053e-03
5.530616e-03
2.629206e-02
-2.711835e-02
-1.129343e-02
5.993810e-03
4.900903e-03
3.843152e-02
2.703688e-02
1.349948e-02
1.688502e-02
2.701043e-02
-7.425660e-04
6.237032e-03
3.017882e-02
-2.509109e-02
3.855798e-03
3.696330e-02
2.359453e-03
-4.428135e-03
2.293251e-02
-4.187626e-03
-2.335756e-02
9.028279e-03
2.127148e-02
-1.267238e-02
5.001513e-03
-3.987860e-03
-7.230746e-03
-6.998002e-03
-1.146126e-02
-1.256574e-02
3.134244e-03
2.345591e-02
1.266922e-02
3.766365e-02
-4.731041e-02
-9.381543e-03
2.322835e-02
-5.482196e-03
9.493809e-04
2.998753e-02
-6.641982e-03
9.654738e-03
7.220731e-03
1.005791e-02
-1.408987e-02
3.281136e-03
-4.364786e-04
-6.698787e-03
1.051401e-02
-1.109276e-02
-5.272125e-03
6.879352e-03
7.008590e-03
-3.293983e-03
6.442457e-03
-3.765849e-04
-9.018131e-03
1.632131e-03
1.262153e-03
-1.966579e-03
1.855183e-02
-4.605353e-03
8.072951e-03
-2.815173e-03
3.924888e-03
-3.158867e-03
-1.388589e-02
-1.032819e-02
-2.244790e-02
-1.699079e-02
8.348370e-03
2.914993e-02
4.283319e-03
2.593430e-02
4.043940e-03
-1.063069e-02
1.811756e-02
-1.436860e-02
-1.993078e-02
4.781557e-02
2.850870e-02
8.920512e-03
-1.464083e-02
-3.748365e-02
-3.777448e-02
-5.447349e-03
-3.191133e-03
-1.345284e-02
-8.056923e-03
-4.836098e-02
-4.392254e-02
1.476436e-02
-8.924276e-03
1.544284e-02
-2.225801e-03
-1.797142e-02
2.627399e-03
3.646499e-02
1.298245e-02
-1.397030e-02
1.104120e-02
8.589734e-03
-6.651164e-04
-3.072230e-02
-1.794572e-02
-8.542464e-03
2.532949e-02
1.585416e-02
-5.132665e-02
2.782623e-02
-5.464570e-03
-9.145112e-02
1.554205e-02
-1.252372e-02
-8.290079e-02
1.778861e-02
1.867609e-03
1.269103e-02
6.103380e-03
-8.853198e-03
-5.544219e-03
-2.851622e-02
-4.324164e-02
-5.087468e-02
-1.196456e-09
7.081464e-10
-7.955274e-10
-2.418031e-09
1.344319e-09
-1.305995e-10
-1.056634e-09
2.292899e-09
-6.252975e-11
2.043702e-02
1.962155e-02
-1.339386e-02
7.294463e-03
9.105696e-03
1.863332e-03
-2.104600e-02
-1.265280e-02
-2.198096e-02
-1.229803e-02
1.763656e-02
1.092496e-02
3.409500e-04
3.501844e-02
1.111014e-02
-1.601875e-02
-9.147273e-04
-2.183981e-03
1.147339e-03
-1.896025e-04
2.952939e-02
1.902029e-02
1.525517e-02
1.994442e-02
-2.117675e-02
-4.354014e-03
7.719539e-03
-6.798398e-06
8.186252e-07
1.574101e-05
-6.279142e-06
-1.166616e-06
-3.581623e-06
-3.251739e-06
1.506905e-07
-8.176238e-06
5.120949e-03
6.566964e-03
-4.629821e-03
-6.743547e-03
-9.784968e-03
1.089422e-02
1.069112e-02
-4.594684e-03
4.056031e-04
6.446870e-02
6.492618e-02
5.343459e-02
1.827185e-02
4.743835e-03
-6.568037e-03
3.530849e-02
2.715895e-02
1.180258e-02
1.657333e-02
8.010268e-03
-2.346856e-03
-2.788927e-02
-1.901208e-02
5.946007e-04
-2.833178e-03
1.156940e-02
3.184050e-02
-3.513946e-02
-4.057509e-02
-3.143896e-02
4.722119e-03
1.317835e-03
7.172428e-03
-5.068582e-03
1.765031e-05
2.026101e-02
-1.349826e-02
1.617381e-02
1.595796e-02
-3.810114e-02
6.777172e-03
2.255016e-02
-5.689705e-03
8.777501e-03
1.201837e-02
2.860776e-02
9.926395e-03
1.277629e-02
2.373727e-02
2.903553e-02
-6.747823e-04
-6.034689e-04
-3.838402e-03
-8.799318e-03
1.656456e-02
-3.033701e-02
-4.453946e-02
1.710448e-02
1.782525e-02
-1.890571e-02
-6.856708e-03
-1.338998e-03
1.621243e-02
-3.304398e-02
-2.084325e-02
-1.999083e-02
-5.570655e-03
-3.098677e-02
-1.625654e-02
-4.240538e-03
1.462343e-02
1.806022e-03
3.009532e-02
6.388939e-03
-6.123418e-02
-1.056081e-02
-8.016302e-03
-2.050307e-02
-5.006223e-02
-1.637598e-02
-1.544105e-02
-3.376013e-02
2.119902e-02
1.718487e-02
-1.613523e-02
1.918686e-02
-1.038158e-02
-1.974227e-02
-1.728999e-03
-3.830573e-02
-9.319230e-03
-1.513991e-02
-3.180866e-02
-2.031724e-02
-2.014154e-02
-2.218873e-02
-3.329580e-02
-3.013697e-02
-3.670834e-02
-3.187701e-03
-1.739233e-02
3.428921e-02
4.092609e-02
-1.132022e-02
-8.566144e-03
3.057581e-02
1.441367e-02
-1.185326e-02
4.407096e-03
3.672798e-03
4.269661e-03
-2.238744e-02
-1.657293e-02
-1.796908e-02
-2.267340e-02
-3.311039e-02
-8.020173e-03
1.111650e-02
1.737527e-03
-3.267497e-02
2.754566e-03
-4.154803e-03
-1.071165e-02
1.566684e-02
2.449455e-02
-1.117053e-02
-4.807251e-02
-3.273819e-02
-5.985766e-02
-1.314342e-02
-1.809552e-02
-3.581887e-02
7.547778e-03
4.306736e-02
1.063064e-02
-3.069314e-02
-9.593622e-03
-2.582714e-02
-1.622566e-02
8.811684e-03
5.042091e-02
1.869407e-02
3.089957e-02
4.636307e-02
3.392066e-02
2.557880e-02
8.983141e-03
1.006965e-02
1.430954e-02
4.560266e-03
1.570313e-02
1.908158e-02
1.444494e-02
8.684397e-03
-3.727767e-02
-3.094820e-02
-1.647525e-02
-1.256171e-02
3.041416e-03
-1.356785e-02
-2.096480e-02
-9.214944e-03
-3.005752e-02
-1.448439e-02
1.478768e-02
-3.884075e-02
-6.828619e-03
1.898224e-02
-4.873835e-02
1.714007e-04
1.238764e-02
9.311956e-03
5.138402e-03
1.443209e-02
2.373448e-02
2.628467e-02
2.367914e-02
2.646995e-02
4.326691e-02
3.637473e-02
-2.279416e-02
-2.325779e-02
-4.097326e-02
-2.452458e-02
-6.810374e-03
-5.030886e-02
-9.818443e-03
-5.953607e-03
-2.926383e-02
-3.249185e-02
-2.046088e-02
-3.873548e-02
-1.791307e-02
-2.061109e-02
-2.213849e-02
-9.015969e-04
1.008390e-02
1.212183e-02
4.808459e-03
1.084016e-02
-6.949039e-04
1.485249e-02
3.700864e-02
3.495563e-02
9.063854e-03
4.429298e-03
-1.876519e-02
7.027381e-02
6.083424e-02
2.988927e-02
3.148510e-02
1.826500e-02
-2.075901e-04
-1.284084e-02
-4.283552e-03
-2.902400e-02
-2.938613e-02
5.563964e-03
-1.772819e-02
-3.750513e-02
-1.897663e-02
9.372595e-03
-3.351910e-02
-3.362453e-02
-4.509038e-03
-4.123920e-03
-1.640957e-03
-3.423090e-02
8.098558e-03
6.644551e-02
2.845510e-02
-5.825171e-03
3.369640e-02
4.511892e-02
-3.107716e-02
6.167105e-03
-1.076004e-02
1.332703e-02
3.103377e-02
2.928214e-02
-1.976723e-02
-1.119662e-02
1.138828e-02
1.674207e-10
1.519187e-09
2.829249e-09
1.346841e-09
1.019190e-09
9.667233e-10
1.829175e-09
-7.069990e-10
-1.151146e-09
-5.124506e-02
-1.844660e-02
-3.442470e-02
-2.570288e-02
2.793070e-02
9.285158e-03
-1.002637e-02
2.654105e-02
-1.136840e-02
-2.318676e-02
-5.231718e-03
-2.737652e-03
-4.078519e-02
-8.974041e-03
-2.210116e-02
-1.133727e-02
-1.108196e-02
-1.347437e-02
-1.505409e-02
-8.719553e-03
9.833992e-03
1.195061e-02
2.294707e-03
-1.984617e-02
4.847016e-03
2.319656e-02
2.032296e-02
-1.618593e-05
-5.992966e-06
8.339621e-06
9.555753e-07
2.993056e-06
2.548840e-06
9.784057e-06
-5.982824e-06
-1.567632e-05
1.231880e-02
2.050899e-02
-2.515999e-02
1.261287e-02
1.077829e-02
-1.576009e-02
1.264786e-02
1.834375e-02
-1.397497e-02
-1.899191e-02
-3.140225e-02
-1.693667e-02
3.994156e-02
3.477479e-02
-1.587139e-02
3.786221e-02
2.766955e-02
9.161528e-03
-3.968131e-03
2.764691e-02
-7.120887e-03
-1.087421e-02
6.054644e-03
-8.697201e-04
-1.019627e-02
-2.019176e-02
-3.016119e-02
3.454942e-02
5.472765e-02
5.772759e-02
-6.997304e-04
1.316302e-02
3.450290e-02
1.335620e-02
4.309676e-03
-3.437012e-03
2.260265e-02
2.009857e-02
-1.033526e-02
2.071229e-02
2.686358e-02
-8.078717e-03
-1.588706e-02
7.997618e-03
-5.984576e-03
6.249155e-02
1.315899e-02
9.968851e-02
6.161941e-02
3.403967e-03
4.648254e-02
-2.484101e-02
-2.940082e-02
-5.493498e-03
1.849855e-03
7.725245e-02
8.199748e-02
-5.319710e-04
2.988704e-03
1.609924e-02
-1.528332e-02
-3.111868e-02
-2.381800e-02
-1.200782e-02
-6.883855e-03
3.405603e-03
-3.738455e-02
-3.116006e-02
-2.045874e-03
-3.047909e-02
-7.480197e-03
1.437160e-02
1.938449e-02
5.951204e-03
-2.617994e-02
-7.058253e-03
3.075984e-02
-6.638424e-03
5.058745e-03
5.807125e-03
-7.097899e-03
1.340262e-02
4.347655e-03
3.878768e-02
-3.223973e-03
-1.348918e-02
-8.729137e-03
-3.177116e-02
-5.816974e-02
-3.379340e-02
-1.023598e-02
-2.548433e-02
-8.504552e-03
-7.891814e-03
-2.620596e-02
-6.633848e-03
5.853269e-04
-2.994765e-02
-2.579533e-02
6.408954e-02
1.710865e-02
3.419482e-02
1.085260e-01
6.099042e-02
4.673505e-02
6.339872e-02
9.596706e-02
5.095359e-02
2.603107e-02
7.856926e-02
2.750406e-03
4.202683e-03
7.434651e-02
-1.428325e-02
6.045217e-04
1.824831e-02
1.254572e-02
-2.573881e-02
-2.707510e-02
-3.572350e-02
2.155426e-02
-2.716052e-02
-8.152844e-04
-6.230951e-03
3.987850e-02
4.947077e-02
-1.164509e-02
-2.205453e-02
2.649507e-03
1.413533e-02
1.751682e-02
2.788194e-02
-9.271360e-04
2.439728e-02
2.985194e-02
1.576967e-02
-5.217784e-02
-7.999490e-04
4.115546e-02
-8.649525e-02
-4.368857e-02
3.890547e-02
1.141793e-02
-1.676543e-02
-6.314707e-03
1.365155e-02
-5.183066e-03
-1.538078e-02
-8.728789e-03
-6.273204e-03
-2.758562e-02
-2.916169e-03
2.855952e-02
5.704198e-03
5.030131e-02
1.639168e-02
2.495061e-02
4.841931e-03
8.403610e-03
-2.332022e-02
-2.690873e-02
-9.169918e-03
2.651928e-02
-8.162033e-03
-1.258198e-02
3.106275e-02
3.693622e-03
-2.042492e-02
3.944016e-03
-8.656944e-03
-2.994704e-02
-2.796043e-02
-2.632697e-02
9.987956e-03
-4.610653e-02
-4.601281e-02
-3.064299e-02
-5.300252e-02
-3.490590e-02
1.367540e-03
-3.799223e-02
8.005596e-03
2.715032e-02
-4.335825e-02
2.222182e-03
5.195766e-02
-3.913409e-02
-1.196448e-02
7.063150e-03
6.283182e-03
-1.054923e-02
-1.916654e-02
2.646794e-02
3.581075e-03
3.011989e-03
-2.068321e-02
2.484307e-02
6.529626e-02
-3.982288e-02
-3.837226e-02
-8.810639e-03
-5.294190e-02
-2.829258e-02
-2.318690e-02
-1.106102e-02
-1.733303e-02
-1.122855e-02
-1.126288e-03
-1.502505e-02
-4.854993e-02
-2.600722e-02
-2.109020e-02
-8.290765e-03
-2.412968e-02
1.503097e-03
1.999063e-02
-4.261412e-02
-3.070887e-02
4.811947e-02
-5.145018e-03
-1.620789e-02
2.190006e-02
3.519724e-02
1.095823e-02
1.563967e-02
-7.248867e-02
-1.296559e-02
4.677312e-02
-4.000055e-02
-1.166277e-02
4.012622e-02
-2.042967e-02
-1.006820e-02
2.193283e-02
-2.834191e-02
-1.470045e-02
8.231835e-03
-4.917464e-02
-2.794055e-02
1.335840e-02
1.571228e-02
5.033456e-03
2.511137e-02
2.123722e-09
-4.873517e-10
-1.782597e-09
1.979388e-09
5.501081e-11
3.682989e-10
1.048008e-09
1.428469e-09
8.417689e-10
-8.245733e-03
-1.182862e-02
2.090698e-02
-9.407494e-03
1.635915e-02
-9.210578e-04
-1.293299e-02
-1.933473e-03
-2.593326e-02
6.166242e-03
-2.622367e-02
-3.602571e-02
-2.355960e-02
-3.299990e-02
-2.502056e-02
-1.826799e-02
-7.321334e-03
-3.475060e-02
-2.612084e-02
1.525503e-03
-9.415145e-03
-2.297802e-02
-1.331843e-02
2.923652e-02
1.363447e-02
7.397942e-03
1.098493e-02
2.318596e-05
3.349493e-06
-5.105835e-06
1.188880e-05
-1.733333e-05
2.946287e-08
-7.505210e-06
-8.685369e-06
1.677379e-05
-3.284735e-02
-4.077953e-02
-4.704494e-02
-4.140820e-02
-4.939356e-02
-3.873304e-02
-1.410557e-02
-4.182625e-02
-1.917548e-02
-5.186424e-02
1.745024e-02
1.166167e-02
-6.670938e-02
9.041742e-03
7.558914e-02
-5.127425e-02
-1.922620e-03
7.475516e-02
-2.962322e-02
-4.628101e-02
-1.594706e-02
-6.615480e-03
-2.930464e-02
-1.379179e-02
2.676983e-02
1.705047e-02
3.340134e-02
-3.166974e-02
-1.181061e-02
2.017219e-02
-9.938425e-03
-1.330063e-03
1.575947e-03
-6.683594e-03
-4.710555e-02
-1.480952e-02
-2.432303e-02
-2.784202e-02
-1.749783e-02
-2.374302e-03
-1.625917e-02
2.062848e-02
-2.240783e-02
-3.555652e-02
1.121587e-02
1.938209e-02
3.924699e-02
3.014806e-02
1.790237e-02
2.658533e-02
-5.464752e-03
3.584115e-02
1.719901e-02
6.261171e-03
-1.238773e-02
-4.458611e-02
1.211713e-02
-2.804713e-02
-3.421065e-02
2.869873e-02
-1.746028e-02
3.841885e-03
-4.368745e-03
3.559617e-05
-1.731049e-02
-1.019334e-02
4.532420e-02
2.318314e-02
7.934775e-03
-4.470508e-03
1.347491e-02
-5.760724e-04
3.621864e-02
1.672629e-02
1.001739e-02
1.295453e-02
-2.147886e-03
9.799917e-03
2.294929e-02
5.685761e-03
1.041582e-02
-2.499679e-02
-2.577832e-02
2.872887e-02
-3.196045e-02
5.346292e-04
6.040591e-02
-3.534516e-03
2.963636e-02
5.424074e-02
1.719090e-03
-1.080259e-02
-4.611889e-03
-1.606331e-02
-1.914407e-02
-1.011800e-02
-2.826435e-02
-3.116516e-02
-2.748934e-02
-3.846370e-02
-3.735918e-02
-1.585251e-02
-1.461163e-02
-2.038893e-02
-1.636428e-02
5.457186e-02
-6.111809e-03
-9.121719e-03
-2.102285e-03
-6.670578e-03
-9.067017e-03
-3.468639e-02
-2.823300e-02
-4.111761e-03
-1.558055e-02
-2.514695e-02
8.946344e-03
-3.228808e-03
3.082221e-02
-5.469377e-03
8.479445e-03
1.908766e-03
-3.437514e-03
1.941293e-02
3.936556e-02
1.104987e-02
-3.686452e-02
-1.961886e-02
6.444481e-03
2.596722e-02
9.509452e-03
9.913119e-03
2.988933e-02
3.664463e-02
2.096466e-02
7.381679e-05
-3.006277e-02
-3.997482e-02
1.043783e-02
1.438672e-02
-4.306765e-02
2.898961e-02
5.449436e-03
-1.345824e-02
-1.665644e-02
-1.846662e-02
-1.704484e-03
-1.847420e-02
-2.911923e-02
-1.136847e-02
-1.583764e-02
-1.054707e-03
1.720419e-02
2.896447e-02
3.745117e-02
1.824661e-02
1.925814e-02
5.680102e-03
-2.382424e-02
3.391685e-02
1.106745e-02
2.034356e-03
2.087123e-02
1.878627e-02
7.005175e-03
1.336937e-02
1.379621e-02
6.180864e-03
2.849792e-02
1.434220e-02
3.997717e-02
-5.072667e-03
-1.546819e-02
-2.656980e-02
-1.487439e-02
-2.965819e-02
-2.972370e-02
-1.624930e-02
-5.308165e-02
-4.738237e-02
1.926418e-02
2.978414e-02
2.668262e-02
1.196293e-02
1.827433e-02
1.428822e-02
-1.364866e-02
-2.110011e-02
-1.008947e-02
-1.358667e-02
4.697271e-03
2.238363e-02
-1.702702e-02
1.551982e-02
4.189038e-02
2.369550e-03
2.660721e-02
5.058122e-02
1.272227e-02
-3.864034e-03
2.188321e-03
-1.626487e-02
3.901731e-03
2.615882e-02
4.159420e-02
4.924171e-02
3.511959e-02
7.360549e-03
3.118809e-03
1.564583e-02
-1.711348e-02
-3.034704e-02
5.281209e-03
-1.007700e-02
-4.437150e-02
-1.707761e-02
-2.500320e-02
-1.264343e-02
1.954858e-02
-3.428100e-02
-3.888430e-02
8.716279e-03
-9.724574e-03
-4.387665e-02
7.650192e-04
-2.729541e-02
-1.283391e-03
9.533109e-03
-1.566659e-02
8.507444e-03
3.208569e-03
-2.988137e-02
8.852842e-03
8.596463e-03
-1.852885e-02
-4.142296e-03
3.869141e-03
-2.281034e-02
-1.350112e-02
2.277730e-02
1.128790e-02
9.463106e-03
2.705535e-02
8.257480e-10
5.470774e-10
-1.155794e-09
-1.890633e-12
-2.859190e-10
-5.878766e-10
-5.577333e-10
-6.601937e-10
-6.443207e-10
-2.647406e-02
-2.772345e-02
-2.106889e-02
-1.105005e-02
2.427749e-02
2.863479e-02
-1.442393e-02
1.739462e-02
4.914452e-02
-3.105643e-02
-1.218563e-02
-1.081339e-02
-9.705632e-03
-2.065175e-02
-2.241425e-03
-2.536769e-02
-2.985270e-02
-2.247785e-02
5.437250e-03
7.419413e-03
-3.199423e-02
1.973604e-02
1.352816e-02
-2.140965e-02
-2.498648e-03
-8.688411e-03
-1.017487e-02
-6.752300e-06
-2.708546e-06
-5.771541e-06
-5.295435e-06
-8.098799e-06
-1.368094e-05
4.508713e-06
-2.989509e-07
-5.831300e-06
1.031580e-03
1.426114e-02
2.768864e-02
-1.608945e-02
1.412312e-02
1.556467e-02
-7.829526e-03
1.161947e-02
6.553837e-03
4.730112e-03
-5.368591e-03
-6.877702e-03
2.910358e-02
2.067963e-02
2.601963e-03
2.878544e-02
2.011376e-02
1.905192e-02
-2.906470e-02
-2.650747e-02
-2.158331e-02
1.072992e-02
-5.828242e-04
2.612542e-03
1.801185e-03
-1.507580e-02
5.102752e-04
4.098255e-03
5.756159e-03
-1.568761e-02
6.297427e-03
2.794226e-03
1.110008e-03
-1.692758e-02
-2.758086e-02
-2.051864e-02
-9.763701e-03
-1.280481e-04
-6.656269e-03
-1.679022e-02
-2.001686e-02
-1.397140e-02
-3.541052e-02
-2.505494e-02
-1.063164e-02
1.722792e-02
-2.649909e-04
-4.432970e-03
-3.584334e-03
1.233141e-02
-2.766297e-03
1.174109e-03
1.213710e-02
7.520469e-03
-1.711638e-02
5.717767e-03
-5.375639e-02
-6.139534e-03
2.211828e-02
-2.844876e-02
-2.954237e-03
-4.542931e-04
-4.283777e-03
1.540941e-02
3.658782e-02
-1.749771e-02
1.362580e-02
1.273505e-02
2.027503e-02
-5.810154e-03
8.777604e-03
1.258207e-02
-3.888390e-03
-1.169373e-02
-2.478927e-03
-1.631908e-02
-1.927874e-02
-1.685047e-02
2.097490e-02
-6.930769e-03
6.652559e-03
5.245336e-04
-1.057528e-02
6.739486e-04
7.253127e-03
-1.472176e-02
-5.542735e-03
6.790144e-03
-2.034209e-02
-8.769616e-03
1.429209e-02
3.399956e-03
-2.128700e-02
1.403158e-02
1.267475e-02
1.021001e-02
1.420171e-02
2.647849e-02
4.129315e-03
-4.206410e-03
2.032869e-02
-1.820906e-02
1.636921e-02
2.101758e-02
-2.791455e-03
-8.047999e-03
-2.304163e-02
-1.187652e-02
-5.244442e-03
-3.487018e-02
3.306754e-02
-2.093162e-02
3.053481e-03
4.153788e-02
-5.196676e-02
-1.869755e-02
-1.122206e-02
2.319934e-02
-1.286937e-02
4.281979e-03
-2.733974e-02
-3.392848e-02
-2.845930e-02
-3.459474e-02
-1.234889e-02
-2.583577e-04
-7.966841e-03
-4.288334e-02
-3.148745e-02
-3.053268e-02
-4.219168e-02
-3.876840e-02
-1.896272e-02
1.082632e-02
-1.364692e-02
-1.570183e-02
-1.116442e-02
2.765098e-02
-1.230726e-02
1.107350e-02
-9.275724e-03
-7.810424e-03
-2.754398e-03
-2.743164e-02
2.445049e-02
-2.943930e-03
2.225696e-03
4.614254e-02
4.084416e-02
2.534680e-02
-3.507470e-02
-3.390393e-02
-3.870799e-02
-2.528921e-02
-3.692232e-02
1.949714e-03
-6.167335e-02
-3.404380e-02
3.105866e-02
-9.200643e-03
7.786552e-04
2.929889e-02
-9.919969e-03
-6.959123e-03
-6.017995e-02
-8.753422e-03
-7.495638e-03
-4.127755e-02
4.731362e-03
1.616148e-02
-1.871125e-02
5.130490e-02
4.612148e-02
1.557667e-02
2.293802e-02
1.550689e-02
-1.682758e-02
1.246292e-02
2.234574e-02
7.495054e-03
-2.344713e-03
-1.486881e-02
-1.372659e-03
7.943674e-03
1.053694e-03
2.310947e-02
-1.358180e-02
-9.414513e-04
5.671995e-04
5.896416e-02
5.878387e-02
1.706790e-02
9.234904e-02
1.188109e-01
5.107880e-02
3.643786e-02
5.131356e-02
4.995327e-03
-1.036233e-02
2.992548e-02
1.053177e-02
-4.135625e-02
1.571814e-02
3.507906e-02
-1.076550e-02
2.767706e-02
3.701831e-02
-2.854870e-02
1.040635e-03
2.831019e-02
-2.019006e-02
-2.732729e-02
-3.018934e-02
-2.068266e-02
-1.950680e-02
-3.506191e-02
-1.924878e-03
-1.150006e-02
-2.657549e-03
-2.218551e-02
-1.072066e-02
-3.503023e-02
1.535592e-02
-1.600552e-02
-1.421238e-02
-2.015727e-02
-1.950435e-02
-7.621805e-03
-9.360871e-03
1.703983e-02
-6.685196e-03
-2.992803e-02
7.145972e-03
-2.655303e-02
1.648825e-02
1.810181e-02
1.466529e-02
4.894806e-02
1.621166e-02
-2.507083e-03
3.899095e-02
-7.606548e-03
-1.533981e-02
9.825845e-11
3.644824e-09
1.910232e-09
3.650705e-09
7.449106e-09
4.838590e-09
4.063654e-09
6.086649e-09
3.978503e-09
-2.105885e-02
-4.249815e-03
-4.859407e-03
-2.061961e-02
-3.074504e-02
-1.376065e-02
-9.195279e-03
1.688641e-02
3.841640e-02
1.441250e-03
-1.590899e-02
-5.710387e-03
-9.250424e-03
1.322012e-02
4.054230e-02
1.957085e-03
-2.343339e-03
3.581142e-02
-7.511717e-03
-4.014749e-02
-1.143969e-02
-1.334126e-03
-9.177154e-03
-1.040642e-02
2.740829e-03
6.281456e-03
-3.630747e-03
4.418501e-05
4.412790e-05
1.636201e-05
6.707408e-05
9.942854e-05
6.598089e-05
4.512810e-05
1.258741e-04
5.857698e-05
-2.200143e-02
1.110594e-02
3.607459e-02
-3.806407e-03
-7.086576e-03
2.549070e-03
2.076716e-02
-1.790133e-03
-7.502449e-03
6.264064e-03
2.921697e-02
2.961553e-02
-9.162930e-03
-1.328603e-02
-2.473992e-02
-3.726625e-02
-1.642254e-02
-2.311869e-02
2.237784e-02
5.430350e-02
2.555691e-02
-7.820586e-03
8.054184e-02
6.467830e-02
-2.200607e-02
6.124659e-02
7.182456e-02
5.600764e-02
3.132409e-02
1.350671e-02
3.839559e-02
-4.029268e-03
-2.108466e-02
2.156205e-03
-7.587061e-03
4.811132e-02
7.163450e-02
8.671937e-02
5.455368e-02
8.338453e-02
1.531025e-01
1.285223e-01
4.268175e-02
1.068007e-01
1.227587e-01
5.731686e-02
-1.577315e-02
-6.817959e-02
-1.475743e-03
-4.010809e-02
-3.057468e-02
-1.852301e-02
-2.488881e-02
-3.389915e-03
-1.858885e-02
-1.182899e-03
3.162152e-02
7.701559e-03
-3.460591e-02
6.463259e-03
6.094665e-02
5.736230e-03
1.802556e-02
-9.402937e-03
-4.065913e-02
-5.038001e-02
4.480745e-02
2.617843e-02
1.970796e-02
1.550869e-03
3.379296e-03
3.669683e-02
-1.568639e-02
-9.767889e-03
-1.790705e-02
-5.573059e-03
-1.651630e-02
2.223115e-02
-1.175133e-03
-2.911336e-02
-4.214521e-03
1.370438e-02
-5.706568e-03
3.968999e-03
3.948994e-02
-6.851569e-03
9.682144e-04
2.749451e-02
3.362012e-04
2.548360e-02
1.845224e-02
1.644756e-02
1.786323e-02
-1.225182e-02
2.113491e-02
2.211061e-02
2.292351e-02
4.094777e-02
4.469934e-02
3.001675e-02
-1.618500e-02
-2.562522e-02
2.841335e-03
3.722568e-02
1.529040e-02
7.614069e-03
4.097227e-02
4.794419e-02
-1.379830e-03
-1.013404e-02
1.756678e-02
-3.501306e-02
-2.581689e-03
-3.485688e-03
-5.574018e-02
-4.427541e-02
-2.037205e-03
-7.038970e-02
-7.499090e-02
-3.926221e-02
-8.116211e-02
-3.529808e-02
-1.566806e-02
1.064316e-02
1.347307e-02
9.502780e-03
1.223831e-02
-1.960751e-02
2.893908e-03
3.838989e-02
-7.529776e-04
-5.804840e-03
3.294118e-03
-1.484174e-02
1.254262e-03
-3.219581e-03
2.876716e-03
-6.358925e-02
3.187631e-02
-1.182843e-02
-2.794299e-02
4.091534e-03
8.430239e-03
-1.142759e-02
6.626289e-03
-3.073902e-02
1.839787e-03
3.127594e-03
-2.732147e-02
-1.154334e-02
-7.004781e-03
-2.652761e-02
-4.145175e-02
-5.399156e-02
-1.647743e-02
-8.097289e-03
-6.419791e-02
-3.024235e-02
-9.597521e-03
-1.653389e-02
6.026208e-03
-7.672716e-03
3.012052e-02
-4.345437e-02
-4.965890e-02
6.347334e-03
7.523393e-03
1.831062e-02
2.843836e-02
7.879747e-02
6.253769e-02
-1.505944e-02
1.166590e-02
2.512709e-02
-6.672245e-03
4.718872e-03
2.237655e-02
-2.647655e-02
-4.715078e-04
2.705574e-02
-5.675371e-03
6.166526e-03
-1.488688e-02
1.158386e-02
-4.575813e-03
9.820522e-03
1.221957e-02
2.557059e-02
2.883622e-02
4.458324e-02
5.674164e-03
-2.535182e-02
3.197761e-02
4.610830e-03
-3.762671e-02
3.174051e-03
2.805752e-02
3.670404e-03
3.468204e-02
3.630141e-02
4.454993e-02
1.298983e-02
-7.188989e-03
-4.166446e-03
-1.724000e-02
1.210286e-02
6.025303e-03
-2.320142e-02
-3.068815e-02
-2.388870e-02
-6.270126e-02
-1.386717e-02
-2.047858e-02
-1.905102e-02
-2.095678e-02
-1.743066e-02
2.397765e-02
2.327569e-02
-1.378319e-02
-8.747289e-03
1.614758e-02
1.720572e-02
4.466035e-02
1.364556e-02
2.426504e-02
-3.815515e-02
-1.703100e-02
-6.683459e-03
6.487515e-03
-5.833250e-03
-1.634931e-02
1.288159e-02
9.166306e-03
-4.535819e-02
1.067881e-02
8.792868e-04
2.337841e-02
2.464052e-02
-1.929566e-03
-5.024581e-03
-1.860509e-02
6.861389e-03
-4.606560e-02
-1.344380e-10
3.688621e-10
-3.155608e-10
4.562623e-10
3.288211e-10
5.296597e-11
9.056277e-11
-4.460177e-10
-3.134575e-12
-4.757366e-02
-5.851109e-02
-4.994104e-02
-2.599518e-02
-5.870871e-02
-2.601224e-02
4.730717e-03
2.758343e-03
-3.640646e-02
-2.974468e-03
2.284896e-02
9.088689e-03
1.162468e-02
-4.924833e-03
-1.052177e-02
4.252927e-02
-8.114650e-05
-3.413315e-02
4.086841e-03
6.084912e-03
1.545357e-02
3.218870e-02
-6.973880e-04
-3.637216e-03
-1.224014e-02
-8.960004e-03
1.155440e-02
-4.667849e-06
-9.552553e-06
3.544062e-06
-5.202062e-06
-1.535247e-05
7.783942e-08
-4.834341e-06
-1.970820e-05
-6.364472e-06
-5.223773e-02
2.598426e-03
-2.150428e-03
-1.460950e-02
-4.108742e-03
1.511900e-03
-4.219174e-02
-6.634030e-02
-2.316215e-02
-3.307858e-02
1.141605e-04
-2.396366e-02
-2.948593e-02
-1.065407e-03
1.413387e-02
-1.045554e-02
2.182283e-03
7.031613e-03
-3.692931e-02
-4.915559e-02
-4.394814e-02
7.675901e-03
-1.189015e-02
2.231718e-03
-1.983020e-03
2.581307e-03
2.028886e-02
7.848398e-02
4.845190e-02
2.050940e-02
5.216282e-02
4.021322e-02
-2.232401e-02
1.240655e-02
1.075749e-02
-1.121102e-02
3.741966e-02
2.180961e-02
1.632122e-02
-7.348862e-03
-1.786238e-02
-1.509438e-02
-1.338582e-02
-1.606473e-02
-1.528975e-02
-1.697627e-03
-3.635144e-02
-4.103900e-02
-2.538863e-03
-1.251042e-02
-3.163546e-02
-8.478587e-03
-1.562039e-04
8.590973e-03
-2.836454e-02
-6.553414e-02
-2.188678e-02
-5.377836e-03
-4.154998e-02
2.465392e-03
-1.686666e-02
-3.035826e-02
2.142336e-02
-3.352989e-02
4.287251e-02
3.734748e-02
2.405368e-02
2.533740e-02
-2.062177e-02
3.942884e-02
-7.502157e-03
-2.345959e-02
-5.425944e-02
-1.360797e-02
1.204122e-02
-2.591941e-02
-1.325441e-02
-3.843747e-03
1.909181e-03
-1.366311e-02
-3.236075e-02
5.268344e-03
-1.858008e-02
-2.811198e-02
1.552825e-02
-5.915838e-03
6.722921e-03
4.718299e-03
4.596534e-03
1.155873e-02
4.019130e-02
5.205898e-02
1.267120e-02
2.534050e-02
2.871707e-02
9.721634e-03
-1.292909e-02
-4.854386e-03
-1.369545e-02
-4.164238e-02
-1.807895e-02
-7.346077e-02
-4.002933e-02
-1.792680e-02
-6.020888e-02
-3.021261e-02
-2.925488e-02
-4.720057e-02
5.478939e-03
-1.756377e-05
-9.113951e-03
1.623341e-02
5.152620e-03
4.647882e-04
1.302330e-02
-2.020851e-02
-4.138501e-02
3.213355e-02
-7.920839e-03
-1.467624e-03
8.082075e-03
-1.493421e-02
-1.279811e-03
-6.478626e-03
-1.993507e-02
1.217849e-02
-4.217637e-02
-6.442076e-03
-1.720228e-02
-3.362671e-02
-8.424385e-03
2.218928e-02
-5.741850e-03
6.769452e-03
2.856704e-02
4.932433e-02
6.415363e-02
1.138992e-03
2.309531e-02
3.385727e-02
1.080982e-02
-1.008451e-02
-7.477945e-03
4.253597e-03
1.515057e-02
1.750028e-02
1.564470e-02
-2.710728e-02
-2.990239e-02
-5.892015e-03
-1.441959e-02
-1.428539e-02
-1.294291e-02
-3.055692e-03
-4.448717e-02
-5.611515e-02
-1.241239e-02
-8.158057e-04
1.871015e-02
-4.554922e-02
-9.137057e-03
2.259052e-02
-1.155251e-02
1.196579e-02
-1.564378e-02
-1.746323e-02
-3.219966e-02
2.509477e-03
-1.514399e-02
3.851431e-03
3.559097e-02
5.462866e-02
4.144563e-02
2.865037e-02
2.782304e-02
2.176885e-02
2.191552e-02
2.366636e-02
7.585566e-03
1.518770e-02
-8.914713e-03
-5.958143e-03
-1.012769e-02
-3.181714e-02
-2.072581e-02
-1.033719e-02
-4.987669e-02
-3.281575e-02
-5.649249e-03
-4.310466e-02
-1.522512e-02
-5.566556e-04
-1.447498e-02
4.257952e-03
-9.299899e-03
1.344405e-02
1.102004e-02
-1.196253e-02
-2.400307e-02
-1.536604e-02
-2.223109e-02
-3.738703e-03
1.058690e-02
-7.242202e-03
-3.419394e-02
4.002531e-03
1.032886e-02
6.751898e-02
1.332894e-03
-6.207540e-02
3.718038e-02
-3.337811e-02
-3.668699e-02
-1.307021e-02
-4.283377e-02
-4.146667e-02
4.648138e-03
1.259792e-02
-2.116670e-02
1.048557e-02
1.558616e-02
-1.002272e-02
1.917145e-02
1.825661e-02
-8.301252e-03
-3.843598e-02
-4.963463e-02
-4.864186e-02
-4.077441e-02
-2.704281e-02
-2.214507e-02
-1.031214e-02
7.325433e-03
2.198870e-02
-1.550668e-02
1.564913e-03
9.685766e-03
-3.103782e-02
-2.524911e-02
-8.321330e-05
-2.327071e-02
1.438761e-02
2.811236e-02
-6.997456e-10
-9.131511e-10
8.046094e-10
-3.357879e-10
-1.062291e-09
-8.174907e-10
-4.756688e-10
-4.422536e-10
-2.592312e-10
3.640659e-03
2.526156e-02
3.343184e-02
-4.481957e-03
4.317280e-02
3.577579e-02
-4.813723e-02
-4.198938e-02
-2.849395e-02
8.864358e-03
1.017450e-02
6.226586e-03
-4.039312e-02
-2.694008e-02
-1.047002e-02
-4.155897e-02
-3.686376e-02
-2.556711e-02
-6.685985e-03
-2.809027e-03
4.704884e-04
-1.810597e-02
-1.984580e-02
1.236921e-02
-1.936935e-02
-7.632622e-03
4.313729e-02
-1.380988e-05
-5.354666e-06
4.110152e-06
-1.431054e-05
-3.594891e-06
-9.978189e-06
-1.662866e-05
-1.054719e-05
-2.773756e-05
6.650902e-02
2.583027e-02
2.918240e-03
3.493639e-02
2.912947e-02
-6.944129e-03
1.255766e-02
1.256018e-02
-2.995868e-02
2.852892e-02
-2.111722e-02
-3.149783e-02
-1.764822e-02
-3.806103e-02
-6.270710e-02
-2.702290e-02
-2.387442e-02
-2.516120e-02
-9.523968e-03
5.017197e-03
1.422460e-02
2.298850e-02
-7.617475e-03
9.937356e-03
5.582325e-03
-1.658484e-02
-9.397440e-03
2.967306e-02
1.250192e-02
7.649069e-03
-4.002356e-03
5.494354e-03
3.059850e-02
-3.177108e-02
-7.416552e-03
5.233775e-02
-2.965142e-02
-1.821146e-02
1.295314e-02
-4.150885e-02
-6.274707e-03
1.987889e-02
-3.891531e-02
1.276553e-02
3.025341e-02
2.101304e-02
3.371911e-02
9.396495e-03
1.315437e-02
2.075632e-02
-2.511312e-04
1.345905e-02
2.054481e-03
-2.815084e-02
5.556424e-02
1.770602e-02
-8.386215e-03
2.618464e-02
-1.934697e-02
-2.798749e-02
1.729294e-02
-1.111815e-02
-2.053799e-03
1.099564e-02
-1.750533e-02
6.280097e-02
8.142718e-03
-6.201370e-02
5.277534e-03
-1.870932e-02
-5.639848e-02
-4.671440e-02
-2.189868e-02
-1.953895e-02
6.431023e-03
8.004762e-03
-2.246447e-02
-1.846115e-02
3.880919e-02
1.045419e-02
-5.407094e-04
-7.570111e-03
3.678291e-02
1.020205e-02
-6.226923e-03
3.118448e-02
-8.093937e-03
4.734980e-02
4.490869e-02
1.258687e-02
-1.937417e-02
-1.520971e-02
-1.731868e-02
-2.581785e-02
-2.576936e-02
-7.547545e-03
-1.014434e-02
-5.064027e-03
1.208093e-02
2.320973e-03
8.757384e-03
1.286806e-02
-2.619248e-02
-2.398346e-02
-4.399839e-03
-2.221728e-02
-1.782390e-02
-1.340075e-03
3.046914e-02
1.857657e-02
2.062410e-02
2.309003e-03
-1.992057e-02
3.166706e-02
-3.073621e-02
-5.030126e-02
2.491015e-03
-3.098435e-02
1.419580e-03
3.418784e-03
-3.398638e-02
3.834874e-03
-2.660607e-02
-6.664671e-02
-4.277983e-02
-5.726064e-02
-8.214798e-03
-1.275036e-02
2.314117e-02
-3.314338e-03
-2.428541e-02
1.165775e-02
3.928145e-02
1.003128e-02
5.057988e-03
-3.683104e-02
1.577127e-02
2.564422e-02
-2.649196e-02
2.174761e-02
5.160301e-02
-1.362842e-02
-1.766785e-02
6.859254e-03
-2.101888e-02
-2.381360e-02
-2.842435e-02
-4.653976e-02
-1.168541e-02
-1.793057e-02
-6.829905e-02
-2.531472e-02
-4.305251e-02
-1.785431e-02
-1.529070e-02
-4.092345e-02
1.895828e-02
-4.058519e-02
-5.550963e-02
4.140718e-02
-5.691954e-03
-5.161976e-02
-1.170366e-02
-8.405510e-03
-3.320520e-02
2.926551e-02
3.209237e-02
6.271555e-03
2.439320e-02
3.641921e-02
2.796526e-02
-1.719953e-02
-7.510540e-03
3.338650e-03
-2.904741e-02
-2.856582e-02
-1.676873e-02
-5.467156e-03
-6.604896e-04
2.277249e-02
-3.676725e-03
-8.105482e-04
2.540045e-02
-1.354014e-02
-3.372504e-02
-4.979080e-03
-1.758708e-02
-3.648021e-02
-1.107573e-02
3.502193e-02
1.507431e-02
3.190009e-03
-1.220975e-02
5.542776e-04
-5.370168e-03
3.699963e-03
-1.898990e-02
-3.772242e-02
3.267051e-02
2.257629e-02
-1.803145e-02
1.361028e-02
-5.812942e-03
-4.931625e-02
5.165130e-03
5.729182e-04
-1.805034e-02
1.694963e-02
2.032993e-02
2.236403e-02
-2.948110e-03
-3.532265e-03
7.087714e-03
-1.699089e-02
-4.424040e-02
-6.559987e-04
-1.430806e-02
1.007873e-02
1.482754e-02
-2.646628e-02
-1.742018e-02
1.447213e-02
-3.166750e-02
-3.184808e-02
2.327384e-03
1.257450e-02
-8.348403e-03
1.350276e-02
-2.018531e-02
-1.225409e-02
-4.615229e-03
-1.538114e-02
-2.432744e-02
-2.281474e-02
7.651391e-03
1.061873e-02
1.305806e-02
2.400710e-02
1.215689e-02
-3.806256e-03
-6.219177e-03
8.515609e-04
-9.678115e-03
-1.814642e-10
-2.666847e-10
-2.131564e-10
-2.665594e-10
-1.458007e-10
-7.665216e-10
-3.723897e-10
-4.780628e-10
-2.984168e-10
1.457121e-02
6.300157e-04
-1.288764e-03
8.919608e-03
-1.929599e-02
-8.726978e-03
-1.558308e-02
-1.009162e-03
1.692014e-02
1.285467e-03
-2.587100e-02
5.084822e-04
-8.798883e-03
-2.264953e-02
3.848033e-03
-3.740279e-03
-1.807139e-02
-3.491203e-02
6.756412e-03
-6.990577e-03
-2.560882e-02
-1.385132e-02
-1.901984e-03
-3.108133e-02
-4.100440e-02
-1.070494e-02
-2.946301e-02
-2.531837e-05
-2.033445e-05
-9.846786e-06
-2.303656e-05
-7.176634e-06
-1.074198e-05
-4.343988e-06
7.496858e-06
-9.667338e-06
-2.309441e-02
-5.070393e-02
-4.297184e-02
-9.102720e-03
-3.407386e-03
-1.072849e-02
1.550027e-02
1.163810e-02
1.027709e-02
-4.409039e-02
-6.274071e-02
-4.587536e-02
-1.721815e-02
-4.160456e-02
-5.179930e-02
4.204322e-02
1.323231e-02
2.767576e-02
-2.146183e-02
3.452643e-03
-6.711620e-03
-2.567162e-02
-2.998496e-02
-4.847537e-03
-4.657874e-02
-3.749639e-02
-1.850623e-02
2.268859e-02
4.814425e-02
-2.272177e-03
8.990665e-03
1.794898e-02
-1.734720e-02
-2.330116e-02
-2.280184e-02
-4.987529e-02
-2.035526e-02
-1.980433e-02
9.283223e-03
-3.045913e-02
-1.147356e-03
1.955416e-02
2.022433e-02
4.678033e-02
2.990262e-02
-3.156295e-02
-3.496930e-02
-6.972594e-03
-1.222952e-02
5.173661e-03
2.465807e-03
8.874006e-03
1.068825e-02
1.329018e-03
-7.457787e-03
-4.642496e-02
-7.450558e-04
-1.135675e-02
-4.255501e-03
3.861531e-02
-9.428428e-03
3.295647e-02
5.558065e-02
-8.375195e-03
7.611888e-03
-1.776704e-02
-1.203453e-03
2.997905e-02
-2.041921e-02
-1.997695e-02
-2.054470e-03
-8.841436e-03
2.365528e-02
2.191249e-02
6.624441e-03
9.446823e-04
2.431924e-02
9.339961e-03
-2.093388e-02
3.352524e-03
-2.984162e-04
2.357897e-02
-3.162929e-02
-1.015372e-02
1.035280e-02
-5.633332e-02
-2.972994e-03
-2.189224e-03
-4.925382e-02
-9.696642e-03
-7.679000e-03
-5.124140e-03
-3.757533e-03
1.219371e-02
1.878367e-02
-3.846228e-03
2.473241e-02
2.507553e-02
3.257575e-04
-2.484298e-02
8.418270e-03
2.054689e-02
-2.216216e-02
1.258684e-02
2.718118e-03
-1.431381e-02
1.884935e-02
-9.811946e-03
-1.171120e-02
1.330725e-02
-1.597885e-02
4.183106e-03
-2.607261e-03
-2.415181e-02
-3.911460e-03
-2.077260e-02
-2.614155e-02
-1.714047e-02
-2.286489e-02
-1.465914e-03
-1.737897e-02
-2.897450e-02
1.082319e-02
-2.186179e-03
-2.246898e-04
1.685178e-02
2.186961e-02
2.334528e-02
-1.601817e-02
2.723734e-02
2.288476e-02
-2.218447e-02
1.910205e-02
-1.588332e-02
-2.366351e-02
1.271222e-02
1.773252e-02
1.295278e-02
2.223018e-02
8.067532e-03
-2.810037e-02
-1.378165e-02
-1.269922e-02
-2.213839e-02
2.809895e-02
5.134160e-03
9.786571e-03
-9.130988e-03
-2.555128e-02
-9.486599e-03
3.185334e-03
-9.155074e-03
-3.997142e-03
5.293012e-03
-3.860532e-03
1.211626e-05
-8.313384e-03
3.200669e-03
9.849980e-03
-2.091974e-02
2.511783e-03
5.628349e-03
-1.409763e-02
-4.931422e-03
-1.077592e-02
6.900416e-03
-1.938839e-03
-5.154121e-03
-7.311425e-03
-9.791008e-03
1.623329e-03
-1.738112e-02
-1.914620e-02
-1.117404e-02
-2.238641e-03
-9.514705e-03
-1.342459e-02
-1.998372e-02
-1.737199e-02
-7.853307e-03
-3.370437e-02
-9.563813e-03
-1.047911e-02
-2.863270e-02
-9.630925e-03
-1.933657e-02
-9.992894e-03
3.382368e-05
-9.600508e-03
-1.749699e-02
-7.783338e-03
6.480734e-03
-7.397505e-03
-4.656301e-03
1.638767e-03
-5.180703e-03
2.910716e-03
-1.395517e-04
-3.095828e-03
-1.875993e-02
-3.730472e-03
-2.534375e-02
-2.876009e-02
4.352592e-03
-8.731452e-03
1.041349e-02
2.781815e-02
-3.236916e-03
8.072617e-04
-2.021547e-03
-7.364002e-03
-2.004321e-02
-5.780844e-04
-1.402433e-02
-9.601949e-03
2.278063e-02
3.945672e-03
-1.914158e-02
-4.333809e-02
3.596873e-02
7.476873e-04
-2.390546e-02
4.317777e-02
1.716461e-02
-5.947518e-04
-6.347004e-03
-3.232850e-02
-2.943324e-02
1.683159e-02
1.532911e-03
-3.240564e-02
2.022408e-02
1.988517e-03
-1.848523e-02
4.192120e-03
-8.715982e-03
-9.937317e-03
1.641819e-02
-1.462421e-02
-1.487912e-02
1.223217e-02
-8.739773e-03
-1.608426e-02
1.164569e-09
6.261122e-10
2.506888e-10
1.539314e-09
9.804624e-10
2.849452e-10
1.704131e-09
8.574691e-10
9.845268e-10
1.089949e-02
-4.217769e-03
-1.085475e-02
1.411237e-02
-1.848143e-03
1.492112e-02
2.060856e-02
4.983356e-03
1.597407e-02
-7.768215e-03
-6.042745e-03
7.047715e-03
-1.024892e-02
1.536052e-03
-2.334745e-03
-4.103732e-03
1.286880e-02
2.129364e-02
-6.265786e-03
2.749270e-02
7.377541e-03
-1.757655e-03
2.680327e-02
1.969622e-02
1.544961e-03
9.033543e-03
-1.159306e-03
2.013130e-05
2.558520e-06
8.755206e-06
1.843241e-05
1.906700e-06
1.414962e-05
4.401261e-06
-9.730578e-06
2.698516e-06
-5.594851e-03
3.704510e-03
6.431722e-03
-1.403339e-02
-8.922928e-03
-6.256382e-03
-1.795325e-02
-2.552717e-02
-1.777112e-02
-1.404049e-02
-1.859209e-03
1.387441e-02
5.155079e-03
1.899393e-02
2.028728e-02
2.336187e-02
4.291810e-02
4.498277e-02
3.398300e-03
1.376941e-02
1.486997e-02
-1.268254e-02
2.260793e-03
2.300501e-03
-2.280955e-02
-1.798595e-02
-2.248987e-02
-2.088599e-02
-3.484630e-02
-1.482044e-02
-2.264258e-02
-1.130940e-02
1.803854e-02
-5.131347e-03
1.042731e-02
1.945783e-02
1.894312e-02
1.203379e-02
2.101803e-02
7.514133e-03
-1.102489e-02
-7.798256e-03
-3.628275e-03
-1.624895e-02
-4.710663e-03
2.574427e-02
1.515709e-02
1.453858e-02
-5.383187e-03
-1.356064e-02
-4.085115e-04
-8.216160e-03
-1.142612e-03
-6.553608e-03
-2.690180e-03
-4.581902e-03
-2.731420e-02
-1.439302e-02
-2.760524e-02
-9.577171e-03
-5.109983e-03
-9.041269e-03
-9.284239e-03
2.641709e-02
1.807984e-02
2.664897e-02
-3.269963e-02
-1.213218e-02
-3.579739e-02
-2.273535e-03
1.991187e-03
-4.735975e-03
-4.874466e-03
-1.272739e-02
1.930848e-03
2.365817e-02
2.880113e-02
2.283295e-02
-9.915776e-03
-1.467903e-02
1.056551e-02
-3.098425e-02
-1.013863e-02
1.051439e-02
9.369816e-03
-1.684506e-03
-1.563625e-02
3.454570e-03
2.286787e-02
4.039186e-03
1.243381e-02
2.594801e-02
2.226737e-02
-3.305440e-03
-5.428564e-03
-2.494076e-03
-3.589141e-03
-4.990926e-03
-1.625962e-02
-7.032610e-03
-2.269571e-02
-3.972993e-02
-8.356029e-03
1.166641e-03
7.964665e-04
-1.625083e-02
-4.166040e-04
8.141791e-03
9.947294e-03
6.828047e-02
8.061809e-02
-6.383765e-03
2.684394e-02
2.200834e-02
-3.213780e-02
-2.782485e-02
-1.215094e-02
1.987803e-04
-1.073488e-02
-2.649513e-02
-9.642220e-03
-1.731017e-02
-3.400254e-03
9.368633e-03
-4.800360e-02
-5.937481e-02
1.168025e-02
4.192549e-02
4.230899e-02
7.597728e-04
3.644947e-02
2.535640e-02
-9.650370e-04
3.851612e-02
1.908670e-02
-2.209862e-02
-2.169213e-02
-3.540106e-02
4.584257e-03
-1.822441e-02
1.054572e-02
-3.797634e-02
-7.591712e-03
-1.376907e-02
7.921484e-03
-2.135534e-02
-1.627018e-02
3.206549e-02
-3.945007e-03
1.584034e-03
2.655398e-02
1.373793e-02
2.523896e-02
-1.581665e-02
1.962981e-03
7.355846e-03
-2.373759e-02
1.960256e-02
1.813461e-02
9.726543e-03
3.267123e-02
4.661553e-02
-3.402403e-02
4.374153e-03
-1.346777e-02
1.373982e-02
1.317327e-02
1.560862e-03
1.126395e-02
1.367855e-02
8.793453e-03
1.215785e-02
3.835102e-02
5.200770e-02
2.102775e-02
1.236974e-02
2.118347e-02
3.330155e-02
1.379572e-02
1.516409e-04
-1.612844e-02
-1.871252e-02
-4.300132e-03
4.567480e-03
-3.005029e-02
-2.250711e-02
4.511724e-02
1.958723e-02
3.975011e-03
2.537448e-02
3.726899e-02
6.118395e-03
-2.034472e-02
6.859048e-03
-3.146935e-03
-2.694094e-02
-4.650918e-03
1.038602e-02
1.005073e-02
1.035008e-02
1.064023e-02
-2.793553e-03
-1.163510e-02
-2.283258e-02
2.105780e-02
-1.706116e-02
-2.483738e-02
2.037016e-02
-8.833344e-03
-1.152889e-02
-2.767879e-02
-9.601294e-03
3.777503e-03
-3.841799e-02
-2.043010e-02
6.294226e-03
-3.382402e-02
-2.885929e-02
-2.600129e-02
-1.679134e-02
1.111029e-02
2.942880e-02
-1.019806e-02
1.659138e-02
2.770169e-02
-2.903118e-02
-1.644044e-02
-6.592123e-03
-2.286888e-03
1.141670e-03
-2.775912e-02
6.458692e-02
3.581288e-02
-1.296419e-02
-1.193504e-02
2.171535e-02
1.858610e-02
-2.833363e-02
-2.539715e-02
2.578193e-03
-2.380882e-02
-3.066343e-02
-1.622164e-02
9.565875e-10
2.270562e-09
3.006059e-09
4.299075e-10
-4.570184e-10
-2.497985e-11
-1.738861e-10
-7.217757e-10
-5.820122e-10
1.260874e-02
2.146670e-02
3.284041e-02
1.259521e-02
7.973901e-04
2.583071e-02
1.191342e-02
-6.008777e-03
3.197401e-02
4.680139e-03
-1.436152e-02
-3.075541e-02
7.414942e-03
1.311586e-02
-5.422008e-02
-1.205207e-02
-2.395647e-02
-2.970181e-02
2.683656e-02
1.139979e-02
-2.271793e-02
1.842587e-02
1.152288e-02
-3.617156e-02
-9.697009e-03
2.069129e-02
-1.606137e-02
4.345899e-06
1.783697e-05
1.398124e-05
-4.020135e-06
-7.282228e-06
7.743150e-06
-4.490601e-06
-3.630086e-06
1.140626e-06
2.325231e-02
1.308372e-02
-6.425425e-03
-8.486615e-03
4.284675e-03
6.169146e-03
-2.924135e-02
-9.833262e-03
1.115730e-02
-7.637504e-03
-5.145319e-03
1.110811e-02
-1.002601e-02
5.588388e-03
3.490794e-02
6.157208e-03
-1.908432e-02
3.914469e-05
9.332810e-03
1.384113e-02
-3.809120e-03
-4.507130e-03
-7.474671e-03
-1.701747e-02
-3.047142e-02
2.209426e-02
3.016148e-02
-1.548316e-02
-3.871435e-03
2.212701e-02
3.329680e-03
-1.016156e-03
9.168595e-03
4.544530e-03
9.250855e-03
-4.090998e-03
2.902094e-02
3.409484e-02
1.732803e-02
-4.200538e-03
-1.138721e-03
5.306001e-03
-1.626528e-02
-2.372202e-02
-2.112282e-02
-2.957916e-02
-7.205459e-02
-1.264519e-02
5.299706e-02
-1.648712e-02
-1.075744e-02
2.286247e-02
-5.412595e-02
2.991393e-03
-1.956639e-02
4.936317e-02
7.015074e-03
3.100100e-02
-3.211295e-02
-6.053663e-02
1.391688e-02
-8.449413e-02
-5.012536e-02
-2.657802e-02
-3.784452e-02
-2.264093e-02
8.012643e-03
-8.922920e-02
2.069812e-02
-2.381902e-02
2.364526e-02
7.156397e-02
8.980492e-04
4.042889e-03
-5.957495e-02
-1.249548e-03
1.025763e-03
1.833639e-02
-7.050734e-03
2.503060e-02
1.212741e-02
-2.202314e-02
2.983426e-02
1.215710e-02
3.125387e-02
2.393568e-02
3.104088e-02
4.675779e-02
-3.096775e-02
-1.887305e-02
-8.945325e-02
-5.561504e-02
-5.616284e-02
1.429223e-02
2.999591e-04
3.012976e-02
7.397151e-02
4.377410e-02
5.775436e-02
-4.165892e-03
-8.911583e-03
-2.233267e-02
-5.966162e-05
1.097684e-02
-5.791543e-05
1.158873e-03
2.561049e-02
-1.444673e-03
-2.039553e-02
1.713135e-02
2.709642e-02
-2.069819e-02
7.407842e-03
-3.762121e-03
-2.985168e-03
-6.358320e-03
-1.079411e-03
-1.287418e-02
3.666335e-02
-5.574804e-03
2.120070e-02
8.180109e-02
2.385643e-02
5.416577e-02
1.320007e-01
8.788215e-02
5.724926e-03
-2.167886e-02
-3.222998e-02
1.149190e-02
-2.929545e-02
-3.544271e-02
-1.196360e-02
-3.826178e-02
-2.237555e-02
-1.467833e-02
-2.252246e-02
-3.844773e-02
-1.128650e-02
-4.876655e-03
-2.147480e-02
2.163971e-02
2.594105e-02
-1.928735e-02
-4.779154e-02
-4.438313e-03
-3.431898e-02
3.784447e-02
6.808899e-02
-8.141378e-03
3.516289e-02
7.333076e-02
1.494323e-02
-2.443272e-03
1.723946e-02
-5.448726e-02
-3.276857e-03
-1.606750e-02
4.428874e-04
5.170479e-02
3.426768e-02
2.501782e-02
1.620163e-02
1.999244e-02
9.493851e-03
4.505455e-02
-3.895990e-02
1.229276e-02
-3.632530e-02
-4.184617e-02
-3.542103e-02
3.591833e-03
-7.248394e-03
8.938853e-04
-1.239077e-02
-2.895767e-02
-1.925406e-02
2.410882e-02
4.397999e-02
3.484801e-02
1.636280e-02
-7.114146e-03
-2.515518e-02
1.930542e-02
-9.646957e-03
-2.221026e-02
1.003074e-02
1.856441e-02
6.938912e-03
-2.770959e-02
-2.238205e-02
-1.329803e-02
2.770558e-02
-3.766725e-02
-2.555924e-02
2.257307e-03
-5.599266e-02
-4.305817e-02
-8.305642e-02
-3.190958e-02
1.303563e-02
9.347739e-03
8.397885e-03
1.740916e-02
3.416824e-02
-3.518775e-03
7.748111e-03
1.488001e-02
3.266850e-02
3.660948e-02
-2.165475e-02
6.534284e-02
3.966200e-03
2.695415e-02
9.352685e-02
6.635504e-02
7.797502e-02
2.808630e-02
-9.860824e-04
4.694291e-03
1.469061e-03
8.707573e-03
-5.724442e-02
-2.046669e-02
1.187082e-02
-2.149573e-02
1.130745e-02
-2.232946e-02
-2.738018e-02
3.047281e-02
4.973174e-02
-3.900079e-02
-1.309217e-02
5.377447e-03
2.226819e-02
2.470543e-02
-1.370601e-02
1.453848e-02
-3.154365e-02
-1.958203e-02
4.220133e-04
-7.482482e-02
-7.864182e-02
-3.049769e-09
-2.934228e-09
-2.302227e-09
-3.653225e-09
-2.186958e-09
-1.555321e-09
-2.507381e-09
-1.139561e-09
-1.051725e-09
6.266751e-02
-5.629869e-03
-4.223605e-02
-2.731983e-02
-7.246477e-03
-3.989961e-02
-1.714353e-02
2.469484e-02
-1.579675e-02
2.734351e-02
1.762506e-01
1.021038e-01
-2.775253e-02
-2.160981e-02
-3.449330e-03
-9.120846e-02
-1.011892e-01
-8.544026e-02
1.639845e-02
-1.884063e-02
-1.414682e-02
2.422494e-02
3.383426e-03
-4.344181e-03
3.218013e-02
-1.421671e-03
1.131037e-02
-1.603207e-05
-5.234531e-06
-6.954116e-06
-2.533748e-05
-2.297581e-05
-6.476115e-06
7.308426e-06
2.936039e-06
-1.545283e-05
-2.006122e-02
-4.032837e-03
-2.833560e-02
9.830904e-03
-2.396696e-02
-6.994291e-02
2.007374e-02
-6.227659e-03
-2.588832e-02
2.482718e-03
-1.809357e-02
-2.749682e-02
-1.668187e-02
-3.913843e-02
-3.409402e-02
-1.121311e-02
-2.342045e-03
-2.647504e-02
7.583815e-03
7.848907e-02
4.540927e-02
-2.684369e-02
2.441005e-02
3.068098e-02
-5.541862e-02
-2.840611e-02
-1.199571e-02
-6.826626e-03
2.885091e-02
2.984845e-02
-3.171241e-02
-5.906604e-02
1.548985e-02
-4.410512e-02
-3.169257e-02
3.586327e-02
-6.442745e-02
-1.522480e-02
-2.096899e-02
-8.003778e-02
-1.044090e-02
-3.254713e-03
-3.562209e-02
-1.329637e-02
-1.502983e-03
-1.825464e-02
-2.487538e-02
-3.043999e-02
-9.972401e-03
-1.483866e-02
-3.930557e-02
2.667637e-02
9.558324e-03
-2.310271e-02
-3.282100e-03
-2.446427e-02
-4.838886e-02
-1.962689e-02
-2.230942e-02
-3.237241e-02
-1.200619e-02
1.406073e-02
6.773575e-03
1.379437e-02
2.406461e-02
1.380962e-02
-1.439886e-02
1.398981e-02
2.051542e-02
-8.413077e-03
1.945094e-02
3.148574e-02
-1.902929e-02
1.578533e-02
2.243670e-02
1.273640e-03
1.270912e-02
7.487565e-03
1.989433e-02
1.246270e-02
-1.308476e-02
1.640801e-02
-1.067205e-02
-1.274987e-02
3.095577e-03
-1.517604e-02
7.463282e-03
-6.636846e-04
-6.780018e-03
3.219445e-02
-3.546916e-02
-1.844472e-02
9.010733e-03
-3.305331e-02
2.767659e-02
2.136838e-03
-1.198748e-02
1.815869e-02
-6.154886e-03
-4.991867e-02
-5.604628e-03
4.912427e-02
-6.827296e-02
-1.821180e-02
2.302680e-02
-2.119331e-02
1.006756e-02
5.465013e-03
-3.614580e-05
1.440167e-02
1.833174e-03
2.394704e-02
4.065879e-02
-1.460966e-02
1.470637e-02
3.640813e-04
-2.291523e-02
-1.994330e-02
-1.516932e-03
-2.955585e-02
2.738101e-04
-9.973206e-03
-1.385648e-02
2.957464e-03
-4.085783e-03
-9.724877e-03
9.684477e-03
4.858230e-02
2.023446e-02
-1.763331e-02
2.096912e-02
1.756749e-02
-4.977824e-02
-3.290424e-02
-2.160211e-02
-1.638182e-02
-4.754500e-02
-5.546341e-02
-2.736714e-02
-5.774628e-02
-4.836668e-02
-1.635039e-02
-2.525451e-02
-4.620554e-02
7.449851e-03
-5.028042e-03
1.194773e-02
1.435793e-02
1.806855e-02
2.920937e-02
3.233558e-02
3.487815e-02
3.176630e-02
-1.696978e-02
-5.249371e-02
-5.104026e-02
-6.005448e-02
-3.602672e-02
-3.794141e-02
-5.390618e-02
-2.259045e-02
-1.446788e-02
6.537895e-03
6.826323e-02
8.956252e-03
5.004161e-02
9.327016e-02
3.233271e-02
7.290812e-02
6.240670e-02
2.008394e-02
4.748514e-03
-3.292016e-03
-1.609190e-02
2.276630e-02
3.340424e-02
6.322817e-03
6.548665e-03
2.177853e-02
-7.158304e-03
-3.498680e-02
-6.309040e-02
-4.550578e-02
-4.490831e-02
-6.722361e-02
-6.313004e-02
5.088864e-03
-1.570020e-02
-2.458193e-03
-2.000412e-02
-5.792040e-03
5.591315e-03
-2.890424e-02
-1.394252e-02
1.418761e-02
-1.071681e-03
-6.575574e-03
1.066163e-02
-5.917073e-03
-2.656181e-02
-6.432148e-03
-3.007068e-02
-3.908618e-02
1.262893e-02
-1.719545e-02
1.769094e-04
6.477341e-03
-1.860154e-02
-3.109911e-02
-1.718819e-02
-2.547614e-03
1.289583e-03
-2.410827e-02
2.540091e-02
6.982634e-03
-6.642265e-04
1.079651e-02
3.574975e-02
1.401095e-02
4.647502e-02
7.307222e-02
5.121985e-02
2.889075e-02
6.190040e-02
5.601003e-02
1.487467e-02
-9.409526e-03
-2.850443e-03
2.789900e-02
3.019963e-02
8.333410e-03
-1.807567e-02
1.175175e-03
1.178746e-02
3.258354e-02
1.181753e-02
-8.363973e-03
1.058834e-02
8.659253e-03
-4.380768e-03
-1.080103e-03
-2.061493e-02
-1.011264e-02
-1.470204e-09
-1.107355e-09
-8.429704e-10
-8.534037e-10
-9.185504e-10
2.406138e-10
-1.292665e-09
-9.893876e-10
1.939881e-10
1.549988e-02
3.497035e-02
2.807169e-02
-3.999321e-03
1.281721e-02
2.030769e-02
1.807065e-03
-2.764779e-02
-3.808067e-02
-2.085028e-02
-1.637609e-02
4.303928e-03
2.658238e-03
-1.888536e-03
2.047401e-02
-1.258264e-02
9.004710e-03
5.613850e-02
-2.012188e-02
-1.170190e-02
2.737601e-03
-4.033505e-03
2.122767e-02
1.334773e-02
-2.487582e-03
3.227771e-03
-1.585269e-02
-2.298414e-05
-2.043218e-05
-2.727801e-05
-1.051451e-05
-1.361833e-05
-1.412463e-05
-2.146738e-06
-4.118949e-06
5.807778e-06
-2.583770e-02
-2.171776e-02
3.566926e-02
-1.317144e-02
-2.001749e-02
3.033488e-03
-1.931929e-02
9.044346e-03
1.571047e-02
-2.214546e-02
-1.672635e-02
2.672070e-03
-4.342036e-02
-3.701441e-02
-3.518503e-02
-2.514591e-02
-1.705603e-02
-1.700260e-02
3.047882e-02
2.879086e-02
2.380974e-03
1.507370e-02
3.808391e-02
-8.756042e-04
1.225401e-02
2.327253e-02
4.270793e-03
-2.759789e-02
-4.229070e-02
-6.720930e-03
-1.551527e-02
-2.931330e-02
-2.653864e-02
-1.550006e-02
-1.527613e-02
-3.051095e-02
1.830342e-02
-1.052130e-02
-3.249287e-02
-4.268344e-02
-4.976770e-02
-4.191998e-02
-1.188626e-02
6.534148e-03
4.349882e-03
3.722114e-02
5.461095e-04
-3.762830e-02
1.024005e-02
-2.868961e-02
-1.522162e-02
-9.134858e-03
-1.851208e-02
2.190591e-03
5.505209e-03
-7.011862e-02
-4.135647e-02
-2.432124e-02
-5.276690e-02
-1.988717e-02
-2.220411e-02
-2.926297e-02
3.928022e-02
-1.139980e-03
-1.842890e-02
3.435773e-02
1.292535e-02
3.541935e-02
1.497604e-02
2.563500e-02
-2.459706e-02
1.072278e-02
-5.263502e-03
-1.480362e-02
3.328990e-03
8.848255e-03
-3.077294e-02
-5.890643e-03
1.756132e-02
2.832614e-03
7.822116e-03
3.474428e-02
1.669772e-02
-1.455279e-02
3.121829e-02
7.902899e-03
4.814711e-04
2.531673e-02
1.763776e-02
4.063214e-02
3.475224e-02
3.523010e-02
2.746573e-02
-2.178454e-02
-1.768734e-02
-2.762170e-02
-3.025464e-02
-9.381213e-03
-8.198721e-03
-8.509060e-03
-4.195309e-02
-5.104559e-02
-2.822057e-02
-5.934159e-02
-5.083014e-02
-2.048096e-02
-4.858210e-02
-2.787439e-02
2.588080e-02
9.004911e-03
2.198152e-03
3.243687e-02
1.901235e-02
5.052318e-03
2.852025e-02
1.104676e-02
-1.601433e-02
-6.451441e-04
1.674744e-02
1.760710e-04
3.863453e-02
6.738343e-02
2.314322e-02
-4.600629e-02
-2.214262e-02
-7.502153e-03
1.451964e-02
-3.273791e-02
-5.220637e-02
-1.208597e-02
-2.573000e-02
-1.792004e-02
2.171837e-02
1.380860e-02
4.300027e-04
-1.697938e-02
-1.352466e-02
2.036345e-02
3.547647e-03
3.391781e-02
-1.444177e-02
-3.373959e-02
-1.103104e-02
-2.621628e-02
-3.320356e-02
-2.613426e-03
1.677038e-02
-1.669540e-02
6.936151e-04
3.202284e-02
-9.547013e-03
1.765337e-02
1.078304e-03
7.856268e-03
-4.048495e-02
-2.034366e-02
-5.413013e-02
-3.784762e-02
-5.459022e-02
-5.081211e-02
-2.951919e-02
-2.290779e-02
-1.604625e-02
4.376884e-02
1.187649e-02
-2.414620e-02
2.200468e-02
-7.887423e-03
-7.064400e-03
1.451052e-02
3.580855e-03
4.000461e-02
3.068396e-02
1.163393e-02
-2.478826e-02
-2.153846e-02
-2.423725e-02
-3.962609e-02
-1.563650e-02
5.899630e-03
-1.565509e-02
-1.734230e-02
-1.807718e-02
3.954284e-03
7.912104e-03
1.028583e-03
-1.523195e-02
-1.216833e-02
-1.965255e-02
-1.590927e-02
-1.649729e-02
-2.540169e-02
-3.360155e-02
-1.047667e-02
-3.606338e-02
-1.021078e-02
2.684591e-02
-1.262867e-02
3.959455e-03
3.330738e-02
1.597806e-02
5.695968e-02
9.152879e-02
5.497421e-02
-2.618739e-02
-3.521122e-02
-3.019870e-02
3.922638e-02
6.134463e-02
4.653810e-02
3.117611e-02
1.095566e-02
-8.563531e-03
-2.414672e-03
-5.239226e-02
-1.591209e-02
3.059812e-02
-1.424706e-02
2.464467e-02
-9.778684e-03
-5.286812e-02
-1.103046e-02
-3.193639e-03
-3.224101e-02
-1.783868e-03
-1.212626e-02
-6.245762e-02
-7.420193e-02
-2.406985e-02
-6.235421e-02
-9.280900e-02
1.627053e-02
-5.990275e-03
-2.883090e-02
-2.369252e-02
-1.339553e-02
-1.342510e-02
-2.090253e-02
1.689460e-03
-1.827829e-02
3.289980e-02
4.044508e-02
4.507056e-02
-3.296841e-10
3.374785e-10
6.986166e-10
-1.154102e-09
-9.525513e-10
-6.504351e-11
7.664906e-10
9.578522e-10
2.028415e-09
2.587177e-02
-7.290943e-04
-2.802498e-03
3.508697e-02
-1.277975e-03
-3.649782e-02
3.634636e-02
1.136975e-02
-9.558781e-03
4.242774e-02
2.532848e-02
2.187005e-02
-1.884529e-02
-2.017774e-02
-8.228272e-03
4.285558e-02
2.024671e-02
1.622150e-02
-1.028386e-02
-3.022907e-03
-5.826716e-03
5.144501e-03
9.132528e-03
6.866498e-03
4.566056e-02
2.248124e-02
-5.050560e-03
-3.758624e-06
-2.843022e-05
-1.245031e-05
8.601161e-06
-1.028545e-05
-6.388448e-07
8.992396e-07
-7.143959e-06
1.355322e-06
-2.307949e-02
-8.995820e-03
-1.465404e-02
-7.895924e-03
8.344950e-03
-1.550347e-02
3.454836e-02
1.350884e-02
-7.533295e-04
-1.077601e-02
-1.712575e-02
-6.955301e-02
4.404327e-02
3.311218e-02
-8.899151e-03
4.961852e-03
3.297712e-03
2.912065e-02
-9.279191e-03
-9.902738e-03
-1.458291e-02
-2.258576e-03
-9.437038e-03
-2.019026e-02
1.449685e-02
1.268812e-02
-2.100911e-02
3.347626e-02
1.897130e-02
-2.921951e-02
4.068487e-02
1.222526e-02
-3.806913e-02
1.410259e-02
2.530070e-02
2.611519e-02
-4.678076e-02
-1.734343e-02
-6.245191e-03
4.540438e-03
-1.294977e-03
1.133075e-02
1.939372e-02
2.307234e-02
3.106009e-02
-2.446279e-02
-1.542139e-02
-4.013996e-02
-2.695769e-02
-1.179589e-02
-2.513169e-02
-4.433241e-03
-4.023157e-03
1.238046e-03
2.523510e-02
-4.941552e-02
-8.917987e-03
5.081574e-02
-1.905940e-02
4.590675e-03
3.405517e-02
-1.380535e-02
-2.819174e-03
1.463814e-02
3.826966e-02
2.408409e-02
6.547507e-03
7.059189e-03
-2.697983e-03
-1.488059e-02
-1.987519e-02
1.866590e-03
-2.147374e-02
-2.901410e-02
1.714267e-02
-1.962139e-02
-2.753501e-02
8.523741e-03
-1.560274e-02
-1.288631e-02
-3.127228e-02
2.779383e-02
-4.272513e-03
-2.185401e-02
1.205553e-02
-1.811228e-02
-2.585913e-02
-4.521405e-03
1.308550e-02
1.328427e-02
-2.043616e-02
-5.928725e-02
-1.114489e-02
-3.440000e-02
-5.188484e-02
5.799097e-03
-3.029756e-02
-2.144990e-02
4.183263e-02
8.374894e-03
-8.279668e-03
-7.030963e-03
2.369338e-02
2.090195e-02
7.560229e-03
1.723547e-02
1.519957e-02
-1.074207e-02
-1.614506e-02
3.409844e-02
-1.926815e-02
1.727227e-02
4.367363e-02
2.038072e-02
1.810109e-02
1.058124e-02
-8.888653e-03
3.536867e-02
3.635874e-02
1.966686e-02
-1.297123e-02
-3.337111e-02
-1.818485e-02
5.736391e-02
2.029086e-02
-2.043421e-02
2.365700e-03
1.384694e-02
-2.131095e-02
1.526037e-02
2.378691e-02
-2.062494e-02
5.383374e-03
1.472207e-02
-4.187343e-02
-5.914156e-02
5.439864e-03
4.859080e-02
-3.187802e-02
1.576658e-02
9.851621e-02
7.078381e-03
-1.055768e-02
7.474185e-03
1.173884e-02
-1.785756e-03
-2.489113e-02
-1.410035e-02
-3.163603e-02
-5.438229e-02
8.383662e-03
-1.766265e-02
-3.119136e-02
3.249890e-02
5.138330e-02
5.951080e-02
-1.199762e-03
1.855581e-02
1.911899e-02
-1.610136e-02
-4.259466e-03
-2.526268e-03
2.802552e-03
2.720048e-02
9.222873e-03
-3.119283e-03
5.014747e-03
-2.949595e-02
-2.711870e-02
1.402787e-03
-2.906694e-02
5.296447e-03
-1.488728e-02
-1.202075e-02
-5.907379e-02
-7.675400e-02
-6.700570e-02
-6.570287e-02
-5.779926e-02
-4.935267e-02
1.397917e-02
1.581840e-02
3.864172e-03
2.272548e-02
1.159232e-02
5.068824e-03
-2.138263e-02
-1.253301e-02
-3.957466e-03
-3.219683e-02
-3.903450e-02
-1.671770e-02
3.204065e-02
6.778282e-04
-1.624130e-02
4.449902e-02
7.703093e-03
-1.450899e-02
4.641368e-03
-1.244649e-02
6.347471e-05
-3.185176e-02
-3.679579e-02
-2.187488e-02
-1.867621e-03
-3.813897e-02
-4.735965e-02
-1.631634e-02
-4.121459e-03
-4.085557e-03
-2.554349e-02
-7.112505e-03
1.734483e-02
4.482502e-03
-1.685902e-03
2.620220e-02
-4.308334e-02
-5.111245e-02
-1.918191e-02
1.586407e-03
-1.199184e-02
-2.918798e-02
2.099454e-02
-5.832430e-03
-1.540091e-02
-2.263116e-02
-1.423934e-02
2.381859e-02
-4.366744e-02
6.658815e-03
1.417695e-02
-6.565759e-02
-2.385086e-02
-2.461375e-02
-2.964887e-02
-3.549777e-02
-3.325703e-02
-2.718543e-02
-2.066734e-02
-2.929470e-02
-2.184610e-02
3.011128e-02
2.588140e-02
-1.690035e-10
-2.700594e-11
8.309832e-10
-7.605874e-10
-1.697963e-10
-2.265416e-10
-1.064812e-09
8.437245e-11
5.689855e-10
-1.224055e-02
-1.348472e-02
-5.898139e-02
-8.674582e-03
-1.067872e-02
-4.904735e-02
1.547227e-05
-2.673453e-03
-2.366151e-02
-6.383488e-03
-2.230703e-02
-3.592571e-03
2.058953e-02
4.430632e-02
3.749257e-02
1.598746e-02
2.290389e-02
-1.109962e-02
-2.416977e-02
-8.016151e-04
2.771379e-02
-6.075709e-02
-5.425495e-02
-1.035376e-02
-2.974880e-02
-2.618663e-02
2.731515e-02
1.616705e-05
5.035692e-06
-1.497062e-05
-1.111067e-06
-1.014457e-05
-1.683271e-05
-4.546323e-06
7.468275e-07
-3.267877e-06
-4.326973e-02
-7.178982e-03
7.325422e-03
-3.822284e-02
-1.141711e-02
1.107452e-02
-2.505936e-02
-4.086114e-02
-4.143516e-02
2.842178e-04
-1.656297e-02
1.155833e-03
-3.542649e-02
-6.191118e-02
-4.435625e-02
-4.129902e-02
-7.031666e-02
-4.849738e-02
4.581500e-02
-5.175875e-03
-7.907585e-03
6.684666e-02
7.515003e-03
-3.784914e-02
-1.153982e-02
-3.420991e-02
-7.395893e-03
4.040971e-02
-1.233094e-02
-4.229541e-02
-6.811684e-03
4.105708e-03
-2.258928e-02
-1.188175e-02
-1.279579e-02
3.367816e-03
1.973443e-02
-1.154649e-02
-1.619504e-03
-7.109794e-03
-3.413861e-02
-5.970482e-03
-3.099782e-02
-2.643771e-02
1.637639e-02
1.915227e-02
1.118732e-02
-1.396439e-02
2.272187e-03
1.044238e-02
-1.813220e-02
6.849807e-03
-2.037152e-02
-1.543569e-02
-2.044559e-02
4.922844e-03
4.221169e-02
6.723632e-03
-3.073147e-04
1.767162e-02
-5.123046e-03
2.014372e-02
4.661520e-03
-1.596211e-02
1.955651e-02
-1.160278e-02
1.010726e-01
1.045545e-01
1.095502e-01
2.484784e-02
1.215205e-01
1.357978e-01
-3.675730e-03
-1.285028e-03
3.428212e-02
-1.268812e-02
-8.060470e-04
3.051563e-02
-1.027627e-02
-2.620143e-02
-1.067119e-02
-4.943963e-03
2.102828e-02
1.407100e-02
2.011473e-02
3.662504e-03
-1.007700e-02
-1.702609e-02
-3.193023e-02
-2.383544e-02
-3.307941e-02
-3.534661e-02
-9.644169e-03
-1.662906e-02
-1.144030e-02
2.154144e-02
7.156198e-03
-2.862760e-02
5.942454e-03
-3.380428e-03
1.860630e-02
6.494496e-04
-2.222805e-02
2.992137e-02
1.307726e-02
-2.054119e-02
1.458830e-03
-2.955758e-02
-9.464985e-03
1.026648e-02
-3.380148e-03
7.015542e-03
2.196264e-02
1.349692e-04
9.769343e-03
4.067046e-02
9.813851e-03
1.735919e-02
2.767436e-02
1.303177e-03
2.748604e-03
6.295172e-03
-1.556618e-03
-5.613436e-04
-9.268059e-03
-2.728405e-02
1.793267e-02
3.078269e-02
2.063229e-02
2.275888e-02
6.327012e-04
1.940829e-02
3.766037e-03
-2.401414e-02
-1.170627e-02
-2.248183e-02
1.523332e-02
2.993077e-03
-3.865043e-02
-1.566332e-02
9.245436e-03
-9.509203e-03
-3.364831e-02
-2.490493e-02
-1.695997e-02
1.835129e-02
2.684618e-02
-5.365729e-03
-1.390172e-02
7.631730e-03
3.194432e-02
-1.282376e-04
-2.506154e-02
-1.283203e-02
1.345972e-02
-1.668705e-02
-3.284845e-02
-3.996237e-02
-4.023096e-02
-1.133145e-02
-3.362545e-02
-3.610343e-02
-6.301643e-03
-9.034096e-03
-2.142897e-03
-2.188577e-02
-4.515128e-02
-3.037610e-02
1.067126e-02
-2.702792e-02
3.205203e-03
5.108063e-02
3.056513e-02
2.967724e-02
7.279854e-03
-1.117600e-02
-1.791343e-02
7.806481e-03
-6.384131e-03
-3.294936e-02
-5.101059e-02
-1.863379e-02
-2.477098e-02
-2.784429e-02
-3.711908e-04
-1.354679e-02
-2.039204e-02
-2.968230e-03
-1.015583e-02
2.311818e-02
-5.270673e-03
-3.583050e-02
-1.839089e-03
6.629607e-03
-3.969652e-02
-3.679287e-02
1.178403e-02
-1.332256e-02
-1.549565e-02
-2.486322e-02
-1.182321e-02
-1.278821e-02
-2.511074e-02
-5.960898e-03
-1.960869e-02
-5.316981e-03
-5.709777e-03
1.406332e-02
-2.590745e-04
-5.935372e-02
1.119430e-02
4.795906e-02
6.438802e-02
-4.100817e-02
-6.001801e-03
3.466916e-02
-4.126821e-02
-9.885496e-03
1.668350e-02
-2.941426e-02
-1.034282e-02
-2.930594e-03
2.927828e-03
-1.722591e-02
-3.398049e-03
-1.906248e-02
1.060240e-02
3.175400e-02
3.861844e-03
6.845014e-03
2.451836e-02
3.940803e-02
-2.900489e-02
-2.374573e-02
-2.451136e-03
1.659343e-04
8.178107e-03
-3.143960e-03
-2.206722e-02
-2.109484e-02
1.955141e-02
-4.778132e-03
-2.415463e-02
-2.390853e-09
-2.238867e-09
-2.146338e-09
-1.086525e-09
-1.445851e-09
-1.778518e-09
8.214922e-10
7.495503e-10
3.454543e-10
4.524000e-03
-3.227798e-02
-4.363458e-03
1.467196e-02
-3.401748e-02
-2.585281e-02
-5.226402e-03
-6.562234e-02
-5.214022e-02
-3.674978e-02
2.156777e-02
4.230663e-02
-4.665940e-02
-2.944547e-02
9.089641e-03
6.502157e-03
-3.712438e-02
-2.425632e-02
3.433626e-03
-1.846917e-02
1.891258e-03
1.901428e-02
8.809954e-03
-1.920493e-02
3.525861e-02
3.017290e-02
3.972274e-03
-2.729975e-05
-1.067872e-05
5.970884e-06
-1.935899e-05
-2.209310e-05
9.205835e-07
5.444269e-06
-4.301881e-08
1.761471e-05
3.408812e-03
6.416435e-04
-2.969366e-02
-1.048426e-02
-1.865956e-02
-2.061108e-02
-2.676302e-02
-1.079937e-02
-1.888720e-02
-1.569763e-02
-7.459248e-03
-3.563350e-02
1.595796e-03
4.177582e-03
-2.057383e-02
-1.842647e-02
-6.270264e-03
-3.682457e-02
1.291107e-02
4.721799e-02
7.950879e-02
-8.809071e-03
-7.908983e-03
2.627088e-02
-3.700487e-02
-8.609680e-02
-4.166927e-02
-1.332886e-02
-4.169104e-02
-1.567271e-02
3.400507e-02
7.225468e-05
2.166907e-02
-3.257716e-03
1.062761e-02
2.788502e-03
2.819080e-02
-3.002640e-03
1.068766e-03
1.057437e-02
-3.296538e-02
-1.543312e-02
-3.423827e-02
-1.673514e-02
-1.595380e-02
1.825004e-02
8.012419e-03
-2.511700e-02
2.237790e-02
3.738835e-02
-8.325882e-03
-4.663969e-02
-1.122330e-02
4.207616e-02
3.972894e-02
-5.848734e-03
-2.551132e-02
3.536388e-02
8.090529e-03
1.414856e-02
-2.739201e-02
-3.649230e-02
3.616682e-02
-1.625068e-02
2.439923e-02
6.101917e-02
7.072555e-02
-2.900359e-02
1.183297e-01
1.229548e-01
1.750334e-01
1.588087e-01
-2.505998e-02
-5.041557e-03
-3.251789e-03
8.978965e-03
2.310367e-02
4.145799e-02
-1.064837e-02
-4.104431e-02
-5.739750e-03
-1.168753e-02
2.416932e-02
-2.085370e-02
6.186039e-02
4.153478e-02
-1.253520e-02
-3.132135e-03
-1.262238e-02
-3.422106e-03
3.770049e-02
2.310855e-02
-4.095925e-02
7.489762e-02
6.058596e-02
2.743550e-03
-2.331699e-02
-3.307449e-02
-1.317588e-02
2.874782e-02
-2.757755e-02
-2.273593e-02
1.020858e-02
-1.044082e-03
-2.603306e-02
-2.023855e-02
-1.657885e-02
-2.493393e-02
1.766898e-02
-5.831838e-03
1.874265e-02
3.440440e-02
1.232117e-02
2.241775e-02
3.178166e-02
-2.498579e-02
4.451242e-03
-2.631352e-02
-2.551864e-02
-4.192908e-02
-4.351029e-02
-5.161877e-02
-6.429135e-02
-1.170303e-02
9.859358e-03
-3.695309e-02
-2.473018e-02
-1.232632e-02
1.362318e-02
-1.843054e-04
2.341747e-02
4.572692e-02
-3.711666e-02
2.037951e-02
2.260614e-02
-1.240533e-02
2.502714e-02
1.640554e-02
1.494691e-02
4.341128e-02
2.690208e-02
-2.862419e-02
-4.302526e-02
-3.201298e-02
-1.192278e-02
-4.247205e-02
-3.551421e-02
1.818157e-02
-8.706675e-03
-8.879299e-03
1.273374e-02
1.821378e-03
-1.803209e-02
3.493588e-03
1.579383e-02
3.917246e-02
-4.084544e-02
-3.072682e-02
-5.831726e-03
-2.650185e-02
-3.092616e-02
-2.342921e-02
-1.822546e-03
1.882190e-02
5.590948e-02
3.811012e-04
-1.986363e-02
1.442723e-02
-2.671861e-02
-5.498238e-02
-4.574204e-02
1.930285e-02
1.551495e-02
-1.454832e-02
-1.426845e-02
-1.866326e-02
-2.264770e-02
6.103487e-03
3.107693e-03
7.818484e-03
-1.084882e-02
-1.796296e-02
-3.508155e-03
-1.432771e-02
-1.326508e-02
1.245754e-02
-5.805813e-02
-4.461901e-02
-1.501815e-02
3.939748e-02
1.783219e-04
-5.868694e-03
-1.394881e-02
-1.206765e-02
-2.929777e-02
-6.665459e-02
-3.346226e-02
-2.064740e-02
6.137805e-02
3.708925e-02
-4.088899e-02
3.727201e-02
3.076022e-02
-5.362086e-03
-1.170536e-02
3.224671e-02
5.801140e-03
6.251582e-02
3.423901e-02
4.300201e-02
5.376438e-02
6.097984e-02
3.887632e-02
-2.283802e-02
-1.927923e-03
3.184827e-02
-2.589805e-03
-3.283615e-02
2.581646e-02
5.642419e-03
-5.288709e-02
-2.124841e-02
-2.100003e-02
-7.084262e-02
-4.069357e-02
-2.910440e-02
