2.691250e-02
-1.334139e-02
-1.735064e-02
3.904476e-02
-3.416853e-02
-9.835572e-02
4.425853e-02
1.817915e-02
-1.314409e-02
1.548129e-03
-6.880749e-02
2.179735e-02
-1.285941e-02
-1.060506e-01
-2.998801e-02
1.297231e-02
-4.534745e-02
5.551598e-02
-4.964440e-02
2.533099e-02
-1.694517e-02
-2.009740e-02
5.536161e-02
3.395539e-02
-3.913366e-02
3.248572e-02
4.907794e-02
3.250283e-02
7.096437e-03
-3.412997e-02
5.781486e-03
-2.853750e-02
-2.045961e-02
-2.108193e-02
-2.394609e-02
-2.949893e-02
-7.089009e-04
2.490190e-02
-9.882024e-03
5.186078e-02
-3.578330e-03
6.166650e-02
3.527139e-02
2.984534e-02
-6.500988e-03
-1.576864e-02
-5.695681e-02
-2.852635e-03
-1.044349e-02
-1.380974e-02
-2.079435e-02
1.490247e-02
-4.298315e-04
-8.941783e-03
1.292689e-01
4.858723e-02
-1.727873e-02
1.209856e-01
-1.711732e-03
4.799954e-02
5.982433e-03
5.972312e-02
5.546230e-02
-1.205668e-02
-1.033243e-03
1.932607e-03
-9.616649e-03
6.482818e-03
1.242240e-02
-5.710187e-03
-1.771770e-02
-5.292921e-02
7.777832e-02
8.749447e-02
-1.107320e-02
7.500310e-02
-8.660113e-02
-1.424262e-01
-4.947263e-03
5.010175e-03
3.758013e-03
-7.722577e-03
5.379180e-02
-5.594801e-03
-2.500147e-02
3.186639e-02
1.972602e-02
2.023066e-02
1.121514e-02
3.955210e-02
1.206575e-02
-3.689098e-04
2.155107e-03
1.239912e-02
2.136914e-02
8.593087e-03
-2.048849e-02
-3.149639e-04
-1.879239e-02
3.582321e-02
4.877610e-02
-1.610539e-02
2.062170e-03
5.792849e-02
-7.227238e-02
3.125374e-02
-6.515402e-02
-1.312175e-01
1.512169e-02
8.260862e-03
-8.986031e-02
2.678430e-02
-7.954971e-02
5.033975e-02
-5.183768e-02
1.161632e-02
-9.373927e-03
-1.734226e-02
-9.269809e-03
2.508908e-02
-1.741483e-02
-1.254294e-02
-3.380503e-03
-2.334679e-02
8.577021e-03
9.981866e-05
-1.388152e-02
2.403705e-02
2.525577e-04
4.291261e-05
-2.931064e-02
1.143253e-01
-2.927048e-02
-7.540163e-02
-1.447382e-03
-7.958576e-03
-6.318633e-05
1.570441e-02
1.419174e-02
1.060573e-01
3.182369e-02
-3.132303e-02
3.630327e-04
-4.981881e-02
1.264324e-02
-2.105732e-02
4.426491e-03
-1.634862e-02
-4.444700e-02
-2.101374e-02
1.327644e-02
-1.245303e-02
1.245485e-02
3.723733e-02
-1.184322e-02
2.264878e-03
-5.740847e-03
-1.762060e-02
-3.681572e-03
3.987811e-03
-9.099130e-03
3.229667e-02
1.507963e-02
-4.159848e-03
-4.788053e-02
8.852488e-02
1.281238e-01
2.182923e-02
2.171713e-02
1.583884e-01
3.763309e-03
-4.505184e-02
-2.051111e-02
-3.908549e-02
-1.691335e-02
-5.011574e-03
1.576285e-02
-1.457181e-02
1.748969e-02
2.766688e-02
-5.954622e-03
-2.287152e-02
2.079016e-02
-1.245546e-02
-2.846825e-02
1.401114e-03
-5.354493e-02
-3.737009e-02
-2.837319e-02
-1.158248e-02
-4.493852e-02
-6.018788e-03
4.461122e-03
-2.917621e-02
-1.143609e-03
2.747224e-03
-2.252205e-02
1.825319e-02
1.826839e-02
-3.047130e-02
-7.093268e-02
4.664649e-02
-3.295883e-02
-3.265454e-02
6.318884e-02
-5.590064e-03
-5.232087e-02
-2.336916e-02
-2.251923e-02
-2.236433e-02
-3.163735e-02
-3.462074e-02
-3.621789e-02
-4.616333e-02
-2.259340e-02
-2.907287e-02
6.133432e-02
5.976349e-03
-6.539410e-02
5.376633e-02
3.337413e-02
-1.335779e-01
4.510533e-02
1.966486e-02
-9.395727e-02
4.475299e-02
6.739483e-02
-3.904463e-03
9.036902e-02
1.340443e-01
4.810977e-02
9.800889e-02
1.228583e-01
5.989766e-02
-8.212806e-02
8.854473e-02
-2.391023e-02
-4.742257e-02
1.928827e-01
7.684623e-02
-6.834421e-02
1.708566e-01
1.081022e-01
-7.588876e-03
2.801713e-02
-2.943851e-02
3.565910e-02
3.883219e-02
-5.574920e-02
3.172309e-02
-1.300545e-02
-6.342627e-02
-4.729850e-02
3.941359e-02
-3.350157e-02
-5.893425e-02
3.991529e-02
9.684074e-03
-1.053366e-02
1.005520e-02
1.656314e-02
1.315658e-02
-2.046593e-02
-2.150387e-03
3.601732e-02
-4.847148e-03
-1.412091e-02
-2.413574e-02
-5.347056e-02
-2.218404e-02
-1.605192e-02
-2.301697e-02
5.062566e-02
1.160601e-04
-1.627926e-01
8.198342e-02
6.029709e-04
-1.479217e-01
7.749403e-02
-1.572572e-02
1.960323e-02
1.083371e-03
-9.434883e-02
9.799852e-03
2.690350e-02
-2.153968e-02
1.040706e-03
3.648242e-02
4.810924e-02
5.204910e-02
4.702251e-02
-3.362988e-02
-2.953652e-02
-3.693048e-02
7.517055e-03
1.354582e-02
8.378197e-03
3.848127e-02
1.636733e-02
3.128132e-02
-3.048987e-02
-5.130887e-02
-2.077559e-02
1.940823e-02
1.159979e-02
3.685771e-02
-1.147639e-02
8.689589e-03
1.408316e-02
-2.619380e-02
7.137628e-03
7.157577e-03
-2.132083e-02
1.000266e-02
4.819002e-03
1.975630e-02
1.815872e-02
8.857678e-03
1.341328e-02
5.136422e-03
-5.434896e-03
9.869384e-03
-4.890707e-03
-1.509339e-03
-1.497044e-03
-4.212836e-03
-1.502068e-02
5.043807e-03
9.101831e-03
4.558647e-03
2.194097e-02
9.182753e-03
7.496426e-03
2.939563e-03
-2.142612e-02
2.293317e-03
-1.586719e-02
-1.940055e-02
5.121513e-03
-1.540151e-02
-9.433238e-03
1.876197e-02
2.466896e-02
1.136752e-02
-2.431482e-02
1.617133e-02
-4.307735e-03
-3.403105e-02
4.244317e-03
-7.218552e-03
-4.266443e-02
3.527591e-03
2.426812e-03
-1.845682e-03
1.095141e-02
4.675022e-03
-8.899459e-04
9.218097e-03
8.427963e-03
1.783071e-03
-5.824841e-03
1.132474e-02
-1.835266e-02
4.927420e-03
1.736054e-02
-3.691890e-02
1.535582e-02
4.214229e-03
-2.494726e-02
3.525288e-03
-7.250727e-03
1.065274e-02
3.049222e-02
4.933969e-03
2.132189e-02
2.806415e-02
4.186214e-03
3.825868e-03
-8.191870e-03
3.614780e-03
-2.570240e-02
-1.038765e-02
1.136498e-02
-1.466134e-03
5.250173e-03
3.387979e-02
-3.844712e-03
4.488353e-04
-2.104221e-03
-2.896253e-02
1.272160e-02
2.089681e-02
-3.400928e-02
2.141907e-02
-4.060902e-03
-2.855089e-02
-4.168558e-02
-6.030855e-04
-6.352435e-03
5.782024e-03
1.266300e-02
6.211123e-03
-1.834629e-02
2.170414e-04
5.897749e-03
1.316622e-03
-3.528331e-03
-5.048637e-03
-1.926786e-02
-3.318899e-02
-1.416633e-02
-2.530510e-02
2.003576e-02
2.514830e-02
-3.304957e-02
-1.884313e-02
4.593457e-02
-3.968363e-02
-5.972519e-02
2.451097e-02
-9.228011e-03
-3.471918e-02
2.294867e-02
3.599246e-03
2.068791e-02
5.521416e-03
-1.842978e-02
1.008467e-02
5.802585e-03
1.646434e-03
1.280972e-02
-8.130468e-03
-2.803316e-02
-3.045293e-02
-3.362627e-02
4.476946e-02
4.056668e-02
3.925044e-02
-2.146257e-02
-2.230212e-02
-2.542919e-02
-1.875768e-02
-3.440241e-02
-9.722445e-03
4.259666e-02
2.562124e-02
4.770796e-02
-2.960097e-02
-4.707899e-02
-2.518602e-02
5.014024e-03
3.513693e-03
-4.225670e-03
3.806067e-03
4.803867e-03
-6.038284e-03
-1.307287e-02
-7.476039e-03
-2.466380e-03
-3.248236e-03
1.668983e-03
-4.871476e-04
-5.753883e-05
2.207942e-03
-1.027028e-03
-4.328433e-03
-7.413556e-03
-4.307285e-04
-5.950614e-03
-2.806075e-03
-1.299758e-02
-3.948453e-04
9.202406e-03
8.130800e-03
1.060703e-03
2.000404e-03
1.554292e-02
3.169574e-03
1.661718e-03
1.378129e-02
2.560751e-03
9.386705e-04
1.276434e-02
-4.033171e-03
5.022783e-04
1.709044e-02
-2.085857e-02
-8.433025e-03
-2.152709e-03
-7.661675e-03
-5.602961e-04
-4.220582e-03
-5.561665e-04
-2.206224e-02
-9.564636e-03
9.038446e-03
9.263073e-03
2.164496e-03
1.620127e-02
1.952602e-02
1.822027e-02
4.581396e-03
1.076709e-03
-1.747370e-03
-1.315241e-02
-1.242527e-04
1.147523e-02
-1.395728e-02
5.412866e-03
7.536694e-03
-2.750235e-03
-1.450886e-02
-1.044392e-02
1.404112e-02
2.015694e-02
-4.560030e-05
-6.754844e-03
7.126473e-03
1.659692e-02
-2.224246e-03
-4.807143e-04
-3.165064e-03
2.178702e-03
1.140794e-02
-1.240601e-02
-6.560599e-03
4.569513e-04
-3.145184e-04
-1.046460e-02
-4.931990e-03
-8.270971e-03
1.207647e-03
2.344508e-03
-1.100549e-02
-2.017425e-02
-3.797919e-03
-9.636727e-03
-1.854513e-02
-1.061845e-02
-8.687809e-03
2.637459e-02
4.149564e-02
2.589393e-02
-1.511492e-02
-3.256071e-02
-2.527050e-02
6.950329e-04
-1.079783e-02
6.441443e-03
5.137939e-03
5.503285e-03
-9.251171e-03
7.909036e-03
1.379203e-03
-1.601212e-02
8.705175e-03
1.071012e-02
2.306474e-03
-9.273742e-04
-2.396923e-03
3.312297e-03
1.128769e-02
-4.102777e-03
4.246399e-03
-2.053243e-02
-2.983391e-02
-1.297462e-02
-3.531663e-03
1.485684e-02
-7.818608e-03
5.704198e-03
1.687934e-02
1.918839e-03
5.442113e-04
1.569846e-02
-3.667904e-03
-3.549146e-03
5.783508e-03
1.265564e-02
-1.215467e-02
-5.053941e-03
9.664222e-03
1.551894e-02
1.227282e-02
2.096612e-02
-2.124574e-02
-1.011040e-02
-1.270457e-02
-3.815015e-02
-2.458997e-02
-3.537746e-02
-1.988582e-02
-1.096448e-02
-1.951830e-02
1.600748e-02
-1.062142e-02
7.687022e-03
-3.629666e-03
-5.776842e-03
1.243582e-02
-5.265574e-03
-8.492423e-03
4.841065e-03
3.010246e-03
2.111844e-05
-6.751647e-03
-5.366868e-03
-2.312430e-03
-6.966076e-03
2.902616e-04
-1.545851e-03
-6.804195e-03
9.093433e-03
1.684047e-02
1.730092e-02
-8.460470e-03
-5.472847e-03
-1.114316e-02
2.905458e-02
-1.184031e-02
-3.312761e-02
-2.004337e-02
-1.681181e-02
-2.348060e-02
-1.495768e-02
-1.211511e-02
-1.402812e-02
-8.231206e-03
-6.261429e-03
-1.548616e-02
-3.611148e-03
2.929326e-03
1.824291e-03
-5.641770e-03
1.554012e-02
-4.848483e-04
-6.324765e-03
1.726491e-02
-1.037394e-03
3.564592e-03
-1.231076e-02
-2.017258e-02
1.231388e-02
1.650136e-02
2.922778e-03
-9.352147e-03
9.814259e-03
1.375451e-02
-8.757131e-03
-1.258288e-03
-5.052933e-03
-9.116335e-03
1.514278e-02
8.992769e-03
3.436174e-02
2.112560e-02
8.006041e-03
-1.551058e-02
3.935745e-03
2.289546e-02
-1.633584e-02
-4.474882e-03
1.087120e-02
7.174944e-03
-5.004373e-03
1.894520e-03
9.433082e-04
1.737050e-02
3.383700e-02
-5.919384e-03
1.501591e-02
3.516965e-02
3.780405e-03
2.406100e-03
1.341401e-02
-5.373114e-03
-2.986535e-03
-1.717780e-02
-5.629878e-03
1.186239e-02
-1.048141e-03
-1.913666e-02
-8.020810e-03
-1.233079e-02
-1.479414e-02
-1.131616e-02
1.257433e-02
1.476166e-03
1.400905e-02
-6.087908e-03
1.326765e-02
-1.512320e-02
-2.484416e-02
-1.327637e-02
-9.899856e-03
4.406852e-03
2.477488e-03
-1.585094e-02
-7.551824e-03
-2.359476e-02
-1.343025e-02
-7.063323e-03
2.317715e-02
-9.859949e-03
-2.230608e-02
3.789390e-02
6.029717e-03
-1.592364e-02
2.293322e-02
2.452120e-03
-1.451693e-02
-3.819333e-04
-6.254015e-03
-1.998260e-02
2.666396e-03
-6.221279e-03
-2.008483e-02
4.896471e-03
-6.127354e-03
-5.344353e-03
1.109401e-01
1.255888e-01
1.079587e-01
4.940690e-02
2.854819e-02
3.327193e-03
8.463820e-02
6.790055e-02
4.974391e-02
2.204370e-02
2.830384e-03
1.233837e-03
-2.148657e-02
-4.793479e-02
-3.609718e-02
2.200942e-02
3.426307e-03
5.315039e-03
-4.362077e-03
-2.858204e-02
-1.247572e-02
-2.898690e-02
-1.403779e-02
-1.307224e-02
-2.835003e-02
-2.515640e-02
-2.016462e-02
1.937442e-02
8.971785e-03
1.527279e-02
3.058033e-02
2.989355e-02
1.054182e-02
4.784833e-02
4.362259e-02
1.546416e-02
-1.436241e-02
-1.636782e-02
-1.170644e-02
-3.541924e-03
-1.715816e-02
-7.214154e-03
-9.467257e-04
1.511910e-02
3.736271e-02
2.830389e-02
2.463798e-02
2.058721e-02
3.963250e-02
1.727319e-02
2.540441e-02
3.729910e-02
3.922585e-04
1.230370e-02
2.650865e-02
2.116287e-02
-2.952710e-03
3.284815e-02
4.133655e-03
3.217660e-03
4.073995e-02
1.491499e-02
2.084086e-02
2.409546e-02
7.358479e-03
1.375976e-02
-1.436293e-02
-2.693595e-02
-1.093358e-02
-3.885503e-02
-3.478448e-02
-3.392810e-02
3.520046e-02
1.921141e-03
-2.480443e-02
3.905682e-02
3.065563e-02
-2.176030e-02
2.965885e-02
4.836830e-03
1.161169e-02
-1.839112e-02
-2.031200e-02
-3.543903e-02
-2.575665e-03
-1.613904e-02
-1.110253e-02
-5.185376e-03
4.381984e-04
-1.876380e-02
5.598424e-03
-2.566954e-02
-1.745605e-02
1.617733e-02
1.485599e-02
1.859202e-02
2.256836e-02
3.708871e-02
4.194725e-02
-2.752366e-02
-4.064805e-02
-1.705924e-02
-5.491058e-03
-1.388544e-02
3.046144e-02
3.509209e-04
-1.150634e-03
-2.549362e-02
-9.863039e-03
-2.519923e-02
2.101446e-03
1.422917e-02
2.314447e-02
-2.182020e-03
2.895441e-02
-2.658353e-03
1.441326e-02
-5.594406e-03
-4.582017e-02
-4.489439e-02
1.133965e-02
-2.520505e-02
-3.003599e-02
-2.226057e-02
-2.075194e-02
-2.481452e-02
5.355259e-03
-2.001435e-02
-4.836811e-04
-1.723590e-02
2.234466e-02
-1.937348e-02
-9.019768e-03
3.107697e-02
1.550012e-02
-2.075602e-02
7.714317e-03
-4.342968e-02
-4.179286e-03
-4.532414e-02
-3.553222e-02
3.288518e-03
-7.510572e-03
-2.991113e-02
2.214942e-02
5.500667e-03
-6.590670e-03
5.063962e-02
2.296471e-02
1.521332e-02
2.579503e-02
1.347440e-02
1.572020e-02
-7.598762e-03
1.806217e-02
3.200456e-02
7.528175e-02
9.904328e-02
1.132835e-01
8.605857e-02
1.167065e-01
1.421970e-01
-8.463120e-03
2.735042e-03
9.711988e-04
-1.777526e-02
3.464478e-02
6.842708e-03
-9.152679e-03
2.890195e-02
1.163012e-02
-3.848313e-02
-3.303073e-02
6.496839e-03
-2.055945e-02
-1.638793e-02
1.542461e-02
-1.759032e-02
-5.017900e-03
1.777325e-02
-2.444387e-02
-2.277307e-02
-1.517877e-02
1.872163e-03
-3.406559e-03
4.294268e-03
2.140533e-03
-9.777956e-03
-5.181689e-03
-2.215185e-02
1.379562e-02
9.982795e-03
-3.254955e-02
4.061711e-03
1.905411e-02
-3.274201e-02
9.170212e-03
2.753962e-02
9.235763e-03
-1.820773e-03
2.269806e-02
2.267614e-03
-2.116550e-04
1.893674e-02
3.949934e-03
-2.025871e-02
-1.833755e-03
4.125669e-03
-1.060828e-02
-4.523478e-03
3.777583e-02
3.237754e-02
2.470284e-02
-2.103749e-03
6.765084e-03
-3.496396e-03
-1.497029e-02
8.117766e-03
1.777322e-02
-5.988082e-02
-4.951444e-03
7.109505e-03
-3.148751e-02
4.573563e-04
1.193772e-02
2.487979e-02
-3.495981e-03
-9.967632e-03
-2.640331e-03
-1.102587e-02
-1.013856e-02
-1.290615e-02
-2.242749e-02
-7.389972e-03
4.033109e-03
-2.786271e-02
-2.179178e-02
4.396025e-04
-2.396807e-02
-1.859622e-02
-6.022687e-03
-2.944408e-02
-1.150234e-02
1.594221e-02
1.471340e-02
-1.822059e-02
-2.287295e-02
-2.670903e-02
-3.114728e-02
-4.853224e-02
-3.077172e-02
-3.681224e-03
2.722622e-02
1.464989e-02
2.887321e-02
-1.141521e-03
2.043807e-02
1.905611e-02
-6.448403e-03
4.293373e-03
-1.637357e-02
-1.806860e-02
-2.469087e-02
-2.982465e-03
-6.301889e-03
-1.673451e-02
1.290324e-02
3.211664e-03
-1.729917e-02
4.752844e-05
-1.989430e-02
4.148967e-03
1.076456e-02
8.826941e-03
2.828158e-02
3.270410e-02
-1.542944e-02
1.989982e-02
2.342661e-02
2.061260e-02
4.929931e-04
-1.413060e-04
3.287130e-02
2.020743e-02
-1.166787e-02
1.027837e-02
9.234625e-03
-1.279431e-02
1.139332e-02
5.938045e-03
3.418938e-02
-3.036424e-02
-3.918858e-02
-1.501007e-02
-1.027706e-02
5.030678e-03
2.568048e-02
2.921977e-02
-1.499154e-02
4.307701e-02
-9.520230e-02
-1.234108e-01
-4.959572e-02
4.594719e-02
-4.060300e-02
5.058915e-02
-1.699151e-02
-9.102825e-02
-3.323184e-02
-1.053711e-02
-4.276835e-02
1.992694e-02
-4.781726e-02
-3.481734e-02
-8.242808e-02
4.785683e-03
-4.555728e-02
-1.587095e-02
3.667701e-03
-1.126593e-02
2.088047e-02
-1.622593e-02
-1.451336e-02
1.126803e-02
8.082052e-03
-3.298637e-02
-8.625069e-03
3.345635e-02
2.059297e-02
-1.274319e-02
-2.345595e-02
1.563996e-02
-1.284907e-02
-1.900623e-02
-3.963618e-02
-4.894660e-03
-6.424515e-02
-3.269185e-02
-2.580462e-02
-7.998223e-02
-3.898918e-02
-1.708661e-02
-3.897213e-02
-4.899858e-02
-4.636563e-02
1.070584e-01
-4.630393e-02
-3.849759e-02
-2.093694e-02
-2.209489e-02
-4.601202e-02
7.735710e-03
2.444482e-02
8.267839e-03
3.787990e-02
4.905865e-02
4.466892e-02
-1.032006e-02
2.593518e-02
-4.056265e-03
3.197116e-02
2.289810e-02
-1.779626e-02
1.253311e-01
1.134440e-01
-5.021635e-02
-4.656187e-02
6.674737e-02
-4.836746e-04
-3.859614e-03
-9.604508e-03
-3.640193e-02
-2.591575e-02
-4.217057e-02
2.443388e-02
-5.894554e-02
-3.301891e-02
5.459283e-03
-4.507811e-02
1.711335e-02
-3.553016e-02
3.150944e-02
8.922364e-03
-9.176380e-04
3.406724e-02
-3.390854e-02
-8.777164e-02
1.111554e-03
2.701410e-02
-4.734620e-02
3.249105e-02
1.009741e-01
-4.865273e-02
5.104810e-02
6.704220e-02
4.907335e-02
-9.428161e-02
1.071543e-01
-3.428473e-02
6.558942e-02
-1.300034e-01
5.122283e-02
-2.590338e-02
5.482924e-02
-4.837593e-02
2.380547e-02
1.201414e-02
-1.987819e-02
8.173657e-03
-3.325260e-03
2.796703e-02
-4.018772e-02
4.883283e-02
-1.955033e-02
-4.759406e-02
-3.924893e-02
3.741013e-02
2.951816e-02
-1.708034e-01
1.498656e-01
7.420006e-02
-2.040010e-02
-5.322186e-03
1.104798e-02
6.543897e-02
2.841557e-02
-1.289984e-01
1.356926e-01
-1.810200e-02
-1.417093e-02
-1.478194e-02
-5.102908e-05
4.023350e-02
3.409211e-02
2.649432e-02
-4.536679e-02
-4.192510e-02
-3.650266e-02
8.514169e-03
3.386704e-03
6.503733e-03
3.102964e-02
3.890103e-02
7.131786e-03
-3.962108e-02
-2.897401e-02
-3.906109e-02
6.859354e-03
2.276148e-02
7.062157e-03
4.192903e-02
2.968705e-02
2.757288e-02
1.611076e-02
1.568896e-02
3.781153e-03
1.587676e-02
2.423804e-02
1.135848e-02
2.531925e-04
6.579027e-03
3.608405e-03
1.364119e-02
9.466199e-03
3.348142e-03
1.906996e-03
7.521000e-03
5.266628e-04
2.842392e-02
1.828565e-02
2.059484e-02
-1.067862e-02
6.629188e-03
9.282234e-03
1.008589e-04
2.302666e-02
-1.156663e-02
8.352812e-03
2.838285e-03
-7.676208e-03
1.398803e-02
6.506504e-03
8.064868e-03
8.636916e-03
1.995057e-03
1.866628e-02
1.613968e-02
-3.003034e-03
5.066528e-03
1.685274e-02
-3.020795e-02
-2.029172e-02
6.812475e-03
5.763670e-04
-4.244202e-02
-1.592651e-02
6.324903e-03
1.665846e-02
-3.313833e-02
-2.125367e-02
-6.552553e-03
-2.596378e-03
-6.363988e-03
3.089943e-03
3.191811e-03
-9.502436e-03
-2.491409e-03
3.120706e-02
3.812053e-02
2.898448e-02
3.092259e-02
2.297750e-02
7.824156e-03
-2.083590e-02
-6.163865e-03
8.351857e-03
7.564393e-04
-1.851318e-02
-1.791677e-02
7.241691e-04
-3.153407e-02
-4.985125e-02
-1.830234e-03
1.292395e-02
-5.254770e-03
3.584624e-03
9.271417e-04
-1.499567e-02
2.816079e-02
4.510721e-03
-2.208779e-02
-2.089267e-02
-3.309586e-02
-9.303620e-03
4.604059e-03
-1.771242e-02
1.928311e-02
5.703571e-03
-3.454936e-03
-1.140124e-03
-2.190803e-02
-8.737714e-03
2.840958e-02
-1.056889e-02
-1.460208e-02
-4.567388e-02
-2.585687e-02
2.574507e-02
-1.075328e-02
-3.370546e-03
-8.544004e-03
2.329791e-02
1.143547e-02
1.571838e-02
2.884970e-02
-3.176992e-02
-4.104516e-02
-2.661865e-02
-2.230730e-02
-9.044952e-03
4.989310e-03
-2.862146e-02
-4.792071e-03
-4.311701e-02
-2.547100e-02
2.131574e-02
-3.188990e-03
-6.483330e-04
3.107467e-02
2.402229e-02
-1.835614e-02
-4.495138e-02
-1.382074e-03
9.527816e-03
1.845222e-02
2.713736e-02
-1.721788e-10
-5.536013e-10
1.580846e-10
-4.054539e-10
2.025293e-10
-6.064101e-10
-3.084107e-10
-6.851122e-10
-9.975117e-12
1.850988e-10
7.673182e-10
2.309882e-10
1.418197e-09
4.805922e-10
9.061590e-10
1.380370e-09
1.227653e-09
1.279963e-09
8.677979e-10
-2.476319e-10
2.684679e-10
1.240126e-10
-3.308680e-10
-1.597522e-10
7.505738e-11
-3.552785e-10
-3.385153e-10
1.632999e-09
1.738814e-09
6.861328e-10
2.043695e-09
1.561692e-09
6.611557e-10
1.680627e-09
1.614968e-09
1.229845e-09
-4.548253e-10
4.616053e-10
3.053169e-10
-6.918337e-10
-1.759173e-10
-7.958830e-10
-4.728044e-10
2.000821e-10
-2.370163e-10
9.705048e-10
5.387116e-11
2.624569e-10
9.268402e-10
7.499309e-10
2.904111e-10
1.313451e-09
9.291127e-10
4.920832e-10
7.858483e-10
9.213012e-10
2.660110e-10
1.265750e-09
1.026598e-09
9.760898e-10
1.000365e-09
1.645821e-09
3.429027e-10
-1.693245e-10
4.885861e-10
-7.244321e-10
5.243664e-10
2.812013e-10
-4.379791e-10
1.279917e-10
-1.448006e-10
5.926558e-11
-1.123952e-09
-1.631665e-10
-2.701856e-10
-6.745182e-10
-2.469787e-10
8.535214e-11
-6.837738e-10
-1.005198e-10
-5.087734e-10
1.706209e-09
1.356351e-09
1.525392e-09
1.851336e-09
1.914193e-09
1.365170e-09
1.881362e-09
1.616488e-09
1.899716e-09
7.936558e-10
5.677206e-10
6.974735e-10
4.592404e-10
7.611334e-10
1.049888e-09
6.215002e-10
8.997526e-10
7.690563e-10
1.728621e-11
6.922449e-10
1.100246e-10
1.593779e-10
5.743233e-10
2.619741e-10
-8.572230e-11
5.693981e-10
3.472064e-10
1.609273e-09
7.219139e-10
1.025275e-09
2.973053e-09
1.401100e-09
1.747972e-09
2.384992e-09
1.145902e-09
1.238874e-09
-4.190276e-10
1.659409e-10
-1.041808e-09
-1.649682e-10
-2.515358e-10
-2.167099e-10
-1.278961e-10
-2.588664e-10
-6.214969e-10
3.256672e-10
5.239140e-11
-3.641028e-10
-2.120876e-10
1.913317e-10
4.820183e-10
3.300320e-10
4.743282e-10
5.982249e-10
5.324457e-10
-5.250705e-10
-3.031564e-10
-1.483536e-10
-2.886972e-10
-1.002847e-10
-9.953138e-11
3.007474e-10
-8.382585e-11
-1.684837e-03
-3.291613e-04
-6.673099e-04
-5.388612e-03
-4.153359e-03
-5.145215e-03
-2.932341e-03
-2.353093e-03
-4.271913e-03
-1.458246e-03
-4.009723e-04
-2.372925e-03
-4.121141e-03
-1.699836e-03
-3.814820e-03
-3.933121e-03
-1.512989e-03
-3.273617e-03
4.768048e-03
4.704580e-04
5.760386e-03
1.220416e-03
3.166756e-03
2.559548e-03
5.047957e-03
2.583862e-03
9.596899e-05
-1.877159e-03
-1.491511e-03
1.516896e-03
-2.122756e-05
-2.204116e-03
-7.682170e-04
-6.106066e-04
-3.607276e-04
3.828767e-06
-1.981927e-04
2.718271e-03
6.946952e-04
9.023427e-04
-1.986511e-03
-2.800437e-03
-1.576004e-03
-1.707606e-03
-1.502640e-03
-1.901025e-03
2.650415e-04
-3.517809e-03
-8.377566e-04
-9.614073e-04
-3.645095e-03
-1.221331e-03
1.805952e-03
-1.280258e-03
4.537841e-04
7.056652e-03
4.403118e-03
3.979678e-03
8.063384e-03
-2.584560e-04
3.346512e-03
5.608494e-03
-6.535363e-04
1.106115e-03
5.205314e-04
8.422075e-04
3.217293e-04
7.719143e-04
1.601698e-06
1.035072e-03
3.005709e-04
7.803927e-04
3.345778e-03
3.942749e-03
4.843126e-03
3.463796e-03
1.490213e-03
-3.707518e-04
1.136882e-03
2.544812e-03
-5.147003e-04
2.796949e-03
-2.251176e-04
-1.137069e-03
1.667426e-03
1.010762e-03
5.840906e-04
3.357006e-03
8.957419e-04
-3.180162e-04
-1.163761e-03
-2.287254e-03
-1.718701e-03
-1.912919e-04
-1.431037e-03
7.599549e-04
3.155610e-03
-2.197497e-03
1.734817e-03
-2.331960e-03
-3.203254e-05
2.140944e-03
1.215460e-03
2.775028e-03
6.793478e-03
1.031235e-05
4.648569e-03
5.536478e-03
-2.755447e-03
-6.065947e-03
-1.686026e-03
-2.226564e-03
-4.371113e-04
-8.677780e-04
2.677257e-03
9.555359e-04
-4.251158e-03
-1.782669e-03
-3.800828e-03
-4.014431e-03
-2.197627e-03
-1.979704e-03
-1.909814e-03
-5.921050e-04
-2.487328e-03
-4.003305e-03
-6.306005e-03
-9.459956e-03
-2.004070e-03
-5.384935e-03
-5.279392e-03
-5.420786e-03
-3.096664e-03
-1.688063e-03
-7.139977e-03
-4.342029e-03
-2.243419e-04
-5.285294e-03
-1.958078e-03
-1.777690e-03
1.544134e-03
-5.111966e-04
-2.593600e-03
-6.111002e-04
4.652265e-02
4.508726e-02
8.585278e-02
6.081946e-03
-1.678516e-02
-5.594123e-03
8.688981e-03
5.730068e-03
1.705724e-02
5.851090e-02
-2.373264e-02
4.824189e-02
3.181499e-02
-3.991236e-02
-3.832387e-03
7.972246e-03
-1.874615e-02
3.309550e-02
8.294120e-03
-3.146942e-02
3.078838e-02
-3.148818e-02
-4.655396e-02
1.916499e-02
2.121850e-03
3.770138e-03
3.154353e-03
-2.135828e-02
-4.916821e-02
-2.817454e-02
-5.175070e-02
-7.517795e-02
-2.190709e-02
-4.197978e-02
-4.662758e-02
-3.490464e-02
-2.296376e-02
-6.796616e-02
-2.581992e-02
-5.819178e-03
-5.373930e-02
-8.252620e-02
-1.000825e-02
8.597574e-04
-7.359006e-02
-1.079714e-02
-4.068295e-02
-1.414240e-02
-5.043739e-02
-1.290278e-02
-2.016649e-02
-5.012160e-02
-5.111386e-02
1.684478e-02
-1.152454e-02
1.200520e-02
-9.051296e-03
-3.993699e-02
-4.932897e-02
-1.485762e-02
3.303176e-02
-8.728881e-03
-1.864753e-02
3.417203e-02
4.188257e-02
-7.202879e-03
5.615523e-02
3.896190e-02
3.064621e-02
6.705771e-02
3.260214e-02
4.881358e-03
-2.857831e-02
-3.783757e-02
-1.955650e-02
-3.213788e-02
-2.664597e-02
-4.893620e-02
-2.066785e-02
4.102008e-02
-4.505308e-03
-2.496030e-02
6.633941e-02
9.048164e-03
9.954713e-03
4.786466e-02
2.976790e-02
-1.649897e-02
1.012975e-02
5.719202e-02
-6.895589e-02
-6.274383e-03
-8.301126e-03
-2.210985e-03
-3.519030e-02
-2.314606e-02
1.180040e-02
-2.226622e-02
-1.362471e-02
-5.334420e-03
1.756305e-02
5.177941e-02
-4.451168e-02
1.390705e-02
-1.819546e-03
3.285861e-02
-2.269407e-02
-5.215720e-02
-4.381788e-02
7.669228e-02
-3.270465e-02
-5.361214e-03
-3.066726e-02
2.383406e-02
3.247022e-02
3.753728e-02
4.120157e-02
-6.147569e-03
1.560612e-02
3.900915e-02
7.752862e-02
1.675583e-02
4.211844e-02
4.876518e-02
5.066592e-02
-1.406256e-02
-1.177993e-02
9.648315e-03
-3.425469e-02
-1.244503e-02
-4.596575e-02
3.759869e-02
1.612161e-02
-3.055887e-02
9.856252e-03
1.413320e-02
9.820858e-03
1.028154e-02
-2.720496e-02
5.197176e-02
2.930246e-02
-2.574779e-02
9.085209e-03
-3.260436e-03
2.796547e-02
1.298027e-02
-5.300493e-03
-8.989558e-02
-4.022726e-02
-7.463945e-02
-3.519097e-02
-3.944562e-02
-4.635713e-02
-1.250806e-02
1.400032e-02
-3.123710e-02
-8.704504e-02
-1.661875e-02
-6.134262e-02
-1.738900e-02
1.502371e-02
2.324406e-03
8.559000e-02
8.404981e-02
2.529030e-02
-2.743411e-02
7.836897e-02
5.260433e-02
-8.796227e-03
-5.475297e-02
1.820901e-02
-1.943963e-03
3.674288e-02
-8.335612e-03
1.477094e-02
2.337599e-02
-4.974346e-03
-3.236689e-02
-2.246653e-02
1.373481e-02
6.668071e-02
1.356476e-01
8.392377e-02
2.136520e-02
7.922325e-02
1.001281e-01
-2.546699e-02
-3.801082e-03
6.079866e-02
6.249532e-02
-7.163342e-04
-2.701963e-02
-8.497946e-03
4.910465e-02
-9.402709e-03
-4.463744e-02
4.239448e-02
3.113141e-02
1.561522e-02
8.979602e-02
3.696227e-02
-4.299374e-03
5.943859e-03
-3.620953e-02
3.047871e-02
-6.812937e-02
-3.391253e-03
4.859185e-02
9.589172e-02
7.023141e-02
-4.548455e-02
-1.228921e-02
3.158399e-02
-1.446638e-02
2.122265e-02
3.969644e-02
-1.230842e-02
-9.895922e-03
5.250001e-02
2.764958e-02
-2.176622e-02
-4.576818e-02
-3.435471e-02
-6.142986e-02
-4.241346e-03
4.685563e-03
-1.759257e-02
-3.827139e-02
1.949550e-02
-3.451236e-03
2.543733e-02
-1.846295e-02
-2.804183e-02
-5.545639e-02
9.367359e-03
-1.076080e-02
-5.557183e-02
3.355870e-02
-2.881941e-03
8.216146e-02
2.280160e-02
2.840402e-02
-1.362014e-02
-4.868725e-02
-9.710103e-02
-3.677797e-02
4.565910e-02
9.635023e-02
7.735185e-02
1.299459e-02
6.915371e-02
3.016325e-02
-1.778600e-02
2.616924e-01
6.049785e-02
-6.426716e-02
-1.361186e-01
-9.142354e-02
2.425394e-02
5.914326e-02
4.933112e-02
-3.963163e-02
-1.904307e-03
2.063929e-02
4.714516e-02
5.152074e-02
4.179864e-02
2.429462e-02
1.979719e-01
1.561262e-01
-3.475407e-02
2.292599e-02
-6.080501e-02
2.777289e-02
-8.784637e-03
1.874614e-02
4.259017e-02
3.803518e-02
1.334625e-02
5.851939e-02
-3.583641e-02
-1.542876e-02
-7.468706e-02
7.331280e-02
-3.905173e-02
2.387649e-02
1.886560e-02
-8.826277e-02
5.583586e-06
3.622209e-06
-4.270934e-06
3.485718e-06
4.048780e-07
-6.801704e-06
7.902730e-06
8.809318e-07
-1.092424e-05
-2.883293e-06
1.621313e-05
2.075148e-05
-5.333736e-06
1.716026e-05
2.542792e-05
1.110015e-06
2.688312e-05
2.774756e-05
7.489061e-06
1.688879e-05
1.187703e-05
1.085423e-05
1.184506e-05
2.098431e-05
1.315213e-05
1.001538e-05
1.346966e-05
4.489904e-08
-2.624199e-06
1.450488e-06
1.817561e-06
-3.678210e-06
5.235101e-06
2.789511e-06
2.052928e-06
9.943617e-06
3.868714e-06
8.987694e-06
4.496889e-06
-2.171646e-07
4.494560e-06
-6.478270e-06
4.724145e-09
-1.905745e-06
-4.128825e-06
-1.242045e-05
-7.889917e-06
4.717810e-06
-9.988625e-06
-3.176342e-06
5.556469e-06
-6.496120e-06
-5.341623e-06
8.617311e-06
4.762335e-06
8.971745e-07
1.855748e-06
5.443390e-06
5.498306e-06
4.610518e-06
8.891172e-06
1.052709e-05
5.715526e-07
-7.517794e-06
-1.453874e-06
-1.084622e-05
-4.118775e-06
-6.778987e-06
-6.055141e-06
-2.014002e-07
5.460883e-06
5.731104e-07
1.696249e-06
8.361618e-08
-1.396932e-05
7.874028e-06
6.425224e-06
6.989485e-06
6.937748e-06
1.005996e-05
2.668565e-06
4.028156e-06
-1.262080e-05
-3.874231e-06
2.842142e-06
-1.438416e-05
-2.889547e-06
-2.864196e-06
-9.934498e-06
1.464637e-06
-2.514311e-06
-9.256050e-06
9.351191e-07
2.074213e-06
-1.154450e-05
3.729728e-06
-5.688395e-06
-1.187972e-05
5.213674e-06
2.418545e-05
2.288540e-05
1.759602e-05
5.928064e-06
9.615437e-06
6.731495e-06
2.095347e-05
1.865839e-05
1.323944e-05
-9.502349e-06
-1.004368e-05
3.260777e-06
1.095070e-05
-3.230247e-06
8.107560e-06
-2.693779e-05
-1.677689e-05
-3.153902e-05
2.989454e-06
9.212442e-07
1.666099e-06
7.656149e-06
1.003454e-05
1.053592e-06
3.812169e-07
-1.047880e-06
-5.349467e-06
1.351511e-05
-8.929995e-06
-1.830817e-06
5.388636e-06
-8.689033e-06
-9.832109e-06
-2.026996e-06
-1.019649e-05
-1.624201e-05
-9.386603e-06
5.099251e-06
-1.427428e-06
-9.345430e-06
2.426747e-06
5.400546e-06
-1.486838e-06
5.105629e-06
7.486517e-06
-3.520580e-02
-2.667277e-02
-3.317431e-02
7.323649e-02
8.322803e-02
9.493623e-02
-1.962522e-03
1.202714e-02
2.026774e-02
-8.453493e-02
-4.336154e-02
-5.526908e-02
5.023558e-02
8.017465e-02
5.884909e-02
-1.810522e-02
-2.289939e-03
-1.858127e-02
2.330294e-02
-3.605230e-02
-2.376167e-02
4.250899e-02
1.056501e-02
-8.707155e-03
3.417811e-02
4.771651e-04
1.189114e-02
-2.866993e-02
-3.562155e-02
-4.438135e-03
-9.809698e-03
2.957642e-03
2.595780e-02
-5.477254e-03
1.081034e-02
1.753713e-02
-4.033278e-03
-5.644704e-03
1.110837e-02
-3.089140e-03
2.830852e-02
9.962578e-03
7.294857e-03
1.696492e-02
5.696339e-03
-2.751956e-02
2.980666e-02
-1.155674e-02
2.805053e-03
2.974009e-02
5.635827e-05
1.078863e-02
2.359115e-02
-1.621540e-02
-5.025889e-02
-6.082300e-02
4.909256e-03
-4.560297e-02
3.545097e-02
8.526575e-02
-2.261453e-02
3.604745e-02
8.753361e-02
-2.127344e-03
1.219955e-03
5.075157e-03
2.515537e-02
3.446524e-02
3.317304e-02
2.382272e-04
1.185689e-02
1.414073e-02
-4.913053e-02
-1.532387e-02
-1.176411e-02
-5.839073e-02
1.541720e-02
1.030931e-01
-1.139630e-02
2.630969e-02
6.425730e-02
3.821824e-02
1.212757e-02
2.334894e-02
7.734524e-03
2.520193e-02
2.219034e-04
-1.471679e-03
1.682431e-02
1.732328e-02
2.001152e-03
2.344915e-03
4.642751e-02
-8.252852e-03
3.816427e-03
2.153839e-02
-1.927568e-02
1.199110e-02
4.405772e-02
1.144875e-02
2.321313e-02
-9.205787e-03
1.516297e-02
1.801001e-02
1.697551e-02
-2.219800e-02
1.962693e-03
1.125622e-02
-7.533152e-04
-3.191993e-02
-9.618353e-03
-9.672211e-03
1.018446e-02
1.260319e-02
-3.464268e-03
-3.921048e-02
-1.422288e-02
-1.535461e-02
3.519567e-02
1.606358e-02
-3.348727e-02
6.312170e-03
-6.978993e-03
2.404614e-02
2.660337e-02
2.505620e-02
1.805989e-02
-4.198868e-02
-3.200654e-02
2.120660e-02
1.166789e-02
-1.536727e-02
8.352057e-03
1.152327e-02
1.657538e-02
5.179891e-03
-2.165727e-02
2.008189e-03
3.591890e-02
-2.595530e-02
-2.104447e-02
5.126733e-04
-8.012300e-03
5.367964e-02
2.765435e-03
-1.217623e-02
3.136783e-02
-5.714512e-02
-8.761530e-02
-7.168267e-02
-6.535216e-03
-3.380626e-02
-1.442554e-02
1.140673e-02
4.769946e-02
7.969608e-02
-7.213581e-02
-4.107139e-02
-6.366070e-02
-4.399051e-02
1.547917e-03
-1.812840e-02
-2.670454e-02
2.772902e-02
-7.273678e-03
-2.028641e-02
-1.816566e-02
-3.493938e-02
2.436869e-02
-3.375163e-02
-3.474800e-02
1.652081e-02
2.417633e-02
-2.920881e-02
2.694136e-03
-1.391168e-02
-4.322148e-02
-1.235766e-02
-2.914188e-02
-1.013533e-02
5.607186e-02
-7.421858e-03
-2.204387e-02
-2.348497e-02
-7.932100e-02
-6.657578e-02
-3.364035e-02
-5.514730e-02
-4.609007e-02
-1.518541e-02
-4.448771e-02
-3.038353e-02
-3.056940e-02
-4.831874e-02
-2.429420e-02
-2.741598e-02
-1.398913e-02
-1.851198e-02
-2.495834e-02
1.386064e-02
3.507926e-02
-6.216709e-02
-1.669895e-03
2.565830e-02
4.104763e-02
2.068705e-02
1.491084e-02
4.382161e-02
8.697760e-03
-6.140664e-03
-1.100613e-02
-3.862792e-02
-3.817536e-02
-4.467650e-03
-2.379903e-02
-1.463049e-02
-4.485972e-02
-2.859669e-02
3.205112e-02
-3.175627e-02
-4.544393e-02
-4.296964e-03
1.363600e-02
1.749295e-02
5.689448e-03
4.934724e-03
3.889439e-02
2.905363e-02
-1.377805e-02
5.288707e-02
2.191291e-02
3.788083e-03
2.024945e-03
-1.995002e-02
1.250012e-02
-1.588371e-02
-4.514789e-02
7.690271e-03
-5.577072e-03
-2.549565e-03
3.939894e-02
2.812833e-02
4.268971e-02
-1.066548e-01
-5.175498e-02
1.414496e-02
-1.189890e-01
-9.744515e-02
-1.681429e-02
-1.660769e-02
-8.478209e-02
-6.182884e-02
7.265366e-02
9.217960e-02
-1.898511e-02
-6.060085e-02
-3.592191e-02
-3.678599e-02
-1.347901e-03
-6.445765e-03
-6.444678e-02
-1.294749e-02
-1.668411e-02
2.235261e-02
6.173791e-02
6.294312e-02
7.660979e-02
-2.267062e-02
-6.232210e-02
-8.018340e-02
5.417881e-03
4.830918e-02
5.496997e-03
-2.844789e-02
2.844629e-02
2.526326e-02
-6.122980e-02
-4.750926e-02
4.768793e-02
5.172091e-02
-4.045767e-02
-1.663898e-02
3.392655e-02
5.688025e-02
2.660803e-02
-4.517479e-02
2.514911e-02
1.212086e-03
