2.037511e-02
-4.776165e-02
-7.451806e-02
-3.648815e-02
3.078140e-02
5.791275e-02
2.949327e-02
3.413446e-03
2.196642e-02
-5.110010e-02
-3.733272e-02
-3.924452e-02
1.428958e-02
5.570455e-04
1.920712e-02
4.556949e-02
3.630420e-03
1.273014e-02
5.446817e-02
5.534769e-02
2.176645e-02
1.069590e-02
5.418179e-02
8.436167e-02
-7.858533e-02
-7.920584e-02
-3.449271e-02
-2.803838e-03
5.213347e-02
-4.062776e-03
-2.365496e-02
-8.723954e-03
9.926030e-03
1.408905e-02
-4.184105e-03
6.519037e-03
-3.138046e-03
-8.044759e-03
1.758056e-02
6.439087e-03
-2.160477e-02
5.181449e-03
1.007867e-02
-9.462280e-03
-1.550192e-03
2.815294e-02
6.990847e-03
1.029481e-02
1.020659e-02
-3.409943e-02
-2.339812e-02
4.313510e-02
4.659580e-02
1.030482e-02
2.540777e-02
1.715867e-02
1.089185e-02
-1.113113e-02
-1.916732e-02
-1.809532e-02
1.367027e-02
-1.429882e-03
9.071620e-05
-7.112010e-02
-9.691570e-02
-1.330535e-01
-8.596744e-03
1.509890e-01
7.280338e-02
3.580857e-02
-4.795436e-02
2.922272e-02
7.532678e-02
3.535242e-02
4.847800e-02
9.278216e-03
-7.686200e-03
1.065047e-02
5.158342e-02
6.840712e-03
9.478350e-03
5.111637e-10
2.184295e-10
-1.306767e-10
3.936852e-10
7.345904e-10
6.433789e-10
1.707292e-10
2.168251e-10
4.408611e-10
-1.395344e-02
-8.740302e-03
-1.846210e-03
-7.707118e-03
-1.924059e-03
7.461109e-03
8.143071e-03
1.113413e-02
3.056469e-03
6.802396e-02
1.826695e-01
1.062490e-01
-1.013412e-01
-2.295524e-02
2.323050e-02
8.893212e-03
-1.150336e-01
-1.742550e-01
1.124677e-02
3.989762e-02
-3.365838e-02
-8.190092e-04
1.836265e-01
1.099029e-01
-1.149322e-01
-1.796586e-01
-8.197372e-02
-1.737811e-06
-3.851735e-06
-2.911470e-06
-6.844341e-06
-1.111399e-05
-1.380872e-05
-4.457013e-07
-7.676476e-06
-9.845794e-06
-1.050586e-01
-9.165935e-02
-9.079868e-02
-8.023489e-03
-6.708701e-02
-9.018482e-02
1.292276e-01
1.465388e-01
9.688523e-02
1.119616e-01
1.413070e-01
1.180414e-01
-2.290976e-02
-2.745986e-02
-5.516727e-03
-3.619884e-02
-4.536408e-02
-9.188481e-02
-3.099901e-02
-1.958350e-01
4.814844e-02
-1.045682e-02
2.319800e-01
3.017516e-02
2.058906e-02
-1.376792e-01
-4.226235e-02
-2.527156e-02
-1.745285e-02
-6.662142e-02
-7.757503e-02
-1.110240e-02
-6.120439e-02
-4.453037e-02
-3.371116e-02
-7.032847e-02
3.382982e-02
3.216015e-02
-4.097326e-02
4.247218e-02
2.755968e-02
-7.586861e-02
-8.067072e-03
-2.522173e-02
-5.508112e-03
-3.936052e-03
2.159700e-02
-4.739840e-03
-2.105271e-02
1.455044e-03
3.031122e-02
4.729683e-02
-1.701324e-02
-5.415718e-02
1.298369e-02
3.716408e-02
2.342403e-02
-1.961499e-02
7.267105e-03
3.465115e-02
-6.781782e-03
-2.659746e-02
-5.033879e-03
-2.513450e-02
-1.407184e-02
8.665538e-03
1.983375e-03
8.197870e-03
2.475775e-02
-7.533327e-03
-1.630107e-02
-1.539249e-02
2.377395e-02
1.256938e-02
3.263293e-02
6.865629e-03
-1.134639e-03
1.484449e-02
-3.034847e-03
-1.788804e-02
3.658076e-03
-2.309563e-02
-1.039296e-01
1.426895e-01
-9.049897e-04
1.125249e-01
-2.857265e-01
1.963306e-02
-1.166713e-01
1.970104e-01
-9.891166e-03
-2.372999e-02
-1.121963e-02
-3.002093e-02
-8.684937e-02
-6.355945e-02
1.143673e-02
-1.796725e-02
8.828926e-02
5.597260e-10
9.985629e-10
1.367215e-09
4.283270e-10
1.083583e-09
1.483903e-09
2.070869e-10
1.018389e-09
8.725959e-10
7.272472e-05
1.390627e-02
-2.144929e-03
-5.583225e-03
1.127786e-02
-3.096164e-03
5.219263e-04
2.498785e-04
-1.898631e-03
7.446022e-02
-1.125146e-01
3.559264e-02
1.525656e-02
1.461513e-01
-1.306663e-01
9.710865e-03
-1.241363e-01
7.156392e-02
-8.784411e-02
-2.914709e-02
1.700479e-01
1.115545e-01
9.318548e-02
-2.000630e-01
-7.426158e-02
-6.557190e-02
1.298760e-01
1.853433e-05
1.467537e-05
1.254761e-05
1.421433e-05
1.343592e-05
1.560514e-05
1.177783e-05
1.291723e-05
1.369309e-05
-3.375421e-03
4.579137e-03
-5.751964e-03
-7.997000e-02
-6.703479e-02
4.724673e-02
2.214251e-03
-4.881801e-03
-1.553688e-02
1.954324e-02
1.014874e-02
-4.657383e-03
-1.778487e-02
9.857921e-03
6.476863e-02
-3.395018e-02
-6.395209e-02
-1.578636e-02
-1.304106e-10
5.978905e-10
-7.464306e-10
5.416781e-10
4.300605e-10
5.571378e-11
7.638790e-10
8.792811e-11
9.271550e-10
-3.584945e-10
1.311131e-10
4.247516e-11
-5.636672e-10
-9.120396e-11
-2.248975e-10
-6.921541e-10
-2.259235e-10
-2.842055e-10
7.008820e-10
1.128289e-09
3.475804e-10
6.026749e-10
8.945228e-10
7.995585e-10
8.339207e-10
8.555633e-10
8.056746e-10
1.016388e-10
-6.341111e-10
-4.604426e-10
-8.810292e-10
-5.751829e-11
-4.060663e-10
-1.020153e-09
-3.919884e-10
1.446789e-10
1.664163e-09
2.030911e-09
1.059957e-09
2.283387e-09
1.965769e-09
2.292099e-09
2.575053e-09
2.621269e-09
1.792345e-09
1.084055e-09
4.654460e-10
-3.312886e-10
1.792740e-10
3.294463e-10
3.991849e-10
1.042847e-09
8.427162e-10
2.439812e-10
-6.704278e-11
-1.008110e-10
-5.640582e-10
2.306344e-10
6.547622e-10
1.469782e-10
3.150608e-10
-1.412285e-10
-1.775208e-11
-1.305212e-10
-3.884706e-10
-2.791367e-10
-5.491506e-10
-1.351809e-09
-4.754724e-10
-4.856188e-10
-2.876268e-10
-1.650884e-10
-1.200590e-10
2.816084e-10
-4.563352e-10
-5.699829e-11
1.103222e-09
5.927848e-10
2.593153e-10
1.668414e-10
9.018410e-10
5.320702e-10
1.100815e-09
2.640367e-10
4.792104e-10
1.395830e-09
1.250041e-09
1.565194e-09
1.248050e-09
1.716586e-09
1.310277e-09
5.922298e-10
5.201462e-10
1.326603e-09
1.439775e-09
8.702860e-10
1.214538e-09
1.117856e-09
9.960166e-10
-5.490638e-11
-3.507271e-10
6.885055e-10
-1.504381e-10
3.160689e-11
-4.328009e-11
-1.134581e-10
-2.267599e-10
2.926443e-10
-2.042674e-10
3.467772e-11
5.423218e-10
7.695798e-11
-2.080812e-10
1.867564e-10
-4.994822e-10
-2.517312e-10
9.026305e-11
5.814185e-10
8.994689e-10
1.016313e-09
1.987205e-10
1.535880e-09
1.532212e-09
1.196690e-09
1.989947e-09
1.492949e-09
1.264325e-09
1.237714e-09
8.929034e-10
1.100891e-09
1.252423e-09
1.292011e-09
8.674051e-10
1.960821e-09
1.523574e-09
1.079266e-09
9.852694e-10
1.637762e-09
8.263384e-10
1.170296e-10
1.298790e-09
4.149778e-10
7.403128e-10
1.127583e-09
4.069277e-02
-1.348663e-01
7.164138e-02
1.719914e-03
-7.138133e-02
7.521968e-02
-1.064871e-01
1.030276e-01
-1.401340e-02
-3.983115e-02
-8.594409e-02
1.022620e-02
7.921251e-03
2.907249e-02
3.626660e-02
-6.270095e-02
1.465869e-01
-1.132370e-01
2.688518e-03
-3.742722e-02
-1.044886e-02
4.333559e-02
1.022246e-02
6.854236e-02
4.621599e-03
3.975309e-02
-5.987606e-03
4.097734e-02
-4.637049e-02
1.814793e-02
1.083644e-02
-1.686794e-02
-2.165358e-03
-2.057465e-02
6.903615e-02
7.519308e-03
2.251115e-02
3.776130e-02
8.267404e-03
2.512781e-02
3.863786e-02
1.415179e-02
3.423645e-02
2.978061e-02
2.808902e-02
-3.222002e-02
1.654683e-02
-1.664058e-02
6.249591e-03
1.110988e-02
3.699270e-02
7.151940e-03
-2.727390e-02
4.057448e-02
6.214703e-03
-2.532877e-02
-4.807520e-03
-7.037412e-03
-3.541556e-02
-1.373922e-02
-1.855497e-02
-4.366705e-02
-2.743428e-02
-3.067790e-02
-8.091298e-02
-3.918486e-02
1.546586e-01
-2.409599e-01
1.680352e-01
-8.607835e-02
6.691126e-02
-1.147438e-01
-3.161010e-02
1.748138e-02
5.853662e-02
-1.812509e-02
-2.053002e-02
2.065174e-02
8.153291e-02
-5.205413e-02
2.646540e-02
-5.927531e-10
-1.155129e-10
1.259226e-10
-5.113587e-10
-6.233997e-10
-5.771403e-10
-3.001221e-10
-3.982901e-10
-3.169579e-10
-4.070519e-03
-8.162249e-03
-2.271635e-02
3.640621e-03
1.648381e-04
-1.353153e-02
6.303442e-03
9.666232e-03
-1.246967e-02
4.464364e-02
-1.179074e-01
5.911839e-02
5.561942e-02
-8.114063e-02
5.378101e-02
-1.524234e-01
2.882652e-01
-2.240109e-01
2.568771e-02
-2.599820e-02
7.997614e-03
-4.717508e-02
6.782632e-02
-2.727558e-02
-1.653090e-01
1.791336e-01
-1.506216e-01
2.113118e-05
2.149290e-05
1.322922e-05
2.441640e-05
2.015829e-05
1.386062e-05
2.767451e-05
2.052657e-05
1.648714e-05
3.106960e-02
2.964741e-02
-9.622629e-03
4.923599e-02
-2.804507e-02
2.840571e-02
7.026564e-02
-1.055455e-01
7.186219e-02
2.348821e-02
4.169436e-02
-9.709264e-03
-1.266572e-03
1.215123e-01
-5.503905e-02
-5.242272e-03
6.767820e-02
2.019151e-02
4.691415e-02
8.918859e-03
1.363643e-03
1.955013e-02
-3.354034e-02
-1.576622e-04
-4.440831e-03
6.508641e-04
6.889334e-02
-4.695030e-03
-3.695794e-02
-4.627733e-02
-4.850489e-02
-2.806495e-02
-2.928827e-02
-7.846029e-02
-2.266282e-02
-5.265933e-02
2.172467e-02
-2.569444e-02
-7.723452e-02
-1.312401e-02
-4.538856e-02
-6.200817e-02
-2.025923e-02
-2.340396e-02
-1.340293e-02
-1.378143e-01
-9.339698e-02
1.323129e-01
-1.966381e-01
2.654902e-02
1.999654e-01
-1.440780e-01
1.274830e-01
1.523866e-01
-1.064832e-01
2.647792e-03
2.266482e-02
-3.930854e-02
1.239328e-02
-3.021077e-02
-8.070722e-04
1.044967e-02
-7.968763e-02
-4.416511e-02
-6.863966e-03
7.999182e-03
-6.161336e-03
-5.971996e-03
-1.308771e-02
3.833711e-02
-6.349194e-03
4.691561e-03
-3.906877e-02
-1.742476e-02
-6.058901e-03
-4.081452e-02
-1.354671e-02
3.136177e-03
-3.207143e-02
-1.224939e-03
1.795179e-02
-3.877601e-02
2.645606e-02
9.860064e-03
6.592771e-04
-3.367345e-02
7.817307e-03
-2.732944e-03
2.383755e-02
3.197999e-02
-1.403943e-02
-1.332054e-02
-1.526920e-02
8.306685e-03
-1.729849e-02
-2.048749e-02
1.989433e-02
-2.332783e-02
3.996964e-03
-1.403739e-10
1.776089e-10
-3.914554e-10
4.682034e-11
-1.033075e-09
-2.577704e-10
-1.243451e-10
-9.996252e-11
1.858158e-10
-8.434736e-03
-6.124348e-03
-3.700740e-03
-2.554907e-03
-6.236416e-03
-3.787901e-03
3.131034e-04
-9.990149e-03
-3.912721e-03
7.224853e-02
1.015259e-01
-1.005886e-01
1.729373e-01
3.619266e-02
-1.819471e-01
8.161687e-02
-5.369108e-02
-9.422322e-02
2.357090e-03
-2.279683e-02
-2.331151e-03
-2.207309e-02
1.350340e-02
1.899555e-02
-3.719512e-03
1.684616e-02
-5.723152e-02
-6.491481e-06
-3.875512e-06
-7.555680e-06
-7.032902e-06
-2.922932e-06
-4.632120e-06
-7.276300e-06
-6.266782e-07
-2.851073e-06
-3.948161e-02
-4.261176e-02
-5.654483e-02
1.567592e-04
6.691671e-03
-2.713509e-04
1.899939e-02
-1.941771e-04
9.551764e-03
5.713788e-02
-2.257862e-02
8.345029e-03
1.455921e-02
1.988052e-02
1.867677e-02
-4.847831e-02
-2.678038e-02
2.059658e-03
-1.872233e-02
4.419722e-02
-1.669108e-02
-5.598670e-02
-5.460870e-02
-3.997114e-02
-1.152806e-02
1.314323e-02
-1.299334e-02
-8.919598e-04
2.504382e-03
6.290420e-02
3.280846e-02
-3.443391e-02
3.651431e-03
4.975967e-02
-5.462912e-02
3.903670e-02
-3.117111e-02
-3.131527e-02
-2.407073e-02
1.450706e-02
1.148061e-02
1.430823e-02
2.233465e-02
-2.984721e-02
-2.828051e-02
1.298010e-01
1.925324e-01
4.000326e-03
1.223632e-01
-6.780992e-02
-1.760922e-01
-8.311751e-02
-1.663899e-01
-3.504174e-02
-5.932685e-02
-4.309360e-02
-1.706453e-02
-4.262380e-02
-1.948233e-02
4.199593e-02
-1.820067e-02
6.171353e-03
3.696867e-02
3.020717e-02
-4.507104e-02
-5.828357e-02
-3.924373e-02
-4.084295e-02
-8.888128e-04
-4.192113e-02
6.114551e-02
1.081973e-01
4.547415e-03
-2.616238e-03
-2.718743e-02
-4.346228e-03
-8.765137e-03
-2.114316e-02
-2.124747e-02
-2.365957e-02
-2.802332e-02
3.436343e-02
7.778551e-02
3.900236e-02
9.292332e-03
2.659692e-04
-6.419600e-03
-2.299909e-02
-2.924124e-03
-9.896817e-03
-1.780506e-02
-7.001230e-03
1.953625e-04
5.638720e-03
4.230014e-02
3.690887e-02
-8.749087e-03
2.278473e-02
5.545702e-03
1.917580e-10
5.437363e-10
-5.981998e-11
-3.820468e-11
3.535883e-11
-3.357265e-10
4.190348e-10
-1.177231e-10
7.228555e-11
1.295934e-02
1.306545e-02
-1.413041e-03
4.910780e-03
4.219652e-03
1.072279e-04
-3.044421e-03
3.790676e-03
1.383946e-02
-9.241059e-03
-1.984040e-01
-5.381372e-02
-1.860230e-01
-9.180257e-02
1.492083e-01
3.428277e-02
2.230671e-01
1.194012e-01
1.110146e-02
2.120144e-03
-6.095068e-02
1.971856e-02
1.300183e-02
-4.649747e-02
-8.831195e-03
2.830382e-02
5.031892e-03
5.799305e-06
8.143770e-06
-4.632504e-07
3.415176e-07
2.794269e-06
-4.745956e-06
1.532831e-06
1.152574e-06
-1.681313e-06
-5.749134e-02
-1.894974e-02
3.030805e-02
-3.606792e-02
4.928962e-03
7.361455e-03
-3.108323e-02
6.633302e-03
1.401838e-02
5.612978e-02
5.135152e-02
8.400763e-02
4.914146e-02
1.841119e-02
2.286060e-02
6.491085e-02
-3.937211e-02
-7.207617e-02
-1.482813e-01
-5.447383e-02
1.129002e-01
5.672783e-02
-1.266991e-01
-1.176479e-01
1.663599e-01
2.292856e-02
-7.820753e-02
-2.804744e-02
-4.116783e-02
7.880072e-02
-1.367431e-03
-8.881671e-02
3.874888e-02
6.654124e-02
-9.950550e-03
-3.899302e-02
-6.160697e-02
6.549179e-02
8.493668e-02
-7.039473e-02
-6.161911e-02
4.978915e-02
5.036335e-02
-3.521292e-02
-6.233316e-02
-3.081546e-02
-6.348172e-02
7.279769e-02
8.145017e-02
-8.383115e-02
-2.592056e-02
1.076504e-01
2.997093e-02
-2.879474e-02
2.421840e-02
1.135688e-02
1.698000e-02
3.366721e-02
1.989625e-02
-1.950531e-03
-8.903416e-03
1.503790e-02
-1.173603e-02
-2.837143e-02
1.430133e-02
2.129317e-02
-3.139789e-02
1.276079e-02
3.770278e-02
6.565891e-03
-6.656262e-03
4.256035e-03
2.568732e-03
5.081442e-02
6.456114e-02
2.679172e-02
4.818590e-02
5.399205e-02
1.209360e-02
1.927312e-02
1.535608e-02
-3.925801e-02
1.075974e-01
4.671806e-02
-1.680286e-01
-9.952519e-02
1.987493e-01
4.841188e-02
-1.984069e-01
-4.842141e-02
1.198712e-01
1.102427e-01
6.243769e-02
-3.106273e-02
-3.664304e-02
6.550913e-02
2.126552e-02
-8.124596e-02
-1.046219e-02
-6.045803e-10
-3.039884e-10
-4.784215e-10
-2.993747e-10
7.532435e-10
-2.592610e-10
8.441489e-11
9.969399e-11
-2.458486e-10
1.614881e-03
-6.164543e-03
-4.722097e-03
-3.432953e-03
-9.781251e-03
-5.042960e-03
-5.031299e-03
-1.144888e-02
-1.231607e-02
-1.142823e-01
-5.559577e-02
1.034724e-01
6.369603e-02
-1.564822e-01
-5.182089e-02
1.007158e-01
1.015539e-01
-9.957951e-02
-6.197213e-02
3.673029e-02
5.408530e-02
-1.293490e-01
-1.292393e-01
-1.347362e-02
7.851655e-02
-6.155242e-02
-7.589731e-03
-1.618157e-06
9.229426e-06
9.639219e-06
-7.909356e-07
5.491309e-06
4.066417e-06
6.947585e-06
8.736757e-06
6.968054e-06
3.032509e-02
-1.220746e-02
-6.371612e-02
8.834331e-03
9.478735e-02
-1.501071e-02
-1.103702e-01
1.324296e-02
1.810162e-02
-8.099793e-02
-1.322581e-01
-2.687256e-02
6.740709e-02
-5.175146e-02
-1.315764e-01
1.138163e-01
1.287688e-01
-5.844972e-02
-2.720022e-02
1.016435e-01
8.113521e-02
3.543676e-02
-4.329935e-02
-5.167899e-02
-5.548199e-02
1.269170e-02
9.240432e-02
-1.755961e-03
-7.709935e-02
1.405213e-02
2.238081e-03
-9.971987e-02
8.724226e-03
9.458775e-03
-5.664840e-02
3.459966e-02
-7.101516e-02
-4.450611e-02
-1.666799e-02
-2.345171e-03
-2.929500e-02
-1.481722e-02
9.003536e-02
7.651838e-02
5.694385e-02
-3.382464e-02
-7.037064e-02
2.908370e-05
8.034982e-02
2.366250e-02
1.299266e-03
3.658045e-02
-9.225780e-05
1.352912e-02
1.442999e-02
-1.335145e-02
-1.055054e-02
1.274424e-02
3.637794e-02
2.215343e-02
-2.469795e-02
1.683005e-02
4.135018e-02
-3.114807e-02
-1.708657e-02
-1.199775e-02
-6.141040e-03
3.772109e-02
9.727200e-03
1.593924e-03
3.744485e-02
-2.311902e-03
-9.009754e-03
-2.237425e-02
-4.608068e-03
4.073172e-02
1.909008e-02
2.570847e-02
-2.074026e-02
-4.086397e-02
-3.257965e-02
3.968585e-02
1.537449e-01
6.287112e-02
-2.748470e-02
-1.100068e-01
4.678648e-02
7.907795e-02
6.098461e-02
-1.015088e-01
3.898362e-02
6.085755e-02
2.582478e-02
-2.231380e-02
-4.464592e-02
-5.198192e-02
4.392825e-02
5.728668e-02
4.292966e-03
-6.867031e-10
2.595512e-10
-9.881438e-10
-1.475850e-10
3.221788e-10
-2.969833e-10
-1.981755e-10
-3.869612e-10
2.830262e-10
-8.582954e-04
4.867131e-03
3.240734e-04
3.450758e-03
2.897252e-03
-1.324783e-02
-4.475145e-03
-2.810310e-03
-1.091845e-02
-1.201648e-01
7.361968e-03
-1.753324e-02
5.975438e-02
-1.073326e-01
-1.384446e-01
-4.054657e-02
1.259122e-01
1.320450e-01
-3.471703e-02
1.528595e-01
5.144824e-02
-1.563383e-01
-2.618664e-01
-1.996889e-01
2.158398e-01
2.704002e-01
2.203109e-02
-1.758552e-05
-1.214877e-05
-9.576987e-06
-1.678704e-05
-1.159979e-05
-7.921446e-06
-1.908674e-05
-1.147125e-05
-1.187561e-05
3.008310e-02
2.256321e-03
-1.625891e-02
6.386752e-02
1.406897e-01
9.455208e-02
-8.212978e-02
-7.409828e-02
-9.489564e-02
-7.587923e-02
-4.887512e-02
-2.534953e-02
-2.039975e-02
-3.941401e-02
-3.319304e-02
1.592658e-02
1.085912e-01
1.636626e-01
2.374836e-02
1.278325e-01
3.462073e-02
-6.957579e-02
-1.279356e-01
6.756735e-02
6.882758e-02
1.023493e-02
-6.483581e-02
-2.941225e-02
5.888543e-02
-7.839239e-02
-5.762873e-02
-6.212540e-03
8.139770e-02
-9.175112e-02
-1.057759e-01
-2.971255e-02
2.633008e-02
5.803615e-02
-4.254007e-02
-5.811051e-02
4.086850e-04
1.001930e-01
-1.830358e-02
-5.381211e-02
2.079040e-02
-7.042035e-02
2.837921e-02
3.417648e-02
6.491303e-04
-2.657208e-02
1.349293e-02
3.524781e-02
5.721964e-03
-7.659094e-02
-1.525262e-02
4.540574e-02
1.197329e-02
1.636985e-02
4.802382e-02
3.842103e-02
-5.500194e-03
4.649616e-03
1.204649e-02
-4.725388e-02
-5.600011e-02
-2.235946e-02
3.509876e-02
-3.352474e-02
-8.011822e-02
7.919907e-02
2.413348e-02
-3.711662e-02
7.531215e-03
2.205113e-02
3.001166e-02
-6.585683e-03
3.347849e-03
1.310474e-02
1.361227e-02
5.288907e-03
1.495591e-02
1.776273e-02
1.967643e-01
-2.371800e-01
-1.224819e-01
8.821071e-02
1.877430e-01
4.359546e-02
-1.621485e-01
4.092297e-02
8.864824e-02
-4.319567e-02
-5.894712e-02
2.185972e-02
-3.313944e-02
3.740689e-03
8.472256e-02
-7.891707e-03
9.875473e-02
9.241221e-10
-9.606376e-11
3.416999e-10
3.397579e-10
4.328474e-11
6.099259e-10
1.153642e-11
-4.285406e-10
1.011714e-09
-1.595866e-02
-2.045170e-02
-6.874011e-03
-2.842500e-03
-9.471198e-03
5.119794e-03
-7.010596e-03
-1.039633e-02
9.049093e-03
-1.695227e-01
1.519146e-01
7.560711e-02
-7.044088e-02
-1.984477e-01
1.977650e-01
1.471152e-01
-3.355411e-02
-1.323933e-01
-3.280022e-02
6.091257e-02
2.423668e-02
-2.873364e-02
-3.038739e-02
5.862743e-02
2.615933e-02
-1.024696e-01
-3.846372e-02
1.003661e-05
1.331729e-05
8.373768e-06
1.449912e-05
1.112699e-05
7.694809e-06
1.198365e-05
8.808550e-06
4.722593e-06
-3.171611e-04
-6.303718e-02
-8.133828e-02
7.914463e-02
8.215338e-03
-1.188973e-01
2.835970e-02
7.166489e-02
-4.486912e-02
-1.152035e-01
1.169301e-01
1.971808e-01
-2.885707e-02
-4.453557e-02
6.780668e-02
1.938493e-02
-3.576508e-02
-6.068992e-02
-3.617320e-03
-5.639610e-02
-4.050392e-02
-5.946415e-03
1.261544e-02
-4.390005e-03
9.920175e-02
-5.122564e-03
-2.227108e-02
3.936072e-02
2.864981e-02
-1.802008e-02
-2.819595e-02
-3.299772e-02
-2.583819e-02
1.908036e-03
-1.051456e-03
3.774950e-02
-1.618186e-02
5.505340e-03
2.549943e-03
7.759973e-03
1.587246e-02
5.936470e-03
-4.358940e-02
-8.631281e-03
-9.710515e-03
-1.172850e-03
1.850092e-02
1.483356e-02
-2.146883e-02
-1.073055e-02
-4.826993e-03
-1.092449e-02
9.782230e-03
1.601817e-02
-1.412923e-02
4.754994e-03
-4.216058e-03
-5.995220e-03
1.950886e-02
2.505376e-02
-2.688633e-02
-3.453891e-02
-1.602433e-02
3.674456e-03
1.335363e-03
4.310750e-03
-8.628419e-03
-7.583051e-03
-4.605987e-03
-1.110934e-02
9.835367e-03
-8.021967e-03
4.354598e-03
-1.088759e-02
5.355392e-03
-2.008900e-03
-1.796193e-02
-1.031732e-03
1.272233e-02
4.898288e-04
2.097141e-02
2.119463e-02
2.955733e-02
4.350757e-02
2.458443e-02
1.138798e-03
-8.142146e-02
-4.285238e-05
-4.558306e-02
-1.005592e-02
-1.386583e-02
-6.798055e-03
5.530478e-03
1.812125e-03
1.086887e-02
3.418759e-02
-8.877194e-03
-6.606631e-03
-2.431297e-02
3.001147e-10
4.353160e-11
5.025036e-11
5.627043e-10
1.442814e-10
-1.955774e-11
-1.509314e-10
-9.618231e-11
-2.803824e-10
2.931073e-03
3.160819e-03
-3.816011e-03
-2.776414e-03
-2.786680e-03
-5.019845e-03
7.685592e-03
7.548482e-03
2.716653e-03
-4.262752e-02
-4.184318e-02
1.265192e-02
1.220318e-02
7.140820e-02
1.968640e-02
1.061009e-02
-2.996212e-02
-2.802331e-02
-1.950242e-01
-2.081864e-01
-1.057713e-01
2.564873e-01
2.943775e-01
1.782337e-01
-8.814543e-02
-1.554991e-01
-1.191910e-01
-1.059913e-05
-1.497259e-05
-1.590501e-05
-1.609848e-05
-1.870243e-05
-1.696756e-05
-1.087335e-05
-1.355503e-05
-1.270515e-05
-2.317207e-02
-1.686190e-02
-2.439119e-02
-9.972622e-02
-7.186309e-02
-4.321133e-02
5.333772e-02
8.311804e-02
5.094125e-02
-2.635994e-02
-4.643667e-02
-1.399614e-02
6.953123e-02
5.244383e-02
4.995332e-02
-1.065757e-02
-8.679844e-03
-7.689753e-03
-2.133414e-02
-1.104261e-02
1.079592e-02
5.871492e-02
1.238165e-01
5.015499e-02
-6.450456e-02
-3.696010e-02
-1.387655e-02
5.475227e-03
2.304315e-02
3.497549e-02
-3.536722e-02
-3.519300e-02
-2.858747e-02
2.196010e-02
-5.522406e-03
-3.205782e-02
5.066181e-02
3.824887e-02
3.138353e-02
-2.550552e-02
-2.667488e-02
-1.892477e-02
-5.544285e-02
-5.604805e-02
-3.944645e-02
3.324180e-02
6.481340e-02
-5.882433e-03
-3.620602e-02
-6.124917e-02
-8.240586e-02
4.646524e-03
-5.162864e-03
2.524673e-03
2.658435e-02
2.839074e-04
1.577288e-02
3.202371e-03
-1.060825e-02
-1.050129e-02
4.183075e-03
-2.608357e-02
-2.458187e-02
-8.799932e-02
-1.261847e-01
-6.754253e-02
-5.227654e-03
-2.396689e-02
1.429962e-02
6.819154e-02
8.236302e-02
6.615404e-02
-2.789194e-02
-2.973404e-02
-2.759372e-02
8.283173e-03
2.887917e-03
1.294795e-02
1.998463e-02
1.364036e-02
3.173389e-02
3.834142e-02
4.753713e-02
-4.850393e-03
2.325518e-02
2.665332e-03
-2.706156e-03
7.375797e-03
-7.465688e-04
3.547687e-02
-4.698025e-02
-3.120720e-02
4.352915e-03
6.266817e-03
3.232567e-03
1.341360e-02
-2.196032e-03
1.238038e-02
2.714862e-02
-4.057973e-10
1.401629e-10
3.210706e-10
-4.815301e-10
8.155986e-11
-6.254746e-11
-3.256986e-10
-6.394908e-11
-4.670899e-10
4.652248e-03
9.870056e-03
5.815113e-03
6.918033e-03
8.604334e-03
4.435804e-03
4.236256e-03
6.211309e-03
-3.942622e-03
-7.600576e-02
-8.263463e-03
-3.874743e-02
-6.609713e-02
-8.099850e-02
1.155214e-02
9.788949e-02
3.629218e-02
5.237195e-02
1.286035e-01
1.959246e-01
3.135350e-02
-1.662847e-02
-5.028343e-02
-1.772905e-01
-1.707479e-01
-1.619332e-01
-1.191577e-01
-7.180115e-06
-9.723640e-06
-7.634791e-06
-2.774776e-06
-6.206480e-06
-6.099091e-06
-2.553339e-06
-4.028142e-06
-3.792210e-06
-9.766266e-02
-1.053606e-01
-2.142273e-02
-2.253906e-02
6.315365e-03
6.015747e-02
5.531890e-02
5.517784e-02
6.058997e-02
9.097321e-02
6.784330e-02
2.534837e-03
-2.495172e-02
-4.660983e-02
-4.403995e-02
2.334740e-03
-3.184427e-02
-7.735838e-03
1.122310e-01
1.327972e-01
-1.249551e-01
1.364592e-01
-1.787512e-01
-1.761525e-01
-1.712973e-01
-1.105337e-01
1.193420e-01
3.963660e-02
-4.613441e-02
-9.002531e-02
-1.333527e-02
-3.241774e-02
3.705622e-02
-5.046936e-02
2.340379e-02
1.710775e-02
1.400775e-02
-5.792969e-02
-4.853296e-02
-4.327543e-02
-4.014108e-02
3.514297e-02
1.388576e-02
3.808665e-02
3.308865e-02
-2.522377e-02
-6.448603e-02
3.176656e-02
-1.986534e-02
9.528399e-03
2.735738e-02
2.636687e-02
6.272309e-02
2.004135e-02
1.731098e-02
-2.064277e-03
-2.988638e-02
1.126334e-02
-6.166796e-03
-3.656472e-02
-1.238321e-02
-1.979747e-02
-1.476316e-02
5.418091e-02
2.388589e-02
6.275197e-03
-1.652894e-03
-2.373569e-02
-5.650818e-02
-3.453349e-02
-3.469017e-02
-1.939382e-02
5.656339e-02
3.895521e-02
2.578975e-02
3.946812e-02
3.428254e-02
3.687199e-02
1.313160e-02
1.451571e-02
1.841354e-02
1.221997e-01
6.960858e-02
-1.251761e-01
4.189465e-02
-1.397545e-01
7.295597e-02
-2.620779e-02
7.062180e-02
2.112382e-01
-6.946855e-02
-4.127841e-02
2.241184e-03
-1.921531e-02
6.884215e-02
7.608148e-02
3.105840e-02
3.407387e-02
1.751345e-02
-2.536491e-10
1.365522e-10
-6.075442e-11
-9.001436e-10
2.489553e-11
3.333757e-10
-6.435800e-12
1.366024e-11
3.910374e-10
-2.156717e-03
-9.525169e-04
-3.798714e-03
2.270374e-04
1.740099e-02
7.151197e-03
1.475195e-02
2.277415e-02
5.329217e-03
7.207219e-02
1.639243e-02
-9.846664e-02
4.588372e-02
-1.288847e-01
3.140467e-02
-4.217848e-02
6.778112e-02
6.551366e-02
1.099917e-01
-8.122071e-02
-9.381798e-02
-1.722525e-01
-1.374077e-01
1.421915e-01
-1.580741e-01
2.010818e-01
1.654486e-02
2.327420e-05
8.960456e-06
1.524717e-05
1.954685e-05
4.684640e-06
7.906515e-06
1.474873e-05
-1.002498e-06
8.657787e-07
-4.981842e-02
1.597237e-02
-8.996354e-03
1.217421e-01
1.000421e-01
-9.307701e-04
5.024372e-02
-1.069554e-01
-7.203164e-02
-1.108868e-02
-7.397883e-02
6.668609e-02
-2.708515e-02
-1.344011e-02
1.014419e-02
5.190011e-03
7.125136e-02
3.009624e-02
-1.794519e-01
-2.439571e-01
-5.290696e-03
-2.001451e-01
5.739093e-02
1.983445e-01
-9.852400e-02
2.631261e-01
4.816962e-02
-1.042317e-01
-7.574285e-02
1.913975e-03
-4.019499e-02
1.260558e-01
4.897412e-03
1.316747e-04
7.612663e-02
-9.226034e-02
-8.601775e-02
1.041760e-02
5.359343e-02
-2.955583e-03
8.497906e-02
-7.197690e-03
1.005681e-01
4.005345e-02
-3.306145e-02
-5.719597e-02
-6.162283e-03
-3.203300e-02
6.235169e-04
3.608320e-02
3.182573e-02
1.834195e-02
3.038435e-03
1.256716e-02
-2.397020e-02
-1.666355e-02
-2.940719e-02
-1.412632e-02
-3.292118e-02
7.217736e-03
9.864131e-03
-5.395656e-02
-2.330401e-02
-9.332643e-04
1.663911e-02
-1.638952e-02
-2.995829e-03
-3.771803e-02
9.108987e-03
-9.766051e-03
-3.341856e-02
5.252613e-02
3.011998e-02
7.459564e-03
3.677081e-02
1.540429e-02
-4.258931e-03
2.428961e-02
3.783560e-02
-5.250136e-04
1.664078e-02
-2.649200e-02
-4.543496e-02
1.523403e-01
-1.503762e-02
1.995219e-01
1.382758e-01
1.134875e-02
7.499921e-02
-5.843078e-02
5.851358e-02
6.393601e-02
1.406883e-02
1.034728e-01
1.843862e-02
-3.428332e-02
-1.472947e-02
-6.763932e-02
-6.933303e-02
5.390274e-10
5.100677e-10
6.841485e-10
2.455796e-10
1.137254e-09
1.118157e-09
7.502768e-10
1.020595e-09
8.964887e-10
1.840313e-02
4.088975e-02
2.205209e-02
4.663845e-02
3.505238e-02
7.841122e-03
3.989572e-02
1.384698e-02
-1.284975e-03
-3.297491e-02
1.098591e-02
9.165458e-02
-5.661200e-02
7.568132e-02
-1.991598e-02
7.334314e-02
-1.663204e-03
-8.929665e-02
-9.949666e-02
-1.009238e-02
6.529707e-02
4.525337e-04
2.029545e-01
-5.106335e-02
1.411591e-01
-6.404628e-02
-1.784353e-01
1.730036e-05
1.425447e-05
1.225851e-05
1.811296e-05
1.147779e-05
1.496843e-05
1.393767e-05
1.117629e-05
1.425683e-05
7.748533e-02
-6.452434e-02
-1.107220e-02
-1.065181e-02
-1.410909e-01
3.891747e-03
-1.388711e-01
-5.390897e-02
9.114622e-02
3.437946e-02
2.259031e-02
-8.381044e-02
7.354201e-02
9.542538e-03
-4.586674e-02
4.366878e-02
-1.604173e-02
-3.436992e-02
1.490818e-01
-1.547460e-01
-8.447002e-03
3.147350e-01
-1.959695e-01
2.757369e-02
1.824362e-01
-1.314657e-01
9.885274e-02
-6.286245e-02
-8.832864e-02
4.316868e-02
4.784571e-02
4.371971e-03
1.139802e-01
-2.114344e-02
-2.081525e-01
-4.347928e-02
-2.907659e-02
-3.152624e-02
4.011343e-02
-2.055972e-02
-3.817212e-02
6.377672e-02
-2.637245e-02
-5.012823e-02
7.194598e-02
8.272585e-02
-3.869921e-02
1.120396e-02
4.789042e-02
-5.668565e-02
2.263709e-03
-2.162134e-02
-3.676423e-02
6.261169e-02
-2.573308e-03
1.816162e-02
3.525670e-03
-8.490047e-03
9.382728e-03
-2.895136e-02
-5.816095e-03
4.765334e-04
-1.268013e-02
-2.070334e-02
-1.678481e-02
-1.951914e-02
2.031710e-03
2.165879e-02
-8.127478e-03
9.352739e-03
1.812944e-03
2.580599e-03
-5.241648e-03
1.849701e-02
-3.211182e-04
-6.006508e-03
1.167634e-02
2.092398e-03
-3.696494e-03
6.606002e-03
4.017797e-03
4.684937e-02
-1.260252e-01
8.446255e-02
2.255858e-01
-2.981485e-01
2.932057e-01
1.018354e-01
-1.601412e-01
1.240801e-01
-3.307272e-02
6.860045e-02
2.585977e-02
-3.757738e-02
4.937148e-02
9.070242e-03
-5.768526e-02
7.027096e-02
3.003695e-02
3.925819e-10
-5.165538e-10
6.088607e-10
-3.378860e-11
-1.243683e-10
-6.261097e-10
-1.455219e-10
-5.407709e-10
-2.360268e-10
-8.397440e-03
1.661454e-03
-8.429687e-03
-6.893823e-03
-2.951175e-04
-7.928051e-03
-1.249420e-02
-6.600749e-03
-1.651626e-02
5.827573e-02
-9.232898e-02
-1.239106e-03
1.478170e-01
-1.641013e-01
1.215026e-01
-7.318220e-04
1.209716e-02
3.818165e-04
5.067757e-02
-1.145794e-02
1.412905e-02
-6.988661e-02
-1.896663e-03
1.181939e-02
-1.266094e-02
2.377889e-02
-3.905099e-02
-1.452267e-05
-2.680600e-05
-1.624075e-05
-1.276143e-05
-2.099924e-05
-1.009583e-05
-9.179648e-06
-1.299059e-05
-7.969762e-06
-6.751150e-02
9.326020e-02
-5.307328e-02
-4.947268e-02
1.433185e-01
-6.737118e-02
-5.546570e-02
6.402104e-02
-6.004670e-02
6.807930e-02
5.851421e-02
-7.175688e-02
8.941162e-02
1.129721e-01
-7.111763e-02
-2.654210e-02
-6.056898e-03
-6.488910e-02
-5.292744e-02
-1.422431e-01
-6.893111e-02
-8.229836e-02
-9.421214e-02
7.469479e-02
-8.400900e-02
-9.861933e-02
4.497260e-02
-6.391376e-02
-5.377215e-02
8.155465e-02
-2.277640e-02
-3.885169e-02
1.681775e-01
-5.861467e-02
-2.283010e-02
6.701051e-02
-9.273158e-02
-4.103190e-02
5.647956e-02
-9.885809e-02
-1.676888e-02
1.111377e-01
-1.359320e-01
-1.677724e-02
9.731640e-02
5.347372e-02
-3.252086e-03
1.038137e-02
-1.885606e-03
-5.596887e-02
-1.714343e-03
-8.027959e-03
-3.644142e-02
-5.412330e-03
7.133616e-03
1.933561e-04
-1.892049e-02
-9.908932e-03
2.777660e-03
2.981039e-03
-1.998652e-02
-8.227328e-03
4.028993e-03
-3.201652e-02
-4.245650e-02
-5.685442e-03
-1.334353e-02
-2.629947e-02
3.404604e-02
-3.130693e-02
-1.133014e-02
9.568965e-02
4.389646e-02
1.715326e-02
-2.256060e-02
3.046448e-02
6.021447e-03
-2.812419e-02
3.570285e-02
1.378724e-02
-2.139627e-02
-1.515458e-02
-1.126784e-02
4.354738e-02
-1.553330e-01
-8.040796e-02
2.232483e-01
-1.002274e-01
-2.958568e-02
7.393277e-02
1.482329e-02
7.009570e-02
-7.894308e-03
-2.910688e-03
9.276845e-02
-1.991548e-03
-1.779051e-02
5.600405e-02
5.932324e-03
-2.747698e-11
-3.575794e-10
-1.601955e-10
-2.827402e-10
-7.357298e-10
-5.203325e-10
-5.308159e-10
-8.285290e-10
-7.487863e-10
-7.797599e-03
1.423725e-02
1.309712e-03
-7.011179e-03
2.289203e-02
5.510015e-03
-1.291265e-02
6.601771e-03
-2.937395e-03
-4.883437e-02
-4.064313e-02
6.377106e-02
-3.613426e-02
-9.798405e-02
7.861767e-02
-6.991125e-03
-1.749209e-03
-6.080871e-02
1.955166e-02
-1.574309e-02
-1.100507e-03
-7.504348e-02
-1.423261e-02
3.080368e-02
-1.525571e-02
3.079987e-02
-7.187891e-03
-9.536830e-06
-9.765149e-06
-2.981580e-06
-2.002273e-06
-2.773368e-06
3.130632e-06
-1.756426e-06
3.097189e-07
4.560612e-06
3.198309e-02
1.728543e-02
-8.275153e-02
8.375700e-02
1.900086e-02
-7.834553e-02
5.760363e-02
-1.329609e-02
-7.084223e-02
6.044106e-02
1.443197e-02
-6.251491e-02
9.259718e-02
-4.122810e-02
-8.067781e-02
-8.610711e-04
-2.053251e-02
-2.792120e-02
7.570966e-10
1.092683e-09
1.326075e-09
9.907614e-10
3.770469e-10
3.270768e-10
5.058054e-10
1.831500e-09
1.055194e-09
4.000684e-10
6.982305e-10
3.959519e-10
8.170535e-10
6.666986e-10
3.304551e-11
1.450407e-10
-8.697534e-11
9.989036e-10
1.084875e-09
1.673844e-09
9.046253e-10
3.074660e-10
9.602885e-10
6.300211e-10
6.326619e-10
7.531520e-10
1.511438e-09
-1.910251e-11
2.652354e-10
2.479082e-10
2.937890e-10
1.436375e-11
1.830854e-10
1.909632e-12
-2.497205e-11
6.197276e-10
5.129751e-10
9.757510e-10
8.032420e-10
1.477574e-09
1.546807e-09
8.149731e-10
1.388413e-09
8.807227e-10
7.054875e-10
4.387669e-10
1.091503e-09
2.900881e-10
1.755572e-10
4.667011e-10
3.281344e-10
4.575165e-10
-5.722804e-11
5.320934e-10
1.218513e-09
2.032003e-10
5.894681e-10
1.313524e-10
4.816913e-10
8.369558e-10
1.792893e-10
4.565953e-10
3.177411e-10
1.874880e-10
9.726240e-11
8.584100e-11
-3.706467e-10
-3.822303e-10
-3.980100e-10
1.851496e-10
-2.054030e-11
-2.546964e-10
-6.040687e-10
7.142390e-11
-4.641487e-10
-4.729598e-11
-3.983320e-10
7.272298e-11
-2.789999e-10
-2.833435e-10
-4.781108e-10
-1.728697e-10
2.459207e-10
2.106549e-11
8.233411e-11
4.087971e-10
-2.462831e-10
4.697202e-10
-8.349139e-11
1.059698e-10
6.139695e-10
2.666240e-11
2.853104e-10
7.659150e-12
2.227438e-10
3.621460e-10
3.753002e-10
-2.340869e-13
2.901989e-10
8.012073e-11
-9.708859e-11
1.160936e-10
5.008716e-10
-1.227515e-11
3.208971e-10
1.619425e-12
-1.092710e-10
7.692853e-11
7.403919e-10
1.072711e-09
4.249137e-10
9.200091e-10
-3.410697e-11
6.477923e-10
2.551889e-10
5.033502e-10
4.771555e-10
1.548808e-10
1.724674e-10
5.065883e-11
-5.872979e-11
-5.572925e-11
2.404459e-10
6.378060e-10
-5.328566e-10
-4.226372e-10
5.747945e-10
4.442139e-10
3.182112e-10
-3.430133e-10
3.791957e-10
2.152768e-10
-6.713483e-11
-2.723692e-10
2.245725e-10
1.011893e-10
3.291956e-10
9.399795e-10
-2.089300e-11
6.171758e-10
3.003048e-10
-6.824104e-11
2.600470e-10
-3.932339e-10
