-3.379921e-03
-2.523288e-02
2.490724e-02
-1.829707e-02
-4.227853e-02
2.451737e-02
-8.003419e-03
-2.088280e-02
1.465578e-02
4.883268e-09
4.640848e-09
8.247186e-10
7.823621e-10
-9.949328e-10
-2.425914e-10
-3.490664e-09
-8.346169e-10
1.712537e-09
-5.373822e-10
-8.725247e-10
-5.177316e-10
1.639371e-11
-1.274266e-10
5.290748e-10
1.582650e-10
2.909811e-10
7.461430e-10
3.754991e-02
3.989444e-02
2.537048e-02
-4.274569e-02
-8.982701e-02
5.227699e-02
5.030465e-02
7.114447e-02
-2.008425e-02
7.296898e-03
2.599305e-02
3.527509e-02
-4.144790e-02
-1.455220e-02
1.035606e-02
1.797480e-02
1.402687e-02
-1.480024e-02
9.388364e-03
2.885756e-02
-3.510542e-02
1.337295e-02
-4.863057e-02
-9.126083e-02
-1.448841e-02
1.001587e-02
-3.608360e-02
-1.526963e-02
-7.516982e-03
-1.785799e-02
-1.105579e-02
-3.992722e-03
-2.316111e-02
-1.196627e-02
-2.462860e-02
-3.531583e-02
3.244336e-10
-7.351537e-11
4.475084e-10
9.666651e-10
8.077813e-11
-2.921653e-10
1.326119e-10
-3.426918e-13
4.654490e-10
-2.203105e-02
-3.381027e-04
1.121957e-02
-3.795628e-02
1.505491e-01
-1.366075e-01
-2.982493e-03
2.120197e-02
-7.806463e-02
-2.305741e-02
-4.033929e-03
1.957739e-02
3.561515e-02
-1.616299e-02
-1.655361e-02
-2.466766e-02
1.505503e-02
3.816842e-02
-2.940540e-10
-3.696696e-10
-7.366294e-10
-8.966033e-11
-3.864978e-10
-1.720142e-10
3.065687e-10
-2.764263e-11
-1.373978e-10
-4.699636e-03
-6.214552e-03
-4.765940e-03
-2.055840e-02
-1.458031e-02
3.485717e-03
-1.458878e-02
-1.870716e-03
1.874528e-02
8.574346e-10
6.805965e-10
2.407530e-10
3.618779e-10
3.733544e-10
1.952787e-10
6.659729e-10
5.858186e-10
5.043648e-10
-1.596597e-02
1.728751e-02
1.925680e-02
-3.102004e-02
1.075550e-02
5.911236e-03
-6.083735e-02
-3.117391e-02
4.283661e-03
-1.382158e-04
-1.943082e-03
-1.179071e-02
-6.114731e-03
2.906267e-03
1.686810e-02
-7.241038e-03
9.719327e-03
2.686947e-02
3.959086e-10
-1.314421e-10
6.888981e-11
6.044204e-11
-3.408170e-10
2.976379e-10
9.740532e-11
-6.539087e-10
1.570111e-10
5.505298e-02
-2.643498e-02
7.229644e-02
6.891908e-02
-8.775523e-02
5.966809e-02
4.187251e-02
-8.045024e-02
3.372096e-02
-2.535333e-09
4.374634e-09
2.914155e-09
-4.859253e-09
-2.912488e-11
1.946759e-09
-2.803554e-09
-2.999786e-09
8.655911e-10
-6.884186e-11
3.672880e-11
-2.210253e-10
-4.834170e-10
-6.693683e-10
-2.821662e-10
2.728895e-11
5.132023e-10
4.721297e-10
3.661708e-02
-7.345221e-02
6.176962e-03
9.548414e-02
-7.691815e-02
3.584655e-02
-2.223508e-02
-1.172401e-02
-1.738385e-02
6.268236e-03
-5.949115e-03
1.963672e-02
8.580551e-02
-5.909299e-02
-1.116898e-02
5.435736e-02
-2.963973e-02
-3.507523e-02
2.374728e-02
6.351787e-02
-1.143364e-01
8.550836e-02
1.022122e-01
-1.555190e-01
7.194572e-02
4.767155e-02
-1.193937e-01
-1.472910e-02
-1.671799e-02
-2.061279e-02
-3.538200e-02
-1.265355e-02
-1.201926e-02
-2.590705e-02
-2.737280e-04
1.576154e-02
-6.872983e-11
-3.113737e-11
-1.780659e-10
3.360109e-10
3.924428e-10
8.018371e-10
-2.808611e-10
4.385317e-11
1.278198e-10
-1.501757e-02
1.515264e-02
2.573560e-02
-2.124905e-01
3.128913e-01
-7.590020e-02
-1.241299e-01
1.605263e-01
-8.314836e-02
5.808324e-02
1.282354e-02
-2.414786e-02
6.356068e-02
7.532418e-03
-4.852660e-02
5.557682e-02
1.040085e-03
-4.167566e-02
5.707208e-11
5.909484e-10
-6.811050e-11
-4.898224e-11
2.384672e-10
-6.440707e-10
3.335178e-10
5.755366e-11
-9.275281e-11
-2.235369e-02
-3.052819e-02
-1.126431e-02
-1.423055e-02
-2.652048e-02
-9.498382e-03
1.583007e-02
-9.963872e-04
1.750986e-02
2.116179e-10
-1.448902e-10
1.130744e-10
2.389491e-10
-6.070996e-11
5.718870e-10
5.957244e-10
2.277166e-10
3.199324e-10
2.029845e-02
3.033509e-02
-3.122877e-03
-1.552911e-03
3.008765e-02
2.319332e-02
-3.994790e-02
-5.060516e-02
-5.692337e-04
-2.263468e-02
-1.460673e-02
-1.775542e-02
1.136778e-02
1.230737e-02
1.459926e-02
2.192389e-02
1.985617e-02
1.510910e-02
8.370795e-10
-1.110029e-10
-1.548421e-10
8.803742e-11
1.005196e-10
-3.618487e-10
2.904101e-10
-3.712848e-10
2.378914e-11
1.157702e-02
-4.765994e-03
1.197222e-02
2.847021e-02
-2.502124e-03
1.513594e-02
2.368083e-02
2.684303e-03
6.001315e-03
-1.243166e-09
1.827431e-09
-1.328563e-10
-4.447266e-09
-1.314306e-09
-2.672571e-09
-7.828104e-09
-5.295995e-09
-6.607936e-09
2.678824e-10
-7.585861e-10
8.172249e-12
1.217983e-10
-7.418521e-10
-5.194836e-10
-5.420223e-10
-6.152405e-10
-1.857656e-10
-5.230633e-02
-1.443026e-02
2.138135e-02
9.456847e-03
-3.626813e-02
-2.504323e-02
-1.267457e-02
1.839849e-02
-1.241096e-03
1.115385e-02
1.227277e-02
-2.971669e-02
6.217336e-02
1.520065e-02
-5.990919e-02
3.642559e-02
2.606902e-02
-8.162040e-02
-8.921688e-03
-3.259209e-02
-8.323462e-02
5.933366e-02
1.316253e-03
-7.473081e-02
6.492834e-02
1.902903e-02
-4.253845e-02
1.417534e-02
1.844525e-02
1.110524e-02
4.285991e-03
1.442845e-02
8.986419e-03
-3.348368e-04
7.420630e-03
2.650458e-03
3.717285e-10
1.492683e-10
-2.358218e-10
-5.075610e-11
-2.328234e-10
1.554794e-10
2.375089e-10
3.194229e-10
-1.532935e-10
8.830683e-03
1.484354e-02
-6.258730e-02
-1.278146e-02
9.980009e-02
-6.817037e-02
6.401566e-03
3.245268e-02
-4.413852e-02
-6.621200e-03
-1.621248e-02
-2.283211e-02
2.301100e-02
1.970434e-02
2.132560e-04
-4.726614e-03
-6.387678e-03
-1.556587e-02
5.964356e-10
3.288461e-10
4.670107e-10
6.479349e-10
2.800501e-11
4.291437e-11
2.922214e-10
2.685595e-10
8.365202e-11
2.692092e-02
2.491381e-02
2.389425e-02
2.135485e-02
1.785650e-02
2.209198e-02
3.831488e-02
3.527643e-02
4.494111e-02
4.785041e-11
-4.809030e-10
1.700751e-10
-1.065037e-09
-4.148616e-10
2.234841e-10
5.753393e-10
4.066190e-11
1.353966e-10
2.551888e-02
2.855873e-02
3.163120e-02
1.092499e-02
2.347108e-02
1.839884e-02
-2.589375e-03
7.666055e-05
3.200165e-03
1.785013e-02
2.352645e-02
2.005644e-02
3.386103e-02
3.919797e-02
3.848878e-02
1.536685e-02
1.433567e-02
1.384032e-02
-5.766403e-11
3.773087e-10
2.008866e-10
3.436390e-10
-3.051627e-10
1.084642e-10
-5.898888e-10
2.015557e-10
2.131410e-10
-9.040318e-02
-1.054615e-01
-1.488308e-01
4.658306e-02
6.150158e-02
-1.500624e-02
1.052980e-01
1.317178e-01
6.274319e-02
5.133331e-09
8.670103e-10
1.325738e-09
-4.112686e-11
-3.945356e-09
-2.939219e-09
1.068164e-09
-1.506390e-09
-8.603226e-11
-8.007222e-10
-9.699341e-10
-1.187364e-09
-4.107520e-10
-2.308577e-10
-9.939822e-10
1.666615e-10
-4.915497e-10
-1.289584e-09
-3.463303e-03
3.604498e-02
-7.419855e-03
-5.710201e-02
5.016178e-02
9.816927e-02
-1.987991e-02
-3.957132e-02
-4.403615e-02
-1.047203e-01
3.022105e-03
1.492398e-02
-2.505248e-01
-1.650020e-02
2.280209e-01
-1.382704e-01
-3.085176e-02
1.109902e-01
-1.419609e-02
-2.787716e-02
-2.219171e-02
-1.664298e-02
4.492830e-02
8.074879e-02
1.705415e-02
7.024761e-02
1.223537e-02
-5.749710e-02
-3.279596e-02
-4.101921e-02
-1.843906e-02
1.042687e-02
2.105211e-03
-2.780470e-02
-1.293258e-02
-2.779553e-02
-6.998916e-11
5.171538e-10
1.062287e-11
5.801806e-10
3.624159e-10
7.869320e-10
8.313196e-10
6.042960e-10
7.146091e-10
3.006393e-02
-1.179617e-02
-1.280701e-02
-3.269038e-02
4.695427e-02
6.422070e-02
-5.556574e-02
5.445707e-02
1.164108e-02
3.919956e-02
-2.520674e-03
-4.261050e-02
2.134896e-01
-2.786781e-02
-2.385793e-01
1.530360e-01
2.413837e-02
-2.336806e-01
-5.068678e-10
3.025587e-10
-2.898399e-10
-3.586544e-10
3.979369e-10
-8.284319e-10
-2.352668e-10
-6.613925e-10
-5.302061e-10
-7.331375e-02
-7.294972e-02
-7.204641e-02
-6.540948e-02
-5.805013e-02
-7.468741e-02
-1.943751e-02
-3.032047e-02
-4.626181e-02
3.961639e-10
2.841723e-11
-1.679828e-10
4.800887e-10
1.811494e-10
7.396033e-10
8.776750e-10
1.066792e-10
-4.148749e-10
7.927106e-02
1.060605e-01
7.707581e-02
2.940989e-02
7.746651e-02
8.318061e-02
-5.463742e-02
-1.525600e-02
6.853354e-02
-2.640219e-02
-2.065373e-02
-2.956993e-02
-6.618640e-03
1.432373e-02
-9.235515e-03
-3.236927e-02
-6.233240e-03
-1.537123e-02
-6.999683e-10
6.267357e-11
-7.856986e-10
-3.851713e-10
-1.135033e-09
-7.485080e-13
-4.118665e-10
-5.767519e-10
-3.427963e-10
3.063999e-02
8.702870e-03
-1.478369e-02
7.266412e-04
2.885928e-02
2.331227e-02
-5.855507e-02
5.350670e-03
2.197297e-02
2.916576e-10
-9.869708e-11
9.054949e-11
-2.005004e-10
9.232589e-11
-3.338255e-11
4.561202e-10
1.253062e-10
3.847238e-10
4.878148e-10
9.189225e-10
-4.499343e-10
2.467956e-10
1.319821e-10
-5.707724e-10
-1.158428e-10
5.736251e-10
-3.789579e-10
-6.389312e-03
-3.540844e-02
1.495059e-02
-6.965030e-02
-5.896332e-02
6.565271e-03
2.031139e-02
-5.728077e-03
-2.437501e-02
-8.167787e-02
-2.291557e-02
6.403132e-02
-5.945057e-02
-1.219503e-01
-1.307554e-02
6.364553e-02
-1.118223e-01
-6.893257e-02
1.721759e-02
-5.879462e-03
2.519494e-03
-1.889368e-02
-3.640486e-02
3.040260e-02
-1.271586e-02
-6.150963e-02
-1.858595e-02
-1.592604e-02
-1.502382e-02
-3.607369e-03
-1.855654e-02
-2.437348e-02
-1.779570e-02
-4.292923e-03
-1.177167e-02
-1.435862e-02
3.321239e-10
3.161010e-10
-2.215433e-11
1.436695e-10
3.578989e-10
-1.534444e-10
7.358458e-11
3.911816e-10
1.057746e-09
4.049961e-02
3.501852e-02
-1.336699e-04
-8.313000e-03
-1.768030e-02
-2.396945e-02
4.100254e-02
-2.034762e-02
-2.685541e-02
3.682256e-02
-6.839752e-02
-1.114001e-01
9.866533e-02
7.992617e-02
-6.732940e-02
5.009422e-02
1.542224e-01
1.194963e-03
-3.606220e-10
7.775416e-10
2.407689e-10
4.178310e-12
2.750882e-10
6.670697e-10
4.830589e-10
3.144319e-10
-5.876675e-10
8.627524e-03
1.176960e-02
7.477324e-03
-1.751590e-02
-5.990842e-03
2.904400e-03
-3.207611e-02
-2.928316e-02
-2.541078e-02
-2.803811e-10
-9.452585e-11
1.300662e-10
6.785966e-10
1.055877e-11
1.321206e-10
6.127646e-10
8.181121e-10
3.070138e-10
-5.028628e-03
-3.376438e-03
-2.863966e-03
-3.130321e-02
-2.447697e-02
-1.174896e-02
4.891934e-02
7.762108e-03
2.553653e-03
3.171360e-02
2.200264e-02
1.601239e-02
2.008513e-02
2.204645e-02
1.842754e-02
-1.210754e-02
-8.496369e-03
-1.243785e-02
4.545112e-10
-3.830760e-11
1.333409e-11
3.358820e-10
2.773774e-10
-1.337189e-10
-1.479249e-10
1.430108e-10
4.174301e-10
-5.791127e-03
-5.903358e-03
-6.127908e-04
-1.114109e-02
-3.372461e-03
5.746480e-03
-1.296629e-02
-6.321481e-03
5.341418e-03
-7.105856e-10
-7.889296e-10
-6.257521e-10
5.827244e-10
-4.210300e-10
3.691484e-10
7.511704e-10
-4.739127e-10
-2.514872e-10
4.237913e-10
-3.167806e-10
2.435921e-10
1.391485e-10
4.288371e-11
1.529963e-10
-1.412364e-10
9.879456e-11
1.757668e-10
7.889732e-03
-1.497664e-02
-2.242806e-02
1.104659e-02
1.168036e-02
5.072241e-03
-8.309939e-03
7.385137e-04
-1.035882e-02
-1.473270e-02
9.131219e-03
-1.439597e-02
-1.781269e-02
1.117142e-02
-1.608676e-02
-3.145762e-02
-3.118306e-03
-2.686589e-02
-2.168343e-02
-1.444073e-03
2.176137e-02
-5.124816e-03
-4.412369e-03
2.524758e-02
-3.246758e-03
1.616189e-03
2.761659e-02
8.529536e-03
8.875336e-03
-3.767052e-03
2.289450e-03
6.045925e-03
-6.190652e-03
-5.636518e-03
2.995350e-03
-6.991587e-03
5.651061e-10
3.692212e-10
2.401253e-10
9.088270e-11
6.167055e-10
3.011966e-10
5.110697e-10
5.222185e-10
1.154522e-10
-4.026108e-02
8.224218e-02
-8.310394e-03
-2.771773e-02
7.022819e-02
-4.080140e-02
-1.542718e-02
4.407866e-02
-4.563148e-02
-2.793550e-02
1.097155e-02
9.494725e-04
-1.824209e-02
1.784550e-02
-5.933300e-04
-1.778099e-02
7.996538e-03
-7.361348e-03
7.829816e-10
1.115531e-09
6.230134e-10
6.866100e-10
1.613741e-09
6.102059e-10
7.591210e-10
8.959490e-10
4.525038e-10
-1.718475e-02
-1.571108e-02
-1.072478e-02
-1.542245e-02
-1.220322e-02
-1.027027e-02
-1.560793e-02
-1.130263e-02
-9.125266e-03
1.002432e-10
-1.608060e-10
-3.154589e-10
4.155294e-10
-5.509402e-10
-2.089245e-10
2.319858e-10
-5.382097e-10
7.511724e-11
-3.372665e-04
-6.984342e-03
-2.440372e-03
1.462657e-03
-9.465318e-04
5.144970e-04
-6.669143e-03
-8.366543e-03
-1.094028e-02
-1.536920e-03
3.527849e-03
5.237357e-03
4.075399e-04
5.204605e-03
5.525024e-03
-5.599594e-03
-7.422937e-04
-2.247334e-03
5.668069e-10
6.359480e-10
7.215976e-10
1.026483e-10
1.207772e-09
4.060789e-10
7.657059e-10
3.162832e-10
2.538659e-10
8.370582e-03
4.226239e-02
-1.684589e-02
-1.253864e-02
1.684907e-02
-3.482505e-02
-3.024342e-03
2.349723e-02
-2.662259e-02
-3.503106e-10
5.974773e-10
2.827241e-10
-4.873301e-10
5.230620e-10
3.606332e-10
-3.316299e-10
3.950533e-10
-4.408714e-10
3.439165e-10
1.083781e-09
1.318637e-09
4.491076e-10
3.630474e-10
9.451684e-10
3.868235e-10
5.577374e-10
1.364638e-09
-1.157414e-02
-1.788254e-02
-2.987982e-04
-4.970579e-02
-3.006335e-02
-3.636100e-02
3.598082e-02
5.060197e-02
2.345637e-02
-1.922299e-02
-7.732996e-03
4.586766e-03
-3.934453e-03
-5.593880e-03
-3.803084e-03
7.453583e-03
-1.055667e-02
4.111617e-04
2.249557e-02
1.224364e-02
3.700849e-02
1.652841e-02
-2.910789e-02
-5.728228e-03
6.370433e-03
-2.207152e-02
-3.089150e-03
-2.255829e-02
-1.435618e-02
2.618532e-03
-1.929445e-02
-1.627324e-02
1.348652e-03
-2.391842e-02
-2.541574e-02
-7.652320e-03
1.090897e-09
8.579615e-10
3.740083e-10
7.374182e-10
1.255616e-09
6.186543e-10
7.528617e-10
1.396076e-09
-1.245241e-10
1.341876e-02
-6.082707e-02
2.886878e-02
5.085819e-02
-6.144170e-02
1.200929e-02
3.343005e-02
-3.596908e-02
6.056607e-02
-2.485767e-03
-4.962692e-02
9.818322e-03
4.881958e-02
-3.340824e-02
9.297126e-03
3.391644e-02
-1.302338e-02
2.713254e-02
1.265509e-09
1.567196e-09
2.222749e-09
8.822864e-10
6.469056e-10
1.473292e-09
1.617312e-10
7.354123e-10
1.390017e-09
-3.776319e-03
-3.596002e-03
-2.827980e-03
-4.376291e-03
-4.349122e-03
-2.398916e-03
-9.374926e-03
-9.174515e-03
-9.611755e-03
6.852965e-10
2.209367e-10
3.736490e-10
7.029664e-10
8.041529e-10
-1.356368e-10
6.205077e-11
9.874293e-11
5.883404e-12
6.926297e-03
1.573242e-02
1.546611e-02
1.028806e-02
2.303911e-02
2.172159e-02
4.837497e-03
1.209317e-02
1.521896e-02
-4.340789e-02
-4.519210e-02
-4.745362e-02
-5.801532e-03
-1.405164e-02
-1.666677e-02
1.278262e-02
4.700767e-03
6.129233e-04
-1.108815e-10
4.432635e-10
1.203381e-09
-6.063380e-11
1.877002e-11
4.079893e-10
6.222058e-10
6.929384e-10
4.225086e-10
5.839302e-03
-2.735613e-02
-3.158367e-03
2.439330e-02
-6.617870e-02
-1.091118e-02
-2.508663e-02
9.624461e-03
7.862511e-03
9.046004e-10
1.551846e-09
2.312872e-09
-9.242042e-10
-7.009379e-10
4.323903e-10
-2.730248e-10
-9.840327e-10
-1.824349e-09
-9.126080e-11
5.754093e-11
-9.137481e-11
-6.357627e-10
-8.802007e-10
4.600379e-10
-2.485500e-10
-7.364811e-12
-5.488266e-11
-3.989499e-02
3.281698e-02
-2.115654e-02
9.143798e-02
-1.011142e-01
-8.799779e-02
-1.501230e-01
1.238019e-01
5.730019e-02
2.234666e-02
1.844552e-02
1.729892e-03
4.962610e-02
-9.627513e-02
-2.869306e-03
3.537119e-02
7.011738e-03
2.330572e-02
3.432700e-03
2.328311e-02
-6.885870e-02
1.539792e-01
9.027792e-02
-1.426213e-01
1.377501e-02
4.326145e-02
1.635342e-02
-1.941343e-02
4.541267e-03
2.398475e-02
-2.268398e-02
2.245527e-02
2.018456e-02
-1.196575e-02
1.586368e-02
2.219049e-02
5.666230e-10
3.066281e-10
-4.262939e-10
-4.983305e-10
-8.107209e-11
-2.324445e-10
-2.196616e-10
-7.448172e-10
-3.671934e-10
-1.127782e-03
-2.103793e-02
-6.134625e-02
-1.436136e-01
3.551961e-01
-4.618201e-02
8.101603e-03
-1.576015e-01
5.775226e-03
1.891703e-02
-3.403551e-02
-1.533251e-03
1.078423e-01
2.234035e-02
-9.153594e-02
-8.906977e-02
-3.974365e-02
3.418833e-02
-5.739927e-10
-5.492069e-10
-5.844322e-10
-5.015666e-10
1.360903e-10
5.081674e-10
-1.809323e-10
-1.352604e-10
2.710872e-10
-2.757148e-02
-3.072111e-04
1.281368e-02
-1.311696e-02
2.860214e-03
2.677972e-02
2.581286e-02
2.322619e-02
3.953556e-02
-6.873938e-10
1.817520e-10
-3.589544e-10
-1.046553e-11
-3.321465e-10
4.792439e-11
-5.463387e-12
2.786349e-10
2.473802e-10
1.582047e-02
3.983526e-03
-2.255298e-03
-3.383191e-02
3.650080e-02
5.097847e-02
-4.051396e-02
-3.371258e-02
1.520371e-03
-2.461159e-03
1.533442e-02
-4.206656e-03
-1.059272e-02
-3.698291e-02
-3.458587e-02
5.264894e-02
2.681184e-02
2.576357e-02
1.260347e-10
2.980680e-10
-7.481127e-10
-1.700744e-11
-1.756703e-11
-9.372685e-10
-5.433146e-10
-9.075674e-11
-1.654291e-10
5.458795e-10
5.842946e-10
-7.452809e-10
4.426105e-10
-3.065742e-10
3.896041e-10
2.568528e-11
1.085941e-10
5.367724e-10
-3.299684e-10
6.747846e-11
3.485745e-10
2.533687e-10
1.169982e-10
5.569151e-10
-4.342676e-10
3.195557e-10
3.262262e-10
-3.815015e-11
-4.303598e-11
-2.426193e-10
8.949433e-10
3.772551e-10
-4.327352e-10
9.889801e-10
3.668978e-10
-3.136146e-10
-8.044664e-11
-2.775349e-10
-1.525054e-10
7.111945e-11
2.971771e-10
4.785457e-11
-2.835179e-10
-3.049195e-11
2.066355e-10
7.800078e-10
-5.771482e-10
4.086082e-10
8.939970e-10
-5.203766e-11
-4.231604e-10
7.048744e-10
6.668172e-10
2.111488e-10
-7.719000e-10
-1.301601e-10
3.936264e-10
-6.614608e-10
-3.223889e-10
-2.031747e-11
-4.455390e-10
3.090043e-10
-1.249431e-10
-6.545340e-10
-1.634877e-10
-4.985143e-10
2.089093e-10
-4.810756e-10
1.758484e-11
-6.869583e-10
-5.212535e-10
-3.511410e-10
1.108086e-10
5.001397e-10
-2.538101e-10
-2.344088e-10
7.826481e-10
-4.654367e-10
-2.001228e-10
-7.610449e-10
-4.649089e-10
8.763292e-11
1.910922e-09
-2.078728e-09
-1.340882e-09
1.583591e-09
-1.475000e-09
-9.754867e-10
1.272736e-09
-1.717218e-09
-9.829153e-11
3.529375e-10
-2.281541e-10
-3.655417e-10
6.294573e-10
-1.050387e-10
-3.718159e-10
-1.829933e-10
-2.823102e-10
5.333464e-10
8.877155e-10
9.967230e-10
1.267102e-09
1.102716e-09
5.105339e-10
2.286540e-10
6.935658e-10
5.424405e-10
7.259711e-10
3.277819e-10
-3.497743e-10
1.037214e-09
3.568237e-10
3.902970e-10
1.658280e-09
1.264243e-09
1.053742e-09
-5.168068e-10
-5.667221e-10
-1.232331e-09
-5.299674e-10
-8.864104e-10
-3.262075e-10
-2.207328e-10
-6.394506e-11
3.959742e-10
-3.604093e-10
-3.178488e-10
6.494619e-11
2.242568e-10
-1.279346e-10
-2.906624e-10
3.331436e-10
3.741878e-10
-4.134983e-10
1.069137e-10
-3.486521e-11
-6.565253e-10
-9.111152e-12
-2.698449e-10
-2.503153e-10
3.058794e-10
7.068406e-10
-3.683862e-10
-4.834762e-10
-4.036027e-11
2.778182e-10
-4.927480e-10
-1.197387e-10
1.344120e-11
-1.101370e-10
-6.095184e-10
2.619660e-10
-3.187968e-10
-3.924229e-10
-1.776493e-10
-9.212696e-10
1.262589e-10
3.846167e-10
-8.471977e-10
-3.836552e-10
-3.781387e-10
4.728958e-10
8.054837e-10
3.262273e-10
4.093119e-10
1.271149e-10
-8.092274e-11
1.209960e-10
1.816770e-10
-5.477593e-10
-2.035369e-10
-2.277643e-10
-4.476212e-11
3.969070e-10
4.367012e-11
-2.349341e-11
-3.132143e-10
-5.893723e-10
-2.230366e-10
1.371639e-09
1.034120e-09
1.935433e-10
9.162863e-10
8.296527e-10
6.319539e-10
1.060840e-09
1.931943e-10
2.603953e-10
2.826387e-10
-4.977125e-10
-4.140165e-10
1.034008e-09
-2.343657e-10
-1.864465e-10
-2.279845e-10
-3.111699e-10
6.303281e-12
9.843490e-10
1.065887e-09
9.098292e-10
9.496861e-10
9.566300e-10
8.940830e-10
4.652766e-10
1.473239e-09
1.643366e-09
-4.913702e-10
1.225697e-10
-8.924363e-11
-5.053825e-10
2.358115e-10
1.747564e-10
-1.181485e-09
-2.140285e-10
-1.946757e-10
4.794594e-11
2.308944e-10
1.960352e-10
2.385156e-10
6.218165e-10
7.069124e-10
7.846111e-10
8.528032e-10
1.909272e-09
3.706691e-10
-1.453177e-10
-7.065919e-10
3.373774e-10
-4.392788e-10
-2.581350e-10
-1.725689e-10
-2.258311e-10
-2.186516e-10
1.575216e-09
1.027752e-09
3.614285e-10
7.784209e-10
1.199541e-09
5.506349e-10
9.449272e-10
7.453180e-10
7.752107e-10
4.670622e-10
1.292027e-09
1.275927e-09
1.515028e-09
2.411351e-09
2.393325e-09
1.531507e-09
1.693923e-09
2.108969e-09
3.249268e-11
4.919471e-10
3.596557e-10
1.283858e-09
1.206301e-09
1.471996e-09
1.372762e-09
8.511916e-10
3.920088e-10
-5.169360e-11
-2.284670e-10
-4.371872e-10
-5.606852e-10
3.589695e-10
-2.626561e-10
1.116834e-10
3.484490e-10
-4.920176e-10
-7.996311e-10
-3.633734e-10
-5.114983e-10
-4.398806e-10
-2.634705e-10
-1.086306e-09
-3.921901e-10
-6.185339e-10
-3.414789e-10
8.204036e-10
-1.521114e-10
-1.487650e-09
9.290492e-10
3.250335e-10
-3.044272e-10
5.935636e-10
-3.549515e-11
-7.571478e-10
-4.266129e-10
6.812729e-10
6.335613e-10
-2.677950e-10
9.708723e-10
8.064794e-10
-3.341453e-10
-1.558135e-10
1.540278e-10
7.904545e-03
3.012318e-03
-3.353056e-03
-1.682481e-03
-4.171069e-03
-5.842550e-03
-5.741867e-03
-1.049100e-02
-2.107292e-03
-4.328004e-10
-1.332551e-09
9.508281e-10
1.121889e-09
-9.980807e-10
5.451994e-10
7.832810e-10
-1.177579e-10
7.284631e-10
-1.102816e-09
-3.834798e-10
9.334940e-11
-6.462750e-10
-1.469967e-10
1.008609e-10
-5.164359e-10
1.740769e-10
-1.765304e-10
-2.534958e-03
5.602750e-04
-4.526191e-03
6.638953e-03
-1.006809e-02
-8.142678e-03
-2.648348e-03
-1.624251e-02
2.807073e-03
2.356080e-02
7.612618e-03
-6.199303e-03
1.447053e-02
-1.038151e-02
-1.259868e-02
-1.308934e-02
-1.598610e-02
-1.130977e-02
-3.586120e-03
-2.068713e-03
-5.711098e-03
-1.358753e-03
5.912569e-04
-1.053621e-02
3.257683e-03
-5.637504e-03
-1.226541e-02
-7.695391e-03
-3.255520e-03
-3.895806e-04
-8.084537e-03
-9.331908e-04
-8.148982e-04
-3.579608e-03
1.498596e-03
-1.033508e-03
-1.150270e-10
-8.380431e-10
-4.411745e-10
-1.108808e-09
-4.072443e-10
1.159618e-10
5.386775e-10
2.562135e-10
-1.658002e-11
2.645894e-02
-2.288051e-02
-3.052844e-03
-1.788156e-02
-1.400697e-02
6.978130e-03
-2.536274e-02
1.542532e-02
-2.077018e-02
-3.024707e-02
-2.540890e-02
-2.383266e-03
-2.239161e-02
-2.600445e-05
1.048207e-04
7.578868e-03
4.467857e-03
-1.240413e-02
-5.065109e-10
-2.552521e-10
-1.764311e-09
-4.682890e-10
-3.727985e-10
-4.693587e-10
-6.071474e-10
-5.149102e-10
-1.256449e-09
-4.400143e-03
-6.115977e-03
-2.578157e-03
-6.256368e-03
-6.120495e-03
-2.355953e-03
-3.708950e-03
-2.346337e-03
3.632265e-03
-3.452831e-10
5.040380e-10
2.241440e-10
4.838432e-10
-4.497837e-10
6.164086e-10
2.447079e-10
-4.573011e-10
6.387128e-11
-9.070414e-03
-1.699697e-03
-4.327265e-05
-1.309910e-02
-6.098720e-03
-2.469034e-03
-1.005636e-02
-4.820041e-03
-1.637845e-03
-8.474110e-04
2.635759e-04
-8.993519e-04
-1.654273e-03
4.473711e-04
-1.432534e-04
-6.509947e-04
-7.042279e-04
-9.507034e-04
5.103628e-10
3.996373e-10
-3.191083e-10
-2.535369e-10
1.892129e-11
-5.986510e-10
-5.814235e-10
1.898703e-10
-1.675850e-10
4.078038e-02
3.950104e-02
3.118104e-02
8.874314e-02
6.341019e-03
6.926402e-02
1.304912e-01
9.295981e-03
6.078164e-02
4.844430e-09
1.034599e-08
6.186288e-09
2.659592e-09
4.368982e-09
1.377481e-09
-1.759897e-09
-1.595235e-09
-1.110656e-10
9.146855e-10
1.496152e-09
1.465089e-09
3.758516e-10
1.302580e-09
5.014429e-10
1.208499e-10
4.167665e-10
4.499655e-10
-4.999214e-03
3.478018e-02
3.692911e-02
1.801904e-02
-2.238079e-01
8.346916e-02
-3.890788e-02
8.058891e-02
-2.044606e-02
3.840887e-02
-4.047278e-02
-1.626367e-01
1.618477e-01
-1.284662e-02
-2.316721e-02
1.924940e-02
-7.812624e-02
-5.319111e-02
1.170249e-02
6.512140e-02
3.560304e-02
1.133513e-01
-3.959667e-02
-7.547994e-02
2.939289e-02
6.319512e-02
-2.454902e-02
-3.316064e-02
-6.241964e-02
-8.889385e-02
-6.455754e-02
-3.283646e-02
-5.968652e-02
-3.115177e-02
1.138361e-02
8.659047e-03
5.753159e-10
4.019003e-10
9.609136e-10
3.215197e-10
9.085469e-10
1.117588e-09
1.967208e-10
1.292011e-09
5.228817e-10
8.597054e-02
-6.909505e-02
8.366895e-02
-7.883012e-02
1.118209e-01
-1.911910e-01
-4.717790e-02
1.124346e-02
-9.960814e-05
-1.363562e-01
-3.275090e-02
5.676391e-02
-1.283766e-01
7.195224e-03
6.494531e-02
-8.608866e-03
3.337388e-02
6.093258e-03
8.987618e-10
2.602188e-10
3.663025e-11
7.211161e-11
1.065893e-09
1.913304e-10
1.098412e-10
4.568032e-10
1.452945e-10
5.974215e-02
7.646506e-02
6.199607e-02
4.231519e-03
3.303785e-02
3.520833e-02
-2.752220e-02
1.484858e-02
3.971164e-02
-1.818548e-10
-1.437843e-11
-4.034716e-10
8.496621e-11
-4.097379e-10
-3.374067e-10
5.934025e-11
9.908104e-11
-6.620517e-10
-2.870864e-02
-8.925337e-02
-6.135455e-02
-1.137518e-03
1.195374e-02
-4.974074e-02
-2.070560e-02
-3.105477e-02
-1.376172e-02
3.274504e-02
3.061015e-02
3.719731e-03
-2.821485e-03
-8.430611e-03
-1.756764e-02
5.185402e-03
8.398278e-03
-1.632084e-03
2.050364e-10
1.416744e-10
4.127540e-10
1.016850e-10
-8.839955e-10
-4.811175e-10
-4.463545e-10
-1.121607e-11
-3.889974e-12
2.581684e-02
4.739381e-02
2.891842e-02
2.091664e-02
-1.830829e-02
-1.413896e-02
2.472761e-02
-4.061847e-02
5.042576e-03
2.358751e-09
2.704027e-09
1.199628e-09
-1.175794e-09
-5.292751e-09
-5.856832e-09
4.132270e-09
3.872083e-10
-1.489105e-09
-3.836321e-10
-4.752709e-10
-7.451295e-10
3.577566e-10
-4.945738e-10
-3.011070e-10
2.536288e-10
-1.750000e-10
-4.782917e-10
1.730213e-02
8.521244e-02
6.265695e-02
3.141210e-03
-1.766051e-01
-4.817443e-02
-2.295458e-02
7.573701e-02
1.337034e-01
3.493306e-02
7.128670e-02
4.575384e-02
-5.067253e-02
-6.981851e-02
1.955823e-03
8.089095e-02
6.201411e-02
6.314799e-03
-3.140630e-02
1.035313e-02
4.280132e-02
7.071536e-03
1.807897e-02
-4.106569e-02
4.171523e-03
3.665887e-02
-7.791468e-03
5.316219e-03
2.517518e-02
2.114108e-02
-1.667116e-02
1.903242e-02
2.453587e-02
-2.660809e-02
-3.113881e-03
-7.023281e-03
-4.504433e-10
1.850788e-10
-2.167245e-10
6.227456e-10
8.293394e-10
8.929780e-10
3.109752e-10
3.436676e-10
1.644685e-10
4.149159e-02
-1.240919e-02
8.574407e-02
-7.876123e-02
1.031816e-01
1.349831e-02
-5.720520e-02
6.761783e-02
-8.527414e-02
-1.279474e-02
1.444887e-02
4.549153e-02
2.831669e-02
3.239840e-02
-9.478550e-02
9.496585e-03
-1.577049e-02
-9.044685e-03
-2.110792e-10
-2.703064e-10
1.139512e-09
4.940307e-10
-7.878249e-11
1.007300e-09
-3.902922e-10
-8.187143e-10
4.336174e-10
-2.672518e-02
-2.429514e-02
-4.052341e-02
-1.244023e-02
-1.206094e-02
-3.074896e-02
-1.663364e-02
-2.941248e-02
-3.510227e-02
2.879796e-10
-2.085629e-10
-3.058413e-10
-2.080900e-10
7.334179e-10
-4.663547e-10
4.730629e-10
9.737362e-10
-7.142919e-10
-2.014163e-02
-2.011896e-02
-2.144685e-02
1.711907e-02
4.602785e-02
1.894572e-02
-1.322517e-03
-2.709297e-02
-1.128835e-02
1.053780e-02
2.916415e-02
2.336665e-02
-6.901798e-02
-6.083038e-02
-7.242092e-02
-3.010650e-02
-3.172665e-02
-2.591128e-02
-1.166117e-09
-7.893584e-10
-6.193008e-10
-9.185035e-11
-4.110536e-10
-6.543104e-11
-2.942604e-10
-1.036073e-09
-6.417274e-10
-9.140520e-06
-7.470767e-06
-7.290808e-06
-1.188382e-05
-1.029168e-05
-1.121145e-05
-1.235056e-05
-1.049714e-05
-1.451334e-05
-5.902535e-10
3.284756e-10
-3.728401e-10
-4.319358e-10
-8.085893e-10
-1.059312e-10
-5.083549e-11
-1.061317e-10
-2.546241e-10
6.300585e-10
-2.700970e-10
-2.569193e-10
1.082168e-10
7.891337e-11
-1.069521e-09
4.761079e-10
-7.306844e-10
-6.148514e-10
9.446364e-06
2.215318e-05
2.155796e-05
7.124900e-06
8.466094e-06
7.615262e-06
6.103056e-06
5.539851e-06
4.173174e-06
-7.103646e-06
-9.919161e-06
-9.209649e-06
-4.968511e-06
-7.282973e-06
-5.890479e-06
-2.112306e-07
-8.227236e-06
-6.757889e-06
4.578183e-06
-3.879984e-06
-9.737520e-06
5.424020e-06
-3.758156e-06
-1.201817e-05
7.808077e-06
2.243997e-06
-1.135823e-05
-2.480904e-06
-6.475728e-07
-3.124556e-06
-4.065801e-06
-2.399293e-06
-4.169091e-06
-7.159840e-06
-4.930412e-06
-6.735731e-06
7.983451e-10
9.111026e-10
1.009744e-09
1.663643e-09
1.190389e-09
1.034961e-09
7.915343e-10
1.439784e-09
1.839624e-10
3.324761e-05
1.211273e-05
1.054540e-05
2.489970e-05
1.192265e-05
3.274464e-06
2.409026e-05
2.036927e-05
1.616149e-05
2.819027e-06
-6.409588e-06
-1.118701e-05
-4.925253e-06
-1.637348e-05
-1.938475e-05
-2.885739e-06
-9.859431e-06
-1.749439e-05
4.482332e-10
-1.977230e-10
8.781481e-11
1.352775e-10
4.473497e-10
2.386772e-10
5.137213e-10
-6.545067e-11
-1.503337e-10
-1.101614e-05
-1.289073e-05
-1.263186e-05
-1.060457e-05
-1.241366e-05
-1.243977e-05
-1.137371e-05
-1.320072e-05
-1.361815e-05
1.404139e-09
2.538436e-10
7.373547e-11
3.546473e-10
-3.980641e-10
4.660135e-10
1.709737e-10
3.982107e-10
7.503823e-10
-1.822598e-06
-1.463342e-06
-1.747390e-06
-9.776692e-07
-1.313265e-06
-1.364760e-06
6.898194e-07
8.212579e-08
-1.198751e-07
5.099987e-06
5.650615e-06
7.420786e-06
8.813132e-07
1.835920e-06
5.360233e-06
-1.366090e-07
-5.623498e-07
1.637367e-06
-6.884156e-10
-3.617984e-10
-4.427488e-10
-5.163096e-10
-6.304607e-10
-7.110548e-10
-5.669014e-10
-1.853393e-10
-8.866623e-10
8.147652e-03
1.488255e-02
-3.745923e-02
1.156413e-02
6.786583e-02
2.165949e-03
9.074788e-03
7.422298e-02
2.813572e-02
3.353916e-10
1.208816e-10
2.252715e-09
4.255548e-09
3.770178e-09
5.186138e-09
7.518097e-09
6.567793e-09
7.155819e-09
-6.885827e-10
1.803635e-10
-7.250595e-11
3.296771e-11
3.300403e-10
3.280319e-10
6.749854e-10
1.259692e-09
3.025081e-10
-3.651330e-02
1.926568e-02
-1.565882e-02
-2.483825e-02
1.050017e-01
9.464959e-03
-1.325076e-02
-3.291133e-02
-2.484786e-02
-2.236235e-02
1.758637e-02
5.272826e-03
-1.773033e-02
6.252410e-02
6.850106e-02
-2.501008e-02
3.052018e-02
1.116618e-01
-2.526372e-02
-3.452207e-03
4.837712e-02
-8.870371e-02
-1.158137e-02
1.127922e-01
-1.192411e-01
-6.057704e-02
6.237009e-02
-3.087890e-02
-3.178316e-02
-2.498451e-02
3.284417e-02
1.932301e-02
1.111781e-02
4.326424e-02
4.738517e-02
3.970491e-02
1.692806e-11
1.521555e-10
-2.369140e-10
5.297842e-10
3.477806e-11
2.225598e-10
3.792468e-10
-6.575504e-10
3.342394e-10
-1.831089e-02
-7.077371e-03
3.647586e-02
6.175963e-03
-1.150633e-01
9.782588e-02
-7.098339e-03
-1.256326e-01
6.353924e-02
-2.883345e-02
-8.350751e-03
-1.566875e-02
-4.523732e-02
-1.091900e-02
7.121029e-02
-3.441007e-02
2.583705e-02
5.995030e-02
4.574188e-10
7.316289e-10
4.628598e-10
2.552959e-10
5.033642e-10
5.357796e-10
4.146001e-12
-5.067171e-11
-1.753257e-10
3.103288e-02
2.719026e-02
2.034611e-02
3.120640e-02
3.609871e-02
1.629135e-02
2.510587e-02
3.685004e-02
1.209857e-02
9.572209e-11
1.599578e-10
3.148023e-10
4.364538e-10
4.950932e-10
5.827979e-10
7.699891e-11
-9.366430e-12
-3.380803e-10
9.583293e-03
-1.162050e-02
-3.397387e-03
-2.486002e-02
-4.097259e-02
-3.162955e-02
4.355457e-02
1.844838e-02
4.511573e-04
-2.312564e-02
-1.894562e-02
-8.675099e-03
4.017224e-02
5.560121e-02
6.308044e-02
-3.339740e-03
1.500138e-02
9.982598e-03
-3.236259e-10
2.236390e-10
-1.384726e-10
3.222441e-10
9.574054e-11
8.322127e-10
-2.424823e-10
5.184245e-10
-2.130049e-10
-5.688522e-10
-2.271766e-10
-5.280684e-10
-9.428585e-10
-5.778146e-11
-1.122099e-09
-4.374827e-10
-5.929584e-10
-1.008376e-09
8.202067e-10
1.177695e-09
3.758667e-10
5.882144e-10
7.153571e-10
8.915185e-10
-7.848432e-11
7.159003e-10
6.613668e-10
-5.251249e-10
-1.978650e-10
-5.633489e-10
-4.225819e-11
-3.735177e-10
-5.212377e-11
-9.180932e-10
-5.746112e-11
-5.877484e-10
2.062646e-10
7.387212e-11
5.552452e-10
5.851530e-10
3.262748e-10
3.966075e-10
4.198219e-10
1.064370e-09
6.831916e-10
1.665508e-10
6.936943e-10
8.160814e-11
3.636274e-10
3.311654e-10
2.182343e-10
7.189975e-10
1.116700e-09
-1.234321e-10
4.628469e-10
8.073655e-10
1.064649e-10
6.008847e-10
6.287952e-10
1.057204e-10
8.632443e-10
2.845926e-10
1.047034e-09
-4.061645e-11
7.096800e-11
-4.639322e-10
-1.697928e-10
-8.824425e-11
-1.523141e-11
-2.900624e-10
1.410398e-10
2.384535e-10
1.136489e-09
3.138159e-10
4.179581e-10
4.855274e-10
8.212701e-10
8.296038e-10
8.236586e-10
4.510989e-10
3.046216e-10
1.804334e-10
2.770935e-10
-4.366491e-10
3.903701e-10
-1.452863e-10
2.570712e-10
8.755209e-10
8.461871e-11
4.450740e-10
-4.808161e-10
-3.393297e-10
-5.416077e-11
1.210687e-10
-7.094986e-10
2.639913e-10
-9.740164e-10
-9.430150e-10
-8.260192e-10
-1.753478e-12
4.543140e-10
8.991795e-11
-4.743316e-11
4.737556e-10
-1.003013e-10
-7.302772e-11
9.197854e-10
-3.864791e-11
-1.906110e-10
5.651712e-10
1.413827e-10
1.090194e-10
7.456911e-10
-2.510195e-10
-5.065865e-10
1.181980e-09
-3.890590e-10
1.588900e-10
5.872083e-11
-3.107446e-10
2.446232e-10
7.485182e-11
1.568736e-10
6.131130e-10
1.783985e-10
8.256589e-10
1.225314e-10
-2.994405e-10
-8.032561e-11
-2.777699e-10
-1.062965e-10
1.963704e-10
-4.143298e-10
-6.104774e-10
-3.793680e-10
4.795705e-10
-8.019241e-10
-7.111504e-11
-1.834396e-10
-4.795105e-10
4.986745e-10
2.754626e-10
-5.991422e-10
7.106257e-10
2.073566e-10
5.786046e-10
2.095147e-10
-3.841282e-10
-2.755193e-10
1.159617e-10
-4.707247e-10
2.785001e-10
2.580323e-10
