6.240531e-02
-4.586324e-02
2.251769e-02
8.175318e-02
-1.074131e-01
-5.091813e-02
6.111724e-02
-1.270293e-02
-4.500140e-03
-8.711028e-10
-1.911959e-10
-2.861975e-10
-7.531363e-10
-9.225850e-10
-9.240677e-10
2.562266e-10
-8.595684e-10
-4.210370e-10
-2.252033e-02
-4.002059e-02
-2.554411e-02
1.402287e-02
-5.155003e-02
1.732436e-02
3.552508e-02
-1.439235e-02
1.086448e-02
5.076212e-02
8.699915e-02
2.916974e-02
-2.193091e-02
6.865345e-02
-1.156125e-02
-5.774530e-02
5.588724e-03
-3.655827e-02
-7.803148e-10
-2.416946e-10
1.942641e-10
3.256168e-10
1.051288e-09
5.248124e-10
3.206234e-10
6.654258e-10
4.493327e-10
-3.413527e-02
-2.165363e-02
-3.027192e-02
-7.684293e-02
-2.534185e-02
-1.049492e-01
2.218418e-02
-4.819658e-03
-1.221924e-02
4.185590e-10
-5.625290e-10
-2.495110e-10
-7.230966e-10
-3.625861e-10
-4.786131e-10
-8.686974e-10
-5.511813e-10
-2.158472e-10
9.162587e-10
9.042858e-10
1.692485e-09
4.632409e-10
1.304954e-09
7.624948e-10
9.330601e-10
4.583717e-10
4.828435e-10
3.477651e-10
7.074477e-10
2.694515e-10
3.526363e-11
3.446712e-11
1.763863e-10
5.334160e-10
-1.759464e-10
-6.390088e-10
2.476703e-10
3.000753e-10
2.427246e-10
4.379619e-10
6.663235e-10
-2.295584e-10
1.973417e-10
-5.923463e-13
-3.533233e-10
-6.178189e-10
-2.153729e-10
-9.664454e-10
-2.449120e-10
-8.724569e-10
-2.632835e-10
-6.613865e-10
-1.695025e-10
-5.430342e-10
-8.049786e-03
-2.904331e-02
6.725098e-02
-1.010755e-01
-1.512578e-01
-6.432313e-02
-4.002123e-02
-2.346701e-02
-7.070166e-02
-1.828816e-02
-2.030869e-02
-2.684142e-02
-3.113616e-02
1.509518e-02
-2.708392e-02
8.985930e-03
8.087288e-02
-3.509014e-02
1.021420e-09
9.958222e-10
1.184265e-09
1.878456e-09
9.431560e-10
1.173694e-09
1.417872e-09
7.971941e-10
5.143933e-10
8.546884e-03
6.031043e-02
-1.381751e-02
-4.739921e-03
3.581525e-02
-3.805277e-03
-3.137139e-02
-1.833265e-02
-2.187391e-02
-3.388262e-10
-4.427919e-10
-6.932053e-11
-3.589012e-10
-9.097120e-10
-5.554850e-11
-3.052377e-10
8.797734e-11
-4.615373e-10
2.334792e-09
-4.611045e-10
9.083880e-10
5.216765e-10
7.706075e-10
1.591334e-09
1.550855e-09
3.427860e-09
-3.458063e-09
1.109855e-10
2.709717e-10
5.994706e-10
3.754101e-10
1.762286e-10
-2.105853e-10
3.087435e-11
2.726091e-10
1.457105e-10
2.453764e-09
2.935977e-09
3.479888e-09
2.956319e-09
5.434024e-09
3.454746e-09
1.316532e-09
2.649401e-09
-1.178185e-09
-5.831707e-09
-7.678022e-09
-7.515499e-09
-4.371795e-09
-6.812714e-09
-7.306880e-09
-3.833912e-09
-7.432702e-09
-8.731969e-09
-3.359350e-10
-5.215413e-10
-7.128766e-10
3.851331e-10
1.965475e-10
-5.825549e-10
-4.577134e-11
-9.100481e-10
-3.392950e-10
-1.432398e-09
-1.485358e-09
-1.073942e-09
-1.488058e-09
-1.595811e-09
-1.615788e-09
-1.317567e-09
-1.568012e-09
-1.676405e-10
-6.524818e-11
-2.124189e-10
-2.091687e-11
3.254790e-10
2.372756e-10
1.832360e-10
5.876477e-10
5.589716e-10
6.419525e-10
-5.573031e-11
4.626639e-10
4.041229e-10
-2.035182e-10
-4.731347e-10
2.509442e-11
-7.636430e-10
-8.392076e-10
-6.641895e-10
1.465637e-10
-4.695905e-10
-2.086842e-10
-2.641753e-10
-3.183618e-10
-3.413929e-11
-1.125623e-10
1.909175e-10
-1.633721e-10
2.444722e-10
-5.675254e-10
-1.379021e-10
-8.800341e-11
-1.481399e-10
-5.948944e-10
1.232412e-10
4.348868e-10
-4.257267e-10
4.651262e-10
-4.625615e-11
8.219327e-10
-3.467065e-10
5.179180e-10
7.494172e-10
-2.455219e-10
2.640753e-10
1.582707e-10
-6.520310e-09
-2.781911e-09
-6.664907e-09
8.376696e-10
1.081002e-08
5.456606e-09
-4.366048e-10
7.749736e-09
3.653992e-09
8.272614e-10
9.029258e-10
2.030535e-09
-3.322567e-09
-4.498778e-09
-2.003239e-09
-5.049641e-09
-5.637778e-09
-2.923455e-09
8.322207e-11
-8.054744e-10
-7.206030e-10
2.983168e-11
-8.802695e-10
-2.883615e-10
-1.317799e-09
-6.083113e-10
-9.338971e-10
-5.106410e-09
-4.120265e-09
-2.627540e-09
-5.529164e-09
-5.071924e-09
-3.957725e-09
-4.647517e-09
-3.035403e-09
-3.459331e-09
1.336558e-10
3.103634e-10
5.133700e-10
-3.222062e-10
-2.969561e-10
-5.240687e-11
-3.779376e-10
-7.030803e-10
-5.863373e-10
-1.677179e-09
-1.883378e-09
-9.725887e-10
-1.420879e-09
-1.406598e-09
-1.124374e-09
-1.489859e-09
-1.062855e-09
-8.242860e-10
-1.742140e-09
-1.400814e-09
-8.972249e-10
-1.434747e-09
-3.727239e-10
-3.379999e-10
-1.410676e-09
-5.207696e-10
-2.417299e-10
-2.122352e-09
-1.628982e-09
-1.111243e-09
-1.433152e-09
-1.590328e-09
-1.774328e-09
-1.496217e-09
-1.062640e-09
-1.337069e-09
1.907481e-09
2.357781e-09
2.391976e-09
2.157781e-09
3.257306e-09
2.527907e-09
3.132513e-09
3.002288e-09
2.501705e-09
2.227390e-09
3.541043e-09
3.052845e-09
2.741504e-09
4.055258e-09
2.724066e-09
3.526048e-09
3.521050e-09
3.087421e-09
-9.892650e-10
-1.250134e-09
-4.224501e-10
-1.327114e-09
-1.388116e-09
-3.338934e-10
-1.402312e-09
-7.695048e-10
-8.689130e-10
1.415292e-09
1.227949e-09
9.343344e-10
1.426276e-09
9.180077e-10
1.845354e-09
1.044832e-09
1.890466e-09
2.187819e-09
-9.200450e-10
-4.527850e-10
-1.069391e-09
-6.299402e-10
-6.159299e-10
-7.752433e-10
-6.121540e-10
8.328129e-11
-1.736078e-10
2.584520e-09
2.968957e-09
2.888598e-09
3.181792e-09
2.646680e-09
2.626172e-09
3.098101e-09
3.269443e-09
2.470903e-09
2.134598e-09
2.492308e-09
2.769554e-09
2.400852e-09
1.763835e-09
2.345495e-09
2.489874e-09
2.613621e-09
2.158808e-09
-1.369390e-09
-1.216893e-09
-1.250483e-09
-1.209966e-09
-1.544028e-09
-1.730208e-09
-1.458314e-09
-1.208745e-09
-1.226441e-09
-1.398669e-09
-1.056546e-09
-1.758670e-09
-8.158890e-10
-1.563705e-09
-1.086836e-09
-1.770900e-09
-8.776254e-10
-1.817966e-09
2.880791e-09
3.220296e-09
2.198523e-09
3.316054e-09
3.739255e-09
2.750175e-09
3.002155e-09
3.726127e-09
3.192016e-09
-2.014851e-10
-6.352190e-10
-3.398478e-10
-2.063568e-10
-5.115243e-10
-5.026826e-10
6.579396e-10
-2.570212e-10
-3.034570e-10
2.704480e-09
2.976011e-09
3.627054e-09
2.906160e-09
3.270769e-09
2.991760e-09
2.837121e-09
3.094268e-09
3.784925e-09
2.261315e-09
1.984803e-09
1.645056e-09
2.786681e-09
2.662354e-09
2.119201e-09
2.531251e-09
2.782855e-09
2.363997e-09
-6.313165e-02
1.106722e-01
2.075679e-02
5.072457e-03
-1.694728e-01
-4.628788e-03
2.807303e-02
-6.555960e-03
3.392604e-02
-5.404208e-10
3.383634e-10
-1.386619e-10
5.367204e-10
2.031441e-10
3.227598e-10
-8.300791e-11
-1.362632e-11
1.509113e-10
1.102686e-02
1.939117e-02
-4.392112e-02
-5.297480e-02
-7.368097e-02
1.306382e-02
4.065698e-02
-9.868712e-03
3.865466e-02
-3.576316e-03
-6.597342e-02
-1.263865e-02
4.068827e-02
5.206162e-02
-2.563822e-02
8.862786e-04
4.294715e-02
-4.251106e-02
-1.071249e-10
-7.335865e-10
-1.954624e-10
-1.935100e-10
-6.462843e-10
-4.093238e-10
-1.043019e-09
3.800190e-10
-2.987099e-10
9.034057e-03
-1.314114e-01
7.897551e-02
-8.121490e-03
2.296215e-01
-2.845422e-02
-9.187824e-02
-2.530876e-02
-3.042177e-02
-3.711645e-10
-1.179819e-10
-5.859384e-10
6.699386e-10
-5.188466e-10
9.300706e-11
-3.096259e-10
-6.122102e-10
-5.002045e-10
-5.199156e-10
-2.686983e-10
4.660825e-10
-5.597923e-10
-2.288605e-10
-4.271058e-10
-5.676984e-10
4.423615e-10
-1.600592e-10
2.886440e-11
-1.050250e-09
-3.504667e-10
4.602132e-11
1.469755e-10
-7.578368e-10
6.209695e-11
-7.459057e-10
-6.396315e-10
-5.944781e-10
-2.854298e-10
-1.613649e-10
1.507416e-10
-4.577293e-10
-2.376083e-10
-9.525718e-11
-9.172445e-11
-8.009510e-10
-1.211736e-10
3.354317e-10
5.769935e-10
-2.548166e-10
4.835420e-10
6.107704e-10
2.164594e-12
-2.118657e-10
1.770464e-10
9.045280e-02
6.721571e-02
-4.610578e-02
3.329491e-02
-1.489583e-01
7.525010e-02
-4.761658e-02
2.355429e-02
-4.024855e-02
4.447400e-02
2.165294e-02
3.437594e-02
-1.160432e-01
-2.093600e-01
-4.689950e-02
1.662021e-02
9.301559e-02
-3.147085e-02
-1.997289e-10
-2.842714e-10
-5.782334e-10
8.781077e-11
2.676286e-11
2.558961e-10
-1.079224e-10
1.326850e-12
2.912505e-11
-4.026965e-02
9.639748e-03
3.557990e-02
-2.086365e-02
3.373499e-02
-1.384156e-02
-1.556404e-02
1.086704e-02
-4.639823e-02
-2.929011e-10
-5.761245e-10
-3.801251e-10
-1.894286e-10
-8.423687e-10
-1.122591e-09
1.362023e-10
-4.174023e-11
-7.383344e-10
3.782482e-02
-3.462698e-02
-2.599104e-02
-1.012842e-03
-1.540794e-01
-1.073169e-01
-1.006648e-01
-6.185697e-02
-2.673580e-02
-5.891025e-10
-3.350642e-10
-1.589837e-10
2.584113e-10
3.651481e-10
2.252190e-10
-9.779220e-11
-3.998147e-11
9.096800e-11
-5.114925e-02
5.769196e-03
3.952512e-02
-3.185911e-02
1.620870e-04
6.337577e-02
-1.886867e-02
4.092807e-02
5.205551e-02
2.241597e-01
3.051874e-02
-9.589408e-02
2.202794e-01
5.947975e-02
-1.524994e-01
5.530221e-02
-3.790664e-02
-1.173391e-01
2.217397e-10
-4.704055e-10
5.641709e-10
-1.021582e-10
1.035999e-10
-8.694247e-11
-4.100309e-10
-1.118691e-10
2.534137e-10
1.011218e-01
-5.827088e-02
-1.535600e-01
5.039450e-02
1.191279e-01
2.739323e-03
-3.914056e-02
-3.663262e-03
9.518784e-02
-9.582897e-11
1.255983e-10
-3.540192e-10
4.013732e-10
-5.618561e-10
-7.161291e-10
-2.334200e-10
3.879868e-10
-2.117219e-10
-3.477389e-10
-1.949826e-10
-1.659462e-10
-8.579910e-10
-2.345097e-10
-3.197045e-10
-2.820913e-10
-3.725650e-10
-6.582367e-11
4.546953e-10
7.763136e-10
-1.790972e-10
5.933808e-10
7.994481e-10
4.601350e-10
3.117579e-10
1.684132e-10
-1.131000e-10
5.812431e-10
-5.029833e-10
2.091975e-10
-6.510518e-11
3.861114e-10
-1.178292e-10
-5.333287e-10
-1.093483e-10
-2.774854e-10
-1.666940e-10
4.411597e-11
-4.815569e-10
-5.134480e-10
-4.425308e-10
3.302056e-10
-1.690824e-10
-7.618179e-10
-1.032560e-10
4.822958e-03
-5.492144e-02
-4.671021e-02
-8.946500e-02
1.478638e-02
2.488745e-01
-1.518672e-01
5.515493e-02
2.577302e-01
-2.341177e-03
-2.320168e-02
2.222828e-02
2.810634e-02
-7.347973e-02
-4.819947e-02
1.998316e-03
-1.850540e-02
-7.026144e-02
-3.271624e-10
6.608594e-10
-5.394222e-10
-6.696865e-11
-9.614212e-11
1.517346e-10
-5.390887e-11
-2.865293e-11
-5.993248e-10
-4.644588e-04
1.350611e-02
-7.490189e-03
-7.654837e-04
3.125784e-03
-2.594772e-02
1.998883e-03
-4.202205e-02
-5.322488e-02
-1.081159e-10
-6.697689e-10
-8.599332e-10
-3.941489e-10
-8.805859e-10
1.284900e-10
-2.733160e-10
-6.591460e-10
1.626999e-10
-7.972764e-02
-4.006679e-02
-7.363399e-03
-1.779562e-01
-1.737084e-01
4.904472e-02
-1.115857e-01
-5.183397e-02
8.675374e-03
1.462128e-10
-8.775020e-11
-2.289884e-10
3.861646e-10
6.051828e-10
-2.438264e-10
5.993702e-10
1.262860e-10
-1.033883e-09
6.495311e-03
2.951597e-02
9.164330e-03
-1.043376e-01
4.409460e-02
4.378386e-02
-5.119773e-02
1.191319e-02
-3.241998e-02
-5.905674e-02
-2.357475e-02
-3.299899e-02
1.706471e-02
-7.368764e-03
-5.904663e-02
2.458576e-02
-1.485696e-02
2.256589e-03
-2.264701e-10
-8.177194e-10
2.065218e-10
-9.264586e-10
-5.217328e-10
2.719404e-10
-9.239199e-11
-3.686907e-10
2.893519e-10
1.337345e-02
-9.364055e-03
4.242900e-02
1.106374e-01
-3.612036e-02
-1.281228e-01
-2.427855e-03
-2.964909e-02
3.186395e-02
1.016197e-09
3.477574e-10
4.198133e-10
1.933746e-10
3.639947e-10
4.552585e-11
4.560901e-10
1.188640e-09
2.162296e-10
-2.752139e-10
-3.161876e-10
-5.429138e-10
9.199790e-10
-3.683942e-10
-6.578674e-10
5.323752e-11
6.912740e-10
-9.575302e-11
8.577870e-10
9.311205e-10
1.179603e-10
9.517880e-10
8.533953e-10
2.882493e-10
7.668629e-11
3.941353e-10
6.635337e-10
-1.451834e-10
1.274325e-09
4.337380e-10
-7.273117e-11
-2.337284e-12
1.883498e-10
-3.454085e-10
3.226695e-10
-1.543190e-10
-2.052797e-10
-2.413534e-10
-4.476549e-10
-4.708148e-10
-4.070596e-10
-2.489737e-10
2.921840e-10
-6.579861e-10
-4.342928e-10
-6.269068e-03
3.755018e-02
-2.206649e-02
-1.437069e-01
-4.899099e-02
5.390787e-02
-2.793521e-02
-6.393875e-03
-4.489108e-02
-3.565143e-02
4.840676e-03
-4.526457e-02
-3.700607e-02
-3.793219e-02
-3.407449e-02
6.276099e-02
-1.062487e-02
-1.254861e-01
-9.716646e-11
3.947383e-10
1.389847e-10
1.489929e-10
7.128380e-10
1.108216e-09
-4.044156e-10
2.570121e-10
8.006861e-10
7.587999e-02
3.464049e-02
-3.328304e-02
7.157537e-02
3.827808e-02
-7.051128e-02
3.639123e-02
2.901028e-02
-4.036566e-02
-3.666071e-10
-1.913898e-10
-8.344220e-10
-7.422141e-10
-4.718046e-10
-5.459866e-11
-1.489303e-10
-8.587852e-10
-4.748533e-10
5.886740e-03
3.657735e-02
-5.404589e-03
3.785630e-03
5.416280e-02
1.922718e-03
-1.819358e-02
3.247708e-02
-7.955099e-03
2.972105e-10
3.422589e-10
4.436014e-10
2.694990e-10
1.429473e-10
-1.301248e-10
6.271542e-11
2.085107e-10
2.749309e-10
1.116262e-02
2.660579e-02
2.509010e-02
7.969877e-03
2.792928e-02
2.542120e-02
1.065820e-02
1.897705e-02
9.012515e-03
6.028317e-02
6.737047e-02
6.955208e-02
4.235379e-02
4.152323e-02
5.321214e-02
1.847925e-02
3.720698e-03
1.524923e-02
2.508572e-10
-4.941314e-10
3.041941e-10
-7.048758e-10
-4.808910e-10
-4.003975e-10
-9.058799e-10
-5.807700e-10
5.892271e-11
-7.865261e-03
-4.271876e-03
-6.560810e-03
1.925947e-02
9.278152e-03
2.397694e-02
7.879092e-03
5.366590e-03
2.620059e-02
-6.662252e-10
-4.101341e-10
-5.519602e-10
-7.907970e-10
-4.609226e-10
-6.833700e-10
-4.969171e-10
-1.475071e-09
-6.865340e-10
-3.671283e-10
7.309649e-10
6.205651e-10
1.209352e-09
7.394072e-10
4.402504e-10
-1.205417e-10
5.076733e-10
5.098298e-10
-2.465520e-10
-3.543663e-10
-2.968929e-10
-1.380143e-09
-3.786201e-10
-5.079074e-10
-5.204824e-10
-6.990663e-10
-4.818086e-10
-2.950370e-11
2.341087e-10
4.064718e-10
2.289964e-10
-8.669598e-11
1.605516e-10
3.000947e-10
-1.006816e-10
2.509999e-10
6.470686e-11
4.651191e-10
6.775887e-10
4.791637e-10
-4.930096e-10
-2.483355e-10
1.442123e-10
-1.507922e-10
-1.479986e-10
3.355353e-02
3.806153e-02
1.591766e-02
6.740046e-02
5.511359e-02
6.782144e-02
2.476448e-02
-2.106790e-02
-6.616035e-04
6.827928e-03
8.197523e-04
5.310957e-03
-4.288436e-02
-3.299479e-02
-1.200776e-02
6.189240e-03
5.147748e-04
7.752662e-03
5.963399e-11
-1.688797e-10
2.458188e-10
-3.697229e-10
3.153325e-10
1.710539e-10
-3.627514e-10
6.561958e-11
5.009256e-10
3.186933e-02
4.182130e-02
5.936586e-02
3.047290e-02
3.432629e-02
5.135236e-02
4.022463e-02
3.688665e-02
4.894808e-02
2.138745e-10
-6.861059e-12
7.694342e-10
-1.175636e-10
-1.137221e-09
-5.492290e-10
-2.384891e-10
3.593280e-10
-6.363163e-10
-5.843276e-10
-5.430013e-10
-5.552712e-10
-1.983309e-10
-5.225244e-10
-8.830048e-10
-4.009895e-10
-7.761259e-10
-1.156837e-09
-4.394014e-10
3.933777e-10
3.167369e-10
-3.804135e-10
3.484168e-10
2.156444e-10
-1.065053e-11
9.231845e-10
2.924486e-10
-3.950746e-10
-1.958514e-10
-5.860393e-10
-1.421488e-10
-4.930630e-10
-7.137656e-11
-9.323501e-10
-7.740980e-10
-7.090564e-10
5.383543e-10
8.734394e-10
7.852901e-10
1.069054e-09
6.033992e-10
4.048264e-10
4.603198e-10
8.878703e-10
1.160794e-10
-9.134912e-10
-6.020356e-10
-7.176241e-10
1.446488e-10
-5.341772e-10
-2.368035e-10
-1.333849e-10
-3.374130e-11
-2.953268e-10
3.798908e-10
-1.199833e-10
-2.945804e-10
-7.651476e-10
-1.594240e-10
-2.227905e-10
-7.675290e-10
-5.123512e-10
-3.537037e-10
-1.118515e-10
-2.340989e-11
2.975964e-10
-3.465912e-11
9.526338e-11
-6.374845e-11
8.369573e-10
1.367118e-10
3.578131e-10
-1.112068e-09
-4.872312e-10
-9.593940e-10
-8.283807e-10
-8.501812e-10
-9.242536e-10
-5.819853e-10
-6.332913e-10
3.741968e-10
5.143207e-12
6.569609e-10
7.448994e-10
2.258319e-10
1.343450e-10
-7.885034e-11
1.765544e-10
2.990351e-10
6.099156e-11
-2.442894e-10
-5.904056e-11
1.646613e-10
-5.423362e-10
-7.187835e-10
4.669113e-10
-9.223770e-11
-2.780847e-10
-4.173694e-10
-2.443853e-10
-1.650555e-10
2.882363e-10
-2.539235e-10
3.000717e-10
2.474170e-10
-6.328633e-10
5.906201e-10
5.351669e-10
-2.146553e-09
-1.233511e-09
-1.093748e-09
-6.736292e-10
-7.815938e-10
-6.393485e-10
-1.387492e-09
-1.696174e-09
-1.391115e-09
2.600499e-10
7.203040e-10
5.647917e-10
1.354675e-09
8.276294e-10
7.254506e-10
1.087440e-09
4.173690e-10
4.576773e-10
-7.808401e-10
-1.251674e-10
-2.035921e-10
-7.351276e-10
-5.981819e-10
-1.001185e-09
-7.533157e-10
-7.603507e-10
-5.101725e-10
-5.312726e-10
-1.022754e-09
-6.139268e-10
-6.768734e-10
-5.889205e-10
-5.542238e-10
-8.523897e-10
-5.218709e-10
-2.529788e-10
2.225932e-10
1.793385e-10
-3.702627e-10
-2.338073e-10
-4.648018e-10
-1.898635e-10
4.946926e-11
-5.984605e-11
-3.404610e-10
-4.487352e-02
1.628988e-02
4.475617e-03
-2.703045e-01
2.485939e-01
-5.150695e-02
-5.659284e-02
1.459881e-02
-8.784892e-03
-3.193024e-13
-9.874327e-10
2.233848e-10
3.017762e-10
-1.672614e-10
2.310144e-10
-3.782582e-10
-1.540843e-10
-3.271573e-10
-5.834456e-02
7.823462e-02
-9.348886e-02
-1.098718e-01
1.289979e-01
-1.007289e-01
-2.271081e-02
6.504608e-02
-4.650180e-02
-3.432812e-02
1.169290e-02
-1.211105e-02
9.813054e-02
-1.015711e-01
7.013910e-02
-1.556610e-02
-9.652820e-02
3.866060e-02
1.059140e-10
1.238822e-09
1.035220e-10
-5.506057e-10
2.722303e-10
-3.660781e-10
5.817941e-10
1.016963e-09
4.614711e-10
-1.737881e-02
6.113793e-02
3.345147e-03
1.871089e-01
-3.284807e-01
1.665634e-01
-3.734878e-02
1.486168e-02
-1.981251e-02
-6.542792e-10
2.161189e-10
-1.256779e-10
-7.218393e-11
8.928385e-12
-7.869148e-11
-3.869687e-10
3.892685e-10
4.235711e-11
6.223590e-11
-3.408775e-10
-4.121679e-10
8.616968e-10
2.990675e-10
7.678811e-10
6.354596e-10
-1.648794e-11
9.306201e-10
9.323025e-10
9.878816e-11
-2.331626e-10
-4.188926e-10
-1.491302e-10
-6.212595e-12
-1.708487e-10
-3.751804e-10
4.444251e-10
-2.295897e-10
-4.521934e-10
-4.127654e-10
4.372806e-12
-7.354153e-10
-5.456542e-10
-5.860750e-10
2.319841e-10
2.205128e-10
1.254843e-10
-4.464457e-10
9.596627e-11
9.915049e-11
1.519076e-12
2.647728e-10
-1.679170e-10
-1.970257e-11
-3.990312e-10
7.218393e-02
-3.473504e-02
2.699232e-02
-9.142948e-02
6.660314e-02
4.996222e-02
6.480489e-03
-2.123975e-01
1.878312e-01
5.566661e-04
-2.853220e-02
1.684873e-03
5.886877e-02
8.275045e-03
1.666005e-02
1.085313e-01
-1.993338e-01
5.671703e-02
-9.242199e-10
-6.984734e-10
1.352031e-10
-9.295689e-11
1.376463e-10
6.090277e-10
7.762862e-10
4.943339e-10
9.455088e-11
8.408640e-02
-7.963910e-02
3.453474e-02
-8.628543e-03
-9.002770e-02
-1.304856e-02
7.330167e-02
-4.258285e-02
8.501615e-02
-3.244914e-10
-2.823911e-10
-8.851269e-10
-1.429727e-10
9.956475e-11
-9.289477e-10
-5.352800e-10
-3.870321e-10
-3.826157e-10
-6.600586e-03
-9.506822e-02
-8.029424e-02
-1.069612e-01
-6.591628e-02
1.765732e-02
-2.493823e-02
-1.338667e-02
-8.620305e-03
-2.065017e-09
-6.418451e-10
-2.975231e-10
-9.324039e-10
-8.510987e-10
-5.438807e-10
-4.078643e-10
-4.175043e-10
-1.175185e-09
-3.398652e-02
-2.654901e-03
-4.007775e-02
-5.651127e-02
1.979883e-03
-1.173395e-02
-1.393068e-02
2.860637e-02
1.033429e-02
-1.236571e-01
1.294971e-02
2.110130e-01
-1.136143e-01
-3.127217e-02
1.783582e-01
-1.963906e-02
-4.709175e-02
3.636531e-02
1.194573e-09
3.288474e-10
5.523874e-10
2.995198e-10
6.593525e-10
2.189943e-10
5.646610e-10
-4.996656e-11
6.184291e-10
-8.979179e-02
-2.318473e-02
9.715190e-02
1.371551e-01
-1.090981e-02
-6.960548e-02
8.156754e-02
2.007641e-02
-4.122091e-02
8.351478e-10
1.027811e-11
2.592260e-10
3.207444e-10
6.282168e-10
-3.192674e-10
9.939850e-10
4.665277e-10
4.492299e-10
1.171515e-10
3.596523e-10
4.546047e-10
-3.867862e-10
5.208421e-10
3.189653e-10
-9.075642e-10
-8.886748e-11
-2.264429e-10
1.508726e-10
2.631443e-10
3.797256e-10
6.665770e-10
-5.684132e-11
1.365906e-11
9.613106e-11
-1.089426e-10
5.117228e-10
6.015549e-11
1.618540e-10
1.972662e-10
8.796170e-11
-6.917911e-11
5.425573e-10
2.600202e-10
-5.175439e-10
3.852876e-10
-4.065260e-10
-1.960315e-10
-2.168195e-10
-9.499255e-10
-3.312086e-10
-8.902253e-10
-1.261445e-09
-7.195502e-10
-7.431430e-11
2.647882e-02
-9.980419e-03
-2.500306e-02
2.552158e-01
5.360209e-02
-1.664800e-01
2.439857e-01
3.822093e-03
-2.621229e-01
5.594393e-03
1.589247e-02
-4.237761e-03
-8.753356e-02
4.949339e-02
7.279336e-02
-2.723531e-02
7.045622e-03
6.027319e-04
6.624682e-10
-1.518350e-10
-3.113957e-10
-5.683667e-11
4.009198e-10
-4.753372e-10
2.822997e-10
1.401383e-10
-4.703041e-11
7.273409e-03
4.373735e-02
-1.119011e-02
2.066999e-02
-3.339390e-03
-4.723664e-02
-7.728910e-04
1.070477e-02
-4.530480e-03
2.770003e-10
3.314095e-10
6.963160e-11
1.148057e-09
4.404433e-10
1.375037e-10
3.703784e-10
2.730810e-11
-4.710971e-10
-7.580394e-10
1.583238e-10
-5.861913e-10
-1.837888e-09
-7.787452e-11
-6.147044e-10
-1.327330e-09
-3.226974e-10
2.382682e-10
3.484625e-10
-3.857968e-10
-9.309328e-10
-5.365648e-10
-7.437618e-10
-1.038712e-09
-1.214236e-11
-1.033559e-09
-1.424873e-09
-3.192376e-10
2.867966e-10
-1.663598e-09
-5.829834e-10
-1.057239e-09
-2.100253e-09
-1.501631e-09
-1.456789e-09
-2.063955e-09
1.545453e-09
1.615494e-09
1.840050e-09
1.600196e-09
1.958956e-09
2.080447e-09
2.146034e-09
2.008578e-09
2.660966e-09
1.705911e-09
2.233240e-09
1.585284e-09
2.583678e-09
2.483874e-09
2.496678e-09
2.239890e-09
2.551409e-09
2.075567e-09
-8.278809e-10
-1.176041e-09
-6.486751e-10
-4.310159e-10
-1.548850e-09
-1.700829e-09
-3.463639e-10
-1.607665e-09
-1.589954e-09
-5.001936e-12
-3.977318e-10
-8.760133e-10
1.123083e-09
-2.350871e-10
-5.421873e-10
9.728625e-10
4.194772e-10
2.869347e-10
-5.542762e-10
6.835887e-11
-4.000104e-10
-1.099818e-09
-2.891959e-10
-1.521270e-09
-1.266294e-09
-9.083716e-10
-1.574817e-09
1.900397e-09
1.920625e-09
2.170649e-09
2.413401e-09
1.959821e-09
2.442710e-09
1.999233e-09
2.086328e-09
2.577526e-09
7.780407e-10
1.302310e-09
1.846285e-09
1.478812e-09
2.037416e-09
2.034846e-09
1.830413e-09
2.149155e-09
2.381520e-09
-1.573362e-10
3.777327e-10
-1.325528e-09
-3.219454e-10
-1.073138e-09
-1.512344e-09
-1.658028e-09
-8.869662e-10
-1.905103e-09
-6.665266e-10
-2.522889e-10
-1.529150e-09
-8.485342e-10
-7.422076e-10
-1.257441e-09
-1.714235e-09
-8.873506e-10
-1.790755e-09
1.985357e-09
2.151456e-09
1.236521e-09
1.840462e-09
2.072969e-09
2.415869e-09
2.909136e-09
2.723373e-09
2.647082e-09
-1.213308e-10
1.858317e-10
-9.599705e-11
-8.977474e-10
1.213682e-10
1.165386e-10
-4.096376e-10
5.556958e-10
3.242525e-10
1.907271e-09
2.297240e-09
2.365050e-09
1.954424e-09
3.004978e-09
3.553849e-09
2.801383e-09
3.561164e-09
2.933977e-09
3.008708e-10
6.049364e-10
1.124637e-09
7.838772e-10
1.275244e-09
1.148892e-09
1.113099e-09
1.160445e-09
7.504642e-10
-2.433635e-02
8.881316e-03
-1.450173e-02
-8.873079e-03
6.978913e-03
-3.939726e-02
2.220956e-02
4.984430e-03
-5.213621e-02
-1.126938e-09
-2.160919e-09
-1.206335e-09
-1.660013e-09
-1.520595e-09
-1.838320e-09
-9.834276e-10
-2.300522e-09
-1.590357e-09
5.995669e-03
1.066769e-02
6.363549e-03
-3.771753e-02
-3.280683e-02
-3.252267e-02
-2.473767e-02
-3.667278e-02
-2.747748e-02
5.222952e-02
5.873512e-02
4.525224e-02
6.662343e-02
7.941275e-02
7.182576e-02
2.085858e-02
4.082847e-02
3.441680e-02
2.231443e-09
2.661544e-09
2.215066e-09
3.056693e-09
4.006063e-09
2.633803e-09
3.285853e-09
3.418771e-09
2.608924e-09
-4.652882e-02
-2.267545e-02
-2.147362e-02
-1.910487e-02
-4.983511e-04
4.866960e-03
-8.948199e-03
1.197135e-02
7.102026e-03
6.659010e-10
4.921736e-10
9.530871e-10
1.854367e-09
1.356327e-09
1.647929e-09
1.411798e-09
1.161837e-09
1.787001e-09
-1.289836e-09
-8.650258e-10
-8.154438e-10
-1.701258e-09
-1.219011e-09
-1.866854e-09
-1.730202e-09
-8.369925e-10
-1.599388e-09
1.949841e-09
2.249086e-09
2.287869e-09
3.295952e-09
2.140681e-09
2.722162e-09
2.441194e-09
1.857312e-09
2.832623e-09
2.255328e-09
2.129897e-09
2.819467e-09
2.825751e-09
2.347007e-09
2.905529e-09
2.125240e-09
2.391263e-09
2.655009e-09
-1.092288e-09
-1.797671e-09
-1.413882e-09
-2.025224e-09
-1.317909e-09
-2.345346e-09
-1.843084e-09
-1.785013e-09
-2.020765e-09
1.031796e-02
2.272821e-02
-2.901915e-03
-4.765976e-03
-2.425788e-03
-1.413484e-02
-1.600922e-02
-3.609263e-02
-3.247469e-02
-3.820672e-03
-1.572078e-02
-2.858975e-02
-9.802907e-03
-3.451233e-02
-4.855352e-02
2.461594e-02
3.352152e-03
-1.020544e-02
-4.001838e-10
6.050901e-10
6.462776e-10
-4.492301e-10
-6.127727e-10
1.056606e-09
-4.098973e-10
3.308505e-11
9.674390e-10
-4.075847e-02
-3.704429e-02
-3.739572e-02
-2.244292e-02
-5.887255e-03
-5.323554e-03
-3.923188e-02
-1.904983e-02
-1.864077e-02
2.603816e-09
2.183701e-09
2.259738e-09
2.305240e-09
2.351479e-09
2.354251e-09
2.465544e-09
3.297769e-09
2.298460e-09
-1.829963e-10
-5.746434e-10
3.062846e-10
-2.233168e-10
1.350798e-10
8.958591e-10
-2.068545e-10
-2.518081e-10
-5.015192e-10
-5.262233e-10
1.691550e-11
7.470068e-10
-4.649190e-10
-2.094987e-10
1.187308e-10
-1.356070e-09
-4.455483e-11
-2.780198e-10
-1.051178e-09
3.612374e-11
4.264475e-10
-9.649223e-10
-4.924413e-10
3.810672e-10
-3.837120e-10
-1.053004e-10
4.366835e-10
-3.296869e-10
-3.835186e-10
-6.249624e-10
-1.138370e-09
-3.662547e-10
-1.636807e-09
-1.020467e-09
-8.460819e-10
-7.711868e-10
-1.332887e-09
-5.380395e-10
8.095946e-12
-7.972754e-10
-9.937617e-10
-7.655828e-10
-1.114260e-09
-9.481895e-10
3.027746e-11
2.777723e-10
5.804297e-10
1.014600e-10
-2.470550e-10
2.128047e-10
-9.188424e-11
-9.398614e-10
-8.367988e-11
1.119225e-10
-2.593492e-10
2.070797e-10
-3.036251e-10
-3.614949e-10
-5.787075e-10
-4.096588e-10
-7.821921e-10
-3.244771e-10
-6.758793e-10
1.310068e-10
-9.887970e-11
1.049016e-09
-5.786669e-11
-7.249653e-11
5.822174e-10
-7.775965e-10
-7.741358e-11
7.198970e-11
-2.401513e-10
1.424647e-10
-1.361942e-10
-1.075690e-09
-9.182341e-10
-1.364583e-10
-2.625528e-10
-9.352196e-10
-8.543963e-10
-9.638043e-10
-1.566358e-09
-6.326802e-10
-7.664159e-10
-5.877426e-10
-7.409935e-10
-1.341630e-09
-1.037889e-09
-3.102288e-10
-4.023443e-10
-1.125086e-10
6.662966e-10
2.853796e-10
1.941560e-10
7.546830e-10
2.398182e-10
2.875327e-12
9.088069e-10
-7.419527e-10
-3.872129e-10
1.423718e-11
2.129987e-10
-3.615979e-10
7.290156e-10
-3.013369e-10
-4.033602e-10
-2.454269e-11
-9.428234e-10
-8.946519e-10
-8.420605e-10
-6.135292e-10
-1.374224e-09
-8.199436e-10
-8.929016e-10
-9.563322e-10
-8.274127e-10
-1.830995e-10
-3.643051e-10
3.745013e-10
-1.832745e-10
-2.027186e-10
6.045153e-11
2.488586e-11
5.608800e-10
4.441515e-10
-4.771666e-10
-8.764383e-10
-1.063731e-09
-7.946764e-10
-5.357841e-10
-5.618883e-10
-2.680416e-10
-1.902301e-11
-5.274473e-10
-6.898544e-10
-1.461113e-09
2.977312e-11
-8.916849e-10
-6.203221e-10
-1.030573e-09
-1.291969e-09
-4.412953e-10
-5.098132e-10
-2.973712e-02
-5.962971e-02
-2.626793e-03
2.185329e-02
1.547342e-02
1.470686e-02
5.971653e-03
-2.196210e-02
-2.241764e-02
1.573826e-10
-4.052943e-11
9.247621e-11
-1.058434e-09
-3.304296e-11
-1.566345e-10
-3.169008e-10
-2.435458e-10
1.989553e-10
-2.821508e-02
-6.738355e-03
2.987977e-02
-8.201002e-02
-8.529846e-02
-4.487875e-02
-6.535869e-02
-9.050718e-02
-5.822832e-02
-5.183761e-02
-5.863753e-02
-9.723394e-02
-4.012892e-02
-1.128654e-02
-5.220010e-02
-7.713830e-02
-4.125366e-02
-6.858398e-02
-7.436862e-10
1.768691e-10
-9.660690e-10
-5.358994e-10
-5.011144e-10
-1.092259e-09
-9.020907e-11
-2.761559e-10
-1.952759e-10
-4.433828e-02
5.385725e-02
-2.045326e-02
-5.615988e-02
5.777394e-03
8.776117e-03
-1.731104e-02
2.615853e-02
1.989840e-02
4.585665e-10
-4.858759e-11
-3.336970e-10
-9.705050e-12
-1.365654e-10
2.971157e-10
2.419109e-10
1.512909e-11
-6.158607e-12
1.198759e-10
3.653763e-10
-2.709674e-10
6.159350e-11
-1.670253e-10
4.426224e-10
-4.225863e-11
-7.726580e-10
3.389277e-11
-3.772867e-10
-3.482681e-10
-5.625903e-10
-3.879083e-10
-1.843464e-10
-5.070041e-10
2.481536e-10
9.535758e-12
-5.198507e-10
2.619034e-10
-7.003025e-11
5.746786e-10
1.779411e-10
-2.385131e-10
9.179638e-11
8.547313e-11
-2.987438e-11
-1.803405e-10
5.807247e-10
2.118044e-10
-3.297353e-10
-3.843589e-10
-7.209664e-11
-2.817530e-10
3.812324e-10
2.826600e-10
-3.942660e-10
8.517582e-02
8.081719e-02
6.912566e-02
2.750860e-02
9.834991e-02
8.577403e-02
-1.045811e-01
-1.076769e-01
-1.821301e-02
1.065435e-02
-2.782296e-02
-2.673160e-02
2.286007e-02
2.193633e-02
-1.329417e-02
-8.632392e-03
-2.317549e-02
-5.237781e-02
2.089595e-10
-1.823675e-10
-3.911164e-10
6.317759e-10
2.289042e-10
3.734346e-10
-1.166206e-10
-4.981472e-10
7.888903e-10
-2.521672e-02
-3.659491e-03
-7.248388e-03
-6.781454e-02
-5.954367e-02
-4.437587e-02
-3.286564e-02
-2.867630e-02
-3.084744e-02
4.755212e-10
9.050484e-11
-4.708857e-10
8.027912e-10
-5.484889e-10
2.757706e-10
-1.957290e-10
2.968075e-10
4.438679e-10
-3.307569e-02
-3.020898e-02
-3.343869e-02
1.128460e-02
1.148748e-02
1.603319e-02
-2.646586e-02
1.528685e-02
1.886041e-02
9.523189e-10
4.642363e-10
9.020982e-10
-8.680509e-11
1.400482e-10
4.107846e-10
1.594135e-10
1.852641e-09
9.325654e-10
5.341741e-03
2.261927e-02
3.506580e-03
5.139273e-02
5.904775e-02
4.527166e-02
-4.510975e-03
4.564488e-03
-1.437487e-02
-4.928484e-02
-4.433132e-02
-4.685139e-02
1.066980e-02
1.004850e-02
-3.450765e-03
1.053560e-02
7.676071e-03
-7.235796e-04
9.609307e-10
4.243292e-12
3.184669e-10
1.894334e-09
5.751912e-10
1.230406e-09
7.604344e-10
-3.250862e-10
4.419905e-10
-2.144830e-03
3.769574e-03
2.404144e-02
2.974555e-03
4.190107e-03
3.382642e-03
-2.328462e-02
-2.564584e-02
-7.807187e-03
-1.037390e-09
8.521042e-11
-5.652635e-10
1.534919e-10
4.235651e-10
-1.404571e-10
-5.531747e-10
7.960019e-10
-1.323278e-10
3.323316e-10
4.566015e-10
7.020664e-10
-4.206298e-11
-1.108216e-09
1.600543e-10
-2.872917e-10
-1.350786e-09
-5.573272e-11
3.134118e-11
-1.109468e-10
-3.182007e-11
1.777933e-12
-3.015992e-10
2.037606e-10
1.858008e-10
4.289623e-10
7.911297e-11
3.042320e-10
2.873772e-10
4.011036e-10
4.512427e-10
-1.552663e-10
4.597051e-10
3.326960e-10
5.765731e-10
3.251218e-10
5.057122e-10
5.549782e-10
6.596009e-10
3.684913e-10
3.877412e-10
9.144421e-10
-3.748967e-11
-1.238016e-10
7.265399e-10
-6.809785e-03
-1.789486e-03
-1.255843e-02
-4.390374e-03
-1.495992e-02
-7.029087e-03
-2.990101e-02
-1.881143e-02
-1.064725e-02
-5.324785e-02
-5.117072e-02
-3.607459e-02
2.107067e-02
3.270891e-02
5.933170e-02
3.034074e-02
3.446439e-02
1.055274e-02
-2.340055e-10
6.035538e-10
1.429810e-10
-5.650466e-10
-3.124494e-10
-4.504351e-10
-7.427925e-10
-9.827597e-10
-1.607616e-10
3.285779e-02
2.967896e-02
2.864057e-02
5.256752e-02
5.153939e-02
3.998748e-02
3.099355e-02
2.961951e-02
4.025218e-02
2.575075e-10
5.431688e-10
6.036991e-10
4.788684e-10
5.522841e-10
4.301797e-10
3.468318e-10
3.958864e-10
3.615212e-10
2.147263e-10
2.277198e-10
5.122744e-10
-5.913239e-11
4.739436e-10
1.972199e-10
7.654848e-10
1.012218e-09
-6.152918e-10
-3.169140e-10
-9.640092e-10
-3.918343e-10
-7.149759e-10
-6.735273e-10
-9.999261e-10
-7.478591e-10
-1.071949e-09
-4.097451e-10
-9.272377e-11
-1.257918e-10
-6.453322e-10
-7.008866e-10
-8.483905e-10
-8.766814e-10
1.502034e-10
-2.094974e-10
-3.017820e-10
-6.365007e-10
-3.377741e-10
-1.310217e-10
-5.913073e-10
-4.234093e-10
-2.847424e-10
-3.276563e-11
-1.106380e-09
-3.434954e-10
-1.715914e-10
-5.633553e-10
6.169260e-11
-6.803483e-11
-2.435628e-10
2.827927e-10
1.546926e-10
-6.496574e-10
-2.385491e-10
-8.166999e-10
-1.229594e-10
-5.353381e-10
-3.231519e-10
-7.532772e-10
-5.680091e-10
5.019532e-10
6.716812e-11
-3.772913e-10
2.131270e-11
-8.690885e-10
-4.402431e-10
1.898467e-10
-5.136183e-10
-3.415523e-10
-8.936497e-11
-4.856296e-10
-7.257207e-11
4.848360e-12
4.279528e-10
3.252105e-10
-5.673672e-10
-7.740545e-10
-5.955544e-10
2.093186e-11
5.184746e-11
-5.901600e-10
-8.465366e-10
-6.476671e-10
-5.985942e-10
-6.680049e-10
-5.027034e-10
-4.864327e-10
-1.430619e-10
-2.357457e-10
-1.449366e-11
-3.777012e-10
-9.791870e-10
-6.789291e-10
-6.250198e-10
-2.516304e-10
-1.003246e-09
-1.870942e-10
6.363123e-11
-5.247952e-10
2.420924e-10
5.298947e-10
-2.717266e-10
2.177950e-10
-2.579102e-10
-4.822481e-10
-2.584059e-10
-3.105822e-10
-7.733985e-10
-7.862352e-10
-6.294856e-11
-6.872140e-10
-3.078157e-10
-9.537283e-10
-2.748348e-10
2.646598e-10
3.824411e-11
-8.757025e-10
-1.021409e-09
-2.540374e-10
-9.791376e-11
-8.558085e-10
-6.602714e-10
3.412296e-11
-1.018698e-09
-1.021299e-10
-4.697841e-10
-3.784987e-10
2.345712e-10
2.374740e-11
-2.488547e-10
2.500101e-10
-9.269878e-10
-3.231940e-10
9.211264e-10
-4.099225e-11
-5.267456e-10
-5.348104e-10
-2.641455e-10
-2.722411e-10
-1.006176e-09
-3.376858e-10
8.491549e-11
-4.734939e-11
-5.487553e-10
-1.246077e-10
-3.797433e-10
-5.372229e-10
-4.260458e-10
3.588256e-10
-2.479954e-10
-2.814405e-10
2.553771e-10
1.577718e-10
