1.720121e-02
5.014296e-02
-4.161078e-02
-2.648968e-02
8.274003e-02
-1.220685e-01
-8.363372e-02
-2.192368e-02
-4.152378e-02
-4.943406e-02
-5.340575e-02
8.647364e-02
-6.691808e-02
-8.707432e-02
3.900712e-02
-5.615947e-02
4.499956e-02
1.350147e-01
3.110599e-03
-4.063035e-02
-5.793482e-02
-1.798925e-02
-7.193716e-02
-2.872857e-02
-3.508082e-02
-6.967147e-02
-5.208617e-02
-1.002378e-02
-7.190976e-02
-1.432424e-02
-3.726807e-02
3.159434e-02
1.328222e-01
1.492231e-02
3.905355e-02
2.543763e-02
-3.541573e-02
-9.152883e-03
-3.700770e-03
-3.100879e-02
1.041353e-02
2.260892e-02
1.896625e-02
2.481098e-02
-1.292186e-02
4.909571e-02
-1.034889e-01
-1.379379e-02
5.575820e-02
-1.097276e-01
-6.250268e-03
8.999759e-03
-1.346774e-01
-3.225905e-02
1.193406e-02
-6.269535e-02
2.035083e-02
1.731628e-02
-6.468771e-02
4.643550e-02
9.938951e-04
-5.699379e-02
2.296807e-02
-3.940812e-02
-6.898104e-02
-3.575420e-03
-2.797167e-02
-1.385831e-01
-2.679850e-02
6.283280e-02
-7.356465e-02
-8.252723e-02
4.412439e-02
-1.990624e-02
4.572905e-03
4.470467e-02
-8.167109e-03
6.007047e-02
-9.867781e-03
-1.276513e-03
2.215248e-02
1.273819e-02
-9.732036e-03
1.049674e-02
-2.926589e-02
-1.611842e-02
4.012004e-03
-5.511715e-03
-2.191665e-02
-5.515810e-02
4.101368e-02
6.418056e-03
-2.446827e-03
6.962685e-03
-9.906494e-03
-1.341504e-02
3.796830e-02
1.439197e-03
-9.607310e-03
-3.034111e-02
-2.502649e-02
-4.011163e-02
-2.251710e-02
-7.829898e-02
-9.970850e-02
-1.890556e-03
-2.104012e-02
-4.767420e-03
1.430838e-03
-1.815371e-02
7.203557e-02
-1.300938e-02
-3.098500e-02
3.713882e-02
3.657687e-03
-1.159773e-02
8.047109e-02
1.439690e-03
-4.587623e-02
9.679090e-03
-3.845361e-02
-7.112641e-02
-5.648213e-02
9.824949e-04
-2.413825e-02
-6.730305e-02
-1.858577e-02
-5.309698e-02
7.165877e-02
-1.617299e-04
1.339784e-01
7.639650e-03
-3.518609e-02
-3.259112e-02
-1.514761e-02
-5.750040e-02
-5.468350e-02
2.397814e-02
3.922563e-03
6.878437e-03
3.924554e-02
-2.052009e-03
-1.570924e-02
-7.763260e-03
2.483088e-02
-2.334168e-02
-1.107419e-02
2.123972e-02
-2.932581e-02
-4.449218e-02
2.983335e-02
1.850522e-02
-6.021236e-03
-1.205291e-02
-1.308799e-01
4.220641e-02
2.377315e-02
-9.287432e-02
1.816546e-02
-2.478368e-02
-4.021074e-02
5.618168e-02
-5.803623e-02
-1.006095e-02
-3.274977e-02
-4.335260e-02
2.310986e-03
7.514535e-03
-4.104853e-02
1.668899e-02
-2.601925e-02
-4.243453e-02
-4.986950e-02
3.350129e-02
-9.773858e-03
-1.134747e-01
5.605146e-02
2.648187e-03
-5.935425e-02
5.485542e-02
3.085513e-02
1.531502e-02
1.647908e-02
-2.297080e-02
-1.945030e-02
6.203151e-03
-2.892620e-03
-1.481626e-02
-1.550913e-02
-4.493625e-02
-1.266105e-01
1.467187e-02
-4.916755e-02
-1.348075e-01
2.072562e-02
-5.457186e-02
-1.342767e-01
2.347446e-02
-3.912166e-02
-4.028449e-02
-4.086430e-02
5.364435e-03
-2.559939e-02
1.006482e-03
-1.593997e-02
8.174590e-04
-6.341394e-03
7.234835e-02
-1.984550e-02
2.560905e-02
1.577359e-01
7.578637e-02
1.477217e-01
9.607674e-02
7.028560e-02
6.961659e-02
-2.568341e-02
-1.425941e-03
-2.064973e-02
1.253574e-02
-2.566665e-02
5.210776e-02
-6.937457e-04
-2.575112e-02
1.143890e-02
-4.884431e-03
-1.499942e-02
-3.975498e-03
2.152657e-02
1.376502e-02
-1.487593e-02
1.735707e-02
7.431725e-03
2.125956e-03
-1.721217e-02
-4.060646e-02
-1.256930e-02
-2.398259e-02
-3.888192e-02
-9.338377e-03
-3.783715e-02
-4.652066e-02
-7.062011e-03
-1.650240e-02
1.572056e-02
-4.512668e-02
-4.274146e-02
3.299624e-02
-3.444547e-02
-1.489229e-02
6.424652e-03
-2.026479e-02
4.979380e-02
-7.718323e-02
6.177263e-03
2.526354e-02
-8.843496e-02
-2.008166e-02
4.187576e-02
-6.256906e-02
-1.268843e-02
-2.076276e-02
9.084434e-03
1.947155e-03
-4.842742e-02
6.585014e-02
4.576556e-02
-1.928215e-02
2.502874e-02
6.608651e-02
4.422158e-03
-4.445306e-02
2.690256e-02
3.458546e-03
-4.039593e-02
4.158622e-03
1.457368e-02
-3.618822e-02
4.548673e-02
5.731230e-04
-3.897462e-02
4.741132e-02
-2.847652e-02
-7.533836e-02
2.396393e-02
-2.933217e-02
-5.894924e-02
-2.900624e-03
-9.573757e-04
2.524122e-02
-1.741269e-02
-7.347203e-03
5.057747e-02
3.283344e-02
-4.277140e-02
-1.983893e-02
-6.002564e-02
8.128347e-02
-3.868133e-02
2.331151e-03
2.757103e-02
-3.470568e-02
-7.258210e-02
-3.360897e-03
-5.458575e-02
-5.667116e-02
-2.464209e-02
-1.510014e-02
-2.581317e-02
-1.681894e-02
-5.502513e-03
-4.875177e-03
-3.855477e-03
9.152933e-03
4.882900e-03
4.092699e-02
2.653435e-02
5.703498e-02
-2.229377e-02
-6.555427e-02
6.083312e-03
-2.347488e-02
-4.944764e-02
-1.746130e-02
-2.290743e-02
-2.414885e-02
-1.524389e-02
-3.119338e-02
-3.462456e-02
-2.485289e-02
1.111970e-02
3.761246e-03
5.931756e-03
-1.382551e-02
-5.455010e-02
-4.043940e-02
-4.372392e-03
-4.816578e-02
-3.770748e-02
-6.830160e-03
-4.780519e-02
-3.892963e-02
4.517752e-02
7.019307e-03
-1.353453e-02
4.730890e-02
6.982841e-03
5.965759e-03
4.182740e-02
2.058573e-02
1.760887e-02
4.024463e-03
-1.275993e-02
2.456544e-02
-3.087984e-03
-3.353760e-04
2.240494e-02
-2.288474e-02
3.208420e-03
-1.434010e-02
-1.409886e-02
3.669950e-02
-5.048010e-04
-8.137844e-04
1.046720e-03
1.611873e-02
3.406177e-02
-1.665379e-02
-1.944037e-02
2.154602e-02
8.606415e-03
-6.407777e-03
2.863074e-02
1.672646e-02
1.169180e-02
-6.497732e-03
-1.620574e-02
-2.557165e-02
5.836690e-02
7.030383e-02
4.841046e-02
-3.309686e-02
-3.182666e-02
-3.411235e-02
2.674616e-02
4.400030e-02
4.947222e-02
-2.840579e-02
-1.559748e-02
-4.928124e-03
-2.228996e-03
-5.376870e-04
3.047033e-02
-2.646607e-02
-1.291500e-02
1.667940e-02
-5.824544e-03
-6.464090e-02
5.150130e-02
-8.412835e-02
-1.459411e-01
-1.937223e-02
-5.493271e-02
-1.057762e-01
2.384768e-02
1.716551e-02
8.195326e-03
6.224953e-03
4.627997e-02
6.678770e-02
3.471888e-02
3.038540e-02
-2.797715e-02
-4.625430e-03
9.095815e-03
-1.372816e-02
2.832525e-02
-2.466598e-02
4.772032e-02
4.747331e-02
-1.084798e-02
-3.236516e-02
-1.429550e-02
1.139225e-03
-1.497534e-02
3.985299e-02
-3.500348e-03
-1.468461e-02
3.118069e-02
1.870263e-02
-1.107207e-02
4.153331e-02
-7.537924e-03
-4.837638e-03
4.210566e-03
-2.560321e-03
3.580037e-03
4.579583e-03
-1.905575e-02
-1.569310e-02
-2.205195e-03
-1.174990e-02
-6.217579e-03
-1.377230e-03
-1.360048e-02
1.402976e-03
2.794561e-03
-6.068100e-03
-1.352032e-02
-4.139908e-03
-2.814205e-03
3.858345e-03
-3.552682e-03
-1.452868e-03
2.817353e-03
-3.421576e-03
-5.918453e-03
1.706523e-04
-5.339392e-03
-8.732097e-04
6.657922e-04
1.548868e-02
-1.571883e-02
-1.710159e-02
7.481088e-03
-2.507461e-02
-2.135933e-02
-8.314018e-03
2.043601e-03
6.664856e-03
3.888062e-03
-4.508476e-03
-2.351477e-03
1.226358e-04
-5.874311e-04
4.322520e-03
3.205270e-03
8.104312e-03
-3.959547e-02
3.351317e-02
1.112185e-02
-3.935455e-02
3.385036e-02
8.339187e-03
-3.935024e-02
3.216976e-02
7.203533e-03
-3.918561e-03
-8.035272e-04
1.687604e-02
-3.682476e-03
-2.832218e-03
1.074744e-02
-1.774977e-03
3.528595e-03
-1.134446e-03
-2.368804e-03
1.326576e-02
-4.492887e-03
-1.576845e-02
1.333831e-02
-6.675605e-03
-2.109449e-02
4.478521e-03
-2.582988e-03
-1.097530e-03
4.656818e-03
-5.082742e-03
2.798305e-03
-7.458515e-04
-5.237989e-03
-7.192384e-03
2.817423e-03
4.196259e-03
9.875991e-03
4.494247e-03
-1.214579e-02
-6.314361e-03
-7.515771e-03
5.043893e-03
8.929078e-03
5.481258e-03
-3.727805e-03
4.977276e-03
-2.794705e-03
-2.289848e-02
-1.086863e-02
-8.605124e-03
-1.309917e-02
-7.738716e-03
-5.696238e-03
-1.355673e-02
5.268052e-03
1.302948e-02
-3.109779e-03
1.849417e-02
1.175867e-02
-2.005217e-03
-9.489952e-03
-7.536311e-04
1.648316e-02
-3.014807e-02
4.045173e-02
2.354923e-02
-2.676247e-02
4.533375e-02
3.985706e-03
-4.364444e-02
2.467028e-02
-2.683243e-02
-4.673572e-03
-1.349847e-02
4.956025e-03
-7.980889e-03
-4.945024e-03
1.718727e-02
1.066816e-02
-1.205338e-02
6.712236e-03
-4.083448e-03
-9.073631e-03
-6.299867e-04
4.377521e-03
2.827551e-03
-7.775889e-03
-1.281794e-02
-3.742700e-05
-5.377471e-03
-2.604847e-02
7.413607e-03
-2.356799e-03
-2.388921e-02
1.075981e-02
-3.607974e-03
-2.063394e-02
1.011607e-02
1.288626e-02
2.956331e-03
-1.441376e-02
2.082585e-02
1.616725e-02
6.210064e-03
1.682420e-02
1.539581e-02
9.456265e-03
4.482575e-04
2.683042e-02
2.355880e-02
-2.456931e-02
-2.702441e-03
2.309479e-02
1.989522e-02
-1.995939e-02
1.306109e-02
6.474946e-03
8.307753e-03
8.451013e-03
4.556433e-03
1.080494e-02
7.156485e-03
2.505126e-03
1.402744e-02
1.321907e-02
4.090285e-02
2.858347e-02
-4.655334e-04
8.713653e-03
3.019110e-02
2.323070e-02
-2.443415e-02
6.823666e-03
8.573851e-03
-1.824519e-03
9.341751e-03
1.118248e-02
2.693241e-03
5.696654e-03
1.368442e-02
-7.102023e-03
-5.681188e-03
2.675245e-03
2.588973e-02
1.649611e-02
9.614600e-03
2.662756e-02
1.681977e-02
1.482434e-02
2.748022e-02
1.554632e-02
1.613777e-02
-8.957345e-03
1.263564e-02
5.992477e-03
-2.624800e-02
-4.108251e-03
-3.953986e-03
-2.860919e-02
-2.149675e-02
3.274086e-03
1.138161e-02
2.437223e-02
2.627470e-03
-2.548301e-02
1.025080e-02
-5.677340e-03
-2.336482e-02
-1.204068e-02
-1.188334e-04
1.355025e-03
7.178078e-03
1.396191e-02
1.407816e-02
-1.569041e-02
-1.971562e-02
1.277815e-02
5.401099e-03
-1.570548e-02
-1.324475e-02
-1.436365e-02
-1.744612e-02
-1.959492e-02
-1.920653e-02
-1.881621e-02
-2.726953e-02
-1.832338e-02
-1.059991e-02
1.813314e-02
1.828590e-03
-1.983949e-02
7.486277e-03
-3.756610e-04
-1.082254e-02
-3.612320e-03
-4.040972e-03
-1.295413e-02
3.273875e-02
4.042502e-02
-5.047580e-04
1.542382e-03
2.517737e-03
2.634750e-02
-3.108303e-02
-5.492931e-03
2.602801e-02
1.174308e-02
1.687971e-02
-2.932910e-03
2.882667e-02
2.963158e-02
1.699084e-02
2.132598e-02
3.028935e-02
1.705852e-02
1.284470e-02
2.828882e-03
8.359177e-02
-3.091912e-02
-5.397982e-02
2.145488e-02
-4.427667e-02
-4.854955e-02
-2.004300e-02
1.433635e-02
2.248957e-02
2.189239e-02
-7.613499e-03
1.998584e-02
2.263170e-02
-7.138332e-03
4.423815e-03
4.688322e-02
-2.093031e-03
-9.376611e-03
-8.732499e-03
3.311654e-04
1.305421e-03
-8.006544e-03
1.355213e-02
7.681154e-03
-1.429207e-03
-2.558742e-02
-1.939666e-02
-1.825333e-02
-1.936221e-02
2.438817e-04
-2.178302e-02
-2.185427e-02
1.273265e-02
8.140536e-03
-7.888403e-03
-1.320014e-03
-1.360876e-02
1.236161e-02
1.867210e-03
2.034599e-03
6.304299e-03
-5.869478e-03
7.742179e-03
1.099462e-02
4.321489e-03
7.990741e-03
6.541579e-03
5.417602e-03
9.722658e-03
5.363127e-03
5.265140e-03
9.557161e-03
-9.312897e-03
-1.803626e-02
-1.544400e-02
-1.783645e-02
-1.893913e-02
-2.320464e-02
-1.103217e-02
-8.316147e-03
-7.001687e-04
-9.790460e-03
6.400609e-04
-4.592183e-03
3.635224e-04
-1.571149e-03
3.679423e-03
1.700502e-03
1.017824e-02
3.190500e-03
4.069745e-03
3.536440e-02
-5.369010e-03
5.040273e-03
3.525727e-02
-2.749901e-03
4.718214e-04
3.338940e-02
-3.529061e-03
-1.775348e-03
5.077484e-03
-1.038812e-02
3.729796e-03
8.302926e-03
1.098247e-03
4.827867e-03
6.025129e-03
7.491575e-03
-1.891204e-03
1.593210e-02
-1.215354e-02
8.382803e-03
1.405075e-02
-1.215284e-02
-8.969749e-03
9.900754e-03
-2.451636e-02
2.864303e-02
2.664217e-03
-9.098924e-03
1.426048e-02
3.939869e-03
-1.562979e-02
1.653020e-03
-5.333929e-03
-2.454878e-02
1.089493e-02
1.054407e-02
7.910306e-03
7.344385e-03
1.456947e-03
4.579207e-03
-2.007994e-03
-5.131260e-03
-5.556107e-03
2.159019e-03
-1.233678e-02
-1.498374e-02
-1.069723e-02
-2.280537e-02
-2.392038e-02
-6.172136e-03
-1.093653e-02
-7.271546e-03
3.365044e-02
1.835299e-02
8.914522e-03
-9.241013e-03
1.934194e-02
7.143149e-04
-1.090949e-02
5.130044e-03
2.295442e-02
3.760227e-04
3.071017e-02
-2.859036e-02
1.141625e-03
2.888697e-02
-2.993953e-02
6.443359e-03
3.731286e-02
-2.190616e-02
-3.112799e-03
-6.544276e-03
-3.840990e-03
-3.631027e-03
-2.405104e-03
3.086139e-03
-1.323147e-02
-9.023879e-03
-2.341989e-03
2.224248e-04
2.285622e-03
2.820223e-03
1.383533e-02
7.623539e-03
-1.997134e-03
-2.109242e-02
-5.955728e-03
-6.162277e-03
2.497910e-02
2.328167e-02
1.069180e-02
2.506323e-02
1.765748e-02
1.337934e-02
1.650485e-02
1.060739e-02
3.994931e-03
8.538658e-03
4.299435e-03
6.616577e-03
7.208792e-04
-1.748770e-02
-2.147055e-03
3.052603e-03
-1.106384e-02
-3.201642e-03
8.967307e-03
-4.947265e-03
3.515658e-03
7.693781e-03
-8.916824e-04
8.397645e-03
7.518115e-03
-1.031563e-02
-1.529020e-03
2.097952e-02
6.465428e-03
1.131137e-03
1.820642e-02
6.827112e-03
2.136347e-03
1.342471e-02
1.169894e-03
-1.205122e-03
-1.021199e-02
-1.488058e-02
-5.773783e-03
6.003168e-03
4.167530e-03
3.423522e-03
-1.575681e-02
-2.039650e-02
-1.197351e-02
9.193519e-04
1.723662e-03
1.505186e-03
-5.759937e-04
2.578461e-04
4.553208e-04
-1.346869e-02
-1.137669e-02
-1.343520e-02
3.094535e-02
1.863859e-02
-1.809212e-02
3.307869e-02
1.391115e-02
-1.725283e-02
3.438504e-02
1.585037e-02
-1.327113e-02
5.546554e-03
1.285771e-02
3.724093e-03
7.838422e-03
1.429345e-02
8.672009e-03
5.957938e-03
1.369635e-02
7.692277e-03
1.913751e-02
1.260106e-02
-1.583507e-02
1.982364e-02
6.445623e-03
-7.707815e-03
1.945424e-02
3.268646e-03
-1.131995e-02
9.386787e-03
9.136317e-03
1.049070e-03
1.628019e-02
1.828631e-02
1.176842e-02
1.516503e-02
2.299235e-02
1.774413e-02
-1.154980e-02
-1.282009e-02
-1.367837e-02
-1.332533e-03
-6.722728e-03
-5.873946e-03
-1.446721e-02
-1.802523e-02
-2.015541e-02
1.450257e-02
1.685821e-02
1.792970e-02
2.478322e-02
3.003407e-02
2.718791e-02
-3.617019e-03
-1.802381e-03
-6.698338e-03
9.774285e-03
2.276925e-02
2.473492e-02
7.708448e-03
1.239072e-02
9.204361e-03
-4.927291e-03
1.900908e-03
1.849047e-03
4.509084e-03
2.784594e-02
1.033113e-02
7.589655e-03
2.122457e-02
1.571359e-02
-1.908732e-02
-4.588522e-03
-1.164661e-02
7.901596e-03
1.425000e-02
1.136663e-02
1.140132e-03
6.126635e-03
4.852304e-03
2.933735e-03
7.154390e-03
5.273068e-03
-8.556446e-04
-1.173264e-02
-2.088652e-02
-4.445860e-03
-1.615886e-02
-4.711610e-03
-6.008216e-03
-2.111576e-02
-2.771828e-02
1.304835e-03
2.190870e-03
-1.139094e-02
5.199975e-03
2.461473e-03
-5.790240e-03
2.441412e-03
5.477368e-04
-5.154034e-03
2.755153e-02
4.916089e-02
5.465809e-03
-7.048998e-02
7.879896e-02
-5.552057e-02
7.210895e-03
-3.833246e-02
-2.766524e-03
-2.023696e-02
-6.012706e-02
6.485652e-03
-1.351122e-02
3.978125e-02
-5.458345e-02
-5.712214e-02
-3.937831e-02
-2.094137e-03
-6.655317e-03
-1.887931e-02
-7.766624e-03
4.276627e-03
-2.670716e-03
-1.418335e-03
2.116056e-03
-2.027904e-03
-2.921138e-02
-8.597870e-03
1.317337e-02
2.957070e-02
-3.002986e-03
-8.953329e-02
7.758468e-02
9.450412e-03
4.724285e-02
4.359099e-03
-2.038850e-02
-2.702438e-02
-9.850330e-04
-2.671838e-02
-2.635507e-02
-2.128229e-02
-2.219762e-02
1.940349e-02
-4.113700e-02
4.497722e-02
3.480388e-04
-7.664484e-03
5.824613e-02
1.469361e-02
-4.837386e-03
4.517435e-02
3.170445e-03
-1.010992e-02
1.792997e-02
-3.041456e-02
-3.542650e-02
6.242963e-03
-2.855175e-02
-2.508578e-02
-1.808768e-02
-3.079784e-02
-3.856484e-02
-2.307255e-02
-2.691564e-02
6.463564e-03
1.287642e-02
-3.899808e-03
-2.914705e-02
-5.963021e-03
-1.852873e-02
-5.387136e-02
-5.018712e-02
-4.042740e-02
4.760136e-03
6.770009e-03
-3.233021e-02
5.300343e-02
2.840667e-02
7.448529e-03
-2.755897e-02
4.080715e-02
-4.884828e-03
2.404672e-02
2.518157e-02
-8.609443e-03
-3.519762e-02
-4.717725e-03
9.185622e-03
-2.008953e-02
-1.934862e-02
1.514164e-02
4.194414e-02
-1.538597e-02
-2.061147e-02
-8.089113e-03
-1.530656e-02
2.414741e-02
1.744617e-02
1.606999e-02
7.681146e-02
-4.659610e-02
4.975168e-02
2.860361e-02
6.448945e-02
-3.061307e-02
4.320680e-02
7.608728e-02
-7.724688e-03
-6.904145e-02
1.077684e-01
-5.341445e-02
-1.106139e-01
3.429254e-02
-5.081570e-03
-7.013232e-02
7.641582e-02
3.562531e-03
-4.834094e-04
3.069712e-03
6.470216e-02
5.804042e-02
-1.832770e-03
8.901796e-02
3.576473e-02
3.807373e-02
8.924832e-02
3.427993e-03
-4.277809e-03
-9.327101e-02
1.457608e-01
-2.431181e-02
9.880060e-02
-7.160811e-02
1.949485e-02
-3.224868e-02
-4.139553e-02
4.385820e-03
-2.521644e-02
-3.328725e-02
2.054378e-02
-3.553786e-03
-4.024114e-02
4.765664e-05
-3.211081e-04
-5.533931e-03
-2.553269e-02
2.040093e-02
1.742048e-03
2.655528e-02
-1.205951e-02
6.426083e-02
3.244818e-02
-9.087574e-03
-5.982939e-02
-4.937149e-02
2.230224e-02
1.810990e-02
1.509206e-02
3.649351e-02
8.155239e-03
-1.040135e-02
2.253081e-02
-1.399601e-02
-1.118695e-02
1.302968e-02
1.395766e-02
2.738408e-03
-2.657114e-03
1.739783e-03
2.268128e-02
-1.961296e-02
1.189305e-02
8.219113e-03
-3.290708e-02
-2.923730e-02
-8.230527e-02
-1.524803e-02
4.289459e-03
-8.292713e-03
-1.430681e-02
-4.931106e-03
9.484517e-03
-1.237116e-02
-2.889688e-03
1.547607e-02
-9.364083e-03
-7.101249e-03
-4.373451e-03
1.768397e-02
4.424010e-02
-1.773411e-02
-4.251233e-03
3.744303e-02
-1.825676e-02
-1.386187e-02
2.473175e-02
-1.663765e-02
2.066050e-02
8.525567e-03
1.662537e-03
8.792206e-03
5.390844e-03
7.938967e-03
1.446051e-02
1.298570e-02
4.704257e-02
-2.040922e-02
-6.975890e-02
-2.644563e-02
-6.471073e-02
-8.037857e-02
-1.399397e-03
-7.862099e-02
-4.522754e-02
-7.845545e-03
-6.138020e-02
-5.600906e-02
-2.461400e-02
-8.251045e-02
-7.191897e-02
-1.192669e-01
-3.528145e-02
-8.318201e-02
-9.442864e-02
1.076052e-02
4.701771e-03
-1.025226e-02
9.273510e-04
-6.839502e-03
4.030909e-03
-4.279019e-02
-2.683708e-02
3.679635e-03
3.166347e-02
4.252235e-02
4.298171e-02
4.588592e-02
3.839802e-02
2.012518e-02
7.061299e-03
3.944196e-03
3.342799e-03
-5.542182e-02
-6.612460e-02
-6.529883e-02
-8.629519e-02
-1.508946e-01
-1.502796e-01
-1.098378e-02
-9.730136e-02
-1.208764e-01
1.866694e-02
2.375639e-02
-1.537680e-02
-3.983208e-02
-2.631977e-02
-3.710724e-02
-8.560515e-03
1.492886e-02
1.079124e-02
-3.260392e-02
-1.227682e-02
-4.460248e-02
-1.062668e-01
-8.471713e-02
-7.118171e-02
-8.678224e-02
-1.347145e-01
-8.528966e-02
1.409136e-02
4.320873e-03
-6.799816e-02
2.778276e-02
2.151034e-02
1.060724e-04
1.976000e-02
-3.694315e-02
-1.796721e-02
5.826522e-02
-1.639210e-02
-2.892584e-02
3.278241e-02
-2.039706e-03
4.457642e-03
-1.540884e-02
1.060903e-02
2.867131e-02
7.961577e-10
-3.248271e-11
1.388021e-09
4.829379e-10
2.717020e-10
5.062332e-12
3.444096e-10
3.437646e-10
8.786465e-10
-1.559242e-10
-1.078328e-09
-1.049816e-09
-4.168143e-10
-2.566521e-09
-2.133940e-09
-1.619664e-10
-7.245041e-10
-5.356875e-10
-1.193082e-10
1.264004e-09
8.948840e-10
1.593644e-10
1.264421e-09
7.170735e-10
-3.885282e-10
6.297010e-10
2.102622e-10
-7.441552e-10
3.074766e-09
-4.063773e-10
-2.749406e-09
-2.049471e-09
9.768484e-10
-3.131586e-09
-4.908763e-12
-5.287446e-09
2.565148e-10
-5.223486e-10
-7.653487e-10
1.596067e-12
-3.204277e-10
-6.320781e-10
-8.862332e-10
-3.323399e-10
-3.191652e-10
5.861111e-10
1.447357e-09
3.348932e-10
2.008971e-10
1.000998e-09
3.529457e-10
6.975503e-10
-6.721475e-11
3.637075e-10
2.957032e-10
4.364334e-10
-3.637343e-10
3.198899e-10
5.713662e-10
2.812703e-10
5.189144e-10
6.422942e-10
-3.858258e-11
2.468524e-10
2.574423e-09
1.689261e-09
9.182854e-10
2.913181e-09
2.168735e-10
4.825784e-10
3.596605e-10
1.558162e-09
-1.084472e-09
-1.807872e-11
-3.440413e-10
4.621049e-11
-7.369825e-10
-4.403068e-10
-8.210040e-10
-1.001102e-10
-5.691745e-10
-8.159043e-11
-1.006925e-09
-5.583457e-10
1.358862e-10
-5.758978e-10
-1.218161e-09
-3.969831e-10
-7.634054e-10
-2.296646e-10
-1.196312e-09
-8.510865e-10
-1.640034e-10
-3.379889e-10
-1.221753e-09
-1.505350e-09
-1.714724e-09
-1.035801e-09
5.011969e-10
7.992594e-10
9.304062e-10
2.851529e-10
9.515028e-11
3.166733e-10
1.317944e-09
5.611369e-10
-3.092168e-10
1.754869e-10
6.803966e-10
4.193112e-11
3.094147e-10
1.431223e-10
8.653127e-10
-7.151432e-11
1.106982e-09
2.749645e-10
-2.542107e-10
-3.606092e-10
1.805186e-11
-1.436898e-10
-5.181646e-10
1.011160e-12
-4.503541e-10
-3.335679e-10
-1.621676e-11
2.818674e-10
1.118776e-09
-4.718684e-10
5.206690e-10
7.856769e-10
-8.572687e-11
-1.173323e-10
1.819620e-09
1.564241e-09
5.097898e-10
2.320828e-10
5.724665e-10
1.653978e-10
-4.028267e-10
3.368741e-10
-4.138928e-10
-2.035654e-10
4.056549e-11
5.787700e-10
6.710026e-03
-1.519545e-03
-1.001989e-02
-5.303543e-02
1.097329e-02
-1.029789e-02
-8.417644e-02
-9.698273e-03
6.983715e-03
-6.021945e-02
-1.450689e-02
4.330305e-02
-7.123418e-02
-8.947857e-03
9.724271e-02
-2.805252e-02
1.198464e-02
6.871138e-02
5.169835e-05
-3.225827e-03
-1.766947e-04
6.040487e-03
4.913036e-05
1.119696e-02
1.196795e-02
-5.550752e-03
1.704431e-03
5.818466e-03
6.722683e-02
5.981654e-02
-7.427583e-03
5.906647e-02
6.781118e-02
-3.176544e-02
1.130033e-02
3.983780e-02
-1.097202e-03
-3.914915e-03
4.005451e-03
2.039403e-02
4.369110e-03
1.538040e-03
-1.256718e-04
-6.580801e-03
-1.020072e-02
-4.910051e-03
-1.945117e-03
5.381112e-03
-4.240446e-04
-5.135684e-03
6.259216e-03
-2.083727e-03
-5.270945e-03
4.310226e-04
-1.783399e-02
1.405223e-02
1.487011e-02
-5.520150e-03
1.225190e-03
1.041628e-02
-3.702230e-03
1.039376e-02
2.193182e-03
2.942564e-02
1.912879e-02
7.616635e-03
3.571004e-02
-1.533871e-03
3.364332e-02
2.607400e-02
1.799991e-02
3.864098e-02
-1.985814e-02
6.586620e-03
1.391899e-02
-1.147914e-02
1.624298e-02
5.024925e-02
2.585099e-03
1.500317e-02
1.499971e-02
-1.972090e-02
4.381342e-03
-1.953262e-02
7.929948e-04
-1.119289e-02
-1.133407e-03
-6.876871e-03
5.194308e-03
-6.436279e-03
4.282165e-03
1.161693e-02
4.066589e-03
8.248366e-03
8.628044e-03
1.251228e-04
4.234785e-03
7.593228e-03
2.307541e-03
3.179648e-02
2.838555e-02
2.654088e-02
4.663314e-02
2.920258e-02
4.484662e-02
-1.293162e-02
1.015084e-02
4.670159e-02
1.142372e-02
2.025283e-02
3.164337e-02
1.097959e-02
2.224627e-02
2.664320e-02
4.860410e-03
1.739516e-02
2.010024e-02
1.713999e-02
-2.257052e-03
-7.043577e-03
4.961296e-03
9.373358e-03
-2.309463e-03
1.808743e-02
2.348071e-02
2.284249e-03
1.279329e-02
2.768990e-03
1.824660e-02
3.179781e-03
-1.048089e-02
-2.314836e-02
3.172233e-02
1.315485e-02
-1.453728e-02
1.623443e-02
1.965393e-02
-2.604724e-02
2.259759e-02
2.080034e-02
-2.812680e-02
1.570882e-02
9.165379e-03
-4.613608e-02
-1.341998e-03
-2.703872e-02
3.642960e-02
1.460929e-02
3.869667e-02
-4.869996e-02
-4.149296e-03
2.370732e-02
-9.075758e-02
-1.516628e-02
-4.695928e-02
3.182452e-02
-2.169734e-02
-5.537448e-02
-6.561820e-02
-1.251450e-02
-5.411718e-03
9.118224e-03
-1.041448e-02
-1.441265e-02
3.488320e-04
-4.743098e-03
-2.112694e-02
1.516065e-02
1.595780e-03
-2.599065e-02
-2.389005e-02
4.639619e-02
4.221284e-02
2.476148e-02
-3.544741e-02
-5.899123e-02
1.143424e-01
1.469486e-02
-2.222608e-02
-1.162532e-02
-4.147523e-02
1.968197e-03
-2.417256e-02
-4.401941e-02
-7.561807e-02
-3.870836e-02
-5.921026e-03
-7.201796e-03
-9.281020e-02
3.092002e-02
-3.052513e-02
-2.742987e-02
4.313054e-02
-2.890858e-02
-2.382183e-02
2.529916e-02
-3.222683e-02
-4.032177e-02
-2.985715e-02
-4.739117e-02
2.346891e-02
-1.828243e-03
-3.623434e-02
1.108660e-02
1.765375e-02
3.370485e-02
2.608741e-02
-1.779647e-02
-1.798770e-03
-3.131615e-02
1.166171e-02
-1.042745e-02
3.778849e-03
1.087389e-02
4.788897e-02
4.662085e-02
5.975611e-02
6.135209e-02
4.955187e-02
-1.242334e-02
-3.132911e-02
2.352329e-02
-1.668294e-02
-2.140710e-02
2.585217e-03
-4.256680e-02
-4.719187e-02
-3.095472e-02
-2.408141e-02
1.885525e-03
3.117881e-02
-9.397229e-03
-2.219965e-02
-3.769368e-02
1.258584e-01
7.089249e-02
5.263060e-02
7.720213e-02
5.126698e-02
3.264824e-02
-1.041788e-02
-6.648543e-05
-5.098240e-02
4.350501e-02
5.479628e-03
-2.408055e-02
-4.585469e-03
1.398057e-02
-8.188449e-03
-8.897233e-03
4.317810e-02
5.023515e-02
3.237941e-02
2.891826e-02
9.122986e-02
1.380412e-03
-3.325349e-03
3.744505e-02
-2.086426e-02
-5.201964e-03
2.093849e-03
-1.477463e-02
2.636032e-02
3.839009e-02
2.168505e-02
6.245253e-02
3.891863e-02
7.499681e-02
2.114728e-02
-2.410463e-02
3.692476e-02
-1.176207e-01
8.596119e-03
4.416484e-02
1.081669e-01
-2.069905e-02
-7.253482e-02
-3.439964e-02
2.321337e-02
1.555981e-02
5.576949e-02
6.727292e-02
-1.439396e-02
1.877532e-02
5.019194e-02
-4.148146e-03
2.082094e-02
4.360205e-02
6.852556e-02
4.488695e-03
6.792171e-02
3.542330e-02
9.208176e-02
5.033321e-02
-3.932049e-02
-4.785154e-03
-5.833956e-02
3.023376e-02
2.529452e-02
4.420700e-02
-2.798779e-02
-1.641120e-02
-5.834199e-03
8.793132e-03
-5.114223e-02
-2.387745e-02
2.056064e-02
3.280474e-02
1.498058e-02
2.325637e-02
3.384056e-02
1.554292e-02
-1.451011e-04
6.186641e-03
-1.452770e-02
2.695914e-02
4.697761e-03
-5.371313e-02
-7.153705e-03
-9.756501e-02
-3.751836e-02
-4.182830e-03
3.131920e-02
3.320488e-02
-6.930901e-02
3.038257e-03
-2.026284e-02
-6.790234e-02
-4.986777e-02
-4.251561e-02
-8.015362e-02
-3.368541e-02
-8.874326e-02
-1.690830e-02
3.053455e-02
4.303331e-03
-9.685221e-04
2.850904e-02
-8.443375e-03
-1.545039e-02
2.869362e-02
-2.148446e-02
1.883089e-02
-2.277278e-02
-8.548676e-02
-2.313544e-03
7.845228e-03
1.149722e-04
-1.711410e-02
2.911541e-03
9.854884e-03
-1.015460e-02
3.102650e-02
3.327784e-02
2.112381e-03
-1.300558e-02
-2.322266e-02
3.039058e-02
-5.314365e-03
-3.725933e-02
-4.522303e-02
7.389230e-02
3.583403e-02
-8.511500e-02
-2.474065e-02
3.948260e-02
7.193057e-02
8.386635e-03
1.778518e-02
-5.482509e-02
-6.805846e-02
-8.863980e-02
-3.032967e-02
-3.379215e-02
2.351914e-02
-9.628440e-02
-4.588806e-02
-1.135660e-01
-4.008759e-03
3.066330e-02
5.423172e-02
-1.229567e-01
-7.036746e-02
-4.299429e-02
-4.927402e-02
-1.460300e-02
-1.434961e-02
7.722725e-03
-4.279225e-02
6.160511e-02
1.686077e-03
5.416817e-02
4.897915e-02
4.944774e-03
3.444384e-02
-2.166270e-02
-5.211894e-03
-5.088008e-03
2.020140e-02
-1.066753e-01
-9.163897e-02
-7.726362e-02
2.234113e-02
1.718061e-02
2.958274e-02
-6.276383e-02
-1.722725e-02
4.907463e-02
3.598767e-02
-3.366648e-02
-4.032322e-02
2.325960e-02
-4.152006e-02
-7.338040e-02
1.033983e-02
-2.157466e-01
-7.090762e-02
2.618689e-02
8.071423e-02
7.793381e-02
4.574361e-02
8.783519e-03
-6.268728e-03
-3.829530e-03
-2.987226e-02
-3.986432e-02
3.149839e-02
1.461385e-02
8.396690e-03
5.367717e-02
5.623555e-03
3.772958e-02
7.241333e-06
2.903200e-05
3.563957e-05
-6.846698e-05
-6.466713e-05
1.335249e-04
-1.183098e-05
-5.259385e-05
8.980633e-05
2.514344e-05
2.914932e-05
9.382789e-05
-1.738687e-05
1.456896e-04
1.916745e-05
-2.211841e-05
2.086123e-05
1.072363e-05
9.015297e-05
1.738024e-05
3.667388e-05
1.004043e-04
3.054615e-05
4.442516e-05
1.246047e-04
5.032169e-05
4.921018e-05
-2.762750e-05
-1.636780e-05
-6.424593e-05
2.850391e-05
-4.950045e-05
-8.591178e-05
2.998644e-05
-4.145611e-05
-1.711096e-04
7.924698e-05
6.994844e-05
6.689155e-05
7.510169e-05
6.980313e-05
7.299046e-05
8.024892e-05
8.124248e-05
7.052062e-05
8.156554e-05
6.953297e-05
-1.135513e-06
1.039881e-04
9.335784e-05
3.067723e-05
1.275768e-04
1.109204e-04
2.575463e-05
5.673970e-05
-1.702341e-05
-5.559297e-05
6.015154e-05
-3.592870e-05
-5.476410e-05
5.314187e-05
-3.818957e-05
-7.610841e-05
3.829190e-05
2.351989e-05
-7.894646e-05
4.833129e-05
1.579080e-05
-8.527417e-05
2.031966e-05
1.324138e-05
-7.001570e-05
-7.008081e-06
-3.484612e-05
6.469969e-05
-2.518150e-05
1.011483e-05
1.981908e-05
5.056213e-06
-6.977936e-05
1.960608e-05
1.117402e-04
1.188825e-04
1.378517e-04
4.156559e-05
4.685694e-05
6.257179e-05
1.071014e-04
1.069725e-04
1.214495e-04
4.685319e-05
9.716293e-06
-1.233293e-05
9.275548e-05
4.321410e-05
4.275427e-05
2.945447e-05
1.541334e-05
2.710544e-05
1.137276e-04
4.532048e-05
1.033720e-05
5.898955e-05
4.433897e-05
-1.104259e-05
5.137427e-05
4.092297e-05
4.398419e-05
2.483406e-04
1.150683e-04
-4.496082e-05
3.053585e-04
1.471839e-04
-1.300825e-05
2.713122e-04
1.128272e-04
-4.676132e-05
1.436907e-04
5.599327e-05
-1.236340e-05
5.987536e-05
-3.031530e-06
9.639550e-06
1.058384e-04
-2.352064e-05
3.902555e-06
4.073222e-06
-3.185340e-06
-9.610062e-05
-5.195388e-05
4.286036e-05
-1.096746e-04
-1.632352e-04
-1.858815e-04
-1.527267e-04
6.025462e-05
-1.824202e-05
2.800779e-06
4.892612e-05
-2.214136e-05
-8.012615e-06
4.322901e-05
-3.441380e-05
-2.044029e-05
-8.571080e-03
-8.117918e-03
4.837332e-03
6.117539e-03
-3.049291e-02
3.838538e-02
5.618985e-03
-6.625016e-03
6.713756e-02
-4.152407e-02
-6.022824e-03
1.515633e-02
-1.782263e-02
3.297905e-02
3.455525e-02
1.222107e-02
1.480596e-02
1.595222e-02
-2.259224e-02
-2.001947e-02
2.899619e-02
-2.163075e-02
-1.559535e-02
2.454575e-02
-6.869351e-03
1.810426e-02
3.587633e-02
-8.379287e-03
7.252162e-03
-1.428774e-02
1.335886e-02
2.329763e-02
-3.845408e-02
7.998668e-03
1.880179e-02
-8.584095e-03
2.124611e-02
1.718202e-02
1.921520e-02
1.629385e-02
-3.001662e-03
-1.108757e-03
-6.435588e-03
-4.013336e-03
4.822655e-03
-4.665373e-02
1.825970e-02
5.423795e-02
-6.221310e-02
1.822036e-02
4.860654e-02
-5.478762e-02
1.870706e-02
5.044681e-02
-4.016256e-02
4.741831e-04
5.863531e-03
-3.496807e-02
1.550179e-02
1.446457e-02
-2.942003e-02
1.587423e-02
-8.805163e-04
-2.084791e-02
3.156170e-02
-3.191984e-03
-6.745677e-03
6.676559e-02
1.871970e-02
-3.084716e-02
4.782747e-02
4.179429e-02
-9.192647e-04
-3.361192e-02
-1.336954e-02
5.356115e-03
3.307067e-02
-2.974482e-04
-3.828705e-02
8.577673e-03
1.934306e-02
1.955841e-03
1.005511e-02
1.309310e-02
-5.630083e-02
-5.134855e-02
-5.818979e-02
-7.170373e-03
2.936729e-04
-6.969953e-03
-4.013430e-02
-3.619251e-02
-4.400802e-02
2.076909e-02
7.464029e-03
-2.369732e-03
-4.242909e-03
6.461738e-04
5.831232e-04
-3.224362e-02
-1.675977e-02
-1.898544e-02
-1.397159e-02
1.525300e-02
1.379844e-02
-1.871194e-02
-4.708121e-02
-2.548147e-03
-5.401200e-02
1.273540e-03
-9.491353e-02
3.515165e-02
8.906488e-02
-1.065637e-02
-2.637618e-03
5.179538e-02
-4.084083e-02
9.410114e-04
1.793448e-02
-7.895759e-03
9.464826e-03
6.497732e-02
3.465109e-02
1.043044e-02
5.774109e-02
6.330132e-02
-2.879254e-02
2.543091e-02
-6.148785e-03
-1.360657e-02
-2.433897e-02
-4.376090e-02
-1.198960e-02
3.326629e-02
3.002756e-02
-1.394619e-02
2.742932e-02
-3.343251e-03
3.582500e-02
7.036333e-02
3.713254e-02
3.217646e-02
5.549523e-02
3.080650e-02
-4.327903e-03
-2.272214e-02
-3.504352e-02
-2.807692e-02
-2.472007e-02
-1.157866e-02
4.380389e-02
-7.161967e-03
6.984315e-03
4.642526e-02
-7.681838e-03
-4.067481e-02
6.735987e-02
2.164529e-02
-6.018266e-04
1.375963e-02
-6.119100e-03
-7.124844e-03
2.530682e-03
-3.584569e-03
-1.744421e-02
-6.136216e-03
-2.113645e-02
-3.607520e-02
-1.956317e-03
-5.468898e-04
-2.782478e-02
-3.841811e-03
-1.249982e-02
-4.197110e-02
2.966803e-02
-3.536124e-03
-6.215982e-02
5.616298e-02
3.836556e-02
-6.788493e-03
-1.146100e-02
-1.696825e-02
-1.865160e-02
1.306964e-02
1.098845e-02
-5.781821e-03
-1.111153e-03
-4.384200e-03
-3.311337e-03
2.857729e-03
2.315603e-03
-2.813090e-02
2.938006e-03
-3.173868e-04
-2.486994e-02
5.361063e-03
-1.667536e-03
-2.991242e-02
4.373811e-03
1.935685e-02
-1.069614e-02
5.958268e-03
7.852000e-04
-1.442172e-02
-4.191114e-03
-2.247582e-02
-3.959668e-02
1.482434e-04
-1.871862e-03
-1.358936e-04
1.343120e-02
-2.041921e-02
2.417254e-02
-1.305676e-02
-1.440891e-02
-2.449711e-02
2.904375e-02
2.650744e-02
-4.169333e-02
3.422946e-02
3.056436e-02
3.750874e-02
-4.811805e-03
1.119824e-02
2.530765e-02
-9.144931e-03
-6.060926e-03
-1.475156e-03
-9.298693e-03
-1.735685e-02
-3.505955e-02
2.406940e-02
1.285996e-02
7.641110e-03
-2.794408e-02
8.735747e-03
4.107669e-03
3.456659e-03
1.811387e-02
4.498044e-03
1.271086e-02
3.012842e-02
3.158007e-02
5.240361e-03
-1.315196e-02
-1.307741e-02
5.461183e-03
2.591391e-02
3.702032e-02
6.059227e-03
1.245984e-02
6.789219e-02
-5.779373e-03
-9.079826e-02
-3.204421e-02
1.981793e-02
-6.516990e-02
4.098399e-03
1.366521e-02
-7.525699e-02
-1.063901e-02
7.867223e-04
-3.112800e-03
-3.371568e-02
2.063576e-02
1.289304e-02
-2.366229e-02
3.119033e-02
3.090964e-02
8.477977e-03
1.221025e-02
5.157535e-02
1.748281e-02
-1.871200e-02
-2.111885e-02
1.368806e-02
1.859632e-02
-7.544816e-03
-1.207006e-02
1.059364e-02
-1.575845e-02
-1.320278e-02
2.921736e-02
-3.664982e-03
-3.286385e-03
2.009799e-02
-2.624876e-02
-3.015254e-02
