7.269406e-02
7.041653e-02
9.255803e-02
3.303511e-04
-1.561665e-01
2.117190e-02
-1.020384e-01
3.686734e-03
-6.819905e-02
5.138810e-03
-1.164987e-01
-1.036436e-02
5.215929e-02
-1.446356e-01
5.873794e-02
5.739589e-02
2.050407e-01
1.980885e-02
-7.220962e-02
-1.431587e-01
-7.753581e-02
4.645532e-03
-1.024504e-01
7.646808e-02
-6.203859e-03
1.093001e-01
4.697359e-02
-1.959300e-02
-4.057162e-02
3.201411e-02
-1.286462e-01
-2.142334e-01
-7.152499e-02
-5.533526e-02
-1.561806e-01
-5.314075e-02
-9.541170e-04
3.948688e-02
1.184827e-02
-1.206651e-02
6.265957e-04
-1.125867e-03
2.638600e-02
-6.940319e-03
-3.644192e-04
1.264772e-02
8.146926e-02
-9.777375e-03
5.314997e-02
1.367836e-01
3.702388e-02
4.853462e-02
8.138710e-02
1.883234e-02
-8.212840e-03
-2.234180e-04
3.617307e-02
-5.429728e-02
-6.440192e-02
-3.049978e-02
-4.724040e-02
-4.104286e-02
-3.094446e-02
-9.716637e-03
3.447816e-02
7.898254e-03
9.775170e-03
7.936226e-02
1.089804e-02
-1.148231e-02
2.715789e-02
-2.756327e-02
-2.852105e-02
5.224991e-02
-2.540619e-02
7.305108e-02
1.802581e-01
5.257220e-02
3.522398e-02
1.064383e-01
1.872751e-03
8.632370e-02
2.042975e-01
3.927431e-02
1.513939e-02
-1.974989e-02
-2.303745e-02
-6.106097e-02
-1.375880e-01
-2.308742e-02
-4.033041e-02
4.600108e-02
-1.224155e-02
-3.692099e-02
-9.596524e-02
-3.844600e-02
9.788442e-03
-8.440943e-02
1.326752e-02
-9.046952e-02
-3.020241e-02
-1.407663e-02
3.039260e-03
1.160465e-02
3.982634e-02
5.567411e-02
6.270365e-02
7.784400e-02
3.234092e-02
-4.441846e-04
3.177148e-02
1.786837e-01
-3.266259e-02
-1.293248e-01
2.438488e-02
5.122641e-02
-1.605751e-02
-4.375318e-02
-9.577321e-02
-4.806262e-04
5.568971e-02
-1.868255e-01
-1.795745e-01
-2.278095e-02
-2.427098e-02
-2.667648e-02
3.862438e-02
8.212364e-02
6.355976e-02
1.259314e-01
3.110187e-02
-3.935574e-02
-5.200541e-03
5.038399e-02
2.485507e-02
4.735528e-02
1.278098e-02
1.097346e-02
3.547300e-02
2.484030e-02
4.273440e-02
4.591606e-02
2.126234e-02
3.361838e-02
7.430508e-02
5.208167e-02
7.130675e-03
6.249389e-02
3.622708e-02
6.573181e-03
3.157042e-02
-2.390755e-02
-3.387538e-02
2.293837e-02
1.617559e-02
1.498824e-02
-7.872293e-03
-4.722939e-02
-2.188450e-02
1.457707e-02
-5.866173e-02
-4.240732e-02
1.144206e-02
1.424840e-01
1.062947e-01
-4.091081e-02
4.709585e-02
5.110638e-02
-8.411461e-02
-8.298492e-02
-5.333926e-03
-1.591795e-02
1.299386e-01
1.217387e-01
-5.504777e-02
3.301459e-02
6.511243e-02
-5.488259e-02
-6.048265e-02
2.173544e-02
-2.727575e-02
-1.910102e-02
6.424285e-03
-4.321598e-02
-6.057529e-02
-1.645835e-02
-1.311121e-02
-4.234626e-02
3.064883e-02
5.251532e-02
2.725649e-02
6.525075e-02
-1.384206e-02
-1.334127e-01
-2.204423e-03
5.053540e-02
7.557870e-03
2.783324e-02
-6.630986e-04
-1.317752e-01
1.512308e-03
-8.596132e-02
-2.718074e-01
-7.468612e-02
-1.083487e-03
-9.212375e-02
1.943620e-02
5.256419e-02
-2.971390e-02
4.333959e-02
-5.074539e-03
-1.461742e-01
-3.224223e-02
1.595211e-02
-7.354686e-02
-9.398610e-03
-1.817280e-02
-1.231622e-01
-2.746247e-02
-1.026677e-01
2.641436e-01
-3.010123e-02
2.612573e-02
1.711916e-02
3.338508e-02
2.036459e-02
-7.005030e-03
8.877153e-03
-8.342334e-02
2.875475e-01
-4.548858e-02
-1.214068e-02
-1.252699e-01
-4.519777e-02
3.837338e-02
-4.300604e-02
-1.042266e-02
-4.628641e-02
1.965949e-01
-6.213213e-02
-3.327650e-05
-7.766426e-02
-2.289279e-02
1.328484e-01
4.088552e-02
-5.012123e-02
2.052112e-01
-2.116312e-01
-1.569555e-01
4.153872e-02
6.704737e-03
-1.008364e-01
-2.826187e-03
4.235540e-02
-9.731281e-03
2.796586e-02
-1.564370e-01
3.638721e-02
4.137884e-02
8.561478e-02
4.084018e-02
-3.626431e-02
1.226140e-01
1.029416e-01
-1.215272e-01
-1.031326e-01
1.388644e-01
-8.762063e-02
-3.718875e-02
3.165361e-02
-4.029657e-02
-1.102359e-01
-1.220955e-01
9.314745e-02
-1.350112e-01
-3.210574e-02
1.362188e-01
1.500565e-01
-1.604947e-02
2.743042e-02
5.097190e-02
6.460180e-02
-2.177734e-02
-1.229965e-01
1.539472e-01
-8.962947e-02
3.665839e-02
4.938532e-02
4.285800e-02
8.976164e-02
-7.519204e-03
-4.252199e-02
-1.486499e-01
6.116407e-02
-5.272235e-02
-7.927874e-02
-5.106960e-03
-1.159758e-01
-2.524074e-02
6.830842e-02
-4.999943e-02
-1.596535e-01
1.705212e-01
-1.470053e-02
1.062585e-01
8.431306e-02
5.610303e-03
-2.705845e-02
-1.459002e-04
1.093564e-01
-2.398854e-01
-3.199700e-02
2.449541e-02
-8.027132e-03
-4.726170e-02
-4.837455e-03
9.262978e-02
-1.796381e-02
1.406419e-01
-5.239370e-02
-6.421073e-02
2.375850e-02
4.329749e-02
-2.166069e-02
1.130094e-01
7.410078e-02
7.805502e-02
3.177043e-02
-1.063078e-01
-3.555471e-02
-5.865100e-02
-2.160294e-01
-5.269426e-02
-2.247785e-02
-8.471595e-03
-2.385869e-02
8.952148e-02
4.111658e-02
4.522918e-03
1.209094e-01
2.471738e-02
1.022678e-02
-5.868229e-02
-9.650806e-02
-6.120297e-02
-4.034806e-03
3.064012e-02
-5.416207e-03
3.977762e-02
6.128206e-02
3.491952e-02
1.876324e-02
4.187405e-03
-9.347267e-02
1.566741e-01
1.868565e-01
-2.377808e-03
2.627336e-02
7.505183e-02
-7.263678e-02
-5.681987e-02
-4.105691e-02
1.445242e-02
-5.614269e-02
1.080556e-02
5.180334e-02
-4.892347e-02
4.224095e-02
7.302654e-02
5.594281e-02
-1.457200e-02
2.593938e-02
-2.180860e-02
-2.155845e-01
-7.573683e-02
5.603598e-02
-9.289753e-02
-3.389074e-02
4.662785e-02
1.689703e-02
1.697941e-02
-9.481316e-03
1.309788e-01
1.193569e-01
4.686496e-02
6.951234e-02
1.376318e-02
-7.852719e-02
-1.961841e-01
-6.823271e-02
-1.773010e-01
-1.931417e-01
-1.141325e-02
-1.246253e-02
-8.898761e-02
-1.992614e-02
8.799669e-02
6.876226e-02
1.164769e-01
-4.153152e-03
1.237647e-02
1.004863e-01
2.285543e-02
5.950562e-03
4.773679e-02
-3.112500e-02
-7.848704e-02
-5.517830e-02
-3.913190e-02
-1.116643e-01
-1.050194e-01
1.167645e-03
-7.357030e-02
-2.981756e-02
3.335058e-03
1.456610e-01
5.346030e-02
7.338922e-02
2.422650e-01
1.352588e-01
5.131707e-02
1.474892e-01
7.508522e-02
7.951375e-03
-4.288883e-02
-3.424437e-02
-8.944568e-02
-1.064067e-01
-2.111348e-02
-2.541214e-02
-1.243846e-01
-7.861862e-02
