5.022975e-01
-5.118299e-01
8.116474e-01
3.399409e-01
-2.114064e-01
-4.996600e-01
3.607651e-01
-4.016047e-01
3.111706e-03
1.811173e-02
1.799029e-01
-3.884145e-01
1.376820e-01
-4.071075e-01
3.672021e-01
-2.258786e-01
-4.914521e-06
-7.281724e-05
-2.576807e-01
3.938523e-01
1.569183e-01
3.283129e-02
1.129298e-04
-2.023124e-01
2.215150e-01
-2.655381e-01
6.924943e-01
-2.123736e-01
-5.638945e-02
6.416486e-07
-1.129805e-01
-1.368407e-01
6.741887e-07
-8.871506e-06
-1.867244e-01
-5.104986e-06
1.160496e-01
6.734160e-02
-5.738977e-06
-1.097339e-01
-6.554255e-07
-1.001052e-01
-1.647850e-07
-1.264045e-01
6.401079e-03
5.395185e-06
8.543042e-03
-3.239578e-01
-1.349081e-01
-3.709721e-01
7.853667e-01
8.553131e-02
-1.028795e-01
3.337094e-01
-3.909981e-02
-3.048985e-05
-4.101721e-01
-2.653839e-01
-6.180450e-03
-2.566498e-05
-5.377689e-05
2.951898e-01
6.514792e-01
5.370050e-01
-2.348052e-01
-1.454701e-01
-4.037491e-01
2.850195e-01
-9.973416e-02
-2.979569e-01
-2.359411e-01
-3.757069e-01
-3.805131e-03
-4.358352e-01
-2.016760e-01
4.443853e-01
-1.228044e-01
7.771663e-01
-4.436939e-01
-2.095838e-01
-1.113104e-05
1.597353e-04
-2.355309e-01
-9.135759e-02
4.526350e-01
-1.941123e-01
3.872651e-03
-7.062083e-03
2.518189e-01
2.381084e-02
-4.183266e-01
6.834210e-01
-1.655951e-02
8.958326e-07
2.792355e-01
4.710065e-01
6.343997e-07
-3.199507e-06
-1.055863e-01
8.926987e-06
5.572435e-01
4.003236e-01
2.812265e-06
-1.425337e-01
-1.834784e-06
-3.727413e-02
4.807254e-07
-1.802182e-01
5.582276e-02
1.568370e-04
1.368999e-02
-1.845529e-01
-3.264602e-01
-2.538356e-01
3.892529e-01
-4.217605e-02
-4.226427e-01
-1.285027e-01
-1.320561e-01
1.825075e-05
2.637438e-02
5.133293e-01
1.582668e-03
1.344235e-06
3.925541e-06
-5.286023e-01
4.252965e-01
-2.080382e-01
5.195860e-01
-1.813442e-01
-6.414948e-01
3.620074e-01
-1.281076e-01
3.615357e-01
3.519094e-01
-2.360139e-01
-8.494603e-03
6.481515e-01
-5.531008e-01
-1.570071e-01
7.985567e-02
1.357810e-01
-3.636882e-01
-2.084365e-01
-3.633240e-06
6.802849e-05
4.976365e-02
-3.925182e-01
-1.785733e-01
4.217282e-01
-2.353014e-03
4.289601e-01
-1.878258e-01
-3.081968e-01
4.347241e-01
1.022390e-01
-5.073450e-02
-2.271739e-06
2.878553e-01
-2.059714e-01
1.134597e-06
-8.398834e-06
-2.138187e-01
1.366222e-05
-1.755268e-01
-1.535975e-01
1.417880e-05
1.747100e-02
3.118249e-06
-5.794208e-02
-4.273738e-08
3.740378e-01
1.591754e-03
2.085469e-04
-9.460597e-03
8.605678e-01
-4.083417e-01
2.881478e-01
8.526546e-02
1.715784e-01
-2.198868e-01
-3.957736e-03
-3.418238e-01
-6.451359e-05
-1.529419e-01
-2.363638e-01
-3.605189e-03
-2.683334e-05
-8.458132e-06
1.065309e+00
-2.227302e-01
-1.804717e-01
-4.067879e-01
-1.207789e-01
-5.265468e-03
-4.250332e-01
-3.672339e-01
-3.947996e-01
4.591924e-02
-3.687648e-01
-6.222670e-03
3.156698e-01
9.887782e-01
4.941570e-01
-7.890318e-02
-2.379520e-01
-2.789373e-01
2.210127e-01
1.634604e-05
5.357155e-05
-1.001029e-01
-2.977567e-01
-1.854526e-01
-1.795389e-01
-3.278045e-03
-2.886296e-01
-1.181852e-02
-1.254459e-01
-5.363263e-01
-3.978188e-01
-1.734804e-03
-3.697557e-07
-4.894450e-01
-2.055251e-01
-2.375403e-06
-2.672985e-06
-7.712966e-02
-1.592311e-05
1.660401e-01
-1.791675e-01
3.685977e-06
-2.237000e-01
2.159322e-06
-7.128660e-02
-9.474643e-08
-4.340849e-02
-1.103035e-02
-7.697150e-06
-3.436223e-03
-3.026458e-01
-3.288018e-01
8.365916e-01
-2.534742e-01
-5.107380e-01
5.571047e-01
-2.118091e-01
5.504392e-02
-2.274153e-04
-4.093494e-01
-3.008682e-02
1.172944e-02
-6.315921e-05
-2.069483e-05
4.027455e-01
-2.102933e-01
-2.066246e-01
-2.691795e-01
9.272903e-01
1.087663e-01
2.096219e-01
5.245486e-01
6.521940e-01
-1.762569e-02
4.857810e-01
6.741683e-04
-5.002725e-01
4.391368e-01
-3.188400e-01
2.270573e-01
2.510786e-01
9.898687e-02
3.008625e-01
3.745715e-06
-6.343915e-05
-2.730711e-01
1.078269e-01
1.765848e-01
3.393404e-01
-4.129923e-03
2.644314e-01
-1.158602e-01
-1.364727e-01
-2.287388e-01
-3.086069e-02
-2.630297e-02
-1.446101e-06
-4.524009e-01
2.946303e-01
8.589371e-07
3.378874e-06
2.286030e-01
-1.365716e-05
-3.493939e-01
2.370391e-01
-7.477377e-06
1.019812e-01
-1.219409e-06
1.450657e-01
-5.100245e-08
-1.508957e-01
-7.977696e-03
-1.410290e-04
-1.260818e-02
-4.719502e-01
6.508726e-01
2.055996e-01
-2.289340e-01
4.855074e-01
-3.661459e-01
2.845958e-01
2.401928e-01
-2.347945e-05
-9.201860e-02
-1.468949e-01
-6.076780e-03
-2.333226e-05
8.819266e-05
8.480246e-01
3.256938e-01
-3.831634e-01
-1.206564e-01
-5.606701e-01
-2.591054e-01
-4.602518e-01
-2.750363e-01
-1.979058e-02
-2.532681e-01
1.088376e-01
1.617353e-02
-1.660268e-01
5.152020e-01
-2.776837e-01
-1.693456e-01
-2.845339e-01
-6.199331e-02
-2.431200e-01
8.601012e-07
4.824005e-05
-4.667041e-01
-1.498820e-01
-1.304674e-01
-3.821886e-01
-4.493093e-03
-1.850969e-01
-1.887714e-01
-3.193608e-01
-4.083485e-01
-4.584309e-01
-2.919716e-02
-3.987894e-07
2.216776e-01
-7.019191e-02
8.783987e-07
-6.730449e-06
3.996649e-01
-6.137492e-06
-4.951265e-01
-9.109900e-02
2.816883e-06
4.295924e-01
7.167025e-07
2.003788e-01
-3.169733e-08
-4.542077e-02
-1.025528e-02
-1.152461e-04
-8.570760e-03
6.267727e-01
2.689325e-01
-4.189377e-01
-1.966852e-01
-3.216696e-01
-3.959222e-01
-1.208933e-01
8.653724e-01
1.869109e-05
8.012135e-01
-1.956401e-01
-1.293908e-03
-4.799686e-06
5.218279e-05
-2.482315e-01
-3.276730e-01
-3.370844e-01
6.846829e-02
1.031092e+00
7.047603e-01
3.673020e-02
-1.969571e-01
-5.131784e-02
4.782191e-02
-2.692575e-01
-5.673726e-03
9.014572e-01
-3.945091e-01
-1.569356e-01
1.545535e-01
-2.924887e-01
-3.820412e-01
-2.818927e-02
2.207746e-06
-6.406535e-05
7.720361e-01
2.586609e-01
-2.196207e-01
2.835412e-02
3.821313e-03
4.356521e-01
1.486827e-01
-2.823278e-01
-1.856970e-01
-1.089450e-01
1.239493e-01
9.293150e-07
2.910457e-02
6.100602e-02
2.820447e-07
-7.418161e-07
-1.839254e-01
1.552115e-06
1.172521e-01
-3.924647e-02
8.418815e-06
-3.364050e-01
-1.830440e-06
-4.939546e-02
4.539385e-08
-3.435806e-02
-7.220295e-03
-3.261614e-05
5.346423e-03
1.246127e-01
4.260165e-01
3.073724e-02
-6.216528e-02
-3.032433e-01
-1.221615e-02
-1.597200e-01
-2.910305e-01
-5.564844e-05
6.777597e-01
3.109491e-01
8.546506e-03
2.795254e-05
-2.399693e-05
-6.957914e-01
-3.029348e-02
-3.041635e-01
-2.575054e-01
-3.040810e-01
-7.977660e-01
-3.566511e-01
4.682708e-01
1.593627e-01
-1.319104e-01
-3.608638e-01
-5.301162e-03
-4.259733e-01
-4.683535e-01
-1.879462e-01
-1.206719e-01
-4.757854e-01
6.652978e-01
5.123451e-01
-2.477582e-06
-4.346499e-05
9.065977e-01
-3.847700e-01
2.510947e-01
3.673160e-01
-2.744644e-03
-1.947611e-01
-1.172616e-01
2.287975e-02
6.798011e-02
1.367324e-01
-1.473641e-02
-9.881182e-07
-4.217038e-01
-1.893577e-01
2.171419e-06
1.940354e-06
2.766520e-01
1.682164e-05
3.417892e-02
-8.963579e-02
-1.171244e-05
6.192724e-01
2.410375e-06
1.292428e-02
1.324302e-08
-1.937121e-01
-2.383034e-03
-6.313311e-05
-4.321974e-03
-1.960375e-01
1.322454e-01
-7.643858e-02
-1.155547e-01
3.620917e-01
-1.697466e-01
-2.530820e-02
-2.110375e-02
4.432951e-04
-3.193347e-01
-1.980259e-01
-4.503891e-03
1.946222e-04
-2.280401e-05
-5.810734e-01
-2.792134e-01
4.486404e-01
3.585101e-01
-8.291767e-02
8.430210e-01
1.551927e-01
4.365861e-01
-1.224195e-01
-2.109625e-01
8.695241e-01
-5.711799e-03
-2.864324e-01
-2.828371e-01
7.421157e-01
-9.480300e-02
-3.490867e-01
-2.688904e-01
-1.322771e-01
-7.760676e-06
-1.128078e-04
-2.250735e-01
-3.320003e-01
-5.574110e-02
-1.709185e-01
5.754530e-03
-1.467939e-01
-1.996008e-01
6.441572e-01
3.949681e-02
5.299347e-01
-1.824166e-02
8.349827e-07
1.860702e-01
5.839994e-02
-1.921437e-06
2.037889e-05
-2.242996e-02
-1.330719e-05
-3.506220e-01
-6.765543e-02
-9.528857e-06
-9.703902e-02
-1.278974e-06
-2.528880e-02
-2.260639e-07
4.254476e-01
-1.113808e-02
-7.041248e-06
1.182348e-02
1.917150e-01
4.589192e-04
-1.552593e-01
-1.477178e-01
3.433949e-01
5.293641e-01
-6.065666e-02
-1.798095e-01
-6.356451e-05
-1.237399e-01
4.071089e-01
4.067083e-03
-6.789798e-05
-3.453383e-05
-1.917345e-01
-1.075461e-01
6.991680e-01
-1.599340e-01
-5.129258e-02
-3.608129e-01
-1.465696e-01
-1.509299e-01
2.128555e-01
4.328857e-02
5.480582e-01
1.524954e-02
-6.885248e-02
-2.225426e-01
-1.938306e-01
-1.262045e-02
8.829246e-01
6.677678e-01
1.326342e-02
6.757683e-06
2.701979e-05
-1.702344e-01
8.879421e-01
-2.673766e-01
-2.628110e-01
3.437389e-03
-1.043830e-01
1.991249e-01
7.464909e-01
5.427378e-01
-2.438999e-01
8.994799e-02
2.173385e-06
4.725853e-01
-7.715470e-02
-2.336834e-06
4.916414e-06
-1.153062e-01
1.316656e-05
3.799024e-01
-8.430561e-02
2.544796e-06
-2.589070e-01
-1.585760e-06
-1.707491e-02
7.139040e-08
-2.507042e-02
-1.381017e-02
-4.015125e-06
-1.005262e-03
-3.245260e-01
-2.800192e-01
-8.563212e-02
-2.553569e-01
-2.702730e-01
6.029726e-01
9.254113e-02
-1.556850e-01
-1.511831e-05
2.214035e-03
-1.589960e-01
-4.265428e-03
-1.222966e-05
1.996423e-05
-3.658423e-01
-2.247240e-01
-6.526369e-02
