2.894327e-11
3.769587e-11
4.196611e-11
-2.985911e-11
2.200579e-11
2.974234e-11
3.895740e-11
2.279423e-11
-1.364220e-11
9.954209e-13
5.663318e-11
-4.363518e-11
4.882185e-11
2.123822e-11
-1.335283e-12
8.998997e-12
-6.217025e-11
-5.436371e-11
4.484327e-03
5.894712e-03
1.931986e-03
-3.327389e-03
-3.511216e-03
-3.564038e-03
2.370897e-03
-7.718699e-03
-8.105632e-03
6.534623e-03
1.004889e-02
6.578728e-03
-6.516119e-03
-7.088273e-03
-2.731484e-03
-7.001527e-03
-1.361277e-02
-8.601421e-03
-4.407942e-11
-4.238483e-12
-6.291814e-11
-3.623216e-11
-3.658982e-11
-1.094981e-11
-3.239621e-11
2.521402e-11
-7.713767e-11
8.536246e-04
1.244181e-03
8.043250e-04
9.208645e-04
1.475853e-03
9.851989e-04
1.462114e-04
7.433233e-04
2.233290e-04
-9.365365e-05
1.933872e-03
1.387695e-03
3.423250e-04
1.685971e-03
-1.900196e-03
-2.804516e-03
-4.033596e-03
-1.816076e-03
-5.403549e-03
3.479139e-03
4.770717e-03
-3.683050e-03
1.422287e-04
3.233785e-04
4.814333e-03
4.600141e-03
4.068257e-03
2.715253e-03
6.240563e-03
-7.974832e-03
-1.254952e-02
-2.020871e-03
-1.937117e-03
8.275848e-03
8.910054e-03
4.415987e-03
-2.744974e-03
-1.997105e-03
-5.962342e-03
-5.662125e-03
-1.023575e-02
-1.278610e-02
6.879116e-03
1.224654e-03
-2.055468e-03
5.882893e-03
-1.893325e-04
-7.023775e-03
1.005437e-03
4.495757e-03
3.459018e-03
6.990693e-04
8.847876e-03
1.035475e-02
-2.915722e-03
-3.245475e-03
7.980522e-04
3.296338e-03
4.269919e-03
4.601392e-03
-1.492571e-03
-1.381266e-03
-2.082013e-03
1.446825e-03
-3.329204e-03
3.534222e-03
2.019807e-03
6.395974e-04
3.628656e-03
-1.483283e-03
-8.253890e-04
-2.470169e-03
-4.785525e-03
-3.867909e-04
-1.932260e-03
-1.288859e-03
1.174632e-03
-4.815531e-04
6.041990e-04
6.242569e-03
2.443148e-03
-6.801474e-03
-7.366658e-04
-5.988749e-03
-3.968653e-03
5.113757e-04
-2.118744e-03
-3.107853e-03
-7.828750e-04
2.380050e-03
-7.354165e-03
4.206966e-03
7.452209e-03
-3.730688e-03
-8.914408e-04
-6.869822e-03
-7.961065e-03
-4.113080e-03
-5.552606e-03
-9.843295e-03
-1.311590e-02
-1.297804e-02
-2.894882e-03
-1.798346e-02
-1.418876e-02
6.130825e-03
-1.267012e-03
-1.668248e-03
-1.686495e-03
-2.427001e-03
-1.950198e-03
3.874114e-03
3.107258e-03
1.135194e-03
7.081825e-03
4.238746e-03
1.288337e-03
1.591738e-03
5.497674e-03
2.943294e-05
9.779670e-03
2.804735e-02
1.446083e-02
4.658370e-03
1.387519e-02
6.101648e-03
-5.305860e-03
2.728513e-04
-1.161083e-02
-1.116556e-02
-7.784912e-03
-1.750018e-02
9.462550e-03
6.337837e-03
-2.039490e-03
-4.440481e-03
-3.597554e-03
3.087180e-03
-2.710658e-05
1.216038e-02
8.344056e-03
-1.216931e-03
2.606379e-02
1.388773e-02
1.048222e-02
9.644627e-03
8.332600e-03
1.183948e-04
1.199275e-02
9.677382e-03
-1.276035e-05
5.643840e-03
4.660492e-03
-6.323405e-03
-4.287184e-03
1.113437e-02
4.130046e-03
-1.838487e-03
-4.159681e-03
2.221541e-03
1.013034e-02
9.947427e-03
-1.977803e-03
3.046465e-03
1.372068e-03
-3.662367e-03
2.635929e-03
-2.517096e-03
-2.104076e-03
4.573605e-03
-1.688309e-03
-6.551301e-03
-8.472147e-03
-1.006681e-02
-5.012686e-03
-3.316731e-03
-7.414400e-03
7.652328e-04
4.549853e-03
1.947061e-03
4.898517e-03
4.359640e-04
1.657681e-03
-3.130865e-03
-1.096910e-02
-7.363876e-03
-1.975244e-03
-2.749037e-03
-2.283641e-03
5.575598e-03
1.239311e-02
5.819021e-03
4.036552e-03
2.738437e-03
9.936938e-04
3.564511e-03
8.130798e-04
-2.144160e-03
-2.782024e-03
-4.355075e-03
3.360916e-03
-5.175167e-03
-5.141604e-03
4.646693e-03
-5.839408e-03
-2.717158e-03
-1.907677e-03
-4.234431e-03
-4.292696e-03
-3.872330e-03
-2.878483e-03
-5.097462e-03
-5.045588e-03
-7.759037e-03
-5.200594e-03
-3.658093e-03
-8.861011e-03
-1.008227e-02
-7.134487e-03
1.471604e-03
1.355327e-03
-1.361568e-03
3.590823e-03
4.988179e-03
4.293750e-03
-2.422898e-10
-3.282389e-11
-3.107117e-10
-1.671885e-10
2.677771e-11
-2.609375e-10
-6.805944e-10
-5.473865e-10
-1.963364e-10
4.304804e-03
3.012535e-03
-2.821141e-03
-1.021974e-02
-5.265851e-03
-6.302734e-03
-7.329872e-04
9.264955e-03
3.917594e-03
-4.854221e-11
-6.063476e-11
7.277783e-12
-7.806941e-11
-8.227612e-11
-1.558545e-11
3.172505e-11
2.567834e-11
-1.552766e-11
-7.317405e-11
-2.442911e-11
-5.358641e-11
3.726357e-11
-6.145465e-11
-1.411983e-12
5.321140e-13
9.112228e-11
2.029367e-11
4.886674e-03
3.692148e-03
-2.544503e-03
1.091175e-03
1.291324e-03
-3.581300e-03
-3.036324e-03
-9.146259e-04
-1.231485e-03
-1.193490e-03
-8.731948e-03
-1.016743e-02
5.442549e-03
2.421847e-04
-2.652364e-03
2.213687e-03
2.500008e-03
4.187574e-03
-2.241885e-11
-9.780822e-12
-9.107184e-11
6.924089e-12
1.804365e-12
1.591804e-11
-4.428518e-11
-2.572448e-11
-7.061732e-11
3.260869e-04
4.920964e-05
2.603176e-04
-2.624250e-04
-4.042108e-04
-2.671219e-05
-3.450906e-04
-4.583316e-04
5.064435e-05
9.032134e-05
2.203817e-03
-2.131461e-03
-1.080809e-03
-4.182516e-05
-2.158260e-03
-1.625567e-03
-1.685663e-03
-4.995976e-04
4.881107e-03
2.227855e-03
-2.662822e-03
5.393895e-03
3.256179e-03
-3.744793e-04
7.712498e-03
7.193637e-03
3.469532e-03
1.057629e-03
1.621820e-03
7.864305e-03
-5.126323e-04
-6.840756e-03
1.211556e-02
-3.426943e-03
-3.397242e-03
4.521597e-03
-1.549127e-03
2.346240e-03
5.757923e-03
-5.348690e-03
-5.064103e-03
-1.625391e-03
5.492418e-03
2.409038e-03
-1.414602e-03
-6.150049e-04
-9.599358e-04
4.075880e-03
-3.707184e-04
9.865456e-05
3.254391e-03
-1.919364e-03
2.149331e-04
-1.275759e-03
6.513377e-04
2.938558e-03
4.448995e-03
6.967190e-04
9.620180e-04
6.855220e-06
3.650129e-05
-2.139093e-03
-4.237477e-03
-2.715391e-03
4.895108e-04
3.488190e-03
1.595949e-03
3.781717e-04
-5.703178e-04
9.380531e-05
-2.303054e-04
-1.913738e-03
-3.527306e-03
1.588609e-03
2.398311e-03
-1.327016e-03
-1.501419e-03
3.709531e-03
-1.749039e-03
-4.060428e-03
1.283972e-03
6.734225e-04
-1.084090e-03
1.514573e-03
-3.947213e-03
-6.098355e-03
8.872285e-04
2.115922e-03
3.113196e-03
4.831539e-03
-2.855942e-03
-5.020230e-03
-1.172121e-02
1.827710e-03
-4.114309e-03
-8.387938e-03
7.482937e-03
4.337078e-03
1.347594e-03
1.964331e-03
2.419884e-03
-5.372033e-04
-2.060530e-03
3.780304e-03
5.789216e-03
-5.247583e-03
-3.648076e-03
-7.273746e-03
-1.244521e-03
-2.054274e-03
-3.863717e-03
1.097226e-03
-1.342919e-04
-3.563374e-03
2.863802e-03
2.045388e-03
-8.224410e-04
1.687491e-03
3.664195e-03
5.204953e-03
-3.811223e-03
-2.919497e-03
7.146961e-04
-8.570530e-03
-7.390445e-03
-1.617618e-03
6.031283e-04
1.810283e-03
-1.333702e-03
-1.778543e-03
3.226570e-04
-4.006599e-03
2.521485e-04
4.393777e-03
-2.108469e-04
3.331074e-04
4.152537e-03
6.952269e-03
-8.828757e-03
8.666388e-04
-3.609164e-03
-3.765357e-03
-7.773917e-03
-5.530064e-03
-7.408428e-03
-6.280351e-03
6.310125e-03
-7.315279e-03
-9.827177e-03
-6.481934e-03
-7.743306e-03
-5.466652e-03
-6.137432e-03
4.643270e-03
5.894126e-03
3.097593e-03
-1.319405e-03
3.307751e-03
-3.677422e-03
-2.443017e-03
1.367664e-04
-6.402811e-03
-5.161918e-04
7.271812e-04
-3.172475e-03
-3.864582e-06
4.052580e-03
1.049925e-03
-2.099704e-03
6.872732e-04
3.631154e-03
1.993598e-03
1.420114e-03
8.251477e-04
3.399470e-03
7.799274e-04
-1.363333e-05
3.742950e-03
1.881440e-03
-1.063086e-03
-2.080752e-04
-4.352915e-03
-9.576872e-03
-1.983637e-03
-1.964610e-03
-5.806398e-03
-4.814838e-03
-2.829974e-03
-4.045798e-03
-3.521701e-03
-4.221350e-03
-2.595567e-03
-1.199340e-03
-3.758214e-03
-2.236208e-03
1.301020e-03
-5.534557e-04
-3.325814e-03
-2.354982e-03
5.285249e-03
6.931079e-03
-8.597116e-03
4.636076e-04
4.216717e-03
-3.109516e-03
1.234215e-03
-4.121077e-03
-3.704717e-03
-1.904956e-03
9.992147e-04
-2.723734e-03
-1.403870e-03
1.544534e-03
3.657316e-03
4.176111e-03
-1.200807e-03
-7.066481e-04
1.541965e-03
-5.042110e-03
5.703865e-04
-2.240221e-03
-6.997618e-03
1.472156e-03
-4.929257e-03
-9.175948e-03
-8.693515e-11
-1.005130e-10
1.278494e-10
-5.503465e-11
-4.111176e-11
2.164223e-10
9.663323e-12
2.612957e-11
1.723290e-10
-2.029303e-03
-6.434558e-03
-5.132486e-03
2.181494e-03
-1.011362e-03
-2.934158e-03
-2.224161e-03
3.604529e-04
2.187525e-03
3.788899e-11
6.769913e-11
-1.602865e-11
-1.461964e-11
5.365573e-11
-7.331294e-11
1.650093e-12
-2.529478e-12
2.447583e-11
-7.380005e-12
-2.976888e-11
-6.929757e-11
9.447615e-12
1.926974e-11
6.862239e-11
3.784449e-11
2.075397e-11
2.579197e-12
7.232737e-03
2.460384e-03
-1.655580e-03
6.536243e-03
3.077920e-03
-2.015753e-03
2.060793e-03
4.862228e-04
-6.310202e-04
3.669562e-03
4.272528e-03
5.790656e-03
1.128997e-03
2.668889e-03
4.592773e-03
9.101853e-04
2.207299e-03
2.047908e-03
-1.026763e-11
-2.119497e-11
7.946116e-13
5.380953e-11
2.592681e-11
2.760789e-11
3.438005e-11
1.120504e-11
2.386311e-11
-7.680476e-04
-5.804804e-04
-8.997475e-04
-3.926182e-04
-3.747180e-04
-8.590306e-04
-5.917591e-04
-5.616475e-04
-9.890342e-04
-1.038236e-03
1.234767e-03
5.312519e-05
-1.256249e-03
4.114358e-03
1.844227e-03
7.295858e-04
5.910947e-03
2.064480e-03
3.069645e-03
-2.792828e-04
1.966370e-03
-4.200166e-04
1.318593e-03
4.505809e-03
1.016959e-04
3.120136e-03
7.298674e-03
2.718525e-03
5.513738e-03
8.148180e-04
-2.194643e-03
2.739631e-03
3.911817e-03
-3.749396e-03
-4.701548e-04
-5.239832e-03
2.817547e-03
1.796012e-03
-1.467601e-03
1.374101e-03
1.502491e-03
-5.016897e-03
9.871236e-04
3.087356e-03
8.002179e-04
8.784118e-05
-2.061910e-03
-1.688070e-03
4.396625e-03
1.042471e-03
-1.639522e-03
5.393826e-03
2.582661e-03
7.653195e-04
-9.044227e-04
3.536042e-03
2.363111e-03
1.502589e-04
5.134018e-04
-4.144038e-03
-2.148720e-03
1.769116e-03
-4.069391e-03
-3.428826e-03
-2.817469e-03
-7.419819e-03
3.874348e-03
4.772948e-03
-5.479348e-03
8.883622e-04
-2.968153e-04
-3.454550e-03
-4.138984e-04
2.040185e-03
1.911093e-03
-2.179931e-03
-3.229974e-04
2.516865e-03
-2.930273e-03
-1.448261e-03
-1.911460e-03
1.473082e-03
2.442754e-03
3.670736e-03
3.651238e-03
5.423124e-03
2.793661e-03
-8.624450e-04
1.281188e-04
4.927762e-04
2.164486e-03
4.915381e-04
8.990438e-03
-2.911150e-03
-1.359221e-03
4.862342e-03
6.469400e-04
-1.193394e-03
4.349950e-03
-4.789139e-03
1.332155e-03
-2.412180e-03
-9.940187e-03
2.818197e-03
2.893628e-03
-3.672961e-03
6.684182e-04
1.367891e-03
-1.353215e-03
-1.456004e-03
-1.112444e-03
-8.432708e-05
-1.506816e-03
-1.553372e-03
1.805509e-03
5.966910e-04
6.409500e-04
3.127706e-04
1.782274e-03
-2.827877e-03
5.626344e-03
4.318415e-03
-1.440321e-03
1.050711e-02
1.047689e-02
3.078637e-03
9.922230e-04
6.017569e-05
3.000244e-03
-2.956286e-03
-6.455697e-03
-2.296062e-03
-4.206983e-03
-1.131319e-03
9.471065e-04
2.672138e-03
-5.347722e-03
-1.702717e-03
3.724561e-03
1.580791e-03
-2.893950e-03
7.322359e-03
7.927775e-03
4.858373e-03
3.159282e-03
4.350950e-04
7.198784e-04
5.445360e-03
1.018072e-02
6.036323e-03
2.294345e-03
4.305873e-03
2.122796e-03
1.140007e-03
-3.842503e-03
-7.994822e-04
1.953973e-03
-4.992208e-03
-4.155010e-03
-2.703731e-04
-4.404452e-03
-3.833360e-03
-1.561483e-03
-4.706407e-03
-3.439798e-03
3.208702e-03
-1.843945e-03
6.084164e-04
5.305116e-03
1.885750e-03
4.040282e-03
8.266174e-04
4.581397e-03
3.440401e-03
-1.845833e-03
5.372845e-04
2.990888e-03
4.280655e-04
-1.745926e-04
7.781524e-04
2.306051e-03
4.757670e-04
2.277563e-03
5.050854e-03
3.400567e-03
3.816827e-03
2.894896e-03
2.286507e-03
2.008718e-03
1.813050e-03
1.478387e-03
3.557657e-04
1.148855e-03
2.358452e-03
3.126094e-03
2.128118e-03
1.461265e-03
1.884223e-03
1.841884e-03
-3.795621e-04
-4.093516e-03
4.047135e-03
4.902532e-03
-1.600882e-03
3.103851e-03
5.268174e-03
2.844706e-03
5.297623e-03
3.112897e-03
1.650419e-03
-1.131372e-03
8.525677e-04
2.559107e-03
-1.576602e-03
-8.718336e-04
2.620190e-03
3.513913e-03
6.544358e-04
2.515784e-03
4.767089e-03
1.791095e-03
4.091389e-03
2.796759e-03
2.027936e-04
4.719450e-03
1.505519e-10
1.366535e-10
-2.907627e-11
1.759079e-10
2.124979e-10
2.187178e-10
4.585821e-12
-6.635645e-11
-1.704077e-11
-3.455071e-03
2.440460e-03
6.390468e-03
-2.430127e-03
1.423458e-03
5.339153e-03
2.798832e-03
4.628610e-03
5.951132e-03
3.550073e-11
2.538216e-12
-1.701546e-12
7.913349e-11
-3.683889e-11
-4.460199e-12
-3.836447e-11
-3.135885e-11
2.689217e-11
-1.507382e-11
5.204054e-12
-5.444911e-11
-6.609423e-12
8.850149e-12
-5.529273e-11
-1.008658e-11
-9.603256e-11
2.799655e-11
2.162801e-03
1.244096e-03
-2.286552e-04
4.120080e-03
3.448625e-03
3.861326e-03
1.558420e-03
1.473264e-03
8.355243e-04
-3.872419e-03
-3.746972e-03
-2.550439e-03
-1.941572e-03
1.337540e-03
2.178431e-03
2.085152e-03
5.148263e-03
2.789787e-03
3.749935e-11
-7.673350e-12
-6.788586e-12
-8.808058e-12
3.167159e-11
7.962678e-13
-4.729940e-11
1.415569e-11
-6.410106e-12
5.166869e-04
7.646088e-04
7.831174e-04
6.144834e-04
7.163620e-04
8.166916e-04
3.538629e-04
3.924841e-04
6.803895e-04
-4.307604e-05
1.692714e-03
9.047235e-04
4.197458e-05
1.199248e-03
2.729683e-04
-8.211390e-04
3.773767e-03
3.831756e-03
-1.291417e-03
7.284444e-04
1.082170e-03
3.396568e-03
7.848897e-04
-1.320836e-04
4.309373e-03
2.052439e-03
-4.537241e-04
-2.209967e-03
-1.316504e-06
3.975745e-03
-3.955340e-03
4.623624e-03
8.509808e-03
2.204854e-03
8.208983e-03
-4.977456e-03
-1.441263e-04
-1.722739e-04
-1.047423e-03
-3.960758e-03
-1.422420e-03
2.506801e-03
-1.493360e-03
2.359251e-03
7.804856e-04
-2.002322e-03
3.701496e-04
4.213320e-03
3.922845e-03
3.788551e-03
1.002071e-03
2.338369e-03
-1.565150e-03
-3.339340e-03
-4.139738e-04
1.926753e-03
3.130087e-03
2.416424e-03
2.067901e-03
-1.338273e-03
2.150405e-03
2.031679e-03
7.015118e-04
-1.027503e-03
-1.021460e-04
-1.882825e-03
-2.507932e-03
5.255337e-03
1.178785e-03
-1.921166e-03
-8.253592e-04
-3.355233e-03
6.363625e-04
-6.575846e-04
1.315163e-03
-4.660033e-03
3.036648e-04
6.959323e-04
1.954734e-04
1.941615e-03
7.365064e-04
-1.173610e-03
-2.202138e-04
1.411770e-04
1.584460e-03
3.150035e-03
2.169106e-03
-3.371272e-04
3.251973e-03
-1.040535e-03
-3.112934e-03
2.161983e-03
2.535708e-03
-9.247664e-04
2.822770e-04
6.282075e-04
-7.873338e-04
1.540861e-03
-6.937886e-04
3.068608e-03
1.416180e-04
-5.505791e-03
3.873625e-04
1.671548e-03
-2.411527e-03
6.359841e-03
1.033354e-02
6.289016e-03
-1.630115e-03
-1.009304e-03
-8.253761e-04
-1.420227e-03
-1.003686e-03
-7.807419e-04
-2.812158e-03
-1.267005e-03
-3.126840e-04
8.638121e-04
2.934635e-03
1.525838e-03
-6.329215e-04
-1.181138e-03
1.093349e-03
-9.041389e-04
9.663905e-04
4.071596e-03
1.278308e-03
1.685195e-03
7.015562e-03
-2.667710e-03
-4.113583e-04
-1.996692e-03
-6.663507e-04
1.365364e-03
1.787387e-03
-1.999332e-03
2.135787e-03
4.685108e-03
-4.638380e-04
4.095420e-03
2.622208e-04
2.481394e-03
-2.113163e-03
1.127221e-03
-5.864620e-03
1.305207e-03
1.152488e-02
-4.581788e-04
5.174782e-03
3.203056e-03
3.406437e-03
-1.539233e-03
-3.994492e-04
3.230931e-03
1.676325e-03
1.934668e-04
5.752449e-03
-1.620934e-03
-1.420429e-03
-9.421324e-04
-4.435122e-03
-3.352696e-03
-3.988048e-04
-3.347123e-04
-5.191354e-04
-1.329848e-03
4.294952e-04
-1.280502e-03
4.383190e-03
4.119718e-03
-3.244129e-04
7.045204e-04
1.009002e-03
-2.117283e-04
-1.209272e-03
-9.399593e-04
-1.047361e-05
3.712697e-04
1.525044e-03
7.606656e-04
-1.205106e-03
-6.670769e-04
1.210847e-04
-1.553319e-03
1.632525e-03
1.417503e-03
-2.560000e-03
4.984388e-04
-1.144555e-03
-1.315817e-03
-4.302783e-03
-3.957383e-03
-1.343380e-04
7.279542e-05
3.812618e-04
-3.119038e-03
4.906100e-04
-2.211639e-03
-1.738128e-03
9.758709e-04
1.179137e-03
3.331786e-03
6.321982e-03
7.532818e-04
-4.467077e-04
-2.522702e-03
-5.042278e-03
1.583462e-03
2.398664e-03
1.228298e-03
1.882032e-03
2.036415e-03
1.090131e-04
2.223316e-03
3.580810e-04
-1.080015e-03
6.959643e-04
7.380919e-04
3.948051e-04
-5.764959e-04
-1.878640e-03
-4.628364e-05
7.682515e-04
1.075710e-03
3.639741e-03
-9.884402e-11
1.156483e-10
7.898541e-12
1.837099e-11
6.649135e-11
1.018786e-10
-2.207447e-11
2.937369e-11
5.236402e-11
4.512696e-04
4.497606e-03
3.447848e-03
-1.235155e-03
-7.011783e-04
-1.274506e-03
-2.519358e-04
-2.150998e-04
1.984318e-03
-3.849364e-11
-1.237454e-11
3.014985e-11
5.050021e-11
2.689884e-11
7.927332e-11
9.091656e-12
-1.697069e-11
-4.179688e-11
-5.014565e-11
-5.573952e-11
-2.425063e-11
2.173936e-11
-6.784488e-11
-8.251325e-12
-2.840484e-11
-3.072513e-11
-8.786952e-11
3.321989e-03
-4.167775e-04
-5.606019e-04
-2.044972e-03
-3.906831e-03
5.492402e-04
-2.706287e-03
-1.492012e-03
3.772785e-03
1.870218e-03
9.459207e-03
7.861783e-03
-6.535941e-03
-5.938065e-05
-2.388006e-03
-1.855063e-03
3.576819e-03
1.166945e-03
1.368081e-11
1.795059e-11
2.037151e-11
-4.549745e-11
-6.977616e-11
-1.677815e-11
-2.513615e-11
6.374143e-12
-2.195234e-11
-7.969678e-05
2.403245e-04
-1.665416e-04
3.642679e-04
7.145650e-04
1.937030e-04
5.330489e-04
1.067252e-03
3.094159e-04
1.233697e-03
1.747909e-03
4.707357e-03
1.798176e-03
-1.532870e-03
5.923485e-04
8.861508e-04
-2.188525e-03
1.196684e-03
-6.054515e-03
-2.190608e-03
2.926446e-03
-4.698901e-03
-3.004123e-03
1.931363e-03
-4.398387e-03
-4.775828e-03
-2.901279e-03
-2.693295e-03
-8.384184e-04
-1.036011e-02
3.192568e-04
7.115393e-03
-6.246111e-03
-1.137791e-02
1.286134e-04
2.671820e-03
-2.637933e-03
1.299878e-03
-3.536018e-04
-1.545351e-03
1.837055e-03
9.791326e-05
-3.386841e-03
5.005192e-03
2.339942e-03
-8.258244e-03
-1.353543e-03
-8.113235e-03
-5.893655e-03
5.448859e-04
-1.195228e-03
-8.434645e-04
9.921271e-04
-1.469289e-03
-4.122714e-03
-1.054568e-03
-2.135253e-03
-5.641335e-03
3.354940e-03
3.835852e-03
-6.983666e-03
5.722546e-04
-1.885327e-03
-7.237721e-03
3.894616e-04
4.779893e-03
-2.514957e-03
-4.371405e-03
-2.054431e-03
7.616763e-05
-4.180517e-03
-5.278351e-03
-7.735502e-04
-1.569264e-03
-2.340338e-03
3.609402e-03
2.827944e-03
-1.879453e-03
1.832470e-04
3.047884e-03
-1.726577e-05
1.283928e-03
2.095923e-03
-7.686309e-03
-3.280646e-03
2.535989e-04
-1.817584e-03
6.435201e-03
4.369021e-03
3.114289e-04
-3.363927e-03
1.435596e-02
4.143772e-03
-7.595676e-03
4.137976e-03
4.426747e-03
-1.730900e-02
-6.040096e-03
1.981818e-03
1.347496e-02
1.797193e-03
-5.391974e-03
5.800448e-03
-7.929743e-03
-8.168349e-03
7.860963e-03
-3.981037e-03
-2.099208e-03
1.950185e-03
1.652858e-03
1.023795e-03
6.745223e-04
8.586239e-04
8.290480e-04
3.165516e-04
-3.608638e-04
3.139062e-04
-4.905149e-03
-2.426579e-03
-9.263223e-03
-3.441690e-03
4.442368e-03
-4.150921e-03
2.354609e-03
8.404214e-03
9.940566e-04
-1.336622e-02
-3.617415e-03
7.647189e-04
-7.382574e-03
8.781504e-03
2.729035e-03
-1.068391e-02
2.717454e-03
4.277037e-03
-1.034837e-02
-7.246286e-04
-8.165785e-03
1.881073e-03
2.430303e-03
-1.028660e-02
-8.460400e-04
1.125673e-02
6.956271e-03
-1.629750e-04
7.187515e-03
-5.882007e-03
-2.233139e-03
6.454817e-03
1.024423e-02
8.751807e-04
1.526507e-02
6.554772e-03
-1.938773e-03
-2.513240e-03
9.021007e-03
-8.765739e-03
-3.165008e-03
1.497031e-03
2.071604e-03
7.646532e-03
-1.275350e-03
3.504504e-04
3.292915e-03
-4.554839e-03
-1.681475e-04
9.808993e-04
-1.105116e-02
-5.212934e-03
3.117516e-03
-4.373934e-03
2.348933e-03
1.368746e-03
-4.109217e-03
-2.833527e-03
2.737592e-04
-5.797577e-03
-6.560275e-04
-7.081988e-04
-3.096586e-03
-2.097019e-03
-7.936448e-04
4.098562e-03
2.592565e-04
-4.642024e-04
5.282236e-03
-3.625410e-04
2.256419e-03
5.884276e-03
-5.870679e-04
-2.499598e-03
-3.535414e-04
2.885528e-03
-7.557223e-04
-2.091565e-03
1.700389e-03
7.835329e-04
-1.189728e-03
-4.344089e-03
-3.304477e-03
-7.030645e-04
-4.905304e-03
1.794535e-03
4.159504e-03
4.737866e-04
8.937179e-03
4.073171e-03
-1.036828e-02
-7.630373e-03
-3.340381e-03
-2.511265e-03
2.217584e-04
1.964924e-03
-1.858066e-03
1.735880e-03
3.559145e-03
-1.331110e-03
2.420025e-03
-2.752744e-05
3.675074e-03
7.904442e-03
3.227892e-03
-1.718247e-04
2.627712e-03
2.573270e-03
-1.020382e-10
-2.187758e-10
-2.575171e-10
-2.349615e-11
-2.356243e-10
-3.563672e-10
-2.010192e-10
-2.361484e-10
-3.509514e-10
-6.516204e-05
8.418416e-04
-1.546603e-03
-1.014793e-03
4.004988e-04
2.508907e-03
-2.145518e-03
1.224798e-03
6.567291e-03
4.163678e-11
7.648768e-11
-2.510480e-11
3.183693e-11
4.443809e-11
5.411246e-11
1.031802e-10
7.499983e-11
4.220811e-11
9.846610e-12
-5.910363e-11
-1.155770e-11
6.399377e-11
-3.219120e-12
-7.726061e-11
6.987520e-11
1.602844e-11
-3.871801e-11
2.376967e-03
2.158571e-03
2.486810e-03
2.183300e-03
1.230365e-03
1.596802e-03
1.015421e-03
6.757905e-04
1.457147e-03
1.204897e-04
2.529579e-03
4.341385e-03
-1.806395e-03
9.994054e-04
3.403281e-03
-9.257685e-04
1.355170e-03
2.662622e-03
-5.380429e-11
5.465960e-11
1.115462e-10
1.040690e-10
-1.362026e-11
8.120468e-11
8.208392e-11
7.456680e-11
6.434639e-11
-2.688310e-04
-1.291886e-04
-1.173199e-04
-1.098429e-04
-4.966668e-05
-1.499661e-04
-4.244376e-05
-6.933384e-05
-2.768262e-04
9.264576e-05
-1.565552e-04
2.228543e-04
2.593879e-04
9.196423e-04
9.379668e-04
1.213758e-03
2.350948e-03
5.920476e-04
-1.870893e-04
-3.885886e-04
-2.152417e-04
-2.176297e-04
-6.204045e-04
4.565377e-04
-5.680225e-04
-2.572156e-04
1.949337e-03
4.473245e-04
2.650316e-03
1.598111e-03
1.240578e-03
4.322135e-03
5.363621e-04
1.068840e-03
-3.419113e-03
-2.733336e-03
1.262946e-03
2.192909e-03
1.907776e-03
1.775769e-03
8.091741e-04
-3.621550e-04
1.782431e-03
2.815341e-04
-1.624465e-03
5.969155e-04
6.801278e-04
3.729080e-04
1.016827e-03
-6.607736e-05
-6.316297e-04
1.553951e-03
1.379572e-03
4.243597e-04
2.089919e-03
1.209111e-03
1.646559e-03
3.332741e-05
-3.148433e-04
2.024949e-05
-1.219655e-03
3.703665e-04
-1.191946e-03
-5.943275e-04
8.448619e-04
1.124767e-03
-5.619354e-05
3.072372e-04
9.427318e-04
4.578372e-04
2.479455e-03
1.456822e-03
1.049856e-03
1.113610e-03
4.274070e-04
1.553729e-03
1.561011e-03
-3.009271e-04
-5.405055e-04
-4.611400e-04
4.300841e-04
1.637451e-03
1.996649e-03
3.037031e-03
1.851299e-03
8.710116e-04
2.803042e-04
4.439634e-04
1.792229e-04
-8.171488e-04
-3.239947e-04
3.605079e-03
4.972351e-03
-2.222556e-03
1.592306e-03
3.107726e-03
-2.180417e-03
-7.147079e-05
1.243875e-03
-3.194680e-03
2.453331e-03
3.868441e-04
-1.653972e-03
3.120593e-03
2.813388e-03
1.039740e-03
4.683796e-04
4.077461e-03
7.392245e-04
9.550838e-04
1.733734e-03
1.002194e-03
2.197844e-04
3.295002e-04
7.652728e-04
2.337310e-04
3.238340e-04
8.300529e-04
1.426984e-03
-1.113600e-03
3.191826e-03
1.511029e-03
-1.257458e-03
5.515535e-03
3.008716e-03
-1.658712e-03
7.535191e-04
-9.897867e-04
2.866444e-03
-1.186715e-03
-1.369121e-03
2.594619e-03
-4.789143e-04
-5.239389e-04
2.659875e-03
1.224966e-04
-4.566410e-04
8.227763e-04
5.001386e-04
-1.250542e-03
2.132291e-03
2.466925e-03
2.488294e-03
1.343001e-03
2.405729e-03
1.324940e-03
5.216963e-03
3.637066e-03
3.600365e-03
6.592376e-04
1.464949e-04
6.070567e-03
3.904356e-03
-3.296809e-03
-2.422995e-03
2.106423e-03
-6.327075e-04
-1.234485e-03
-6.182101e-04
-4.933519e-04
2.307617e-03
-1.138136e-03
9.408038e-04
2.346318e-04
1.672312e-03
2.355225e-03
2.015577e-03
1.311994e-03
-5.930734e-04
-4.532705e-05
7.639327e-04
1.146607e-03
2.768966e-03
3.025352e-03
-1.972569e-03
-1.645337e-04
7.733388e-04
9.139241e-04
4.381160e-04
7.043649e-04
4.477672e-05
6.240236e-06
1.652183e-03
2.422895e-03
1.702530e-03
2.174032e-03
1.431730e-03
9.479684e-04
7.821969e-04
1.732453e-03
1.495999e-03
-5.718646e-04
7.754274e-04
8.069617e-04
-4.323478e-04
9.978958e-04
7.500504e-04
1.925564e-03
2.537871e-04
-3.794401e-04
6.952838e-04
2.082665e-03
4.581058e-04
-2.503163e-03
8.784376e-04
1.308537e-03
-4.073868e-04
1.867251e-03
7.247034e-04
3.959258e-04
6.046855e-04
1.498860e-03
2.839606e-04
-4.684560e-04
9.039680e-04
1.070261e-03
3.253710e-04
-1.102698e-03
-2.857767e-04
1.029281e-04
-5.803881e-04
4.678070e-04
8.631518e-04
1.348791e-03
1.945606e-03
2.058904e-10
1.053451e-10
-1.641094e-10
4.324686e-10
4.499608e-10
-5.311361e-11
2.283370e-10
1.375175e-10
-2.714934e-10
1.050580e-03
1.259144e-03
1.217354e-03
-8.355905e-04
1.903738e-03
2.652234e-03
9.108506e-04
2.916078e-03
3.715239e-03
1.047487e-12
-2.054189e-11
8.852897e-12
5.219699e-12
-9.004501e-12
6.117507e-12
4.613987e-12
3.393870e-11
-7.812476e-11
-6.534117e-11
4.005844e-11
6.060719e-11
-3.054354e-11
-2.800435e-12
4.295971e-12
5.541009e-11
-8.665504e-11
-3.790861e-11
-3.002467e-08
-3.976491e-08
-7.309544e-08
-9.795244e-08
-1.048559e-07
-1.420813e-07
-4.965115e-08
-9.469394e-08
-1.044048e-07
8.745922e-08
1.220163e-07
4.909732e-08
4.605625e-08
2.854517e-08
-4.883821e-08
2.085780e-09
2.496609e-08
-2.328060e-08
9.099041e-12
3.943431e-11
-1.893833e-11
1.097893e-11
-8.128345e-13
5.537918e-11
2.731802e-11
9.590902e-11
3.534339e-11
1.422368e-09
9.812155e-09
7.343574e-09
4.517587e-09
9.385761e-09
3.675471e-09
9.782722e-09
1.176584e-08
4.855912e-09
2.421199e-08
9.514866e-09
-1.484768e-08
1.162391e-08
3.632180e-09
-1.099763e-08
7.331881e-09
5.179025e-09
-2.201033e-08
4.790591e-08
2.433360e-08
3.565451e-08
2.162161e-08
2.346019e-08
1.005260e-09
-5.125392e-08
-9.217842e-08
-8.992868e-08
-6.723628e-09
-1.706978e-07
-2.189086e-07
4.701221e-08
-7.483523e-08
-1.260685e-08
5.795192e-08
1.161505e-07
3.038280e-08
-9.157962e-09
-5.645563e-08
-4.667018e-08
9.809619e-09
-1.120748e-07
-1.484228e-07
-1.711300e-08
-2.470257e-08
7.496590e-08
-5.658649e-09
9.115680e-09
-6.912857e-09
-1.726213e-08
-1.958300e-08
-1.332963e-08
-8.091469e-09
-2.527717e-08
1.305545e-08
-1.209245e-07
-1.084279e-07
-1.373581e-07
-3.174708e-08
1.322536e-08
-6.260365e-08
-8.367134e-08
-3.328079e-09
-5.164672e-08
8.964041e-09
5.410796e-08
-6.575855e-09
-6.546869e-08
-8.486946e-08
-5.981629e-08
-5.016648e-08
-1.904006e-07
-3.963425e-08
-1.823123e-08
-4.770304e-08
-3.203577e-08
-1.067383e-08
-2.369459e-08
-2.638709e-08
1.147151e-08
-7.255246e-09
-5.025846e-08
3.207389e-09
6.618743e-08
1.537889e-08
2.358966e-08
9.853674e-08
4.273666e-08
9.449072e-08
1.765302e-07
1.267978e-07
7.253182e-08
6.879573e-08
-5.986781e-08
1.104846e-07
7.368480e-08
2.907023e-08
8.422492e-08
1.202747e-07
7.090892e-08
9.349112e-08
2.062319e-08
5.089704e-08
-2.430564e-08
-4.938163e-08
3.047247e-08
8.886131e-08
-1.555685e-08
-8.219300e-08
-5.108852e-08
-2.712934e-08
-2.455710e-09
-5.431165e-08
-2.543841e-08
5.926423e-09
-3.540829e-08
-2.166047e-08
-3.250005e-08
-1.328283e-08
-1.005235e-08
-2.455125e-08
-9.763286e-10
-3.907105e-09
-4.676232e-08
-1.890379e-08
4.598185e-09
-2.163882e-08
1.235871e-07
1.221318e-07
6.110938e-08
3.134882e-08
1.618690e-07
1.157876e-08
-1.180362e-09
2.497096e-07
-9.540926e-08
2.330953e-08
6.615876e-08
7.323297e-08
1.506378e-07
8.966609e-08
5.193882e-08
2.814488e-08
1.658626e-07
1.664315e-07
-2.028355e-08
-2.885230e-08
-6.563217e-08
8.327533e-08
2.481982e-08
-3.145190e-08
2.240735e-07
9.508711e-08
1.631135e-07
2.440145e-08
-1.979849e-08
1.989212e-07
-1.233713e-07
-4.226720e-09
1.756216e-07
1.287858e-07
4.946809e-08
1.647141e-08
-1.180955e-07
-1.270668e-07
-1.754018e-07
-1.333519e-07
-2.244826e-07
-3.184726e-07
-1.445190e-07
-8.159893e-08
-1.423444e-07
-5.729880e-08
-1.375248e-08
1.966370e-08
-3.628910e-08
6.681506e-09
2.976260e-08
4.363956e-08
4.961002e-08
8.173139e-08
-2.645126e-08
-4.047515e-08
-8.298549e-08
-2.787260e-08
-7.032922e-08
-1.086104e-07
2.523540e-08
-2.271289e-08
-2.259235e-08
-4.619153e-10
-1.567506e-08
-4.459972e-08
8.827126e-08
7.924324e-08
1.220587e-09
6.250228e-08
6.173251e-08
-2.562725e-08
-3.533534e-08
-7.495370e-09
-2.743257e-08
2.202223e-08
-6.483100e-08
-1.108095e-08
1.144694e-08
-6.759763e-08
-4.884752e-08
-5.631242e-08
-5.816460e-08
-2.394392e-08
7.089933e-08
2.512033e-08
4.622426e-08
9.856973e-08
1.200539e-07
8.225432e-08
7.693335e-08
1.247929e-07
1.593958e-07
8.967665e-08
1.212027e-07
1.154333e-07
4.541125e-08
3.012284e-08
-1.782191e-08
2.021921e-10
1.299659e-10
1.378675e-10
4.050825e-11
1.859348e-11
-1.002039e-12
-1.072760e-11
-8.164226e-11
-1.233094e-10
6.680724e-08
1.998182e-08
-4.610616e-08
1.863520e-08
2.701786e-08
-4.956835e-08
-9.462630e-08
-4.137214e-08
-9.132507e-08
-1.668669e-11
-4.897057e-11
-4.283126e-11
-1.030160e-11
-3.254361e-11
-2.084405e-11
1.774929e-12
2.520370e-11
-4.816349e-11
-2.498029e-11
-2.133093e-11
3.540516e-11
5.263355e-11
-2.599034e-11
-3.373848e-11
5.581833e-11
-2.442369e-11
2.876566e-11
4.684532e-03
-1.048780e-03
-6.706364e-03
-3.625969e-03
-6.105230e-03
-3.664610e-03
8.443788e-04
-9.838274e-04
-1.691907e-03
9.420588e-03
3.372310e-03
1.355943e-03
-3.735986e-03
-3.248954e-03
-4.315339e-04
-2.457229e-03
-5.889683e-04
4.992888e-03
2.170871e-11
3.067992e-12
2.524490e-11
6.630932e-12
-5.982377e-11
-6.178916e-11
-7.517478e-11
1.614273e-11
4.225936e-12
-1.658331e-03
-2.075982e-03
-1.112559e-03
-1.433637e-03
-1.866190e-03
-1.016424e-03
-1.186103e-03
-1.932632e-03
-1.076188e-03
2.573433e-03
1.762293e-03
-8.800552e-04
-2.259484e-03
9.729958e-04
6.748721e-04
-8.914720e-03
2.666447e-03
1.503304e-03
8.299627e-04
-3.131609e-04
3.198758e-03
-1.178906e-03
-2.321893e-04
-2.201516e-03
-1.218900e-03
-1.406394e-03
-6.246042e-03
-2.319687e-03
-6.718980e-03
5.321578e-04
2.692564e-03
-2.659582e-03
-1.272016e-02
-6.662712e-03
9.644846e-04
-2.327664e-03
7.422154e-04
1.262642e-03
7.152434e-03
7.978371e-03
1.983963e-03
1.583205e-03
2.308857e-03
5.541345e-03
-1.686912e-03
-1.958413e-03
1.307860e-03
1.177203e-02
-3.067330e-05
4.097181e-03
8.532973e-03
1.930598e-03
-3.511542e-04
-1.337662e-03
-1.029856e-03
1.979651e-04
8.686734e-03
-6.668432e-03
2.240355e-03
1.011648e-03
-1.378721e-02
-2.729863e-03
-2.736545e-03
7.338268e-03
7.539252e-03
1.931128e-03
2.384290e-03
-5.784449e-03
-4.510190e-04
1.079304e-02
-5.750304e-03
-3.597858e-03
-6.975548e-03
-6.335954e-04
2.095822e-03
4.664926e-03
2.311103e-03
1.272399e-03
1.770447e-03
2.294979e-03
7.530841e-04
-2.119560e-03
-5.343840e-03
4.839478e-04
-8.784452e-04
7.206540e-03
1.225026e-02
1.215247e-02
7.395537e-03
7.244342e-03
-7.378980e-03
-1.982726e-02
-9.418187e-03
4.383360e-03
-5.090614e-04
-7.368363e-03
4.767382e-03
7.720063e-03
-5.371839e-03
-1.159969e-03
8.235446e-03
8.080556e-03
6.530704e-03
-8.901665e-03
-3.277008e-03
7.609963e-03
-2.195074e-02
-2.240468e-02
3.942526e-03
8.645671e-04
-3.484245e-03
-7.014936e-04
-3.786276e-04
-1.076106e-03
-3.355439e-03
3.923157e-05
4.599988e-04
-3.908252e-04
-7.738964e-03
-5.371938e-03
-6.997648e-03
-2.094247e-03
6.620408e-04
-1.119428e-02
1.617425e-03
8.922634e-03
7.430217e-03
-1.164920e-03
1.607213e-02
-3.854466e-03
-4.165312e-03
-2.122152e-03
-1.092430e-02
1.073635e-03
6.358819e-03
-2.465146e-03
-8.110091e-03
-8.590656e-04
-7.262134e-03
-1.053212e-02
-2.520986e-03
-1.304648e-02
-9.295867e-03
-5.411933e-03
-1.183943e-02
-4.233715e-03
-5.069838e-03
-2.305827e-02
-6.549500e-03
1.264219e-02
-1.084350e-03
5.702364e-04
-1.218833e-02
4.525930e-04
-2.133080e-03
-6.104027e-03
-2.529138e-03
5.935937e-03
-6.210207e-03
-1.378024e-02
-1.310093e-02
-9.096703e-03
-1.906161e-03
-6.837954e-03
-6.808370e-03
7.913964e-03
-2.149225e-03
-7.450726e-03
4.109514e-03
-6.405964e-03
-7.940150e-03
1.571091e-03
-1.105256e-03
1.736517e-03
9.667672e-03
-2.918281e-03
-5.922721e-03
1.050570e-03
1.242806e-03
3.085061e-03
9.525301e-03
6.314207e-03
1.918574e-03
7.799427e-04
2.895160e-03
2.437200e-04
3.820986e-03
2.634125e-03
2.514146e-03
-4.170031e-03
-1.538606e-03
3.401869e-03
-5.783463e-03
-8.757209e-04
5.360881e-03
2.533637e-03
-6.710552e-03
-5.763992e-03
-7.130879e-03
-3.477518e-03
-7.280829e-03
-5.550426e-03
5.422874e-03
3.998543e-03
8.173984e-03
2.523254e-03
-2.462959e-03
-6.570810e-03
-3.771994e-03
-9.770833e-05
1.249384e-04
-1.455062e-04
-2.628353e-03
5.336078e-04
-2.348985e-03
-6.565960e-03
2.812240e-03
4.801779e-03
2.693240e-03
3.538905e-03
-2.102415e-03
-7.206282e-03
1.649507e-03
-3.660938e-03
-1.033065e-02
-9.183945e-11
-2.322910e-10
5.900981e-11
-4.227627e-11
-4.112403e-11
-4.066188e-11
-2.848188e-10
-1.817686e-10
6.844415e-11
3.688330e-03
3.470687e-03
5.676292e-03
4.636913e-04
-5.220189e-04
4.146479e-03
2.131210e-03
-2.512747e-03
-7.628979e-04
4.420925e-11
1.180419e-11
1.303533e-12
8.690456e-11
2.961844e-11
4.862784e-11
5.973317e-11
-4.081559e-11
-2.867022e-11
4.280745e-11
4.327643e-11
1.409935e-10
6.835009e-12
1.815402e-11
1.433747e-13
1.461257e-11
-1.943816e-11
-1.467912e-11
-1.688566e-03
-1.714220e-03
-4.938079e-03
2.318689e-03
3.377666e-03
-7.225628e-04
6.870448e-03
3.461089e-03
-5.585782e-04
5.452906e-03
9.695953e-04
6.263929e-03
1.902394e-05
-3.274448e-03
5.984271e-03
1.071192e-04
-3.489034e-03
-1.064876e-03
7.249197e-12
3.507607e-11
6.601281e-11
2.281771e-11
3.182073e-11
2.419548e-11
-5.777920e-11
-1.065959e-10
-1.116125e-10
-7.607241e-04
1.674119e-04
-8.158546e-04
-5.721195e-04
5.731805e-05
-1.477019e-03
-2.180971e-03
-1.441877e-03
-2.445087e-03
-1.572326e-03
-3.348297e-03
-2.803814e-03
-4.427609e-03
-1.705711e-03
-4.603785e-04
2.235748e-03
8.939633e-03
3.643453e-03
-4.223217e-03
-2.013934e-03
-2.759714e-03
-7.052224e-03
-9.802212e-03
-8.461043e-03
3.150599e-03
3.842502e-03
7.794411e-03
1.045803e-02
-7.225302e-03
-1.231788e-02
-6.515831e-03
7.202153e-03
1.094004e-02
2.294194e-03
-1.072823e-02
-1.013147e-02
1.948561e-03
-1.803439e-03
5.426134e-04
3.320679e-03
4.961203e-03
1.516048e-02
1.394074e-02
1.667841e-03
-1.038773e-03
8.029031e-04
2.039950e-03
9.230138e-04
4.347510e-03
4.589378e-03
-1.747503e-03
7.767185e-03
4.292421e-03
-2.440925e-03
3.086909e-03
2.910919e-03
-2.905318e-03
9.632189e-03
2.270363e-03
-1.047292e-02
-9.736929e-04
-4.736251e-03
-1.485409e-02
6.204091e-03
9.059962e-03
1.993334e-03
1.524369e-03
5.276126e-03
-9.395627e-05
6.809938e-03
1.502927e-03
-9.046422e-03
-5.921217e-03
3.315297e-03
-1.980708e-03
1.186756e-03
3.523721e-03
4.297165e-03
-8.274473e-03
-3.971812e-03
-1.880209e-03
-2.512740e-03
-1.024309e-03
-1.398762e-03
9.095364e-04
9.664070e-03
6.073939e-03
-4.763306e-03
6.791371e-03
-4.605859e-04
1.144881e-02
6.680788e-03
1.568397e-02
-2.360212e-03
-8.870671e-04
6.465765e-03
7.633936e-04
-4.035288e-03
2.607566e-04
2.528542e-03
-2.793132e-03
3.532764e-04
-1.254211e-02
-1.040517e-02
-1.084354e-03
-7.809880e-03
4.388431e-03
1.729397e-02
-2.318953e-05
-8.674201e-04
-2.799361e-03
1.963183e-03
-2.196236e-03
-4.186332e-03
6.193322e-04
-2.860763e-03
-2.285292e-03
-4.767168e-03
9.787239e-03
5.616138e-03
1.351753e-02
2.109474e-02
1.245338e-02
1.551665e-02
2.459466e-02
4.624206e-03
1.302927e-02
1.475273e-03
1.896260e-04
1.503301e-02
-6.708208e-03
-1.206685e-02
-1.958149e-03
-1.608220e-02
-1.011791e-02
1.521833e-03
9.240816e-04
-3.976557e-03
7.281630e-03
1.179093e-02
1.000766e-02
1.033823e-02
1.348060e-02
2.545831e-03
-3.886858e-03
-3.564473e-03
1.930591e-03
1.481748e-02
2.399268e-02
1.177341e-02
1.534933e-02
2.157093e-02
-2.444773e-03
-4.535349e-03
5.750637e-03
-6.990812e-04
8.528724e-03
-5.262467e-03
-1.193829e-02
-3.053280e-03
-6.560503e-04
-8.482919e-03
-4.715381e-03
-3.824130e-03
8.366967e-03
-4.228647e-03
-9.553540e-04
5.795373e-03
-8.595889e-04
1.189301e-02
1.252404e-02
-4.422594e-03
1.647862e-03
7.015801e-03
3.384223e-03
8.642266e-03
1.121037e-02
7.970225e-03
4.798955e-03
4.745724e-03
5.705357e-03
4.226416e-03
1.335494e-02
1.272458e-03
5.549003e-03
1.418581e-02
-1.686662e-04
5.872582e-03
9.336157e-03
4.235063e-03
1.111443e-02
1.058734e-02
2.623275e-03
1.960680e-03
-1.957260e-04
5.132570e-03
2.475646e-03
6.673446e-03
7.750876e-04
-4.370475e-04
-7.415557e-03
8.221638e-03
1.252709e-02
3.625039e-03
4.722376e-03
-1.570993e-03
-2.952200e-03
6.495386e-03
7.989516e-03
9.904466e-03
1.604093e-03
6.194544e-03
4.261481e-03
-4.816569e-03
-1.661546e-03
1.630512e-03
1.029323e-02
1.569562e-03
-5.178980e-03
1.222638e-02
3.538116e-03
-4.488732e-03
2.768992e-03
-1.565220e-03
-5.026139e-03
-4.633601e-10
-6.175678e-11
-4.513911e-10
-3.681868e-11
2.021519e-10
-1.125207e-10
-2.793090e-10
-8.210067e-11
-2.765653e-10
6.763235e-03
9.449489e-03
1.005952e-02
-4.461242e-03
2.024276e-03
9.492700e-03
5.715551e-03
1.501696e-02
1.427612e-02
-1.087043e-10
-5.001369e-11
-3.282834e-11
2.260387e-11
2.458980e-11
-3.097019e-11
5.233699e-11
-1.609240e-11
5.006590e-11
-1.738664e-11
-2.704727e-11
-2.983528e-11
2.220992e-11
-4.763909e-11
3.804579e-11
-4.996785e-11
-4.937347e-11
-9.017592e-12
-4.346849e-03
-5.867332e-03
5.993599e-03
2.781681e-03
1.677126e-03
7.531052e-03
-5.740242e-03
-2.080250e-03
-2.355064e-03
7.046250e-03
1.028394e-02
5.433566e-04
1.383143e-02
1.008637e-02
-5.181000e-04
-1.005668e-02
-1.098463e-02
-8.068061e-03
5.981740e-12
-3.239085e-11
4.980782e-12
9.334412e-12
-1.256895e-11
-9.156741e-11
7.436595e-12
4.718573e-11
4.493366e-11
-2.802795e-03
-3.031238e-03
-3.076253e-03
-2.687251e-03
-3.279850e-03
-2.629307e-03
-1.756679e-03
-2.253961e-03
-1.578983e-03
-9.286880e-05
7.706128e-03
3.887253e-04
-5.908827e-04
-2.763283e-03
2.837747e-03
-1.112823e-03
-5.601421e-03
1.664629e-03
4.603968e-04
4.892782e-03
4.640015e-03
-5.904103e-03
-1.045334e-03
-1.191688e-03
2.641139e-04
1.923953e-03
-2.834269e-03
-2.786737e-03
-1.483814e-03
-5.235310e-03
-2.758300e-03
-6.659293e-03
-1.600277e-03
-6.456064e-03
-1.421164e-03
8.597742e-04
-5.951702e-05
-4.837073e-03
-1.015182e-02
5.372284e-03
-4.921614e-05
-6.764583e-03
-5.309487e-03
-7.571310e-03
5.241719e-03
-5.034150e-03
-1.955932e-03
-4.445310e-03
-1.708002e-03
3.664348e-03
2.736819e-03
-6.124648e-03
-2.512968e-03
-1.068301e-03
-1.527954e-03
4.823383e-03
-9.610070e-04
1.582544e-03
-1.658237e-03
7.630336e-03
9.656768e-04
-2.788478e-03
-1.216838e-03
-4.009653e-03
3.032578e-04
-1.477793e-04
4.378806e-03
5.476920e-03
-1.181712e-02
3.149655e-03
-1.504424e-03
-8.349150e-03
-4.558728e-03
-4.569160e-03
-6.868496e-03
-1.874230e-03
-5.216824e-03
-4.088116e-03
2.249977e-04
-8.106281e-03
-4.440159e-03
1.082153e-03
-8.967916e-03
-9.899285e-03
-3.754500e-03
-4.081308e-03
3.674737e-03
6.043439e-03
6.922106e-03
-1.971008e-03
6.607846e-03
2.399891e-03
-5.218827e-03
-1.250929e-02
4.133504e-03
1.392674e-02
1.441252e-04
2.706167e-03
4.665715e-03
1.269975e-02
9.192280e-04
-3.084977e-03
-1.112292e-02
1.745437e-02
-9.917716e-03
-1.550398e-02
7.607250e-03
-1.901512e-02
2.128417e-03
-4.370709e-04
-8.609084e-04
-4.013848e-03
-6.382859e-03
-3.342557e-03
-6.056602e-03
-5.255856e-03
-3.185058e-03
-2.099668e-03
-2.758419e-03
-8.324791e-03
-1.255043e-03
-1.144340e-02
-4.275471e-03
1.700146e-03
-1.131552e-02
-1.249557e-03
3.189543e-03
7.161644e-03
-7.224803e-03
4.086384e-03
2.414523e-04
2.502889e-03
-1.327843e-02
-5.909704e-03
-5.181764e-03
-5.568370e-03
-5.763576e-03
-1.500183e-02
-4.706782e-03
-1.112818e-02
-9.176099e-03
-6.193439e-03
-1.561688e-02
-1.041658e-02
-9.328689e-03
-1.488493e-02
-1.144864e-02
1.488255e-04
-2.379919e-02
-1.197260e-02
1.212971e-03
6.127867e-03
8.077539e-03
-1.343838e-03
-3.824508e-03
-4.958972e-03
-5.113730e-03
-5.461436e-04
2.902614e-03
8.274348e-03
-6.032505e-03
-9.643362e-03
-3.584871e-03
-8.086560e-04
-3.722245e-03
-1.009856e-03
2.425738e-03
-8.629168e-04
5.811833e-04
1.210879e-03
-6.082160e-03
-1.831289e-04
9.390805e-04
-8.343565e-04
4.246106e-03
4.087272e-03
-1.703951e-04
-1.488065e-03
-6.980026e-03
-1.554499e-03
1.542764e-03
6.117200e-03
7.515751e-03
-1.466025e-03
8.223183e-05
1.054742e-03
6.087975e-03
4.934528e-03
2.878220e-03
-3.430080e-03
-7.997669e-03
1.166778e-03
-5.501618e-03
2.889849e-03
-1.209595e-03
-3.964248e-03
1.254983e-02
-6.852440e-03
-3.569016e-03
-3.427858e-03
-3.469737e-03
-9.787273e-03
-5.590411e-03
2.113308e-03
-1.205230e-03
7.227183e-03
-1.054920e-03
-1.510737e-03
-2.630316e-03
7.547495e-04
-3.427819e-04
-1.323047e-03
2.995236e-03
-9.357194e-03
-9.459958e-03
-9.321794e-03
6.729946e-03
1.450962e-03
-2.470105e-03
5.111936e-03
3.031332e-03
-6.620493e-03
2.112278e-03
5.889771e-03
-1.105712e-02
5.249354e-11
2.077005e-10
-7.985288e-11
-6.199031e-11
-7.016713e-11
1.842943e-10
1.729300e-10
2.477490e-10
2.696840e-10
-1.165999e-04
1.969668e-03
-1.806100e-04
3.436238e-04
1.736671e-03
-2.796925e-03
-6.861086e-03
-4.083404e-03
-5.973627e-03
2.647176e-11
-8.830148e-13
-4.011958e-11
6.039281e-11
3.030191e-11
-9.399775e-13
1.625056e-11
2.063216e-11
-4.798576e-12
-1.131964e-11
-3.092989e-11
5.058557e-12
-5.531779e-11
-3.971327e-12
4.460835e-11
3.900356e-11
-2.777736e-11
-1.656617e-11
-2.917272e-03
7.543695e-05
1.205217e-03
5.896469e-03
9.375528e-04
4.523090e-03
4.133718e-03
8.878955e-04
5.127312e-03
5.330684e-03
4.422544e-03
1.900045e-03
1.098773e-03
-4.109599e-03
-2.573001e-03
9.782735e-03
-8.462108e-04
-8.519788e-04
3.778844e-11
2.889933e-11
-3.493117e-11
1.223273e-10
5.695569e-11
6.618789e-11
1.264233e-10
8.495973e-11
9.842967e-11
-1.602717e-03
1.441971e-03
-8.356606e-04
-1.321525e-03
1.666661e-03
-5.657303e-05
-2.250946e-03
6.593525e-04
-3.812185e-04
8.860495e-04
-3.206571e-03
-6.453048e-03
-2.289335e-03
1.128817e-03
-5.879415e-03
3.109050e-03
7.519104e-03
4.450680e-03
-7.335342e-03
-1.195599e-02
-2.641802e-03
3.142442e-03
-4.793277e-03
-1.174232e-04
3.096979e-03
-3.230006e-03
2.046799e-04
3.309686e-03
-6.816053e-03
-2.581461e-03
4.020726e-03
-2.548456e-03
1.010695e-02
-3.288424e-03
-4.102503e-03
5.006905e-04
1.031106e-03
-1.218152e-02
4.159077e-03
1.367593e-03
8.966084e-03
1.223025e-02
5.098647e-03
3.103327e-03
6.263241e-03
6.031147e-03
-7.661781e-04
-6.133403e-03
7.266001e-03
4.613068e-03
-2.540260e-03
9.506659e-03
3.037082e-03
-5.195495e-03
1.294764e-03
1.197509e-02
-4.009375e-03
-6.336133e-03
9.822655e-03
-8.584945e-03
1.963914e-03
1.149447e-02
3.229728e-04
1.479586e-02
7.281099e-03
-8.442660e-03
-1.026077e-03
-4.082042e-03
1.444387e-03
-6.537012e-03
-6.604406e-03
8.447963e-03
5.215842e-04
2.242404e-03
-2.984366e-03
3.947236e-03
8.168405e-03
-7.797948e-04
-5.748998e-03
3.546543e-03
-7.221734e-03
-9.656561e-03
1.028825e-02
-3.807161e-03
-4.886868e-03
1.242903e-02
9.823681e-04
-5.079843e-03
1.195992e-02
-8.750288e-04
9.044499e-03
8.736246e-03
1.469618e-02
-7.566797e-03
2.945134e-03
1.665758e-02
9.457554e-04
2.225639e-03
1.252667e-02
6.248643e-03
-1.643580e-02
8.808782e-03
-1.215967e-02
-6.062032e-03
6.564409e-03
3.536599e-03
1.957349e-02
2.935111e-02
3.620282e-04
3.384962e-03
2.911962e-03
5.798145e-03
4.322017e-03
2.389227e-03
5.052313e-03
3.320710e-03
2.412698e-03
-1.492884e-03
2.851562e-02
-1.584262e-02
1.735449e-03
3.000057e-02
-1.316740e-02
1.092568e-02
3.415979e-02
-1.705415e-03
3.875655e-03
-3.925145e-04
9.244505e-03
6.483911e-05
-3.321244e-03
1.737055e-04
2.223517e-03
-1.397098e-03
-5.739936e-03
-8.104633e-04
1.077718e-02
-5.043248e-03
2.134316e-03
7.058498e-03
3.187763e-03
5.078770e-03
2.051625e-02
5.724772e-03
-4.453342e-03
8.495064e-03
-1.011065e-02
2.284095e-03
1.967255e-02
4.651784e-03
-5.688704e-03
1.797427e-02
-2.217546e-03
-6.326269e-03
-2.029875e-03
-2.980082e-03
4.177478e-03
-7.479134e-04
-4.796188e-03
-3.495525e-03
1.817802e-03
-5.927877e-03
-4.140932e-03
6.333893e-04
9.317162e-03
1.017793e-03
5.827267e-03
4.507557e-04
7.745045e-03
4.506657e-03
1.769526e-03
-3.242791e-03
1.073422e-02
1.223546e-02
-1.025634e-02
5.808714e-03
3.860293e-03
-5.801026e-03
-1.653774e-03
-3.784879e-03
-9.325934e-04
-6.673722e-03
-1.352542e-03
4.710346e-03
8.689375e-04
3.796394e-03
1.031010e-03
8.311871e-05
3.806804e-05
-5.444153e-04
-3.974237e-03
-4.371837e-03
2.024830e-03
-1.286119e-03
-2.016149e-03
6.089467e-03
5.818459e-03
6.379811e-03
-1.229846e-03
4.090137e-03
-8.581074e-03
8.765305e-03
1.452106e-02
5.182125e-04
1.794816e-03
2.237599e-03
-1.773595e-03
1.273145e-02
7.797656e-03
7.134416e-03
3.639177e-03
3.150898e-03
3.982950e-03
1.330263e-03
1.193275e-03
3.974608e-03
2.925265e-03
8.990233e-03
4.624430e-03
4.660434e-03
9.594576e-03
8.447911e-04
3.105387e-03
7.921454e-03
6.015020e-03
-6.909729e-10
-2.869644e-10
-4.459187e-10
-1.986598e-10
-2.975380e-11
2.643117e-10
-4.290213e-10
-6.132898e-10
-8.679062e-11
9.925856e-03
1.583355e-02
7.993839e-04
1.354529e-03
1.028775e-02
-1.073596e-03
3.991883e-03
1.481381e-02
6.461583e-03
8.253479e-12
-4.898746e-11
4.009426e-12
-3.970986e-12
-2.799539e-11
5.988478e-12
2.319955e-11
3.176112e-11
4.274773e-11
-4.074816e-13
1.472636e-11
-1.020195e-12
-5.891614e-11
-2.059149e-11
3.573969e-11
2.497701e-11
2.103582e-11
-1.734116e-11
-3.054569e-04
-5.601164e-03
-1.119824e-02
4.818783e-03
5.450203e-04
-5.971704e-03
6.361870e-03
5.081232e-03
1.517707e-03
3.077209e-04
-9.600194e-03
-4.713719e-03
7.026482e-03
-2.074325e-03
2.971715e-03
1.449204e-02
1.544645e-02
9.400082e-03
3.450443e-11
1.187005e-11
1.293194e-10
9.067928e-11
2.028040e-11
2.418947e-12
-3.496742e-11
4.679346e-11
6.195678e-11
7.035434e-04
3.836607e-04
7.154054e-04
4.762410e-04
1.875021e-04
-1.266617e-05
-2.061636e-05
-2.299781e-04
-7.731504e-04
1.916263e-03
-3.449187e-03
-3.955917e-03
3.028032e-05
-1.937081e-03
-5.514510e-03
-1.627869e-03
-1.708007e-04
-1.266815e-03
-5.411358e-04
-3.101715e-03
-4.415072e-03
6.823927e-03
1.928485e-03
-1.422520e-03
2.180042e-03
3.346253e-04
-4.315901e-04
3.411490e-03
2.269268e-03
3.217143e-03
7.843595e-03
5.743129e-03
6.269824e-03
2.237320e-04
-6.199525e-03
-1.200515e-02
5.314563e-03
1.307475e-02
5.825871e-03
-5.694148e-04
3.224049e-03
-3.507528e-03
-1.164998e-03
-1.635501e-03
-4.599557e-03
-8.079227e-03
-4.775687e-03
8.281350e-03
-7.077946e-03
-6.060862e-03
1.961460e-03
-6.369326e-03
-9.219619e-03
-2.037584e-03
-3.673642e-03
-4.912778e-03
2.210364e-03
-5.694899e-03
-9.888210e-04
2.420678e-03
-5.035383e-03
-2.721201e-03
-3.275569e-03
4.806688e-03
2.106685e-03
9.228892e-03
-4.391299e-03
1.975750e-03
1.257609e-02
2.509237e-03
9.060660e-05
2.106902e-03
2.833303e-04
4.989267e-04
2.002119e-03
-7.357069e-04
-5.646196e-04
2.389889e-03
-4.079986e-03
-1.201925e-04
1.873399e-04
-4.397829e-03
-6.408994e-03
-2.442372e-03
-1.724861e-03
4.089260e-03
-3.677609e-03
-5.545884e-03
-7.103826e-03
-2.781725e-03
-6.406366e-03
-5.617578e-03
-8.877775e-03
1.626200e-02
3.220615e-03
-1.568720e-02
1.301226e-02
2.195212e-03
-7.909142e-03
-6.119022e-03
1.863502e-03
-3.260105e-03
1.031036e-02
-5.706418e-03
2.538659e-03
4.434085e-03
-3.920405e-03
6.780506e-03
-1.883658e-03
1.062019e-03
-6.550233e-04
-1.648845e-03
-6.745574e-04
-3.642362e-03
-1.219313e-03
6.317629e-04
-6.177564e-04
-6.157111e-04
1.537712e-03
5.274075e-03
-1.395862e-03
5.078919e-03
7.237149e-03
-9.692920e-03
4.467862e-03
4.215112e-03
5.219101e-03
4.022935e-03
-2.336386e-03
2.535113e-03
2.781887e-03
-4.337101e-03
7.769284e-03
9.184144e-03
1.248084e-03
9.459706e-03
7.887606e-03
1.000393e-02
1.546871e-03
1.080283e-02
3.489069e-03
-3.423805e-03
-1.774896e-04
-4.337083e-03
-2.416157e-03
1.990236e-03
-2.297308e-03
-9.687677e-03
1.701475e-02
1.629375e-02
6.794792e-04
-3.472240e-03
-9.138941e-03
-5.534418e-04
3.631291e-03
1.195421e-03
2.726504e-03
4.102445e-03
6.689811e-03
-1.604597e-03
-3.297330e-03
-9.132261e-04
-4.988286e-03
4.538787e-03
1.569639e-03
-3.300296e-03
-3.076924e-03
-4.839693e-03
-7.410292e-03
-6.727919e-03
-7.571192e-03
2.344718e-03
4.011088e-03
1.504708e-03
-4.018273e-04
-1.652267e-03
-2.033482e-03
3.039523e-03
2.151364e-03
6.778371e-04
9.017351e-04
-2.074182e-03
-6.847438e-03
4.206545e-03
5.121462e-03
-6.173301e-04
-2.739670e-04
1.681268e-03
-2.348637e-03
-5.477751e-03
-1.778947e-03
-3.087971e-03
-1.921044e-03
4.394968e-04
-7.959738e-04
-1.944664e-03
-6.541798e-03
-4.000955e-04
5.661212e-03
-4.919851e-03
-5.644654e-03
1.241188e-04
1.370626e-02
9.242130e-03
-5.014065e-03
-7.039253e-03
-1.736504e-03
-4.614903e-03
6.953455e-04
-1.830351e-03
-2.309171e-03
1.825365e-03
-6.586533e-04
-8.369958e-04
-1.744618e-03
4.185575e-04
-2.618401e-04
3.490868e-04
-4.637471e-03
-1.722720e-03
1.667860e-04
-3.500647e-03
-1.853580e-03
-4.409833e-03
-4.830401e-03
-3.231745e-10
3.791310e-11
-3.223712e-10
-2.129643e-10
-3.833679e-11
-8.724721e-11
2.063214e-11
-1.246171e-10
1.167094e-10
-2.692314e-03
4.160679e-04
-1.875185e-03
-5.574859e-03
-7.793695e-03
-2.802752e-03
-2.167829e-03
-2.823123e-03
-1.971086e-03
-2.380833e-11
-1.890676e-11
-5.950326e-12
-3.576663e-11
3.398075e-11
3.844386e-11
1.493933e-11
9.079298e-12
-6.092936e-11
1.031660e-10
8.655082e-12
2.261437e-11
3.329243e-11
-7.215071e-12
4.400278e-11
2.370034e-11
2.591504e-11
9.408665e-11
-1.676598e-03
4.740940e-03
1.790181e-03
3.966656e-03
6.028412e-03
1.049833e-02
2.543705e-03
2.264068e-03
7.303799e-03
3.807618e-03
1.612866e-03
-3.505202e-04
1.702879e-03
4.699142e-03
1.912825e-03
-4.365189e-03
-3.348543e-03
-2.796211e-03
4.578250e-11
-5.038138e-12
3.479099e-11
5.640344e-12
5.143464e-11
2.932912e-12
-6.822108e-12
-1.534406e-11
2.639417e-11
-1.045316e-03
-1.701876e-03
-1.190846e-03
-8.911004e-04
-1.285339e-03
-1.124580e-03
-6.372568e-04
-1.029017e-03
-9.866288e-04
7.049207e-04
-7.895359e-04
-4.049006e-04
-1.401041e-03
1.971445e-03
-9.675888e-04
-3.569600e-03
-1.471663e-03
2.934841e-03
2.636318e-03
4.598005e-03
-1.581727e-03
-1.096112e-03
6.709836e-05
-2.964867e-03
2.791925e-04
2.703414e-03
-2.216465e-03
-1.285875e-03
-2.852668e-03
-7.634779e-03
-5.876058e-03
-3.654905e-04
1.250000e-03
-3.220081e-03
-3.690181e-03
3.661738e-03
-4.636049e-04
1.991304e-03
9.862108e-04
5.101014e-03
5.847877e-03
2.431889e-03
4.110600e-03
1.461470e-03
-8.384728e-03
3.992026e-03
-5.630958e-04
3.409308e-03
2.573345e-03
2.214390e-03
4.672949e-03
-5.373092e-03
3.262580e-04
4.000596e-03
-3.596496e-03
-4.358401e-03
5.679014e-03
-8.386913e-04
4.101889e-03
7.092957e-03
1.638608e-04
1.297376e-03
2.798476e-03
1.177425e-03
3.309641e-04
4.725121e-03
9.834168e-04
4.049089e-03
1.168777e-02
3.386464e-03
3.899184e-03
2.000675e-03
6.899198e-04
1.315800e-03
2.042796e-03
2.431612e-03
3.015492e-03
9.104904e-05
6.581187e-04
3.965083e-03
-1.809874e-03
-3.628738e-03
-5.518225e-03
-4.976939e-03
-5.006226e-03
-8.581236e-03
-2.334289e-04
-1.623248e-03
1.234986e-03
4.009726e-03
6.981614e-03
-5.646760e-03
-1.254353e-02
1.510580e-02
-3.904635e-03
-1.520839e-02
3.643137e-03
-1.374578e-03
-9.821997e-03
3.139520e-04
-1.120770e-02
-8.142480e-04
-1.790975e-03
-2.121084e-02
-2.970764e-03
3.292097e-04
-2.560155e-03
-4.773961e-03
8.779072e-04
4.116271e-04
5.288587e-04
1.481624e-03
-6.508973e-05
1.368601e-04
-3.122465e-03
-1.201264e-03
1.358785e-03
1.136064e-03
1.079778e-03
5.760054e-03
4.001800e-03
1.505908e-02
7.454159e-03
8.795215e-04
3.189892e-03
1.914523e-03
2.338290e-03
-8.069591e-03
-2.558307e-03
7.872593e-03
-1.352811e-03
2.246503e-03
-7.854352e-03
-1.030403e-02
-2.333687e-03
-2.744312e-03
-1.863109e-03
-2.145821e-03
3.224307e-03
5.113442e-03
-9.973372e-04
-6.086905e-03
-4.239717e-03
2.856098e-03
-1.019904e-02
2.080139e-04
-8.184525e-03
1.359753e-03
9.189570e-03
4.764158e-03
-1.580038e-03
-2.710767e-03
-5.934220e-04
-1.903672e-03
-4.157428e-03
2.554088e-03
9.724671e-03
1.820754e-03
-7.722184e-03
4.240510e-03
-3.815665e-04
-4.898828e-03
-1.923728e-03
-3.848852e-03
-5.996752e-03
4.402263e-03
-1.899425e-03
-3.285629e-03
-1.252445e-03
-8.569491e-04
-1.427559e-03
1.410013e-03
1.103304e-03
4.596448e-03
5.696136e-03
2.735070e-03
1.832129e-03
3.252460e-03
1.319355e-03
-2.186570e-03
5.072833e-03
3.181366e-03
-3.143194e-04
1.213221e-03
1.250404e-03
5.860773e-04
-1.568716e-03
1.887401e-03
1.634491e-03
4.945001e-03
6.895508e-03
5.209669e-03
3.036982e-04
-2.831239e-03
1.012223e-03
2.251786e-03
8.938407e-04
1.874443e-03
-4.609005e-04
2.261393e-03
-1.756474e-04
-2.191475e-03
-1.549024e-03
3.055647e-03
-4.484221e-04
-4.403210e-03
-3.552501e-04
5.010833e-04
1.822570e-05
4.914875e-06
3.142395e-03
1.712530e-03
-3.261254e-04
-1.948590e-03
-2.717785e-03
-4.114061e-03
-6.049761e-03
-8.174874e-03
-6.467702e-03
-6.030404e-04
-6.033562e-03
-5.792943e-03
1.559449e-03
-5.537950e-03
-3.618170e-03
2.459699e-12
1.555146e-10
5.709051e-11
1.579410e-10
1.445672e-10
9.980193e-11
-4.307497e-13
1.801908e-10
1.745094e-10
1.783676e-03
-5.997958e-03
-2.243004e-03
-2.224732e-03
-7.873161e-03
-5.268416e-03
-8.117026e-04
-2.881143e-03
-4.605067e-03
-1.684324e-11
6.440338e-12
-1.280538e-11
2.994079e-11
9.527735e-12
3.686169e-11
1.486804e-11
-4.660331e-11
4.708567e-11
-9.223470e-12
4.260858e-11
-4.710697e-13
-1.362494e-11
1.272686e-11
4.204618e-11
5.780441e-11
3.680625e-11
-3.465176e-11
9.985886e-04
2.788020e-04
7.735374e-04
-1.344686e-03
-3.896381e-03
-1.359443e-04
3.492650e-03
-3.319524e-03
2.298038e-03
1.847472e-05
8.592755e-04
5.792658e-03
-2.462149e-03
-7.993781e-03
-1.051907e-04
7.788493e-03
-3.387477e-03
-5.515643e-04
-1.016968e-11
3.116478e-11
4.731131e-12
3.438048e-11
7.749934e-12
4.816936e-11
3.559369e-11
-1.398457e-11
2.489212e-12
-1.223863e-04
1.855724e-03
1.546431e-03
-3.387767e-04
1.683348e-03
1.708308e-03
-1.475968e-03
2.911268e-04
7.771957e-04
-1.410826e-03
-1.417862e-03
-1.698272e-03
6.879395e-04
2.846897e-03
-2.232963e-03
3.606807e-03
7.552239e-03
1.883289e-03
1.527014e-03
-4.405459e-03
-2.939733e-03
2.832628e-03
-2.809979e-03
-1.003442e-04
2.819083e-03
2.356948e-03
5.437635e-03
1.821799e-03
7.915908e-04
-1.941945e-03
-8.337817e-03
-1.361471e-03
5.209385e-03
7.381925e-04
-8.720597e-04
3.795824e-03
-2.812746e-04
-3.035265e-03
3.590582e-03
3.037484e-03
1.673775e-03
5.914168e-03
9.685053e-03
5.586451e-03
2.389922e-03
-3.504627e-05
4.882240e-03
3.018472e-03
-5.352740e-03
1.642518e-03
6.722640e-03
-1.195155e-03
3.143685e-03
5.834669e-03
-4.973538e-03
1.224513e-03
-1.405658e-03
-3.254890e-03
2.826511e-03
-3.183424e-03
3.329013e-03
5.300495e-03
-4.148699e-03
8.287768e-03
2.108274e-03
-1.406628e-03
6.169593e-03
-2.490592e-03
-3.571857e-03
2.243431e-03
1.293691e-03
8.342544e-04
3.299264e-04
4.344691e-03
-9.652674e-04
-6.927614e-04
4.799034e-03
-5.105416e-04
-4.456792e-03
-2.285730e-04
-2.441969e-03
-5.335426e-03
1.219878e-02
1.292474e-02
-4.722991e-03
8.522454e-03
7.555857e-03
-1.286610e-02
5.111770e-03
6.430023e-03
-1.396130e-03
6.759260e-03
7.263027e-03
4.706585e-04
-3.689494e-03
7.347204e-03
-2.761823e-03
-2.621036e-03
4.005871e-03
-1.911783e-03
-4.471553e-03
2.044189e-03
-6.424598e-03
-4.661245e-05
3.710116e-03
5.428915e-03
9.397927e-03
1.376413e-02
4.191918e-03
2.369928e-03
-8.869572e-04
7.786156e-03
4.978178e-03
1.791737e-03
7.207621e-03
6.012285e-03
4.051052e-03
-8.729037e-03
2.307592e-02
2.188044e-03
-1.023238e-02
2.662201e-02
3.389739e-03
-8.220256e-03
2.410060e-02
4.085356e-03
1.002563e-02
3.052813e-03
2.463543e-03
2.210163e-03
1.866115e-03
-3.091971e-03
1.210606e-02
3.001733e-03
-6.444470e-03
-5.290987e-03
1.499103e-02
-2.878865e-03
5.108118e-03
1.448619e-02
2.242337e-03
6.434060e-03
3.465319e-02
9.537031e-04
1.375264e-03
3.349266e-03
1.282213e-03
-1.113968e-02
5.770469e-03
6.468490e-04
-1.483312e-02
-3.444491e-05
1.752028e-03
-3.703417e-03
4.597260e-04
-6.756338e-03
-1.745239e-04
3.157544e-04
-6.196132e-03
-4.458375e-04
2.214470e-03
2.618084e-03
9.019629e-03
6.522795e-03
6.634792e-03
-5.743241e-04
2.570757e-03
-8.781249e-04
-4.846611e-03
3.311888e-03
1.213589e-02
-5.778909e-03
7.820823e-04
-4.127565e-05
-6.852029e-03
-3.934647e-04
-2.211153e-03
-4.235975e-03
7.612015e-05
-2.138224e-03
-2.004348e-03
-5.647590e-03
3.389487e-04
-2.379701e-03
-5.556345e-03
1.280185e-03
-4.029628e-03
-4.059734e-03
-7.840700e-04
2.690287e-03
-2.361376e-04
-3.958209e-04
3.329894e-03
-1.790948e-03
-1.736300e-03
3.035496e-03
1.080364e-03
4.327695e-03
-5.935266e-03
5.095414e-03
5.249534e-03
1.918877e-03
6.856462e-03
-1.260561e-03
-2.695141e-03
1.694612e-03
-1.569213e-03
5.028815e-03
8.352562e-04
-2.317509e-03
3.144390e-03
-1.810463e-03
-4.595540e-03
4.490162e-03
2.786739e-03
1.029223e-03
-2.839058e-03
2.242400e-03
-2.116893e-03
1.635568e-03
9.199570e-03
2.124906e-04
-1.558418e-03
9.214600e-03
4.989918e-03
-1.092822e-11
-2.291823e-10
-2.474361e-10
2.754716e-10
-4.710186e-11
-2.052885e-11
-2.731158e-11
-4.699158e-10
-4.651750e-10
8.514666e-03
9.106697e-03
-6.613456e-03
-1.984967e-03
9.374916e-03
-5.255073e-03
5.341674e-03
1.534856e-02
2.955404e-03
2.595626e-12
-5.759720e-11
-6.843980e-11
2.323606e-11
-5.162596e-11
2.199973e-11
1.120491e-11
-3.024532e-11
-3.681457e-11
-4.589981e-11
1.878019e-11
5.854593e-11
-8.926570e-12
-1.047053e-11
-4.251362e-11
3.225559e-11
1.376897e-11
9.224451e-12
7.426835e-04
-8.584667e-04
-1.848802e-03
-8.599423e-04
9.588256e-04
9.622759e-06
3.172720e-04
4.586339e-04
1.692929e-03
3.724417e-03
4.017783e-03
-1.278202e-03
-2.686628e-03
-5.434807e-04
-3.928166e-03
-4.281309e-03
-9.322899e-04
-2.653507e-04
-4.388967e-11
2.139090e-12
-2.322005e-11
-2.911964e-11
-4.560939e-11
-3.758478e-11
-3.701524e-11
-4.691623e-11
-1.497398e-11
2.364460e-04
4.091157e-04
1.195270e-04
1.821199e-04
5.182651e-04
1.801718e-04
3.463797e-04
6.342261e-04
1.932875e-04
2.689442e-03
7.769796e-04
-1.261360e-03
2.848009e-03
2.629247e-03
-8.472707e-04
1.709828e-03
1.339031e-03
1.047215e-03
1.589377e-03
5.650258e-03
4.629915e-03
-7.408480e-04
3.459358e-03
-1.005436e-03
3.639206e-04
2.815138e-05
-3.382869e-03
1.331941e-03
-3.879731e-03
-7.043389e-03
-4.635143e-03
-5.642126e-03
-8.291445e-04
-5.074452e-03
-3.601744e-03
4.515747e-03
-2.451851e-03
-1.762399e-03
-2.902524e-03
-4.760660e-03
-3.202604e-03
-2.271890e-03
1.969256e-03
1.046166e-02
1.040189e-02
-2.227670e-03
-2.250212e-03
-9.325993e-04
5.024666e-03
3.821383e-03
1.055700e-03
4.726260e-03
6.410141e-03
1.755518e-03
2.208453e-03
-1.913851e-03
5.003331e-03
1.452117e-03
-2.718012e-03
9.694155e-04
4.335907e-03
1.246493e-03
2.998921e-03
4.318193e-03
3.456529e-03
-5.754675e-04
-3.953255e-03
-2.697670e-03
5.468117e-04
-3.723692e-03
5.796814e-03
4.872613e-03
-1.292402e-03
-2.002443e-03
-3.346719e-03
-1.877900e-03
1.103318e-04
-3.796179e-03
3.204061e-03
-1.401352e-03
-2.304144e-03
-2.098953e-03
-1.896833e-03
-9.682954e-04
1.616851e-03
1.038058e-03
4.699901e-04
-3.462386e-03
-2.067133e-03
-6.176112e-04
-3.565617e-03
6.749338e-03
6.400744e-03
5.720741e-04
1.898157e-03
-1.339895e-03
1.117475e-04
-2.950615e-03
-5.833055e-03
-3.237786e-03
4.295492e-03
3.164181e-03
-3.857740e-03
-5.345105e-03
-1.179188e-03
-3.352149e-03
-5.257256e-03
1.334721e-03
-2.966561e-04
1.836523e-04
8.183806e-04
1.578990e-03
2.939882e-03
2.500735e-03
4.932479e-03
5.166657e-03
3.495943e-03
-2.986039e-03
-2.461265e-03
-1.937009e-03
2.280644e-03
2.647093e-03
1.683214e-04
7.405684e-03
8.684626e-03
2.960904e-03
-5.662698e-03
2.293869e-03
8.637456e-03
-3.619939e-03
8.508310e-03
7.354292e-04
3.165431e-03
-8.659413e-04
-2.692564e-03
-1.045485e-02
-9.400419e-04
2.548235e-03
-9.788930e-03
1.676557e-03
9.641213e-03
-1.976423e-04
9.367757e-03
8.721732e-03
8.754573e-05
-2.792474e-03
1.102419e-03
2.321322e-03
8.057163e-03
9.151286e-03
7.044659e-03
1.431531e-02
8.078230e-03
-5.738753e-03
-3.010688e-03
8.721293e-03
-9.826338e-04
-2.928571e-03
5.069128e-03
-2.433583e-03
-6.429853e-04
-1.273705e-03
-9.763049e-04
6.126312e-03
7.002399e-03
-1.876186e-05
4.023241e-03
-4.350847e-04
2.587593e-03
7.702178e-03
2.311531e-03
-5.001134e-03
-4.564912e-03
-1.730838e-03
-2.559777e-03
-1.451589e-03
7.932991e-04
3.950356e-03
5.243974e-03
1.289068e-03
7.959957e-03
7.733364e-03
7.845719e-03
3.136153e-03
7.141462e-04
3.360319e-04
-1.437202e-03
-2.788199e-03
-2.438030e-03
2.919436e-03
5.128612e-03
2.203344e-03
2.343492e-03
5.968289e-03
6.877317e-04
1.659647e-03
3.418485e-03
-7.239828e-04
3.362200e-04
-1.994240e-03
-3.252730e-03
1.303456e-04
5.019247e-04
4.487073e-03
-7.001439e-03
-5.353073e-03
5.998214e-04
3.896981e-03
5.544120e-04
1.285127e-03
5.363980e-03
3.471310e-03
4.985573e-03
3.888376e-03
1.276870e-03
4.954088e-03
-2.459495e-03
4.716704e-06
4.829773e-03
-3.450670e-04
1.747466e-03
3.530028e-03
-2.272922e-03
-1.553451e-03
-7.848852e-04
-1.934998e-11
-6.495660e-11
-2.317343e-10
-3.642456e-11
-3.166708e-11
-8.980901e-11
-1.018061e-10
-1.970924e-10
-2.658466e-10
6.678785e-03
9.470055e-03
6.302679e-03
8.658885e-04
2.836603e-04
2.442071e-03
1.559392e-03
-1.656883e-04
3.203510e-03
-1.072942e-10
3.500368e-11
4.151088e-11
6.558089e-11
3.912003e-11
-6.643062e-11
1.185441e-11
-6.500801e-12
4.634220e-11
1.880079e-11
1.181577e-12
9.952931e-11
7.949423e-11
2.310787e-11
4.175238e-11
7.700714e-11
7.602461e-11
1.038510e-10
-2.765215e-03
-9.891769e-04
-8.997809e-04
-3.684640e-03
-4.283484e-03
1.067620e-03
7.619334e-03
4.933415e-03
6.671685e-03
-4.720754e-03
-4.287066e-03
4.101040e-03
-1.024143e-02
-1.158891e-02
4.365833e-03
-3.881097e-04
-3.549521e-03
5.070522e-03
-2.991441e-11
1.977013e-12
-8.305892e-12
-4.854439e-11
-4.181337e-11
1.388075e-11
-2.045964e-11
-4.174046e-11
1.187287e-11
-7.310613e-04
1.700478e-03
-1.904481e-05
-1.059285e-03
1.584984e-03
1.871682e-04
-2.391252e-03
-2.392828e-04
-1.095002e-03
-3.353688e-03
5.807998e-04
-2.382473e-03
-5.433734e-03
-2.449291e-03
-6.661985e-03
-3.021447e-03
1.771365e-03
2.671700e-03
-7.964044e-03
-5.440403e-03
-1.114008e-03
-5.433192e-03
-7.724549e-03
-5.837913e-03
5.102277e-03
5.533037e-03
5.981306e-03
6.068984e-03
-1.520057e-04
-1.815798e-02
-6.699865e-03
-2.600383e-03
5.968051e-03
-2.488288e-03
6.590260e-04
5.060257e-03
-7.310677e-04
-5.594940e-03
4.345960e-03
2.682148e-03
-2.885932e-03
1.496284e-03
5.532814e-04
4.252485e-03
4.750609e-03
3.130091e-03
1.951894e-03
-3.277029e-04
3.449348e-03
9.281461e-03
6.004957e-03
5.943393e-03
8.938119e-03
6.895370e-04
-9.081590e-03
9.519709e-03
-1.122332e-03
-6.181753e-03
1.008736e-02
-1.703338e-03
-5.014149e-03
2.426451e-03
-5.714984e-03
5.787897e-03
9.928684e-03
-2.736627e-03
1.979206e-03
1.130963e-03
-1.081919e-02
8.476445e-03
1.459455e-02
3.482186e-03
-1.691622e-03
-2.330463e-03
-3.201907e-03
5.369362e-03
7.984771e-03
2.796181e-03
-3.864483e-04
5.213440e-03
-4.820049e-03
-7.934828e-03
3.036428e-03
-8.997095e-03
-5.102176e-03
9.976077e-03
5.409164e-03
-2.076309e-03
1.335512e-02
6.814921e-03
-3.584375e-03
6.742511e-03
5.908637e-03
-1.480981e-02
-2.810553e-03
2.015847e-03
-9.114650e-03
2.157160e-03
8.952189e-04
1.151683e-02
-1.538706e-02
2.739212e-03
-6.520193e-03
-1.434579e-02
-1.175054e-02
6.891817e-04
7.265620e-03
7.518725e-03
-1.166063e-03
-1.899840e-03
-1.743365e-03
6.302442e-03
2.049711e-03
2.489707e-03
2.923207e-03
6.538049e-04
2.069955e-03
1.644991e-03
2.920287e-02
-7.801378e-04
4.494494e-03
3.602455e-02
4.699493e-03
2.764067e-03
2.126615e-02
-1.596179e-03
-1.825542e-03
3.752251e-03
1.392642e-02
-5.702188e-03
-1.783193e-03
7.505581e-03
-6.116375e-03
-1.304022e-02
-3.114494e-03
-2.355317e-03
5.823269e-03
-9.561611e-04
1.221199e-03
1.042600e-02
7.873446e-03
4.075223e-03
1.925988e-02
-9.295773e-04
-1.194547e-02
4.210996e-03
-1.005572e-02
-8.614476e-03
7.274400e-03
2.050043e-03
-8.020026e-03
1.094953e-02
3.165040e-03
-5.083051e-03
-4.976935e-03
-3.452386e-03
2.468162e-03
-3.843041e-03
-1.291476e-02
2.592757e-03
-3.253619e-03
1.779043e-03
1.007562e-02
1.167331e-03
7.182651e-03
3.875533e-04
1.290565e-03
-1.246307e-04
-4.243861e-03
-4.284871e-04
3.545753e-03
-6.046795e-03
-5.061999e-03
-7.276819e-03
2.341806e-03
7.763609e-03
1.649633e-03
-3.931312e-04
6.288077e-03
8.659587e-03
-3.057077e-04
-9.182381e-04
5.951694e-03
-3.919371e-03
-3.689581e-03
2.657276e-03
1.042474e-03
3.770764e-03
3.544536e-03
3.052017e-03
6.042121e-03
6.590345e-03
1.825367e-03
-5.723965e-04
3.933697e-04
7.185951e-03
3.234088e-03
-1.512368e-03
-1.194534e-02
-4.082194e-03
-5.658098e-03
-6.452212e-04
2.141805e-03
-8.860338e-04
4.944096e-03
9.830246e-04
-9.520505e-03
1.509666e-03
3.325221e-04
2.598054e-03
5.312692e-03
5.364087e-03
4.997872e-03
5.362769e-04
3.866740e-04
2.090211e-05
-8.915953e-04
2.127524e-03
-2.208406e-03
4.435869e-03
7.583923e-03
-2.894640e-03
-3.155340e-03
2.610415e-03
5.019827e-03
-5.883664e-10
-2.874994e-10
-5.740400e-10
2.164575e-10
2.093540e-10
2.632554e-10
-1.974122e-10
-1.194604e-10
7.060309e-11
9.221798e-03
1.093403e-02
-2.749710e-03
-3.855426e-03
4.460911e-03
-5.416610e-03
5.106290e-03
1.557694e-02
5.934529e-03
2.851478e-11
-5.195211e-11
2.517164e-11
3.025381e-12
-1.331225e-11
-4.306794e-11
2.661711e-11
6.594832e-11
-1.328210e-11
1.511113e-11
5.991931e-11
-6.931939e-12
2.726255e-11
3.477973e-11
-3.325682e-11
-3.633747e-11
-5.574628e-11
-3.423095e-11
3.325994e-04
-2.146475e-03
-2.411970e-03
1.628365e-03
-7.640829e-04
-1.140730e-03
-7.979764e-04
5.541674e-04
4.367200e-04
-3.551236e-03
-1.997121e-03
-3.749061e-04
4.418592e-03
7.838980e-03
4.496207e-03
-7.809186e-04
3.865144e-03
3.603583e-04
1.093554e-11
-2.089518e-11
-2.570356e-11
2.403226e-11
4.256002e-11
-1.656683e-11
7.598635e-11
-6.892433e-12
2.538245e-11
-6.236840e-04
-1.021554e-03
-1.598110e-03
-7.645347e-04
-1.080789e-03
-1.566764e-03
-6.922965e-04
-8.798016e-04
-1.291899e-03
-3.129051e-04
9.663809e-04
-1.425872e-05
-1.075522e-03
1.134221e-03
1.139814e-04
-4.985848e-04
-7.457756e-04
-7.640667e-04
-2.777846e-03
-3.105491e-03
-4.452887e-04
-1.912043e-03
-1.263398e-03
1.598584e-03
6.397121e-03
9.062786e-03
9.698063e-03
5.919572e-03
4.184163e-03
9.692900e-04
-7.849887e-03
-6.947051e-03
-6.113757e-03
-6.118126e-03
-1.072583e-03
-4.173141e-05
4.130604e-03
3.628941e-03
4.974733e-03
-7.910233e-04
-2.901744e-03
-4.609592e-03
-6.362255e-03
-4.641801e-03
-3.316538e-03
-2.696013e-03
2.785309e-05
-1.430832e-03
-1.203194e-03
-1.441129e-03
-3.660890e-03
-8.690980e-04
-2.239753e-03
-6.227271e-03
5.699757e-03
5.150772e-03
2.076714e-03
-8.361023e-04
-7.821815e-04
-2.161317e-03
-4.355690e-03
-4.992771e-03
-1.449431e-03
8.112402e-03
3.932403e-03
-1.466526e-03
9.548240e-04
1.565368e-03
-9.118642e-03
-5.080852e-03
-5.108855e-03
-7.783602e-03
-7.181027e-04
7.420183e-04
-3.275849e-04
-9.957609e-04
-2.194375e-03
-2.387568e-03
-2.762492e-03
-3.879843e-03
-2.796957e-03
-1.296500e-03
-2.769379e-03
-2.583825e-03
1.021457e-03
8.758663e-04
1.167787e-03
1.271572e-03
1.890874e-03
2.930322e-04
5.713150e-03
-3.173708e-03
3.384287e-03
3.507524e-03
-2.219681e-03
1.018622e-03
1.267362e-03
4.948202e-03
5.352349e-03
-6.422943e-03
5.459266e-03
6.930938e-03
-5.367296e-03
5.921666e-04
1.137241e-02
-1.404123e-02
-6.351057e-03
-2.931001e-03
-2.836397e-03
-3.322898e-03
-2.740721e-03
-2.578788e-03
-2.512521e-03
-1.807590e-03
1.292050e-03
2.069476e-03
2.906978e-03
1.826340e-03
5.955805e-04
5.034875e-04
-8.423256e-04
-4.580360e-03
-6.121667e-03
-1.244799e-03
-4.619584e-03
-5.116316e-03
-1.048321e-02
-5.945110e-03
-2.033199e-03
-8.846777e-03
-5.999002e-03
2.907149e-03
2.060472e-03
3.483826e-03
1.252410e-02
7.207220e-03
-7.664198e-04
2.167404e-03
-3.630210e-03
-8.766957e-03
-7.199168e-03
-8.410396e-03
-9.546710e-03
-4.104105e-03
-2.290046e-03
-3.669576e-03
-1.002777e-02
-3.516565e-03
-3.211252e-03
-5.808148e-04
-3.702525e-03
-5.336884e-03
-7.440802e-03
2.390197e-03
1.849311e-03
5.174031e-03
-2.690303e-03
-8.420959e-03
2.600506e-03
8.542268e-04
-1.586924e-03
1.337156e-03
-2.771609e-03
-3.909238e-03
-2.794099e-03
1.343253e-03
2.452754e-03
2.686403e-03
-1.104696e-04
-2.675364e-03
-5.790687e-03
2.130290e-03
1.489837e-03
-1.450501e-03
1.591353e-03
5.144543e-04
6.784178e-04
-1.368135e-03
-2.077059e-03
-1.439031e-03
-3.748578e-03
-1.490274e-03
-5.279229e-04
4.446966e-03
6.143305e-03
2.857298e-03
3.616027e-03
1.928522e-03
-3.155451e-03
-1.503432e-03
-1.695134e-04
-2.595551e-03
-4.749919e-03
-4.423979e-03
-3.299229e-03
-1.164815e-03
2.770033e-04
1.262415e-03
4.705360e-03
4.875165e-03
2.136599e-03
-1.702702e-03
9.070265e-05
-1.063673e-03
-2.383350e-03
-4.567331e-03
-3.568903e-03
4.816307e-03
7.231197e-03
6.558402e-03
-2.475870e-04
7.862268e-04
-1.262127e-03
-4.802193e-04
-1.420448e-03
-5.933151e-05
-8.936633e-04
2.225559e-04
1.763872e-03
-1.031780e-03
-2.283282e-04
2.551636e-03
6.716798e-04
1.676206e-03
5.152214e-03
3.139920e-11
-4.636329e-11
-3.206309e-11
1.107463e-10
-7.359822e-12
-1.100267e-11
-7.207807e-11
-2.967272e-11
-3.956896e-11
-8.442581e-03
-5.128662e-03
-5.420112e-03
-4.582153e-03
-2.048477e-03
-2.291945e-04
1.241390e-03
-2.557499e-03
-3.797582e-03
6.701555e-11
-4.907666e-12
1.001586e-10
2.018941e-11
6.097633e-11
7.038083e-11
5.787329e-11
4.992115e-11
4.791418e-11
-3.829627e-11
-7.717959e-12
-2.421106e-11
-4.214863e-12
2.717648e-12
-3.596242e-11
1.258485e-12
3.879165e-11
-1.185231e-11
6.426406e-04
-1.826155e-03
1.658268e-03
9.130497e-03
8.080279e-03
4.037382e-03
-7.173774e-04
-4.456188e-03
-5.653249e-03
-8.763954e-03
-1.664133e-04
-1.361175e-03
-6.771960e-04
7.603782e-03
-1.004695e-04
1.419759e-03
1.203423e-03
-9.818727e-03
3.649339e-11
-1.776624e-11
5.134893e-11
9.270441e-11
8.882454e-11
6.234874e-11
8.900251e-11
8.386897e-11
3.390706e-11
-1.106108e-04
-8.434374e-05
1.626224e-04
1.713579e-04
-2.591793e-04
-4.107231e-04
1.140854e-04
-5.463008e-05
-1.842308e-04
-3.236182e-03
-3.336787e-03
-2.448400e-04
-1.873319e-03
-1.031448e-03
-4.965086e-04
5.460822e-03
3.754963e-03
-1.719995e-03
-1.087234e-03
-1.800556e-03
-1.984842e-03
5.419723e-03
7.958822e-03
8.619728e-03
1.979588e-03
6.187595e-04
-1.594714e-03
-4.320663e-03
-4.257369e-04
5.069675e-03
9.099123e-03
7.733227e-03
-1.288675e-02
2.775645e-03
2.029974e-03
-5.254537e-03
-5.779638e-04
6.237904e-03
-4.872999e-03
1.687698e-03
3.313479e-03
6.282839e-03
3.139239e-03
-2.443970e-03
2.179208e-03
7.291794e-04
3.830437e-03
-4.273903e-04
2.358437e-03
-2.864427e-03
-5.970561e-03
-7.381394e-03
-8.301256e-03
-4.094161e-03
-4.139347e-04
4.432529e-03
5.611699e-03
-3.631442e-03
-3.525372e-03
-1.917378e-03
1.573252e-03
1.516170e-03
5.897600e-03
1.320116e-03
-4.606942e-03
4.650343e-03
4.761121e-03
1.068891e-02
1.708629e-02
-9.300577e-04
-8.933255e-03
-1.066939e-02
-1.346191e-03
2.683529e-03
3.046714e-03
-1.341251e-03
-2.172499e-03
-3.901267e-03
2.155126e-03
1.540488e-03
-1.974687e-04
-4.186743e-03
6.173379e-04
3.072691e-03
5.361445e-03
6.525925e-03
4.002223e-04
-1.175064e-02
-1.640450e-02
-1.711666e-02
-6.899975e-03
1.816441e-04
2.501333e-04
6.280139e-03
7.585247e-03
1.043626e-03
-1.946431e-03
-5.688976e-03
-1.224208e-02
-6.393537e-03
-1.562141e-02
-1.410696e-02
1.099964e-02
4.844529e-03
6.408865e-03
1.064194e-02
-3.183813e-03
7.898921e-03
-2.870739e-04
-3.020267e-04
9.017358e-04
-4.743756e-03
-2.147779e-03
4.675567e-04
-4.282326e-03
-7.002676e-04
7.392394e-04
-9.752895e-04
-1.355991e-03
2.850885e-03
3.684818e-03
8.671124e-03
1.437400e-02
-9.909901e-03
-4.274527e-03
-2.631053e-03
-1.701077e-03
3.214706e-03
-6.844848e-03
-1.046303e-03
-5.145889e-03
-4.403754e-03
-4.504852e-03
2.646979e-03
6.901908e-03
-2.270305e-03
-7.674809e-03
-3.518621e-03
-6.737590e-03
-4.251163e-03
2.387125e-03
-1.335137e-02
-4.146085e-03
2.715475e-03
2.277691e-03
1.601364e-02
1.817087e-02
6.360467e-03
1.534212e-02
7.942102e-03
4.288357e-03
-2.650326e-03
-9.288929e-03
3.941967e-03
-2.579406e-04
-1.725170e-04
-3.194679e-03
-8.944472e-03
1.048726e-03
2.754546e-03
-1.163906e-03
6.123238e-03
-8.719355e-03
-3.363992e-03
-2.495418e-04
-4.026700e-03
-4.079856e-03
-6.245956e-03
5.205895e-03
8.168614e-03
8.178827e-03
2.009055e-03
3.718431e-03
7.992191e-04
3.198197e-03
7.551989e-04
-3.348298e-04
-7.409595e-04
-2.353128e-03
-1.326826e-03
1.325892e-03
5.601363e-03
5.500761e-03
1.588532e-04
3.482789e-03
1.497574e-04
-6.683587e-03
-5.010571e-03
-8.895265e-03
-1.896715e-03
-3.037269e-03
-3.392166e-03
4.433011e-03
5.105315e-03
2.663220e-03
2.973893e-05
2.818725e-03
5.568785e-03
8.814700e-03
2.040689e-03
3.823365e-03
9.210858e-03
1.053065e-03
1.271665e-04
-5.977658e-03
-7.149665e-03
4.611638e-03
6.407189e-03
7.038485e-03
4.012544e-03
7.539905e-03
1.100974e-03
-6.737025e-04
1.034119e-02
1.706795e-03
4.360911e-03
5.278436e-04
-1.956540e-04
-8.891863e-04
-2.830934e-03
-1.627137e-03
4.062423e-04
-2.247321e-03
2.963914e-03
3.718117e-03
1.659472e-10
1.940301e-10
2.524698e-10
-8.970397e-11
1.116672e-10
2.178493e-10
-1.776015e-11
1.862488e-10
2.799170e-10
-6.570176e-04
-1.755612e-03
-2.215666e-03
-1.565470e-03
-2.266146e-04
2.354405e-03
2.018716e-03
7.910625e-04
-2.110408e-03
1.883880e-11
2.907999e-11
3.687214e-11
7.332059e-11
2.567840e-12
6.148791e-11
5.131176e-11
1.339774e-10
3.747886e-11
1.191528e-12
-7.042761e-12
1.043028e-11
-9.457437e-12
-2.226924e-12
3.984517e-11
7.075387e-12
-9.836716e-12
8.392015e-11
1.791606e-03
-2.475617e-03
-1.877047e-03
-4.380861e-04
-2.979122e-03
-9.376020e-04
1.978462e-03
2.301572e-03
4.781317e-03
-2.953346e-03
7.299315e-04
2.756892e-03
-4.683906e-03
-2.548221e-03
-3.887890e-03
1.834804e-04
3.706337e-03
-7.693864e-04
3.686315e-11
5.806540e-11
3.656494e-11
7.466272e-11
1.180507e-10
5.201314e-11
1.442478e-10
5.477315e-11
7.305638e-11
-1.457132e-03
-9.815811e-05
2.915093e-04
-1.263402e-03
1.276961e-04
6.022563e-04
-1.377041e-03
-2.226292e-04
2.413312e-04
2.186552e-04
7.728747e-04
-1.518232e-03
-2.293848e-04
1.165882e-03
-1.081984e-03
-2.196919e-04
4.379874e-03
6.362272e-04
4.855450e-04
-4.925271e-03
-2.447166e-03
-6.017610e-04
-6.359467e-03
-4.164775e-03
-8.360847e-04
-1.000841e-03
7.397266e-04
3.426387e-03
3.325850e-04
-5.133645e-03
-5.527411e-04
7.497279e-03
-5.799973e-03
2.873580e-03
2.038717e-03
-1.266902e-03
3.908582e-03
5.016032e-03
1.257878e-03
2.181991e-03
3.364878e-03
1.292382e-03
4.864704e-04
3.316888e-03
2.052991e-03
-1.554756e-03
1.335636e-03
-1.900472e-03
3.391251e-04
-1.725831e-04
-2.612939e-03
2.686508e-03
-6.098677e-04
-6.608789e-03
5.048562e-04
1.453134e-03
-2.710712e-04
-6.148417e-03
8.020816e-04
1.904827e-03
-3.399888e-03
1.850786e-03
-1.184334e-03
-1.969035e-03
6.175432e-05
4.144737e-03
-1.386509e-03
-3.487787e-03
1.061849e-03
-6.941935e-04
-1.200989e-03
1.269897e-03
-3.689633e-04
-1.659984e-04
-3.253218e-03
-2.057674e-03
1.276630e-03
-7.193297e-04
-4.514703e-03
-4.511756e-04
-1.880459e-04
-5.500279e-03
5.559468e-03
2.078542e-04
-6.699129e-03
7.871177e-03
6.322041e-03
-2.383025e-03
7.836387e-03
5.712411e-03
-1.302572e-02
3.544611e-03
3.815614e-04
-1.034489e-02
-4.060696e-03
3.954974e-03
-4.317663e-03
-4.085087e-03
4.613720e-03
4.540946e-03
4.688040e-03
-6.733164e-03
2.512427e-03
-1.813946e-03
-1.070167e-02
3.224822e-03
2.818225e-04
-3.953009e-03
2.820167e-03
1.825255e-03
1.457482e-03
2.009038e-03
1.061360e-03
1.226733e-03
1.013904e-03
9.317246e-04
6.869975e-04
-9.747751e-03
1.495421e-02
-2.361288e-03
-1.004169e-02
1.581638e-02
1.578546e-03
-4.916243e-03
1.908013e-02
3.258217e-03
1.058297e-03
3.966693e-03
5.999378e-03
-3.692972e-03
-1.487008e-03
-6.710634e-03
-3.700109e-03
-1.062265e-03
-1.562298e-03
-1.300137e-02
1.167104e-02
-1.683461e-02
9.757428e-04
4.633218e-03
-6.768617e-03
-2.240468e-03
1.103821e-02
-6.165997e-04
-6.098788e-03
9.246981e-03
-4.717126e-03
-1.296735e-02
3.669204e-03
5.723598e-03
-3.515776e-03
7.124988e-03
-3.141740e-04
1.828245e-03
2.851913e-03
-3.643449e-03
-2.664012e-03
1.026924e-03
-2.360881e-03
-5.571444e-03
2.239267e-03
-3.087961e-03
9.078931e-04
1.343152e-03
-1.734795e-03
-3.023931e-03
7.299783e-05
-6.316763e-03
-6.161003e-03
3.702851e-03
-2.345099e-03
-4.146238e-03
2.618571e-03
1.306538e-03
-4.296175e-03
1.576025e-03
-1.429672e-03
-1.265676e-03
-9.072828e-04
-9.877220e-04
-8.010255e-05
-1.533157e-03
1.347931e-03
3.133737e-03
4.567028e-04
1.414195e-03
2.284824e-03
2.603938e-03
2.364513e-03
1.881178e-03
6.269618e-04
1.968600e-03
6.891799e-04
1.693489e-04
-4.477617e-04
1.931299e-03
4.333777e-04
3.584776e-04
-6.293571e-03
-2.510931e-03
-5.564800e-03
-5.112469e-03
3.667763e-03
-6.311307e-04
-1.863021e-03
4.274094e-03
3.586287e-04
-6.034111e-03
-1.553488e-03
-6.194432e-04
-1.671694e-03
4.618899e-04
7.501276e-04
-1.513459e-04
-1.175387e-03
1.135982e-03
2.536413e-03
5.965832e-03
-2.355144e-03
1.286377e-03
5.397125e-03
-2.337553e-03
-1.184474e-03
2.300140e-03
-7.640393e-04
4.216979e-11
-2.065861e-10
-8.955042e-11
1.936407e-10
1.112749e-10
1.349268e-10
2.489274e-11
-2.266845e-10
7.871835e-11
-1.750118e-03
6.264797e-03
-6.972806e-04
-2.821994e-03
5.154806e-03
3.026891e-03
-1.195581e-03
5.570220e-03
5.953462e-03
1.641099e-11
8.495576e-11
4.786269e-11
5.110245e-11
5.500608e-11
7.332813e-11
7.020513e-11
4.789055e-12
6.878104e-11
2.125438e-11
1.311539e-10
-6.953254e-11
3.792529e-11
-7.708370e-12
-2.309681e-11
-3.416449e-11
3.537207e-12
2.337828e-11
2.006813e-03
-1.919418e-03
1.298255e-03
1.678646e-03
-3.225427e-03
9.993860e-05
-1.116173e-03
-3.776326e-03
2.658779e-04
3.373938e-03
5.083601e-03
2.587508e-03
-3.643423e-03
-4.641305e-03
-3.850624e-03
9.746145e-04
-3.430521e-03
-3.241479e-03
8.035599e-11
5.324442e-11
6.472600e-11
9.620268e-11
5.360357e-11
4.428627e-11
4.363640e-11
6.969879e-11
3.737216e-11
-7.433447e-04
1.280802e-03
8.276557e-04
-4.619235e-04
1.407110e-03
1.329152e-03
-7.617917e-04
7.319549e-04
9.533003e-04
2.594756e-03
-9.589138e-04
-3.299937e-03
1.090065e-03
-1.105280e-03
-1.824609e-03
2.646197e-03
2.645058e-03
1.974851e-03
1.054086e-03
-3.768921e-03
-2.109947e-03
2.108405e-03
-2.787773e-03
-1.525076e-03
-2.798615e-03
-7.342366e-03
-5.390152e-03
1.458777e-03
-3.658684e-03
-3.096173e-03
-6.611890e-04
-6.173486e-04
4.205212e-03
-8.782564e-04
-4.641761e-03
1.582661e-03
1.694507e-04
-2.711584e-03
-1.050356e-04
-2.545131e-03
5.003202e-03
6.775482e-03
-1.007577e-03
-6.501402e-04
1.656971e-04
-2.374021e-03
3.149753e-03
6.030382e-04
-1.566759e-03
2.953382e-03
7.185676e-04
2.123173e-03
4.375474e-03
2.579722e-03
-6.628850e-03
-1.907668e-03
-4.954282e-03
-3.001043e-03
2.652180e-03
-3.953472e-03
3.341047e-04
3.261634e-03
-4.377210e-03
5.238925e-03
-1.621132e-03
-2.845665e-03
-6.374836e-04
-3.332589e-03
-3.317198e-03
-1.123923e-03
-6.502461e-03
-3.803997e-03
-3.102774e-03
-2.624345e-03
-3.750055e-03
-2.463345e-03
1.580174e-03
-9.399793e-05
-5.557819e-04
-2.760819e-03
-6.045805e-04
-6.511349e-03
4.343589e-03
2.832553e-03
-4.703144e-03
2.176739e-03
-2.923555e-04
-6.199410e-03
5.951749e-03
5.441804e-03
-1.820585e-03
6.661507e-03
1.443750e-03
-8.793008e-03
-1.087716e-03
1.705811e-03
-5.608795e-03
-2.196205e-04
-2.572580e-03
4.251176e-03
-3.028858e-03
5.661845e-03
-2.614263e-03
6.536662e-04
5.105081e-03
4.426014e-03
4.363602e-03
1.183134e-02
6.305957e-04
1.008575e-03
6.937631e-04
3.378952e-03
2.077827e-03
6.977410e-04
2.936243e-03
2.246007e-03
8.205693e-04
-7.096000e-03
1.351441e-02
-2.073048e-04
-8.501801e-03
9.873238e-03
-1.497025e-03
-4.795261e-03
1.472562e-02
1.189014e-03
5.981345e-04
5.648703e-03
-3.447964e-03
-8.824875e-04
6.623328e-03
-6.352787e-03
-2.662976e-04
1.138339e-02
-6.283087e-03
-2.497768e-03
1.060886e-02
-5.962305e-03
4.945745e-03
1.097009e-02
5.842539e-03
-3.260473e-03
1.736543e-02
-2.437193e-03
-2.629750e-03
8.902657e-03
5.290283e-03
-8.331718e-03
5.461352e-03
-3.739728e-03
-6.786043e-03
4.233251e-03
6.669024e-03
-7.941003e-03
-1.438976e-03
-1.053070e-02
3.829153e-03
2.214473e-03
-5.356264e-03
3.358798e-03
2.532724e-03
-1.662909e-03
-3.287633e-03
1.757186e-03
-6.238239e-03
-2.710888e-03
2.903853e-03
-1.827111e-03
-3.426773e-03
2.876833e-03
2.182400e-03
-3.691239e-03
8.592826e-04
-4.151548e-04
-7.127296e-03
-1.941705e-03
-3.501121e-03
-3.946296e-03
-2.131484e-03
-4.877421e-03
3.645158e-04
-2.637381e-03
-1.080763e-03
4.684105e-04
-1.604533e-03
1.710775e-04
-1.826685e-03
-1.319997e-03
-9.701160e-04
5.611312e-04
-4.009416e-03
-2.160338e-03
1.173790e-03
-1.710535e-03
-1.814273e-03
-6.038332e-04
-1.823289e-03
1.930757e-04
-4.955459e-03
1.609635e-03
4.704498e-03
7.511919e-04
4.601347e-03
2.205966e-03
-4.811373e-03
5.971818e-04
-2.350381e-03
1.287117e-03
6.333762e-04
-5.326873e-05
1.198219e-03
1.052682e-04
7.099207e-04
4.872561e-03
4.751660e-03
4.369120e-03
-2.462761e-03
6.574042e-03
-4.893368e-04
-8.121334e-04
8.075662e-03
-2.618486e-03
-4.444031e-03
5.359426e-03
-2.401513e-03
2.316903e-10
1.940763e-11
1.532926e-10
1.684151e-10
1.958730e-10
2.687831e-10
2.521830e-10
-3.901331e-11
3.804730e-11
-2.243972e-03
7.176722e-03
-3.592095e-03
-5.491956e-04
7.513851e-03
-1.084288e-03
1.000272e-03
5.541341e-03
1.199576e-03
5.958872e-11
-4.351380e-11
-2.669484e-12
6.138484e-11
-3.736337e-11
2.375783e-11
5.022472e-11
3.720207e-12
3.050666e-11
-2.298863e-12
-4.828721e-11
-5.007424e-11
-3.123136e-11
-1.759648e-12
-1.492302e-11
-1.252298e-11
-1.161705e-11
-2.603643e-11
7.686165e-03
4.600223e-03
8.295873e-05
2.601318e-03
5.581253e-04
-7.704095e-04
-1.196007e-03
1.260978e-03
9.969739e-06
3.740609e-03
-1.428809e-03
-1.584355e-03
2.227739e-03
-2.810252e-03
-4.322487e-03
5.574622e-03
-1.978736e-04
-4.440871e-03
2.414427e-11
2.977501e-11
6.723821e-11
-5.304398e-11
2.599338e-11
-1.010584e-10
2.847455e-11
6.836411e-12
-3.402397e-11
-5.491133e-04
2.480889e-04
4.258775e-04
-1.971972e-04
5.656951e-04
8.777290e-04
-4.105066e-04
5.032641e-05
4.629860e-04
1.324114e-03
1.156992e-03
-2.205137e-03
4.051692e-03
2.781990e-03
-8.065812e-04
2.830081e-03
2.443372e-03
7.038659e-04
5.882176e-03
4.662336e-03
1.306844e-03
3.168336e-03
2.356343e-03
9.920904e-04
4.367037e-04
1.275637e-03
6.554637e-04
2.080102e-03
5.787545e-04
8.923486e-03
-4.289318e-03
3.855280e-03
1.187994e-02
4.366288e-03
1.227785e-03
8.130006e-03
3.503430e-04
-1.433818e-03
-6.869484e-03
-4.139413e-03
4.444736e-05
-1.073368e-03
9.649628e-04
-9.174107e-04
3.127538e-03
2.744189e-04
-5.066035e-03
3.292975e-03
2.216124e-03
8.660665e-04
4.801838e-03
4.481261e-03
1.492342e-03
7.431704e-05
-2.634286e-03
2.837091e-03
-1.840280e-03
-4.816820e-04
3.280002e-03
-4.065984e-03
1.785595e-03
4.404010e-04
-6.331865e-03
-2.385160e-04
-1.762847e-03
-7.406302e-03
-2.740578e-03
-1.529982e-03
-1.204473e-03
-2.322372e-03
-6.425986e-03
3.772832e-03
-1.714094e-03
4.036151e-04
-1.600596e-03
-8.819995e-04
1.275841e-03
1.630587e-03
-2.328728e-03
-4.910333e-04
2.797927e-03
7.521269e-04
-4.363316e-04
1.642057e-03
1.306612e-04
1.241905e-04
7.864050e-04
-3.420847e-03
6.459122e-04
2.078967e-03
2.201169e-03
8.922367e-04
3.804961e-03
-1.210696e-03
-3.370655e-03
3.048042e-03
3.370146e-03
9.387808e-04
5.910648e-03
3.135867e-03
7.759595e-03
1.301777e-02
-9.438784e-03
-2.616088e-03
7.048731e-03
-7.373848e-03
2.618653e-03
2.289479e-03
-4.983335e-04
8.651295e-04
3.905519e-04
2.929120e-03
1.456211e-03
-3.492406e-04
3.541125e-03
1.712369e-03
-4.484755e-05
2.387903e-04
6.733356e-04
-3.489481e-03
8.390749e-03
2.994434e-03
-4.235401e-03
3.434352e-03
1.041085e-03
-1.268607e-03
1.290857e-03
1.063253e-04
5.940146e-04
-1.056003e-03
1.923999e-03
-6.643720e-03
5.255608e-03
1.083646e-02
-3.155822e-03
-2.468367e-03
5.506133e-04
2.745128e-03
4.287580e-03
1.117561e-02
3.268556e-03
1.457289e-02
4.330979e-03
5.767399e-03
4.969574e-03
6.969985e-03
4.991843e-03
5.353395e-03
6.600690e-03
-1.823806e-03
1.340881e-03
-4.258650e-03
2.763388e-03
-2.580597e-03
1.871426e-03
-9.627172e-06
1.767171e-03
-2.634586e-03
-2.732877e-03
-3.146409e-04
-1.751939e-05
-4.937465e-03
1.786014e-03
1.920358e-03
5.905011e-03
3.198535e-03
3.004775e-03
6.543374e-03
-1.003702e-03
7.660612e-03
1.093906e-02
-5.035396e-03
1.388793e-03
4.556251e-03
-5.989104e-03
-2.575474e-03
1.677771e-03
-5.311156e-03
-4.215385e-03
-2.338550e-03
4.636264e-03
-1.070245e-03
-2.405372e-03
2.617891e-03
-1.750557e-04
-3.814964e-04
4.053776e-03
4.240296e-03
2.024779e-03
4.090581e-03
3.744740e-03
-1.928725e-03
-7.013693e-04
2.864760e-03
2.249236e-03
6.375745e-04
4.197228e-03
2.473264e-03
-7.528159e-04
3.862474e-03
8.985029e-04
-5.278251e-04
6.472083e-03
4.012553e-03
3.104566e-03
5.449104e-03
2.912426e-03
1.023254e-03
-7.504372e-05
3.177511e-04
-2.137037e-03
7.162055e-04
2.684653e-03
6.426006e-04
2.997655e-03
4.174194e-03
-2.666438e-03
4.639266e-04
-1.079642e-03
3.965581e-03
2.628804e-03
1.823141e-03
4.103825e-03
1.920690e-03
4.199537e-03
-1.033464e-10
-1.396127e-10
-2.153395e-10
-2.626949e-10
-9.735494e-11
-4.383687e-11
-4.143657e-10
-1.503353e-10
-2.162984e-10
-1.215311e-04
5.415676e-03
2.363035e-03
3.857760e-03
5.951738e-03
3.386876e-04
2.465718e-03
9.482852e-04
8.028547e-04
-1.112202e-12
9.880390e-11
5.025897e-11
6.269122e-12
1.885722e-12
2.669360e-11
-9.839446e-12
-1.142148e-10
-2.637065e-11
-8.987358e-11
-2.882823e-11
5.181323e-11
-1.772378e-11
9.513360e-11
1.763852e-11
-1.941313e-11
-4.391613e-11
-6.393087e-11
-3.018721e-04
2.212634e-03
-1.649645e-03
9.719691e-04
1.829262e-03
8.559618e-04
2.775118e-03
-1.246388e-03
2.477700e-03
7.587346e-03
4.161111e-03
-9.266692e-04
-4.883446e-05
-7.128431e-04
-1.442058e-03
-1.517970e-03
-3.658316e-03
-2.778135e-03
3.705452e-11
4.286329e-11
1.144433e-10
-2.980886e-11
3.403637e-12
3.634204e-11
-3.175567e-11
-2.704073e-11
-7.434715e-11
-7.001502e-04
6.475285e-04
6.711448e-04
-9.543485e-04
5.769189e-04
4.278154e-04
-1.650057e-03
-3.021587e-04
-5.179563e-04
6.939548e-04
2.216511e-03
3.770640e-03
-1.129974e-03
1.368037e-03
4.654877e-04
1.917879e-03
5.173369e-04
-1.141914e-03
-2.716695e-03
7.590539e-04
3.559716e-05
-4.144721e-03
2.533917e-03
2.446580e-04
1.148965e-03
7.694986e-03
9.240204e-03
3.116376e-04
4.396049e-03
4.065931e-03
-3.907926e-03
-7.179365e-04
-6.969822e-05
6.139362e-03
5.930370e-03
-2.642873e-03
1.434905e-03
-5.785878e-04
-4.456037e-04
-6.118974e-03
2.146664e-04
4.884256e-03
2.481502e-03
-1.879566e-03
7.322829e-03
1.046640e-03
9.877190e-04
-2.050453e-03
1.310883e-03
9.168226e-03
6.215595e-03
1.228146e-03
9.143302e-03
8.484721e-03
-2.567256e-03
3.877139e-04
3.897290e-03
-1.510952e-03
5.282608e-04
6.127468e-04
4.005175e-03
3.827045e-03
3.935962e-03
-1.285590e-03
1.199174e-03
1.304379e-02
3.327917e-03
2.515979e-03
1.104970e-02
-1.390812e-03
9.585929e-04
1.046102e-03
-1.837896e-03
1.066784e-03
-1.037721e-03
9.722299e-04
3.623849e-03
2.360879e-03
3.773386e-03
3.641550e-03
2.071365e-03
-5.120957e-03
-3.599509e-03
-5.278530e-04
5.464222e-04
8.693049e-04
2.436101e-04
-3.431902e-03
-4.638467e-03
-2.167124e-03
-4.145236e-03
-4.491348e-03
4.199158e-03
5.425774e-03
1.377616e-03
-2.103687e-03
1.005424e-02
-1.002880e-03
-4.492247e-03
-1.163104e-02
-3.717377e-03
5.404521e-05
-4.694645e-03
-9.124449e-03
-7.036001e-03
4.062098e-03
2.345619e-03
4.900333e-03
-1.273733e-03
-2.807261e-03
-2.925916e-03
2.210754e-03
1.688516e-03
4.828266e-04
2.386723e-03
3.333292e-03
3.124999e-03
-1.388461e-03
-1.600818e-03
6.410450e-04
8.012378e-03
1.339980e-02
1.017695e-02
1.113275e-02
1.294595e-02
9.252422e-03
1.077391e-02
-2.986482e-03
-5.059012e-03
-4.847117e-04
-2.665182e-03
-1.838598e-03
-7.465743e-04
-2.389476e-03
2.948607e-03
-6.135858e-03
-4.536553e-03
8.287276e-03
-4.299347e-04
2.327695e-03
6.606955e-03
1.157452e-02
9.950712e-03
5.530888e-03
1.519485e-02
-2.889400e-03
-1.526267e-03
6.706859e-03
1.475352e-02
1.177423e-02
3.227733e-03
1.345160e-02
5.481269e-03
3.262744e-03
6.975928e-03
-2.857133e-04
3.551434e-03
8.881832e-03
8.119809e-03
-2.909302e-03
-1.551125e-04
9.576926e-03
4.000306e-03
7.000361e-03
4.380906e-03
8.371082e-04
3.551484e-03
9.557963e-04
1.019191e-03
-7.644300e-04
8.668359e-04
-2.550639e-03
-4.683449e-03
-2.890577e-03
1.309948e-03
-2.088906e-03
-3.554617e-03
3.535505e-03
6.108885e-04
-2.478511e-03
6.895327e-03
4.065264e-03
8.320018e-04
2.536259e-03
2.311170e-03
2.940935e-03
-2.049593e-03
-2.109048e-03
4.888045e-04
-2.545245e-03
4.174457e-03
5.818129e-03
1.016582e-03
3.138694e-03
5.373614e-04
5.302380e-03
7.706401e-03
2.692587e-03
2.474337e-03
-2.904361e-03
4.718664e-03
6.708379e-03
2.556079e-03
1.215936e-02
9.214308e-03
3.997475e-03
7.350864e-03
-4.350503e-04
-1.363183e-03
5.169126e-03
-3.273073e-03
-4.434778e-03
-1.019736e-04
-2.428606e-03
-2.689434e-03
4.625999e-04
-4.991348e-03
-6.553407e-03
-1.280658e-03
-1.113846e-03
-2.796296e-03
9.666382e-04
9.425114e-04
3.819934e-04
1.383308e-03
1.265807e-10
3.605858e-10
8.923178e-11
1.189723e-10
2.797918e-10
3.967603e-11
-1.320507e-10
-8.912743e-11
-2.509423e-10
1.097571e-02
4.371608e-03
-2.051649e-03
6.324525e-03
-1.806822e-03
-1.017938e-02
6.581428e-03
4.295366e-03
-4.074015e-03
6.006736e-12
-3.790485e-11
-2.009968e-11
1.397287e-11
2.561097e-11
7.249676e-13
4.224475e-11
-4.928891e-11
6.225277e-11
1.767212e-11
4.851348e-11
2.870470e-11
5.173011e-11
5.430970e-12
8.532904e-11
1.406238e-10
3.951893e-11
-3.022425e-11
3.924909e-03
1.602419e-03
2.023637e-03
1.211865e-03
-9.354655e-04
-6.702128e-05
5.692450e-03
1.434327e-03
1.920802e-03
-1.299348e-03
1.775588e-03
-1.145918e-03
-2.698811e-03
-3.343360e-04
-1.143332e-03
-4.687902e-03
-6.137333e-03
-6.940826e-03
-1.032780e-11
-2.222357e-11
-1.365891e-11
-4.256828e-12
-3.668878e-11
-2.048190e-11
-1.085624e-11
-3.256582e-11
-5.887248e-11
6.828580e-04
2.138175e-03
7.689011e-04
5.137054e-04
2.114006e-03
8.163275e-04
-8.063575e-05
1.337517e-03
3.359023e-04
-5.638193e-04
-1.260637e-03
-1.933574e-04
2.206257e-03
5.938204e-04
-2.959786e-03
1.353531e-04
-2.330839e-03
-3.669284e-03
-2.913979e-03
-3.518942e-03
-4.955070e-03
-9.268173e-03
-8.247457e-03
-4.381788e-03
4.754219e-04
1.155022e-03
1.773607e-03
9.415020e-03
-1.834378e-03
-5.667211e-03
-8.845734e-04
-2.418855e-03
-1.168057e-03
4.834648e-03
8.261615e-03
4.860223e-03
-1.993427e-03
-3.298082e-03
-9.568029e-04
-3.544832e-03
-4.536377e-03
3.445862e-04
-2.148872e-04
-1.371715e-03
1.395448e-03
8.349788e-03
-1.303087e-03
-4.707524e-03
4.438734e-03
2.047094e-03
-2.588214e-03
3.850101e-03
5.420871e-03
2.757659e-03
-6.104426e-03
-5.382639e-04
-4.494436e-03
-2.085309e-03
5.045192e-03
-1.047774e-04
3.666985e-03
4.612888e-03
3.604169e-03
4.113159e-03
1.329749e-03
-4.249371e-03
-5.179962e-03
5.487920e-04
1.703802e-03
-7.178994e-03
5.817116e-04
2.993758e-03
2.142854e-03
3.528506e-03
-4.539513e-04
7.418589e-05
3.391959e-04
-3.322821e-03
-2.222434e-03
3.819242e-03
2.482690e-03
-1.294215e-03
3.804465e-03
-4.781998e-03
-3.836550e-03
-2.850340e-03
-9.180358e-03
-6.802355e-03
1.835658e-03
5.157528e-04
-4.442222e-03
-3.755098e-03
9.281374e-03
-5.061143e-03
-5.335440e-03
8.585625e-04
-4.641974e-03
7.162798e-03
8.351930e-03
1.277534e-04
-1.439841e-02
9.663602e-03
-3.062271e-03
-1.460512e-02
3.211417e-03
4.353863e-03
1.344855e-04
4.862477e-03
-2.677428e-03
-8.875363e-04
8.898609e-04
4.605732e-04
-7.612015e-04
-4.595164e-04
3.839420e-03
1.423888e-03
1.570813e-03
-1.907934e-03
7.265955e-03
-5.423342e-03
1.233953e-02
1.920171e-02
-4.067099e-03
1.480162e-03
1.150432e-02
-4.440586e-03
1.175679e-03
3.920930e-03
-3.218825e-03
1.319111e-03
1.232833e-03
-5.195314e-03
4.962633e-03
2.548386e-03
-1.359873e-03
1.246307e-03
5.100771e-03
6.551549e-03
-3.058393e-03
5.010481e-03
6.346815e-04
6.397665e-03
7.165172e-03
2.433595e-03
9.941430e-03
2.494322e-02
6.189123e-03
3.295673e-03
1.827775e-02
-1.483474e-03
-4.703622e-03
1.391512e-03
-1.932942e-03
-4.660741e-03
1.521390e-03
-1.525179e-03
9.015846e-04
-2.255845e-03
-8.749269e-04
1.562145e-03
7.416046e-03
5.022116e-03
-1.410159e-03
5.926477e-03
1.469742e-02
-4.681339e-03
8.033603e-04
-1.368257e-03
9.048146e-04
1.961332e-03
1.498961e-03
-5.269891e-03
1.087206e-03
4.639674e-03
-3.647765e-03
7.146129e-04
8.354606e-04
-1.682449e-03
3.419635e-03
1.259130e-04
3.252912e-03
6.809184e-04
-5.338373e-04
-4.031792e-03
-5.470389e-03
-4.295710e-03
-2.958747e-04
-8.122398e-04
-1.974231e-03
7.791334e-03
8.637846e-03
2.917107e-03
-6.321444e-04
2.910655e-03
-4.883537e-04
-4.981950e-04
-7.005278e-04
-1.176573e-03
5.926861e-03
1.748368e-03
-6.527348e-04
5.818352e-04
-3.372898e-03
-1.399081e-03
-3.433593e-03
-4.985244e-03
-4.613274e-03
6.092608e-03
6.199223e-03
4.086109e-03
3.036570e-03
7.034484e-04
1.302759e-03
-1.092040e-03
-1.391307e-03
-1.729272e-03
-8.785006e-03
-1.211467e-03
3.479442e-03
-3.729623e-03
6.034358e-04
2.329896e-03
-2.979654e-03
3.632782e-03
2.989924e-03
-1.910500e-10
-3.812773e-10
-5.514110e-10
-3.230516e-10
-1.444509e-10
-8.898544e-11
-5.047053e-10
-3.344592e-10
-2.164517e-10
8.961112e-04
7.148102e-03
1.976547e-03
-5.410958e-03
4.941978e-04
-7.397954e-03
1.609746e-03
6.483802e-03
-3.118560e-03
-1.445210e-11
-5.569748e-11
2.169428e-11
-5.285639e-12
-1.134946e-11
-1.555306e-11
-9.141587e-11
4.833438e-12
-2.052849e-11
-1.887181e-11
-1.696157e-11
8.071405e-12
-5.074396e-11
-3.297087e-11
9.386858e-12
5.696528e-11
3.613154e-11
-3.399999e-11
-1.823737e-03
-6.662048e-04
-1.711295e-04
1.906990e-03
2.054326e-03
-1.324986e-03
-8.134781e-04
-4.708427e-03
-5.398086e-03
6.833753e-03
6.607747e-03
1.104225e-02
2.475064e-03
-1.821351e-03
-6.650441e-04
4.538661e-04
-4.226917e-03
-3.053135e-03
-1.760074e-11
3.625037e-11
4.870388e-11
-4.548707e-12
4.210110e-12
-4.680080e-11
-6.641780e-11
-4.716761e-11
-2.149866e-11
-2.050048e-03
-1.969662e-03
-1.702958e-03
-1.217480e-03
-7.748929e-04
-6.501403e-04
-1.128133e-03
-2.701235e-04
-3.876284e-04
-7.053158e-04
-1.143745e-03
-1.288773e-03
-4.999308e-04
-6.361388e-04
-1.695259e-03
2.905837e-03
3.100121e-03
-4.071051e-03
1.743650e-03
8.895482e-04
5.662101e-04
1.756054e-03
-4.389424e-04
-2.289673e-03
3.220687e-03
3.644140e-04
-6.369815e-04
-8.241267e-03
1.011162e-03
-1.013854e-03
-8.100782e-03
-1.747818e-03
-4.088849e-03
-3.117407e-03
-3.366677e-03
-2.545838e-03
8.618383e-03
2.638597e-03
-3.360536e-03
1.182446e-02
5.816228e-03
7.928407e-03
4.976002e-03
-4.263468e-04
-6.843621e-04
3.529114e-03
5.540797e-03
1.573639e-03
1.289769e-03
7.760394e-05
1.240256e-03
-3.851734e-04
-2.175065e-03
1.735239e-03
2.056787e-03
-5.506199e-04
-3.125652e-03
-2.109122e-03
-3.646116e-03
-2.576124e-03
-5.983184e-03
-1.733222e-03
-2.930104e-03
-4.091568e-03
-8.177915e-04
8.223030e-04
-2.539862e-03
-1.984603e-03
-6.591142e-04
-5.589957e-03
-4.037781e-03
1.449427e-03
-6.085383e-04
-6.027709e-04
-1.337485e-03
1.723885e-03
-1.463508e-03
-4.259693e-04
2.447018e-03
1.316474e-03
-7.788168e-04
-3.914349e-03
-3.845349e-03
2.521653e-03
7.231295e-03
5.847936e-03
3.671331e-03
1.210023e-04
-2.570363e-03
-3.986038e-03
2.779803e-03
1.169086e-02
1.445035e-02
4.269402e-03
5.480207e-03
6.676962e-03
8.743676e-03
-1.135305e-02
-8.836291e-03
-6.848796e-03
4.846838e-03
-5.998555e-03
2.819909e-03
1.354387e-02
3.893601e-04
-6.869404e-03
-1.011821e-02
6.822160e-03
3.930258e-03
1.545797e-03
2.870122e-03
-1.814592e-04
7.709998e-04
1.802891e-03
3.306492e-03
2.878682e-03
7.164350e-04
-5.954187e-03
-4.600579e-03
-3.770933e-03
1.018238e-03
2.014633e-03
2.908653e-03
2.805360e-03
4.569372e-03
-3.014048e-03
5.481230e-03
-2.327883e-03
-1.756301e-03
-3.128750e-03
-2.271373e-05
3.182313e-03
6.505527e-03
3.422415e-03
-5.284614e-04
-9.571484e-03
-4.476886e-03
-5.728587e-03
-8.362784e-04
1.288135e-03
2.066497e-03
-1.752891e-04
-6.161290e-04
-3.820085e-03
1.140366e-02
-1.968622e-03
-1.928327e-03
4.606902e-03
7.811185e-03
1.660932e-03
3.206574e-04
1.132603e-02
7.897658e-05
-3.935791e-03
-5.052991e-03
-9.048894e-03
-3.326899e-03
-4.954398e-03
-5.927204e-03
-7.947532e-04
-4.931434e-03
-8.148199e-03
-1.205804e-02
-8.404858e-03
-4.245833e-03
-4.037652e-03
-2.021301e-04
5.239047e-04
7.269525e-03
4.053605e-03
1.906218e-03
7.057069e-04
5.132099e-04
9.796337e-04
-2.740474e-03
-1.752682e-03
3.511107e-03
-6.233173e-03
-1.759549e-03
3.255480e-03
2.197307e-03
3.905438e-03
5.092986e-03
6.030473e-03
3.670091e-03
2.723637e-03
4.860862e-03
-2.567084e-04
-1.569523e-03
-5.482377e-03
-6.697910e-04
-1.018032e-04
-8.823601e-04
9.115032e-04
-4.284517e-03
1.796114e-03
7.382181e-03
5.950915e-03
8.936520e-04
-3.139937e-03
-9.619392e-04
1.605686e-04
-2.197264e-03
-4.093125e-03
-3.609522e-03
-2.686080e-03
3.018504e-04
2.686237e-03
1.557577e-03
4.499358e-04
1.240884e-03
9.372648e-04
5.219827e-04
1.829352e-03
3.404683e-03
2.888673e-03
2.587973e-03
-2.075548e-04
-2.197157e-03
9.375658e-04
2.063581e-03
-7.408074e-04
-3.121378e-03
-3.260783e-03
-6.279408e-03
1.008077e-10
1.050013e-10
9.458519e-11
9.185252e-11
1.801700e-10
2.196996e-10
-7.863074e-12
-7.944860e-11
1.620998e-11
-3.120148e-03
-1.407933e-03
-8.962681e-04
-2.273276e-03
4.724558e-03
5.597600e-03
2.281688e-03
9.141787e-03
1.130918e-02
-3.539207e-11
-1.657601e-11
-1.547194e-11
2.406229e-12
-5.792943e-11
1.387160e-11
5.083634e-12
-4.193348e-11
4.773303e-11
1.398483e-11
-1.512920e-11
-1.808722e-11
-2.636350e-11
-2.333839e-11
-1.113865e-11
-1.033259e-10
-2.057211e-11
-5.697552e-11
2.396228e-03
-3.231810e-03
-4.677682e-03
3.435771e-03
-1.629940e-03
-3.950157e-03
-8.620649e-03
-6.592978e-03
-3.490460e-03
-2.843941e-03
-8.539907e-03
-1.497452e-02
6.844813e-03
5.200985e-03
-7.971963e-03
-8.549117e-03
-4.069132e-03
-1.102227e-02
5.002778e-11
2.894552e-11
1.686515e-11
5.493059e-12
-2.148890e-11
5.657683e-11
-1.847557e-11
-1.376543e-11
-2.253279e-11
-5.349323e-04
-1.899751e-03
-6.899400e-04
-1.028134e-03
-2.006281e-03
-6.382806e-04
2.275359e-04
-3.612168e-04
9.989938e-04
2.964891e-03
3.578011e-03
-9.086079e-04
5.005291e-04
6.541880e-04
1.678276e-03
7.515639e-04
-2.616104e-03
-5.531170e-03
2.271033e-03
7.149553e-04
-7.064322e-03
4.167989e-03
4.278830e-03
-5.380298e-03
3.447897e-04
2.485326e-03
-3.527525e-03
-6.405849e-03
3.620703e-03
1.046221e-02
-3.231943e-03
-1.661549e-03
8.092499e-04
3.375145e-03
7.534868e-04
-7.730134e-03
-2.710777e-03
-1.050488e-03
-1.061882e-02
1.065049e-03
9.544563e-04
-7.845657e-03
-3.575359e-03
-6.105696e-03
-1.686926e-02
-6.244606e-03
-3.864424e-03
1.718232e-03
-1.753362e-03
-2.747014e-03
-1.274898e-03
-7.901476e-03
-1.373818e-03
4.445287e-03
-4.725329e-03
-1.774799e-03
-1.405074e-03
-6.054227e-03
-7.878906e-03
1.302422e-03
-1.696695e-03
1.460981e-03
3.000178e-03
-6.146111e-03
-4.483749e-03
-1.264622e-02
-1.438723e-03
6.762458e-03
-1.527551e-03
-8.825921e-03
-5.707158e-03
-4.912038e-03
-4.212231e-03
-1.677197e-03
-1.714497e-03
-7.198287e-03
-4.310480e-03
-1.944489e-03
-1.989407e-03
-1.112698e-03
7.977892e-04
-6.698881e-03
-1.073844e-02
-5.968909e-03
-7.646966e-03
-1.466780e-02
-1.339900e-02
-4.656153e-03
-1.019104e-02
-8.575968e-03
-5.062218e-03
-4.220534e-03
-2.130210e-02
3.581753e-03
6.209193e-03
-4.735627e-03
-1.106712e-03
-2.322769e-03
-6.777081e-03
7.270505e-03
4.049108e-03
-1.596012e-02
1.174480e-02
1.958573e-02
-1.207282e-02
-7.215272e-03
-1.431394e-02
-1.973533e-02
1.092383e-03
-5.620082e-04
-2.588749e-03
-8.117361e-04
-1.869283e-03
-4.256673e-03
-7.944248e-04
-1.912615e-03
-5.708938e-03
-7.218875e-03
-7.049554e-03
-3.311276e-04
-9.161484e-03
-1.233232e-02
3.792475e-03
-4.754522e-03
-4.371582e-03
4.239815e-03
-8.103033e-03
-5.072982e-03
-1.573080e-02
6.910908e-03
5.916133e-03
-3.807309e-03
-2.508600e-03
2.862676e-05
-1.265142e-02
-5.960422e-03
-7.439118e-04
-1.517667e-02
-3.936865e-03
-8.922388e-03
-2.321305e-03
-3.651034e-03
-1.075300e-02
-1.401585e-02
-5.514943e-03
-5.103503e-03
-6.926090e-03
7.825461e-04
-4.042922e-03
-8.928766e-03
-9.219624e-03
-5.137063e-03
-9.443491e-03
2.456105e-03
5.805296e-03
-9.999001e-03
-4.734526e-03
2.838273e-03
-2.636424e-03
-2.105326e-03
2.839388e-03
-1.175342e-02
-2.404906e-03
-1.650191e-03
-9.727246e-03
3.304895e-03
-4.658739e-04
-7.067357e-03
-1.429655e-03
-4.808100e-03
-1.362951e-02
-1.881910e-03
-1.861316e-03
-3.580268e-03
3.746104e-03
1.003046e-03
-5.496730e-04
-1.219865e-03
-5.557461e-03
-8.486821e-03
5.816415e-03
6.616163e-03
1.581611e-03
1.514740e-03
1.066555e-03
-4.769572e-03
-1.425310e-03
-2.832542e-03
-5.711422e-03
-3.194853e-03
-6.272166e-03
-6.226714e-03
-1.312426e-03
-2.569617e-03
-7.488461e-03
-6.908944e-03
-3.975903e-03
-5.995110e-03
-3.149703e-03
2.007072e-03
3.324763e-03
-7.048734e-03
-9.823069e-04
2.633078e-03
-9.282694e-03
5.311564e-05
2.929839e-03
-6.435046e-03
-3.283962e-04
-4.662211e-03
-7.192254e-03
-2.150123e-03
-2.459212e-03
-4.620451e-03
-2.153423e-03
-4.577283e-03
5.498394e-03
7.344921e-03
-4.897503e-03
5.238268e-03
3.477435e-03
-7.094600e-03
3.204639e-03
-9.393319e-04
-1.800502e-02
4.739215e-10
3.679470e-10
7.421164e-10
2.491698e-11
-4.231267e-11
3.936081e-10
2.987468e-10
2.986961e-10
7.902589e-10
-1.558169e-02
-1.076071e-02
-1.247841e-02
-7.266977e-03
-3.539917e-03
-5.596492e-03
-1.043588e-02
-5.374189e-03
-6.110695e-03
1.120072e-10
3.639347e-14
3.192843e-11
-9.616773e-11
1.449037e-11
4.534181e-11
2.213847e-11
-3.492260e-11
1.726876e-11
2.749181e-11
-1.332312e-11
1.294680e-10
-1.573913e-11
1.369923e-12
2.009117e-11
-2.561916e-11
-2.764876e-11
6.645503e-12
1.479493e-03
6.234174e-04
1.132691e-03
-1.239769e-03
1.265097e-03
3.351166e-03
-1.156989e-03
1.786580e-04
1.298711e-03
5.962600e-05
1.265597e-03
-3.301682e-03
5.266354e-05
4.730598e-03
-1.694838e-03
-9.968946e-04
3.155531e-03
-2.759996e-03
2.900678e-11
-1.837677e-11
5.109065e-11
-1.184453e-11
3.848903e-11
-9.940974e-12
1.830875e-11
-8.331268e-11
-2.523316e-11
-2.183734e-04
1.734450e-04
6.011697e-05
-1.316947e-04
8.419469e-05
-1.827011e-05
2.381148e-06
5.393891e-05
2.930807e-05
4.697855e-04
1.048970e-04
-3.619586e-04
3.253717e-04
-2.054897e-04
-4.547001e-04
-3.364379e-04
-1.392736e-03
-5.152067e-04
-3.849872e-04
8.299138e-04
4.859000e-04
-2.314183e-04
1.155444e-03
2.100005e-03
-1.947462e-03
-7.186584e-04
-1.704559e-05
8.312567e-05
-1.918194e-03
-5.218884e-03
6.106647e-04
-1.486935e-03
-4.552532e-03
3.046298e-03
3.566629e-03
1.107778e-03
3.499355e-03
4.868393e-03
1.506830e-03
-2.114253e-03
-1.981340e-03
-2.136485e-03
-2.870395e-03
-1.025953e-03
-2.802713e-03
-2.018488e-04
-3.272087e-04
-2.074396e-03
-1.471855e-03
-7.879788e-04
-3.318568e-03
-7.549017e-04
4.714263e-04
-1.688330e-03
-2.874068e-03
-4.177625e-03
-2.062791e-03
-1.480366e-03
-3.243797e-03
-1.997202e-03
7.178129e-04
3.839379e-04
2.240214e-03
-1.665968e-03
1.659913e-03
3.140284e-03
-3.393651e-03
-4.280826e-04
7.032391e-04
-4.297908e-03
-1.767172e-03
-2.163029e-03
-1.430203e-04
-1.764981e-04
-7.883447e-04
2.704283e-04
-1.771485e-03
-2.409567e-03
1.112486e-03
-1.442967e-03
-2.231207e-03
-2.199571e-03
-3.473671e-03
-2.572908e-03
-1.952411e-03
-4.079930e-03
-4.674964e-03
-1.276579e-03
-2.310797e-03
-1.306371e-03
-1.364870e-03
1.577482e-03
-7.219679e-04
2.882952e-03
2.487982e-03
6.806407e-04
-2.090962e-03
1.119654e-03
1.164572e-03
-2.159052e-03
3.545302e-04
3.558488e-03
-6.141402e-04
2.338150e-05
3.733935e-03
5.662709e-04
4.150649e-04
2.915466e-03
-2.353781e-03
-1.626205e-03
-1.479720e-03
-2.397320e-03
-2.699691e-04
-4.868021e-04
-6.777797e-04
1.772882e-03
1.227184e-03
-6.155779e-05
-7.452223e-04
2.374221e-03
-1.461638e-03
-3.182537e-03
-9.317887e-04
-5.774462e-03
-5.441460e-03
-1.527443e-03
-6.646498e-03
-2.631209e-03
-5.104294e-03
-1.063561e-03
5.481005e-03
4.964252e-03
9.928026e-05
4.166295e-03
5.656083e-03
-1.907323e-03
3.375296e-03
2.719179e-03
-3.773999e-03
-4.870715e-03
-1.261777e-03
-3.699037e-03
-3.855532e-03
-3.973128e-04
6.818769e-03
4.281900e-03
6.575818e-03
1.540849e-03
7.717154e-04
1.842773e-05
3.219006e-03
-5.510778e-04
-6.138242e-04
-5.250655e-03
-8.958775e-04
2.017403e-03
-2.899170e-03
-1.209563e-03
1.641796e-03
-2.552859e-04
2.311227e-04
2.948507e-03
-1.302711e-03
2.973479e-03
1.964783e-03
-3.487416e-03
1.219386e-03
2.293608e-04
-1.609883e-03
3.255242e-05
-3.185467e-03
5.698408e-04
-2.126345e-04
