-2.041316e-02
-1.628808e-03
1.721592e-04
1.023346e-02
4.778292e-02
3.822003e-02
2.083862e-02
4.353170e-02
1.829539e-02
1.539385e-03
-4.603951e-04
-2.465672e-03
-6.692597e-03
-3.347379e-02
-1.855045e-02
-2.238548e-02
-2.849672e-02
-1.380836e-02
1.853116e-03
-8.212888e-04
2.459925e-03
-6.167640e-03
-6.474728e-03
3.178671e-03
-8.505179e-03
-1.329794e-02
-6.798011e-03
-4.106501e-03
-7.348346e-03
-4.381806e-03
-4.778987e-03
-2.771480e-03
-1.367208e-03
7.789331e-03
1.414511e-03
6.546454e-03
1.253280e-02
-3.528947e-03
-6.162405e-03
-2.057926e-03
-6.723949e-03
-1.058223e-02
-6.806332e-03
5.784471e-04
-1.340702e-03
6.547493e-03
5.899429e-03
-2.386852e-02
-8.005100e-04
-6.338410e-03
-2.438503e-02
1.422636e-02
2.792347e-03
-1.964059e-02
-4.993436e-03
-1.639153e-02
-2.201596e-02
-1.556669e-02
-2.901623e-02
-1.481870e-02
-6.984575e-03
-3.983296e-03
6.268821e-03
9.716510e-03
5.062165e-03
7.058967e-03
1.108681e-02
-2.799455e-03
-1.856264e-03
6.823849e-03
-4.865769e-03
-6.353050e-03
1.222103e-02
1.942986e-02
-9.336864e-05
2.420813e-02
2.293282e-02
-3.310478e-03
2.323155e-02
5.217231e-03
1.192389e-03
-1.153248e-02
-7.396519e-03
-1.284938e-02
-2.085754e-02
-1.607411e-02
-2.545371e-02
-1.139385e-02
-1.524591e-02
-1.602405e-02
-1.504721e-02
-2.293938e-02
-3.167948e-02
-1.629931e-02
-1.607473e-02
-3.244288e-02
-1.765816e-02
-9.645939e-03
-2.511024e-02
-2.449451e-03
-7.082431e-04
-7.897367e-03
1.112977e-02
3.032381e-02
1.265284e-02
-2.276344e-03
1.712233e-02
-2.397373e-03
2.415618e-02
2.938451e-02
1.019200e-02
2.342671e-02
3.878037e-02
8.710770e-03
1.283329e-02
-1.324775e-04
7.984509e-03
9.656695e-03
1.069647e-02
5.391423e-03
2.275255e-02
2.317554e-02
4.018022e-03
2.186413e-02
8.390454e-03
2.989744e-03
-5.821140e-03
-4.052597e-03
1.103408e-02
-1.895676e-02
-2.825696e-03
2.683814e-02
-7.921716e-03
-9.095853e-03
1.296310e-02
1.208744e-02
-5.693002e-03
-1.228633e-02
-2.911634e-03
-1.148060e-02
-1.616169e-02
-9.582069e-03
2.044761e-04
3.317263e-04
-2.069425e-03
-6.564571e-03
-1.061021e-02
-9.905496e-03
-7.745521e-03
6.320810e-03
-4.911401e-03
-1.075149e-02
-2.954173e-03
1.609643e-03
-3.791447e-03
8.323551e-03
-1.299724e-03
1.322430e-02
1.856222e-02
1.049219e-03
-1.252199e-02
-2.131461e-02
-1.040402e-02
-7.395292e-03
-7.848267e-03
-5.402660e-03
-5.129681e-03
-9.950583e-03
-1.855126e-03
-6.713022e-03
-1.380568e-02
1.605534e-02
1.391469e-03
-1.875400e-02
-1.532463e-02
-1.577031e-02
-1.208801e-02
-1.214108e-02
-1.478612e-02
-1.515050e-02
2.240700e-02
1.593506e-02
4.699959e-03
2.559769e-03
2.763779e-02
8.343932e-03
-1.315828e-02
1.688234e-03
-1.978168e-03
9.722175e-03
-3.928847e-03
-2.882355e-02
1.003182e-02
-1.062401e-02
-1.729203e-02
1.580949e-02
-1.058107e-02
-5.645249e-03
-9.328182e-03
1.935613e-03
4.726072e-03
1.353448e-02
2.693577e-02
2.474282e-02
7.419740e-03
1.541406e-02
1.046049e-02
-3.519296e-03
-1.573141e-02
-2.457715e-02
-8.667320e-03
-2.395326e-02
-3.159470e-02
6.155513e-03
-1.366642e-02
-7.186944e-03
1.873939e-03
-1.146282e-02
-1.215271e-02
-3.705786e-03
-1.058322e-02
7.163206e-04
-3.091048e-03
-1.045978e-02
-3.413310e-03
3.851112e-02
1.370016e-02
-4.862959e-04
2.569463e-02
-6.027642e-03
-1.464949e-02
-5.153478e-03
-1.897203e-02
-1.805173e-02
1.071385e-02
-1.532248e-03
-1.435125e-02
-1.602719e-02
-1.759177e-02
-2.145520e-02
-1.502957e-02
-1.601237e-02
-1.453869e-02
1.174254e-02
4.496146e-03
-4.906608e-03
9.222589e-03
-1.430850e-02
-1.349857e-02
-2.297722e-02
-2.277446e-02
-5.473258e-03
1.408749e-02
1.335199e-02
9.331866e-03
2.217273e-02
4.543226e-02
2.916138e-02
3.318617e-02
3.766176e-02
3.143620e-02
1.429874e-02
2.695573e-03
-4.755032e-03
1.396769e-02
1.448030e-03
1.554598e-02
1.307211e-02
-4.302112e-04
1.778354e-02
4.484775e-03
1.199431e-02
-1.693374e-03
9.675228e-03
5.160932e-03
-1.318968e-02
4.107105e-03
-7.460063e-03
-1.070120e-02
1.600644e-03
-2.575648e-03
-1.741723e-02
2.092903e-03
-8.846962e-03
-2.273905e-02
-7.133242e-03
-2.826423e-03
-1.521291e-02
1.091089e-02
-1.277760e-02
2.466209e-04
2.560088e-02
5.916632e-04
-1.770844e-03
2.047065e-02
1.483601e-02
-3.227185e-03
-7.355669e-03
3.030988e-02
3.911912e-02
4.106664e-03
5.000409e-02
5.577062e-02
2.150397e-03
1.287892e-02
2.235738e-02
1.048121e-02
2.246148e-02
2.854536e-02
-6.752050e-03
-4.585162e-03
1.790325e-02
4.341524e-03
5.724146e-03
1.246330e-03
-5.755901e-03
-8.589199e-03
-1.466924e-02
-9.031400e-03
-1.631252e-02
-2.128596e-02
1.374035e-02
9.069258e-03
4.829386e-03
1.009205e-03
2.609220e-02
3.901072e-02
-9.358848e-03
-1.319426e-02
1.582105e-02
-2.255595e-02
-2.819865e-02
-1.174978e-02
1.698680e-04
2.021773e-02
2.545272e-02
-1.276532e-02
3.787742e-03
1.017850e-02
-1.293388e-02
-2.000641e-02
-1.208000e-02
-2.848995e-02
-1.111356e-02
-3.944960e-03
-1.484269e-02
-1.220471e-02
-1.219990e-02
-3.043981e-04
1.547483e-03
-1.092942e-02
3.946380e-03
4.518846e-03
-3.132776e-04
1.292280e-03
1.471873e-02
1.375912e-02
-8.210347e-03
-3.410931e-03
-7.042800e-03
-1.846289e-02
-1.021506e-02
-1.121798e-02
-1.727030e-03
-8.774991e-03
-3.210336e-03
-1.392417e-02
-2.664574e-02
9.694178e-03
-7.403453e-03
-4.319759e-03
2.878290e-02
-1.422475e-02
-1.382627e-03
3.561779e-02
-6.063011e-03
4.931835e-03
1.972237e-02
-2.963411e-03
1.788379e-02
1.846188e-02
1.308726e-02
4.111190e-02
2.716579e-02
-1.008831e-02
7.784402e-03
-3.466900e-03
-6.994039e-03
-1.182980e-02
-3.842304e-03
9.737967e-03
9.257363e-03
8.142422e-03
5.864200e-03
5.456470e-03
1.522441e-02
-1.328690e-02
-2.491399e-02
-3.611905e-03
-1.032945e-02
-2.835171e-02
-1.351192e-02
6.734127e-03
-1.442702e-02
-1.664279e-02
-1.944529e-02
-1.853658e-02
9.494619e-03
-2.580693e-02
-1.514614e-02
5.432579e-03
-7.970504e-03
3.970779e-03
1.558030e-03
1.913782e-03
2.289543e-02
1.751476e-02
-4.732391e-03
-5.452232e-03
5.349173e-03
-2.324062e-02
-1.752012e-02
-8.415890e-03
-2.721018e-02
-6.328059e-03
4.635341e-03
-1.123684e-02
-2.184394e-02
-5.080719e-03
5.154548e-03
-1.757637e-02
-2.066239e-02
-2.132245e-02
1.817546e-02
2.561884e-02
-8.706601e-03
-5.838330e-03
1.720084e-02
-8.942290e-04
-8.541448e-03
-3.157654e-03
-3.841961e-03
4.104131e-02
1.709067e-02
-3.453867e-04
2.607734e-02
-5.425205e-03
-2.267103e-03
3.562223e-04
-2.400748e-02
-8.282911e-03
8.603959e-03
2.565339e-03
8.793077e-03
1.641911e-02
3.259401e-02
3.691622e-03
1.408639e-03
7.871009e-03
-2.038728e-02
-2.265348e-02
3.528307e-03
-1.463129e-02
-2.089016e-02
1.339278e-03
-4.139185e-03
-1.960524e-02
-1.918208e-02
1.419418e-02
-3.478564e-03
-6.344990e-04
1.628160e-02
1.069471e-02
5.655091e-03
4.344285e-04
1.507242e-02
9.278907e-03
-5.648801e-03
1.646356e-02
3.912881e-03
-1.198737e-02
8.231835e-03
2.293218e-02
-1.934165e-02
-1.980481e-02
-2.446450e-03
1.736524e-02
7.941985e-03
-6.816546e-03
1.034173e-02
3.072090e-03
-7.526874e-03
-1.370777e-03
-8.524315e-03
-1.052618e-02
-1.432924e-02
1.717785e-03
1.578560e-02
-8.891959e-03
5.305428e-03
-2.617534e-03
-1.549580e-03
-3.234695e-03
2.932932e-03
-1.970461e-03
4.716667e-03
7.954236e-03
4.438923e-03
-5.448166e-03
6.317840e-03
2.098804e-02
-1.341484e-03
-1.557964e-02
-1.739226e-02
-1.791485e-03
4.301662e-03
-3.831922e-03
1.903832e-02
2.299952e-02
-4.399129e-03
-3.552816e-03
2.099624e-03
-1.737059e-02
-3.334936e-03
-1.302999e-02
-2.145438e-02
-9.206418e-03
-1.624600e-02
-4.918827e-04
-9.693722e-03
-6.110145e-03
-8.820954e-05
6.748505e-03
2.528590e-02
-1.520061e-02
1.965906e-02
3.422725e-02
-7.267139e-03
-2.405115e-02
-3.390438e-03
-2.402240e-03
-1.153806e-02
-1.605892e-02
9.837869e-03
6.266338e-03
-2.010259e-02
-2.601021e-03
-5.903176e-04
-5.887986e-03
-2.585079e-02
1.291179e-02
1.957842e-02
-2.404300e-02
3.104069e-03
-8.304575e-03
-1.869183e-02
-2.442900e-02
-1.870533e-02
-1.580562e-02
3.926763e-03
1.275984e-02
-8.270053e-03
-6.706766e-03
1.132930e-02
9.135736e-03
5.165366e-03
1.086153e-02
-1.419000e-02
6.562271e-03
-7.241951e-03
-3.651305e-03
1.801327e-02
4.819108e-03
5.081898e-04
1.144167e-02
1.194612e-02
-3.379216e-02
-8.275239e-03
9.762463e-03
-7.983731e-03
2.219603e-02
1.233350e-02
1.258963e-02
2.024169e-02
4.624999e-03
7.673693e-03
5.069878e-03
1.038857e-02
-1.924162e-02
-1.696423e-02
7.683360e-03
-4.078970e-03
-1.292329e-02
6.960575e-03
-4.846196e-03
4.008149e-03
5.978125e-03
-8.015006e-05
7.750944e-04
-4.220644e-03
-7.642115e-03
-5.698454e-04
-2.057388e-04
-1.661246e-02
-1.623265e-02
-1.747835e-02
-4.920359e-03
-7.869923e-03
-8.575596e-03
-2.211410e-03
-4.812173e-03
-6.250855e-03
-1.018179e-02
-1.174450e-02
-2.165258e-03
-4.917176e-03
-6.392335e-03
3.528579e-03
-1.255924e-02
-1.039169e-02
4.057962e-03
-1.287665e-02
-1.689610e-02
-2.542516e-03
-1.404548e-02
-2.542297e-02
-2.311604e-02
-5.985368e-03
-1.193593e-02
-2.443841e-02
-5.372346e-03
-1.052361e-02
4.152985e-03
1.619415e-02
1.655812e-03
1.985289e-03
6.008255e-03
6.009937e-03
-6.810389e-03
-9.654860e-03
-6.953192e-03
1.079461e-02
-5.808129e-03
-4.012559e-03
5.867997e-03
4.413667e-03
-6.401231e-03
-1.269654e-02
-1.079633e-02
4.768264e-03
1.722430e-02
-5.283867e-03
3.184780e-04
3.137984e-02
6.645948e-03
1.230061e-02
9.668767e-03
-7.885602e-03
-4.279819e-04
-2.868439e-03
-9.865941e-03
-2.237291e-02
-1.586623e-02
-6.285360e-03
-1.860492e-02
-1.214004e-03
-2.820366e-03
-4.092190e-03
3.374519e-03
8.143042e-03
-1.395924e-03
-1.347439e-02
-8.029977e-03
1.868070e-03
-2.549685e-02
-1.669470e-03
1.774716e-02
1.892945e-03
6.911339e-03
1.449035e-02
-1.294732e-02
2.345829e-03
5.377002e-03
-4.309881e-03
3.518485e-03
-1.314279e-02
-4.224441e-03
-1.530719e-03
5.803393e-04
4.978025e-03
1.414374e-03
1.354206e-02
9.725505e-03
-2.805594e-03
-1.137277e-02
-7.445627e-03
-1.788406e-02
9.385949e-03
8.190389e-03
-1.984326e-02
1.743164e-02
6.268668e-03
8.298278e-03
1.009491e-02
-9.666586e-03
2.309877e-02
1.523900e-02
-1.390950e-03
1.059373e-02
-1.846987e-03
-1.237041e-02
8.555979e-03
9.025624e-03
1.696586e-02
7.081870e-03
-1.408923e-04
1.170681e-02
6.797290e-04
-4.578406e-03
-7.135335e-03
-8.546017e-03
-2.019483e-02
-3.567569e-03
-1.698156e-03
-6.445879e-03
2.547151e-03
1.283678e-02
1.594007e-02
2.118070e-02
-7.189756e-03
-5.619358e-03
2.107576e-03
-9.824925e-03
-4.941517e-03
1.069519e-02
-1.629142e-02
-1.011364e-02
-6.487526e-03
-1.289478e-02
-5.307763e-03
-1.422999e-03
-2.068982e-02
-5.918961e-03
3.855649e-03
-3.549204e-03
-5.544001e-03
-5.878963e-03
-1.100524e-03
-4.516922e-03
-9.600304e-03
6.411984e-03
6.442127e-03
5.791796e-03
-4.333187e-03
9.610904e-03
-6.164953e-04
1.547106e-02
8.263404e-03
-3.600931e-03
3.360435e-03
3.328161e-03
-4.905721e-04
7.455134e-03
-4.105369e-03
3.492527e-03
-4.178315e-03
-7.984469e-03
-8.989369e-03
-1.095573e-02
-1.066563e-02
-3.226331e-03
8.131656e-03
6.003149e-03
2.346093e-03
2.764372e-03
-1.441297e-03
1.565630e-03
5.889485e-03
1.763291e-02
1.496887e-02
-5.806576e-03
1.822427e-02
2.098568e-02
-3.673503e-03
-3.431683e-03
6.860905e-03
-1.909828e-02
-6.387576e-03
9.051251e-03
-1.729314e-02
-5.811126e-03
1.101133e-02
-1.460636e-03
5.367849e-03
1.181880e-02
-4.671147e-03
-8.235675e-03
-6.259070e-04
-2.300588e-02
-2.439615e-02
-9.428409e-03
1.226996e-04
-5.227830e-03
-6.125063e-03
-9.721207e-03
-1.097672e-02
-9.501987e-03
-3.439075e-03
9.400304e-03
2.196379e-02
1.286569e-02
1.852328e-03
-5.251527e-03
9.690577e-03
5.471762e-03
1.026248e-03
-5.175092e-03
-6.372053e-04
-5.692017e-03
-9.077074e-03
-3.763831e-03
1.700505e-03
-4.103100e-03
7.363044e-03
1.348167e-02
7.344253e-03
3.837463e-03
8.467178e-03
-1.987709e-03
-4.226023e-03
-1.224913e-03
7.205425e-03
1.571187e-02
2.339182e-02
2.879307e-03
1.828838e-02
1.528686e-02
1.244280e-02
6.563211e-03
2.103772e-03
6.837134e-03
3.054856e-03
-1.004832e-03
-6.918761e-03
-7.557536e-03
9.891579e-05
-2.349701e-04
-2.651381e-03
1.044592e-02
-1.272660e-02
-7.502577e-03
1.255523e-02
-7.399737e-03
7.265600e-03
1.462056e-02
7.075787e-03
-8.464349e-03
-1.134055e-02
1.137619e-02
-5.476729e-03
-9.874210e-03
1.244826e-02
-1.823974e-03
-2.190728e-04
3.323529e-03
4.648689e-04
7.632770e-03
-5.855996e-04
7.932977e-03
9.977633e-03
5.333852e-03
1.317100e-02
5.668421e-03
2.075328e-03
7.289890e-03
5.455972e-03
7.898298e-03
9.060634e-03
1.809642e-03
7.148289e-03
4.908971e-03
-1.840002e-03
-3.080961e-03
2.030068e-04
2.089268e-03
-1.280213e-02
-5.742989e-03
-2.187480e-04
-7.110026e-03
-2.015804e-03
-4.952855e-03
-3.405841e-02
-3.558030e-02
-3.420538e-02
-2.722169e-04
-2.714951e-03
-3.918680e-03
3.187395e-03
1.929028e-03
1.128319e-03
-3.973294e-03
1.319430e-03
5.629189e-04
1.890101e-03
8.125849e-03
4.233138e-03
8.555186e-03
5.422084e-03
-2.717933e-03
1.208076e-02
1.338258e-02
8.299428e-03
2.918459e-03
3.338334e-03
7.956968e-03
1.699590e-03
-1.337172e-03
-5.979451e-03
7.123064e-03
1.004423e-02
6.076211e-03
-1.718750e-03
2.672144e-03
5.570609e-03
8.900032e-03
1.196077e-02
1.511167e-02
-2.718895e-03
7.603208e-03
4.793715e-03
-3.400540e-03
-3.392300e-03
-1.896567e-03
-6.448615e-03
-9.362274e-03
-8.425593e-03
1.067375e-02
-3.551724e-03
-4.076683e-03
1.589217e-02
-5.289918e-03
-5.625728e-03
1.012288e-02
-2.956292e-03
-7.494275e-03
-3.720196e-03
1.867432e-03
-3.791567e-03
5.184484e-03
9.494627e-03
7.942175e-03
-4.444467e-03
7.405045e-03
5.548219e-03
-2.373626e-03
-2.260524e-03
-3.107438e-04
1.694047e-03
4.256100e-03
-1.191472e-03
3.311324e-04
4.875958e-03
6.299552e-03
3.362474e-03
6.683617e-03
7.569544e-03
5.824345e-03
8.120214e-03
3.284379e-03
7.969812e-03
2.984684e-03
-1.050919e-03
3.623183e-03
7.953153e-03
9.493518e-03
1.054936e-02
8.720580e-03
1.430000e-02
1.212723e-02
9.690652e-03
7.308208e-03
8.085608e-03
5.918625e-03
5.363596e-03
7.945098e-03
9.725794e-05
-1.772584e-03
7.264906e-03
-6.367049e-03
-5.498690e-03
-1.545197e-02
-1.007927e-02
-3.609618e-03
-1.751539e-03
7.572315e-03
1.333293e-02
-1.219787e-02
-1.742357e-03
6.336645e-03
9.165420e-04
-2.816001e-03
1.511087e-03
-4.559157e-03
3.082624e-03
-8.756096e-04
-6.437497e-03
-1.869877e-03
-1.539326e-03
-7.861001e-03
-7.688855e-03
-1.005128e-02
1.597409e-04
9.757454e-05
-3.687510e-03
3.131917e-03
3.062808e-03
1.846732e-04
1.753162e-03
1.008715e-02
5.484595e-03
1.924393e-03
2.055592e-03
-2.118261e-03
-5.571303e-03
-2.799554e-03
1.058877e-03
-7.370775e-03
-2.623444e-03
-4.798163e-03
-6.975677e-03
-7.523394e-03
-9.669803e-03
-1.023426e-02
-1.277365e-02
-1.500363e-02
-6.827220e-03
1.268796e-03
1.643367e-03
-3.033018e-04
6.914895e-03
1.072226e-02
-2.478421e-04
6.554529e-03
8.637077e-03
8.166002e-03
4.770340e-03
1.733832e-03
2.612550e-03
1.038713e-03
-5.777419e-03
-1.186020e-03
2.860841e-03
1.143203e-03
-3.102387e-03
-1.410408e-03
-4.189367e-03
-6.629820e-03
-7.774442e-03
-6.515989e-03
-9.391793e-03
-7.129197e-03
-8.764671e-03
-5.002748e-03
-7.467621e-04
-4.364986e-03
-2.601875e-03
-7.199851e-03
-1.106156e-02
-8.947705e-03
-1.284440e-02
-9.420675e-03
-3.305459e-03
-4.162995e-03
-5.422909e-05
-4.390935e-03
-1.550923e-02
-8.891185e-03
5.028271e-03
-1.103651e-02
-7.754939e-03
5.848241e-03
7.965266e-03
1.311818e-02
-2.278723e-04
3.865417e-03
5.614689e-03
-5.911667e-03
-4.682735e-03
-3.238383e-03
1.536758e-02
1.603946e-02
1.175288e-02
3.944759e-04
1.859394e-03
2.304020e-03
-2.809402e-04
-9.372766e-04
-8.001474e-03
-2.581744e-03
-1.108708e-03
-6.407651e-03
8.440356e-03
7.270603e-03
-1.946463e-03
6.845238e-03
3.457463e-03
-7.949710e-04
-1.727752e-02
-8.227783e-03
-6.512006e-03
-8.369887e-04
2.614720e-03
3.369105e-03
1.244352e-02
2.048087e-02
1.395150e-02
4.206503e-03
2.453366e-03
-9.989213e-04
1.410004e-02
6.292460e-03
-1.656706e-03
1.170847e-02
-8.482252e-04
-5.869762e-03
-5.211496e-03
2.222872e-04
2.972945e-03
2.323663e-03
6.546675e-03
2.063390e-03
2.402448e-03
-8.603069e-04
7.878746e-03
6.865250e-03
2.917822e-04
-1.290035e-02
-9.407074e-04
-6.726714e-03
-7.220454e-03
-6.500058e-03
-1.422100e-02
-7.485117e-05
2.496292e-03
-2.408581e-04
-2.026198e-03
6.462039e-03
7.013452e-03
3.074894e-03
1.070096e-04
-3.861487e-03
-4.377847e-03
-4.226455e-03
-1.639125e-02
-4.183217e-03
-2.348515e-02
-2.918626e-02
-2.197622e-02
-1.576912e-03
-9.692976e-03
-2.563621e-02
5.968929e-03
-6.616437e-03
-2.590891e-03
1.169622e-02
-1.563209e-02
-8.455940e-03
2.086921e-02
-9.881683e-03
-6.807391e-03
-1.075188e-02
-2.530787e-02
-2.842169e-02
-1.055835e-02
-2.790890e-02
-1.714327e-02
-6.290603e-03
-1.481732e-02
-1.149090e-02
1.703110e-03
-1.678181e-03
2.289281e-03
-1.832342e-02
-2.626646e-02
-2.325529e-02
-1.025939e-02
-1.729664e-02
-1.558781e-02
-2.504030e-02
-1.624608e-02
-1.099260e-02
-1.666529e-02
-4.320936e-02
-1.080226e-02
3.764720e-03
-9.723296e-04
-8.181356e-03
8.286258e-03
-2.202601e-02
-3.427243e-04
8.930354e-03
-5.630367e-03
-5.178635e-03
1.223945e-02
2.152872e-02
8.500735e-03
-5.120890e-02
-6.103908e-02
-2.829684e-02
-4.117169e-02
-4.807901e-02
-3.054364e-02
-6.239740e-03
-4.198955e-03
-5.663814e-03
-2.426779e-02
-3.226995e-02
-1.668750e-02
-9.654482e-03
-1.393608e-02
-1.339807e-02
1.694088e-02
9.384034e-04
-2.031177e-02
-4.638345e-03
-2.175491e-02
-1.744628e-02
-1.851421e-02
-3.252200e-02
-2.051883e-02
-7.270490e-03
-7.052553e-03
-1.170387e-02
8.254757e-03
1.287391e-02
3.514935e-03
1.412570e-02
-7.117731e-03
-1.702639e-02
3.374235e-02
6.067111e-03
-5.660805e-03
-1.010660e-02
-1.767183e-02
-1.571947e-02
-2.049728e-02
-2.099383e-02
-2.016012e-02
-4.052424e-02
-1.764835e-02
-9.667126e-03
2.569572e-02
2.272413e-02
-3.385912e-03
2.701710e-02
2.139173e-02
-9.041211e-03
2.693946e-03
-3.374874e-04
-1.829198e-02
-2.429347e-02
-1.551334e-02
-5.496487e-03
-1.472205e-02
-2.381403e-02
-1.643911e-02
-3.290192e-03
-1.444374e-02
-2.563108e-02
-1.886372e-02
-1.073940e-02
-4.686610e-03
-2.055797e-02
-9.854496e-03
1.390774e-02
1.772882e-03
5.641714e-03
7.433778e-03
5.013279e-03
6.979483e-03
4.985312e-03
-8.587800e-03
5.765285e-03
1.084099e-02
-6.401477e-03
-9.508833e-04
4.669988e-03
-5.919497e-03
-3.725293e-02
-2.540636e-02
-1.326976e-02
-2.199397e-02
-3.278535e-02
5.296319e-04
1.043930e-02
2.929322e-03
-1.448716e-02
-2.227594e-02
-1.249041e-02
-1.433495e-02
-2.230688e-02
-2.390612e-03
-1.321614e-02
-1.584605e-02
3.362979e-03
-1.076808e-02
-2.606009e-02
-4.774584e-02
9.401126e-03
-1.068388e-02
-2.062758e-02
8.307688e-03
4.059525e-03
1.400839e-02
4.679741e-03
-3.636144e-03
-8.894010e-03
-1.475682e-02
-1.796919e-02
-1.703256e-02
5.524418e-03
5.817584e-03
1.917884e-03
-6.563908e-03
-3.085597e-02
-3.089752e-02
-2.157519e-02
-5.413487e-03
-1.996812e-02
-6.707859e-03
6.393080e-03
6.852867e-03
1.626823e-04
-8.514949e-03
-3.962844e-03
-1.269039e-03
-9.923103e-03
-6.719217e-03
-1.088693e-03
1.432003e-02
2.054289e-02
-5.109569e-03
-2.665978e-02
-1.262989e-02
-1.275941e-02
-3.620587e-02
-3.058786e-02
1.392853e-02
2.088704e-02
1.119624e-02
-2.221971e-03
-1.901444e-02
-4.489438e-03
-8.766521e-03
-1.323159e-02
-1.389122e-02
3.318501e-04
1.529514e-02
4.046455e-03
9.329960e-03
3.096661e-04
-4.647726e-03
-3.656421e-03
-4.446824e-03
-2.790547e-03
-2.027553e-03
-2.227141e-02
-1.791862e-02
2.216917e-02
1.833251e-03
-2.069263e-03
-3.850173e-03
-2.412063e-02
-3.308122e-02
7.844361e-03
-3.715428e-03
-6.870637e-03
-1.219762e-02
-7.321994e-03
-2.989287e-03
-1.964110e-02
-3.412703e-02
-2.257653e-02
-1.715297e-03
-1.964212e-02
-2.478488e-02
4.141327e-03
-1.980751e-02
-1.119582e-02
-8.944233e-03
-3.208958e-02
-1.717275e-02
-1.948311e-03
1.045122e-02
-7.195115e-03
8.458702e-03
3.436920e-03
1.581460e-03
1.062366e-02
-1.499688e-02
-1.140163e-02
1.912989e-02
1.003286e-02
-1.371277e-02
-8.868468e-03
-2.817812e-03
5.707736e-04
-7.119636e-03
-2.105156e-02
-1.247690e-02
-9.805838e-03
-1.834708e-02
-7.612965e-03
3.402887e-03
-1.782971e-03
-1.909180e-02
2.382294e-02
2.614727e-02
1.560448e-03
7.043179e-03
4.122816e-02
1.476288e-02
-1.300152e-02
-3.267876e-03
1.199626e-02
-8.120661e-03
6.044689e-04
1.009032e-02
-2.765930e-03
-1.190779e-02
-2.829864e-03
1.356286e-02
2.051433e-02
6.134890e-03
2.568366e-03
9.917677e-03
1.118573e-02
-1.649017e-03
-2.644335e-02
-9.235140e-03
-8.697591e-03
-5.600063e-03
1.314975e-04
-1.722411e-02
-8.287502e-03
-4.948091e-04
-1.336243e-02
-4.778604e-04
2.231934e-03
-8.268865e-03
-8.394475e-03
-3.098013e-03
-8.687598e-03
2.699014e-04
1.167187e-02
-1.625445e-03
3.335252e-03
1.682334e-02
3.448506e-03
3.609296e-03
1.888650e-03
9.072462e-03
1.365677e-02
8.922007e-03
8.517640e-03
1.081976e-02
1.097625e-02
1.041904e-02
1.204866e-02
1.322010e-02
-1.890980e-03
-8.258580e-04
1.544641e-03
9.860205e-04
-4.499695e-04
6.668860e-04
-4.145845e-03
-9.150795e-03
-4.935009e-03
2.073884e-03
-5.293910e-03
1.895872e-03
-7.307371e-03
-8.329814e-03
-3.459204e-03
-9.937721e-03
-7.004354e-03
3.429754e-03
1.842816e-03
-3.948804e-03
9.970491e-03
9.396443e-03
-3.760578e-03
-4.332936e-03
-4.866004e-03
-1.538217e-03
-5.830572e-03
-1.321642e-03
9.893248e-04
-4.437711e-03
-1.476679e-02
-9.272721e-03
-1.549940e-02
4.732426e-03
1.094246e-02
1.290560e-02
7.353552e-03
8.000133e-03
1.726484e-02
7.531008e-04
2.853606e-03
3.052279e-03
5.503002e-03
4.973273e-03
-5.878588e-03
-4.828664e-03
-2.326287e-03
1.022563e-03
-2.731291e-03
-1.872452e-03
-2.770968e-03
-4.971878e-03
-2.034011e-03
1.550589e-02
-1.326778e-02
-1.203007e-02
8.123831e-04
-7.314594e-03
-1.054507e-02
1.639141e-03
-9.820954e-03
1.153719e-03
-3.668682e-06
-1.196478e-02
-9.840549e-03
-8.964078e-03
-6.787437e-03
-5.025119e-03
-7.689270e-03
9.031908e-03
2.512122e-03
-4.784728e-03
1.226869e-02
9.954625e-03
4.304810e-05
1.411383e-02
2.248627e-02
1.767470e-02
-4.317736e-05
-3.651268e-03
-4.664554e-04
2.478589e-03
-5.589372e-03
2.466482e-03
3.047582e-03
1.934734e-03
-4.711112e-03
6.755585e-03
2.968095e-03
3.891841e-03
-3.293298e-03
-4.376362e-03
1.957278e-03
-5.784636e-03
5.167981e-03
1.041393e-02
9.091437e-03
1.900351e-02
2.250981e-02
2.889931e-05
1.388616e-02
1.717456e-02
-3.647028e-03
9.402009e-03
1.486697e-02
-1.094065e-03
-4.987345e-03
-2.481855e-03
-7.981568e-03
-5.767691e-03
-6.400430e-03
-1.142587e-02
-1.000333e-02
-1.555210e-02
6.556389e-03
1.086461e-02
8.988716e-04
5.131764e-04
1.663491e-03
-8.785803e-03
-2.788335e-03
-1.869136e-03
-1.098634e-02
-1.045165e-02
1.992398e-04
2.529943e-03
-9.453955e-03
-6.186334e-04
-2.570764e-03
-1.663381e-02
2.487340e-03
6.613101e-03
-2.096831e-03
2.198319e-03
2.098876e-03
-3.559996e-03
2.531840e-03
-9.772072e-04
-4.274536e-03
-8.810281e-04
2.822289e-04
9.661960e-03
6.335859e-03
-1.398192e-03
-6.420867e-04
-8.317393e-04
-1.025007e-02
2.334703e-03
-3.186775e-03
-6.640309e-03
3.246502e-04
-1.421615e-02
-1.577615e-02
4.187322e-03
-3.227569e-03
-8.346383e-03
6.875821e-03
-1.135843e-04
-1.310852e-03
1.649109e-03
3.835128e-03
-1.998564e-03
2.375140e-03
-4.390363e-03
2.332762e-03
-1.241049e-02
-7.426475e-03
-2.543504e-04
6.093218e-04
2.214172e-03
-1.166440e-03
7.377423e-03
1.217008e-02
1.380501e-02
-1.657214e-03
6.627928e-03
2.494795e-03
5.316481e-03
-2.699958e-03
4.632453e-03
5.546239e-03
-2.370255e-03
6.559925e-03
5.694821e-03
5.418733e-03
1.765891e-02
-6.110203e-03
-6.458260e-03
-9.260422e-03
1.006413e-03
-3.569286e-03
-4.269709e-03
1.300483e-02
1.547510e-02
9.528828e-03
-5.643731e-03
1.153064e-03
2.859213e-03
2.205685e-04
-3.045890e-03
8.286033e-04
-4.722517e-03
-4.181920e-03
1.895341e-03
4.135282e-03
-4.964672e-03
3.595327e-03
4.579894e-03
-1.502038e-03
-1.673234e-03
-8.315204e-03
-1.213715e-02
-1.236564e-02
3.842786e-03
5.025037e-03
4.270225e-03
1.890383e-03
6.089369e-03
1.755825e-02
1.385705e-03
-2.206910e-03
-1.281924e-04
2.819853e-03
9.854581e-04
-4.664837e-03
-1.306359e-03
3.385322e-03
-1.206671e-03
-1.567963e-02
-7.766076e-03
5.402535e-04
-3.497950e-03
2.052999e-03
2.717003e-04
-1.338477e-02
-1.071837e-02
-8.530566e-04
-7.263361e-03
-2.243955e-03
-8.296574e-03
1.157592e-02
3.504195e-03
4.992764e-03
6.829303e-04
1.882029e-03
2.444418e-03
-9.806028e-04
1.767350e-03
2.703575e-03
-1.407125e-04
4.993123e-03
7.137256e-03
-1.432364e-03
8.625261e-05
5.881560e-03
-2.614413e-03
-2.749015e-03
6.066758e-03
-3.847882e-03
3.529538e-03
-1.887081e-02
4.309145e-03
-1.712590e-02
-1.079867e-03
5.457739e-03
-1.627796e-03
3.043361e-03
3.773464e-03
-2.490319e-02
1.187335e-02
1.181745e-02
-4.308674e-03
1.964619e-02
6.003282e-03
8.465680e-03
1.075650e-02
-2.612045e-04
-9.063828e-03
-1.695185e-02
-1.767324e-02
-1.792962e-02
-1.099448e-02
-2.084430e-02
-1.822328e-02
-1.593221e-03
2.213154e-03
-5.097975e-03
-7.519952e-03
-3.387904e-03
-1.933623e-02
-2.071719e-02
1.355351e-02
3.090245e-03
3.374626e-04
3.165055e-02
2.687980e-03
-1.532917e-02
4.066826e-02
-1.195152e-03
-2.995471e-02
2.610705e-02
-1.682724e-02
-1.857175e-02
-4.309570e-03
-2.668591e-02
-1.308220e-02
1.080826e-02
-2.546005e-03
-1.445691e-02
2.569132e-03
-7.631699e-03
-2.271136e-02
1.038716e-02
1.612284e-02
-2.138172e-02
2.598729e-02
-1.987286e-03
-1.485465e-02
-5.486009e-03
-1.191326e-03
1.297729e-02
1.549002e-03
-5.579207e-03
-9.331762e-03
2.100039e-02
5.833200e-03
-2.545379e-02
1.909468e-02
-3.383841e-03
-1.186757e-02
2.492236e-02
1.232397e-02
1.902958e-02
2.359923e-02
1.207425e-02
1.232762e-02
2.142441e-03
2.794469e-03
-9.083392e-03
-1.515699e-03
5.487258e-03
-1.360326e-03
-1.704458e-02
1.179462e-02
1.682437e-02
-1.644257e-02
3.309137e-02
1.274565e-02
-1.951466e-02
3.504677e-03
1.216985e-02
-2.295118e-02
-1.204653e-02
-1.720282e-02
2.862534e-03
2.426153e-02
1.980542e-02
1.516596e-02
-1.136020e-02
-6.836228e-03
-1.703442e-02
-2.778375e-02
-1.718207e-02
-4.755757e-03
-4.026219e-03
-8.800433e-03
2.102295e-02
1.423908e-02
-2.161811e-02
2.095695e-02
1.577350e-02
-8.443765e-03
-1.110960e-02
6.468977e-03
1.407931e-02
4.539956e-04
2.708044e-02
1.592835e-02
1.513967e-02
3.116416e-02
1.818362e-02
-5.006684e-04
-1.012794e-02
-2.259053e-02
2.725948e-02
-1.250089e-02
-2.590828e-02
3.050779e-02
-1.769923e-02
-3.154454e-02
1.156150e-02
-1.834260e-02
-9.694960e-03
-2.145935e-03
1.675603e-02
-2.718275e-02
7.587694e-03
-2.354780e-03
-3.103883e-02
-6.177587e-03
-1.399807e-02
-2.051078e-02
1.228413e-02
-1.625600e-02
-1.597713e-02
1.934287e-02
-1.523798e-02
-1.576540e-02
3.204988e-02
4.186847e-04
-9.983880e-04
1.079038e-02
6.764236e-04
-2.871753e-02
-1.377557e-02
1.324190e-02
-1.182507e-02
1.490056e-02
2.037790e-02
2.151390e-02
1.459643e-02
6.952342e-03
-4.434065e-03
3.683655e-02
9.158959e-03
-9.184820e-03
2.016070e-02
-1.588506e-02
2.355254e-03
-7.506289e-03
9.746288e-03
-1.430794e-02
-1.314811e-03
6.569147e-04
-1.675580e-02
1.133293e-02
1.918972e-04
7.137154e-03
-2.703040e-03
-9.542956e-04
-3.703299e-03
6.611492e-03
1.478382e-02
9.047179e-03
-2.841598e-03
-2.219621e-02
-7.406747e-03
2.031391e-02
1.756411e-02
-6.668739e-03
2.494855e-02
-4.067241e-03
-3.363962e-02
7.720465e-03
-2.380425e-02
-1.559357e-02
-1.120874e-02
1.580758e-02
-1.358270e-03
7.139802e-03
4.356821e-02
1.156789e-02
1.560774e-02
1.597325e-02
2.078281e-02
-1.204300e-02
-6.558143e-03
1.750485e-02
-7.294007e-03
-1.654670e-03
1.500300e-02
-1.643078e-02
-5.973751e-03
9.084881e-03
1.639065e-02
7.850245e-03
-1.625227e-02
7.966304e-03
6.201599e-03
-9.857909e-03
-1.026494e-02
-2.458494e-03
1.430548e-02
2.972889e-02
-7.828884e-03
-2.950239e-02
2.188184e-02
-9.648632e-03
-1.428525e-02
-1.449540e-02
-1.225086e-02
4.112777e-03
1.021848e-02
-2.471216e-02
-1.284854e-02
4.695850e-03
-2.464635e-02
2.262005e-03
-9.777787e-03
-2.106979e-03
1.837575e-02
6.932124e-03
-1.696823e-02
-1.837404e-02
2.589630e-02
-1.200747e-02
-4.117505e-02
5.903359e-03
-1.830201e-02
-5.908739e-03
-4.582257e-03
1.072812e-02
1.084573e-02
1.243599e-02
1.034244e-02
-3.642228e-03
6.947173e-03
3.800330e-03
-1.301171e-02
1.239084e-02
8.289553e-03
-1.211652e-02
4.325127e-03
-4.989612e-03
-1.144689e-02
3.048163e-03
-1.461553e-02
-1.310796e-03
2.943985e-03
6.867091e-03
1.530579e-02
5.502757e-04
1.617576e-02
7.446764e-03
-3.687481e-03
-2.101578e-03
-7.886194e-03
-8.458843e-03
-1.075227e-02
1.057050e-02
-1.015214e-02
-2.692940e-03
8.994957e-03
7.406385e-03
2.121089e-02
2.825748e-02
4.575690e-03
-8.561312e-03
-1.482801e-02
-1.002671e-02
-1.460851e-02
7.966138e-03
-1.027308e-02
2.341362e-03
9.353845e-04
-1.889970e-03
7.884341e-03
-1.009717e-03
-8.609832e-03
-6.643760e-03
1.208772e-02
-1.693827e-02
2.741017e-03
3.869469e-03
1.153638e-03
-1.327709e-03
7.887095e-03
4.845069e-03
7.654912e-04
7.609170e-03
1.219461e-02
1.704686e-02
1.366553e-02
1.019533e-04
-5.390383e-03
-1.172057e-02
-1.009912e-02
-1.767215e-02
-2.128308e-02
-7.632561e-03
-8.534410e-03
-9.625826e-03
2.838712e-02
4.778044e-02
4.620628e-02
9.241398e-03
1.895692e-02
2.101409e-02
-1.073637e-02
-3.793289e-04
6.511417e-03
4.863798e-03
-7.218017e-03
-7.458734e-03
-8.131406e-03
-2.796150e-02
-6.718995e-03
-1.113875e-02
-1.070956e-02
-7.446366e-03
8.767257e-03
2.805712e-02
1.175268e-02
2.530260e-02
2.125732e-02
3.234422e-03
2.605475e-02
2.165994e-02
1.417503e-02
1.081045e-02
3.491728e-02
2.092771e-02
2.093486e-02
2.048656e-02
8.922231e-03
-2.628562e-03
-1.211819e-02
-8.415449e-03
-4.249628e-03
-9.869802e-03
-2.189328e-02
1.007609e-02
-2.421551e-02
-2.138490e-02
1.729582e-04
-1.455505e-02
-3.512285e-03
-1.509079e-02
-1.982146e-02
-1.044850e-02
-1.659821e-02
-3.758822e-02
-1.523136e-02
-6.057840e-03
-1.975094e-02
-1.389970e-02
-1.722133e-02
-1.911796e-02
1.460786e-02
-9.551080e-03
-1.525971e-02
7.351277e-03
6.219957e-03
1.069139e-02
-7.602681e-03
-2.059990e-02
-4.341097e-03
1.070259e-02
-3.082897e-03
1.390390e-02
6.905254e-03
2.086296e-03
1.185283e-02
2.585537e-03
9.286641e-03
1.694379e-02
9.883316e-03
1.223377e-02
1.147030e-02
1.299140e-02
-2.059108e-03
9.781997e-03
1.568120e-02
-1.090273e-02
-1.928361e-02
-6.739198e-03
-1.009323e-02
-2.237423e-02
8.520264e-03
-5.876278e-03
-8.707315e-03
1.540579e-02
-8.868760e-03
-2.098679e-04
-9.251691e-03
1.784586e-04
1.219968e-02
9.199383e-04
-1.246656e-02
-7.966043e-03
-2.165471e-02
3.990247e-03
9.723493e-03
9.008143e-03
-7.699487e-03
-1.538236e-02
-1.815549e-02
1.604518e-02
-1.765117e-02
-2.185906e-02
-1.499930e-02
5.361124e-03
5.067791e-03
-2.976703e-03
9.911250e-03
7.343305e-03
-1.121918e-02
2.268847e-03
-8.436888e-03
2.556556e-03
2.173962e-02
-4.013193e-04
2.710615e-03
-8.290135e-03
-1.856879e-02
-9.355345e-03
-9.558127e-03
-1.829970e-02
8.670890e-03
1.618825e-02
8.908737e-03
-3.459101e-03
-6.998719e-03
-1.479297e-03
-1.868138e-02
-2.945456e-02
-1.422424e-02
2.915364e-03
1.699365e-02
9.773320e-03
1.655138e-02
3.489844e-02
2.394672e-02
1.322236e-03
1.506372e-02
6.902591e-03
1.116327e-02
1.099417e-02
-3.707077e-03
2.714887e-03
-2.250289e-03
1.064119e-03
2.514405e-03
6.336362e-03
2.494821e-03
2.238686e-02
1.310002e-02
6.744541e-03
1.080146e-02
4.711169e-03
-1.112154e-03
-5.504181e-03
-1.754399e-03
3.753740e-03
9.458356e-03
5.341471e-03
-5.168147e-03
2.514243e-02
1.415789e-02
-1.257351e-02
1.899223e-02
5.734356e-03
-8.326915e-03
-1.012080e-02
-2.127897e-02
-2.111661e-03
2.505561e-03
-2.861648e-02
-3.848406e-03
4.006556e-03
-1.046315e-02
-4.002208e-03
8.877593e-04
3.057442e-03
8.457557e-03
1.465160e-02
2.316495e-02
1.293657e-02
9.840867e-03
6.271443e-03
1.129714e-02
6.604007e-03
4.317899e-03
-2.117224e-03
1.432697e-02
1.454154e-02
4.137908e-03
2.378008e-02
2.643191e-02
1.435602e-02
3.663315e-03
1.721573e-02
1.102896e-03
4.342090e-03
2.212001e-02
-4.911601e-03
3.028955e-02
4.070470e-02
1.994827e-02
6.276071e-03
-2.332975e-03
-3.276896e-03
-3.795411e-03
-3.332493e-03
-7.925859e-03
-8.668290e-03
-7.299512e-03
-1.136519e-02
1.472432e-02
2.140307e-02
1.800934e-03
2.050952e-02
2.184326e-02
-2.030240e-02
-9.384510e-03
-7.895462e-03
-1.352495e-02
4.651551e-04
4.685420e-03
8.071861e-03
4.986915e-03
-1.271019e-02
-9.719550e-03
3.375703e-03
5.655291e-03
-1.740009e-03
-4.601144e-04
2.232184e-03
1.365868e-02
-1.207762e-02
-1.252492e-02
4.546959e-03
-1.884323e-02
-1.366292e-02
-5.872158e-03
-8.012909e-03
-7.006813e-03
1.387788e-03
-6.376918e-03
1.394982e-04
4.714895e-03
2.943404e-03
3.779451e-03
-3.259827e-03
-1.089731e-02
-4.686278e-03
-1.228436e-03
-1.029561e-02
-2.611351e-03
7.881234e-03
-2.031386e-02
-1.159626e-02
1.142676e-02
-1.865045e-03
-3.798400e-03
-4.765848e-03
-1.424856e-02
-1.100094e-02
3.764214e-04
-6.081037e-03
-3.801255e-03
5.310878e-03
-3.002619e-04
-3.350694e-03
-8.407090e-03
5.634009e-03
8.899786e-04
-5.614734e-03
7.186883e-03
1.081499e-02
6.358902e-03
2.199373e-02
2.406092e-02
2.120865e-02
-1.640368e-02
-1.429883e-02
-1.602755e-02
5.211585e-03
4.677681e-03
-2.832380e-04
4.217513e-03
6.957701e-03
9.314963e-03
-1.093832e-02
-8.021570e-03
-1.026034e-02
-8.136923e-03
-3.783403e-03
-9.978637e-03
2.987629e-04
-6.018538e-03
-6.057851e-03
-5.034743e-03
-6.039028e-03
-1.698708e-02
1.984471e-03
-3.895515e-04
-8.800548e-03
-1.049043e-02
-7.841363e-03
-6.414634e-03
-4.097978e-03
-3.905040e-03
-6.812049e-03
5.914110e-03
5.905819e-03
2.008103e-03
-2.672377e-03
2.357192e-03
-5.189310e-03
3.761833e-05
-4.723056e-03
-1.674850e-02
-3.786617e-03
-8.039364e-03
-2.250750e-02
-2.359297e-04
5.978861e-03
3.025632e-03
2.954218e-03
7.607603e-03
1.224028e-02
-8.068216e-03
-3.801540e-03
-1.056111e-03
6.200698e-03
-1.362197e-03
-4.231820e-03
-1.098667e-03
-9.853365e-03
-8.760369e-03
-5.715623e-04
6.320016e-03
-4.976161e-03
1.327938e-02
9.470860e-03
1.462405e-02
5.025506e-03
-9.484346e-04
7.597155e-03
5.663697e-03
3.218210e-03
-5.820284e-03
-1.208709e-02
-1.196782e-02
-1.926157e-02
-7.879368e-03
5.750371e-04
-5.613672e-03
-9.713524e-03
1.872856e-03
-8.296573e-03
1.466238e-03
3.898208e-03
-5.449440e-03
-1.094748e-03
-5.330031e-03
-3.115191e-03
-3.557590e-03
-7.721484e-03
1.192706e-02
1.162493e-02
-3.570900e-03
-6.531245e-04
1.289198e-02
-1.875956e-03
1.380171e-03
3.212171e-03
1.131879e-04
6.961113e-03
1.006681e-02
5.778476e-03
3.885773e-03
2.425173e-03
2.595211e-03
4.708947e-03
7.004112e-03
1.116980e-02
7.443933e-03
-3.698884e-05
-4.805654e-03
-8.937870e-03
5.636098e-04
-6.992123e-04
-1.502839e-02
-3.386533e-03
3.626039e-03
-1.228438e-02
4.107364e-03
7.496218e-03
1.231468e-02
-4.045706e-03
-2.552335e-03
-7.139056e-04
6.844157e-03
7.132033e-03
2.434526e-03
-6.273673e-03
3.322952e-04
4.986673e-03
-2.058632e-03
4.258454e-03
1.568369e-03
1.019804e-02
5.612544e-03
-7.153074e-03
-4.924776e-03
-5.134407e-03
2.576471e-05
-2.068621e-03
-3.855129e-03
1.401574e-03
6.752986e-04
-7.131087e-03
-1.089578e-02
-1.237514e-03
2.323496e-03
6.673771e-03
2.286288e-03
9.078656e-03
-4.200429e-04
-1.029486e-02
-2.255816e-03
2.513944e-03
6.496972e-03
-4.193523e-03
7.530754e-04
-2.534735e-03
-2.935720e-04
4.666657e-03
-6.563526e-03
-7.146261e-04
5.514634e-03
-5.956124e-03
-1.766400e-04
1.523427e-02
3.754251e-03
3.586111e-04
4.848864e-03
-3.837106e-04
-5.275291e-03
-3.041560e-03
-2.483108e-03
-6.094768e-04
2.255694e-03
4.900594e-03
6.061837e-03
-2.936311e-03
-1.880414e-03
-3.991472e-03
-4.309056e-03
3.177370e-04
-4.110942e-03
-3.172011e-04
4.050887e-03
-2.359343e-03
1.302597e-03
3.028302e-03
-2.443427e-03
9.132062e-03
-8.859637e-03
-1.180345e-02
-6.622775e-03
-4.096223e-03
-1.647202e-03
2.303675e-03
-1.534205e-04
3.952772e-03
-1.043032e-04
6.306703e-03
3.634258e-04
-1.007430e-02
4.927161e-03
3.675274e-03
-1.887944e-03
-4.165228e-03
1.124970e-02
9.251283e-03
3.155450e-03
9.763599e-03
3.312476e-03
-1.510726e-03
2.869842e-03
1.744330e-03
-2.078602e-03
5.568404e-03
1.000889e-02
1.620406e-02
1.462744e-02
9.145518e-03
-6.360866e-03
3.778919e-03
1.861042e-03
-4.463766e-03
-4.995139e-04
2.035645e-03
7.279504e-03
8.711666e-03
-4.385109e-04
9.005087e-03
7.590393e-03
7.815974e-05
1.826344e-04
-5.220688e-03
-5.148248e-03
-1.003750e-03
1.551263e-04
-4.313435e-03
-2.964196e-03
3.975978e-03
-5.401085e-03
-5.436384e-03
-9.740069e-04
-8.672713e-04
-9.825418e-03
-7.123395e-03
5.865935e-04
-3.602174e-03
-3.173803e-03
-3.433978e-03
-8.167344e-03
-9.662148e-03
-1.176990e-02
-7.163087e-04
6.202385e-03
1.004055e-02
-3.743250e-03
-2.370344e-03
-1.682138e-03
3.282826e-03
-9.314111e-04
-1.270354e-03
-4.663074e-04
6.367080e-03
4.438860e-03
1.216357e-02
2.184889e-03
1.261247e-02
6.323911e-04
1.805049e-03
2.078259e-02
-4.990731e-03
2.692712e-03
-4.621994e-03
-8.372866e-03
1.472093e-02
5.684580e-05
3.178573e-02
7.070852e-03
2.259165e-02
9.790332e-03
5.121177e-04
-2.266617e-03
-4.159292e-03
-4.941216e-03
-1.311560e-02
-2.042654e-02
2.655766e-03
-1.069601e-02
-1.607163e-02
-2.422217e-02
-3.502896e-02
-3.928514e-02
-4.825516e-02
-6.438118e-02
5.040658e-03
2.567349e-04
-6.247282e-03
-3.379276e-02
-3.207364e-02
-2.183996e-02
-1.112865e-02
1.598837e-03
-6.874279e-03
-9.614664e-03
-1.244582e-02
-3.952205e-02
-1.297451e-02
-2.407078e-03
1.528262e-03
-8.784854e-03
-1.777044e-03
7.778893e-04
-5.685228e-03
-9.307107e-03
-1.861340e-02
-6.436147e-03
-1.658966e-03
-3.420391e-02
-3.067122e-02
-1.309101e-02
-3.445449e-02
-5.940970e-03
-8.120086e-03
-3.053315e-02
-1.692120e-02
-7.176779e-03
-1.782193e-02
-6.202491e-03
-8.171767e-03
-8.742187e-03
-2.130260e-02
8.234340e-03
-1.219689e-02
1.759299e-02
1.288172e-02
1.954427e-02
2.310177e-02
8.008175e-03
1.837529e-02
6.664751e-03
2.661594e-03
9.183494e-03
-3.626327e-02
-3.294089e-04
-5.229181e-03
-1.549220e-02
1.614516e-03
-1.149341e-02
-2.050749e-02
-3.286031e-02
-2.593546e-02
-7.428982e-05
2.059244e-02
2.585316e-02
2.578029e-03
1.269738e-02
1.029196e-02
-5.593600e-04
4.706280e-03
-8.565927e-03
-1.013311e-02
-2.137224e-02
-1.408394e-02
7.732243e-03
-4.700557e-04
-1.376285e-02
1.818572e-02
-2.922208e-03
-1.302982e-02
8.672802e-03
-2.286570e-03
1.365834e-03
-2.162930e-02
-3.408693e-02
-2.032134e-03
-2.595936e-03
-2.445779e-03
2.782161e-02
1.832403e-03
1.069897e-02
-1.913317e-02
-6.243592e-03
1.079150e-02
1.010408e-02
7.847859e-03
2.911630e-02
1.810389e-02
-2.984235e-02
3.247975e-03
-4.624428e-02
-6.104378e-03
2.868571e-02
-1.943016e-02
-4.459752e-02
-4.495833e-03
-4.618959e-02
-5.587180e-03
1.691523e-02
9.526864e-03
-1.581218e-03
2.873239e-02
2.216218e-02
-1.891521e-02
5.867905e-04
-4.056393e-03
2.285979e-02
3.034631e-02
-6.047192e-03
1.354609e-02
3.156203e-02
-3.786307e-03
-1.253453e-03
7.474927e-03
-1.867100e-02
-1.612772e-03
3.131272e-02
-2.853705e-03
-4.732210e-03
2.644811e-02
1.854640e-04
8.949324e-03
3.831915e-03
7.856756e-03
4.170640e-03
9.168792e-04
4.669761e-03
6.936468e-03
5.292984e-03
-4.197837e-03
-6.906531e-03
7.818465e-03
1.308777e-02
-2.498570e-02
1.703336e-03
-1.592006e-02
-1.340724e-02
1.905381e-02
-6.761739e-03
-1.556651e-02
1.338056e-02
-6.415206e-03
9.336107e-03
5.163436e-03
-6.513478e-03
-8.396023e-03
1.010234e-02
1.236621e-02
-2.041932e-02
-4.073453e-03
3.989871e-03
-8.854803e-03
-9.715220e-03
-8.082535e-03
-1.273720e-02
-4.206887e-03
-1.991315e-02
-2.598657e-02
7.061939e-03
-1.069498e-02
-1.406985e-03
7.551166e-04
-1.442435e-02
4.972828e-03
8.091672e-03
-8.392164e-03
-1.323210e-03
7.086358e-03
4.384483e-03
8.670073e-03
2.599497e-02
8.548759e-03
9.366746e-03
9.404137e-03
7.533388e-03
6.372755e-03
9.790953e-03
1.640520e-02
-5.963344e-03
8.555765e-03
-1.460678e-02
-3.382325e-02
-8.863895e-03
-3.953122e-02
-3.143834e-02
-7.615070e-03
-1.890854e-02
-9.264917e-03
-7.132627e-03
-1.566407e-02
-5.448390e-03
1.411589e-02
-1.911183e-02
-1.100356e-02
1.155341e-02
-2.795418e-02
-1.757862e-02
-1.399126e-02
-3.120494e-02
2.918959e-02
3.846943e-02
-6.838042e-03
-1.468193e-02
8.713575e-03
-5.392212e-03
4.755404e-03
1.095308e-02
6.922629e-05
-3.592506e-02
-1.447031e-02
-2.274577e-02
9.169200e-03
1.722789e-02
-1.067419e-02
-2.237805e-04
2.825625e-04
-1.134626e-02
-3.504268e-04
-9.894758e-03
-3.207446e-02
1.668395e-02
-1.233291e-04
-4.486135e-03
6.705065e-03
1.059397e-02
8.799597e-03
-1.702465e-02
9.978700e-05
-1.520909e-02
-1.918820e-02
-5.968160e-03
-1.611898e-02
2.123640e-02
3.554423e-02
1.728854e-02
1.178879e-02
2.464110e-02
7.586933e-03
8.447484e-03
2.063162e-02
7.042916e-03
1.544948e-03
5.334544e-04
1.346179e-02
1.410572e-02
-2.833570e-03
-8.619499e-03
3.527841e-02
1.541921e-02
1.201605e-02
-2.082920e-03
-8.277238e-03
-1.210449e-02
-9.422140e-03
-1.377069e-02
-8.665246e-03
-1.818421e-02
6.266016e-03
8.581508e-03
-1.885942e-03
2.186950e-02
1.478642e-02
-1.502163e-04
1.259075e-02
-1.065498e-02
1.209578e-03
2.773140e-02
-5.707274e-03
8.963849e-03
3.206524e-03
1.160194e-02
3.503928e-03
2.996911e-02
2.720850e-02
1.001359e-02
1.761226e-02
1.577445e-02
-7.474256e-03
6.182615e-03
1.500700e-02
-3.211721e-02
-2.175117e-02
-2.710530e-02
-1.622863e-02
-9.377578e-03
-1.046520e-02
-1.303343e-03
-5.682168e-03
8.917529e-03
-1.033605e-02
1.888375e-02
3.120225e-02
-9.149519e-03
2.539841e-02
2.957480e-02
8.342483e-03
6.285854e-03
-6.548661e-03
1.048177e-02
8.917831e-03
7.128049e-03
1.898787e-02
1.552219e-02
2.452767e-02
-1.064371e-02
-1.640094e-02
-1.366656e-03
-2.482789e-02
8.536637e-03
2.777122e-02
4.308922e-03
2.067510e-02
2.005274e-02
-1.912032e-02
-1.546269e-02
-1.078731e-02
-1.229303e-02
1.331203e-02
9.776264e-03
-2.011608e-03
1.858605e-02
1.824524e-02
1.215119e-02
9.620873e-03
-3.810165e-03
1.070261e-02
1.172747e-03
-4.012385e-02
-1.265494e-02
-8.622795e-03
-1.687560e-02
-4.718649e-03
2.309340e-03
-7.463866e-03
2.554347e-03
1.096869e-03
-1.589564e-02
9.360956e-03
-5.004716e-03
2.339883e-03
3.558130e-03
-1.674530e-02
-1.519862e-02
4.190289e-04
-1.908569e-02
-1.716243e-02
6.652703e-03
-1.848356e-02
6.265200e-03
-8.754270e-03
-7.945233e-04
2.282846e-02
-1.822487e-02
2.491724e-03
2.174728e-02
-1.064198e-02
1.207017e-02
1.692950e-02
-8.888571e-03
-1.095855e-03
1.352836e-02
-1.464458e-02
-1.141355e-02
9.547546e-03
-2.373103e-03
-6.150928e-03
1.343057e-02
1.342628e-02
6.477604e-03
1.734327e-02
6.785284e-03
-2.034459e-02
-2.138118e-02
-2.908333e-03
-1.501157e-02
-2.033228e-02
-2.617293e-02
-1.104178e-02
1.755302e-02
-4.953024e-02
1.345710e-03
3.292612e-02
-2.378512e-02
4.728608e-03
2.237312e-02
3.351608e-04
-1.352303e-02
-7.889910e-03
-1.363173e-02
9.131169e-03
1.786095e-02
-6.634430e-03
-1.164064e-02
1.044704e-02
-1.841543e-02
5.642848e-03
2.587989e-02
-3.950158e-02
1.469756e-02
4.155461e-02
-3.556749e-02
1.361785e-02
3.963196e-02
8.441288e-04
-6.235403e-03
1.752402e-02
1.484341e-03
-5.754488e-03
2.564715e-03
1.213954e-02
-2.855225e-03
5.914775e-03
3.434690e-03
4.389117e-03
9.329518e-03
8.554216e-03
1.049626e-02
1.049881e-02
2.630627e-02
1.460081e-02
8.028346e-04
-1.385762e-02
-9.835165e-03
8.268178e-03
-1.492041e-02
-7.231136e-03
2.896914e-02
7.149032e-03
5.535343e-03
4.177411e-02
-2.960943e-03
3.800172e-03
-5.095297e-03
-1.064436e-02
2.539683e-03
4.040900e-03
-1.278682e-02
-1.339766e-02
6.171347e-04
5.563298e-03
3.015211e-03
2.012172e-02
-1.561819e-02
-2.728299e-03
2.202292e-02
-2.559264e-02
7.664376e-03
2.263498e-02
-1.953739e-02
-3.057352e-03
-2.729413e-02
1.586353e-02
2.126940e-02
1.465154e-02
5.657214e-03
5.911315e-03
1.015826e-02
1.473194e-03
7.671542e-03
-3.442999e-04
3.900098e-03
-1.403168e-02
-2.356886e-02
1.355653e-02
-1.348478e-02
-2.212855e-02
-9.598400e-03
-2.688385e-03
2.700600e-02
-9.044505e-03
1.385168e-02
3.317199e-02
-1.146511e-02
1.713974e-03
6.626336e-03
-1.340564e-03
-4.970328e-03
-1.945905e-02
-1.731892e-02
1.880757e-02
7.025469e-03
-3.191304e-02
2.072161e-02
2.075285e-02
-1.495122e-02
1.124454e-02
8.231335e-04
-2.164305e-02
3.569884e-02
1.516067e-02
1.572115e-03
3.290482e-02
1.981032e-02
-1.348880e-03
-1.152526e-03
5.911950e-03
-8.683875e-03
1.629213e-02
3.482885e-02
-2.865826e-02
3.533797e-02
6.234208e-02
-1.051735e-03
1.178431e-03
4.312220e-03
-1.278775e-02
3.446904e-03
-6.219710e-05
-1.695763e-02
1.137335e-02
9.977221e-03
-2.462913e-02
3.866301e-03
2.249468e-02
-5.791773e-03
1.261016e-02
3.046900e-02
-2.404170e-03
-2.988775e-03
9.049788e-03
-1.095534e-02
-7.808317e-03
-5.957936e-03
1.640064e-02
-1.104617e-02
-1.474059e-02
1.220135e-02
-2.283509e-02
-1.211856e-02
-1.847462e-02
-1.235562e-02
-1.582136e-02
-3.567863e-04
1.769555e-03
-1.663250e-02
1.961230e-02
1.947542e-02
-1.107460e-02
-7.175643e-03
-1.210114e-02
-1.211403e-02
3.311108e-03
-1.594305e-03
-8.149909e-03
1.468861e-02
8.575530e-03
-1.284324e-02
3.148427e-03
-2.255354e-03
-9.481279e-03
-1.285236e-02
-7.573072e-03
-5.048397e-03
-9.167105e-03
-1.137213e-03
-5.122321e-03
-5.801335e-03
-3.805983e-03
-1.721925e-03
-1.026241e-02
4.468934e-04
-6.377819e-03
-6.892815e-03
-5.522242e-03
-9.527831e-03
2.075152e-03
3.399378e-03
8.378857e-05
1.743549e-03
1.023409e-02
7.369942e-03
-1.250975e-02
-4.413190e-03
-4.785955e-03
1.677530e-03
-9.358153e-03
-7.628628e-03
4.506657e-03
-9.246088e-03
-3.110172e-03
-5.574515e-03
1.387787e-02
1.162929e-02
-8.251976e-03
3.540652e-03
1.814898e-02
-2.107606e-03
1.113257e-02
1.611616e-02
8.604004e-03
1.221643e-02
-1.794184e-03
1.034541e-02
-1.134698e-02
1.785430e-02
-4.257461e-04
-2.169031e-02
-4.400178e-03
-6.205020e-03
-6.958447e-03
-8.876155e-03
9.554088e-03
-1.922969e-02
-1.483720e-03
6.978774e-03
3.897623e-03
8.353559e-03
-1.724930e-03
-2.987016e-03
-1.036592e-02
1.340549e-03
6.877218e-04
-1.887188e-02
1.408528e-02
1.853155e-04
-3.973273e-04
-1.531429e-03
-2.227587e-02
3.501138e-03
-3.448624e-03
4.275206e-03
-7.806182e-04
-6.975486e-03
-1.361209e-02
-1.205920e-02
1.877328e-02
-1.414557e-02
-2.284704e-02
-1.242231e-02
-4.539709e-03
3.020213e-03
4.955605e-04
-8.161237e-03
-4.247419e-03
1.996529e-02
-7.610288e-04
1.591051e-02
1.461777e-02
-5.637209e-03
-1.219739e-02
-1.731205e-03
-6.401551e-03
-1.025688e-02
3.302979e-03
2.053278e-03
-9.803018e-03
6.673496e-04
-8.146957e-03
6.159240e-03
-5.265104e-03
-1.309915e-02
8.124530e-03
-1.827125e-02
-1.744190e-02
-3.873968e-03
-6.844718e-03
-7.695836e-03
-1.424449e-02
-5.020591e-03
-7.732071e-03
-1.352595e-02
-1.559553e-02
2.255624e-04
-1.794981e-02
-6.124062e-03
-1.355051e-03
1.092567e-02
-3.055098e-03
3.757749e-03
4.807949e-03
-9.971214e-05
1.402028e-02
2.725115e-03
6.472799e-03
-6.397080e-03
-9.628413e-03
-1.086629e-02
-8.552182e-03
2.397815e-03
-1.551418e-02
-7.709931e-03
-6.869739e-03
-3.048524e-03
-7.446215e-03
-5.561835e-05
-2.641517e-03
8.033433e-03
1.270963e-02
5.622628e-04
1.945693e-02
1.577483e-02
-2.012469e-02
4.814128e-03
6.556873e-04
5.284603e-03
2.270957e-02
3.407193e-02
-2.584255e-03
4.364205e-02
4.856947e-02
1.778662e-02
3.007098e-02
2.804751e-02
-5.385270e-03
1.490022e-02
1.613008e-04
-1.610280e-02
-6.382531e-03
-1.384270e-02
1.113714e-02
-1.166906e-02
-1.146258e-02
-1.464984e-02
-1.027986e-02
-1.928942e-02
-1.546497e-02
-4.184400e-03
-1.212293e-02
-4.472459e-03
3.214164e-04
3.562309e-03
-2.919907e-03
-6.756332e-03
1.751818e-03
-2.263462e-02
-5.080428e-03
2.692342e-02
1.735603e-02
2.432001e-02
3.472207e-02
1.138339e-02
1.992331e-02
9.978984e-03
-2.260226e-03
8.731418e-03
4.288547e-03
-1.219649e-02
-5.257479e-03
-1.775480e-03
-4.065026e-03
-6.987830e-03
-1.771909e-03
-3.463020e-03
-1.161382e-02
1.745728e-03
-3.764825e-03
1.576321e-02
1.492657e-02
-8.699419e-03
3.699367e-02
2.203096e-02
-6.110051e-03
9.207946e-03
2.498739e-02
-3.634332e-03
2.570031e-02
5.923917e-03
1.587904e-03
2.661930e-02
1.991837e-03
1.397740e-02
4.216703e-02
1.958172e-02
-1.028910e-02
-1.126767e-02
-6.242173e-03
-7.414738e-03
-3.305627e-03
-3.604799e-03
-1.095089e-02
-1.324229e-02
-6.184647e-03
-4.112752e-03
4.980177e-03
1.275832e-02
-9.087393e-03
-1.354102e-02
5.197825e-03
-3.646025e-03
-2.103827e-03
-2.554630e-02
4.113429e-03
-1.279401e-02
-1.734789e-03
1.968538e-04
-1.294585e-02
-1.338973e-03
-7.758086e-03
-3.839230e-03
6.816523e-03
1.310128e-02
-8.495060e-04
-1.094213e-02
9.659267e-03
7.924777e-03
-1.531719e-02
-4.966597e-03
-2.078795e-03
-1.412017e-02
3.761683e-03
1.566175e-02
1.766958e-02
1.287242e-03
4.327638e-02
3.642211e-02
-1.039179e-02
1.175185e-02
6.275274e-03
-5.770375e-03
-7.588109e-03
-1.971598e-03
2.042949e-03
-7.422354e-03
9.478366e-03
2.379423e-03
-4.750668e-03
-3.664783e-03
-8.351869e-03
1.233101e-03
-3.988803e-03
-1.634868e-02
4.427947e-03
-3.247339e-03
-2.688085e-02
-1.260783e-02
1.992667e-03
-1.051434e-02
-1.797203e-02
-5.241630e-04
1.124024e-02
1.757120e-03
7.308788e-04
2.000408e-02
1.187524e-02
1.356926e-03
1.368406e-03
-6.103005e-03
-9.518977e-03
2.925142e-03
-1.507069e-03
-2.352178e-03
1.243947e-02
-1.657558e-02
-1.547028e-02
-3.565897e-03
2.288996e-03
3.890343e-03
-1.948833e-03
-7.717704e-03
6.897097e-03
-1.599039e-03
5.872847e-03
1.540648e-03
7.492784e-03
1.348800e-02
1.105592e-02
-1.629073e-02
-1.682318e-02
-1.561124e-02
3.894437e-03
-2.252822e-03
-5.146444e-03
-7.757390e-03
3.544040e-04
-3.220313e-04
1.030311e-02
2.503386e-03
1.237393e-02
2.133051e-02
1.582730e-02
8.040276e-03
1.203727e-02
7.734016e-03
-4.071788e-03
8.590845e-03
4.752128e-03
3.138461e-03
3.648561e-03
2.672335e-03
-1.202762e-03
9.861980e-03
8.307419e-04
1.834122e-02
-7.795750e-03
-1.270507e-02
5.975515e-03
1.286727e-02
9.387298e-03
3.783132e-03
4.284686e-03
8.363797e-03
2.926257e-03
-3.401780e-03
2.961681e-03
6.992024e-03
3.680452e-03
1.456167e-02
5.444061e-03
9.281683e-03
7.898620e-03
-8.904108e-03
-5.501946e-03
1.604506e-02
-3.761017e-03
-1.652490e-02
-6.823882e-03
1.214155e-02
-1.242405e-02
-6.847526e-03
-3.208427e-04
-8.149556e-03
2.753439e-04
-1.371666e-02
2.339076e-02
2.514463e-02
-4.926299e-03
-1.760973e-04
-1.187102e-02
-9.466154e-03
1.727830e-02
2.064949e-02
-1.599887e-02
5.767756e-03
3.253670e-03
-1.149235e-02
2.749335e-03
3.386179e-03
-9.562857e-03
1.239229e-02
5.376425e-03
-8.411038e-03
2.063953e-02
4.918897e-03
8.730075e-04
-9.393428e-03
5.056037e-04
-3.287695e-04
-2.016925e-02
-4.026836e-03
-4.804238e-03
-1.881637e-02
-1.940311e-03
-2.282897e-03
-6.486928e-03
1.397217e-02
-2.216074e-03
-6.644403e-03
1.967399e-03
1.208542e-02
-1.200894e-02
-5.656555e-03
5.805326e-05
-1.269092e-02
-2.030755e-03
-3.059953e-03
-8.723071e-03
-6.390426e-04
6.238305e-03
-3.839311e-03
3.220112e-03
4.932673e-04
1.341603e-02
1.631925e-02
1.218605e-02
-5.319772e-03
2.327721e-02
3.654158e-03
-8.904693e-03
8.824049e-03
-2.866702e-03
-1.304486e-02
-9.092525e-03
-1.897110e-02
-1.240549e-02
-2.117076e-02
-2.936951e-02
6.665109e-03
-3.311916e-03
-1.721270e-02
-7.243176e-03
1.684192e-02
2.469547e-04
-3.549972e-03
-1.373849e-02
-1.297508e-02
-1.646951e-02
-1.423538e-02
-7.197272e-03
-2.335593e-02
-1.530094e-02
-1.922870e-02
-4.765335e-03
-9.523596e-04
8.604177e-04
-6.223283e-03
-1.103010e-02
2.232858e-03
-5.872421e-04
-7.170257e-03
-7.788795e-04
6.147473e-03
9.614799e-03
9.539155e-04
-4.458022e-03
6.651935e-03
-6.249115e-03
-1.178065e-02
-1.178352e-02
-3.345545e-02
-2.703191e-02
-1.150422e-02
-3.162968e-03
-1.367908e-02
1.401945e-02
1.496595e-02
-9.762559e-05
-8.671022e-03
1.118087e-02
9.083030e-03
1.638635e-02
1.365862e-02
-1.545036e-02
-4.711260e-03
-1.301957e-02
2.063316e-02
1.290906e-02
1.627399e-02
-1.057320e-02
-2.229935e-03
6.757334e-03
-3.757713e-02
-1.526097e-02
-8.064333e-03
-3.413608e-03
1.766015e-02
2.981564e-03
6.686009e-03
9.950862e-03
-3.093438e-03
3.684456e-03
1.556681e-02
-7.662117e-03
-2.246590e-02
-1.665828e-03
2.418847e-03
-4.322108e-04
-3.263232e-03
5.796479e-03
4.992428e-03
-1.607422e-02
-3.476103e-03
-9.082471e-03
-5.251586e-03
2.975575e-04
3.506571e-03
2.059391e-03
-1.777405e-03
-1.572052e-02
8.346267e-03
-2.337515e-02
-4.405937e-03
6.173417e-03
-1.122994e-02
-4.435093e-03
-4.870093e-03
-1.293991e-02
-7.223829e-03
-7.514386e-03
-6.106864e-03
-4.279342e-03
5.119462e-03
3.140210e-03
-2.976028e-02
-3.363691e-02
-3.669684e-02
-6.035892e-03
-1.617867e-02
-2.535728e-02
1.129567e-02
6.229558e-03
-3.660540e-03
1.230118e-02
4.961708e-03
-3.257595e-03
1.053354e-02
2.405894e-03
7.295266e-03
8.657788e-03
1.525882e-02
1.485785e-02
-6.972485e-03
1.555969e-02
8.220472e-04
-8.064440e-03
2.498642e-02
3.022586e-02
-8.922175e-03
5.008971e-03
1.133398e-02
-2.081491e-02
-2.687687e-03
3.827336e-03
6.237504e-03
-1.308335e-02
8.090015e-03
1.244763e-02
1.278375e-02
-7.150724e-03
-1.324608e-03
2.082895e-03
3.790507e-03
-1.012884e-02
-1.507374e-02
7.875856e-03
1.120154e-02
1.891214e-02
1.412848e-02
1.191286e-02
1.781429e-02
1.005997e-02
3.885175e-03
7.258884e-03
1.116696e-02
-6.978938e-03
-1.132250e-02
1.512628e-03
-5.108040e-03
-1.973345e-02
-1.114317e-02
-8.027023e-03
-8.005597e-03
-1.167618e-03
-7.999409e-03
-6.618582e-04
1.070217e-02
-1.820323e-02
-9.821319e-03
5.070287e-03
-8.967031e-03
-9.399824e-03
-3.777009e-04
2.491869e-04
1.817628e-03
-2.309294e-03
4.409165e-04
2.672582e-03
-2.584552e-04
-2.492546e-03
-2.888274e-03
-6.793407e-03
3.486148e-05
3.000879e-04
1.106934e-03
1.915900e-03
5.345626e-04
-1.167908e-03
1.823393e-04
8.118033e-03
9.002067e-03
-9.647395e-03
-7.168073e-03
-4.686255e-03
-6.354031e-03
-5.777381e-03
-5.837929e-03
3.854677e-04
-8.481368e-03
-5.578339e-03
2.373975e-03
1.474378e-02
1.898610e-03
1.119380e-02
7.608202e-03
3.072639e-03
7.187053e-04
3.344123e-03
6.553007e-03
-3.918728e-03
-8.893380e-03
-1.403871e-02
4.450042e-04
-5.915776e-03
-6.206653e-03
7.601043e-04
-1.975950e-03
-2.104158e-05
2.048751e-03
1.897696e-02
8.154558e-03
4.668348e-03
2.278062e-02
1.266138e-02
8.594784e-03
1.638769e-02
1.362988e-02
4.324941e-03
-4.814863e-04
-3.616293e-03
-7.178397e-03
-4.379579e-03
-1.570983e-03
-4.648050e-03
-9.263520e-03
-1.353026e-02
-4.657962e-04
2.004131e-02
-4.228575e-03
-5.667730e-03
-1.745024e-03
-1.684804e-03
3.178190e-03
-5.775694e-03
-1.106972e-02
-3.796641e-03
-6.940953e-05
5.769003e-03
4.393709e-03
-4.863778e-03
-5.189836e-03
9.829092e-03
-6.049784e-03
4.580678e-03
4.285636e-03
2.267708e-02
1.473857e-02
1.410129e-02
2.912264e-02
1.794344e-02
9.730219e-03
1.249750e-02
7.960703e-03
-5.910358e-04
-4.931326e-03
-4.453687e-03
2.700894e-03
1.525644e-03
-5.446896e-03
-2.915684e-03
6.065779e-03
-5.575367e-03
-7.180005e-03
-6.402201e-03
-7.361268e-03
-7.109699e-03
-7.476244e-03
-1.249449e-02
3.455592e-04
7.023900e-03
-2.787545e-04
-1.051467e-02
-6.110219e-03
-4.450278e-03
-4.692852e-03
2.404598e-03
-5.530888e-03
1.034751e-03
7.359396e-03
1.405202e-02
7.858613e-03
7.817820e-03
7.578187e-03
1.970754e-03
1.943185e-03
1.299344e-02
1.684390e-04
5.542922e-03
9.219178e-03
1.587138e-03
-3.728062e-03
-9.894129e-03
1.024436e-03
-2.012571e-03
-5.157367e-03
2.861641e-03
-3.327604e-03
2.402030e-03
-1.510982e-03
5.046971e-03
3.903412e-03
-1.436525e-03
-1.360258e-03
-2.563046e-03
-3.774713e-03
-7.821468e-03
-1.326508e-02
-1.323812e-02
-9.691720e-03
-8.531312e-03
-6.316321e-03
7.064736e-03
2.725767e-03
7.011050e-04
3.835261e-03
-4.377085e-03
-8.925143e-04
3.681760e-03
2.326396e-03
-3.895015e-03
-2.968872e-03
-1.084984e-03
1.348714e-04
-4.936826e-03
-1.777525e-03
6.458884e-03
4.597067e-03
2.744569e-03
4.827706e-04
4.474212e-03
-2.628116e-03
-1.604515e-03
4.380662e-03
-4.571456e-03
6.013206e-03
5.609982e-03
8.356631e-03
1.447253e-03
4.335796e-03
2.674157e-03
3.300693e-03
-2.029758e-04
-8.621718e-03
-6.785715e-03
-1.265661e-02
-1.035524e-02
5.001666e-03
-2.245002e-03
-5.725062e-03
-5.635005e-03
-3.541285e-04
-8.094258e-03
8.690106e-03
4.204672e-03
1.455489e-03
-6.903281e-03
-4.520010e-03
-1.208762e-02
-1.547258e-02
-5.368466e-03
-7.505694e-03
-1.458452e-02
-1.280914e-02
-1.828348e-02
-5.440194e-03
-5.953460e-03
-4.719282e-03
-4.476628e-03
1.735681e-03
-3.360811e-03
-5.601788e-03
3.768705e-05
5.580896e-03
4.406827e-03
4.536801e-03
3.793604e-03
3.240183e-03
1.305850e-02
9.815122e-03
1.848101e-03
1.480918e-03
-5.909774e-04
-7.068910e-03
3.033383e-03
-5.561443e-03
-1.306582e-03
4.886549e-03
3.975944e-03
-6.621276e-04
-1.769378e-03
-5.260946e-04
7.173263e-03
3.744039e-04
-1.214689e-03
1.953759e-02
1.110835e-02
1.075561e-02
4.695521e-03
4.881578e-03
3.042022e-03
-4.380005e-03
-4.692188e-03
-7.780722e-03
-6.710704e-03
-8.213482e-03
-4.158532e-03
-1.728110e-03
6.646646e-03
8.554590e-03
8.376934e-03
5.152461e-03
8.662090e-03
6.465649e-03
1.887777e-03
1.178270e-03
3.689233e-03
-4.004260e-03
-2.550055e-03
3.454984e-04
-2.413151e-03
-1.174991e-02
9.897269e-03
1.053741e-03
-1.401688e-02
-1.287036e-02
-1.855497e-03
5.087378e-03
-1.068869e-02
2.186996e-03
7.013784e-03
-5.224283e-03
1.148615e-02
3.367111e-03
-2.171387e-03
-1.067767e-03
1.178292e-02
-9.713556e-03
-7.456630e-03
4.760383e-03
4.092407e-03
-8.043707e-03
4.051307e-03
4.647438e-04
8.497748e-03
1.058761e-02
-2.568719e-04
3.350430e-03
-1.561233e-03
-1.114745e-02
-5.990176e-03
-1.876084e-03
6.930172e-03
6.643371e-03
9.827489e-03
3.108391e-04
2.865748e-03
6.453378e-03
-7.819029e-03
-7.962189e-03
-6.798156e-03
-1.342187e-02
-1.051486e-02
-2.523724e-03
-8.193021e-03
-1.169067e-03
3.802307e-03
-2.480345e-04
1.673230e-04
-2.882065e-03
-2.553475e-03
-2.130869e-03
4.192239e-03
-5.193574e-03
-7.902753e-03
-8.744819e-04
-2.485475e-03
-4.210884e-03
-1.479344e-03
-1.404750e-02
-1.713494e-02
6.175865e-04
5.397764e-03
-7.686683e-03
-6.997984e-03
-3.778308e-03
-2.036427e-03
1.566823e-03
3.150307e-03
-1.778851e-03
1.541698e-03
3.703543e-03
7.136560e-03
2.028391e-02
1.035364e-02
1.385950e-02
9.380997e-03
3.127782e-03
-6.126361e-03
6.305860e-03
-1.063632e-02
-6.327954e-03
2.185812e-03
-1.184640e-02
-2.461883e-04
8.597140e-03
-6.963450e-03
-1.218471e-02
-7.097039e-03
3.003894e-03
-1.199936e-02
-6.630604e-03
2.024354e-03
-2.452025e-03
-2.777867e-03
-8.025283e-04
-4.290907e-03
-6.356369e-03
-5.095887e-04
-4.444612e-03
-3.397932e-03
-1.520538e-03
-5.575249e-03
2.593418e-03
9.112147e-03
1.265904e-02
5.128218e-03
7.949567e-03
1.437296e-02
-3.230909e-03
6.178551e-03
6.462161e-03
-5.668954e-03
3.605308e-03
-2.213240e-03
1.274052e-04
-3.082195e-03
-2.116167e-03
-6.765562e-03
-9.642763e-03
-6.101985e-03
-6.157454e-03
-3.309832e-03
7.950274e-05
-3.891258e-03
-7.561545e-04
2.154582e-03
-4.692274e-04
4.762723e-03
-1.162967e-03
-8.200121e-03
5.191991e-03
6.492509e-03
1.050789e-02
9.530328e-03
1.282724e-02
1.502432e-02
1.395197e-02
8.510681e-03
9.749342e-03
-4.237721e-03
-3.558407e-03
-6.605367e-04
-1.010119e-02
-6.445713e-03
-6.564513e-03
4.646719e-03
3.937579e-03
1.967479e-03
7.689254e-03
-1.633935e-03
1.251578e-03
1.074694e-02
6.468378e-03
1.337648e-02
-1.434754e-02
-1.947483e-02
-5.958871e-03
-7.675846e-03
-1.044213e-02
-6.033821e-03
-9.842379e-03
-1.143235e-02
-4.987323e-03
-7.723987e-03
-6.843532e-03
2.719528e-03
-1.687236e-03
3.174991e-03
5.616287e-03
-3.627006e-03
-1.497071e-03
6.473520e-03
-3.232089e-03
-1.049398e-03
-8.610358e-04
3.400777e-03
6.611819e-03
6.067648e-03
-6.952503e-04
-3.716481e-04
-1.149913e-03
1.216512e-03
-3.513434e-03
-5.392354e-03
1.545601e-02
7.342932e-03
-1.458122e-03
7.174698e-04
-2.232601e-03
2.912010e-03
-3.735299e-03
-4.167378e-03
2.040050e-03
3.348500e-03
-2.065614e-03
1.269931e-03
-1.307538e-03
-1.476284e-03
5.834888e-03
5.320173e-04
1.155346e-03
-7.124450e-04
4.254672e-03
4.890507e-03
2.979637e-03
8.137064e-03
4.238992e-03
-4.864541e-03
-3.715698e-03
-9.742389e-03
-7.471072e-03
-1.874032e-03
1.540309e-03
-4.787736e-03
-6.195458e-03
-5.276256e-03
-7.334619e-03
-5.049034e-03
-1.209556e-03
-5.840390e-03
-6.863001e-03
-6.357968e-03
1.128694e-02
-9.290260e-04
-4.813031e-03
-1.985709e-03
1.413409e-04
-1.363301e-03
2.405199e-03
-5.566859e-03
-2.425340e-04
6.489136e-03
-1.549991e-02
-6.181996e-03
-3.497540e-03
-7.455469e-03
-2.648746e-03
5.893890e-03
-1.945519e-03
-1.576388e-03
3.587389e-03
-6.668583e-03
-2.603507e-03
-2.172778e-03
-1.173535e-02
-7.862161e-03
-3.080912e-03
-6.089020e-03
-4.488662e-03
-3.819959e-03
2.699362e-03
-1.456430e-03
-4.139536e-04
-6.390389e-03
3.999470e-03
4.186482e-04
-1.116556e-02
-7.085294e-03
-1.454149e-03
4.651160e-03
1.339841e-02
1.631200e-02
7.850679e-03
6.504231e-03
3.178556e-03
6.086951e-03
4.840108e-03
7.977854e-03
7.426436e-03
9.885437e-03
7.685692e-04
-8.197606e-03
-4.823110e-03
-3.290403e-03
-2.355610e-03
-7.039668e-03
-1.132894e-03
-5.887104e-03
-8.807233e-03
-7.736499e-03
-4.377685e-03
-2.737321e-03
-4.930517e-03
2.993618e-04
8.567995e-03
2.955263e-03
-5.887167e-03
6.733209e-03
4.568569e-03
-1.228855e-02
-9.104454e-04
-1.732087e-03
3.520646e-03
3.434395e-04
4.979440e-03
7.809880e-03
-4.714435e-03
2.252389e-03
2.403341e-04
1.133372e-02
-6.476466e-03
-1.393044e-02
1.140987e-03
-1.305505e-02
-2.201970e-03
-3.864643e-03
-5.352816e-03
9.296530e-04
-1.295115e-02
8.987352e-03
9.326101e-03
-2.155734e-03
-4.348541e-03
-9.548520e-03
-3.697038e-03
-4.723629e-03
-7.266723e-03
-8.576530e-03
-2.691965e-03
5.984433e-03
6.278375e-03
7.266819e-03
-1.920900e-02
-1.838438e-02
-1.167115e-02
-6.397593e-03
-8.476847e-03
-4.481681e-03
-4.552508e-03
2.590948e-03
1.421449e-02
1.497933e-03
-1.479644e-03
9.530543e-03
4.376539e-03
3.080702e-03
9.197675e-03
9.088129e-03
2.061815e-02
6.425835e-03
4.351729e-03
-7.119093e-03
-1.502396e-02
-4.830887e-03
-8.309190e-03
-8.302976e-03
8.958413e-03
1.084787e-02
-4.830316e-03
8.895867e-03
-9.804117e-03
-8.336280e-03
3.298263e-03
3.913359e-03
1.240558e-02
8.815923e-03
5.098725e-04
-2.436918e-03
-3.779977e-03
-1.362063e-02
-5.466899e-03
-1.455856e-02
-2.068774e-02
-1.286497e-02
-4.385878e-03
1.937803e-02
8.992608e-03
3.538259e-03
1.346293e-02
8.774052e-04
1.108398e-02
1.228528e-02
-2.286463e-03
8.095699e-03
-4.402514e-03
-5.113778e-03
2.847512e-03
-2.267983e-03
-8.696625e-03
2.171613e-03
6.226865e-03
-5.179440e-03
3.662086e-03
5.072952e-03
-4.285063e-03
-3.968195e-03
7.019164e-03
-3.893062e-03
-4.001915e-03
1.372739e-03
-6.149096e-03
-6.369065e-03
-1.302818e-02
-9.747535e-03
4.763591e-03
-4.206772e-03
-6.514321e-03
1.135859e-02
4.297108e-03
1.158129e-03
8.863633e-03
-3.141757e-03
8.558580e-04
7.866880e-03
2.128156e-04
1.041554e-02
2.070401e-02
1.896946e-02
1.549214e-03
1.897574e-02
7.397861e-03
8.727198e-03
1.124573e-02
5.239678e-03
1.306691e-02
-2.231667e-03
5.937357e-04
1.272398e-02
-1.349495e-03
4.293631e-03
3.371166e-03
-2.771183e-03
-3.407235e-03
-5.473886e-03
-6.797759e-03
1.624602e-03
6.988127e-03
6.024047e-03
2.920611e-03
5.153106e-03
-8.403171e-03
-9.723107e-03
1.828670e-04
-6.733114e-03
-5.905305e-03
-1.253601e-02
-1.070753e-02
-1.133274e-02
4.581351e-03
-3.085828e-02
-1.358773e-02
2.476536e-02
-1.804360e-02
-1.206127e-02
1.337038e-02
1.273857e-02
8.800015e-03
9.863408e-04
-1.216324e-02
-5.080344e-03
4.173363e-03
9.398422e-03
4.441996e-03
-5.358359e-03
-5.584234e-03
6.609810e-03
1.759858e-02
-1.437183e-03
4.294283e-03
1.737720e-02
6.911819e-03
-5.888720e-03
-3.427205e-04
-1.890166e-04
-1.260197e-02
-1.254558e-02
9.479856e-03
-6.815362e-03
-1.640361e-02
-1.762163e-03
-2.027433e-03
-5.869080e-03
8.458246e-03
1.057067e-02
-1.138897e-03
1.864146e-03
3.440069e-03
2.571282e-03
-2.399468e-03
-6.033532e-03
-8.180180e-03
5.375949e-03
-8.942709e-03
-1.157030e-02
-1.998509e-02
-1.498907e-02
2.130206e-04
-7.001398e-03
-8.525083e-03
-5.536420e-03
8.163215e-03
9.850425e-04
5.167392e-03
5.827937e-03
-3.483801e-03
-2.232478e-04
8.816877e-03
-7.928542e-03
-5.743498e-03
-3.443969e-03
1.129544e-03
-2.463158e-03
6.454360e-03
-5.244521e-03
-1.295000e-02
5.596861e-03
8.336323e-03
-1.457828e-02
2.107944e-03
-7.147437e-03
-5.211804e-03
7.518194e-03
-3.286971e-03
-1.436761e-02
1.510130e-02
-5.853281e-04
-1.817061e-02
1.968034e-03
1.508514e-02
6.254579e-03
-1.464463e-03
4.639576e-03
-1.248426e-03
6.736517e-03
3.969880e-03
5.768047e-03
-2.003104e-03
-1.567812e-07
3.922071e-03
6.114420e-03
-7.135796e-03
-5.909828e-03
3.663274e-03
-4.724036e-04
-1.099762e-02
-2.046483e-03
8.379691e-03
1.115377e-02
-3.059960e-03
2.011007e-03
8.128796e-03
1.418089e-02
-7.193037e-04
-9.972703e-03
4.465537e-03
3.321628e-04
2.415860e-03
7.739247e-03
6.194145e-03
1.058646e-02
-5.568494e-03
8.159304e-04
2.091295e-02
-8.751148e-04
-9.793625e-03
-4.074708e-03
4.667068e-03
-7.221418e-03
-6.871429e-03
-7.426029e-03
-1.548871e-03
1.603025e-02
1.530505e-03
5.630162e-03
1.340512e-02
1.021865e-02
3.947354e-03
6.951538e-03
1.239178e-02
1.036187e-02
-4.085770e-04
4.100183e-03
-7.558273e-03
-1.347412e-02
8.925785e-03
8.940584e-03
-9.606634e-04
5.892612e-03
4.817715e-03
4.425319e-03
1.649021e-02
7.871114e-03
3.333355e-03
1.239508e-02
7.369826e-03
-9.800501e-03
-1.000607e-02
-1.972635e-04
-5.439472e-03
4.139609e-04
2.412013e-04
1.735023e-02
1.110013e-02
-4.730682e-03
1.749330e-02
2.000965e-02
-4.969140e-03
-8.817137e-03
-1.850626e-02
-1.560631e-02
-1.281689e-02
-1.087640e-02
-5.126167e-03
-1.604998e-03
7.891590e-03
9.610479e-03
7.656537e-03
-2.686597e-02
-2.665672e-02
-2.474996e-02
9.222314e-03
9.016015e-03
1.303651e-02
-1.540811e-02
-1.764853e-02
-1.153052e-02
3.302386e-03
-6.577680e-05
-5.606823e-04
1.648352e-02
3.630658e-02
1.268368e-02
4.427793e-03
1.094517e-03
3.864643e-03
7.851427e-03
8.694588e-03
-6.265579e-03
1.513450e-02
2.050546e-02
-3.450929e-03
-1.037542e-03
2.426800e-03
3.946229e-03
-2.045966e-02
-1.969129e-02
-1.611581e-02
4.650290e-02
5.172770e-02
3.082305e-02
2.250584e-02
6.104785e-03
1.428607e-02
-2.505904e-03
-2.838435e-03
-1.909586e-03
-5.110677e-03
1.260152e-02
1.813607e-02
-2.192268e-02
-5.677066e-03
8.464983e-03
9.683193e-03
1.614400e-03
8.018721e-03
2.746814e-02
1.014954e-02
-6.631188e-04
2.092456e-02
1.285111e-02
9.099025e-03
-3.199216e-04
2.180361e-03
-9.177721e-03
-7.834406e-03
-1.171140e-03
1.096913e-03
-6.846645e-03
-5.971962e-03
-1.380814e-03
-9.981193e-03
3.606544e-02
6.108150e-03
-5.556322e-03
7.942759e-03
9.798154e-03
-6.143252e-03
8.540311e-03
6.698236e-03
1.824242e-03
-2.175823e-03
1.364301e-02
-1.182262e-02
-8.903216e-03
-1.331596e-03
-3.445460e-03
-4.040023e-03
2.098990e-03
1.897441e-02
1.817037e-02
-1.560832e-03
1.583737e-02
3.433072e-03
-1.215832e-02
-6.924703e-03
-2.526147e-03
1.907254e-03
1.094384e-02
6.213075e-04
-1.478330e-03
1.437966e-02
1.090251e-03
4.339005e-03
1.343429e-02
-1.295945e-03
5.675987e-03
2.211247e-04
1.522785e-02
1.078196e-02
-1.190678e-02
7.724052e-03
-6.384451e-03
-4.300072e-04
1.295519e-03
-7.561483e-03
-1.158005e-03
1.478352e-02
1.846123e-02
-3.127639e-02
-5.186057e-03
-4.537602e-03
-1.165902e-03
2.806606e-03
1.006933e-02
-1.664385e-04
2.301920e-03
-1.118362e-02
1.549220e-02
-2.308631e-03
1.464761e-04
-1.518834e-02
-2.245531e-02
-2.027371e-02
-9.622156e-03
1.482902e-02
1.063147e-02
3.964385e-03
1.023504e-02
3.829879e-03
-4.593460e-03
1.295498e-02
1.186967e-02
-2.620171e-03
-3.367193e-03
1.045249e-03
3.066942e-03
3.287769e-03
8.454513e-03
-1.813881e-02
-1.620242e-03
-1.784048e-02
8.893820e-03
2.204111e-02
1.729922e-02
-6.204259e-03
-1.545698e-03
-4.958707e-03
3.810679e-04
-9.028912e-04
6.198201e-03
1.314981e-02
1.530147e-02
1.459392e-02
1.774767e-02
4.066150e-03
-1.057034e-02
1.213455e-02
-4.450222e-03
-1.648443e-02
-2.463333e-02
-1.819098e-02
-3.316169e-02
-2.943194e-03
1.627089e-02
1.578374e-03
-3.652259e-03
5.863697e-03
7.452029e-03
-1.063819e-02
3.660547e-03
9.319255e-03
-1.117957e-02
7.718173e-04
2.055911e-03
8.545145e-03
4.369384e-03
-8.707747e-03
7.115139e-03
1.349626e-02
1.456382e-02
1.682815e-02
2.431324e-02
7.517587e-03
5.157644e-03
2.200847e-02
-9.780553e-05
-1.082489e-02
-1.170610e-02
5.981804e-03
-1.067326e-02
8.905949e-03
1.361073e-03
1.375617e-03
3.003220e-02
2.128569e-02
7.068560e-03
-6.138232e-03
4.948306e-03
-6.472677e-03
1.016495e-02
-1.889946e-02
7.219465e-03
5.045488e-03
-4.276542e-03
1.945344e-02
2.284835e-02
2.193355e-02
-3.364928e-03
9.126866e-03
-1.223967e-02
-2.298525e-02
-7.547330e-03
-5.996613e-03
-1.508779e-02
-1.356861e-02
-8.109577e-03
1.367940e-02
1.949771e-02
1.286827e-02
-1.877985e-02
-1.999258e-02
-1.283020e-02
6.310671e-04
2.747720e-03
-1.676505e-03
-1.129105e-02
-1.705591e-03
-6.049756e-03
-6.925025e-03
2.051925e-03
-4.003151e-03
-1.024035e-02
-1.214391e-02
-3.020140e-02
1.665097e-03
1.101285e-02
1.410507e-02
3.338093e-03
-3.526409e-03
1.684845e-03
2.931959e-03
1.147660e-02
4.233564e-03
1.045379e-02
1.308398e-02
3.521880e-03
-1.079966e-03
7.613762e-03
1.700393e-02
-1.588947e-03
6.006019e-03
-5.278499e-03
6.891481e-04
8.035790e-03
3.915373e-03
1.676393e-02
8.630227e-03
-5.944431e-03
-1.601001e-03
-3.703464e-03
1.458150e-02
-1.551058e-02
-1.167467e-02
6.260327e-03
-1.411718e-03
-3.040626e-03
-2.490010e-03
2.157181e-03
-1.109427e-02
1.413771e-02
1.973412e-02
-5.343304e-03
8.509529e-03
1.176935e-02
1.379306e-02
1.799950e-02
2.027123e-02
2.072879e-03
3.200264e-03
2.902053e-02
1.914889e-02
-2.098429e-02
1.542555e-02
7.773018e-03
-7.795612e-03
5.782368e-03
3.449197e-03
3.021085e-04
-1.387531e-03
-3.121892e-03
-2.541901e-03
-8.457890e-03
-1.023444e-02
-8.993622e-03
-1.000977e-02
-2.876646e-02
-6.928629e-03
-1.938463e-02
-8.646120e-03
1.787966e-04
-2.796868e-02
-5.277467e-03
-1.880987e-03
-2.177072e-02
-2.502076e-02
-1.108230e-03
-1.626503e-02
-3.121415e-02
-6.132493e-03
6.070462e-03
1.272933e-02
7.172101e-03
1.879810e-03
-1.095553e-03
-1.572984e-02
5.576537e-03
1.568144e-02
-2.462536e-02
2.518729e-02
4.255961e-02
-8.604127e-03
-4.265032e-02
-4.842286e-02
-3.215744e-02
-3.632972e-02
-2.026374e-02
-2.724577e-03
-3.242125e-02
-1.897860e-02
-2.093556e-03
-1.565979e-02
-2.030651e-02
1.593032e-02
-1.951057e-02
-2.638494e-02
4.077977e-04
3.968048e-03
1.656502e-03
-6.738831e-03
-1.387422e-02
-2.188849e-02
7.109620e-03
-1.033995e-02
-3.760992e-02
-1.314213e-02
-3.780167e-03
-2.905803e-02
-2.212824e-02
5.971908e-03
1.995033e-02
1.060632e-03
-9.646327e-03
8.430106e-03
1.208619e-03
-5.275019e-03
6.169393e-03
3.442105e-03
1.333593e-02
1.137673e-02
3.998900e-03
4.069830e-03
9.221956e-04
2.690978e-03
-2.584811e-03
-4.712901e-04
-1.312360e-03
-1.278503e-02
1.795920e-02
2.558682e-02
-4.289677e-03
3.900023e-02
3.967448e-02
2.029731e-02
2.823783e-02
3.069309e-02
-1.427962e-02
6.667355e-03
2.341295e-02
-2.623146e-02
-2.280899e-03
7.514866e-03
-1.899512e-02
1.280049e-02
2.129834e-02
-5.798135e-03
-1.002162e-02
-2.764264e-02
-1.486642e-04
1.290459e-03
-1.348140e-02
2.189517e-02
7.371319e-03
2.184641e-03
-1.084452e-02
-4.184602e-03
-9.142380e-03
6.722187e-03
3.572857e-03
-7.162879e-03
1.193420e-02
3.213501e-02
-2.341671e-03
1.765537e-03
-1.391980e-02
-1.409716e-02
-1.301521e-02
1.858288e-03
-1.068731e-02
-1.461034e-02
-5.368541e-03
-8.957271e-03
-3.436499e-04
8.982617e-03
1.283164e-02
-1.369104e-02
1.879573e-02
1.919000e-02
6.614217e-04
1.616913e-02
1.465145e-02
2.525587e-03
1.373860e-02
-7.314617e-03
1.365269e-02
2.079183e-02
1.247975e-02
1.073273e-02
3.527981e-02
2.345389e-02
-1.407059e-02
-6.901630e-03
-5.766566e-03
-3.302633e-03
8.885162e-03
-1.986952e-02
1.047976e-02
2.383450e-02
-1.733918e-03
8.982297e-03
2.042224e-02
1.971185e-02
1.844172e-02
1.177533e-02
2.241252e-02
-1.082292e-02
4.924290e-04
8.900123e-03
-4.396359e-03
-1.663332e-02
-6.537183e-03
-2.182566e-02
-3.302210e-02
-2.387501e-02
-7.471434e-03
-8.978372e-03
-2.159745e-02
2.186418e-03
5.523548e-04
-2.778055e-03
-1.714636e-02
-6.616381e-03
1.100677e-02
-1.747181e-02
8.592817e-03
2.324420e-02
-2.298255e-03
-2.641601e-02
1.306296e-03
-1.500095e-02
-1.989017e-02
-6.871106e-03
-1.301703e-02
-1.085168e-02
4.953345e-03
1.276221e-02
4.655818e-03
1.760032e-03
1.306793e-02
5.699431e-03
1.189475e-02
1.585716e-02
1.484735e-02
2.878628e-02
4.624303e-04
-6.140355e-03
1.040106e-03
-1.585147e-02
-1.106281e-02
-3.092529e-03
1.072885e-02
4.217899e-03
-9.966880e-03
-1.124686e-03
-5.695644e-05
-8.879934e-03
6.258504e-03
3.218954e-04
5.677849e-03
3.002234e-02
1.892062e-02
4.606527e-03
-8.213104e-03
-6.264872e-04
5.204509e-03
-2.396469e-02
-1.894006e-02
-1.257954e-02
-3.101161e-02
-2.053605e-02
-1.418716e-02
7.265037e-04
-1.750285e-02
-4.234695e-03
-1.415121e-02
-4.777070e-03
2.848509e-02
8.903675e-03
1.122423e-02
1.871683e-02
-3.969266e-02
-3.595731e-02
-1.862400e-02
-2.806595e-02
-2.272194e-02
-1.584707e-02
-1.777161e-02
-1.187284e-02
-2.556058e-03
1.707306e-03
3.383169e-03
7.964586e-03
3.169664e-03
-4.777111e-03
5.897112e-03
-5.834265e-03
-2.302307e-02
-1.187573e-02
-9.451649e-03
-7.609269e-03
-1.048582e-02
2.016800e-02
-6.019224e-03
-2.248751e-02
2.676067e-02
-1.082256e-02
-1.841726e-02
2.038943e-03
-5.966379e-03
3.460138e-03
-1.161208e-02
-1.838626e-02
-1.304951e-02
-1.291477e-02
-1.259799e-02
-1.154617e-02
3.173950e-04
4.514669e-03
7.624252e-04
-8.224578e-03
6.053449e-03
3.126271e-03
-1.513272e-02
-1.900810e-02
1.655165e-03
-6.594855e-04
7.513556e-03
7.521892e-03
1.161866e-02
1.516132e-02
8.750101e-03
7.705512e-03
1.014145e-02
6.473082e-03
-4.944591e-03
-9.355031e-03
-5.845029e-03
-2.273159e-02
-2.606037e-02
-2.184243e-02
-2.391389e-03
-1.159606e-03
-1.321122e-03
-9.301912e-03
-9.622154e-03
-8.011987e-03
-3.925067e-03
3.747747e-03
-1.075174e-02
7.240025e-04
-3.787574e-03
-4.295572e-03
1.824551e-02
1.917127e-03
6.257358e-03
1.042081e-02
2.491251e-02
1.992633e-02
-4.434000e-04
-5.882288e-03
-3.107262e-03
-6.694756e-03
-2.198996e-02
-1.430148e-02
-1.676491e-02
-1.542255e-02
-2.192167e-02
-6.952409e-03
-1.920840e-03
-1.778660e-02
-5.758369e-03
-5.497877e-03
1.076759e-02
-9.158496e-03
-5.900765e-03
3.458970e-03
-8.163712e-03
-1.203559e-03
4.106261e-03
7.232742e-03
-1.263109e-02
-1.454016e-03
1.217283e-02
-1.925232e-02
-1.004442e-02
2.207969e-02
5.596926e-03
3.167944e-03
5.421150e-03
-1.356036e-02
-1.650674e-02
7.789239e-03
2.668417e-02
1.196804e-03
-3.576450e-03
1.414455e-02
1.708859e-02
1.312880e-02
3.735212e-03
-2.936701e-02
2.684868e-02
2.350230e-02
-5.462381e-03
7.548057e-04
1.659549e-02
-5.358157e-03
-5.087584e-03
1.037658e-02
1.539206e-02
-7.281445e-03
-5.530606e-03
5.291623e-03
4.075946e-03
-5.887521e-03
1.128458e-04
-9.452418e-03
-8.677463e-03
5.710428e-03
-8.609818e-03
-3.818695e-03
3.226547e-03
-2.983377e-03
-1.033204e-03
1.393875e-04
7.727965e-03
-3.635968e-03
-3.833489e-03
4.365720e-03
-3.385819e-04
2.601299e-03
1.092769e-02
-3.509002e-04
5.221362e-03
4.942972e-03
8.817274e-03
2.480244e-03
9.507968e-03
3.240619e-05
1.265433e-04
-1.802007e-03
-1.125239e-02
-7.190273e-03
7.880837e-03
1.830498e-03
3.114518e-03
2.813714e-03
1.135298e-02
8.133324e-03
-1.101272e-02
-3.307470e-04
1.057891e-02
-1.452094e-02
1.391207e-03
3.814748e-03
-1.466634e-02
1.288916e-02
7.384288e-03
-5.808393e-03
-2.090442e-03
3.318657e-03
6.853694e-03
-2.437655e-03
-1.976640e-02
-4.367537e-03
-6.917922e-04
-1.673349e-02
-2.313275e-02
-2.126187e-02
-1.745713e-02
-9.225059e-03
-8.329513e-03
-8.653702e-04
8.481884e-03
7.091504e-03
-4.918298e-03
-1.211847e-02
4.598470e-05
-5.605204e-03
-8.039005e-03
-8.785877e-03
-1.412008e-02
2.658884e-03
1.348511e-03
-9.087704e-04
1.942791e-02
2.461286e-03
3.870862e-04
-2.804776e-04
-1.199380e-02
-8.348094e-03
-7.318659e-03
-1.171564e-02
-3.368318e-03
-1.460298e-02
-1.150512e-02
-4.340841e-04
-5.614556e-03
-1.622563e-02
-1.736171e-03
1.730669e-02
5.364878e-03
-1.385827e-03
6.068746e-03
5.564241e-05
6.114611e-03
-1.823754e-02
-1.234319e-02
-1.620915e-02
-7.126947e-03
-1.587172e-02
-5.095837e-03
-1.438644e-02
-2.446262e-02
-7.718484e-03
1.249407e-02
1.595085e-02
-3.069989e-03
1.714986e-02
2.469287e-02
-5.871584e-03
2.395668e-03
1.695309e-02
1.007295e-02
4.264476e-03
-4.479121e-03
-3.518286e-04
2.462544e-02
1.682568e-03
-4.748891e-03
7.408829e-03
5.552823e-03
2.897150e-03
4.473185e-03
1.050621e-03
2.578143e-03
4.057841e-03
1.493090e-02
1.350571e-02
4.611119e-03
1.003184e-03
2.416926e-03
-1.034716e-02
-9.996987e-03
-4.622587e-03
-7.530861e-03
-1.344183e-02
6.427519e-04
1.346519e-02
-2.102828e-04
1.321511e-02
-1.061722e-02
-1.171095e-02
-3.252381e-03
-4.381354e-03
-8.537052e-03
-1.511465e-02
-2.838132e-03
-5.846784e-03
-6.592956e-03
-7.574626e-04
6.256477e-03
5.096736e-03
-3.730369e-03
-9.860785e-03
-8.121750e-03
-1.403444e-03
-4.834274e-03
-1.723721e-02
4.445208e-04
-5.860638e-04
8.268257e-03
1.349540e-02
-6.133004e-04
1.138696e-02
1.259482e-02
-6.810512e-03
2.318813e-03
9.831095e-03
-3.535177e-04
-1.218566e-02
3.218405e-03
-2.687758e-03
-9.347873e-03
1.149053e-02
1.265241e-02
5.960621e-03
5.440526e-04
-4.738483e-03
3.716922e-03
1.330380e-02
-3.778841e-03
6.633773e-03
1.331679e-02
1.013779e-02
2.222693e-03
1.252671e-02
8.708496e-03
4.263548e-03
-1.242605e-02
2.790778e-03
1.430778e-02
-1.346496e-02
-6.559289e-04
-1.775914e-03
-9.578015e-04
8.796991e-03
9.584980e-03
4.872034e-03
-1.022528e-02
1.565391e-03
1.381123e-03
7.442046e-03
1.210494e-02
-5.752147e-03
-1.640867e-02
-1.040210e-02
-7.998195e-05
4.219539e-03
-1.786782e-02
-6.959820e-03
4.002225e-03
-1.030390e-02
7.894593e-03
8.158283e-03
6.272341e-03
1.201327e-02
1.415757e-02
1.196047e-02
-1.834134e-03
4.422784e-03
5.209661e-03
5.074499e-03
-7.433714e-03
1.085540e-02
5.531365e-03
2.391039e-02
6.292843e-03
-7.357501e-03
1.913841e-02
4.891666e-03
-1.146832e-02
-7.661913e-03
1.965342e-03
1.686778e-03
-5.100654e-03
8.306608e-03
-2.376928e-03
1.081207e-02
1.228989e-02
1.738487e-02
1.538215e-02
5.876327e-03
3.539426e-02
3.884533e-02
1.534409e-02
-2.459634e-02
-2.043288e-02
-1.646867e-03
1.482951e-02
-5.938036e-03
6.831664e-03
3.223108e-03
-7.350955e-03
-1.634351e-03
-1.152392e-02
-2.411325e-02
-1.997711e-02
-1.250251e-03
-2.289015e-03
-1.583715e-02
9.225077e-03
-1.788568e-03
2.886097e-03
1.686077e-02
2.658434e-02
2.109023e-02
1.150295e-02
6.064584e-03
-2.305393e-03
1.770133e-02
6.619168e-03
-6.928384e-03
1.729551e-03
5.916190e-03
-5.593444e-03
8.620372e-03
-7.512394e-03
4.436356e-03
-5.159830e-03
-6.109020e-03
1.075337e-03
6.201288e-04
-3.064775e-03
-9.972313e-03
-7.117748e-03
-3.713638e-03
1.056050e-02
-1.950341e-02
-4.230212e-03
6.494629e-03
-4.732259e-03
-9.909813e-03
2.581529e-03
7.095464e-03
1.076331e-02
1.548680e-02
1.344369e-02
3.761081e-03
3.258835e-03
2.089511e-02
8.507962e-03
8.877718e-03
2.137917e-03
3.418874e-03
4.118436e-03
8.072097e-03
7.621096e-03
1.282053e-02
4.091034e-03
2.501374e-04
2.193411e-03
1.155815e-02
9.710478e-03
1.638602e-02
7.245013e-03
-1.686899e-04
-3.284228e-03
1.256164e-02
5.968470e-03
8.253359e-03
8.526270e-03
7.082910e-03
1.868201e-03
7.536932e-03
-2.837837e-02
-2.430598e-03
2.520179e-04
2.046957e-03
4.145416e-04
1.297741e-02
4.191891e-03
2.190588e-02
-5.250842e-03
1.013348e-02
-2.374848e-03
4.268997e-04
1.181939e-02
-8.017492e-03
5.315820e-03
-5.147540e-03
1.063144e-02
-2.025448e-02
-1.708346e-02
-5.097777e-03
3.594425e-03
-3.417218e-03
-4.159892e-03
9.058519e-03
1.301021e-02
1.310302e-02
-7.658653e-03
-1.925377e-03
-1.479719e-03
-1.287928e-02
-1.895662e-02
-1.811512e-02
-8.483275e-04
7.399713e-03
6.457710e-03
-1.650818e-02
-2.447317e-02
-3.568868e-02
-2.104950e-03
2.584728e-03
-2.339116e-03
1.059877e-02
1.753614e-02
1.139005e-02
1.726400e-02
-5.394865e-03
3.258436e-03
-6.186464e-03
-3.003927e-03
2.413012e-02
4.164806e-03
9.527870e-03
2.747975e-03
6.511988e-04
-2.015212e-03
-1.410368e-03
2.138777e-02
2.165650e-03
1.384057e-02
-6.735954e-03
6.189133e-03
-1.445740e-02
2.090993e-02
1.663928e-02
-1.522283e-02
1.384724e-02
-5.534404e-03
2.082024e-02
-4.078308e-03
-3.662618e-03
3.812048e-03
-3.974134e-03
5.505937e-03
1.017227e-02
2.676540e-02
1.031210e-02
-1.687028e-04
9.514345e-03
1.140476e-02
4.355072e-03
-6.645236e-03
-1.072316e-03
1.998798e-03
-9.793557e-03
5.449309e-03
4.218218e-04
-7.741830e-04
-6.970503e-03
-3.845949e-03
-7.775473e-03
-1.527993e-02
-5.478963e-03
-7.502369e-05
-2.238484e-02
1.005227e-02
-2.140307e-03
4.717073e-03
7.329197e-03
-3.265998e-03
-3.643924e-03
-2.267858e-03
1.924123e-02
1.152932e-02
6.065032e-03
-6.213745e-03
-2.107664e-02
-1.637783e-02
1.488797e-02
7.329656e-03
2.343498e-02
-5.105129e-03
-1.642043e-03
-5.892173e-03
1.946250e-02
9.688635e-03
7.992308e-03
-4.264919e-03
9.678225e-03
1.601029e-02
-8.344710e-03
4.502558e-03
-7.487960e-04
-1.413519e-02
4.059993e-03
5.938837e-03
1.923501e-02
-2.641707e-03
2.103547e-02
-3.786420e-03
1.173093e-03
-4.867868e-03
-8.427226e-03
2.909226e-03
-1.261802e-02
8.929575e-03
3.896276e-03
8.498659e-03
-5.387860e-04
1.281847e-02
-2.682725e-03
-8.954204e-03
-7.128018e-04
-7.637914e-04
3.227327e-03
1.114977e-02
9.268711e-04
-3.771683e-03
1.169407e-02
-1.093516e-02
-1.088574e-02
-1.030705e-02
1.342368e-02
-1.273684e-02
-6.840915e-03
5.965366e-03
-1.341644e-02
-8.626970e-03
-4.610999e-03
-1.326316e-02
4.132337e-03
-5.205308e-03
-1.932313e-02
-4.103745e-03
2.799840e-03
-1.252635e-02
-1.809399e-02
9.966140e-04
-6.155458e-03
1.704943e-03
-5.902159e-03
-1.611222e-02
6.940532e-06
1.230973e-03
-1.235621e-02
-4.639571e-03
-8.128067e-04
5.622029e-03
6.828351e-03
1.000824e-02
5.879201e-03
8.632294e-03
1.608743e-02
-5.449175e-03
-1.149822e-03
3.975955e-03
-1.981581e-03
-3.922711e-03
4.997296e-03
1.199387e-02
-1.994940e-03
6.411231e-03
4.718046e-03
5.838385e-03
-2.794049e-04
6.900113e-03
-2.724349e-03
2.164150e-03
-4.346742e-03
-1.293494e-02
7.081992e-03
-5.315761e-03
-2.042011e-03
5.996481e-03
1.883993e-03
1.138341e-03
4.870807e-03
-1.289599e-02
-2.000093e-02
-2.448206e-02
6.751677e-03
6.581036e-03
-4.899358e-03
-4.454757e-03
-8.944804e-03
-5.218852e-04
-2.200456e-03
-9.288445e-03
-3.006371e-03
-1.009930e-02
1.763329e-03
-1.767712e-03
-1.202058e-02
2.726593e-02
-6.667451e-03
-2.718522e-03
1.925327e-02
1.453064e-02
-3.758116e-03
8.948124e-04
-4.251424e-03
3.700791e-03
-2.387735e-03
-5.920991e-03
4.050470e-03
4.948416e-03
-7.030659e-03
1.273486e-02
7.217454e-03
6.963568e-03
3.727244e-03
-1.495087e-02
-3.305434e-03
-1.095673e-02
-6.311223e-03
1.998495e-03
8.951275e-03
8.432954e-03
-6.916468e-03
-5.285664e-03
5.199263e-04
2.572061e-03
5.264346e-03
-2.158460e-03
4.529489e-03
1.673746e-02
1.124341e-03
-8.328212e-04
3.471233e-03
-1.038084e-03
-1.111742e-02
-2.473628e-03
1.067920e-02
-3.195997e-03
1.131314e-02
2.979894e-05
-8.255972e-03
-7.082650e-03
-4.175113e-03
-4.655681e-03
-2.989577e-03
-3.584908e-03
-5.659096e-04
-2.470739e-02
-5.329714e-03
-2.318651e-03
5.599221e-03
3.436104e-03
4.790711e-03
1.830164e-02
-9.001602e-03
-5.799884e-03
1.275223e-02
-1.665796e-03
9.774233e-04
-5.896351e-03
-4.617929e-03
-4.394805e-03
-6.663750e-03
7.757922e-03
-1.421392e-03
-1.339398e-02
2.132869e-03
2.799636e-03
-1.097239e-02
2.161709e-03
9.181892e-03
-1.753182e-02
1.113862e-02
3.098680e-02
3.920694e-03
5.292308e-03
1.803657e-02
1.220350e-02
1.280268e-03
4.193465e-03
-1.343661e-03
9.085849e-03
1.505338e-02
7.899986e-03
3.545154e-03
2.856010e-03
7.171992e-04
6.232033e-03
2.654294e-03
2.504671e-03
1.750746e-03
2.448056e-03
-6.925364e-04
-9.390932e-03
-3.847352e-03
3.790437e-03
-4.869606e-03
-3.625433e-03
-5.867940e-03
-8.026318e-03
-2.021134e-02
-1.660243e-03
1.022493e-02
1.216516e-02
-2.832459e-03
-5.369330e-03
-1.362366e-02
-1.688988e-02
-2.146655e-02
-1.933532e-03
-2.193580e-02
-1.153661e-02
-9.564484e-03
-7.419954e-03
-1.824716e-02
8.130955e-03
-1.807872e-02
-3.289866e-03
5.344145e-03
-2.931030e-03
-2.290555e-03
-1.224236e-02
1.745568e-02
9.839177e-03
3.630748e-03
1.912423e-02
-1.782106e-03
1.799301e-03
9.440261e-03
-1.075683e-02
-2.099205e-03
4.645592e-03
9.300910e-03
-5.769021e-03
1.899805e-02
-1.327238e-03
4.465706e-03
6.362040e-03
4.345356e-04
3.673673e-03
1.608411e-02
9.953343e-03
1.292969e-02
1.119174e-02
-2.521973e-03
4.585930e-03
1.769869e-02
3.189574e-03
-2.348477e-03
-1.142458e-02
7.783886e-04
-9.731980e-04
8.308061e-03
-5.132104e-03
2.942236e-03
-5.626607e-03
-1.504053e-02
-1.149479e-02
-8.026736e-03
5.727227e-04
-3.745380e-03
-7.758360e-03
1.730266e-03
-7.349506e-03
1.082211e-02
8.960351e-03
4.450639e-03
1.064205e-02
5.611074e-03
-5.018046e-03
-9.421362e-03
8.834576e-03
8.368326e-03
2.004250e-03
-3.921445e-03
-8.147021e-03
-9.744608e-03
3.087596e-03
3.479684e-03
-1.106434e-02
5.637041e-03
1.327169e-02
-6.894269e-03
3.925896e-03
1.528363e-02
1.534631e-03
3.520246e-03
1.154708e-02
-2.491683e-03
7.748825e-03
2.052821e-03
1.122936e-02
1.014823e-02
1.032604e-02
-5.484667e-03
4.718346e-03
6.976370e-03
6.903993e-03
9.368054e-03
7.937896e-03
4.144867e-03
1.115662e-03
-4.012022e-03
-8.090297e-03
-6.132963e-03
-3.602476e-03
2.200290e-03
-6.601083e-04
2.389994e-03
-3.894075e-03
-8.433496e-03
8.123566e-03
5.763961e-03
2.624358e-02
-1.275543e-02
-1.174154e-03
-2.140360e-04
1.390003e-02
3.431943e-04
-2.049928e-02
-7.992812e-03
1.243722e-02
-1.110965e-02
-1.982252e-03
2.181491e-03
-3.548179e-03
1.950925e-03
-2.131449e-02
7.448000e-03
-1.214939e-03
-1.401294e-02
-9.568579e-03
-1.066673e-02
3.679575e-03
2.059342e-03
-1.863840e-02
4.365234e-03
1.282068e-04
-2.142489e-02
-3.673414e-03
1.569315e-03
5.861088e-03
-1.626333e-02
-1.848025e-02
-1.629407e-02
5.885542e-03
1.489229e-02
1.927671e-02
4.457728e-03
1.627953e-02
-5.677004e-03
-2.732494e-02
-2.535970e-02
-2.363130e-02
-7.387776e-03
-1.962657e-02
-5.885922e-03
-9.991312e-03
-9.414150e-03
-7.271488e-03
-8.870875e-03
-4.964303e-03
-2.817892e-04
-1.852449e-03
6.442702e-03
-5.018123e-03
2.198825e-02
2.218785e-02
-9.440149e-03
6.599599e-03
-6.423666e-03
9.115378e-03
2.742862e-04
-9.207443e-03
-8.136511e-03
3.110195e-03
-4.793477e-03
-5.131576e-03
1.974831e-02
-4.084673e-03
3.795907e-03
1.390448e-02
-7.437006e-03
1.142601e-02
1.170436e-02
6.306197e-03
-1.988266e-04
1.515844e-02
2.363868e-02
-1.445453e-03
-1.395694e-03
1.774433e-02
-8.790608e-03
-6.721425e-04
4.203763e-03
2.866411e-03
-2.619514e-02
-2.200270e-02
1.570824e-02
1.968782e-02
8.480683e-04
-1.611807e-02
1.717994e-03
4.963418e-03
1.402458e-02
3.886844e-03
8.445861e-04
7.168881e-03
-9.418690e-03
-1.176488e-02
-1.323660e-02
-2.438820e-03
-3.872166e-03
1.517083e-02
-1.716325e-02
-8.346655e-03
6.008978e-04
-1.149812e-02
-6.340020e-03
-5.850111e-03
-1.823609e-03
-6.645741e-03
-1.135698e-02
-1.163624e-02
9.391120e-03
2.168208e-03
-3.425258e-03
4.068960e-03
5.436979e-03
-8.198789e-03
-7.884188e-03
-7.104380e-03
2.156431e-02
-4.782466e-04
1.059367e-02
-2.919953e-03
7.592405e-03
2.320105e-03
6.414218e-03
2.106910e-03
9.041938e-03
5.548483e-03
-1.864294e-02
9.175432e-04
7.159259e-03
-1.817503e-02
-1.101758e-03
9.508805e-03
7.646935e-03
-5.337528e-03
-8.865285e-04
-3.819764e-03
-1.654436e-02
-6.851907e-03
-1.527536e-02
-1.447835e-02
-8.160188e-03
-1.613907e-02
1.260556e-02
-1.567990e-03
-3.897854e-03
-1.731870e-02
-6.366426e-03
7.867469e-03
-2.593738e-03
4.966314e-03
-7.851155e-03
3.512580e-03
-9.657159e-03
9.825344e-03
-1.235774e-03
7.597600e-04
2.436958e-02
8.903301e-03
6.670386e-03
-8.681151e-03
-8.682490e-03
1.701676e-02
-5.209130e-03
-1.299286e-02
8.016869e-05
-6.344052e-03
6.597601e-03
-2.462541e-02
-2.746674e-02
-1.632666e-02
-1.211704e-03
7.095935e-03
2.617018e-03
-1.002751e-02
-3.920762e-03
-2.159938e-02
4.087528e-03
-8.627755e-03
-3.707363e-02
-1.404393e-02
-1.740305e-02
-2.777319e-03
-2.319073e-02
1.126624e-04
1.763446e-02
-2.730167e-03
-7.319490e-03
1.695148e-03
5.523662e-03
9.092508e-03
-1.606512e-03
1.175920e-02
-6.148606e-03
-1.227158e-02
-7.462377e-03
-9.106338e-03
-1.075014e-02
2.376543e-02
4.034006e-03
-5.798487e-03
-5.165370e-03
-1.192383e-02
-2.079647e-03
1.640437e-02
7.946508e-03
-1.729172e-03
1.982691e-02
1.131404e-02
-6.301864e-03
-1.089942e-02
-3.596152e-03
-4.449434e-03
-8.382318e-03
7.557519e-03
3.291925e-03
-9.056349e-03
1.994077e-02
-5.848451e-03
-5.772780e-03
-6.380627e-03
3.352907e-03
-4.310589e-04
-6.626028e-03
-1.938364e-02
-9.115457e-03
-1.895228e-02
-8.539576e-03
8.086053e-03
-1.367064e-03
-6.747977e-03
5.891936e-03
9.719703e-03
-4.254869e-03
-4.755104e-03
-1.752075e-02
-2.860932e-02
-9.219492e-03
-1.673814e-02
-3.373418e-03
2.080475e-03
-9.020173e-03
-3.638811e-03
-1.435157e-02
-2.262145e-03
-2.470705e-02
2.987505e-03
-8.204185e-04
-4.463334e-03
-3.667162e-03
1.310063e-03
-5.335384e-03
1.599586e-02
1.571950e-02
-1.945271e-02
1.619036e-02
6.696221e-03
-5.947500e-03
3.264141e-03
-7.722981e-03
6.446315e-03
-9.946970e-03
-8.116068e-03
-2.963183e-02
-1.317635e-02
-3.657378e-03
-2.469633e-02
-3.070945e-03
2.532542e-04
2.944994e-03
-6.996737e-05
5.668317e-03
-4.309550e-04
-8.837086e-03
-5.867571e-03
7.626903e-03
3.263626e-03
1.249622e-03
8.568943e-03
-6.035349e-04
-8.842586e-03
-4.820087e-03
-8.644031e-03
-4.170719e-03
-8.408407e-03
1.223721e-02
-4.148589e-03
-7.504044e-03
-1.299240e-03
-5.159156e-03
4.303635e-03
6.996299e-03
1.635904e-02
8.485399e-03
-9.997673e-03
4.386874e-03
3.747031e-03
5.505549e-03
3.064467e-03
2.407739e-03
-1.242724e-02
-1.064591e-03
-2.651031e-03
-6.909846e-03
5.303344e-04
6.696176e-03
-8.101979e-03
2.890446e-03
1.372364e-02
1.885155e-03
-4.117059e-03
-2.771160e-03
1.823738e-02
1.486691e-02
1.583863e-02
2.972188e-02
2.826353e-02
3.192405e-02
8.064845e-03
9.721041e-03
1.070479e-02
9.323213e-04
-1.181895e-03
-1.036545e-02
-2.828756e-02
-1.307222e-02
-9.320542e-04
-1.472810e-02
-1.532449e-02
-1.455036e-02
-1.576511e-03
1.258402e-02
9.480137e-03
-1.083822e-02
1.492312e-02
1.904695e-02
-8.149572e-03
-9.266024e-03
6.884187e-03
2.049707e-03
-1.367336e-02
-2.315135e-02
-1.348092e-02
-3.840833e-05
-3.030756e-03
1.204066e-02
1.060424e-03
1.438611e-02
4.195939e-03
-6.219625e-03
-3.963909e-03
-1.068165e-02
-6.251128e-03
6.816590e-03
-2.679311e-02
-8.254259e-03
1.177712e-02
6.986585e-03
-8.773762e-03
4.069664e-03
6.866819e-03
-4.846128e-03
-9.539119e-03
3.320707e-03
-4.707411e-03
-8.289738e-03
-1.100236e-02
-8.221617e-03
9.721920e-03
1.046574e-02
2.815376e-03
1.511837e-02
1.621272e-02
4.538063e-03
-2.415804e-03
1.968177e-03
4.112198e-03
-1.452742e-02
6.095314e-03
2.170799e-02
5.709236e-03
1.150156e-02
-5.939424e-03
-3.191813e-03
3.563032e-03
-2.640787e-03
4.890066e-03
1.247347e-03
-1.628462e-02
-4.426362e-03
4.801200e-03
-2.175485e-02
-1.495785e-02
-1.457141e-02
-1.001960e-02
-2.280018e-03
-1.158438e-02
-1.942642e-02
-1.489651e-02
-1.498531e-03
-6.646765e-03
-1.639633e-02
-1.610143e-02
-2.844821e-03
9.070015e-03
-1.320153e-02
-9.756975e-03
1.261605e-02
6.525714e-03
5.851872e-03
8.815791e-03
-5.518772e-03
2.951213e-03
5.227113e-03
3.482410e-03
7.799611e-03
2.567775e-03
-8.052635e-03
6.177209e-03
-5.272474e-03
-1.763870e-03
6.035038e-03
1.634803e-02
-1.385708e-02
-5.119246e-03
1.151119e-02
-1.482251e-02
-7.981632e-03
1.907789e-03
7.437824e-03
8.905098e-03
-4.807313e-03
1.610333e-02
1.887545e-02
1.667466e-02
8.930028e-03
4.178112e-03
7.341017e-04
4.171535e-03
2.169005e-03
-1.258047e-02
-3.408006e-03
5.359496e-03
-7.362858e-04
-1.825688e-02
-1.764592e-02
-4.263808e-03
-3.007711e-03
-8.061715e-03
-9.509359e-03
-6.231304e-03
-8.492417e-03
-9.841886e-03
-1.274377e-02
-7.044088e-03
4.858367e-03
-5.041075e-03
-9.223681e-03
-6.532738e-03
1.756858e-04
-9.803140e-03
-1.202571e-03
1.716322e-02
1.113480e-02
5.267838e-04
2.126863e-03
-3.403690e-03
9.582000e-03
-8.976985e-03
-1.689704e-02
5.240902e-03
-1.244142e-02
-3.994315e-03
7.392303e-03
-2.547226e-03
1.083590e-04
-9.216188e-04
2.107572e-03
7.136056e-03
8.839761e-04
6.990932e-03
9.424737e-03
5.221172e-03
-2.752115e-03
-1.891093e-02
-1.075736e-02
-1.416278e-02
-2.130719e-02
-3.009256e-03
-8.423042e-03
-1.049191e-02
-1.815952e-03
2.348709e-03
1.105296e-02
4.240795e-03
2.059166e-02
6.765218e-03
-2.294435e-03
4.514652e-03
1.626453e-02
1.534504e-03
-4.852640e-03
-1.332220e-03
-1.632624e-02
-2.258940e-03
-5.148069e-03
-1.562914e-02
-4.577197e-03
-7.631483e-03
-1.926463e-02
-3.067597e-03
1.435340e-02
9.314884e-03
1.546791e-03
5.366658e-04
2.633826e-03
1.840103e-02
-2.981905e-03
-2.501659e-03
4.487554e-03
1.232692e-02
8.194854e-03
-2.221181e-03
-8.952548e-04
-5.044745e-03
1.607098e-02
-4.376655e-03
4.224546e-04
-6.281348e-03
-3.417231e-03
-5.623139e-03
-1.269415e-03
7.614324e-03
-5.661919e-03
9.727476e-03
-3.263948e-03
-6.574325e-03
1.801207e-02
1.019712e-02
1.496540e-02
-8.448162e-03
-9.820750e-03
8.931427e-03
-9.858222e-03
4.531833e-03
2.402661e-02
-3.048215e-02
-7.330145e-03
1.015724e-02
-1.045546e-02
-9.724417e-03
1.070657e-02
6.610474e-03
-1.296394e-02
-1.514536e-02
-6.433787e-03
2.511126e-03
5.437314e-03
2.033036e-03
3.811940e-03
1.903686e-03
-1.440578e-03
-9.922718e-03
-4.333877e-03
-9.451671e-03
8.573483e-04
9.022313e-03
-2.970175e-03
-8.545096e-04
7.612892e-03
-1.794594e-02
-1.473478e-02
5.534629e-04
-8.371028e-03
1.027422e-03
-2.450425e-02
7.936141e-03
1.847165e-02
-5.902594e-03
1.176040e-02
1.421705e-02
-6.809285e-03
-3.714923e-02
1.379071e-03
-1.003912e-02
5.910727e-04
-5.262007e-03
-8.946634e-03
-2.212901e-02
-8.161364e-03
-2.374300e-02
-1.617220e-02
-1.581482e-02
-2.282658e-03
-1.289902e-02
-1.718695e-02
-1.965172e-02
-3.596248e-03
1.801916e-05
-1.065912e-02
-1.375328e-02
-1.296785e-02
-6.378270e-03
-7.791761e-04
-5.252953e-03
8.695471e-04
-8.495973e-03
-1.018035e-02
-2.752139e-03
6.652445e-03
-4.894453e-03
-8.053215e-03
-2.367284e-03
-4.363372e-03
-3.678613e-03
9.107073e-04
1.237524e-02
-4.849787e-03
9.282974e-03
1.446188e-02
3.429898e-03
2.825174e-03
2.610919e-02
-1.779358e-02
5.279455e-02
3.646880e-02
8.819600e-03
-5.526584e-03
-5.697447e-03
4.362452e-03
3.573668e-02
2.654017e-02
1.088561e-02
7.610652e-03
1.750505e-02
2.019607e-02
8.215012e-03
-8.640160e-03
2.186779e-02
3.049986e-02
3.868242e-02
4.081866e-02
1.348390e-02
3.700289e-02
3.741371e-02
-6.969255e-03
1.179525e-02
-1.692169e-02
8.790712e-03
1.494506e-02
-2.747807e-02
-1.511545e-02
-9.800127e-03
-1.205757e-02
-2.862786e-02
-8.593588e-03
1.639102e-02
-1.272837e-02
9.212248e-03
1.715292e-02
2.475517e-03
-3.916012e-03
2.414387e-03
-9.743966e-03
1.647515e-02
2.160465e-02
-2.398703e-03
4.073394e-03
9.441454e-03
-2.008725e-03
-8.336334e-03
1.045321e-02
1.470660e-03
-3.262454e-03
-8.046133e-03
-5.866185e-03
-6.778167e-03
-3.474555e-03
-1.002473e-02
-1.399779e-02
-7.779243e-04
-7.452682e-03
-1.122406e-02
-1.357789e-02
1.034366e-03
7.697121e-04
2.969154e-03
-4.797901e-03
-2.079294e-02
-1.169222e-02
1.079233e-02
-1.078862e-02
3.319426e-03
1.616513e-03
-1.398143e-02
1.361172e-02
1.498746e-03
-2.078881e-02
-7.061300e-03
-1.258982e-02
-2.628965e-03
9.236371e-04
-2.604862e-03
-6.069995e-03
1.460006e-02
-8.310832e-03
-9.987650e-03
9.017128e-03
-2.078958e-02
-3.397757e-03
-4.137600e-03
2.550254e-02
3.959096e-02
4.044795e-02
1.901255e-02
1.044165e-02
2.007526e-02
1.138996e-02
-1.731041e-03
-1.837424e-04
-3.636435e-03
-3.927267e-03
7.997708e-03
-1.324371e-02
-8.731721e-03
5.911216e-03
-8.079299e-03
7.843844e-03
1.628539e-02
3.492967e-02
3.484309e-02
3.834691e-02
1.642195e-02
-2.191134e-03
7.581155e-03
-1.034085e-02
-1.340628e-02
-1.968446e-03
-5.141596e-03
1.776104e-03
1.451622e-02
2.394278e-03
7.291405e-03
5.716140e-03
1.138438e-02
1.438001e-02
2.379362e-02
-1.066404e-02
3.126605e-03
1.823039e-02
1.239249e-02
8.158682e-03
4.765774e-03
1.326856e-02
7.357649e-03
-9.671301e-04
1.556783e-02
-1.560028e-02
9.484969e-03
5.805453e-04
2.190430e-03
2.596463e-02
-2.797524e-03
-4.776009e-03
2.421691e-02
-9.794235e-03
-4.079867e-03
-2.627387e-03
3.276415e-03
-1.068222e-02
-1.444364e-02
-1.695764e-02
-1.479931e-02
-8.470559e-03
-4.050524e-02
-3.454198e-02
-3.298257e-02
-1.387432e-03
2.496411e-02
-1.763012e-02
2.582673e-03
-9.612965e-04
4.585395e-02
-4.866144e-04
-7.610909e-03
3.259192e-02
1.753096e-02
-5.314172e-03
1.343066e-02
-1.073269e-02
1.001257e-03
-9.497684e-03
1.293368e-02
1.117645e-02
7.592507e-03
6.845767e-03
-1.026286e-02
-1.128944e-03
-9.373467e-03
9.392796e-03
-1.401452e-04
-1.823772e-02
-1.135671e-02
-9.770958e-03
-1.404526e-02
1.479608e-02
-5.253975e-03
1.875811e-02
1.515600e-02
1.440451e-02
-1.559514e-03
-1.008289e-02
-1.185895e-02
2.072938e-03
7.473565e-03
-4.528772e-03
6.137943e-03
1.505052e-02
-5.629204e-03
5.341329e-03
1.800808e-02
8.064610e-03
-1.752026e-02
-1.977527e-02
-1.473276e-02
5.689316e-03
1.369849e-02
-3.480495e-03
-3.114284e-03
-1.161030e-03
1.066479e-02
-1.967150e-02
6.090778e-03
2.288052e-02
3.425429e-03
9.519942e-03
9.272567e-03
8.317211e-04
3.301901e-03
3.521505e-03
6.446624e-03
1.029662e-02
8.531370e-03
-8.395172e-03
-6.612954e-03
-2.847339e-02
2.945635e-03
9.309546e-03
2.136114e-03
-1.838593e-02
-7.916581e-03
1.566360e-04
6.800581e-03
7.840924e-03
2.036669e-02
1.774966e-03
5.350078e-03
5.646095e-03
2.114427e-02
1.726772e-02
6.420184e-03
-1.154488e-02
1.301150e-03
6.848698e-03
5.831842e-03
4.266720e-03
-1.605205e-02
-1.874592e-03
-1.133883e-02
-2.416104e-02
-9.009611e-03
-7.279460e-03
-1.835610e-03
-1.577110e-02
-1.008989e-02
-8.953689e-03
-3.192456e-02
-2.650863e-02
-4.821588e-03
2.263242e-02
4.716587e-02
3.238290e-02
7.063490e-03
1.817380e-02
1.441445e-02
1.858214e-02
1.204190e-02
1.204564e-02
-1.148662e-02
-1.604992e-02
-1.153830e-02
1.325325e-02
9.957594e-03
1.199655e-02
-2.705030e-04
-4.617965e-05
-6.337382e-03
1.365198e-02
3.674508e-02
2.011448e-02
2.312148e-02
4.219502e-02
1.827534e-02
-1.136570e-03
1.570521e-02
1.503428e-02
-1.266222e-02
-8.274086e-03
-2.203028e-02
-1.414276e-02
-1.237809e-03
-2.890687e-03
-8.679161e-03
-8.465455e-03
-9.002139e-03
4.600586e-04
8.044231e-03
1.471813e-03
6.239760e-03
3.130046e-02
2.129528e-02
1.856575e-04
6.278551e-03
2.077882e-02
-8.213419e-03
4.414959e-03
-7.899287e-03
-6.282534e-04
4.468612e-03
-3.874909e-03
-6.262572e-03
-3.930724e-03
-1.806599e-02
-3.208094e-03
1.585526e-03
-6.836496e-03
-2.938337e-03
-3.784986e-03
-1.017704e-02
-1.768812e-02
3.680835e-03
3.638456e-03
-1.614326e-03
-1.709238e-02
-8.644425e-03
-1.436689e-02
-2.022781e-02
-6.472377e-03
-5.711921e-03
-4.540490e-03
-1.784366e-03
4.744967e-03
1.601613e-02
1.345621e-03
-2.341018e-02
-1.545526e-02
1.821280e-02
-2.655317e-02
-3.593509e-02
-1.452909e-02
-1.838909e-03
-7.046069e-03
-1.401720e-02
-9.125156e-03
-1.429939e-02
-2.457961e-02
-1.120158e-02
-7.799021e-03
-1.238768e-02
-1.941474e-03
1.339263e-02
7.480713e-03
4.904772e-03
7.685687e-03
-1.472074e-02
-4.274046e-03
-2.787438e-02
-3.219756e-02
-1.610504e-02
6.556178e-03
1.444069e-02
1.127273e-02
-1.475677e-02
-8.299312e-03
6.398838e-03
-8.926888e-03
-2.546833e-02
-6.094608e-03
-4.478623e-03
-5.717132e-03
-6.608259e-03
-1.637991e-02
-3.531029e-03
1.614980e-03
-7.433294e-03
-8.955556e-03
1.545816e-02
2.845690e-02
3.446105e-02
3.558253e-03
1.555214e-02
3.795133e-02
-1.821819e-02
-7.322706e-03
-1.116487e-02
-1.366643e-02
1.603073e-03
-1.555723e-03
-6.298705e-03
-6.403925e-03
-5.718590e-03
4.195558e-04
-1.824245e-02
-1.186662e-02
-3.110830e-02
-4.250992e-03
3.269559e-03
-1.069251e-02
1.739461e-02
1.321957e-02
1.533846e-02
1.032232e-02
7.416618e-03
3.752433e-04
4.424353e-03
3.340874e-03
1.987760e-02
1.072686e-02
1.204647e-02
4.483250e-03
1.156182e-03
7.562899e-03
3.530224e-03
-6.656009e-03
-9.065966e-03
-5.975856e-03
9.761860e-03
7.973745e-03
-7.999728e-03
-6.372811e-03
-3.532586e-03
6.442267e-03
-5.739497e-03
-2.635699e-03
-1.256765e-02
-1.854400e-02
-1.930164e-02
-5.507444e-03
-5.516945e-03
-1.065446e-02
5.856950e-03
4.497853e-03
-8.985261e-03
1.512486e-02
1.971899e-02
7.761974e-03
-4.396764e-03
1.344583e-02
1.782108e-02
1.551530e-03
-1.011927e-02
-2.403777e-02
1.131657e-02
5.343902e-03
1.742289e-03
-1.970289e-03
-6.247403e-03
-1.921082e-02
-7.854796e-03
-2.194205e-02
-1.287386e-02
-5.760175e-03
-1.686725e-02
-2.489675e-02
-2.388338e-03
-6.074267e-03
-1.636571e-02
1.290404e-02
1.268369e-02
1.147727e-02
-5.008203e-04
1.304726e-02
2.142401e-02
5.009357e-03
1.791261e-02
2.358901e-02
2.578564e-02
2.604680e-02
8.755657e-03
2.072166e-02
2.262305e-02
4.954213e-03
-2.590411e-03
4.081942e-03
-9.558511e-03
3.950270e-03
1.382437e-02
-2.827314e-03
6.890357e-03
2.809263e-02
7.853932e-03
-2.081433e-02
-5.685475e-03
-6.175225e-03
-6.645887e-03
-3.672362e-03
-9.366714e-03
8.863240e-03
2.064750e-02
4.440792e-03
-6.861304e-03
4.619489e-03
-1.561688e-02
-3.130646e-03
-3.954568e-03
1.383157e-03
2.713575e-03
1.067187e-02
1.426317e-02
5.568811e-03
1.271890e-02
-1.783111e-03
6.710732e-03
2.122303e-02
-4.713520e-04
2.339112e-02
3.677482e-02
2.665333e-02
1.772181e-02
3.329661e-02
1.224882e-02
1.127059e-02
-1.271795e-02
6.834105e-03
-1.209840e-02
-1.149188e-02
-8.761225e-03
-1.014419e-02
-1.751370e-03
-2.834424e-03
2.020412e-03
3.684245e-03
2.743347e-04
-9.085104e-03
6.843748e-03
-7.111812e-03
-1.584127e-02
-6.977305e-03
-1.197954e-02
-1.884589e-02
-1.700439e-02
-1.042000e-02
-5.193997e-03
-1.910665e-02
-1.496292e-02
2.538478e-03
-1.092852e-02
-1.161753e-02
2.270218e-03
7.232202e-03
5.530376e-03
-2.707830e-03
-1.907321e-04
-1.250368e-03
-3.338927e-02
-4.107188e-02
-3.523727e-02
6.068781e-03
5.819621e-03
-4.280862e-03
9.770994e-03
2.582366e-02
1.668997e-02
2.336682e-02
2.721256e-02
7.967864e-03
-1.354741e-02
-1.819504e-02
-1.908117e-02
-1.171176e-02
-1.374242e-02
-1.074650e-02
6.928772e-03
1.063540e-02
1.246710e-02
5.793150e-03
8.283412e-03
6.641140e-03
1.601173e-02
-1.476711e-03
-1.256493e-02
-1.491646e-03
2.108769e-03
-1.583688e-03
-1.177771e-02
3.605747e-03
8.310974e-03
-2.365592e-02
-1.895340e-02
4.829308e-03
-1.554404e-02
-3.503305e-02
-5.992123e-03
-2.256403e-02
-3.506694e-03
7.402128e-03
-1.140684e-02
-1.851396e-03
-1.800155e-03
-1.910217e-02
-1.045654e-02
-1.547198e-02
1.264594e-02
2.345425e-02
9.448155e-03
9.421699e-03
1.415513e-02
-4.414708e-03
-4.233047e-03
-2.507936e-03
-8.133040e-03
5.703904e-03
-1.559335e-02
-3.012361e-02
-7.617042e-03
-2.881362e-02
-3.980754e-02
-2.521236e-02
-4.620828e-02
-3.520280e-02
-1.091400e-02
-5.977445e-04
1.772471e-02
-2.964352e-02
-2.382402e-02
6.741428e-03
-1.645312e-02
-4.253775e-02
-1.571253e-02
-2.401082e-03
-1.534893e-03
-4.746987e-03
-1.641749e-02
-1.670474e-02
-1.392860e-03
-1.013588e-02
-5.947694e-03
5.518548e-04
-1.090907e-03
-1.394806e-02
-1.068884e-02
8.240107e-03
6.448255e-03
5.532383e-04
1.116490e-02
2.474943e-04
-3.376943e-05
-4.005454e-03
-7.529213e-03
-1.005033e-02
1.054027e-04
-1.474450e-02
-1.376926e-02
6.928923e-03
-2.068403e-02
-5.840935e-03
-4.143727e-03
-2.992325e-03
3.553143e-03
-1.809688e-02
-1.823172e-02
2.359449e-03
-2.129281e-02
-2.144068e-02
-1.041740e-02
-7.786858e-03
-1.219710e-02
-4.649318e-03
-1.496047e-02
-1.712729e-02
-1.070221e-02
-9.977916e-03
-1.270105e-02
-7.853881e-03
-2.216292e-02
9.801298e-03
-6.015126e-03
-3.433378e-03
2.239120e-02
3.172277e-02
7.754511e-03
9.477043e-03
1.958050e-02
-2.059319e-03
6.441044e-03
2.065091e-03
-7.579554e-03
-1.828947e-02
-1.948691e-02
-7.701344e-03
-1.496148e-02
-2.202910e-02
-3.380734e-03
2.295526e-02
3.073287e-03
-2.486778e-03
-3.951657e-03
-2.123477e-02
-6.252232e-03
-1.466979e-02
-3.711531e-02
9.453492e-04
2.613851e-02
2.105320e-02
-2.696824e-04
2.936180e-02
1.320853e-02
1.054492e-02
2.401415e-02
2.228898e-02
-8.437680e-03
-8.327196e-03
-1.920810e-03
-1.623018e-02
-2.275086e-02
-1.587609e-02
-3.255572e-03
-1.921219e-02
-1.627968e-02
-6.205169e-03
-3.449658e-03
8.942568e-03
-1.351958e-03
-2.322743e-02
-1.728765e-02
-9.623453e-03
-1.471922e-02
-1.386653e-02
-1.988964e-03
1.838306e-02
