6.678322e-03
1.291204e-02
1.160179e-02
-1.049122e-02
4.679203e-03
3.001933e-03
-1.057920e-02
-1.971747e-02
-2.125287e-02
-1.560300e-02
2.714498e-03
9.974993e-04
-5.857924e-03
-1.308005e-03
-5.447461e-03
-1.838631e-02
-7.310294e-03
6.627100e-05
-2.389658e-02
-1.675737e-02
-1.896854e-02
-1.238004e-02
-1.619819e-02
-1.373747e-02
-1.524769e-03
2.669322e-03
-1.335106e-03
-1.125458e-02
-2.758129e-03
-2.391916e-03
-1.100982e-02
8.177432e-03
3.308189e-03
1.080695e-02
1.967138e-02
1.520647e-02
-1.005923e-02
-2.031894e-02
-4.231082e-03
7.496360e-03
-1.043751e-02
-4.582276e-03
2.786237e-06
1.801362e-03
-1.890445e-04
-5.049844e-03
3.488312e-03
-6.783439e-03
-1.192202e-02
-9.131080e-03
-1.065886e-02
5.547396e-03
5.187592e-03
-1.047056e-03
-7.618036e-03
-6.111096e-03
-6.875760e-03
2.318261e-03
2.775128e-03
-1.486530e-02
9.729573e-04
1.530932e-02
-2.489891e-03
1.633173e-02
1.758125e-02
6.688526e-03
2.551251e-03
-8.546450e-03
-1.400923e-02
-7.439902e-03
-1.896349e-02
-7.956302e-03
-3.926840e-03
-1.253024e-02
-1.115155e-02
-5.380701e-03
-2.223401e-03
-1.027706e-02
-3.622250e-03
-5.747292e-04
-1.189831e-02
1.497258e-02
2.432173e-02
4.256667e-03
1.032146e-02
1.245911e-02
1.365150e-03
1.917068e-02
2.392200e-02
-1.773964e-03
-1.403111e-02
-1.095812e-02
-1.585620e-02
1.137264e-02
8.333610e-03
1.649033e-02
9.365915e-03
6.807413e-03
1.321894e-02
7.003014e-03
-4.908375e-03
-7.260720e-03
-8.547764e-03
-2.363133e-02
-1.926565e-02
-1.906482e-03
-7.437338e-03
-1.385981e-02
1.044989e-02
-2.515133e-03
-4.004409e-03
-3.646270e-04
-1.533483e-02
-1.466575e-02
-1.453129e-03
-1.214600e-02
-8.976219e-03
1.050657e-02
1.629715e-02
1.882893e-02
-8.921625e-03
-6.032576e-03
-2.807856e-03
-1.881866e-02
-1.607965e-02
-1.309555e-02
2.115096e-03
2.632592e-03
-1.719805e-03
-3.564196e-03
6.983438e-03
3.047055e-03
-9.473455e-03
6.549782e-03
3.330740e-03
-7.696623e-03
-5.167505e-03
-1.384976e-02
9.726465e-03
7.417055e-03
-9.305005e-03
-1.021399e-03
-1.243269e-02
-1.284510e-02
-1.075817e-02
-1.405969e-02
-8.382105e-03
4.008895e-03
7.850521e-04
3.071751e-03
8.746124e-03
8.470378e-03
7.860641e-03
-2.931573e-03
-1.330309e-02
-8.395612e-03
-1.187824e-02
-8.414691e-03
1.323112e-02
-2.532443e-03
-1.240068e-04
-6.601790e-03
4.323861e-03
-9.990518e-04
1.580521e-03
-1.685346e-02
-1.446597e-02
-1.286497e-02
-7.763912e-03
-1.403181e-02
-1.332530e-02
7.339097e-03
3.207817e-02
8.477561e-03
3.242519e-03
5.686648e-03
-2.049600e-03
-1.814828e-02
-1.263564e-02
-2.768172e-02
-8.653847e-03
-1.448089e-02
-1.179441e-02
6.388761e-04
1.313271e-02
-2.116594e-03
-9.066767e-03
2.909117e-03
-1.694765e-03
-3.809471e-03
-3.594544e-03
5.426757e-03
3.339331e-03
-8.387297e-03
-1.007521e-02
-9.738586e-04
-4.214045e-03
-6.503968e-03
2.001677e-02
1.273108e-02
7.660103e-03
1.758723e-02
1.678743e-02
1.493830e-03
5.508421e-03
2.519568e-02
2.031729e-02
2.554782e-02
4.018410e-02
7.242508e-03
4.060434e-03
3.346083e-02
1.674799e-02
-3.343512e-03
3.745141e-03
-1.064059e-02
-4.914118e-03
-2.118747e-02
-1.406352e-02
-1.581246e-02
-1.046990e-02
-4.567460e-03
-8.030666e-04
-3.615518e-03
9.241914e-03
7.684665e-03
1.020596e-02
1.301383e-02
-5.694136e-03
1.727144e-02
4.523841e-03
1.074542e-02
1.299684e-02
-6.349053e-03
-8.096281e-03
2.762035e-03
-5.337623e-03
4.824991e-03
1.046101e-02
-1.553198e-04
1.215044e-02
1.298168e-02
-2.753921e-03
-1.160858e-02
-3.960633e-03
1.608790e-02
-3.906229e-03
7.275336e-03
8.312074e-03
-9.519543e-03
-2.440055e-03
1.248916e-02
-2.029829e-02
-2.601425e-02
-1.907310e-02
-1.442438e-02
-1.438087e-02
-1.026468e-02
-1.062336e-03
-2.837605e-03
1.079895e-02
-1.925115e-03
-1.190954e-02
-2.728001e-03
-6.936839e-03
1.382449e-02
4.792709e-03
-1.897272e-02
-6.555227e-04
2.488839e-03
-1.221462e-03
2.308598e-03
-1.314919e-02
-4.348062e-03
5.813314e-03
6.775862e-03
-8.359396e-03
1.577069e-02
1.448139e-02
-9.795959e-04
6.260640e-03
1.738391e-02
-4.087158e-03
-1.254914e-02
1.304683e-03
-6.835383e-03
-1.127057e-02
7.264302e-03
1.937770e-03
-1.363143e-02
9.146425e-04
-1.678296e-02
-2.417652e-02
-1.704985e-02
-8.338748e-03
-1.081354e-02
-2.178361e-02
-3.141764e-03
-6.339052e-03
8.150941e-03
-8.756583e-03
-8.812747e-03
-1.770282e-02
-1.792046e-02
-2.158887e-02
-2.082737e-02
1.355890e-02
1.577827e-02
5.732630e-03
1.218885e-02
1.390333e-02
-8.458315e-03
1.332499e-02
1.714526e-02
2.402777e-02
1.933563e-03
4.412989e-03
2.716420e-03
-8.637041e-03
-5.696397e-03
-1.155679e-02
9.073556e-03
9.042324e-03
-6.913309e-04
-5.637454e-03
-1.960825e-02
-2.289843e-03
-1.443369e-03
-1.346626e-02
-1.662559e-02
-1.677625e-03
-1.264187e-02
-1.025948e-02
4.210356e-03
-1.049595e-02
1.042462e-03
-4.753482e-03
-1.291001e-02
1.177623e-03
-2.065665e-03
7.718863e-05
-4.492439e-04
-1.490296e-02
-2.140632e-02
-3.248557e-03
-1.100274e-04
-9.651363e-04
1.335096e-02
-8.088941e-03
-8.886707e-03
6.181458e-03
-1.495316e-02
-2.444631e-02
-2.180579e-02
-3.034894e-02
-2.839619e-02
-2.843973e-02
-1.525609e-02
-7.610756e-04
-1.658028e-02
-1.163718e-02
-1.014760e-02
-4.052776e-03
-1.309785e-02
-2.648669e-02
-1.813528e-03
-7.103432e-03
-1.973295e-02
-4.026311e-03
-1.602245e-02
-4.439009e-03
-3.193513e-03
-9.417965e-03
-4.015123e-03
1.079619e-02
-1.344830e-02
3.111561e-03
-9.434160e-04
4.139440e-03
1.107892e-02
1.156243e-03
6.420955e-03
2.124895e-02
-4.173816e-03
1.140195e-02
1.111978e-02
1.772044e-03
-3.134288e-03
-1.185731e-02
-3.142701e-05
-9.463492e-03
-6.460270e-03
-1.331695e-03
-1.261991e-03
6.043993e-04
-4.115207e-03
2.431138e-03
-4.115270e-03
-7.382240e-04
-1.337438e-02
-1.421538e-02
-1.518982e-02
-1.512231e-02
-1.116659e-02
-1.330203e-02
-3.009551e-02
-2.192383e-02
-1.889358e-02
-8.433835e-03
-7.223846e-03
-7.040879e-03
1.444103e-02
1.271130e-02
-2.589703e-03
3.393594e-03
-1.915593e-02
-2.422765e-02
3.904114e-03
3.917568e-03
-6.072146e-03
-1.173740e-02
-4.795589e-03
-1.642144e-02
2.098510e-03
1.203217e-02
1.340932e-02
-3.507078e-03
-3.386944e-03
1.176804e-03
1.196298e-02
-2.214578e-03
5.309491e-03
-1.013163e-02
-3.983668e-03
-2.903498e-03
3.607699e-04
3.341760e-03
1.021849e-03
-2.069303e-03
5.525765e-03
2.459974e-03
2.986907e-03
-4.157064e-03
-7.855734e-03
-1.829048e-03
-1.402868e-02
-4.877834e-03
-6.423632e-03
-4.302714e-03
5.208550e-04
-4.514446e-03
-7.954149e-03
3.198121e-04
-1.359248e-02
-1.354214e-02
-1.373649e-02
-1.871864e-03
-1.183678e-02
-2.225741e-02
1.649650e-02
2.025228e-02
3.168849e-02
-2.215349e-03
-6.270154e-04
1.031652e-02
-9.094308e-03
-1.525628e-02
6.547429e-03
-2.947894e-03
4.495033e-03
1.563100e-02
-4.391555e-03
-3.266281e-03
2.252003e-03
2.078075e-03
-4.050303e-03
5.492037e-03
-4.947222e-03
1.500624e-02
-1.270905e-03
-1.674033e-03
2.265429e-03
-2.076392e-02
8.225413e-03
7.299342e-03
-1.158124e-02
-1.271361e-02
-4.450059e-03
1.364933e-02
-1.323961e-03
6.971599e-03
1.338524e-02
-4.735318e-05
3.857928e-03
-2.103344e-03
2.886842e-03
-3.514911e-03
-1.006895e-02
4.250018e-04
-3.136544e-03
-8.407313e-03
-5.506611e-03
-3.862534e-03
-3.401104e-03
-2.774598e-02
-1.756659e-02
-2.556038e-02
6.902767e-03
1.829145e-02
5.484354e-03
-2.569710e-03
4.291141e-03
-3.717370e-03
-4.004309e-03
-4.348007e-03
-9.262243e-03
1.693940e-03
6.186742e-03
-2.654899e-03
-7.420848e-03
-1.877298e-03
-7.903482e-04
1.503007e-03
1.056870e-02
1.393901e-02
6.464036e-03
9.845547e-03
8.987920e-03
-4.262039e-03
-8.046761e-03
3.946685e-03
1.972634e-03
2.171711e-02
1.005748e-02
-5.187476e-03
-7.827506e-04
-1.154043e-02
-5.787881e-03
-7.466545e-03
-5.620754e-03
-3.239822e-02
-1.797521e-02
-1.920679e-02
-8.773838e-03
3.545729e-03
-5.830316e-03
-1.106531e-02
-2.188689e-03
-2.170272e-03
3.839441e-03
5.875251e-03
4.198233e-03
-1.424150e-03
-1.658520e-03
-1.529627e-02
-1.539854e-02
-5.816093e-03
-1.194995e-02
-5.491094e-04
-3.254810e-03
-2.895140e-03
3.933236e-03
1.000450e-02
8.513700e-03
-3.229164e-03
2.728014e-03
-7.228985e-03
-8.266253e-03
1.919402e-03
-6.661687e-03
-1.057912e-02
-6.621991e-03
-1.247790e-02
-9.678310e-03
-7.461357e-03
-4.615844e-03
3.367662e-04
1.196246e-02
7.730866e-03
-4.612545e-03
-5.731283e-03
-7.336413e-03
-6.806909e-03
-3.339520e-02
-1.755757e-02
-8.044073e-03
-5.110084e-03
-1.505076e-02
1.047337e-02
7.377505e-03
-2.095171e-03
4.531226e-03
-4.842568e-03
-1.340058e-02
3.487899e-03
1.025053e-02
-9.140032e-03
-1.606526e-04
-6.624360e-03
-6.162740e-03
-1.046692e-02
-1.377772e-02
-1.343476e-02
-2.154758e-02
6.368152e-03
-8.289027e-03
-2.316682e-02
-5.780544e-03
7.370484e-04
-2.403942e-02
-2.359943e-02
-6.155718e-03
-1.067332e-02
-1.287902e-03
6.358516e-03
8.728912e-05
1.066621e-02
2.116474e-02
-7.707418e-04
3.430187e-03
1.977220e-02
1.490280e-02
1.449566e-02
8.477303e-03
-6.400814e-04
9.448163e-04
-1.202717e-02
-2.469118e-02
-2.140974e-02
-1.775297e-02
-1.055444e-02
-6.349352e-03
3.543250e-02
1.408142e-02
1.437135e-02
2.289428e-02
1.247567e-02
4.303908e-03
-2.466725e-03
-8.638419e-03
-2.805074e-03
-3.746222e-03
-1.095402e-02
5.980006e-03
-1.962919e-02
-1.478936e-02
-2.275981e-03
-7.192045e-03
-1.035133e-02
-1.145845e-02
-1.630304e-02
-4.799766e-03
-9.912967e-03
-2.052086e-02
-2.452585e-03
-9.721124e-03
4.561547e-04
-1.037640e-02
-2.052107e-02
-2.314341e-02
2.140555e-04
-1.528815e-02
-1.681564e-02
-2.514124e-03
-6.108108e-03
-1.630135e-02
1.025062e-02
-1.162534e-02
-1.602406e-02
5.385724e-03
-6.477997e-03
-4.914355e-03
1.556213e-02
4.948069e-03
7.026382e-03
-7.703532e-03
3.141287e-03
9.566890e-04
-9.673764e-03
-1.319546e-02
-1.683837e-02
-4.869627e-03
-1.383032e-02
-2.078669e-02
1.496805e-02
7.808578e-03
-2.146170e-03
1.281117e-02
1.182410e-02
3.895538e-03
1.191524e-03
2.325563e-03
1.027967e-02
-7.516976e-03
1.655463e-03
-9.734471e-03
1.812520e-03
1.185493e-02
1.862469e-02
-3.277617e-03
1.057875e-02
1.728553e-02
-9.379201e-03
-4.658964e-03
2.076080e-03
-1.748865e-02
-1.361022e-02
-5.094153e-03
-1.557492e-02
-7.458188e-03
-8.550528e-03
-1.515902e-02
-1.092157e-02
-2.566808e-02
-1.169016e-02
5.414411e-04
-1.209691e-02
8.822232e-05
7.321552e-03
2.817163e-03
-2.436259e-02
-5.558863e-03
-1.541099e-02
3.032291e-04
-1.808000e-02
-1.448354e-02
1.412589e-03
-1.016935e-02
9.465770e-03
-1.274502e-02
-2.174792e-04
5.689532e-04
-2.393937e-02
-1.406307e-02
-2.119270e-02
-2.774026e-03
-1.013971e-02
-2.204058e-02
-1.087972e-02
8.787354e-03
1.295109e-02
-1.143396e-02
2.446973e-03
2.183139e-03
5.075764e-03
1.263654e-02
-7.587661e-03
5.281741e-03
1.493933e-02
1.575451e-02
7.475822e-03
7.946491e-03
8.532493e-03
2.308846e-02
8.529366e-03
-6.302950e-03
-2.138578e-02
-1.017386e-03
4.761879e-03
-2.852802e-02
-1.815069e-02
-1.146132e-02
4.317605e-03
1.619609e-03
-1.143933e-02
-1.130624e-02
-6.757011e-03
-6.664976e-03
2.863795e-03
3.486746e-03
1.772466e-02
6.535334e-03
-2.448614e-04
1.076633e-02
-1.104649e-02
-9.472598e-03
-1.406903e-03
1.620403e-02
1.705051e-02
-8.885579e-03
-1.123086e-02
1.243431e-02
-1.164346e-02
9.249412e-03
1.767264e-02
6.223416e-03
-2.426905e-02
4.344597e-03
5.211113e-03
-1.199480e-02
-2.763315e-02
-1.438232e-02
-2.590757e-02
-1.502278e-02
-1.641094e-02
-1.091716e-02
-1.027234e-02
-5.758249e-04
-2.143633e-02
-8.592417e-03
-1.064153e-02
-2.025501e-02
-1.537401e-02
-1.350336e-02
7.763742e-03
-3.764292e-03
2.332855e-03
6.832955e-03
-9.347952e-04
-1.755537e-02
-4.919762e-03
1.023843e-03
-2.359444e-02
-4.141421e-03
-1.088226e-02
-1.954943e-02
1.015084e-02
3.939783e-03
5.589754e-03
-1.542333e-03
8.481786e-03
1.642249e-02
7.984098e-03
8.606470e-03
1.350695e-02
5.410707e-03
1.201256e-02
2.025073e-02
-2.672308e-02
-3.262441e-03
-2.402131e-03
1.043613e-03
1.021656e-02
5.744675e-03
8.243559e-03
-7.306860e-03
1.209612e-02
3.103427e-03
4.049057e-03
-9.286090e-03
-6.270251e-03
-7.489523e-04
-8.242144e-03
1.221755e-02
6.581082e-03
-8.909298e-03
-3.039378e-03
-1.655430e-02
-1.467806e-03
-2.466595e-02
-3.356086e-02
-1.375452e-02
-4.120938e-03
1.907636e-02
-1.035527e-03
7.376812e-03
1.866963e-02
2.977330e-03
1.011229e-02
1.262768e-02
9.541403e-03
3.308416e-03
-9.863358e-04
-5.326585e-03
-1.229077e-02
-1.203397e-02
-2.048380e-02
6.613357e-03
-1.935572e-03
-8.051014e-03
7.518152e-03
-1.788313e-02
-7.664668e-05
-1.931664e-02
-3.384624e-03
-2.867324e-03
-2.297027e-02
-3.534585e-02
-9.482337e-03
-5.066289e-03
-1.429210e-03
-2.700451e-02
-1.070398e-02
-7.921874e-03
6.330758e-03
-5.360028e-03
-4.476958e-04
2.019363e-03
1.201214e-02
-4.381926e-03
5.531100e-04
-7.210993e-03
-5.016543e-03
-7.562829e-03
8.735945e-03
-3.571976e-03
-3.303715e-03
6.144845e-03
1.249356e-03
-3.292310e-05
1.794343e-03
1.115863e-02
1.905816e-03
-1.263540e-03
-8.174270e-03
-5.158474e-04
-1.057072e-02
-1.178293e-02
-1.410975e-02
9.986052e-04
1.465811e-03
1.348256e-02
3.171981e-04
2.046863e-02
-2.159602e-03
-1.734896e-02
-1.447210e-02
-1.976764e-02
-9.355656e-03
-1.680858e-03
-1.790455e-03
-7.728354e-03
1.527713e-02
-9.721547e-04
5.688541e-03
-3.486907e-03
-3.560876e-03
7.192211e-03
5.181036e-03
-3.425123e-03
-5.542662e-03
-1.779811e-02
-1.907894e-02
-6.584220e-03
1.541998e-02
4.443976e-03
-5.390136e-03
1.402382e-02
1.650997e-02
-1.277476e-02
8.889810e-03
1.596335e-03
-1.097417e-02
3.067975e-03
1.318903e-03
-2.371958e-02
-2.530308e-03
-2.504089e-03
5.571224e-03
1.059226e-02
7.871232e-03
2.206087e-02
3.035315e-02
2.019176e-02
2.663933e-03
-5.074582e-03
-3.008703e-03
-5.864855e-03
-8.728760e-03
-1.559367e-02
-1.118110e-02
-6.961027e-03
-1.820728e-02
-7.476058e-03
-9.140870e-03
9.019691e-03
1.151055e-02
8.017205e-03
-6.928119e-03
6.375915e-07
-1.717673e-02
-4.988347e-03
8.587465e-03
1.801819e-02
1.554284e-02
6.168707e-03
1.657781e-02
3.487951e-02
3.718161e-02
3.085474e-02
2.686511e-02
-8.353778e-03
-2.015488e-02
1.113014e-03
8.114462e-03
2.635989e-02
8.466927e-03
-1.219603e-02
7.480051e-04
-1.118389e-02
7.369990e-04
-1.150045e-04
1.453646e-02
-5.015288e-03
6.284121e-04
-5.174699e-03
1.237268e-03
-1.785546e-02
-9.800682e-03
8.295901e-04
-6.299844e-03
5.568470e-03
1.545200e-02
-1.168880e-03
-4.978969e-03
2.267518e-02
7.182023e-03
2.476473e-03
-6.838207e-04
-1.132231e-02
1.231002e-03
-1.502781e-03
-3.385532e-03
1.542301e-02
3.369054e-03
-2.597492e-03
-6.507814e-03
-3.661185e-04
-1.307268e-02
-1.053974e-02
2.023562e-03
-5.188178e-03
-1.310081e-03
-1.594264e-02
-6.004120e-03
4.553555e-03
1.293872e-02
3.146936e-03
-1.147076e-02
1.224787e-04
-2.983800e-03
-5.309722e-05
-1.343768e-02
-1.642343e-02
4.891342e-03
-1.305314e-03
-1.045539e-02
-1.504997e-02
-4.357563e-03
-5.149825e-03
7.142859e-03
-2.182299e-02
-1.718203e-02
4.660984e-03
-2.292556e-02
-1.576786e-02
-1.048092e-02
3.054525e-03
3.045555e-03
7.272450e-03
1.791942e-02
-9.746374e-03
-4.408084e-03
1.163516e-02
-1.397233e-02
-1.448619e-02
1.823201e-03
2.330391e-03
-8.850534e-03
1.239944e-02
1.570961e-02
2.675949e-03
2.741557e-02
2.264849e-02
3.086233e-02
-7.868108e-03
-5.607027e-03
2.567441e-03
-3.655169e-02
-1.040166e-02
-1.373769e-02
1.095784e-02
6.838842e-03
-1.495185e-02
1.514815e-02
9.755574e-04
-1.108086e-02
-7.716554e-03
-5.223084e-03
-1.185755e-02
-1.198794e-03
3.420647e-03
-1.936595e-02
-6.907328e-03
9.303520e-03
-5.878272e-03
1.314013e-02
9.810909e-03
-8.259148e-03
1.069803e-02
2.159934e-02
1.551660e-02
-6.670571e-03
-5.044137e-03
-3.460954e-04
-1.309225e-02
-1.091410e-02
-1.263777e-03
-4.084279e-03
-1.699604e-02
-1.431264e-02
-1.895437e-02
-3.037966e-02
-2.369196e-02
-1.695433e-04
-1.219904e-02
-1.792279e-02
-3.568267e-03
-1.265889e-02
-1.204635e-02
-1.939102e-03
-1.534525e-02
-2.190822e-04
2.063995e-02
-5.840294e-03
1.020859e-04
1.087327e-02
2.243157e-02
2.856886e-02
1.435466e-02
1.720003e-02
2.930582e-02
2.534523e-02
1.499295e-02
1.989476e-02
1.462653e-02
2.191051e-02
1.739536e-02
-1.137621e-03
2.509989e-04
7.308116e-05
8.070887e-03
-1.920437e-03
5.987430e-03
9.658771e-03
1.626236e-02
1.261697e-02
6.936762e-04
3.129426e-03
1.186546e-02
-1.207845e-03
-2.666549e-02
-2.462116e-02
-2.423757e-03
5.685052e-03
3.935020e-03
1.096661e-02
-9.772332e-04
8.418684e-03
3.382448e-02
1.763294e-02
3.417421e-02
-2.032077e-02
7.782048e-04
-3.323910e-03
-1.802760e-02
7.676799e-03
6.453826e-03
-2.764318e-02
-3.492615e-03
-4.779965e-03
-1.833868e-02
3.268327e-03
-1.739372e-02
-4.223682e-02
-7.568899e-03
7.939044e-03
-3.524337e-02
-2.798420e-02
-9.533889e-03
8.767507e-03
7.830499e-03
-9.334965e-03
6.469951e-03
7.353160e-03
-2.106663e-02
1.962787e-02
-1.665090e-02
-2.431087e-02
-8.079003e-03
-1.568250e-02
8.477787e-03
-4.810429e-03
-1.822325e-02
3.313535e-04
-6.544408e-03
-1.294124e-02
-1.670253e-02
-9.644767e-04
-1.373993e-02
-7.953579e-03
-1.762008e-03
2.704286e-03
-1.058728e-02
3.241237e-03
1.045769e-02
-4.525090e-04
-1.543017e-02
-1.026723e-02
1.334206e-02
-5.939330e-03
1.281722e-03
1.665766e-02
-2.021187e-03
1.660377e-02
1.781893e-02
-1.240391e-03
8.952872e-03
-2.296748e-03
-1.442454e-02
-9.627334e-03
1.123905e-02
9.446341e-03
-6.887630e-03
-2.405646e-02
7.389689e-03
5.004355e-03
1.096493e-02
-7.569459e-03
7.462883e-03
1.690357e-02
-4.752321e-03
-1.025834e-02
8.805292e-03
-5.795299e-03
6.163635e-03
-7.294800e-03
-1.810266e-02
-1.626919e-02
-2.074232e-02
7.501613e-03
-1.549836e-02
-1.656023e-02
2.861821e-02
1.360706e-02
-5.306589e-03
3.390849e-02
3.324583e-03
-3.044615e-02
9.685657e-03
1.383460e-02
-1.879419e-02
-3.961112e-03
3.213153e-03
7.792530e-03
-3.631110e-03
-7.933890e-03
5.614852e-03
5.074047e-05
-2.885270e-03
1.375713e-02
-3.903249e-03
-1.185153e-02
3.965026e-02
2.961946e-02
1.745684e-02
2.932631e-02
-4.049818e-03
-3.586674e-03
3.346088e-02
-2.288287e-03
-4.261422e-02
-1.763970e-02
-1.880325e-02
-3.648803e-02
6.421873e-04
-1.022243e-02
-1.499424e-02
2.130179e-02
-4.875944e-03
-2.652835e-03
-1.967075e-03
-5.965811e-03
2.524356e-03
4.939099e-03
-9.046271e-03
4.010088e-02
5.381207e-02
-2.412567e-04
6.385900e-03
7.403943e-03
5.088869e-03
-1.585242e-02
-7.982261e-03
-5.252979e-03
-3.468383e-02
-2.687659e-02
-1.676459e-03
-1.049850e-02
-2.284660e-02
3.520747e-03
6.130590e-03
1.027498e-02
-2.251783e-02
2.215218e-03
4.333056e-02
-1.049881e-02
-2.234301e-02
-2.023439e-02
-2.049148e-03
-3.607331e-03
-2.203248e-02
-4.203552e-03
1.250969e-02
1.613193e-02
9.079536e-06
2.957748e-02
-1.308714e-02
-1.090845e-03
-8.327377e-03
-1.480629e-02
2.642823e-02
8.117950e-03
3.892767e-03
-3.540868e-03
-1.476012e-02
-1.076798e-02
-8.777588e-04
-3.655535e-04
1.369283e-02
4.025517e-03
-8.009245e-03
2.339216e-04
-1.134868e-02
-4.343131e-02
-5.743338e-03
1.866798e-02
-4.530847e-03
6.132491e-04
2.273254e-02
-2.688466e-03
3.795944e-03
3.608217e-02
4.850221e-03
-2.296389e-02
1.334551e-02
-8.425124e-03
-6.266819e-03
-2.546528e-02
3.437717e-03
7.718188e-03
2.924270e-02
5.011209e-02
3.736753e-02
-6.322515e-03
-6.194753e-03
-7.181348e-03
-3.122314e-02
-1.778720e-02
9.096473e-03
2.138814e-02
2.008837e-02
2.941533e-02
-8.378456e-04
-1.080938e-02
-2.039549e-03
-4.200272e-03
-1.120255e-02
-5.096666e-03
-1.710178e-02
-2.979889e-02
-1.913753e-02
-5.487163e-03
1.262397e-02
9.488164e-04
6.267418e-03
-2.169395e-03
-9.232743e-03
-1.241420e-02
6.928945e-03
2.403595e-02
-1.410833e-02
2.838660e-03
-1.251016e-02
-4.065733e-03
4.845875e-03
-1.114471e-02
-8.480309e-03
-9.109322e-03
-1.089317e-02
1.264110e-02
-6.904028e-03
-7.924733e-03
2.094341e-02
-1.753925e-02
-1.000785e-02
1.821359e-02
-7.489298e-03
-1.395987e-02
1.913139e-02
4.482326e-03
-2.729531e-02
5.235269e-03
-1.232972e-03
3.354510e-03
-6.832520e-03
-6.965976e-04
-2.528773e-02
-2.362591e-02
-6.084968e-03
-1.435911e-02
-1.360127e-02
-5.475580e-04
-7.294549e-03
1.771255e-02
1.395871e-02
-7.613155e-03
-1.374726e-02
1.892242e-02
1.781183e-03
1.113858e-02
2.606792e-04
3.944534e-03
1.845967e-02
-1.014430e-02
-2.441570e-02
-7.670867e-04
-2.150564e-03
-7.732828e-03
4.399821e-03
1.171222e-02
3.944228e-03
5.288960e-03
2.568127e-03
4.216347e-03
2.479319e-02
2.034873e-02
-1.110331e-02
-1.276265e-03
5.196613e-03
-2.265271e-02
-6.337441e-03
1.319971e-02
2.555693e-02
-1.921169e-02
-6.651684e-03
1.255909e-02
-1.811492e-02
5.641282e-03
-4.271999e-03
-9.172880e-03
3.033578e-02
-2.178547e-02
2.907246e-03
7.730362e-03
-1.790325e-03
2.920051e-03
-1.598127e-02
-7.490713e-03
-1.891126e-02
6.141348e-03
3.654766e-02
3.429831e-03
-1.866445e-03
4.898768e-03
1.176404e-02
-1.128478e-02
-1.847424e-03
8.348049e-03
1.471701e-02
4.481321e-03
-5.256583e-03
6.147208e-03
-8.530409e-03
2.182315e-03
1.199074e-02
5.748991e-03
1.559157e-02
1.837975e-02
-9.852176e-04
-8.085494e-03
1.271437e-03
-1.624023e-02
-7.916406e-03
-2.250704e-03
-7.053889e-03
4.330457e-02
3.947606e-03
-7.472225e-03
2.576430e-02
7.916859e-03
-4.375588e-03
3.037485e-03
-1.074795e-02
-1.363899e-02
1.998140e-03
-6.924456e-03
-7.510939e-03
3.155247e-04
3.152884e-03
7.267178e-03
-3.608993e-03
-7.034956e-03
8.417779e-03
2.782149e-03
1.616513e-02
7.092894e-04
9.958665e-04
1.064354e-03
-1.481632e-02
1.357500e-02
-4.705058e-03
-1.181927e-02
-1.800045e-03
-7.496866e-03
-1.492113e-02
1.311564e-02
1.460142e-02
-9.770564e-03
1.432220e-03
3.743258e-02
-5.882816e-03
2.146333e-02
2.779891e-02
9.077067e-03
3.039449e-02
-2.263476e-03
-3.347727e-02
4.632138e-02
4.167287e-03
-2.957682e-02
6.024545e-03
-7.386115e-03
1.246573e-02
1.931024e-02
5.761231e-03
1.303574e-02
2.207315e-02
4.118590e-03
-2.004892e-02
-1.001577e-02
-1.693714e-02
-2.892744e-03
-2.088719e-04
-6.656893e-03
-6.174655e-03
-1.929483e-02
-8.936449e-03
-1.028352e-02
-2.075492e-02
1.814719e-02
2.717401e-02
9.323745e-03
1.310900e-03
-1.469339e-02
5.148863e-03
1.957432e-03
-8.993052e-03
-3.976051e-03
1.139858e-02
1.101272e-03
-7.964402e-03
-7.388828e-03
3.864266e-03
-8.440949e-03
-2.580061e-03
-3.108076e-02
-2.447786e-02
5.091744e-03
1.843758e-02
-2.760366e-04
-7.168832e-03
7.509533e-04
-9.998580e-03
8.144746e-03
-1.124777e-02
-8.835454e-03
-2.587830e-02
2.945093e-02
-2.917973e-02
-2.439941e-02
1.119280e-02
-2.708939e-02
-1.659616e-02
-3.956746e-03
7.105299e-03
5.749153e-03
-1.449726e-02
-1.832265e-02
1.138694e-02
1.070067e-02
1.081750e-02
2.775616e-03
1.650385e-02
-1.848440e-02
-4.152333e-03
9.941711e-03
-2.891723e-02
-2.489570e-02
-2.149011e-02
-5.716466e-04
5.090955e-03
-6.276759e-03
-1.428931e-02
-2.042620e-02
-6.105273e-03
-1.688785e-02
-1.938865e-02
1.893103e-02
-1.325877e-02
-7.563698e-03
1.007983e-02
5.346360e-04
-7.338378e-03
-1.488033e-02
-8.347297e-03
-2.194031e-02
-2.381172e-02
-5.562558e-03
8.394388e-04
-1.665205e-02
-1.504785e-02
-8.055771e-03
-8.288311e-03
-1.964585e-02
-2.002457e-02
-2.715563e-02
-4.052171e-03
-3.328508e-03
8.341202e-03
2.688692e-02
-6.777373e-03
-4.372820e-02
9.767232e-03
-2.370233e-03
-1.693247e-02
-2.091816e-02
-1.295882e-02
1.618914e-02
-4.123613e-04
1.334911e-02
1.213554e-02
-2.204950e-02
-1.264239e-02
-2.594601e-02
-1.499867e-02
7.631071e-03
-1.187794e-02
-2.455328e-03
-7.017631e-03
-7.919108e-03
-1.969404e-02
-1.123972e-02
-1.619786e-02
-2.518927e-02
-1.412503e-02
-1.505872e-02
-4.471808e-03
-2.010104e-02
5.144825e-05
-9.770153e-03
-2.004438e-02
-1.166216e-02
-6.728299e-03
8.775527e-03
1.930550e-02
1.216121e-02
2.546600e-03
-4.985064e-03
3.707223e-03
1.017744e-02
-2.298645e-03
3.270749e-03
7.714606e-03
8.488787e-03
-7.002154e-03
-1.239302e-02
-1.830843e-02
-1.234118e-02
-8.621179e-03
-1.266786e-02
-1.910604e-03
-6.836430e-03
-1.408375e-02
4.769983e-03
-5.622176e-03
-8.569985e-03
3.300042e-03
-2.451240e-02
-1.049478e-02
1.738483e-02
7.732370e-03
2.809360e-02
-8.773735e-03
1.865184e-03
-8.026058e-04
-2.896359e-02
-2.134915e-02
-2.821231e-02
2.292742e-03
1.332535e-02
-6.483879e-03
-2.632027e-02
-9.715833e-03
3.447441e-02
-1.553975e-02
-1.684965e-02
1.562487e-02
-6.124012e-03
1.736963e-03
1.507378e-02
3.896405e-02
1.486436e-02
1.282605e-03
3.121496e-03
-1.182232e-02
-4.453535e-03
-7.873616e-03
-6.758027e-03
-3.311390e-03
-1.584779e-02
-2.411295e-02
-1.641988e-02
7.664392e-03
-8.012790e-03
-2.457748e-02
-1.383526e-02
-2.052044e-02
-2.022865e-02
3.761300e-03
-1.096036e-02
-2.414118e-02
-1.666643e-02
-9.940417e-03
-1.264114e-02
-2.702582e-02
-1.860618e-02
-3.168374e-02
-4.919184e-03
-1.352107e-02
-8.183709e-03
4.095556e-03
8.394440e-03
-1.071513e-02
-3.408995e-02
-1.641020e-02
9.431973e-03
5.197431e-03
-8.333455e-03
4.322581e-03
6.953076e-03
-1.238878e-02
-1.418131e-02
-5.531158e-03
-2.826053e-02
-1.053555e-02
1.841000e-02
1.042615e-02
-1.111919e-02
-4.041873e-03
-7.319673e-03
-1.016506e-02
3.091381e-02
2.052330e-02
5.376764e-03
7.549138e-04
-4.023315e-02
-1.609132e-02
-3.629750e-03
-1.635364e-02
-1.475925e-02
-4.394974e-03
6.078544e-03
6.678645e-03
-1.333307e-02
-1.148229e-02
-1.584177e-03
-4.303145e-03
-2.089916e-03
1.470991e-02
-4.497506e-04
-8.728290e-04
1.260508e-02
1.218964e-02
-3.150585e-03
-7.366810e-03
2.910009e-02
3.529252e-02
1.839832e-02
-4.296419e-03
8.147443e-03
-9.671183e-03
-1.443934e-02
1.279660e-02
-2.709536e-03
-1.298470e-02
7.776024e-03
-1.894650e-03
-1.769532e-02
-1.479030e-02
-2.194204e-02
1.501156e-02
2.365917e-02
2.887431e-03
1.147470e-02
1.808482e-02
-2.895387e-02
6.725794e-04
3.427145e-03
-1.188314e-02
-2.950028e-02
-7.589191e-03
-7.136230e-04
3.677908e-03
1.185858e-02
-9.447277e-04
3.935138e-03
1.788502e-02
-1.331609e-02
-1.239919e-02
3.567516e-02
-8.967968e-03
-2.084797e-02
-8.439071e-03
-4.720250e-03
-1.184731e-02
-2.788184e-02
-9.397662e-03
7.007410e-03
1.671903e-03
-6.093428e-03
-5.604225e-03
-1.622900e-02
-3.421620e-02
-6.896282e-03
-1.539680e-02
-2.074500e-02
5.649573e-03
-7.203139e-03
-8.214926e-03
-8.847406e-03
-2.205941e-03
4.538706e-03
-1.438955e-02
-3.011771e-02
-1.679631e-04
-3.384913e-03
-8.927760e-03
1.582516e-02
2.052989e-02
-1.245656e-02
3.741937e-03
-6.621100e-03
-1.888100e-02
-5.149172e-03
-1.972800e-02
1.409298e-02
-1.417414e-03
-1.642518e-02
5.076808e-03
-2.803204e-04
-2.467818e-02
-9.634746e-03
-5.190472e-03
1.747332e-02
2.620328e-02
-9.041417e-03
1.068703e-03
1.503922e-02
7.530151e-03
-1.133284e-03
-3.223682e-03
6.825153e-03
3.288590e-04
-2.698175e-03
-9.884231e-03
1.287420e-02
-4.480761e-03
-1.293239e-02
1.756022e-02
-1.305181e-02
-1.287938e-02
-7.728369e-03
-1.473364e-02
-1.587933e-02
-1.415371e-02
-3.707762e-02
-6.078545e-03
-1.455902e-02
-3.137372e-02
1.746722e-03
1.797990e-02
2.101618e-02
-2.937885e-03
-6.962623e-04
-4.886893e-03
3.647256e-03
-2.080427e-02
-1.624280e-02
-6.612167e-03
-1.150996e-02
6.162648e-03
-4.549816e-03
-1.505060e-02
1.327351e-02
8.366149e-03
-7.134532e-03
6.576885e-03
-1.096488e-02
2.277073e-02
4.946214e-02
9.090430e-03
-1.070257e-02
-6.060799e-03
-7.577743e-03
-1.426173e-02
-8.508264e-03
1.105200e-02
-1.977676e-02
-5.638468e-03
3.571131e-03
-4.920900e-03
-6.714996e-04
9.806573e-03
-2.826485e-02
-2.505918e-03
2.261682e-02
-1.412002e-02
-1.468038e-02
-1.946963e-02
-2.800854e-03
-1.354042e-02
1.086382e-02
3.143722e-03
-6.207817e-03
1.749624e-02
2.490456e-03
4.406401e-02
3.839890e-02
1.756859e-02
2.077574e-02
3.026046e-03
-1.149981e-02
-1.747682e-02
1.476540e-02
-1.474943e-02
-1.362625e-02
2.372163e-03
-1.171646e-02
-1.478511e-02
-9.471881e-03
-8.251451e-03
-1.146497e-02
6.876040e-03
-9.686319e-03
6.939585e-03
3.343200e-02
-2.826774e-02
8.394375e-03
-9.793026e-03
5.037212e-04
1.868194e-02
-1.705091e-02
-6.805431e-03
1.534796e-02
1.658957e-02
-2.640254e-02
1.143403e-02
-6.345705e-03
-2.201024e-02
1.011125e-03
2.977746e-03
1.359708e-02
1.133786e-02
1.235341e-02
8.239590e-03
1.902880e-03
1.737220e-02
2.290024e-02
1.991040e-02
2.334166e-02
1.866375e-02
1.963158e-02
-9.650212e-03
-2.030302e-02
-2.706409e-02
2.495489e-03
-1.669237e-02
-2.940744e-02
-3.692516e-02
5.723183e-03
8.283191e-03
1.291881e-02
-2.354929e-02
-1.572577e-02
2.101271e-03
-5.653635e-03
1.735294e-02
4.506708e-03
-1.695588e-02
8.192624e-03
-1.875182e-02
-1.764196e-02
-1.653239e-02
-1.621989e-04
-1.498807e-02
-1.138343e-03
4.109450e-03
2.006316e-03
1.495260e-02
1.479199e-03
-2.163034e-02
3.148300e-03
-6.505613e-03
-1.238086e-02
-1.889475e-02
-2.513895e-02
1.065169e-02
-7.588616e-03
-4.018969e-03
3.470741e-02
7.765434e-03
-1.915554e-02
-1.342913e-02
7.576942e-04
-1.951031e-02
-1.544266e-02
6.205091e-03
2.009176e-02
5.497181e-04
-2.497932e-02
-1.391624e-02
1.214537e-02
2.399363e-03
-4.602502e-03
-2.433977e-02
-8.988524e-03
-1.808333e-02
-4.325245e-03
1.225826e-02
-9.972515e-04
-1.017590e-02
7.539502e-02
9.279394e-03
-8.384940e-03
2.608558e-03
-2.146334e-02
-1.212044e-02
-1.488021e-02
-1.240579e-02
-1.980702e-02
1.175828e-03
-1.253576e-02
1.438609e-02
6.978098e-04
-3.217683e-03
4.323833e-02
1.018056e-02
2.590073e-02
4.115296e-02
2.070929e-02
5.685400e-03
1.042401e-02
-8.293089e-03
-8.356942e-03
-1.148899e-02
-4.827590e-03
-4.014987e-03
-5.924778e-03
-2.161703e-02
-1.439817e-02
-1.800219e-02
9.531127e-03
-1.190583e-02
-7.523481e-03
1.419464e-03
-6.328749e-03
1.761091e-02
-1.188672e-03
-1.590835e-02
2.579245e-02
1.563239e-02
-2.913103e-03
-7.646061e-03
-1.836623e-03
-2.074565e-02
-1.134164e-02
-5.717792e-03
8.245518e-04
-2.317563e-02
-2.229720e-02
-2.321702e-02
1.107632e-03
-1.261910e-02
-1.110190e-02
1.581004e-02
-1.755591e-02
-6.226079e-03
3.596014e-03
-5.451223e-03
2.117743e-02
1.805982e-02
6.479662e-03
-1.783829e-02
-1.546177e-02
-1.290172e-02
-7.810100e-03
-2.846195e-02
1.846766e-02
-5.292252e-03
-1.027053e-02
4.494026e-03
-1.547509e-02
1.088204e-02
1.220777e-02
7.382297e-03
-6.233435e-03
-7.176808e-03
-2.260251e-02
-7.072972e-03
2.012590e-02
-1.523320e-02
8.371183e-03
2.724207e-03
-1.582788e-02
-2.211624e-02
-1.530887e-02
-1.087804e-02
2.210318e-02
-1.436255e-03
-1.492765e-03
9.379005e-03
-1.064688e-02
-1.520331e-03
-6.953185e-03
-6.581272e-03
-2.171176e-03
-1.625639e-02
3.792593e-03
-9.514937e-03
9.420006e-03
3.516524e-02
-2.541872e-02
5.912439e-03
-1.209902e-03
-2.551802e-02
-7.727939e-03
1.530336e-02
-5.785473e-03
1.852002e-02
4.200034e-03
4.875944e-03
1.424646e-02
-2.258347e-02
-3.682598e-02
1.149738e-02
3.928214e-02
-3.054387e-02
1.232977e-02
-8.228499e-03
-2.152737e-02
2.432678e-03
-1.789459e-02
2.078929e-02
4.948025e-02
-7.820341e-03
2.930861e-02
1.062634e-03
-2.376890e-02
1.934764e-02
-6.490734e-04
-3.649050e-03
-1.936568e-02
-2.050507e-02
-3.483970e-02
-2.109355e-02
4.372951e-03
-1.662525e-02
-4.129075e-03
-1.980107e-02
-1.592080e-02
-1.402396e-02
-1.874310e-02
6.443598e-03
7.902797e-03
-2.089232e-02
6.191247e-03
-9.193285e-03
-9.637981e-05
-1.438812e-02
4.661341e-03
-9.857470e-04
-8.541469e-03
3.331573e-02
9.454750e-03
7.159913e-03
-8.197491e-03
-2.698597e-03
-3.033523e-03
-8.420506e-03
2.686878e-03
3.805896e-03
-1.690251e-03
-6.792816e-03
-1.486333e-02
-1.338474e-02
-3.246974e-02
-4.020550e-04
-1.659399e-03
2.335530e-02
1.740959e-02
-6.326004e-03
1.417338e-02
1.260826e-02
-1.208311e-02
-2.125285e-02
-1.090899e-02
-9.104731e-03
-2.343333e-02
-2.001406e-02
-1.002649e-02
1.615722e-02
4.733729e-03
5.357100e-03
-1.888747e-02
-7.241920e-03
-9.303147e-03
2.917179e-03
1.408464e-02
1.609358e-02
8.091755e-03
1.771049e-02
1.529569e-03
-1.398476e-02
-3.549629e-02
-2.054083e-02
1.079869e-02
2.540366e-02
9.789407e-03
-6.228520e-03
1.310552e-02
-2.414417e-03
5.937668e-03
-2.198156e-02
1.387671e-02
1.968334e-02
2.531029e-03
4.219200e-03
-1.379871e-02
-1.363039e-03
-1.193411e-03
-6.310953e-05
-3.323068e-04
7.244974e-03
-7.642043e-03
-1.561376e-03
5.905972e-03
-7.350965e-03
-2.649413e-03
-1.959062e-03
-1.330488e-02
-1.575380e-02
-1.721858e-02
1.299941e-02
-7.954207e-03
-2.013679e-02
1.171499e-02
-3.368463e-02
-2.843641e-02
-3.229007e-04
1.561424e-03
6.875914e-03
4.924754e-03
7.987626e-03
-9.841493e-03
-1.784737e-02
5.701820e-03
1.414042e-02
-5.812839e-03
-8.736667e-04
-9.653768e-03
2.709972e-03
1.327536e-02
3.189839e-03
-1.903436e-02
-7.181775e-03
-1.301335e-02
3.750617e-02
1.549786e-02
-1.717201e-03
1.288366e-02
-2.357932e-03
-5.845792e-03
-7.990961e-03
-1.279875e-02
5.159526e-03
-1.114432e-02
-4.362733e-03
-1.064890e-03
-9.514937e-03
-1.027463e-02
2.868248e-03
1.450242e-03
-6.413698e-03
3.729950e-03
-6.733303e-03
3.665215e-03
1.587529e-02
8.262292e-04
7.617071e-03
4.977453e-03
-1.233023e-02
-3.546303e-03
-5.440463e-03
-8.593533e-04
4.565196e-03
6.235201e-03
-8.224844e-03
1.077414e-03
-8.849652e-03
-4.295753e-03
-1.003527e-02
-2.122710e-02
8.969711e-03
-1.168949e-02
-2.706563e-02
2.925999e-03
-1.648623e-02
-2.266935e-02
-9.046339e-03
-9.461390e-03
-9.551883e-03
2.050379e-02
2.595114e-02
-8.512371e-03
-1.333762e-02
-2.031423e-02
-4.809752e-03
-2.958178e-02
-1.464243e-02
1.890079e-02
-5.961916e-04
2.214957e-02
1.078595e-02
-1.467064e-02
5.086527e-03
1.504977e-02
-2.207796e-02
-1.102510e-02
1.062768e-02
2.321268e-02
1.826875e-02
-3.151924e-03
1.308834e-02
1.109876e-03
-9.714709e-03
-1.142751e-02
-1.385698e-02
-2.324327e-02
1.328656e-02
5.780281e-03
2.907291e-03
1.585447e-02
8.095609e-03
5.350380e-03
-1.390258e-02
-1.314264e-02
3.585809e-03
-2.035024e-02
-2.260203e-02
-1.385231e-02
-2.092931e-02
-3.005778e-02
-1.702496e-02
-1.243011e-02
-2.092815e-02
-2.212307e-02
3.042745e-03
-1.115692e-02
-1.602580e-02
3.757198e-03
-6.269376e-03
-1.872690e-02
-3.233906e-03
1.391752e-02
-9.832348e-03
2.625885e-02
1.181602e-02
-1.488004e-02
-1.044938e-02
-2.132241e-02
-3.065967e-02
-2.126319e-02
-1.987618e-02
-3.225093e-02
-2.359715e-02
-1.605389e-02
-2.730873e-02
-4.881344e-04
-3.079547e-03
-1.001520e-02
1.934131e-02
4.500593e-03
1.483004e-02
-2.113103e-02
-2.036443e-02
1.176706e-02
-1.821319e-02
-1.223322e-02
1.289470e-02
-1.135490e-02
-7.588446e-03
1.898967e-02
-2.881769e-02
-5.908656e-04
4.054962e-04
-4.150491e-02
-2.159155e-03
1.668555e-03
-2.655380e-02
-6.126858e-03
-2.126796e-02
-1.314756e-02
-4.340375e-03
-7.536986e-05
5.247086e-03
1.246292e-02
1.204251e-02
2.325328e-03
9.111385e-03
8.496616e-03
-1.858931e-02
-1.404528e-02
-1.146398e-02
-2.689718e-02
-1.339182e-02
-1.463528e-02
1.711920e-02
1.480762e-02
-5.970833e-03
-4.718337e-03
-8.399655e-03
1.260677e-02
-5.609395e-03
1.307031e-02
2.493526e-02
1.378004e-03
4.640762e-04
8.218977e-04
-1.647761e-02
-5.475938e-03
-1.187914e-03
1.290028e-02
7.249329e-03
-6.758943e-03
-6.796382e-03
2.872893e-03
-2.368825e-02
8.459814e-04
1.795579e-02
1.701294e-03
1.139577e-02
8.124922e-03
9.492246e-03
4.268017e-03
3.261324e-03
1.111435e-03
5.925875e-03
-1.598836e-03
3.559524e-03
6.890174e-03
-1.448162e-03
-1.801047e-03
9.200691e-04
3.122527e-04
-4.655043e-03
-1.565997e-02
9.558793e-03
-1.118966e-02
-1.543612e-03
7.786128e-03
1.433007e-03
6.009120e-03
4.153207e-03
1.665952e-02
-1.123493e-02
-3.965885e-03
3.463618e-03
-1.393473e-02
3.718404e-03
1.571236e-02
-2.625709e-02
-1.229633e-02
3.122589e-03
-1.120239e-02
-9.265569e-03
1.683689e-02
-2.763130e-04
-6.598125e-03
-1.386159e-03
4.072048e-02
1.170049e-02
1.180283e-02
-2.270476e-03
-8.794970e-03
8.359778e-04
1.241955e-02
1.081955e-03
-1.915731e-02
-2.163002e-03
1.361680e-03
-2.189421e-02
5.590582e-03
-1.055554e-02
-1.731021e-02
-1.336182e-02
-1.463267e-02
-9.767413e-03
-8.183415e-03
1.060129e-03
3.465844e-03
-4.662473e-03
6.907215e-03
-8.512667e-04
-2.011020e-02
-4.946768e-03
-2.106590e-03
-2.276015e-02
-1.492265e-02
1.960742e-02
1.417755e-02
1.946712e-02
5.819034e-03
9.859726e-04
2.044136e-02
1.128881e-02
2.123247e-03
-5.214602e-03
-1.437407e-02
4.879553e-03
-1.277617e-02
9.685270e-04
4.233615e-03
8.391063e-03
2.670617e-03
-1.456084e-02
-1.355874e-02
-7.929134e-03
-9.792702e-03
4.066823e-03
-3.575096e-03
-9.196115e-03
-3.104583e-03
-4.949411e-03
4.105963e-03
-3.913436e-04
1.356133e-03
7.806948e-03
-1.625396e-02
6.095777e-03
1.539302e-02
1.280650e-02
-8.251945e-03
1.805932e-02
1.964215e-02
-2.035063e-02
1.661718e-03
2.811317e-03
3.617142e-03
1.731337e-02
9.533897e-03
-1.952266e-04
1.124499e-02
4.975394e-03
8.102484e-03
-5.740736e-04
-1.839158e-02
-6.508589e-03
3.455909e-03
-1.088279e-02
-1.105159e-02
-5.684420e-03
-1.193594e-02
-2.904328e-03
-1.461113e-02
-7.834521e-03
1.369727e-02
-5.360727e-03
1.353150e-04
-1.507510e-03
-1.460824e-02
2.427675e-04
5.049857e-03
2.677581e-03
1.502470e-02
1.654018e-02
-2.444763e-03
1.477419e-02
1.967467e-03
1.443687e-02
-1.753573e-03
5.504418e-03
1.677824e-02
-6.733178e-03
-1.379075e-02
-1.367220e-02
-6.580929e-03
-8.801731e-03
-3.498556e-02
-1.335919e-02
-1.140240e-02
1.891684e-02
2.432487e-02
-2.838120e-03
-7.958998e-03
1.318484e-02
-7.451210e-03
-3.225014e-02
-1.721522e-02
-1.080565e-02
-1.579769e-02
-1.924425e-02
-1.956636e-02
-3.047380e-03
-1.775736e-02
6.087826e-04
2.280700e-04
4.985736e-03
2.026410e-02
6.009615e-03
1.969219e-02
3.080314e-02
-6.835550e-03
-4.839337e-03
-8.272578e-03
-7.609281e-04
1.151059e-03
1.084150e-02
-1.998164e-02
-2.648494e-02
3.380525e-03
1.167772e-02
-3.669837e-03
-1.419815e-03
1.469148e-02
1.744473e-03
-1.474338e-02
-3.443608e-02
-1.698770e-02
-1.397020e-02
-1.846544e-03
-9.390582e-03
-1.790725e-02
5.250185e-02
3.783306e-02
2.617302e-02
1.896740e-02
1.051944e-04
-2.925853e-03
1.967590e-02
-2.687532e-03
7.292439e-04
-3.073386e-03
-1.020285e-02
-2.098540e-02
3.119849e-02
1.137195e-02
9.215218e-03
-6.632490e-03
3.751776e-03
1.940239e-03
-2.561331e-02
7.661296e-03
9.050255e-03
1.595127e-02
1.608299e-02
1.354934e-04
-1.990527e-03
-2.018937e-03
-4.737051e-03
-6.603295e-03
4.567150e-03
7.972963e-03
9.352068e-03
3.050824e-04
-2.125340e-02
7.624316e-03
-1.371232e-03
-8.630008e-03
-1.905474e-02
-7.018435e-03
4.104465e-03
-2.823909e-02
-1.900258e-02
-6.759740e-03
-1.454663e-02
-4.669948e-03
-5.311329e-03
-1.311303e-02
-4.265237e-03
-2.157978e-03
7.058411e-03
3.911346e-04
-2.810830e-02
-5.894064e-03
9.376595e-03
-4.703300e-03
-1.417670e-02
-9.900304e-03
-5.153405e-03
-1.271833e-02
2.146514e-02
-4.036212e-04
1.635901e-02
2.430537e-02
-1.618871e-02
7.440349e-03
-4.800505e-04
1.833016e-04
-2.157760e-02
-5.088707e-03
1.913260e-02
-2.560897e-02
-8.367686e-03
2.796409e-02
-1.553595e-02
-9.685170e-03
1.794933e-02
-1.530529e-02
2.683268e-03
4.146144e-03
-1.462796e-02
-1.124964e-02
-1.821012e-02
1.290750e-02
1.491692e-03
1.877468e-02
2.154110e-02
-1.852912e-02
-6.959866e-03
1.244295e-02
5.974418e-03
-7.982749e-03
1.695217e-02
2.264033e-02
-1.209674e-02
-2.006660e-02
-1.877175e-02
2.388056e-04
3.517236e-03
-4.424723e-03
1.284918e-03
6.766982e-03
-6.477008e-03
2.748767e-03
-1.328413e-02
1.153907e-02
-4.855313e-03
-4.810840e-03
1.465919e-02
1.077223e-02
2.046061e-03
1.952311e-02
1.574032e-02
3.514782e-02
-1.015521e-02
-9.755963e-03
1.126292e-02
8.846897e-03
-7.759787e-03
-1.407227e-02
-1.395227e-02
-2.087237e-03
-1.839094e-02
-1.771321e-02
-8.410932e-03
-1.314056e-02
-2.186201e-03
3.145557e-03
2.712457e-02
9.327210e-03
-4.097366e-03
1.625014e-02
4.610058e-03
1.517597e-03
1.500891e-02
-9.548228e-03
-2.311306e-02
-1.577911e-02
-6.586927e-03
-6.215054e-03
1.473969e-02
-7.619960e-03
-8.379932e-03
2.150531e-02
-1.004559e-02
1.116032e-02
-8.688180e-03
-8.216478e-03
2.856808e-02
1.197141e-02
-3.904532e-03
-1.529242e-02
2.691035e-02
2.038453e-02
3.779414e-03
2.938612e-03
-4.204301e-03
2.152320e-03
-2.618290e-02
-2.297963e-03
9.803086e-03
-1.183469e-02
-4.705417e-03
3.031398e-03
9.414486e-04
-6.872624e-03
7.474727e-04
-8.009475e-03
-9.448915e-04
-1.365085e-02
-3.422711e-03
-4.533081e-03
-9.215041e-03
6.714434e-03
1.079305e-02
1.322849e-02
1.613580e-02
6.536951e-04
-1.245020e-02
-5.887344e-03
-5.142638e-03
-1.578430e-02
2.220886e-02
-3.497127e-04
-1.122316e-02
1.692901e-02
2.753437e-02
-1.252746e-02
2.804725e-02
4.923243e-03
-1.348370e-02
1.781221e-02
6.127163e-03
-7.047358e-03
9.268077e-03
-3.383526e-03
1.450702e-02
2.628786e-03
6.935641e-04
3.388073e-02
-6.639069e-03
-1.519229e-03
1.196236e-02
-1.053180e-02
1.109291e-02
-1.342992e-02
-1.871719e-02
-1.034738e-02
-2.764349e-02
-1.914385e-02
-1.290553e-02
8.712343e-03
6.159591e-03
8.486074e-03
-5.618650e-03
-9.041641e-03
-2.495137e-03
6.164754e-03
-3.231748e-03
-1.097812e-02
-3.540246e-03
4.702614e-04
7.493910e-03
2.947973e-02
-1.687845e-02
-1.141613e-02
1.818990e-02
-2.919707e-03
-8.829540e-03
1.192025e-02
-1.565131e-02
-1.030490e-02
-1.951994e-02
-1.153119e-02
-1.169205e-02
-2.521461e-02
-7.945640e-03
-2.595658e-03
-1.892152e-02
-1.033459e-02
-8.193072e-03
-5.085674e-03
-5.919039e-03
-3.865602e-03
-1.033437e-02
3.471885e-03
1.349693e-03
5.418244e-04
-1.935360e-02
-7.619374e-03
7.130745e-03
-1.898125e-02
-1.269342e-02
5.189599e-03
-2.262854e-02
-2.500261e-02
2.054564e-02
2.019824e-03
3.097369e-03
-5.578482e-03
1.258998e-03
-4.591975e-03
3.159166e-03
-2.520291e-03
-3.414817e-03
4.469274e-03
-8.667860e-03
-8.821582e-04
-1.180871e-02
1.153415e-03
-3.002313e-03
-2.945348e-03
-2.524474e-02
-1.104894e-02
-1.740329e-02
-3.037639e-02
-2.038539e-02
-1.624422e-02
-7.292466e-03
-2.949883e-03
-1.158914e-02
8.819871e-04
1.341491e-02
-3.727138e-04
-1.040785e-02
-1.907334e-02
-6.664970e-03
-1.083655e-02
-2.526682e-02
-1.273122e-02
8.086348e-03
-1.298899e-02
6.969572e-03
-9.179523e-03
-1.497181e-02
-3.213130e-02
2.436214e-02
9.197636e-03
-9.338237e-03
4.056639e-03
1.829574e-02
2.597373e-03
1.635257e-02
-2.190422e-03
1.371887e-02
8.205136e-03
-8.034726e-03
1.395885e-02
1.302249e-02
-5.735639e-03
2.385470e-02
-1.905478e-02
-8.022914e-03
-1.506142e-02
8.002249e-04
9.847495e-03
1.612146e-02
4.091581e-03
7.171335e-03
1.203852e-02
-1.257436e-02
-4.027926e-03
-1.136868e-02
-9.412348e-03
-1.118163e-02
-7.612384e-03
-9.533093e-03
-1.803811e-02
-1.651414e-02
-1.166663e-02
-1.314962e-02
-2.071174e-02
7.819956e-03
-7.621600e-03
-2.598231e-03
-1.686918e-03
-1.001127e-02
-5.531247e-03
1.066952e-02
1.118420e-02
8.409616e-03
2.091886e-03
1.670901e-02
5.216731e-03
-4.666785e-03
8.282133e-03
-9.776754e-03
-1.178634e-02
4.562792e-03
-4.103742e-03
-1.729330e-02
-6.221522e-03
-1.013284e-02
-6.907506e-03
-2.291905e-03
-3.881728e-03
2.341707e-03
2.799557e-03
-3.919340e-03
4.674175e-03
-4.659437e-03
-1.547800e-02
-5.090217e-03
-1.581353e-02
-1.820831e-02
3.473966e-02
2.398193e-02
2.958811e-02
4.663424e-03
-1.627748e-03
-1.575135e-03
-2.480097e-02
-2.683739e-02
-2.628197e-02
-9.033141e-03
-3.160568e-02
-3.275345e-03
-4.454780e-03
-1.039270e-02
-7.193713e-03
-2.727222e-02
-2.366329e-02
-3.280142e-02
-1.480643e-02
4.576917e-03
5.805705e-03
-1.132964e-02
-1.012495e-02
-3.047698e-03
-3.237444e-03
1.631888e-03
-5.901291e-03
8.196408e-04
-2.351766e-02
-3.372476e-03
2.404905e-02
-5.510563e-03
-1.434825e-02
1.734683e-03
1.162054e-02
-2.270714e-02
-1.540268e-02
8.232143e-03
1.876921e-02
4.179482e-04
6.021883e-03
5.312196e-03
-7.771356e-03
-1.389698e-03
3.251640e-03
1.712498e-03
2.769852e-03
3.930610e-03
7.357164e-03
-2.033707e-02
-1.194616e-02
6.386820e-03
8.943610e-03
1.007849e-02
1.006060e-02
1.692845e-02
2.536121e-02
2.206832e-02
2.251975e-02
3.293538e-02
1.241884e-03
1.179913e-02
-8.828489e-04
1.994956e-02
-2.748597e-03
8.555748e-03
-6.047518e-03
-2.729690e-02
-1.167505e-02
-6.013908e-03
-3.542972e-02
-1.248271e-02
1.747755e-02
-9.375387e-03
4.174738e-03
3.695805e-03
6.778838e-03
-1.532793e-02
1.453527e-02
3.996727e-03
-5.378352e-03
-2.893193e-02
-3.893258e-03
4.671970e-03
-8.103470e-03
8.266267e-03
1.441517e-02
-1.266197e-02
-1.340484e-02
4.863727e-04
7.326695e-03
2.718659e-03
6.529195e-03
-1.140539e-02
-5.502205e-03
-1.446691e-02
-2.198286e-02
-8.273712e-03
-2.299774e-02
-9.446486e-03
-1.439777e-02
-1.404103e-02
-5.576337e-03
-3.647159e-02
-1.468954e-02
1.751258e-03
1.222308e-02
1.062204e-02
-9.167344e-03
2.152236e-02
-3.037599e-03
-2.015322e-03
-1.693366e-03
2.968363e-02
-2.237751e-03
-1.200194e-02
2.103664e-02
-6.469076e-03
-4.265958e-03
-7.305435e-03
-9.525782e-04
2.269091e-03
1.055566e-02
1.486283e-02
-5.099957e-03
1.376700e-02
-1.093321e-03
-1.135591e-02
-3.474847e-04
-4.676886e-03
-1.814477e-02
-1.728358e-02
-5.582342e-03
-2.389610e-02
-3.569505e-02
1.367293e-03
2.206456e-02
2.097008e-03
-2.165943e-02
-8.140909e-03
-8.426769e-03
-1.680277e-02
-2.305442e-02
1.343628e-02
1.603117e-02
1.663211e-02
1.740324e-02
4.615386e-03
-1.396253e-02
-2.208388e-02
2.400532e-03
-1.968209e-02
-2.018695e-02
-9.920849e-03
-1.066118e-02
-1.495181e-02
-1.263098e-02
8.337514e-03
1.220085e-02
5.376526e-04
4.790407e-02
3.448818e-02
-1.025496e-03
3.661956e-03
-2.320137e-02
-6.937348e-03
1.235739e-02
1.214019e-02
-1.339972e-03
4.482572e-02
1.158054e-02
-1.358454e-02
-6.909139e-03
4.672814e-03
-2.016569e-02
-8.377565e-03
5.529633e-03
8.316168e-04
1.779930e-02
-1.104237e-02
2.149208e-03
1.078467e-02
-9.983459e-03
6.721147e-03
2.342213e-02
8.517467e-03
7.011427e-03
4.961920e-03
1.498005e-03
5.803323e-03
3.736691e-03
2.750377e-04
1.620640e-03
-4.778476e-04
-3.890774e-03
-1.295280e-03
-1.797660e-02
-3.135059e-03
2.278764e-03
-1.990395e-03
-9.574833e-03
-1.910246e-02
-3.269038e-03
-1.047392e-02
-7.032582e-04
4.398705e-03
2.696976e-02
-2.131348e-02
-1.933033e-03
8.461994e-03
-1.332697e-02
1.168957e-02
-1.433349e-03
-3.842074e-03
1.673970e-03
-1.717691e-03
1.697357e-02
3.653344e-03
-1.228997e-02
-9.542588e-03
1.787346e-03
-1.203246e-02
-7.963387e-03
-8.895589e-03
-1.843573e-02
5.046165e-03
4.251240e-03
-2.719600e-03
8.706258e-03
1.013696e-02
-1.361003e-02
2.630238e-03
8.766394e-03
-1.387916e-03
-4.144635e-03
8.935356e-04
-1.239586e-03
2.328900e-02
1.803678e-02
8.860629e-03
3.084357e-02
3.756755e-02
2.260412e-02
-1.705521e-03
-2.346777e-02
-9.054024e-03
-1.099050e-02
-6.702749e-03
1.754848e-02
-7.915194e-03
-5.692147e-03
1.770759e-02
-1.072490e-02
-1.269756e-02
4.819988e-03
-2.258200e-02
-1.654804e-02
-1.154819e-02
-1.764637e-02
-1.587122e-02
-2.977953e-02
-1.350680e-02
5.176351e-03
-1.072111e-02
9.710342e-03
-9.965455e-03
-3.507919e-03
9.580972e-04
-4.916100e-03
-6.202868e-03
-6.245659e-03
1.155849e-02
-1.802058e-02
-3.033021e-03
-2.642966e-02
3.699918e-03
1.878495e-02
1.083862e-02
3.034729e-02
9.856284e-03
-9.883950e-03
7.075244e-03
-1.335228e-02
7.121880e-04
2.123752e-03
-1.522443e-02
1.248309e-02
-2.630912e-02
2.118849e-02
5.979603e-04
-8.443092e-04
2.047369e-02
1.230875e-02
-1.135830e-02
-5.029737e-03
-8.957457e-04
-1.005217e-02
-9.117172e-03
-1.980004e-02
8.152925e-03
-1.144472e-02
1.127288e-02
-3.615372e-03
-2.399826e-02
-1.742149e-02
-1.345777e-02
-1.475469e-02
-1.902806e-02
-1.543055e-02
-1.739784e-02
-1.660762e-02
-2.609150e-02
-1.432195e-02
-1.752306e-02
-1.737271e-02
-5.904162e-03
2.562595e-02
1.184179e-02
-6.609024e-03
1.371494e-02
1.599316e-03
-1.153655e-02
-7.423831e-03
-2.127322e-02
2.936871e-02
6.436956e-03
1.033772e-03
2.043731e-02
1.575216e-02
8.625708e-03
1.080307e-02
1.783727e-02
4.383530e-04
-8.074885e-03
-1.910612e-02
-1.640032e-02
4.020347e-04
-2.479603e-02
-1.692539e-02
-1.726288e-02
-1.111345e-02
-1.636454e-02
-1.472984e-02
-2.451628e-02
-1.627520e-02
5.446125e-03
1.298399e-02
1.266286e-02
2.145661e-03
-5.987190e-03
-1.518680e-02
-1.172526e-02
-1.607009e-02
-1.702547e-02
-1.219141e-02
-1.809133e-02
-1.866319e-02
5.510722e-03
-1.364824e-02
-1.098672e-02
1.249319e-02
1.100390e-02
4.007243e-02
-1.962106e-04
-1.629043e-02
7.740877e-03
9.199431e-03
-4.801363e-03
1.869118e-02
1.515719e-03
1.536569e-03
2.518628e-03
8.747425e-03
-1.608377e-03
7.485544e-03
7.499340e-03
-1.145398e-03
-1.141990e-03
-1.400610e-02
-2.795452e-02
-2.687974e-02
-1.640556e-03
-4.739742e-03
-4.878867e-03
-2.510540e-03
-5.782540e-03
-2.677328e-03
5.663176e-03
1.397395e-02
-4.915266e-03
-1.410728e-03
3.288745e-03
-1.293816e-02
-1.045716e-02
-6.114978e-03
-1.215101e-02
3.569591e-02
3.647786e-03
-8.761903e-03
1.311852e-02
2.375430e-03
-1.987370e-03
-8.336006e-03
7.650862e-03
1.066560e-02
-1.989950e-03
1.350940e-02
2.140230e-02
5.597054e-03
2.070957e-02
1.514005e-02
-3.519194e-03
2.058535e-02
-2.889954e-03
3.189543e-04
2.438854e-03
1.141007e-02
-1.330207e-02
-1.191269e-02
-4.438905e-03
-2.361103e-02
-2.570491e-02
-2.500435e-02
-8.497387e-03
-1.248531e-02
5.074167e-03
3.190918e-03
2.259709e-02
1.635802e-02
1.110634e-02
1.830368e-02
1.144944e-02
3.886002e-02
2.556766e-02
1.755197e-02
3.068996e-02
2.229485e-02
-1.072832e-03
-1.412571e-02
6.934214e-03
3.801025e-03
-3.228353e-03
1.015868e-02
-3.892047e-04
8.331019e-03
2.495250e-03
2.249806e-03
3.406434e-02
8.094409e-03
2.990618e-02
-5.986832e-03
-1.284855e-02
-7.160365e-03
1.172785e-02
-1.616840e-04
1.733006e-02
7.298078e-03
9.994634e-03
2.279110e-02
-1.568762e-02
-2.297234e-02
4.676440e-03
-2.599810e-02
-1.559789e-02
-9.491500e-03
-1.058583e-02
-2.190818e-02
-1.705388e-02
-1.072708e-03
-1.632708e-02
-8.584591e-03
-3.626175e-03
1.344042e-03
-1.167971e-02
-6.795512e-03
2.438767e-02
5.766986e-03
1.146480e-02
4.019021e-02
-7.005933e-03
-1.887302e-02
3.606172e-02
6.969004e-03
-6.724910e-03
2.543646e-02
3.640782e-02
7.503900e-03
-1.009145e-02
-1.962153e-02
1.680268e-02
1.014325e-02
2.011351e-02
1.580342e-02
2.262015e-02
-1.532763e-02
1.753435e-02
3.631898e-02
-1.671335e-02
1.369733e-02
1.024226e-02
-2.868486e-03
3.549084e-03
-5.587942e-03
-4.464755e-03
-5.370886e-03
2.801837e-02
4.108202e-04
-1.338407e-02
-5.649971e-03
-3.766125e-03
-7.686442e-04
-1.052434e-02
-6.369836e-03
-9.522537e-03
-7.583841e-03
-2.325382e-02
-2.699951e-02
-1.717991e-02
-1.860453e-02
-1.337215e-02
-2.842861e-03
2.245615e-03
-1.483581e-03
7.436410e-03
-9.533411e-03
-1.314910e-02
-9.979638e-03
-1.852596e-02
2.860668e-02
3.468695e-02
1.632612e-02
1.876220e-03
-5.769669e-04
2.259539e-02
1.752819e-02
-4.774693e-03
1.104289e-02
1.280756e-02
-1.677537e-02
-4.337531e-03
-1.458676e-02
-1.155423e-02
-1.455819e-02
8.316056e-04
-4.643081e-03
2.823756e-03
-8.589016e-04
-4.125317e-03
1.064931e-02
-1.649847e-02
-1.690015e-02
-3.645770e-03
-4.633432e-03
-1.576839e-02
1.837055e-03
-6.127714e-04
-1.346488e-02
-1.797289e-02
-2.043237e-02
-1.616444e-02
2.429107e-03
-1.665331e-02
-9.721042e-03
-1.911805e-02
-1.395898e-03
5.780875e-04
7.066339e-03
8.495387e-03
1.709235e-02
1.704631e-03
-8.336883e-03
2.885663e-02
2.146608e-03
-4.652021e-03
2.094609e-02
1.090924e-02
-1.009150e-02
3.032757e-03
7.827462e-03
-1.376392e-02
-8.142375e-03
-7.457593e-03
5.553505e-03
1.921088e-02
-2.922110e-02
-1.218371e-02
-2.465026e-02
-6.128421e-03
-1.856344e-03
9.923904e-04
8.788374e-03
4.351514e-03
1.060836e-02
-1.803910e-02
-7.061346e-03
-5.686495e-03
-7.560909e-03
1.139918e-02
-7.975719e-03
-3.736760e-03
-9.941595e-03
4.079360e-04
-4.143657e-03
-4.785711e-03
3.643440e-03
2.836647e-02
-1.159704e-02
-2.014206e-03
-5.959077e-03
-7.217503e-03
1.289063e-02
1.432046e-02
9.449443e-04
4.338212e-03
-1.948288e-02
-6.298841e-03
4.968987e-03
-1.899909e-03
-1.151747e-04
9.701776e-03
1.122009e-04
-5.475685e-03
-6.581722e-03
1.549781e-04
-1.510539e-03
-1.127135e-02
4.288198e-03
1.804553e-03
-2.710253e-03
2.120080e-02
-2.881478e-03
3.763722e-03
-1.539402e-02
-5.315583e-04
-2.080603e-02
3.313516e-02
-5.089762e-04
-1.916791e-02
-6.560716e-04
-3.242750e-03
7.643943e-03
-6.315983e-03
4.749113e-03
2.083985e-03
-6.273455e-03
2.116406e-02
2.122505e-02
-1.377157e-02
2.752973e-02
-2.243583e-03
9.427813e-04
-1.522780e-03
1.946712e-03
1.555535e-02
4.815282e-03
2.007638e-02
-1.261027e-02
3.140269e-02
3.006380e-02
-4.350591e-03
8.483487e-03
5.333593e-03
-1.393793e-02
-1.223095e-02
-9.894319e-03
-3.546246e-05
-2.069039e-03
-1.040780e-02
-3.846526e-04
2.925715e-03
3.553491e-03
-2.796568e-02
1.653467e-02
2.483149e-02
-1.505833e-02
9.338227e-03
1.181037e-02
4.573313e-04
-5.840777e-03
5.099048e-03
-1.031063e-03
-1.251038e-02
9.537819e-03
-9.792728e-03
4.046147e-02
6.205883e-02
-5.575094e-03
-3.473071e-02
-2.027147e-02
-6.318667e-03
-2.373748e-02
-2.135080e-04
8.167515e-03
-1.739341e-02
-1.441865e-02
-4.916962e-03
-9.207350e-03
1.040556e-02
3.204113e-05
-1.307546e-02
1.147018e-02
-2.975800e-03
-1.536432e-02
-2.114228e-02
2.674067e-03
1.739137e-02
1.905343e-02
-5.989918e-03
-4.527439e-03
1.405785e-02
6.786814e-03
-1.654805e-02
1.575162e-02
9.549837e-03
-1.240152e-02
5.085976e-03
-4.018644e-03
-1.653952e-02
1.445481e-02
-1.296997e-02
-4.204524e-03
-8.050143e-04
-9.133586e-04
-1.748479e-02
1.976156e-02
-6.625686e-03
-1.663602e-02
-6.632830e-03
-2.340896e-02
2.718531e-02
-5.020810e-03
-1.314937e-03
1.039846e-02
-2.678881e-02
-1.375245e-02
-7.318071e-03
-2.459417e-02
-9.779076e-03
2.009549e-02
-5.402984e-04
2.460624e-02
-1.284096e-02
-2.271254e-02
-1.759985e-02
-2.925861e-02
-1.146690e-02
-5.249534e-03
-2.184307e-02
-2.284809e-02
-1.073222e-02
-1.265974e-03
-1.285897e-02
-5.516915e-03
-4.738376e-03
1.822322e-02
2.648150e-02
-7.122937e-03
-6.062842e-03
-1.515450e-02
-1.146539e-02
-1.994977e-02
7.306219e-03
-3.123068e-02
-1.651775e-03
1.754517e-02
9.999634e-03
1.379825e-02
7.694786e-03
-2.279988e-02
1.760843e-03
2.076272e-02
-2.699930e-02
2.035227e-02
1.642637e-02
4.876595e-03
1.291141e-03
-5.716648e-03
7.233676e-03
5.977556e-03
-2.035147e-03
-9.559110e-03
-7.621161e-03
1.156509e-03
-1.132748e-02
-1.378700e-03
1.354818e-02
5.762748e-03
1.138800e-02
2.938245e-03
-1.915831e-02
1.052638e-03
-3.026877e-03
-2.279603e-02
-1.124724e-02
-1.361258e-02
-2.838874e-03
2.799555e-02
-6.869511e-03
-2.228563e-02
1.339605e-02
4.380689e-03
-7.085424e-03
-1.347666e-03
-5.234454e-03
-1.352428e-02
1.755037e-02
-1.115818e-02
-5.074801e-03
3.121642e-02
-1.708466e-02
2.615816e-03
2.243694e-02
-9.019027e-03
-1.760612e-03
2.857392e-02
-3.731265e-03
-1.613061e-03
-1.200024e-02
6.893438e-03
-3.657560e-03
1.006835e-02
-4.920918e-03
-2.629391e-02
-1.036542e-02
-1.185582e-02
2.214182e-02
2.822267e-02
1.976134e-02
-5.208470e-03
-2.154562e-02
-1.645833e-02
1.376884e-02
1.508434e-02
2.156710e-02
5.259578e-03
-5.435608e-04
1.049736e-02
3.372271e-03
-9.698858e-03
-1.540959e-02
1.980299e-02
1.327402e-02
1.760751e-02
7.724938e-03
-1.511078e-02
-5.925664e-03
-1.837715e-02
1.288603e-02
-7.441013e-03
-1.195227e-02
-1.772666e-02
-1.073161e-02
3.497075e-03
-5.233130e-03
1.271285e-02
-2.903963e-03
-6.572986e-03
1.116169e-02
-3.053556e-03
-1.349066e-02
1.726944e-02
-1.810449e-03
-5.030027e-03
1.591063e-02
-1.304186e-02
-2.328465e-02
-8.290377e-03
5.304563e-03
-1.189777e-02
-4.088987e-03
2.679437e-03
1.210907e-02
6.283951e-03
2.850773e-02
3.736467e-02
1.601055e-02
3.327565e-02
2.248895e-03
1.850910e-02
1.058906e-03
-2.720833e-02
-2.871323e-03
-1.544604e-03
7.844612e-03
7.975990e-03
1.819876e-02
3.374677e-03
6.002517e-04
2.563389e-03
-1.419831e-02
-2.022613e-02
6.553821e-03
5.021574e-03
1.347664e-02
-1.135777e-02
-1.900517e-02
3.652668e-03
-1.623603e-02
-3.204516e-02
-2.039437e-02
2.172685e-02
2.446677e-02
-7.228876e-04
1.095042e-02
1.753590e-02
1.109310e-02
1.033623e-02
-4.339044e-03
1.128437e-02
-1.517833e-02
-1.144946e-02
4.068885e-03
-1.620077e-02
-1.849572e-02
-8.979009e-03
-6.143492e-04
2.036161e-03
1.324605e-02
-4.940558e-03
3.109327e-04
-8.356455e-03
-1.438498e-02
-3.923838e-02
-8.924601e-03
6.314704e-04
-6.040972e-03
1.586768e-02
-2.908824e-02
1.022706e-03
1.704364e-02
-7.467998e-03
1.383875e-02
5.877438e-03
-2.516245e-02
-3.118410e-03
-1.286765e-03
-2.585797e-02
-2.595486e-02
-2.464825e-02
3.240294e-02
1.007076e-02
-2.605719e-02
5.968415e-02
4.115345e-02
-1.638946e-02
3.358199e-03
-1.544029e-02
-5.320556e-03
3.550239e-03
-1.038719e-02
2.382762e-03
-1.062767e-02
-3.164785e-02
-1.358187e-02
-9.444525e-03
-2.315047e-03
-1.165994e-02
-6.365919e-03
-1.453610e-02
-1.947515e-03
-1.692095e-02
-1.760757e-02
-1.337922e-02
5.878281e-04
2.948831e-03
7.467070e-04
-1.245811e-02
-2.796613e-03
-8.066086e-03
-6.749878e-03
-1.052118e-02
3.340163e-04
-3.735851e-03
-5.666501e-03
-4.292970e-04
-2.714870e-02
-2.717982e-02
-9.046523e-03
4.834999e-03
-3.208664e-03
-5.700058e-03
2.627959e-02
6.548563e-03
-1.051870e-02
-2.072708e-02
-1.522938e-02
-1.925049e-02
-1.040190e-02
-2.186821e-02
-4.191987e-03
-2.028358e-02
9.463766e-03
-1.526525e-02
-9.166845e-03
1.185032e-02
-5.722861e-03
-4.549279e-03
-1.950789e-02
-2.011972e-02
1.837373e-02
-2.387837e-02
7.777427e-03
2.768239e-03
-1.348419e-02
-1.203520e-02
-6.419104e-03
-6.780741e-03
-1.259530e-02
-1.116762e-02
-4.063619e-04
-3.468223e-03
-4.618971e-03
5.448914e-03
-2.039681e-03
-1.972452e-03
4.702688e-03
-8.486362e-03
2.843749e-02
3.730388e-02
6.357066e-04
4.647174e-03
1.268842e-02
4.493920e-03
-1.943893e-02
-1.170063e-02
-6.586432e-03
-8.642221e-03
-1.100588e-02
-7.213105e-03
-1.034591e-02
1.993432e-04
-4.752586e-03
-1.516318e-02
2.667258e-03
4.699249e-03
4.993189e-03
-1.739370e-02
-1.748788e-02
-1.496654e-02
-1.755071e-02
-2.073869e-02
-4.125874e-03
-1.963020e-02
-1.876442e-02
-3.644862e-03
-1.414173e-02
-4.292637e-04
1.166010e-02
1.042182e-02
-1.312772e-04
2.047904e-02
1.695020e-02
1.815709e-04
-2.267879e-02
-2.263355e-02
-2.369335e-02
9.522769e-03
-8.109684e-03
-1.350044e-02
7.605184e-03
-9.650535e-04
7.896233e-03
-1.073586e-02
1.261780e-02
-2.780890e-03
-3.306701e-03
-2.626998e-03
-1.668120e-04
3.776777e-02
2.243967e-02
4.857614e-04
2.135781e-02
-1.093277e-03
-3.491339e-03
6.960489e-03
6.012086e-03
-1.192138e-03
5.205294e-03
9.498291e-03
-3.216820e-04
-6.949659e-04
9.516004e-03
-9.971743e-03
7.217899e-03
-6.864758e-04
-8.999232e-04
5.110716e-03
8.405212e-04
-8.512222e-03
-3.157937e-02
-2.744714e-02
-1.758651e-02
-1.082518e-02
-6.953232e-03
-9.412828e-03
2.085127e-03
-1.028323e-02
-1.439048e-02
3.556040e-02
1.939173e-02
-2.265333e-03
1.652443e-02
1.779382e-02
-7.735602e-03
-9.028874e-03
-9.325514e-03
-1.319368e-02
-4.973321e-02
-3.426082e-02
1.045600e-02
-9.496945e-03
-3.586031e-03
3.337170e-03
2.949323e-02
2.193788e-02
-2.470175e-03
-2.046610e-03
-1.257362e-02
-1.135282e-02
-2.016355e-03
-1.981933e-02
-9.435338e-03
2.442229e-03
-9.477864e-03
4.613856e-05
-3.134112e-02
-2.439510e-02
-1.756066e-02
-8.468800e-03
4.908203e-04
8.186853e-03
-1.046768e-02
-5.849806e-03
-8.326407e-04
-9.944380e-03
4.376460e-03
6.914231e-03
-7.769853e-03
-2.044219e-02
-1.899961e-02
-3.487359e-02
-2.536212e-02
-1.751287e-02
-1.603019e-02
-1.969606e-02
4.309909e-04
-2.205213e-02
-9.711841e-03
-4.423498e-03
-3.076767e-03
3.261822e-03
-7.769994e-03
3.818665e-02
5.924452e-03
2.609045e-03
2.161771e-02
1.596746e-02
-6.666725e-03
-2.036782e-02
-2.887452e-02
-1.332297e-02
2.856740e-02
-8.818749e-03
-3.515556e-03
-5.001478e-03
-7.301574e-03
-4.928401e-03
-9.840269e-03
-1.900592e-02
-2.195282e-02
2.058931e-02
1.618508e-02
1.687660e-02
-1.358888e-02
1.394293e-02
1.557457e-03
-2.018909e-03
1.590004e-02
-1.265242e-02
-1.298363e-02
2.658694e-03
1.367578e-02
-1.873363e-02
-1.922604e-02
-3.612034e-03
2.890886e-03
8.593212e-04
5.883568e-03
-2.856695e-04
-2.416846e-02
-6.008358e-03
7.460169e-03
2.412106e-03
3.029679e-03
2.778933e-02
2.143202e-02
1.141046e-02
-2.614671e-02
-1.673638e-02
7.179420e-03
-2.838006e-02
-6.768419e-03
5.549673e-03
-8.470297e-03
6.724881e-03
4.515056e-03
-2.345521e-03
-1.927626e-02
6.377550e-04
1.773932e-02
4.940975e-03
-1.298232e-02
3.159072e-02
1.042503e-02
-3.696106e-03
-5.741328e-03
-1.861096e-03
-2.379452e-02
-8.459051e-03
-3.434394e-03
-2.457145e-02
-1.377607e-02
-5.069333e-03
-5.031187e-03
-3.982402e-02
-3.462131e-02
-4.092349e-03
-2.462748e-02
-2.585003e-02
1.558567e-02
8.184931e-03
1.154129e-02
1.217250e-02
-5.103362e-03
4.604831e-04
-1.415027e-03
-1.554078e-02
-2.861928e-03
1.115579e-02
-9.176111e-03
-2.503612e-03
-5.183000e-03
-1.794620e-02
-1.112633e-02
9.504803e-04
-1.830397e-02
-7.435295e-04
-7.758141e-03
-1.198268e-02
8.642184e-03
1.175200e-02
6.967192e-03
3.813634e-04
-3.898049e-03
1.634959e-02
1.418470e-02
-2.214424e-02
-2.820361e-02
-2.404657e-02
-1.812776e-02
-2.939375e-03
-4.955127e-03
2.941678e-03
-2.538917e-03
-5.317651e-03
-1.332586e-02
1.615855e-02
-2.971408e-03
-3.003591e-02
-2.277654e-02
-9.666655e-03
-1.561749e-02
-2.899281e-02
-2.727708e-03
-9.295452e-03
-2.934763e-04
1.372532e-02
1.689340e-02
1.355464e-02
1.292454e-02
-5.637150e-03
2.732035e-02
7.193893e-03
-6.495600e-03
3.505043e-03
8.647296e-04
2.467950e-03
1.564551e-02
8.787501e-04
-5.380807e-03
-3.720334e-03
-7.150309e-04
-1.248838e-02
-3.086386e-03
-5.441943e-03
1.138449e-02
6.677928e-03
1.703352e-02
1.473164e-02
-8.765219e-03
8.666189e-03
1.638673e-02
-1.766577e-02
2.845428e-04
1.409153e-02
-1.711244e-03
1.244400e-02
1.648165e-03
-9.751965e-03
1.127297e-02
5.354221e-03
-1.945812e-02
-2.592729e-02
-7.508286e-03
-2.041232e-02
-2.894504e-02
-4.404181e-03
-8.858518e-03
-7.800207e-03
-1.484477e-03
-6.429779e-03
3.909230e-03
9.194433e-03
3.099144e-03
-1.474303e-03
1.110022e-02
-1.055068e-02
-6.286824e-03
4.235896e-03
4.840962e-03
-2.406999e-03
-6.283510e-03
-7.662641e-03
1.528316e-02
1.942101e-02
-4.664771e-03
-1.366165e-02
2.568267e-04
-4.173695e-03
-4.799819e-03
1.874693e-03
-3.560796e-03
-7.093368e-03
-1.470442e-02
-2.681047e-03
-1.310818e-02
-9.477494e-03
-2.724774e-03
5.554370e-03
-1.680930e-03
-1.452566e-03
2.052620e-03
-9.592098e-03
5.459898e-03
-1.171012e-02
-1.453253e-02
5.072011e-03
-6.452516e-03
2.303172e-03
-9.108726e-03
-1.182686e-02
-1.490807e-02
-1.740533e-02
-8.143662e-03
-2.945274e-03
-4.722513e-03
-1.008853e-02
-1.920772e-02
-1.241697e-02
-3.507412e-03
1.213092e-02
-1.225311e-02
6.629578e-04
-6.513776e-03
-3.626497e-03
-5.370294e-04
-2.605312e-03
3.447689e-02
2.186797e-02
-9.890444e-03
3.560181e-03
2.292325e-02
1.547581e-02
-9.808244e-03
8.105900e-03
1.708034e-02
-1.080292e-02
2.600169e-03
-1.464066e-02
-1.824655e-02
-5.658750e-03
5.750393e-03
-1.718031e-02
-1.804678e-02
7.659008e-03
4.763436e-02
5.824607e-03
4.937623e-04
-5.777534e-03
-1.279736e-03
1.083111e-03
-2.039659e-02
-9.734007e-03
8.181471e-03
3.795718e-03
-6.046794e-03
1.521080e-03
-3.015012e-03
-8.379746e-03
2.985041e-03
-6.001560e-03
-2.736349e-03
-2.598890e-03
-2.702639e-02
1.767087e-03
-5.372768e-03
-1.984465e-02
-1.540906e-03
-5.394893e-03
-1.559538e-02
-8.350491e-03
1.475059e-02
1.512086e-02
-1.326532e-03
7.910276e-03
8.270402e-03
-7.329731e-03
3.848348e-04
2.563109e-02
1.687911e-02
1.432810e-02
-1.681420e-02
1.273821e-02
4.591932e-03
-1.682480e-02
4.184058e-03
1.964560e-02
-7.608288e-03
9.435116e-03
5.322009e-02
-2.693282e-02
-9.622792e-03
-4.450447e-03
1.301724e-03
2.426502e-03
-7.533757e-03
6.996331e-03
-2.455070e-03
1.501548e-03
-1.035988e-02
-9.172264e-03
-7.240207e-03
-1.937417e-02
-6.712930e-03
9.885829e-03
-7.095667e-03
5.382441e-03
2.312704e-02
7.112465e-02
3.844984e-02
1.073855e-03
8.637495e-03
-4.421850e-03
-6.891651e-03
-2.919252e-02
-1.310096e-02
1.796645e-02
2.990348e-02
8.445911e-03
4.219372e-02
1.420042e-02
-9.134811e-03
-4.487934e-04
-7.648673e-03
-2.849632e-02
-2.573350e-02
-2.005954e-02
3.542507e-03
-8.674088e-03
-6.435464e-03
4.903109e-03
1.010768e-02
1.086137e-02
5.194467e-03
2.271232e-03
7.938714e-03
-1.133500e-02
-1.444081e-02
-1.927679e-02
-1.757352e-02
-7.474902e-03
-1.866497e-02
-1.513188e-02
-3.168102e-04
-8.434605e-03
1.580522e-02
-1.269756e-03
-7.243907e-03
-1.176572e-02
-1.862127e-02
1.980100e-02
1.265784e-02
-5.118320e-03
-2.647234e-02
-1.645121e-02
-5.354265e-03
-2.128375e-02
-8.150888e-03
-1.964238e-03
-1.320886e-02
1.229613e-03
-1.169921e-02
2.855716e-02
1.006808e-03
-9.700313e-03
1.279689e-02
-1.638050e-04
-6.757486e-03
-1.196982e-02
-6.743979e-06
5.131420e-04
-7.589656e-03
-1.136332e-02
6.319079e-03
-3.111257e-03
-9.648267e-03
-9.355646e-03
4.310108e-03
-1.319086e-03
-1.095845e-02
-9.861602e-03
-1.851730e-02
5.576217e-03
-6.513022e-04
-8.900916e-03
-2.643751e-04
8.848337e-03
-7.730711e-03
-4.437426e-03
-1.380388e-02
-7.178088e-04
-9.269617e-03
-1.444825e-02
-1.507727e-03
-1.345298e-02
4.560765e-03
3.624696e-03
-3.488192e-03
8.832715e-03
-5.195568e-03
4.947908e-03
2.617752e-02
-1.000920e-02
8.557396e-03
1.495970e-02
-1.434513e-02
-7.494371e-03
4.092145e-03
1.309813e-02
9.392408e-03
1.358614e-02
6.750074e-03
1.548017e-02
5.748455e-03
-6.315342e-03
-1.868840e-02
5.426139e-02
1.196141e-02
-1.467948e-02
4.049946e-02
3.343679e-03
-2.566799e-02
1.783076e-02
3.173051e-03
-1.451948e-02
-7.000134e-03
1.177900e-03
-1.424875e-03
-6.134469e-04
-1.481002e-02
7.873444e-03
7.891049e-03
-1.512865e-03
6.373239e-03
-2.186109e-02
-2.395804e-02
-6.013796e-03
-3.482374e-02
-1.744651e-02
-1.074583e-02
-1.066054e-02
-3.566130e-03
-2.738664e-03
9.785713e-03
-5.955613e-03
-8.290558e-03
1.380825e-02
3.834498e-03
-2.995376e-03
2.662515e-02
1.120414e-02
-1.876434e-03
-1.557387e-02
-1.439953e-02
-3.645943e-03
-2.825518e-02
-1.435589e-02
7.387411e-04
-1.344073e-02
-3.323908e-03
-3.408403e-03
2.291765e-02
-3.035696e-03
-1.024155e-02
9.389504e-03
-5.932099e-03
-1.230264e-02
-3.117583e-03
-1.664342e-02
-2.568105e-02
-5.934454e-04
1.958884e-02
4.348447e-03
-1.280615e-02
-1.296173e-02
-9.643102e-03
-2.565598e-03
-2.029884e-03
-1.144650e-02
-4.433171e-03
1.347559e-02
-1.687857e-02
-7.426731e-03
-2.176000e-03
-1.096302e-02
-4.207534e-04
3.473465e-03
7.753705e-04
1.711415e-02
1.396869e-03
1.992373e-02
-1.168379e-02
3.324438e-03
1.680367e-02
-6.260344e-03
3.722967e-03
1.556093e-02
8.857348e-03
1.487655e-02
1.565756e-02
-2.151402e-03
-1.206028e-03
-4.051912e-04
-1.788903e-03
-9.182354e-03
-2.054904e-03
-9.225563e-03
-2.351632e-03
1.597655e-03
-1.283469e-02
-1.524065e-02
-3.055979e-02
3.286057e-03
-5.852143e-03
-4.659460e-03
1.132424e-03
-8.409028e-03
-8.227059e-03
4.231807e-03
1.700939e-02
-3.514113e-03
7.568962e-03
3.228857e-02
1.921899e-02
3.218781e-02
2.053788e-02
-4.599165e-03
-1.984899e-02
-4.316581e-03
-9.862738e-03
-9.758052e-03
-1.186706e-04
-8.034130e-03
-1.911574e-02
-1.234835e-02
-6.288997e-03
-7.070455e-03
-7.498222e-03
1.921998e-03
1.067704e-02
-1.854400e-03
2.914861e-03
-6.462778e-03
-1.530887e-03
-1.132739e-02
1.461732e-03
-1.664307e-03
-1.530208e-03
1.296841e-02
1.035600e-02
1.075854e-02
6.680217e-03
7.408070e-03
2.863735e-03
-1.699377e-02
-5.221262e-03
-1.658571e-02
-2.690247e-02
-8.476137e-03
-1.776064e-02
4.139644e-03
-7.031610e-03
3.842386e-03
-3.554611e-03
-8.366005e-03
1.643056e-02
3.168063e-02
1.388181e-02
3.394386e-02
-1.324343e-02
-8.671072e-03
-2.220637e-02
-1.038865e-02
-1.036630e-03
-1.616666e-02
-1.686850e-02
-1.577570e-02
-9.247666e-03
1.381796e-02
-6.779310e-03
-1.812787e-02
2.696204e-02
2.916568e-02
-4.270562e-03
1.156100e-03
2.258183e-02
-2.264131e-02
-5.182473e-03
7.660605e-03
-2.429492e-03
-1.896390e-02
-9.329892e-03
-1.966432e-02
-7.715480e-03
7.632812e-03
-1.331354e-02
1.153156e-02
-5.427144e-04
-1.031909e-03
3.488117e-02
1.901754e-02
7.145030e-03
1.010137e-02
1.202814e-02
4.912146e-03
-1.326351e-02
-2.744247e-03
-9.728157e-04
-4.024214e-03
-3.683327e-02
-5.978954e-03
-1.919253e-02
-2.344363e-02
-9.896763e-03
-1.594786e-02
-1.142698e-02
-3.308693e-04
5.369518e-03
1.220715e-02
1.165877e-02
-2.295678e-03
-5.688484e-03
6.274229e-03
2.047924e-02
-3.828455e-04
7.055802e-03
3.412262e-03
2.144179e-02
1.334625e-03
-5.486598e-03
1.196491e-02
-1.026064e-03
-2.065431e-02
1.547752e-02
-4.957058e-03
5.647523e-03
4.383413e-03
2.288274e-02
-1.597438e-03
-5.290617e-03
-7.003312e-03
-1.187786e-02
1.474159e-02
8.477325e-03
-7.512315e-03
1.271342e-02
1.136506e-02
3.644103e-03
1.405327e-02
-5.002710e-04
2.185001e-02
-1.499342e-02
-5.952812e-03
-6.709669e-03
-2.109959e-02
3.784542e-03
-1.132413e-02
-1.354491e-02
1.397982e-02
-1.109320e-03
4.411950e-02
1.454636e-03
-1.374983e-02
-2.545600e-02
-2.831344e-02
-8.202227e-03
-8.754672e-03
-6.694071e-03
7.244356e-03
-1.472503e-02
-2.041105e-02
-2.399567e-02
-1.371723e-02
5.859653e-03
-1.863231e-02
-9.746767e-03
-7.864018e-03
2.555730e-03
-2.768151e-02
-2.737176e-02
-1.930290e-04
-2.049628e-02
2.683141e-03
5.611280e-03
8.474162e-04
2.681222e-03
-2.981462e-03
2.714623e-02
2.121039e-02
3.481191e-03
5.271022e-03
1.817803e-05
-3.508388e-03
-7.656995e-03
4.866272e-04
6.491256e-04
3.995983e-03
3.873885e-03
9.565976e-03
3.794026e-03
-2.152540e-02
-7.475797e-03
-6.457238e-03
-1.275436e-04
-9.342488e-03
-1.419134e-02
-2.037667e-02
9.925102e-03
1.410042e-02
1.647733e-03
1.985923e-03
2.707732e-02
1.395533e-02
-5.810702e-03
-4.618886e-03
-9.900506e-03
-6.090827e-03
-2.537450e-02
-3.526944e-03
1.763940e-02
1.573848e-02
1.609579e-02
-1.780585e-02
-1.754013e-02
-5.249146e-03
-1.711505e-02
-2.705896e-03
-1.212048e-02
-7.457772e-03
-1.855461e-04
-1.645146e-02
2.713284e-02
2.048620e-03
2.782174e-03
-3.205643e-03
-4.473699e-03
2.346967e-03
2.339882e-03
-2.500796e-05
-1.277492e-02
7.863902e-03
5.906674e-03
-7.925276e-03
7.934227e-05
-1.252452e-02
-9.738770e-03
4.996179e-03
-1.928221e-02
-6.054633e-03
-5.054716e-03
-2.076019e-03
-2.089355e-02
-1.264843e-02
-1.994054e-02
5.311569e-05
-1.336882e-02
1.049591e-02
1.798235e-03
1.038199e-02
3.386535e-03
-4.405189e-03
1.563125e-02
-3.562814e-03
1.750766e-02
2.592069e-02
8.945542e-03
2.815722e-02
-9.203783e-03
-5.909321e-03
3.444050e-03
-4.666441e-03
-1.004753e-02
-6.689147e-05
-4.809471e-03
4.649593e-03
-1.038560e-02
-3.865686e-03
-1.659698e-02
-6.977452e-03
-1.783570e-03
-1.184345e-03
-1.852994e-02
-5.668952e-03
1.062916e-03
-6.964910e-03
4.367093e-03
3.770202e-02
1.553620e-02
-5.834942e-03
1.498285e-02
-6.376773e-03
-9.347007e-03
1.824431e-03
-2.785554e-04
8.120468e-03
-2.271368e-03
9.833306e-03
1.212773e-02
9.752747e-03
1.333934e-02
-4.018190e-03
3.855932e-03
-6.965589e-03
-2.070211e-02
-8.694859e-04
-1.193571e-02
-1.197256e-02
2.339449e-03
-6.845369e-03
-5.875759e-03
5.778194e-03
-3.256524e-03
3.051540e-02
2.908752e-02
1.930600e-03
-1.335285e-03
-1.028104e-02
-6.662735e-03
-1.151624e-02
-2.198461e-02
5.388757e-03
-3.330505e-03
-3.165604e-03
7.596459e-03
5.918084e-03
-1.453073e-03
1.602761e-02
2.720404e-02
1.634832e-02
6.317699e-03
-7.796861e-05
-3.525408e-03
-1.010758e-03
-2.059693e-03
-3.498094e-03
1.500716e-03
-7.073691e-03
-1.310964e-02
-1.481674e-02
-1.626159e-02
1.477279e-02
1.371166e-02
-2.020834e-02
3.268559e-03
1.071136e-02
-7.772904e-03
-4.551534e-03
6.389170e-03
-1.317036e-02
1.158390e-02
-1.456094e-02
-1.384713e-02
-5.151617e-03
-2.088160e-02
-1.689668e-02
3.567256e-03
9.487067e-03
1.047263e-02
2.456961e-02
6.731865e-03
1.217700e-02
2.966022e-02
9.537522e-03
-9.379485e-03
-6.804352e-03
-3.672600e-03
-1.526419e-02
-2.396196e-02
-2.712556e-02
-1.791213e-03
-6.742171e-03
-6.036379e-03
-2.007748e-02
1.818628e-02
5.434541e-03
8.202025e-03
-7.916765e-03
-2.068922e-02
6.763652e-03
-2.219785e-03
7.034954e-03
2.490946e-02
2.311965e-02
2.486426e-02
-1.163618e-02
-1.229753e-02
-7.237225e-03
-1.056726e-02
-1.514172e-02
-7.893212e-03
-6.830511e-03
3.424989e-03
7.969145e-03
-2.499552e-03
-6.310623e-03
-6.555054e-04
1.471676e-02
2.986079e-03
2.233070e-02
1.299292e-02
1.100276e-03
-8.823786e-03
4.848985e-04
2.010433e-02
1.467561e-02
-5.478587e-03
-2.217311e-04
1.063766e-03
-8.821713e-03
-3.316893e-02
-1.877825e-02
1.841344e-02
1.002135e-02
2.498555e-04
6.102026e-03
3.676726e-03
-7.635931e-03
-1.626190e-02
-1.658922e-02
-2.617494e-02
3.628943e-03
-1.952184e-02
-9.720325e-03
-1.384103e-02
-4.072761e-02
-1.359783e-02
-1.973150e-02
-2.423190e-02
2.522758e-03
1.269493e-02
3.064147e-02
1.041748e-02
1.724399e-02
2.508924e-02
2.097340e-03
-9.708738e-03
-1.242531e-02
-2.432227e-02
-1.016706e-02
2.144760e-03
-1.300151e-02
6.599303e-03
2.708827e-04
1.915100e-03
2.586356e-03
-4.235737e-03
4.167978e-03
1.704769e-03
-6.612764e-03
-6.828350e-05
-4.968250e-03
1.235028e-02
1.900594e-02
-6.678772e-03
8.699835e-03
1.899568e-02
-1.035580e-02
2.483299e-02
-7.069061e-03
-3.048155e-05
2.178873e-02
2.540309e-03
-1.876940e-03
4.230374e-03
1.154614e-02
-2.478523e-02
-2.091937e-02
-4.841546e-03
-1.054251e-02
-1.287698e-02
-5.678726e-04
-1.834671e-02
-1.347382e-02
2.483242e-03
-4.924553e-03
4.017475e-03
3.489597e-03
-7.077001e-04
7.516841e-04
-4.759564e-03
4.001717e-03
4.399518e-03
-9.565450e-03
-1.021777e-02
-1.612621e-02
-8.495694e-03
1.299268e-02
1.617736e-03
3.596166e-03
5.653627e-03
4.760246e-04
6.821039e-03
1.876301e-02
3.329708e-02
2.125020e-02
4.806141e-03
2.865861e-03
8.471905e-03
-9.801968e-03
-7.702936e-03
-1.127114e-02
-1.921332e-03
7.645591e-03
1.132458e-02
-1.249705e-02
-2.464726e-02
-1.519256e-02
-4.322107e-03
-1.782094e-02
-2.457882e-02
-2.101495e-02
-3.217946e-02
-8.033852e-03
-1.931661e-02
-3.916816e-02
-3.431462e-03
-1.229717e-02
-3.149194e-02
-2.071546e-02
1.140285e-02
6.896749e-03
7.185636e-03
-5.153292e-03
1.665451e-02
1.158398e-02
4.246041e-03
1.385858e-02
1.035636e-02
-5.580296e-03
-1.296525e-02
-7.025357e-03
5.246790e-03
-3.377948e-04
-6.154755e-03
-4.277740e-03
4.449304e-04
1.059290e-02
-1.519634e-02
-2.186528e-02
-2.761623e-02
-2.411170e-02
-1.844465e-02
4.815417e-03
-2.210623e-02
-1.665313e-02
3.026210e-02
4.819043e-03
-2.284095e-04
-1.326587e-02
5.301199e-03
-1.035061e-02
6.043540e-03
-2.050739e-03
-1.577826e-03
1.079619e-02
2.036787e-02
-8.965384e-03
-1.428162e-02
1.383532e-03
2.934543e-03
-1.564621e-02
-9.138878e-03
1.758416e-02
1.010053e-02
6.533558e-03
-4.181427e-03
-1.449517e-02
6.551327e-03
-6.234305e-03
-5.470818e-03
-5.049244e-03
-8.021961e-03
-6.243320e-03
4.869891e-03
-1.106125e-02
-7.518235e-03
3.145534e-03
-2.135078e-02
-2.321530e-02
-6.257534e-03
-2.031494e-02
-9.637436e-03
4.299006e-03
1.211505e-02
-3.201699e-02
1.464247e-02
-3.685564e-03
-4.650281e-03
2.259255e-03
-8.562300e-03
1.071580e-02
-1.005207e-02
-9.878286e-04
-2.795696e-03
-2.726964e-03
-3.414958e-04
-5.341603e-03
-1.349116e-02
-8.211641e-03
-7.445364e-03
3.225611e-02
8.146352e-03
-8.309308e-03
6.800445e-03
1.238683e-02
1.092559e-02
-1.484310e-02
6.765245e-03
5.738134e-03
-1.893202e-02
-4.509511e-03
3.219388e-02
6.657352e-03
-1.030960e-02
1.235123e-02
1.113629e-02
-1.448135e-03
-5.916109e-03
-9.965585e-03
-1.843989e-02
-2.445612e-02
-1.132544e-02
-1.074479e-02
1.148078e-02
2.966056e-03
-7.591152e-04
2.413739e-02
-2.657176e-02
8.570887e-03
4.478986e-02
-2.137680e-02
1.251206e-02
2.933080e-02
-4.519600e-03
1.033339e-02
4.606813e-03
3.438547e-03
4.206270e-03
4.487532e-03
1.700748e-03
-3.602055e-03
-8.162726e-03
-7.268955e-03
-5.411306e-03
-1.632965e-02
-2.772429e-03
-2.339994e-03
1.810572e-03
4.374528e-03
-1.616633e-02
-1.812300e-02
1.684545e-02
-8.092504e-04
-1.633440e-02
1.094524e-02
1.362567e-02
1.687335e-02
-1.357855e-02
-1.111111e-02
-7.547780e-03
-9.100787e-03
-1.424153e-02
-1.574193e-02
2.246891e-04
-1.566739e-02
-2.030440e-02
-5.524114e-03
-2.391142e-04
1.511136e-02
-2.004447e-02
-3.846547e-03
1.277489e-02
-3.301524e-03
-6.524043e-03
3.182613e-03
8.009221e-05
1.172850e-02
-2.109274e-03
7.036269e-03
8.727881e-03
3.256190e-03
7.992726e-04
-6.994600e-04
1.760382e-03
-1.107522e-02
-3.292649e-03
-4.756209e-04
-1.530734e-02
2.192179e-02
2.724452e-02
-1.097884e-02
1.269740e-02
-7.484148e-03
-1.239323e-02
1.939214e-03
2.545962e-03
1.030760e-02
-1.335678e-02
-1.222421e-02
3.961097e-03
-1.979311e-03
1.472719e-02
1.597646e-03
5.218184e-03
3.653308e-03
-1.070081e-03
9.292654e-03
-1.138622e-02
-4.584739e-03
-2.504777e-02
-3.165979e-02
-1.056637e-03
1.812981e-03
6.618457e-03
4.290929e-03
-3.455703e-03
3.315681e-03
-9.551573e-03
-1.686374e-02
-1.783676e-02
-1.048801e-03
-4.883758e-03
-1.119743e-02
-3.872955e-03
6.346168e-03
-6.455517e-04
1.569268e-02
-9.365635e-03
-1.615373e-02
-5.216638e-03
-2.140942e-02
-1.926331e-02
3.311590e-03
5.796141e-03
8.031829e-03
1.142089e-02
-8.520589e-03
-1.520401e-02
-7.480758e-03
-3.701255e-04
-3.195630e-03
4.457932e-03
9.122368e-03
1.766768e-03
-1.126417e-02
-7.742221e-03
-7.301144e-03
1.498128e-02
-3.434906e-03
3.478328e-03
1.293098e-02
1.731696e-02
8.490098e-03
-1.911619e-03
-8.864900e-04
5.122267e-03
5.412171e-03
5.103233e-03
1.855568e-02
1.409002e-02
-2.718631e-02
-1.472366e-02
7.713444e-03
-1.107722e-02
9.453264e-03
1.415598e-03
-9.284419e-03
-7.146333e-03
-2.877364e-02
-9.482015e-03
1.481925e-02
-1.925006e-02
-2.191379e-02
-1.884212e-04
-8.288606e-03
-6.830733e-03
1.112649e-02
4.199606e-03
-1.118383e-02
7.668082e-03
2.396936e-03
-6.403195e-03
-2.734862e-03
-8.149454e-03
-7.641920e-03
-6.680528e-06
-2.143192e-02
-1.643762e-02
3.850804e-03
-2.674115e-02
-3.460551e-03
-5.054259e-03
3.011107e-03
9.831601e-03
-1.151472e-02
1.571031e-02
3.958721e-03
-6.944228e-03
1.483842e-02
-1.899216e-03
-2.277129e-02
6.610447e-03
-7.676289e-04
1.841573e-03
3.821195e-03
-8.541496e-03
2.381069e-02
2.270633e-03
7.824931e-03
8.663569e-03
9.675647e-03
-1.066690e-02
-1.223180e-02
-9.276411e-03
4.356298e-03
-7.428587e-03
-1.192063e-02
-4.221897e-03
-1.191859e-02
-2.605670e-03
1.422217e-02
1.297711e-02
1.315166e-02
8.218484e-03
-6.067515e-04
-1.902015e-02
-8.655717e-03
-1.306597e-02
-1.711052e-02
4.530251e-03
2.630097e-04
-1.006477e-02
1.916657e-02
1.624401e-02
1.253303e-02
1.000149e-02
-1.000330e-02
1.995969e-02
-7.323368e-03
-3.894620e-02
7.511740e-03
-5.131111e-03
-3.735948e-03
-5.226702e-03
-6.392839e-03
-1.594810e-02
-8.412679e-03
-3.884400e-03
-1.895297e-03
6.090656e-03
-8.468132e-03
-3.774802e-03
-1.241106e-03
-2.301401e-02
-8.432056e-03
-1.699924e-02
-1.021261e-02
4.465058e-03
-1.390535e-02
1.056148e-02
1.736550e-02
3.226670e-03
-3.473689e-03
9.278291e-03
-1.577285e-03
2.144988e-03
1.527872e-02
-2.082697e-02
-8.123499e-03
6.945170e-03
5.222694e-03
-1.113947e-02
-9.563161e-04
-1.198440e-02
-1.533553e-02
5.956498e-03
-1.289484e-02
-6.840291e-03
3.433693e-03
1.447771e-03
1.660005e-02
1.008133e-02
2.014937e-02
-5.227071e-03
-2.424182e-03
-7.209274e-03
-9.967345e-03
-6.362824e-03
1.281484e-02
1.312843e-02
2.936859e-03
5.336040e-03
1.001829e-02
-1.158772e-02
-9.697701e-03
-4.154744e-03
-1.214815e-02
-1.796637e-02
-1.538378e-02
-1.262796e-02
5.002219e-03
3.954332e-03
1.821959e-02
1.592253e-02
5.730430e-03
-9.712715e-03
-1.590540e-02
-7.798420e-03
-1.803462e-02
-2.108776e-02
4.373861e-03
2.941749e-02
-1.909213e-02
9.710834e-03
6.019369e-02
-2.183085e-04
1.295664e-02
-1.997096e-02
6.048352e-03
4.064845e-03
-1.952770e-02
-4.952818e-03
-1.863941e-03
3.561209e-04
-2.160486e-02
-1.632960e-02
-2.866976e-02
-6.012944e-03
-1.684060e-02
-9.328478e-03
-1.111849e-02
-1.591954e-02
2.453124e-03
-1.761297e-02
-9.097515e-04
-1.890000e-02
-1.811444e-02
2.496290e-03
1.121359e-02
-3.952893e-03
1.307696e-03
-4.618093e-03
1.661111e-02
3.549152e-02
-1.505858e-02
-8.524423e-03
1.436335e-02
-2.015878e-02
-7.556330e-03
-7.232915e-03
-1.179885e-02
-3.154185e-04
-1.932116e-02
-8.277491e-03
5.191274e-03
1.702689e-02
1.256787e-02
-9.517112e-03
-9.492467e-03
-2.201247e-02
-5.564666e-03
-8.625383e-03
1.048750e-03
-1.117817e-02
-5.510392e-03
-1.840980e-02
-1.325742e-03
-6.845674e-04
-1.294731e-02
2.597505e-02
-5.765428e-03
-2.256939e-02
-3.911234e-03
-1.039913e-02
-1.378873e-02
-3.168983e-04
-3.706111e-03
-8.145116e-03
1.403194e-03
3.294615e-03
4.602382e-03
-3.603124e-04
1.890696e-03
1.534750e-02
-8.424264e-03
-4.432910e-03
1.734035e-02
-3.279021e-03
5.591122e-03
-3.356849e-03
-6.718155e-03
-1.441842e-02
-4.828637e-04
2.453965e-03
-9.944214e-03
-1.121095e-03
7.248761e-03
-1.670809e-03
2.110218e-02
-6.311335e-03
-1.179557e-04
1.025130e-02
-2.026750e-02
-2.440885e-02
-2.457373e-02
1.518954e-02
-3.254928e-04
-7.061023e-03
3.798018e-03
-4.052846e-03
-2.594860e-03
2.223235e-02
1.072367e-02
1.336276e-02
-4.198947e-03
-9.982994e-03
2.921897e-03
7.162004e-03
-4.170192e-03
-4.826589e-03
2.590187e-03
7.744551e-03
-1.464946e-02
3.606543e-02
1.896613e-02
-6.656740e-03
1.337831e-02
-4.874407e-03
-3.438060e-03
-1.808340e-02
-2.155850e-02
7.315327e-03
-6.354614e-03
-4.186686e-03
-9.275473e-03
-7.753963e-03
-5.551678e-03
1.610635e-03
-1.949197e-02
-1.762910e-02
2.687709e-03
-1.083205e-02
-1.486946e-02
-1.117809e-02
-6.230873e-03
-3.510101e-03
-2.864330e-03
1.254901e-02
-6.525404e-03
-1.096857e-02
1.430992e-04
1.285338e-02
1.285837e-02
-7.115625e-03
-3.565338e-03
9.670320e-04
-1.277135e-02
-6.439972e-03
-1.150535e-02
-2.254062e-02
-1.626113e-02
1.448360e-03
-6.790150e-03
8.708631e-03
2.675530e-02
9.491185e-03
3.188704e-02
1.742463e-02
5.246801e-03
-2.608194e-02
-1.838495e-02
-1.776015e-02
-2.209482e-02
-1.817841e-02
-1.016476e-02
-2.193620e-03
2.655156e-03
-5.179502e-03
1.219433e-02
-2.995248e-03
-6.708143e-04
1.848100e-03
1.923007e-02
7.473779e-03
4.118138e-03
-5.126999e-03
2.982371e-03
3.132281e-03
-1.896646e-02
-2.616851e-03
6.902653e-03
-9.124915e-03
-2.732339e-03
6.849599e-03
-1.316450e-03
-6.280914e-03
-2.861304e-03
-3.217239e-03
5.484940e-03
1.116058e-02
-1.443353e-02
7.243995e-03
7.343690e-03
-1.687388e-02
-1.552658e-02
-1.699754e-02
3.561870e-03
7.472966e-04
-9.616885e-03
-2.804215e-03
-9.916075e-03
-1.085324e-02
-2.562967e-04
-7.975822e-03
-2.360687e-02
-3.564567e-02
-2.285022e-02
-2.359219e-02
-1.968533e-02
-1.009163e-02
-1.221498e-02
-1.430298e-02
-5.980575e-03
-3.580177e-03
-5.436870e-03
-1.732713e-02
-1.306221e-02
-1.082164e-02
1.282833e-02
-4.923016e-03
-2.033580e-02
-1.745072e-02
-1.110838e-02
7.771502e-04
-8.025256e-03
-1.538430e-03
2.850044e-02
7.876766e-04
1.413222e-02
-1.414629e-03
-2.149064e-02
9.905924e-03
-1.404769e-02
-8.231861e-03
-4.535018e-03
-2.675500e-02
5.016345e-03
6.179917e-03
-4.594786e-03
5.216888e-03
-1.904392e-02
3.545239e-04
1.403761e-02
-1.194728e-02
-6.809022e-03
-1.695176e-02
-2.315191e-04
1.267115e-03
2.686140e-02
1.476244e-02
-9.054423e-03
-5.786640e-03
-2.887001e-02
-3.177847e-02
3.243836e-03
1.182519e-03
-4.680384e-03
-9.808519e-03
9.559372e-03
-3.794392e-04
-5.235564e-03
1.177281e-02
3.570952e-03
-4.509040e-03
1.578517e-02
2.307347e-03
-9.484522e-03
-7.261376e-03
8.099277e-03
1.279743e-02
-5.670158e-03
1.487942e-02
1.525284e-02
-1.007509e-02
-1.326398e-02
-2.118134e-02
-4.457090e-03
2.359181e-03
-1.533543e-02
-1.513972e-02
-1.417154e-02
1.577591e-02
6.078003e-03
-6.378507e-03
4.484419e-03
3.598579e-04
-9.099768e-03
-8.207328e-03
-2.611836e-04
-9.454232e-03
1.547686e-02
1.308933e-02
-4.365678e-03
6.149313e-02
2.012303e-02
-2.438757e-02
2.624127e-02
-8.967915e-04
-1.050468e-02
9.652324e-03
-8.868338e-03
4.893742e-03
-2.005043e-02
-3.940913e-03
3.462052e-04
-5.978061e-04
8.530850e-03
-4.616922e-03
-1.727766e-03
1.181418e-02
-7.138885e-03
7.944702e-04
-7.355385e-03
6.342675e-03
1.415319e-02
2.620315e-03
-8.675379e-04
6.525128e-03
-1.253294e-02
-3.132565e-03
8.337854e-03
-1.174698e-02
-9.355687e-04
-3.371626e-03
2.697146e-03
-1.534496e-03
-1.122994e-02
-6.684746e-03
9.980889e-05
8.473329e-02
2.636911e-02
-1.290274e-02
4.444128e-03
-7.660346e-03
-1.587951e-02
-4.494914e-02
-3.735439e-02
-3.516934e-02
-2.626330e-02
-2.933432e-02
1.523506e-04
9.141785e-03
7.975853e-03
4.491595e-03
-6.432486e-03
-3.929511e-03
-1.711237e-02
-5.386054e-03
-6.551326e-03
9.144175e-03
-2.282220e-02
-8.234782e-03
-1.229305e-02
2.986854e-02
-7.309245e-03
-1.262597e-02
-4.071175e-03
-4.213077e-03
7.247543e-03
-1.024240e-02
-5.847987e-03
-1.567871e-02
1.226203e-02
-1.689498e-02
-3.420959e-03
-3.088708e-03
-1.578549e-02
2.868698e-02
-7.284263e-03
-1.484800e-02
1.927639e-02
-3.369294e-03
4.713489e-03
2.023312e-03
-2.461624e-03
-1.281088e-03
8.019698e-03
2.685441e-02
-1.113837e-02
-3.633044e-02
-1.852963e-02
-1.014884e-02
-1.225200e-02
1.906013e-02
1.692782e-02
-2.488975e-02
1.433934e-02
3.016221e-02
-1.525778e-03
2.134839e-03
2.587798e-02
-1.749256e-02
-2.124868e-02
-3.185487e-03
1.898438e-02
-1.048872e-02
-1.260082e-02
-1.759964e-03
7.545653e-03
6.886103e-04
-1.653814e-02
-1.134564e-02
1.194112e-02
2.243334e-02
-2.070141e-03
-2.704855e-03
-4.818220e-04
-3.497751e-03
-1.454436e-02
-1.804573e-02
3.950171e-03
4.099439e-03
6.011142e-03
2.830107e-03
5.717675e-03
2.548792e-02
1.408742e-04
1.271308e-02
-7.816651e-03
-9.038844e-03
4.430624e-03
-2.005019e-02
-1.417995e-02
-1.326741e-02
2.301326e-02
-1.081851e-02
-1.074872e-03
-1.168859e-02
2.245774e-03
2.220062e-02
7.621717e-03
-1.293275e-02
-6.120988e-03
2.186984e-04
-3.404063e-03
-7.402199e-04
5.379044e-03
-3.587922e-02
-5.806550e-03
1.909206e-02
-1.386618e-02
-1.020663e-02
-2.572170e-03
-9.483511e-03
-1.454238e-03
1.560272e-02
-1.114462e-02
8.126467e-03
-6.824016e-03
2.225970e-02
2.576256e-03
7.933866e-03
1.067088e-02
1.570134e-02
2.020061e-02
-7.807605e-03
1.143943e-02
7.761089e-03
-1.439176e-02
-8.547901e-03
-1.673130e-02
-1.302246e-02
1.450837e-02
3.499945e-02
-6.544729e-03
-1.167540e-02
2.302447e-02
-5.650916e-03
-1.099890e-05
3.145903e-02
-2.210307e-03
-3.578836e-02
-1.490262e-02
4.495221e-03
-6.921856e-03
-1.970180e-02
9.294355e-03
5.698168e-03
-3.936459e-02
9.758666e-03
-8.211581e-03
-1.969313e-02
-3.189834e-02
-1.691911e-02
-1.669578e-02
-7.338485e-03
-2.110424e-03
3.001394e-02
1.225382e-02
-3.893425e-03
1.637327e-02
1.739605e-03
-3.384348e-03
1.777268e-02
-2.934356e-02
-2.364810e-02
1.998732e-03
-8.428660e-03
-2.316304e-03
6.312779e-03
-1.768049e-02
8.118976e-03
4.575676e-03
7.808188e-03
8.851226e-03
7.498639e-03
-2.727108e-03
2.792189e-03
-2.394309e-03
-2.432877e-02
-1.016910e-02
-8.885172e-03
-1.766260e-02
-1.007774e-02
4.550940e-03
-1.340837e-02
-3.753321e-03
-2.632943e-03
2.851418e-03
-3.943866e-03
2.191616e-02
2.597098e-03
-6.357241e-03
-1.292658e-02
2.971299e-03
3.828882e-03
3.511138e-03
4.701760e-04
8.393231e-03
-6.076096e-03
3.507302e-03
5.221937e-03
-1.639251e-03
6.128284e-03
2.371482e-03
1.935054e-02
7.396205e-03
-9.055787e-03
3.187366e-03
2.888424e-03
8.878122e-03
9.182306e-03
1.260120e-02
6.979330e-03
-1.014127e-02
6.441198e-03
3.168170e-03
1.159372e-02
-8.619336e-04
1.381473e-02
-1.115371e-02
-6.363472e-03
-4.710140e-03
1.635430e-03
4.087826e-03
7.240350e-05
1.315204e-02
-3.642531e-02
7.539752e-04
3.870900e-02
-4.810792e-03
-1.812507e-02
9.228293e-03
1.184971e-02
-1.370815e-02
-2.282418e-02
-1.284700e-02
-1.499726e-02
8.291008e-03
1.209290e-03
9.305239e-04
1.433259e-02
-2.287644e-02
5.288431e-03
-6.482917e-03
-4.449314e-02
-1.023524e-02
-5.415052e-03
-2.053349e-02
-1.247516e-02
-1.872966e-02
-2.639796e-02
2.869090e-03
5.056318e-03
-1.011127e-02
1.501750e-02
2.230084e-02
-1.161209e-02
-3.245203e-03
5.932602e-03
8.256196e-03
6.111274e-03
1.429321e-03
-1.623320e-02
-2.015158e-02
-7.860622e-04
-2.611875e-02
-1.662673e-02
-1.106926e-02
-3.508398e-02
-6.469325e-04
2.203238e-02
-1.713970e-02
2.593850e-03
2.033510e-02
-8.485998e-03
-1.613268e-02
-2.042453e-02
6.780733e-03
1.094644e-02
2.258855e-02
3.532621e-02
2.609095e-02
-1.829570e-02
7.805495e-03
3.259618e-03
-1.384067e-03
6.528630e-03
6.927889e-03
-1.220076e-02
3.353705e-02
-5.145153e-03
-3.144212e-02
3.119383e-03
8.241761e-03
2.092030e-02
-7.627822e-03
1.132752e-02
-7.413597e-03
6.406976e-03
-5.351368e-03
-7.179774e-03
1.455525e-03
-1.267316e-02
-1.083010e-02
9.135092e-03
3.399943e-03
6.984170e-04
2.219783e-03
-1.777503e-02
-3.071958e-02
9.232441e-03
-3.967326e-03
-2.012224e-02
-1.868270e-02
-1.888998e-02
2.273129e-02
-8.741817e-04
1.287366e-03
3.351111e-02
-6.126751e-03
1.368648e-02
1.139396e-02
-1.363729e-02
-3.490239e-02
-1.979103e-02
-3.717676e-03
-2.295415e-02
3.655498e-04
1.660052e-02
2.048473e-02
1.415598e-02
-2.586019e-02
-1.571800e-02
1.271543e-02
-2.102509e-02
-8.354142e-03
-1.044316e-02
6.465083e-03
2.056499e-03
-7.481724e-03
-1.524180e-02
-1.114230e-02
-7.302374e-03
-2.317887e-02
5.826781e-04
-4.311366e-03
-1.253260e-02
-7.878063e-03
-9.760157e-03
1.195882e-02
8.927702e-04
-6.824821e-03
-9.159938e-03
-1.265715e-02
-1.837118e-02
-2.163039e-02
8.340401e-03
3.112956e-03
-1.233460e-02
-2.607442e-02
-4.049780e-02
-8.143916e-03
-1.148524e-02
-2.779190e-02
-2.478634e-02
-4.110440e-04
-3.474642e-04
1.621636e-02
-1.671213e-03
-2.198738e-02
-2.540229e-03
-1.203325e-02
-1.843381e-02
-2.387295e-02
-9.712387e-03
1.359829e-02
2.710983e-03
4.415702e-03
3.428183e-03
-8.641465e-03
-1.426774e-02
-1.058263e-02
-4.208719e-03
-1.050152e-02
-4.684897e-03
-4.655171e-02
-1.808869e-02
9.099924e-03
-2.756128e-02
3.789497e-03
4.048671e-02
1.955462e-02
1.349296e-02
7.954059e-03
8.752155e-03
2.459911e-03
2.006352e-02
-1.179500e-02
2.769537e-03
-1.160846e-02
-2.878114e-04
-7.830556e-03
-1.886171e-02
2.247657e-02
9.992855e-05
-2.792137e-02
2.506517e-02
-1.428086e-02
-2.467802e-02
-1.612526e-02
-1.430560e-02
-2.320778e-02
2.618326e-02
2.058231e-02
1.857065e-02
1.497838e-02
1.267220e-02
6.884416e-03
2.560408e-04
-1.742403e-02
8.455730e-04
-3.741058e-03
4.335057e-03
7.491223e-03
4.706614e-04
-1.286285e-03
-4.149141e-03
-1.288127e-02
-1.281891e-02
-1.270786e-02
-1.087704e-02
-1.293415e-03
5.384598e-03
-2.790667e-02
-1.934821e-02
-2.678014e-02
-3.256757e-02
-1.522737e-02
-1.142982e-02
-2.769913e-02
-5.478808e-03
-7.069004e-03
-3.002681e-03
-1.151101e-04
-8.043394e-03
-1.398778e-02
-1.532666e-03
-2.447861e-02
1.837143e-02
1.105781e-03
-2.156086e-02
-9.363537e-03
-1.147876e-02
-1.784456e-02
-2.158944e-02
-6.489431e-03
1.653417e-02
3.161822e-02
1.209695e-03
-3.099789e-02
1.393772e-02
-1.000902e-02
-3.278439e-02
3.997667e-02
1.688189e-02
-1.557487e-02
1.250185e-02
8.504749e-04
4.654196e-04
2.419922e-02
1.182765e-02
-1.075869e-02
-3.435230e-03
-1.054324e-02
-1.181467e-02
4.291235e-03
2.390824e-02
2.337643e-02
2.446738e-02
1.604771e-02
2.040847e-02
3.483760e-02
2.709550e-02
8.200940e-03
3.825841e-02
3.175662e-02
-8.695462e-03
3.473498e-02
-9.081015e-03
-1.937612e-02
2.313228e-02
-4.587285e-03
-2.007109e-02
-1.387338e-02
-2.799984e-02
-2.026414e-02
-7.205752e-04
-1.704443e-02
-1.938064e-02
4.438385e-03
-9.636434e-03
-1.191275e-02
-3.141610e-02
-2.200324e-02
7.162577e-03
7.280790e-03
8.424546e-03
-1.935503e-03
1.055487e-02
-7.102608e-03
-3.356969e-02
-1.621760e-02
-1.306987e-02
-5.313456e-03
-9.530151e-03
-1.395827e-02
-1.548472e-02
-1.018676e-02
-4.141236e-03
9.640252e-03
-2.927625e-02
-2.308185e-03
1.946863e-02
-1.493414e-02
-4.544743e-03
1.974076e-02
-9.881902e-03
-5.110240e-03
-1.707012e-03
-1.667241e-02
-1.783226e-02
-1.804986e-02
1.404974e-03
-9.013494e-03
-7.003465e-05
-1.174437e-02
-1.756067e-04
8.544550e-03
-1.856314e-02
-3.040754e-02
-1.851212e-02
-1.278794e-02
-1.306290e-02
-6.824551e-03
-7.050422e-03
-1.571861e-02
-1.371120e-02
1.591079e-02
-7.592910e-03
-1.962417e-02
2.045397e-02
-3.512608e-03
-1.058127e-02
1.484007e-02
-2.413454e-03
-1.374607e-02
-1.438061e-03
-1.615870e-02
-1.468591e-02
-9.800697e-03
-4.190056e-03
-1.286085e-02
-3.839881e-03
-9.655519e-03
3.013828e-02
-1.358104e-02
7.408033e-04
2.011682e-02
1.043669e-02
2.494379e-03
1.617112e-02
-5.122737e-03
-1.971819e-02
-1.897912e-02
-3.088264e-02
-1.764163e-02
2.168713e-02
4.725931e-03
8.356180e-03
1.982569e-02
2.466051e-02
5.358596e-03
-8.726267e-03
1.006861e-02
-3.723413e-03
1.529950e-03
-7.008476e-03
-1.590385e-02
-2.066866e-03
-1.101980e-02
-1.133050e-02
-1.127693e-02
1.447038e-02
3.869129e-03
-1.540450e-03
1.802204e-02
-3.124299e-03
-4.247100e-03
1.246296e-02
-1.380141e-02
1.350628e-02
1.720587e-03
-2.356527e-03
-3.290269e-02
-1.065969e-02
-6.232816e-04
-9.817496e-03
6.062993e-03
-3.591023e-03
-1.356813e-02
3.519594e-03
-3.042416e-02
-9.450356e-03
-3.574534e-03
-2.268037e-02
-3.925283e-03
-1.010886e-02
-8.009390e-04
9.617030e-03
-1.498090e-02
4.798562e-03
1.413753e-02
-2.573794e-02
-1.834293e-02
1.108651e-02
-1.770563e-02
-4.563613e-03
-2.282517e-03
7.785480e-03
6.503059e-03
-8.693699e-04
4.030425e-03
-5.590375e-03
-1.725710e-02
-1.375877e-02
-8.951019e-03
-1.105975e-02
-1.413303e-02
-1.075040e-02
8.946368e-03
-1.266716e-02
-4.785835e-04
-2.973017e-03
-3.082576e-03
-9.550338e-05
-2.324792e-02
-1.753709e-02
-1.237558e-02
-1.844526e-02
-1.573070e-03
1.059882e-02
-1.422910e-02
3.714813e-03
7.028500e-03
-1.399335e-02
-5.353332e-03
3.858750e-03
-4.422712e-03
6.237046e-03
-5.814242e-03
-4.436271e-03
-7.872308e-03
-4.169514e-03
3.230569e-03
2.587102e-03
-1.254336e-02
1.892027e-03
-3.112845e-02
-1.300444e-02
-1.120877e-02
5.694686e-03
5.456540e-03
2.636015e-02
6.144127e-03
9.515700e-03
2.007484e-02
1.421823e-02
1.586026e-02
-7.700472e-03
-1.257902e-02
1.319586e-02
-4.457894e-03
-2.074432e-02
-6.676947e-03
8.424161e-04
-1.720532e-02
5.705433e-03
1.144794e-02
6.631659e-03
2.425513e-03
-2.625264e-03
-1.706108e-03
-1.276018e-02
-1.243962e-02
3.582957e-03
-3.389796e-04
-2.293003e-03
1.777356e-02
-8.719983e-04
-1.670780e-02
1.644885e-03
-2.115641e-02
-2.383897e-02
1.174994e-02
-8.706372e-03
-1.141107e-02
-2.706972e-03
-1.049685e-02
1.156198e-03
3.788053e-03
2.210366e-02
1.266715e-02
-8.227943e-03
-4.214037e-03
5.203481e-03
-3.887729e-02
-3.907144e-02
-1.748743e-02
-1.653310e-03
6.849097e-04
1.010866e-02
-2.442594e-02
1.194777e-02
1.704127e-02
-2.883806e-03
-8.147652e-04
1.649656e-02
7.766569e-03
-2.986003e-02
-2.706179e-02
-1.022630e-02
-1.235898e-02
-3.491585e-02
-2.741854e-03
5.976405e-03
-2.898890e-03
9.399040e-03
-2.227260e-02
-2.301249e-02
-7.488097e-03
-1.053189e-02
-1.251130e-02
-2.233661e-02
-9.474321e-03
-1.049282e-02
-2.613382e-02
-1.791735e-03
-9.876935e-03
-8.672573e-03
2.934730e-03
-1.424173e-02
-5.908093e-03
-6.236742e-03
-1.938130e-03
8.419950e-03
1.626284e-03
1.560728e-03
3.261775e-02
5.547890e-03
-1.806113e-02
1.919456e-02
-1.281412e-02
-3.620708e-02
-2.455931e-02
-5.402535e-03
9.041840e-03
2.391387e-03
1.860561e-03
2.604923e-02
1.800167e-03
-1.840562e-02
-1.052788e-02
-1.527298e-02
-2.257669e-02
-1.135028e-02
3.359164e-02
2.502104e-03
5.573952e-03
2.860915e-02
1.518343e-02
1.664346e-02
8.980047e-03
9.879840e-03
1.746272e-02
-3.123122e-04
1.757363e-03
4.942395e-03
-9.282633e-03
-1.126987e-02
-1.739396e-02
7.918610e-03
1.189857e-03
-3.217844e-02
1.964760e-02
2.994122e-03
1.365029e-03
2.012496e-02
-4.695656e-04
2.600614e-03
7.674491e-04
1.029688e-02
-1.648059e-02
3.147430e-03
5.722235e-03
-2.754700e-03
-1.553596e-02
-8.635149e-04
2.384244e-03
3.529456e-02
2.409815e-02
3.768509e-04
2.790122e-02
1.650993e-02
-1.191331e-02
3.157151e-04
-6.288747e-03
-9.745421e-04
-1.759526e-02
-2.387094e-02
-3.015212e-02
-2.547972e-02
-1.053114e-02
-2.793697e-02
-1.463267e-02
3.961623e-03
1.980487e-03
-6.062057e-03
1.723204e-02
5.093964e-03
-6.067251e-03
-3.284736e-03
-1.582408e-02
-8.745833e-03
-5.191669e-03
1.466861e-02
-1.025987e-02
-6.738286e-03
1.965325e-02
8.722013e-03
8.131662e-03
-3.076113e-03
2.960849e-02
2.303469e-03
-1.404638e-02
-2.494890e-03
5.234481e-03
8.275725e-03
-6.505409e-03
-9.107959e-03
8.623490e-03
1.806528e-02
-2.457644e-03
9.758241e-03
-1.702432e-02
4.681605e-03
5.363897e-03
-2.162616e-03
-7.055808e-03
1.486902e-02
3.055890e-03
2.009391e-03
3.564201e-02
-1.727652e-02
-1.992187e-03
1.799343e-02
-3.992691e-03
-2.954937e-03
6.831446e-03
3.124386e-02
1.133345e-02
1.278723e-02
-1.056873e-02
-1.538745e-02
-1.937172e-02
-1.022577e-02
-1.368448e-02
-1.112192e-02
-2.834290e-02
-2.612070e-02
-5.269661e-03
-4.333226e-03
-1.498625e-02
-7.051545e-03
-4.030643e-03
-1.341585e-02
-1.157011e-02
-6.993727e-03
-9.009621e-03
-2.367654e-02
-6.076504e-03
-1.177997e-02
-9.045922e-03
-1.438830e-02
-1.971820e-02
-5.231848e-03
-8.788288e-03
-4.187923e-03
-9.217544e-03
1.778237e-03
-4.674215e-03
-1.817312e-02
-7.405070e-03
-4.670468e-03
-1.537882e-02
-7.460863e-03
2.866784e-02
3.863900e-02
4.214539e-03
-5.399553e-03
2.519160e-03
-1.490949e-03
-9.975987e-03
-3.729169e-03
-1.543604e-03
2.366070e-03
-6.015847e-03
-1.593001e-02
-3.693481e-03
-5.590136e-03
1.082755e-02
-2.758353e-03
6.610286e-03
2.466689e-02
1.844409e-03
1.577433e-02
-3.178634e-02
5.884739e-03
6.126825e-02
-1.155520e-02
-8.108098e-03
4.899250e-03
-9.341042e-03
-1.249823e-02
-3.184087e-02
1.847053e-02
-7.676487e-03
-2.560416e-02
-1.129343e-02
-1.979498e-02
-5.935828e-03
3.279505e-02
2.742550e-02
8.991647e-03
-8.714320e-03
-1.737596e-02
-1.516226e-02
-1.405829e-02
-1.089662e-02
-1.087300e-02
8.827916e-03
9.712868e-03
6.081625e-03
-9.103484e-03
4.239228e-02
7.210436e-02
-1.986205e-02
5.404470e-03
2.343618e-02
-1.222505e-02
-5.218582e-04
1.556601e-02
-2.400449e-03
-1.813919e-02
-3.710131e-03
9.109453e-03
-3.578757e-02
-1.980524e-02
1.061097e-02
-3.670649e-04
2.101610e-03
7.368425e-03
-2.652758e-03
-1.770988e-02
9.187088e-03
-2.338602e-03
1.089938e-02
-9.417438e-03
-2.825649e-03
2.002053e-02
-3.151165e-02
-2.085484e-02
-2.532484e-02
-2.886691e-02
-2.636316e-02
-3.933007e-02
-7.526118e-03
-2.436457e-02
-3.135542e-02
-1.998072e-02
-4.868996e-03
-1.058436e-02
1.496445e-02
-7.522277e-03
-1.099425e-02
2.641819e-02
-1.327224e-03
-2.140562e-02
1.660823e-02
-8.258286e-04
-1.092777e-03
8.365764e-04
-9.545396e-05
-7.515953e-03
-2.530568e-02
-1.404774e-02
1.162583e-02
2.894582e-03
-2.225739e-03
-1.217527e-02
8.609555e-03
-1.506105e-03
-1.898153e-02
-4.080884e-04
-9.238702e-03
-1.845055e-02
1.856151e-02
4.204151e-03
3.630669e-03
-2.285952e-02
-4.442655e-03
-5.078407e-03
-2.819616e-02
-2.623454e-02
-1.203466e-02
-1.019060e-03
-9.154559e-03
-1.125877e-02
-2.896259e-03
-2.474846e-02
-6.734322e-03
-2.109534e-02
-3.732185e-02
-1.321926e-02
-1.629594e-02
-1.526747e-02
-1.701716e-02
-2.054044e-02
-2.273651e-02
-8.877455e-03
-2.707474e-02
-1.629796e-02
-6.292851e-03
-8.503722e-03
1.876853e-02
4.110787e-02
-4.882603e-03
-1.657858e-02
1.343420e-02
-1.566822e-03
-1.237737e-04
1.600302e-02
1.652271e-02
4.045174e-03
2.372940e-02
-1.049879e-03
-1.327398e-02
2.698568e-02
-1.911004e-02
-1.533030e-02
-3.471557e-03
-8.326196e-03
8.360984e-03
-1.859472e-02
-1.533560e-02
-9.571324e-03
-2.928099e-02
-2.064968e-02
-8.415625e-03
-1.757534e-02
2.011434e-02
4.021434e-02
-2.079505e-02
-1.800350e-03
2.325236e-03
-4.374022e-03
-1.656323e-03
-2.928118e-03
2.566646e-03
-1.335847e-02
-5.345402e-03
-1.259047e-02
-1.533902e-02
1.393956e-02
4.802041e-03
-9.427460e-03
3.876228e-02
1.687630e-02
3.441132e-02
4.624153e-03
-2.505257e-02
1.098001e-02
-7.853467e-03
-2.271519e-02
-2.236737e-03
-1.759252e-02
-2.574757e-02
6.177216e-03
-1.290649e-02
-3.239840e-02
7.602120e-03
-7.129527e-03
-2.638056e-02
2.248568e-02
1.052545e-02
2.807713e-03
-8.503146e-04
9.893875e-04
1.326687e-02
-5.048643e-04
-2.923592e-03
-6.974136e-03
1.042660e-02
-4.406659e-03
-1.331541e-02
-2.219173e-02
5.718608e-03
1.411944e-02
1.022765e-03
3.714075e-02
-1.456022e-02
1.785936e-02
-4.362010e-03
2.651669e-03
-7.909432e-03
-2.079407e-02
-1.706131e-02
-2.042054e-02
-5.894783e-03
-1.688216e-02
-5.133330e-03
2.893233e-02
4.942747e-02
-2.189414e-04
-4.081579e-03
-9.523327e-04
7.588416e-03
-4.046392e-02
-2.664746e-02
-1.400475e-02
-1.348438e-02
2.881136e-03
-1.187619e-02
1.075479e-02
-7.168637e-03
-2.165710e-02
2.317018e-02
-7.514892e-03
-5.878482e-03
1.219673e-02
-1.981915e-04
5.472233e-03
-4.799352e-03
-3.351028e-03
-6.190527e-03
-2.870082e-03
-1.453049e-02
-8.094770e-03
-2.851715e-02
-2.271080e-02
-1.493512e-03
-1.126417e-02
3.504490e-03
-3.417021e-03
-1.810544e-03
1.055842e-02
-5.699363e-03
1.001050e-02
2.943329e-02
-3.170074e-02
1.350312e-02
2.989468e-02
-1.722729e-02
-1.709638e-02
-2.094919e-02
1.816682e-02
-3.031071e-03
-1.345496e-02
1.011920e-02
9.927415e-03
-2.426324e-02
4.818389e-03
9.866045e-04
-2.456287e-02
1.162541e-02
-1.126582e-02
-9.699841e-03
-3.551936e-02
7.594233e-03
4.153810e-02
-1.854223e-02
3.947673e-03
2.239509e-02
-1.062181e-02
-1.305051e-03
-6.337394e-03
-5.928098e-03
-2.496902e-02
2.845832e-03
-1.303688e-02
-1.379993e-02
-4.449368e-03
-9.738262e-03
-1.861585e-02
-1.718730e-02
-1.978020e-02
-2.138984e-02
8.732202e-03
1.198132e-03
-3.569259e-03
-6.517221e-03
-2.830888e-02
4.229028e-03
7.140248e-03
-1.497696e-02
-1.962759e-02
-3.882172e-02
-1.364657e-03
-1.863039e-02
-2.485082e-02
-3.202876e-02
-1.309737e-02
-1.322254e-02
4.413207e-03
2.610056e-02
1.553254e-02
9.449727e-03
1.190852e-02
-7.694518e-03
1.713546e-02
2.142052e-03
-2.555606e-04
-2.424182e-02
2.046157e-02
5.280043e-03
-1.545328e-02
-2.980444e-04
-1.001660e-02
4.389843e-03
-4.174668e-03
-1.247964e-02
-1.672686e-02
3.184161e-03
1.508544e-02
-7.123556e-03
-2.475729e-02
2.446980e-02
1.145115e-02
-4.076238e-02
1.857763e-02
-5.711025e-03
-2.487513e-02
2.382707e-03
-5.944646e-03
-1.793854e-02
1.263670e-02
-2.112038e-02
3.352987e-03
2.579059e-02
2.219283e-02
1.897789e-02
-5.159225e-04
5.280394e-03
3.769898e-02
6.522251e-03
-4.222624e-03
-3.055266e-03
-3.679237e-03
7.420254e-03
5.959110e-03
7.908134e-03
-7.844830e-03
4.142602e-03
-3.114871e-03
-1.896242e-03
1.787005e-02
-1.815457e-03
1.142054e-02
9.693288e-03
-2.328483e-02
7.059206e-04
7.852884e-03
-2.211941e-02
2.343784e-03
-1.308168e-02
-2.254690e-02
-2.332287e-02
-1.563072e-02
4.935019e-03
-2.404223e-03
-1.257381e-02
7.461490e-03
-1.200051e-02
-1.718394e-02
-1.470478e-02
9.799329e-03
3.020490e-02
9.722607e-03
1.352095e-02
3.190388e-03
-1.082169e-03
3.215812e-02
4.502536e-03
2.215527e-03
1.437548e-02
1.656752e-02
-1.246954e-02
-2.415585e-02
-1.750063e-02
1.415087e-02
-1.989946e-02
-2.108265e-02
8.031425e-03
2.497060e-03
-3.307912e-02
-6.024799e-03
-2.910068e-03
-2.177511e-03
-2.777633e-02
-1.369355e-02
1.071057e-02
-1.774099e-03
-2.365358e-02
-2.776726e-02
1.985797e-02
-1.829455e-02
-1.020373e-02
-1.899842e-02
-1.027021e-02
2.132398e-02
-1.504253e-02
1.823530e-02
1.019293e-02
8.403499e-03
-4.416444e-03
1.473308e-02
4.852074e-03
-1.908804e-02
5.242596e-03
-7.818781e-04
-1.460801e-02
-9.889983e-03
-8.044912e-03
-4.080716e-03
7.407249e-03
2.662705e-03
1.087195e-02
-6.544485e-03
3.163922e-03
-2.059684e-03
4.091487e-03
1.511482e-02
8.740867e-03
-1.522614e-02
-2.080551e-02
2.275457e-03
-6.958523e-03
-2.850041e-03
-1.254306e-02
-1.287772e-02
-1.478819e-02
4.421990e-03
8.549056e-03
-5.128427e-03
6.970496e-03
8.530583e-03
1.200507e-03
-4.288396e-03
1.070428e-02
1.123088e-02
1.866372e-02
-5.858724e-04
4.190013e-03
-6.195454e-03
-1.372630e-02
4.086192e-04
-1.802225e-02
6.413517e-03
-9.696354e-03
-1.863833e-02
-1.696339e-02
-1.865959e-02
-2.072877e-02
-2.085065e-03
2.000144e-03
7.940572e-03
-8.216405e-03
-1.559717e-02
-8.672921e-03
-1.947597e-03
-6.436462e-03
-2.728168e-03
1.660709e-03
1.208590e-02
-2.148505e-02
-1.799368e-02
1.600240e-02
-1.707689e-02
2.775773e-03
4.626273e-03
-3.604454e-02
5.117291e-03
1.183227e-02
7.229150e-03
2.074195e-02
7.826149e-03
1.088396e-02
-2.419365e-02
-1.982200e-02
8.907504e-03
-1.720010e-02
-2.189963e-02
1.120258e-02
-2.473946e-02
5.664420e-04
-1.380800e-03
-1.859572e-02
-2.157304e-03
1.877446e-02
-7.705841e-03
-9.205750e-03
-2.977848e-02
2.573440e-02
-2.163789e-03
-2.111533e-02
2.230829e-02
2.229583e-02
9.108295e-03
-1.100643e-02
7.762181e-03
-9.455207e-03
6.073780e-03
-4.412998e-03
-1.543528e-02
-2.051004e-02
-2.140134e-02
-2.009517e-02
-4.209968e-02
-7.936851e-04
2.722904e-02
-1.621408e-02
-2.605662e-02
3.249865e-02
-1.942722e-04
7.976446e-03
1.455897e-02
-2.226658e-03
1.397481e-02
-9.990522e-03
2.215461e-03
-8.501010e-03
-2.321819e-02
-7.854515e-03
-2.885261e-03
-1.036839e-02
-2.378769e-03
1.351268e-02
-1.070148e-02
-2.426657e-02
-3.780822e-02
-5.846028e-03
-1.843877e-02
