7.975744e-11
1.001358e-10
8.531795e-11
1.215262e-10
5.790867e-11
5.028820e-11
6.942123e-11
-2.798380e-11
9.339188e-11
4.566800e-11
-9.043852e-12
-6.092606e-11
1.937627e-10
2.007065e-10
1.404535e-11
2.294973e-10
2.267500e-10
1.195202e-10
-1.276016e-10
-3.181347e-11
-2.077582e-10
-4.522567e-11
-2.048134e-10
-1.787060e-10
1.237836e-11
-4.695739e-11
-6.969134e-11
6.309674e-10
3.399925e-10
2.835076e-10
6.507946e-10
3.468760e-10
2.570650e-10
1.068663e-10
-4.301388e-11
-2.962456e-10
9.867732e-11
8.124687e-12
-5.899628e-11
2.291165e-11
7.429416e-12
-1.678425e-11
7.383524e-11
1.677503e-11
3.676780e-11
-1.787794e-11
-1.580866e-10
-1.142549e-10
7.807812e-11
-1.240000e-11
-1.433529e-10
8.289845e-11
-6.380375e-11
-1.762341e-11
-5.540576e-11
-1.480973e-11
-5.333821e-11
-1.921759e-11
-3.364413e-11
-4.047328e-11
-9.278689e-11
-3.632743e-11
-2.257495e-11
3.174634e-10
3.281218e-10
2.996322e-10
1.475532e-10
-5.842860e-12
-8.713403e-11
7.760218e-11
2.006880e-11
-2.185023e-11
8.329794e-11
3.417638e-11
-1.370321e-11
1.127073e-10
5.652194e-12
1.684246e-11
8.556347e-11
1.557533e-12
2.680526e-11
-2.702386e-11
-2.305988e-11
-1.548003e-10
-2.910953e-11
-3.382749e-11
8.989530e-12
3.962899e-11
9.429304e-11
-8.113022e-11
-1.234153e-10
-9.988772e-11
9.119156e-12
-1.156863e-10
-7.616970e-11
-1.421109e-11
-1.444032e-10
-1.964994e-10
-1.586638e-10
1.456596e-11
-1.553001e-11
-4.168486e-11
-3.634695e-11
-5.868853e-11
-3.458140e-11
-8.936888e-11
-6.711207e-12
-1.504621e-10
2.937320e-10
6.419660e-11
-5.648722e-11
1.056601e-10
-6.856715e-11
-2.359939e-10
8.923599e-11
-4.914882e-11
-2.440571e-10
1.438725e-10
2.189634e-11
-1.032755e-10
-2.298260e-11
-1.318981e-10
-1.372614e-10
3.467207e-11
-1.009346e-10
-1.831086e-10
-9.257445e-11
7.848178e-11
9.130951e-11
-7.580971e-12
7.919201e-11
1.767930e-10
1.816790e-10
1.153505e-10
2.182931e-10
-2.207336e-11
-4.648007e-12
-2.818560e-12
-2.706657e-11
5.280606e-11
-2.928621e-11
4.247956e-11
-5.496273e-11
-8.508522e-11
-3.318333e-10
-3.692629e-10
-3.498001e-10
-1.088854e-10
-1.101459e-10
-1.656823e-10
-1.176219e-11
-7.974855e-12
1.449662e-11
6.032550e-11
1.067549e-10
1.522562e-11
-1.408679e-10
-9.194351e-11
-1.264715e-10
-1.639381e-10
-1.834784e-10
-1.329259e-10
1.144607e-10
1.970515e-10
1.858827e-10
1.742868e-10
2.694003e-10
2.388127e-10
3.635207e-10
2.391153e-10
1.477084e-10
-3.802624e-09
-5.318803e-09
-5.822842e-09
-5.463000e-10
-3.285883e-09
-4.420448e-09
6.044094e-09
4.264055e-09
5.419681e-09
-1.239243e-10
-8.036093e-11
-1.922455e-10
-2.594231e-11
-1.860060e-10
-9.863430e-11
-2.093728e-11
-1.889063e-11
-4.573351e-11
-2.412805e-10
-8.873145e-11
-8.785638e-11
9.188491e-11
1.168535e-10
9.269755e-11
2.235402e-10
3.075594e-10
1.320898e-10
5.241720e-11
1.159851e-10
7.303200e-11
4.037824e-11
1.076835e-10
4.908869e-11
1.567851e-10
1.760435e-10
-5.685454e-12
-3.278106e-10
-1.203923e-09
-1.112339e-09
2.775269e-09
1.748572e-09
1.791478e-09
2.288754e-09
1.411583e-09
1.592004e-09
-4.153545e-12
-5.425168e-12
5.933017e-11
-2.462150e-12
5.267504e-11
-3.996732e-11
1.379943e-10
1.527071e-10
1.832862e-10
6.955216e-11
1.408217e-10
1.638835e-10
1.266163e-10
2.328368e-10
3.129302e-10
1.140642e-10
2.402253e-10
3.011631e-10
-1.855143e-10
2.509069e-10
1.814364e-10
-5.986964e-11
3.624544e-10
2.594246e-10
-2.311191e-10
7.797742e-11
1.227917e-10
5.445113e-11
-1.271776e-11
2.720626e-11
1.595563e-11
-6.130445e-11
-4.389819e-11
-6.009619e-11
2.196882e-11
2.645930e-11
3.204811e-10
1.929479e-10
2.922691e-10
1.100513e-09
1.018620e-09
1.240677e-09
6.502512e-10
5.930854e-10
7.653603e-10
4.418815e-10
5.116814e-10
4.222046e-10
7.006726e-10
8.862995e-10
8.466401e-10
7.829654e-10
8.373627e-10
8.745007e-10
-5.365634e-11
1.321416e-11
-3.109733e-11
-6.271936e-11
8.499768e-12
-1.600283e-10
-3.860600e-11
3.905015e-11
1.423723e-10
7.888838e-11
7.193030e-12
-3.062807e-11
9.415146e-11
-5.180545e-11
5.656013e-11
6.697642e-11
-3.636553e-11
2.400080e-11
-9.002771e-11
-7.517991e-13
-9.848138e-11
2.724087e-13
2.285222e-11
-5.520686e-11
2.875076e-11
3.468418e-12
-3.941059e-11
1.846977e-11
3.640965e-11
-4.070110e-11
1.005459e-10
-2.459565e-11
-1.853081e-11
1.573813e-11
-3.328058e-11
-1.215837e-10
-3.604419e-11
1.520688e-11
-1.048648e-10
7.588906e-11
8.128342e-11
5.748675e-11
6.991159e-11
1.859324e-10
3.811645e-11
-2.002464e-08
-2.287425e-08
-2.571497e-08
5.197525e-09
2.817678e-09
1.220186e-09
3.259365e-08
2.756796e-08
2.442663e-08
-5.029132e-11
-7.282825e-11
-6.708677e-11
-1.823481e-11
-2.622173e-11
-6.109305e-11
-1.219838e-10
-3.138478e-11
-1.029672e-11
-1.068205e-10
-1.021986e-10
-1.134170e-11
-7.701700e-11
-3.750728e-11
-7.172724e-12
-1.033880e-10
-1.802417e-10
-3.165270e-11
2.145037e-10
1.490758e-10
1.401514e-10
1.841866e-10
1.789230e-10
1.562312e-10
1.344441e-10
1.130293e-10
6.624786e-11
-1.677468e-11
-2.215047e-10
-1.821917e-10
-3.780743e-10
-5.657576e-10
-5.377563e-10
-3.159105e-10
-5.177540e-10
-3.756687e-10
-2.717301e-11
-2.718134e-11
-2.326356e-11
-4.341689e-11
-1.775338e-11
-5.893998e-13
-8.753867e-11
6.707594e-11
-3.689671e-11
-7.419374e-11
-1.072457e-11
-6.330662e-11
-6.446853e-11
-7.102070e-11
1.236155e-11
-1.319693e-10
-8.640639e-12
-9.888729e-11
7.243285e-11
5.364856e-11
-1.233367e-11
1.038991e-10
1.165917e-10
7.140135e-11
2.290727e-11
-2.033244e-12
-1.239929e-11
-1.242777e-11
-2.700260e-12
-1.703017e-11
1.953533e-11
-1.616687e-11
-2.720786e-11
-7.498311e-13
-3.738959e-11
8.307979e-11
-1.021698e-10
-8.069164e-11
-1.208540e-10
-1.438136e-10
-2.210474e-10
-2.269886e-10
-1.346375e-10
-2.615743e-10
-3.555467e-10
-1.221282e-10
-1.622829e-10
-5.021229e-11
-9.518704e-12
-2.606110e-11
-3.464195e-11
-3.167280e-11
-1.877830e-10
-1.318059e-10
5.297999e-11
5.680741e-11
-4.119606e-11
-1.596305e-10
-4.880365e-11
-4.248133e-11
-1.698246e-10
-5.857485e-12
-1.177108e-10
-6.562044e-11
2.007995e-11
4.652221e-11
-2.647091e-11
3.764603e-12
1.242631e-11
-5.796597e-11
-8.807374e-11
5.426008e-11
6.517157e-11
3.558688e-12
4.957181e-11
-9.897336e-11
-8.749687e-11
-6.655652e-11
-6.175566e-11
-5.054285e-11
5.680386e-12
3.488711e-11
-7.219795e-11
-2.813285e-10
3.925004e-11
-8.984539e-11
-1.099388e-10
1.522440e-10
8.727265e-11
-1.813373e-10
-4.394623e-11
-8.684355e-11
-5.169655e-11
-4.589624e-11
2.431721e-11
6.325519e-11
6.763409e-11
-3.559002e-11
-5.942088e-11
6.795106e-08
-1.215358e-07
4.001481e-08
1.487146e-07
-4.705065e-08
1.449271e-07
1.559806e-07
-3.003823e-08
1.377526e-07
-2.495985e-11
8.405764e-11
2.267943e-11
-4.122467e-11
5.949774e-11
4.750696e-11
6.086165e-11
8.025894e-11
3.247501e-11
1.192031e-10
4.866647e-11
-8.877463e-11
2.147393e-10
4.340391e-11
-1.134678e-10
2.079559e-10
1.959766e-10
1.980064e-11
-3.248445e-11
-5.808712e-11
-6.718838e-11
4.674305e-14
-7.878676e-11
1.215832e-11
-9.365230e-11
-8.764747e-11
5.204587e-11
3.963223e-10
5.507705e-10
2.823881e-10
-6.392858e-11
2.209326e-10
-7.301361e-11
-1.705568e-10
1.418446e-11
-2.494246e-10
-9.435289e-11
-8.987738e-11
-1.508094e-10
-1.870870e-11
-4.946692e-11
-9.009875e-11
-6.357348e-11
1.985850e-11
-2.676949e-11
-7.204777e-11
-9.885423e-11
5.136069e-11
2.378767e-11
-5.791668e-11
-5.752618e-11
-5.382431e-11
-1.342010e-10
7.862933e-11
-1.859127e-10
-1.084911e-10
2.944018e-11
-1.730071e-11
-4.850037e-11
2.126513e-11
-7.036157e-12
4.351478e-12
1.896706e-10
-9.269256e-11
-3.732290e-11
3.252691e-11
-2.543197e-11
-2.722633e-11
4.512682e-11
1.148726e-11
-2.533756e-11
-1.179099e-11
2.698624e-10
-3.913207e-11
-2.257127e-10
5.752383e-11
-8.011806e-11
-4.249038e-10
-5.478120e-11
-2.380028e-10
-5.093235e-10
-6.942161e-11
-7.576482e-11
-8.338379e-11
-1.446334e-10
-1.741612e-10
-2.140570e-10
-1.362546e-10
-1.227288e-10
-2.124782e-10
3.522102e-10
-6.592283e-11
-2.469288e-10
4.503882e-10
-4.532439e-11
-3.346551e-10
5.291713e-10
2.941133e-11
-2.796734e-10
3.054446e-11
7.779666e-11
-1.482045e-10
1.211058e-12
-2.318555e-11
-5.230497e-11
1.164097e-10
-6.968231e-11
7.123145e-12
-4.791265e-10
-8.818710e-11
2.221429e-11
-2.974752e-10
-1.713013e-10
-2.328047e-10
3.569783e-10
2.700218e-10
-1.337581e-10
1.422695e-10
-2.856660e-11
1.185227e-10
1.228521e-10
1.009905e-10
8.968955e-11
5.176674e-11
1.328213e-11
-6.855608e-11
-7.845898e-11
1.406594e-10
1.612588e-10
-1.758694e-10
2.686259e-11
5.295222e-11
-5.769058e-11
1.402524e-10
1.375179e-10
5.534727e-08
8.657253e-08
-1.481373e-07
3.105461e-07
3.147335e-07
6.549892e-08
-1.074784e-07
-8.730547e-08
-3.897693e-07
-1.175134e-10
-1.448341e-10
-9.226754e-11
-1.641546e-11
-1.934134e-10
-5.968101e-11
-3.906269e-12
-3.498084e-11
-3.725134e-11
1.111209e-10
2.096951e-10
-3.984532e-11
6.665688e-13
1.065313e-10
4.721505e-11
6.658369e-11
3.210836e-11
-1.271605e-10
3.802761e-10
3.070899e-10
2.190578e-10
2.897571e-10
1.725495e-10
2.338072e-10
2.926251e-10
5.752937e-11
7.965108e-11
-4.235207e-10
-4.635515e-10
-5.399317e-10
-1.370823e-09
-1.381511e-09
-1.384056e-09
-2.239917e-10
-3.738110e-10
-9.461006e-10
1.355208e-11
-9.072647e-11
-1.267914e-10
-3.731756e-11
-8.557636e-11
5.156652e-12
3.633623e-12
-1.121604e-10
3.056535e-11
6.474966e-11
2.135818e-10
1.579001e-10
-5.960762e-11
1.449396e-12
4.301509e-11
-3.984529e-11
2.893953e-11
4.310526e-11
1.763210e-10
1.838954e-10
2.801021e-10
1.083776e-12
-1.707712e-12
3.009320e-10
2.142078e-10
2.062537e-10
2.346851e-10
2.679773e-11
-1.074577e-10
-6.529868e-11
-4.056570e-11
1.488798e-10
3.405241e-11
5.139604e-11
-9.375817e-11
5.631802e-11
1.966667e-10
1.694453e-10
2.646639e-10
2.022282e-10
7.331272e-12
3.395654e-10
1.555356e-10
2.427315e-11
9.488783e-11
-1.612616e-10
8.794641e-11
2.118523e-11
-9.380721e-11
5.955864e-11
1.727525e-11
4.482109e-12
1.718269e-10
2.020520e-10
-1.763869e-10
3.199401e-10
3.116466e-10
3.721707e-12
2.556227e-10
5.314682e-10
-1.921549e-11
2.358319e-10
3.986523e-10
1.697107e-11
-1.168504e-11
-2.420570e-11
3.173218e-11
2.072370e-11
1.805132e-10
2.274173e-10
4.248119e-11
2.627005e-11
-2.684968e-11
5.975563e-11
4.314216e-12
6.475148e-11
1.757480e-10
9.756852e-11
1.362993e-10
3.395361e-10
1.494266e-10
2.263336e-10
1.353192e-10
-1.845169e-10
1.501258e-10
-7.931784e-11
-1.852372e-10
3.706428e-10
1.025179e-10
-1.006803e-13
-5.757878e-11
-1.798765e-10
-4.286051e-11
-7.348074e-11
2.252283e-12
-2.650763e-11
-1.789182e-10
-1.432928e-10
-6.214419e-11
-5.780270e-08
-4.604706e-08
1.576669e-08
-1.919325e-07
-2.085848e-07
-1.475841e-07
1.060831e-07
3.398004e-08
1.053946e-07
1.668696e-11
7.822564e-11
-5.522242e-14
4.750843e-12
1.099532e-10
-4.896289e-11
-2.668166e-11
-8.382064e-11
-6.548516e-11
3.277261e-11
-5.064943e-11
-1.370054e-11
7.811260e-11
-1.703735e-11
1.444741e-10
7.873984e-12
3.007176e-11
9.795220e-11
-1.083208e-10
-4.835468e-11
-1.438057e-10
-9.036893e-11
-1.796712e-10
-1.779630e-10
-1.501715e-10
-2.346988e-10
-1.410024e-10
-2.183288e-10
-5.924010e-11
1.176522e-11
-4.089687e-10
-4.150814e-10
-5.647974e-10
-6.716612e-11
1.024992e-10
4.399324e-11
1.560081e-10
2.024139e-10
3.209246e-11
1.183854e-10
1.402272e-10
-1.821921e-11
-1.552950e-10
-1.921105e-10
-2.777825e-10
-4.642687e-11
-1.262547e-11
-3.497314e-11
4.687286e-11
5.811870e-11
5.226335e-11
-5.466016e-11
7.258030e-11
5.155104e-11
-8.550441e-11
-1.098777e-10
-2.631750e-10
-1.611385e-10
-1.069887e-10
-2.845414e-10
-1.439689e-10
-2.563469e-10
-2.896414e-10
1.264987e-10
6.447314e-11
2.890663e-11
1.044658e-10
3.519706e-11
-5.948277e-11
1.954245e-10
7.252431e-11
2.880370e-11
-8.312725e-11
-3.208816e-11
-1.254247e-10
-9.625679e-11
-2.087396e-10
-1.248124e-10
-1.571356e-10
-2.058772e-10
-2.541080e-10
-1.066488e-10
-1.258322e-10
-2.129151e-10
-9.333338e-11
-9.932587e-11
-6.292875e-11
-1.789958e-10
3.400292e-11
-8.538135e-12
4.744041e-10
2.521586e-10
2.012203e-10
4.723003e-10
4.433428e-10
3.984039e-10
2.532982e-10
2.532587e-10
1.762548e-10
1.088361e-10
1.214199e-10
1.074705e-10
8.442187e-12
9.994799e-11
-5.721574e-11
1.933432e-11
3.552826e-11
-2.486966e-10
3.928030e-11
6.557212e-11
-1.064530e-10
-8.672866e-11
-5.848906e-11
-1.094876e-10
2.004042e-11
7.195420e-12
-1.977475e-10
4.017131e-11
6.948114e-11
1.152721e-10
-1.401478e-11
-8.178291e-12
-2.240030e-11
-1.203853e-10
4.287833e-11
-1.138725e-10
3.964504e-11
9.753496e-11
-5.760089e-13
-7.339847e-11
4.999542e-11
-1.326449e-10
5.004023e-11
1.039026e-10
-4.405974e-11
3.426845e-07
3.088784e-07
3.407691e-07
5.374983e-08
4.068483e-08
8.469411e-08
-4.561737e-08
-7.815801e-08
-3.804220e-08
2.738034e-11
1.108691e-10
1.301072e-10
-7.011072e-11
3.472400e-11
1.201303e-10
2.865208e-11
8.962596e-11
4.483018e-11
-1.257646e-10
-7.579873e-11
-1.462768e-10
7.124522e-13
4.476895e-11
4.795423e-11
-1.435524e-10
-5.996976e-11
-3.901637e-11
4.324102e-11
2.466138e-11
2.683597e-11
-1.346147e-10
-1.583214e-10
-1.073274e-10
-1.638490e-10
-8.815110e-11
-1.946829e-10
1.331095e-09
1.262445e-09
7.253388e-10
1.010535e-09
1.005436e-09
6.306607e-10
-2.392754e-09
-2.349626e-09
-3.182199e-09
8.828195e-11
-4.893063e-11
-6.485115e-11
-9.757590e-11
-8.929959e-13
-1.873061e-11
1.310612e-10
-3.478726e-12
1.569140e-10
3.925321e-12
-1.330753e-10
-5.301728e-12
2.611594e-11
-1.142042e-10
-1.033515e-10
1.129251e-10
1.932643e-11
-4.714841e-11
-2.141791e-10
-1.930352e-10
-1.669313e-10
-1.300950e-10
-2.335826e-10
-3.100608e-10
-2.331487e-10
-1.674350e-10
-3.256070e-10
-1.582949e-11
2.059500e-11
-2.070633e-11
-2.961656e-11
-1.099012e-10
-5.501467e-11
1.226588e-10
6.245959e-11
1.656700e-10
5.227105e-10
3.829577e-10
6.073185e-10
4.211175e-10
2.231972e-10
4.883775e-10
-9.080490e-10
-9.701213e-10
-9.958095e-10
6.531626e-11
7.763386e-11
1.328823e-10
9.540919e-11
-3.064207e-11
-4.643719e-11
-6.853592e-11
-2.210193e-10
-1.206935e-10
-3.709966e-12
1.361759e-10
2.904685e-10
-3.720788e-11
7.395201e-11
-1.882436e-11
3.260400e-11
1.887673e-11
3.281152e-11
-7.490049e-12
-5.199791e-11
-1.795982e-11
7.628218e-11
-1.251400e-10
5.306167e-11
2.347630e-10
1.934124e-10
1.063229e-10
6.388284e-11
-2.877684e-12
8.991843e-11
-1.180415e-10
-2.788413e-11
-5.372805e-11
1.658290e-10
-2.991857e-11
-1.374129e-11
3.002660e-11
9.440231e-11
-2.557954e-11
2.701310e-11
7.150650e-11
-2.322110e-11
6.193658e-11
-4.685696e-11
4.272192e-11
1.082393e-11
3.943765e-11
-1.090225e-10
-6.499989e-11
-3.839406e-11
-4.407830e-11
-6.634106e-11
-1.240637e-10
-1.256823e-10
-5.434924e-11
-3.281028e-10
-4.276970e-10
-7.817123e-11
-2.148030e-10
-8.394754e-11
-1.758410e-10
-6.455219e-10
-3.569441e-10
5.534936e-11
-1.433023e-11
1.224189e-10
-3.404577e-11
-4.885233e-11
-6.086096e-11
5.016216e-11
-9.536394e-11
-4.999211e-11
-2.074834e-12
9.471065e-12
-3.130765e-11
1.052765e-11
-8.541443e-12
-6.442828e-11
1.793858e-11
4.949558e-11
1.410676e-11
4.024427e-11
1.488230e-10
7.683036e-12
-7.247964e-12
2.334040e-11
8.847843e-11
5.986588e-11
2.114864e-11
2.576449e-11
3.857454e-11
6.599870e-11
-3.235224e-11
-1.944257e-10
-1.123164e-10
-1.336369e-10
-4.553734e-13
-8.227272e-11
-1.317019e-10
-5.724885e-11
-6.510354e-11
-7.798129e-11
-1.123536e-10
-4.596118e-11
-3.094597e-11
-3.176099e-11
-8.537518e-11
-6.883529e-11
-1.241486e-10
-4.010801e-12
-1.607629e-11
2.910736e-11
-6.875414e-11
1.373915e-11
-6.022447e-11
-7.310929e-11
-1.394131e-10
-4.624412e-11
2.586390e-11
9.335640e-11
-1.210755e-10
5.507652e-11
6.452122e-11
-2.412264e-11
-7.526100e-12
2.398113e-11
-1.938849e-10
3.533483e-11
-8.836312e-13
2.079110e-11
6.515966e-11
4.786168e-11
6.648954e-11
1.607581e-11
3.642892e-11
-3.694717e-11
-3.388584e-11
3.428347e-11
-1.184212e-10
-1.797168e-10
-1.255783e-10
-1.167071e-10
-1.970846e-10
-5.007684e-11
-5.842483e-11
-8.490395e-11
-1.091747e-11
-1.514005e-10
-5.950260e-11
-1.337942e-10
-8.164632e-11
-9.540623e-11
-5.364251e-11
1.330486e-11
8.749140e-11
-2.236315e-11
-3.016741e-13
-1.096379e-10
-9.545498e-13
-7.213159e-11
-2.205440e-11
-2.307206e-11
-7.002204e-11
9.829756e-11
1.586320e-11
-1.738680e-10
2.445723e-11
4.660619e-11
-4.065791e-11
-5.241486e-12
-6.112096e-11
6.970230e-10
2.665957e-10
-5.458512e-10
5.885070e-10
5.839796e-10
-6.135469e-10
-1.664215e-10
3.950696e-10
2.024259e-11
8.936984e-11
6.843189e-11
-2.070771e-11
-2.298311e-11
-1.317449e-10
7.124713e-11
-5.240262e-11
-6.804151e-11
-6.834213e-11
9.833329e-11
-4.407039e-11
-4.056346e-10
2.311389e-10
-4.293050e-11
-1.286346e-10
6.814003e-11
-1.131297e-10
-1.979215e-10
9.965767e-07
6.279794e-07
8.435782e-07
-6.881934e-07
-9.311739e-07
-8.130056e-07
2.726972e-07
1.942603e-07
2.934736e-07
1.636515e-11
7.438104e-11
5.863726e-11
-2.210511e-11
7.146422e-11
1.500293e-11
1.109960e-11
-9.468010e-11
1.261676e-11
-1.896107e-11
1.608452e-11
4.241431e-10
1.508141e-10
1.424589e-10
5.057574e-10
1.328020e-10
1.696989e-10
3.592412e-10
3.379215e-11
6.264814e-11
8.692517e-11
2.093448e-11
1.580927e-10
2.922334e-11
-5.102728e-11
-8.955946e-11
-1.493670e-10
-1.489092e-09
-1.678314e-09
6.413121e-11
-8.583803e-10
-1.405393e-09
1.152196e-10
-6.577033e-10
-7.531582e-10
8.439459e-10
8.321105e-12
1.549856e-10
2.594449e-11
-1.056175e-10
-2.280499e-11
-7.484328e-11
-1.548926e-10
-2.931447e-11
2.162584e-10
-2.027285e-11
8.007656e-11
9.252684e-11
-4.982635e-11
1.524358e-10
2.258720e-10
4.514692e-11
2.317782e-10
1.831490e-10
9.765764e-12
1.287871e-10
2.352053e-10
2.225315e-10
2.652151e-10
6.853535e-11
1.395420e-10
-5.001968e-11
-2.683606e-10
5.585097e-11
3.742501e-11
-5.872849e-11
-5.187841e-12
-6.368447e-11
-2.089647e-10
-7.970206e-11
2.462711e-11
9.960768e-11
-5.205678e-10
-5.398790e-10
7.176046e-11
-7.171449e-10
-5.240938e-10
-1.145345e-10
-4.790560e-10
-4.391206e-10
1.384575e-10
-4.090323e-11
-1.961867e-11
3.838903e-11
4.036793e-11
6.967719e-11
-6.317197e-11
-4.220556e-11
-7.651161e-11
-2.039962e-11
-1.448591e-10
6.414340e-11
-1.210478e-10
6.443217e-12
3.848082e-11
-2.246980e-10
-4.810435e-11
7.118914e-11
-6.178554e-12
2.641711e-11
1.393074e-10
2.596418e-11
-1.591092e-11
1.310299e-10
-1.134912e-11
1.308959e-10
-1.122151e-10
-3.160415e-11
-8.023107e-11
1.665014e-11
1.536126e-10
5.958072e-11
-5.691841e-11
-8.775608e-11
6.099094e-11
1.354581e-11
2.712996e-11
1.067976e-10
9.204979e-11
-3.830062e-11
9.210778e-11
1.135471e-10
6.902612e-11
1.522115e-10
1.022497e-10
2.342607e-10
2.520130e-12
3.829027e-11
-5.676797e-11
-1.785034e-11
6.064002e-11
8.038605e-12
-4.480503e-11
1.764887e-11
4.515977e-11
1.874640e-12
-1.187265e-10
1.328844e-11
5.504092e-11
2.509528e-11
9.586171e-11
1.566603e-10
1.710522e-10
1.006351e-10
3.745067e-11
-3.638065e-11
-8.060861e-11
-1.459296e-10
-4.105481e-11
-3.658937e-13
-1.053719e-10
-1.161630e-11
-1.020132e-10
3.706292e-11
5.664674e-11
-9.791184e-12
4.845179e-11
1.324016e-11
1.451770e-10
7.558488e-11
9.517536e-11
-4.307610e-12
-4.152712e-11
5.478911e-11
9.396579e-11
-2.260986e-11
-7.231828e-12
-1.464407e-10
1.029141e-10
6.076032e-11
5.243203e-11
7.371286e-11
7.717436e-11
1.392428e-10
2.148630e-10
1.465271e-10
9.633417e-11
1.457267e-10
2.006111e-10
5.991529e-11
-2.956550e-11
-6.956918e-11
-2.100692e-12
7.200229e-11
-3.288965e-11
-8.646864e-12
-4.478067e-11
-1.427362e-11
1.648052e-11
1.481550e-11
3.527895e-11
-2.842770e-11
-6.916883e-11
7.929902e-12
-3.914107e-11
-6.439873e-11
-2.580183e-11
-3.864952e-11
-2.738355e-11
-1.801963e-11
-8.922800e-12
-1.712756e-11
2.988615e-11
8.284477e-11
1.225300e-11
-1.523240e-11
7.460673e-11
1.445692e-11
8.968396e-13
1.327611e-10
-1.599221e-11
-1.775813e-11
-2.528474e-11
8.966466e-12
-1.746457e-11
-1.892402e-11
1.146772e-11
1.214037e-10
-4.306723e-12
7.821552e-11
-2.750954e-11
7.747578e-11
1.095314e-10
1.102026e-10
8.640815e-11
1.240783e-10
1.893372e-10
4.928130e-11
8.066806e-11
1.433269e-10
8.279408e-12
3.955307e-11
5.783098e-11
3.201268e-11
5.591081e-11
8.665789e-12
1.058367e-10
2.563700e-11
1.171745e-12
9.615563e-11
5.389704e-11
2.717967e-11
3.852541e-11
-2.082732e-11
2.251627e-11
-6.544965e-11
-2.755606e-12
-2.632448e-11
-8.028927e-11
-6.510899e-11
1.766859e-11
-4.446464e-11
-2.726500e-10
-7.206938e-10
2.020206e-10
-1.760364e-10
-3.458713e-10
4.398993e-10
1.243058e-10
4.892693e-10
8.243878e-10
1.449959e-10
1.959357e-10
1.733050e-10
-1.179743e-10
-1.271791e-11
-1.071278e-10
-2.797649e-10
-3.782082e-10
-3.424568e-10
-3.198225e-10
-1.127848e-10
3.499336e-11
1.102541e-10
2.622319e-10
2.074816e-10
1.266166e-10
1.991735e-10
1.481766e-10
4.378386e-08
-3.100671e-07
-2.006527e-07
-2.204387e-08
-4.906911e-07
-5.544671e-07
8.964034e-08
-3.981276e-07
-3.631660e-07
2.162493e-11
6.017101e-11
5.662820e-11
9.642513e-11
1.856408e-10
1.539012e-10
1.989391e-11
1.846257e-10
1.368640e-10
-6.666560e-11
-9.180103e-11
-1.426317e-10
-1.833499e-10
-2.973137e-10
-2.482313e-10
-3.940405e-10
-4.596904e-10
-4.764200e-10
-3.962376e-11
1.168105e-10
4.345518e-11
2.189982e-10
-2.445224e-11
-7.776917e-11
2.340555e-10
4.932906e-11
-4.279787e-11
-2.056804e-09
-1.575820e-09
-2.884347e-09
-2.693064e-09
-1.674544e-09
-2.747867e-09
-1.649076e-09
-4.968150e-10
-1.571312e-09
-2.615900e-11
-1.281564e-10
8.866003e-12
4.166064e-11
-3.904245e-11
-4.331796e-11
6.789118e-11
5.994687e-11
3.806202e-12
2.353817e-10
2.704206e-11
-4.924814e-11
5.573374e-11
-6.587590e-11
-2.097523e-10
2.424065e-11
-1.650719e-10
-1.053687e-10
-2.441566e-10
-3.583782e-10
-6.451158e-11
9.898266e-11
1.179516e-10
3.532366e-10
2.226407e-10
1.573820e-10
7.018537e-10
-3.135054e-11
1.548821e-11
1.227429e-10
-3.184806e-13
-1.330433e-10
5.762212e-11
-8.714148e-11
-1.108459e-10
3.712928e-11
3.073110e-10
-4.611140e-11
2.254962e-11
1.010563e-10
-3.669280e-10
-4.378065e-10
-1.160811e-09
-1.393474e-09
-1.609655e-09
-5.958432e-11
-2.030397e-10
-1.345459e-10
-2.019490e-11
-8.277143e-11
-2.071491e-10
1.868727e-10
-5.363118e-11
-2.187052e-10
4.916080e-12
7.586470e-11
5.892222e-10
-5.413568e-10
-4.294270e-10
8.725270e-11
-3.718532e-10
-5.849623e-10
-2.751098e-10
1.334545e-10
-6.447432e-11
1.177851e-10
-4.268993e-11
2.540361e-11
4.441276e-11
1.260593e-10
-2.370782e-11
-2.732322e-11
2.796417e-10
3.953891e-10
-3.722358e-10
4.965030e-10
7.021594e-10
-7.164778e-11
2.083359e-10
3.010976e-10
3.884711e-11
1.977025e-10
1.121444e-10
1.767827e-10
2.098958e-10
4.514380e-11
1.670858e-10
2.737014e-10
1.233454e-10
7.336824e-12
1.960312e-10
3.475561e-11
-8.698910e-11
1.899779e-10
-2.379067e-11
-1.579799e-10
-1.304183e-10
-2.997426e-10
-1.774344e-10
-2.813377e-07
-5.281272e-07
-5.171037e-07
6.576088e-07
4.107246e-07
5.070036e-07
1.006266e-07
-8.220807e-08
-1.224663e-08
1.471295e-10
4.778905e-11
-7.764342e-11
-1.577768e-11
-9.860827e-11
-1.637318e-10
-7.384893e-11
-2.008634e-10
-1.406407e-10
1.293979e-10
2.485138e-10
4.125906e-10
2.566008e-10
8.730140e-10
8.943370e-10
2.178639e-10
6.185151e-10
4.795909e-10
-2.883371e-10
-3.871740e-10
-3.255349e-10
-5.554084e-11
1.326526e-10
1.757400e-10
-5.333871e-11
-1.120613e-11
1.671479e-10
1.066832e-09
4.731900e-10
2.677056e-10
3.224294e-09
2.437715e-09
2.426598e-09
-2.436853e-10
-1.293758e-09
-1.511139e-09
1.197475e-10
1.678951e-10
2.242523e-10
1.406178e-10
1.087475e-10
3.709980e-11
2.308986e-10
1.183946e-10
1.313863e-10
-1.296106e-11
1.326286e-11
9.277479e-11
-2.310612e-10
-1.409492e-10
-1.309728e-10
-2.987821e-10
-2.134133e-10
-1.596787e-10
4.707160e-10
6.255911e-10
5.325742e-11
3.570967e-10
2.654088e-10
-4.649384e-10
-4.220622e-10
-6.379610e-10
-1.083029e-09
8.833314e-11
-7.356981e-11
3.968994e-11
1.472705e-10
1.045727e-10
9.201485e-11
-2.170197e-12
6.667177e-11
6.951152e-11
-9.615455e-10
-1.088005e-09
-1.273397e-09
2.937826e-10
2.377651e-10
1.848948e-10
-1.454253e-10
-4.191669e-10
-4.331578e-10
4.801539e-10
5.775229e-10
1.340373e-10
6.513025e-10
4.524949e-10
1.156020e-10
-2.551876e-10
-2.993507e-10
-4.831270e-10
8.580544e-10
1.871055e-10
-1.838142e-10
1.115660e-09
1.064405e-10
-6.676195e-10
7.297782e-10
-1.794337e-11
1.366900e-10
-1.171339e-10
-5.315855e-11
-3.903153e-11
3.468106e-11
8.885085e-11
1.240472e-10
6.966157e-12
-4.305828e-11
3.398740e-11
1.375145e-09
4.814384e-10
-9.609592e-10
-1.711554e-10
-5.104986e-10
-5.331112e-10
-6.602987e-10
4.033752e-11
1.624423e-09
-5.793208e-11
2.601208e-10
3.507681e-10
4.851130e-11
2.792745e-10
2.579470e-10
-1.156398e-10
-1.293557e-10
-1.154246e-10
2.648727e-10
-2.476866e-10
-1.246500e-10
-1.966040e-10
-1.311600e-10
-5.623138e-11
-1.890829e-10
4.620252e-10
2.580957e-10
3.728513e-07
3.474885e-07
-2.484931e-07
-4.719054e-07
-5.220405e-07
-8.946594e-07
1.988976e-07
3.187558e-07
-3.803919e-07
-6.520188e-11
-2.042631e-10
-1.494399e-10
-3.398458e-11
-1.538234e-10
7.425741e-11
3.465735e-11
1.579592e-11
-4.587581e-11
-3.887643e-10
-3.729300e-11
-4.959134e-10
-2.964921e-10
-2.538845e-10
-1.014978e-09
-7.470978e-10
-6.579727e-10
-9.305441e-10
9.448956e-10
2.741095e-10
-2.409742e-10
6.070699e-10
8.246324e-11
-6.283729e-10
5.526012e-10
2.456346e-10
-5.973752e-12
4.280104e-10
2.190813e-10
-7.089581e-10
-1.878530e-09
-1.693228e-09
-2.137654e-09
3.317220e-09
2.309725e-09
2.832526e-09
1.535047e-11
-4.836984e-10
-5.637878e-10
-4.662067e-11
1.623530e-11
-4.526100e-11
4.555757e-11
4.218125e-10
2.030829e-10
-2.827449e-11
-9.846358e-11
-2.208962e-10
-1.006895e-10
-1.379818e-10
-2.035360e-10
-3.716938e-10
-1.410252e-10
2.525827e-11
9.974074e-10
5.513849e-10
-2.244924e-10
4.632495e-10
1.378326e-11
1.745461e-10
6.246338e-10
8.123303e-10
1.392721e-09
-1.718433e-10
-1.497912e-10
-8.834496e-11
-7.142215e-12
-2.575678e-14
4.500351e-11
1.863420e-10
-2.059043e-11
2.935958e-11
1.038312e-10
3.439761e-10
4.471656e-10
-7.152582e-10
-1.078045e-09
-1.014649e-09
2.102139e-10
-2.551568e-10
-7.049245e-11
7.933659e-10
-2.811522e-10
1.452701e-10
8.931818e-11
-1.735329e-10
6.344250e-11
5.160761e-10
7.319214e-10
4.429925e-10
7.229913e-11
1.316191e-09
-1.255192e-09
-3.878803e-11
-2.298123e-10
1.129058e-09
8.367905e-10
8.913584e-10
5.922435e-10
2.578731e-10
-1.223213e-10
-1.235913e-10
-8.560151e-12
2.950339e-11
4.008670e-10
1.942871e-11
1.530344e-10
5.754768e-10
-1.877163e-11
-1.036656e-09
-4.084977e-11
-1.060757e-09
-1.617466e-09
-3.177175e-10
-2.998299e-10
-2.114326e-10
4.757295e-10
7.230104e-11
2.445965e-10
2.128642e-10
2.023935e-10
2.442133e-10
-8.091831e-11
-2.133747e-10
-2.497856e-10
-3.102929e-10
-3.279660e-10
5.262978e-11
7.349218e-11
-6.815150e-10
-1.322910e-10
4.156286e-12
-5.551225e-11
2.826686e-10
7.925080e-11
-1.529673e-07
-3.382734e-07
-1.582856e-07
-2.315229e-07
-3.423173e-07
-2.403256e-07
4.819060e-08
-4.174790e-08
-6.296861e-08
-1.851679e-10
-3.080424e-10
1.823820e-10
-3.845657e-11
-6.614503e-11
2.323649e-10
8.568568e-11
1.438863e-10
2.924555e-10
7.768357e-11
5.300015e-10
8.909373e-10
-2.511352e-10
-1.332414e-10
3.199446e-10
-4.144587e-10
-6.516831e-10
-2.693080e-10
4.830832e-10
5.783412e-10
5.357189e-10
3.764066e-10
9.697868e-11
5.623941e-11
1.119162e-10
-4.774053e-11
-1.221176e-11
4.584787e-11
-2.831326e-09
-1.077899e-09
-2.608275e-09
-4.785995e-09
-4.135793e-09
1.126623e-09
-7.861694e-10
2.154163e-10
-3.515165e-11
1.456814e-11
1.292877e-10
2.036160e-11
-1.400644e-10
1.779143e-10
1.263412e-10
5.642966e-11
-1.691431e-10
1.902350e-10
1.634213e-10
3.547373e-11
2.837167e-11
1.031203e-10
1.185938e-10
-4.068386e-11
-3.918185e-11
-3.307206e-11
2.607979e-10
-4.930301e-10
-1.983058e-11
-5.224883e-10
-8.642621e-10
4.338130e-11
2.954086e-10
-2.019706e-11
7.825292e-10
-1.164919e-10
-1.971025e-11
-1.700478e-10
-4.363044e-11
-4.569552e-11
-2.320712e-11
-7.604246e-11
-7.331532e-11
-6.417932e-12
-4.815396e-10
-1.725059e-10
6.960295e-10
-5.242223e-10
-5.056888e-10
-2.415475e-10
-7.286386e-10
-8.648196e-10
-7.795453e-10
4.462944e-11
-3.706132e-10
2.652282e-10
-4.556849e-10
-4.448056e-10
-7.809025e-11
2.818582e-11
-1.462236e-10
1.062399e-10
-3.918870e-11
-4.196856e-10
-1.302527e-10
-3.050086e-10
-6.546340e-10
-4.397263e-11
-1.819777e-10
-3.731545e-10
-3.255360e-10
-5.716460e-11
-3.349425e-11
-3.438397e-11
5.284305e-11
-2.276022e-11
7.380446e-11
-1.391178e-11
5.362043e-11
-6.811079e-11
1.326475e-10
6.262451e-11
1.343470e-10
1.971355e-10
8.725656e-11
1.226068e-10
7.039270e-11
2.415006e-11
4.202642e-11
-6.376139e-11
-4.045113e-12
-1.915634e-10
6.407699e-11
1.738237e-11
-1.578983e-10
2.055550e-10
-1.998580e-11
-1.067036e-10
-1.092903e-10
-5.708523e-11
-3.701840e-11
-8.579808e-11
-9.908530e-11
-8.603566e-11
-1.449125e-11
-1.134979e-10
-9.645411e-11
-4.172691e-08
-3.232556e-08
-3.381477e-08
-2.403415e-08
-2.079241e-08
-2.105167e-08
-1.843718e-08
-1.038753e-08
-1.276772e-08
2.318559e-10
-6.171312e-11
8.644189e-12
1.961024e-10
7.970849e-12
2.263868e-11
1.185319e-10
-2.106436e-11
3.006513e-11
-1.499629e-10
-2.755868e-10
-3.109540e-10
-6.633857e-11
-2.332274e-10
-2.382720e-10
-6.689686e-11
-1.079663e-10
-1.677527e-10
-2.491799e-10
-1.020525e-10
-1.211271e-10
-2.399914e-10
-7.216723e-11
-7.785813e-11
-1.301541e-10
-1.681625e-10
-1.526000e-10
-3.064598e-10
-6.320688e-10
-7.466541e-10
-7.968133e-10
-8.785620e-10
-7.249351e-10
-2.695818e-10
-3.887493e-10
-3.001656e-10
-1.838339e-10
-1.084547e-10
-1.131863e-10
-1.261096e-10
-1.407175e-10
-4.841312e-11
-7.219581e-11
-1.319837e-10
-9.730197e-11
3.587167e-12
-8.713045e-11
2.357392e-12
-1.108607e-10
-4.304686e-11
-8.613435e-11
5.664874e-11
9.228648e-11
8.562350e-11
-4.969793e-11
-7.437481e-11
1.290488e-10
-4.434632e-11
-1.067971e-10
1.375090e-11
-4.844381e-11
-1.393567e-10
-2.568777e-13
-9.370655e-11
5.481395e-11
-3.674518e-12
-1.303081e-10
-6.832367e-11
-1.366125e-10
-9.244428e-12
7.814310e-11
-3.786508e-11
-3.095173e-10
-2.565056e-10
-2.161344e-11
-3.407694e-10
-1.908236e-10
-2.144450e-10
-2.279135e-10
-3.179543e-10
-2.709964e-10
-8.900215e-11
-2.536795e-10
-2.011890e-10
-7.947233e-11
-1.663097e-10
-1.120986e-10
-3.324612e-11
-2.983386e-11
-6.806133e-11
3.153779e-10
-3.836341e-11
1.067272e-10
2.766541e-10
-2.291822e-10
-1.132818e-10
1.231001e-10
-1.634487e-10
4.536774e-11
9.745907e-12
-1.426045e-10
-1.442842e-10
1.620648e-12
-5.532561e-11
3.491442e-11
1.349249e-10
-3.011314e-11
-6.544925e-11
-8.287115e-10
-4.105600e-10
-6.864385e-10
4.920517e-11
9.780846e-10
-1.095068e-09
-2.832596e-10
4.261046e-10
-9.122765e-10
3.140482e-10
3.673836e-10
-1.715968e-10
-2.685899e-10
8.121007e-12
3.252839e-10
-3.775247e-10
-4.741966e-10
3.958030e-10
4.162059e-10
-5.075357e-10
1.681887e-11
9.878427e-10
-2.846498e-10
6.259913e-11
2.705287e-10
-3.929232e-10
-1.069645e-10
-9.087741e-08
-2.253307e-07
-3.532524e-07
-3.066019e-07
-2.486801e-07
-4.249143e-07
1.012471e-07
1.396763e-07
-6.297753e-08
-5.257698e-11
4.561342e-11
-1.329279e-10
-5.048665e-11
1.205336e-10
-2.543910e-11
-3.668701e-10
-2.175277e-10
1.513885e-10
9.749194e-10
4.288701e-11
7.975754e-11
1.284544e-09
5.224947e-10
-3.818611e-11
4.977407e-10
4.069955e-10
-4.646964e-11
-9.704307e-10
-3.147638e-10
-1.646460e-10
-2.483932e-10
5.434868e-10
1.074513e-10
-2.426095e-10
1.365968e-09
6.388008e-10
1.205914e-10
5.423988e-11
-2.441355e-09
-1.859848e-09
-1.201000e-09
-3.773004e-09
2.788941e-09
2.947521e-09
2.804083e-09
-1.841597e-10
-7.869835e-11
-1.770685e-10
2.883799e-10
3.143178e-10
-5.040587e-10
2.009793e-11
2.798717e-10
-3.294127e-10
2.794816e-10
1.528943e-10
2.719793e-10
2.676102e-10
2.450736e-10
-7.637679e-11
4.396676e-10
5.487999e-10
6.624907e-11
-3.139498e-10
-1.690942e-10
-9.497697e-10
8.933564e-10
1.312185e-09
-1.097002e-11
1.889762e-10
6.666068e-10
-4.044372e-10
-8.902377e-12
2.896161e-10
1.632298e-10
-4.379801e-11
-9.020523e-11
-1.001575e-10
6.403576e-11
4.126158e-11
-1.133381e-10
3.582723e-10
-1.866000e-12
-5.037880e-10
1.587857e-10
-3.907136e-10
-6.233810e-10
1.207888e-09
8.345312e-10
1.238217e-09
-2.563970e-10
-7.561800e-10
-8.270151e-10
7.728547e-10
-2.150695e-10
-3.618712e-10
3.384589e-10
-2.805034e-10
-2.865590e-11
5.574616e-11
-3.674343e-10
5.268409e-10
-1.018753e-09
2.001596e-09
-2.516793e-10
1.064890e-09
-1.299809e-11
3.827418e-10
-4.987652e-11
-3.251183e-10
-4.106110e-10
6.454736e-11
2.406136e-10
-3.239522e-10
-6.750938e-12
1.817069e-10
1.155206e-10
