1.415087e-02
-3.435425e-02
3.936758e-02
2.678880e-02
-5.240253e-02
3.142210e-02
-2.064915e-02
4.246266e-02
-1.845133e-02
-1.633834e-02
-9.279492e-03
2.627333e-03
-2.327587e-02
-1.520499e-02
1.821577e-04
-3.054506e-03
-2.140342e-02
1.235327e-02
1.346807e-06
1.686538e-06
1.524992e-06
1.180905e-06
1.344466e-06
1.680136e-06
1.381960e-06
1.397484e-06
1.184433e-07
3.350519e-02
-4.369782e-02
4.929992e-03
4.643586e-03
-5.190901e-03
5.332408e-04
-2.643849e-02
3.757270e-02
-3.459504e-02
6.331238e-03
1.106422e-02
-6.851863e-03
5.310256e-03
1.337574e-02
-2.950229e-03
-1.108469e-02
1.015703e-02
4.843863e-03
3.948680e-02
-8.839501e-02
5.922860e-02
-1.846013e-02
2.343203e-02
4.021241e-03
-6.439340e-02
9.213474e-02
-6.600711e-02
-3.499729e-03
-2.006393e-02
-2.795038e-03
-6.646447e-03
5.751904e-03
1.027426e-02
-1.358081e-02
-1.164423e-02
2.497366e-03
-7.287029e-03
1.148080e-02
1.809601e-02
4.746515e-03
-4.364565e-03
-6.979766e-03
-2.150263e-04
-8.327585e-03
-1.685714e-02
-9.353180e-03
1.101285e-02
-1.149796e-02
-2.998483e-03
-3.082437e-03
-4.087165e-03
1.482101e-02
6.345876e-03
1.431044e-03
-2.493402e-08
-6.009765e-08
-4.578440e-09
-6.585906e-08
-4.295620e-08
-1.284798e-07
-1.383694e-07
-1.985524e-07
-9.323754e-08
3.770247e-03
-9.687936e-03
4.759739e-03
6.923121e-03
-5.999640e-04
1.429268e-02
8.681722e-03
7.701036e-03
-7.665382e-04
-1.367279e-02
7.150643e-03
-6.798216e-03
-3.425907e-03
8.752239e-03
1.212733e-03
1.188102e-02
-1.137136e-02
-3.047357e-03
-5.906218e-02
5.235390e-02
-4.717492e-02
1.393314e-03
3.080679e-04
-9.637413e-03
5.467293e-02
-5.915269e-02
4.546068e-02
1.074124e-03
2.698931e-03
1.060870e-02
-6.430689e-03
9.082159e-03
-6.277156e-03
-3.903326e-02
2.173322e-02
-8.160823e-03
-2.738759e-02
3.587717e-02
-3.502266e-02
2.214180e-02
-3.536430e-03
-6.462494e-03
1.625169e-02
-2.420815e-02
1.438131e-02
5.336347e-03
-1.232506e-02
-8.600814e-03
1.280628e-02
-2.089554e-02
-1.555991e-03
1.261227e-02
-3.882953e-03
6.493543e-03
2.492440e-02
1.382502e-02
-1.059771e-02
1.198807e-02
1.749730e-02
-1.249830e-02
-1.314229e-02
-1.555156e-02
-4.586215e-04
5.245209e-03
1.049551e-02
1.364674e-03
1.200512e-02
1.592349e-03
-9.880818e-03
-5.375990e-03
-6.247249e-03
-2.124044e-02
-6.874117e-06
-8.006373e-06
-7.908086e-06
-1.346589e-07
-1.561025e-06
-1.015816e-06
3.002212e-07
-1.072892e-06
-1.068207e-06
7.286010e-03
1.057673e-02
1.632715e-02
5.326956e-03
1.143929e-02
2.362930e-02
-7.401305e-03
2.391260e-03
8.619858e-03
5.826484e-03
5.849479e-03
-1.189453e-02
2.106181e-02
2.048405e-02
-3.036209e-03
3.242868e-02
3.296860e-02
1.310825e-02
5.881963e-03
7.641406e-03
6.976973e-03
4.009502e-03
1.854632e-02
1.317172e-02
-1.009254e-03
-6.028176e-03
-5.183123e-03
1.214305e-02
3.939950e-03
5.463376e-03
1.683218e-02
6.590726e-03
-9.988507e-03
2.375252e-03
-3.073914e-03
-5.906320e-03
-1.950612e-02
5.597254e-03
3.949016e-03
-1.812686e-02
1.765785e-02
2.187313e-02
-1.560744e-02
2.578796e-02
4.108422e-02
1.416233e-02
5.675854e-03
1.289915e-02
2.321102e-02
-1.427208e-02
2.289192e-02
4.492206e-02
4.783915e-02
4.847108e-02
-6.668524e-08
-1.090712e-07
-1.257782e-07
-2.618378e-08
-2.042731e-08
-8.979868e-09
-5.829637e-08
-7.897189e-08
-5.269962e-08
1.750492e-02
1.592915e-02
1.376085e-02
7.065348e-03
-4.917430e-03
2.607296e-03
1.803668e-03
-7.823916e-03
-7.974315e-03
-1.905738e-02
-4.022775e-02
-3.236909e-02
-6.711218e-02
-9.375316e-02
-8.737034e-02
-4.930750e-02
-8.888038e-02
-7.846005e-02
-3.061032e-03
4.704882e-03
1.727061e-02
-1.070951e-02
8.655017e-03
8.358801e-03
-4.116045e-03
-7.869993e-03
1.248537e-02
-3.510603e-04
-1.508406e-03
-8.808105e-04
4.322185e-03
2.666734e-02
-2.310945e-03
3.565441e-02
8.205639e-03
8.833474e-03
3.313865e-04
7.129185e-03
2.159047e-02
8.584530e-03
5.715144e-03
1.803467e-02
5.494964e-03
4.476394e-03
-7.521511e-03
-5.590690e-03
-1.005582e-02
-8.816053e-03
-7.403616e-03
-9.233526e-03
-3.915165e-03
-2.179944e-03
8.145385e-03
1.404851e-02
2.368322e-02
3.620187e-02
1.940776e-02
3.635429e-02
1.977831e-02
1.632161e-02
1.548190e-02
2.139038e-02
1.053339e-03
-6.118807e-03
1.975984e-02
3.161714e-02
1.165083e-04
2.181471e-02
2.087234e-02
-1.258307e-02
8.745569e-03
2.528419e-03
5.811016e-06
2.207621e-06
2.752166e-06
5.340498e-06
1.496017e-06
2.150466e-06
6.240551e-06
2.580519e-06
3.167743e-06
4.070613e-03
6.970075e-03
2.228707e-02
8.071660e-03
2.641075e-02
1.293301e-02
1.262870e-02
2.902772e-02
8.997228e-03
-3.096954e-02
-2.121631e-02
-2.310287e-02
-1.834169e-02
-1.316021e-02
-1.965629e-02
-3.220822e-02
-3.101622e-02
-3.303527e-02
-8.237294e-03
-4.142080e-03
9.364002e-03
-1.460056e-02
4.439930e-03
3.745418e-03
1.513673e-02
2.673881e-03
1.803241e-02
-4.006485e-03
1.270080e-02
3.955439e-03
2.849279e-02
2.270270e-02
1.005380e-02
8.619902e-03
7.817338e-03
3.077273e-03
-1.905932e-02
3.315800e-04
8.758597e-05
-2.091751e-02
-9.451737e-04
-5.177080e-03
-1.533495e-02
-5.653165e-03
-5.321341e-03
4.467893e-02
5.322171e-02
5.568628e-02
2.371900e-02
2.089621e-02
5.547166e-02
2.033693e-02
3.533495e-02
5.199953e-02
5.751298e-08
4.005273e-08
6.153996e-10
3.687725e-08
-5.507094e-09
-1.033006e-08
7.797456e-08
3.077276e-08
5.757245e-08
-7.184417e-03
-9.185995e-03
-4.064749e-03
2.733199e-05
2.807724e-03
2.422592e-03
-4.941859e-03
5.074047e-03
5.928315e-03
2.940226e-03
1.978954e-02
5.234598e-03
9.897113e-03
1.537521e-02
2.825731e-02
-1.370306e-03
9.096238e-03
1.913648e-02
-7.274558e-03
7.158960e-03
1.630112e-02
-1.015336e-02
-4.788102e-03
3.164269e-02
6.416398e-03
-7.750131e-03
1.218927e-02
-1.818200e-02
-1.390931e-02
-1.412474e-02
-9.830017e-04
4.974975e-03
8.886577e-03
-3.670620e-03
1.803405e-02
4.937459e-03
9.607553e-04
2.262908e-02
2.696532e-02
-2.060821e-02
9.178517e-03
5.803701e-02
-1.867754e-03
1.239233e-02
1.870921e-02
-5.540245e-04
-4.715535e-03
1.181557e-02
1.318810e-02
1.273306e-02
3.095761e-02
1.122141e-02
1.371416e-02
2.988127e-02
2.049584e-02
6.359612e-02
3.494285e-02
2.796004e-02
-3.724303e-02
-9.100678e-03
-2.563445e-02
-8.313450e-03
-6.653783e-03
7.199207e-02
7.110784e-02
3.729876e-02
5.443746e-02
-2.820388e-02
-1.280638e-02
-2.495828e-02
-3.397115e-02
-2.580692e-02
-9.531722e-06
-9.742412e-06
-1.007444e-05
1.314794e-06
1.373030e-06
1.528404e-06
7.892249e-07
5.370538e-07
1.179661e-06
9.295297e-03
-4.502047e-03
7.430595e-03
-1.547760e-02
-8.409691e-03
2.400127e-03
6.840476e-03
-1.293846e-02
-1.189847e-03
1.967134e-02
8.800320e-03
1.129843e-02
-1.744388e-02
-1.847924e-02
-1.142008e-02
-4.564520e-04
5.839402e-03
3.839161e-03
1.846829e-03
1.008222e-02
6.791977e-03
3.168465e-03
-1.306341e-03
4.339239e-03
7.522576e-04
6.008729e-04
1.828188e-02
-1.690839e-02
-3.110973e-02
-2.201875e-02
1.252161e-02
3.909711e-02
2.566523e-02
3.566964e-02
1.831955e-02
-3.491627e-03
-1.600185e-02
-1.585692e-02
-4.914396e-03
-2.961769e-02
-1.407497e-02
7.757537e-03
-8.712985e-03
1.159475e-02
1.370449e-02
-3.739172e-02
-4.238109e-02
-6.980035e-03
-1.937266e-02
-1.096968e-02
6.910265e-03
3.820625e-02
4.090210e-02
2.324917e-02
-8.820229e-08
-5.260258e-08
-1.322875e-07
4.880097e-08
2.760433e-08
7.054381e-08
1.283516e-07
7.674051e-08
2.058227e-07
2.289089e-02
2.501667e-02
1.448908e-02
2.208002e-02
1.645044e-02
-4.708874e-03
7.554206e-03
-3.916250e-03
-1.149969e-02
-5.025786e-03
-5.784994e-03
1.546707e-02
1.112736e-02
1.905361e-02
1.286490e-02
1.666464e-03
1.205617e-02
-4.633010e-03
1.677560e-02
2.150740e-02
1.259482e-02
-1.988944e-02
-2.646022e-02
-1.758166e-02
-1.355987e-02
-2.409752e-03
6.725399e-03
1.157279e-02
5.910329e-03
-2.183588e-02
-2.675444e-02
-1.286007e-02
-2.863843e-02
-7.017734e-03
2.315835e-03
-3.562522e-03
-9.277598e-03
-3.892653e-03
8.713395e-03
-1.798479e-02
-1.509859e-02
-1.958527e-02
5.344559e-03
-5.441191e-03
9.399563e-03
1.046007e-03
-1.777926e-02
5.091948e-03
-1.681319e-03
-4.428274e-03
4.542456e-03
2.394405e-03
5.526224e-03
1.045687e-02
-1.702676e-02
-5.699852e-03
-2.446640e-02
-8.000816e-03
4.014068e-02
-3.288270e-02
-1.627669e-02
3.474526e-03
-1.278105e-02
-9.387591e-03
-9.181248e-03
-2.482728e-03
-2.334987e-03
-6.810041e-03
1.068860e-02
-1.085057e-02
-3.042207e-03
1.345058e-02
3.542622e-06
1.581376e-06
1.047185e-06
3.401955e-06
1.291816e-06
-1.097457e-06
2.625734e-06
-1.011152e-06
-1.994043e-06
2.344981e-02
5.651644e-02
-8.090271e-03
9.424174e-03
8.683442e-02
-2.779106e-02
1.368894e-03
4.625165e-02
-4.009495e-03
8.855979e-04
1.165562e-02
1.659361e-03
3.395774e-03
1.089650e-02
7.612983e-04
9.328870e-04
6.137687e-03
-1.435731e-02
-3.898755e-02
9.494759e-02
-6.182820e-02
-6.326099e-02
1.385356e-01
-8.839688e-02
-2.690663e-02
8.582587e-02
-6.155311e-02
-1.069464e-03
-2.180527e-03
-2.015241e-03
-8.463529e-03
2.252447e-04
1.073552e-02
1.661800e-03
3.734701e-03
4.735261e-03
1.482162e-02
-2.413638e-02
1.906352e-02
9.369524e-03
-1.975286e-02
1.727378e-02
1.910475e-03
-2.905802e-02
2.298611e-02
-1.108436e-02
-2.393956e-02
2.890911e-02
-9.172268e-03
-2.486444e-02
3.406994e-02
-9.837396e-03
-7.949873e-03
2.361040e-03
-8.861560e-08
-1.047930e-07
3.712083e-08
-7.022530e-08
-5.792343e-08
-1.146395e-07
-8.473435e-08
-1.639910e-07
3.996454e-08
8.137503e-03
-3.111444e-03
-1.611689e-03
1.414501e-02
1.180938e-02
-3.781758e-04
7.270319e-03
9.334387e-03
-9.629504e-03
8.375669e-03
-3.635750e-04
5.459913e-03
-2.820687e-03
-2.109322e-02
8.828712e-03
-6.642517e-03
-7.446768e-03
-8.766580e-03
4.152178e-02
-7.201214e-02
2.910991e-02
7.576837e-02
-1.130997e-01
5.519680e-02
3.335787e-02
-6.816981e-02
4.906434e-02
-1.226780e-02
1.666253e-02
-4.047920e-02
7.872555e-03
4.533309e-02
-6.333439e-02
1.732626e-02
4.283854e-02
-5.928659e-02
-2.480335e-02
-3.600407e-02
-1.859291e-03
-1.704222e-02
-1.171334e-02
8.394321e-03
-4.156817e-03
-2.349386e-02
-1.756238e-02
4.256157e-03
-7.900139e-03
8.424873e-03
5.569258e-03
-7.415141e-03
9.674541e-03
-1.845374e-03
-6.090417e-04
-3.759843e-03
-1.300455e-02
-1.733992e-02
-5.291807e-03
1.651576e-02
-2.763591e-02
-4.235749e-03
8.886191e-03
-2.599694e-02
6.549542e-03
-1.832707e-02
-7.359675e-03
2.219500e-03
-1.924903e-02
1.512592e-02
9.477276e-03
-1.136199e-03
1.849184e-03
-6.288461e-04
5.866605e-06
6.824774e-06
6.580519e-06
-3.369041e-06
-1.585889e-06
-1.761519e-06
-1.510960e-06
-3.008971e-07
-5.582639e-07
5.801344e-02
-4.354791e-03
-3.183409e-03
5.783542e-02
-1.358962e-02
2.491569e-03
1.241313e-02
-9.078427e-03
-4.163876e-03
-1.540089e-03
-2.288576e-03
2.851598e-05
4.105200e-03
4.592553e-03
1.238117e-02
5.475901e-03
-7.842785e-04
6.973370e-03
1.024592e-01
-8.327273e-02
1.608063e-04
1.339071e-01
-1.230346e-01
4.041151e-02
5.218267e-02
-6.904918e-02
2.713260e-02
-1.316511e-02
5.232948e-03
1.086989e-02
1.436839e-03
4.221638e-03
9.123113e-04
1.329668e-02
-2.090700e-03
6.425120e-03
1.163726e-03
-8.784780e-03
1.223222e-02
3.053704e-03
6.774352e-03
2.160361e-02
-1.631542e-03
-1.456512e-03
2.419164e-04
-3.613870e-02
2.158906e-02
1.042507e-02
-2.519032e-02
2.331215e-02
-4.162545e-04
-5.475269e-03
-1.214923e-03
9.604922e-03
7.583679e-08
4.009583e-08
1.355098e-08
-3.688584e-08
3.398681e-08
4.474257e-08
4.379682e-09
8.241953e-08
2.058000e-08
2.682599e-03
4.590293e-03
-1.459135e-02
2.473477e-02
1.415796e-02
7.763270e-04
1.417531e-02
-5.654154e-04
-5.320885e-03
-1.445881e-02
2.245899e-02
-1.351739e-02
-1.755342e-02
3.346411e-02
-1.713943e-02
-5.747135e-03
7.886968e-03
-2.036171e-02
-3.915310e-02
2.154517e-02
-1.370373e-02
-4.642204e-02
3.825604e-02
-2.014327e-02
-3.527069e-02
2.958798e-02
-3.521330e-02
3.653823e-02
-4.572688e-02
-2.843159e-03
3.267607e-02
-5.877404e-02
1.187500e-02
3.708356e-02
-4.951077e-02
5.414119e-03
-3.501127e-02
2.808182e-03
-1.643630e-02
-4.111076e-02
3.619333e-02
-1.189335e-02
-5.974306e-03
-1.162631e-02
-2.551808e-03
-8.091143e-03
1.055603e-02
-5.825608e-03
5.698108e-03
1.110526e-02
6.432657e-03
4.793120e-03
-3.715628e-03
2.356608e-03
-1.291123e-02
-1.222257e-02
-1.382286e-02
1.523522e-02
-2.218824e-02
-4.725191e-03
2.040135e-02
-1.645963e-02
8.061464e-03
7.088989e-03
-2.040579e-02
-2.172899e-02
1.344740e-02
-3.614576e-03
-4.197181e-02
1.191837e-02
-1.913904e-02
-2.451268e-02
-2.133496e-06
-1.515366e-07
1.341974e-07
-2.035678e-06
-3.297304e-07
-1.459650e-06
-1.952280e-07
9.995920e-07
-4.969509e-07
-2.391514e-02
8.038649e-03
5.495282e-03
-3.102572e-02
2.840064e-02
1.872177e-02
1.043803e-02
3.261276e-02
5.417214e-02
-2.078767e-02
9.873481e-03
9.144749e-03
-1.857782e-02
1.574779e-02
-1.718159e-03
-1.168838e-02
2.188462e-02
-1.127988e-02
-7.765185e-03
-6.759274e-03
9.742522e-03
-2.146226e-02
-6.528845e-02
6.658086e-02
-1.321969e-02
-6.718765e-02
1.060506e-01
1.381372e-04
-1.309269e-02
-3.276875e-03
-5.782518e-04
-3.104285e-03
-1.358727e-02
2.974184e-04
1.305399e-03
-1.275038e-02
2.133326e-02
2.640003e-02
-3.296076e-02
1.925141e-02
3.049956e-02
-4.744199e-02
1.844456e-02
8.360122e-03
-5.925561e-02
1.791421e-03
-4.297823e-03
-8.871539e-03
1.202469e-02
-1.239179e-02
-3.074813e-02
2.785074e-02
2.293519e-03
-7.401432e-03
-2.513872e-08
-2.136907e-08
-1.518990e-08
-7.050534e-08
-1.134708e-07
-1.973334e-08
-4.908636e-08
-1.879075e-08
2.687703e-08
3.681303e-04
9.280194e-03
-1.022999e-03
2.532131e-03
1.594884e-02
5.844843e-03
4.790568e-03
1.706141e-02
3.198934e-04
1.143162e-02
-5.312085e-04
-1.238092e-02
1.649139e-02
6.479665e-03
-3.330630e-02
1.813781e-02
4.684685e-03
-3.631592e-02
7.997884e-03
1.517552e-02
1.046211e-02
2.012727e-02
2.888725e-02
-3.593496e-02
1.132569e-02
8.397123e-02
-7.349315e-02
-1.921233e-02
-1.392318e-02
-5.474542e-03
-3.960232e-02
-1.255534e-02
3.952096e-02
-4.673921e-02
3.411276e-02
6.079736e-02
-1.043709e-03
-2.957495e-02
-7.161472e-03
8.876020e-03
-1.597193e-02
-2.169222e-02
1.651796e-02
-1.641877e-02
-1.813316e-02
3.071999e-03
6.728708e-03
-5.498769e-03
5.290299e-03
5.870828e-03
-1.368304e-02
9.422757e-03
5.476155e-04
-1.141604e-02
1.877281e-02
6.719804e-03
-1.355213e-02
1.988035e-02
2.789095e-02
1.490897e-02
1.615631e-02
3.244484e-02
1.549908e-02
5.030479e-03
9.215630e-03
1.119403e-02
-8.143442e-03
8.756722e-03
2.717987e-02
1.609659e-02
1.848287e-02
1.844999e-02
-9.324063e-06
-4.395559e-06
-4.745463e-06
-4.351844e-06
1.200441e-06
-1.565529e-07
-3.815644e-06
7.079354e-07
-3.566535e-07
-1.662362e-02
5.011062e-03
1.494885e-02
1.215402e-02
-4.124190e-03
3.156416e-02
2.447652e-02
2.873092e-02
2.795755e-02
-2.808297e-02
-1.983355e-02
-9.885288e-04
-4.808709e-02
-4.565936e-02
-3.782240e-02
-4.538410e-02
-4.663947e-02
-4.061940e-02
-1.107157e-02
-6.275971e-03
-4.672029e-03
-7.648444e-03
-1.550504e-02
-5.345481e-04
1.587455e-02
6.846143e-03
-2.718564e-03
8.748466e-03
1.429771e-02
9.382118e-03
2.260856e-03
-1.329255e-02
4.938580e-03
4.754022e-03
2.209025e-03
-8.796528e-03
-8.074323e-03
-9.155770e-03
1.348790e-02
-4.846505e-03
-1.178762e-02
-1.281869e-03
5.023284e-03
-4.692195e-03
-1.409425e-02
-3.592855e-02
-4.582340e-02
-4.348370e-02
-5.284470e-02
-4.384406e-02
-7.887575e-02
-5.175214e-02
-8.161137e-02
-9.084652e-02
-1.018459e-07
-4.664753e-08
-6.276525e-08
-6.184025e-08
-9.216322e-09
7.829635e-09
-5.640945e-08
1.898358e-08
7.889672e-08
3.600951e-03
-4.772807e-03
9.716361e-03
1.033267e-02
2.007374e-02
3.144542e-02
1.717238e-02
3.005924e-02
3.976358e-02
2.336767e-02
1.213226e-02
1.092685e-02
7.135145e-03
-9.753961e-03
1.447028e-02
1.548059e-02
4.255503e-03
3.020006e-02
2.537311e-04
9.103915e-03
5.121149e-03
2.045549e-02
-1.697632e-02
2.049345e-02
4.615689e-02
4.327521e-02
4.216377e-02
-2.208447e-03
3.056428e-02
3.081746e-02
6.696028e-03
-1.643026e-03
2.854831e-02
-1.749119e-03
3.023449e-02
3.302957e-02
-3.390340e-03
2.501587e-03
1.908917e-02
-1.178602e-02
1.747117e-02
3.618519e-02
-2.806110e-03
1.586853e-02
3.262707e-02
2.578025e-02
-1.138894e-02
-2.646761e-02
3.157192e-03
-2.133651e-02
-2.966443e-02
-1.135958e-03
-1.439428e-02
-1.039613e-02
2.453377e-02
4.637073e-03
-1.872383e-02
3.694822e-02
1.002969e-02
-6.815052e-03
1.242234e-02
2.108889e-02
1.948496e-02
-7.460077e-05
1.537488e-02
6.311611e-03
7.959066e-03
-1.631790e-02
4.307655e-02
-1.173075e-02
1.471675e-02
2.944302e-02
-6.400144e-06
-5.288245e-06
-5.043006e-06
-3.399366e-06
-5.220735e-07
-8.301118e-07
-4.271030e-06
-1.939740e-06
-2.868410e-06
5.107350e-03
1.688538e-02
5.298664e-03
1.059757e-02
3.429098e-02
2.028724e-02
2.567236e-02
3.771649e-02
1.809409e-02
1.347830e-02
-8.484527e-03
-5.719727e-03
1.801003e-02
1.265874e-02
1.786932e-02
3.629357e-02
4.443738e-02
4.335035e-02
-5.012119e-03
-2.067770e-03
1.257260e-02
3.826988e-03
9.241572e-04
8.449634e-03
1.597323e-02
2.111169e-02
-5.730128e-04
2.116616e-03
3.908760e-03
-1.538930e-03
-8.961434e-03
-1.623625e-02
-1.186258e-02
2.075777e-03
9.152236e-03
1.069615e-03
-6.147104e-03
-4.115420e-03
1.746391e-02
-5.993624e-03
-7.845500e-03
7.749287e-03
-1.660027e-02
-2.169908e-03
7.899776e-03
-1.495123e-02
-3.510543e-02
-3.220274e-02
-1.723874e-02
-2.700466e-02
-4.948074e-02
-8.186420e-03
-3.804635e-02
-4.431766e-02
-2.406403e-08
-1.936552e-08
-8.545206e-08
-2.844042e-08
4.010189e-08
2.361030e-08
8.307470e-08
6.752025e-08
4.523264e-08
1.566135e-02
1.238833e-02
1.335706e-02
2.016097e-02
2.685802e-02
2.235091e-02
2.997701e-02
4.224379e-02
3.519586e-02
-2.067857e-02
-2.845039e-02
-1.598353e-02
-5.628467e-02
-5.202873e-02
-7.738741e-02
-3.651923e-02
-7.475652e-02
-7.883589e-02
3.918276e-04
-2.818704e-03
8.937255e-03
8.637696e-03
-7.528237e-03
3.384945e-03
3.537440e-02
3.598788e-02
2.405190e-02
-1.045628e-03
1.309108e-02
1.661085e-02
-3.279647e-03
-9.697917e-03
1.427383e-02
9.189667e-03
-1.660042e-02
-7.583688e-03
-3.809028e-03
6.558425e-03
2.492163e-02
-1.587728e-02
3.287399e-03
3.084743e-02
-7.438371e-03
4.097320e-03
2.559596e-02
8.592044e-03
-2.956089e-03
-3.485332e-03
2.494025e-02
7.225850e-03
6.676096e-03
3.538586e-02
1.862901e-02
2.156373e-02
1.216712e-02
-1.352017e-02
5.984257e-04
-2.931958e-03
5.913005e-03
1.006950e-02
-5.358195e-03
6.027565e-03
2.143543e-02
-1.002292e-01
-1.286334e-01
-5.473590e-02
-1.307063e-01
-1.589022e-01
-1.091012e-01
-6.229033e-02
-1.201923e-01
-9.555444e-02
2.409620e-06
1.314280e-06
1.497717e-06
1.641933e-06
-2.351710e-07
-8.335335e-07
1.131403e-06
-8.160249e-07
-9.574667e-07
6.863177e-03
2.541966e-02
1.996330e-02
1.081834e-02
1.413005e-02
5.537729e-03
9.413312e-03
1.806107e-02
2.571414e-02
-4.282460e-03
-1.294576e-02
-6.642845e-03
9.903286e-05
-7.112625e-03
9.273542e-03
-9.517148e-03
-4.898703e-03
1.778121e-02
-8.747081e-03
9.114697e-03
1.482044e-03
-5.667619e-03
1.680269e-05
-3.695978e-03
-1.237504e-03
1.088315e-03
5.449410e-04
-6.048294e-02
-6.303406e-02
-5.984043e-02
-6.654472e-02
-8.719222e-02
-7.054918e-02
-5.484131e-02
-6.968022e-02
-4.051034e-02
-7.891008e-03
1.078527e-02
1.409335e-02
-3.135779e-04
3.792154e-03
7.211016e-03
7.440379e-03
2.596439e-03
1.124840e-02
-5.681855e-03
-4.326708e-03
-4.903099e-03
-2.720271e-02
-1.752020e-02
-1.698707e-02
1.083969e-02
1.448403e-02
2.555529e-02
-1.268798e-08
-2.076092e-08
-1.688371e-08
-8.747487e-08
-6.223011e-08
-8.151675e-08
-1.479123e-07
-1.413295e-07
-3.019277e-08
2.560539e-03
-3.166029e-03
2.428658e-04
1.106427e-02
1.080323e-02
1.571611e-02
1.368174e-02
1.637777e-02
1.388823e-02
-3.028056e-02
4.640434e-03
1.298741e-02
-1.060253e-02
6.617251e-03
9.325561e-03
-2.639420e-03
1.925679e-02
-5.838323e-03
8.063926e-03
1.475509e-02
1.077217e-02
1.153752e-02
-4.065692e-04
1.793203e-02
2.051869e-02
2.459902e-02
3.032606e-02
2.888813e-03
2.047911e-02
2.340385e-02
-1.620351e-02
3.709346e-03
-2.541881e-03
-2.572878e-02
-2.615218e-02
-2.643959e-02
-5.771825e-04
-3.716781e-02
-6.704105e-03
9.409608e-03
-2.854220e-02
1.135739e-02
6.065459e-03
-6.723314e-03
9.158274e-03
4.405768e-03
1.138502e-02
1.094837e-02
-7.604600e-03
3.574973e-03
4.450411e-03
-1.922175e-02
4.578444e-03
6.911171e-03
-7.450728e-03
-1.110377e-02
-2.193804e-03
-9.164338e-03
3.052526e-03
-6.837935e-03
-1.478240e-02
-2.222103e-04
-9.237369e-03
-1.205547e-02
-5.510686e-03
-1.407321e-03
-6.142228e-03
7.330786e-04
-8.199231e-03
8.726475e-03
4.634066e-03
-4.444897e-03
-2.874614e-06
-5.450328e-06
-5.526869e-06
7.828388e-07
-1.548279e-06
-1.853199e-06
9.525211e-07
-1.311537e-06
-1.583094e-06
-1.142249e-02
-4.524494e-03
-6.628780e-03
-7.199077e-03
-8.957457e-03
4.146574e-03
-1.319017e-02
-1.038271e-02
-2.606310e-03
-5.103621e-03
6.845645e-03
1.446741e-02
3.890667e-04
4.174499e-03
6.072606e-03
1.241092e-02
8.973534e-03
6.178815e-03
-1.067515e-03
6.776329e-04
-2.849909e-03
1.928409e-03
1.769573e-03
-3.597674e-03
1.392103e-04
2.050905e-03
-8.303539e-03
-4.062860e-03
1.762497e-03
4.661952e-03
-8.545960e-03
-5.581819e-03
-8.965834e-03
-2.742233e-03
-1.921203e-03
-7.249878e-03
-4.653621e-03
-1.541275e-03
2.309986e-04
-9.429834e-03
-6.793806e-03
-5.119207e-03
-5.814516e-03
-2.763059e-03
-2.297277e-03
-1.116802e-02
-8.946854e-03
-4.628414e-03
-8.286299e-03
-8.853501e-03
-7.511838e-05
1.169472e-03
-2.718247e-03
-1.356703e-03
3.908468e-08
3.487748e-08
7.214676e-09
1.514041e-07
9.268169e-08
7.478673e-08
3.535163e-08
-3.763080e-08
-5.752522e-09
7.672207e-03
8.928731e-03
6.032844e-03
9.795900e-03
8.349580e-03
5.476186e-03
7.564643e-03
9.235658e-03
9.435457e-03
2.006143e-02
1.806097e-02
-7.756821e-03
2.170195e-02
4.887789e-02
2.831996e-02
-2.063040e-02
2.143306e-02
2.427040e-02
-3.279352e-03
4.102841e-03
6.351171e-03
-1.062377e-02
-5.926080e-03
-5.829310e-04
-5.308242e-03
-8.260786e-04
5.828702e-03
3.768970e-03
2.491689e-03
-7.075404e-03
8.804423e-03
1.173072e-02
6.543134e-03
-5.794358e-03
-1.058482e-03
4.094649e-03
-8.647929e-03
5.518604e-04
-5.484379e-03
-8.011727e-03
-1.369628e-02
3.224155e-05
-2.060435e-02
-1.825811e-02
-1.219831e-02
2.059715e-02
1.814969e-02
9.589236e-03
1.529341e-02
2.887620e-02
2.673296e-02
-5.460584e-03
1.593980e-02
2.735732e-02
-1.635043e-03
1.909957e-03
1.939052e-02
-4.566127e-03
-1.109614e-02
9.132071e-03
2.495286e-03
-8.932777e-03
-6.519122e-03
5.696898e-02
8.014547e-02
8.338428e-02
-1.225058e-02
-7.390651e-02
-5.681758e-03
4.674108e-02
9.020837e-02
9.363166e-02
5.666207e-06
4.244649e-06
5.306057e-06
2.642997e-08
-8.958351e-07
-5.911659e-08
3.155440e-07
-3.954961e-07
-2.228206e-07
1.094326e-02
6.289107e-03
-2.536394e-03
-1.404941e-02
-1.200496e-02
9.084683e-03
-1.222022e-02
-4.819024e-03
-1.000961e-02
-8.566675e-03
-1.632153e-02
-1.023155e-02
9.600424e-03
4.492222e-03
9.216973e-03
-2.723549e-03
-1.353453e-02
-8.148400e-06
6.577063e-04
1.112775e-02
-6.647989e-03
2.068091e-03
-4.404878e-03
1.391996e-03
8.582225e-04
2.017630e-02
9.421127e-03
2.955177e-03
-3.792364e-02
-3.049452e-02
8.446380e-03
2.867318e-02
3.283999e-02
-2.275753e-02
-1.741278e-03
1.269856e-02
-2.100304e-03
-1.183438e-02
-9.899736e-03
2.730816e-03
-6.574733e-03
-6.080885e-03
-7.850138e-03
6.216795e-03
2.220958e-03
-3.078576e-03
9.574903e-03
-3.414134e-03
-5.095451e-03
1.285530e-02
1.785229e-02
-1.873268e-02
-1.554994e-02
-1.722832e-02
1.077386e-07
1.635841e-07
1.042312e-07
1.056826e-07
1.789623e-07
1.738609e-07
1.323292e-07
1.708656e-07
8.830679e-08
-9.641844e-03
-1.410399e-02
-2.469108e-03
-2.727755e-03
-1.064562e-02
-8.509334e-03
-5.225302e-03
-6.327149e-03
5.578192e-03
-6.046454e-03
-7.396688e-04
1.478607e-03
-2.241940e-02
-1.918841e-02
-2.785028e-02
-9.895909e-04
-2.302985e-03
4.343217e-03
-6.785142e-04
7.779756e-03
7.251329e-03
-7.921245e-03
7.065561e-03
-1.004540e-02
1.572800e-03
2.154615e-04
2.139503e-03
-3.787243e-02
-4.537964e-02
-4.798892e-02
1.122031e-02
-1.493312e-03
7.216192e-03
2.502270e-02
3.530092e-02
4.146876e-02
-2.152224e-02
-1.999159e-02
-1.820105e-03
-1.174381e-02
3.044288e-02
1.072556e-02
5.789703e-03
-8.931699e-03
-2.040146e-02
4.401350e-04
2.952543e-03
4.910017e-03
-5.878285e-03
-8.914488e-03
1.465538e-03
-1.127079e-02
-1.519551e-02
5.525140e-04
-5.810877e-03
-1.639553e-03
-9.799955e-04
1.189114e-02
2.308135e-03
1.641165e-02
4.016276e-03
9.392993e-03
7.138706e-03
1.378445e-02
-1.764794e-02
-5.682887e-03
4.079391e-03
-7.786606e-03
-2.091354e-02
5.675063e-03
-3.314047e-03
-1.190078e-02
-4.965789e-06
-2.097511e-06
-2.210393e-06
-2.783543e-06
-9.150270e-07
-2.288840e-06
-4.091691e-06
-1.546511e-06
-2.743962e-06
1.346839e-03
1.187214e-02
-5.912117e-04
-1.296546e-03
-2.477120e-04
2.066916e-02
-1.792964e-02
4.825179e-03
1.708888e-02
4.375622e-02
1.693457e-02
-6.053424e-02
5.283267e-02
7.746954e-03
-7.944550e-02
5.351308e-02
-3.520815e-03
-7.478046e-02
6.155134e-04
6.714308e-03
-3.949632e-03
-1.448783e-02
9.894964e-03
2.969906e-04
-2.683218e-03
8.835418e-03
1.404110e-02
1.357139e-03
3.493302e-03
-1.222403e-02
-1.203453e-03
7.520337e-04
-4.707828e-03
-1.482377e-03
-5.200220e-03
-4.852251e-03
-1.025124e-02
-2.742579e-03
-2.099038e-03
-5.096301e-03
3.423966e-03
5.716342e-03
1.487640e-03
8.533777e-03
1.475269e-03
-7.829603e-04
-2.835811e-03
-5.124589e-03
1.835924e-02
-9.093430e-03
-2.004902e-02
2.148370e-02
6.320067e-04
-2.186199e-02
-1.345278e-07
-4.706185e-08
-1.067269e-07
-4.949763e-08
3.888763e-08
-2.538889e-08
-6.434055e-08
-6.402679e-08
3.592274e-08
-3.883530e-03
-1.684076e-02
-2.059585e-02
-8.306241e-03
-1.797866e-02
-6.613453e-03
-1.187648e-02
-1.772644e-02
-6.158387e-03
-7.293870e-02
-3.921688e-02
5.273982e-02
-9.505688e-02
-2.273789e-02
9.826647e-02
-7.823798e-02
1.628981e-02
9.588199e-02
-7.994099e-03
1.338081e-02
9.964973e-03
1.102857e-02
2.018997e-03
1.437570e-02
-3.206484e-03
1.036419e-02
1.528608e-02
6.811822e-03
-1.243420e-02
1.034049e-02
-9.758271e-03
-1.644740e-02
8.187425e-03
-2.770524e-03
7.337368e-04
8.660064e-03
-1.052077e-02
1.195624e-03
-1.148579e-02
6.701998e-03
1.465768e-02
2.610750e-03
-4.052848e-03
2.500897e-04
-1.184393e-02
3.432678e-02
-1.203647e-02
-3.247783e-04
4.020587e-02
-1.940073e-02
-1.973819e-02
3.842606e-02
-1.804918e-02
-1.718925e-02
1.516756e-02
4.527878e-02
4.256431e-02
-2.510651e-03
1.573401e-02
4.551590e-02
1.548523e-03
7.188337e-03
4.344839e-02
-2.905301e-03
1.529097e-02
1.262139e-02
8.874579e-03
3.821533e-02
2.575704e-02
-2.979776e-03
2.792259e-03
5.430099e-03
1.028882e-05
6.290749e-06
6.662796e-06
5.860224e-06
1.796664e-06
1.609363e-06
4.524706e-06
1.538866e-07
1.002412e-06
1.470326e-02
2.669270e-02
7.232467e-03
3.029947e-02
-8.798215e-03
-9.799166e-03
9.281887e-03
3.104990e-03
-1.335593e-02
-1.400223e-03
-6.777813e-03
2.264150e-04
-4.487308e-03
-9.872628e-03
-4.141428e-03
9.121863e-03
5.354940e-03
8.468499e-03
-4.218057e-03
4.945629e-03
4.773458e-03
-2.759748e-03
2.347184e-02
-1.197535e-03
1.400721e-02
-4.253681e-03
1.037570e-02
2.014664e-03
1.562200e-02
4.058521e-03
-7.369164e-03
7.231839e-03
3.006401e-02
-3.058949e-02
4.946056e-03
2.010411e-03
-3.440823e-02
-1.234669e-02
2.697912e-03
-1.972613e-02
3.624310e-03
1.332972e-02
-8.948055e-03
5.735619e-03
2.368577e-03
-9.032180e-03
3.167519e-03
1.118047e-02
2.803904e-03
-1.685202e-03
1.569364e-02
1.648451e-02
2.612719e-02
2.072323e-02
1.041811e-07
8.501765e-08
-1.021165e-08
4.016658e-08
-1.917810e-09
-4.014398e-08
1.363834e-08
1.483769e-08
5.785153e-09
-1.176441e-02
-1.642567e-02
-1.736630e-02
-2.364495e-02
-2.025083e-02
-2.428070e-02
-2.502706e-02
-2.500386e-02
-2.324150e-02
-2.168347e-02
-1.397308e-02
-1.632037e-02
-6.083433e-03
1.542053e-03
-2.020050e-03
1.649481e-03
2.163558e-02
1.549202e-03
7.393745e-03
1.706646e-02
-3.929568e-03
2.969441e-02
2.178006e-02
2.259948e-02
2.758801e-02
3.844049e-02
2.634813e-02
-1.464954e-02
-3.109177e-03
2.233096e-03
9.304639e-03
1.274938e-02
2.918525e-02
1.196430e-02
1.769997e-02
3.227906e-02
2.172864e-02
2.565205e-02
1.986922e-02
3.655042e-02
6.196119e-02
-1.379209e-03
1.398832e-02
1.498903e-02
-1.660844e-02
-8.304317e-03
-1.675118e-02
-1.706618e-02
-4.121090e-02
-5.254098e-02
-4.592189e-02
-5.920767e-02
-7.691982e-02
-6.137967e-02
-1.585686e-02
-8.984746e-03
-1.565641e-02
-1.857914e-02
4.588209e-04
-3.148136e-02
-1.986076e-02
-1.331176e-02
-1.644111e-02
1.247165e-02
-4.532723e-04
-1.430152e-02
1.975592e-02
2.433044e-02
4.224516e-02
5.388604e-03
4.909462e-03
1.986508e-02
-1.377129e-05
-1.966327e-05
-1.957083e-05
8.035272e-06
1.581686e-06
1.911758e-06
8.075926e-06
1.004737e-06
1.330961e-06
1.067058e-02
9.444811e-03
6.817312e-03
1.190892e-02
-1.154386e-02
4.805342e-03
9.787675e-03
-6.239997e-03
6.585561e-03
7.918047e-03
2.098483e-02
2.566859e-02
-1.040474e-02
-5.147548e-03
-1.235396e-02
1.162767e-02
-9.351901e-04
-1.618258e-02
5.205309e-03
1.114165e-02
8.114841e-03
8.736812e-04
1.167655e-02
1.901962e-02
-1.188365e-02
2.230393e-04
1.774129e-02
-2.762384e-02
-2.776713e-02
-1.005611e-02
-1.494922e-03
-2.207438e-02
-1.972940e-02
1.878885e-02
2.149314e-02
2.548738e-02
9.447547e-03
5.642272e-03
9.988939e-03
-3.711389e-03
5.497430e-03
5.368185e-03
-1.974066e-02
-1.334901e-02
-5.840950e-03
-1.337011e-02
-3.094731e-02
-2.172451e-02
4.584685e-03
-2.645656e-02
-4.835468e-02
4.166818e-02
7.048805e-02
4.447611e-02
-2.080710e-07
-2.041019e-07
-2.702438e-07
6.295872e-08
-2.845338e-08
-1.364783e-09
1.627971e-08
-1.833860e-08
-3.490588e-09
1.106522e-02
1.289723e-02
8.905851e-03
-3.946410e-05
3.674574e-03
1.380659e-02
-4.980612e-04
-2.665422e-03
1.106438e-02
1.464520e-02
2.569732e-02
1.435681e-02
-8.601417e-03
6.601683e-03
1.285659e-02
-3.307695e-02
-8.883948e-03
-3.674315e-03
2.337690e-02
2.007982e-02
3.088073e-04
1.535119e-03
2.254978e-02
1.777369e-02
-2.840503e-02
2.670553e-04
6.426299e-03
-9.496069e-03
-1.347970e-02
-2.140244e-02
-3.269896e-02
-2.821738e-02
-4.886759e-02
5.908093e-02
4.698552e-02
1.674956e-02
-4.232737e-02
-1.893725e-02
-1.197365e-02
-3.792844e-03
-4.452398e-02
-2.421018e-02
2.954015e-02
7.082064e-02
3.196200e-02
1.345135e-02
9.901086e-03
-3.042199e-03
-1.507570e-02
-1.418130e-03
-6.083455e-03
-1.157161e-02
4.736229e-03
8.040091e-03
1.010376e-02
1.260702e-01
-1.036112e-02
8.411504e-02
-1.578543e-01
1.227802e-01
5.297122e-03
1.032610e-01
3.591323e-02
-9.630126e-03
-5.060774e-03
-9.032710e-03
4.343403e-03
-1.251474e-02
9.611110e-03
-1.932892e-03
2.794672e-03
-3.307597e-03
8.507407e-06
5.535930e-06
4.545792e-06
7.940146e-06
4.149153e-06
3.636137e-06
7.274426e-06
2.794390e-06
1.886243e-06
-1.228870e-02
-1.456657e-02
-1.065333e-02
1.316445e-03
-1.077434e-02
-2.001289e-02
1.415529e-02
-2.457834e-02
-2.038127e-02
-5.939087e-03
4.470389e-03
4.315254e-03
-1.132695e-02
2.757860e-03
-1.190068e-02
-9.119476e-03
-9.598313e-04
4.156509e-03
-1.583317e-02
4.092082e-02
-1.596315e-02
3.059002e-02
-2.516124e-02
3.326210e-02
-4.577857e-03
2.012411e-02
1.007625e-02
-5.342790e-03
1.816843e-02
2.147269e-03
1.546875e-03
2.619288e-02
1.399589e-03
4.634275e-03
-9.766818e-03
3.465868e-02
2.007367e-03
2.742045e-03
-1.072378e-03
2.765867e-03
-1.229649e-02
8.568232e-03
1.031623e-02
3.705448e-03
-1.451572e-03
-8.323401e-03
5.169170e-03
-7.947465e-03
-1.669327e-02
7.283333e-03
-8.097298e-03
-9.868974e-03
8.472607e-03
1.431185e-03
2.006522e-07
8.858380e-08
8.548176e-08
1.401215e-07
1.081329e-07
-1.000086e-08
5.228065e-08
7.980113e-08
-1.438799e-09
-1.474841e-02
-1.273316e-02
-1.614856e-02
-9.998410e-03
-1.581198e-02
-3.797380e-03
-9.505369e-03
-6.162936e-03
-1.343621e-02
-1.530457e-02
-5.063095e-03
-2.330194e-03
-1.440608e-02
2.203560e-04
-4.342488e-03
2.315525e-03
-3.306642e-03
-1.645651e-03
8.130650e-03
-8.151448e-03
8.691403e-03
1.240596e-02
2.926477e-02
-1.710887e-02
1.360129e-02
-4.221528e-03
-1.910529e-02
4.377460e-04
1.135240e-03
1.496315e-02
-6.603531e-03
2.592382e-03
-8.487688e-03
-2.310882e-02
7.536036e-03
-7.575760e-03
9.529811e-03
1.298173e-02
-4.779973e-03
-2.674530e-02
6.478507e-02
8.570206e-03
2.555830e-02
-1.387381e-03
-1.052989e-02
-3.571772e-04
8.562184e-03
-1.202122e-02
-6.242680e-03
3.952628e-03
-1.621686e-02
5.539346e-03
2.542469e-03
1.703529e-03
3.774478e-02
2.118348e-02
8.391907e-03
2.710270e-02
1.624520e-02
1.646489e-02
-1.116184e-02
2.040641e-02
8.930452e-03
1.323158e-03
8.818098e-03
-4.815174e-03
1.370073e-02
-6.382537e-03
2.528217e-03
5.888059e-03
-1.727396e-04
-7.022655e-03
-4.647261e-06
8.355537e-07
1.288073e-06
-6.136693e-06
1.858252e-07
1.011874e-07
-5.747760e-06
2.780719e-07
-6.574608e-09
-3.176478e-03
-5.598317e-03
-3.852601e-03
8.563841e-03
-1.431345e-02
-3.916951e-03
7.027133e-03
7.969464e-03
-3.906893e-03
2.844472e-02
1.399363e-02
1.609330e-02
2.854486e-02
4.139417e-03
1.003039e-02
3.725897e-02
1.588384e-02
1.161306e-02
-1.355250e-02
3.070349e-03
5.408428e-03
-7.934241e-03
5.803488e-03
3.920048e-04
7.936320e-03
5.387776e-03
-9.769566e-04
7.733673e-03
1.846469e-03
-6.739400e-03
-1.419810e-02
-2.652706e-02
-1.923145e-02
-9.352963e-03
-1.357019e-02
-2.573321e-02
-2.623449e-02
-2.210030e-02
1.086040e-02
-1.605529e-02
-2.579681e-02
-1.216941e-02
-2.878856e-03
-1.876283e-02
-2.622104e-02
-2.235223e-02
-9.786851e-03
-1.818040e-02
-2.798736e-02
-1.385762e-02
-3.577239e-02
-5.154337e-02
-6.053377e-02
-5.487569e-02
7.485082e-08
1.198382e-07
5.225239e-08
-3.299150e-08
1.709338e-08
3.433234e-08
1.082148e-08
5.396119e-08
3.130369e-08
1.948843e-02
6.254652e-04
8.712308e-03
2.057433e-02
1.414070e-02
2.071717e-02
2.450338e-02
2.081779e-02
1.852874e-02
1.353786e-02
-4.540376e-03
-2.432422e-02
1.572451e-02
7.398658e-03
-2.558643e-02
4.906643e-03
-3.028204e-03
-1.821011e-02
-3.865506e-03
3.080493e-03
1.161851e-02
5.606796e-03
-1.416878e-02
5.247289e-03
8.269357e-03
2.724500e-03
-6.372300e-03
1.906663e-02
1.775621e-02
2.005309e-02
5.826820e-03
-1.650784e-02
2.208951e-02
7.177822e-03
2.052057e-02
1.210518e-02
-3.362174e-03
1.443822e-03
1.263355e-02
2.243092e-02
1.172212e-02
9.234163e-03
1.118563e-02
2.366350e-02
1.301752e-02
-3.553940e-02
-3.813946e-02
-1.839598e-02
-6.318349e-02
-6.491899e-02
-3.883085e-02
-6.987576e-02
-7.198549e-02
-3.447402e-02
-3.238709e-03
-1.467768e-02
-2.675686e-02
-3.595334e-02
-2.815537e-02
-3.126064e-02
-2.008318e-02
-1.119968e-02
-8.578057e-03
3.524219e-04
8.258112e-03
-7.748770e-03
1.304745e-03
9.927901e-03
-1.234434e-02
1.203479e-02
-2.447480e-04
2.200967e-03
-1.646368e-06
3.913484e-07
-1.338755e-07
-1.995533e-06
-6.139405e-07
-5.741731e-07
-3.636292e-06
-1.916397e-06
-2.274011e-06
-2.439449e-02
-2.492082e-02
-5.691197e-03
-3.471367e-03
-3.957122e-02
-8.228451e-03
-1.421239e-02
-1.290485e-02
-1.344021e-02
-9.769445e-03
-1.118039e-02
-1.616360e-02
-1.061066e-02
-1.543170e-02
-1.793952e-02
-1.138481e-02
-1.374171e-02
-2.353316e-02
5.059457e-03
7.300671e-03
6.269837e-03
-3.027650e-03
-9.474711e-03
1.194985e-03
-1.494635e-02
-1.413645e-02
-3.056604e-03
-2.237001e-03
3.045508e-03
-2.031402e-02
9.991975e-03
6.738906e-03
2.795923e-03
1.691889e-02
1.140447e-02
2.482131e-02
1.580226e-02
1.093946e-02
6.390872e-03
8.033870e-03
-2.064431e-03
-5.552115e-03
-3.145187e-03
-1.668353e-02
-1.134146e-02
-1.376410e-03
-5.715449e-03
-1.273368e-03
-1.127040e-02
-1.536611e-02
2.343167e-03
-1.162494e-02
-4.516576e-03
9.166017e-03
-2.526190e-08
1.030888e-08
-4.221871e-08
-1.676088e-08
-5.871743e-08
-3.740459e-08
-6.158572e-08
4.419114e-09
-5.348194e-08
-2.012865e-02
-1.347135e-02
-3.689744e-03
-3.659875e-03
3.750975e-04
1.310819e-02
1.948522e-02
1.967157e-02
2.158148e-02
2.684847e-02
1.556109e-02
9.274682e-03
2.748219e-02
1.678636e-02
1.013481e-02
3.633515e-02
4.120835e-02
2.282160e-02
3.676914e-03
8.798531e-03
3.969941e-03
-3.415669e-04
1.668128e-03
-9.538643e-03
-4.130403e-03
-6.192694e-03
-9.649745e-03
2.003222e-03
-3.946451e-03
-1.924534e-03
4.227519e-03
-3.095923e-04
-1.410895e-02
-1.656963e-02
-1.214318e-02
-1.428219e-02
-1.638358e-02
-4.141165e-03
3.906018e-04
-2.306394e-02
-2.103204e-02
-1.694410e-02
3.860253e-03
-9.054160e-03
2.729172e-03
-1.558727e-02
-3.981799e-02
-3.990746e-02
-6.332526e-02
-9.170055e-02
-8.038843e-02
-5.402022e-02
-7.383642e-02
-5.705828e-02
9.324120e-03
3.849024e-02
3.700380e-02
5.943490e-02
4.957331e-03
5.379022e-02
5.908220e-02
7.941557e-02
3.766230e-02
-1.100285e-02
-4.703753e-02
-1.180517e-02
-5.152528e-02
-3.633322e-02
-4.855255e-02
-2.515100e-02
-4.143439e-02
-1.169485e-03
1.456680e-05
9.328589e-06
9.331701e-06
3.136252e-06
-2.542092e-06
-1.480976e-06
4.656949e-06
-1.494311e-07
4.686057e-07
-2.724726e-02
-7.076601e-02
-4.300551e-02
-6.991147e-02
-7.045503e-02
-7.452118e-02
-4.789932e-02
-7.666624e-02
-4.702696e-02
-1.685939e-02
-1.333728e-02
-1.887439e-02
5.263210e-03
-4.707352e-03
-3.367736e-03
1.245873e-02
7.739598e-03
5.679150e-04
3.859932e-03
1.281738e-02
8.616050e-03
8.667751e-03
3.515896e-02
1.489593e-02
2.145104e-02
9.513240e-03
4.579872e-03
-8.584140e-03
7.048497e-03
-9.815096e-03
1.465161e-02
1.127835e-02
6.124947e-03
1.882760e-02
7.052734e-03
-5.984896e-03
-1.126476e-02
4.657838e-03
5.531605e-03
1.485591e-03
1.331395e-02
1.699708e-02
-9.616045e-04
3.009454e-04
-1.454170e-02
1.075564e-03
1.024708e-02
-3.323214e-03
-1.084391e-02
-2.492792e-03
-5.495029e-03
-7.325401e-03
1.365404e-02
2.561957e-02
8.961239e-08
6.353960e-08
1.550186e-07
1.084309e-07
1.382153e-07
1.078779e-07
9.940465e-08
7.316062e-08
-5.533586e-08
2.205437e-03
-6.331970e-03
-2.182002e-03
-6.654911e-03
-1.664247e-02
1.448636e-03
-1.283080e-02
-1.785788e-02
-1.363024e-02
-6.968886e-03
-1.946819e-02
-1.084121e-02
3.374613e-03
1.022582e-02
1.415347e-02
-1.234461e-02
3.918801e-03
6.478242e-03
-5.374904e-03
-2.199712e-03
-1.074346e-03
1.314819e-03
3.601916e-03
9.684442e-04
-1.317168e-03
1.616328e-03
-2.270762e-03
-1.192148e-03
9.102620e-04
1.196950e-02
-1.255170e-02
-1.730408e-03
8.854153e-03
-4.064075e-04
1.045462e-02
2.182687e-02
-6.866168e-02
-1.090278e-01
-7.755291e-02
-1.066806e-01
-1.301691e-01
-1.080574e-01
-6.651320e-02
-1.131084e-01
-6.171121e-02
-2.576632e-02
7.522962e-03
2.098476e-02
-1.387382e-02
8.072135e-03
2.700072e-03
-6.616589e-03
1.278942e-02
-1.757031e-02
2.920416e-03
-6.517663e-03
-1.855597e-02
8.861725e-03
-2.584215e-03
-7.474131e-03
1.340449e-02
2.391536e-02
1.225492e-02
-4.302408e-02
-3.398371e-02
-1.516289e-02
-2.616267e-02
-2.748926e-02
-1.534608e-02
-2.731244e-03
1.205386e-02
2.781403e-02
-2.203193e-06
1.635848e-06
1.592700e-06
-5.939059e-07
1.959226e-06
1.425891e-06
-1.604780e-07
1.926733e-06
1.293551e-06
-1.087531e-02
-6.649387e-04
3.444850e-02
-6.151808e-04
-9.896748e-03
3.248557e-02
1.798944e-03
1.349950e-02
1.718432e-02
8.082785e-03
9.644940e-03
8.979783e-03
-2.943864e-03
3.112663e-03
-4.195510e-03
-1.017716e-02
-5.576552e-03
-1.406130e-02
8.261602e-03
-8.789591e-03
-2.171810e-02
6.802246e-03
5.564685e-04
2.026214e-03
2.044531e-03
-5.206989e-03
1.136962e-02
-2.464888e-02
-4.005210e-02
-2.845282e-02
-1.051792e-02
-2.143170e-02
-1.412914e-02
-8.843676e-04
5.350761e-03
1.222399e-02
1.556349e-02
7.939869e-03
1.924142e-03
-6.577130e-03
1.361796e-04
6.717601e-03
-2.349203e-02
-8.677691e-03
1.219935e-02
-1.868748e-02
-2.490633e-02
-3.401298e-02
-2.011570e-02
-1.605498e-02
2.384703e-03
6.687366e-03
3.724442e-02
4.372394e-02
-6.535697e-08
-3.115683e-08
-6.307720e-08
-3.961393e-08
-5.065623e-08
-8.964836e-08
-1.466758e-07
-4.749833e-08
-2.153095e-08
-3.062609e-02
-1.411871e-02
1.413872e-03
-2.071659e-02
-2.056961e-02
7.539596e-03
-1.422416e-02
-1.820378e-02
1.094461e-03
-5.717251e-03
-2.464297e-02
-2.527882e-02
1.197132e-02
-8.750685e-03
-9.839716e-03
7.147797e-03
2.394855e-02
1.590362e-02
5.962427e-03
2.720825e-02
2.555450e-02
-2.146523e-02
-7.552605e-05
3.209015e-02
-1.848285e-02
-2.333898e-03
2.103330e-02
-2.234668e-02
-5.293320e-02
-5.343022e-02
-1.684249e-03
-6.288787e-04
-4.573279e-02
1.496413e-03
-7.170557e-03
-1.212968e-02
-1.388391e-02
3.169918e-02
2.606046e-02
-8.991295e-03
-5.735561e-02
7.476502e-02
-6.675655e-03
1.822921e-02
3.836394e-02
-1.358639e-02
-1.900054e-02
-4.703008e-04
-1.473020e-02
-2.619400e-02
-2.679494e-02
1.471372e-02
-4.839304e-03
-1.918315e-02
-8.487424e-03
-1.694736e-02
-3.138065e-02
1.253053e-03
5.703482e-02
-2.643381e-02
4.203673e-03
1.257851e-02
-1.110326e-03
-1.014594e-02
-7.481856e-03
-1.964170e-02
1.690025e-02
-1.912935e-02
-1.886065e-02
4.543344e-02
1.918193e-02
-1.531869e-02
-1.781157e-07
-1.366647e-06
-1.063203e-06
1.170825e-06
-1.177599e-08
-4.346578e-07
4.122070e-07
6.377775e-08
3.529414e-07
7.111275e-04
1.998679e-02
-8.483300e-03
4.379808e-02
-6.451984e-03
-8.965313e-04
1.544617e-02
1.001858e-02
-1.695061e-03
-2.232312e-02
-2.547269e-02
-2.083916e-02
-6.710546e-03
-2.185412e-02
-3.523637e-02
3.300268e-03
-1.538467e-02
-3.384355e-02
5.135054e-03
3.343602e-03
-8.911231e-03
1.661946e-02
6.376683e-03
8.130585e-03
-2.218429e-03
1.735391e-02
4.212115e-03
-9.931510e-03
-1.623141e-02
-8.876769e-03
-1.321661e-02
-5.892173e-03
-2.132832e-02
5.913388e-03
-3.100585e-02
-2.580332e-02
-2.428280e-02
4.374629e-03
1.701028e-02
-1.813075e-02
-1.518603e-03
1.258542e-02
-5.596484e-03
-4.657088e-03
-6.878655e-03
-5.399916e-03
-3.119193e-03
-1.922978e-02
1.298035e-03
1.208502e-02
-1.618654e-02
8.705499e-03
-2.107091e-02
-2.051565e-02
-9.888860e-09
-4.270435e-08
3.399588e-09
2.043277e-08
1.800891e-08
-5.656668e-08
1.708315e-07
1.449497e-07
1.117242e-08
-7.838262e-03
-2.054825e-02
-1.388290e-02
-2.678782e-03
-1.383534e-02
-1.396899e-02
-1.850547e-03
-3.868603e-03
-6.670511e-03
-7.599921e-03
-2.631354e-02
-2.087833e-02
-3.627751e-03
-1.577795e-02
-5.041456e-04
1.509422e-02
-9.493433e-03
9.782037e-03
8.959222e-03
9.025757e-03
-1.511800e-02
4.921746e-03
-5.888835e-03
2.878025e-03
1.182113e-02
-2.893451e-03
-5.798649e-03
4.938998e-03
6.637705e-03
1.753065e-02
-1.153315e-02
-2.009577e-02
7.687414e-03
-1.237208e-03
1.645173e-02
1.515234e-02
1.823992e-02
-2.203711e-03
-3.774725e-02
4.678725e-02
-2.038580e-03
-1.558155e-02
4.265832e-02
1.662396e-02
3.653063e-03
-2.702252e-02
4.426925e-02
7.649907e-02
-8.812957e-02
4.015160e-03
6.765448e-02
-1.119221e-01
-5.404304e-02
1.191371e-02
7.445363e-03
2.464432e-02
-3.253401e-03
1.620276e-02
-1.080586e-02
2.514823e-02
-3.123019e-03
1.873767e-02
2.978976e-02
-2.470328e-02
-2.854896e-02
-4.950176e-03
-3.711518e-02
-1.722218e-02
-1.210285e-02
-2.726186e-02
-3.184982e-02
1.012693e-02
3.560707e-06
5.311173e-06
5.274115e-06
-3.109157e-06
-1.607500e-06
-1.584247e-06
-2.857011e-06
-1.132207e-06
-1.017694e-06
-2.280094e-03
-1.620835e-02
-1.681747e-02
-2.692324e-02
-2.162528e-02
-1.911460e-02
1.931958e-03
3.684695e-03
8.379208e-03
-3.942957e-03
-2.411172e-02
-6.712897e-03
-5.071705e-04
4.036676e-03
2.896158e-02
-1.277892e-02
7.033556e-03
1.526345e-02
-8.880286e-03
-2.787434e-03
-3.445530e-03
-8.144235e-04
1.566015e-02
-1.840848e-02
2.723646e-02
7.070121e-03
9.254071e-03
1.770212e-02
3.286974e-02
-4.040721e-03
1.246164e-02
1.655451e-02
1.234175e-02
-8.277295e-03
4.291455e-03
-2.945506e-02
-2.403683e-02
-3.959777e-03
3.003392e-02
8.296981e-03
2.372941e-02
4.717436e-02
2.418812e-02
1.675826e-02
4.950689e-03
-1.166416e-02
6.608059e-03
1.065878e-02
1.160419e-02
7.486576e-03
-2.007254e-02
8.844643e-03
-6.024535e-03
-4.298014e-02
8.058066e-08
1.503768e-07
2.057040e-07
-1.288677e-08
1.358458e-07
1.509555e-07
-6.258492e-08
-2.076307e-08
-5.270056e-08
6.726482e-03
-6.901140e-03
-1.730981e-02
-1.061770e-02
-2.511074e-02
-6.856900e-03
-1.777244e-02
-1.666736e-02
3.624717e-03
-2.004132e-02
1.720929e-02
3.100701e-03
1.205332e-02
1.477383e-02
-5.282710e-03
-5.921656e-03
-1.810665e-02
-2.081166e-02
-3.186456e-02
-3.307544e-02
1.994796e-02
-2.180576e-02
-6.721252e-03
5.964319e-02
4.539633e-04
5.307413e-02
5.259802e-02
-8.783416e-03
-9.383271e-03
3.357307e-02
-2.368356e-02
-1.550231e-02
5.831065e-02
-9.715427e-03
3.060371e-02
6.947447e-02
-3.241445e-02
-1.645925e-02
-1.610244e-02
-2.374675e-02
1.619098e-02
4.391061e-03
-1.863297e-03
-5.952457e-04
9.171476e-03
1.704769e-02
2.094788e-02
-1.657248e-02
3.044226e-02
1.624390e-02
-3.214855e-02
9.963204e-03
-7.506860e-03
-4.667141e-02
5.388573e-03
-5.173117e-03
1.033394e-03
1.414454e-04
-2.072839e-02
7.877047e-03
3.646570e-03
6.741791e-03
8.836494e-04
2.487020e-02
1.322214e-03
8.457183e-03
4.991269e-02
-1.778823e-02
7.302564e-02
2.702397e-02
3.699575e-02
2.622628e-02
1.001023e-05
4.222356e-07
9.953015e-07
9.193275e-06
1.007235e-07
1.198582e-06
9.082749e-06
-1.157099e-07
3.658758e-07
-1.716109e-02
-2.339387e-02
-1.869231e-03
-1.390530e-02
-3.796287e-02
-1.488028e-02
-2.081919e-02
-3.063444e-02
-2.042397e-02
4.068777e-02
5.927956e-02
2.580701e-02
1.465804e-02
1.926120e-02
1.344639e-02
-3.572587e-02
-4.799461e-02
-3.770236e-02
5.919754e-03
1.547044e-02
6.005159e-04
1.101564e-02
1.314546e-02
4.755608e-03
-9.413389e-03
2.217537e-03
-2.953847e-03
-2.078782e-03
8.135580e-03
2.005795e-02
-4.303022e-03
7.320954e-04
2.254221e-02
-2.747432e-03
-1.346535e-03
2.023109e-03
8.165584e-03
-1.979219e-03
-1.416466e-02
3.183217e-03
1.327408e-02
1.488710e-04
7.936224e-03
3.121362e-02
1.259304e-02
1.583306e-02
4.522502e-02
2.947402e-02
-1.255647e-02
1.264334e-02
8.551813e-03
-1.655427e-02
-1.158475e-02
-2.370258e-02
1.060714e-07
5.125439e-08
-5.742947e-08
-2.646720e-08
-1.283633e-08
1.165707e-08
8.227524e-08
6.913273e-08
1.753049e-08
-4.504045e-03
-6.769315e-03
-5.843271e-03
-9.909523e-03
-7.581973e-03
-1.421090e-02
6.556279e-03
1.487474e-02
1.020299e-02
-7.555375e-02
-9.113979e-02
-5.411723e-02
-5.803058e-03
-1.413041e-03
1.291349e-02
6.249547e-02
8.724530e-02
8.021284e-02
1.425953e-03
-9.336383e-03
-1.989617e-02
-1.334939e-02
-1.916818e-02
-2.495629e-02
-2.378938e-02
-2.009339e-02
-1.903228e-02
-2.876952e-02
-3.495914e-02
-2.210100e-02
4.634643e-03
1.245704e-02
2.033261e-02
3.597098e-02
5.715609e-02
5.967434e-02
7.265179e-03
3.084111e-03
-5.784369e-04
3.147131e-03
-6.278070e-03
-4.582721e-03
1.099147e-02
-1.009488e-02
1.139307e-03
1.555030e-03
6.687565e-03
-5.578020e-03
-9.018471e-04
4.749003e-04
2.165547e-03
-1.159549e-02
-1.442454e-03
1.259290e-02
5.776436e-03
-2.945563e-02
-2.461686e-02
-1.407445e-02
-4.250476e-03
-4.835372e-02
-3.572338e-02
-3.499302e-02
-1.045911e-02
6.214848e-03
1.824909e-02
7.143845e-03
2.036255e-02
1.856971e-02
-2.264883e-03
-1.605865e-03
-1.865815e-03
-9.890684e-03
7.097062e-06
1.016251e-06
2.947458e-07
-1.773715e-06
-7.085898e-06
-7.099254e-06
-8.877938e-07
-5.582850e-06
-4.942578e-06
-1.453646e-02
-1.898018e-02
-1.351864e-02
-4.364725e-02
-2.928889e-02
-4.014782e-02
7.004426e-03
-1.808211e-02
-2.232331e-02
-2.059408e-02
4.281620e-03
-1.165718e-02
-3.180050e-03
6.461197e-03
-1.118791e-02
1.391971e-02
1.774704e-02
-1.271554e-02
1.514847e-02
7.822862e-03
-3.050172e-03
-3.869245e-03
-6.276867e-03
2.752080e-03
1.823933e-04
-7.067137e-03
1.407804e-02
9.796249e-03
1.064532e-02
-1.371487e-02
-2.055305e-02
-2.096745e-02
-1.984715e-02
-1.064609e-02
-2.507981e-05
-1.190253e-02
2.778703e-03
1.999733e-03
9.228552e-03
-9.621575e-03
-5.437902e-03
-1.820115e-03
-1.586878e-03
-9.688416e-03
-1.808333e-02
-1.865648e-02
1.522458e-02
-1.943052e-03
1.081798e-02
2.575832e-02
1.432606e-02
-1.637298e-02
-7.697445e-03
3.731724e-03
1.015099e-07
1.254484e-07
8.555152e-08
8.211698e-08
7.360978e-08
3.354183e-08
1.074040e-07
5.931074e-08
9.760589e-09
1.822834e-02
8.021134e-03
1.303416e-02
1.644398e-02
1.303845e-02
2.239629e-02
1.199644e-02
5.427653e-03
6.389743e-03
1.455643e-02
-8.308453e-03
1.776263e-03
2.479744e-03
1.305640e-04
1.884928e-02
-2.359670e-02
2.108061e-03
1.144596e-02
1.711694e-02
1.473430e-02
-7.779091e-03
1.554060e-02
2.071184e-02
1.294567e-02
1.036318e-02
-1.729976e-02
-2.115946e-02
6.880754e-03
1.537098e-03
-5.587688e-03
2.149293e-02
9.671563e-03
-9.728316e-03
-1.996859e-02
-8.595061e-03
-2.047569e-02
-7.015963e-02
-1.135591e-01
-8.380955e-02
-1.070197e-01
-1.265871e-01
-1.361941e-01
-8.710068e-02
-1.339403e-01
-1.061325e-01
-1.040194e-02
3.920042e-05
1.364644e-02
1.302008e-02
3.176547e-03
7.233374e-03
9.346204e-03
-1.081931e-02
-1.198145e-02
6.402452e-03
1.667284e-02
2.484752e-03
1.109406e-02
-1.387631e-02
3.030544e-02
4.234154e-04
1.604865e-02
-4.877224e-03
-2.246794e-04
-2.922978e-02
-2.366507e-02
-1.762167e-02
-2.647386e-02
-5.144816e-02
-3.267817e-03
-2.355150e-02
-2.365023e-02
-1.552273e-05
-8.284144e-06
-7.071814e-06
-8.078506e-06
-3.115992e-07
3.689303e-07
-7.371309e-06
-1.565987e-08
-5.146567e-08
-9.041655e-03
-2.053857e-02
5.490671e-03
2.308024e-02
1.346706e-02
2.374966e-02
2.378052e-02
3.979458e-02
1.452712e-02
1.339176e-02
-1.809042e-03
-1.849079e-02
8.402517e-03
-6.547073e-03
-3.877661e-02
1.312840e-02
-2.785864e-03
-3.169498e-02
-9.572814e-03
1.615002e-02
7.378822e-03
-2.544422e-03
1.221710e-02
2.890223e-03
2.629160e-02
3.296685e-02
-6.948662e-03
-1.285295e-04
-5.400589e-04
-1.831465e-02
-1.245409e-02
-2.113410e-02
-1.244467e-02
-1.412948e-02
-1.378534e-02
-9.400997e-03
-2.500527e-02
-4.066410e-02
-1.759656e-02
-3.397479e-02
-7.154787e-02
-3.589546e-02
-2.893296e-02
-8.709502e-02
-3.777056e-02
-1.783145e-02
-1.662412e-02
2.346955e-02
-3.467159e-02
-2.446345e-02
5.151769e-02
-3.703912e-02
-1.556279e-02
6.217284e-02
-2.735837e-07
-2.005675e-07
-1.444877e-07
-7.195625e-08
-5.234197e-08
-6.600600e-08
-1.594461e-07
-2.902443e-09
-8.737904e-08
-5.530036e-03
-9.451514e-03
-9.876636e-04
-3.836378e-03
-1.177336e-02
-4.360122e-03
-4.424227e-03
-9.185832e-03
-8.232174e-03
-1.821333e-03
-5.817286e-03
1.079067e-02
-3.064070e-04
-1.794739e-02
-6.794055e-03
-5.165961e-03
-2.827863e-02
-2.604507e-02
-5.398455e-03
-2.411422e-02
-5.880628e-04
-2.192766e-02
-3.282567e-02
-3.892407e-02
-1.643588e-03
-4.339238e-02
-3.388958e-02
2.711687e-02
2.871927e-03
-1.246360e-02
2.631434e-02
-1.870346e-02
-4.151546e-02
2.867962e-02
-2.669152e-04
-3.823794e-02
-1.339861e-02
-2.976924e-02
4.571106e-04
-2.733615e-02
-2.072941e-02
1.452306e-02
-1.257743e-02
5.845401e-03
-2.454205e-03
-7.468932e-04
-4.831839e-03
1.058749e-02
-3.658009e-03
-1.262302e-02
-1.694185e-03
-2.808664e-03
-1.181209e-02
-8.173548e-03
-1.406182e-02
-3.138445e-02
-2.854655e-02
-1.915484e-03
-2.920856e-02
1.542197e-02
2.697016e-02
4.286860e-02
1.198601e-02
-1.065593e-02
1.914061e-03
1.375419e-03
5.613848e-02
7.680517e-03
8.098546e-02
3.484893e-03
4.537181e-02
6.665632e-02
4.659256e-06
1.384710e-06
1.958477e-06
3.697174e-06
-7.811776e-08
1.078733e-06
2.676723e-06
-8.822928e-07
-7.096547e-07
-2.322734e-02
-2.877962e-02
-9.848052e-03
-2.765554e-02
-2.446968e-02
-2.977349e-02
-1.116833e-02
-1.314401e-02
-5.248201e-03
-5.230325e-02
-6.914534e-02
-4.840964e-02
-1.277466e-02
-1.082167e-02
5.571081e-03
2.885611e-02
4.038922e-02
4.276923e-02
5.263598e-03
-9.717182e-03
-6.654288e-03
-4.530562e-03
5.138965e-03
-1.254797e-02
3.741301e-03
1.511798e-04
-9.953495e-03
-3.373762e-03
3.180080e-03
7.704458e-03
7.032808e-03
7.288985e-03
1.270898e-02
-8.620207e-03
-3.984666e-03
-7.623460e-04
2.141126e-02
1.286336e-02
5.498677e-03
2.638903e-03
1.790420e-03
-2.083450e-03
-8.465280e-03
-3.837776e-03
-1.112887e-02
-3.354200e-03
2.014133e-03
2.578394e-03
-5.571332e-03
2.836872e-03
-1.064904e-03
-2.108507e-04
-3.913241e-03
-3.831895e-03
9.266282e-08
9.089964e-08
2.406504e-08
1.224781e-07
5.281971e-08
6.016938e-08
1.333927e-07
1.005076e-07
-3.368172e-09
-3.151168e-02
-2.835823e-02
-2.388487e-02
-8.208139e-03
1.379485e-03
-6.544332e-03
-7.401580e-03
-4.691638e-03
-1.014428e-02
2.921420e-02
7.243642e-02
4.318062e-02
2.440634e-03
2.172193e-02
4.668268e-03
-8.787291e-02
-1.015287e-01
-8.331493e-02
-1.102473e-02
-1.774831e-02
-1.734670e-02
-3.083705e-02
-1.165611e-02
-2.766234e-03
4.753187e-03
1.257854e-02
1.307612e-02
6.043411e-03
2.608444e-03
-7.818829e-04
6.860566e-03
-1.720148e-03
1.623436e-02
3.417840e-03
2.454231e-02
2.407208e-02
-1.629071e-02
-1.898034e-02
-5.467322e-03
-1.552451e-02
-1.620608e-02
2.405065e-02
-1.901601e-02
1.744872e-02
1.016133e-02
1.584239e-02
9.515414e-03
-6.851791e-03
1.614878e-02
1.337752e-03
-2.338340e-03
-1.010392e-02
-2.719726e-02
-2.026138e-02
3.025290e-02
2.275568e-02
-6.164047e-03
1.498591e-02
2.438949e-02
6.741235e-03
8.927021e-03
-1.344447e-03
1.303370e-02
1.369448e-02
1.381672e-02
3.275163e-03
1.983087e-02
9.030079e-03
-4.596112e-05
1.638156e-03
5.020835e-03
-6.682044e-03
-5.503974e-06
-2.138045e-06
-1.713342e-06
-2.309212e-06
9.089733e-07
1.171376e-06
-1.248955e-06
1.822713e-06
2.762819e-06
-1.272805e-02
-2.615011e-03
5.133474e-03
-1.306743e-02
-7.690035e-03
5.572701e-03
1.028305e-02
-1.055819e-02
-7.745883e-04
2.187131e-03
-1.669292e-02
-2.794075e-02
-2.161288e-02
-3.606791e-02
-2.852576e-02
-4.647115e-02
-5.654401e-02
-4.679228e-02
-7.495900e-03
-6.707553e-03
1.309050e-02
-1.447434e-02
2.621691e-03
4.853271e-03
7.439763e-04
-7.260028e-03
-9.292590e-03
9.046479e-03
1.501550e-02
1.927322e-04
2.674351e-03
4.119170e-04
-8.272336e-04
1.111136e-03
-1.939593e-03
-7.751773e-03
6.249310e-03
4.932315e-03
1.820288e-02
-3.350800e-03
5.445075e-04
5.952405e-03
2.657925e-03
5.831637e-03
-2.393501e-04
-1.914286e-02
-3.264288e-02
-2.950093e-02
-3.325724e-02
-3.364615e-02
-4.247672e-02
-4.327386e-02
-5.509303e-02
-4.778873e-02
-1.441860e-07
-1.848050e-07
-7.627473e-08
-1.078180e-07
-2.217376e-08
-3.452157e-08
3.267709e-08
1.855664e-08
5.377819e-08
1.657359e-02
2.223607e-03
-9.267759e-03
2.889432e-02
2.010913e-02
3.605463e-03
2.162618e-02
1.437079e-02
-4.716099e-03
1.390863e-04
-1.310541e-02
-1.702803e-02
-1.989608e-02
-2.933431e-02
-3.407950e-02
-3.697961e-03
-1.263078e-02
-1.348661e-02
-8.192355e-03
-5.806931e-03
-5.828084e-03
-1.622541e-03
-7.989879e-03
-7.104948e-03
-8.655092e-03
-7.785185e-03
-4.147062e-03
8.744933e-03
1.663207e-02
6.974050e-03
1.915526e-02
2.693127e-02
1.152972e-02
1.641639e-02
3.165977e-02
1.476687e-02
8.665055e-03
-6.043368e-03
3.020893e-03
-1.665404e-02
-4.031044e-03
8.866784e-03
1.827240e-03
-4.497258e-03
-2.058155e-03
-2.694971e-03
-1.784473e-02
1.749094e-02
3.876943e-02
2.933695e-02
5.318234e-02
8.010804e-02
8.237256e-02
9.186979e-02
5.469941e-03
4.126783e-03
2.033387e-02
-8.517245e-03
3.694603e-02
1.932166e-02
3.404270e-03
-8.381348e-03
-1.079600e-02
1.866956e-02
-9.876789e-03
-3.773203e-04
9.807826e-03
1.571226e-02
-8.235080e-03
-6.423946e-03
2.391743e-02
8.961385e-03
1.268104e-05
1.087521e-05
1.136130e-05
4.343128e-06
2.545876e-06
2.310248e-06
6.492917e-06
3.570054e-06
2.819825e-06
1.773450e-02
4.025546e-02
-2.990318e-02
4.012452e-02
5.357917e-02
2.991616e-02
-8.933546e-03
3.510145e-02
4.459303e-04
-1.967717e-02
-1.164128e-02
3.034231e-03
-1.099525e-02
4.333121e-03
3.651944e-03
-1.865065e-02
-2.360237e-03
1.159583e-02
4.554850e-04
-1.382375e-02
-1.569233e-02
-1.560702e-03
2.476203e-02
4.731186e-03
1.843779e-02
-5.337816e-03
4.340907e-03
-3.633186e-02
-3.785588e-02
-2.972077e-02
-2.954269e-02
-4.204463e-02
-2.379966e-02
-2.212761e-02
-3.522608e-02
-2.211742e-02
-9.466502e-03
-2.443837e-02
-9.429507e-03
2.864800e-02
3.493865e-03
-1.756829e-02
1.616286e-02
4.018718e-02
1.973305e-02
-1.112799e-02
1.392641e-02
8.785123e-03
-7.227805e-03
-8.667385e-03
5.288172e-03
2.762904e-03
-8.297989e-03
-3.355413e-02
8.965183e-08
5.756618e-08
-9.173704e-08
-1.584156e-08
-1.772618e-07
-9.424821e-08
3.514620e-08
-9.447491e-09
2.786875e-08
-1.067571e-02
-2.391971e-02
-9.420272e-03
-1.013187e-02
-2.461780e-02
-2.262495e-02
-2.634182e-02
-2.328964e-02
-9.075473e-03
-3.373914e-02
-8.767327e-03
2.690836e-03
-1.192225e-02
-1.979119e-02
4.601637e-03
3.022824e-03
1.619152e-03
-6.807948e-03
-2.661250e-02
-1.867165e-02
-1.111782e-02
2.190737e-02
8.160698e-03
-1.808314e-02
2.264903e-02
2.963550e-02
-2.484562e-02
1.402650e-02
8.429728e-03
2.170895e-03
-3.939584e-03
-5.709252e-05
3.681359e-02
-1.285379e-03
-2.927813e-02
3.748947e-03
4.415151e-02
1.104141e-01
4.904418e-02
1.101317e-01
-9.699327e-02
1.234335e-01
5.017359e-02
1.262435e-01
1.779419e-02
-7.266298e-03
-1.713480e-02
-4.963765e-04
5.931957e-04
-1.780367e-02
-1.236595e-02
2.041870e-02
9.446183e-03
-4.816401e-03
-1.044325e-01
-1.258559e-01
-8.288687e-02
-1.557788e-01
-1.183537e-01
-1.293742e-01
-1.126661e-01
-1.691216e-01
-1.204740e-01
-4.106386e-03
1.306602e-02
8.144983e-03
-2.702821e-03
2.720849e-03
7.530534e-03
1.631788e-02
-7.199302e-05
4.227547e-03
1.227688e-05
1.212799e-05
1.390068e-05
-2.203193e-06
-3.426581e-06
-1.862295e-06
-2.368814e-06
-2.857471e-06
-3.073414e-07
-1.475839e-03
2.164861e-02
3.294173e-02
-3.913815e-04
1.528801e-02
3.858355e-02
1.759194e-02
2.291903e-02
1.205594e-02
-3.631223e-03
-9.025947e-03
-1.494575e-02
5.008966e-03
-3.276848e-03
-1.542682e-05
8.357251e-03
4.008014e-03
1.324611e-02
1.693303e-02
-2.112723e-03
2.227886e-03
3.310617e-02
-1.863966e-02
-1.732868e-03
-2.463199e-02
1.255255e-02
-5.875011e-03
-4.645969e-02
-6.664055e-02
-2.556264e-02
-6.612893e-02
-7.479478e-02
-7.702269e-02
-6.073720e-02
-7.355392e-02
-2.633260e-02
9.397052e-03
1.892755e-03
-2.282790e-02
1.808484e-02
-5.970579e-04
-4.246130e-03
-1.100482e-02
-5.856500e-03
2.291180e-02
-1.601050e-02
-3.619540e-03
2.912769e-03
1.087917e-02
1.165490e-02
2.622834e-02
-1.150206e-02
-1.387884e-02
1.891512e-03
7.393524e-08
6.558510e-08
2.514549e-07
4.243995e-08
-7.414656e-08
-8.857601e-08
-1.120457e-07
-1.410046e-07
-2.175234e-07
1.838459e-03
7.008111e-03
2.330784e-02
-9.259379e-03
-1.965012e-02
1.080764e-02
-1.741968e-02
-1.910467e-02
1.585335e-02
-5.914903e-04
-2.247277e-02
-1.454709e-02
1.224014e-02
-2.670879e-03
4.086130e-03
6.159851e-03
1.333624e-02
-2.858186e-03
-1.674471e-02
-4.709180e-03
-1.065207e-02
-3.728192e-02
-9.458590e-03
-7.971893e-03
-1.864222e-02
-2.682865e-02
-3.279125e-03
-4.902605e-03
-4.719339e-03
-4.615115e-03
1.130671e-02
2.132311e-02
-6.607334e-03
1.368389e-02
3.213117e-03
-3.218209e-02
3.737125e-03
1.314955e-02
1.760748e-02
8.329818e-04
-3.467202e-02
1.093078e-02
1.967280e-02
8.574100e-03
-5.576157e-04
7.593076e-03
1.304806e-02
-3.936578e-03
-8.783067e-03
3.508222e-03
7.709299e-04
-9.457989e-03
6.751792e-04
6.255316e-04
3.159822e-05
1.025597e-02
2.230238e-03
7.835752e-03
2.728017e-02
1.235867e-02
-5.511575e-03
-1.496309e-03
1.125795e-02
7.387663e-03
6.430535e-03
-4.138926e-03
-1.878052e-02
-1.691076e-02
-1.865103e-02
6.125635e-03
-1.292987e-02
-2.286768e-03
-4.950176e-06
-1.755148e-06
-1.211376e-06
-6.642058e-06
-2.962923e-06
-1.888954e-06
-4.317771e-06
-2.018175e-06
-8.006074e-07
-1.016073e-02
-9.185115e-04
-3.192005e-03
2.768647e-02
1.206856e-02
2.440779e-02
2.338204e-02
5.031663e-02
-8.522216e-03
-3.771383e-02
4.195921e-02
1.637345e-02
-6.174308e-02
3.457996e-02
5.673109e-02
-6.337715e-02
2.220728e-02
6.624421e-02
-8.596023e-03
-1.341246e-03
-1.193948e-02
1.168330e-04
-3.152573e-05
2.756201e-03
-5.092025e-03
1.985511e-03
4.381892e-03
-1.120108e-02
1.880488e-03
1.108509e-02
-1.842031e-02
-1.435844e-02
1.070757e-03
-4.187486e-03
-8.969638e-03
-6.315570e-03
-1.595779e-02
7.669698e-03
1.435827e-02
-2.295545e-02
1.492759e-02
-2.397393e-03
-1.477759e-02
3.462052e-03
4.709953e-03
2.023312e-03
1.367828e-02
9.532928e-03
-7.982690e-03
-1.301478e-02
1.582860e-02
-2.770502e-02
-2.988998e-02
-2.402647e-03
-1.689692e-08
-1.295715e-08
-4.648946e-08
-9.947386e-08
-1.148640e-07
-1.462394e-07
-1.140086e-07
-8.826542e-08
-8.660157e-08
-1.553014e-02
-1.731542e-02
-2.613975e-02
1.174418e-02
-1.197111e-02
-3.247966e-02
2.416466e-02
9.333882e-04
-2.906303e-02
4.662200e-02
-3.766412e-02
-5.841424e-02
8.471203e-02
-9.741738e-03
-1.029542e-01
9.049287e-02
5.667312e-02
-6.192349e-02
5.622642e-03
1.079569e-02
-9.840357e-05
1.962686e-02
2.612303e-02
8.479822e-03
1.348863e-02
2.609075e-02
1.048992e-02
1.991548e-02
-2.569903e-02
-6.921677e-03
3.167090e-02
-2.438687e-02
-2.184896e-02
2.401019e-02
-7.029300e-03
-2.311249e-02
-5.552466e-03
-1.136969e-02
-5.452240e-03
-6.037320e-03
-2.657010e-02
-3.714419e-03
9.270627e-03
9.178480e-03
2.751983e-03
3.343005e-02
1.053125e-02
-2.267976e-02
1.853743e-02
1.558135e-03
-3.049134e-02
1.118814e-02
1.813982e-02
-1.383056e-02
-7.192027e-04
1.745378e-02
-1.329420e-02
1.308227e-02
1.657801e-03
-3.423890e-02
2.062413e-02
-1.746326e-03
-9.347172e-03
1.123371e-02
-4.519816e-03
-3.938837e-03
1.515925e-02
6.566544e-03
-1.455616e-02
1.636361e-03
9.246063e-03
-2.544040e-02
-3.210271e-06
1.856163e-06
2.388510e-06
-4.384196e-06
5.556208e-07
2.352697e-07
-4.496501e-06
-4.584871e-07
-9.087956e-07
-1.005057e-02
1.202762e-02
1.360878e-02
1.879891e-02
-8.161823e-03
6.362321e-03
3.255913e-02
-2.589437e-03
9.364197e-03
-9.192420e-03
-3.156748e-03
9.012706e-03
-8.772740e-03
-8.114995e-03
-7.153169e-03
-1.330473e-02
-1.202466e-02
-2.016529e-03
8.806382e-03
7.506750e-03
-4.478094e-02
3.571023e-02
-3.768994e-02
-4.333907e-02
4.016431e-02
-4.420219e-02
-5.014463e-02
6.908304e-03
3.106639e-04
-1.188947e-03
7.749194e-03
5.984767e-03
-7.681767e-03
1.149589e-03
-2.085682e-03
-6.218985e-03
-4.212121e-02
8.404326e-03
3.181790e-02
-5.265313e-02
1.644065e-02
5.957066e-02
-6.466319e-02
1.703328e-02
5.422689e-02
1.493576e-02
-4.086658e-03
-4.410343e-03
7.949834e-03
6.638924e-03
-2.779592e-02
8.702775e-03
1.996580e-02
-2.145874e-02
-2.117685e-07
-1.435896e-07
-1.890177e-08
-7.038984e-08
-1.372892e-08
-8.377965e-08
-2.139230e-08
4.315223e-08
-9.695025e-08
-1.062810e-02
1.706614e-02
-9.505485e-03
5.024918e-03
1.320609e-02
-5.393768e-03
2.128174e-03
4.254797e-03
-2.363907e-03
-8.754631e-04
-5.347730e-03
-1.057555e-02
-1.343814e-02
9.550456e-03
-8.789894e-03
-4.061257e-03
2.062306e-02
7.845107e-04
-4.213960e-02
7.130573e-03
2.089758e-02
-7.859281e-02
4.701189e-03
4.362776e-02
-8.416239e-02
5.103299e-02
5.914689e-02
1.713226e-02
-1.018382e-02
-5.653363e-04
3.901740e-02
-3.946812e-02
-1.039852e-02
3.686391e-02
-6.497530e-02
-1.049421e-02
-9.602651e-03
1.345179e-02
6.680286e-03
-1.705223e-02
3.971628e-02
-2.395229e-02
-1.356082e-03
7.742487e-03
-2.557289e-02
1.472048e-03
2.694278e-03
-8.630083e-03
-3.427008e-03
4.175419e-03
-8.442565e-03
1.689120e-03
-3.471581e-03
-3.333756e-03
1.966593e-02
1.478265e-02
2.164302e-03
4.949217e-03
2.140438e-02
1.874769e-02
-1.493542e-02
-1.292588e-02
-1.274515e-03
6.790350e-04
-7.046741e-03
-2.400954e-02
5.273717e-02
3.063290e-02
2.739065e-02
3.907949e-02
8.831128e-03
-7.910844e-03
-2.475097e-06
-2.251677e-06
-2.440639e-06
-1.484158e-06
3.555868e-07
5.202079e-07
-1.738537e-06
-2.013200e-07
6.251236e-07
-2.300097e-03
1.769191e-02
9.059121e-04
6.380694e-03
1.116442e-02
1.049649e-02
-1.086116e-02
-1.558679e-02
-8.443232e-03
2.319739e-02
8.207613e-03
3.539308e-03
7.404623e-03
-7.804846e-03
-9.790714e-03
-4.007448e-02
-4.401921e-02
-2.682970e-02
-2.870898e-04
-9.633642e-03
-6.113505e-03
-2.049556e-02
8.285628e-03
3.441643e-03
8.479867e-03
-1.282796e-02
3.719107e-03
-3.057957e-03
-7.344060e-04
-1.104604e-02
-3.627475e-02
-3.748631e-02
-3.772511e-02
-8.954663e-03
1.908442e-02
7.849500e-03
-1.109269e-02
-1.259838e-02
1.113976e-02
-1.796048e-02
-2.779794e-02
-6.778025e-03
2.718330e-03
-5.184843e-03
-5.824299e-03
-1.190633e-02
-3.328191e-02
-1.670100e-02
-3.348905e-02
-1.996559e-02
8.682591e-03
7.440946e-03
2.045044e-02
4.382521e-02
2.839662e-08
1.478789e-07
9.213306e-08
-6.194764e-09
9.110525e-08
-1.385605e-08
-2.606036e-08
8.296753e-08
8.334789e-08
6.378550e-03
1.444379e-02
3.677398e-03
8.402477e-03
3.012176e-02
4.863909e-03
-4.317636e-03
2.761782e-03
-1.086958e-02
-3.917361e-02
-4.855923e-02
-7.551383e-03
-4.125978e-02
-3.074595e-02
-1.654838e-03
4.850866e-02
5.657902e-02
3.145133e-02
-5.178890e-03
2.033358e-02
2.347507e-02
2.015768e-02
1.253762e-02
1.486332e-02
-3.502179e-02
-1.492157e-02
-2.623146e-02
4.324820e-02
6.471940e-02
3.121001e-02
-1.732758e-02
-2.201739e-02
-1.844036e-02
-7.412884e-02
-6.786853e-02
-4.571523e-02
1.684837e-03
1.266839e-02
-2.096467e-04
-7.565128e-03
2.389848e-02
-1.788513e-02
-3.423577e-03
-2.342084e-02
-2.118621e-02
-9.266225e-03
-2.127512e-02
-3.236637e-03
-6.624223e-03
-5.233731e-03
1.636580e-03
1.259161e-02
1.334822e-02
-2.887808e-03
